114 127 119 -58 060 -42 -21 090 122 016 110 117 122 -52 049 -48 063 -126 116 110 096 031 091 071 126 105 123 -32 105 118 085 064 089 -105 078 -90 121 119 -103 112 115 096 126 030 123 090 105 104 083 -58 082 098 111 124 -65 124 007 122 116 005 118 081 -101 119 
120 125 106 088 078 -90 112 121 120 123 -61 -77 122 -05 -122 -118 089 120 124 033 041 -30 090 107 099 088 -65 -84 -06 122 120 -18 -18 009 114 125 008 114 098 123 -43 -108 126 120 -98 024 122 -58 121 087 123 120 044 -42 123 114 -121 082 -107 126 073 110 108 118 
114 005 011 007 122 105 122 126 121 093 -87 -70 024 112 120 121 122 -95 114 -60 -76 122 119 119 -107 -115 -113 095 -22 -124 -42 -113 -86 087 123 087 -49 -108 124 085 093 -113 073 -76 104 -33 -20 -105 093 037 109 120 111 121 014 -37 086 -47 124 -57 082 122 100 120 
-34 -119 116 -36 120 110 117 070 -56 053 113 121 090 -92 126 -121 085 006 115 -124 -54 -22 012 113 124 016 -120 027 122 119 124 124 120 112 086 -100 -65 118 120 125 090 -45 -82 -32 108 -97 107 067 -91 113 -85 -26 -50 122 108 -109 123 -74 -127 116 -87 099 -66 123 
