029 110 126 126 126 -128 126 126 120 101 126 -128 100 123 100 -128 120 -102 122 125 126 030 091 126 -11 126 106 126 021 018 126 123 126 126 078 117 -128 126 126 102 123 111 126 -98 122 087 111 -79 127 -56 126 126 -102 126 -79 111 063 079 126 126 097 123 126 126 
126 006 -73 123 103 -111 -93 -60 126 126 -37 126 -114 114 -29 120 126 126 -70 -128 116 -123 -88 126 -120 -100 126 095 -105 126 084 126 126 089 -122 006 126 -112 126 -89 123 126 -88 -127 -126 100 -122 021 105 126 125 126 071 125 126 126 126 -39 -107 123 126 -128 126 120 
-33 126 -128 -128 125 123 -48 126 116 124 123 126 115 -68 -61 126 109 126 124 123 126 126 -84 126 124 126 124 -54 084 -37 126 -120 -124 097 126 126 124 126 -52 126 111 115 -03 059 -33 126 008 -128 -127 -117 126 097 126 122 126 091 -53 126 126 126 -127 126 -57 126 
126 -109 119 -128 073 126 116 -118 -21 126 126 -113 -126 113 126 -70 -32 -59 126 -08 126 126 011 123 070 101 126 126 104 122 030 126 065 123 -45 126 116 -128 026 -124 -124 126 -128 -35 -14 118 118 126 029 121 -61 108 013 -127 -03 -97 115 126 126 -123 126 098 126 125 
