126 126 -128 123 -128 119 126 126 126 126 110 126 126 -125 126 -123 -119 126 -128 126 031 -125 126 126 -15 126 -128 -17 126 -128 -128 126 126 126 126 126 125 126 126 -50 120 126 124 126 -128 126 -128 -128 -86 126 126 126 126 126 126 126 126 126 126 073 126 -128 -128 125 
126 126 -128 -126 -89 -128 118 126 126 120 126 -126 126 -128 -106 126 -82 124 126 126 126 126 126 -124 117 126 126 126 126 -30 -127 -128 -128 126 126 -112 117 -127 126 120 -122 -126 126 126 126 125 -71 126 -128 006 -119 126 -128 126 -127 -128 -128 -128 126 127 126 126 -128 -108 
-116 095 126 -128 -115 -128 126 126 -128 -128 126 -128 126 -128 125 123 -128 -128 127 126 -85 126 126 -128 126 122 -128 122 126 -93 113 -128 126 126 -128 126 -128 126 126 126 -128 -127 126 -126 049 -67 126 -128 -128 126 -128 -120 -116 -118 -121 -128 -89 126 -128 -128 -111 126 126 126 
126 126 -128 126 -91 -128 126 -128 126 -122 121 126 -125 -128 -88 126 075 114 126 126 126 -96 126 126 126 126 -128 126 126 123 126 -127 -124 126 119 126 -117 126 126 126 -128 -128 078 089 123 -127 126 -128 126 -128 126 126 126 -128 126 -128 126 -125 126 126 126 -128 -25 126 
