126 -40 -68 056 099 -123 -123 -125 011 -62 -44 -42 030 -67 098 061 031 -34 126 046 004 -26 -83 049 -92 126 -36 -46 024 -89 099 089 043 051 081 020 019 069 091 001 -44 -109 121 018 -65 073 -44 -120 -54 023 029 080 104 -28 -60 -80 -01 107 -114 112 -124 -19 -33 069 
-50 047 055 052 -60 120 -102 105 077 093 091 -49 035 -49 -106 062 -02 -79 118 079 042 -49 -108 -46 -95 125 044 052 083 093 -61 -05 042 025 -01 028 -76 -65 026 -82 064 000 -125 -65 -29 -45 -46 116 -77 -17 060 -38 -126 -01 -45 -121 008 -44 -126 -91 101 081 -15 -109 
005 -57 -06 -82 052 072 -108 -04 -19 065 -77 009 038 038 032 -36 -25 045 123 -65 -54 054 -57 -65 090 126 015 -76 031 058 006 026 -01 -49 067 -29 088 055 -41 -09 069 036 -125 007 073 034 -07 096 100 -16 -94 002 126 080 062 035 -10 078 -127 015 123 -66 -95 086 
119 014 041 083 -65 083 122 -65 015 -45 109 028 039 -62 009 -24 -10 -46 017 075 -62 -69 036 073 056 -128 052 078 015 086 070 -11 -08 -79 -10 065 -50 -67 -72 077 -22 083 -115 007 -68 -75 -39 036 045 004 092 -78 043 086 -85 -128 -66 -67 -102 -42 -106 -63 -99 029 
-127 -72 034 059 -25 121 -15 -98 108 -95 106 -110 -05 008 085 022 -51 -50 125 -87 -39 014 105 081 -66 100 -52 070 013 -90 -30 027 -03 -39 -84 044 076 -06 -21 083 024 -105 -125 006 -01 052 043 -62 -74 063 053 -49 115 -23 -53 125 -16 -105 104 -83 115 -63 101 108 
-113 -68 -73 -51 -13 -124 -124 -97 -115 -15 -92 018 015 -19 072 058 -40 -81 -103 -91 072 003 -101 -78 100 -128 -54 -20 027 064 -09 -54 -52 033 -40 044 -88 050 022 -106 061 107 110 -39 -29 -14 036 -104 -61 -82 054 046 124 -95 -110 126 051 -72 123 -97 -79 013 099 083 
-84 057 -02 047 -81 114 109 -123 095 103 110 109 016 -74 104 -46 -67 -63 -99 -47 -33 007 -118 -74 120 -128 -73 004 077 -35 -40 030 -35 -41 014 034 -28 026 -96 056 065 086 -18 -43 -61 -85 068 073 -90 -07 -102 -39 126 038 -88 085 069 028 -78 113 124 025 -100 -103 
104 -16 097 037 -65 -93 -122 023 -18 088 -63 -110 033 -10 -110 045 042 -73 -59 -15 -24 -49 -128 074 -124 -70 029 054 079 -48 -53 009 037 003 -14 032 064 -02 -27 -97 -53 -80 056 024 049 064 -05 113 054 070 094 011 -114 067 034 059 053 -90 -85 089 091 -75 047 054 
-06 -42 076 090 -63 059 -103 119 094 105 094 079 027 -32 064 -32 -13 041 126 -37 053 061 -113 -62 053 -125 049 067 023 -101 -56 028 046 013 -04 082 -71 067 -83 076 -87 091 -125 023 -45 -23 -42 -119 108 061 -37 -24 -93 043 084 125 -21 -107 -124 056 -68 -82 -52 044 
117 -28 -58 -58 -75 -91 -127 071 -114 001 011 -108 031 030 100 -45 061 055 017 044 -07 074 -126 -74 -125 -114 048 -36 034 -79 -79 -61 003 067 -12 064 057 065 083 -34 003 018 019 -52 043 -34 -41 089 104 -23 096 037 -112 083 094 126 046 034 013 -97 -82 -16 -95 -07 
032 049 070 086 087 044 004 040 082 010 095 062 -22 073 030 014 -69 -56 -126 -47 002 -72 126 -65 -23 -125 -11 -67 -77 096 -89 034 -27 061 049 -59 -40 013 071 -80 -71 015 122 -34 -19 056 054 080 -33 -77 -33 084 -128 077 108 126 068 -97 -45 -116 096 013 022 068 
-113 -57 -53 -115 -69 -110 092 093 -77 104 -54 109 -49 068 092 023 083 -55 070 -35 -44 076 -117 027 123 126 -65 020 -79 -105 090 077 -60 -72 065 080 034 -23 -10 -68 -56 -46 -116 -35 -66 -53 058 074 -72 028 060 -32 -126 -86 -94 -95 052 -70 122 -72 -122 025 -89 -76 
-123 -56 090 058 003 -113 -117 -126 -94 -109 055 071 -36 067 068 036 -51 -65 -128 086 044 069 -81 026 -103 -72 001 072 081 -97 076 006 -01 029 079 -56 -26 -26 069 -69 084 -110 -118 -19 031 -02 -03 105 -66 -26 -98 073 123 -87 -101 -74 076 -22 -98 022 097 -30 -59 037 
062 004 -41 -56 -87 -116 -21 058 -93 -111 090 -99 046 -22 021 021 066 049 119 -11 -30 025 -79 -37 125 -128 068 050 -51 020 089 -26 -52 000 022 049 -84 -42 -98 -85 046 -38 126 013 -04 -28 026 122 059 072 -27 -12 -128 -13 -109 126 -15 -21 092 -59 -103 045 -66 089 
107 -44 -89 026 033 -102 -104 -112 -54 -103 -91 111 -15 -30 -110 055 -22 055 -89 081 071 -43 126 029 -90 111 037 013 071 -106 -01 087 -68 003 077 006 040 010 -103 -64 -21 024 049 -65 -10 098 -03 048 -16 -70 017 -02 -90 -21 110 -100 035 -33 126 -91 124 025 -102 113 
-70 039 -93 090 -10 118 010 093 073 -102 094 -69 -01 -11 010 -16 -58 -72 126 024 061 071 070 082 080 126 010 030 -49 036 -43 -74 016 -05 007 071 012 -28 075 073 -75 047 -77 036 -83 068 039 030 -08 -44 -47 004 -106 -96 085 121 -65 102 -127 -105 122 082 025 076 
119 -66 -85 021 -31 -94 -122 049 035 019 002 -91 -38 -62 -96 -14 -10 064 -128 062 001 003 -128 023 -122 104 -66 -50 068 -86 -03 -38 -48 -66 068 064 -11 040 100 -99 -50 088 117 -07 -75 -89 043 052 034 072 -51 042 -96 -92 047 -127 -44 -21 -105 -104 117 019 055 -104 
126 092 078 031 -10 123 -126 -120 -77 -94 079 008 019 014 -85 002 -10 023 -128 -34 062 081 -124 096 -93 -114 -23 047 078 -108 -25 -37 -45 066 -31 044 085 -10 072 -86 -41 -89 120 -31 066 086 -52 -85 098 -41 -57 064 -114 060 -70 -124 -05 -19 -126 -50 -111 -49 096 122 
-108 -11 022 072 087 121 -09 088 063 -31 -102 085 006 -16 077 022 063 -36 -114 -01 -42 -43 125 -59 016 -69 058 067 -56 -15 071 073 -49 -63 -79 048 -74 070 -20 011 -51 -69 -106 061 -86 -10 017 088 104 -07 074 -55 -116 -50 -45 -23 -21 104 -25 075 -113 -14 -72 029 
123 -03 075 -28 021 -108 032 003 046 066 050 -71 -25 029 -102 022 063 -24 -74 080 044 052 117 -34 101 -127 028 076 073 -109 057 048 008 -84 -82 -78 085 022 094 086 008 104 083 -67 -76 -77 060 122 099 003 -08 -78 -88 -95 096 -107 -20 022 006 -109 121 090 082 026 
-120 079 083 -59 -85 -125 103 026 -49 -48 -39 -95 -04 -54 -50 -17 -68 -59 088 -18 -14 056 119 -60 -107 -112 -02 -38 -10 070 -14 064 -10 001 -69 044 089 017 -104 -47 006 096 124 055 -83 -48 011 114 101 010 -90 057 098 019 -104 -115 -06 -92 117 106 -127 -64 -61 -28 
-66 107 -56 063 040 -109 -09 120 -43 069 106 -107 020 075 088 003 089 -36 -92 -47 063 -37 -123 -26 111 122 -10 043 078 -111 -19 057 050 077 054 -91 -57 003 -57 -82 -67 079 -116 -03 -73 040 -86 -91 -104 079 -91 -51 121 -89 100 126 060 065 -124 118 116 004 -101 121 
-117 086 -42 015 004 121 -98 117 072 005 -82 044 000 091 -93 061 081 004 126 -11 018 -22 -110 061 -119 -103 -16 -55 088 108 -14 020 -55 024 -44 -51 -32 -46 098 -76 -30 089 102 -36 -76 -77 051 -86 -78 010 -94 -39 126 015 099 -107 073 -95 -111 -74 -121 018 089 117 
116 000 053 094 003 -100 -124 046 -109 -09 -110 103 -03 092 077 032 041 015 099 -23 069 -68 -51 086 115 -128 -33 028 087 -15 061 -48 003 -76 -57 -18 -64 -66 -98 -90 075 048 062 -19 025 -55 056 114 -90 019 -34 005 101 -72 087 -71 011 -81 125 111 -113 -68 041 097 
-53 -60 106 075 049 093 -103 113 -107 060 -16 -54 035 068 041 -27 -67 -37 -123 075 066 073 120 047 -122 -60 021 -58 082 029 092 -59 017 010 091 -05 020 071 -90 -22 082 088 -112 028 -10 -84 050 -19 085 064 -107 -51 -127 084 -98 072 -36 -51 008 -96 -72 006 -57 089 
-120 -78 -93 -84 091 -109 124 -22 105 -34 079 077 -25 056 107 043 049 -70 071 066 021 -76 084 059 119 -121 -69 -02 024 -106 059 064 044 -86 -90 -73 -70 064 -62 083 019 -99 -46 059 -64 026 -62 093 -93 -05 -71 074 -127 000 -107 126 071 -37 070 -25 -125 000 -01 109 
-117 080 -62 087 050 123 -107 116 084 085 091 -05 -10 -52 095 -50 007 077 -123 094 082 -52 126 055 125 123 055 032 -53 066 -71 -44 045 -01 -40 053 086 -47 -41 107 -85 087 126 006 080 018 -69 -40 -104 -06 -108 -73 125 -55 074 -109 031 -18 121 -10 123 061 -29 057 
-108 043 040 -49 -107 124 -125 120 -52 -88 095 109 033 -27 -112 -49 029 -30 109 -53 071 079 101 -37 -57 -94 -67 016 -12 092 -35 081 -31 -13 077 -16 042 065 -18 -60 -80 078 125 -63 -28 021 -85 -121 065 021 -74 -75 121 047 089 -127 046 079 -98 102 069 046 -91 119 
-35 -26 056 -44 007 -66 095 124 -104 088 041 081 -14 013 067 -30 -21 067 100 -17 -24 072 123 006 -116 126 038 -78 -67 -81 051 -38 -24 042 063 028 -17 -21 -96 -77 055 108 -82 -30 033 -49 011 -73 -29 -21 -46 054 -91 -61 024 -127 007 073 -61 -06 -105 -08 -104 -103 
094 013 089 -94 050 -85 104 -03 063 079 085 -39 -15 021 -20 001 -54 026 069 -49 005 -34 -123 061 061 -71 051 -74 021 021 -51 -83 004 046 005 012 093 054 -79 -46 037 085 -125 -61 -79 013 088 -124 099 009 050 048 117 -01 -31 -24 041 020 075 -99 -71 021 063 018 
098 014 -16 -18 -96 -126 120 039 008 085 049 -98 009 012 041 010 073 -61 120 -43 -67 -79 -128 065 123 098 -69 008 069 094 -63 -35 -02 -68 024 -20 033 069 -103 -74 -05 -76 -111 054 -11 052 -78 121 006 -78 -08 079 125 -91 -80 113 -61 049 -127 115 -79 081 -76 064 
-45 085 -78 029 047 -124 -102 -93 093 -84 086 057 010 -47 062 024 076 -22 -124 058 066 043 126 067 125 126 -18 -58 -42 -103 -40 -37 -44 -17 037 -69 -45 -57 012 025 -49 -91 122 032 -14 100 006 081 103 -76 -84 004 -125 011 073 -112 076 -97 -81 -74 -111 056 073 012 
125 016 -81 -61 -80 087 126 113 063 109 -80 -82 015 -72 -100 -41 073 059 068 090 -04 027 -128 034 -91 -103 020 025 074 -80 -45 054 020 -25 071 018 -47 067 -02 -58 019 -78 -106 -47 -24 094 038 -75 037 007 -102 -14 120 -25 105 -86 -02 065 123 -71 -125 027 065 -41 
-48 047 093 088 082 120 -20 123 004 031 049 029 028 -19 -37 038 039 007 -126 -04 -06 -20 -128 -04 -123 -128 -01 044 082 014 -75 -75 -24 -13 -52 058 -16 041 -14 -13 081 -105 -127 047 022 -69 023 -08 -29 -42 090 009 -60 079 -92 -126 003 089 068 -99 -127 058 046 -90 
-107 -65 -65 -87 062 120 039 -120 -110 060 -86 066 030 007 -87 -11 059 048 -128 -56 049 -35 126 074 098 126 -53 -09 -35 -83 -90 -71 -55 004 075 -68 -94 -48 -07 -53 036 011 -127 019 059 -15 075 104 -41 -50 -96 013 121 088 -108 -56 -53 094 -95 -69 118 031 019 -106 
-21 -52 -31 031 029 124 123 -126 -91 022 091 -50 021 010 -09 036 056 -50 004 -39 035 068 -127 -68 -59 -111 -12 072 041 -88 082 076 005 -09 034 044 -73 026 -35 -82 -51 047 -126 -58 -86 -57 -91 120 -45 023 -104 -28 120 079 -111 049 046 -100 120 061 125 -63 -86 -114 
-62 100 -49 049 -36 -121 125 115 085 006 -111 -95 016 021 080 -18 -53 -60 -126 060 081 -34 116 -06 118 -115 -61 084 088 -110 058 087 -08 011 078 -66 031 -70 -05 073 -85 092 124 -72 071 101 044 -74 107 016 -24 -51 -97 -28 068 126 -69 001 061 055 102 057 045 -95 
001 059 -49 091 -28 023 125 059 -71 006 081 -49 017 077 -67 -40 042 -68 123 -45 030 -55 126 -24 -125 112 -16 -39 -63 -41 -49 -72 -50 -62 -42 067 -82 -08 -83 080 -53 032 -114 030 -16 -23 057 047 -53 -55 089 064 -62 088 -27 114 042 -99 -117 -94 117 -43 093 -78 
123 -24 075 065 -20 -115 -113 113 -59 056 101 014 042 051 074 -48 -57 -13 116 -21 -01 013 126 003 -98 126 -45 -51 -70 106 -76 061 045 -41 096 008 -56 -64 094 073 -88 -52 110 054 -61 -48 034 092 -101 034 -06 -01 122 038 101 -91 -42 067 -124 116 117 013 061 013 
-95 087 057 064 -97 077 -125 123 -71 045 091 -98 014 021 -88 046 -41 -45 -128 028 087 043 125 011 097 116 004 -08 -83 056 091 015 036 -18 -88 -78 015 020 055 101 -12 071 110 -63 028 031 083 -94 -60 -80 -30 -01 -128 089 065 126 015 -56 122 093 -115 050 -97 112 
-122 -42 070 084 087 102 -119 -104 -18 -69 094 060 052 -19 -101 015 -30 081 -115 059 080 -34 -19 059 120 -126 056 080 021 -36 051 082 -34 047 -52 -88 089 -55 -56 -96 -91 104 112 -41 056 -60 -92 124 100 -59 106 028 126 093 076 -126 035 018 073 -82 -84 -18 -28 068 
-33 -12 -55 -99 086 -18 -122 -98 -89 -68 045 -74 000 001 061 020 -72 011 088 081 -37 -41 126 086 032 -128 064 -49 026 031 -52 058 013 037 -27 002 -92 -38 073 -12 -86 -67 101 055 064 053 -68 -25 -31 074 000 078 091 -23 -91 123 051 -65 -78 -44 074 -15 -88 101 
-69 -44 075 013 -18 -102 -69 120 -88 048 -70 -01 015 052 077 -17 075 075 -128 -29 -29 -20 -114 -44 -117 124 014 -72 005 110 -22 -29 -37 -69 096 -94 -58 -44 -17 -80 079 -104 126 -26 -72 -63 -34 -84 -91 -36 000 -10 124 -61 099 126 024 -16 -117 -106 -109 046 -66 -85 
120 034 -01 066 066 -125 125 -123 -77 -64 098 018 026 069 -76 011 -50 076 126 -61 -28 -80 109 -65 063 113 -06 -49 -49 098 033 -10 -15 -35 090 069 -83 -69 -100 058 012 109 107 -38 -64 014 027 -121 -94 -68 086 -59 010 083 108 076 062 -85 -122 079 125 -61 -39 117 
-72 060 -47 -67 -39 075 -123 100 068 -102 -92 098 035 -43 -101 -39 -18 043 126 061 037 -37 124 -02 -84 -05 -27 -24 061 062 067 054 -13 -37 -63 053 088 -59 -21 -01 061 105 -118 -34 074 -59 -77 113 -89 -79 067 -73 118 -88 -113 -107 064 022 -127 070 -115 -41 096 117 
-95 064 -37 048 024 125 -84 119 103 105 107 -74 057 -36 -102 022 -19 061 -113 095 003 086 -128 -05 -99 -107 047 -51 -07 -76 -47 -49 -58 -70 066 -91 055 -30 -96 104 -39 107 124 -74 -52 078 -91 -71 -76 -38 -50 -24 -114 059 -69 -85 030 070 118 104 -123 028 -79 -83 
-124 -64 053 072 063 102 124 117 038 -90 091 105 014 044 028 003 -08 -56 126 -81 -39 078 -110 -52 092 -119 -63 039 -70 002 -67 -69 024 -65 -66 -60 -34 -48 023 080 071 070 -120 -36 -22 012 000 -52 -95 -44 083 -02 119 -85 092 126 052 103 119 -113 -108 068 040 -90 
099 -71 -97 041 007 117 -120 118 -57 -107 096 -07 -32 070 -108 -04 048 083 122 043 072 055 -114 060 -120 117 050 056 -74 094 -82 035 -12 022 081 073 -82 070 083 -53 065 -113 -98 068 038 011 -03 121 -99 -66 036 -64 117 011 -35 008 001 092 000 053 003 053 016 117 
124 028 010 093 -23 -107 -126 -91 -20 106 -111 068 -48 021 -75 004 039 072 019 -50 -31 -48 -106 023 -117 124 -35 -36 002 -70 -08 -64 043 -73 041 -28 -65 -42 -63 -50 -83 054 -123 048 -62 -47 058 -114 007 -28 052 052 092 -74 -54 -91 064 032 -124 101 106 034 098 -115 
125 -41 085 -75 -101 -119 -127 -122 -46 -95 105 -99 043 091 -100 000 -33 -78 124 058 061 -02 -126 066 -110 -110 -49 008 -44 099 013 029 -34 -81 003 -76 011 -59 094 114 014 071 -58 051 -85 046 003 095 103 -41 -44 033 124 -60 -86 126 -40 055 -125 -73 109 002 051 -75 
-89 073 090 092 -64 -124 125 120 -116 -11 092 -58 -30 -37 105 021 -25 -63 -128 063 -48 035 -74 -43 086 121 000 056 -43 -51 -24 078 043 -30 -95 088 001 -55 -45 -69 076 076 104 050 -30 -89 -28 -125 111 -13 -105 020 124 -92 011 118 003 -84 105 116 123 084 -104 077 
125 006 022 -83 004 -125 -110 116 -96 -108 103 050 -35 -40 -89 022 037 069 -65 -40 -79 -76 126 -21 -73 124 -11 -48 -64 -101 -07 -25 018 036 057 -53 -50 072 103 -94 087 -28 112 051 072 086 029 -51 -67 066 030 -06 -128 -71 077 -123 -76 073 083 016 101 -36 -23 032 
106 -16 089 -95 092 -119 000 088 -93 028 -81 095 035 029 058 -48 064 -16 124 068 -69 062 125 077 -65 -128 061 079 -24 -15 -57 083 -34 -84 087 070 -74 -12 018 -68 061 -114 -103 -52 -81 -76 -76 124 -73 074 017 -74 -124 083 092 -87 072 -25 072 -78 109 075 -26 -57 
-52 -05 038 003 -84 -93 -79 041 -101 -37 -96 -102 028 -42 095 050 077 -71 -128 066 -34 079 126 -60 -121 -50 -22 006 005 -37 -27 -22 014 059 -39 -16 031 061 -95 -35 -17 -79 126 038 064 -59 020 -114 042 024 067 019 126 -89 -95 -85 060 -89 -101 -56 123 -66 -06 106 
124 -38 099 -101 -36 123 125 -121 085 -61 -77 108 055 -57 068 041 086 039 123 -55 059 -13 -96 012 -95 -113 -11 021 071 007 004 093 -10 030 047 -70 -95 -69 -107 -55 -04 -119 124 -26 -26 043 014 -89 -79 -32 -82 -09 -43 048 028 126 075 096 -108 117 -114 061 089 -59 
-109 014 062 082 -94 -45 -122 104 -74 -106 116 097 -31 -16 092 011 072 -65 -128 078 077 070 126 080 082 126 -11 -50 -56 -19 080 009 010 070 065 -92 -85 018 -88 070 -14 070 -120 -39 024 -88 -88 -67 095 069 -75 -48 031 028 095 109 -50 -69 -103 -84 107 068 064 092 
-46 -63 -09 -112 065 -121 125 -118 040 103 -73 075 038 081 083 036 068 -62 -122 057 -78 050 -125 -68 121 -105 000 -23 088 -91 035 -33 -47 -63 -29 015 -62 -79 -04 -62 021 -107 058 -02 -35 093 -93 018 104 -68 -91 028 -04 -73 -48 -38 -32 -109 119 120 -112 077 -85 079 
-120 094 022 046 -47 101 -84 -79 -57 -101 103 040 049 008 058 032 055 -55 123 -21 055 075 -128 096 -116 123 -13 074 078 010 056 -29 -69 -56 -82 073 042 -61 -52 -84 -32 -51 126 -53 -58 -23 075 124 -80 -80 -109 072 126 -89 099 -93 -26 -76 -19 -77 079 -76 015 106 
-127 010 -56 -98 -19 -119 -80 -85 060 -104 -19 069 -51 078 -109 -54 035 058 -45 021 002 021 126 062 -125 126 051 -32 060 037 -24 -65 050 057 084 -21 -20 -03 -91 -102 -06 089 119 036 -59 079 007 096 020 064 -69 073 -127 -15 070 -121 076 -69 125 -45 088 062 059 048 
-112 -60 038 -90 -33 -124 108 -126 087 -31 -107 075 -40 066 -110 044 024 070 -102 -82 022 -73 067 -54 -100 -125 -64 074 -05 034 078 -57 007 083 -76 -32 092 -39 -100 -82 -56 028 013 -50 -19 036 065 119 -52 -82 -110 -70 -114 -97 074 -92 -12 -77 102 037 -119 -11 -11 -47 
-80 -32 071 074 -63 123 -113 100 110 061 104 063 -29 -62 013 023 -60 -43 103 -80 -45 -35 -80 036 089 125 070 -13 028 -104 041 -60 -40 -38 075 069 -20 023 -73 059 -76 077 -126 -48 -84 084 009 -123 -101 -71 -83 -42 125 088 020 126 010 -18 -126 -77 -102 075 001 -57 
055 034 -66 -91 096 -125 -127 -125 -110 -70 059 098 -17 -16 -107 058 -33 -43 -22 025 -76 -21 -108 -35 -73 -96 061 -29 055 089 -73 018 -42 080 -80 -30 088 038 -101 003 -57 -96 004 -47 -35 001 060 094 081 -80 -19 057 -121 -74 -113 118 040 040 -127 -98 111 -84 -68 084 
-83 -27 -09 -94 024 117 -19 -120 053 -59 -92 093 051 058 079 -08 045 -72 125 074 005 045 -127 -08 125 -115 -27 069 -12 036 -56 018 -42 -86 -40 -71 -57 002 -30 059 -71 -06 -100 -64 041 027 -59 115 007 -55 045 -31 -125 067 -65 -63 -44 -81 -74 -63 -110 058 086 -95 
-113 -33 -42 050 -100 -109 -82 -92 074 108 -106 063 -44 014 071 016 066 070 -61 -07 -11 049 -128 -64 -81 -117 -04 076 -28 013 095 -33 -30 -83 069 -03 -71 040 077 -42 -68 107 080 020 -49 -16 085 -102 -96 -60 079 028 -128 -35 -95 -100 077 -98 -117 113 -106 072 -99 -107 
-111 020 -52 -72 096 122 -54 -94 -114 001 -104 094 -46 013 -94 -24 -16 -10 125 076 -38 -76 -128 076 039 126 -68 034 -35 102 -25 081 -24 064 -61 -16 -09 040 091 -67 028 -80 -66 001 071 084 079 -90 004 -20 -84 036 -90 -72 -12 031 -22 -76 -126 103 -108 084 053 -119 
-51 015 022 002 014 -45 -08 -117 091 102 067 086 027 080 067 -02 -43 055 -83 053 061 -24 119 073 -113 -128 -45 056 035 -108 -86 -28 -26 071 003 -45 006 -53 -58 047 -06 082 125 018 -61 039 075 098 -72 -40 -89 074 125 -31 -50 125 -61 097 -53 -70 124 071 -46 115 
-49 -28 011 -56 058 106 -118 -108 095 -97 094 015 -52 061 106 013 -25 073 108 -75 047 -77 125 -59 -17 126 004 048 -04 007 079 -08 -53 -69 -76 -86 064 -16 102 -12 -83 -80 -39 064 047 066 -62 122 075 -61 063 -81 080 -18 073 124 020 -04 -125 068 114 053 -51 098 
-06 078 087 027 -03 078 113 -68 060 -25 -43 102 -47 -56 053 041 073 -05 -128 073 -13 -23 -127 -70 -123 124 056 -60 -16 011 -88 062 -52 054 -91 -26 072 069 -17 -04 070 -111 120 050 010 -90 -75 101 -50 082 -98 -85 -08 038 011 -80 -58 002 -102 -103 124 -57 040 076 
-67 063 -38 -87 -02 055 -46 -63 023 018 -64 -75 -39 -18 090 029 -29 065 -127 036 076 028 -125 071 -114 113 -29 017 082 096 -05 -24 033 073 014 -82 -17 070 087 -36 038 069 -71 -61 082 023 027 -116 -20 075 -59 059 -117 -59 110 125 071 -87 089 -11 -127 020 -73 000 
-117 -64 029 -82 059 116 -16 -55 -68 051 104 -95 046 -61 -80 -35 -15 -13 082 077 -29 -37 -95 -64 061 117 -19 002 072 -104 028 -61 004 -57 -53 -18 -49 -65 -102 095 -19 -69 024 -34 083 -56 -69 087 103 068 076 -78 -78 066 027 126 074 053 030 077 092 -44 026 005 
122 033 -87 076 031 103 118 113 -20 -33 117 -34 049 -66 037 015 -03 -44 118 -73 054 -62 126 056 029 124 -30 -22 034 005 008 -29 018 025 011 028 055 000 -55 016 -18 -92 111 010 082 092 017 108 103 034 -64 074 126 -15 -46 126 052 043 -11 008 124 -26 064 121 
-118 -52 -87 081 038 -124 -110 070 -52 -72 034 -104 006 -46 040 -50 038 -07 -66 -56 079 -10 -127 077 -119 -124 -63 010 -40 -05 -80 -78 050 -11 -63 075 -67 010 -99 031 087 -42 -118 -20 000 -84 023 069 057 -69 070 -80 123 -67 034 126 034 067 -112 080 -113 040 -64 -51 
-76 043 026 -79 -104 006 -113 112 -78 -110 085 -57 027 -74 -95 -02 068 080 104 -83 072 -14 047 003 -99 118 004 -35 031 079 069 038 035 015 -09 001 -50 033 -105 -84 -08 047 116 -45 -07 -29 -85 101 -43 -79 072 073 -126 091 097 -126 -12 084 122 107 113 -68 045 -72 
-113 060 088 080 033 -125 041 113 -67 -99 085 102 018 078 008 -27 -35 059 -127 036 037 029 -126 028 115 126 -63 063 -19 088 -39 -66 -04 -19 -69 088 -53 073 -96 027 073 091 -126 002 077 -25 -63 024 -45 -47 -74 056 125 -50 -64 -124 -44 024 -124 108 -60 005 -102 052 
-126 -80 032 -02 077 073 -03 -119 -51 -06 066 010 026 021 046 055 018 -80 -121 -42 -31 -59 125 -68 120 -128 -59 -78 061 -40 082 047 -46 079 -70 -57 028 015 080 -40 -19 047 -126 -03 081 -33 073 122 088 -41 008 -74 -103 -83 078 022 -28 043 -78 116 -110 -72 097 014 
-98 004 -82 094 -20 084 121 125 -28 -60 087 019 -15 -02 064 -47 -65 016 -127 007 060 008 -09 -13 125 106 041 -51 083 057 -06 -26 042 067 -94 084 049 065 008 108 -56 084 125 057 -31 051 -10 -111 049 071 -81 042 043 081 012 125 052 012 125 117 121 024 -20 -84 
-97 014 047 -96 -103 -125 121 -124 -77 012 078 093 -35 -39 096 -14 -60 -20 124 071 -67 -60 -126 071 -88 -128 -38 054 009 -95 060 -41 046 -83 -77 -55 -09 -32 007 106 008 -83 -113 -37 -63 -76 -60 -90 -18 -19 -91 028 -110 -61 012 -127 -29 100 104 059 115 -83 033 -48 
066 029 050 047 003 -21 -123 112 094 -42 -17 102 -19 042 057 033 004 -37 -125 -63 -69 078 125 075 -50 -128 -09 -66 -74 084 014 034 -45 060 078 -71 -56 -58 -90 -106 -73 -111 -121 050 040 024 081 -119 017 -20 067 063 087 -58 -45 -48 025 -55 102 105 -126 021 101 -111 
-114 068 -86 -72 -03 085 -101 -124 006 -108 062 -82 -02 050 088 -63 015 030 039 -90 -46 028 126 014 -32 -120 -10 -11 054 -108 -24 058 -25 079 078 047 041 -21 027 -103 067 -102 -124 -57 -12 004 050 -125 -57 -80 029 -66 -119 -27 101 123 074 -45 125 113 -120 064 -104 -106 
125 075 -34 -61 -39 120 -81 069 -96 103 -66 -55 -22 -06 061 046 -56 006 126 -40 056 -76 -91 -81 -114 -125 031 045 -71 -111 -71 -57 -51 -24 055 -42 -03 -71 -28 -67 050 -113 056 019 081 081 058 -112 -66 053 028 -03 -87 085 047 -118 -69 095 120 011 -59 080 -21 -116 
120 -26 083 -43 081 121 085 -117 015 039 062 049 014 036 098 004 032 063 126 076 013 062 114 015 -121 123 -49 026 042 046 -32 045 -40 -62 -33 081 -56 068 -06 -77 -09 -32 118 044 -11 -89 -51 -123 -62 -84 -70 -53 119 -63 004 076 064 102 -25 116 -125 058 -92 045 
111 -19 007 053 -38 015 037 117 063 -91 024 095 052 -69 -91 012 -48 082 081 -12 011 067 -127 -36 -80 123 -65 057 -49 -54 -45 -67 041 021 014 072 -22 -68 -96 105 082 -49 -10 -23 -39 -88 022 088 -24 -76 -107 -68 002 033 -94 -123 044 -91 -126 -79 123 -74 -18 -83 
124 014 067 100 -57 -121 063 -50 098 089 -61 078 012 069 089 -27 010 061 -114 019 003 -59 -66 -20 -111 058 -38 051 -68 053 -15 -79 035 -56 -73 -35 013 -07 100 012 055 063 006 -69 039 049 -71 075 013 -54 -02 -79 121 -24 047 -119 021 -102 -117 006 120 -58 -22 -46 
-115 052 071 057 082 107 125 -107 -106 -101 070 -81 -50 -53 040 -49 -03 -37 -127 054 078 025 -95 063 -113 126 050 -88 -05 -112 001 -21 047 -69 -47 079 047 048 -53 109 051 082 111 068 063 018 -33 -103 -102 -84 -88 -66 -123 004 091 121 056 -81 126 -41 103 084 094 116 
-20 021 101 060 -23 -87 018 111 020 -36 058 -17 004 069 -65 -07 079 056 -55 -33 058 020 -128 -28 107 -122 -52 065 089 -81 021 085 007 085 043 022 -06 -69 -27 012 -05 053 -98 010 -57 -63 000 -122 -30 -12 -18 -41 -107 -37 116 -104 042 000 -124 -74 -70 -65 -45 118 
-119 -51 -55 074 045 091 114 122 -86 -02 026 080 043 -22 -84 030 -45 -35 -118 059 049 -19 126 028 -96 -125 -27 072 090 -100 101 -06 -58 -39 077 -05 -88 -68 -52 099 -52 102 109 -05 -21 049 -94 -105 090 -52 100 -44 -127 -02 -94 118 064 -108 -112 -78 -105 075 -97 032 
-127 -72 032 059 062 116 095 -92 -108 -100 -88 102 030 -68 -74 -39 070 013 -125 027 050 006 000 074 064 -128 069 -56 -34 081 084 -38 -54 082 -33 -62 008 000 -102 -62 082 062 -124 000 078 043 006 050 -102 057 101 -46 060 -46 -07 126 034 -40 021 063 103 -02 -99 101 
-126 -71 013 019 -86 -125 072 115 -10 060 030 005 043 -63 060 057 052 056 123 008 020 016 -77 055 114 -114 -02 078 082 097 -52 052 -29 056 085 -53 064 064 066 -82 063 -88 -127 -03 -62 067 -77 -116 -63 -54 -71 060 -125 068 -38 -71 028 093 -126 108 121 -23 -49 053 
125 080 006 -93 004 -67 -103 -115 -69 025 057 115 055 -33 -112 048 059 -47 -33 -75 068 003 -128 -24 -53 -105 -64 -12 078 -109 -11 -39 -05 044 -51 -53 021 -40 019 106 050 -101 -126 -63 016 072 053 -91 061 045 061 -64 -121 -89 101 -127 -61 089 126 -74 -106 -45 088 117 
125 -45 102 025 -99 -121 -70 114 -25 -07 101 -105 061 -15 039 042 -25 -52 -127 090 070 096 -126 043 -07 -104 -62 019 058 -68 088 088 -70 -34 -64 065 -24 013 -106 -79 -50 062 -69 -48 -80 -30 -58 -108 040 -12 -16 050 123 066 107 -122 058 -76 119 -73 -109 -04 -55 -91 
-106 -56 -92 043 061 122 -127 062 -78 -37 069 -62 -27 -22 064 039 -11 -23 -73 082 059 048 -120 -03 -116 -122 045 057 088 053 -20 -10 -54 069 -89 080 -05 -14 049 -43 -75 076 001 -30 -68 -54 060 097 058 -76 -62 -41 057 -54 -84 082 -67 -98 -103 010 106 -60 -66 -66 
-120 092 051 076 -40 119 121 121 -10 -90 -36 -106 032 070 090 037 -55 -10 125 -11 055 030 126 074 120 126 -02 082 081 102 064 011 016 073 -12 051 020 -55 -77 069 -19 098 -100 058 -86 099 -30 -105 -45 063 -76 -27 125 -90 034 -115 006 -102 -23 054 123 -58 -67 112 
002 068 084 087 101 118 125 110 068 -07 097 -51 041 044 023 -38 038 -58 121 -54 -03 -39 105 049 121 110 050 -35 -04 -12 -58 -26 -13 018 002 068 -38 -08 042 -24 -75 093 119 009 003 074 087 085 069 025 -65 011 -57 -80 009 095 -44 003 -126 105 126 059 101 -59 
-77 045 001 -11 -46 -119 -96 114 062 -87 057 -80 -02 -62 -69 -24 -05 051 122 -83 -77 035 -128 -18 027 126 -12 044 042 -28 -78 035 049 031 -71 -33 069 -20 070 044 -53 -97 -127 066 -60 041 071 -25 055 013 064 037 -16 022 042 -122 021 -93 004 -59 120 026 -83 -52 
-99 -29 053 082 011 -76 091 -102 088 -109 103 027 014 -59 -99 -07 073 011 126 007 051 012 126 064 002 126 -32 050 -84 -108 046 056 -33 -20 022 -14 -09 -25 -10 -33 -68 085 059 042 059 -84 -10 -57 087 -76 -87 043 -103 020 037 124 -59 034 -125 112 122 007 087 065 
100 010 -82 071 -79 082 056 -111 -82 -94 -88 107 -11 -63 096 -20 -74 -05 -56 047 049 070 -110 020 -79 -126 -69 -11 -39 -99 084 -71 022 069 008 058 065 -70 -93 -107 -35 -99 099 -66 065 065 036 121 -34 003 -91 -21 116 -01 112 -127 -45 010 106 055 045 -67 006 -102 
-121 065 -45 -98 099 122 -84 121 071 -97 -92 -102 006 -13 -23 051 -75 040 111 051 027 -79 125 057 -124 -14 -07 -36 -56 105 -87 -53 037 051 054 -14 067 036 097 081 072 085 110 -09 059 019 -58 -120 -19 -04 -86 043 122 033 -60 -123 071 092 -122 080 061 003 003 -53 
-120 070 -42 087 063 108 122 114 075 -67 098 -95 -50 -36 -73 -59 001 -83 -128 041 055 071 013 069 -123 023 015 -16 004 088 -77 -46 020 -02 -64 -87 079 067 -86 080 075 037 072 -58 072 054 062 095 -94 -65 021 040 126 029 -93 -128 -58 -86 -112 112 -127 004 -97 099 
-124 -58 -69 099 -36 121 -44 -84 025 029 040 076 -19 -13 -75 -07 016 -59 117 -89 071 068 -107 013 -124 112 049 032 021 -107 079 060 003 -25 043 -51 007 032 -30 028 060 -72 -122 040 -04 -30 -23 119 073 081 -103 -54 124 -85 089 126 -36 063 -126 -69 118 059 050 -30 
116 099 -19 -76 072 114 -93 -107 -90 -70 -107 041 020 -16 090 024 -24 057 106 061 059 010 126 -06 111 116 034 -15 040 041 096 -70 -22 037 -74 015 -16 -60 011 096 028 079 -53 -23 077 072 -18 -88 038 055 -29 -35 -126 -79 101 122 004 -103 -49 -19 121 066 -67 113 
-122 -65 051 087 078 -114 108 -67 -74 019 028 -51 036 070 043 019 007 -45 -128 -11 -69 -78 124 -79 -121 105 034 010 -57 016 -07 -43 018 023 -27 -57 -03 -17 -41 -43 -53 077 096 -69 052 -30 018 -123 044 -13 040 013 -120 -33 -91 -127 067 091 -67 089 114 035 -62 076 
-89 -75 069 025 053 -107 -97 117 016 045 -08 085 -47 027 008 -20 075 -10 -37 -08 065 -61 126 074 -09 126 014 070 -67 022 084 081 -53 011 -88 009 -82 -45 084 059 -78 026 126 017 040 -23 -83 106 -22 -07 078 038 -123 059 -17 025 029 045 077 046 054 -65 -32 114 
120 -29 -23 -98 -77 -112 -90 106 -102 -96 -74 -83 047 069 069 000 -23 -06 -127 -12 -63 070 126 023 -124 -92 -01 000 -19 023 -83 -78 024 022 -50 -08 027 -08 063 -50 069 101 -127 059 -51 -81 -42 094 070 -19 050 069 -127 033 012 -127 -21 -67 123 009 124 -79 035 -41 
065 049 -77 015 -66 -121 -103 023 -20 -108 046 023 015 011 082 046 -11 -63 083 062 053 042 109 -41 037 093 028 082 -26 083 -72 004 014 024 018 020 -80 016 -80 106 017 -111 117 066 -35 006 031 -115 -91 015 -74 043 108 053 -15 -98 -40 076 119 079 124 -48 037 -104 
096 -22 097 -114 -48 101 082 -95 -102 033 070 100 013 089 -108 037 048 054 -105 -26 061 048 125 -21 -74 -98 -26 042 -20 -39 104 002 034 -05 082 -29 -56 -34 100 -69 -74 -90 -110 -72 021 004 024 -114 -79 036 060 -82 -116 -73 065 -123 -12 090 122 -102 -119 085 -24 121 
109 -10 000 062 044 -125 118 118 090 -87 071 -93 -03 -53 014 007 010 -53 -58 -85 -54 -78 126 -82 124 -52 063 -78 -15 -41 -03 049 050 -28 054 -19 -64 -24 083 007 065 056 089 -33 -36 -45 084 -125 -106 -75 -53 -03 112 066 -65 125 -57 102 -59 014 -85 006 029 077 
-104 -68 -92 -88 -21 -12 096 -09 -112 069 -110 -24 -32 081 109 -40 -21 -27 -117 088 041 061 -109 067 -95 -54 004 044 -58 -30 -46 064 -54 -11 -91 -59 -90 071 -30 080 -35 -25 -124 -15 -73 -78 -38 -92 013 017 090 066 -128 -03 -02 126 -44 -16 -126 109 -124 -86 034 -115 
121 -67 017 092 029 -123 -09 121 -46 -79 -25 087 -09 -43 -75 -59 072 009 -128 -41 071 019 -11 074 -113 126 -57 078 062 -101 -08 -07 -55 -37 -72 084 066 068 -19 105 037 -101 115 -07 041 -88 078 034 096 078 052 -14 -123 088 055 085 -29 -90 -124 -109 112 -38 -88 102 
-105 -76 092 012 020 124 -125 092 -81 091 037 052 019 -44 -62 002 058 -68 121 -07 003 -64 -128 027 120 126 -38 -41 -85 039 -68 074 006 051 082 -64 -23 062 016 -82 064 -75 124 015 -36 -92 081 -88 -80 -49 027 -56 -88 -59 -113 -128 -33 127 110 109 108 -31 -19 -38 
-62 -55 051 034 071 -98 -85 -127 -13 -47 -68 -42 010 036 -115 048 -59 -71 126 073 055 -44 -02 083 -81 -127 002 019 064 104 -31 063 -53 -69 -54 007 -03 048 026 083 087 009 121 -62 -73 051 060 -118 106 -54 093 -68 -105 058 066 -124 001 086 125 -90 -109 044 076 -100 
-125 -44 -56 009 -58 117 085 001 031 002 -109 -39 037 -22 099 061 074 056 -92 040 051 -42 -74 084 -51 -109 035 071 -75 -44 -83 073 -46 070 069 -55 050 072 102 -107 -69 041 -127 040 -26 -92 019 -124 077 075 -64 074 -84 081 -06 -26 045 -11 118 114 112 -38 -72 109 
-51 082 085 078 003 122 123 -119 095 -23 111 088 -46 -60 106 -39 -57 -40 -89 -05 061 002 -22 -68 120 120 012 -86 -05 021 -44 -42 037 -84 071 -70 031 073 009 111 -67 095 124 -67 -85 -78 -50 -121 -101 -02 -80 003 -122 049 013 -125 -68 063 -120 086 -106 -32 -69 -105 
108 009 067 -56 -61 -21 -124 -38 087 -102 078 084 -13 042 -83 -23 074 030 055 068 012 -38 126 -66 122 -124 015 -72 014 050 075 -16 050 063 -64 -47 073 -54 -42 054 -28 -70 -101 -72 017 -68 -68 -116 -101 -56 006 083 119 026 109 -60 -37 007 085 -107 -124 032 -07 -118 
-92 017 -32 -108 -17 125 116 -125 -23 -98 087 100 024 -25 -90 076 051 -22 118 064 -81 -37 -127 -41 010 -96 -68 083 -77 059 -03 -59 -66 -42 089 -91 -39 074 -87 -65 -88 -92 -104 036 022 034 -58 -108 017 -13 104 -75 -122 022 -61 -123 061 -38 -102 -106 -111 -12 -104 -65 
-88 072 -40 087 084 124 -33 -124 -16 -01 -56 -58 014 032 097 -25 043 -02 010 -48 -25 -15 -99 -23 095 -128 025 012 -42 -98 080 -62 -20 -11 087 050 -14 -54 -64 -11 085 -66 -128 -41 048 023 -26 -85 -83 -04 -31 080 119 -36 -23 -128 075 035 -125 107 022 071 -70 087 
123 056 -81 078 100 -85 023 121 032 -88 071 069 -13 058 086 -60 -68 036 -127 -33 -72 -51 111 083 118 113 058 019 086 -74 057 008 054 030 092 -81 -31 -31 095 091 030 108 094 -75 075 054 066 -77 -93 -80 -66 032 -127 -31 101 123 -59 031 -113 114 124 -69 012 -113 
103 046 100 -113 -75 -109 -105 093 029 -105 075 094 -41 092 -101 027 006 -64 -128 013 -77 047 126 070 -112 -128 -40 -14 -77 066 -12 069 -22 -84 073 040 003 066 -15 -71 -62 -81 -96 -05 039 029 -40 118 -33 -71 087 -43 095 055 086 -99 -12 082 -123 -106 -67 -80 -50 -91 
-96 088 -40 -115 -63 124 -91 -124 -99 -100 087 -38 -07 089 -109 070 061 -74 -127 095 042 035 126 090 -82 120 -04 080 -03 -39 -49 040 -64 -38 -80 043 -83 -13 091 -88 -80 080 115 -17 -81 -48 -92 -104 -102 -71 065 -58 -117 -73 074 -81 -49 032 096 -89 124 073 -71 121 
036 081 056 -92 102 -87 -115 -53 021 109 080 062 005 -60 -103 -16 014 024 -125 -37 -77 061 -127 -76 064 -128 -07 -03 -71 -57 -56 077 -58 -82 019 064 018 -74 -62 098 -80 -52 -124 048 -71 061 073 077 -88 053 -59 -18 -119 -68 -98 -89 012 081 -121 110 102 -04 -96 108 
123 -70 -72 -82 049 -23 -124 033 -85 069 061 108 001 -39 -113 018 024 -70 -113 -33 041 046 126 -82 -56 -115 005 -46 -75 -110 -77 079 -05 020 -19 012 -11 047 -60 -85 064 112 -126 005 -37 077 -84 009 077 -71 035 -68 126 018 004 -125 -53 030 108 -84 117 061 062 -103 
-120 029 004 031 -62 095 008 106 065 -88 -60 008 008 -63 -78 -06 021 -70 -128 -23 -60 031 -125 -45 122 126 052 -26 -06 026 076 057 -20 -14 -77 026 056 -59 -88 068 013 -96 111 -32 -41 048 -50 -14 103 045 -98 060 -115 -24 029 -126 014 -103 125 060 -106 047 064 -116 
-122 -06 -15 -19 -87 123 033 107 032 100 -98 -44 -04 -60 -69 030 027 027 -19 -52 -57 -54 126 010 093 -127 -53 012 -87 073 052 -46 -34 062 -18 002 054 033 006 081 074 081 082 046 022 005 071 104 097 062 005 015 -116 -38 -101 -126 069 -56 -127 024 114 006 045 -113 
-100 060 043 021 -94 125 -87 045 091 016 090 -100 009 013 -115 -13 -26 -66 126 090 077 059 -100 -17 121 126 005 -58 021 035 028 030 005 066 071 055 -27 -52 054 -23 -40 -113 -119 059 011 -87 -58 034 -38 -66 -86 -18 -126 048 -01 -110 042 011 117 -115 125 013 005 -90 
-126 059 -28 -41 -02 -116 120 042 -23 100 096 -31 -28 039 -109 042 -65 031 -96 089 -57 071 -121 084 -124 -84 070 074 -63 009 009 -30 016 042 -92 -56 -21 -57 -89 034 066 007 086 -33 -86 -76 -10 -22 091 -27 078 038 -126 -01 106 126 061 057 -100 062 -126 -49 -81 083 
-103 -28 100 000 -60 -119 120 094 -60 -105 085 107 012 -59 087 -14 -08 -85 -110 012 046 -50 -127 -29 -99 -111 -71 -18 042 -68 047 025 -42 -74 050 -86 -78 -47 -82 -90 -10 012 -94 -21 -46 -43 -78 109 -88 -64 -96 -36 -123 090 -94 -106 035 -94 126 115 101 083 083 -92 
-30 -56 035 -96 -40 077 -127 -123 035 -60 -66 -100 -28 -61 049 037 -69 -60 122 036 -16 013 126 003 -98 -74 -24 036 -84 011 -20 072 -15 -28 003 -72 046 018 100 023 031 -107 032 -53 086 063 -27 -36 002 014 073 -40 -128 -74 -89 -36 057 -104 -120 109 -46 -62 -97 -115 
122 091 073 071 009 120 120 121 -62 090 107 -35 026 -35 -105 -49 049 073 126 -73 028 069 126 083 -41 -127 -11 040 -79 -36 099 -06 011 -81 -23 -42 -58 039 -92 086 065 090 -84 010 070 -53 083 117 -48 -54 031 -79 115 -23 -61 126 006 -97 -58 050 123 089 -42 -61 
115 -40 019 -86 -107 125 -91 068 -14 071 -110 078 -42 028 074 025 -58 -28 -121 -28 -74 -06 116 096 -92 -100 -30 -15 -60 107 018 023 -39 -32 -46 084 -50 -69 045 -47 081 -107 -120 017 -13 -08 -33 093 -74 054 -69 -34 -121 -22 -108 126 016 -90 084 -07 097 055 -82 -104 
