-113 113 116 060 117 118 112 -118 116 106 -115 116 114 113 -108 -114 -72 083 115 -111 116 118 119 116 107 112 -110 -79 -128 109 -114 119 -58 102 119 -100 059 -123 113 116 116 116 112 120 114 119 -111 -81 116 118 109 113 117 117 -110 -113 117 -62 115 096 117 111 -103 112 
101 -41 104 114 -102 119 -115 -108 119 -67 115 -111 116 -84 -110 119 067 113 -125 094 -108 -85 118 -105 111 112 -122 110 -122 118 000 108 118 111 -104 107 111 113 -108 113 -119 116 117 -108 113 -105 121 111 117 116 114 107 111 108 113 111 -114 112 -113 -118 119 -122 096 -104 
-71 117 112 098 -122 103 115 -114 117 039 094 111 -102 110 113 -127 111 -95 -102 114 -116 112 -113 -112 117 116 112 113 110 -106 099 116 -18 -106 -96 117 115 116 -76 116 -82 119 -122 118 112 115 107 -63 117 -106 104 -112 084 062 112 115 118 -36 119 -103 116 -125 118 096 
-109 113 -106 115 106 116 119 112 122 118 118 117 114 -102 114 -105 101 112 114 117 115 113 116 116 109 116 116 -76 117 112 110 101 118 -90 117 113 114 109 112 118 -108 -108 114 110 116 114 -122 -80 -122 -51 -126 108 -120 116 -25 101 -111 080 -109 -111 -111 115 -98 119 
