017 057 055 -46 025 035 -61 060 -103 039 092 033 042 -06 037 -22 -49 -02 018 017 -25 028 008 001 -25 -60 031 064 -15 -28 -32 026 -03 066 012 001 -17 028 066 -47 079 -58 056 -21 058 -08 049 023 049 002 034 -01 010 063 071 114 016 035 -72 -42 -38 -87 -02 008 
-46 -11 -40 -41 074 -29 006 -93 107 003 061 010 -53 059 -32 -12 077 033 -51 -23 077 -19 -24 057 -83 -63 034 -104 -01 048 -31 -25 -35 014 -11 046 003 021 -31 -31 -25 -77 -57 -81 018 053 -58 062 023 -25 -40 081 -39 020 081 -65 032 -20 019 -91 -63 -59 -45 006 
023 -54 064 -21 094 -01 021 107 104 038 104 -04 -49 048 005 -33 022 019 -27 049 -12 -18 065 -66 -24 026 -41 -76 -36 027 -60 006 -37 -41 000 -50 032 -42 029 -23 -59 -72 011 066 -17 -51 011 010 024 -03 033 -23 -21 098 007 043 024 061 -111 099 -14 -33 030 021 
095 -38 006 065 068 020 075 115 030 024 -48 -27 -64 -111 -37 002 -81 -05 019 071 027 -10 018 073 037 -34 -66 -114 035 029 -74 -12 -62 -71 024 -26 -02 052 015 057 -88 -35 071 -70 -39 080 027 020 -31 068 -73 -74 -31 104 -34 -60 -23 027 021 055 -17 -60 -06 041 
038 -30 -55 023 -61 -19 074 -106 087 068 113 057 -100 -70 -68 -40 -18 -28 011 -13 071 -72 -59 -44 -34 -41 -22 113 037 -25 -60 032 054 -14 -11 050 -30 -20 -76 -56 098 053 054 -33 034 -53 044 -62 037 -27 065 034 063 -60 -46 079 -08 -52 019 043 034 -79 048 032 
044 -48 -52 -31 004 078 -23 020 013 -24 -106 065 -01 -38 -61 021 061 -54 -62 -08 069 053 066 -57 -31 067 -36 -87 -70 -25 -28 044 019 043 018 -45 015 -05 065 -38 -102 -69 056 -52 -17 -27 -21 012 -52 -19 -63 056 023 064 042 -118 022 002 113 -85 -75 -43 -01 039 
048 -36 -47 070 -91 093 -87 111 077 -54 -78 -44 -23 -113 067 031 -83 -18 -09 041 -82 000 -15 -01 067 -46 -58 -113 058 001 -72 -20 040 -34 040 -01 035 -17 015 022 -12 -28 -17 008 -10 -34 007 -22 -46 047 -53 069 041 -01 060 -67 -31 061 112 -77 027 034 021 036 
088 -50 -51 -14 -37 101 -77 074 -57 004 -92 -68 072 050 030 048 009 -15 -39 -11 -64 -78 -22 016 -02 -69 -46 -102 -42 -19 070 -36 -16 030 -39 -56 039 001 054 012 -94 056 -75 -51 -25 087 -53 -49 047 005 -18 -04 072 -18 -69 052 005 -02 082 -53 -78 085 042 006 
-39 -21 -35 036 -33 042 -35 100 012 -48 -52 009 -105 113 -63 024 089 055 093 040 070 001 -12 -69 041 029 071 -39 -53 -54 -58 -22 -41 -64 003 -56 045 -75 006 -15 086 096 -43 -64 062 049 -19 063 000 -11 004 -03 -28 -09 -68 105 -01 -22 033 -11 035 085 013 043 
052 021 -12 049 -84 -22 012 082 067 041 -84 -06 -102 -101 -52 032 082 -52 -59 -14 034 -07 -34 -09 036 026 -28 -65 -62 -26 025 -38 057 047 -23 -26 038 -19 022 -50 -47 -64 071 079 002 010 -62 -43 038 040 064 -56 -66 085 074 -111 -24 070 094 064 031 -07 053 -12 
084 031 -23 -63 -03 -59 -70 -47 086 037 113 -54 042 082 052 -19 -39 004 036 -48 000 -60 -59 057 081 034 -79 -101 -17 051 011 020 -68 031 001 032 -18 053 -64 -35 022 -71 -05 -79 -14 046 -52 -30 019 046 -53 -77 036 004 -74 090 -37 -20 104 -103 -42 012 011 -08 
043 021 005 -46 -75 058 022 110 051 038 -34 -32 010 097 -01 044 -08 015 -27 012 -55 -15 -19 -82 006 028 -06 111 -20 -16 -28 -14 056 -45 -30 051 -09 -34 035 018 -79 -37 -58 064 -60 -66 -63 038 -46 043 -62 039 -28 -48 028 078 050 038 111 -78 073 081 023 035 
018 -02 048 -67 072 -18 -23 -06 -108 -09 088 058 071 098 -02 029 007 006 063 025 -85 -61 -33 066 -42 065 040 019 017 030 -11 022 -70 -47 032 034 031 085 -37 -59 -58 082 085 073 -40 061 -09 -40 -52 046 043 032 035 -82 -42 104 -39 018 -109 100 038 048 033 029 
-79 018 -14 -56 083 -09 053 008 109 064 099 -09 005 -19 -38 036 038 014 033 -27 062 -66 -29 023 -78 -15 031 070 058 049 -18 029 -21 -32 -20 035 040 007 048 009 068 050 073 019 058 -17 -38 -26 -39 020 056 -36 -17 -58 046 112 -09 073 010 043 -51 080 010 023 
-13 016 039 014 049 -07 -18 076 110 -67 113 044 012 -48 -03 027 -28 023 -01 029 -35 -76 066 000 -24 077 035 028 -25 -31 -23 060 -22 038 -20 023 -26 -65 047 073 -01 010 039 -10 030 -41 -33 012 019 045 -62 -60 -21 047 000 085 -05 -75 096 -80 -86 066 -34 040 
-92 016 018 079 083 -73 086 -111 -28 -66 098 057 054 006 -74 -46 015 048 053 -10 002 -62 -49 -76 029 -56 -45 -64 -61 -56 071 -01 -48 -14 055 -37 056 068 046 019 -18 049 071 -41 -12 -62 -55 079 -32 017 011 -85 -82 -93 048 -113 026 -17 -108 -09 -72 074 010 031 
080 042 -44 057 -02 103 -96 -07 036 -24 017 -62 -30 -104 066 -23 -92 034 068 008 012 055 -23 069 049 -08 073 100 -73 -22 -22 -18 -45 -76 -04 029 009 041 055 069 -65 087 -36 031 033 -42 067 053 -38 -38 -68 -51 -26 -85 076 -98 034 -69 113 -64 046 052 -10 017 
028 -60 010 027 058 -42 -76 -106 -71 -06 -106 004 -94 -71 -18 -34 -91 024 -01 008 -82 -43 -46 032 018 029 056 -93 035 -52 -68 016 -49 -40 050 031 -55 -36 -56 -51 025 083 027 -62 -15 -69 -05 036 031 -20 020 -03 -54 -88 048 042 -32 069 101 081 086 067 -46 -28 
023 056 026 006 -44 -47 082 109 028 -21 -108 -39 050 -34 054 024 -70 -09 025 -17 -72 -60 -23 086 -61 -52 -31 -110 -04 -26 047 -29 077 029 -04 -17 -44 047 -68 -39 -77 -09 056 058 008 025 -53 -82 047 -19 -40 -40 -16 063 -67 -58 -41 -19 -78 -33 -35 025 -28 -32 
-25 -58 -27 -45 077 021 -99 -64 -10 022 -59 -17 -57 008 036 004 068 -29 013 033 -66 010 -71 042 -69 -72 002 -34 072 026 -62 008 033 001 -40 006 -15 -70 -62 -63 045 009 -28 082 016 066 029 002 -44 032 041 -40 051 -02 -39 016 -22 -66 -41 -96 004 069 -25 -42 
005 -40 020 -62 004 -49 -70 016 -14 052 -19 -36 -103 091 039 -11 -94 028 -22 -43 -80 018 -16 -40 041 006 005 -89 003 053 009 035 007 024 -21 -32 032 047 061 -33 096 -14 031 -79 042 033 -36 010 001 044 -18 006 -66 -99 014 029 038 041 027 098 061 056 032 000 
016 -43 -21 038 022 -90 030 -85 031 -73 087 045 -39 -28 -42 -13 -95 -48 068 -03 -76 064 056 054 037 -29 -53 035 020 054 -53 -04 013 -62 -07 -33 -52 014 -17 027 087 -39 -74 078 -33 -22 -26 -60 -28 037 006 -71 062 -75 -53 060 -38 -62 063 016 042 -78 000 004 
-33 005 019 -71 -29 088 -65 028 -58 033 090 -51 -35 102 -38 020 -66 012 047 002 -84 -17 013 -41 -66 -36 -28 -39 -47 044 007 -28 004 061 -18 -27 049 -81 -48 028 096 -48 003 -81 038 -27 049 021 -24 -27 -05 058 -25 -57 -47 095 -17 -27 102 -44 -12 -08 -53 015 
063 -51 -63 -66 -98 057 -90 -79 -44 034 -52 015 -37 089 -53 -11 070 048 048 044 040 -06 031 013 066 -77 -47 081 051 -22 -46 028 -03 -38 047 -39 033 073 -70 -15 -45 020 100 -70 -41 003 -24 -34 -26 045 033 -51 -70 088 -33 -107 054 -13 -17 -37 066 -24 056 014 
-50 060 042 066 018 094 -40 -110 -61 049 086 015 -97 108 -19 034 082 -45 -07 -15 -76 074 059 033 -52 -68 002 -06 -65 003 -29 005 046 -73 -10 -50 -05 027 063 031 -87 041 034 -49 -64 039 -67 049 054 024 -74 -66 -28 -13 008 -117 -25 -48 -97 -44 017 020 -20 016 
064 -47 -68 063 -73 046 -85 099 024 -04 046 041 -97 113 022 001 080 033 014 002 -90 -79 -06 057 072 021 -80 -105 -48 009 -69 035 -26 -49 053 -41 -40 -86 018 011 -15 -32 -05 011 -46 010 -40 -56 -49 -02 050 -02 030 -44 034 -37 -17 031 091 -10 058 046 026 -14 
063 -64 041 040 -59 -55 -39 -18 106 -05 064 037 037 -102 -26 033 082 027 -26 031 064 -69 039 042 061 039 027 -116 -44 041 -32 018 042 036 043 -59 051 -42 -38 -58 091 -07 -53 014 017 -54 -74 047 049 019 -62 034 -68 101 025 045 018 -75 -02 -23 017 -17 -10 002 
030 015 -58 -14 009 -87 -58 -36 -58 040 110 -42 -84 -11 071 014 029 040 045 030 014 063 064 002 073 022 -74 -31 -17 037 -31 008 -66 -49 -46 034 -57 -19 013 -04 -87 075 -50 004 035 045 -15 038 -04 058 043 -08 005 055 -01 -114 -27 -60 -103 -99 061 -07 -46 -12 
-50 -54 -52 -86 066 057 -49 099 067 032 001 -31 -28 105 -30 002 -80 015 -36 020 -75 025 066 055 040 -17 067 099 005 -18 062 046 058 -56 -48 -17 -01 030 -29 015 -34 080 003 -16 -49 024 050 030 037 053 052 -27 068 -42 061 066 -31 -70 -102 045 -69 -58 036 -25 
031 032 -56 007 -91 049 072 -79 -77 -07 112 008 -92 115 044 -41 -01 -27 026 034 -89 -71 006 000 -43 -64 070 085 001 -34 054 -38 -09 -44 000 -43 -44 033 032 014 -64 -65 088 018 032 058 055 017 -35 048 -48 035 -52 -84 -66 074 -40 -76 058 077 085 -49 055 -19 
-04 -17 -47 -83 073 -81 -88 011 -111 007 -86 -58 085 045 -55 -31 095 -32 -16 -28 010 -04 -58 035 -27 003 -73 -70 -41 -53 067 -32 073 006 025 -29 038 -35 -18 -29 088 086 021 081 -37 024 057 -39 -29 020 023 -26 -22 005 074 107 -11 073 076 -86 -83 -25 024 -14 
036 008 010 022 005 028 064 -34 -67 013 -101 -33 -71 -02 -09 -12 -54 023 -47 -35 -23 -27 021 051 -61 071 -79 -94 051 054 060 037 006 -13 -28 -14 -07 -52 -44 -26 -81 -23 076 065 010 -07 063 -22 001 -60 022 -05 -31 029 019 -85 012 022 112 -68 015 004 039 -01 
-93 -02 043 -80 012 -86 053 -105 057 034 095 039 023 -77 -32 -45 073 027 -12 -11 -38 042 060 -16 -38 -66 052 034 -53 -50 -64 057 -59 -71 044 -30 004 -85 -05 040 -75 086 -81 -67 -18 -14 -29 086 -27 -35 046 -27 049 -12 003 -61 003 -25 -66 -53 036 076 -15 014 
050 027 -19 064 -45 -88 -25 -07 -113 026 017 -68 017 -11 059 021 053 008 038 -35 033 042 033 -02 060 -01 -53 068 070 -56 060 -08 085 050 034 041 002 020 -85 -16 003 059 -60 077 -51 010 040 -51 -28 006 -42 -11 016 -37 059 -114 -26 -76 106 076 -53 -71 -51 021 
-79 -63 048 004 091 089 092 -108 -84 046 -96 039 -80 013 -43 044 -86 -31 009 -49 045 051 067 -41 -30 -17 -69 112 -10 022 048 027 050 023 -06 -56 050 078 -22 -01 097 017 -68 -07 002 062 042 028 037 -60 026 007 -44 -75 076 021 022 071 -59 -51 -22 082 045 034 
-20 014 -39 -74 -51 079 080 -08 014 -22 -73 -14 -69 -107 066 -02 083 -50 034 -18 -85 069 -60 012 -85 043 -16 -72 059 -14 065 -31 -51 001 004 044 -22 -89 -33 033 007 -44 082 048 -09 -49 -23 026 051 056 -35 -11 -05 008 056 079 003 -38 000 -77 082 030 -18 037 
-55 -63 000 -06 -13 -90 -41 060 -101 068 -52 044 038 -29 -36 -28 -20 -34 -12 -37 048 -08 058 040 063 -27 -21 -77 040 -33 046 -22 069 -07 -49 045 058 -71 -06 010 000 -79 061 -12 059 001 -03 -05 -27 067 -69 040 048 -93 081 047 037 012 -110 068 075 -21 -29 051 
050 -19 008 025 057 -09 -68 083 -79 025 -106 -39 022 -109 -01 045 082 002 016 027 031 -61 -18 -29 030 -83 070 080 046 -35 044 017 -03 -20 015 -61 045 043 -58 032 075 -68 -77 072 -10 024 -63 -51 -43 001 043 054 036 -68 -43 114 039 -66 -105 -89 051 -47 -49 -09 
046 026 -12 060 068 -72 016 -103 -96 -59 113 055 -59 114 -28 -22 035 038 011 -12 -44 -53 -51 -57 091 -54 001 -119 -64 -50 -02 041 -56 054 -29 -65 059 -25 -25 -01 088 092 -43 -21 -39 028 -65 021 -50 002 026 013 035 088 000 -27 006 023 019 -10 056 009 -17 019 
030 047 027 083 -62 -72 -67 111 -105 -21 107 -56 -31 077 -01 -10 044 -35 011 -42 000 039 069 019 002 -03 -79 -08 041 034 032 -42 063 -04 -03 005 -08 -32 -44 025 019 056 -25 -22 -18 027 058 -26 030 036 012 028 -71 -43 -25 -98 002 038 -03 -46 -33 050 -02 031 
-26 049 -14 -27 -90 -39 -105 -82 -71 049 -95 015 046 -46 014 -31 085 040 069 -15 -48 -79 000 027 -41 015 064 097 011 048 013 028 -45 025 -42 050 030 -04 002 -34 040 -21 -71 -42 -52 035 -36 052 030 -06 008 -71 025 038 -28 -113 -47 -61 -28 022 059 -95 -24 018 
014 -39 -66 -62 -64 -11 093 -82 -37 025 080 038 090 -111 057 -29 -74 -40 -03 -02 -73 015 -43 041 -73 -31 010 030 045 -54 056 -10 009 -39 037 -52 -09 017 010 020 -37 030 -09 024 -50 033 -38 028 014 -13 -47 -65 046 072 -52 -32 031 -66 -99 024 -43 048 017 031 
009 -12 017 033 002 038 -87 038 035 -27 086 036 076 109 -50 024 -89 -04 -66 000 053 -50 -56 -43 062 -06 -41 113 -31 018 049 042 037 044 -12 046 046 084 021 041 -68 -66 -22 006 -24 010 064 041 002 009 -38 -27 -69 -15 -10 -21 010 -66 118 077 -75 078 064 027 
031 -22 019 042 071 090 089 -56 -93 038 -32 -42 076 -114 051 043 036 038 029 068 058 042 044 026 004 048 -67 -14 038 008 -77 046 -12 -44 028 -58 046 016 073 053 -89 006 -23 -28 -65 -24 045 064 -09 050 -09 017 -12 066 -82 -94 -01 -42 -117 092 -67 -59 022 -11 
009 -60 -53 061 080 048 -28 -108 045 -39 072 052 -100 051 -35 -06 055 028 035 004 -19 -64 -22 001 030 043 -83 -99 034 -20 -08 -21 026 -24 -16 001 -02 021 033 -51 -33 -28 -11 077 044 046 063 028 -50 -24 065 -61 -26 026 042 029 -20 011 -109 091 065 -60 -49 -10 
-84 -05 025 -08 011 -64 048 -95 -43 053 107 027 032 077 -67 -08 -71 -13 -49 -37 -35 -51 028 -24 -48 019 027 -112 075 -18 072 -14 014 -06 024 008 046 052 -83 024 071 051 -29 079 048 -38 -43 063 035 -43 -23 -16 -07 -28 -85 075 -35 -69 -94 -61 -03 -93 -04 009 
-33 032 -39 -71 -77 006 -99 096 104 058 077 056 -59 -103 012 -03 -64 040 031 017 081 -04 016 -18 069 004 058 067 059 004 -16 012 007 -38 -41 -44 020 022 -71 -13 089 051 -73 022 013 076 -49 -29 -36 001 005 -48 054 007 -54 -04 022 -32 073 -104 -78 057 -14 -19 
-42 037 057 065 016 088 091 002 -102 -45 080 -32 -58 -47 -80 041 047 -32 -62 036 056 -08 040 -26 068 079 -35 083 004 024 021 023 -32 -59 051 -38 -15 -71 027 029 072 -67 080 -71 012 013 054 -41 -24 010 012 063 047 083 065 085 040 -21 080 052 -56 -71 -40 027 
045 009 -32 -12 -66 081 085 084 041 043 -105 -42 -56 -43 -76 -29 049 045 064 -31 075 -38 054 -15 -77 -80 076 083 -59 -30 -34 -32 034 025 -37 -26 049 007 -56 013 059 049 079 -84 -31 -01 -27 -04 -03 029 054 013 029 031 -37 -23 -06 043 094 050 055 -32 040 -37 
083 -32 029 064 -38 034 -102 -106 100 -32 -112 -54 -82 -18 040 032 -18 -03 017 -10 -56 -71 -11 047 011 063 016 039 045 -10 026 -28 062 -46 000 -60 003 -37 053 -11 -69 052 021 -44 013 042 061 -50 012 -08 -50 -81 -08 -83 -36 043 009 -66 097 -91 -51 009 014 -22 
-67 063 064 -06 -62 -49 074 -80 -109 054 053 -35 038 -23 -20 022 076 -36 003 047 080 -59 012 -11 000 -14 075 112 005 053 058 008 003 -64 023 026 -38 085 055 -32 -56 082 -48 024 016 062 -39 -43 -48 -10 045 -75 026 034 079 -14 012 066 -119 -09 -35 -36 046 001 
-22 -23 006 -71 -95 -47 052 061 108 -49 023 029 -17 -106 -68 035 -47 -09 090 -24 -55 -04 -19 008 -06 -13 -55 039 014 043 043 047 -60 -73 -25 -10 071 -73 042 014 013 092 102 -44 -44 -18 -29 018 036 071 018 -71 012 -09 019 097 006 054 -41 094 020 027 -09 055 
-22 042 -62 057 -36 033 026 097 035 -65 -23 -72 012 -65 -78 020 -68 042 052 -09 -10 -62 060 064 -81 019 004 -99 018 032 -04 006 052 -01 016 034 -05 012 036 -40 079 -67 073 077 052 066 038 028 042 -05 053 063 -68 -89 081 -45 -20 -08 082 080 -29 -53 -22 -28 
065 -12 034 -05 -26 -45 -89 -05 091 -01 -105 -50 098 099 021 022 -51 008 -15 048 033 -57 -65 -63 -72 049 074 -113 033 006 017 016 032 -66 023 -23 038 -76 058 -12 090 -43 -73 -74 -58 029 027 070 029 068 -69 038 -67 070 -89 -64 042 -20 053 -17 -49 -18 067 027 
-42 027 -48 -54 -33 -36 000 -78 022 -26 -22 045 -56 -35 -05 034 -08 028 -39 -33 013 069 -52 039 -63 -54 -71 -109 017 011 -68 -20 023 009 020 008 031 -80 038 013 -53 077 075 021 000 008 041 021 008 -17 -67 081 -23 -14 -10 -30 013 -53 113 -60 063 -71 007 -03 
040 012 -23 049 -84 -77 -47 009 092 -63 -37 039 000 107 075 044 027 010 -22 -27 -82 076 064 -29 -74 041 097 102 -14 -06 -47 005 -40 021 005 -65 016 052 -74 025 -87 062 086 021 004 -02 000 041 -51 -45 -63 -25 -37 076 -81 093 013 -71 092 -22 -49 -18 033 047 
-33 056 -34 -52 -88 -28 -02 060 -48 -55 -108 072 -105 078 074 058 -32 029 064 058 -88 049 -68 -52 086 078 062 067 061 -53 021 031 005 022 038 -57 028 -74 028 029 -85 004 049 067 031 -51 -43 050 009 -36 051 070 -48 073 061 025 024 -28 -121 -26 025 014 032 023 
-46 017 016 049 010 -81 017 -82 107 -16 113 -24 -56 -104 002 -11 017 050 -21 -27 078 -70 043 007 044 019 -54 104 -17 036 060 -19 033 024 030 -56 -05 052 065 036 -83 -35 031 -69 028 068 055 056 035 029 -46 -71 027 064 -38 -96 023 031 -105 -31 047 -78 046 -22 
055 -23 049 043 -51 081 -25 -75 -113 -31 105 011 007 041 072 -46 061 -33 -02 007 063 047 -20 -13 -56 -81 069 085 041 -08 020 -10 -33 -38 038 054 -23 060 -72 047 024 -58 039 062 061 049 -17 061 049 -59 024 -06 -05 -75 064 -115 -29 016 026 034 035 -75 -28 001 
-05 -10 033 052 011 -55 022 102 -06 042 046 025 -69 -116 059 011 -04 005 047 -48 062 -78 -61 -10 082 -02 010 -84 036 015 -51 000 070 022 037 034 -12 028 041 -01 -83 -81 -22 078 057 -34 -37 059 045 -57 042 009 -41 089 074 -72 000 021 -34 044 001 015 -46 -12 
061 -02 013 -71 095 009 -71 -44 -88 -32 081 -41 -22 -95 -75 010 -84 -44 055 -05 -53 -32 066 -12 -81 -30 087 -105 -16 -25 -59 047 -19 -29 047 057 053 075 013 -11 -69 058 090 -73 008 047 045 000 001 000 -30 -42 -49 030 -26 -49 001 -01 -114 056 024 001 -24 025 
-54 -39 033 -68 -96 037 035 063 098 013 033 032 -90 089 042 -47 -66 028 -66 014 032 -71 034 -21 -07 -03 063 -121 -24 001 -51 -40 049 -25 -23 050 026 -63 046 -09 079 076 -65 004 -65 048 056 -17 043 047 -32 056 005 082 -69 000 009 051 -101 055 -47 069 035 017 
-60 -62 044 -65 047 -25 002 -88 -95 041 -75 -39 -103 036 061 -29 -30 -45 064 024 087 -22 032 -13 057 -81 -26 -77 022 -31 -19 011 023 -06 002 053 -50 037 -75 012 -89 076 -47 083 046 030 050 -52 043 013 022 054 068 -73 058 049 016 029 -58 087 -19 003 027 015 
000 -42 052 -67 007 008 078 -113 -91 066 055 -70 -27 054 -14 -24 -29 -18 -42 010 -87 -41 -64 015 -68 -20 035 011 061 039 029 007 049 -17 030 -17 -33 -75 -75 -08 005 -13 -87 -12 005 -04 044 011 -40 023 -30 -52 059 -99 -20 -48 021 -64 -52 044 -28 041 -48 030 
-43 049 058 045 045 -78 -83 -105 -73 -73 -25 -71 -69 -90 042 -06 042 -08 066 027 -86 -21 -71 -37 -80 -59 -62 095 -08 -50 069 035 -42 064 012 009 -25 002 -71 045 061 -41 035 -38 055 -31 046 -60 039 -53 042 081 -18 -19 033 018 000 047 112 088 -85 040 -33 020 
044 023 -53 -34 026 020 085 -115 -91 -49 -113 -60 -23 -79 -14 019 -98 -06 027 -10 -55 017 039 033 -74 -65 082 -117 071 -29 -56 -39 071 063 -17 -44 -14 -71 -82 -60 -71 -14 -107 -07 -33 061 028 -30 -42 -18 029 034 -47 015 -88 -115 028 070 002 010 050 012 -46 027 
-42 016 -62 -63 -96 058 072 075 075 033 025 -68 -30 029 070 015 -65 033 -74 -01 -08 -54 -50 -10 -29 -70 076 025 -54 015 030 -43 -69 -61 028 -22 010 -48 042 046 -15 -42 -76 -49 -64 -68 -33 026 -07 -29 -41 -83 -44 036 -62 111 -05 -25 067 -06 021 -40 016 -12 
-33 042 047 -25 -89 074 -15 042 105 068 018 -54 056 096 065 -43 010 025 -69 -34 -30 006 -51 067 -20 -43 073 -61 -43 -54 -28 -03 007 005 021 -31 018 040 027 019 098 -24 073 -17 -54 -63 -01 -58 -49 -20 048 -35 -69 -72 029 -109 022 040 -38 -25 084 026 040 012 
001 030 -53 -84 067 090 -61 090 -109 055 -26 068 066 -69 025 -06 -26 012 019 008 020 012 -35 -65 089 065 020 067 044 -49 006 030 -05 -50 -03 -01 -27 003 -20 -08 007 -84 085 -04 -03 020 -14 063 -32 033 063 009 053 073 -51 099 -29 029 005 -16 082 -62 -40 025 
067 -59 -66 003 040 -27 048 -116 -112 -70 092 -55 073 -109 033 -08 -86 001 067 013 070 066 056 056 -22 -80 -49 -76 -09 027 -56 054 -35 000 -39 012 048 063 -09 032 052 -23 004 024 024 009 -33 -31 037 064 -09 -74 -68 086 057 -102 -28 -52 -74 -86 004 070 033 054 
059 -29 -48 066 -86 -50 055 027 058 005 -99 066 041 -109 010 000 -24 022 -43 037 -36 019 010 050 -85 -67 029 -118 -69 -07 -74 -29 034 -31 -33 003 -27 081 054 -24 -13 -42 -11 063 -65 -49 -23 033 047 050 015 052 058 089 055 010 -27 -69 069 022 -27 024 -37 017 
049 -54 -28 -44 070 077 -80 051 086 000 022 -15 103 093 075 -02 065 046 049 -02 -17 -30 -38 059 -28 054 -52 114 -58 -51 -52 007 -33 039 -13 -30 -43 -44 008 030 029 084 -14 014 -30 -11 -26 -52 -43 013 -19 -55 042 006 037 115 -49 029 -70 089 018 022 065 038 
-04 038 -59 022 014 097 -27 106 -12 -40 066 064 -100 -116 035 -06 063 041 -44 -46 024 -14 013 067 -17 044 -31 108 -45 -06 015 -42 000 064 -24 -56 055 -37 046 055 060 -36 -11 047 012 018 -23 -50 -36 -30 -11 022 049 -04 061 030 020 047 078 065 080 086 021 002 
-57 -01 000 -01 052 -81 -94 030 072 -14 074 028 -40 108 077 -16 086 050 035 039 -72 -44 -40 074 044 -52 013 106 -15 -30 -14 007 062 -20 -12 -22 -04 -80 -64 024 -73 -40 -15 061 -63 064 -69 001 -39 023 -17 -56 -17 -96 -78 041 -24 031 083 066 031 -29 039 -15 
084 -61 -51 076 002 -74 077 059 071 011 -31 -70 041 -65 -51 004 081 -15 041 009 052 -37 -67 029 091 -82 076 040 066 -24 -34 -10 013 066 055 042 -66 038 -46 -43 -71 -73 -17 -21 -26 059 -66 -13 -42 -20 012 -15 019 096 -87 -42 023 -10 038 008 -61 -33 046 -02 
-24 057 035 021 008 081 -14 007 004 -03 -104 -15 -37 -20 -69 -14 039 -51 060 020 -16 -19 049 -62 -73 032 -16 -101 -12 030 -41 022 -66 -68 -29 -13 001 015 009 -37 -12 -48 -30 -17 -58 -65 044 -50 019 -05 -50 -44 -43 -53 038 049 -02 053 -20 -59 015 -03 040 -19 
070 -65 046 -34 074 -94 053 094 034 -67 026 -16 -05 -96 038 004 081 -48 -45 -02 -44 075 -72 016 090 -29 077 -33 009 051 011 009 -35 -46 -23 -56 049 -18 003 -26 028 047 023 003 -13 -21 055 -31 -52 -26 034 -55 048 048 073 034 011 008 -93 -81 -28 -23 038 -09 
-77 023 018 060 087 019 011 056 -61 -61 106 042 -87 100 -63 042 063 052 -61 066 044 -73 -51 -12 060 011 -18 -25 009 -26 -55 000 045 024 012 026 -57 -53 024 -18 015 077 029 -76 -57 036 047 050 023 -43 -32 -38 065 080 -32 048 026 -13 -115 -91 016 -15 052 034 
059 044 018 074 -17 -93 093 -81 -110 -45 -80 -42 -14 -102 039 011 -46 000 -25 011 034 -24 031 -43 086 040 -34 -102 -70 010 059 039 -30 060 000 054 -16 057 044 -51 086 -74 -85 074 -44 021 044 027 018 -27 061 -76 -68 094 035 -114 019 037 005 -84 014 067 019 -32 
075 055 038 031 078 022 -32 -01 043 -34 089 042 -45 -74 -67 046 -49 014 064 -34 -55 031 061 -45 000 012 034 -80 060 000 005 009 -20 -35 032 -21 004 -24 -10 -62 -67 -15 -89 -57 054 -18 062 -17 018 013 001 071 055 008 -70 077 009 056 -120 021 032 007 -38 000 
-74 010 005 -49 -67 055 091 -75 -40 -54 041 034 -67 048 -63 002 047 026 038 001 020 -09 013 -65 070 -78 030 -68 -39 009 -72 045 032 -50 -10 -08 017 -82 -39 045 -65 005 097 -62 060 -34 054 047 -30 055 -45 008 -55 -79 -63 -82 014 -60 -74 076 038 099 021 -18 
-65 -27 021 072 089 -77 -93 103 -79 056 102 -32 076 -102 046 023 -79 -46 016 006 002 -73 061 -08 -82 -63 067 098 014 -32 -32 038 050 036 -48 053 042 079 -78 -11 095 -85 -71 053 -23 032 005 -25 -17 -51 026 038 036 -94 001 111 -43 052 -112 069 069 -56 009 034 
-35 -65 -56 055 -17 084 072 -52 -26 058 -114 044 -30 -112 -62 027 -93 -17 022 -46 012 076 037 055 -68 -13 054 -103 -40 011 -76 -23 044 012 -22 -34 -43 022 013 054 061 -84 -80 -38 -11 -64 007 -19 049 048 -66 -79 015 -42 040 -44 -13 -58 115 037 003 062 018 004 
046 035 -35 -81 066 -86 008 -15 066 059 -61 010 039 -116 -65 -31 057 040 047 046 010 -60 003 -26 -40 -63 -54 -94 016 -21 -27 033 -09 -30 -03 -23 -50 067 010 -32 064 -57 064 -52 -19 025 -33 030 027 -12 020 -05 075 068 082 -101 -01 037 091 -10 021 008 012 -25 
-37 -48 -41 016 -61 049 068 -29 -72 -69 -18 -73 -92 -12 -01 -04 -44 051 -49 045 027 002 010 -68 040 011 -49 035 -16 034 -33 028 057 061 051 -02 006 034 056 011 038 064 022 053 058 042 057 034 -52 -57 057 -08 039 -63 -69 112 028 -02 105 030 -33 063 -51 000 
-52 -24 053 -63 -02 -20 -95 073 073 -54 -100 046 -09 -94 -52 -24 -69 020 057 -29 082 031 -10 048 -80 -47 -45 118 -17 -17 029 023 069 -03 025 -24 -14 044 -28 030 -42 059 -57 -82 060 -33 017 027 040 007 025 -65 060 051 003 090 003 053 096 -44 021 -60 -38 026 
038 -12 -10 -64 -90 -62 080 086 -93 033 -45 051 -37 045 008 -41 -97 -47 -20 -32 026 041 -59 -18 069 027 047 052 052 -44 -28 -36 -70 008 -06 011 -47 -62 059 -50 -97 -65 -82 -15 019 -42 -23 057 -17 -36 024 -02 -46 -85 -09 -37 -15 -42 048 -24 -64 -05 -48 002 
015 -53 -01 068 -73 -09 070 -74 039 -04 039 -02 -96 071 040 -34 020 018 069 036 -61 -20 059 039 005 018 -04 098 -10 017 041 -02 -18 -18 029 022 -06 -27 -06 008 088 063 004 -71 020 022 -11 -31 -17 051 019 -41 021 085 -68 099 -38 -74 027 -46 027 -47 008 006 
030 -52 -29 -29 -31 -60 017 -112 004 052 095 -75 073 016 033 046 044 -40 -64 -15 054 053 016 -08 014 -71 009 050 034 019 063 -21 020 -30 034 -04 010 062 056 -64 -76 005 -65 -17 -03 -55 -48 018 -50 025 -20 -78 048 -11 018 052 024 -42 -117 025 -08 063 044 000 
054 052 056 -52 082 085 -97 -90 -35 059 036 -07 -22 -121 -60 020 -100 -35 055 037 -49 008 -39 024 -106 -53 002 -121 052 018 035 043 028 050 -31 032 046 077 -19 059 -41 075 -26 016 -41 009 -57 013 012 026 012 004 -56 027 030 -84 036 -27 -99 -19 -29 009 029 013 
-79 003 028 -30 025 055 036 001 075 -57 078 -65 099 116 066 -45 -72 -19 013 -29 -82 -57 -56 058 000 -10 075 -66 -42 -44 015 -37 006 012 032 030 -07 059 -31 004 -98 -69 -07 -17 -14 -26 025 -50 -50 003 -59 -44 012 091 -45 -118 -10 017 096 -58 027 -12 -40 013 
-02 031 038 021 055 -47 050 -55 -12 -48 054 070 -58 -94 048 018 023 048 -12 -34 -48 -15 -19 008 -31 039 101 002 047 032 -64 024 053 -56 039 -09 -43 -65 -39 -08 087 084 081 -75 -66 -20 -32 038 -25 -30 017 030 -42 -52 -04 -74 031 -14 019 044 -68 -27 036 -16 
-30 008 -41 071 -96 -29 -54 -55 053 028 -85 001 -65 106 060 -18 068 -09 062 024 -68 076 023 012 003 -60 001 -01 016 -40 -63 045 -03 -61 -41 006 025 037 -47 036 -35 036 -40 -27 003 028 -60 055 -04 037 047 069 -58 085 -44 -118 -28 038 042 096 024 079 044 027 
052 -14 -65 027 -68 -82 -05 -90 027 -04 -106 -26 -97 110 -37 -30 019 -14 014 -30 041 -18 -63 -05 -88 059 -70 088 022 -19 -31 -35 -60 013 -49 013 047 046 064 009 -65 -22 019 041 -08 019 -27 064 016 054 -45 008 031 -79 -40 105 041 072 116 073 071 018 -42 038 
-42 025 029 -71 -58 -77 -82 -108 051 -10 107 019 -61 111 -64 011 067 018 023 -51 -89 060 -41 058 041 -45 068 053 012 -27 024 023 061 032 -20 036 -28 -90 075 -40 037 023 056 -30 018 -13 -51 -35 -26 045 -41 006 -22 037 -80 090 -22 -69 -101 -04 039 -53 -32 032 
064 -57 -40 -05 -95 002 -22 087 089 -37 -107 015 -87 105 -55 -05 -95 053 -13 058 036 -17 013 007 093 -37 -64 106 -45 -57 052 038 011 -17 031 030 -19 087 069 -65 -67 -58 -70 054 061 012 033 000 035 -51 002 -02 -78 081 -21 060 021 010 115 -50 070 -77 -01 020 
078 -35 061 012 000 062 -73 -99 032 045 -111 -05 -30 029 015 -02 053 055 048 006 -59 -35 065 040 035 -33 -41 -105 048 -24 009 -36 -12 038 -01 -44 011 014 -53 -53 007 -51 079 -19 -36 -25 -07 033 036 -22 038 012 039 051 -78 -12 038 -40 090 -87 -09 -24 -37 030 
-33 004 032 -44 -41 027 028 106 -14 070 -28 035 034 -39 -52 027 074 -52 -47 026 -32 -25 060 051 -61 049 011 115 064 000 -22 023 039 015 047 -07 033 -83 049 -16 -73 045 034 -67 -14 -12 040 011 024 033 007 027 -36 090 -27 062 005 030 086 021 -05 050 040 038 
-57 042 015 -36 -53 007 -54 112 103 -40 007 -14 -52 118 -64 005 092 -12 058 021 -47 -64 058 -18 098 064 -67 -88 029 -39 -01 -23 -19 -17 057 -19 -09 -86 -26 036 -37 008 076 078 -55 -17 -14 002 -18 042 047 -54 021 -59 039 -01 018 008 106 102 021 -15 -24 -11 
058 039 -66 -51 -60 052 066 -83 112 -34 -39 068 -98 037 014 -20 051 -34 018 052 077 -53 -16 068 063 -37 -13 015 019 -53 059 028 023 013 034 029 -32 074 055 -54 006 076 076 009 049 070 002 -57 -30 034 037 069 065 038 043 -111 020 023 -85 -44 043 -82 024 -31 
066 -24 -57 -82 029 046 -81 -96 006 -70 -82 -56 106 -117 -57 -29 -55 -41 004 -32 023 -07 -16 009 057 -12 084 085 071 024 029 050 021 018 012 -06 026 -48 063 033 074 -17 -87 022 015 -47 033 003 052 016 037 040 057 022 -84 107 007 055 -92 -90 -77 068 058 -34 
076 -39 -34 060 000 -12 090 086 095 -25 112 044 026 114 -33 -29 -11 011 028 -13 -54 047 049 054 088 -82 -54 -85 033 -46 032 046 -19 -59 057 -24 -41 -31 -64 051 -23 -04 077 -40 026 078 -27 -68 -43 027 -41 -03 -11 013 -63 -91 030 -53 113 051 050 -32 039 047 
-53 008 054 -64 -98 -19 -25 075 108 030 007 -56 071 020 -05 035 -92 051 -58 029 -69 041 -46 054 -34 -08 062 -107 -68 052 -56 -37 -11 037 043 -16 023 -72 -14 -14 039 -84 072 082 056 038 -37 056 048 -58 -52 071 063 -87 017 -102 -10 019 021 026 -56 -83 -17 -16 
018 008 058 -70 -52 -62 -95 -81 -54 032 091 -39 -97 073 -01 038 004 -50 -03 040 -61 022 -57 057 082 -69 -79 -73 -09 -53 026 017 -32 023 -44 023 -16 001 -07 -39 -51 -53 -05 029 015 030 000 -48 020 001 009 023 022 048 -39 075 -22 074 -91 016 -65 -22 027 -01 
015 033 -35 042 091 -37 011 018 093 -13 072 -31 -28 -78 -23 031 -40 047 -30 011 -21 054 -55 -16 -25 027 000 110 045 027 014 011 057 066 -33 040 032 022 -52 023 074 037 068 -41 -12 -49 012 058 017 -43 054 -38 034 -41 -77 105 037 055 051 -86 053 001 021 009 
-13 -56 -59 -38 -74 075 028 024 086 050 -17 -67 -89 -114 -08 044 -70 -50 -33 -25 085 -38 040 035 084 018 -72 -100 -04 053 016 -26 037 018 018 050 -23 087 071 -54 018 -06 023 073 -03 -16 -65 048 -36 -47 -59 021 017 058 -38 -106 031 018 -29 -20 -70 008 030 015 
035 -12 -64 051 -87 011 -59 093 -31 -58 098 003 027 097 015 039 -30 -01 -73 037 -90 -62 004 007 -13 057 -02 086 -19 026 029 010 -22 -08 -33 049 012 082 071 027 -76 042 -73 039 030 -03 -61 020 -41 -56 -66 -01 026 094 -19 -80 026 -66 077 -80 022 077 -20 -17 
026 060 -48 016 085 -37 -62 -104 -97 -56 113 048 -20 030 -64 001 -27 -44 -27 032 -31 -78 040 005 068 -13 006 095 -43 -15 -56 -10 -05 -11 -29 -30 002 -29 -08 039 -17 043 013 022 -56 -52 -56 033 -08 -36 -37 -19 001 049 -48 -118 -35 027 -18 022 081 035 -40 029 
-44 000 -12 024 064 040 033 092 022 015 045 -62 059 -65 -64 029 -21 032 -51 057 014 -49 014 057 -17 072 -44 097 -39 -38 005 038 -40 -57 005 -18 -48 017 -83 009 046 080 033 049 -19 -09 026 -61 -21 056 -16 072 062 072 068 104 035 065 -96 -104 002 -19 021 045 
-27 -58 -44 -46 -86 -39 047 -70 067 058 068 005 043 -78 -40 -18 -86 027 009 003 070 -54 063 048 057 -40 -68 -09 -54 025 073 024 -52 -07 012 048 037 052 039 -51 -45 079 005 -80 -40 -57 -07 -64 -35 -57 -18 -84 -45 -37 -68 -31 -36 -70 -119 036 -80 -69 -28 001 
-15 -12 -54 118 -61 101 057 090 121 -11 -119 043 -33 -118 111 -27 -97 -65 114 046 -64 -46 -51 108 111 -60 116 -104 111 003 -75 017 115 055 060 010 038 -72 060 083 -67 116 113 -75 -13 040 -14 093 013 018 082 -80 071 119 -11 -40 047 016 -110 -60 095 060 043 -12 
018 046 -22 007 -40 -38 039 -71 063 013 103 066 035 -115 009 -33 073 026 059 049 -59 015 036 -28 009 066 026 112 032 010 -28 015 -19 009 001 -10 014 -75 -12 -58 071 080 -18 -28 -66 -62 -17 013 -32 -52 -29 046 033 080 002 110 -21 031 020 090 040 012 -07 027 
084 054 021 054 -27 085 056 -113 043 -15 -91 021 -91 -114 -34 -08 -93 -43 -14 -07 077 049 069 -52 053 035 006 117 049 039 -03 -43 -38 026 044 010 -51 -65 -38 -45 068 -83 -24 023 063 -28 034 -19 040 029 -48 -81 -25 -82 080 -115 -10 026 019 073 061 -20 -01 -17 
028 018 -42 -29 -35 076 -24 054 -67 -12 109 033 103 -63 005 000 052 032 -35 044 -64 -24 -23 -43 074 -25 -78 038 -71 024 060 -35 -56 062 -07 050 009 -61 -65 -55 023 046 -21 -31 064 -25 -05 -05 031 -21 011 -75 017 -12 -34 090 009 -75 -47 048 007 -79 047 -21 
-88 052 -28 075 -48 -57 029 098 108 -49 012 -05 -84 093 062 045 -69 045 -32 020 066 053 -17 -15 027 -54 017 063 -63 -02 -27 038 -63 -12 -40 046 009 -11 -57 -47 -73 087 091 013 -05 -17 003 -43 019 -27 -70 -52 041 -37 070 -113 048 024 029 089 -52 -31 062 -19 
079 -53 -50 -88 068 010 031 -21 -30 -06 012 044 -64 -92 -64 033 -53 048 032 -33 -68 -25 -09 -36 -92 -64 102 063 -30 -21 -44 -10 -49 000 033 -33 061 075 -18 056 080 -01 064 -64 -48 060 007 -25 006 049 -63 033 -26 -12 -66 -05 -40 058 -79 -51 -62 075 027 020 
-19 032 026 -45 000 -68 021 -71 030 040 087 -71 001 115 061 -19 046 022 -44 056 -22 -05 042 060 084 -47 -51 006 -61 011 044 -05 -52 -48 035 -15 000 -57 -34 -11 033 -84 010 -60 038 031 -19 062 012 020 -54 047 -46 058 041 -79 053 068 -43 -77 062 001 -09 027 
044 -51 -04 -27 -46 032 -38 -99 -67 -19 098 -73 103 102 054 -33 -63 047 057 023 065 010 -45 071 -08 033 099 078 082 -56 056 -36 040 -62 033 031 -48 -73 031 046 083 -12 037 -11 022 064 052 049 -15 010 -61 014 039 -98 034 -110 -29 005 -103 084 -85 -88 -42 006 
-42 001 005 065 050 077 045 055 074 -65 039 025 010 108 -10 -42 053 032 074 -11 -74 043 -37 -18 -71 027 -84 -63 032 -51 -21 019 -24 -40 024 022 -31 -55 033 -47 -76 -70 -47 078 -24 -64 030 016 -21 -45 -63 -63 -19 085 034 026 007 -59 090 097 -82 -81 011 -08 
-23 -04 -36 047 022 -13 050 -88 103 -13 -12 029 041 -109 -59 000 062 -11 -76 -01 031 -36 025 -23 -40 -39 043 096 034 051 026 001 040 -06 035 000 -37 085 002 -60 -12 049 091 051 -55 -60 051 -33 029 -41 -05 078 -03 -67 -18 113 -12 060 086 090 052 -32 -06 -19 
-80 -67 -16 -53 -11 077 -39 -94 092 066 004 -70 -46 045 002 -32 -33 035 -29 -31 -60 -01 032 047 042 -14 -16 -77 070 -26 -21 -05 064 -11 023 -59 004 023 -09 042 082 083 044 004 -50 023 -13 006 007 062 003 042 034 055 027 039 031 -08 119 -67 -34 -51 003 037 
060 041 -21 -55 069 087 -55 036 031 033 081 067 -84 109 017 022 -59 055 061 042 -51 -31 -67 037 -47 -34 -47 050 -22 -37 -26 029 -37 -25 043 -44 045 041 -51 -27 081 -31 -68 -17 010 -62 064 050 -04 062 044 044 039 -75 079 104 -07 -76 -78 071 000 008 003 016 
028 -52 -63 054 -96 051 -80 -109 036 061 -45 -52 072 -98 -26 037 042 050 026 -18 -30 -70 -31 -10 -11 020 032 106 -60 -48 -63 -35 -42 -55 035 045 013 -45 064 030 083 -71 -37 031 005 -38 018 019 -46 036 056 -72 -43 055 066 -103 -14 020 091 -90 048 017 -17 -02 
023 -57 -02 -09 -78 069 -72 -71 -52 -24 096 000 -25 046 075 025 -71 015 057 039 038 042 000 007 -14 023 085 -105 -39 -40 019 035 005 024 050 -36 064 -83 -85 064 -75 -57 -46 -82 -67 014 -49 027 -52 -06 -15 -07 -19 057 -13 -88 035 022 -100 -93 -89 029 028 -09 
-27 -11 052 032 -30 -68 -31 -87 -99 -07 101 030 -66 -100 012 -48 034 -45 057 031 022 -55 -41 034 -54 -30 064 115 -41 008 -44 042 071 005 -19 -53 020 -79 023 -50 -97 074 -80 023 -21 -10 -35 030 031 011 -31 005 -31 -14 063 063 025 027 076 -99 -21 031 -40 -32 
060 -16 045 -88 033 094 -32 107 -86 -46 051 055 060 102 -69 029 006 039 048 049 050 060 -12 022 055 -45 -77 -109 -10 -53 047 -08 -52 -09 018 -38 034 -64 061 -56 031 -78 062 024 -22 -39 019 067 -41 -25 -51 062 022 -68 -26 060 048 -50 122 -21 040 064 057 026 
-24 013 -48 045 -85 -31 094 112 067 -47 022 060 -84 112 -56 032 009 032 014 -45 -10 -31 030 -56 058 -31 001 -35 -58 -33 -35 024 -81 -70 020 -17 -13 -22 067 003 085 -76 079 021 000 -30 -49 -20 041 -38 -37 -37 -47 -70 -36 109 -22 -32 115 040 066 -57 -11 -34 
058 028 030 -68 009 -92 -58 012 -102 -56 081 -58 -73 081 002 035 030 044 -08 -13 -48 -64 012 016 -61 066 -17 068 042 -49 051 042 051 042 013 044 -47 -05 019 -08 082 016 001 077 041 -38 -08 -43 040 000 051 -72 -32 080 027 -99 -02 056 -81 088 -79 -58 -23 -26 
-03 058 -64 -58 -90 075 -51 074 -113 -11 -111 031 053 -88 027 -36 077 018 025 014 -74 035 -57 -29 -30 -27 -46 078 -15 -28 -51 -24 005 -60 017 -05 025 007 -49 006 082 -83 -08 -18 040 -42 -44 037 -44 028 -65 046 036 054 -81 -43 026 012 073 -58 080 -37 009 -20 
083 058 005 -58 089 051 093 -54 -65 -71 111 047 067 103 -49 -34 018 -42 024 -12 087 -62 053 -15 015 017 065 094 -23 -54 047 -31 011 016 045 048 -02 048 025 040 097 -20 -72 074 049 -43 037 -27 -19 035 -36 -45 062 -71 -03 114 -12 -44 000 020 -53 -56 -07 032 
-28 004 -25 -12 -90 033 -61 -16 -100 -65 -08 034 039 045 069 -28 041 -25 028 -10 042 -17 -38 048 077 020 003 -99 -21 -47 027 014 -56 -16 -13 -34 -27 037 -11 -35 064 -76 064 -50 064 -02 004 041 -17 058 027 038 -20 021 -10 -117 019 052 -115 -86 044 -09 -62 -34 
-41 052 026 068 -74 -26 -56 019 -106 -29 106 008 -99 -91 071 -42 -72 -05 002 029 -90 -55 -42 -66 -92 058 -49 -113 063 055 071 028 016 041 -27 -04 -33 -35 026 -01 099 -41 -39 -70 062 040 056 010 025 011 049 007 -67 -88 -44 -78 -21 -15 092 084 -68 069 -10 033 
022 048 -60 -52 -67 082 -61 060 048 -41 106 -41 -44 085 -35 -26 -80 -01 -21 033 -08 -75 -63 -12 -78 -70 -07 117 -40 -25 061 005 -44 -29 -22 023 -27 018 070 038 -77 -30 006 -19 -34 036 -67 -55 -41 -39 036 010 048 093 029 -97 -30 -09 -15 -102 083 017 005 -18 
018 042 -58 041 010 -19 -68 078 -70 -39 -48 075 -69 -82 025 -37 028 000 000 -26 -69 -78 031 004 -45 000 049 -106 -46 -28 032 -32 045 020 -20 043 -16 035 058 -34 061 -36 030 033 044 070 -47 -14 014 -50 -53 -44 039 077 -18 -115 -42 014 -07 036 037 072 038 -02 
016 044 050 -38 035 020 075 068 078 062 -110 037 085 -53 -71 -11 -82 040 -12 -25 070 020 -68 023 085 079 -27 -09 -66 -09 -68 -45 -57 009 -12 029 038 071 -45 037 -78 -73 -68 -06 -21 068 -05 029 -13 -25 056 069 039 082 051 -99 016 071 -119 -93 -40 014 051 000 
-28 -24 -37 -11 -75 -60 -52 -106 -106 -08 -69 -52 095 010 -12 041 -20 -26 -72 018 026 -31 -66 043 -87 038 -50 -110 057 -51 -27 -41 049 031 006 032 019 -43 031 -29 -25 069 -68 031 043 -32 -33 -44 -49 022 -51 -58 051 -11 -10 030 -26 -45 043 025 042 031 049 016 
-74 056 -21 -82 -73 -21 074 047 -98 039 104 -38 095 -07 014 -46 -84 -28 051 -10 -79 -58 018 029 -59 -31 -26 -20 -37 049 -37 -12 -05 -41 -24 -53 031 036 033 048 073 -08 079 -24 045 -14 -30 -03 050 -21 -22 -45 060 037 055 -19 035 -67 -97 095 -54 -21 -04 034 
065 042 058 071 065 089 -85 066 055 -50 067 039 069 -97 -57 019 016 013 026 -45 -14 -21 049 068 038 -72 077 -67 025 006 035 017 -71 015 -07 003 -30 070 -04 052 -81 -42 076 001 046 -28 -47 -25 035 -11 040 -25 -45 -60 -80 006 -26 031 -36 -71 -21 -58 032 -28 
-29 -20 -12 068 -27 -49 -08 112 -90 -12 030 -37 -58 -103 003 -42 -33 -26 -39 007 -21 -40 020 038 -75 -20 051 012 -23 051 066 -37 003 050 -40 -16 017 058 -46 048 020 074 -62 018 -41 002 -62 -07 018 061 062 -75 -55 008 030 -58 -43 028 -70 -99 -90 -36 -47 017 
-07 -46 -12 008 -23 054 094 -68 -98 016 067 -49 -25 -84 071 -34 062 016 073 -29 -77 036 052 017 034 071 -57 -83 060 -46 059 040 047 015 031 -23 -38 -03 005 052 -68 -31 -50 040 -14 056 -40 -29 045 026 -64 020 034 -08 -27 -100 018 027 086 100 026 043 -22 -20 
054 -14 008 055 -66 -71 080 -108 -39 024 -78 042 -28 -115 017 020 086 -12 -23 020 079 -50 068 043 -92 -15 008 -115 -14 032 055 -36 -59 045 -03 045 028 -64 -37 -09 052 078 -23 044 -28 065 -53 -34 -16 -35 043 051 -63 -46 -47 -11 024 -40 054 082 082 -75 047 037 
-81 -56 016 075 -27 051 058 -100 -99 026 006 -28 093 108 011 -32 084 048 017 -46 -31 066 -40 -49 -48 049 032 016 -22 -10 049 030 031 064 004 036 036 024 -07 -09 -36 -50 -81 073 032 -68 -22 045 -27 012 031 055 032 -85 077 -04 013 -57 -38 -88 065 -13 022 -07 
-35 053 -41 007 -89 -11 -94 100 -88 056 -30 025 102 -99 035 024 010 -28 056 010 -60 053 057 032 072 065 080 097 -13 -56 -29 -22 045 -48 012 -12 010 -41 -48 064 -56 044 -27 055 040 049 051 050 009 006 -30 -17 -30 -29 -84 079 036 069 028 029 -05 012 -24 -16 
043 017 -22 034 010 026 -15 -53 003 068 -19 016 088 -23 030 -28 -81 -46 -02 -53 -62 -10 -11 -02 -79 035 082 -39 053 -35 010 004 031 -40 -15 050 026 -57 -47 041 -98 075 006 015 030 -50 052 045 035 054 013 022 -35 044 -31 -16 015 019 -107 033 066 061 037 -30 
-23 -32 016 053 -82 050 050 096 -69 025 -112 -15 -06 -83 018 004 -91 018 069 005 -30 027 025 -55 017 061 -43 009 059 016 -48 -38 -70 054 028 -45 015 -33 022 050 -17 -83 -91 013 005 012 -27 038 017 -68 003 068 -51 -93 -84 -01 014 -75 -36 099 033 020 -42 006 
-67 -56 -61 -77 -31 048 -68 011 031 067 081 068 -59 -106 -33 031 -75 006 006 035 -75 -62 018 -19 049 015 -12 105 043 054 -72 021 017 -22 -51 -45 013 -83 039 -28 -27 005 -50 -80 015 -17 -41 033 031 -39 008 081 -52 044 -22 089 -43 021 -93 -23 073 000 015 014 
-11 -41 042 -07 027 -34 084 102 -54 -25 -106 044 -28 114 -72 -18 -68 000 -51 -10 -83 -44 008 -58 -11 -60 -94 -112 -17 -26 013 014 020 -25 -10 007 -21 -05 055 058 -34 030 -78 -57 012 -77 -32 -49 -20 -52 -39 -53 -15 -96 -06 -68 -01 -56 -07 -04 -01 -21 -15 -42 
-91 -44 057 003 009 -74 094 106 -09 -72 088 072 -95 -115 -57 006 -77 -50 074 -45 -46 -31 015 -08 -67 -71 001 109 -12 002 014 -36 061 027 011 002 012 078 023 -07 -91 -78 -96 -33 021 036 -40 -49 011 058 003 064 053 -41 -06 -55 009 -57 069 -64 -75 -44 030 017 
045 063 027 -41 047 020 -29 -36 093 -19 036 -67 099 035 -73 -25 091 047 010 -37 -10 066 037 051 -62 -06 -36 088 022 -30 -07 002 -53 032 -04 -52 055 -11 -55 -23 035 -49 -48 -16 063 049 057 001 -06 -04 -22 -70 031 060 -17 -117 -29 042 111 -67 059 026 -04 034 
-63 056 062 082 -86 069 -94 -08 045 007 110 025 -70 029 034 -25 -76 -09 031 034 -87 032 -25 001 -83 003 067 -114 -17 -13 036 041 033 -64 -37 -52 -54 054 023 -34 040 045 026 -84 -60 -25 015 057 018 031 -58 -21 -46 012 022 086 032 048 106 -78 079 -12 -34 030 
-70 021 -23 029 -28 073 078 -64 018 -59 -111 075 -85 -94 -23 -12 001 055 -43 -41 -78 -18 -54 041 015 028 -91 -116 068 -20 -22 001 -57 044 020 002 024 -16 -76 054 -101 -62 062 -74 -15 -69 017 018 -29 -34 054 079 -43 -80 -12 043 009 040 115 -84 -34 -26 -08 -37 
-67 -23 012 -26 064 -44 002 059 -112 010 -72 -07 -39 -35 -41 009 -45 040 -11 033 -17 043 -40 -38 -27 047 071 032 -45 -12 -45 046 010 -31 010 -09 -31 -49 -04 033 -45 -75 -99 -85 -55 -46 -56 062 -19 -31 -01 -39 026 -109 -52 -80 -29 016 -113 -90 065 -56 033 -28 
-57 055 -11 058 -93 -77 020 111 -96 069 -78 056 -95 072 074 -15 -08 -51 -03 045 070 -74 036 -19 022 -55 -69 -87 066 032 -77 032 027 057 -32 -27 025 078 074 059 -01 -34 -74 049 030 068 -58 024 024 -15 056 -08 012 -51 027 -92 -37 073 -119 -82 -24 064 034 041 
-70 -35 049 084 047 039 037 -59 043 008 096 -21 000 041 -33 -32 -16 -28 019 -22 087 -12 -30 065 016 025 077 115 050 -08 046 -08 034 041 047 -19 033 -79 022 -12 075 -55 -74 -16 021 003 037 -06 -45 -16 059 031 -04 079 -39 -101 031 -05 065 -96 004 031 -38 039 
-40 -54 -27 -78 006 071 -70 -95 -96 -41 -89 042 -102 -84 -45 -06 -87 -47 -52 003 052 061 -42 -70 064 078 -11 105 054 -23 -43 033 039 055 001 -57 056 -88 046 014 -100 046 -37 047 -57 044 012 035 -56 048 022 005 -43 -59 -44 -61 038 022 073 020 -06 -47 020 039 
041 037 -43 032 -19 -48 089 096 -107 -59 037 -37 -85 -50 060 041 028 005 058 032 -66 037 -19 014 -71 -60 037 -106 007 -11 -69 030 -16 029 -23 032 -42 -66 -03 -52 -91 021 097 067 015 -12 030 -10 027 038 045 074 -54 099 003 113 -25 037 112 044 091 -71 022 015 
022 027 -24 068 -83 005 -40 102 -19 -72 -101 -67 000 034 008 -36 -86 -26 -12 -30 010 -27 -46 000 -31 037 -15 -109 -69 013 -31 043 -36 061 -48 047 030 -14 076 -15 -85 043 067 048 060 042 047 058 009 039 033 -53 -11 -01 046 020 -27 -04 075 -39 050 -08 037 -24 
-47 -37 -01 -43 080 -61 -58 098 -17 -62 063 -20 -98 -33 -57 024 008 -42 -22 -41 059 -37 014 -17 002 -35 078 -86 -46 001 003 -28 000 067 029 042 030 -01 -08 -06 034 -49 067 007 062 -64 -44 019 -56 048 057 -63 011 -82 035 061 005 -13 103 087 -33 -81 -24 018 
-14 033 -02 -70 032 035 012 034 -45 -27 026 029 -81 074 058 022 -03 008 057 -37 021 051 -56 -21 086 -26 -49 111 -52 -06 034 -38 046 -22 -33 -11 -34 070 -53 -39 011 045 -55 -59 058 -35 015 041 -49 -44 005 021 -64 086 059 -77 -15 -67 -43 056 -75 -76 052 -17 
-05 -13 051 065 025 069 011 -87 -19 -19 -17 031 102 073 046 005 -101 -36 048 056 -23 049 -56 -58 -73 056 048 -111 -61 007 -76 -18 -03 080 010 028 047 036 -42 001 -63 -74 -65 -70 -46 -55 048 010 -34 -62 -34 -49 -79 101 -34 -36 -05 023 -72 -74 088 -08 -15 -33 
084 017 045 -84 -48 -61 093 -98 -50 023 077 006 -99 085 038 008 088 009 013 -02 001 -62 -15 007 -68 045 -04 114 054 018 -54 018 037 030 025 -05 027 051 071 022 -100 -70 -25 -33 -61 -63 -58 062 010 058 -35 -72 016 086 051 116 -42 -54 043 -10 -36 -16 -07 -27 
079 -63 -53 061 -69 -21 -48 082 -06 -72 -88 007 -91 -107 -21 001 068 -19 064 030 -12 -33 011 015 -78 -06 -26 115 -27 -26 067 -15 -60 010 044 -11 006 044 024 -55 024 -05 079 -21 -66 -44 022 002 -15 013 -54 -10 -61 -93 -44 116 006 -65 085 -21 -57 -51 -52 021 
-78 014 -31 008 -22 004 056 097 058 -54 -83 -69 002 -116 -36 044 -82 019 054 -09 -04 034 061 010 -27 061 -19 113 -18 026 -76 -30 -15 -25 028 -27 -51 062 -71 027 092 019 038 038 -32 057 038 061 -44 -60 010 081 023 020 059 116 -43 -22 -88 050 072 056 -33 -15 
-75 019 -55 -70 066 055 035 -13 -79 -20 015 -09 -103 -105 038 009 014 -39 -27 048 030 074 005 -01 068 -59 061 -100 053 051 -67 -41 023 -31 032 040 -58 065 020 -22 035 051 044 046 -32 -27 -57 -07 -49 -07 057 013 041 047 -29 114 -25 065 -115 -68 -04 -14 -13 -16 
-34 -42 -40 028 -60 -57 -02 -58 -51 027 -102 002 -88 -100 035 036 067 -44 039 026 086 -56 005 027 -19 -51 -18 115 059 -57 053 -27 031 001 -19 047 014 024 071 -12 -19 -85 059 074 019 -49 -27 053 039 041 -65 -43 -70 -70 -07 -44 008 -45 028 -46 054 -90 -35 -11 
-79 038 007 086 083 094 094 -75 -85 -64 009 064 -78 101 045 042 075 037 -09 -15 -69 -03 020 014 073 057 -85 018 008 053 008 -34 -49 021 -23 -12 029 -02 -59 -39 -62 -22 053 009 006 027 -43 -63 -37 044 -12 018 002 -57 -69 027 039 -62 -36 -66 026 -45 011 033 
-19 -35 019 -68 -79 009 -53 -103 -86 -63 -107 -35 034 107 -70 -38 024 036 -27 -28 032 -22 055 -58 017 052 037 -48 008 -13 -13 -25 -09 -66 -27 055 029 -38 -79 040 017 -77 -71 076 -46 -29 -10 025 047 045 061 000 -08 -88 005 -95 -01 -17 092 -76 -18 -15 047 014 
009 032 -61 005 042 -46 015 -108 101 010 089 -52 -22 -55 -21 024 -96 028 073 -15 -08 033 -72 065 059 005 038 101 069 -02 075 016 -07 -45 040 -03 -54 -58 016 023 021 -70 -27 069 -54 -70 -55 -18 023 -55 -05 037 045 -29 053 062 -38 007 -36 -13 -84 082 -47 -34 
-26 -18 002 021 -78 074 -32 044 -43 -08 -108 -20 081 -109 -21 -15 026 028 -37 -37 057 -77 064 -41 -13 -14 -82 116 -04 -01 -56 024 027 028 -12 -53 013 079 061 007 004 024 030 054 -20 -08 -24 -64 001 -40 -10 044 024 058 -08 -117 028 -31 -105 -35 -33 060 -43 -07 
075 -45 -47 -42 -72 -36 -63 101 -56 -56 -09 013 013 004 -60 -46 -14 029 -44 038 006 075 -39 -54 -61 014 -67 -109 006 001 074 008 038 -51 -12 -37 017 -73 -64 -56 -15 084 -57 -66 -43 -47 021 020 -38 -44 018 004 050 053 083 -84 -27 021 -15 079 -32 048 -48 -05 
078 012 050 -35 -92 089 083 103 059 014 064 -18 -74 -56 -38 024 -18 -23 -05 -22 -52 044 044 -58 048 063 002 001 069 024 -06 015 -12 060 019 -48 017 083 -50 029 078 -28 -12 068 003 058 -44 042 027 048 049 -38 -19 -89 -61 029 -09 048 -117 -56 -45 064 039 -12 
-85 057 -27 -21 -73 -09 011 054 -28 -53 -108 031 077 112 -56 018 -13 050 001 -40 077 061 -04 -51 -67 -60 065 111 026 -29 064 014 045 -65 -11 035 -44 035 013 041 008 -15 -68 -37 -54 -45 028 056 052 -40 -50 047 -40 003 064 001 028 037 -112 -98 006 009 017 013 
000 033 -53 064 062 -07 -27 085 -05 061 036 -21 015 -118 -71 -15 089 -53 -67 -45 -51 061 -20 -44 039 -27 -35 -111 -04 008 055 015 047 -67 046 035 -46 017 073 059 089 -39 043 055 -34 053 058 013 -17 043 -50 -44 014 -95 -11 068 -12 -44 085 -102 056 080 -47 018 
-92 012 063 -53 002 085 -99 -46 -56 023 054 001 -86 008 059 -16 002 -10 -60 -46 -48 -35 017 -40 016 061 -30 003 042 -03 072 035 -09 -17 042 -26 026 028 -37 036 083 -43 065 068 043 -59 -12 -60 051 -11 -67 044 016 -36 031 043 007 071 086 080 089 061 -12 -29 
-53 029 027 052 029 -44 007 -69 -11 066 -78 -14 -55 091 -45 -13 -65 002 032 018 026 -07 042 052 001 036 -49 -15 -28 023 -71 039 -65 066 -26 -18 -09 053 -11 -68 001 038 060 -58 -41 -65 -49 -21 -18 005 004 -31 -75 087 071 -70 -41 -26 -24 065 034 035 -02 -32 
-26 -03 043 065 -32 -67 -89 097 032 -74 -95 -56 089 -19 -38 033 000 005 031 048 077 -55 -73 -44 -89 -31 -78 107 -35 009 -75 009 -16 060 000 -58 -65 -37 040 039 098 -12 -90 -38 001 -33 050 -03 -19 -39 054 064 -07 107 -72 -103 019 -53 105 037 061 -81 -16 005 
-76 -18 042 052 041 016 060 -73 -72 -11 -18 044 -60 058 -67 027 -57 029 058 -12 057 052 054 -79 024 058 066 -113 069 014 -53 019 -31 059 018 -14 049 075 037 030 066 -74 076 079 -27 -43 -65 -30 -08 -07 -02 032 -37 -94 015 -95 040 -69 -116 056 057 -30 -19 002 
030 -65 018 000 027 -34 047 082 -39 030 -34 036 -95 113 072 -34 -93 -44 -63 -16 -79 039 -05 029 057 026 042 056 009 027 002 020 073 021 009 004 012 033 073 -51 -98 -71 -60 025 046 039 057 -43 027 001 018 -10 -07 -05 052 -107 006 -08 -77 -04 -84 013 -40 029 
-51 042 006 -84 067 060 035 -09 055 -20 -08 -51 -84 001 034 -32 -82 -48 -31 -11 -22 062 063 018 -22 016 054 106 034 005 030 -41 028 041 044 -24 -44 -73 -05 -04 -66 -66 -74 -60 -25 059 -09 -47 -15 -42 -14 071 -67 092 -74 011 027 010 -99 -73 -55 077 009 -09 
-47 -40 -33 040 084 065 089 -43 046 -19 -18 057 057 -34 077 -44 089 002 024 -14 078 014 -63 -35 -44 072 000 -97 057 044 017 -46 063 -68 023 -43 052 -63 -25 012 -13 047 -56 -71 034 058 006 031 -10 -16 055 -51 -55 -88 -57 -114 -07 -69 -87 -103 063 015 -26 020 
-69 033 -25 -69 066 032 058 091 -74 048 -64 010 -100 103 064 006 072 -10 -16 -21 -82 -11 042 046 087 -35 014 098 -10 -53 040 -06 010 042 008 -44 027 071 003 -61 067 086 -43 -59 011 -43 -10 061 035 -48 038 066 -57 026 -56 -38 040 -20 111 -91 030 009 -05 008 
-45 -28 -49 068 053 -64 022 -58 -99 -05 000 -69 064 -110 019 035 -70 -26 017 022 034 036 -35 -55 015 071 -55 061 -56 -41 -16 031 -63 008 028 047 -14 -46 -66 -11 016 -10 049 -56 -20 048 -30 004 014 049 -58 047 027 -58 042 -113 024 023 -17 -16 017 -72 039 014 
-68 -17 -43 048 073 -95 019 -110 -61 067 -01 048 -76 -114 -31 008 006 -48 -13 -44 -34 076 069 -63 -49 -57 008 -113 -01 015 -15 016 -41 048 043 051 025 004 006 -29 -77 045 -59 008 002 016 -24 045 -29 030 -34 -54 -66 -26 021 -112 -41 022 095 -07 075 038 031 037 
-62 007 -61 041 076 064 -47 -107 -65 049 097 -27 -74 114 065 011 -52 045 -74 -26 -67 024 -07 -01 053 041 -86 104 -51 -23 -47 -07 057 -05 027 004 -55 050 -79 -20 -50 065 -80 036 002 -63 -14 061 -43 046 052 -52 -49 049 056 -75 021 -46 043 -16 -14 -71 -60 -04 
-60 036 -61 -14 003 -87 066 -87 -87 051 061 -63 042 116 038 -19 020 049 028 -28 038 047 -73 -01 077 -16 -67 -93 -56 028 020 025 -35 -50 021 -25 038 027 -56 -55 -91 055 -31 -71 037 001 058 -15 -15 032 004 067 045 019 043 035 003 -52 -30 008 -74 071 017 036 
079 -27 058 059 -95 -50 090 -76 109 038 -06 002 -70 099 043 030 022 -36 -48 053 057 071 -51 010 086 -83 -54 098 031 -08 -24 000 -60 010 012 -38 052 025 017 -10 -78 065 -61 052 063 007 021 005 049 048 -42 048 055 082 -82 101 037 -39 095 047 -14 049 -38 004 
058 -63 064 -04 -48 007 033 -98 070 -60 092 011 -64 -21 -05 032 -71 -21 044 012 -89 -65 -04 004 -75 -44 034 001 -36 -35 -55 037 -15 -64 012 048 037 -38 038 -22 083 047 068 042 -39 035 -36 -63 -34 -41 -37 046 032 -60 -45 -62 015 -40 056 101 -29 -61 -51 006 
-23 020 -25 065 -53 -77 000 101 111 017 104 011 -57 011 077 036 -96 -42 064 001 -16 -79 -69 -08 -24 001 -73 -110 -24 -33 015 009 -06 -07 -48 -23 030 -46 059 010 038 -66 -47 -29 -49 -51 010 -20 046 -11 -59 -28 051 088 -62 -110 003 014 042 096 039 -77 -50 019 
-33 -09 -62 054 031 083 -61 -106 -89 -69 046 055 040 -81 068 -07 -31 019 003 -21 009 006 068 008 027 015 083 -80 039 -19 -62 -38 -07 -51 042 -59 038 -71 053 -15 059 -01 059 021 -59 035 026 -29 044 -43 -06 023 009 -94 066 -13 -10 -28 -118 012 -63 026 -49 002 
-76 -45 -10 061 -04 083 -67 -109 085 -60 -85 019 -80 106 012 008 -40 -15 025 -34 -72 -03 -63 019 005 -38 065 -118 056 -50 -60 003 -51 026 015 -46 005 -33 -55 015 098 051 054 -29 007 054 062 016 -27 -17 009 020 002 -01 -38 070 -40 -42 093 093 072 -79 018 -35 
-78 056 -37 043 -28 -72 021 -62 107 -71 -42 -33 -98 110 -18 042 -25 017 -59 001 -44 -24 041 018 081 -55 043 -101 049 031 009 010 -05 -39 036 -30 041 051 000 056 -07 081 -78 -61 026 -09 055 055 -11 -23 006 -30 -57 069 001 -103 -22 -56 104 -30 -67 056 033 -12 
-90 -58 -33 -49 -70 064 083 -59 012 -42 -29 003 -36 040 -12 -12 -58 -54 045 045 -70 012 -02 -12 -93 -83 -22 -08 002 -28 035 -39 026 047 023 053 039 -51 -29 -26 -50 -66 -75 -80 -05 042 -21 046 032 030 -76 -84 -80 100 -36 115 012 009 -48 075 -44 -87 041 039 
010 009 -05 -17 -98 057 090 -13 101 036 -81 070 -13 030 050 -23 -86 012 046 016 076 -18 043 -51 089 041 -44 -104 -68 023 -71 -18 029 039 025 -20 022 -40 -08 032 060 -61 -47 063 -54 062 017 -64 052 -39 -32 -64 -52 068 -19 -01 030 -44 -115 067 039 036 047 006 
-83 012 025 -36 009 044 082 -102 -49 068 -33 -29 041 103 053 -30 078 062 -01 004 012 065 062 -36 042 057 019 -47 030 004 046 024 -32 018 -39 037 -36 047 075 042 012 -63 069 -79 001 068 -31 -31 012 003 015 046 001 -99 -84 114 -28 -46 -103 008 -84 008 -11 011 
067 021 -31 052 091 059 093 006 101 000 044 048 -103 -68 -56 -12 -81 -14 029 -19 021 -58 -40 -56 033 -60 -17 110 070 -57 -69 -29 021 -42 039 008 034 -18 -06 030 017 033 -49 -49 016 -47 -35 053 050 015 -32 -55 066 -09 047 -77 -23 -39 090 055 064 -55 014 -34 
-61 043 -34 025 -76 -98 -53 067 019 042 -108 015 054 -103 047 000 008 019 -21 005 030 -04 060 041 033 -34 -80 -119 018 -34 023 002 -02 004 008 -48 -51 -74 -47 043 095 061 -85 -46 -40 -38 021 -35 006 -38 -44 082 049 -80 080 106 -35 -12 055 -16 -13 -38 -24 001 
003 -64 025 -23 -87 009 -38 090 -59 018 087 049 -59 -106 -45 -43 -30 -56 -03 -41 -67 053 -68 -04 001 006 -07 096 -01 027 045 -04 -62 -63 034 -56 034 041 -48 019 058 -59 038 -55 -37 -68 -58 -09 023 052 021 -53 -16 -02 021 015 -24 -58 020 -95 084 -23 -51 001 
-37 008 021 054 063 -55 -91 -108 068 014 -31 043 060 023 -45 -44 022 -34 -73 049 -83 039 -37 000 077 069 -24 081 040 -51 -52 -43 -12 -34 042 -14 052 -24 -47 -09 048 -85 -45 -35 -45 -65 -21 -16 -45 -25 -52 063 -19 -91 -06 -105 -32 042 103 095 019 086 028 -08 
-20 -29 005 -71 065 088 086 -104 079 -28 084 -38 063 045 -19 040 -52 024 -18 -43 -66 -11 058 013 -56 -42 -65 -19 070 007 -56 020 -21 029 -05 054 036 -49 -04 -56 -95 040 043 070 -64 059 -51 017 035 036 051 -45 -21 043 -19 115 021 -46 083 -49 -21 -70 050 036 
-31 053 -58 026 -16 -40 -82 039 099 014 -65 070 078 034 -49 -36 -46 055 004 035 065 -70 038 -64 023 -53 -40 097 -72 026 075 -27 001 -54 013 021 031 088 -74 -22 096 -12 -83 048 -17 -26 024 019 041 -22 053 -78 047 068 024 088 -04 002 -116 063 -54 -39 051 033 
-74 042 -33 -11 092 042 084 -81 032 -02 -112 002 -103 -19 -62 015 001 -34 -60 -46 -53 -39 023 011 071 051 064 114 055 -37 -26 -28 058 -35 026 -21 -47 070 -47 -33 -65 039 -60 006 032 043 056 004 -52 016 -55 070 -33 -61 -40 103 017 -64 119 -30 -30 075 019 -41 
-37 042 -25 022 086 -68 -33 -47 -104 -45 104 050 -21 032 034 -01 -42 046 068 046 -62 -74 033 055 -75 -38 077 044 075 -40 069 -13 068 -39 -47 051 027 068 -31 -65 096 -43 -51 -56 028 -55 -02 -71 -27 028 -62 017 013 013 066 093 025 007 -14 000 -12 011 -07 019 
043 029 010 -36 089 013 026 021 -93 032 -61 021 101 109 -54 027 016 -56 -25 013 056 064 -15 058 -93 068 081 -44 -68 015 -20 019 -62 036 045 -43 052 -64 -21 027 -68 053 -45 -46 -49 028 045 -62 -40 -02 019 076 -40 -91 -47 086 -28 058 -25 -84 052 -82 002 033 
008 -17 032 041 028 -52 028 -109 -61 042 -108 -55 -58 -33 -15 -34 063 -35 006 052 042 -40 -32 020 -61 072 -28 096 -28 -46 -76 004 052 -49 006 -05 -30 -11 055 -48 023 054 -65 025 013 017 060 057 029 003 -13 034 032 025 015 104 -37 006 -50 -83 -78 028 -02 -41 
-70 -21 030 005 -79 -51 -25 074 109 -50 -89 -31 043 093 -06 014 012 003 -41 -15 -90 041 013 -55 081 -08 050 -07 -53 -24 -58 045 014 016 -27 051 013 045 -52 -01 -56 041 090 052 -39 -03 -33 -29 040 040 -34 068 025 -92 -72 -117 -24 069 104 -91 011 022 -30 002 
065 -18 -26 -52 076 066 -92 038 -90 067 006 -18 015 -110 -73 015 001 -37 035 005 072 048 -29 078 -06 021 064 002 -18 047 -49 005 -65 -53 007 -29 -31 068 025 -25 011 029 060 -73 045 -41 -34 035 -17 042 -26 036 052 087 055 114 -17 030 -97 -32 -26 -25 -27 -04 
-49 -54 052 021 063 090 024 043 027 034 -87 -66 -56 -113 071 -39 015 054 -18 -03 -76 071 056 -19 066 -64 041 -116 -28 -11 -68 -48 -64 016 -39 -60 024 -49 -70 053 -60 064 012 046 -63 -68 053 017 029 -46 -60 047 -12 -26 045 -105 -17 -36 -101 -94 -57 034 053 000 
007 028 -02 -14 091 -66 -62 -89 086 049 -17 044 040 051 010 -21 -01 -36 -06 -03 063 067 -19 002 056 -36 050 081 -34 -01 -22 -36 015 -57 -08 022 035 -56 016 019 070 006 -88 -70 033 009 -13 001 -02 006 028 020 -36 008 -80 -08 027 058 -98 022 065 056 -25 034 
-65 063 030 084 066 009 -97 -65 088 041 086 -21 -42 084 -66 -31 024 015 006 019 080 -72 045 -18 007 027 -46 056 018 028 005 -12 -17 028 -03 -45 -02 -76 -09 006 -72 006 078 023 042 035 -31 038 -02 -05 -60 069 004 -66 026 -110 023 -70 -41 -80 058 059 036 -34 
044 060 037 -05 -64 -99 016 -97 -106 -59 087 -14 097 -43 057 007 -78 043 016 -02 023 059 -47 -43 061 076 089 -106 -23 -38 -48 -04 033 029 040 017 -15 003 -74 008 026 -52 -128 008 -58 -72 -63 -02 -50 -42 024 061 -50 -94 003 -61 028 058 -101 -30 025 015 026 -01 
-28 -02 053 -33 046 -56 -90 099 078 -39 039 008 074 -60 044 036 088 026 -23 021 083 -68 -50 048 001 -74 091 105 -01 -11 -33 026 -38 033 -11 -21 -07 009 028 017 -39 081 056 -56 -54 016 -23 024 -03 -06 049 -02 048 103 021 115 -32 -65 -108 039 084 037 -25 040 
003 058 -64 -52 095 090 005 060 -20 -45 -103 030 063 061 020 014 -66 034 -71 -06 058 045 -28 063 001 076 065 108 -47 040 -09 -27 -20 -04 -27 -21 -01 041 -78 -01 -80 019 055 -45 -57 011 053 063 -10 -48 036 -70 061 -14 -77 088 046 -45 -93 099 -29 -86 046 -21 
-83 052 018 020 076 -62 -65 028 -86 003 079 004 086 -18 077 -15 -21 006 000 025 005 063 030 -48 -81 -01 -35 -72 -58 -57 -67 017 -16 -37 005 006 031 003 040 043 -01 -02 006 -27 016 016 026 -45 046 003 020 -29 -09 024 -50 -18 025 -70 -77 083 055 -85 027 013 
-64 050 -64 086 -43 -30 085 102 070 003 068 -14 -04 -112 -24 029 -37 048 -25 033 072 -39 021 -66 -51 -78 068 -101 -60 -16 060 -21 064 -58 -20 -13 -30 088 -33 -09 032 079 051 -75 -04 -18 -24 -63 -21 037 -53 063 -72 090 079 110 008 004 045 -49 027 -49 031 036 
-76 004 016 073 -94 -83 -73 045 002 048 084 009 020 -74 -07 030 057 007 -48 -29 -82 032 -56 -45 -85 -69 -18 -18 -48 040 017 043 -16 -29 030 004 038 058 -71 004 069 048 -80 010 041 -39 -64 047 -41 -60 013 -12 -70 042 -86 -86 -17 -17 -115 098 077 -02 -11 003 
-19 -65 029 010 -20 082 -94 -74 -111 -20 -50 -70 -30 032 072 033 -94 052 -58 -48 -74 011 045 -45 -76 -69 024 081 -61 -46 -53 000 008 -41 011 018 048 030 -73 007 052 -22 -28 -12 023 044 057 -30 -15 023 -28 -23 -57 -83 -21 -112 -15 -25 -34 -42 -53 036 -14 005 
-55 -38 -35 058 -17 034 -29 -101 -108 024 -54 071 082 -98 -56 -45 002 025 -55 -34 077 020 033 -11 026 -19 072 039 061 -31 018 -31 -24 -51 037 -32 024 007 069 002 -76 -80 083 015 -06 036 052 -07 037 017 -03 081 -64 -06 -25 071 -34 071 -102 031 -87 -74 012 018 
-66 032 038 027 096 088 -40 064 061 -11 -115 -27 015 -83 026 -33 001 -49 011 048 -50 -33 -64 -27 040 045 076 -58 015 -18 -52 005 -64 062 027 -42 005 -84 030 -63 -49 061 -87 020 052 026 -25 056 -37 013 016 -47 066 044 025 -104 -32 -11 104 089 030 -41 -12 -42 
-93 037 034 -35 030 -58 -29 -93 016 063 077 -66 058 112 -51 -41 022 033 012 059 -38 006 -64 -55 022 018 015 -105 024 -23 000 -18 027 039 021 020 -05 -84 029 -32 005 -74 025 021 060 -32 017 016 -37 027 046 041 031 054 071 -89 017 -64 -71 -96 018 034 012 -31 
028 -45 032 080 057 073 070 060 098 033 111 -20 -13 -92 -27 042 093 -55 027 -31 -61 022 -72 022 -57 -16 -16 -93 -67 049 -31 -36 -57 -55 -42 -01 -08 036 052 -35 098 058 069 006 045 059 040 -34 009 022 -54 -74 -17 043 003 -90 -35 -19 -108 -83 -01 051 016 018 
-65 044 004 -44 -10 -84 -80 048 024 -53 077 -60 042 037 -57 018 -98 -58 -49 023 057 037 018 -12 -05 -76 095 -99 016 007 037 002 -29 069 -48 000 002 050 -75 030 -27 056 -74 -64 001 027 -04 007 036 009 -13 -84 040 017 039 107 -42 005 118 -97 078 052 -13 -09 
052 043 039 -23 088 036 089 046 063 032 089 047 -70 054 016 013 -53 041 -57 -23 -23 -78 -64 -69 074 046 -64 -112 -66 -13 -62 -45 -15 027 -48 058 -13 061 066 -16 021 029 018 051 -55 -34 -47 061 042 -24 025 011 065 065 078 -114 025 -19 102 -16 -83 062 -50 -05 
034 -21 -33 071 090 080 090 072 079 -56 102 012 020 -36 012 -01 055 -50 062 025 020 016 061 -11 -59 -55 041 112 058 002 -11 031 050 062 -36 019 -12 008 063 -08 085 013 -14 -08 -62 042 -50 -62 048 -06 -22 068 042 -32 -78 104 -38 058 -87 029 -63 -02 009 -21 
-01 -03 001 -04 -93 -15 -31 -45 -61 -25 -36 050 084 100 -30 -23 -93 037 002 -45 -89 045 -07 -11 -60 -13 -08 -107 -32 -56 032 -19 028 -15 -40 027 -01 050 023 -68 055 -92 -63 -29 050 035 029 -80 043 012 001 -01 -62 -49 -64 024 -28 042 -54 078 008 013 -58 012 
-16 -19 010 048 005 -39 010 071 052 -18 090 023 046 -115 -56 -45 086 -33 -60 013 076 -62 030 -26 013 001 -38 114 063 -49 061 -39 025 047 -19 -11 046 -66 -15 018 096 051 012 -27 028 -42 050 021 -48 018 057 034 016 021 -25 -08 037 002 093 090 -75 004 -32 005 
070 006 032 -80 -81 -86 055 037 012 001 052 -42 -38 110 048 026 -77 015 057 023 009 065 -45 051 015 -71 -63 102 050 -23 -35 000 025 007 -48 -57 002 030 -73 038 -26 050 059 077 007 -70 023 062 030 -55 053 -01 -39 -29 -40 -86 003 -69 -82 -89 -67 -88 053 -41 
-43 054 016 080 -76 005 -08 -106 045 -02 -78 010 -55 -10 -56 -40 -32 008 058 043 007 -47 -31 040 -40 013 027 114 021 010 -43 -03 -65 057 007 039 004 -52 -21 -65 -27 -23 -48 022 039 -18 -01 009 -32 -21 -35 -72 -02 -27 -69 108 -15 002 -114 -82 086 -81 -48 -14 
075 -29 024 -23 046 -25 -63 -112 -95 -10 025 -72 095 -22 -70 029 -05 005 046 -02 -75 -26 -61 051 013 011 041 -119 018 007 -29 020 -13 -53 -49 055 037 -89 -60 010 041 012 012 052 013 -66 044 015 051 -51 -04 -20 014 007 -41 065 -46 049 089 -101 083 001 -04 023 
026 053 -64 -85 064 036 -39 056 025 045 -108 -53 061 -112 018 024 -42 -54 045 -31 064 -09 030 -61 -87 022 063 072 028 030 -50 033 063 044 -08 028 -44 050 066 -44 046 038 -40 011 020 012 -29 -49 040 -41 -31 064 -40 -38 057 -107 -01 -45 085 -32 -08 028 014 018 
-35 -47 -42 -41 -40 -18 -94 031 099 -20 -115 -66 -51 -63 -23 027 -93 -08 -35 044 057 -07 -71 050 -31 -20 082 114 -51 -23 -21 020 -13 -02 -48 020 -21 017 -54 -56 086 080 -45 -45 -26 061 050 039 043 028 040 -12 046 -66 -29 116 -49 036 -35 -71 053 000 -16 -04 
033 -45 -36 064 051 087 011 -111 087 017 -89 -27 -74 114 -41 020 -80 041 055 -25 -82 -34 023 -25 -44 -21 -68 001 031 -49 060 -10 020 -51 -07 -45 031 042 -50 031 -59 029 -65 -34 -18 -80 -04 031 024 008 -14 -44 -45 019 -45 -111 041 -02 -88 -53 045 049 018 -17 
-17 020 030 -83 -41 -92 -92 -11 -99 067 -65 067 060 -101 -26 -22 -54 -38 -56 038 -80 025 -49 -45 040 -33 -35 -119 061 -33 075 001 -43 028 051 -25 051 -73 -30 025 081 -01 -77 005 045 -66 -26 -39 039 039 -45 061 -22 077 -03 -77 037 -30 -36 -33 -43 -85 002 010 
009 -03 -53 040 -79 023 030 -103 -112 023 100 026 101 -79 -11 041 -13 054 -64 029 065 010 -51 -47 -42 -63 022 -96 064 -44 071 016 -67 068 043 -61 036 077 043 -40 029 -61 -57 062 046 -34 -52 036 -25 005 -02 -33 021 -85 053 024 003 -75 103 065 -42 -85 014 -09 
-39 -12 -55 078 097 087 -70 -76 -21 067 -112 -13 -13 -24 007 036 055 -26 -15 -46 -58 -77 -45 -57 -79 -83 -35 -109 -58 -49 051 003 044 -59 -52 -28 018 036 -59 063 038 -62 051 -81 -49 -31 061 -44 -08 055 036 057 016 -39 031 -25 -01 067 -17 -46 -62 -66 048 -04 
081 006 -14 058 -93 -08 004 025 -91 -18 -41 020 026 103 066 -26 -95 -29 -50 036 -55 031 -50 -41 018 057 -24 -105 050 016 -36 -41 066 061 028 -28 036 059 -31 004 -100 065 -65 074 -62 -33 048 056 009 027 062 -71 -68 -59 -69 108 -10 030 -97 -51 -66 085 -10 -09 
040 -24 -24 029 079 -11 -70 -30 085 061 -106 040 -45 -117 -74 -13 053 025 057 030 041 -33 -47 041 001 078 -41 -99 -51 017 065 043 -69 064 -24 -63 -32 -51 -30 -42 061 -08 061 -72 -29 -01 -53 -06 039 -61 -18 -37 -13 -89 -31 -19 -14 -70 -94 085 -25 007 -35 000 
-79 010 010 090 -01 002 -77 007 042 -72 111 -27 -58 055 073 038 -38 017 038 -36 -83 018 070 -01 035 -61 -02 113 073 -32 030 -43 -14 062 024 -12 -46 -90 072 -51 085 -66 -82 -81 002 047 055 -06 -46 -31 060 -62 -25 -56 071 034 -15 -42 114 095 052 007 -57 -31 
067 -14 -08 -61 -31 074 039 069 080 038 -60 -14 098 -66 -72 010 -86 -03 027 -12 -67 014 -25 012 057 060 -42 -112 027 037 039 -34 027 -39 008 018 036 -77 036 046 094 060 -14 -44 -12 059 012 003 050 -46 -41 024 -37 047 030 -58 -10 -44 -103 049 023 021 018 008 
035 003 001 -78 -84 -01 -25 -22 -115 -56 -97 057 -41 -116 053 019 -56 -35 -08 008 034 020 -02 069 -58 003 -10 028 002 008 013 -21 003 064 008 003 -47 -02 008 015 019 075 -80 -63 043 057 008 035 027 -31 -13 -71 -80 097 062 067 -14 -17 021 -93 039 -09 -05 015 
-18 052 -28 -47 -34 044 -12 -74 -97 -53 -36 040 -92 078 -78 035 032 009 -52 039 048 061 -46 036 027 -12 069 100 047 -35 -08 036 056 018 -07 -32 013 003 -75 -09 083 -49 033 -33 -42 -59 050 043 -46 -42 007 -36 -58 -64 -73 063 023 048 102 -88 -31 -66 -19 -03 
-53 -29 005 -64 -81 086 -88 -98 -92 055 092 -69 -78 -84 -63 003 051 050 070 035 -49 065 061 036 074 004 016 100 027 009 031 045 058 -05 005 -48 048 -86 -04 -10 -18 -19 -91 -83 054 -58 -20 045 -19 042 008 049 068 -91 046 -88 -34 -61 116 -96 026 -28 027 -21 
-40 -48 -60 -74 079 -84 007 -91 -15 -57 -29 -45 034 -93 074 038 078 -33 -11 004 066 055 063 013 -77 -15 068 110 -27 -19 -74 -32 033 064 -52 -01 -20 030 -36 -68 -47 -49 084 018 047 005 -05 042 -12 038 -46 -15 -70 086 -39 -79 027 047 091 -11 -72 -46 035 015 
031 -23 -10 062 -01 092 -85 -13 -32 -19 -95 014 088 -31 038 012 074 -25 036 -02 070 014 -68 037 062 007 042 -117 -38 -41 054 -11 -49 051 000 -02 030 082 076 059 099 057 -65 048 050 -56 -40 004 029 -15 -20 -34 -32 -92 007 -113 027 -76 053 -64 038 018 013 020 
-47 -56 -21 011 -28 -96 041 -75 038 -70 056 020 -44 -112 046 -37 -52 010 -28 -11 -85 046 -50 010 -95 -10 068 100 -24 035 -60 008 017 060 019 -29 036 026 -34 -45 -30 -41 077 -05 -18 025 -36 -54 029 -30 -38 035 -64 -79 073 -91 -27 -45 -36 -68 -43 073 034 041 
027 -18 -27 -22 -84 -73 019 -112 -60 -69 080 026 -12 113 -68 041 005 -45 084 -36 -08 007 018 050 007 032 -22 -89 003 050 060 043 -10 025 030 052 035 052 -62 033 -100 061 074 -34 047 -16 -38 040 047 -27 030 060 054 -56 -43 -110 -39 -59 103 037 -24 -84 037 -22 
-58 016 -51 075 047 -22 043 053 060 -25 -91 -02 078 -88 023 039 070 011 052 056 -62 019 008 -31 -01 -25 003 -55 -49 021 009 -43 038 -47 033 -21 044 054 -01 -21 -83 -08 -46 047 -61 -27 -06 001 001 -34 -30 -78 057 036 -86 099 -35 -41 -119 026 -46 082 042 -05 
-06 -02 064 -82 -40 024 -96 -65 -110 -02 005 002 -102 095 070 -22 -24 -41 067 -32 -35 -65 014 -48 -17 -12 001 072 -19 -55 -65 -43 052 -01 026 053 034 072 057 -47 091 -29 071 068 054 039 042 -58 -48 -52 -11 079 057 -57 043 -56 028 000 047 098 -44 042 021 -29 
037 029 -58 -62 070 -39 044 010 -82 -51 -59 069 -26 021 -48 048 -63 001 067 -35 -11 064 068 066 050 055 -13 111 009 -06 070 -53 061 -21 -19 -58 -65 -57 037 -57 085 -69 -89 -80 -35 032 -57 -75 032 010 -11 -49 -77 -01 -32 -53 -40 000 -25 026 -51 024 -04 -18 
-64 050 -60 -86 015 -07 -37 -21 -42 056 -109 065 017 058 -55 045 063 -50 014 030 073 -24 051 058 -29 037 -71 -109 022 -14 -57 038 042 -05 026 -27 054 -53 -56 -50 068 041 072 -08 030 -21 013 -48 030 002 005 079 035 -87 -75 -01 051 -40 058 -24 001 -38 025 -33 
017 063 027 -65 092 -93 070 -108 -110 -25 108 -16 075 095 -49 000 -16 -04 -19 041 065 -76 046 005 -49 -11 035 -99 -07 -30 054 019 -49 -24 -12 -15 043 059 070 -53 080 -52 064 019 -48 -71 -53 -50 -48 029 -56 -78 -61 -74 -64 -05 012 001 043 -85 079 017 -31 -21 
-42 -38 -12 017 -38 -72 -41 027 -69 068 111 -59 -27 -109 -69 -29 -65 058 023 -11 088 -57 -15 053 -89 -75 089 -87 -10 042 -68 -34 067 008 001 005 050 032 -66 -63 -36 041 087 023 -36 -41 -61 013 -01 004 047 -46 032 -54 -83 087 028 -13 -104 -26 045 008 025 -04 
-70 -50 044 070 026 063 -14 -27 103 -73 -36 -03 100 -109 034 -02 093 037 -39 018 031 -71 050 035 050 -18 -37 -112 -35 -44 -48 -07 067 -31 000 -10 030 -90 -28 -19 092 031 083 080 012 043 058 -28 -10 -06 -09 025 027 -21 066 -101 -22 -09 -42 -32 -55 -71 -17 -02 
-81 -46 -54 021 -30 -55 -97 086 -71 -69 025 041 -40 089 050 -07 -20 049 -07 045 078 000 040 053 -15 -75 -41 021 -69 005 040 -26 028 -19 031 -29 000 011 -63 042 059 071 053 046 -28 011 059 032 007 023 -14 064 057 -94 -01 -117 007 060 094 -52 041 049 015 -24 
-57 064 057 052 022 -93 -70 054 -70 030 -33 044 097 -19 -47 -25 066 -27 039 -36 -58 -31 -48 049 -106 049 -21 -75 062 -38 -33 -48 038 025 002 054 -49 -74 -15 -56 076 -37 -38 -14 034 045 -51 036 -10 034 049 -50 014 079 -78 039 014 -29 -66 019 -72 -23 022 017 
028 -38 -35 -79 -94 066 050 029 -35 041 -17 -66 -79 -86 -58 -30 -87 -45 -21 031 079 -65 -68 -02 038 076 072 -114 082 -09 -03 -14 064 055 031 048 -60 -25 -44 -40 -90 -65 -89 050 044 025 -42 007 029 -51 -49 078 -61 103 080 070 023 002 -119 099 -49 -86 038 -02 
051 -10 027 -74 006 020 -96 -86 -108 -64 090 072 -25 113 059 012 -39 -56 -39 021 -90 -29 025 -08 -66 053 -42 -93 -19 -23 033 -28 024 052 -14 014 -30 051 032 -38 096 -16 026 001 026 -52 038 -43 010 -22 -64 037 -11 095 078 112 004 028 105 043 -30 -77 -22 -20 
