052 -26 -51 062 030 044 035 017 -71 -53 -61 011 -06 -28 -81 023 -82 057 -96 -47 022 -76 017 048 049 -82 -13 093 -47 -70 -11 -22 -56 024 -10 -68 -69 -20 -44 -86 -38 020 -64 -105 -21 -50 -100 -104 -94 068 108 -09 -05 008 -01 -13 024 075 -44 068 081 -72 090 079 
-40 -25 024 104 043 -32 019 -02 014 033 071 053 -33 032 079 -16 -88 -56 094 -54 041 -79 054 -53 -51 -101 030 089 -22 073 021 -90 040 048 004 -44 003 -51 -77 -105 -44 000 090 -96 -70 -65 -86 072 -107 -28 092 -25 -50 -98 -27 059 060 052 052 -47 -79 027 090 107 
037 -19 061 -76 049 -62 -65 -77 000 -22 -33 034 039 -27 006 032 086 -117 -87 064 035 016 040 021 -37 055 065 -102 -26 -11 -57 -77 053 039 066 -04 077 000 090 104 -32 -94 -52 116 052 -68 048 081 -99 080 -104 023 -61 090 024 048 -28 -64 041 -43 -22 -79 097 024 
026 -13 -103 -70 -92 -56 086 -85 000 -44 104 057 011 028 -91 024 -31 008 078 082 -53 003 059 -58 016 -81 022 -57 -31 -101 -37 -28 007 042 -94 000 096 038 -111 102 -53 048 100 -116 -40 040 -102 068 079 064 -111 -97 013 -99 000 069 016 -113 007 097 010 -75 033 091 
-68 -55 -95 039 -24 015 010 043 006 052 039 -27 -23 -33 056 016 -77 -23 074 093 040 -42 -53 035 070 -08 -60 -97 011 -32 004 020 -92 046 -36 -66 039 000 097 083 001 040 080 102 -27 -64 -65 091 -05 036 -103 -14 -61 038 005 039 005 076 004 057 -87 -24 001 005 
035 003 093 105 074 059 097 028 004 -51 098 017 018 -11 -40 044 102 -116 -71 -98 -48 -86 061 -08 031 027 047 -101 -02 082 016 -11 071 006 056 -60 085 -19 -08 052 007 017 034 116 010 095 -101 -46 -20 -81 -102 064 004 -99 -10 041 054 071 059 084 100 042 -16 085 
015 -40 -89 085 059 -04 089 -62 -64 -51 025 -53 036 -61 -90 -06 072 042 082 023 -04 -63 010 067 060 -81 -10 042 022 -63 042 067 042 022 -51 029 077 -01 059 051 039 083 097 -102 063 088 107 -103 -106 -01 -88 064 042 -14 -30 012 045 -90 036 100 005 -18 -31 -107 
034 -32 -14 -66 013 104 055 -59 -58 058 060 010 -03 026 092 -15 -86 062 081 038 041 -97 -70 005 004 007 029 -84 041 -49 -43 -64 063 042 020 -29 086 -71 -10 114 006 059 098 -103 -59 -44 114 106 032 011 -115 -86 -15 -97 -08 063 076 104 023 -65 -07 -25 026 -84 
-21 001 -49 -35 011 076 -116 -67 035 056 019 -70 036 -14 -42 -51 -56 096 096 -40 032 088 -30 -22 -28 095 017 -97 -42 074 052 -20 082 051 -21 013 -102 -33 011 108 -06 074 -34 037 027 -16 104 -118 -88 078 -22 -80 -19 -46 000 -14 042 096 000 084 -60 050 -103 -71 
039 -54 -15 -66 030 053 101 000 -30 031 -68 -35 035 -40 -106 -38 -85 115 -71 -73 035 -19 068 -66 -19 -97 -65 -99 021 -101 -37 035 074 004 053 -63 096 -37 -93 059 039 -33 -75 -02 -56 026 111 -105 -106 045 -07 -58 012 077 000 074 -50 -43 048 072 -23 -56 055 -99 
058 -33 -70 -107 047 045 -49 -27 063 001 -41 -47 005 -40 -93 -59 -59 079 -19 112 -04 -85 -10 -50 -76 -33 -02 025 -51 063 -57 -55 -33 -05 -42 025 103 -14 -98 -110 035 100 019 020 -51 -14 -112 105 078 -10 083 -55 -50 055 044 039 057 -69 -39 080 -39 007 -26 -40 
021 037 113 -42 044 -25 110 -18 067 -44 101 059 -36 068 -97 034 -92 -83 084 -02 -52 044 075 010 -46 -92 044 -46 029 008 -28 -15 -75 053 086 -11 099 075 -99 -106 021 094 030 -113 -28 085 -80 -36 005 081 010 074 014 -42 -51 -16 016 019 -06 -88 078 -38 -57 090 
026 045 -40 -101 -07 -48 023 -24 055 052 095 -18 033 -26 034 -43 080 094 -64 -23 -06 106 -24 -39 030 -104 014 -78 -43 -105 007 -85 -103 -39 004 -35 -76 043 -99 -53 037 -70 -89 -47 066 089 076 -90 043 021 -118 003 041 -15 -31 046 -40 093 -54 -23 -52 -60 102 -12 
032 008 -72 -13 097 000 111 077 -07 052 100 -75 -05 -29 069 040 -76 034 107 080 -28 -07 036 -27 -23 094 066 -98 -14 105 -52 -01 070 -33 061 002 083 -18 -32 085 019 042 084 -105 005 -53 080 -105 067 -60 -61 -82 -65 024 -08 -08 -26 -96 050 -73 -83 021 078 -109 
005 -41 -71 -89 -11 098 -05 -45 040 059 043 051 -40 027 049 -41 -66 096 046 018 -50 101 -82 077 -64 -73 -03 094 047 -95 030 -37 -14 003 -51 021 -104 053 099 -72 -19 097 057 -83 052 095 -98 112 047 050 -31 -17 -14 007 -38 009 -02 -104 -65 -72 085 -78 035 -41 
-64 -38 098 039 -01 082 -66 019 055 022 -50 -27 029 066 081 000 097 -47 -73 062 045 098 052 -77 031 059 -56 -58 -28 064 017 -70 -20 -14 017 028 -109 041 -90 -85 014 080 -61 051 -50 -53 -116 069 112 -17 -100 -57 035 -72 -20 -07 050 069 020 -59 -37 -15 062 -38 
-47 029 -26 088 -24 -84 112 025 054 -13 079 -37 -40 -29 068 -10 110 -20 -71 103 004 -01 022 -81 -73 100 004 008 052 014 -40 044 -67 -13 -24 025 -40 042 -48 -101 -17 -93 -64 102 -27 -39 -115 098 072 002 -84 030 055 -98 -43 -54 -11 106 012 105 -42 013 -110 063 
-34 018 078 053 025 053 -46 -28 -48 075 -76 -39 -21 006 -54 018 -75 -41 -92 055 006 087 062 053 049 104 -41 073 -04 -55 -34 090 005 049 091 -05 082 031 -22 -119 008 010 -70 096 -52 -58 065 046 -89 073 -59 -72 -62 082 024 -48 -26 010 -09 -68 -84 018 -09 089 
-58 -45 035 097 012 072 081 -59 029 -03 -71 074 046 054 -95 021 -97 -86 -80 101 048 002 -47 041 -48 095 -37 070 001 106 055 -38 093 016 -89 -38 -100 -70 096 -119 008 082 084 -100 025 047 117 -70 -51 034 -46 -71 001 -18 025 045 010 -101 -40 -05 -33 -32 088 -92 
-57 -09 047 041 -34 043 -86 045 057 -49 -79 -28 045 004 -70 -49 083 070 -77 -96 016 -74 -43 -54 -72 -04 -24 -83 -49 036 -26 -20 020 055 051 -56 -99 -66 -91 -117 -49 -98 -64 111 -28 -86 -118 073 -90 -02 082 -25 -21 -13 -21 062 -45 -99 006 055 077 -12 -75 014 
008 -56 -100 -92 014 036 -46 009 -25 025 034 -70 045 -50 -58 057 -48 045 070 -85 018 063 -51 071 -26 -76 -44 028 029 010 048 054 054 -01 -92 -69 025 033 -101 060 042 -50 065 -104 022 088 077 -58 088 -51 111 -79 052 019 -27 -24 -13 074 031 -95 -88 -76 035 -44 
060 012 -18 -07 052 -46 070 012 020 022 054 045 -31 046 038 -06 -26 080 070 086 -53 052 071 -55 -64 065 062 -25 014 049 032 044 -88 -54 -92 044 007 069 -16 -41 053 040 -90 080 038 -10 -115 -114 106 -54 069 -62 061 -56 -50 052 031 089 007 -86 -91 -09 -95 088 
-43 -19 -107 -01 -25 -86 -92 079 -43 -36 048 -43 044 041 085 -06 -62 -56 -44 003 032 -81 -75 -71 -53 060 -07 -93 -34 -80 019 078 -94 035 -53 044 062 010 050 115 042 -76 -09 -116 -63 -94 090 018 -99 082 -19 059 -51 009 -10 -02 -59 084 034 063 076 -72 097 065 
-48 -05 095 -90 072 000 072 -59 -43 -51 -96 033 004 031 -17 054 097 007 080 086 005 098 -76 069 051 079 -25 032 -25 -101 -45 088 -42 017 084 -19 -24 -53 059 113 015 029 -52 -19 039 077 -119 -110 047 018 -112 027 -04 050 047 -48 040 083 -63 -51 037 -73 -52 016 
055 054 -19 069 -49 020 112 029 -18 -22 020 -55 009 -16 -10 -02 -99 076 016 -82 001 -76 063 -59 -57 -23 031 010 043 -80 -27 008 -51 -49 -11 -47 084 008 -50 039 -46 093 091 114 -16 -16 074 -38 -69 016 032 064 055 -81 -15 -26 053 090 -30 095 064 -41 -03 067 
005 002 107 -21 066 -42 -75 067 -13 -40 079 -52 -24 -32 -17 036 -88 -48 -21 -84 022 -67 018 001 -30 007 024 092 002 088 -16 049 -72 048 -17 -41 101 -13 -31 067 -56 -11 026 109 039 037 -106 -68 -107 -24 -99 -83 001 078 -08 060 010 032 -11 -59 069 074 -100 -88 
-39 034 062 -77 -42 057 057 088 032 -01 008 075 020 -17 -89 031 023 065 094 -35 049 051 065 -55 -25 -70 018 010 -21 055 052 -48 002 005 -29 056 -81 -09 034 -100 -41 -58 -64 087 062 009 109 082 047 -22 -48 076 -53 -50 024 -29 -14 -69 026 011 -49 060 -84 -07 
-49 -41 110 093 089 -46 -78 083 -73 -36 -25 036 -27 011 -94 007 070 106 -03 001 -24 066 064 -75 -75 -75 010 -73 -04 044 -35 -23 023 004 068 -51 -98 -14 003 -85 024 073 071 079 -51 -27 026 111 035 044 085 086 -11 -17 -51 062 -23 065 -69 -07 038 -04 073 063 
017 -01 108 -07 -40 094 -67 -88 -67 -31 092 -69 -40 055 087 -25 095 -02 -12 -21 -21 046 -39 -16 -03 -54 022 -06 034 -63 039 -91 -45 -17 -59 -59 098 -43 044 -105 007 -84 -38 094 -33 081 -91 115 -103 048 -69 092 -42 -34 -34 -11 -23 -81 -41 -70 093 039 -99 089 
-39 -62 113 -82 -64 -83 -41 091 -22 047 088 047 -40 061 -94 -39 -99 -109 -61 -23 005 -69 -79 -45 -68 -79 056 -65 -27 091 052 -46 -83 -14 -78 -71 103 -05 080 -80 -48 078 065 094 038 -43 -84 083 -77 066 096 -13 -42 -08 -07 -19 062 -60 050 -50 032 -59 083 063 
029 -25 109 045 091 -46 -102 -24 -13 -34 070 007 027 -27 -38 -37 083 -89 -44 044 -46 013 049 -11 -70 -86 -79 -15 004 017 -52 -57 -85 -42 055 -27 048 -38 -102 -44 036 -96 059 -89 -09 -97 -11 -89 040 061 022 086 035 078 018 034 059 112 -23 -67 -64 004 082 -23 
-51 -46 -18 078 -15 015 118 045 -64 070 093 065 -36 -35 055 -14 084 107 -44 018 025 017 057 -36 -31 110 -23 -23 003 -97 049 -48 -64 035 -38 -10 -102 -07 068 115 -47 -02 -21 079 014 013 -73 -95 113 026 101 067 021 003 008 045 071 -97 022 041 072 019 -111 -76 
-39 012 -21 033 085 108 -71 -45 041 -47 109 031 -35 018 065 003 -85 079 096 -66 045 -34 024 -34 -65 -89 007 094 060 097 005 -91 105 -01 076 -58 -104 090 065 -108 -46 081 018 101 -02 -87 110 -84 020 052 105 -91 -39 093 006 -42 -01 -116 005 067 013 -54 -34 082 
034 -44 052 -102 -69 -78 097 094 -47 017 092 -36 006 -34 098 038 089 045 066 013 029 -24 015 054 -41 087 -53 -63 028 076 003 044 041 -53 -11 -14 089 083 091 123 -07 015 -72 100 026 087 -84 -79 021 036 -99 005 026 -56 012 -23 -42 -73 -69 007 -86 044 095 -70 
021 022 -80 090 -34 -82 118 023 010 064 072 -18 -16 006 100 041 -88 -106 -80 067 -14 -02 -08 -19 -72 087 -51 033 -15 -46 -43 -11 -15 -02 011 -51 085 081 030 057 -34 -79 095 039 -20 062 -118 -66 048 -82 043 -51 017 -30 002 037 044 -83 040 -39 098 -56 090 037 
-22 013 117 027 077 043 119 064 -58 072 -93 -38 -43 -14 -16 -47 -85 069 -89 -71 -28 -41 047 -43 022 -100 024 086 032 090 -50 012 -18 -54 -13 -54 082 080 024 -81 -10 063 -39 054 024 088 089 -87 -50 059 086 -93 -20 -92 -13 018 -25 091 -04 -80 -82 -05 047 044 
-27 037 116 042 -82 -87 -95 033 -05 009 -56 -51 -49 037 -56 045 -88 -29 -91 -100 039 102 -20 -14 051 102 -76 -54 028 107 037 -22 -63 -04 089 -35 -103 -07 067 -83 -28 -41 -88 104 -69 082 120 -105 -24 080 -58 039 024 -94 025 068 021 -97 028 035 083 -30 093 057 
-71 -54 106 111 -54 037 -82 -39 003 -31 -104 049 -19 049 -77 -20 084 089 -98 074 037 -42 -16 060 -12 102 009 052 -13 094 043 -96 -23 -51 001 -40 103 -45 -100 -97 002 081 048 107 -23 061 -68 122 006 -56 -74 -71 049 -47 -44 063 048 -93 007 081 -103 053 -117 -107 
018 -40 115 082 055 -70 104 -65 -08 -16 -103 012 -29 000 -61 000 091 -66 090 -74 017 062 -21 031 021 -36 056 002 027 -53 -45 022 002 -50 037 -55 038 070 -29 007 -21 -79 -46 -101 015 -78 -101 116 -104 -73 050 -74 016 -38 000 056 -48 011 012 -61 -13 -40 079 074 
-62 037 060 -100 017 074 -78 064 034 -43 079 -07 026 -06 -54 -54 -62 -96 -78 -97 008 019 -62 -25 068 -90 -12 -67 -30 -104 054 077 -26 051 -29 013 069 -46 014 077 -50 030 -66 104 -04 -39 -78 -79 016 -54 043 082 016 002 035 -47 030 109 -66 -90 -77 007 035 -83 
054 034 -52 -03 008 041 -113 015 -57 -35 098 -45 008 038 -38 -05 038 -20 -16 100 039 099 -63 046 -68 -74 -58 -88 -16 -107 -53 013 -87 048 -44 -38 103 -25 057 117 042 -66 018 -99 -59 -69 122 -64 -09 039 002 -57 -03 096 -32 -21 042 -82 012 012 107 085 -83 013 
021 -40 106 076 087 104 100 -31 -23 012 105 028 021 057 -86 -32 -96 -98 117 -95 -52 -93 -03 053 -64 -54 047 -20 049 072 040 -83 099 -60 -68 -50 -106 -30 018 -85 -33 068 010 -87 -32 -37 -106 -91 111 -51 108 076 -13 -80 015 -02 062 -100 -64 -34 -77 -44 -24 083 
-30 -55 -103 -87 055 -59 085 -09 029 -50 087 -07 -44 012 -12 010 049 -79 -90 075 032 -98 048 -49 -52 095 -36 079 056 -74 -61 -89 -70 -30 -87 -26 -11 044 023 -107 039 040 032 090 065 066 117 063 -80 -05 086 053 051 060 031 050 044 104 -66 -38 -98 067 097 074 
-56 024 -91 -57 017 -51 -56 021 -71 052 053 034 -37 069 092 023 -78 043 -85 016 040 083 049 -73 -11 092 -79 097 055 092 -42 -97 -59 -28 -99 008 104 -04 064 -110 -53 065 065 -100 -29 090 098 -42 104 004 095 093 -41 -43 -57 -42 009 028 024 107 010 -23 027 -109 
-22 014 -91 101 -81 084 -59 -12 -69 000 -101 038 -32 063 098 032 -97 -18 -79 002 006 -60 -47 030 -61 061 -45 -24 -20 106 -42 -37 -36 -20 031 -67 092 070 081 109 040 101 -22 -51 062 -91 100 -81 088 012 097 -79 -16 006 030 -51 -49 097 053 -33 075 011 017 073 
008 030 -19 -82 082 -76 103 011 -14 034 094 -72 -10 006 097 042 028 -03 025 030 031 070 -81 071 075 092 053 -92 039 028 023 -94 011 036 -93 041 -84 065 -75 -85 -59 088 058 -19 066 081 118 -34 083 079 -97 -57 046 018 038 -42 025 099 -45 022 093 -63 084 058 
003 046 -104 097 040 -91 100 059 060 052 051 -10 029 011 045 -61 067 095 072 -40 -27 072 067 -26 -78 -102 -52 -48 -16 -108 -05 084 -88 039 017 -17 037 -71 -42 101 -52 096 046 -56 035 -40 -56 -80 058 -88 -111 -27 -05 001 003 025 -16 -98 -18 097 026 055 -08 043 
-29 022 -100 088 -72 087 -17 053 -39 025 -04 021 -14 043 053 056 -40 -73 078 -26 -19 -36 -83 -68 040 -102 018 020 030 -58 -24 007 -27 -36 079 024 -54 035 -60 -41 -56 082 059 099 -19 -23 116 -89 -36 011 -93 -06 -19 -03 045 041 017 025 -57 099 098 -33 077 054 
057 -14 -109 026 -81 058 -100 073 -49 056 -78 -44 043 044 003 -50 092 098 002 -80 -09 -72 042 -10 024 -82 013 -98 -13 -73 -04 -52 -23 049 -81 009 037 -22 -84 101 -37 033 082 078 014 083 -46 -50 -02 048 -80 -42 006 013 007 025 -08 083 -65 -71 -17 -29 -54 -103 
020 -06 -59 -03 018 -67 -66 019 -72 -46 078 -59 009 013 -90 -24 083 -99 -03 -41 020 000 -03 064 -39 -21 -33 066 -43 081 040 -45 015 051 024 -46 -108 -06 -39 065 012 -39 057 -84 -19 -51 109 086 033 -43 -109 -87 044 -62 005 033 -02 101 -10 094 -56 018 -59 -26 
-31 018 050 045 -27 -08 -96 080 -73 -02 008 016 016 -50 099 -56 -101 084 -23 003 -25 059 -46 061 -78 -04 -48 056 043 068 -19 038 060 028 091 009 -78 046 -66 006 039 054 063 087 004 -17 071 -42 097 025 086 -27 -66 -26 -03 000 -08 010 034 102 094 058 -45 103 
-28 -23 021 -22 074 086 003 -80 -18 028 022 015 -02 044 -20 041 093 -112 -07 025 -15 033 044 040 -10 -77 -32 027 015 -35 046 000 -83 018 -71 024 -60 074 010 053 024 087 012 -66 -57 -01 -02 025 087 028 068 -86 046 -89 045 034 -30 025 048 -48 -64 000 -08 -10 
038 -17 -40 -64 -43 050 -107 078 -62 -61 -101 015 -22 015 087 -45 -10 -107 017 096 002 -03 073 -81 -63 022 002 083 -39 005 015 -45 084 050 -82 024 089 016 085 -69 046 -82 041 -20 034 -49 026 -15 060 -80 -87 084 -55 -65 -26 -26 029 034 042 050 064 -09 -59 -74 
012 016 092 -92 -84 -57 094 -05 -20 -10 -58 070 023 -38 -04 -53 -08 012 095 -75 011 078 028 026 047 -51 -52 053 045 -92 024 048 070 041 004 050 018 066 -72 -43 010 -26 069 113 -42 -67 -109 098 -38 -33 -38 -87 018 071 -49 067 012 045 -03 -38 -73 022 -69 085 
042 -36 100 -09 024 -43 -95 034 -38 054 -04 017 -06 -46 091 002 019 -06 066 058 018 -33 -87 -60 033 063 049 066 -53 -110 -52 072 006 -53 032 -68 094 024 034 -78 -56 054 078 -72 -07 079 005 071 -103 008 -92 -06 023 -43 018 -33 -18 002 007 078 -97 041 072 088 
-64 026 101 057 -68 062 -110 -74 -44 016 -101 -48 -32 009 -63 -34 100 101 082 091 -48 081 -80 -67 038 097 032 073 -28 -75 007 067 -86 -18 093 -54 -60 035 088 -104 002 001 063 090 -27 -90 075 014 -35 -65 039 -74 -36 060 029 -46 -59 -48 057 001 092 -38 -92 -83 
054 038 006 077 -73 034 -67 -61 -32 039 -17 073 -52 -16 -62 -59 -52 016 -38 062 036 002 -77 054 061 -97 -25 055 -44 063 024 054 -23 011 -74 -20 -35 -31 -24 -31 -58 076 -05 -78 054 -13 -54 031 061 035 -58 -43 002 -54 -20 -42 -28 -70 -69 -41 064 -54 084 108 
-06 043 034 -98 -50 -81 -112 -84 026 -39 -56 -14 -29 -54 -54 -30 093 -20 025 -47 -22 018 038 -68 -54 -77 -02 -19 -31 -103 -61 051 -93 -01 -73 -05 -110 -38 096 -86 -32 016 -64 -113 -67 025 -62 -42 090 -80 111 -89 007 074 008 -50 -52 -106 045 108 -83 047 103 047 
-54 012 019 -47 -59 092 003 -92 -52 025 -66 -58 -42 043 050 040 075 -112 039 -75 020 -49 -17 -28 078 -78 054 -89 037 088 055 -63 -88 -10 -29 -47 -77 -37 086 111 -36 -37 -51 -111 -40 -97 -119 087 -79 -78 -111 -64 021 070 -08 -06 029 -35 029 045 042 -07 043 065 
040 046 004 061 059 070 001 074 -32 -11 099 -71 002 052 060 -19 -51 073 -35 -88 001 -31 071 -37 -36 -73 019 -61 037 035 -52 -88 004 -31 030 -54 077 -29 -91 018 -21 -44 001 -79 -30 -92 095 -104 109 -37 076 -07 -44 -78 -43 019 -06 -63 -64 092 097 -79 -101 -45 
038 020 -92 094 040 094 112 048 -15 -06 -90 025 042 -32 -85 045 -86 067 091 045 -42 051 076 -44 -61 103 -49 067 015 -101 031 -33 018 028 019 050 -75 -67 -65 -81 020 009 006 099 047 068 114 104 -53 -34 -96 085 037 -77 015 025 -37 -106 -13 -52 -13 011 -96 -72 
-56 -52 -99 -83 -85 -78 114 -71 -61 032 055 -48 001 042 -67 -44 029 -92 066 092 -48 008 055 -37 -66 102 -44 060 -07 -48 -30 -33 065 -45 061 056 -68 053 090 -113 039 -34 -05 040 -11 -87 081 -60 -81 -71 004 -83 -57 087 -45 -22 -51 071 -55 -04 057 -28 100 047 
034 022 -71 097 -50 007 115 -78 -48 013 030 061 -10 054 -40 -34 -98 -109 089 -31 -05 063 -45 -38 016 -39 -37 -67 -21 -86 001 012 012 014 063 -71 014 069 -102 -27 -33 018 048 -25 -12 -64 069 -80 110 080 063 038 -36 -100 -50 -40 -45 082 036 055 -82 -14 029 -46 
-63 -34 -94 -97 014 -52 -77 079 060 002 075 -77 011 008 051 -07 078 112 018 009 031 057 -74 063 -59 -85 -11 -27 -31 088 -45 -93 043 -20 -50 023 -93 005 055 -55 -42 -22 090 047 043 -16 008 -102 -94 -55 -103 -39 011 -72 028 -02 -38 045 -02 -94 -18 075 -59 053 
-08 025 -55 050 -01 041 095 074 054 017 078 -72 020 014 091 -09 -75 098 061 -42 -39 080 -46 065 034 -105 -21 -61 -06 059 -02 -58 -61 040 053 -43 084 043 034 108 -41 -74 -04 013 061 -96 -25 -95 -67 009 -53 089 -28 -52 040 027 017 -70 -41 103 -37 049 -41 106 
006 -11 067 -38 -35 -10 101 047 -08 013 084 -06 -41 -50 -46 024 103 096 044 -52 024 -78 -74 -19 071 053 013 097 047 045 -56 -89 -64 -10 -58 -54 016 -20 -15 080 -12 074 -26 100 059 -22 109 017 035 -73 -93 -63 001 027 -57 -04 -40 077 056 -50 056 011 -60 098 
029 015 090 -107 086 086 080 -48 026 -24 -28 049 -44 023 088 048 -19 007 -21 033 -13 071 011 -62 030 -104 045 -65 051 094 015 -61 -29 006 081 -69 -95 048 -99 095 -58 081 082 068 -40 -46 -88 106 018 015 090 009 -19 066 041 -38 013 -32 -58 -09 -92 -54 -34 054 
-07 -35 109 086 -42 -52 001 087 042 -09 -40 045 -18 -34 078 -33 -86 087 -50 065 001 109 -74 004 070 -98 -28 -45 -03 093 046 -94 -75 001 -78 -42 -09 082 005 -91 -01 -12 -49 038 021 -49 111 -75 104 -87 -84 083 010 027 026 -21 -37 102 022 014 102 -75 073 066 
-04 -31 073 040 -48 088 109 090 -30 002 -85 -12 -34 -38 008 -59 099 -113 059 092 -38 -86 -16 071 -22 -56 -34 -41 028 -80 -55 -86 -73 -51 022 054 089 046 -52 -109 -38 029 088 111 055 -95 110 009 -27 -10 023 -22 -48 -59 022 037 -06 073 -68 -37 103 -18 -80 101 
-40 -13 -107 099 084 -47 104 053 -66 003 093 065 001 032 -65 -65 095 -87 -89 -12 028 073 034 069 078 -102 -33 -72 005 -101 012 -75 -32 -55 020 -49 -05 013 052 117 -44 032 049 -97 007 -94 -100 -111 075 -43 103 044 -18 048 -45 -07 -38 080 -14 -91 -01 024 104 -38 
-33 032 070 081 -23 029 -86 077 035 -21 -62 058 033 -56 -14 -07 003 -93 -61 -03 030 059 -87 -50 -33 004 -64 086 048 098 -07 080 033 -46 -22 068 075 040 054 116 010 -09 -59 -109 055 092 -92 -114 -23 064 024 -92 026 096 -60 049 -39 102 026 053 072 -18 -62 -50 
-21 -27 -38 003 053 -43 058 075 -40 071 -67 -63 -31 003 068 -07 051 088 072 060 -29 082 -49 -60 008 -100 002 -35 046 -14 017 021 -64 030 066 060 106 020 085 039 -07 -61 -31 031 006 050 -115 104 -102 032 006 087 016 078 -18 -16 006 017 050 -43 031 065 -40 091 
028 -11 110 059 024 -78 108 -82 -59 038 086 -73 -23 040 101 -26 -111 105 -98 079 -34 029 001 -72 -40 095 033 019 029 098 -11 032 014 -22 -67 040 -102 -66 064 089 -23 075 -50 078 -30 034 105 -62 -101 020 -68 048 -62 014 026 033 030 056 009 -44 -91 -15 -110 -75 
-32 043 -72 089 064 -92 -37 -10 -41 014 051 073 -19 042 -83 -08 095 102 -54 -40 -16 076 -63 057 -45 -43 -66 -37 020 -88 -55 -12 -66 -44 -51 -21 105 009 -14 053 035 006 -89 -112 -15 096 111 111 106 -63 -70 073 015 -91 048 -21 025 102 030 -91 086 088 -68 -114 
-06 002 099 021 066 065 -71 040 004 060 091 -09 007 074 -93 -38 062 049 -87 -70 -13 -82 004 021 -31 -61 -12 -42 010 -63 037 062 -86 -18 -69 045 074 058 093 -36 -20 094 -90 002 024 070 -61 -79 107 082 099 049 045 084 022 -42 027 -100 -48 -21 061 020 046 082 
050 -18 -65 -107 050 045 -115 -21 -32 -11 -105 -64 034 008 -62 -50 082 075 052 -40 -52 083 -35 -68 037 080 041 075 052 101 030 045 -28 -22 090 065 -107 -54 -58 023 -54 064 -87 104 -11 -68 -57 083 -105 056 072 -68 -08 015 -05 030 -08 -98 008 -10 058 068 094 069 
010 047 -16 075 -20 039 -44 051 020 -15 094 -13 018 -25 096 056 039 092 058 027 -38 -73 -26 -19 047 -78 021 108 -37 081 -42 074 -15 017 084 -19 093 015 066 100 -27 041 -20 095 068 006 113 -104 -61 -20 049 -59 018 019 021 -57 -20 070 047 021 013 023 097 -117 
-12 030 -103 024 -01 -30 059 -59 -10 019 -100 -69 -32 -02 025 051 -98 104 105 -67 -26 083 018 034 -12 -103 -36 109 023 098 -26 091 018 -57 052 -25 -101 093 -02 -108 -26 -87 -81 -41 -68 036 -85 119 -50 -78 108 -70 058 -92 -13 026 025 -75 -49 052 079 019 -46 -63 
-02 035 062 -32 058 -91 -71 -50 -71 037 070 068 019 -53 -67 -43 031 -94 060 -61 -03 -02 -21 -63 -04 -34 033 094 048 040 001 061 -68 025 008 066 -107 -08 -91 -100 -09 -28 -50 -97 -39 071 -59 -12 -37 -64 -37 -39 -17 -92 -26 -78 009 -83 016 -79 -81 027 105 -103 
047 014 -87 094 048 -93 039 020 054 042 -98 012 002 054 -33 -18 -92 -104 -31 033 -46 -98 -11 019 028 093 056 -02 -17 -81 -20 -23 046 045 -27 010 055 -48 079 -111 -56 086 069 -101 063 -31 080 050 075 068 078 066 031 -08 -37 -24 -36 -89 005 -05 074 014 071 010 
-34 -01 058 095 022 018 074 078 -15 018 -94 -57 044 -27 081 -20 -86 -12 -52 098 -35 -100 -64 023 -02 107 -59 -52 004 -53 018 -81 -50 -46 064 047 -91 -15 -65 -92 -09 012 089 -111 -32 -57 100 096 -102 -77 064 -38 -54 -72 -26 -04 059 -104 -20 -57 -86 058 -102 069 
031 054 -68 -78 060 036 106 012 002 017 037 -34 038 041 -70 -17 -68 -25 -05 087 046 -92 052 036 075 038 016 030 -36 100 -09 -55 000 016 -76 020 069 -29 -67 104 057 031 049 088 -62 -89 -28 114 -95 028 106 025 -01 -48 -32 054 -45 058 -42 082 013 -59 -64 096 
-21 031 010 -104 048 -94 -67 024 060 -31 053 070 000 024 -53 -29 052 057 -48 -54 033 103 024 012 -31 071 -30 -49 -40 031 -03 057 086 -31 047 -67 068 000 -94 114 -03 038 005 -96 -57 069 -93 020 079 004 -108 078 033 086 047 -56 -60 077 -15 066 008 -57 -03 098 
-10 054 -93 -67 049 069 073 082 043 034 083 011 -41 030 049 021 075 -19 -99 -94 031 051 061 -59 000 053 -66 095 -23 101 -52 086 -96 030 -35 -57 004 -39 095 114 010 -101 -03 -05 -33 080 -119 -101 -84 047 074 -66 -50 -52 008 -26 -24 -74 -07 095 -63 006 -74 -68 
001 028 084 -98 017 071 105 -11 032 -35 -60 060 -19 -16 -86 -19 078 100 -95 -23 -36 094 -63 -02 -53 -97 006 -79 001 039 042 -63 069 005 -60 041 -83 029 -69 095 -22 -73 031 064 -31 -81 -62 050 096 006 089 -49 011 056 033 042 -18 -53 -14 059 -65 026 -19 -47 
012 -39 050 093 -69 079 047 -90 -05 -53 099 -20 -19 -50 -48 -47 064 103 -38 015 028 096 032 011 058 -40 -34 -95 -02 -89 -50 -98 019 -14 -90 028 -34 067 -22 -41 -17 -22 -37 -01 -54 -69 019 088 056 -65 -91 -70 042 066 049 -32 -29 024 -16 098 -13 060 102 -11 
-21 002 -47 -73 008 -12 108 077 067 047 067 -53 -29 -10 -100 019 -97 -92 -82 -62 -43 -73 -44 -64 -35 -84 037 069 -28 088 021 069 -80 -16 -02 -31 -75 002 085 108 -50 009 016 027 -07 -83 109 071 -90 -34 -101 -57 -59 -54 -17 051 013 054 017 -65 086 044 -80 -09 
057 047 009 -76 -81 068 -110 -56 040 006 103 014 036 040 063 -07 -48 -104 042 007 -05 -73 -22 -26 018 -42 041 002 -29 018 025 082 -89 030 -14 002 -51 -50 -82 107 008 042 009 089 033 -91 082 035 -45 -82 085 004 048 -31 004 -55 -55 -61 065 066 -100 -53 -06 -13 
-26 025 061 -83 051 -53 108 -71 -43 -40 088 -70 -29 033 007 004 -78 -105 052 086 051 -53 022 -59 008 103 038 063 -22 -94 005 093 -47 003 013 -12 072 -09 069 -45 -02 -84 -51 027 039 001 116 -95 039 010 -10 059 -13 049 -43 029 -31 -98 -17 053 -64 006 -99 021 
011 048 -83 043 -26 -93 043 -87 -23 -11 -103 045 -23 026 -102 -08 -34 -82 -94 -35 038 -62 069 -16 -03 026 -01 -48 -37 -88 -43 059 -54 044 012 036 043 062 -39 032 039 -13 087 -59 -02 030 005 065 064 -61 041 -85 054 -64 013 -66 023 073 020 074 -54 024 -90 -12 
-18 -45 -94 -87 -58 -86 021 -74 050 -50 -44 -07 -02 051 089 004 -61 092 -70 -05 042 093 -63 075 042 -06 -63 -49 -04 105 028 -16 -75 -50 003 -60 -107 -69 -83 -89 -03 -99 -18 012 002 024 114 -28 040 076 -91 -66 -59 005 -07 041 -57 -104 059 085 -51 023 100 -103 
-48 -52 099 065 012 037 -93 012 -49 -36 093 -49 -47 067 -61 004 087 -91 046 -79 032 070 -22 -74 062 -82 -56 -24 033 019 -45 022 033 -35 -71 014 012 -48 -115 069 -17 -96 081 075 -68 -71 -69 -93 086 042 036 050 -35 092 018 -42 019 010 -58 057 029 092 -19 -77 
017 -06 119 008 021 -29 -85 -84 017 -30 098 -44 -31 -18 -95 -24 -64 064 -81 106 004 010 001 055 023 -83 031 -18 -10 -51 030 -60 -66 -46 037 069 -109 074 097 -68 031 034 048 099 -60 -25 -101 095 -50 -80 -61 035 043 052 -35 056 -08 081 -21 048 092 -08 -107 -89 
-49 -42 -84 059 -03 -98 -75 034 -58 066 -88 040 -49 -42 116 018 104 115 -97 036 -38 053 076 -52 015 -86 -54 005 016 -97 -44 -19 -46 053 -40 -61 -98 -58 -114 117 051 073 -64 107 -69 068 013 -89 -87 048 -105 -45 026 -22 034 038 -41 105 -38 -95 070 089 -72 -76 
031 036 -94 066 -58 073 -78 -73 -23 064 093 042 -37 040 -53 047 109 111 074 079 -03 046 059 -67 -05 047 -40 -82 033 -87 -57 -61 083 017 079 070 097 -62 100 123 -46 -91 -71 -72 006 -32 -100 045 086 082 -59 103 -44 012 -32 017 005 034 045 -73 -66 053 -99 -116 
021 -13 -100 -55 079 084 -44 -60 061 009 093 -11 -03 044 081 039 -93 052 109 -18 -22 -99 -63 -65 -12 079 -22 098 014 -71 024 -16 097 027 033 -47 -106 091 025 116 -47 095 -58 012 012 -92 -08 -104 -107 -80 102 -03 051 068 -07 -15 007 062 -66 -73 099 085 039 -81 
-60 -08 115 -91 068 -95 -77 -51 013 053 112 047 -08 018 032 -33 092 -91 -66 017 -11 -81 062 -58 010 106 -16 085 035 060 050 062 025 -43 -67 -17 015 -69 094 -114 043 015 058 -11 010 -69 073 -87 104 023 -91 -34 060 -42 -21 -18 -04 116 045 -30 -99 -05 100 080 
002 015 -85 091 033 -79 070 025 029 070 -82 032 -43 005 029 -27 -101 -117 -77 072 047 022 -15 -39 -70 081 049 -08 027 108 -03 020 -41 013 -40 -02 101 -11 071 118 -27 -83 072 -78 -65 028 120 -91 -61 -40 -11 -13 -53 -93 001 042 -46 005 -26 -86 095 -28 088 -49 
019 -34 -93 -12 010 077 -87 076 058 023 -106 -58 -05 069 -72 031 -96 -46 082 070 -34 -99 064 -81 -43 111 -08 -100 048 070 007 -89 -85 -54 073 -46 -60 051 077 104 -44 084 077 -107 054 -63 108 -87 086 -61 -107 056 -27 -75 -02 -25 -08 -46 -56 -40 -60 009 -87 -76 
-40 -31 -79 071 -33 047 085 -87 -05 048 095 -76 -26 003 009 -62 107 086 -86 072 -22 -37 057 -61 035 -106 020 -52 035 053 028 -71 004 -43 089 040 -19 065 -30 -117 -29 031 001 097 028 -56 119 102 059 -26 -37 071 058 -86 021 055 049 -18 -62 015 -50 048 -36 -99 
055 -58 094 005 041 -07 -58 -07 -64 027 094 028 -17 046 049 003 -22 010 015 032 015 -52 057 050 -03 -82 058 -41 045 070 028 063 -31 -58 065 050 047 034 106 -08 022 037 -89 -06 000 071 026 067 -26 -81 113 -52 046 -58 002 056 022 -100 024 064 -35 022 -106 -26 
-39 -11 099 -84 -60 103 -44 -86 -37 -31 -15 004 022 034 085 -54 082 020 071 -60 005 108 -87 061 044 -100 009 -69 050 024 001 089 -29 044 -45 011 104 056 -42 -84 008 099 -73 -73 -46 069 -113 -13 041 -07 -29 065 007 -66 012 023 061 017 -05 105 091 039 015 050 
-42 -54 050 -71 -27 -84 077 -86 059 -10 097 -59 040 066 -98 -30 110 -100 -81 -10 -22 061 062 -60 049 -44 -04 043 -32 -98 051 -31 -80 -04 -42 -64 040 -04 -78 086 -07 -84 -37 -113 -62 -52 -108 -81 089 -71 -109 -91 008 -02 013 056 006 106 021 067 -89 -52 -50 096 
004 -34 103 -07 -11 -15 -85 -63 -56 055 027 -65 -48 -15 -56 -54 091 -92 059 -13 039 096 007 -75 -77 -29 027 066 -10 034 -58 -90 -57 -11 044 -32 -14 -47 055 059 -36 -101 -91 -41 000 093 -107 -83 103 -36 106 -70 014 041 024 -09 -23 099 055 063 069 -68 103 098 
029 046 -75 099 -12 083 -01 077 022 007 -71 -70 030 000 057 -25 073 035 -13 106 042 -42 069 -44 -64 074 032 -06 045 -110 016 -09 025 -16 -73 -24 014 017 082 -118 035 077 016 064 041 017 118 022 030 012 115 006 -05 030 -37 036 057 -40 028 092 028 -43 -106 001 
011 -32 016 -50 086 -37 111 -64 -03 -09 023 -71 044 -14 095 047 079 -116 076 -47 -48 094 -80 060 061 -70 053 -26 056 010 015 087 070 051 010 -52 -74 -32 091 076 -02 -63 038 098 027 -04 -90 100 104 -76 -65 019 -64 084 -50 022 -09 003 009 -36 103 052 109 -78 
025 -41 107 102 013 038 108 052 052 029 -63 062 039 -04 -52 017 014 -57 -08 -26 002 106 -28 069 -39 050 -65 020 022 003 -58 -51 -28 -44 -65 033 -85 060 -42 093 -02 021 088 -121 -19 098 -116 029 082 -49 -110 096 -39 -76 -56 049 -30 050 -12 -85 -26 -04 107 111 
007 -38 010 -85 072 049 -107 013 -61 055 -36 -53 -43 014 049 -06 -66 -27 070 019 -26 052 057 -33 -16 022 024 056 037 007 -36 -52 083 -38 024 017 082 025 014 -12 -38 001 082 -100 -72 065 076 100 106 033 -79 -59 -14 -43 036 032 -27 042 -55 -87 092 -81 -35 088 
048 001 -100 -71 083 -17 -110 082 064 -48 -96 -76 -13 012 048 -09 -81 050 -20 -71 016 014 -07 045 038 -56 -06 048 006 084 -04 -39 012 055 064 034 -101 028 -88 110 047 088 033 -83 061 069 -57 -83 -71 028 -110 -91 -24 -31 016 -61 -37 031 -08 -12 003 -48 091 084 
017 007 086 -61 064 -24 -114 048 -69 -50 -93 -59 007 -46 -87 -45 -42 086 -63 016 048 082 004 000 051 -103 024 -95 -39 -54 -05 -74 -60 -37 053 -09 104 034 049 051 -35 -12 059 103 013 045 -94 -112 019 055 052 -56 -48 -80 037 -66 -34 -45 -21 -90 -44 -15 032 008 
007 -31 -87 090 049 002 009 -54 -08 049 -87 034 043 063 -40 -52 059 095 077 014 -25 -16 049 -61 055 083 -69 087 -46 -97 006 -02 024 -01 -23 052 -74 -05 -93 066 -42 005 -01 -102 034 -50 -112 -32 016 -50 028 -58 -53 -06 026 010 012 -103 -34 -26 -12 014 -41 -92 
045 -32 058 001 -17 -94 -97 -11 041 -57 -95 001 -13 036 045 -49 -23 056 061 -102 -05 -33 049 059 -35 -108 027 -39 001 007 -09 -59 -43 022 075 -63 -65 -35 075 -71 -48 051 019 045 -03 -86 111 -94 048 061 102 038 -07 -07 035 -05 -25 101 -08 096 -22 052 -95 -01 
-62 -32 097 -91 087 -27 034 -76 056 001 -73 -30 010 -58 -91 038 087 050 -56 -102 -27 -68 -57 -04 074 001 026 -46 -05 -101 011 070 -91 -14 -08 -62 065 039 -29 039 014 -43 -20 096 040 -94 000 109 -85 -44 -102 016 -46 093 004 014 048 -51 -37 002 -52 027 064 -77 
-22 -25 071 -51 047 -15 114 -52 016 059 -56 038 044 -55 013 006 003 -18 094 056 001 019 053 -23 -07 -99 -23 -78 036 -90 -04 067 082 002 -43 -64 -23 -28 -65 -43 -24 -96 -59 -108 -36 -51 116 -90 -99 007 092 -87 -01 081 -35 -19 056 -70 -01 066 -14 -26 093 -100 
-62 013 -43 019 034 089 013 078 001 -18 001 -10 037 -33 -78 007 086 033 008 100 -50 -86 011 039 -58 -20 -69 -67 019 -52 -35 -76 073 -05 080 -01 -99 061 -62 061 -42 -56 -81 112 060 -84 -52 -20 079 -65 -111 003 -46 -88 037 -27 011 041 -48 027 -93 -15 -80 -69 
015 -23 046 032 -50 -91 -103 -89 047 -03 071 -65 024 -20 -34 -10 -97 -114 101 102 029 -10 -47 058 036 -45 060 -33 -10 -60 -18 089 043 042 -03 -43 -53 047 084 072 -10 025 -19 -101 -23 -27 -101 -112 -62 -78 097 003 -35 095 -19 046 052 106 032 099 036 -18 044 -58 
-31 -11 -65 -18 024 077 112 087 024 004 023 019 023 -26 100 -61 -95 052 -59 079 -39 023 054 071 011 -99 013 082 -35 048 -11 -23 -04 -32 -29 056 036 -21 093 063 050 011 -59 -38 -45 -47 096 116 -11 -59 -23 -09 020 062 015 012 -50 104 001 -99 086 046 -82 -96 
-02 025 -110 -108 -58 087 -70 078 035 057 068 -24 006 -41 -64 058 -76 038 059 -13 010 091 033 -49 058 077 025 086 -20 -72 -33 080 022 -34 -66 030 -100 023 091 -116 051 015 -17 -39 -45 -01 013 077 -64 -57 -97 057 030 030 047 -41 011 -40 025 007 -61 -82 -75 068 
-57 -51 -51 -97 -78 017 -110 012 -02 014 -85 060 -34 -02 023 029 -65 -08 030 047 -19 074 050 077 071 046 -48 007 -24 091 -25 -42 -17 -32 080 052 -76 029 088 -93 020 040 -14 -63 -20 060 -60 -105 -87 022 -88 -82 022 095 -12 -16 -24 092 -52 -30 -14 068 -14 086 
043 022 073 -99 079 020 005 -66 070 -32 -96 -01 036 032 089 -41 090 -46 049 -77 -45 078 -70 061 -33 -22 -62 -20 005 -97 -60 -25 -05 -48 006 035 -88 -67 069 -72 014 -26 012 -108 012 -13 118 -117 -01 072 -86 -93 025 -52 042 -10 004 071 -39 -96 -12 000 -49 -51 
-43 017 061 075 070 021 -41 -13 -30 -40 -94 048 -41 -50 -93 056 -64 050 -91 058 044 -16 047 -12 -16 092 043 038 -26 072 022 -70 -33 049 092 047 -59 -12 -33 -115 045 028 078 080 -22 -84 -95 101 -93 073 -85 -62 013 079 019 039 019 -84 012 -70 -41 -62 095 041 
007 -27 095 083 -47 -28 -81 -82 -03 016 -69 -45 036 024 -14 057 -11 031 060 -102 015 038 022 047 -54 049 -37 078 046 016 -27 -09 -83 -34 089 020 095 033 -60 -61 000 003 078 -54 021 036 -96 111 -79 -49 032 087 041 057 027 -30 032 017 -07 000 -09 000 -67 006 
-27 -42 038 049 -74 -37 -100 -89 -48 -10 086 -19 017 049 032 022 048 -93 -83 063 -48 000 011 -64 037 -60 -63 -40 006 -97 -04 -42 089 -03 044 028 078 -56 024 -113 -31 -35 -30 011 035 011 -62 -06 069 -80 110 041 021 083 015 029 039 050 014 -89 049 063 -03 -24 
-41 029 104 068 -81 029 -06 -63 034 005 -60 067 -44 058 048 056 -86 008 -69 -16 028 -61 078 063 049 095 -63 -11 -40 -95 -35 -35 002 044 027 006 -76 -71 -82 070 006 047 016 056 036 091 110 -90 003 -73 -114 081 -19 -05 000 -60 -30 -53 -29 -80 -54 040 089 -70 
050 047 023 -91 -62 -56 -78 -84 -35 -43 103 066 -37 -43 099 057 -98 -62 -76 031 002 075 023 074 020 -64 034 093 -45 053 010 096 071 -38 -75 057 -112 070 -56 090 056 -94 075 002 -56 097 -68 101 080 041 -95 056 -36 -11 019 011 046 -91 -56 088 -37 -67 -102 047 
019 030 -99 -58 086 -78 106 005 -34 -17 -82 -32 030 051 -31 -45 031 094 055 -41 -13 093 -71 -52 -68 080 036 076 008 -62 -36 076 070 -04 062 -72 066 057 048 095 -40 048 -36 081 -65 -32 111 -53 -21 -55 078 -90 -02 -66 -26 -18 016 -97 009 008 -96 018 -06 075 
-38 040 055 -97 002 -91 094 069 057 053 -79 047 010 055 -91 -33 -74 -65 094 -87 024 -27 046 068 -72 058 051 079 -05 022 001 087 090 030 075 047 -67 055 071 -114 -12 -71 -12 109 -59 068 108 078 -42 014 -84 086 -48 -03 039 008 041 -37 004 -13 066 006 070 097 
037 -29 -110 -101 -48 -56 096 -65 -44 023 004 -06 017 -07 -93 028 013 033 085 -33 033 062 -22 -29 016 -77 031 -09 -38 -44 -31 005 -82 -52 005 022 -64 003 -23 -53 017 -68 004 068 040 -07 094 109 -101 080 025 024 038 020 002 009 -35 106 -48 052 -57 062 -104 069 
028 -36 -91 -81 049 -83 080 -36 -70 -46 -58 035 021 -26 -74 001 043 -114 -32 -25 -20 050 -65 -39 -62 064 -35 -90 -06 -97 -10 070 019 028 057 001 -61 -16 -27 -51 047 065 018 -72 -56 -36 117 023 023 -69 105 071 033 -71 -39 022 -37 102 -68 -67 083 -52 -105 -01 
063 -14 -95 -42 -24 -87 049 048 013 004 079 -38 -38 -27 -90 -48 054 -108 -78 -76 -12 095 -34 -69 -20 070 003 064 011 073 -42 -45 -23 052 -17 -68 082 -72 -36 044 -02 -88 077 071 015 055 082 -74 -61 060 055 -33 057 -20 043 -40 036 -11 -49 -59 002 060 -98 -90 
030 -18 -92 041 -73 006 082 -11 -48 022 002 -50 -30 041 047 014 041 -114 007 102 -24 073 -76 077 -61 -49 -26 -73 -36 -68 -43 039 -09 -25 -94 031 -26 020 -86 100 012 092 -01 092 -52 -10 116 022 001 -04 -100 024 -23 -30 026 -03 -46 019 018 -56 060 -57 -23 -46 
-37 -46 078 014 -49 -56 084 -32 018 023 -56 -61 043 018 067 -21 065 -04 -98 -68 -06 -52 -04 064 -65 033 -51 049 000 107 018 -87 038 -08 -09 072 012 -22 076 055 -24 049 -42 087 033 089 055 054 031 025 -17 -89 -14 -62 040 -24 -35 095 064 -50 098 -11 -39 090 
-65 -26 093 -67 059 027 054 -23 -25 044 -103 048 -28 -32 -87 052 082 013 -48 067 -48 070 078 067 -67 -85 -33 -90 -21 -16 027 -46 -73 009 047 -69 -87 -16 -04 056 001 -46 012 -75 060 019 -112 -54 -03 -73 076 -87 009 -58 -42 034 -44 102 -55 -98 096 059 -50 -32 
-51 000 109 -17 -72 017 042 053 -70 023 -37 -75 006 -43 -49 002 -45 -79 -97 -68 021 -100 -21 -09 -15 008 -15 -12 -49 065 005 -34 -53 -14 -10 -22 054 030 -45 115 -48 018 030 111 -62 -73 -98 093 -20 024 -18 -68 009 023 027 -60 053 037 -48 -42 -34 -54 048 -37 
-24 -20 020 -85 -12 005 099 080 067 000 066 -25 -20 -27 -66 000 -34 074 082 -18 -21 -68 077 025 053 066 -12 -97 025 107 048 -28 -68 -17 -36 -66 -57 -45 094 081 044 004 -76 -22 -27 088 010 115 -52 055 -111 071 031 091 -34 006 -40 -20 -57 058 026 057 097 081 
-22 -41 -90 101 -59 011 -58 -97 020 -05 089 -63 -16 -14 087 002 086 -45 083 -24 001 -25 051 026 044 -52 -16 026 016 -17 -58 092 094 -06 089 005 068 -33 -105 120 -26 072 041 115 039 057 -28 -30 -58 075 -72 044 028 -62 041 011 -36 -77 035 044 -70 084 101 -92 
014 048 -101 055 -01 046 099 065 -10 017 -75 -26 025 -32 079 -19 084 110 020 033 -18 009 070 -62 -58 095 -59 016 049 077 -37 -13 -46 -41 005 -67 -42 -33 -63 -30 046 075 055 085 -40 043 -103 -24 097 -23 -81 044 053 -93 000 020 -35 -103 -54 095 099 -43 -76 -91 
-55 -27 028 034 -73 029 -101 063 069 -40 -95 055 -24 043 -47 -60 059 -87 101 054 -17 -37 022 -16 025 098 -27 -90 022 108 -60 007 -15 035 -67 062 -73 038 -67 -41 -56 055 029 -29 -55 -88 084 072 -104 -83 -94 -76 014 -42 -40 -29 -16 -91 -25 -24 075 -36 -82 033 
024 -24 -65 095 055 -16 -83 043 069 -49 -54 -36 005 047 -93 -26 072 -32 -80 099 012 104 -61 033 -27 109 -38 050 038 073 -06 -44 -46 -43 027 016 -94 039 069 -88 032 -38 -79 098 001 -43 116 -42 027 011 -42 066 034 -55 030 -03 -10 058 026 -89 084 050 057 060 
-32 -24 -08 -91 -13 -20 -95 -50 012 -04 -77 -02 -08 022 -41 034 -77 102 071 008 047 -86 063 039 017 079 -25 -72 047 042 -27 005 076 -50 -26 -33 101 -52 -86 -04 003 059 080 -65 -17 -59 065 108 -38 -67 -87 -92 016 023 012 070 060 -50 060 030 003 086 -18 -72 
042 016 072 -17 -36 014 -60 -55 024 -24 100 -63 -50 011 079 055 -35 -82 -52 -38 049 -47 026 -67 059 051 -48 -77 033 064 004 056 -69 056 -74 031 -76 056 072 -66 -25 069 -13 053 061 -46 -67 084 108 072 033 -04 -57 -18 -40 047 029 -71 -28 079 -91 040 077 -94 
-51 -49 099 -61 -62 -93 107 -54 -34 -13 -13 015 039 -41 063 037 087 -29 -61 089 014 029 -08 -49 069 099 -32 001 -27 109 057 079 035 013 -89 071 085 -14 091 -110 -43 -88 043 -75 066 078 -71 -90 -39 037 097 080 -06 091 019 -02 -02 095 -37 036 088 084 046 058 
-63 -40 070 072 -20 -88 035 -71 -07 044 -01 074 -41 -46 094 -41 102 042 -74 -16 -08 082 020 055 -04 -81 051 000 042 -106 025 006 027 -20 062 -51 109 -46 095 093 -54 -30 083 -107 -69 -87 -48 043 045 031 104 063 -54 -13 023 046 -57 -78 -18 073 059 042 095 -49 
-25 -48 -13 044 -37 006 -57 -78 057 -52 081 023 020 -39 -28 030 106 -66 -20 -90 -45 051 018 022 065 077 -64 093 -40 -87 033 068 026 -46 -13 -21 -101 030 018 -79 -37 -72 042 -103 -29 027 -116 -36 -11 -16 057 041 -56 055 -10 061 -09 -08 039 -83 104 -55 030 089 
057 021 114 -13 042 024 -92 089 041 077 -05 -13 034 -40 100 035 076 053 004 095 -11 071 -85 076 -40 026 -45 -46 037 -100 -39 -38 048 022 082 018 -77 069 -104 -52 -48 103 039 -112 056 091 088 -19 068 -49 -70 -91 -44 -30 016 051 -27 -41 -67 -35 -55 -66 031 055 
-04 018 059 -102 022 -30 -87 097 -69 069 063 048 012 -12 -78 029 092 -05 -79 -39 008 071 040 061 003 060 -07 -91 -19 -105 035 -48 -98 035 096 032 112 087 012 099 002 011 102 049 -19 -94 106 114 099 -75 -60 081 040 -103 032 -48 012 071 -18 -96 079 080 007 -107 
-50 -37 -44 -110 050 -65 -67 088 038 -34 -36 068 018 084 -87 -32 -53 -07 -85 072 -38 041 -27 078 -76 -50 -38 092 -01 -61 015 026 -97 027 019 038 111 062 -06 -50 -22 -03 103 -117 -04 -82 -66 111 106 015 108 -82 012 -99 048 015 -26 110 027 -102 -09 058 -42 058 
054 047 101 091 064 047 -93 102 018 025 -63 046 019 022 -54 -35 102 -87 084 053 -24 -103 -27 066 -48 -86 -18 098 054 -105 -30 -34 -77 008 099 -65 103 -12 076 111 020 100 073 086 -40 -16 -111 -94 -85 036 099 052 045 -21 -43 057 043 058 -44 -05 -18 -12 034 -110 
-18 032 -96 072 079 -36 -92 -71 -45 056 -13 -03 -46 067 100 -20 066 082 109 117 -12 -74 -51 064 063 -103 -60 109 -05 -84 037 -30 -38 -04 014 -30 086 013 -38 -48 031 -14 -32 -112 027 -22 -113 048 091 -20 -98 102 -46 -24 037 -29 -05 -65 -58 092 116 105 051 -114 
-21 005 105 -100 -24 -07 -09 -84 049 -32 041 -67 -16 084 -73 -30 002 -88 090 -63 005 -84 007 -60 055 -102 -34 094 015 076 -59 016 080 011 -44 032 057 088 084 117 014 099 081 083 041 071 -111 -02 116 085 099 -04 044 -01 041 025 037 -97 -04 -105 042 047 072 095 
-51 -52 079 -118 -68 -41 -42 -83 020 -58 099 -09 -17 064 -82 020 -99 -99 001 105 -27 -08 -45 020 -61 -29 010 041 -24 -97 001 -05 094 028 -70 -04 044 -62 -32 -120 -17 092 101 095 -52 088 106 119 024 046 104 -87 056 066 020 026 -45 -93 -27 096 107 082 -70 -06 
-49 -52 -110 052 051 -57 -43 083 -39 055 -83 -03 039 024 019 -62 -20 048 090 115 -51 108 -13 053 -12 086 -15 -47 013 099 -51 -102 016 -49 -12 -55 048 -40 -105 023 040 -18 084 118 -50 -77 -16 -110 028 066 -07 073 -08 -61 039 -26 055 -102 020 067 114 094 -47 -117 
-55 049 075 105 039 -61 091 -16 -29 057 -107 -18 002 025 096 -44 -71 089 037 118 010 -74 -76 -62 -78 070 -69 -67 -11 -71 -32 058 -46 -66 038 042 044 086 -108 040 -47 -08 080 104 -60 062 103 -108 022 012 099 -89 034 -77 -39 036 011 042 015 086 092 095 -107 -73 
-12 006 101 016 -09 -52 060 -33 047 -24 -96 045 -28 -56 029 017 065 005 -88 031 015 059 034 071 -56 -33 -01 -07 -25 042 -40 -80 064 -60 -19 047 -81 -63 032 093 -20 093 030 114 -52 079 007 -105 081 025 105 -80 -67 005 -53 061 017 056 -33 004 -75 -45 -22 -37 
032 015 -16 -56 007 081 052 -01 029 -52 069 -18 014 006 -84 037 104 -08 037 -85 -54 -49 062 043 -43 084 044 -42 -20 -33 007 066 081 -44 039 048 -34 -21 -24 -86 -15 -03 -32 -96 -69 -24 094 -85 043 046 000 -31 -26 081 002 026 -21 001 004 -93 -31 -16 059 019 
-44 011 -45 -81 082 075 071 089 048 -34 -70 018 -03 027 -09 -21 094 093 000 -74 -19 -58 -69 006 -50 107 -68 054 -05 -107 -31 -45 020 -18 035 028 -35 030 022 -114 021 052 -45 -27 040 092 019 060 -76 -45 -97 084 -39 077 -09 059 -11 095 -09 -62 051 -58 032 -26 
-37 -29 -32 -53 061 046 -55 -57 -52 043 -67 -64 -04 055 090 -45 -88 -88 -81 091 -15 054 -17 018 065 -103 -36 092 -17 075 -23 088 077 053 024 036 015 000 026 082 054 085 -06 -114 -54 074 -19 061 -08 065 -83 057 -17 086 045 015 054 053 -16 080 067 -43 100 030 
041 003 099 -66 -67 029 -74 -25 058 002 024 -55 025 -15 023 -22 -65 110 -91 037 -45 022 029 -44 -39 -104 -62 -42 -11 -69 045 -80 067 031 042 -50 089 -12 042 005 -39 043 -08 056 -61 096 -47 107 109 -50 -39 -55 039 -70 015 -41 028 -09 029 -83 016 -29 071 096 
-35 -31 -39 -86 -63 085 096 -78 -27 045 025 -16 010 036 -95 -30 -60 -33 059 021 -09 094 -57 062 007 -98 008 -24 -44 -113 -24 -52 021 -52 -65 067 089 -52 -85 095 045 -23 046 116 059 055 072 -78 092 014 019 001 050 -88 043 -43 065 079 -02 047 065 -36 080 003 
-27 004 -83 -55 -80 -21 096 042 -40 060 -31 032 026 -30 045 -28 -01 -106 084 -99 -04 076 -71 024 020 056 034 -62 -48 028 057 -87 -92 -39 -87 042 070 -08 -65 -31 024 -64 061 010 -22 090 067 -61 057 011 065 -77 -30 -57 048 -56 -34 -90 013 056 071 -43 081 -35 
056 046 -106 105 -36 -23 078 -28 -35 041 -24 007 007 -57 -88 -09 -41 -103 087 -90 002 -44 -33 -58 060 -49 -26 090 017 012 014 -82 075 -52 -78 -15 -98 -60 047 -107 -40 -19 -23 025 -07 -19 108 -28 -90 081 -85 -53 -33 021 -46 001 -37 -102 064 096 -81 -06 032 086 
-17 040 -105 037 -27 002 -14 084 060 -14 -72 -09 -01 -22 093 020 -35 -04 -86 063 -52 -101 -57 074 -64 002 054 -45 -13 097 -04 -42 008 -58 -24 -37 -62 -61 -44 -90 010 022 091 063 005 -76 -73 086 083 -10 064 030 047 -12 016 026 -12 065 064 067 -76 024 035 -14 
053 -32 -102 054 -16 -17 -47 027 032 005 081 -39 022 -08 -101 009 084 -62 050 -01 -20 -31 009 014 -03 001 -33 -45 -45 103 053 -98 -98 037 061 -70 027 -34 060 -51 027 102 015 -40 -66 -86 -87 -105 -55 059 036 078 018 048 -20 -04 -36 073 059 090 -79 -08 089 -90 
049 -24 -26 073 076 -19 -19 -55 068 019 092 -09 -24 -48 -80 -11 070 -99 082 -53 -04 046 -69 -12 -29 008 -35 070 -48 -81 020 069 071 045 -102 027 -94 054 -28 -90 -60 081 071 -105 017 051 -114 091 057 004 045 -41 -10 090 001 -13 -37 034 063 092 -59 -54 043 -93 
006 018 -101 085 015 -69 104 053 037 027 089 047 016 032 -92 -62 088 -117 097 -97 -11 077 -34 -56 020 098 064 080 -27 026 -49 -31 -87 011 -90 -26 091 060 -63 -22 011 025 083 -111 041 -02 -104 -109 -70 -84 -107 053 051 047 -54 041 -17 085 032 091 -02 -18 -75 -91 
035 -58 -11 056 074 012 -108 028 -71 -08 081 034 -07 069 -29 -11 -84 079 088 -30 -10 029 -41 019 069 104 -01 -36 027 -91 -51 -60 -88 -26 -56 -05 -91 047 095 071 043 -77 -29 -55 -69 074 -103 -88 -39 067 008 -12 -13 -12 030 -05 -40 104 013 -63 -40 004 103 -72 
-33 017 070 091 026 013 097 086 -01 -58 -86 033 008 018 018 -67 -06 071 035 098 034 059 -18 041 032 -96 057 072 021 -17 041 071 -12 -43 062 060 -115 073 090 063 -17 098 063 105 -33 -63 099 -32 111 -17 -75 -85 -37 -94 018 -47 059 012 -56 109 086 -01 -13 -54 
-41 002 059 -33 061 -62 076 047 047 -32 004 -28 022 049 -83 -42 103 -15 084 -110 027 -67 052 -73 -46 -102 -31 046 038 -107 -11 -61 -07 031 -35 -48 097 -54 -19 -74 -50 -79 -51 028 037 033 118 111 -32 -57 -103 078 003 -90 -51 019 -38 -94 -48 067 052 040 049 020 
047 -56 -99 024 047 -82 -74 064 -05 -07 018 061 -08 -45 -49 -09 -88 -114 024 081 041 090 -30 -72 042 002 057 080 020 100 023 089 -48 011 -08 052 073 035 084 115 -19 032 -02 -79 064 -98 -62 014 -75 -65 -70 054 001 -30 012 -35 045 093 -69 -79 -56 074 103 -75 
028 032 -23 051 -79 -50 110 066 -24 -40 098 015 004 -06 048 -40 -77 107 100 -70 -26 067 -53 -58 031 074 029 009 -11 -113 -20 -83 -50 -47 002 -48 046 -76 -101 083 -41 -06 088 045 035 -43 092 -113 090 042 -115 -67 006 -77 012 051 -11 044 -41 -90 070 011 044 -14 
044 000 092 105 -08 002 050 -01 043 007 -80 -14 038 027 -28 -36 014 112 079 082 016 092 052 056 -41 083 021 -104 -55 102 051 -61 -26 -54 -98 066 071 038 -89 107 030 -15 -57 005 048 -15 -16 -62 -48 054 -46 -95 -33 -89 028 027 064 079 043 -18 084 -63 -99 -85 
-19 020 095 -82 -02 013 -46 037 052 -23 -83 -54 019 025 100 -30 -76 098 095 -85 045 -56 032 009 -38 095 037 009 033 -07 031 -87 055 032 -77 -53 035 054 -37 105 018 092 071 097 -31 -18 -76 -115 107 052 110 -01 -36 028 012 023 -45 -85 -17 047 -46 027 100 091 
-10 -09 098 -23 -66 097 -96 023 064 018 -96 -22 -30 -29 094 052 096 -107 082 088 -26 -59 061 -53 001 090 -49 040 038 -57 -38 012 -50 -35 013 -68 -32 021 -63 061 -28 102 -02 039 -08 089 114 087 043 005 036 -57 -36 -89 018 048 015 104 -09 011 094 -72 106 -23 
024 008 107 066 006 015 -99 092 -66 -08 -98 -49 008 041 -21 -48 021 -97 069 074 -29 074 -35 -27 -29 105 -67 -50 -09 093 -02 059 -92 050 -22 000 000 -66 086 -62 004 030 018 -115 044 061 042 -28 013 052 -98 040 -56 -64 -28 056 066 006 015 089 -50 032 050 -57 
035 004 -41 076 067 -43 043 016 -64 -51 073 003 042 018 103 -41 -44 -73 056 100 -33 -15 062 016 -31 -24 -11 -89 -34 011 -54 024 002 -15 010 -60 105 006 -19 -15 -26 -33 -01 -65 012 074 -107 003 -70 -34 030 074 017 057 023 044 -01 074 -08 074 -84 -44 -20 067 
-38 -33 -19 -40 081 060 -66 004 -04 017 017 -37 022 -05 088 -35 -15 064 -45 048 -33 064 -37 -08 056 103 -60 -65 053 -87 -36 059 -54 030 024 003 095 077 022 -76 010 -02 011 095 -59 089 105 112 110 -32 -94 -75 -19 032 -09 023 -12 086 -44 098 074 -42 039 070 
-62 -41 109 007 007 -52 062 048 045 059 089 042 -38 056 032 -15 092 -102 089 111 -38 -65 -41 -22 -82 -87 050 -61 -37 099 020 -11 099 -18 057 021 -62 -40 077 042 -36 -43 038 -97 041 -75 -115 079 -61 069 113 -67 -61 -72 -14 052 070 -31 023 080 071 060 080 -52 
-50 007 073 -31 -77 -92 117 -80 063 052 -01 -65 -42 051 -56 032 007 -90 -90 085 -39 -67 -24 061 028 003 -59 060 -42 -75 004 -22 062 042 056 -61 -50 035 -46 -90 -39 -75 -88 -106 -63 -95 -103 059 -26 034 094 045 045 -87 -35 004 -14 039 061 005 -72 068 -105 -104 
030 -40 -87 083 -13 082 117 040 -63 059 -94 -67 -46 -48 -30 -40 037 053 -24 -06 009 067 032 004 078 076 -70 091 050 -73 020 -01 064 039 048 -39 068 -60 -44 030 -41 -71 027 -22 -47 083 -90 048 -70 -48 106 070 -10 022 030 -28 001 012 -60 -07 099 -41 022 -86 
005 -06 -07 -02 081 -23 -69 023 052 -49 -09 033 013 033 079 -17 -103 025 092 -59 047 094 071 042 048 -104 048 052 018 -17 -01 081 -97 028 070 -18 079 000 -25 -96 029 -10 -28 -80 -32 096 -116 110 -01 -38 110 -89 -33 094 -43 039 056 -100 048 -85 -30 068 -46 074 
-06 -33 097 078 083 096 077 011 032 041 -94 067 -31 010 -05 009 -08 -108 -72 033 012 066 016 -06 047 -04 057 037 -37 078 012 -82 004 003 092 -63 -56 044 019 -105 029 -63 006 033 -32 -49 072 081 -98 005 -26 016 -43 -21 -08 026 -12 093 -40 023 069 065 035 -56 
-11 012 100 -02 -70 -72 099 -46 037 -28 020 -21 027 049 -07 -26 019 -74 026 104 041 039 -36 -09 016 053 -69 085 044 -05 002 021 -68 017 091 -06 043 040 -75 021 -47 -15 -71 109 004 085 -78 063 014 -59 098 -10 053 044 -25 056 -13 078 -06 006 -28 022 -90 044 
027 -54 -15 -83 040 -29 104 -38 -64 -35 -57 -73 040 047 -44 016 -89 -104 076 047 050 067 -13 003 -11 084 -50 -91 000 -56 015 -99 -62 035 015 069 070 -24 053 -01 -17 086 -89 051 -38 -61 -108 100 -102 -14 -10 043 -61 -47 026 -41 031 -77 062 073 -65 066 075 -16 
-02 -42 028 064 073 -34 038 -36 051 -54 -29 -27 -46 -09 -74 -47 -37 -114 034 -45 015 078 -65 045 -73 -05 -37 -76 -43 017 006 016 -65 047 050 002 016 052 027 -09 -17 -22 017 113 -47 -66 -102 034 101 -66 -28 -58 -42 087 -11 -21 006 031 -67 -38 077 021 034 -47 
-42 032 040 -67 -40 091 -99 030 -25 053 028 -17 -19 -35 079 054 006 -84 -42 084 -54 -65 058 037 -53 -55 -05 079 -28 -107 014 -65 -02 -22 037 -05 023 068 013 087 -25 -39 -59 074 008 019 106 113 003 073 042 026 -18 087 -40 024 011 -63 -08 078 049 035 -106 048 
-17 008 089 -95 -56 050 -68 060 -17 -31 099 -43 041 -21 093 -49 -81 094 068 014 024 047 061 000 -27 031 -39 -53 -23 -22 002 -70 -65 017 -43 013 -106 004 -69 039 039 046 -23 074 -11 062 -100 -97 098 052 113 -18 -11 064 -28 036 -04 063 -63 093 105 -68 -54 -47 
-39 035 036 025 028 065 052 -64 001 -08 092 -32 031 -16 055 -01 035 -89 059 091 -19 -96 050 -68 074 -08 001 -08 -36 107 -24 071 048 -03 -88 012 -99 046 065 -104 -22 -69 -40 -64 -25 -04 000 082 010 073 074 -76 -57 -04 004 -22 046 -66 -24 -18 100 -10 -21 009 
030 027 -59 -33 071 043 -55 041 -11 -05 -14 -03 018 064 000 032 -99 -58 073 -10 020 -41 010 -71 043 095 054 068 027 -55 -44 -58 -55 -20 001 039 -82 045 066 -112 027 056 027 074 021 089 -106 020 075 -75 -52 054 042 007 -02 -44 -06 -65 032 -78 005 -45 056 082 
-13 029 -19 -82 -51 -38 -26 082 026 009 077 001 -28 -22 -50 041 083 -67 094 031 043 -42 -77 042 -51 -54 029 -59 006 -98 031 -56 092 016 -02 -64 -70 -51 004 050 -05 072 085 -73 -28 -69 -107 -115 -80 053 036 020 031 -99 -02 -36 039 -27 -43 048 075 -46 048 043 
014 -12 -47 103 037 006 097 078 041 015 093 -11 016 001 108 -08 063 066 -68 -09 -47 -103 -36 -22 -06 -79 001 074 -19 -35 -43 048 -35 007 072 016 -112 070 -105 112 032 -103 -101 -91 -71 -97 121 113 112 072 -85 -40 055 -45 -21 -46 -24 108 014 091 -90 082 -60 068 
-46 029 -86 096 018 009 -62 -44 067 -54 -82 003 -07 032 -59 033 -84 090 100 108 009 095 -67 000 063 -12 038 -81 046 044 015 083 -82 -28 090 026 101 021 085 -69 -53 -74 -37 107 043 016 -90 082 060 -08 045 -86 -08 -41 -05 070 -45 -33 -55 051 -32 -48 -37 -95 
-01 032 120 071 -50 059 116 077 068 030 -75 036 037 -02 -93 039 074 100 -77 -17 -18 084 -45 -38 -25 119 068 045 034 -75 048 -85 -43 -59 -67 -55 -35 027 105 107 -38 -78 080 -107 -63 034 -81 115 005 -62 026 -20 -24 072 -26 046 -23 -65 -52 094 022 -10 070 083 
023 -12 -75 -81 032 036 088 000 -43 -42 -53 031 -20 073 -96 -37 099 087 -90 071 -11 050 062 055 036 -81 -26 -81 -35 -82 025 033 -64 -33 -36 -60 -67 -67 070 -57 -42 -110 -69 -121 041 066 113 123 075 053 -92 066 005 029 -51 053 -03 040 -18 077 -22 -14 075 063 
-65 -02 -03 076 025 076 060 016 063 -62 050 -59 027 -26 094 005 -30 085 073 076 -40 068 045 -25 -27 -37 -55 -72 -19 045 -60 -72 -12 -26 081 032 102 -18 093 103 029 023 067 -120 -27 064 -99 -79 071 -76 -88 032 -58 -85 -08 -19 063 108 011 096 109 084 091 086 
-08 033 -78 007 065 -41 045 083 018 022 098 -27 -43 006 -62 -48 -76 -64 059 -104 020 058 055 031 -41 -79 044 -12 045 112 053 -65 022 -26 -59 -12 -92 -48 090 062 -05 073 -90 103 014 -64 004 -32 094 058 074 -18 031 -93 -16 072 064 -75 -08 043 002 -33 -97 077 
-19 -57 -75 -80 -82 -71 045 037 -40 034 110 041 -39 -37 093 -47 -91 -98 075 009 028 -91 039 -27 069 108 -40 -20 051 101 039 -79 -65 -21 -79 045 -106 -69 -57 -111 -59 035 074 -118 -38 079 -81 123 -57 -38 101 073 028 053 -10 053 -50 098 -38 -58 -54 -54 097 -73 
-51 002 -57 -91 -82 099 113 076 033 -07 -106 -42 -40 053 012 -65 -99 -81 067 005 019 -77 044 -63 -47 105 042 067 -31 088 -37 091 -66 000 -77 -48 108 081 -71 -60 -52 -68 022 -102 067 -69 114 121 091 -43 -116 070 -63 -42 -07 069 040 068 -28 -86 102 -72 067 059 
018 -47 094 096 -29 010 116 009 069 059 -104 007 032 009 112 -54 -103 064 -97 -70 029 084 068 040 -44 110 014 -71 024 047 -23 056 092 -15 093 016 -84 093 -107 -78 011 098 054 -113 063 098 045 -78 -100 026 070 -07 -08 072 -06 047 029 -45 013 -60 017 -63 024 086 
014 019 -49 005 034 029 093 039 -13 014 096 -52 -07 -23 006 026 -65 003 014 -84 010 -52 -64 -68 065 -73 026 -07 -20 091 -49 -33 092 -22 -45 063 -108 049 081 096 022 -75 024 109 -11 -86 -120 -97 056 -57 039 -47 -40 079 -32 034 010 053 058 084 -93 032 051 092 
036 -14 -47 -99 -01 064 -107 004 020 -26 008 -42 029 051 004 -03 -06 -92 -23 -25 025 -59 071 -16 -12 -74 -15 030 -28 049 003 -17 -89 006 -81 -11 -39 044 -72 -25 -58 -23 -69 095 027 080 067 -50 -38 -75 -06 -37 -34 057 -39 -24 004 -21 -63 -33 -91 -58 036 094 
014 -06 -99 -78 063 078 -78 -37 -55 057 078 -67 037 -49 066 -41 039 079 -75 100 -53 -96 -74 -22 067 062 -47 088 -37 -15 -10 050 -26 -36 047 010 069 008 -78 -77 020 034 025 110 -70 -31 -107 077 098 -03 -97 000 054 -14 -37 025 005 010 -27 -77 -86 -69 -102 100 
-32 042 -30 -99 -58 034 028 026 041 051 -88 -64 035 -13 -93 027 -84 -46 -87 038 016 -34 024 -73 -39 -97 -63 -50 005 -101 -14 -98 009 -25 051 065 052 041 063 -93 011 091 030 069 -65 -75 031 -42 -27 -58 013 -82 -20 -73 -45 018 041 073 035 089 092 -54 -88 094 
062 003 054 071 034 014 -94 029 050 -21 -51 028 -08 -57 069 022 -56 -85 026 095 038 -103 -02 073 021 -51 006 -45 027 022 -05 -72 -28 046 -86 036 -93 -06 094 -102 -58 -22 010 111 -30 088 047 069 045 049 -102 088 -60 -22 025 063 006 -56 -38 -76 -19 033 085 -26 
010 037 -12 -64 053 003 -52 062 057 -21 -64 -64 -33 016 079 007 -43 000 -46 055 020 -80 -42 045 -57 -90 -11 094 009 -85 -49 059 -27 000 -31 -43 049 009 079 -108 -03 005 -59 -63 056 -77 -46 -106 101 -78 -28 -49 -57 -31 007 029 -01 -14 004 053 -74 013 082 -60 
-29 052 094 -88 038 -37 -97 -79 005 -03 012 -22 047 -20 089 052 -103 -11 -23 089 012 073 075 048 008 053 -01 -100 003 -70 018 035 058 -19 089 -05 003 -46 085 -81 -09 -96 004 -02 012 061 -99 068 106 064 -75 -50 -25 -94 029 037 001 096 -54 033 035 066 -33 101 
056 034 004 -05 011 056 -66 064 -32 025 012 053 -04 004 -92 -20 -70 -34 059 -91 -34 001 066 015 -65 005 -31 044 044 -18 049 -03 -97 053 -95 -58 104 -12 -34 -10 028 044 -52 -88 015 092 056 -98 -109 069 060 069 043 -80 042 -44 007 007 -40 -46 094 068 053 -52 
019 020 -08 -101 -61 021 -40 -90 059 011 073 -51 031 -43 -18 019 033 109 -38 -07 -51 070 025 -10 043 089 -26 -39 047 078 056 068 -92 037 070 -06 -101 073 -97 -114 034 027 -91 080 -10 -54 052 063 067 -36 099 091 -30 094 000 -04 -18 050 064 039 -70 031 104 -95 
-62 048 105 078 040 -69 053 -06 -42 -55 -90 -44 042 -38 066 -51 -36 030 -60 073 028 -60 -42 -57 035 109 -09 -93 021 -110 -43 -76 -38 -36 017 069 016 -66 -01 -73 023 068 -60 -31 046 -29 087 018 108 074 097 087 027 -35 -37 041 -23 -85 063 079 -96 -39 089 -98 
-55 -19 -41 -29 -83 009 -32 049 066 -34 -46 -66 -45 053 096 -25 -34 -82 055 062 030 -16 -56 -36 032 070 050 -09 037 -99 004 092 -16 -20 -19 -55 106 068 046 -51 008 074 080 085 -50 -84 -34 092 005 070 -106 058 -13 -47 -07 062 -28 -79 -63 089 097 035 -59 -92 
-02 030 105 -97 009 060 -01 -77 -57 -56 079 -20 -47 -55 064 -46 099 -95 -86 -68 027 -95 022 010 -28 014 032 -05 005 084 -35 -88 079 -25 -62 059 091 038 -17 079 022 -21 -64 -103 046 -83 -113 062 088 -78 -11 -23 -63 082 043 022 010 046 -41 096 -83 -50 084 -99 
-42 -21 078 049 -39 070 084 077 -56 022 -91 -43 027 -29 085 -59 043 091 069 -100 -38 015 009 066 016 -43 066 -94 -22 073 019 -52 -43 -04 085 028 -80 -11 -34 106 -22 074 -26 -14 060 054 017 092 084 -03 068 014 -45 004 -06 024 -47 -31 006 014 070 -53 031 -21 
-26 -19 024 -05 -64 049 101 065 052 031 -94 031 020 041 089 -29 036 -100 -62 008 009 011 059 077 -10 -62 -25 -01 037 102 -49 -20 035 045 -43 022 -99 -66 -99 -45 -43 -28 -58 111 -20 -66 -111 -101 -54 -33 -50 093 030 060 030 052 -50 083 051 035 019 -23 080 -99 
-55 -56 079 -72 -05 -13 096 -32 -27 -18 095 -72 -11 -39 -45 037 019 077 005 -99 -50 073 015 043 050 101 001 -89 013 082 037 065 090 -53 -79 -23 096 -25 -28 -114 -43 -02 067 -102 003 -72 095 -91 098 080 -06 057 037 088 029 -18 -24 019 -38 092 089 069 022 001 
049 006 002 -100 -80 -75 -108 -52 005 -32 -82 043 036 009 -78 -52 090 109 001 -23 025 007 068 -39 003 090 -61 -76 -13 -75 -56 -40 -62 034 023 016 056 031 -102 039 -54 -37 070 113 043 -90 049 035 094 -88 073 -76 -14 082 002 -34 -09 -80 041 027 054 -71 052 -24 
023 -03 -109 -47 001 -63 088 -68 -46 032 028 064 042 055 091 008 034 088 035 -49 -07 083 -74 -47 060 -35 -64 047 -47 085 -47 -96 031 042 001 020 075 067 -63 -114 044 -51 049 -117 036 034 -104 085 070 -57 -44 068 037 -93 -44 -31 012 060 -54 090 -65 -50 099 071 
021 005 012 -72 047 -77 -72 010 028 -18 050 -53 -05 -09 -83 005 -90 099 -94 055 -06 022 051 018 -11 012 025 096 -37 -10 023 -41 -86 035 -80 -08 047 014 001 052 024 083 -06 002 -36 033 -76 013 -83 053 032 -96 -34 -66 030 006 -04 -99 -66 001 -56 052 049 025 
-45 003 043 061 070 076 046 -16 005 005 013 -41 010 042 -90 -60 104 -77 -43 -48 -36 007 063 -32 029 -17 -43 030 014 -52 048 -28 -18 047 -01 016 083 074 049 097 -26 048 -53 -73 -64 096 030 039 -62 -31 -61 -43 035 010 -42 -35 -27 -59 026 -86 -13 -36 -52 -42 
041 044 -94 -79 -67 -25 -68 -05 -51 -26 087 -45 008 061 078 -49 -22 -24 096 -81 -34 005 029 -31 051 092 018 070 028 -81 -57 022 -37 041 083 -49 -101 -20 -51 -41 026 017 -19 108 -63 093 112 013 -81 -29 -73 -73 -26 -46 -32 025 -32 035 036 -56 -63 075 041 -86 
049 -11 -62 076 060 082 017 026 017 031 012 -55 004 -63 052 -35 000 -115 -96 -57 009 084 -29 -43 -21 -98 -62 -51 022 -112 -57 080 -48 -10 084 -42 098 -66 074 -88 015 -48 -19 -102 -44 048 -119 -93 081 046 -47 -86 -23 -79 031 -37 013 -54 050 072 058 065 -69 083 
028 -37 -72 073 -33 -44 -106 018 057 -45 -20 -35 -42 -60 -36 -29 056 098 -65 070 006 008 -17 -01 072 -106 -21 -76 030 -29 -25 -80 -04 -45 032 033 086 032 012 -113 -15 -02 -36 -89 -60 -12 -119 -108 -68 031 029 081 -54 047 -47 045 002 -100 -47 075 045 -78 036 -35 
-05 -24 054 098 -31 028 -116 -42 -74 -60 100 -21 017 -04 033 049 -86 047 059 063 010 059 075 018 -61 101 004 -19 044 -105 048 092 000 008 092 013 087 028 -96 -77 026 -13 028 -85 -43 -20 103 -69 057 007 108 -04 000 -48 011 053 -25 040 -31 -70 -64 -73 103 -09 
-62 -08 085 -09 069 -60 079 -51 -53 -10 011 061 019 048 027 019 098 -92 -41 049 -06 098 054 -74 038 -45 056 059 002 025 -29 050 039 -40 005 022 045 -27 -29 -118 -30 -90 078 -108 008 085 -119 084 003 072 107 -71 036 011 031 -55 -53 -17 -05 -08 -98 006 -98 001 
-66 -25 -62 -58 034 -95 -107 -88 047 -21 063 016 046 -08 065 040 -36 089 -78 042 052 088 075 041 014 -104 041 -37 025 -41 -22 037 -87 025 085 060 062 045 -09 115 030 -52 -37 -48 -22 -35 -85 002 073 048 073 079 -05 095 004 030 047 -58 -37 -70 008 014 -74 -04 
040 017 -55 069 001 -04 -109 -10 -45 041 089 -03 014 -27 -100 007 004 -05 084 -77 046 -87 -68 -03 -36 059 033 -32 042 -84 -49 -93 084 040 -03 010 044 058 095 104 -25 -27 -50 113 -31 083 -33 105 -17 -37 095 075 -60 062 021 -38 -31 072 -06 -05 070 038 -71 053 
-37 -11 070 -97 013 069 -31 -42 037 044 013 038 039 -14 045 007 -52 041 -90 -87 040 -97 062 035 061 -46 046 -23 -48 -59 044 025 042 007 024 052 018 073 041 052 050 072 047 -110 -23 017 -117 050 -07 -34 052 -50 -07 090 -36 -04 -45 -104 015 058 093 033 -32 100 
-41 -20 072 -71 004 048 -63 048 012 -38 -104 003 025 -14 079 -16 -38 -112 -32 -80 007 101 038 026 011 -98 045 -99 010 -34 -51 089 082 -20 -89 -62 089 -47 069 -86 041 -11 000 -52 029 090 030 -84 093 074 110 -94 030 091 -10 -18 025 083 -17 -08 044 005 -79 -106 
-65 052 105 094 -54 -72 112 058 001 -51 042 -70 -08 036 -34 051 -92 108 068 -70 -41 044 -51 076 000 060 -13 042 -14 -43 -60 052 -24 035 -05 058 -34 019 -47 117 -52 -87 048 -08 -19 013 -53 100 072 -54 100 072 -36 -57 -39 055 042 008 -27 001 053 -47 086 071 
-38 015 107 -85 -61 -35 -69 -58 001 -27 -29 -39 -18 006 061 -34 -104 002 089 088 -20 -69 -78 078 069 -98 023 -73 -28 094 017 -15 075 -12 -79 057 045 -61 -24 -99 -08 -53 -39 064 -67 046 014 -99 -106 066 -103 028 029 -57 -50 -57 -56 -19 -09 -60 -92 -28 -09 036 
002 -06 -97 083 074 -84 109 060 -16 015 077 004 -16 011 057 -19 -102 033 009 -93 -11 -92 -58 -46 038 091 -29 067 -39 016 001 037 -14 -39 -03 058 -55 062 033 082 050 069 -59 113 026 010 -85 052 100 -64 080 085 -03 087 -46 060 012 001 -04 -61 024 014 079 089 
032 -29 098 -29 008 -71 016 021 -50 -55 -100 -65 028 002 057 010 046 -48 089 -69 -53 -93 -36 -34 -17 -32 017 -79 -02 109 052 -02 077 -51 -56 062 029 002 086 099 -11 001 087 114 033 042 -29 -106 -64 -26 083 016 043 -48 -08 -03 043 047 024 -36 -99 045 060 -55 
040 040 102 010 -22 040 -77 -87 -54 054 102 060 -36 -25 079 -57 -33 104 -08 -99 -09 056 -22 007 -63 062 027 -36 003 -63 -30 -90 -94 -13 086 -14 -06 059 -63 110 -57 -11 -02 066 062 -97 -116 032 -15 072 089 -17 -22 -69 014 015 -35 -98 002 071 042 -37 -66 101 
-30 014 024 058 -52 067 003 -26 -19 045 -46 052 -41 -36 017 -16 -51 -103 -27 -19 040 -64 -72 -30 011 082 -25 -81 -38 056 002 -35 -45 -37 -93 -07 -26 012 023 -90 -47 051 002 031 -65 043 -72 -102 -93 -14 083 -85 -30 036 013 -46 009 065 -21 -91 076 -20 -85 005 
-16 -21 101 096 078 -64 -20 -63 -71 -11 -41 -14 -46 050 -29 -13 087 -113 -69 066 -36 -41 -40 -03 -70 -72 022 053 026 -11 015 -66 039 023 033 -69 -35 -12 088 097 -07 -31 -66 097 -53 -15 -16 -106 075 -39 082 -63 -23 085 035 043 028 050 -61 051 -26 -74 090 -101 
034 010 105 022 078 -24 -53 -70 -69 003 -90 -32 -15 044 096 013 -54 -56 -94 050 -19 096 -61 027 050 010 056 -14 026 013 050 -86 018 -46 080 -56 -65 032 081 -14 -27 -49 039 -58 -36 -80 -96 -29 -110 053 077 -32 016 049 042 -35 -24 003 064 -03 076 068 -40 -19 
027 -12 -105 -92 074 -80 109 -15 011 002 -67 051 -39 022 099 047 041 -104 086 047 -37 095 -54 -22 035 -101 -62 065 -47 008 005 094 -55 051 -64 043 -11 -12 080 112 025 -65 039 -53 032 -60 -119 093 -37 -84 -38 088 000 028 010 042 041 -37 007 088 033 004 -19 085 
002 051 -28 -64 037 074 070 026 051 -23 002 -13 -16 -32 071 -11 -55 091 -95 048 -53 -63 038 044 075 100 045 056 024 107 -03 012 -30 045 090 -19 091 004 056 063 -55 004 -69 097 042 -61 111 -94 094 -23 -49 -66 052 022 -39 051 019 094 001 051 056 -09 -88 072 
030 053 -94 085 -67 075 085 -07 -56 -48 072 -63 005 060 -11 -55 099 011 -84 -101 047 -101 010 054 -70 -56 -57 -21 -11 100 -17 084 -01 -14 072 -49 -68 045 -92 043 -22 -75 -07 -74 -49 047 -101 111 -105 -28 -107 -09 -57 052 003 048 046 -85 037 -96 -37 -77 094 -98 
007 -01 010 -86 071 -46 -115 -01 048 -11 018 000 005 051 -95 026 -59 -112 085 -47 007 031 072 072 -66 -100 -05 027 -21 065 -18 075 060 -18 078 038 073 054 -93 106 -08 -31 -62 104 -53 -56 086 102 099 038 051 070 -34 095 041 -10 013 -82 017 -92 012 066 -87 -96 
-44 031 049 -72 028 -52 090 -84 010 022 -34 064 -27 018 014 039 -83 088 -69 -102 -12 074 -42 -13 066 020 -08 091 008 106 053 -91 -64 020 069 -73 -89 -35 -65 -107 -31 009 -54 065 005 -10 -118 -10 -107 039 102 092 044 072 048 021 -25 014 028 -18 054 010 041 -102 
020 -01 107 -90 -63 -87 -55 088 054 042 016 026 -17 -09 086 044 -06 -103 -86 -12 038 -06 -71 -29 -78 -44 -56 020 013 -68 -02 048 077 -39 -71 038 -95 001 -30 -115 -49 -15 073 -19 055 048 047 111 -63 056 041 076 034 -44 046 -24 -08 -88 -28 063 063 -58 046 -76 
018 010 100 100 -78 082 084 -22 -37 004 -59 007 -12 050 -54 004 034 -99 001 -09 010 025 073 062 022 085 034 051 037 028 057 -78 014 049 027 051 103 -71 045 107 -40 -92 -22 -80 036 -83 -108 -79 -79 -80 -20 -81 032 -92 -43 011 -47 -62 -42 -71 -77 003 078 -60 
-32 031 -97 073 -82 -37 -95 079 -71 -43 -30 -32 033 034 081 -19 -15 102 057 -57 024 061 021 060 076 087 -60 050 012 -10 025 -32 057 -46 078 028 -64 046 -01 076 038 -81 022 057 -53 054 -116 -117 038 077 -83 018 -09 045 000 050 038 060 000 -21 -62 058 -82 -42 
040 040 -33 095 -69 010 -43 084 060 -58 040 -46 027 052 -76 026 041 -103 020 067 032 -94 -21 -41 -29 057 -59 -41 -31 010 022 091 -76 029 081 041 -42 071 -102 -114 -51 002 057 101 008 085 110 080 104 -73 038 049 -04 -78 -33 038 -23 -55 061 036 -06 -03 -97 -99 
026 045 112 108 -43 091 -67 -65 -44 -59 097 067 -40 007 097 040 065 -85 -64 092 -20 -68 -14 -13 -18 -68 -51 -74 -33 -10 031 006 -79 -21 -75 007 -111 -47 046 -103 -57 056 -84 087 -27 024 -89 076 050 005 -65 -41 -66 -89 -43 -68 -15 -62 017 016 -100 020 -110 068 
042 -61 -66 062 097 101 -97 063 -75 000 105 054 -24 061 -94 041 096 -90 008 -02 037 045 -46 023 -44 -60 005 -70 023 109 -10 -89 -13 -60 -38 056 110 -02 -97 102 042 -28 091 -48 -33 020 124 -62 -112 015 099 002 -02 -50 -52 032 -49 -107 -22 087 -44 -50 -93 -104 
015 004 -56 054 081 044 107 -08 039 -47 -89 059 -12 025 -71 -56 060 -115 -84 083 -43 009 -46 -69 -62 -54 -13 -83 039 -89 009 046 -90 -47 -94 -75 -104 020 066 114 -14 031 -57 092 -59 029 118 111 -98 -43 -96 -65 023 -69 008 063 042 -108 016 059 -105 -10 -90 080 
008 009 108 -32 009 078 -78 -08 051 -21 071 -40 034 004 -97 023 039 -109 -62 002 -37 -64 057 -01 -49 -95 023 -64 -25 -91 -57 073 -65 -50 -88 -20 -111 -18 -105 117 -15 -61 075 -97 -60 031 -90 102 -103 057 -67 039 035 048 -57 043 031 -55 -51 103 -32 065 090 -114 
-67 -13 -88 -76 -42 084 -79 012 -35 -09 091 -52 -09 -53 -86 008 090 063 -24 108 034 099 -82 -35 -40 -82 -11 088 -19 098 -33 096 -87 -54 -10 -33 031 041 058 -83 -08 060 -35 085 -57 -95 102 -85 040 012 093 -83 -41 055 -60 052 069 099 -02 -28 022 056 -68 -98 
008 -55 095 111 048 000 -78 -33 028 003 098 -78 -52 021 062 -21 087 016 107 078 -43 035 -16 -01 -73 048 050 038 006 -80 -18 036 -63 -13 069 026 -108 096 075 -95 031 095 -41 114 -18 -90 -28 -99 -110 -25 082 -91 -47 052 -55 070 004 -51 -67 046 -86 -79 -60 106 
001 031 039 059 -60 -90 076 -30 004 023 106 010 001 026 -79 007 -72 067 059 076 -40 050 033 008 058 -63 -37 090 -09 104 -51 -51 088 -08 -94 -12 100 -45 049 122 -08 003 080 -118 -32 098 108 119 052 030 105 -46 -61 041 -22 -19 016 110 -48 005 007 -78 079 -95 
034 041 -58 078 -51 100 -17 075 -37 -28 -91 -48 -06 -30 106 036 -98 -92 -24 -81 -48 029 -85 000 064 030 -19 -67 -01 -91 -40 014 043 -03 -87 010 110 042 -105 112 -17 079 079 076 022 -93 099 -98 089 -71 088 017 -50 060 -02 -41 -02 101 047 083 113 -65 081 081 
025 013 008 092 -35 -67 -89 084 024 -12 -103 -16 -48 -49 080 -54 -103 093 099 078 -33 -11 011 -14 -46 -62 055 -22 017 -97 -38 058 063 -47 -01 047 -75 083 -107 101 -45 011 091 -84 -43 082 097 -103 -101 -67 -57 083 026 -68 -51 -13 073 090 007 -77 -88 -13 074 093 
-27 010 108 -02 034 011 -15 070 -50 -36 -80 -59 024 067 -44 019 047 -03 061 018 004 103 056 033 028 -68 039 -36 -37 -61 -26 -54 014 -46 066 -70 -87 073 -23 105 010 075 -39 100 026 097 056 077 103 -39 -98 080 -36 -85 030 -20 007 102 038 046 096 089 -95 087 
-59 -34 102 -73 037 -02 -103 -55 037 058 -94 -74 -37 027 078 -52 089 -18 074 054 042 105 065 -60 -74 098 -39 -95 059 -110 -29 006 -69 -41 -49 047 092 060 052 114 046 -96 054 072 015 -01 -07 -72 -49 067 100 -31 -23 -54 047 -06 -10 087 055 035 -50 047 -98 -106 
042 019 -43 099 -57 016 088 071 046 031 -104 -64 032 -35 -12 039 086 -112 106 -13 018 098 -03 058 -82 073 009 -82 005 083 030 -96 -74 -32 -31 063 051 083 085 -106 052 -22 011 -103 052 -17 -113 -114 042 -25 106 -12 029 082 024 021 -32 001 051 -27 018 -32 -82 082 
-49 036 -103 -75 -14 -92 064 027 021 069 -31 -29 035 046 077 021 -21 -110 013 027 -14 096 -79 006 -26 030 -72 -63 -34 035 049 -56 039 017 -58 -09 -63 -02 -85 010 019 040 031 -15 -47 -89 017 090 -54 -61 -99 000 -28 -82 -40 -48 008 112 003 -92 -28 048 -05 -69 
035 039 -40 018 075 031 080 -46 015 -05 -37 017 -01 043 080 -62 -59 -107 056 031 -04 100 -03 031 016 060 -29 -71 029 085 -22 -44 095 011 036 019 044 051 -56 044 028 058 -38 -19 057 -70 -79 087 082 -34 100 -78 023 -85 011 -47 024 105 051 -90 -15 044 042 -24 
-26 -46 107 094 020 003 059 032 008 -45 -57 -02 -37 026 101 051 -33 098 036 -64 -54 066 063 -52 -71 017 021 -102 -04 086 -51 088 054 052 -30 042 -18 081 043 -10 026 -69 -62 -75 -52 -65 113 104 -57 033 109 022 -35 -65 -42 071 -16 077 024 -60 -50 -52 013 055 
-14 040 074 094 056 -92 094 048 -55 049 027 -74 004 027 036 -53 -91 -40 052 -03 001 -91 -21 022 -70 052 -05 010 001 094 -09 047 -55 -10 002 -57 058 -28 048 034 -57 021 074 -113 -48 085 037 085 -35 -16 047 -48 -56 080 -31 -29 047 077 -50 -34 -73 -18 106 -20 
-07 -04 -61 036 097 -52 113 -43 -59 039 063 044 042 064 094 027 -79 -106 -86 -98 -26 -20 018 019 009 049 044 064 035 -105 -11 001 -03 -52 058 -01 040 036 -18 118 038 -86 -01 086 -44 -68 024 -117 087 -24 -98 003 -24 088 -10 -17 050 -68 029 096 -71 067 -71 -92 
-12 -07 -102 064 004 -70 -97 094 026 007 -97 008 -27 050 -84 -03 -64 073 -77 000 -17 088 062 -41 -66 -84 -32 026 -09 087 029 044 -43 001 -20 051 105 -45 044 -78 005 057 -12 042 038 095 018 096 020 003 002 068 -34 017 -13 002 -41 -36 017 -97 075 -14 003 -79 
-36 -14 -19 083 -55 042 -95 003 -71 012 -49 -38 -48 006 -100 -66 -62 047 -83 035 045 -22 046 062 -59 039 -07 069 015 089 005 -31 -21 -58 -82 026 -07 -63 -100 -110 -53 -84 001 -106 035 095 -70 -05 065 020 024 -88 011 -85 025 035 -37 -92 -04 -14 071 -06 -70 -86 
007 008 060 -54 -20 -70 069 -80 060 -25 014 035 -19 -08 013 043 087 092 -02 -72 002 -98 002 -51 -11 030 -68 039 003 087 -60 -64 059 017 -26 003 085 051 002 -68 -61 091 -71 117 029 -01 017 -111 066 -85 -01 013 034 026 -12 -30 026 -36 015 095 002 062 052 093 
-10 -47 -80 065 -69 018 -102 023 012 013 -11 050 -23 023 -70 016 072 040 -14 -89 027 035 006 -80 -29 -67 -13 -39 -16 -102 -19 078 -60 -53 -74 -49 -103 -59 101 -53 034 -67 -78 111 064 -83 008 004 040 012 066 084 -47 063 -51 -55 010 051 -12 -91 -22 -52 -85 -52 
-14 043 -10 084 017 083 105 -88 -13 043 025 051 -25 -02 -98 039 -46 -79 003 042 -40 -66 045 000 058 -78 -75 -88 -29 -88 007 -33 -97 048 084 041 083 -15 085 109 -12 072 -43 -105 -72 059 -82 -120 093 054 -90 058 035 035 018 033 030 -35 033 -91 -80 038 088 -58 
-62 044 -112 071 071 021 -11 078 058 -56 030 039 -04 047 -65 028 -77 109 092 -61 035 021 053 -02 076 -75 -23 072 038 084 -28 -96 075 -49 -38 057 099 -06 -15 -107 -41 060 -49 -104 036 -84 -106 059 -79 -57 -80 087 -55 054 039 064 -02 -42 012 -86 089 -40 099 -55 
-66 -22 -106 -30 -67 030 006 019 -53 -40 035 021 042 -16 -66 042 -102 001 039 091 039 059 -15 -62 -57 015 -41 036 021 -95 -57 -52 -92 -34 078 -05 097 043 029 -38 006 -70 -04 107 -69 048 -07 -95 -49 011 -98 076 -27 066 -55 -49 -16 -75 002 057 063 014 057 -69 
-22 -39 108 -99 -32 -76 -27 -80 -72 035 -77 073 009 030 069 -63 053 -10 073 054 -48 109 -30 009 -26 058 -52 017 -36 -61 -20 030 -95 -38 091 055 062 -71 009 -27 050 -38 044 -90 -55 -60 017 -109 105 067 -109 -54 045 -54 -11 -06 055 093 048 056 015 022 -78 -56 
-56 021 012 102 -07 049 059 048 -54 -45 -13 -41 -07 -29 -24 020 034 -86 -03 -68 -50 097 -73 064 -17 -46 033 -44 031 089 -13 086 086 031 -53 -41 -86 038 -95 092 -25 -76 -46 083 -68 080 -107 082 108 000 -72 -53 -33 -64 033 -44 -30 098 -32 090 095 017 095 -42 
054 -04 -108 101 -04 095 -91 065 -46 -40 -88 -17 -37 -69 -77 049 057 -58 062 094 -08 -35 051 036 016 068 -68 072 -35 011 017 -03 084 018 -49 -34 -39 074 042 -98 017 -81 051 113 -53 -91 097 -100 -109 -56 -77 -67 -07 -59 -35 -25 043 -89 019 068 090 007 083 020 
-21 035 -87 086 -04 -93 -95 053 -55 063 -97 -16 024 -11 017 025 055 026 -94 -17 017 028 -48 -55 -26 086 035 -41 -33 087 042 079 -73 -17 -51 -45 -98 064 -69 -97 031 -02 054 103 -13 047 -56 -87 098 -32 -79 037 -13 -86 015 045 050 075 040 046 086 -45 108 079 
006 020 -86 099 -75 090 038 -02 -58 011 -86 -68 031 021 -87 004 -10 -23 -88 -23 -41 079 -86 -03 -21 117 -77 -60 -18 051 -48 -94 -84 037 -76 -65 -65 -60 -111 -24 025 -88 089 109 017 -39 -53 -51 058 -82 -89 045 031 041 -12 002 042 -28 -60 -78 -53 040 012 -83 
-45 -24 071 090 093 073 019 -61 -49 -41 059 072 -33 049 108 -67 035 101 092 043 000 -01 -45 003 -17 -78 057 -75 -23 -102 009 023 -53 037 -84 040 -110 012 -36 -94 000 087 093 -88 009 -58 -36 085 -100 -72 094 -13 -40 011 -42 -41 031 -72 -62 -43 -01 065 -111 068 
-19 045 110 062 102 -99 114 -71 014 044 074 -11 -48 -08 -68 006 101 108 -67 -82 009 065 -32 -54 013 -43 -35 -02 040 -55 -09 015 -26 -01 083 -08 063 070 -18 122 015 -88 086 -46 065 -50 -104 -101 -56 007 -104 -55 -37 043 -41 -04 067 060 050 080 -06 078 -64 092 
-46 011 101 055 077 036 114 -33 017 -03 084 -17 -08 040 081 047 090 080 097 057 -31 -35 -55 038 -47 -28 037 -91 014 -79 -27 081 062 021 047 -40 097 065 -54 120 -38 001 -79 096 000 021 072 096 -65 -24 -72 -12 -69 042 -27 -26 032 -88 -51 082 -19 053 -93 -91 
-36 -05 060 -14 -39 036 -30 -62 062 019 075 007 -19 -55 -86 -61 -81 -89 -13 091 -26 -95 -74 -07 032 080 -59 094 052 -11 -41 -38 -60 -07 -29 019 -114 -12 090 092 004 026 053 -94 020 037 121 -100 055 -54 109 -88 020 -26 -05 -03 008 092 034 072 -26 037 033 -44 
032 -58 094 -84 -82 -76 -105 -57 046 -29 077 -24 -02 073 087 -10 -05 -102 -65 013 -02 085 043 -53 020 057 027 -97 055 -12 -45 004 -68 -18 061 052 105 011 062 -89 -62 039 -59 022 -72 038 016 063 065 050 053 032 -07 -74 -36 000 -55 043 022 -45 -11 -78 106 090 
006 -57 -21 080 -12 -94 065 027 028 032 -91 -53 013 -25 110 -30 -101 -72 066 -42 -33 109 -22 -42 026 101 -32 -05 059 112 -44 -13 050 -55 -90 -18 099 -56 081 -95 033 -94 -91 -44 -33 010 -106 -86 054 -25 -116 -90 009 -73 021 -48 043 -37 047 -42 -70 047 056 085 
-58 -58 097 064 -48 -59 043 065 -69 015 -105 -63 -17 062 025 032 -103 071 019 -85 -39 109 010 020 008 027 -60 -24 049 014 026 -83 -33 018 -47 067 081 038 033 123 -59 086 097 -68 -68 -54 116 -85 -86 040 -66 -59 030 -40 -22 -40 043 113 011 -76 094 020 078 087 
019 -51 -12 -20 -12 086 070 021 017 -33 008 030 026 042 038 041 -101 110 097 -98 -31 -93 -27 007 -57 -105 -56 -45 -16 -69 035 038 057 006 065 -16 -02 032 031 106 -19 073 022 005 007 -79 072 -40 -38 079 095 079 -48 -98 -05 021 013 009 057 015 -18 054 094 026 
043 008 -92 098 -12 -54 094 065 -63 012 -61 036 020 054 -84 000 -29 -48 -39 -08 038 -28 -67 026 002 105 060 095 017 066 027 -70 -56 004 029 -17 017 -17 -52 100 023 -47 050 -115 -69 -74 -60 085 067 -33 067 000 -28 072 -49 050 -36 008 -40 063 004 023 101 -98 
021 -37 -79 -34 064 -69 -17 064 067 -06 102 066 -07 -63 -90 047 067 029 093 -92 -12 087 074 008 -71 053 023 080 047 -112 -32 -89 -43 -08 -81 014 051 057 041 -102 -14 096 039 -105 -21 067 117 -120 -93 -14 096 025 048 -48 -08 -35 010 -27 -62 -96 066 027 063 -58 
-35 -26 -61 000 069 044 114 028 -49 008 -76 023 -11 -64 000 -11 -56 108 061 -93 029 -52 -35 -67 -54 047 -37 -83 037 089 -14 -92 026 -49 025 049 008 028 -104 109 027 046 063 -63 -66 063 -27 114 087 019 -100 057 -58 -85 043 -49 -49 063 048 -50 -84 027 -26 -71 
-27 012 -99 021 078 015 -106 033 -60 -14 -46 065 -11 030 092 -41 002 105 055 014 -28 -25 051 060 -05 024 002 -67 -11 -77 053 013 -95 -01 -62 028 097 -42 -32 -58 -38 -57 -61 -113 -22 -55 002 100 -59 059 -102 084 -13 068 022 -04 -36 -24 018 101 -85 018 096 -89 
-04 -44 032 -68 044 -75 013 084 -28 038 085 -17 -30 -18 055 041 -95 077 087 -55 -04 095 061 064 -19 103 022 -100 042 -78 038 090 061 003 -40 -56 068 016 068 -46 028 065 052 103 -36 044 080 -85 100 073 075 -01 -25 083 022 031 060 -74 060 -50 -20 054 -34 -29 
048 -42 -67 -10 063 -25 085 052 060 056 020 056 -02 -08 -37 -25 -85 -70 068 038 -36 033 002 023 075 049 -12 -89 036 107 000 094 010 023 080 -46 037 -17 -19 -86 -28 -46 -01 -52 -15 084 -117 105 -30 020 106 -64 -15 052 -26 -12 049 -72 -58 -32 -62 060 080 099 
-24 -34 093 -34 056 -17 050 019 066 -04 096 -73 016 052 -52 -47 -36 -71 -43 000 -53 -60 -84 014 077 -98 032 021 021 -97 -58 -81 084 055 -12 -08 090 -31 063 -45 -16 022 -13 011 -28 -72 110 -91 -34 -60 -72 -37 051 -99 015 038 -10 106 027 092 -85 043 -71 045 
046 -36 -93 -97 -08 072 -108 -15 -04 029 -22 -38 014 034 092 029 -98 059 043 -77 -18 103 -56 055 -53 101 -64 050 037 -83 -34 -72 073 039 -79 -68 109 027 -38 000 025 096 093 103 006 048 098 -56 -57 017 026 030 -24 -46 036 -59 014 089 035 -87 -57 023 -61 053 
-20 040 -90 -74 046 015 -97 076 063 028 055 -23 -46 042 -70 027 -95 -42 078 103 006 -48 -38 059 -15 091 012 -33 047 072 043 043 024 014 106 070 -96 039 -107 -50 -42 -78 -87 094 -28 -72 -28 116 018 066 033 -11 047 -72 028 -30 002 089 -44 089 -93 056 -34 -57 
-17 003 018 -21 -48 -04 -98 096 -52 -11 -51 -25 025 065 -80 -20 064 -97 057 040 -31 091 -18 -78 040 -48 -20 032 -19 029 042 009 -11 -20 -22 018 094 -54 -110 -74 -51 026 035 108 -01 -85 -93 116 051 -85 -85 003 -41 -99 -16 016 -10 -63 011 012 -17 009 -48 083 
032 -57 097 -92 -58 -80 075 075 -24 -14 -75 -50 031 046 -27 002 088 089 -83 -35 000 -22 071 015 -34 -32 -36 078 034 -61 -61 042 -13 039 -12 -66 -63 -68 056 -37 -05 037 -73 106 027 -26 115 115 -78 048 089 -69 030 -103 -05 015 -29 027 -63 -14 -95 063 -08 -105 
-36 -62 -90 106 055 -76 111 -70 -70 013 -41 022 -27 016 -32 005 -59 -52 090 -16 -13 006 -90 -79 -35 -79 002 052 -19 -39 -07 054 -77 030 -66 008 061 042 -55 093 -42 -95 -60 -49 012 -79 123 -67 111 060 057 094 -13 039 -54 -29 056 108 033 020 092 073 -21 068 
029 -55 -84 052 010 090 -82 -05 036 -15 092 028 -51 -16 114 -31 071 094 100 108 -24 089 -18 -72 -86 -03 033 098 000 103 -63 -28 -71 029 -78 -65 -88 039 107 119 034 -79 088 102 -70 -18 -02 -98 -63 062 075 -06 052 -58 -23 001 046 -21 060 102 -52 094 -75 -36 
-01 -33 111 098 -08 073 052 -90 -47 -55 106 043 010 058 -67 -58 -62 062 -44 -73 -49 105 -66 -24 -82 -65 046 007 -18 -72 -55 053 096 -20 072 042 -98 100 098 -113 020 092 -18 099 055 -29 -114 011 107 -78 097 042 015 034 017 -32 069 083 035 093 015 -43 082 026 
-26 -60 -104 045 045 -68 -34 -81 003 042 074 000 010 -09 106 013 033 107 074 -45 -39 -77 -42 031 -57 046 026 -90 046 -36 032 -14 029 054 -90 -20 026 -67 099 117 -56 -84 -51 -43 -34 -94 056 090 003 -31 087 -73 019 029 -44 -55 -05 010 -32 -71 -48 -27 056 -103 
-49 -42 -91 109 037 -75 -61 096 019 -30 -80 -69 -03 -27 062 -15 -99 -115 -70 -43 012 077 040 -27 044 111 005 089 -32 -100 -10 021 079 037 089 027 084 065 -102 -101 019 -28 072 -120 -41 072 088 -87 -25 064 -106 -87 -04 -16 -20 000 025 107 046 -37 081 004 051 -116 
031 -27 -37 103 023 068 -82 035 028 020 -103 -47 -33 029 -31 -43 -100 089 097 077 -28 -02 -47 069 -55 027 025 -98 022 -75 -07 049 -90 -30 092 -45 -75 091 -77 119 -44 094 102 -70 024 089 -41 -69 024 -39 -114 -88 -19 088 033 -22 061 -58 -54 041 -73 -16 023 069 
-25 019 073 016 097 092 -110 -52 -54 062 077 -48 034 -19 -67 031 -103 034 -98 -80 003 059 004 -24 061 082 036 074 038 -68 -54 -68 -38 038 -21 -70 -109 033 -63 -74 -34 -39 -84 -17 -06 -36 124 118 -93 -72 -85 035 040 018 034 037 028 054 048 037 -76 088 096 -87 
-18 002 -83 107 -56 026 -07 009 -61 027 019 -37 032 030 -95 040 091 103 -53 094 027 107 -61 067 -42 -90 058 028 -09 -74 -02 040 -59 040 098 039 087 056 -82 -65 -12 049 068 -33 056 068 -107 -107 103 006 -105 -77 -43 042 034 -40 051 008 -69 -27 -59 058 -109 066 
010 -55 084 -22 -16 -47 -44 045 006 032 -38 -69 023 -41 -85 -50 096 -92 -40 089 -38 -99 -79 -49 -56 027 062 -24 041 069 -46 -89 -90 003 -86 -19 -92 -48 097 041 -25 -40 -07 093 -29 -38 -100 093 -107 -72 -59 067 -19 081 -28 031 -19 -97 020 096 084 -02 -66 -34 
032 -48 094 041 056 -47 087 006 -05 023 -17 -62 -05 052 -77 -14 089 060 009 071 044 083 058 -52 -19 093 033 012 -30 -87 044 -75 -84 017 051 -57 103 058 084 -15 003 -105 086 -69 048 080 058 -93 103 -01 -100 017 -37 -75 002 046 -24 -71 -19 056 066 -08 087 060 
-04 -44 069 -93 093 -43 -90 048 005 036 -62 051 -23 -49 -85 -23 003 -105 085 056 000 -40 009 -48 001 -86 008 -28 026 006 031 063 -10 -33 -68 -36 106 076 081 -35 002 031 -69 110 -48 -78 047 -91 088 -85 080 077 010 -04 -04 -25 013 096 -05 104 -76 -63 -104 056 
-18 -38 015 -43 003 105 112 013 -68 -33 088 026 -41 068 060 042 -52 112 089 -72 011 092 000 -43 036 -75 032 -98 040 -68 -03 -68 101 -43 -78 035 -28 086 107 -96 -09 101 -57 105 -40 -90 106 121 061 062 110 -66 014 088 006 -11 058 -104 057 057 074 047 -39 086 
-38 001 -94 -70 -63 -92 015 014 -16 029 -89 -67 -30 046 077 028 039 -47 -94 -99 -06 079 -05 002 -11 -98 043 -87 017 100 -63 -48 074 014 -47 057 -44 -06 055 -115 037 -41 070 -17 -67 -82 -58 -61 091 080 -28 -30 010 -94 -25 060 -44 036 056 -71 065 036 098 099 
-10 021 -88 033 036 042 -78 041 002 -01 -95 037 017 -08 108 042 -64 -92 017 053 044 049 -65 029 006 109 -76 060 -10 -99 -03 046 -68 010 -60 018 127 041 009 123 018 065 -16 -94 -44 -06 077 -94 056 -59 -78 027 -31 -99 026 001 024 111 030 041 098 070 049 -96 
-66 007 -78 108 -69 099 -102 001 -34 008 -76 -55 025 -29 094 -66 -101 110 -74 090 -29 104 -29 042 -06 117 -74 020 -36 104 043 018 094 033 -39 028 093 056 -107 -80 -46 008 -36 028 -55 101 062 -88 087 -10 -87 077 -37 -60 -36 -49 075 092 -47 -54 067 -44 080 -69 
-54 041 -17 -10 092 -16 063 -80 046 021 -106 -05 -24 017 079 034 -62 -104 -46 101 -46 034 -26 028 064 -91 001 -92 -11 018 005 -96 061 049 -72 011 -77 -51 -72 079 -16 -41 -71 -23 001 092 030 000 104 007 059 011 051 -72 015 061 -44 -08 -23 071 002 054 098 -47 
-23 051 103 063 055 -20 096 051 012 -09 070 014 008 038 092 005 -29 -108 -78 049 -59 069 -73 -41 -06 -76 -46 -92 -01 106 052 092 076 018 081 -63 -72 058 -35 113 -38 -73 046 118 -56 -70 -105 038 040 058 096 -37 -04 023 -19 045 -50 001 047 070 -44 018 -91 084 
-41 -56 -82 100 -52 040 -88 -89 -63 -43 -70 -63 -19 -01 -75 014 100 095 012 083 023 077 010 059 061 036 061 -55 023 053 -54 017 016 -46 -73 072 -106 -36 -23 -93 005 083 -70 -87 014 063 105 -27 -07 018 075 -85 011 -95 011 038 -38 -28 -07 030 063 -48 -61 044 
060 -01 -101 -91 078 -59 065 -53 020 015 031 -75 -06 012 097 048 092 -99 -30 -72 004 -81 060 -71 010 034 -54 -99 003 077 001 -98 -77 054 -18 045 066 069 -55 109 -55 -01 030 057 009 -89 119 108 105 -81 053 -53 -65 -91 -31 -68 046 -98 -50 088 -90 -03 058 047 
055 022 092 -42 084 -44 110 -33 -15 -45 -54 024 -19 -53 -47 -47 -43 -56 042 023 -34 -41 -52 044 013 040 -03 -39 -19 -08 042 -34 -90 026 -65 018 -19 068 080 -42 -28 -64 -85 094 -54 -07 -28 -26 -09 002 -46 -59 -30 014 006 009 041 104 -06 055 -25 -42 -92 -11 
015 -15 -95 039 -56 084 -05 -73 067 024 -55 036 -49 -70 -13 -11 -10 047 -54 104 036 024 040 028 003 -14 045 056 013 110 -08 075 -86 -44 022 -73 004 078 061 085 004 -08 084 107 043 -87 -79 -84 -36 006 -41 -87 030 026 -56 -14 -16 -05 -17 028 -73 -23 104 -15 
037 -16 -45 -61 025 -91 093 071 069 052 -79 046 -11 -55 100 -39 053 -99 -78 -28 028 -79 -81 -64 018 -20 -26 -69 001 -104 034 -13 -36 -04 020 -18 -15 026 -24 107 015 -60 068 064 004 -75 113 -120 041 -05 030 019 013 021 030 -63 -42 009 -31 -28 042 -67 085 -85 
005 001 013 -91 018 079 057 -52 006 -02 082 -06 -32 037 -100 040 073 -89 080 031 039 -91 007 061 072 075 -41 -09 018 -64 045 038 087 -41 -83 070 -65 064 041 -26 -57 091 098 101 -57 -09 103 037 -91 -06 101 -30 -32 007 -19 -29 008 005 -68 -47 068 -80 049 -47 
-04 019 108 082 -57 056 -73 -34 -37 045 -98 -68 019 030 077 045 091 017 095 -91 -04 059 -75 -78 079 -99 -77 090 022 -85 -48 -34 -89 024 -11 -47 -99 001 -48 037 -50 020 -13 -30 -15 033 -98 -42 019 059 -30 089 -63 -23 022 -23 -52 103 043 093 -100 022 -92 083 
-33 -43 116 -08 -45 -45 -102 -70 -62 031 071 -55 -22 058 -23 -41 -59 091 016 -95 -30 080 -74 -22 -43 -57 009 054 008 -93 -62 053 001 -45 050 012 005 -37 066 -100 -15 -58 048 113 060 046 104 112 001 -04 036 091 039 019 -16 078 -32 -75 -24 058 053 054 -12 042 
-53 021 -45 051 011 020 -89 -74 -67 025 075 002 -02 056 -05 011 -74 016 -90 074 016 -13 -24 010 007 049 037 -33 043 -109 -32 -76 -25 -60 -73 010 -97 -07 -71 -82 -26 -97 076 -39 -48 068 -79 116 -46 070 -17 088 021 -32 -40 028 -59 088 -13 -59 071 074 -95 046 
046 -30 119 044 -79 024 -98 057 008 -41 -77 041 -08 -01 034 -63 028 -116 075 007 049 -25 060 009 -58 -24 -54 -48 -08 024 -16 -05 078 044 -28 -11 -25 072 106 -12 002 000 040 -63 -60 -52 -101 096 -35 081 069 026 043 039 023 -12 -10 079 028 -35 -28 -50 079 -49 
-41 -25 -82 -108 042 012 -115 083 -55 -09 -94 -52 -36 -47 094 043 100 082 036 027 023 078 -19 050 074 -12 -21 043 018 -101 -42 -85 -44 056 102 -30 023 -09 -66 116 033 -33 -17 063 061 068 115 123 088 -05 096 089 043 079 -14 -01 -54 046 029 078 -37 -22 062 -83 
033 -29 -18 -56 062 096 000 -84 -34 038 099 015 024 -37 -62 004 095 -75 093 -62 -09 030 044 -73 039 -73 008 080 012 087 049 -83 052 005 088 035 -82 -35 110 -94 -62 -27 047 098 017 -18 -108 -76 104 -77 060 094 -30 097 039 044 -36 -71 038 001 -37 032 -60 038 
-24 -48 -77 -86 082 -79 -06 -50 -45 032 104 -08 -46 072 -83 -64 -80 -20 -73 -67 -50 042 -01 065 -61 -85 -57 -03 037 053 -25 -30 073 005 -67 -19 -91 -05 102 109 -08 069 061 111 -52 053 020 -97 118 037 -35 -77 -21 092 -53 063 018 -70 -48 103 -73 018 060 093 
-38 -34 -92 067 059 051 120 038 -28 000 -79 -51 -14 052 058 -13 068 -102 063 -97 -09 -90 -58 015 -64 071 -29 -38 043 013 054 -73 -85 018 -86 065 094 -47 -32 -105 -54 -60 -51 -119 060 -56 -100 -62 033 -48 077 -15 025 -64 -34 062 -41 -13 -10 -75 049 055 106 076 
018 043 -80 014 -57 -45 -104 099 031 001 -36 027 032 039 091 -44 -75 -104 -82 -13 016 095 071 060 -42 039 -61 019 046 093 013 -07 -73 047 -44 -20 086 -62 074 -113 -61 067 -92 080 022 -75 -24 -103 -36 -79 093 004 042 088 -48 070 -54 087 009 097 105 059 101 009 
027 -63 -73 108 -67 -62 -59 026 020 065 -98 -73 027 059 -75 -65 025 -11 -92 -59 -12 -35 -74 018 -04 -51 -67 -87 029 096 -60 -89 101 050 -09 -65 068 066 -109 -116 -02 072 -54 -18 038 -85 103 -86 077 -84 -107 -32 -02 -85 -20 -05 000 084 -57 -45 023 051 085 090 
-65 011 105 -96 -57 -88 -45 -26 062 001 -26 074 028 -06 -03 -36 099 110 -93 071 -57 -55 -11 058 -30 -11 048 -68 048 039 -44 -69 088 -43 086 069 -27 011 -96 116 051 071 069 -43 -14 088 118 100 -07 -36 113 -94 -36 042 -07 072 -10 067 -17 036 -81 066 055 -92 
-12 000 -24 090 026 011 -58 051 -01 -22 -25 -34 -43 017 -77 -57 108 093 096 095 000 061 -49 062 -56 060 042 -68 -40 090 -51 046 -80 030 -45 -04 -96 067 -06 -77 019 -85 045 -16 -15 072 -91 -03 -98 -48 -103 074 043 079 006 074 031 -86 047 039 069 032 -74 -108 
025 -55 -63 -89 061 -84 065 -59 -54 058 108 -11 020 031 -79 015 089 -24 004 -93 -47 -77 -25 063 -53 103 014 -11 -10 -27 -13 -45 088 048 011 059 -74 025 -85 -82 042 059 078 116 004 045 -93 019 033 -46 077 -32 -47 079 037 025 042 -107 -05 047 -65 -41 056 088 
-04 -12 -88 -77 -39 -98 007 -88 -11 060 091 -47 -29 -43 -35 -11 -81 106 085 098 -59 042 -54 072 043 -87 041 -84 005 111 025 072 -73 -08 079 012 089 -66 -76 -66 -21 000 065 021 -67 086 -34 -91 -83 -88 016 011 016 084 045 -17 012 024 -02 090 -10 052 -54 -108 
-22 010 -102 -95 -02 -07 -56 -58 063 026 069 -44 008 029 068 -31 -58 088 027 103 -55 -70 004 -73 -50 -53 031 -93 045 -60 040 -66 -45 -08 -81 018 111 008 044 -26 055 046 085 -98 -40 -53 092 -86 -82 -06 056 -90 -24 -70 -58 -03 060 -103 039 075 045 -15 -50 062 
000 -12 -48 039 -15 087 108 043 -58 -37 068 -17 039 030 -65 -28 054 112 050 -31 001 100 -87 -56 -66 021 031 063 031 -56 042 069 006 001 -50 064 069 065 -24 -20 -19 100 -14 -111 -29 093 117 113 -52 -74 111 090 -44 -83 028 060 -12 -44 059 091 -37 083 055 073 
-56 005 -39 068 071 084 -65 081 -68 009 -44 -28 -08 -59 104 040 001 -110 089 -71 -49 -50 -25 001 020 -69 -16 026 -15 -74 -52 075 097 -26 -86 058 -85 -44 -79 -23 032 081 -96 102 066 005 -116 095 -26 -63 -104 044 -01 -74 -13 -67 049 -85 024 -89 -64 083 087 -66 
049 -01 100 -68 -75 -75 116 074 -08 -07 108 067 002 -31 072 -19 -78 109 -24 072 011 038 -53 028 070 091 -27 -10 000 -88 -34 033 -05 -36 -67 -63 114 016 083 -50 -39 -90 -50 -105 000 088 064 -94 117 007 060 024 046 056 007 048 -18 -67 -12 042 -68 -18 074 050 
019 023 112 -78 080 -67 -29 029 -37 057 072 009 -18 013 075 -30 -18 075 -95 -57 -30 042 -76 -36 -77 097 062 017 016 -20 -50 087 -86 -15 104 -68 058 -45 033 122 048 -06 -47 -76 064 -48 -97 116 022 -71 029 011 009 062 -43 055 043 093 039 -86 097 -07 -51 089 
026 -24 -56 080 -80 -83 -11 -87 -34 -05 -59 055 017 007 072 -06 -90 -07 -60 102 -28 -54 -60 052 -24 -28 056 012 009 -111 020 020 033 047 032 034 055 071 051 -63 051 092 -23 101 015 092 086 -117 094 033 085 -59 035 -36 -05 -55 -18 108 -63 -70 -66 075 000 -100 
-25 -40 075 -101 049 -83 -101 066 068 -54 -84 -26 018 -18 086 043 075 034 061 060 -50 -06 -17 046 -60 -08 066 -13 016 057 031 -76 074 -44 074 -02 -39 051 -84 -95 -55 069 089 -45 006 014 054 093 102 006 002 -92 011 047 -37 020 022 -104 -65 019 076 069 008 -93 
-10 -42 -24 096 -81 005 -68 -17 -41 -57 081 029 -18 065 -42 028 -85 -49 -71 104 -32 032 035 -20 027 066 034 085 034 094 -18 065 -19 005 038 042 062 049 033 117 -03 -78 -34 -47 -34 -71 -110 -87 -98 -44 -18 -65 026 -09 -03 045 031 080 -59 -75 -33 010 067 -34 
-39 040 -61 -32 014 088 100 058 000 007 099 -31 -22 063 003 040 -94 077 -49 058 049 090 020 -79 006 105 -64 -64 020 -87 054 -07 070 -42 -30 053 016 -34 -52 002 -47 046 -22 -117 010 035 058 020 -96 -58 071 -94 011 -23 -09 037 -35 -83 -34 028 025 060 090 -83 
-47 -06 006 071 011 -08 -107 -65 022 033 093 -31 038 044 -73 047 -15 -93 030 -82 -43 050 -06 -69 -13 092 051 -08 016 -65 -21 007 024 -54 080 -26 051 054 -97 -87 -07 -56 -24 069 -66 -76 062 -111 -51 016 021 068 010 -02 -50 -27 -33 084 059 -17 085 043 -12 059 
-55 022 104 100 -68 -31 069 -57 -09 -09 046 -75 013 -19 050 032 -92 060 -66 -99 026 -71 064 -23 037 -104 -32 085 004 -105 -45 073 055 000 -84 055 037 -08 069 -49 039 076 092 -116 050 091 107 -86 077 -35 078 020 029 075 -16 030 -50 -66 -02 056 -91 -58 093 010 
-61 -35 -17 010 022 013 -113 044 -44 -45 028 012 -39 -57 081 038 069 109 -82 100 037 -67 -79 -01 -75 084 052 097 002 -111 014 -43 053 -44 027 001 075 045 059 038 -24 053 071 -49 041 -96 -100 -67 031 -65 -108 034 -32 007 006 -58 -19 -85 049 053 082 -39 083 -96 
053 -44 090 097 054 -62 065 -10 -16 034 -97 -23 -16 029 040 -44 -97 -41 -27 -73 005 000 073 055 070 036 -34 036 -41 -85 -32 081 -93 010 -93 -73 -83 -37 089 086 003 -88 024 -68 015 -16 -68 064 090 064 -46 088 043 044 -33 047 040 -12 049 044 -30 074 031 -80 
-49 -57 096 -79 -59 072 113 -11 -67 010 004 -41 -36 006 057 -55 077 -108 095 -81 026 -45 015 039 025 040 018 027 -44 105 032 075 025 -54 -18 003 -92 028 049 115 -25 -24 -67 000 061 061 -54 -114 063 -55 -85 -25 -13 -39 -40 029 013 047 063 -19 -05 049 047 030 
-15 -25 -97 -72 -14 -59 102 -40 -47 -30 081 018 -21 004 -90 024 096 -67 -76 -88 -41 077 -13 -28 -34 046 -64 051 -43 105 051 086 -94 -50 -65 -27 050 059 -42 116 -10 -35 -34 094 -45 046 044 -05 052 -57 -70 065 049 -33 020 049 022 106 043 -94 092 -35 -94 -104 
-20 -02 -98 017 002 -34 -113 019 063 -19 -22 -49 003 -20 000 -30 -77 071 070 -77 004 044 -57 -74 012 081 -27 -07 008 -66 044 064 -95 -06 -77 -68 -93 -10 -37 -77 040 -66 -66 113 007 072 049 050 100 -82 107 006 -38 -26 -11 -27 007 066 -67 031 -29 054 -105 -43 
013 004 -73 -17 -40 -84 046 -45 -31 -45 101 008 -41 -48 -07 -27 -64 103 019 -58 041 090 026 070 021 086 052 -86 043 003 030 -08 -41 -37 065 -08 -94 -48 -74 -55 -50 -31 -91 105 045 -55 001 -04 103 036 109 -94 -32 -84 -30 051 004 048 034 001 -30 -01 048 -85 
-62 050 095 059 036 -22 108 080 -13 025 064 017 039 -48 -52 -58 -38 110 072 063 -34 062 043 053 -16 005 -27 -15 034 074 057 023 013 -03 -89 014 069 -02 086 029 000 058 030 -89 059 083 090 -110 -80 -85 110 065 -57 054 -15 032 045 -52 -36 -44 -93 046 094 -95 
001 014 -28 079 080 067 -102 033 -31 017 -82 -63 018 052 -100 007 -83 -105 -24 -43 -36 -98 001 -73 -75 071 023 -55 -42 -55 012 -55 028 -57 -53 020 104 -30 025 062 -25 -83 -07 103 -37 096 -84 -22 -48 -24 -24 091 045 095 -22 048 052 105 -35 091 -38 -77 -90 102 
049 050 067 055 080 038 -105 -14 -21 028 -89 006 -05 -42 056 005 101 098 033 017 -39 -79 -71 006 071 064 -49 060 -43 003 -28 -25 078 -14 -85 -33 -101 -05 -72 -66 -56 -15 -92 111 064 -96 -98 -116 101 -83 108 007 059 -21 -48 005 -51 089 -48 002 020 053 -75 013 
-37 040 100 -41 050 -75 068 -81 071 -60 -54 064 003 -25 -46 -50 -75 096 -96 -94 035 -51 -63 -78 014 -43 -58 072 026 016 049 064 027 -30 -48 -42 069 -22 -93 -109 028 -90 -72 -100 -65 -93 113 113 089 -04 -86 009 -05 085 -06 -22 -33 097 048 -96 -12 056 -04 056 
-55 018 -75 -86 -71 022 -81 -73 065 -54 040 -29 -30 -18 -97 -14 099 109 001 -02 001 -82 051 -20 033 037 059 048 -02 025 -18 -21 051 014 -30 -53 075 -48 -56 -82 053 041 063 -85 057 -48 108 053 069 -65 -55 003 -36 -32 -02 025 -46 103 -16 -20 046 -36 -90 084 
016 -46 104 099 026 044 -107 -77 -20 -56 -09 -08 035 043 060 033 -66 -109 -59 085 -43 095 040 016 -20 012 -32 089 043 -108 045 084 039 -34 065 -35 -101 017 -96 072 012 -50 -57 -96 -41 094 072 097 074 052 -76 -21 -56 -51 -29 -13 -40 -16 -47 -04 -67 064 -75 -26 
-54 043 -01 -58 058 093 030 032 006 -46 -111 -18 036 -55 -98 -49 012 055 -103 093 -55 086 -68 -76 -54 -84 -71 096 -19 -80 044 071 066 047 -27 -33 -79 -69 -09 -58 046 -39 089 -100 065 022 -98 112 -65 -86 103 -88 009 -78 -54 008 -08 057 -01 -88 -98 -50 103 089 
018 006 021 -02 101 092 -91 -73 027 -62 -80 -67 000 -07 -92 031 -08 068 101 051 029 007 -19 -36 050 -33 045 010 029 036 -44 -57 -54 007 070 024 -80 022 -78 -84 -33 -13 093 108 -16 047 -109 -111 094 004 013 067 021 -91 000 -02 -55 -108 -60 -84 -92 052 085 -101 
014 -21 118 072 -34 062 109 006 -71 007 079 029 -46 -53 -107 -09 066 -93 069 104 036 045 -55 -61 048 -102 037 -06 -45 050 043 003 -55 031 006 -22 -91 082 086 -109 -17 -28 -71 085 043 086 -100 116 -81 -10 -93 -77 002 -77 028 -27 056 -62 043 053 101 060 091 090 
-05 -41 032 004 -19 -84 -88 022 -79 -04 -29 -35 -03 013 -09 -15 057 088 -63 -89 029 096 035 009 048 -59 -11 -89 005 086 021 000 015 -33 087 -51 058 072 -108 079 -29 069 091 102 -63 033 006 -110 -109 -63 -113 -07 -08 083 -48 -05 044 072 -41 094 064 065 068 067 
003 -15 -04 075 -40 -72 033 -08 018 048 097 055 -16 -50 -25 005 062 -100 -74 086 019 -58 -45 032 053 -99 -05 062 -01 -86 -15 030 041 -44 -48 013 -73 010 -21 114 030 -102 031 -67 -29 094 -23 -48 105 -69 -68 016 -11 -43 -43 058 073 084 -21 -67 -05 020 -61 073 
054 -59 115 -87 -05 100 116 000 -62 -33 038 -16 -18 -40 -80 -51 105 080 102 -11 -43 062 011 -69 -62 -98 -37 -73 008 089 004 070 087 -59 -35 070 -59 081 053 -58 039 084 -88 -91 -70 -73 -81 104 075 024 095 -38 003 090 -10 052 038 -93 048 -92 -45 -43 052 073 
044 -05 -47 060 080 -90 -93 -60 -62 -13 054 050 007 -33 057 016 -85 -65 -69 074 -26 060 012 -72 -13 100 -06 066 -30 -66 017 029 088 027 -69 -69 -102 051 070 -107 017 -94 -07 -117 016 001 006 -101 095 052 -98 079 031 082 -02 -50 -22 108 -29 027 095 033 077 104 
050 024 -82 -34 -62 -81 -68 062 -62 059 045 040 037 030 098 -09 039 041 081 -20 -58 114 028 -37 067 095 003 -25 -17 -55 -26 047 012 -11 034 -04 -93 037 -36 006 033 -86 067 082 065 039 086 -114 118 -64 031 -71 -28 -55 -25 073 -20 -19 034 -66 098 057 -07 089 
-55 -04 -56 110 070 041 -81 -09 -12 048 -06 026 008 -25 053 -52 -94 052 -94 086 -41 -79 -38 -03 -80 -78 -74 -41 020 082 051 -93 -86 -54 085 029 040 -52 012 115 -39 -89 097 102 060 -89 063 -77 -100 -28 087 034 -09 -54 030 063 027 -68 -56 -67 020 -54 055 064 
-42 046 062 111 083 -97 -03 -73 -39 055 -97 059 030 -45 -51 -21 027 090 -95 086 -01 -44 051 048 -25 115 040 043 044 -83 -19 -78 -31 -08 -38 -71 -102 -52 -51 -05 023 -17 089 106 -70 -45 071 -102 -38 080 -78 -93 -41 048 004 054 -15 -103 043 075 -29 040 061 -97 
025 001 048 -04 018 055 -99 -81 052 011 099 -71 -20 030 -91 -05 105 105 -10 111 043 098 046 -29 045 -86 -60 -62 015 -100 002 -66 -05 -33 -45 050 -75 -42 104 -63 -38 072 044 110 026 -98 -73 -86 -96 -75 094 012 052 -28 -04 064 -29 -32 -62 077 -90 -48 -84 090 
-37 -30 121 -12 095 041 -89 -22 054 -05 107 -20 -19 -22 026 -57 -58 -99 110 -64 -11 -98 -56 018 -23 092 -68 058 045 -89 007 -02 106 -35 -66 056 -101 075 113 -71 014 067 040 097 -40 -22 -63 107 -110 055 092 -75 -08 -37 -30 065 036 -25 -04 -17 -53 -01 083 081 
-38 -43 098 -63 027 -88 -105 -25 046 073 -70 -55 003 -27 -42 -04 107 100 -29 -46 -56 -53 -57 -81 051 -82 046 -85 005 095 -33 -86 -04 -44 -11 005 109 083 085 124 002 -94 -49 090 032 029 -103 -62 -82 -83 -114 -81 -65 018 032 007 002 -62 013 075 -87 097 -85 067 
-70 -50 -82 -58 095 -51 088 094 065 007 -47 -67 -18 062 110 -39 -93 075 -72 -69 -07 -42 018 026 -75 111 008 012 -09 -10 029 -31 085 -20 020 010 103 -56 068 104 049 -96 -59 106 011 -56 -94 111 111 -20 092 -13 -66 -15 027 -40 049 099 -63 -20 075 -27 070 076 
-26 028 -87 -82 022 105 008 063 -69 003 100 064 017 -45 018 -47 081 062 113 -50 -50 024 015 049 017 057 -54 021 -10 -58 048 061 109 -45 -78 -66 -114 070 108 -80 -58 087 -44 104 000 -43 097 -100 -101 026 009 -86 -43 -30 -42 019 003 -90 -37 090 090 005 083 098 
013 035 040 -09 009 -65 088 -56 -62 -12 -49 -36 -22 -01 087 016 098 -51 -84 032 -55 -19 001 060 045 080 002 089 -21 -65 -49 -05 -74 -52 -89 -68 096 020 019 109 -45 070 -16 -72 -44 082 116 -66 -99 003 097 -78 -04 011 038 012 035 100 -65 095 032 -14 087 068 
022 024 -68 073 -22 086 117 036 -44 001 -85 -01 -28 039 -76 -26 -98 -107 -31 012 039 069 -79 -51 050 082 -16 -67 012 086 -25 008 035 006 -69 -17 -07 -41 085 121 025 066 082 -89 037 -96 116 094 115 033 -108 095 -54 084 033 -07 048 109 -30 -24 044 -60 088 074 
-05 013 -69 069 096 015 051 102 -37 072 -94 069 -51 031 111 016 -90 109 -98 017 031 080 056 056 022 -77 -48 -94 020 034 -61 014 036 053 092 -52 097 001 073 -93 002 059 099 073 -16 050 -29 -92 -112 -27 086 -60 -47 -50 -58 -01 056 115 -43 106 -23 -69 -108 094 
-45 017 -24 -62 104 067 -120 016 -19 -18 -87 051 -48 -28 -79 -23 008 110 -60 017 042 -66 -33 -08 -57 -78 -52 065 -15 -97 -61 -84 036 -51 075 -01 102 -26 -104 -106 008 094 072 054 026 -70 029 -62 017 -74 -95 021 037 -26 -06 -69 035 072 -53 083 052 046 029 -83 
061 029 113 075 065 -13 097 -63 030 002 -105 -17 026 068 -72 -48 -02 -92 050 -52 -24 062 -45 -57 -71 -68 -22 -79 033 -74 -08 -90 -96 008 094 -33 012 004 034 -110 -52 -07 057 -29 023 -76 -103 -86 073 -77 -51 -62 -38 006 -20 -24 -14 038 -66 -103 107 042 -70 087 
-43 -38 077 -105 090 031 -09 079 -13 042 -80 035 036 068 054 -41 -95 -101 099 042 -07 -08 -78 009 036 070 -10 -37 062 -89 046 -36 005 007 -89 -48 113 -35 -05 -113 -60 082 073 -96 -08 035 003 -31 089 010 094 047 045 045 -49 -49 -14 078 -45 017 -66 -14 -44 060 
-27 010 015 049 099 -35 -84 028 048 -02 -100 -10 017 053 007 -26 088 071 061 042 030 -34 -75 055 -13 -25 -49 -86 -06 -34 025 007 -94 037 -64 -69 092 006 002 109 018 -19 091 025 -53 071 -105 041 107 052 033 -29 004 082 -12 -36 062 067 -42 -54 -70 064 -86 -41 
034 040 -18 059 072 059 -114 -80 -69 -41 079 -81 -20 036 -27 023 -99 -44 028 020 -48 021 -69 040 004 102 065 085 010 010 040 -79 079 -54 099 043 101 075 076 -110 043 078 074 -104 000 -75 115 113 -35 -83 -76 080 053 -38 045 -18 059 -30 005 063 -27 043 -42 033 
010 035 093 095 060 076 111 -08 -49 -38 007 -07 -15 078 -98 053 -25 102 -04 -04 050 106 -20 033 -60 -65 -67 074 006 -68 020 -90 061 -22 067 014 073 069 004 -74 -28 074 068 -118 017 -44 -100 100 020 -82 100 056 011 092 -33 -12 -32 -89 051 -39 093 039 -63 -77 
008 017 -12 -83 052 -87 -95 084 -45 035 -62 -26 005 078 -14 050 082 -111 041 059 -03 093 -53 -08 -77 -69 -16 051 -26 -43 -43 022 -67 038 018 010 028 019 007 -39 051 061 -60 -117 -18 005 -98 041 -86 -06 039 022 -16 046 -33 028 062 056 -36 -42 015 085 -34 007 
014 -45 -100 005 038 037 -108 095 -69 -19 -97 067 -35 070 049 -46 -84 -77 -21 058 -37 101 002 -60 -51 -19 -08 -43 043 -112 -42 -11 073 -09 -52 035 -94 -61 -36 -39 -24 011 010 062 -63 -93 112 081 111 -18 -80 034 028 -85 -02 013 023 -62 002 049 -37 089 069 -30 
-40 -37 087 006 091 -84 -112 099 -69 -31 -82 -58 -41 -03 026 -15 -47 078 104 017 -21 060 037 068 -72 -01 040 006 030 106 015 079 -87 -58 010 005 -106 058 069 -69 000 093 031 -96 -40 -33 022 057 -27 011 107 -09 027 073 019 -03 -17 071 018 036 072 097 -86 -96 
-66 011 -68 -13 -11 082 098 -86 045 -31 067 043 010 019 -65 -26 -98 104 -66 083 -06 -30 047 -55 060 -75 051 -66 003 -95 025 054 -30 010 101 -62 -104 -75 -106 100 -59 065 -54 -54 037 -66 -34 064 -103 -07 074 046 -51 -05 -21 011 036 094 032 037 -93 -09 035 -71 
-32 -46 057 -80 044 -51 059 -32 020 -58 096 -04 018 057 -70 -20 085 -48 -73 057 018 023 034 046 -34 -84 025 068 009 -109 042 022 089 006 -50 013 101 059 -76 -102 -60 -50 060 058 041 -25 089 062 012 025 -100 -89 -21 087 -01 029 028 -84 -42 -38 089 -79 052 -73 
-18 022 -13 -33 094 058 109 -29 067 -18 098 -04 -30 062 -73 -20 -51 073 082 105 016 -47 013 029 -69 009 059 067 017 045 026 -71 -75 049 -99 -16 -111 -22 075 -100 -47 022 091 095 -32 -83 094 -80 031 -58 071 016 -03 -69 -31 004 071 084 -71 -74 001 -92 -104 090 
-42 004 077 031 -25 -74 -92 -53 -28 003 072 -51 002 -31 -48 000 -91 -23 070 -04 022 -09 056 -76 049 061 -63 043 -19 -87 -22 -74 -61 013 -83 -59 029 -27 -43 100 -50 -30 -08 101 003 079 020 -96 -100 -81 019 034 045 028 -57 -05 039 095 -16 -12 -87 -07 -05 -12 
039 015 -107 -69 -02 072 -69 -87 -19 027 011 064 009 -03 -81 -72 094 -79 092 062 -51 082 -88 048 041 -92 039 -41 -10 106 -11 050 -73 -25 047 011 -88 008 081 057 -43 022 -50 098 -13 044 -114 -63 094 064 000 -79 -29 091 003 042 044 -93 -41 -39 075 041 077 083 
038 018 087 -68 -50 -48 113 076 007 -35 071 -60 -35 004 -60 -61 047 099 112 084 -27 -11 -44 028 059 -96 -56 -85 023 103 023 -95 040 -12 -59 -20 -101 062 019 -106 -15 087 043 027 -59 -05 015 -64 108 -71 096 -43 017 -30 035 -51 -21 051 -30 -54 -30 032 -54 017 
051 039 -54 097 -77 -46 -41 053 062 -52 -55 -07 004 -20 052 -74 -91 -77 019 -38 031 -16 068 010 080 077 -28 -56 037 049 -52 087 -84 -47 -83 -06 -92 018 015 -108 029 046 096 -109 050 -93 058 -96 077 -54 067 011 -57 -41 -28 028 -50 078 054 087 -25 -12 098 050 
