-81 113 118 123 -121 -101 -109 001 -116 125 108 -70 -59 116 -22 -99 -107 119 069 125 -107 -124 -80 102 117 -125 -126 090 019 -119 -20 -88 126 -126 -105 -116 -48 -123 -85 122 -125 -06 -128 069 005 -98 033 -118 103 -101 -81 -90 106 -46 -16 -106 126 -104 107 121 -119 -114 008 -118 
112 -51 030 -99 085 087 061 -42 -19 -125 060 -16 -09 094 115 -82 -71 018 -126 124 029 -99 017 125 118 125 114 068 -29 093 094 -118 126 122 075 126 -101 123 -104 125 123 006 -114 125 -114 -119 -83 -111 115 061 -42 -107 -03 083 -114 -74 126 -82 -125 125 117 126 -02 -121 
-105 106 -109 075 -126 125 -123 -122 043 123 -125 107 -98 -58 059 074 094 116 124 -122 120 -98 -57 000 -122 112 -119 -62 -93 -60 -88 114 -87 -122 -54 -118 -55 -124 100 043 -128 085 -123 075 066 062 081 010 111 113 -56 -103 -13 116 007 -90 -125 086 105 125 055 -127 -64 114 
-54 039 106 -127 -39 098 -107 -94 -115 118 -111 087 043 -110 -112 071 032 118 -126 087 114 -08 -88 -114 -120 123 -121 -45 107 -94 087 116 104 -51 124 122 010 -121 -60 030 -128 123 119 116 083 -34 107 120 -116 056 081 -62 -72 008 066 118 -117 064 -04 -128 -24 117 -23 -87 
062 -101 107 117 -104 126 092 -78 -95 -61 059 016 069 -120 -116 029 086 -118 123 110 082 108 -30 -123 -66 -126 123 -53 -14 -102 098 106 095 003 110 -123 008 112 -19 -126 -118 105 -111 125 -114 -70 016 044 092 117 104 113 026 -63 -105 119 -124 -89 -83 -102 078 114 -106 -120 
108 028 105 022 -121 -127 -52 061 081 114 -103 -108 113 080 111 -67 011 -105 013 -01 036 -80 -55 124 041 -111 112 106 064 -77 038 118 -127 -126 -71 -88 -55 089 065 -112 126 -125 -128 -120 -80 -104 -71 -124 -27 -120 020 104 -91 -03 089 -116 125 018 -126 -128 084 107 048 -37 
008 -110 082 104 -127 -128 120 118 -56 083 -70 110 029 -72 106 -105 -33 060 -121 122 125 -104 108 122 005 -123 -125 007 003 -99 -67 -07 -75 -118 038 126 054 -123 108 -119 123 121 125 -45 -123 -69 -102 109 -24 078 -56 -57 094 -124 091 037 126 -114 -71 -127 079 -77 038 -120 
047 -56 045 125 126 117 116 -106 -91 -85 123 070 019 -78 -93 105 -100 -110 114 124 -123 -21 -91 039 -95 125 122 062 -45 -87 -98 -93 -08 -116 124 121 044 -121 -75 -128 125 124 -128 111 -89 062 088 113 -09 -120 -97 113 -71 -21 -57 112 091 058 -111 117 026 -125 -58 -122 
073 115 066 -112 125 -43 -28 074 -124 -106 122 -111 -12 -122 -110 -35 -58 -102 107 -100 -126 -122 000 071 023 089 122 -76 050 090 036 047 067 -126 -07 063 -101 119 -70 029 055 -18 -126 109 110 -117 -18 086 -30 096 -63 100 084 -69 102 -79 118 116 125 044 -29 -108 107 092 
-96 -98 101 -127 -128 -41 -126 -18 -14 -120 -123 -109 069 -104 -64 004 -104 094 004 -127 123 078 035 109 033 122 113 113 011 116 001 -93 121 092 064 -111 041 -108 -105 047 122 -107 007 -123 -105 -122 104 115 -111 -39 092 -70 043 -113 045 -121 126 -90 052 119 068 126 011 -120 
116 -108 -105 -02 125 125 124 -13 -28 -123 057 -114 107 022 004 -94 -75 087 103 123 -105 122 -25 105 -113 035 126 -117 082 -54 094 -100 -89 -73 097 125 034 120 -22 -110 -89 -87 077 -51 054 088 -13 -95 104 -101 061 -27 -61 -99 119 -89 -110 105 -124 125 121 -124 -67 120 
-104 -92 -13 -127 -43 -69 105 -111 103 -51 122 061 091 091 -80 -93 -40 038 -57 095 124 -114 050 110 109 -111 -128 -23 -100 -02 012 -63 -125 069 092 -128 -33 -102 110 -24 -127 -92 -108 047 078 -08 -97 -58 -75 116 -82 -63 100 008 101 -80 119 -122 058 -127 -83 -77 -78 086 
008 070 121 -32 126 -90 -109 -53 -123 109 -122 -101 107 114 -97 031 075 119 047 -20 -126 108 -06 -106 058 -32 -97 121 032 077 006 -104 -123 108 093 -128 -99 -122 -97 090 -37 108 070 -125 096 -117 -16 -101 -32 -106 069 092 102 074 -112 -125 122 097 -119 -127 -86 -66 -107 -106 
-45 084 118 125 -128 -118 100 120 119 117 -107 061 -62 -121 114 -45 -95 -71 116 -08 119 -122 021 038 -124 -90 124 123 062 111 -11 108 -128 -124 123 126 -44 -95 055 -126 -13 118 045 034 -19 120 -07 -24 -91 -88 -54 -76 076 -84 -102 -120 125 118 115 116 024 -124 023 -114 
-101 096 -60 079 -05 -101 -113 083 -63 056 -120 077 -110 097 -92 -84 053 091 077 125 099 051 -69 065 -124 119 -101 -78 -49 -38 108 064 -128 102 121 124 -93 -110 -101 055 123 104 -126 -116 007 070 -106 -19 -80 048 040 104 106 -97 100 053 -126 -121 -114 -128 -117 120 080 042 
042 055 051 -60 013 118 -16 086 107 -15 -24 -69 -66 -81 067 100 105 068 -121 124 -126 -89 -109 066 -48 -96 -24 123 -24 027 -04 021 126 120 124 -128 039 -52 108 -61 -128 -122 097 -120 078 -07 -108 104 012 023 -92 109 030 -98 112 -35 -127 -109 -119 102 -114 -128 -75 120 
-74 -41 -99 100 -82 -127 074 -103 -124 042 -119 095 -22 094 -14 075 086 -97 096 -106 118 058 -22 -118 039 060 -128 -125 086 051 -78 -42 -116 -43 -115 -128 077 108 -81 -123 -128 -59 124 038 -111 092 -02 -81 115 -120 -53 101 -74 -117 080 -62 126 117 -127 -120 121 -50 -104 118 
093 114 -121 093 119 -89 -53 102 -121 -15 122 008 113 -57 -101 -34 -38 111 -36 -27 -31 -114 -54 060 123 -120 123 043 -63 105 -75 -118 126 083 -67 126 097 -113 010 109 123 062 126 -119 -79 -14 -100 040 102 -108 -86 -01 017 -123 -13 003 -128 -101 -82 126 -83 115 100 106 
077 111 118 -20 -64 104 122 -113 -83 029 -125 094 045 -110 100 097 103 099 001 040 014 -121 -09 -126 118 -118 -127 120 063 119 079 007 -96 -39 068 074 -78 -28 027 -34 012 072 -10 105 110 -68 -57 -124 -55 -104 105 -03 051 108 -118 115 033 101 -122 -113 -104 120 -96 -96 
108 090 -100 075 -128 -128 044 090 -100 -89 022 115 -113 008 102 -79 087 -58 -116 011 110 -119 093 116 -104 -104 -124 120 091 092 081 063 124 -63 104 006 032 100 106 061 122 -120 125 -08 074 -121 -83 107 111 -83 -100 111 -09 122 -64 -101 126 -124 057 125 -44 -25 112 -97 
116 110 094 040 126 105 029 115 -117 114 107 -18 046 -104 097 -72 105 053 -86 -122 -125 -118 -30 105 -68 -127 -127 -121 034 112 057 -109 -124 -105 101 067 -63 124 -112 094 -127 -96 124 091 -109 113 099 044 -26 -46 044 -118 -100 -118 072 041 -122 029 -100 -118 -117 -125 -92 -93 
055 057 -101 122 124 097 -35 118 122 -103 -125 055 -88 058 117 -101 010 087 124 117 090 -98 -06 -98 -122 -126 126 -23 -78 -99 -104 002 121 114 109 -29 008 -124 -12 -127 125 -114 -68 -128 103 119 -43 041 -03 -119 102 073 -06 -19 106 034 124 -121 125 030 028 122 -104 -33 
-47 -101 -96 -127 -127 -16 -126 -112 -101 125 -06 -118 009 077 -116 -30 -95 069 -123 -128 084 -116 -71 125 -108 -99 112 -105 -99 122 046 -79 126 123 -127 -123 078 022 -105 085 -117 -123 110 100 -122 110 -91 -118 -83 092 -97 -120 -111 045 -113 083 116 122 122 -41 103 125 -91 118 
-95 112 -106 078 107 -104 -95 117 -36 -117 092 057 -112 004 000 -67 066 114 005 125 054 -97 -92 110 123 125 089 106 -24 093 -83 063 -128 003 123 089 -03 113 -104 -118 048 006 123 105 -100 -28 -94 053 019 027 104 108 071 -94 107 -45 -128 -74 075 -10 076 -104 078 -87 
089 052 091 071 126 -126 -11 -13 -122 -116 -124 113 -116 021 034 068 077 -40 -107 -128 097 -122 085 -54 -107 067 -128 060 -84 -99 -103 -69 -128 -118 121 109 -100 120 026 -102 118 -76 104 122 -94 016 051 -120 094 -92 013 -120 -27 078 -104 042 115 120 088 -114 057 121 084 -107 
-76 -73 -95 124 -106 115 116 -91 -113 -122 066 -37 -103 018 097 024 092 098 -126 -109 114 031 102 123 -71 036 -127 -125 058 074 -62 119 -102 -118 060 -118 000 -102 -77 -57 125 -126 -126 -125 -118 -91 105 104 -84 104 078 -113 076 -38 104 108 -07 -124 116 125 -19 -125 -103 100 
-50 -54 032 -124 112 111 123 120 -118 012 028 -90 089 -88 053 003 -63 -53 119 -108 124 105 111 -106 -125 -126 -128 -96 -52 039 -81 -118 106 121 -124 -121 088 036 -16 -118 -44 -118 125 -128 041 -79 048 -109 097 -49 065 -24 045 -35 -100 110 126 044 101 -128 -105 124 046 -68 
-88 -112 102 091 -110 -127 -71 114 -116 043 -111 004 -117 -120 113 057 071 103 110 -93 123 077 100 052 -124 -127 126 022 089 -90 101 116 -125 119 -105 053 015 115 102 118 -82 119 093 126 -124 122 -50 071 015 -117 059 -31 -96 -05 -108 067 -128 -88 -117 033 -61 126 -112 065 
-114 113 -48 -124 126 -126 -76 120 108 -119 040 098 -118 070 -53 011 086 -48 -46 114 089 -104 106 -126 -124 -53 -127 121 -78 -115 048 -70 038 103 121 126 052 -37 -73 -124 -98 085 113 124 -93 -124 081 033 -101 062 -80 -110 054 -09 -20 -125 -128 020 -117 110 092 067 -106 -56 
-18 -107 105 -62 117 020 090 -38 113 -126 113 101 014 -85 -01 -20 078 112 -59 120 -122 -50 -91 -94 -120 114 -96 -54 -82 -79 014 088 -08 -125 025 -14 009 119 -109 -127 120 -124 126 -110 -101 112 108 -119 112 -31 -41 -74 -89 -121 114 122 124 072 -120 -08 -118 125 005 -117 
-95 -86 077 012 072 118 098 091 010 081 120 085 -47 -109 034 064 085 -21 -53 121 120 -39 -104 084 -119 -124 124 111 069 065 055 110 122 108 -125 120 -76 112 109 -49 112 120 -87 -123 061 -98 -48 -26 -69 -118 096 120 -110 -56 002 -123 126 119 126 125 -101 126 115 -107 
-76 -94 061 -124 -119 123 121 086 064 -117 088 -105 051 -64 027 047 -94 -58 -112 117 -96 059 -89 013 123 063 124 -56 098 -111 068 -69 -46 -71 -108 125 091 109 109 122 126 -120 051 125 -118 -119 109 -124 056 -101 -98 115 067 -70 -77 -116 067 046 -127 -115 008 -126 -14 -32 
-92 096 -86 -123 -127 110 076 038 -47 -79 123 111 -42 -45 -05 -103 -68 105 124 -115 121 -123 -105 074 051 076 123 115 -73 098 079 101 -34 000 -77 006 054 123 -89 105 -106 -03 107 122 112 111 -105 050 -40 -110 -50 -110 -106 108 095 -55 -118 -33 118 -127 -99 123 -77 044 
-116 026 -121 -123 -23 -89 -117 121 -94 -82 074 087 065 093 104 -20 062 -114 123 -113 101 -124 110 -101 -21 -126 112 -123 -87 -112 002 084 126 -123 062 126 -45 118 -43 -63 118 -08 -45 -127 077 -111 -104 011 108 004 -108 110 098 085 093 -77 -128 -112 105 -02 -84 -102 -15 -41 
030 -101 -50 125 056 126 -121 031 -109 118 -124 -03 116 -94 104 -106 -104 119 011 125 065 111 069 -124 002 092 -128 111 036 023 -74 -72 126 113 117 -121 058 063 066 024 064 -124 -124 -71 090 099 -54 -58 -43 -29 047 -97 -15 -51 -46 120 124 106 -61 -120 019 -102 054 119 
-82 -15 -89 119 048 126 -123 -114 -125 068 -120 -63 101 115 094 -105 -107 -79 000 057 074 -121 -101 023 122 -66 121 052 072 114 041 118 -30 019 108 124 078 -112 -27 -91 126 122 -99 -50 -122 020 099 119 -67 -118 -33 -109 -102 044 114 -28 126 050 -67 126 079 -121 -108 064 
022 -107 112 -66 -126 100 -124 -117 -35 -123 -85 077 -118 116 -29 026 100 -122 098 -123 020 -13 053 121 -71 122 126 -114 -100 -89 -73 -99 029 076 -84 125 -35 069 -85 122 -112 -41 -69 055 -124 120 106 -49 045 -112 060 -15 092 121 -97 015 -119 -19 115 116 042 -128 -56 043 
070 -107 104 -114 -96 -101 098 121 099 -113 -91 043 074 -103 099 -17 022 110 -79 -48 -125 -62 -74 106 -84 016 -126 043 050 071 -73 087 126 -53 073 -116 -20 -100 002 -40 -25 -13 -50 -119 122 -90 -26 070 088 114 -85 022 -93 -96 -67 -121 -79 -124 -119 126 -112 -125 -78 -99 
-03 -111 057 -125 124 -113 -125 -106 -111 -119 119 077 034 102 103 -94 019 118 -69 125 045 -24 -37 -21 -34 125 019 -125 056 101 -80 118 124 -114 124 -09 002 123 016 -121 019 106 -125 -115 101 -120 -111 034 -01 017 -99 -03 002 120 044 103 125 -124 097 113 -62 -101 -113 107 
047 -12 115 112 -127 -50 -20 -122 -111 -121 -116 117 068 -112 -17 037 070 122 -32 108 043 109 -113 115 075 -124 -124 -104 -96 -123 -57 078 -71 124 -105 014 078 -95 -48 -122 -128 -89 -127 107 051 -58 007 077 037 118 097 000 039 119 -01 -99 -121 -125 -95 -125 032 126 083 -15 
-08 083 -44 -124 099 085 -39 115 -51 -126 118 -117 108 -111 093 057 -77 075 118 -10 006 -101 -99 -86 -91 125 126 092 -30 -40 -60 -89 -127 030 114 045 099 026 049 119 124 -125 -19 -78 -105 -124 -23 -116 -19 045 097 -38 038 -86 115 109 -128 084 -126 110 -99 126 -38 -106 
-94 103 -58 027 004 -127 054 -50 -55 109 -74 100 -110 -26 114 -65 087 -108 060 -100 121 011 093 -54 013 114 125 099 093 029 046 -49 067 024 092 -128 012 056 -86 -73 -127 119 111 065 082 097 060 118 103 114 -55 117 109 108 094 123 010 -33 -94 120 -54 -71 100 -91 
068 -91 -121 -119 118 -28 -74 051 -125 -95 -120 -66 106 -13 -75 003 091 085 -122 114 091 -72 -48 123 -73 057 119 -101 -36 -77 -64 103 -61 125 125 126 -78 -81 012 -110 -127 117 -25 -128 086 -99 102 -111 -58 -97 -86 -116 091 069 -104 048 125 120 021 -128 -36 -128 112 121 
019 038 -118 -82 -125 124 -101 -95 -39 055 036 -22 109 -97 -23 -30 087 120 098 -34 -12 122 -50 -122 -87 -81 126 -112 -07 -105 103 -96 126 -20 -94 -128 -19 -92 110 -110 125 -54 -115 113 046 -122 064 -24 -64 -118 -74 108 080 -43 -63 118 -111 095 046 -61 106 017 026 -81 
109 079 -01 099 -113 126 027 085 -116 123 -57 -113 -113 008 113 040 082 -88 -120 -110 -114 -109 -100 124 -124 122 126 -111 101 -42 -67 -65 008 -51 -36 -115 -53 084 -101 125 -128 108 118 125 -120 111 -110 -15 059 -112 -66 -110 -12 -97 -34 -122 -87 -74 096 -55 -07 126 -06 -100 
-107 107 -28 085 -128 -82 -125 060 022 -88 042 -103 -108 -111 035 -105 -11 -124 020 075 033 098 076 -100 -70 -127 -125 -124 -95 115 058 042 -125 -106 -126 -05 041 -78 056 -85 -124 119 077 -94 -81 104 091 -107 111 -118 100 -33 027 -124 023 -71 059 120 106 112 -57 -101 114 121 
113 080 078 125 -128 073 121 062 037 023 -68 -111 037 -116 -77 091 -69 -93 -126 041 125 -121 -49 -104 -04 077 035 121 -89 120 -48 096 -29 -125 099 121 -80 -124 110 112 125 -122 125 -117 -124 122 -99 120 -116 085 101 104 085 -05 -107 -122 -54 022 047 126 -106 -56 -43 023 
031 109 100 -41 -121 099 064 112 103 -117 -115 115 -117 012 041 055 100 -21 123 116 -111 -97 -35 106 -52 119 106 096 096 -118 -19 -107 -111 -56 -51 -123 -79 121 046 122 123 012 -29 063 115 -97 -108 120 -83 103 -105 -39 077 123 -113 017 -128 112 -84 -117 -103 125 -65 -111 
113 073 -77 -127 111 -116 074 -117 116 -121 123 063 -104 069 -18 097 -104 071 -117 -58 -105 070 099 -88 014 113 076 -95 -85 -26 -26 112 070 -46 117 -128 -40 009 -20 -94 126 -118 -128 -126 -40 000 -94 006 028 -119 057 -121 063 111 -78 -03 126 -112 125 126 -123 074 110 -111 
080 111 107 -127 126 049 085 002 113 -127 -117 098 -81 -107 095 -87 103 016 -109 -118 083 114 088 -76 120 122 -126 -115 087 064 -88 053 088 116 108 -126 094 -115 -112 -16 -126 -36 -51 -06 096 -41 -22 096 109 067 094 -63 077 059 027 079 120 -101 -71 -119 109 -125 004 -42 
027 -41 -26 115 -127 007 123 054 -114 108 -38 095 -112 090 116 080 069 055 019 023 044 027 006 -108 -78 -121 -126 -48 033 105 -94 080 -126 027 -29 108 071 122 -110 121 074 122 -54 125 084 -83 089 118 -31 -23 019 030 -02 -123 017 038 -127 068 114 -124 033 123 089 -114 
079 035 101 039 000 090 112 119 -61 116 -122 085 024 -08 113 095 005 032 -114 123 091 -46 -104 -97 -125 -35 -118 120 -91 008 -77 106 118 093 058 126 093 -55 034 104 -38 -90 -105 -29 121 -97 043 -85 096 -116 -79 -97 107 -117 -57 116 096 -44 083 080 -54 -55 -16 -36 
058 -109 -106 078 -128 -22 124 -96 120 123 115 071 112 119 -93 060 -24 -87 110 124 030 -104 045 119 -119 125 053 123 -68 -17 070 -117 124 -124 -29 088 -46 001 -40 -114 008 009 -127 125 078 114 087 119 -92 -119 -84 119 103 122 -02 -119 -123 115 091 -125 103 121 -45 040 
078 -50 -117 -26 125 015 -72 109 116 -127 121 070 -114 -80 047 057 064 -115 096 -118 125 119 -39 -88 -121 106 124 -122 075 -84 104 -14 125 051 -126 -112 -60 097 107 -103 -100 093 125 -84 099 065 -93 061 024 -96 011 119 -103 097 -117 -121 -128 -124 107 124 -97 119 098 -107 
-109 051 078 116 126 -128 087 -07 082 120 -77 041 -62 038 088 099 081 109 085 062 -125 -125 -74 -122 -33 119 -128 -124 107 122 -70 -58 015 -108 -78 -81 090 084 102 -06 112 -74 -127 126 -24 104 -69 115 104 -123 088 114 -106 -54 114 -92 058 -06 120 084 060 -128 089 -72 
082 -92 -114 -120 125 101 116 049 107 069 123 -102 091 113 -39 -88 091 055 -72 124 -125 108 031 -29 -47 022 126 037 -71 115 048 092 126 122 120 -128 -43 -58 097 122 124 -10 126 -128 109 112 062 111 -94 105 -28 -102 109 -122 -115 -79 -117 121 124 -95 -115 -128 -87 001 
118 063 -06 -127 -124 124 032 021 -24 -88 -81 020 109 119 -106 -21 -97 -98 117 018 -117 111 -95 124 037 -67 -111 057 104 098 -49 -93 -103 -06 -125 -63 -88 -98 -69 -92 121 -123 -127 126 089 -86 -72 -113 -37 092 047 105 056 -110 119 -122 -116 -105 -123 -114 -75 -127 -90 101 
074 098 -95 081 107 -128 -57 -55 072 004 -123 101 052 035 -63 028 -58 -107 109 -127 112 035 -53 -86 123 062 098 079 086 106 -01 -116 094 096 092 097 098 -119 081 -124 126 -126 -128 -128 -121 007 -24 118 114 051 -43 067 -09 -43 108 -109 -118 044 125 -128 -123 039 -05 -110 
-107 110 -78 -125 088 083 -21 -75 094 -123 -10 -77 -67 077 080 098 030 120 -97 124 004 121 -99 122 123 123 107 -120 100 -123 -91 -45 -125 -58 102 126 017 -79 -29 121 -126 072 105 125 -09 -120 099 -122 -84 -88 -47 -81 -78 -34 038 102 -124 063 -122 -93 -123 090 108 117 
027 084 -109 -123 -128 123 066 -107 047 096 -120 066 087 -04 026 -69 065 -54 -122 -123 -125 122 047 076 081 -124 126 030 -87 120 -97 -100 011 099 -124 078 -30 -119 091 -92 011 121 121 118 100 121 -67 048 -113 069 045 -101 -94 107 073 -91 126 -105 -127 -128 002 126 027 067 
-115 112 -70 -123 -115 102 083 068 -55 -90 -99 -112 097 -98 016 -91 038 -123 095 -127 110 -123 091 114 -50 114 102 -118 -103 -98 007 -111 -124 029 092 100 062 071 099 -86 099 -30 126 125 111 047 006 015 -39 106 -71 -03 -31 123 -109 -89 121 110 -82 -67 -95 -127 -36 -121 
-81 068 -93 -124 125 -28 122 106 -114 -121 076 -107 106 -119 106 -15 -103 -119 -57 118 096 054 086 -118 -99 120 -32 121 -19 088 -59 -118 -128 047 -38 111 -55 105 -38 045 112 -108 106 126 -119 -83 077 097 -86 -43 012 116 -42 -108 -106 069 -128 070 -127 120 116 126 -38 -62 
077 -111 -95 -122 -128 022 -104 095 089 124 -61 -76 -44 -107 -118 -82 -107 069 120 001 124 115 105 -125 102 114 -127 123 041 036 077 -119 -128 -48 -24 -124 025 120 -84 124 126 -122 -123 -128 -82 018 -58 -07 -44 -115 -95 -117 -60 060 -113 042 075 -02 076 -114 -80 098 -02 -114 
-80 051 077 -121 126 010 050 079 123 121 066 -112 083 102 092 -103 006 -25 019 124 -42 -96 -02 -122 121 -60 -128 -117 -74 123 112 -100 125 037 -123 114 -72 -15 -108 111 098 097 -31 -21 046 050 032 101 063 115 069 -104 067 -83 014 069 -128 -125 -113 -121 -119 121 103 -116 
009 -58 -19 117 -39 -45 086 019 111 -101 061 -112 -49 -44 -106 -90 000 -119 089 -120 -122 073 -14 -124 -110 -115 119 -65 -02 018 074 056 -126 117 -76 111 096 124 -111 123 -15 -66 103 -127 121 118 -108 120 070 -80 030 -66 -95 -71 -31 -34 126 -96 124 -100 -123 124 -77 053 
-17 -75 -85 116 099 121 099 -122 094 -127 -123 -58 -94 -39 -94 -62 -51 -18 120 -96 -42 -95 108 -124 -59 -127 125 110 -49 -55 086 -35 -125 117 -119 116 -52 117 -74 -94 063 105 102 -03 078 115 030 -103 -96 119 -47 105 -01 -89 056 111 126 -59 -81 045 031 -58 -11 037 
-114 -44 066 124 -46 117 117 087 -100 124 -120 115 -105 074 -14 -89 -61 115 -69 088 -110 -92 001 089 006 -118 -126 -90 102 -124 -36 112 -119 076 125 125 106 112 030 -95 126 -92 125 -68 -118 023 -43 -116 116 112 033 113 -82 -29 053 -116 126 -40 105 125 119 077 -97 120 
115 -99 119 118 -101 088 091 087 021 -122 000 -60 102 102 -45 -31 100 -95 117 -127 013 -111 041 007 024 -92 126 -98 -93 -56 -90 044 126 111 014 -32 -16 098 075 123 124 119 122 -30 -113 -90 -96 078 -111 113 -76 -110 -83 -124 067 -98 -128 -72 107 115 106 -109 102 079 
103 047 086 040 -128 -128 122 039 -125 090 -83 001 042 -101 -91 -103 051 -100 124 107 071 122 -112 103 -124 085 -124 027 089 -47 -92 -111 -106 -60 122 -97 -55 -15 -101 -126 018 -59 117 -112 -04 -80 -71 -100 -105 111 -50 -79 -112 -01 -96 -123 -126 091 053 100 -122 -123 056 -81 
-18 069 112 -81 -128 -102 116 113 116 -125 079 -70 -114 -117 -45 060 -92 -65 124 125 -109 -118 069 119 -114 -118 126 -100 063 -50 -102 092 -20 -58 -90 -109 -91 121 079 122 -66 123 070 -126 -57 023 097 -21 039 103 059 -112 -77 119 -59 -125 126 -99 -66 -128 097 126 -113 008 
-37 -73 -86 089 -121 118 059 -24 101 -86 -91 -59 -15 012 088 054 062 -53 -48 -61 -115 039 048 108 -123 -123 120 -112 004 -93 -27 079 103 -123 -92 -118 050 -123 -81 -70 -128 -27 126 115 -113 -90 -80 014 -108 111 -42 -92 069 069 070 115 123 -108 -115 109 070 -128 -89 -122 
106 044 106 -85 -06 -128 121 097 119 -108 093 096 -118 -23 -112 -04 -88 -85 -124 -117 064 027 -89 -126 109 108 -113 087 081 -115 -93 -86 -126 120 -126 -122 054 -56 -93 -126 121 -106 -114 121 -51 -52 109 -71 079 028 096 -97 054 067 -112 -124 -92 -110 -125 119 045 126 -76 023 
-117 077 049 125 126 004 056 -12 097 092 -123 -104 -98 080 006 098 -47 112 -77 111 106 -92 -94 -115 -122 102 117 058 -83 -90 -35 071 -43 -127 124 -128 098 057 031 022 126 -125 118 -126 064 -24 097 -28 -113 102 025 048 093 -120 060 -02 112 121 108 -128 031 031 -100 -120 
113 -112 099 -127 085 -65 096 097 -101 123 -36 117 -04 039 024 104 011 -03 121 -123 -113 -125 -102 124 -24 125 110 -103 105 -97 076 -113 -55 -80 080 126 062 029 061 061 126 -26 -44 -120 -117 -96 079 -121 105 -91 106 031 016 117 039 -123 122 -125 114 -65 -74 116 088 -94 
-113 061 -02 -126 -96 125 -123 -122 -125 019 -85 101 -13 027 -110 -83 097 119 -106 -107 -126 -103 060 -29 -123 -67 119 -64 093 -67 049 -49 126 123 080 -106 099 031 049 030 -125 119 -58 -112 -123 -60 -76 -113 -26 109 062 110 112 041 -109 112 124 -66 -127 125 050 104 -87 069 
-116 115 -114 124 108 123 013 -116 081 125 -06 -71 006 088 -98 -64 -105 074 097 -115 -127 -108 091 102 078 084 123 -09 032 120 -98 -75 126 -121 046 -57 061 -104 106 109 126 -73 123 113 025 009 -43 107 -105 023 080 102 093 -14 -94 100 074 -110 -42 -49 -119 -80 -45 -122 
-77 069 020 -108 -119 126 -22 097 -118 -119 -78 -61 -84 089 107 -91 100 -27 097 062 -60 119 -97 -02 106 069 016 122 -99 -118 036 -43 088 -65 -109 046 082 -125 -37 -23 -69 076 124 -125 -108 -24 -43 119 104 095 079 -115 113 -123 -58 025 -124 067 125 -117 -112 122 -02 114 
115 -70 076 115 124 -126 090 -103 -123 040 118 027 085 110 106 078 -23 104 -111 124 109 -125 -94 120 120 112 -110 122 054 -71 -43 -107 108 125 -117 -85 -57 -44 041 122 126 118 -89 115 096 -111 -111 115 -74 121 -66 -102 089 031 108 099 126 -122 -120 -44 122 122 034 021 
-96 -77 059 -122 -127 -105 092 038 088 045 -76 114 086 -50 -94 -101 -41 -107 120 120 100 -113 -96 103 -115 125 -123 -53 095 -102 066 -95 126 -02 069 -48 -79 043 -13 -127 -118 121 126 125 122 -38 -93 -122 -82 -116 -13 115 -74 -42 011 -119 -123 -71 -127 125 092 -126 -22 -23 
115 005 104 -126 125 -127 108 120 -21 124 122 -54 090 035 -73 097 101 107 022 -107 -117 -105 111 -64 -86 122 126 011 -17 -111 099 003 105 -123 123 126 057 118 -76 -114 -127 022 -49 -123 -96 074 052 -99 -87 -120 -104 -116 112 081 -109 -104 126 123 120 -56 -116 126 -24 107 
043 -103 -122 -127 125 125 -109 120 -53 124 -125 070 112 -80 -67 -107 082 -123 -80 -122 -112 -54 -76 112 -122 -22 -126 -29 063 -122 046 -119 -31 008 125 -128 088 114 -57 108 -112 -17 -125 -123 -121 080 -80 083 -108 039 -77 112 103 -111 -44 051 -127 101 094 083 091 125 -43 -85 
-113 -64 -18 071 -126 -11 122 -22 -107 -102 -125 112 -17 -94 032 -28 016 -110 088 125 -21 -120 -107 043 -116 -116 122 -50 -63 006 080 -105 -104 -117 -116 125 100 -124 -91 109 046 -123 036 -125 -74 100 056 -122 -115 -121 098 -25 023 008 -85 -116 -128 015 -119 -126 -104 126 030 -114 
034 -107 049 119 -112 111 110 105 -125 -05 083 099 109 -84 076 100 -37 -104 101 098 010 -37 091 108 -61 -41 -116 -112 092 067 092 080 060 120 119 -128 060 -34 002 -42 -128 108 -107 117 085 120 008 101 109 112 094 -45 102 -114 099 119 -107 078 110 123 -97 -111 -68 121 
-113 -97 -121 091 -51 -104 -19 -98 019 040 -58 -108 -110 -86 -52 -65 -107 -47 -110 -118 -81 -04 -27 090 061 110 106 -56 065 116 099 -66 125 -122 -121 126 -100 -125 -78 124 -128 -80 -115 120 -108 -120 -96 -64 -88 107 099 050 -04 -24 -49 -67 -49 -36 -109 126 -06 -125 060 -76 
-43 -96 025 -126 121 -128 -96 -103 -97 069 -120 087 115 -110 086 077 053 -04 033 115 027 116 -50 -120 -120 -97 -23 -75 -103 120 -76 -101 065 053 -123 126 -47 -112 -59 -123 126 122 123 -15 -30 091 -37 123 086 -78 025 -47 -110 120 101 -64 -90 -118 -124 010 021 120 048 -83 
049 097 -121 -113 104 078 -120 -102 121 048 -81 -116 -68 051 -91 -54 101 -88 -126 101 113 113 074 -94 -109 -24 063 032 058 -123 037 003 117 071 124 114 105 111 -33 -12 -25 121 108 123 090 -124 -24 -62 013 094 -47 115 099 -102 106 -122 -122 000 -118 -120 044 126 -103 095 
-48 073 -13 -123 -59 -118 107 062 -93 -113 048 058 056 025 -108 -78 097 075 027 034 107 -109 -107 -74 -121 003 121 -11 094 074 013 -103 124 116 -125 122 038 -102 -90 050 -128 -102 107 125 -19 051 -66 097 098 119 -56 -81 004 119 067 093 119 055 -122 -103 -119 108 096 090 
005 -92 112 032 -49 042 -121 116 069 122 -20 069 -115 -78 -118 -03 081 117 024 122 124 -58 071 113 004 110 113 109 054 019 087 079 -74 079 -113 126 -107 097 -92 116 -128 -53 120 -35 103 117 091 -123 -86 -61 -19 116 -55 -120 -115 083 -127 -110 -109 -118 063 125 105 -123 
118 068 -65 092 039 076 113 -109 064 015 064 -116 111 -111 079 -85 089 079 -115 114 -119 -105 103 -116 -122 123 -92 -114 012 101 -81 -11 -53 -125 078 -102 088 122 -98 121 -66 -125 117 -111 -110 -90 -64 -121 087 028 090 108 072 110 101 -107 -124 -91 -35 117 105 -116 -14 -122 
-115 -110 -92 -107 075 124 089 109 -108 -116 050 006 -07 -82 071 -86 100 085 104 -123 -126 056 111 007 094 023 -120 109 -53 -28 -10 076 114 -125 007 118 022 -126 -101 -127 074 -25 086 -59 122 -120 032 -89 -48 011 -42 -51 109 062 017 122 125 122 -98 033 -26 -100 006 039 
-91 061 117 120 089 119 -65 -64 118 125 -121 -18 085 072 -111 024 042 111 115 -73 122 -95 -100 -126 -47 -125 -87 -121 077 -43 -53 084 -119 124 -12 -127 -34 123 -106 -126 093 -109 -128 -123 -111 028 066 074 -87 -96 083 -71 -109 -124 -109 049 126 -75 -69 051 039 125 -10 015 
109 015 -20 -123 -100 106 -119 -06 118 -126 121 -90 -96 -119 112 049 100 -48 089 -07 -112 -20 109 125 -14 -126 -81 113 001 -104 075 014 -52 -123 027 124 -07 099 -73 -127 -107 026 124 -98 -113 122 092 -79 -74 -119 -78 -10 -92 -09 047 -102 096 -119 -104 -98 087 126 -106 -110 
-13 047 -97 031 -16 126 -65 064 050 125 046 101 -66 -13 -115 080 050 027 -41 -07 -126 062 -45 -125 001 056 121 113 -59 109 -19 -03 126 116 117 115 -94 123 -97 -72 -71 -60 -50 -117 119 -120 -39 -118 -07 073 -54 106 -102 035 106 -121 125 048 110 -128 092 126 103 121 
071 -97 -53 -126 -126 000 108 116 -119 041 118 -111 -102 103 103 -97 013 -73 117 119 123 -120 090 032 -121 -126 -91 116 077 090 -80 -112 -120 -126 113 -128 026 -93 036 -123 126 -81 -112 123 049 -02 -96 -123 -35 -52 102 -70 -47 106 -101 099 -97 060 092 081 075 -59 110 -74 
-116 -48 -114 -37 020 -126 -67 112 031 050 051 -32 072 -106 -32 -37 -100 051 -09 -120 121 116 -60 122 044 -79 123 -122 013 -94 027 -78 125 -123 120 -128 -64 -125 010 122 -125 -52 -127 111 -81 029 -68 -123 090 -100 086 101 -96 082 021 -99 -128 121 -123 -113 119 121 -82 093 
087 -12 -83 -105 -126 077 054 092 -123 -02 -124 -115 078 -102 -90 020 -92 -66 124 120 117 -122 -102 -116 -66 -01 -125 040 092 120 033 -120 125 -115 123 -115 -44 121 107 -125 119 082 -124 119 122 112 015 122 -25 010 066 006 -101 047 067 095 124 -72 -69 121 089 099 -97 090 
107 108 097 -63 -124 -123 -46 -113 120 -123 065 062 008 -29 -85 032 -106 -104 007 -01 096 -69 103 123 -122 -117 -128 -77 -41 016 068 060 107 -113 -124 038 092 -48 002 084 072 -112 -108 -128 -22 -30 085 118 -91 116 -43 -84 -09 -83 -107 -122 119 -119 124 125 118 -128 106 038 
110 -89 -121 124 -115 -121 123 106 106 -93 -119 -60 025 065 -99 076 049 081 -124 121 071 113 -12 -48 -100 084 126 -91 064 001 091 103 -125 -46 -70 -127 068 -36 -109 -07 125 -126 -128 049 116 -89 -46 107 090 -48 -74 063 106 043 063 -45 -108 002 080 126 122 -105 -79 121 
105 114 031 -123 -127 079 -93 -118 -122 071 011 112 -25 088 111 035 -96 -120 -29 123 078 050 -52 -123 110 102 028 075 054 -03 031 064 -53 -121 -63 083 088 -125 048 -69 122 124 -125 123 -116 -124 -85 -33 -82 -114 -73 092 -84 063 -67 121 114 065 050 -125 003 122 -79 119 
094 086 -107 122 025 084 115 108 003 102 -77 030 101 -85 -55 102 -16 088 103 122 -85 059 061 -126 -110 123 -120 103 -32 -36 -14 -90 -125 119 029 -123 -94 -121 -109 -128 125 -21 118 125 -68 -119 -99 -123 077 -117 -64 -51 -106 -44 -104 -64 123 -55 -94 115 -100 -127 -112 -85 
-28 -11 115 104 100 123 -126 092 -75 -127 091 -97 -102 -95 106 -98 -55 -123 -119 -126 113 -32 -93 -120 -123 -127 -32 -92 100 -97 -21 109 -72 117 031 119 -21 119 018 -113 122 -55 -19 -127 019 105 037 010 -43 078 089 -93 -114 -106 084 073 099 -71 079 126 -121 -128 -69 091 
-84 105 065 -89 -128 -128 079 027 115 030 -125 -115 -32 -103 096 -69 -38 -113 -127 -108 -121 -120 -49 -57 092 -113 125 118 077 118 -29 000 -107 -121 067 -126 029 -89 040 119 -89 108 125 122 111 -14 -62 -05 -102 077 051 -115 087 104 089 -91 126 -116 083 062 -121 126 071 047 
003 099 042 114 -128 023 122 -115 122 -119 027 -118 -76 116 078 070 086 120 118 040 117 065 076 -15 -43 016 125 014 072 -124 089 114 101 095 124 -55 -108 075 -108 116 -121 121 -124 -116 -122 -119 031 113 064 116 -53 -121 030 097 -05 -25 -55 -123 097 126 -83 -126 076 -22 
-106 -22 119 -124 041 -127 -01 -71 -116 056 -94 -119 -95 -82 -85 -86 101 121 067 -127 -115 -101 -26 -101 119 -111 098 072 -87 080 025 -119 -127 -122 079 125 -26 106 079 -110 -128 119 112 -50 039 -115 -81 104 028 106 054 -85 036 -125 -72 122 095 -62 115 -87 114 123 019 -64 
-113 -29 025 -122 106 126 078 027 -73 103 119 039 -23 069 105 -81 -101 026 125 106 121 017 071 119 -122 -91 119 -125 -37 062 096 -18 125 110 -22 -122 067 120 100 -31 -125 -16 042 -114 028 -122 023 -47 -07 085 079 071 -63 089 -37 113 -124 -100 102 -127 -58 103 095 -85 
-102 -22 -40 -50 123 -123 090 -117 119 123 112 -49 -112 108 095 042 -83 100 -100 121 -125 -15 -100 -57 -46 121 -90 -10 065 078 037 -116 039 -90 -126 124 -29 -26 -110 125 126 119 032 -126 038 118 067 011 018 -15 -14 100 017 -115 101 105 035 -113 -50 114 056 -124 099 050 
100 113 -84 088 -127 119 123 114 -125 123 -89 106 083 -111 043 -101 090 082 -05 -122 121 043 -83 017 -58 039 126 -109 009 117 -33 021 118 -127 -112 -66 073 -122 -96 -117 -84 -102 -97 -90 010 -118 110 118 -70 -91 038 -57 -23 116 063 -52 125 023 123 125 083 -118 -75 -120 
-87 107 024 -71 125 122 101 014 004 115 -62 117 116 -111 082 -68 -43 025 124 -115 -71 -97 -86 034 -52 -04 -107 -62 049 031 -93 089 -125 109 -118 -128 -13 -103 083 017 -116 118 -124 119 -120 116 099 097 075 -25 -78 119 -97 -27 -96 122 126 -124 124 126 -63 126 081 065 
115 -76 097 -13 076 123 117 098 107 -126 094 081 -69 032 -57 -100 086 117 024 -108 001 116 018 102 110 -124 -31 088 097 -41 -23 -117 126 124 048 -125 103 122 030 -70 015 122 -78 -76 117 -124 -100 -107 -91 115 001 -23 000 -120 -13 118 -91 -104 079 -06 075 -127 036 106 
089 034 -112 -125 117 022 -113 -100 -122 -79 -125 -13 110 -107 -116 060 -04 083 117 -115 -111 087 077 123 041 -95 107 -73 025 -91 047 -110 078 -116 -74 -127 -107 -110 019 -121 -40 096 124 119 -23 109 -51 -119 -22 059 036 038 039 122 116 108 089 -16 116 126 -122 -127 013 009 
-105 -105 047 -118 -126 -125 121 -122 104 -124 112 -99 066 -109 -12 -88 102 -110 -125 078 124 -117 -80 092 -101 -24 125 116 -34 -119 -105 024 052 -70 112 -128 -50 -96 084 124 -124 118 -128 -128 -120 068 -86 112 -97 -119 100 -47 016 -44 080 108 031 018 -122 -28 -123 122 -25 -98 
-16 -03 107 -20 119 -128 -86 009 117 -123 123 021 097 114 -112 -14 -74 028 -77 053 -117 -24 041 003 -121 -117 125 078 093 000 010 -72 -100 123 -111 125 099 -118 -81 -124 -110 091 124 -123 116 026 025 097 092 104 -107 099 007 114 -119 -106 -128 -100 -121 033 -114 088 -73 120 
-62 065 -106 -40 125 -46 119 089 -56 118 077 -14 113 119 -88 041 -44 -112 106 -37 122 -64 -87 113 041 122 -81 -125 -30 120 -71 096 125 066 079 089 022 -106 097 -127 -128 -118 -09 059 -123 -112 002 108 102 090 -106 097 080 -46 012 115 125 034 001 -28 008 125 109 -54 
-89 089 111 -127 126 122 -113 -100 109 125 122 -118 -76 116 -71 028 -101 -107 040 -115 123 050 048 -73 121 050 -128 049 033 -117 -88 083 -121 -121 122 -41 066 122 029 072 -109 070 121 -125 115 038 049 -102 076 -71 062 046 048 100 116 072 126 119 110 126 107 -128 -81 057 
-34 -117 026 -125 -128 -117 -90 -96 093 -36 104 085 070 082 067 063 -04 -121 -77 -125 -92 -125 -54 -96 -98 -01 -04 -123 -70 -83 048 -101 -111 083 002 126 -93 113 109 -112 084 -50 057 126 -34 -64 047 106 -114 -72 -06 -88 -87 097 060 -53 126 081 039 -128 113 124 104 -38 
094 -33 -80 058 -125 125 040 012 016 -125 -113 083 103 -90 022 -93 -02 -78 -59 115 -127 073 -22 -95 -03 -95 091 111 -70 -72 029 -118 124 -74 -122 -128 067 121 097 -100 124 -65 126 125 -28 -06 094 -32 099 -106 -39 113 069 -123 -113 101 124 -28 -43 -122 091 -124 109 039 
092 -34 -46 -122 103 114 034 061 012 -16 -74 112 -110 120 109 -98 -101 -105 124 095 -123 -66 -107 039 -04 -125 -108 010 -07 086 -101 -76 -108 082 -07 114 087 -99 057 -71 -113 -126 121 -52 -110 -123 088 004 -67 093 074 104 -98 -118 089 029 126 -58 -64 124 -65 -123 106 111 
065 068 084 -126 124 -42 108 071 -117 -22 073 -78 086 -54 009 -54 -74 -109 012 115 -110 115 026 124 086 -124 -115 -42 104 099 -101 101 -114 -53 -50 -125 -80 -69 -96 -127 -128 106 126 -126 -73 103 -41 037 -81 048 074 002 -48 053 -86 115 -126 122 -118 125 090 -56 -61 -94 
-49 -92 -120 -102 125 126 -111 093 086 -122 123 -113 -41 010 056 -47 -38 113 027 124 105 -125 -35 -110 -11 124 -27 120 003 -51 094 058 123 -46 -124 -47 102 -18 109 -126 -123 104 126 -68 100 -27 -104 118 099 -104 069 -82 100 100 085 053 028 069 122 051 051 126 -112 -113 
053 -76 -05 120 125 -127 -123 082 120 -15 104 -114 117 079 098 054 107 -122 124 -87 -125 -117 -111 -78 086 -37 086 -98 055 120 -14 089 121 123 -126 079 052 064 047 -121 -116 038 -97 -128 -121 118 -93 -122 -111 -90 098 036 012 -111 116 087 126 103 121 -124 -06 -127 114 -74 
100 094 -66 -42 098 -119 042 -75 055 -125 011 012 059 -106 092 -77 072 112 116 -83 122 -17 -39 -43 -112 -127 -108 117 -38 037 101 -119 -41 -90 -119 125 057 -122 -44 -127 -128 119 -76 124 -03 -119 -94 -116 -77 016 -89 -87 -108 080 060 117 126 -84 -123 -124 -119 -77 110 -122 
114 024 -69 099 -101 -125 -90 026 -87 007 106 -54 109 -107 -101 043 052 -68 -51 120 -13 111 -44 033 099 119 -128 -45 -105 102 -98 073 121 -92 -01 -128 -80 -58 -51 090 -128 -121 125 -99 -41 -05 077 084 -17 094 052 055 105 064 089 -85 -123 -72 112 -122 118 121 060 -51 
-116 -91 115 125 -126 -115 -97 -82 -85 111 110 -56 -102 -113 018 050 -06 119 038 -126 -122 -66 -13 048 005 034 126 -02 049 -67 033 102 125 -127 119 022 030 123 046 117 126 -113 106 -128 041 047 105 041 061 -123 -31 089 -111 -121 083 -107 -128 -122 -112 126 093 041 101 -123 
083 110 -100 107 -125 -122 045 119 071 094 -125 -37 112 -57 -114 -106 092 -121 001 -69 -91 112 053 083 095 084 122 005 -99 072 -106 113 -112 -126 -120 -111 -21 120 064 126 -128 011 126 -109 107 -123 -49 096 -48 113 -87 -63 110 121 -86 083 126 106 -116 -128 118 126 065 119 
-34 -112 -120 -127 -126 -127 -123 -76 121 118 051 -90 017 119 -109 064 -25 -114 012 -87 119 -38 005 124 -113 092 -96 -120 -23 -63 -07 113 -117 -125 -24 -83 -74 -89 -30 113 -126 -31 109 018 020 -88 -72 -43 -75 006 040 028 -111 116 -119 -88 055 -84 123 -127 121 029 000 -99 
-76 108 112 080 125 077 -123 -110 -120 124 119 115 -78 -117 074 024 -46 116 091 120 -109 -63 055 040 -89 113 -82 074 -74 -43 -89 100 -120 114 003 -122 -56 -56 -01 119 126 -80 085 -75 050 -121 048 -118 -116 020 -100 119 -90 059 109 073 -128 -122 071 126 -122 093 -82 -93 
-50 -35 -99 085 -116 124 019 -112 -116 -127 091 -80 -104 -113 002 -100 -100 -116 -124 -78 110 119 -56 -69 079 -108 105 118 -102 035 052 -97 -122 -116 -124 -128 099 -98 065 -127 125 -73 011 094 -80 089 -90 -120 079 -115 003 064 -95 095 -110 123 -126 -124 125 125 008 -114 048 -39 
-93 -80 -75 015 -110 -128 075 -05 -125 123 -08 -79 -87 120 -105 -51 -03 001 -05 -120 -126 -119 079 122 098 124 -127 102 -52 081 100 -75 019 106 058 -116 092 -78 -05 -126 -125 119 -22 122 081 -117 -65 081 -09 -03 -36 -107 031 005 109 -108 097 109 -119 -122 -32 -127 025 -39 
-124 -109 -20 123 118 -119 -86 116 119 -122 084 -41 099 -33 -87 -113 -107 090 072 118 110 -63 -127 084 013 -26 110 014 076 -62 -56 -72 115 102 107 119 -41 -99 118 017 124 -01 -15 -120 -120 116 062 079 -125 -123 125 -127 125 096 099 -116 -58 109 113 118 -117 -37 049 -122 
122 -98 -108 -122 -90 109 120 -20 -125 -113 105 103 099 012 124 067 092 034 -33 001 066 -82 110 020 121 -120 122 -116 106 -126 -104 125 -33 -37 069 -116 038 030 126 109 -128 113 091 -26 -116 -127 114 112 124 126 114 124 -128 095 080 -74 -116 -99 -81 -67 -43 109 110 -68 
064 104 063 -107 126 -72 -125 040 -124 089 -119 -127 078 059 120 054 111 034 -109 -56 016 -122 -128 -20 058 123 -47 068 075 -46 -128 -124 -21 093 001 101 021 -103 105 -68 028 -120 124 121 -116 -119 -58 -124 118 -113 066 001 126 -61 -71 101 119 112 123 -71 106 121 087 -63 
-91 107 -98 -125 122 -61 -65 119 120 -93 -99 -123 -12 093 -124 114 096 071 069 -119 061 126 -128 -120 056 109 098 -72 -91 -124 067 125 115 -117 112 -47 -95 -101 -128 -31 -79 -68 -115 074 -103 -70 -112 121 -53 -128 074 125 116 -101 -114 074 106 -124 -11 -18 -125 -64 085 116 
-107 033 105 -77 124 -10 -125 -92 121 123 -107 -127 -103 055 -126 114 -117 -66 042 117 -76 124 126 124 -117 121 -123 -109 113 -120 008 -121 080 -118 -116 052 -123 -121 -78 -105 -127 -100 020 -122 -16 -122 116 -64 -114 -122 082 -117 108 098 116 -98 -90 121 106 -103 093 -115 098 122 
122 096 -89 -125 -89 094 -123 -115 -111 -119 099 -75 079 102 -42 -97 -64 -27 -63 111 084 -127 -124 125 043 093 -64 071 -100 126 115 -79 119 -123 -123 -120 098 076 020 -22 121 -85 -80 095 066 126 071 104 -93 -128 072 -53 125 -123 115 113 080 -07 104 -45 -107 039 097 -86 
-127 074 -05 032 -126 -90 -122 -100 121 106 -11 -127 -27 104 -126 -119 069 -90 -36 040 -02 -97 101 -71 -121 011 -116 105 -35 126 -128 -121 -100 024 119 120 110 106 125 -67 056 106 124 -108 -113 117 -33 -103 -101 -73 -52 -52 -101 -95 -41 016 -46 100 098 005 102 119 119 034 
-125 004 053 -124 125 -110 119 009 106 -113 114 -126 039 -107 -85 055 031 -76 -86 -03 -100 -121 -57 -77 -13 124 -51 008 -70 -99 115 115 -125 090 042 -112 -58 -103 113 105 000 -128 -125 -55 -88 -123 059 -123 -58 -128 122 118 -128 083 -12 -26 -108 -42 123 -108 103 -59 122 110 
-118 118 -44 122 126 -99 022 -109 119 -91 115 -109 -88 056 -117 -123 -119 -68 -92 123 -72 014 114 -126 -113 122 120 057 014 -121 119 -125 -115 -102 -119 121 043 120 -127 -74 126 -128 -122 037 -104 -128 080 107 -25 100 -120 -125 126 -54 -102 086 068 -73 -123 -55 -127 121 080 122 
125 -44 -102 124 080 034 -45 125 119 098 100 -127 -80 035 -125 119 -101 -73 -93 085 -125 120 -115 -45 -08 -65 118 -68 -20 113 111 -90 -52 001 -108 039 -98 -122 -103 110 125 -128 040 -124 103 121 -63 120 123 125 -111 -97 114 090 100 114 087 081 -116 041 -60 -121 114 -115 
067 098 -65 -124 -28 035 -54 -105 125 096 -82 -126 -100 075 106 -120 -100 019 -86 -68 079 087 126 073 -45 -30 111 113 081 -121 -115 -127 124 -64 005 116 034 119 -114 118 -128 124 -109 077 121 126 -116 063 109 -124 -111 -102 -128 -107 090 111 -117 -84 109 -30 -75 -94 025 047 
-125 -63 -43 -12 126 110 -123 -127 106 -117 047 118 076 -97 -117 -113 -97 -105 -105 121 -60 -98 -08 -123 -56 -108 -114 094 059 -111 -117 058 -43 -122 075 -102 -65 -43 -82 -90 -120 126 104 -95 -119 -115 -82 -86 -124 126 112 -122 -12 -103 092 -102 011 -14 -67 -97 -125 058 -40 -92 
-127 -92 -10 -69 -122 116 -120 -111 112 -120 -45 102 012 -10 126 -19 054 084 -82 076 -40 -119 032 -127 -105 114 105 113 093 -128 -128 -118 -126 002 -54 -97 -87 -45 079 -96 -128 102 063 -16 -91 126 059 -83 -102 126 -118 120 014 -33 121 -53 115 088 122 -55 -19 123 065 123 
-126 120 001 -52 -128 058 -21 078 -124 -83 -104 099 -99 040 076 -124 109 035 098 -120 100 -92 -128 122 121 097 -101 -116 -111 076 104 032 121 -127 -77 -121 -124 -29 124 -121 121 -121 101 -01 -126 113 -113 100 057 -126 124 092 -128 112 104 -35 089 050 121 -76 113 115 023 -124 
-125 -77 -73 -120 -127 052 -38 126 -110 101 -103 124 -78 -104 -104 -118 -101 -14 -98 -115 055 -125 125 -124 -122 -126 -103 099 028 -94 036 091 -126 021 020 121 -12 043 -40 -92 104 -60 -120 -119 -55 -120 116 103 -118 -128 036 -16 032 -121 089 033 -19 115 -93 100 -126 -115 -44 -109 
105 -81 -28 -81 -109 118 -120 -112 122 124 -05 049 107 006 110 -116 -88 -85 -102 -78 089 099 -114 072 -05 118 122 045 -08 122 123 084 116 -43 114 -25 -120 082 064 107 055 110 123 111 077 024 -106 -95 -121 126 125 087 -90 -116 -05 -56 102 -115 -121 119 -57 066 -69 105 
-59 108 -54 113 -118 118 -118 -125 037 -41 036 -106 -65 067 006 -124 -64 -100 -11 122 115 125 125 -127 080 122 -90 -96 -14 093 -18 059 -123 101 -53 072 -105 028 -127 018 -114 126 -49 084 -106 126 022 -50 -122 -108 122 108 126 006 -105 -92 -99 106 -51 052 -125 -113 122 056 
105 085 -71 126 124 -68 116 -90 -126 086 110 -123 104 086 112 -19 -60 -98 -79 -72 122 098 -119 126 -90 -65 114 -118 -102 126 -14 -89 -111 -122 056 029 010 116 126 115 -125 126 018 -82 096 -80 -117 106 113 -127 125 031 -128 -110 075 -98 -108 090 094 036 -02 -47 003 107 
100 -87 095 117 -54 063 -108 -14 -105 075 030 -121 058 076 -128 -117 -114 095 -99 -28 069 -77 107 125 109 075 118 -113 -58 -122 088 -59 119 126 -118 -104 -102 -56 104 115 -119 115 -62 121 -126 092 -96 122 -88 125 119 041 113 079 097 087 010 -115 122 005 093 120 117 -25 
086 043 -10 -128 125 107 -51 -127 -124 105 -45 -109 -86 -110 -121 -25 039 102 010 076 -127 120 050 117 040 118 115 -118 -96 125 -128 116 -127 034 091 049 -97 103 121 -115 -94 059 108 -122 119 111 -97 122 -116 -110 -43 -35 117 103 -104 -55 118 123 -115 -116 -125 -94 -91 115 
120 116 032 -05 038 -62 103 092 114 -75 -116 073 103 -108 029 012 -112 098 062 118 107 125 -29 114 108 099 -123 076 099 052 -128 -124 113 124 -85 121 117 119 125 -115 075 -64 083 120 -20 -126 -22 121 -107 126 126 122 075 -10 022 012 -96 113 -98 106 -104 -93 -36 -117 
-56 -122 041 -85 -34 -103 -106 099 123 123 011 -30 -16 087 079 053 -116 086 -69 -94 122 -125 -105 -12 -123 -78 -80 -91 104 113 -127 -92 125 -125 -123 -119 026 -62 125 105 111 -117 -119 097 120 -127 -47 -104 102 121 124 -109 -127 -116 040 -46 -109 000 111 049 -105 -112 080 -102 
-78 -107 -82 126 121 -86 -124 105 120 -125 112 -127 020 102 102 -121 -92 024 -26 -103 -83 125 110 -71 106 046 039 -60 -107 -114 111 118 112 -126 -89 112 122 -28 -128 -119 105 085 -109 -100 122 -127 054 118 -08 126 -13 -123 118 079 -122 097 -120 117 094 -123 120 120 097 034 
-127 -119 -14 125 -128 -75 110 109 -125 122 -110 -92 084 109 -128 -111 -06 055 025 027 116 -43 077 115 071 -116 048 -96 046 121 -118 101 120 -128 088 113 -85 -102 -118 -09 126 -128 111 -117 114 126 088 049 -108 024 125 -99 -128 -125 -113 052 -38 050 -18 -118 123 -125 096 022 
-127 -115 050 013 -117 -41 -47 013 105 043 019 -125 091 008 -128 -121 069 -101 100 -74 106 124 -58 -116 114 -63 -110 071 -115 -84 124 021 123 122 -114 073 037 117 -121 098 113 107 -120 -111 116 121 073 -112 -102 036 029 -91 119 -124 103 106 -68 062 087 116 001 123 108 -109 
-127 -116 -104 -79 120 036 -77 100 -93 032 -31 -128 110 -31 090 -43 111 -43 079 -07 063 -124 026 -116 111 124 -89 -82 -73 -124 -103 120 113 -66 110 062 103 032 -127 -07 -114 -128 049 -119 057 123 005 -50 -122 044 090 119 -119 050 122 003 -120 -124 096 056 -119 110 107 -22 
-127 074 -10 112 -123 120 054 -28 -127 108 -107 -77 -108 091 -126 -107 053 046 021 -119 115 126 -128 -101 115 -50 044 059 038 -128 079 118 -04 063 113 -100 099 101 124 -107 109 012 -108 121 -123 -61 096 -01 106 -128 -126 -121 126 098 -94 077 -50 -39 083 063 125 -100 -27 101 
-78 116 -62 114 049 -48 -123 -49 104 077 093 123 106 092 051 121 -38 -24 -33 122 123 020 -101 123 -123 -105 119 100 -26 -126 126 113 -126 -127 004 120 -69 -26 -126 -108 126 126 -127 -125 080 069 005 118 117 126 112 100 108 115 118 108 -17 089 -16 -86 121 002 123 111 
-36 -88 -33 -63 -128 114 -22 118 -32 -105 024 -48 -114 019 -114 -33 010 -97 -39 -54 -81 -126 -127 -119 122 123 -49 110 086 096 -122 -27 -126 125 117 048 040 061 124 -36 -90 -126 013 -113 -121 091 039 035 022 -126 -85 125 126 111 075 004 -86 118 -72 120 125 058 008 102 
120 -108 -61 125 126 045 107 017 095 120 095 067 -82 -64 126 073 102 045 049 096 116 125 -77 -96 -54 -58 101 098 -41 -128 -127 061 -126 108 -21 106 090 -65 088 -118 -78 -22 108 004 072 -46 081 098 082 -116 121 120 126 -117 119 -23 -20 050 -112 033 -114 116 051 -119 
-114 -117 009 -128 -103 120 -124 070 094 -19 112 122 -32 035 125 -115 114 -83 096 -120 119 -110 -126 -74 122 -115 -67 -73 -14 124 -37 -91 102 -126 029 018 -124 -80 -128 -05 118 -128 091 034 -111 059 -04 -118 122 -82 050 -126 126 -124 -123 073 -64 -76 117 090 -59 004 -90 -117 
-19 030 057 -120 -128 -24 -28 045 -101 -07 067 -96 -113 -58 -55 094 -18 -78 -102 -121 107 126 -127 -128 -94 -121 114 085 -108 123 -128 126 -125 -126 -92 -41 123 116 -33 047 -87 121 -72 052 124 096 095 -126 -107 -128 119 049 126 -47 -02 012 -111 011 011 119 079 -125 -20 045 
096 119 108 -128 125 -118 -60 -69 125 110 074 -116 -93 038 126 116 -73 094 054 -01 -120 113 118 -100 087 092 086 091 -49 009 122 113 -15 074 -101 -113 003 122 -31 -119 082 -123 108 -120 -127 -128 -102 112 -76 -126 110 -122 126 -20 -29 -100 -86 103 100 -120 122 122 118 -71 
-124 065 -23 122 -128 107 -123 124 125 -102 -106 113 105 -48 002 -47 -44 -53 -06 -95 115 117 123 -118 005 -119 115 117 -106 -108 -128 -127 -84 091 058 -94 -07 001 -97 088 -126 -127 -122 025 106 -121 -82 -57 115 -122 -119 121 -119 -66 121 -43 -46 -96 124 110 -124 -96 029 123 
-121 104 106 -126 104 -118 112 095 047 021 012 080 -61 -102 -74 -47 075 -33 104 118 033 -90 106 121 092 052 052 -112 -65 126 -90 123 -118 034 -99 050 -37 043 054 069 099 -12 086 122 -126 -128 -69 099 035 126 -125 044 -123 054 084 -112 -109 -123 117 115 028 120 -10 051 
-24 092 -03 -109 -98 024 -119 -119 104 009 -15 065 097 108 102 077 000 065 -50 106 -118 -123 120 -113 066 122 -28 092 -116 -102 -128 114 -88 070 113 -89 074 -60 080 110 -128 -125 007 -81 -127 -128 -118 -83 -121 -116 018 -126 124 -113 109 002 011 118 -29 -89 -126 -116 104 085 
-127 111 031 -126 -128 109 -125 126 -51 114 -118 -113 -109 -94 125 -122 093 -97 -83 123 -75 -110 107 -126 048 101 080 -121 -110 112 111 -120 -31 -105 -92 095 114 -121 126 112 096 -50 124 116 -105 -47 -114 107 123 023 071 -63 -51 -18 102 -106 117 116 030 097 073 -12 -20 -62 
125 -120 104 -20 121 102 094 -119 119 117 112 -103 097 -86 -02 -80 -70 -17 070 108 -84 -27 -106 110 106 -96 089 -122 100 -124 -128 123 -113 118 025 069 -36 030 -56 067 -82 -127 099 075 125 -94 106 116 -83 126 124 -125 -121 118 -26 074 092 123 067 -109 -97 071 -59 -124 
121 -64 -91 -127 124 039 -110 -127 111 114 033 -122 053 -71 062 086 112 054 007 120 -119 126 087 042 -96 035 118 081 -72 -125 -128 -126 081 -118 114 107 -126 -112 051 -110 -117 105 121 068 -104 111 080 -121 -12 -106 078 -59 -128 006 052 -117 110 -96 082 -82 -127 121 -125 100 
-88 096 094 093 -92 107 -75 -14 -114 -98 -84 -80 104 -82 -123 054 -54 -43 -07 -109 111 077 -35 057 119 005 120 119 100 125 094 122 124 000 -114 076 -119 -101 -128 071 -99 111 -88 -55 -125 118 043 122 -09 -44 -125 -01 -42 -117 103 052 060 119 118 -73 041 -100 107 112 
123 052 060 103 121 108 -105 -128 -114 -125 110 -121 -93 050 -127 057 -48 094 -41 -24 067 034 090 -127 -110 122 114 -113 074 126 -106 -128 016 079 120 100 123 034 -36 -36 123 118 113 -126 119 084 -113 081 -120 126 124 -70 -100 077 117 -109 -47 112 123 -91 -125 -125 -27 121 
117 109 105 124 125 -86 120 117 -98 119 038 050 099 104 057 -115 011 -96 106 -105 -94 106 122 -119 087 104 100 112 014 -109 -126 011 117 125 062 102 -51 -122 -25 073 -21 107 -123 -123 -100 -128 -108 056 -104 114 079 -112 -124 -55 -115 089 -115 056 004 066 -52 123 -77 -106 
121 -110 -110 -118 109 115 -125 065 097 -121 -112 -107 -58 -06 -128 058 -107 -33 -95 098 -38 067 -127 124 -112 123 -124 -86 -82 011 126 119 114 055 -27 -110 -62 114 -128 -108 075 110 089 -126 -35 122 -104 -102 -123 -57 -128 -125 075 117 -118 078 -63 -115 -123 -115 114 -125 114 -10 
-75 110 -05 -128 -114 -01 098 -127 -124 035 059 068 106 -104 -57 095 108 099 -111 068 -120 -77 064 017 -91 078 -56 050 012 071 -114 113 -110 119 109 117 123 047 073 -95 -122 124 057 123 125 -117 -107 049 -126 -109 -113 124 126 047 085 -99 -109 082 078 117 030 -121 121 108 
-36 -92 083 122 078 117 017 -124 -71 037 -113 -12 -101 -97 115 -119 108 -84 097 059 -121 -120 104 -101 030 -81 054 067 098 017 125 -36 -123 -68 -107 052 058 -49 -128 111 -128 086 095 -64 125 -128 -120 055 -111 126 -126 -125 -115 -123 -113 111 -82 114 -121 101 109 -94 -06 -03 
119 -114 014 120 -27 -103 118 100 -110 -122 -115 120 113 -92 -118 121 -116 055 -71 -41 -88 -79 -96 -72 -86 -98 080 -82 -112 105 126 110 -60 -127 088 -79 -109 072 108 -77 126 099 069 -114 108 126 115 -123 005 -108 124 -36 122 010 -80 086 013 -113 -125 115 116 118 000 071 
123 -106 111 121 -37 112 -122 -127 102 022 042 125 039 104 -128 -111 068 -36 -84 -122 122 120 120 056 114 055 -16 -104 -105 120 -96 -111 121 097 096 -89 -121 -76 -124 -101 123 -125 119 -122 006 092 076 -51 117 -03 -125 -99 -127 -49 -124 043 -99 -106 -119 120 -127 -14 -99 122 
120 046 092 -126 -52 -120 -102 -95 -123 -122 099 -128 086 -08 108 -116 -91 045 077 038 -104 102 -120 121 084 119 054 043 110 -114 109 123 002 -80 -118 115 -126 109 115 -72 -76 -83 -121 124 -76 126 -114 -122 -117 125 -115 111 -128 -04 -87 011 -89 -120 123 056 124 -121 006 -29 
111 -121 -102 108 -119 110 -81 -125 017 -125 -85 066 028 -80 -121 -102 -54 -101 -84 004 062 119 103 -93 -108 -58 031 119 -46 -126 121 094 -122 -117 110 001 -93 111 -126 111 122 -121 045 088 -49 126 113 037 -20 -128 094 -13 -123 -31 116 -52 065 116 -126 084 090 123 -94 -37 
068 074 -100 126 125 -49 -111 -72 -63 -125 117 -112 -46 -05 126 -100 064 -59 108 111 105 124 -18 -122 -123 060 026 -86 -103 051 120 065 105 -126 -95 086 -61 -91 108 076 125 090 -118 089 122 126 -113 000 -126 082 -117 -120 -128 -90 120 -106 115 -115 -50 066 -80 -124 105 059 
-126 108 036 -101 -128 -115 120 -125 -78 063 064 -106 026 -63 125 121 -65 006 -37 106 -125 122 101 084 115 065 -98 -117 -41 -128 126 122 112 118 -88 055 114 121 -128 058 024 117 116 -56 -125 125 088 -111 -01 -111 -107 113 126 -111 122 110 -115 -109 100 -106 -65 -60 -124 -83 
123 119 052 032 068 -89 033 -18 107 -117 089 121 -50 020 -69 -116 101 040 -84 066 -81 100 -128 125 -119 -115 114 -07 -110 126 120 087 082 028 087 -25 115 117 044 -101 -128 -01 125 008 -127 124 077 092 084 -126 -123 -120 -05 113 030 -76 -30 116 082 -123 -126 064 122 122 
-82 -97 105 118 -07 -19 -81 -124 -125 -123 113 -87 093 -74 124 099 -34 072 -43 081 107 126 -120 -41 120 -124 -110 117 -94 -113 126 -125 -62 -127 032 072 113 055 -128 057 040 012 -126 -118 124 037 -115 -85 085 126 116 -121 110 110 045 018 -101 -41 -120 -106 -117 -86 103 -99 
124 -97 102 116 126 086 -109 122 093 -104 -67 -117 083 -60 -118 -117 086 071 -101 054 123 124 -127 -128 -58 004 -119 -59 081 113 120 -95 116 -107 -117 -99 077 005 124 104 125 -122 -122 -104 -60 092 091 -124 -77 109 -32 125 067 102 -121 105 040 120 -126 -114 096 058 -123 -114 
-127 -60 -36 -101 -128 001 115 -124 114 -126 -111 121 -25 059 119 089 101 018 103 -115 -105 -79 009 -124 062 057 073 072 031 -128 -125 080 124 123 -58 -118 -116 105 023 052 125 126 031 053 -118 118 -103 -124 -79 126 -119 -75 -127 033 -124 -117 -30 108 120 108 -121 -61 108 -83 
-123 120 -05 -128 -123 -75 094 064 125 -103 116 -117 027 095 -117 -30 -56 045 -107 -114 121 042 -78 122 -96 -89 091 058 -105 -04 -76 075 106 -128 049 -106 -107 -09 -128 036 112 083 -119 -118 -120 -125 -82 -125 -02 -128 108 -124 -128 -78 064 037 062 -120 069 049 -96 099 068 036 
107 -57 104 116 -128 -94 -28 -105 042 110 005 -125 -100 109 -127 122 -23 069 -74 088 119 -88 -77 -111 -30 -120 -21 -105 -112 -128 126 -103 -127 067 091 -72 118 037 -85 079 -95 124 111 123 -89 126 110 105 102 126 117 -46 -126 -110 052 -91 049 -57 -10 -55 101 -54 -52 -52 
124 034 086 -68 -128 013 -64 125 007 -66 -97 115 060 006 -128 121 -106 083 043 013 122 122 -125 -98 114 123 -123 -122 063 122 117 -120 -62 -126 -91 107 -85 117 -128 032 -127 124 -126 -108 037 126 060 -16 083 -118 -119 -127 -114 111 111 055 071 -44 -125 102 048 -109 -40 121 
-104 -103 -48 126 -128 -38 -68 093 074 122 -68 -89 -91 096 125 122 117 064 -28 122 073 -91 051 124 119 022 -107 023 079 105 -59 113 -120 124 017 -21 072 034 -109 -81 061 -117 105 -121 028 008 109 102 101 125 125 -122 019 115 088 -49 -119 088 -77 111 025 099 111 110 
075 -57 108 125 -121 091 -124 078 125 -124 -68 102 079 -112 -112 122 059 -88 -99 016 -71 117 -125 126 046 115 -89 -120 104 126 121 115 -110 -128 -69 -111 108 111 125 047 006 -124 -24 065 -110 -124 -30 121 -03 119 -49 -115 -108 043 -31 -109 -08 081 026 110 -125 -83 -124 091 
125 -30 -113 126 -99 095 032 123 122 -113 086 124 -22 102 041 087 063 -73 -32 -75 061 030 126 -120 -80 -97 -118 -50 -02 125 -89 -127 122 -117 -65 108 015 -48 -128 -103 -126 124 -126 -23 100 033 114 114 010 -128 006 124 126 070 064 071 -77 -124 -21 -108 -70 -120 106 020 
-114 -121 -04 110 110 023 082 125 -119 -08 022 -126 043 050 124 -87 064 004 -26 -124 -55 -85 125 -85 -34 050 -01 037 -111 125 077 018 108 097 -71 -93 -95 112 003 100 126 -95 -93 120 -87 120 081 049 -100 126 -90 123 020 110 087 115 076 -120 024 -118 -126 -22 -17 110 
121 037 -39 119 -109 026 -11 -58 -122 -81 018 119 -62 -91 066 119 094 -14 106 -97 009 125 -126 076 102 082 102 -24 099 124 -16 117 123 -64 118 120 -56 -115 123 -113 -124 -111 118 -73 -125 126 -23 122 103 126 124 002 -64 -123 018 -59 -64 120 040 098 115 -101 120 -76 
-124 096 029 122 -101 -87 -64 072 124 -100 -27 101 -26 -55 126 117 111 -28 097 -83 -61 -87 -128 -72 087 -16 109 -118 -115 -128 -128 -73 014 -101 089 -99 109 120 -127 -70 -128 -126 111 -34 122 -113 -20 080 116 -105 -115 102 126 -117 -79 -108 -72 116 121 -112 -118 -119 -61 114 
-85 080 045 -126 063 062 -114 125 077 -51 -74 121 012 100 083 065 003 070 090 112 -120 -34 016 -99 -110 124 -52 -96 -112 126 -62 -102 121 125 115 -89 019 114 -64 119 -128 -53 -119 120 -122 007 003 -118 021 020 109 -116 126 -74 -113 -46 -33 -95 -12 -123 -126 123 113 -112 
-119 085 -106 126 068 115 -81 126 -126 -115 -108 121 -08 -100 097 -82 026 -53 -110 -85 -123 126 121 125 -75 -40 107 032 -102 113 126 -125 -71 126 047 -65 020 -120 123 065 106 123 -70 056 125 -77 021 036 124 107 -112 091 -86 -65 101 026 -72 -123 055 100 -101 120 106 -123 
114 -57 -41 119 -120 114 115 -109 046 -56 -83 126 091 -101 125 003 -104 070 -19 -08 -111 125 087 -125 114 112 107 -120 -112 043 123 125 -112 -14 103 054 -31 -20 -127 -116 -105 -127 003 113 -83 -127 102 103 -100 126 -04 -109 109 -123 084 101 -110 -108 -36 068 119 121 -72 -125 
-48 -55 103 018 -128 -66 -104 126 -70 083 109 068 -108 -85 -123 -92 -64 -98 -94 117 -113 117 -128 053 -96 117 082 -95 099 126 -123 -24 121 112 -83 055 -67 -76 -88 -05 103 -112 -114 -125 -116 -128 074 057 070 126 -118 -126 112 -38 066 -93 105 051 -121 054 121 109 -66 -122 
124 -33 094 123 124 116 -13 121 116 105 -110 123 103 053 -124 -99 -49 -97 -67 079 -55 104 -128 126 115 098 -102 -120 018 107 -125 110 -122 -48 115 -87 -60 -109 -103 -15 -128 -127 115 121 096 106 -76 -106 046 -117 118 -103 -128 -99 119 -107 023 058 097 077 -05 121 -112 072 
-84 -100 056 -55 -123 041 035 -106 124 -77 -104 -127 -71 -40 103 -09 -128 -46 029 105 -98 -125 038 -128 -116 041 -123 088 -97 121 126 -103 122 -111 -122 -122 -109 -82 126 -119 -121 -121 -126 -117 -123 126 -67 124 106 126 088 -121 -113 -116 075 -20 -120 123 -126 121 124 124 096 002 
124 091 107 -06 -128 120 -86 -96 056 118 -119 -118 -76 032 -67 -117 -100 -28 104 113 119 120 -127 045 006 -101 083 067 -63 036 096 015 -94 116 -10 -63 001 -67 050 -117 122 108 124 -124 026 086 071 083 -76 126 -127 -123 -88 -51 -45 -82 092 -64 123 -97 119 097 -31 -123 
117 027 086 -125 -127 -79 047 -98 114 -105 037 080 -108 102 125 115 -18 -19 -97 -84 104 -106 096 -127 111 -125 -118 -116 -104 -128 126 -15 002 074 -107 -119 -29 -122 -124 -58 026 125 120 -43 -123 -103 088 118 -111 111 125 -108 117 -117 121 115 -119 -102 122 094 -85 056 -81 -81 
109 028 076 103 -116 -100 -101 101 -76 -119 -17 085 091 -39 -17 049 073 -76 087 -49 -40 000 -87 067 029 078 104 -65 102 -84 -117 -121 -122 -09 103 -74 -95 -87 -58 062 -127 -87 121 -121 -72 -11 -54 -81 -105 -128 -126 123 -71 -78 121 -97 018 -36 045 078 060 085 029 123 
115 -115 -104 090 126 066 -125 002 -126 -111 021 -125 029 -105 014 -98 003 025 104 -86 015 -105 -128 117 113 036 -59 -06 -112 -116 126 121 -120 121 119 -93 074 008 -128 -105 -127 125 -125 -64 -98 -128 068 -115 105 119 121 -125 -128 048 097 097 -120 -30 111 112 042 -124 111 -62 
016 -97 -76 -117 -110 097 -118 022 125 -121 -16 -41 -80 001 -07 111 -114 -98 -65 -119 -125 126 -118 094 -20 -11 093 119 -97 125 -128 -128 091 -122 -106 099 123 -107 -125 -111 -124 123 -113 -03 080 -115 -107 067 098 125 123 -32 -76 091 113 -111 -21 -121 -125 117 -114 -103 050 051 
-112 092 -60 125 -126 017 -13 092 -93 -84 -06 -56 -64 -68 022 -119 -55 018 -13 120 -125 101 -128 -26 -77 114 092 -95 092 -97 -110 122 -125 -109 -108 -71 118 115 125 118 119 117 119 121 121 126 099 123 022 124 118 -124 068 -98 -105 -32 070 108 -70 064 120 -83 -22 120 
-119 107 091 -128 004 -97 -93 122 125 123 -63 093 011 -70 -88 113 112 095 040 077 -100 047 106 -109 122 -75 -29 044 -40 125 125 -88 049 -39 -112 063 124 -95 126 104 -127 -11 068 -99 070 -128 -113 096 -32 -93 -92 122 -119 -111 -43 051 120 -100 093 -98 006 -84 121 120 
-113 001 084 070 114 -22 -120 -22 121 -55 115 -105 093 104 123 109 110 -77 076 124 122 120 -74 -127 -113 -120 -108 104 -34 097 116 113 058 089 109 -19 071 110 106 -115 126 -121 -125 022 -126 118 -119 120 123 -111 123 -119 124 074 027 -117 067 -73 113 -88 -52 -89 117 123 
080 -96 -37 -111 -128 103 -120 -125 055 123 -69 -127 -75 078 064 -10 100 -86 047 023 107 124 -37 120 -108 -124 063 087 098 125 -122 -119 086 -126 115 109 -119 -120 -110 021 122 125 027 -06 124 -128 111 123 -117 -68 116 -118 120 053 -119 -117 -38 035 -36 004 -117 118 102 108 
-108 -112 -57 -87 -128 -122 -124 120 -91 057 010 089 078 -104 125 -112 -52 -57 088 -110 -89 046 -111 -117 -61 -99 -71 114 -08 024 123 -119 123 -90 105 -52 103 -116 -123 -99 -121 097 -124 -118 083 066 -36 -68 -43 126 -127 057 080 -08 -123 033 -71 066 088 107 -114 122 -81 -38 
125 106 017 -23 -128 -108 -121 125 -126 -28 050 -117 111 -85 -123 -36 -119 071 -101 -106 078 -58 112 -119 -110 -123 -123 -49 -106 020 -99 068 -125 -127 -107 -93 122 102 045 060 114 -08 -121 -44 -124 126 099 097 -118 120 -121 -82 -128 -116 094 -97 030 065 096 078 -30 120 087 -51 
-126 -23 -29 -100 112 -19 -47 -127 -82 -58 088 -03 006 -105 -126 095 -108 -50 092 110 -122 -128 -80 088 083 -126 069 113 -111 100 117 -128 115 -40 111 004 -125 105 069 091 126 -126 -122 -115 119 121 110 -125 -22 -119 -126 101 120 -47 017 -100 -66 105 -124 037 124 -94 098 110 
-126 114 087 126 072 -114 001 053 -126 124 072 094 109 -78 080 001 015 086 -65 -73 -65 -121 086 056 078 116 021 -30 068 -109 126 123 -124 -127 107 -06 -122 -113 085 -95 -07 -126 -120 093 017 -128 -41 -125 -74 126 -123 068 -119 -49 080 -115 -60 -03 122 068 -37 -80 099 -104 
-86 118 072 -120 -63 120 -97 -118 108 103 -102 125 -115 032 126 -99 054 059 -111 069 115 114 -56 046 -64 097 -108 -120 113 -125 095 126 014 097 -118 111 117 -38 -108 017 -117 126 -120 104 123 -121 -114 -113 114 126 -19 111 125 088 -68 115 -55 121 -122 098 -60 -65 000 -67 
090 063 061 057 106 038 099 -128 114 008 -96 -123 -111 -52 059 054 109 042 -65 000 118 052 -124 -114 119 -114 084 032 076 122 125 -05 069 -75 -123 077 -72 -115 118 087 -128 -120 -69 066 121 -126 -29 -119 110 -128 -127 097 -128 -123 -06 010 110 119 -104 111 004 -04 071 098 
-105 072 054 -82 124 120 -111 -26 -120 -58 109 -36 075 -57 126 -115 -117 -31 106 116 -118 057 -128 -123 058 -122 -84 -111 -59 119 -101 122 -122 -125 071 109 -121 066 -114 108 -117 -84 -121 123 101 126 002 088 -27 121 082 -127 126 006 -112 -42 010 -41 -26 111 124 -16 113 117 
-115 -51 080 -108 -128 -121 -112 -120 -126 000 -26 -65 004 062 -124 -119 046 093 -62 101 118 125 -127 025 -41 024 -80 026 012 116 085 -54 -126 112 -123 021 120 -43 060 114 -30 -128 -92 120 -112 -104 118 124 121 121 -126 116 125 111 -122 107 103 -102 075 -121 095 001 -115 -111 
025 067 054 125 -121 110 050 125 -86 -92 022 119 047 005 125 102 -68 012 073 043 -95 -24 -124 032 -102 103 119 -68 -79 -115 -85 -11 -27 068 -123 038 112 118 117 -109 -58 126 116 107 115 126 -70 -87 121 126 111 -68 126 -123 084 -22 117 -110 -14 092 107 -07 -123 108 
-09 -111 -08 116 126 -105 -102 -123 122 -113 025 120 -38 -99 -111 -115 -62 097 -86 054 -124 -123 -96 -71 -111 087 119 013 -50 120 -122 -123 117 125 120 108 -14 -103 121 -89 118 121 120 -115 117 -124 038 -90 036 126 -125 -121 124 088 -98 052 -103 064 087 087 -30 110 121 122 
121 084 -101 125 -65 -69 117 -102 -24 062 110 -83 074 -98 -127 102 064 -92 -82 -35 062 -128 094 125 122 -104 -36 -48 097 -110 -127 121 125 077 093 114 030 120 119 117 126 083 -118 080 113 -102 -75 108 092 011 -45 -125 -128 -72 -32 -74 093 -123 -02 116 104 109 -76 -85 
-43 -34 091 105 -128 -115 -123 -28 125 121 113 102 -78 097 042 106 -118 009 063 123 -27 -96 013 105 073 123 -112 -93 -94 084 -127 -34 -91 -125 -98 081 011 -114 -43 005 -127 -125 120 -124 -115 -126 -111 096 064 114 123 125 126 -125 -29 041 112 079 123 032 -107 -88 -06 123 
119 083 -61 103 -128 046 -57 -73 125 -124 097 -125 094 -91 -123 -18 012 094 054 -121 115 -126 -127 -128 080 -86 122 069 -33 124 126 115 046 119 -28 023 117 -12 -67 117 -120 100 -120 -40 -118 -62 099 -54 -113 121 004 106 036 034 085 -110 119 -58 -125 -114 -125 -123 112 069 
098 -64 -92 -76 115 -121 049 094 041 -125 012 -106 -89 -50 089 -43 024 -40 079 065 -60 -126 -124 125 -99 119 082 119 109 -125 -127 -73 -40 -64 -117 -11 -125 122 -101 110 126 117 -113 058 123 049 -85 -78 -36 -92 117 -126 093 025 098 -48 086 -115 047 082 033 097 081 028 
104 067 -104 100 -127 -33 078 125 124 117 -02 120 006 -76 125 -111 -92 060 -28 023 -125 033 030 124 -117 -50 074 -106 072 124 025 -127 096 014 -108 -114 -17 -123 126 053 084 -127 -125 -98 -125 -128 -19 -95 044 -28 -58 -125 -08 -118 -114 081 034 004 -94 098 095 -123 -04 -59 
-98 -50 -72 -122 -124 088 050 089 124 -122 064 110 104 087 -121 -124 099 002 078 -22 -118 002 -114 125 016 -113 121 -11 100 058 126 -107 -122 -124 -105 -67 -81 -92 -80 111 053 -114 -120 -60 102 -33 -60 -28 114 -17 -127 -118 006 118 025 019 006 -108 100 -40 -111 107 110 057 
097 067 077 -122 -124 -55 -119 -128 -109 -107 -93 -128 -90 -59 117 -112 -117 -78 -98 118 121 087 -116 099 081 120 -55 119 -35 -68 -127 -123 047 -125 -25 107 075 -93 116 059 -128 062 -113 110 121 -128 036 121 107 126 123 -64 -127 099 -103 099 -115 -122 088 -98 -84 059 049 037 
117 081 076 -128 101 -65 -16 075 -120 105 113 -110 109 -73 117 -55 105 -79 -89 015 103 -93 -127 -125 -79 -06 -18 -117 -115 -122 083 -94 093 125 119 079 -47 -95 -128 027 008 -128 -125 -99 -114 126 030 -96 124 -128 -73 099 119 098 085 111 -35 -20 124 -119 -115 -119 -123 122 
107 103 039 -127 114 111 030 124 -113 -102 -111 -101 066 -69 104 012 024 094 098 -123 117 -119 -101 096 122 122 -65 120 -50 -109 117 101 007 -116 -94 -65 074 109 105 117 124 -120 117 108 -127 082 005 049 050 -122 -116 125 -78 001 102 -109 -97 097 003 032 035 043 -76 -125 
-86 018 075 -126 -128 099 -108 122 085 110 -70 -128 069 075 106 -122 110 047 -108 -53 123 -101 -119 -126 117 001 -113 094 055 125 -120 -111 125 047 116 -115 -119 -73 060 -50 124 081 110 -63 100 -128 113 112 -100 -25 -122 -53 033 079 095 026 -84 035 068 033 055 111 -118 -117 
125 060 055 -107 -128 119 -57 -54 -110 089 113 -102 -20 030 -81 -120 023 097 -54 -38 -112 106 -94 -128 053 094 -101 100 -64 -128 123 -79 -113 047 -114 077 -109 074 032 -86 105 -94 113 -125 -18 113 -97 -107 -104 126 -128 -115 -109 -76 102 111 106 092 124 058 -34 -122 -100 122 
120 071 -107 096 082 -119 122 -123 125 106 039 119 108 084 -119 -54 -90 100 071 -119 122 -65 125 110 100 118 122 112 -114 -128 126 -110 -21 126 -91 041 113 -50 124 -09 -127 -92 025 -109 059 126 055 -08 -125 123 123 055 -128 -122 117 -52 113 -113 -125 -123 124 -73 118 056 
038 -20 087 077 -120 -14 -29 -126 -109 -54 062 -120 113 042 -128 071 076 -47 -111 -119 -126 -125 101 -101 093 -126 048 -108 -69 105 126 120 119 125 012 114 -122 -58 -127 -31 -112 -126 123 102 123 107 118 119 -65 -102 125 122 -122 093 -97 048 068 -123 -121 -88 -06 -123 -118 -104 
-119 -115 -53 123 -83 -105 119 -19 -111 101 011 125 -111 105 126 057 -94 -64 100 -110 -115 009 -128 111 000 122 -98 104 -73 119 096 -56 -126 -128 110 -97 -09 099 088 085 116 -83 118 118 111 -32 112 -116 -10 -91 -81 -95 038 -94 120 -19 095 -107 086 044 -126 -109 -114 -123 
092 -38 -47 -85 106 -123 043 -103 -24 120 037 -124 -102 -65 121 -32 -117 044 -70 -114 -124 -110 -115 -83 -120 -76 092 016 010 119 -119 087 -50 -11 -73 -99 -39 -121 125 -44 124 -25 -94 -119 -108 126 069 -118 -123 -99 -127 122 -128 -93 010 -29 -26 -103 096 -121 047 -111 -33 124 
-93 -118 093 -124 116 -94 -38 123 -06 -89 -41 -117 -50 069 043 109 104 056 -105 026 110 118 -123 099 122 -96 -122 051 059 126 -128 -25 -44 124 -72 109 -49 120 071 -120 -43 -108 -108 110 -112 114 046 -110 -122 118 -124 066 -07 109 005 098 -122 061 -124 -89 -10 -126 037 121 
-127 -90 -85 -85 -128 104 122 116 -67 -118 017 031 -104 -58 126 070 104 -28 -81 122 -10 042 -125 -118 048 124 031 043 035 -126 126 118 114 080 055 -106 -123 -117 -127 114 -125 010 -119 -58 -127 -128 -14 122 114 -127 088 -21 125 095 -26 -70 101 -105 -38 060 -126 087 -99 115 
-59 004 093 123 097 083 076 079 -127 123 -89 050 -79 044 126 111 -119 055 094 092 123 123 -123 125 -88 -117 122 -97 053 -124 -124 -126 -118 123 -72 083 098 -41 119 -27 -93 126 123 -27 125 -98 -103 088 089 -123 124 125 -38 -94 089 042 -114 118 -125 -81 -127 -124 092 092 
077 100 091 -78 -128 -116 -81 -59 083 093 -11 -128 011 -109 122 -87 071 093 057 -47 110 -01 -126 -31 -21 118 104 -72 -38 107 -22 107 017 027 -71 097 -124 036 102 111 107 -124 116 -119 124 120 -120 074 115 -85 -124 -100 126 118 030 -108 -119 -110 -81 121 124 -03 -53 068 
002 026 102 125 -128 -107 089 -56 119 113 058 124 060 -100 -92 -105 110 085 108 022 107 -108 -77 121 -79 -125 115 -102 040 126 -128 125 -125 122 084 095 009 -121 068 012 125 089 124 -120 -121 -105 -107 -118 088 044 -126 -65 126 -115 120 054 026 094 -69 -47 125 024 -50 124 
125 071 087 -35 125 105 108 101 005 -124 108 -51 023 -105 -126 104 042 -44 -111 -44 -46 111 -127 081 -87 124 -65 -12 -109 -57 -128 117 124 -103 -120 110 -125 -97 120 109 126 -87 039 -103 -114 -123 102 -120 077 021 -126 -127 -128 -124 -90 071 026 052 -86 -109 -116 047 109 121 
124 -56 -107 -07 123 -110 -117 084 -115 096 027 057 101 035 -91 021 087 025 -60 103 071 -124 121 -125 -109 -88 -83 -117 -109 -45 050 -115 119 -104 116 -104 -125 -102 028 -17 120 -128 -126 -87 015 -128 073 -112 -02 126 113 -70 126 -103 -115 -107 -116 101 063 -40 -55 054 117 -115 
-10 106 -38 085 075 -98 063 -39 -102 -113 -52 -51 -48 -105 074 -119 -99 052 -109 -21 107 107 -19 -60 -98 102 -107 020 -65 -117 -127 107 103 -126 -121 115 -121 -64 -120 -57 126 -125 -10 122 120 -117 -21 -23 119 -43 123 -52 -127 106 -66 -97 -113 094 -126 -75 120 111 034 -102 
125 116 -111 -100 -86 -56 113 -96 -59 070 111 121 083 068 125 119 -90 -89 -91 -96 001 -68 -112 124 -56 054 -78 118 -63 -90 -52 -110 118 014 090 109 -123 106 009 -121 -81 125 -79 082 058 069 -80 115 -59 -13 -109 -121 126 113 -106 064 -59 101 032 -98 112 -27 051 066 
122 117 081 103 125 -89 -125 -128 -124 018 -93 -03 106 050 048 122 082 -101 105 -112 032 -123 126 107 007 110 -05 -104 042 109 -125 057 122 109 -93 -122 060 -57 -126 116 -128 -55 121 122 -111 008 -86 118 -125 -87 124 -127 126 049 -102 046 039 -01 121 -31 -123 123 051 062 
108 114 109 061 125 -122 109 096 -103 -61 -38 055 096 -43 078 101 -45 005 -67 076 -126 -115 -93 -119 096 101 -91 087 113 -115 061 042 -07 -110 092 093 -112 -81 119 -106 -108 -128 -115 -115 125 -28 -116 068 -119 -103 -59 -23 -128 118 -99 -52 -98 118 -121 -45 -13 113 -86 122 
123 084 -34 -107 083 -77 104 124 125 118 -35 -90 -31 -112 -102 099 -51 -95 089 020 103 -87 -128 032 -112 -114 116 -120 061 123 126 124 -30 063 -84 -53 111 073 110 -67 -123 -128 124 108 -115 004 -46 -125 -47 -128 064 125 121 -124 120 006 -64 -120 -61 114 -41 094 108 -92 
-50 024 -35 -14 -119 079 105 -60 120 -120 093 -100 108 -54 125 -20 -109 -12 -102 -14 023 -128 -114 104 038 118 -90 101 075 -110 067 060 119 103 120 059 -118 099 -103 107 122 -127 119 124 122 -60 103 -98 -70 101 121 113 -127 -114 -118 044 -113 003 -85 -60 072 012 100 108 
087 111 -107 088 -123 -84 -81 -108 -72 115 100 -14 070 -102 -51 115 -52 049 041 -72 -55 -125 -127 049 -65 -117 -102 -12 076 126 126 -85 -25 -122 -79 089 111 121 -128 -116 -127 085 -119 089 -125 020 -55 -71 -108 -128 -126 -127 -113 031 079 106 050 033 -04 079 -126 -109 080 -86 
122 -113 -33 126 -93 118 -124 -47 -120 -60 055 112 100 -111 -119 -109 092 -15 -103 123 113 107 -123 -86 -117 108 076 -122 098 -105 125 -122 -127 -125 -82 -73 -93 064 119 118 -94 -70 113 -102 109 110 -118 -59 100 126 -55 089 -127 -66 076 -20 066 -124 103 -112 107 090 -103 -125 
-104 -107 -55 -55 083 -120 059 -107 -87 063 116 125 -69 -79 059 -112 -116 063 051 109 093 -113 069 112 -117 119 094 089 -91 120 126 -127 120 -84 073 121 119 -115 -124 087 -106 091 -52 047 -127 126 -73 -125 -94 126 120 122 -96 -02 -103 -52 016 -96 -111 073 099 -81 -95 -74 
-118 062 050 002 041 109 100 110 125 -113 -56 -36 101 -64 079 091 -119 050 071 038 -55 053 018 122 021 -126 098 -117 -86 119 -128 -128 089 -128 017 -44 -121 097 -24 002 114 -124 -114 115 -101 -124 -75 -122 115 127 095 118 126 -11 -45 -106 -120 -122 091 -22 052 083 102 008 
115 097 103 019 -125 -01 -112 122 -125 -48 019 -123 085 095 -126 012 038 -29 -10 -112 -125 108 126 008 070 -125 -55 041 045 122 -127 -27 116 122 -53 -86 -118 085 106 112 017 114 124 077 -101 -68 018 -126 092 109 -106 004 -126 -113 069 088 -117 -114 -125 084 -125 -30 093 -125 
077 080 064 125 -128 050 066 -127 036 -63 -54 -121 020 -91 -128 118 -61 025 -45 113 107 017 122 -116 -21 122 090 055 044 099 -127 -128 -126 -60 -44 -82 125 -68 122 082 126 069 -62 124 124 -97 -02 -103 113 -101 123 -66 067 -103 -105 115 119 123 102 071 024 -119 120 -85 
120 054 -57 -23 104 -105 014 126 -70 110 -29 -36 -114 -76 073 -82 023 -41 025 113 048 -123 120 124 088 -109 -06 108 069 -26 046 -128 123 120 -57 111 -121 115 -25 099 -127 -105 -104 120 124 126 -39 -23 091 062 -09 -67 119 120 119 037 103 105 -119 -36 114 119 -121 -122 
-124 -63 035 045 116 -112 110 -128 035 -99 -93 056 -109 -88 098 -124 108 -77 -60 084 118 117 065 083 048 -83 -120 -121 048 -51 -128 115 029 035 106 -110 117 073 126 113 096 -128 -94 120 -94 -128 -46 092 124 -17 125 097 126 083 048 -63 -61 -98 -119 -121 -116 -95 -119 111 
085 093 085 090 084 088 -109 075 -118 111 116 -126 -47 065 126 073 114 -68 071 095 -101 -128 122 -47 -123 045 -58 -65 076 -127 -123 -101 -125 117 107 -82 087 110 -124 -117 124 119 114 108 -118 -120 111 -125 071 -128 027 004 126 -68 -112 010 -104 078 -33 114 027 085 -114 -35 
-52 -12 075 -112 022 -49 121 -32 103 069 -98 125 110 040 -28 110 -67 -26 -45 -54 -114 -77 -25 -119 -99 022 097 -99 -44 -125 078 023 -117 123 094 -92 -11 -116 113 010 -127 116 -114 -48 124 106 -110 -42 073 126 022 -65 126 -56 -15 059 -120 109 -121 054 119 -111 096 114 
027 117 -57 080 -128 106 105 -31 -81 124 -87 053 035 026 -128 -91 000 070 015 120 -122 -120 -124 126 -117 -122 023 102 052 126 126 -124 -42 -106 -112 061 -23 -103 094 082 120 121 124 -115 046 126 008 078 123 -128 057 046 124 -110 078 -13 -117 083 -20 -53 124 121 -104 -07 
