126 -115 116 088 094 008 126 -128 -126 126 -125 -02 095 011 -100 111 011 -54 -128 102 084 -27 104 -64 021 -128 098 -123 090 116 067 -119 053 125 -126 120 126 108 -101 -85 -122 -127 104 -122 112 -73 -122 126 065 091 -128 -44 -127 -128 125 -126 -127 111 -126 -125 124 -126 057 -128 
126 124 020 -69 -120 096 126 020 126 126 -80 010 -111 052 -37 -121 -23 -49 124 -78 010 010 122 060 126 123 -110 082 087 082 098 -113 047 -114 124 118 -99 078 105 078 126 -97 108 095 059 059 -128 097 -18 -74 126 060 123 101 -117 -128 -127 098 -119 040 -128 -11 -128 -127 
-128 126 -92 -04 042 -97 -127 113 124 121 -97 -126 126 -76 075 018 -80 038 126 030 114 -71 077 062 -102 -104 094 103 -83 -116 -101 126 -115 -124 124 -117 119 -74 -124 035 120 -128 114 122 094 -98 -92 114 036 008 -128 063 126 122 126 029 126 -53 029 -128 123 018 126 -91 
-127 126 100 043 118 075 -116 -34 -128 -126 125 -93 -118 -107 077 096 -81 083 126 112 -124 -48 -128 108 -100 -118 097 -123 068 -58 074 126 052 -40 -113 -01 -93 097 -83 -97 126 126 123 -128 064 069 -126 125 093 124 -128 062 126 -127 -120 -128 -127 -76 126 -128 -128 -125 -78 -114 
-128 -128 -82 012 -75 -47 -118 -128 -128 097 072 -34 -124 -55 -71 117 -05 -28 124 -97 -122 -04 022 -85 -128 126 096 126 -86 083 090 -94 070 -108 112 -120 -127 -110 -122 -04 126 -27 -95 -105 -25 044 126 126 089 102 068 -05 -127 -128 112 -86 095 087 126 126 -111 -111 -116 126 
120 -116 -88 043 -114 -92 -124 -126 -127 -128 -111 -121 -125 001 -103 -116 -98 055 -128 073 -49 -57 -126 055 126 -128 075 126 -46 115 -46 -128 -113 -13 -95 -41 -111 -78 123 -113 -128 -126 -103 126 107 065 -127 -126 -50 123 126 -90 -128 -128 -98 -125 126 125 -127 -128 -128 -01 -126 -116 
-128 126 -57 040 105 -69 -122 034 -128 -128 102 -122 -111 099 087 093 -85 076 126 063 -73 084 -128 046 -115 126 058 -128 -66 115 -51 -127 -93 032 032 117 005 -93 053 099 -128 -128 -115 -126 051 -52 -128 126 -67 123 -128 -51 126 -127 112 -125 -128 028 -128 126 -125 -81 126 124 
-120 125 104 -75 105 030 -124 -122 -98 -128 -127 093 -84 -75 091 102 080 -02 -128 -07 -01 -39 -118 -53 124 -128 119 075 055 -126 003 -68 056 122 124 -106 -13 -84 094 -72 126 -127 067 -128 -16 -103 126 -97 -89 -121 -124 101 037 -128 -126 -128 126 -44 126 -23 -99 -119 008 -128 
-128 -126 087 096 -93 -36 -128 125 -128 -128 -117 123 122 024 -36 101 -95 085 -128 077 115 113 -86 070 -123 -128 026 -128 -114 -125 090 -127 094 -73 084 -75 -127 -71 048 -114 -128 -128 -65 126 055 -105 126 126 033 120 126 100 -125 -127 -116 -121 -128 -126 121 126 126 056 -123 -122 
126 -101 119 070 098 058 -121 -93 -128 -128 -110 -124 104 -113 -26 121 006 067 -125 017 -61 -37 -125 -87 -51 -128 -110 127 -44 -116 -03 -128 -108 -127 -116 117 -126 057 -126 -118 -128 -128 122 126 097 -88 126 -128 058 122 -128 -75 109 -128 -85 -124 121 016 -121 -127 -128 -60 -71 -128 
126 126 -93 -42 -93 -91 -113 125 -128 -128 -111 078 126 -28 -48 114 -01 088 -123 109 086 -51 126 110 126 -126 -98 -126 -86 105 -98 103 -50 -116 124 087 -126 016 008 -43 -128 -128 075 -126 -90 -120 126 -128 -60 -59 -122 103 -126 -128 -128 -122 -128 111 126 126 126 122 -116 126 
118 -126 052 059 -108 -71 -128 -42 126 126 125 114 -128 106 -55 090 -11 069 -119 019 -33 096 107 -106 115 110 045 126 -87 096 -96 126 067 -123 079 097 -41 -105 092 -111 -11 126 074 126 066 -74 101 -128 -77 -105 092 092 126 -128 119 125 -128 -13 126 -128 126 -90 086 -105 
075 -128 -108 031 081 -10 126 -44 -127 126 -35 022 124 099 -61 119 -81 -22 -128 -30 -11 032 094 -74 -128 -128 -80 -128 -87 -125 -18 126 058 123 -123 -102 106 032 122 027 -110 -128 -69 -124 050 -37 -118 126 089 -121 -120 087 -128 -128 126 126 084 125 -125 126 -128 -125 120 -128 
069 123 078 -32 118 096 -128 -102 126 -126 -122 -96 -128 091 -52 -21 094 045 -121 072 055 -83 122 -67 -128 -128 -112 -128 -22 044 053 126 -62 124 -122 -24 007 038 045 101 -128 126 118 126 -109 081 -125 -109 -49 -111 126 -79 -125 -75 -128 126 039 -123 -127 -46 -03 -93 113 125 
125 -127 114 022 -121 -87 -128 -59 -128 -126 -125 098 -128 097 036 109 -47 042 122 -32 034 035 -104 099 -128 -127 -75 -123 057 -107 -117 -125 024 106 -126 028 090 -44 -49 017 -128 -128 111 126 097 -111 126 -127 -30 -86 126 017 -128 126 -128 -113 126 -123 -127 -128 126 046 015 -122 
126 -128 -51 007 -113 -80 -128 026 118 126 124 -111 126 -76 -77 118 -99 045 -125 -104 -41 029 -111 099 126 118 -107 126 -57 082 -42 -28 094 -119 116 115 -102 -07 092 -20 126 125 007 126 -58 -03 -127 125 -37 077 -128 -21 124 123 -128 -128 055 122 126 126 -126 120 -127 -126 
-128 126 108 -08 -75 057 -127 095 -128 -128 -126 113 124 -09 -44 -84 051 -30 -124 024 -73 000 -70 059 -104 -125 -99 -128 -52 -95 108 -125 102 -123 -46 -116 125 073 -110 051 126 -124 121 -128 082 -93 -65 -127 -72 120 -123 -37 126 126 -34 -121 -123 -51 -127 126 126 125 123 051 
-128 -116 096 048 -122 -66 -123 -08 -128 126 000 038 124 -47 -11 120 -96 050 -126 -94 090 -117 -112 -31 -125 -127 079 -126 058 -113 -09 -127 -104 123 -125 -90 117 070 -99 074 -123 126 -50 -128 044 -101 -128 -128 115 017 -128 -73 126 -128 121 126 -126 126 -128 -123 -128 -105 126 126 
-79 -108 055 060 111 -15 -120 110 126 -128 -128 053 -128 108 -35 075 -31 -56 -128 -60 -08 -94 013 -93 -109 -128 -90 -128 004 -124 -111 -128 112 -05 124 113 116 -60 120 116 -128 055 -123 -128 082 -66 126 -05 025 034 -128 092 -124 -128 -119 126 -128 126 -128 -124 126 -127 007 -128 
126 099 -88 070 -02 022 001 125 -128 -128 125 096 125 100 -20 -105 014 -31 -72 086 -77 -90 126 104 -92 126 -32 -128 012 032 -95 -121 077 125 013 114 -126 -07 -67 -26 126 -128 100 -128 024 060 126 -46 -68 -111 -111 -71 -93 126 -128 -128 100 097 -127 -12 -15 -126 105 125 
103 -128 067 004 016 -96 -128 -124 117 -128 -125 -113 -128 075 069 -120 -92 015 126 -49 002 -06 124 069 -100 -39 -87 -128 -76 107 -87 115 049 -100 -43 022 047 -37 -121 -35 098 -125 -121 -128 -37 -100 126 126 009 105 -16 096 126 121 -107 -128 -128 126 -127 118 -113 -127 117 -116 
-128 -127 -53 033 112 080 -107 -128 -128 126 078 -75 124 -59 098 -09 086 -13 126 -81 116 002 126 -47 -126 -126 122 -122 017 075 -60 -122 -102 070 -25 -46 102 -102 123 119 -123 -128 102 126 006 -113 126 -123 086 -75 126 -73 115 -128 -119 124 -128 029 -128 -128 -128 -126 -105 126 
-128 -118 091 065 -72 -01 -120 -107 -128 -128 -117 -124 126 -20 043 -92 023 -02 126 117 -112 -78 -94 110 -121 -126 120 -126 -119 -123 -117 -128 056 -123 015 109 -125 -75 125 -23 126 126 -04 -128 -83 -20 126 125 110 112 -128 -43 -128 -128 125 -126 -128 124 -126 -128 -128 -86 -09 -120 
126 126 -63 047 -62 -82 -127 092 -128 126 -123 -113 -122 -82 -102 -99 -77 027 -128 056 -119 -89 023 -64 125 121 -113 -128 100 -125 059 126 014 120 -119 120 -14 083 125 -83 -128 -125 065 -56 070 -68 -58 125 023 -72 126 008 126 125 -127 -128 126 -127 126 -128 126 -124 124 -82 
124 126 088 -56 022 031 -128 -127 038 -55 110 -121 -128 -01 053 081 -15 -13 -128 -68 -50 -76 117 092 124 121 -117 -128 -86 -108 -96 126 065 110 -33 121 048 -76 -109 -106 -128 -128 -13 126 099 -24 -127 126 -41 -74 -128 038 -128 053 126 093 126 003 125 -128 126 125 -124 126 
-122 119 057 011 -100 -01 126 -119 126 126 124 -34 111 010 -90 010 050 -23 079 -90 123 -78 -127 -19 -128 126 -109 125 023 -49 062 126 -99 -33 087 069 117 097 -124 -36 -128 090 122 -128 027 -111 -128 126 -68 -122 -128 026 126 -128 -126 125 -126 -96 126 -128 126 095 027 -128 
-89 -81 -91 077 102 028 -128 -110 -127 -128 -126 117 -109 108 -97 -65 -11 023 126 104 -77 -108 113 089 064 126 -87 -128 -118 020 -105 -128 077 123 067 110 -125 100 023 -113 126 126 -108 126 -09 031 126 114 050 -43 122 108 -128 125 -126 126 125 126 -128 -122 -128 -89 -128 125 
-121 -98 109 072 -121 055 -70 -126 126 106 -103 122 -128 -103 -82 118 062 -76 -128 057 -63 045 -118 021 126 -87 -04 125 -117 074 -61 126 -41 092 -125 115 -127 098 123 093 -75 -123 054 117 -07 092 104 -128 -95 -79 -75 -110 095 -128 126 124 126 -105 -93 -122 126 033 -37 -16 
-128 -111 030 058 002 -97 -128 125 -128 -127 -112 -15 113 050 -77 -103 082 037 -122 117 -97 109 -68 101 -128 -98 072 -124 -61 -123 -27 -128 -90 123 -18 -111 -115 -70 -126 -69 126 -128 -74 -126 011 091 126 -128 -57 115 -64 110 125 126 036 -115 126 126 124 -128 -128 125 -59 116 
115 087 031 024 -94 -50 -128 -113 126 -128 086 -02 048 -107 089 031 012 031 -119 -105 -122 057 123 019 126 087 -101 -04 -96 -27 101 -128 111 -124 082 -124 -128 001 124 -55 -116 126 -122 -126 -72 -96 -122 -128 -05 -120 126 -41 117 -68 -43 125 -86 074 -128 -128 126 -32 124 -128 
126 084 -112 053 119 -46 072 036 -128 -127 110 -126 -115 014 025 -52 089 023 -88 -89 -04 111 -128 -103 -128 -104 -118 126 027 -58 -109 -128 -20 126 123 -118 -88 053 -81 092 -128 -128 112 055 -08 -102 -128 126 064 121 126 113 125 -110 -128 -114 -128 111 -128 -121 -91 050 126 -111 
-128 -128 094 089 -123 -87 126 -73 126 126 -113 -123 -121 113 -81 -116 -57 -16 -09 -71 104 081 113 084 -83 126 -53 -119 -117 -127 -102 -119 -88 -119 -34 -65 125 -76 -22 -47 -122 126 -99 117 041 -93 -128 -126 059 -105 -123 040 075 126 -128 -108 -128 079 119 -128 -128 117 -49 -128 
104 126 116 -54 002 041 126 -128 126 -128 109 114 123 032 -75 -105 051 076 126 -84 -104 -117 103 111 126 126 085 -128 -48 102 -108 126 110 -47 123 -114 -125 086 -113 -106 -128 126 112 -128 111 117 -123 124 098 034 123 -107 -116 -128 126 123 126 -126 126 126 126 -125 -102 126 
-128 126 -79 057 -51 -76 124 -67 -124 126 116 -65 126 020 -79 029 -08 035 126 -70 -104 -116 -124 -96 123 126 -116 126 -119 014 -04 126 086 -89 -120 -118 123 -21 089 -48 126 125 -105 126 -102 -61 055 077 039 124 126 -113 -127 126 -128 123 125 124 -128 126 126 -127 -93 -103 
112 126 -77 077 096 060 126 026 126 -128 120 124 -128 -106 -58 -100 -81 -50 -121 117 106 -26 121 025 126 -121 -72 126 061 -30 111 -128 -87 112 105 -123 080 -64 034 -36 126 126 -41 106 -39 071 -117 -118 -85 -83 -128 -04 126 124 017 125 126 091 -128 -122 -128 121 126 -128 
125 126 -29 -39 -107 042 -84 123 126 -94 -121 111 -128 -93 -45 089 -103 049 126 078 -119 -99 119 -31 -118 126 -115 126 -99 122 005 126 -06 -127 060 003 111 060 -48 -57 -128 -126 112 -128 042 000 -83 126 -38 -97 125 -97 -128 126 -128 -109 126 108 125 -128 -119 -114 119 -119 
126 126 -51 -31 -81 026 126 -105 126 127 114 -123 126 -97 -57 115 -17 002 089 012 -95 -108 -107 090 125 126 -94 124 -111 -117 -116 126 071 125 043 -115 -125 -102 103 -103 126 -128 -95 106 -34 -91 -120 126 -76 077 -115 027 125 126 126 125 -127 120 125 126 117 -95 116 126 
-106 126 -59 036 085 -28 -128 -43 126 -127 120 099 -127 057 -70 -44 -81 029 -124 -19 -93 070 087 100 126 -128 -83 -93 -112 -120 -32 126 -110 -112 -126 029 081 -93 042 -106 -128 126 123 126 012 075 -128 126 022 -43 -128 -52 117 -128 -23 -126 -128 -113 -80 124 126 124 126 -128 
126 028 009 004 -83 -96 126 126 126 -84 -106 122 -128 -102 -93 109 -83 075 -124 112 -48 110 -128 102 126 126 107 125 070 -98 -84 126 118 007 121 -123 124 031 070 -32 126 126 -117 076 -91 -118 -53 -108 103 -117 126 -85 117 -125 -128 -126 -128 123 -128 126 125 -124 -127 126 
-128 -128 105 051 -121 -18 -128 125 106 124 118 -53 126 -73 019 121 068 -32 115 049 -88 021 115 099 126 124 093 126 -96 -72 -87 125 097 -128 087 -123 126 -08 -116 -88 126 126 103 062 -92 -73 126 126 069 052 126 -89 -122 -125 -128 126 -128 -106 124 119 126 124 -30 -117 
125 126 -22 -66 -68 -87 126 -126 -19 123 -124 -100 -128 109 -79 -93 009 031 -125 -94 -97 -116 126 -70 126 126 038 126 062 113 -19 126 058 -85 -125 -68 112 -94 123 -28 124 125 124 126 -103 -117 126 -128 092 -47 126 075 -128 126 043 126 -124 -96 121 125 126 -97 126 126 
-128 101 -107 -53 -58 087 -124 -128 097 -128 -110 -105 -128 -10 055 -103 -63 -30 -112 -04 111 068 -128 -104 -128 -128 -112 023 095 -84 -90 -128 101 039 -88 078 -127 047 125 098 -83 126 120 -45 006 113 124 -128 -67 -72 126 023 121 -128 045 -127 -128 -101 110 -128 100 016 032 126 
126 126 053 073 109 074 125 -111 121 121 125 -120 -128 105 042 061 -09 067 -107 -20 -07 065 -127 -98 125 111 -52 125 -49 -124 -110 -128 -85 -78 -33 -97 -58 -100 124 -98 -128 126 -95 -104 089 089 126 125 -68 -86 126 090 -127 122 086 123 -128 125 126 -128 -128 -101 -75 -128 
124 120 086 -53 -13 -96 120 126 114 -128 -127 -124 092 -31 -103 104 -93 045 126 012 104 -103 -128 -70 -08 -128 112 -128 -104 -15 102 126 062 124 068 -81 -122 -101 -110 104 126 126 081 104 105 101 -128 125 026 -119 -101 -95 -128 126 126 126 -128 -125 -128 -121 125 125 126 -122 
-123 126 -102 052 -120 -22 126 101 125 123 -63 -85 124 093 -101 -119 072 -52 -128 101 -109 023 125 104 126 118 -68 126 025 121 -115 126 089 -126 107 060 -127 -50 124 080 126 126 -21 -128 -07 045 126 -128 -07 -74 -128 -69 005 126 -128 118 -124 -115 126 -128 -116 115 126 -128 
126 -128 062 088 -09 -32 126 123 126 126 -110 -87 117 111 075 111 -74 064 092 081 -33 -108 -128 -73 -111 126 119 125 112 070 -117 -109 -92 -95 -101 -102 103 -54 -40 -102 126 125 107 126 025 -41 -26 -127 -79 -53 -128 -66 -123 -122 126 -128 120 068 124 -123 -128 123 -127 126 
-128 -128 109 042 -53 058 -116 -128 -128 122 -82 032 -123 -28 -72 117 -31 -69 124 049 -117 055 -109 -32 126 -128 120 117 078 081 -78 -116 063 -16 116 122 114 -92 121 010 -126 -114 -95 118 077 -16 -128 126 -82 100 126 -71 -65 126 126 126 126 067 -128 126 126 119 -123 -128 
126 021 -17 021 -108 098 -128 -102 -128 -127 091 107 -121 -114 059 054 -66 059 -127 -94 031 049 067 -94 -128 124 -115 126 076 -126 -97 -128 -115 009 -113 -91 126 -86 118 096 -126 126 123 -128 093 -116 -128 066 024 -51 -128 086 121 106 -128 096 118 045 126 -111 126 012 -126 125 
100 -128 -70 -42 082 -14 126 -92 126 126 122 -118 -125 -51 -89 -103 -46 018 120 095 076 019 126 -81 -128 -122 118 126 070 -125 -97 126 119 -118 005 -124 125 069 110 073 126 124 116 126 060 -99 -128 126 105 -50 124 -106 125 126 -99 126 121 -44 126 126 126 123 090 125 
123 124 -13 -14 -30 -26 -128 -109 126 121 -100 -64 -124 084 099 -55 -78 -61 -128 -82 -07 -48 126 -38 -128 126 -120 111 -64 118 115 126 -87 126 -31 113 -125 -45 -124 092 -128 116 -119 056 -39 -113 -124 085 -08 106 111 054 098 114 -92 123 -108 115 118 124 125 -126 -27 -99 
125 -128 -108 001 004 -77 107 098 086 -128 -120 003 126 002 094 -96 -92 039 126 058 066 -103 112 -01 -128 126 119 -123 043 113 -111 -128 084 088 -97 115 -104 -79 -90 -103 126 126 -66 -118 -61 095 126 118 -26 114 006 -81 -128 -128 121 118 -87 -92 126 069 102 -80 -128 107 
-128 -123 -54 -23 -24 096 -128 -117 -128 -122 -113 -102 118 -07 -08 -59 -52 -62 125 -92 -111 012 125 037 -128 -128 025 126 -68 -104 099 -128 -54 -125 124 -119 126 060 072 -54 -126 -128 089 124 -95 -120 126 -128 -18 -94 -93 -80 -112 126 -128 -128 -127 124 -112 126 -128 004 -121 126 
121 -128 -58 -24 -101 -49 126 094 126 126 123 120 -125 -114 -46 113 094 041 -128 -16 -124 -110 126 005 126 -128 -95 125 092 093 116 126 084 120 077 115 126 -80 -114 061 124 -128 098 -128 103 116 126 -128 074 015 126 -51 -113 126 034 125 123 -125 126 126 108 -126 -111 -128 
-128 -101 -88 034 -40 025 -116 116 126 049 -110 -108 -64 071 -101 -119 -36 059 126 -60 -46 -97 126 -53 -128 119 113 -128 -104 -97 -76 124 -51 -70 074 104 103 098 -52 119 126 087 074 126 027 -71 -128 -128 -33 119 126 000 124 -128 -122 126 122 -120 -128 126 -128 030 -118 126 
-126 126 -109 045 -122 095 114 -100 -128 -128 -67 -27 126 088 -88 -111 081 -41 -91 -45 064 094 -128 017 067 126 113 126 -104 -120 078 -128 098 -126 -120 -81 039 076 113 012 068 -120 094 098 -77 050 119 120 075 -114 126 -23 104 -127 126 -127 126 044 092 -127 -128 121 -103 126 
125 126 -83 071 120 001 121 -116 126 126 -104 -31 -102 -94 -80 -113 -103 -18 126 -74 -43 -78 122 -66 -128 126 -106 -128 -33 108 042 126 111 -125 -126 -11 110 005 -126 052 126 126 105 126 -80 114 126 -128 067 -82 126 -64 -115 -128 121 -127 124 126 -128 126 -128 -94 -126 122 
126 118 058 030 -112 -86 -122 103 125 -128 120 -99 -128 -93 -59 -113 -55 -09 111 001 104 -114 -52 098 124 117 -53 125 -62 093 000 -128 110 124 -54 122 -109 -111 042 -118 119 -119 036 -106 -73 -118 -128 126 099 -109 126 092 124 126 -128 077 121 -125 126 -128 -126 -107 115 -109 
-128 -38 -07 064 -88 -84 011 105 -128 -128 -125 -72 124 -100 029 108 -85 -73 118 057 065 -96 -81 -72 126 -44 081 044 109 -69 -74 125 101 117 043 -59 -128 099 112 -87 -127 -128 119 039 -108 017 094 126 -96 037 101 -92 071 126 125 125 -101 118 -127 -124 126 -97 126 -128 
124 -106 027 021 -119 088 126 093 -128 -02 091 -88 -126 081 -59 067 -78 -53 -128 019 -47 076 -03 096 126 -128 -79 -128 -102 012 -73 -126 079 109 122 -105 -53 -10 -126 -85 -121 -128 -121 000 078 -118 078 086 083 002 126 089 085 118 123 -126 -128 126 -29 -128 126 124 124 -57 
126 -128 086 020 120 -88 083 -123 -32 078 099 018 -57 -113 080 073 090 031 126 086 024 096 123 -105 -121 -128 079 -126 062 -98 071 -128 098 -38 -98 -123 124 080 -27 107 126 126 019 126 -92 -28 119 022 016 -79 -73 107 -125 -127 118 -126 -128 -103 119 126 -127 122 -128 -64 
117 -127 -45 022 074 -103 -128 -125 126 126 125 -94 126 -38 033 110 033 -45 -127 -72 -11 029 124 -60 126 126 112 126 -39 114 -10 -128 117 -125 -125 -93 125 -102 -119 -43 -128 126 -68 -127 -58 025 -128 126 -63 -103 121 -08 126 126 -106 126 126 -121 126 -125 126 -95 -85 -101 
-107 -128 -64 007 -53 -40 110 112 -106 -128 125 -121 035 -94 086 -89 -85 -65 -128 -38 113 -62 126 -96 126 126 103 -126 -55 -120 073 -122 -18 122 111 -118 000 -96 -42 115 -57 126 -124 120 092 -114 058 -128 066 -77 086 -24 -92 -59 117 063 -102 075 126 126 -126 022 -128 -123 
087 125 058 -59 -18 035 035 116 -127 -128 117 120 089 -67 -06 119 009 -33 -47 100 -57 -82 030 -48 -128 -128 115 -128 -106 123 043 126 -85 014 099 -105 -66 082 122 117 -128 -128 120 029 -100 017 030 125 092 080 122 062 037 -56 097 -106 126 104 -128 -124 126 012 115 -118 
015 053 008 -50 051 050 -128 -94 114 -111 -128 -92 126 -108 062 -119 099 074 123 086 102 037 060 058 -128 126 -117 -128 083 029 038 001 096 125 015 121 -126 108 -118 088 -128 -128 104 122 -95 -67 -124 -128 094 085 -128 037 -66 126 -128 -128 -124 -128 -128 -102 -128 -100 124 -118 
