022 -104 -30 022 075 063 -113 -05 083 -100 -98 007 063 -14 052 057 -95 126 -114 -121 -115 -126 -13 -103 -38 -16 -83 -114 030 042 -47 046 000 000 000 000 000 000 000 000 000 000 000 000 000 000 000 000 000 000 000 000 000 000 000 000 000 000 000 000 000 000 000 000 
-78 -63 -102 018 069 016 -121 -19 026 081 -05 028 050 001 -51 066 -48 123 -121 077 082 -114 062 -50 -123 049 -53 024 092 073 -03 041 000 000 000 000 000 000 000 000 000 000 000 000 000 000 000 000 000 000 000 000 000 000 000 000 000 000 000 000 000 000 000 000 
-41 -108 -49 -22 -37 -26 -36 006 -67 -48 076 116 088 -38 -78 -70 -51 -126 093 098 037 -128 -88 082 -124 082 -48 107 058 -42 -53 031 000 000 000 000 000 000 000 000 000 000 000 000 000 000 000 000 000 000 000 000 000 000 000 000 000 000 000 000 000 000 000 000 
105 -85 -101 017 016 061 -08 096 -17 075 -80 -122 063 114 -81 -89 -72 042 118 -117 -110 125 -77 070 -125 -79 -72 -107 111 -51 068 -80 000 000 000 000 000 000 000 000 000 000 000 000 000 000 000 000 000 000 000 000 000 000 000 000 000 000 000 000 000 000 000 000 
000 -96 -16 029 035 094 -80 -53 087 096 077 113 -58 -115 -91 105 006 -127 104 -108 073 -108 044 -112 -125 -70 064 113 -120 077 -44 064 000 000 000 000 000 000 000 000 000 000 000 000 000 000 000 000 000 000 000 000 000 000 000 000 000 000 000 000 000 000 000 000 
079 024 -21 040 000 071 117 078 -38 048 -63 -83 087 -28 105 103 -108 121 -98 -95 -101 -124 045 007 -121 075 044 089 085 -32 029 051 000 000 000 000 000 000 000 000 000 000 000 000 000 000 000 000 000 000 000 000 000 000 000 000 000 000 000 000 000 000 000 000 
-55 -101 036 059 068 -69 -54 -43 062 -52 -70 -68 -89 096 093 049 -109 115 -116 104 035 126 -37 050 -64 018 076 -20 116 002 072 070 000 000 000 000 000 000 000 000 000 000 000 000 000 000 000 000 000 000 000 000 000 000 000 000 000 000 000 000 000 000 000 000 
110 -24 078 064 -25 031 -61 -28 067 035 -33 118 -32 -80 -71 -13 -76 -118 -31 -120 018 125 -32 089 122 -69 049 -96 060 014 010 -46 000 000 000 000 000 000 000 000 000 000 000 000 000 000 000 000 000 000 000 000 000 000 000 000 000 000 000 000 000 000 000 000 
110 046 009 -69 083 -32 -25 -96 038 -16 -43 -43 098 -119 -45 060 -41 046 075 -56 -78 117 -74 043 -127 027 092 -115 -83 022 -52 033 000 000 000 000 000 000 000 000 000 000 000 000 000 000 000 000 000 000 000 000 000 000 000 000 000 000 000 000 000 000 000 000 
-112 -36 110 079 -38 -67 -116 091 -76 027 -105 091 027 051 101 -94 -74 -128 -123 -120 083 -40 -06 073 125 -29 059 -106 -68 -65 008 -73 000 000 000 000 000 000 000 000 000 000 000 000 000 000 000 000 000 000 000 000 000 000 000 000 000 000 000 000 000 000 000 000 
014 048 -29 -19 -22 -47 -114 003 -66 -89 038 043 039 116 082 -47 -105 040 042 -122 116 109 084 061 053 016 -14 013 072 055 053 -64 000 000 000 000 000 000 000 000 000 000 000 000 000 000 000 000 000 000 000 000 000 000 000 000 000 000 000 000 000 000 000 000 
042 -64 078 055 -76 091 -106 -68 -25 -87 036 -113 038 115 -01 092 -61 123 -119 -08 -110 123 059 057 125 -29 -10 116 113 -30 042 -72 000 000 000 000 000 000 000 000 000 000 000 000 000 000 000 000 000 000 000 000 000 000 000 000 000 000 000 000 000 000 000 000 
-101 013 102 -15 040 -49 -33 -96 042 090 -106 117 -52 093 074 -80 077 -39 116 -115 -120 034 036 -83 064 -72 -36 -69 -20 075 -08 -37 000 000 000 000 000 000 000 000 000 000 000 000 000 000 000 000 000 000 000 000 000 000 000 000 000 000 000 000 000 000 000 000 
-61 021 -52 026 044 -53 112 083 -68 070 -80 -85 085 -114 069 054 -52 090 -118 -118 -60 -97 -81 078 123 -78 -65 -115 -114 -66 058 038 000 000 000 000 000 000 000 000 000 000 000 000 000 000 000 000 000 000 000 000 000 000 000 000 000 000 000 000 000 000 000 000 
-78 061 003 -28 068 070 076 106 088 -97 076 -97 077 -102 033 -107 033 -15 -95 117 121 -128 016 071 -126 -84 -17 -106 -118 -82 -03 039 000 000 000 000 000 000 000 000 000 000 000 000 000 000 000 000 000 000 000 000 000 000 000 000 000 000 000 000 000 000 000 000 
016 072 075 064 074 024 -46 -63 -81 -53 100 093 089 -119 089 070 093 126 119 -120 -119 126 056 057 -93 072 -01 118 060 -14 -32 074 000 000 000 000 000 000 000 000 000 000 000 000 000 000 000 000 000 000 000 000 000 000 000 000 000 000 000 000 000 000 000 000 
110 -109 037 -12 -20 -47 117 076 013 -98 -46 -111 061 -29 -78 -115 -56 122 -121 -109 110 126 -04 069 -37 -49 -09 058 034 -73 073 025 000 000 000 000 000 000 000 000 000 000 000 000 000 000 000 000 000 000 000 000 000 000 000 000 000 000 000 000 000 000 000 000 
-105 102 -04 -13 062 073 103 068 060 -45 070 061 -60 093 039 -63 -17 -70 101 -86 074 -107 036 093 -119 015 016 104 -117 -01 -19 -76 000 000 000 000 000 000 000 000 000 000 000 000 000 000 000 000 000 000 000 000 000 000 000 000 000 000 000 000 000 000 000 000 
009 -37 -90 008 -65 -72 -10 101 -82 -92 -07 -124 -23 057 082 -111 073 -127 -107 -122 105 -117 -04 079 032 -33 -59 -106 119 039 -28 -18 000 000 000 000 000 000 000 000 000 000 000 000 000 000 000 000 000 000 000 000 000 000 000 000 000 000 000 000 000 000 000 000 
075 081 -41 036 030 017 -59 -84 -35 -65 101 -96 068 117 082 -28 -83 -126 118 -104 101 -126 -04 -107 -80 -67 080 -22 102 -73 -13 -55 000 000 000 000 000 000 000 000 000 000 000 000 000 000 000 000 000 000 000 000 000 000 000 000 000 000 000 000 000 000 000 000 
-42 -01 -51 -35 068 030 044 003 064 -91 092 -69 -56 093 -26 031 061 -128 117 -82 051 -122 086 -41 -127 066 -86 089 056 079 018 048 000 000 000 000 000 000 000 000 000 000 000 000 000 000 000 000 000 000 000 000 000 000 000 000 000 000 000 000 000 000 000 000 
-06 046 106 052 -26 -63 076 006 034 -63 -82 120 -49 106 035 105 098 -127 111 -101 -109 -98 -58 -79 103 -10 082 -50 -82 -12 002 006 000 000 000 000 000 000 000 000 000 000 000 000 000 000 000 000 000 000 000 000 000 000 000 000 000 000 000 000 000 000 000 000 
-89 076 028 -08 086 064 118 018 067 -97 057 -112 -09 -20 -62 005 108 114 065 034 -12 -127 -36 -101 122 -15 090 -61 015 005 038 073 000 000 000 000 000 000 000 000 000 000 000 000 000 000 000 000 000 000 000 000 000 000 000 000 000 000 000 000 000 000 000 000 
054 082 -99 001 082 051 -116 -17 -03 -04 103 -97 -44 106 067 -91 084 121 113 -104 021 -128 018 -102 121 058 -79 -22 060 -22 -50 061 000 000 000 000 000 000 000 000 000 000 000 000 000 000 000 000 000 000 000 000 000 000 000 000 000 000 000 000 000 000 000 000 
077 089 032 050 -81 -53 100 -01 052 067 -98 -47 074 -114 -98 -90 -94 -106 105 118 -91 125 048 -107 -109 -53 031 -12 101 068 -38 -81 000 000 000 000 000 000 000 000 000 000 000 000 000 000 000 000 000 000 000 000 000 000 000 000 000 000 000 000 000 000 000 000 
-110 -95 064 034 088 095 108 059 036 -17 010 -79 043 -119 047 -111 -57 121 -17 113 076 126 -39 042 -110 002 045 -104 002 -78 014 -51 000 000 000 000 000 000 000 000 000 000 000 000 000 000 000 000 000 000 000 000 000 000 000 000 000 000 000 000 000 000 000 000 
-79 018 052 -64 084 056 -82 -78 024 -92 -35 094 086 -114 -75 -107 -73 -01 -02 -100 -122 -125 -35 107 -127 010 -75 105 123 -53 065 -52 000 000 000 000 000 000 000 000 000 000 000 000 000 000 000 000 000 000 000 000 000 000 000 000 000 000 000 000 000 000 000 000 
-83 081 -81 051 089 065 -74 -13 -76 -46 -24 120 093 097 029 -91 107 126 091 -22 115 092 029 088 121 051 045 -67 017 030 019 036 000 000 000 000 000 000 000 000 000 000 000 000 000 000 000 000 000 000 000 000 000 000 000 000 000 000 000 000 000 000 000 000 
050 -103 -97 073 059 -12 117 005 053 -01 -77 -10 079 065 -17 096 -59 117 -112 107 116 090 047 058 -128 -79 -84 118 114 -06 -40 -16 000 000 000 000 000 000 000 000 000 000 000 000 000 000 000 000 000 000 000 000 000 000 000 000 000 000 000 000 000 000 000 000 
062 -109 079 -11 -84 -68 070 -100 063 -66 091 118 036 -20 -105 -36 099 -53 -73 -82 -29 103 -88 033 -128 -65 031 -48 -52 -25 -53 044 000 000 000 000 000 000 000 000 000 000 000 000 000 000 000 000 000 000 000 000 000 000 000 000 000 000 000 000 000 000 000 000 
-05 -47 103 -39 -42 026 -114 072 009 -05 102 089 -60 064 018 -33 107 -31 -50 -109 003 071 -85 080 126 074 -78 115 104 -40 -30 -40 000 000 000 000 000 000 000 000 000 000 000 000 000 000 000 000 000 000 000 000 000 000 000 000 000 000 000 000 000 000 000 000 
043 066 023 053 017 015 099 -16 -76 022 -14 119 049 -51 073 110 -36 -74 -100 -21 -122 126 -63 -91 -114 038 -19 116 110 -62 -03 038 000 000 000 000 000 000 000 000 000 000 000 000 000 000 000 000 000 000 000 000 000 000 000 000 000 000 000 000 000 000 000 000 
010 013 111 -07 085 000 -121 034 011 019 046 -53 -98 013 -103 -112 -95 065 -123 045 -122 -128 -16 109 -109 057 083 090 -122 055 -32 069 000 000 000 000 000 000 000 000 000 000 000 000 000 000 000 000 000 000 000 000 000 000 000 000 000 000 000 000 000 000 000 000 
099 105 -44 -40 -19 -56 -77 025 -01 -05 -43 122 -36 -67 -102 109 -79 085 -88 107 -12 -02 029 098 -24 014 021 -25 -120 080 023 068 000 000 000 000 000 000 000 000 000 000 000 000 000 000 000 000 000 000 000 000 000 000 000 000 000 000 000 000 000 000 000 000 
082 -53 075 -71 067 018 -04 -08 087 -100 -85 -38 006 -113 010 069 -62 113 015 112 033 107 -86 076 -95 -08 070 117 063 -19 062 -65 000 000 000 000 000 000 000 000 000 000 000 000 000 000 000 000 000 000 000 000 000 000 000 000 000 000 000 000 000 000 000 000 
-95 -59 079 -45 083 029 010 -80 087 027 -42 -116 060 094 012 117 085 096 117 034 -119 095 -77 049 -125 -35 039 116 -31 076 045 -66 000 000 000 000 000 000 000 000 000 000 000 000 000 000 000 000 000 000 000 000 000 000 000 000 000 000 000 000 000 000 000 000 
092 -94 -90 -01 024 -66 -119 -69 056 -61 006 114 005 044 009 082 -104 125 -111 120 076 125 054 -14 011 -59 044 038 -37 -46 -26 -26 000 000 000 000 000 000 000 000 000 000 000 000 000 000 000 000 000 000 000 000 000 000 000 000 000 000 000 000 000 000 000 000 
-36 106 -93 -68 -89 -75 102 081 -58 -82 -85 -69 094 108 -04 007 049 114 107 069 -32 -97 -43 091 -117 009 016 -91 110 -52 -64 006 000 000 000 000 000 000 000 000 000 000 000 000 000 000 000 000 000 000 000 000 000 000 000 000 000 000 000 000 000 000 000 000 
099 -78 015 -68 083 -87 -106 -73 063 081 057 -121 012 -58 062 -99 094 -124 -38 -58 -101 059 -77 -64 -110 -60 -58 062 -65 033 054 -18 000 000 000 000 000 000 000 000 000 000 000 000 000 000 000 000 000 000 000 000 000 000 000 000 000 000 000 000 000 000 000 000 
-108 -89 -90 -61 051 026 -114 101 089 -52 -15 -91 -69 023 099 -72 -108 -128 -106 -114 -51 120 -68 034 114 -51 -26 105 -52 -77 066 -68 000 000 000 000 000 000 000 000 000 000 000 000 000 000 000 000 000 000 000 000 000 000 000 000 000 000 000 000 000 000 000 000 
-106 022 -69 020 084 089 -27 103 054 -35 067 -125 073 -13 045 061 076 075 -87 -08 -71 126 010 -92 037 -37 023 -105 -11 007 -09 -40 000 000 000 000 000 000 000 000 000 000 000 000 000 000 000 000 000 000 000 000 000 000 000 000 000 000 000 000 000 000 000 000 
018 -05 071 034 -03 083 103 050 -07 070 005 117 -97 -89 087 100 018 -112 084 -122 114 -128 079 021 032 -78 -32 -60 -115 -39 001 020 000 000 000 000 000 000 000 000 000 000 000 000 000 000 000 000 000 000 000 000 000 000 000 000 000 000 000 000 000 000 000 000 
012 -92 -18 -07 059 081 091 087 092 -36 045 -120 -64 -101 081 091 -47 111 055 054 -123 126 -75 106 -72 006 -52 -118 086 070 -37 029 000 000 000 000 000 000 000 000 000 000 000 000 000 000 000 000 000 000 000 000 000 000 000 000 000 000 000 000 000 000 000 000 
015 -57 -79 068 -69 -62 058 -37 -12 -44 -91 -121 069 096 091 -31 -61 121 -10 095 -53 124 -82 096 -61 080 010 118 -110 -37 -07 -18 000 000 000 000 000 000 000 000 000 000 000 000 000 000 000 000 000 000 000 000 000 000 000 000 000 000 000 000 000 000 000 000 
-106 -93 -79 072 -43 032 -62 066 048 020 018 -125 094 -113 083 092 072 -16 -109 -115 -123 -128 -15 035 125 -76 -02 064 110 -13 047 019 000 000 000 000 000 000 000 000 000 000 000 000 000 000 000 000 000 000 000 000 000 000 000 000 000 000 000 000 000 000 000 000 
-85 057 099 -38 -43 -52 -119 049 021 -40 -103 -125 073 020 089 093 078 125 -120 024 012 -59 062 -92 -47 011 064 -03 093 079 -31 073 000 000 000 000 000 000 000 000 000 000 000 000 000 000 000 000 000 000 000 000 000 000 000 000 000 000 000 000 000 000 000 000 
-102 051 001 029 085 043 -104 -89 087 -45 034 -79 083 -118 007 -109 106 -112 127 025 -99 -101 -48 -66 125 -61 -11 -93 098 079 008 -42 000 000 000 000 000 000 000 000 000 000 000 000 000 000 000 000 000 000 000 000 000 000 000 000 000 000 000 000 000 000 000 000 
-49 022 -100 048 -49 091 117 063 031 054 -104 -12 073 -100 -18 -55 048 079 -17 -11 106 -127 -76 093 051 005 082 -118 -60 -65 062 -86 000 000 000 000 000 000 000 000 000 000 000 000 000 000 000 000 000 000 000 000 000 000 000 000 000 000 000 000 000 000 000 000 
-64 040 061 072 070 -20 106 -75 070 073 -55 -62 -97 -104 032 085 093 -106 113 110 -118 -114 083 -97 -117 -57 026 -56 080 -13 076 -71 000 000 000 000 000 000 000 000 000 000 000 000 000 000 000 000 000 000 000 000 000 000 000 000 000 000 000 000 000 000 000 000 
-95 -73 098 -04 -01 089 -113 -42 034 -74 053 028 064 090 098 -118 -112 121 099 -109 095 116 -83 -114 120 -77 079 -97 105 -69 051 -67 000 000 000 000 000 000 000 000 000 000 000 000 000 000 000 000 000 000 000 000 000 000 000 000 000 000 000 000 000 000 000 000 
037 -25 050 -37 -68 -72 -118 078 083 074 065 -110 -11 054 -102 -07 040 -10 -123 114 038 018 057 -27 -123 -40 024 117 -03 041 -64 062 000 000 000 000 000 000 000 000 000 000 000 000 000 000 000 000 000 000 000 000 000 000 000 000 000 000 000 000 000 000 000 000 
-40 -94 047 032 -26 -76 120 -52 -15 -62 -102 102 092 -98 081 111 -04 122 -99 -73 115 -128 -28 -109 009 056 -84 103 109 -21 -51 -34 000 000 000 000 000 000 000 000 000 000 000 000 000 000 000 000 000 000 000 000 000 000 000 000 000 000 000 000 000 000 000 000 
014 087 -67 -42 -71 -87 094 -24 -08 097 022 -02 001 -98 091 -05 -84 125 007 025 -124 126 048 105 013 073 069 100 020 070 058 021 000 000 000 000 000 000 000 000 000 000 000 000 000 000 000 000 000 000 000 000 000 000 000 000 000 000 000 000 000 000 000 000 
088 -103 013 074 -72 -40 -73 007 -25 -85 085 -38 -80 -115 -34 -107 086 104 -108 051 -112 -125 -54 -103 -73 -74 -41 -98 -85 -09 054 -67 000 000 000 000 000 000 000 000 000 000 000 000 000 000 000 000 000 000 000 000 000 000 000 000 000 000 000 000 000 000 000 000 
075 -25 -60 -62 003 001 -46 080 010 -95 -12 -114 -67 -90 -91 -28 047 101 -44 006 090 122 -84 -113 -68 -04 073 046 093 007 -10 075 000 000 000 000 000 000 000 000 000 000 000 000 000 000 000 000 000 000 000 000 000 000 000 000 000 000 000 000 000 000 000 000 
-72 097 -43 -49 -79 072 -111 -29 051 059 -60 038 -22 -73 084 -02 -91 119 104 079 117 -103 -50 108 -87 -82 000 113 -119 039 -24 066 000 000 000 000 000 000 000 000 000 000 000 000 000 000 000 000 000 000 000 000 000 000 000 000 000 000 000 000 000 000 000 000 
095 105 -99 062 063 100 -48 102 080 -56 089 119 083 -70 -24 025 053 122 101 110 076 -112 -67 049 068 038 060 -119 097 -81 000 044 000 000 000 000 000 000 000 000 000 000 000 000 000 000 000 000 000 000 000 000 000 000 000 000 000 000 000 000 000 000 000 000 
-67 -104 -99 -13 088 071 054 087 067 -95 -31 -117 092 -116 101 070 040 -62 067 061 -121 -127 009 076 081 078 -17 -120 -27 050 -46 -14 000 000 000 000 000 000 000 000 000 000 000 000 000 000 000 000 000 000 000 000 000 000 000 000 000 000 000 000 000 000 000 000 
071 071 -11 -26 075 077 -110 -24 -48 -81 -88 054 -52 -55 096 -113 045 036 061 096 099 -128 057 095 -25 -36 088 -09 080 -67 056 -07 000 000 000 000 000 000 000 000 000 000 000 000 000 000 000 000 000 000 000 000 000 000 000 000 000 000 000 000 000 000 000 000 
015 -69 104 037 -71 -90 111 037 073 -05 -86 -121 -88 032 -81 -116 -11 -81 -113 -105 122 124 068 052 -125 034 065 001 -121 -81 -60 -22 000 000 000 000 000 000 000 000 000 000 000 000 000 000 000 000 000 000 000 000 000 000 000 000 000 000 000 000 000 000 000 000 
064 023 -05 -65 001 059 018 014 -01 -60 100 024 -12 -118 049 -120 -72 -121 110 -44 -122 119 -45 101 -116 -52 060 -106 -97 066 023 -16 000 000 000 000 000 000 000 000 000 000 000 000 000 000 000 000 000 000 000 000 000 000 000 000 000 000 000 000 000 000 000 000 
-36 -92 -113 -33 -33 080 -40 -100 045 085 003 -114 056 -17 -62 -75 -81 124 -40 088 -98 126 074 -36 088 -25 062 007 -97 -19 056 -30 000 000 000 000 000 000 000 000 000 000 000 000 000 000 000 000 000 000 000 000 000 000 000 000 000 000 000 000 000 000 000 000 
034 -63 054 065 -12 -68 -121 -79 -95 007 -54 100 066 -106 -45 093 -46 -127 121 -19 -106 -86 -66 084 -06 071 040 106 097 035 056 -62 000 000 000 000 000 000 000 000 000 000 000 000 000 000 000 000 000 000 000 000 000 000 000 000 000 000 000 000 000 000 000 000 
107 -47 044 044 -78 038 086 063 059 -93 -06 016 -72 117 -81 047 -104 -113 109 067 -114 125 -88 -44 124 -56 035 -74 106 -70 059 -29 000 000 000 000 000 000 000 000 000 000 000 000 000 000 000 000 000 000 000 000 000 000 000 000 000 000 000 000 000 000 000 000 
