-72 080 038 -12 045 013 017 015 032 008 -57 063 120 -29 053 -01 -106 -75 031 036 -58 -10 106 108 -22 019 089 112 -18 044 -53 040 066 -121 052 087 094 -89 -26 -17 041 -65 112 113 028 -10 -19 -71 -74 -67 094 086 -84 109 -90 -90 002 -88 -22 -26 -98 078 069 017 
012 -30 102 -13 -12 076 -05 -02 013 -39 -34 -58 -110 -68 -45 -74 -55 065 -06 011 -61 011 125 -42 -42 001 -60 087 099 027 -01 -43 019 -80 024 -68 -107 -62 090 -37 -60 000 -85 103 -09 -33 -38 018 049 -52 061 085 038 108 029 071 047 053 -77 001 -16 -14 012 103 
-34 065 -68 009 057 -83 049 047 -85 053 037 -68 126 068 053 007 -126 092 004 055 078 059 -114 068 018 025 -51 115 -124 095 -19 -01 -14 -79 064 016 064 046 053 -26 -08 -24 -85 -99 005 -55 -104 -32 -03 -112 079 061 -34 076 073 020 070 108 -80 -103 -71 -18 -90 -81 
013 -90 054 023 -53 058 -79 006 -93 079 045 -11 062 -61 005 002 050 054 009 -29 057 029 -61 -76 -32 040 -97 030 -126 039 -15 -28 -61 015 070 091 -16 025 -34 -19 092 -40 -113 -51 -25 -27 068 050 008 -89 024 -17 -94 -84 -39 -82 009 -05 054 -39 -81 042 012 099 
038 048 104 -32 -94 020 -73 021 068 047 -35 -26 065 068 055 067 058 069 078 -62 090 023 -111 006 029 -29 -61 102 056 064 011 046 -38 109 015 096 085 035 -106 015 103 069 -122 -120 -72 -59 071 -68 075 073 078 103 -68 -71 -04 079 -12 -61 -21 116 -79 016 062 -72 
051 -83 060 054 -101 -16 072 -29 -68 060 014 080 -127 022 042 068 -96 -69 057 -19 100 010 -105 011 -24 011 103 021 -127 048 022 -65 -04 -127 020 -97 066 -35 045 030 -100 -32 -08 -42 -55 -69 -101 -47 -72 -82 091 107 -77 -48 -86 071 021 -108 048 001 082 -31 023 011 
-21 -80 -53 -34 092 056 -22 021 050 058 068 -45 126 036 -11 009 118 -61 -29 070 006 049 -111 011 005 -39 034 043 094 -18 -46 -18 -04 115 -69 053 -46 080 -39 -46 017 -34 113 079 -60 038 -08 048 002 029 030 002 -18 089 -90 -65 030 -51 033 -54 079 063 -90 094 
033 090 054 -73 -101 -08 058 -24 076 064 -62 -19 -128 -55 071 076 -123 -44 -21 -79 010 -46 076 111 003 -10 -42 -09 -118 -25 -08 027 062 -105 002 -99 -69 -05 028 024 -94 -05 039 094 -38 058 -103 -20 -78 -111 051 087 092 -99 -68 078 -94 -114 064 -111 087 050 080 -105 
008 008 -74 -36 -65 000 062 038 -44 063 -07 030 126 -47 -74 -68 096 -73 -55 -63 000 046 082 -42 003 -60 115 115 055 -72 004 -38 -41 126 -58 -78 093 -57 -22 -43 079 062 118 076 -47 -36 -39 064 053 040 -92 091 -06 -120 064 016 007 -98 059 -84 096 063 086 -63 
045 -08 -03 -66 -104 023 -10 001 040 057 062 050 099 -10 -46 -47 080 047 -64 045 028 049 019 -10 019 025 013 108 032 -98 -25 050 079 -82 006 096 -05 040 022 -44 -30 -13 118 078 015 047 -17 -22 005 040 057 -09 -09 054 071 055 092 096 077 -121 -50 016 -66 -28 
-35 098 105 007 -12 -10 -70 -39 -78 -90 -47 051 -128 -42 -54 -64 115 037 -46 025 051 -33 081 116 -06 081 063 -92 109 -12 -51 058 -69 086 089 -38 092 034 016 -49 -33 007 -102 -110 -37 -40 -76 -20 -33 -43 019 098 -16 091 -79 -44 -75 -115 -44 055 -117 -62 -33 028 
-53 031 -108 002 066 -33 -25 014 008 -86 -18 048 -128 -37 014 006 -116 -77 -55 -61 -50 074 -113 -60 -44 -39 079 103 124 012 -69 041 059 -115 049 097 -103 -91 -38 -50 -82 -78 -118 -109 -37 032 076 -46 -24 -114 -101 106 053 055 075 032 067 104 052 099 -108 -33 060 -101 
055 -28 005 -55 -12 -50 -72 016 -88 051 -68 -42 126 010 045 079 -101 -94 051 -61 -55 -27 046 -20 -14 -45 -92 -73 121 070 -02 043 090 126 004 -68 -91 042 081 022 -87 043 062 -98 038 012 -87 -20 004 080 -101 -18 -48 115 -58 044 -02 -107 -10 -124 110 005 027 052 
-30 -75 -63 -14 -71 -54 -45 -09 -73 068 069 058 -121 -84 -15 -46 -40 062 017 046 -79 -67 -20 074 -46 -06 081 095 124 082 017 056 -18 124 017 082 078 -45 082 -46 -39 055 -52 031 048 -38 099 035 -64 005 -97 -02 -50 -97 050 -22 -67 -51 064 082 -73 079 -64 -95 
-78 -85 012 055 -81 067 019 -04 081 014 -58 -63 -128 -31 -43 -39 123 -74 043 066 109 -68 099 -106 -13 082 -102 074 122 -75 017 -43 -33 126 -02 -74 095 -83 -107 -25 -97 -03 073 103 -74 015 -103 061 067 -68 012 -59 -50 -69 -50 047 068 -110 -63 114 087 081 -84 -76 
001 030 -05 020 -98 023 -59 -03 050 060 -73 -03 -101 -02 047 042 119 -83 086 -47 -55 031 124 088 030 025 093 -76 120 -23 003 -27 -56 125 -73 027 037 053 -55 -47 -98 050 003 -52 035 037 -02 -20 -32 -51 -35 -09 090 -49 -64 -47 -07 -110 019 -61 114 -20 092 -77 
040 102 -92 -73 088 -13 -40 032 -98 069 066 -81 -126 -36 056 -72 019 -62 -39 -35 -102 -65 -23 111 013 075 -70 -71 076 -29 -38 -53 -85 094 -54 -48 -50 -35 -49 034 042 -34 111 117 037 -56 -70 030 035 091 099 -59 -80 105 -89 024 060 -43 -73 086 109 -56 068 062 
-28 -114 114 -61 057 -79 065 -19 -40 027 -23 012 121 -57 069 -70 126 059 -12 -66 039 057 111 -86 -29 -13 -116 -18 -122 -68 022 030 064 -117 -38 -74 013 -64 058 -47 074 -68 067 095 -22 035 -36 000 060 104 -40 067 -48 -115 -66 -89 054 -118 -53 -85 108 -39 -17 -76 
-77 040 052 -10 084 024 059 -29 089 008 050 -38 004 055 -27 055 -92 -36 049 -77 091 -61 123 072 -03 -18 068 -97 087 010 047 -66 -86 047 056 068 003 -53 -74 -46 -10 060 -62 084 -23 064 044 -26 -78 -56 059 066 083 049 -80 -46 028 -66 066 -97 071 -44 -99 -79 
-20 088 -108 -73 -102 053 067 016 037 -10 -24 054 -104 005 -37 -76 -122 053 081 -80 -84 -26 123 024 019 051 -28 -47 119 -75 -30 -49 -84 055 -70 -44 104 069 090 029 064 006 -97 116 -60 -36 071 -28 -23 045 -07 -43 012 047 -25 057 -27 -29 073 -43 -115 -30 -29 102 
-01 096 058 053 015 -75 -81 016 -57 023 045 032 -127 -58 005 019 112 040 019 044 -50 018 -109 062 002 -33 096 -101 113 -69 016 -01 -86 091 051 -66 094 047 044 025 -26 039 -16 002 013 050 039 -08 -23 -92 059 -06 051 028 039 031 -28 -36 -01 119 -30 -13 -72 -107 
008 -95 -24 -74 022 -02 011 020 022 -48 016 045 126 -73 048 -76 089 092 -76 -47 -84 004 103 -71 023 020 119 076 094 096 009 030 -101 -33 -10 -35 098 003 -40 -35 055 -47 -117 104 -69 -75 -36 -39 069 058 -80 -106 004 -119 -76 055 034 114 064 -110 -79 060 096 090 
-22 040 -97 -44 -09 -31 -83 -09 057 017 000 -62 123 062 084 -44 105 -31 -43 065 -68 -48 126 -116 -22 -72 -59 020 110 -54 -31 -59 062 125 052 -16 099 -42 -108 -25 -72 -72 -28 -69 -50 051 010 -27 085 088 -56 112 -18 -24 -76 -92 062 -109 -60 067 -100 -27 041 045 
-71 -32 -83 017 089 003 061 022 -52 -90 016 -65 122 048 -54 -26 -125 083 -80 021 -100 -21 123 113 -37 -55 -104 116 118 -63 -46 -22 -37 122 088 067 048 -80 103 016 -79 -57 -48 096 -42 -18 -105 016 -58 109 -77 -79 -24 043 -73 -10 093 -111 -66 007 -91 -07 -35 -36 
034 -98 073 007 092 026 -31 -06 -71 029 020 066 126 050 030 031 075 049 071 -04 -70 041 -111 116 -03 -78 -74 008 124 -24 020 -36 017 123 061 -99 -56 -69 -62 -42 -89 004 030 -85 -61 -38 010 -44 065 036 -14 -54 -24 -63 -92 -29 -60 067 -82 108 023 047 -42 088 
031 101 085 029 -46 052 -72 -09 -02 -03 020 -32 -125 -77 036 -49 -125 056 -87 030 -99 -30 094 016 018 067 -61 109 018 -92 -02 -15 -70 123 062 -76 -88 -78 -31 004 -20 027 -117 094 -37 -76 019 016 -46 107 013 026 050 114 051 007 -19 077 -29 -63 -49 -21 052 -105 
-34 073 -105 045 015 -77 -28 047 105 -53 062 036 -128 -11 -30 026 124 099 058 -82 095 036 010 111 -01 -35 086 100 097 093 028 038 -82 -127 -55 -17 -19 060 105 000 -77 032 093 104 -08 -04 088 028 088 -66 -88 -100 -65 -90 089 -47 065 -75 -56 -22 086 058 006 003 
-07 -88 012 050 036 -11 -08 055 067 020 -47 -59 097 010 085 062 -77 050 -67 061 -68 -28 123 078 -34 018 051 104 115 -82 019 058 004 -102 -15 082 058 035 -104 003 -102 -54 020 -107 -01 055 002 021 073 035 -89 -89 047 111 018 -28 080 -96 036 -113 -117 -43 032 -18 
057 083 -28 -22 085 018 -62 -40 079 -47 -13 076 010 -20 -55 -14 -102 -75 002 -14 025 -53 -126 053 -33 -76 -91 -101 -118 -104 046 033 089 089 077 095 -98 077 098 026 -71 -68 -115 023 047 -37 082 -53 071 -22 091 -81 -93 024 -75 037 013 067 -58 -40 -107 005 064 -07 
-02 -93 062 010 012 018 025 -35 096 084 025 019 -128 -07 -55 068 124 074 -55 016 -28 -20 072 -61 -32 081 004 111 -118 041 022 -20 -100 -128 067 028 -105 -76 -102 -14 -72 026 -104 -104 -56 -29 -84 015 -15 -16 -57 -72 022 -91 -81 -61 092 -67 -76 029 -14 -64 025 -89 
-29 065 -108 045 069 -43 070 -46 -94 085 049 -80 -128 -48 039 -27 -53 -12 002 -71 081 053 004 -96 028 001 106 103 116 015 016 -49 -99 -105 015 -99 -93 058 -28 027 -94 -73 -104 094 007 057 -37 -66 010 -59 001 091 062 105 -33 -70 089 099 072 110 -112 017 094 081 
-47 092 -10 018 -79 -51 -53 035 053 012 058 -51 -128 014 086 065 -114 090 -44 070 104 -53 105 -105 -02 -41 -80 042 124 -107 -39 057 080 -127 073 043 -92 -72 -94 -26 018 -53 -64 -107 011 -17 098 061 037 068 054 096 063 061 082 -03 090 083 -21 041 035 028 -105 -12 
-19 -75 082 071 -76 -74 035 -02 009 078 015 -73 -109 -70 004 -59 -118 053 -01 091 -95 -10 125 075 -23 -33 -31 -86 -116 -50 018 -17 091 124 066 -100 -111 070 -53 -47 012 -28 -107 120 067 061 -95 012 032 113 -102 -44 025 098 062 023 068 062 -32 -113 -117 -45 -09 040 
-58 -31 076 -72 000 010 -24 -28 038 -11 012 002 -128 007 015 015 122 001 -20 032 032 -45 -10 -117 -21 -13 112 111 -16 -03 -32 -33 -98 -36 038 089 094 065 008 025 083 056 -59 -121 -11 -67 014 020 -02 -65 083 003 078 109 046 -26 037 113 055 116 -119 060 -93 -62 
-59 100 105 -30 053 -43 051 -13 -15 -28 004 041 -93 -77 -59 -69 -119 -02 -54 065 -36 -15 118 -05 -03 -84 -96 -94 -103 104 -55 -60 -78 124 -28 -65 -61 -81 090 -36 051 001 -114 -118 -66 056 -71 -23 -04 070 -55 -58 -93 097 070 083 -93 085 069 116 111 -33 029 098 
-17 067 -88 021 033 061 047 004 -84 043 045 051 094 029 027 068 082 083 059 -28 056 012 103 109 -31 009 -56 -72 117 -106 -53 -49 -93 -58 062 077 034 -50 -65 -48 038 037 -79 087 005 054 039 049 -79 -02 000 -45 098 061 -83 016 018 -20 057 -119 -78 -51 -87 091 
054 063 104 037 001 -69 -47 053 089 -12 -45 003 124 -80 081 -43 -120 -22 058 027 -107 -66 -90 -97 -05 -74 114 108 -125 -77 -52 -46 -88 -58 089 -68 076 -81 095 -30 059 025 088 104 -40 001 -79 -78 -79 117 -20 086 087 018 -70 -22 084 -116 -60 -118 081 059 -51 -93 
028 -37 041 073 -104 077 060 -23 014 034 -30 -67 126 023 -64 058 095 -82 078 -25 042 013 -126 083 -20 -63 072 104 -21 006 -08 056 -39 119 069 -60 060 062 107 -49 -80 017 096 -115 -05 067 -72 -34 079 110 088 013 097 -14 -58 -54 -71 -98 -65 -25 053 024 -63 044 
053 090 -107 -18 008 -86 011 -11 091 -47 -55 045 126 035 -06 026 -116 097 -17 080 -69 -34 -100 042 -22 021 -88 039 121 -96 028 018 -70 127 065 002 -82 -09 -05 -26 069 047 -124 -104 006 005 -09 -77 083 076 -74 037 068 -115 042 055 -73 -92 -47 -13 117 047 053 -66 
045 014 020 -37 042 053 055 010 068 000 -04 076 126 020 053 -33 -11 062 -83 003 -87 023 -124 055 007 -45 -95 -74 088 104 -52 -19 -79 103 039 053 -95 -75 -37 027 081 066 090 067 -12 065 067 -74 077 107 -92 -19 077 044 044 -29 -33 114 -44 -91 -38 031 -54 009 
017 -98 017 -38 -97 -16 023 044 -102 -09 -72 -65 -90 069 -14 016 101 066 052 -31 032 -61 -107 -91 007 054 -94 091 -127 044 -18 -42 -93 -125 087 -69 -71 -01 033 -26 -01 055 024 016 002 -02 078 008 -47 -95 -64 095 -29 -35 -77 -52 -63 076 032 -55 082 -61 -45 093 
057 -23 -105 -19 -106 -84 -77 038 009 -35 -45 -27 -56 073 024 -58 056 083 086 066 -81 -38 -126 104 -07 -16 106 008 124 005 021 -42 050 085 -49 031 -65 -47 097 -49 013 -25 -56 -68 050 026 047 -09 -66 -89 -83 -109 -99 097 -97 -79 -75 093 033 117 111 023 -66 -109 
018 081 -31 -51 094 033 -65 000 032 055 -02 -26 -120 -31 -32 -35 -102 061 -13 -68 -50 027 -123 026 -40 -65 102 -50 117 -68 -59 042 -58 126 054 089 068 075 -93 -07 -28 -67 101 -89 -66 031 -04 -31 038 -72 004 -89 042 081 -81 -13 079 085 -27 095 068 063 017 -59 
053 092 -106 068 -56 -69 001 -14 060 030 040 -08 126 -60 -70 019 109 -81 055 -81 -40 -09 -74 -109 -19 020 038 -112 086 -37 041 038 -44 121 -59 005 094 -69 -06 -42 021 005 -121 062 -26 -47 013 -52 -66 -07 -68 -57 067 118 -61 063 056 083 -39 -107 -83 025 -93 -41 
-40 -60 -57 -47 023 054 062 009 -02 018 -63 037 108 -58 -03 -63 115 -45 -09 038 008 -71 -114 108 030 008 -118 112 090 079 -24 063 -61 126 008 -74 060 025 100 -24 -15 -01 105 -100 012 -57 -32 042 069 -98 002 -93 080 -117 045 071 -40 -68 069 -118 -103 -76 010 076 
-06 -106 026 017 -25 069 019 028 -49 063 038 066 -128 074 013 027 108 080 -52 -27 058 -61 -84 116 -55 060 114 -37 104 063 -48 -10 062 126 -23 015 091 056 -88 -08 -101 -07 066 -102 -45 -70 -102 -01 -62 029 -64 096 -76 -117 -68 051 -49 018 -69 085 -116 -43 012 -10 
-76 -33 -104 030 -67 -08 056 049 092 -55 -36 080 126 030 -51 -26 112 052 011 -38 -94 -34 -114 108 -21 -85 -87 -48 -117 -77 -32 -48 -92 018 058 038 -54 031 -70 022 -97 001 108 121 026 014 000 052 095 -93 035 -58 085 -78 065 019 -75 016 063 042 105 048 061 -90 
-49 -93 084 -56 074 071 024 -07 -24 -26 -74 -60 -127 012 -05 079 -10 030 045 -58 -17 -24 -39 101 025 -49 -112 -98 -63 -72 053 047 -30 -119 052 062 075 072 -51 038 -101 -46 048 020 -19 025 -65 -08 060 -84 -77 068 027 -97 -04 -28 050 102 070 -122 -82 059 043 -06 
004 032 101 -64 019 080 -53 036 074 -68 -49 -17 103 -24 -63 -15 081 -56 066 016 104 -46 -67 -04 -29 078 043 -88 011 -101 023 064 052 116 -83 075 -35 -74 062 -27 -44 -19 -111 -44 -33 -35 026 -35 -23 030 -89 055 090 095 -25 -67 -38 110 -79 -16 095 -21 -31 036 
-77 -60 -03 -68 -66 -10 -52 -15 -102 026 056 -55 126 -73 060 -20 108 -93 020 077 -74 -49 -99 -117 -48 -43 -43 082 -85 062 012 -68 -85 -126 000 -89 -98 018 -84 -45 024 -45 103 -110 -75 -40 -101 009 063 -65 -64 081 -15 090 -25 -21 -08 -64 030 106 -31 071 063 -94 
-46 010 -111 -69 -93 -22 039 053 078 -12 015 034 -126 -02 059 063 -101 071 076 -59 -92 -11 -122 -56 003 -13 002 119 -99 097 -27 -50 -93 112 090 003 -82 -19 086 044 -55 -19 104 -29 -19 -18 -100 017 -54 105 092 017 015 -120 -29 -48 097 033 -67 -75 094 049 078 -82 
009 -25 -26 066 097 -59 074 -16 044 001 -25 057 -128 082 -40 -17 -122 089 037 -67 -98 031 -98 115 -10 -84 -118 022 001 -89 043 -22 -79 118 065 075 101 045 020 -22 -79 044 -45 -02 040 039 -74 -56 -79 104 -96 -81 -05 010 -35 059 -72 106 070 119 039 -43 048 071 
-40 058 104 011 -38 -06 -83 -29 -104 -83 056 042 126 080 044 083 124 045 001 031 083 067 -104 069 004 -53 -53 -69 -103 -24 -74 -03 -73 -127 087 -54 013 -77 012 007 -30 -08 -116 -115 -49 -26 075 -31 -72 -80 -49 076 067 -89 091 -128 -44 095 -35 114 111 058 -85 -23 
-49 037 109 044 099 000 030 -09 -10 -87 -72 -34 -128 077 -48 -62 -110 001 -17 -11 012 000 -96 001 -41 -54 062 062 -124 -75 -45 -68 078 126 -33 -95 -110 -83 026 008 -93 000 -122 101 043 -11 -04 -73 -76 -103 086 -67 -109 089 -56 -53 -10 -88 -73 050 040 -78 -94 -107 
-83 035 -107 -03 094 -81 -33 042 066 -39 -65 -55 -118 -06 -49 -54 125 069 020 -43 062 -10 124 092 -33 -76 -02 -112 -121 084 -03 -59 -86 -126 032 -72 000 -71 -58 -17 -57 -70 -38 119 063 031 -50 -59 017 091 -103 109 -108 -114 -85 -32 016 098 -67 061 067 -24 -60 013 
045 -08 -21 034 005 041 002 030 077 085 052 010 044 069 -27 -68 106 -84 007 065 -72 035 092 113 031 -47 020 -86 106 -98 017 038 -65 108 060 -03 029 024 025 -14 -66 -62 -75 114 061 037 005 -05 003 103 -79 079 -92 -19 -63 072 -85 113 053 048 109 074 -23 -92 
038 075 -106 -12 038 -58 -46 -18 -81 -62 -69 -04 125 -04 -33 -35 -111 -70 -27 043 -47 067 -124 -80 -16 080 111 -54 121 -88 016 -21 -37 -125 -21 -92 -75 040 027 010 -12 006 023 094 -18 017 -101 -74 -02 067 032 -108 -86 062 034 034 -54 -06 -21 058 -43 -46 -36 057 
-31 057 092 -54 -13 050 -66 038 075 -73 037 074 -102 -27 000 006 -119 078 036 049 104 005 -93 013 -36 039 -19 -05 -117 -104 -83 033 -92 -62 -36 -77 -73 -02 -02 -50 033 041 113 -93 -10 -25 -86 -03 042 -75 021 -86 -104 -118 -60 007 -05 059 056 110 -99 -53 -101 -50 
-17 090 094 -73 -82 058 -17 022 -72 -80 -22 -51 -126 -82 -34 046 -111 069 -45 -25 047 -62 -79 -53 000 -63 087 096 -32 062 027 -59 009 041 069 -06 -87 020 062 -11 -57 -07 097 -102 005 057 -67 033 -76 082 -95 082 -83 116 -93 031 -21 -28 -43 059 079 -01 -56 033 
007 -01 058 -66 -86 023 -77 -37 -82 -79 -21 -14 -115 -45 037 -50 -121 038 -50 055 -79 054 -114 -06 006 -28 098 -46 -123 054 001 -13 026 125 -63 -102 057 -82 -70 -43 089 -65 010 097 -18 -13 -66 -58 033 -112 -88 091 008 -58 -90 059 -45 -106 -72 -125 -120 071 001 -36 
-74 -77 -108 -64 -04 -04 -46 025 100 052 -08 -71 -128 -04 -13 -72 110 079 051 066 040 052 -89 -45 -11 047 110 110 096 -99 -56 -07 012 048 -52 089 -58 073 -82 -27 037 -65 -123 -97 036 050 -66 -18 082 -81 065 -29 071 -106 044 056 086 069 037 -101 042 009 078 -107 
007 -85 065 -45 -22 -83 064 -19 088 077 072 064 -128 -11 -60 075 -35 -92 022 -30 -96 045 117 -94 018 014 056 112 -115 071 048 044 -24 -125 -66 -43 -17 -35 008 -02 100 -19 -95 -18 005 -42 092 -72 -29 042 -31 086 -24 -94 028 013 058 -67 010 023 -101 022 -55 042 
038 -75 -69 -56 057 -16 -76 009 083 -56 053 -68 -124 033 055 054 106 -81 028 -26 -74 -06 -92 -111 -51 071 -102 -115 -117 065 -77 -62 -88 126 043 -88 -112 043 -90 -08 042 -72 011 -75 -12 010 096 048 019 -08 029 -80 -43 -55 -69 -54 054 -112 063 -05 -109 -63 -46 051 
050 015 -105 047 -36 044 019 037 -64 -33 -53 -65 -128 -82 064 -05 -115 -78 -64 014 -31 002 124 059 -02 030 -70 -88 -124 -78 007 -35 056 125 083 -92 097 035 -61 -43 -89 -29 -74 -70 -62 007 -12 -35 -76 082 -23 020 -89 093 -44 -90 077 032 026 106 113 067 049 -07 
066 073 -109 -56 -89 070 -79 -36 -92 -18 043 065 -128 052 078 -37 -102 -57 -20 076 -57 -39 -34 105 005 -01 -04 099 -93 -13 -58 -38 -94 -122 -20 063 074 015 031 -26 -67 054 007 -87 -39 -68 -81 008 -68 067 041 -72 023 110 075 -63 057 085 003 -94 -112 -17 -90 -30 
-03 -46 106 001 -16 -83 049 -29 060 -41 070 -72 -127 054 -79 -56 -19 023 -57 -21 008 -49 121 -91 -07 -74 103 062 124 -93 -10 -64 041 125 084 -40 -91 -52 -88 003 -14 -27 113 099 -29 -45 014 010 -30 108 -95 -11 -89 095 049 -04 -31 -16 -77 097 -18 060 026 043 
-40 -30 -63 -52 -07 047 056 -16 101 024 -36 -30 089 043 005 -47 120 -31 007 -60 010 -23 075 -104 017 -10 061 088 -118 -100 014 -47 023 126 068 029 072 071 051 027 032 -21 013 114 021 005 -81 012 -65 073 -45 088 037 -109 089 -67 000 -84 042 -117 -84 057 -48 -32 
050 -27 063 078 -12 038 -72 038 013 033 051 080 -123 051 034 -22 -28 -57 -10 033 055 -59 123 -109 022 -53 -39 110 065 -15 -12 -52 -39 114 033 -84 -102 033 -42 024 -14 068 111 071 060 -53 -91 -18 015 -108 061 -76 043 083 -70 -30 003 -109 -14 107 107 -10 -94 -64 
060 -103 -15 055 028 -36 013 032 -56 014 018 -64 -128 046 -76 -73 124 069 048 -46 071 -06 066 -88 -18 -82 -60 -113 117 100 -38 -61 025 -128 035 -80 083 013 -20 013 056 044 070 -118 012 -40 -84 000 -67 083 080 -26 092 -39 -49 033 -78 -11 016 012 -61 -21 -71 014 
-62 019 -99 -07 -79 -42 -39 -13 -34 -38 068 033 111 049 062 -10 -119 059 004 -55 094 057 -10 -95 -18 -48 -116 -04 -125 006 -25 025 000 -07 -68 -54 060 -42 -16 026 097 -53 -105 079 -07 -03 -90 -18 037 -71 097 025 -99 095 064 065 -40 013 -28 -119 -14 012 038 017 
-71 -20 -61 -52 -54 029 035 029 -44 079 -54 -31 -128 001 022 -09 105 -03 -48 -08 -99 -50 -120 -13 032 042 109 -81 125 -84 008 -55 025 125 -15 083 061 069 111 001 094 067 118 090 -24 -62 -04 061 006 089 093 072 007 066 -85 012 -98 085 -28 -103 105 074 094 087 
-69 -44 105 078 084 016 009 026 -05 -44 003 -23 106 046 -29 -14 124 -11 082 -37 -15 -54 -104 -114 -28 -82 -93 042 -118 -71 028 024 -19 -17 033 019 015 -63 -87 031 018 047 -109 081 023 -13 083 -23 008 -110 050 -79 096 012 -17 004 045 085 078 -109 -88 -41 041 -83 
067 -52 088 032 010 -69 -23 027 -15 -45 -75 031 -128 028 -06 044 -115 -55 084 014 071 -01 -125 052 -26 039 -70 084 -121 -53 -27 057 -89 125 -29 -89 -88 -59 -29 -21 -22 054 097 115 011 -30 086 071 -28 040 -17 -88 -42 -93 -28 065 -83 111 -47 -96 026 -48 -15 105 
035 067 -26 020 086 034 -31 045 -23 -70 066 018 -127 -57 -02 -58 120 036 028 055 -59 -05 -122 097 -16 -68 024 018 123 -64 044 -18 076 -128 -70 -48 067 016 032 -45 -14 -15 -105 -39 -75 062 -101 026 028 -19 101 -24 -31 078 -87 -16 -26 -26 040 108 054 045 051 -86 
-42 -78 058 021 -64 004 -24 021 097 -46 -01 074 -96 040 025 -62 108 040 -13 -33 048 -48 090 118 -26 038 -06 -61 115 -19 -38 057 006 062 077 -48 -78 -54 048 -33 -96 -02 -118 -18 058 -19 -24 -24 -64 -40 -77 064 014 -41 082 -70 -33 068 014 102 -38 000 095 036 
066 105 -112 -78 078 062 073 033 -82 013 069 059 -123 -57 050 -13 -33 089 -85 002 -16 -69 036 102 016 -14 -36 -16 050 -93 030 061 -81 125 013 -54 088 051 106 026 041 023 046 -30 063 -73 -99 -53 -52 029 -66 -52 -78 -18 083 040 -24 -50 033 -120 -32 013 026 -35 
048 079 -81 -47 078 -78 -65 -22 -35 003 -33 -82 121 -77 -73 -60 -113 -04 -01 022 -36 058 023 -91 008 078 019 089 081 -38 -43 -59 -10 -120 -25 036 -23 -18 047 -37 057 -45 018 040 017 048 018 034 056 094 -47 062 -97 -104 087 042 010 108 029 -81 -26 025 -12 104 
073 -97 -69 -33 -98 016 060 036 -75 -67 040 -45 -29 054 -25 -22 008 040 054 -03 -73 -42 -126 -116 -12 -37 047 094 113 101 -17 -21 083 -128 079 -06 -81 -75 -46 040 029 053 068 -89 -49 032 103 -40 -61 066 044 029 100 075 068 -31 -10 115 -40 000 003 -49 017 -01 
-12 033 -104 041 045 035 054 -28 076 -71 014 -50 -122 053 -63 071 -109 -77 012 -38 018 -42 -04 -118 009 046 115 -12 -105 082 -12 059 034 023 040 098 074 -49 042 007 -97 -18 002 -92 070 -46 -13 025 -18 084 -39 072 095 003 005 058 -60 059 049 038 104 056 -43 021 
040 015 039 035 -73 078 065 -27 -91 -29 -03 050 -124 037 -34 -28 -126 034 072 -41 088 005 -112 055 -32 -77 -117 025 -30 -85 047 064 -67 -113 -76 058 -91 -46 -99 047 063 -71 008 083 -68 -01 082 012 -54 048 -15 -109 015 028 -96 -24 -16 080 -55 025 -59 008 -52 -19 
-01 -89 000 056 055 058 076 -14 -93 035 -35 -54 -110 070 -18 001 -116 031 -74 -24 106 -63 -110 063 005 -34 093 -63 -49 -12 057 -64 -88 -76 -26 -88 -98 052 051 032 -03 013 061 -99 -18 -37 -45 -72 027 -79 063 -97 -98 -96 061 -27 087 -09 -76 -87 103 042 078 -91 
017 097 043 -37 093 067 071 018 -71 030 063 011 -125 057 -40 014 -126 021 -23 -78 065 -66 123 072 006 -61 092 -53 -84 -89 054 -25 -94 -95 -08 087 -104 -55 085 -28 089 -26 002 051 036 012 -103 -63 009 089 044 -11 006 036 034 -47 -37 -109 034 035 -36 -35 -61 060 
-71 095 -72 002 -10 041 039 -24 -40 -33 -06 068 -104 067 026 069 -123 035 048 -50 072 029 056 096 001 037 095 058 -110 053 041 -66 070 105 059 067 107 -10 008 033 032 -35 120 114 020 037 -77 -63 061 081 -31 -83 062 116 -70 024 -80 -105 -44 052 -75 048 058 058 
005 051 -92 009 -79 -12 -68 045 077 -87 057 037 -126 -01 025 -13 011 -29 025 -53 -99 017 -40 116 -12 026 -114 -70 104 020 -21 -15 -69 123 -53 -79 090 -76 096 038 102 -19 089 080 012 041 026 042 049 068 062 -94 -28 116 078 -79 022 -105 -26 -01 -19 018 046 -98 
-51 -50 046 -18 -49 -85 010 013 -34 080 000 -15 094 057 028 045 123 050 083 063 -100 -62 120 109 -25 -27 106 -92 107 092 000 031 -71 -46 042 -100 088 -02 -69 014 000 -33 -117 058 056 -56 051 036 063 -78 071 105 -103 008 018 -55 -35 -99 033 062 106 071 -102 -45 
-73 -07 090 046 098 -64 034 058 103 -11 -45 -81 -113 -70 -35 070 -120 005 -28 043 -23 -50 125 121 -03 -20 121 115 -115 062 -02 -68 030 117 024 -63 -92 067 013 -12 037 056 -08 110 062 -68 097 -04 -01 090 050 108 -03 -21 052 064 -84 082 -65 078 -39 053 -18 070 
-46 090 -35 -02 081 -74 047 -36 -13 018 -43 -60 -58 -66 -51 050 077 036 -73 055 070 031 122 -110 -12 062 -34 -07 110 -76 050 -30 -100 -126 009 027 105 063 -05 034 -66 -35 001 096 -27 004 052 008 015 086 -90 -04 034 -58 -94 051 -62 -22 -56 120 -96 064 001 -103 
-45 063 103 -15 -80 061 -07 -39 -49 -10 -41 078 -114 -62 060 036 122 -20 052 009 035 -71 -29 095 -10 -64 -96 -73 107 061 -26 -27 -28 065 -69 -57 -106 004 -59 -43 -45 -32 097 118 012 -66 -77 065 083 105 -05 -12 041 113 -72 -51 -64 -113 038 089 -22 -15 084 -34 
-24 081 -112 -47 006 046 000 024 -03 -56 010 -76 -115 076 -27 -64 103 058 046 044 067 -01 -103 -50 003 028 -35 103 042 044 008 -23 -100 -128 043 -72 -74 -25 090 026 031 021 -110 114 -16 -67 -75 -74 053 093 037 082 067 118 -14 -90 001 -104 008 015 114 051 -105 -92 
-71 -46 030 -70 -25 -36 -34 058 025 -84 -60 -25 -60 060 042 -55 117 -92 -60 058 -66 -06 -106 110 -39 -76 052 113 101 -76 004 -56 076 -95 -69 -45 -108 -88 081 037 060 000 029 037 -34 -63 097 045 001 -95 -46 075 -79 115 070 -69 -93 -119 -83 -06 103 049 -44 103 
-44 077 107 -78 029 -14 010 -22 089 -35 -51 -29 -95 -75 -63 047 108 078 -42 -34 038 056 -110 060 -09 030 -32 032 125 -87 023 002 003 125 031 025 105 047 -85 -39 021 -55 -07 120 024 -02 -100 064 076 -38 074 -68 071 -59 -43 055 -85 038 025 023 -107 -52 -30 -09 
036 088 064 -07 -80 -67 -72 037 082 -70 -33 -63 125 -46 -34 -30 -115 010 -80 -67 040 -45 121 118 013 -56 119 -12 123 -27 020 024 -34 -64 -55 072 108 -73 100 004 056 017 115 090 -75 -38 -82 -71 -53 110 084 -77 026 -69 -79 -26 -22 -109 -34 080 -62 047 046 038 
-69 094 108 027 029 -69 059 -39 -04 023 -39 -36 -88 -70 039 -20 120 -25 -80 -71 026 066 123 -108 -11 004 -109 074 095 -75 -05 -20 032 126 084 -05 018 080 018 027 011 -15 112 011 015 013 -59 -17 071 021 015 -45 -101 -60 089 -78 051 102 073 -34 027 029 -87 -46 
071 -66 063 -64 -82 -19 027 -23 -99 015 048 -41 120 078 -12 -28 077 036 036 068 086 004 -126 105 026 028 102 -96 119 -98 -20 -47 069 122 069 -19 -41 055 102 020 -85 -72 086 086 037 -64 087 -38 -48 -74 070 080 -78 -19 -44 032 075 -71 -68 -38 -61 -16 004 -61 
-40 095 099 -22 054 -75 037 033 088 056 000 -43 126 -59 -21 048 -100 041 -57 007 -27 064 119 030 -06 -52 035 079 056 -67 014 -39 -51 -128 023 070 025 -14 035 -29 092 007 080 016 044 -26 086 -30 -68 086 085 -70 -72 058 008 -42 035 058 045 -64 115 031 -48 086 
035 -82 002 -80 -100 028 071 025 032 -76 026 -56 -124 -15 -11 049 -122 -91 -25 -26 104 045 119 109 004 -46 111 -03 104 -56 049 -36 066 -126 043 -49 -62 068 038 014 096 -21 -73 -29 000 042 100 -35 058 007 -67 -98 -103 089 -44 029 -80 -38 028 118 098 073 087 080 
071 -103 028 010 -50 -62 070 007 -29 013 -36 002 -127 -61 043 -18 -119 -66 -25 -20 096 037 125 003 017 -63 114 -100 122 060 -01 -27 -82 124 060 032 -19 -03 -21 -32 -103 -13 -118 113 062 059 -84 -68 -80 098 -07 025 011 090 008 -75 042 022 073 037 018 058 -26 -47 
-78 064 -71 -39 -77 -84 -81 -24 039 -20 035 026 099 -14 056 -50 086 -77 043 038 -101 -04 069 104 012 078 -108 -108 -104 -26 -33 034 -101 125 042 024 091 -30 -78 022 -96 -07 -121 -102 -16 054 -46 -25 -67 093 -65 004 005 095 023 046 082 -66 063 -23 099 049 -17 -36 
-36 -22 057 -68 039 -66 -10 -38 062 065 040 072 042 004 072 071 -125 -88 -72 -68 -94 047 097 050 -09 -16 -04 042 -104 096 -30 064 062 126 -63 -25 080 -54 -15 039 007 -73 -116 112 -71 -53 005 -71 -49 -108 042 006 -90 053 094 -72 -38 022 078 117 093 050 -67 004 
-59 -103 -90 042 -75 016 055 009 039 081 045 -74 069 -66 -59 069 -93 072 080 011 -68 -55 -18 -84 -12 -50 -117 014 -19 065 -06 -60 023 113 017 -39 033 -40 061 -21 -101 039 039 -105 066 014 102 040 048 116 089 080 064 -84 -21 027 013 020 -76 -118 113 046 -90 -09 
039 -75 104 -17 -58 -44 074 -38 076 -18 038 020 -25 057 069 016 057 -41 006 063 071 -57 118 058 -28 -30 112 023 -126 048 -41 -30 -71 -79 -09 050 -05 079 091 -16 -99 -42 -117 115 028 -60 -83 -47 -39 -111 025 004 -54 -102 -59 -48 -88 -113 -39 -43 016 024 -22 069 
050 081 002 -78 085 045 008 025 060 000 -36 -81 -37 -59 082 -35 067 059 -30 -74 -91 071 104 -22 -29 070 017 -52 050 -73 011 000 064 059 -08 019 104 022 057 012 043 -04 091 -99 -11 -55 -42 -75 -69 -47 019 070 -91 110 -90 -38 005 -41 -25 090 030 069 -96 -25 
-74 094 085 018 086 050 008 -22 -67 058 -35 072 126 058 -61 059 -126 083 -75 -11 -62 -42 122 -111 -07 062 -91 -52 -109 036 -03 031 075 -128 -04 040 -98 -77 -80 -42 024 001 -104 -33 -49 068 -08 -29 025 -69 052 -109 -86 038 045 -56 -35 017 -65 115 021 -68 -86 -98 
-75 099 -112 -68 000 078 061 032 090 -79 -09 -28 -125 061 081 -49 111 -88 061 047 050 -13 -72 -28 026 -44 102 081 123 -11 015 -13 071 120 -35 -15 088 064 -97 -36 -92 -46 104 002 008 063 -28 043 -79 084 -94 104 077 -92 -21 053 -43 -57 -46 080 -104 -69 076 097 
033 -87 -47 -43 -54 048 005 035 055 022 -03 -64 120 -65 -14 066 107 061 -24 047 -67 -64 122 -22 -51 013 043 044 047 -96 003 021 -49 -97 059 040 016 055 -09 001 -73 -68 084 -105 -29 -55 -93 056 -28 -116 -71 -38 009 109 079 047 -14 -118 -36 106 103 005 029 -85 
-09 073 -99 -43 -03 -26 -67 008 028 -38 -71 049 114 -77 -69 -71 124 -67 056 020 091 001 069 -117 024 -22 -94 -85 -114 -47 018 005 -77 097 013 -30 -34 -78 -99 048 -83 -06 113 -39 046 -07 097 -74 -23 -09 -79 -07 -81 -16 016 081 -56 045 -68 099 007 -72 -69 084 
025 099 -55 048 -76 058 -42 -46 -10 058 030 -68 088 030 039 -24 123 083 -67 040 101 -50 -75 092 -14 -80 085 109 122 063 037 -57 094 125 -09 094 092 -49 028 -45 -33 -38 058 030 030 -02 -14 -39 047 106 061 079 -93 -100 057 035 -31 059 -31 112 -115 045 012 -98 
-18 071 -10 -79 055 -73 -69 037 -89 -77 070 -80 -121 -30 -58 037 113 088 -78 071 -107 -41 -94 044 024 -79 112 -78 089 -27 -31 010 -55 -128 -46 -52 030 -27 086 -22 069 037 107 -51 -70 -03 031 035 -53 104 063 086 080 014 -89 -83 -52 -105 067 -97 070 060 -90 099 
-65 -79 -90 005 -96 -65 041 037 -75 -54 003 -57 125 -64 034 025 102 -59 -08 075 113 -36 -95 -52 -01 -38 -41 -96 095 -97 031 016 003 113 050 099 012 -56 028 -41 -53 061 096 -84 -13 071 -14 063 -69 054 -71 008 004 049 -50 032 015 055 024 108 082 059 069 -91 
023 -95 035 011 -95 -40 -46 -03 -46 -25 -38 076 -122 -89 -01 -79 -105 -78 -20 -52 103 -62 -123 046 -12 -76 084 -77 102 -60 009 -40 -24 -127 019 075 -87 045 -99 045 -84 -67 111 -105 -12 -28 033 020 -50 -04 -78 107 -106 007 004 027 070 -107 066 067 089 -63 -79 -81 
065 -98 -101 -62 -80 -61 009 015 -49 064 -57 009 -128 -80 -30 -07 019 039 -34 041 -48 -38 091 -107 016 -38 -28 091 -07 -35 024 -31 -44 126 -12 069 -17 051 065 044 009 -60 -113 -114 -11 022 055 -59 055 -111 078 009 -103 034 -92 027 059 -23 050 116 095 066 -66 103 
000 033 -22 -40 020 039 -46 -37 001 004 043 077 001 -34 -43 062 -104 077 036 -11 -85 -18 123 -85 -24 -83 043 111 -126 083 016 -02 060 124 021 -07 092 052 064 -05 -54 -62 -64 113 -57 033 -104 -45 007 095 071 080 091 -115 -71 032 068 041 -38 -115 -39 067 044 -103 
009 -67 101 015 -91 053 004 042 094 051 -03 -75 -77 -04 062 071 099 006 -22 -27 -78 -54 -125 -26 -19 -02 077 -83 088 -87 039 030 -90 -80 055 -45 -33 -30 -64 -31 008 -02 -96 -106 -28 069 -21 002 -55 036 004 061 073 -69 -34 -43 032 -112 049 -53 -112 -76 085 -86 
028 002 -103 -47 -99 019 075 052 010 033 -45 -50 -126 024 046 081 125 069 -86 042 -68 -51 -93 001 -17 -63 -110 114 095 -11 -23 -14 -98 -103 078 088 -88 022 -97 035 -63 025 081 104 -50 003 069 016 039 -09 085 111 -60 111 -62 -34 050 081 058 083 -52 009 -86 -63 
-51 -56 -91 -72 090 038 075 044 089 -76 061 -39 107 053 045 012 -121 062 -87 067 098 -31 113 -80 012 058 -88 -111 -120 -88 013 020 -92 -116 042 056 093 -27 -100 -23 061 037 012 114 -62 013 101 047 -02 -103 -27 -11 -93 -117 -85 051 -89 034 -04 -95 117 053 079 -87 
-29 086 -106 -09 067 -50 006 -47 -62 038 028 002 -127 060 069 069 115 055 -02 048 106 -55 010 117 -04 006 004 045 -42 -67 -65 035 035 126 065 054 -46 -24 111 010 024 053 -67 045 -37 005 -05 -02 -68 008 096 020 -02 -118 -91 -49 -16 047 068 046 -55 -09 -72 105 
056 -39 023 -58 -85 -27 -38 014 095 -35 -57 -36 -117 054 002 -48 110 -61 -67 027 -91 -56 121 -87 -53 -82 -101 -94 -104 097 -09 033 029 -73 -61 068 -77 -63 -114 -43 099 -28 105 096 031 -68 020 -54 029 083 -52 077 -10 -82 -21 -65 077 067 -22 112 085 -35 -58 -103 
-74 -89 095 070 -75 -57 007 016 088 -86 -69 074 126 -53 055 -76 -124 076 -80 -40 008 070 -86 112 -21 -10 -16 012 051 -05 -04 -25 057 -84 -11 -20 091 042 -36 -10 -28 007 115 -93 -38 -47 055 -70 -04 -04 -33 -96 069 -87 087 -97 085 -77 -53 104 -115 -33 008 -75 
-07 -60 -104 -50 -94 -77 -76 -38 034 -38 -14 011 -81 -73 070 075 -114 -70 079 052 004 010 -71 066 010 -59 -16 -101 121 039 -47 013 -98 -48 -01 050 064 -48 -06 -45 064 -62 -116 117 004 067 -105 -44 -11 -14 097 -75 043 -97 -58 009 043 100 025 -110 105 055 068 104 
-10 090 103 044 -17 068 019 -08 -07 -82 -61 -52 095 -74 032 -63 -117 012 008 081 106 -56 105 101 -24 076 089 112 -114 029 011 -23 013 121 072 040 -20 -62 085 -35 070 002 -11 -35 -01 029 -71 012 -10 039 069 106 022 -113 -80 -02 -69 099 072 100 -79 069 -76 028 
-29 -39 000 -05 024 041 001 -27 -89 -60 036 053 -86 -07 -10 075 -124 -74 079 -80 -83 -17 008 -97 -19 069 019 022 010 -68 -10 020 -03 126 -51 029 -72 -56 -96 -21 -100 018 -88 037 -73 -07 015 -08 062 -68 072 -05 048 -89 009 077 -16 009 058 117 -89 011 -26 -32 
014 069 033 -10 035 -42 028 018 -52 032 -64 067 111 002 -51 075 118 -25 -65 -32 -103 -37 -84 105 001 030 -90 -41 -117 -39 021 056 076 -96 050 -67 106 -81 -104 -15 -71 -36 050 -97 050 066 054 -74 071 -67 -77 087 -81 -104 028 038 -22 -98 075 -27 -113 -68 -08 -96 
052 023 -61 -26 -72 -70 -66 011 032 -13 069 002 -98 -54 052 -75 084 -47 086 043 040 023 -101 -98 -10 075 -105 -111 080 -56 040 -65 -88 -127 -48 054 -27 -80 047 -43 026 -28 046 -90 -40 070 088 -64 -26 071 -85 -107 -65 062 089 073 091 -42 072 023 -01 076 032 007 
-74 -18 067 -71 051 027 -52 007 -58 -67 -18 050 -115 064 074 043 105 067 074 -50 087 -53 121 -57 -18 080 111 036 118 -83 -31 -16 097 111 -10 024 039 -57 007 -44 091 051 117 -119 -04 -19 029 002 032 -01 003 -05 -10 034 -06 041 013 -68 -03 -116 -76 073 049 085 
-53 -110 -16 036 -50 -36 -66 023 049 020 -65 -48 -76 -66 -10 010 -124 040 006 084 100 -64 121 -108 -52 019 -114 -114 -107 -74 -69 -06 080 -99 -23 081 037 024 -91 -43 -91 -39 -75 -88 026 -35 -100 -78 058 -47 -51 -107 -20 -117 -59 -05 091 108 050 087 076 071 021 -103 
-03 092 -101 043 081 -52 -77 001 099 -19 -56 -81 088 014 076 -55 -69 084 -60 054 077 026 115 091 003 081 088 111 -22 -98 045 -66 -65 020 080 034 -103 -68 -99 019 -31 033 -120 104 -53 050 065 048 076 042 -87 012 059 115 -83 -82 043 -24 -16 119 003 -16 -40 -96 
-65 108 -59 -67 096 000 -32 008 -70 030 026 -38 -120 020 077 005 109 086 047 073 098 -35 -119 080 024 -65 -67 035 106 094 007 -08 067 124 -63 086 091 -06 110 -04 -20 075 101 -29 -22 057 -47 055 088 095 078 -114 024 -105 -60 -17 -71 -71 -48 -102 119 077 -85 097 
065 045 -100 -05 015 -41 -20 009 075 037 040 -07 124 -68 -39 -53 -111 028 -81 076 -58 -39 115 -66 001 -07 065 111 -119 -86 -67 -59 -77 -76 052 -21 -75 001 051 -38 -48 -46 099 -04 062 -57 088 -20 062 053 028 071 -43 102 078 -81 085 093 -12 001 -29 -13 -48 075 
