126 -127 126 126 126 -127 126 126 094 -128 -128 -128 -128 -127 126 -128 -128 126 -128 -128 -128 -128 126 126 126 126 -128 126 -128 126 -128 -106 -121 126 126 126 126 -128 126 126 -128 -128 126 126 126 -128 113 -128 126 126 -128 126 126 126 126 -128 126 126 126 126 126 -126 -128 092 
117 -128 126 -128 -128 126 -127 -128 -126 -128 -120 126 126 126 124 126 -128 -128 106 126 126 -128 126 126 126 126 126 101 126 126 -128 126 -77 126 126 -128 126 126 124 126 126 126 126 126 -128 126 126 -128 126 126 -127 -128 126 126 126 126 -128 -128 126 126 126 126 -107 126 
126 126 126 -127 126 126 126 126 126 126 -128 -128 126 126 -128 126 -128 126 126 126 126 -128 126 126 125 -128 126 -128 -127 126 -118 -128 -128 126 126 -127 126 126 126 -128 -128 -128 126 -128 -128 126 -126 -128 -128 126 126 126 -128 -127 126 126 126 125 126 -128 -128 -127 -126 -128 
-128 126 126 126 -114 -128 126 126 -127 -128 -113 126 126 126 126 126 126 126 126 126 126 -128 126 126 126 126 -128 126 126 126 126 -128 126 -128 126 126 126 -128 -120 126 -128 126 -128 126 125 126 -125 -125 -128 126 126 126 126 -128 -127 126 -128 126 -126 -128 115 -128 126 -128 
