038 118 114 110 097 093 065 035 -120 020 -47 096 087 028 082 097 -45 -88 -10 048 052 -72 -76 026 077 -03 -75 -44 108 093 061 068 058 -100 084 -41 026 -108 -64 -108 011 092 033 097 037 -107 -60 108 072 076 -102 062 086 086 079 092 029 059 108 058 093 -108 -76 076 
080 091 085 -72 -44 029 -113 070 085 -83 089 -65 086 036 046 090 110 081 -128 092 083 094 -110 -117 048 068 093 -113 100 036 099 100 043 -26 -31 102 088 -52 067 068 116 010 -94 036 067 099 086 -36 -47 -73 051 073 102 113 094 -113 -52 -109 055 084 110 097 075 025 
044 -90 027 091 112 -112 086 -86 060 082 056 113 046 026 086 069 078 109 072 -101 099 054 -81 074 086 112 -32 -41 -126 101 086 -64 091 098 077 086 108 075 010 057 -75 107 -42 -07 092 110 105 101 099 -96 036 114 117 087 070 086 052 100 015 094 020 -65 067 -02 
-113 089 098 058 -19 -10 -110 075 -11 083 112 082 057 073 -35 -77 058 -79 -67 -60 078 040 090 -57 090 -80 091 -89 -23 -113 -82 -15 -65 070 064 093 089 075 103 068 009 -102 103 -50 -36 113 -05 -46 074 -56 078 065 -19 -49 073 -73 054 -48 -12 079 047 111 096 -35 
