121 123 124 126 -128 -81 -128 125 -128 112 126 -128 072 126 -128 -128 126 124 126 -119 109 031 125 036 -128 126 -91 -128 084 124 108 118 -116 -36 054 125 046 054 125 126 -21 019 123 125 -125 080 126 035 -128 -124 079 -128 126 -128 126 -98 122 126 -128 126 -122 126 -124 126 
124 123 028 126 126 111 -62 -117 -128 125 -128 -94 120 -127 -123 103 -128 125 072 -116 -122 -128 -117 126 -104 -116 124 125 124 000 122 -105 -124 091 125 -91 -77 001 120 -34 -21 126 -126 -28 -128 077 -116 -128 121 081 114 -126 -74 058 126 086 112 -128 -128 126 013 089 -75 126 
123 -120 052 -62 -107 123 -128 -123 126 -122 126 123 121 -128 -128 -108 -94 115 121 126 116 099 -128 -128 082 -05 124 059 -103 -22 106 -34 111 070 -59 088 125 074 -91 126 126 114 -108 -126 -128 -92 -12 052 116 119 015 -100 126 -127 126 117 -128 067 126 126 -126 -75 -49 -52 
-127 -126 106 126 011 075 126 022 -24 064 -128 -119 -116 -126 -128 010 -92 121 -48 124 033 -128 082 126 -128 117 -123 101 -120 016 123 066 -33 093 027 -12 -124 -79 097 014 -128 -124 122 -128 -128 110 126 -85 -03 -128 059 -128 099 107 -04 -123 126 008 126 126 012 -125 -98 -128 
126 124 086 -122 126 -127 126 125 075 126 -128 -128 110 -73 126 126 126 125 125 -126 110 -128 123 -128 126 121 122 -128 125 -124 102 -106 -57 126 -79 116 -46 -123 121 -128 -128 126 -128 -128 -128 -60 126 -123 104 126 120 084 115 -120 093 032 -124 126 -92 -128 -120 126 -128 -128 
082 -85 094 127 -126 117 -128 114 112 -128 -128 -125 104 -126 -128 -128 116 -127 -117 115 124 -112 -118 -127 -123 102 -123 -89 -126 124 122 125 -102 116 -95 -124 -124 108 034 -127 -127 117 126 126 -128 117 122 -92 050 126 -122 122 -128 126 126 -120 126 123 123 -92 -116 -120 126 126 
125 -106 120 -51 -127 -119 -126 -127 -128 126 -127 126 -119 052 -128 -128 -108 -82 124 124 -124 -128 -127 125 -04 -125 016 104 121 -127 113 -111 119 -108 099 -27 -19 113 116 126 -126 060 -52 -128 -121 -117 077 103 -104 -128 108 123 126 126 -28 -21 125 -128 -128 126 -125 -110 -127 039 
-128 080 070 092 -128 126 -128 105 -128 126 126 -51 -78 -128 121 -128 123 -126 -127 124 -11 -27 -127 126 126 084 124 125 -128 -127 117 119 000 111 -124 -127 113 -121 -67 -70 126 115 026 123 126 -117 -128 011 -121 098 -124 -127 102 126 087 -123 126 125 124 126 -27 -128 -125 126 
122 123 -73 -128 126 -79 -128 -125 -98 -128 -127 -38 089 123 -128 -128 -128 -74 -126 126 124 -128 104 -128 126 -71 116 -42 126 -65 -114 108 -106 111 -59 -106 088 -86 -104 -59 -119 123 -128 122 124 112 -128 -123 111 126 -122 -128 120 -126 126 038 115 125 112 124 069 -120 125 -96 
-65 071 118 124 125 -125 117 -88 126 -111 120 -124 068 126 -122 124 -128 -102 -128 -128 092 -125 126 -128 -126 119 105 -03 -128 125 121 -128 -108 109 087 080 -128 102 -27 111 -123 -106 002 -128 -126 123 126 095 -21 124 -126 126 126 126 -128 092 126 -128 -128 -127 115 -124 -107 -114 
117 020 115 -115 -128 -127 126 125 126 126 115 111 -01 -128 -128 -127 101 -88 -122 067 -49 126 -30 126 -105 -124 -127 -112 -126 042 -127 030 -125 -63 -126 -52 112 -120 -104 126 -128 -128 -106 126 124 093 126 -124 075 -62 -117 -128 -119 126 113 077 037 -32 126 -128 -104 -119 121 -128 
125 -125 121 -126 125 -110 126 124 125 126 126 113 059 110 -128 -127 -128 -117 113 126 -94 123 -123 -127 -116 -121 -107 126 126 -126 125 123 -120 123 -105 125 -119 104 -117 119 123 090 -128 126 126 021 -107 -99 -127 -104 123 126 040 116 -116 099 -120 108 -128 041 -11 123 -110 124 
098 -66 087 126 111 -70 108 -120 -107 115 121 -128 -97 126 125 126 -127 121 -117 112 123 044 -70 126 125 -128 -102 -42 -128 -127 102 -111 -116 -26 -127 -54 126 -121 -128 116 -128 -27 -110 126 122 041 -128 -108 124 -128 022 098 126 126 -128 -51 093 122 -107 -128 107 126 -126 -125 
107 101 075 -128 125 108 -120 -127 114 126 066 108 -50 -125 124 -128 126 072 -118 -107 118 117 126 123 126 120 124 -58 126 -107 076 -90 -124 110 092 124 -126 115 123 -119 115 -119 -127 122 -115 125 119 -125 -05 -35 107 -123 -127 -127 104 -114 126 -127 124 -121 028 126 050 124 
-117 -125 -94 123 126 126 126 -74 -128 -65 -127 -98 -98 052 120 126 -128 -125 -107 096 080 -128 -128 125 126 -69 -35 126 -127 -43 113 -127 118 -79 -125 -120 -128 -124 -128 -62 -122 082 076 -03 -128 -119 -128 121 -55 -128 122 125 -106 126 -127 -88 118 004 126 126 -124 052 099 -128 
-106 -55 -123 126 126 -104 126 089 -128 126 050 125 097 126 -124 126 -128 112 -62 126 -117 -128 067 -128 120 -35 125 125 126 -123 -04 063 013 109 125 -106 -117 -120 -115 126 -95 -112 -126 123 120 097 126 064 -128 -121 083 -126 -126 -128 113 114 066 124 126 110 -127 126 -77 -128 
126 112 089 -115 -128 126 126 115 118 126 -126 -121 -118 111 -127 107 -111 111 119 120 115 -03 116 126 -117 -128 107 116 -128 122 -127 -114 124 062 -128 124 104 -09 125 114 -107 -128 063 -128 -128 116 086 112 -83 -128 -127 125 -128 097 126 112 -78 126 126 -57 121 -123 100 -99 
091 086 -125 -121 -125 092 112 -118 126 -128 -127 099 008 -127 -104 113 111 123 012 045 -84 -106 125 -128 -128 -52 -80 126 -64 -126 097 122 122 083 124 -127 122 -125 -123 107 126 -28 088 126 -127 124 126 -125 -18 109 109 118 -127 126 -128 -42 114 -127 -128 120 024 126 123 -125 
126 -125 114 -128 -127 126 126 -121 126 -93 -128 -67 034 123 -69 113 -125 -118 105 123 -118 124 -75 -33 125 -128 -77 -64 126 -112 -125 -128 113 -70 123 -127 061 041 104 126 126 067 126 125 121 107 -123 -127 -79 -128 125 104 -126 113 126 109 125 120 -128 -16 -44 126 048 119 
092 022 061 110 109 -126 106 081 126 125 -122 -104 -82 -128 126 -128 126 118 077 070 108 126 -127 -20 122 075 -124 -119 122 -52 -120 -126 -125 -121 -92 103 091 088 -99 121 -82 126 021 -111 -122 028 -116 -126 123 -128 -68 -122 126 126 100 121 -128 -127 -128 -126 -108 125 026 126 
125 086 116 -128 -59 -128 -68 100 064 -31 124 -103 -52 126 -117 099 117 -119 124 -83 025 -114 124 126 -116 -128 120 -128 -128 -126 070 -126 -105 -126 109 -39 082 049 125 110 -70 -84 124 -128 126 097 094 -104 120 091 043 091 -97 026 -128 -19 120 -24 113 -128 125 105 -128 -128 
-127 119 117 -128 122 063 126 -122 126 113 126 121 121 -127 126 115 126 092 025 -127 106 126 126 126 126 -90 105 -38 -115 -124 097 109 -117 124 -122 -125 125 106 -126 -126 126 -109 -108 -128 091 114 -103 -119 -124 126 118 125 126 -128 -95 -113 119 122 124 090 -117 -128 -37 126 
126 097 023 -128 123 121 120 -127 -128 -37 082 126 -126 -23 126 -128 -128 -22 -108 122 096 126 126 126 126 112 -102 -128 -127 082 018 091 107 123 -60 094 121 -78 -58 111 087 -126 125 115 126 119 -105 -104 -123 124 -126 055 -128 084 -122 -121 -128 062 121 107 -127 -128 114 126 
-128 -127 052 124 -127 108 123 072 121 -128 126 090 067 126 110 126 124 126 123 -128 110 125 -65 126 -128 125 -79 -128 126 -124 111 113 -126 111 -127 -126 -85 -119 -29 126 126 049 -112 125 -128 122 -128 -12 039 069 -55 -128 126 023 -128 118 -128 126 123 113 019 -128 -17 -124 
123 088 -118 126 036 -126 126 125 106 -128 -128 -128 -100 -43 020 119 -13 -107 -127 126 121 -128 -128 125 119 -128 -123 125 -128 -22 123 -117 -113 125 103 -41 125 071 -128 077 -128 123 -54 -128 -107 -95 126 -104 -103 126 -22 004 067 039 117 118 -95 096 126 126 -32 -118 -47 126 
041 126 -39 -90 -122 -112 -128 -73 076 126 126 101 -12 126 047 -128 -126 082 074 -110 105 126 112 126 -128 -128 055 121 -128 113 -120 -28 -127 -128 -125 -128 099 101 -128 -81 095 124 105 -128 -128 -30 -128 125 103 -128 092 -126 -122 110 073 098 -116 125 121 -128 -124 -128 -119 -128 
-104 -125 -122 -109 126 124 -120 092 -128 -102 117 108 -126 084 123 -128 126 116 126 -100 -121 126 -128 123 -60 -128 070 -128 126 -125 -127 -119 -126 114 126 013 094 121 -126 121 126 122 115 -126 124 -61 -89 073 100 -128 122 030 126 126 -61 -80 015 -126 126 -127 -110 -128 -113 126 
-128 -89 -64 125 -122 -117 -128 -75 -14 -127 -109 -126 -107 112 -128 -71 071 125 117 126 094 -128 -125 -106 103 060 071 118 -128 097 100 126 119 094 -125 045 111 -126 125 126 -117 075 122 126 -128 -103 -128 -95 -126 -128 043 126 -16 -126 123 -101 126 037 125 126 125 017 -82 126 
-128 -105 -121 -65 126 104 -125 092 001 -105 088 125 -79 -128 114 -75 -115 124 111 -113 079 126 125 088 -128 118 124 -100 -108 -03 028 -125 -31 116 -108 -31 125 -125 -81 120 -128 023 106 126 126 -115 125 125 -124 126 085 112 118 126 -128 -84 126 -128 124 -128 121 080 126 126 
-47 -126 124 -128 116 079 121 -124 -128 126 -128 -127 071 -92 103 -128 126 -58 062 -126 -44 126 124 -115 -111 126 -91 -99 030 -127 125 -127 -118 -23 078 -91 116 -116 -48 -128 126 122 -126 -118 -127 -82 104 -111 -126 126 -94 -128 094 125 126 -14 -128 -128 126 -01 054 071 -118 -127 
-25 125 -75 -128 -128 -115 126 118 -128 -101 126 072 -83 126 -128 126 -128 023 -125 -128 -125 -113 -128 -128 126 126 036 104 106 -103 -127 -126 096 -89 -122 -119 -84 -64 109 126 -77 117 126 126 126 067 123 -128 -117 023 064 -122 126 -126 057 113 -119 126 -128 126 -111 126 -99 -128 
126 -80 -100 126 122 123 -127 124 006 052 120 111 123 -113 -127 -92 -128 -120 123 -126 123 -128 124 126 125 082 -123 125 121 064 -127 -127 120 124 -127 061 103 -123 121 -128 106 -128 -43 125 124 -124 126 -64 125 037 084 126 126 126 -124 -48 -128 -90 126 126 119 107 126 117 
-128 -127 -126 -128 -121 -125 -128 124 -122 -128 124 126 -122 -128 124 -128 126 125 114 -127 123 -128 -128 053 -126 -128 111 -126 124 126 -95 098 -106 -124 -118 122 126 -108 -92 125 126 -126 -127 -128 125 -20 -128 121 -104 -111 -126 -120 126 126 124 -86 -93 083 -127 -127 111 -128 125 -106 
069 -125 -123 117 -128 -66 126 071 110 122 -124 064 -45 126 124 -121 -128 072 -127 -103 119 -114 -125 123 126 -128 119 -128 125 -99 095 -124 082 094 123 033 126 -124 125 -128 -67 058 125 093 -127 -84 120 008 -127 -128 054 112 -68 -120 123 -108 -128 126 126 126 -126 -117 120 -128 
114 -63 105 -128 126 -121 101 122 125 -115 112 -128 080 126 049 121 -128 125 126 088 123 126 121 -118 064 -121 119 -124 105 115 119 123 119 092 125 -118 076 119 112 -115 112 -90 -42 126 -109 -03 068 -127 -119 -110 -112 -128 065 126 126 -45 020 091 -128 126 -59 005 -117 108 
-128 039 -117 -128 -06 126 126 -125 125 069 124 125 -118 092 -25 124 -119 -125 124 028 100 104 009 126 -45 095 -125 -128 126 -66 124 -121 -115 100 126 116 125 -112 124 -128 064 105 -111 085 114 -53 -97 -123 025 -86 114 125 108 -123 126 -83 -114 -128 -123 126 122 -128 125 -127 
095 -88 -122 -128 126 126 117 108 126 -127 126 -128 103 123 -119 -128 -125 103 126 126 -89 -127 -58 -123 -119 -125 125 125 -127 -56 -127 121 008 121 -126 024 126 -79 099 -128 126 -09 118 -128 126 -111 -128 105 090 -128 116 126 -128 -128 126 -106 -128 121 126 031 -39 126 -128 -112 
098 122 -91 119 -26 018 126 -39 118 -116 -121 -126 115 -111 -123 -102 126 037 125 -128 -16 -39 -63 126 -113 126 -122 -106 -91 -125 -125 125 -124 -124 121 101 110 055 009 123 126 -73 -128 -128 -121 114 -116 -27 -108 126 -114 103 -123 100 -51 010 126 -127 -128 040 -119 126 -112 126 
-128 -104 -59 125 126 126 -92 099 115 036 -116 -84 -101 -117 -128 112 042 124 -109 124 -123 -121 105 -120 126 125 121 -127 -125 -125 126 -125 -114 113 078 -127 083 -24 -128 -119 126 -76 -127 126 -59 114 078 125 -87 126 040 126 126 -128 -117 -122 -88 069 -128 -112 -91 -127 111 126 
124 098 121 126 -125 -118 126 -99 126 123 -118 126 -115 124 -122 125 126 -75 -128 126 125 -123 095 126 126 125 -123 -128 100 100 -128 -127 -125 -127 126 072 -124 -120 025 -128 123 119 -127 -127 -128 -103 -128 -124 -127 -110 -79 126 -127 -126 119 121 -94 -128 -118 126 -80 125 -116 -128 
-95 -35 -114 -128 126 -119 -106 -05 -128 -113 112 110 -101 126 -28 125 116 075 117 126 -55 126 -128 098 -128 -128 -123 126 -100 -104 -98 -71 -118 -127 113 -118 -22 032 125 126 126 125 -55 126 126 103 126 -08 -49 114 074 -21 115 121 -128 -111 097 094 -121 -53 111 115 -125 123 
-128 083 083 -128 -128 120 121 -66 125 017 -49 099 056 120 -127 126 126 123 110 -128 123 -125 126 126 099 122 108 -120 126 121 -123 -120 008 121 -127 124 126 115 089 103 003 124 113 -128 -128 026 -128 018 -101 123 050 123 -126 -100 -122 -75 -128 -114 126 -128 006 125 077 -128 
-128 -68 -38 -116 122 -115 -126 -124 126 126 126 -36 -112 -125 109 103 -113 115 -04 -103 -94 126 -128 -128 -110 116 -01 125 123 122 -126 125 -45 056 064 021 -127 075 -128 118 -128 125 118 123 -128 -91 126 -127 -126 115 -26 -128 -128 086 -37 119 053 -16 -128 -128 -127 126 -05 121 
-127 -103 106 124 126 -123 126 117 -128 -125 -128 -127 125 -128 126 -100 126 119 -49 -127 -125 126 -128 -128 125 -119 092 -128 126 -109 -121 011 109 -126 -120 -128 -118 079 122 126 126 -127 -124 -124 121 -60 126 -117 -127 126 102 115 -128 -43 -89 122 126 126 126 067 064 125 -126 -128 
124 -120 -115 061 125 101 126 123 125 -128 126 -127 033 042 -128 104 -124 -127 126 -118 050 119 -128 124 -128 126 124 -128 -128 -124 103 108 094 -58 -127 -55 122 -125 -107 -124 -128 096 -126 126 058 -95 -94 096 -52 -124 121 -128 126 123 112 025 103 -128 126 -128 123 -128 -116 -94 
125 124 -112 079 -124 089 -128 106 -118 -103 -128 -119 -125 126 122 120 -128 -109 098 126 120 -78 121 -120 069 -113 -126 114 -128 027 -127 -128 -126 106 120 -124 123 036 -125 126 -128 067 -120 -109 104 -123 126 -77 -127 -33 113 -112 -128 126 126 118 125 -126 126 -68 -126 124 -110 117 
124 107 -83 126 -128 -70 125 106 124 -127 126 -128 061 126 124 -09 -125 -117 122 022 -104 126 126 121 126 126 124 -128 126 124 -127 -127 -100 060 -122 -111 -98 079 -17 -128 -128 -96 126 125 126 116 122 126 124 117 -125 126 126 126 -128 078 124 110 -124 -128 -126 119 -73 126 
-90 -127 059 124 126 -128 125 124 126 126 -97 125 -41 126 090 104 105 122 126 -104 066 001 019 -126 -120 -128 -49 -128 -126 -125 118 101 109 -75 -126 023 118 -124 -62 -128 079 -128 -48 126 036 070 085 125 058 126 -123 126 106 064 -128 -123 124 -126 -119 -128 106 -128 -127 100 
-106 120 111 124 -128 -128 126 116 -124 098 126 100 085 126 126 126 126 -114 125 -54 123 -36 126 122 -127 122 -91 -128 125 093 104 -127 119 -122 112 -127 -123 -32 -128 122 126 122 118 126 -128 -83 -126 -128 125 125 059 080 126 126 -128 -97 126 001 126 -128 -77 -128 096 -128 
-64 063 -103 -108 126 101 126 -117 -128 126 -121 121 -35 061 125 -127 126 -95 -28 126 -113 126 -128 -128 -124 -125 125 126 110 126 049 113 050 -122 063 -121 112 -126 -126 -128 -128 -116 -93 -118 125 089 125 -127 087 -116 -45 -127 067 -108 -128 119 -128 015 -106 -108 -69 126 -125 -125 
-128 -12 -122 -122 064 -128 117 119 124 102 111 -128 -08 -124 -110 126 117 -45 126 -99 117 121 120 126 -128 126 115 -70 125 097 -99 -126 -125 -124 -122 -72 125 -28 -128 126 -128 -120 094 126 120 -84 -118 125 122 126 122 026 -128 -73 -128 -119 -127 -34 126 -127 -127 -128 125 -128 
107 -112 049 -118 -126 -127 -115 068 126 126 125 -122 035 -64 126 -126 -126 -88 -127 084 -17 -103 123 109 120 -126 124 -127 -101 033 -120 120 123 122 088 124 126 088 125 125 126 102 075 126 111 -05 125 -128 -128 126 070 -113 -128 -128 -88 018 -117 -128 114 -128 -79 -128 -106 -123 
121 002 -118 -50 126 -124 126 116 -83 126 -128 121 115 045 -128 -95 126 032 -126 -128 072 126 -23 -111 -128 -23 -84 -128 126 124 086 008 124 093 123 116 -120 -90 -127 106 074 125 125 126 -128 082 -128 -52 -108 122 -85 126 -112 -128 -103 035 125 -128 -128 -128 071 -128 -51 -127 
125 -128 108 -82 -128 125 -125 -118 -128 -128 119 -124 -56 117 126 -45 -124 097 033 057 112 -54 -120 126 126 126 -27 -115 126 070 -127 125 -04 088 126 117 120 107 061 086 045 -124 126 126 125 083 -127 -89 -128 114 -121 125 126 -100 126 087 115 125 125 126 118 106 125 -128 
124 035 -126 126 -128 -97 126 104 -121 -16 081 088 109 -128 -118 126 -127 -26 -73 -128 062 -127 108 -128 -82 125 -61 124 -128 120 126 -90 021 117 -120 -40 105 -117 125 126 124 -23 124 115 104 124 -121 125 -127 -127 108 -127 -128 -01 119 -124 -128 -13 126 -128 124 -84 -11 -126 
124 123 117 126 126 113 -128 125 -110 123 -128 -118 -117 -128 -127 -128 -127 -52 123 -128 116 -122 -125 124 110 126 125 111 -128 -81 078 -80 -125 -112 -125 -48 094 116 119 -128 -123 102 -117 126 126 114 122 -66 121 -104 125 -128 -127 104 -128 110 -127 122 -120 085 -121 101 124 126 
069 -102 -119 -60 -128 -126 071 076 126 -34 125 125 116 -126 -128 -114 125 115 110 -59 067 -125 001 -109 126 123 -106 -128 -27 -107 069 113 125 124 106 -106 126 -102 -61 123 -128 126 105 107 -128 033 126 -112 022 -31 -117 -49 -128 126 -128 000 124 -102 125 -23 -105 123 -96 -49 
124 -98 067 -53 -128 -123 098 118 -128 126 126 -128 -59 125 -65 -125 124 -14 -116 126 -127 125 125 076 -51 -128 -19 123 -11 -126 124 -88 091 -04 041 -72 122 094 -125 -120 -127 -121 008 -66 039 111 126 -95 108 -128 111 -54 -100 -05 124 -117 117 -95 001 -100 124 -128 126 -85 
-128 050 121 126 -128 120 -122 -121 -119 -128 119 122 -123 126 126 126 -116 123 103 118 115 -128 -119 -128 -124 -117 112 -115 126 -117 081 106 109 -96 -20 -127 125 074 -127 126 125 126 -128 -124 -128 119 -128 115 125 -118 113 126 126 109 -125 121 -120 126 123 -64 -03 126 120 122 
126 -123 109 -105 -128 113 -128 125 025 -117 099 123 -125 -128 -118 124 -128 -118 121 126 125 126 -126 -120 126 119 122 121 126 -126 -120 -126 -75 053 068 103 -127 -126 114 -106 -127 125 125 126 -72 -30 123 125 124 -125 -127 125 -102 -128 -128 109 -126 -127 126 -84 -98 124 061 -122 
-80 024 -67 126 122 -128 -126 -98 -99 126 108 -119 -109 -128 126 123 -128 -123 -128 112 056 126 116 119 121 -120 125 -127 126 -52 -128 -127 125 126 -32 -97 -121 107 -02 -28 -128 -30 -128 -47 124 -119 115 -124 122 -09 -121 126 120 -124 -76 -105 -91 -04 126 -40 014 126 075 -88 
-122 111 -37 -124 -128 094 126 -126 126 126 117 107 102 -126 126 077 -128 116 -97 -128 -74 -128 -50 126 126 124 -127 119 105 -07 -122 -99 -105 123 077 -125 125 124 -128 108 126 069 110 126 -96 123 -128 125 026 -124 -125 121 122 125 -128 -46 -128 -128 056 126 124 -128 -31 123 
123 108 -121 -128 -119 126 -119 113 -128 -127 126 126 -126 105 126 -128 -93 -128 -101 -128 -39 -128 116 -124 -128 126 -124 -128 126 094 118 117 -85 -79 -128 -127 039 -120 -89 -128 120 -126 077 122 -105 112 -126 113 -127 -117 099 -127 126 -125 126 103 -125 -128 121 126 123 -128 124 -51 
-108 094 077 -128 126 -124 -128 -82 -128 -128 -126 126 -126 -128 123 -118 -58 103 -128 124 -94 126 119 126 116 -128 -84 025 126 120 125 126 124 -125 -128 123 120 081 095 059 126 -65 -124 126 088 119 125 124 078 118 119 -128 124 -125 -128 120 051 -106 -125 -128 082 -108 -121 126 
