098 -92 093 -13 -44 -77 102 -116 116 107 091 -102 -106 -59 078 -91 111 084 -106 114 -87 -127 097 -117 102 -66 124 -118 -55 118 106 107 051 -101 095 118 121 124 114 123 102 109 077 -109 124 -126 -67 119 -81 -70 -19 103 108 017 039 -90 061 -108 -112 -75 114 126 -120 122 
126 -110 102 119 115 -74 -76 -112 -75 -104 -107 -94 -123 112 112 120 -64 064 110 -05 107 117 092 115 -124 114 119 022 121 106 114 041 -60 -117 110 -10 -122 121 112 111 057 066 119 110 117 079 114 -111 117 -67 102 121 -80 -119 -116 111 093 -49 003 125 -93 110 127 073 
-21 -97 -89 107 -40 109 -106 -104 108 -09 -86 -122 124 002 -111 089 086 -81 -123 106 024 063 091 124 114 118 109 -99 -68 -105 121 093 071 103 -111 123 111 118 084 118 114 089 117 110 120 123 -44 -65 -120 122 095 095 122 -113 117 -05 115 101 025 119 -108 -70 -30 -108 
104 -121 -26 -34 118 118 124 -85 058 034 126 116 -08 108 107 -72 122 120 -62 081 115 122 056 092 -114 118 038 124 065 117 126 -47 105 -126 066 116 -54 121 -127 125 107 109 069 104 100 -39 107 -74 -116 120 114 112 -59 109 120 111 -99 -36 -77 109 106 109 000 -118 
093 099 126 -102 -127 -02 -127 -85 041 -120 060 057 -120 -97 120 117 117 089 102 097 -109 -69 122 -114 -127 -70 094 122 028 -112 -35 -51 -126 -125 098 084 -82 -121 103 -87 092 -09 -113 123 -122 121 -39 -06 -70 -87 068 -77 110 -58 -109 -94 115 109 -115 122 104 -102 125 -115 
115 -92 -114 123 117 -85 104 -84 124 113 -112 -37 123 -15 -86 120 -01 124 -120 -113 -112 -86 -40 -114 -31 -104 111 065 035 121 110 070 -11 079 -108 091 049 -124 104 106 108 -106 -114 -115 103 -119 118 099 -103 096 112 -90 118 -67 -78 -111 086 -124 -68 108 -104 -111 093 121 
119 048 -94 -79 022 065 -65 115 120 101 124 -112 094 099 102 -92 113 -62 -113 091 126 038 118 -106 -128 111 -107 100 120 -122 114 111 082 -86 -124 118 102 070 121 123 125 126 -105 -115 120 126 -52 122 125 052 099 116 079 102 079 -01 068 118 110 -111 119 099 -57 -66 
015 117 123 118 -101 -123 107 -119 125 -94 -15 123 -118 125 -70 -112 118 115 -30 112 -109 -116 -108 -102 107 116 -126 111 -114 113 102 043 115 -121 119 -64 046 121 -113 116 120 -25 115 120 -125 -76 -128 -127 114 -77 -118 -115 -125 086 -107 110 104 115 126 095 -113 -127 116 039 
