-106 -127 -105 038 099 -116 -103 099 125 109 126 126 095 -115 126 -118 126 -68 122 097 -128 -110 117 043 -08 -63 -128 104 -127 -46 -128 100 049 120 -93 122 123 122 006 -49 -81 -86 105 126 090 -98 -98 -67 -121 -128 -108 -87 126 -128 -97 -128 -90 -87 -124 -53 074 -122 113 -113 
-64 125 -128 126 071 105 075 017 -125 -73 126 -110 -56 -126 094 031 118 -108 044 -100 112 120 120 126 051 094 034 -127 106 -127 126 -35 -104 -118 096 124 -13 124 -81 -128 -85 124 -49 126 -117 103 045 100 125 098 -118 034 120 -128 -123 069 072 104 -121 123 -62 -116 -12 054 
117 -56 125 087 -34 126 107 -55 121 076 107 -127 003 123 -125 -128 -13 125 092 083 -128 126 -124 123 -126 -23 -128 -119 125 045 -128 118 -115 -46 -102 107 059 -128 124 125 -128 011 -125 -126 125 -88 -23 120 -61 -127 082 -75 126 123 -127 123 -127 075 -118 -125 123 082 -112 -98 
124 -125 -128 -125 -82 102 -76 122 -49 112 122 -101 -118 106 -107 090 -128 -127 -125 -113 -68 100 -124 124 -112 057 -113 108 -115 111 -128 -48 -54 -119 109 -124 -95 111 125 119 079 -117 124 126 -127 068 -128 069 120 -128 124 078 112 119 -126 -96 -48 125 126 -117 -105 121 066 -119 
101 -121 -128 -114 -90 -99 -110 011 -94 104 -125 -126 073 -113 -38 021 -109 123 066 111 -128 -67 004 115 085 -32 -127 124 -117 -86 124 -120 -113 083 093 -45 062 -37 114 -128 -124 -109 126 -52 121 105 081 -126 095 120 088 -80 083 -108 126 -123 116 079 126 103 126 -23 048 -63 
-35 -123 116 120 045 -127 119 103 113 -73 121 119 081 -68 119 -127 -127 -127 -103 -23 -128 072 126 126 107 012 -125 109 -103 123 125 124 -118 -121 126 -127 -53 -56 123 121 122 -127 -91 074 -44 -19 120 126 -127 -75 -119 121 -128 107 -128 -58 -125 123 118 -52 124 121 048 -94 
102 -98 120 124 109 -120 027 111 -124 104 -110 -05 102 120 126 112 116 -91 -97 -114 -93 -117 -124 -108 -118 -66 121 -114 126 -126 126 -117 -55 -125 -120 113 -110 -122 043 098 -107 -125 -122 -118 -117 120 -125 -115 -122 -61 100 108 -109 118 -127 -127 125 -64 -112 -70 -124 015 -109 116 
-55 109 126 104 032 -112 -86 -121 117 120 092 102 091 -124 126 126 126 126 -123 059 -128 -56 -62 -121 -126 100 096 -127 -128 123 126 -41 020 -107 099 -128 -18 -116 019 -123 123 -128 -93 -110 -101 -99 -127 -120 -122 116 118 118 -51 -128 107 072 -124 122 -115 081 049 -61 -76 119 
086 080 -128 125 117 -121 084 -125 -43 074 113 -126 -89 115 126 124 -39 -122 -119 -27 -128 -119 -12 -125 059 -102 -110 109 -125 -109 121 -128 119 003 119 -128 -63 -107 094 118 -113 -126 -79 -128 073 -70 069 121 126 -128 126 111 -123 060 121 123 125 -125 041 124 122 101 -87 123 
-105 102 115 -127 069 -77 -116 -87 122 -101 097 116 -69 117 -46 126 125 113 071 -09 124 081 -74 122 -110 -112 125 126 106 126 118 067 -121 -29 126 061 078 126 031 106 124 -126 -128 126 084 062 126 126 -122 126 110 116 124 119 -119 -72 123 098 -128 -125 -128 -82 -24 -12 
-103 -71 -06 -128 035 106 029 -122 -128 033 -128 -06 050 -30 099 124 013 -126 -126 -58 -75 121 -110 032 -01 -128 123 -126 040 -63 -128 -22 109 -65 -68 067 120 -34 -93 124 018 -113 065 -128 -125 058 126 -63 -69 -121 -53 086 126 123 -75 -127 073 -123 126 113 125 112 -40 -51 
-104 125 079 -126 -103 -127 012 -93 087 016 -112 111 054 -122 -126 -128 084 -11 -117 -112 047 120 123 098 114 -126 122 -100 123 -96 -99 -92 -65 -61 -128 -91 -75 126 117 126 -127 -53 116 125 079 020 126 -123 -25 -84 119 -124 126 -126 -128 102 052 -54 126 -01 -125 -119 -58 -108 
113 -127 051 -125 -92 116 105 030 083 -117 -91 111 -37 122 063 111 -117 124 125 025 126 -126 125 -91 089 -64 126 -115 121 -128 -116 -76 -114 -114 -96 -67 -56 -42 124 038 112 -127 -124 126 -128 036 126 -125 055 -109 126 -100 -128 124 -93 123 005 005 043 -127 104 -109 -83 005 
-115 055 -77 -80 -110 126 111 -119 -82 113 -128 -82 067 103 093 -127 125 -127 121 -23 123 -87 126 -127 -03 009 126 112 126 -111 120 120 -78 -114 -128 126 -115 126 -126 126 -87 107 126 -126 -117 081 -117 -56 126 119 126 -99 -127 -79 -57 125 -128 -90 -128 -120 110 -91 096 -124 
088 -108 -110 -127 116 111 -66 111 -121 120 -120 119 008 060 102 126 -128 051 101 -89 -117 -119 120 019 -125 125 126 -124 -117 -121 115 033 101 080 116 -110 -123 126 -45 -128 123 112 124 115 119 031 -116 -128 124 101 116 -100 -127 -101 -107 -122 -127 123 -116 -127 -125 041 -65 -79 
120 121 126 -127 -98 -109 122 046 119 -52 -101 -107 -93 119 072 -127 126 -115 -111 -46 120 125 -126 125 -66 106 -128 121 -128 126 -128 -123 113 -118 -124 121 -127 -126 -121 126 -97 104 -122 -123 125 -35 -125 -101 -107 -100 126 123 126 -128 -121 -99 110 025 -105 118 -98 123 -45 081 
-109 -104 -127 -124 013 126 122 -123 -113 -100 116 093 -120 -95 051 -127 123 -113 -106 -58 -128 126 -127 -104 -62 -121 126 -82 -119 116 -127 -89 100 -18 -126 -112 -89 126 -125 126 -108 -126 -125 -116 058 116 -66 -128 -128 -81 113 -96 126 110 -126 -81 083 122 126 -117 -126 -124 060 114 
-65 -125 110 -123 -112 126 -28 120 126 054 078 044 -110 122 -100 126 125 -125 -117 -113 125 -127 -126 115 125 120 -123 -116 -120 126 126 -83 -83 051 126 -104 -91 -105 -88 -128 -110 -122 -95 126 -117 -45 -102 125 -106 118 126 122 -126 120 118 -48 -128 123 -128 -92 -40 023 -117 -10 
067 007 126 -123 085 -06 064 -76 -128 102 111 049 -110 115 125 126 -88 126 104 -70 065 126 -99 -100 125 056 126 -128 117 -125 093 -63 023 108 120 114 113 126 124 126 124 040 -15 065 -66 063 -128 108 022 -128 -126 116 -113 114 -124 053 -128 116 085 125 -128 -112 072 124 
046 -31 121 125 -98 -125 066 -100 118 020 126 125 -44 067 -90 120 -42 -115 122 023 -71 -83 -127 -113 -120 -121 -121 111 123 -126 117 125 -118 037 -120 -123 -125 126 -120 083 -128 094 090 -127 -105 075 125 -104 -109 -122 -125 125 117 -120 120 126 -123 125 -54 115 -81 120 110 -126 
-117 115 -96 -128 014 095 097 -118 -115 -45 121 -85 -94 -58 125 -126 -128 -126 119 115 -18 -128 -124 -125 024 125 -128 -127 124 075 125 -125 086 -121 068 118 -73 114 125 117 067 063 -124 123 101 067 -09 -95 093 102 126 117 103 126 125 -126 -125 085 126 -116 125 124 -79 124 
-72 114 -115 112 -104 -127 088 -117 -39 -100 -121 079 -109 -120 126 -116 -115 -127 113 090 126 093 -82 -127 121 126 -127 126 084 107 -125 -111 -123 116 -128 115 -116 126 120 036 -107 070 -128 097 -127 -31 117 106 083 124 -127 102 108 -114 -123 -119 -128 -82 122 -117 -126 -122 076 -123 
-88 -54 -128 125 -117 125 -78 -119 -71 124 -100 126 -110 -103 125 118 -121 126 123 -95 125 065 126 -120 -121 047 126 -124 125 103 -52 -127 093 -58 109 125 -79 126 117 126 -112 010 123 111 -102 075 -126 -85 -125 126 107 -88 -108 126 126 -108 116 -123 126 122 125 002 108 -125 
116 125 108 101 028 125 -88 -125 126 -105 -128 122 -98 051 -128 -95 -127 078 113 -59 126 -46 -128 112 -126 -126 126 120 126 -128 116 -125 049 060 -119 126 -124 126 116 -128 123 -122 085 -128 074 092 125 111 126 126 112 -116 -100 -128 -104 125 115 -125 079 067 -125 -66 -56 028 
058 -125 123 -125 096 122 -113 -124 -127 062 118 125 039 108 -128 116 117 -124 122 052 121 -124 116 103 -125 126 121 -113 -127 -117 115 -124 041 123 -61 -127 106 -84 125 -128 074 067 -69 125 090 -87 039 126 -128 -58 -69 109 -120 -128 -71 -81 026 -75 124 -58 -127 083 096 125 
-61 -91 125 -123 -38 125 -76 120 118 -82 -63 126 083 124 003 -04 048 105 100 -81 126 -127 -126 -127 106 -95 -111 -125 -127 -18 074 -110 -115 107 126 -97 116 124 125 126 120 102 019 -127 -57 -108 083 124 113 -112 -127 -118 -127 -128 -116 075 -124 -115 126 -01 072 119 102 000 
084 001 059 125 069 118 091 -117 -108 092 -103 122 -118 063 -128 117 126 -127 -97 -106 -123 -118 104 125 -126 008 -123 -87 125 -118 126 -123 -91 052 -127 125 -122 126 -29 -116 -72 126 -125 -109 -111 -49 -105 126 -108 123 086 -105 -111 -92 123 -123 122 -87 -127 125 126 -122 -101 -124 
095 -53 -126 -110 -45 120 104 020 125 124 119 -119 -52 -90 121 -113 125 109 -124 -96 -104 -127 -115 126 109 108 -115 126 126 -114 -105 089 -78 -118 097 -123 -123 126 -115 109 104 -111 -123 126 -126 -87 095 -57 -122 040 -115 -89 -71 111 119 119 -121 015 -118 076 126 -38 -84 122 
-07 124 009 126 033 119 -103 -96 122 -79 -94 120 -68 125 -119 -51 -127 037 029 046 109 -128 125 074 124 -125 126 123 119 -127 083 115 117 -125 -116 126 101 125 019 125 100 -110 098 126 110 -103 -128 098 126 -128 061 -124 -128 105 -128 124 123 -118 -105 117 -124 -115 -42 -38 
-117 -94 -128 -125 -64 -84 082 101 -128 -63 -119 -101 -41 -119 126 -127 126 074 108 088 125 118 -127 -123 114 079 125 124 110 -99 -128 027 -32 -125 104 126 122 -120 125 -125 111 -124 123 -103 -43 -105 -118 -107 125 002 125 025 011 009 110 -125 -127 112 -128 125 -116 032 098 -118 
122 -124 -61 -126 106 -128 096 -123 123 -93 094 -112 -110 109 -79 113 126 112 114 110 120 -126 -127 -123 121 -123 099 -101 125 118 -119 119 102 041 -127 109 -65 -73 -126 -100 123 004 -75 -90 126 -20 105 126 126 115 -127 -118 -127 -109 -118 -113 115 122 -127 -124 004 123 076 125 
013 -11 -124 -128 091 122 -100 081 -111 017 094 -38 -119 117 -128 -121 -128 -126 -58 -114 -16 103 124 089 079 -108 043 126 -128 126 102 -121 064 -123 -117 126 -122 -22 -126 123 -37 125 105 126 126 105 114 103 004 016 125 077 -128 126 -80 -112 076 -89 -108 093 -128 104 064 -25 
-108 -23 126 123 -110 126 -89 094 125 122 -128 -108 032 -119 -124 -43 -86 -91 125 -122 -113 115 001 126 114 -118 -111 -120 -112 110 -128 -01 -110 032 -120 126 113 -128 -122 126 -90 -127 -128 084 126 112 125 121 126 123 -119 -111 116 126 -127 124 126 105 095 -109 124 -78 000 107 
-79 089 126 110 -51 -109 117 -121 -127 -79 -62 -117 -47 116 -126 118 -107 -125 -124 -119 -109 -127 -126 -128 -35 -94 126 121 -126 119 -108 -127 072 114 -127 -77 -123 126 120 126 123 -120 -122 -120 126 -84 030 -116 075 -110 -119 -92 -124 122 126 122 -123 093 114 -106 -124 -125 -88 081 
-51 099 112 -12 -39 117 032 -63 -27 117 126 126 105 123 -126 -63 125 121 124 116 036 -127 -125 -61 -124 -98 125 -118 121 -121 112 053 -80 -96 -110 -128 -66 116 125 -128 -127 -125 114 124 -24 087 -122 016 109 -121 -124 121 121 126 123 -125 -114 122 -122 -123 -64 -18 103 103 
-108 116 126 -68 -108 126 -89 098 -81 065 125 112 -110 031 126 -117 124 -127 -117 -98 -123 109 126 114 117 -126 -126 -44 -126 123 -12 -126 108 -119 -126 124 123 124 -12 -103 063 -113 126 -16 117 106 118 -56 -122 -84 -92 -87 123 125 012 -127 061 -104 -126 105 124 078 -117 110 
011 116 -127 060 -98 126 059 -120 094 113 106 126 109 000 111 067 125 075 -126 -11 -122 -54 126 -126 -65 110 -112 043 124 124 -43 -122 -71 -97 125 126 -37 -128 058 126 126 -122 -116 125 -63 -09 126 -121 -106 072 -125 -123 -128 -118 -103 -80 -81 -31 -128 004 108 118 067 -125 
-102 076 125 -118 038 126 -54 -118 126 -92 -114 -103 043 113 -127 113 -128 116 076 086 -102 126 110 -128 -39 -83 106 -121 -125 -119 119 073 -111 -48 -125 115 017 -128 -116 -128 033 126 -49 121 116 -13 126 -106 110 126 -114 -123 -85 120 -125 -117 -128 100 -128 016 -102 -119 -57 123 
-84 -120 126 126 -103 -121 038 -32 -127 021 111 -21 -120 -127 126 -94 115 -108 -111 114 073 -114 -127 126 -83 -120 117 125 -126 -127 -105 123 -104 005 122 125 023 124 -123 -06 -90 -117 -128 126 -118 064 126 -110 126 125 120 047 -120 -127 -124 125 126 -56 -110 -59 126 -120 -88 -127 
-82 -126 -100 -110 -21 124 077 120 -128 115 -94 125 099 101 100 124 -114 -125 105 -93 -123 123 -55 097 -28 -80 126 111 109 126 121 120 -107 -03 124 -89 103 124 -125 122 -115 -89 -128 -124 126 -35 045 126 -124 107 -121 122 -108 116 126 110 095 124 -96 068 120 -06 059 -46 
121 108 -33 -123 -59 -105 059 066 -124 101 125 125 071 071 -126 125 126 045 125 -62 100 117 115 -127 -105 -128 -127 -109 111 -123 124 -120 102 123 126 -127 -111 126 -60 -128 -108 -120 126 126 -82 101 -97 -128 126 -117 -117 -100 -120 108 -92 -76 107 -109 123 124 -126 110 -27 110 
-99 -124 -125 -114 102 -121 111 -115 121 -82 122 -128 -33 -94 125 116 126 025 070 057 126 082 126 -128 123 -83 -124 120 126 086 103 -76 -116 032 -124 124 -122 -100 -123 -127 117 -127 058 111 -29 -13 124 -96 103 -120 124 -121 123 108 -121 003 -85 -126 118 123 123 123 -115 116 
-62 -122 126 -124 113 108 117 116 123 003 126 -105 -112 -88 074 126 -124 126 -115 -110 -126 -38 -126 126 025 -112 -128 -117 122 -112 121 040 -87 -115 -128 -128 -98 -119 125 123 -96 126 -123 -101 -35 -64 124 -112 027 126 -111 042 -128 -128 110 126 126 091 126 126 -128 -87 -101 111 
035 025 -35 124 -118 117 004 077 100 -97 053 121 036 123 119 -125 112 056 -59 114 069 -128 094 124 117 125 -25 -114 117 041 124 -119 -99 043 -128 -88 124 126 -86 125 -51 -123 -35 -53 -126 022 -121 -93 126 123 -46 015 029 125 060 121 126 122 -128 -95 046 -119 039 -127 
110 063 123 -70 -97 -128 042 097 -127 098 126 -127 116 076 -124 009 111 -127 -67 -84 107 114 126 -114 -78 124 -87 -34 -128 -122 125 120 -09 120 126 -111 -22 126 -06 104 -127 124 -128 -124 -104 101 025 -116 122 121 -128 -62 110 -54 126 -73 126 -125 -127 119 -127 124 050 025 
-100 086 125 126 116 -119 -99 -19 125 -100 -122 077 028 064 126 024 -128 011 -111 080 -85 -127 -127 094 115 -123 -66 116 105 100 126 -21 -110 -125 -128 088 116 126 125 -117 -122 -104 050 124 098 085 -78 125 -126 -121 -112 -62 -126 120 -116 126 051 101 -128 -115 115 -103 -58 -126 
120 -126 -128 104 -109 126 003 -88 056 099 121 122 062 -116 -12 125 058 -124 -103 -119 126 -03 123 082 -76 071 -124 -128 105 126 -128 -127 008 021 -103 -128 101 -89 095 -128 -127 -127 -08 126 108 -18 -102 -128 124 -128 -10 021 102 106 037 -127 -126 091 -128 105 094 119 -103 124 
-41 053 -128 123 -102 -112 -34 100 125 077 -28 126 -110 -53 -127 -128 103 -126 045 -21 119 -119 -124 -128 -119 111 122 -56 -127 -32 -75 072 -107 -115 077 -75 -34 -128 -127 -107 -128 023 -128 -128 -62 080 126 126 -124 122 126 -126 -128 -124 -125 104 -128 -23 -75 121 -124 122 112 114 
-120 081 115 106 018 -127 095 065 -128 -67 033 -124 108 086 029 -94 106 -104 072 041 049 -78 098 109 124 049 067 -127 018 116 104 -127 117 -95 -77 112 -127 126 -89 -128 -90 119 -126 -124 -123 099 104 077 126 -128 -128 114 124 017 003 -57 121 -70 036 100 -127 032 -107 -90 
115 106 120 -126 -47 122 -88 -124 126 -48 125 -127 -60 121 -109 -106 -120 124 123 082 118 -47 119 -115 -44 115 116 -106 124 -125 -118 -125 -118 -74 -121 125 -48 -128 119 117 124 -119 -109 -124 -128 032 126 -113 113 122 -112 -105 125 -124 -125 123 -102 -75 -116 -125 107 079 -98 -89 
106 -121 121 043 043 -115 -117 115 -128 -73 126 123 -35 102 -106 086 -124 058 081 117 -110 126 046 118 114 -96 112 -78 064 021 -128 031 -70 006 -128 124 124 125 -114 107 074 -33 -127 -123 126 -24 -119 126 -53 -128 124 -123 051 126 124 -127 126 124 126 -126 -94 -89 000 120 
-121 125 080 117 065 -80 058 -72 -127 089 -128 -98 112 123 -120 056 -128 -116 093 -112 -122 -61 -10 126 119 -83 126 124 -121 -128 -128 123 107 103 126 -126 -127 -13 -119 -18 082 049 094 -128 -121 -52 -25 122 -128 124 -127 001 -34 126 126 093 125 015 -128 118 105 -125 001 -105 
090 096 113 112 -98 117 -23 119 -80 -97 -128 104 109 -126 -126 125 -128 -125 -125 -119 093 -74 044 039 110 102 071 120 -78 -127 119 117 001 -125 -128 003 097 124 057 096 125 010 -115 -51 -85 083 118 126 117 -123 123 014 -82 -65 -114 095 117 060 -128 -125 -121 -60 -102 005 
-117 021 -127 110 -82 126 -74 -112 -113 -109 090 125 -102 -60 -80 125 -126 117 072 -22 110 -125 -120 119 022 -68 -67 080 123 126 126 126 -119 -35 115 -118 -16 -128 -126 -127 125 -94 120 -97 -126 010 124 126 -122 -116 118 -121 002 -97 107 -67 112 102 111 036 -126 -121 -117 113 
078 -127 -125 -95 035 -118 108 048 122 -59 122 -120 116 -111 -119 -121 -124 115 -126 110 118 -13 -115 089 024 126 076 -119 -125 -124 -108 -115 059 114 -122 -103 -76 -103 065 -33 098 -123 126 -124 -121 -18 -124 064 121 -128 -29 118 125 -59 117 -125 -19 -91 -124 000 115 -106 065 -89 
115 120 125 -64 -103 -108 007 085 126 -84 110 098 -107 -126 115 126 113 125 -48 094 -128 -117 068 107 099 -114 124 -103 -122 115 105 118 -112 -100 -117 013 -108 125 -103 123 -126 106 120 126 -127 -38 -125 121 -123 -127 124 -91 -52 126 113 -02 -128 -37 -128 095 -77 -113 -116 111 
104 -65 124 -105 -52 113 -83 114 104 -99 075 109 -93 122 -119 -126 073 -126 124 120 117 125 -93 071 -70 126 -80 -128 -128 -122 126 -100 -78 -124 126 123 -120 -127 -127 -76 118 096 125 118 -114 034 -106 124 126 125 050 022 092 -126 120 -84 121 -113 112 -127 119 118 -58 -89 
122 -85 -128 -127 050 013 -79 -03 125 061 -08 122 115 -123 124 -119 126 120 107 -85 -126 -125 -125 -67 047 -125 -88 126 124 -114 -119 125 -76 -124 125 -116 081 -128 -125 -127 -125 078 123 -126 -68 -40 087 019 -69 120 -119 125 126 -106 065 -46 105 119 -128 -57 -120 -116 082 -93 
-44 124 114 112 061 126 087 016 -128 -13 -127 -125 -24 083 126 126 -127 -110 -125 054 126 126 126 126 125 088 126 -68 125 123 123 126 -114 042 -123 -128 125 -128 123 126 124 -107 -123 -118 022 080 -96 126 -126 -126 126 122 -124 126 -128 -54 -128 -120 -97 -53 -127 -123 -64 -127 
-122 -75 117 -127 114 118 063 090 -108 080 107 124 030 119 126 -119 094 104 112 -114 124 029 118 -126 045 -05 -127 122 038 -126 125 063 -116 089 -89 -120 -102 087 -02 -109 086 123 -128 -128 -128 104 -34 096 -128 -124 -128 122 -16 -84 -126 125 126 111 047 124 126 -126 115 -125 
-18 -86 113 126 051 -125 -24 078 -121 -61 125 091 034 045 -108 -128 125 126 -118 117 121 125 -128 116 005 -123 083 -122 -38 -126 -117 -127 -123 -08 -119 126 -57 126 112 -128 -110 046 -128 126 -122 020 114 -51 119 073 -92 105 -91 107 126 104 -128 -97 -128 -122 122 -31 -114 -120 
053 091 -123 -125 -117 -96 -61 106 125 -07 -123 -114 -39 120 118 124 124 102 -79 -123 -122 -121 059 -127 -122 -117 -27 122 -126 123 126 -125 051 -87 -122 -85 093 -59 123 -122 125 -91 021 -128 -125 021 079 111 -90 -128 126 125 -127 -99 120 124 122 -126 125 080 121 -118 -112 -11 
015 125 107 -123 062 090 -96 063 -48 -75 -77 114 116 052 092 110 -20 125 123 -99 067 126 116 031 -110 123 -128 123 -127 115 120 125 056 -37 -128 -60 119 108 082 -128 126 113 -128 110 -114 -14 106 -126 -127 102 -128 123 -128 095 119 039 -117 119 -118 004 -51 -27 081 -29 
105 -122 101 124 -113 113 047 -67 -106 016 126 097 -38 -103 -125 -103 -128 124 -112 -67 -98 -68 111 -121 -121 126 103 124 -118 -121 125 -123 065 112 125 -112 -94 008 -87 103 -102 -23 008 -119 -125 106 -120 -114 122 -128 -122 080 -126 116 118 123 -126 124 126 110 -110 -116 -69 -83 
087 122 103 114 114 -128 111 -124 089 115 004 -127 -117 124 -124 126 126 030 -55 118 -116 -60 084 -121 116 028 -128 124 -108 014 -127 -98 118 112 -125 -127 123 -88 125 -16 085 -128 -122 118 125 -105 -27 067 -113 111 126 120 -77 -128 110 -35 115 -102 -128 -121 -16 -113 068 -74 
-115 -18 -124 126 109 -95 117 -119 126 091 -128 -95 084 -98 -112 -112 -120 -102 -78 -120 125 -125 123 -128 -108 122 114 126 125 -123 126 -128 113 119 102 -50 121 -113 108 -109 -121 -125 126 -126 125 -93 118 -56 -118 -127 -127 -109 -123 -64 124 -127 -82 -114 123 059 -121 -118 -72 092 
-121 108 -128 124 -112 -124 -79 -68 123 -89 049 -82 069 -21 091 126 -18 056 085 -27 -128 -09 114 -124 -19 098 -118 122 -126 -128 -23 098 030 109 126 -78 125 -92 -82 114 077 -128 126 -124 113 094 -18 -101 -128 -120 -112 -11 121 126 -25 -126 126 -117 108 087 098 -123 -116 107 
-34 -92 126 -125 091 107 109 049 -128 -66 -127 -123 -66 097 095 -119 -128 082 -124 115 097 -128 -127 126 -71 -38 104 -103 115 -121 121 -117 -07 100 123 -128 122 -60 121 126 -119 085 095 124 124 044 -127 -123 -127 -128 -118 -74 126 123 -107 -125 -128 -82 -127 -114 -05 -125 -91 -127 
122 089 126 -108 -77 068 -17 -92 -97 -86 -65 -128 -113 -125 -127 126 124 107 115 -96 -93 -112 -32 -124 -84 068 -128 124 118 121 123 -41 -50 115 126 126 110 -125 100 -116 114 119 083 123 126 -63 -109 -117 126 015 105 -44 -116 -126 -128 -121 -112 124 116 -126 -128 111 011 -123 
-108 -124 126 -114 -111 125 090 -125 -113 049 119 123 106 111 -98 103 -83 124 124 -124 106 -123 -91 -120 123 -112 121 -76 -121 082 -128 100 116 -80 126 125 -125 -117 -113 126 113 059 -127 092 -50 -76 -107 122 094 126 -116 -105 -127 -119 -85 -110 -107 -42 -128 -123 126 -77 069 116 
-104 -125 -119 -110 -120 124 119 -115 126 -101 -81 113 -118 -128 -01 -124 108 -109 -85 107 119 -126 -75 -116 -126 -125 -119 -97 118 126 -128 082 -117 -07 126 122 -113 123 035 126 126 125 -118 125 031 118 122 -128 -127 -96 126 114 -117 -114 119 119 042 004 -116 -115 -93 -58 004 124 
-118 -96 126 126 -104 079 -112 118 020 -90 -128 034 073 -115 126 -110 -73 056 099 -14 126 125 -124 123 -47 101 -128 101 -93 -113 037 033 117 121 111 -97 -115 -128 -114 107 -126 126 119 -128 109 104 118 117 126 -120 -128 -02 106 -121 123 -127 080 -125 -105 -128 -101 -119 020 -68 
113 103 -126 126 072 -128 122 -101 074 123 118 -66 -106 111 -106 103 -61 -93 073 000 -127 -118 -90 091 -24 -46 111 -121 -110 -108 -126 -125 116 094 -122 -123 109 110 036 125 -82 125 105 037 -110 -102 -100 102 122 -128 126 105 -106 123 126 083 125 -119 098 -119 112 -35 011 095 
-52 105 126 119 100 -88 035 -85 -122 -113 -128 -128 -77 077 -83 110 123 -97 -13 110 -98 -127 119 060 -110 -59 118 042 124 115 121 125 085 013 122 -124 -125 061 -50 -122 049 060 100 068 -75 -45 126 125 -07 -128 -83 078 124 -128 -98 116 -128 124 126 020 126 -120 085 -118 
111 -59 126 -65 076 -111 -106 108 -125 059 -127 056 106 000 126 -118 078 -122 -25 095 -128 -109 -07 -113 116 056 078 -128 -121 125 108 122 113 100 124 -122 -48 126 -127 073 -128 -96 -06 -23 -53 -21 -71 -122 -77 110 077 017 -127 123 081 061 126 111 120 123 125 085 105 125 
117 -46 126 108 032 -126 028 004 -128 -46 -88 -121 112 091 -125 -127 126 -65 124 042 125 -91 -46 034 059 120 115 -121 -119 122 126 -126 -11 -115 -124 -127 -91 125 -116 -119 -118 116 -106 -125 122 -69 -94 124 125 126 126 -124 126 -121 -126 028 -122 -55 -96 023 126 -28 -100 120 
123 123 001 -123 025 -18 -93 044 -126 110 126 126 -99 -101 -109 -110 -111 099 113 004 125 -108 121 090 -96 025 120 124 116 108 -128 093 -56 -34 -119 086 -67 -121 004 -108 122 110 106 -125 125 103 037 126 115 122 -128 098 -128 121 -127 -128 -126 -99 122 -75 -128 -10 -101 077 
113 126 108 117 -78 -116 -91 -110 118 093 -118 126 -91 122 124 -115 126 048 -81 -116 -125 -96 108 -110 -38 -126 089 119 117 -120 097 -113 -102 120 -120 119 117 -95 076 -128 -127 -125 118 125 -90 108 -123 051 126 109 126 106 120 -123 -102 -127 -17 -86 -126 -66 -88 124 -117 -126 
-81 -116 -115 126 -109 098 -94 -114 -25 101 126 108 -72 -125 -101 119 -128 122 071 -12 -125 110 -120 -113 114 -128 -116 -26 -122 -122 -120 -112 -124 -125 -122 -109 -101 125 -95 -122 -124 -124 -128 125 076 -98 -126 -89 -106 125 120 -108 -124 -110 -128 -126 -50 -50 126 126 119 120 076 125 
101 039 097 -124 114 124 -100 -118 -123 -113 051 044 -57 -50 -128 021 126 124 -101 -118 -127 010 090 125 072 125 -125 -127 122 126 108 123 114 -122 126 104 066 -128 125 -122 121 114 126 126 -127 -91 -126 -05 123 -125 -127 -47 116 109 -124 088 126 123 -70 126 -74 -55 073 -127 
090 097 126 -83 093 015 108 108 -90 019 -126 -16 007 111 -81 117 126 085 100 110 -102 -116 -128 126 020 -42 -128 -107 -124 -45 -113 -119 118 -100 113 016 -69 -118 -124 105 -78 081 -122 -125 124 -102 -02 116 -127 116 -97 -118 -87 021 -24 -87 -123 120 126 -110 -128 121 -52 -85 
-103 105 126 -116 -106 -120 -83 035 -128 -115 121 126 105 123 125 123 126 126 102 046 104 108 107 -127 -114 -127 -128 -123 -124 -121 126 076 -115 094 -124 -127 -70 126 121 -128 125 087 027 126 000 105 073 -127 126 -123 089 099 -109 -128 096 -119 126 056 121 -45 -117 -109 087 -05 
113 008 -127 -120 -94 125 -110 -78 123 -98 -118 124 -111 -121 -91 -125 013 -47 125 073 -116 120 126 -24 122 -87 126 125 -128 084 126 -79 046 -122 118 126 -102 -128 -53 -127 -128 051 -128 025 125 056 092 -128 103 -120 119 119 -126 -84 -123 -119 -67 -98 -127 -109 085 -67 106 -101 
108 -127 -128 125 -98 -128 108 -109 -97 103 -125 -75 099 109 -106 126 -44 088 125 110 -81 123 123 035 115 -125 126 -98 122 126 -95 -50 117 -44 -126 -118 120 -124 125 104 -112 -117 -90 126 -85 008 126 047 -113 -128 126 119 105 122 125 126 117 -106 -127 123 -108 -44 070 -114 
118 111 -128 -116 -114 -104 -75 122 -126 -79 -104 101 -35 -96 111 -127 111 022 -90 -14 -79 -118 -125 -104 -10 -79 -116 -124 -121 123 -123 124 -19 -123 115 -128 110 -128 115 -125 -111 -49 126 -128 035 113 -128 -122 126 -57 126 -99 126 125 -105 125 -127 -116 119 124 -109 092 -60 065 
-49 -126 125 125 011 125 -72 118 -128 -99 126 019 115 -125 -124 120 -128 103 124 096 -125 -66 080 -127 -29 -127 093 -128 -127 -127 -115 -124 081 -124 -93 126 124 126 -127 091 -127 -17 -123 126 126 -109 123 125 -126 126 -128 -123 -128 -128 059 -127 -21 -121 126 -120 -128 -113 -31 -121 
041 -101 115 062 102 -27 -13 -113 119 -58 -92 126 -115 125 126 -124 -128 -128 -61 003 043 -126 126 -128 -117 123 -88 091 -128 -123 -65 -94 080 -119 086 124 -103 126 097 125 -14 091 -128 -68 -119 107 125 -116 126 126 -127 -87 -105 -36 102 -84 084 121 -128 -92 -78 033 -02 -118 
020 -121 -128 -127 -94 -128 -115 -125 -128 033 -127 -119 109 010 -20 -124 -36 -113 -100 112 -108 -127 056 -128 125 -125 126 126 051 114 126 -115 -04 073 122 126 -05 126 -04 -70 039 -119 -108 -102 -111 091 123 126 124 -100 053 -107 -58 126 -88 -123 125 -125 -113 -124 124 -97 080 -76 
-116 125 120 -124 -32 125 -37 -125 123 104 -128 -104 062 -108 -128 -81 -126 101 -124 108 -128 -124 063 013 -126 -97 091 -104 069 125 -128 -123 110 -123 022 102 125 126 -127 -91 -102 101 043 118 067 092 126 125 123 124 -111 017 121 085 088 008 -106 030 -80 087 -107 -121 -54 -88 
-54 093 -113 126 117 115 090 111 -126 -96 099 -38 108 082 -105 033 -128 -60 -125 092 -62 123 -62 029 120 071 124 -59 -125 126 -128 -76 -119 -124 -126 052 -120 119 117 126 094 126 125 126 122 -46 027 -128 -79 -101 022 -18 -128 125 -128 -118 124 -105 -61 070 -110 -122 -116 107 
-117 -77 -118 -125 -103 025 -108 027 -91 116 -101 -107 -96 -103 -127 -125 125 097 -37 048 -85 118 -128 126 -103 005 -128 -59 090 125 102 119 -110 034 -91 073 083 114 -13 126 -124 124 126 -102 -49 -105 -23 -128 126 -128 123 -77 -98 126 124 -27 -128 099 -128 108 051 020 093 125 
-51 081 -128 124 103 120 -101 -115 -127 -73 -101 -126 002 121 126 126 124 074 -89 -74 124 -128 -115 125 124 -29 126 120 125 114 -109 073 021 -114 -118 -80 -123 -127 -108 -128 087 -128 124 124 101 -08 -124 101 -122 004 112 124 071 -110 -55 071 126 118 -92 -125 111 -40 -111 -126 
115 -114 -43 019 040 058 -117 -105 -111 -103 -128 -50 016 121 125 -16 126 -113 -124 071 -128 -128 -101 -25 -92 -126 -128 117 121 -125 -94 -01 073 013 103 117 -120 -125 122 -14 115 000 -120 -128 126 078 -109 122 126 -94 -112 -106 -69 106 072 119 -128 -126 112 -123 125 -101 023 124 
107 -127 126 -115 -112 -121 -80 043 117 036 -127 -126 114 -103 -125 116 -124 -79 -107 -54 -110 -63 126 111 -99 051 -120 122 125 -123 126 004 -17 -107 -116 126 -113 -99 -114 -117 123 119 126 -114 -127 -38 126 121 -105 -46 -111 010 125 126 123 -105 -107 125 -128 027 -124 -111 -113 -116 
-44 -66 -47 025 -105 -128 069 087 -96 057 124 -128 -10 -119 -128 -128 -102 -128 085 -30 045 -124 -48 122 -126 -110 124 -124 -46 -10 -66 125 -117 -122 124 126 -127 126 -116 -111 -127 -57 119 -110 125 102 -109 074 -123 -128 -72 113 -121 -32 -67 -119 -127 -107 124 -114 -127 119 012 069 
116 -76 -123 126 -104 126 -15 112 125 -78 124 125 097 111 090 -128 110 125 057 044 -117 114 118 082 124 -94 062 -128 057 -44 -128 106 075 -118 125 -126 026 113 078 -128 120 -128 124 -72 -112 -86 041 -102 -120 -125 025 005 101 -128 126 102 126 122 -125 013 093 094 -116 115 
-119 -07 -80 -120 008 -127 111 105 075 004 087 110 011 -06 -120 052 088 124 118 120 126 -122 030 012 -103 123 126 -114 119 -123 -128 -128 115 -71 -116 122 009 -111 116 -92 -126 125 -75 107 126 024 -119 -105 068 125 -128 -59 -124 116 -128 -126 -123 049 -118 124 -39 055 114 -04 
103 -126 121 097 010 119 027 074 -128 -76 -128 -106 -118 -98 125 126 019 083 057 -109 -105 -127 079 090 -127 125 126 124 124 096 -24 -116 -112 123 -16 126 002 119 125 -103 094 123 -63 118 -45 091 -128 -128 -128 125 126 -35 116 -110 -116 -117 -57 013 017 123 -128 -95 113 -81 
-109 124 107 013 -81 062 -103 -29 -65 -91 -101 -121 -78 -42 126 -128 -128 -104 -118 057 041 123 053 123 089 124 -128 124 123 -07 -124 126 -52 025 -125 121 -110 126 034 -48 065 -121 126 -127 -128 -46 094 -127 -126 112 -128 119 126 -128 -112 -99 106 123 103 -55 126 119 087 062 
048 -13 -39 004 -93 -58 -78 120 090 -109 126 108 025 -60 -127 -109 -109 125 010 088 -111 117 115 119 024 076 -127 082 125 119 126 -118 -91 050 -128 123 -29 039 -85 -66 -12 096 -128 118 -117 090 -122 -119 -127 -125 075 -43 126 126 125 -126 -128 124 -39 -122 124 122 -43 125 
-113 125 124 -83 080 -121 -22 -27 122 -50 -126 119 -98 002 -127 125 -128 123 109 088 -122 -34 068 126 -120 -127 -127 124 118 114 -127 -111 -20 -80 -128 -114 -69 121 -109 -126 -114 125 -37 -128 047 049 126 126 -125 101 -102 112 124 -123 125 -12 089 -100 112 125 117 121 -60 -124 
-05 -125 125 108 012 125 -104 123 -91 -67 -43 016 -15 -123 -124 010 125 -126 -124 -33 -109 -124 -51 126 123 075 -126 -128 -118 126 126 -74 119 -122 -105 -127 114 126 -126 -128 113 114 124 108 -127 -96 -112 126 102 108 -128 124 004 -127 -126 027 -125 118 089 066 125 -74 -66 125 
-47 005 -128 -128 -111 088 061 109 086 045 103 124 -57 090 089 058 114 -90 -63 109 125 126 121 -118 030 111 033 123 078 -76 -126 -83 114 -114 -29 112 -117 083 120 120 -127 109 057 122 -127 094 -128 -127 117 080 116 -58 125 126 -126 126 125 120 016 034 125 092 071 000 
076 -47 101 126 106 -96 119 -95 122 114 126 123 -91 -50 -124 -118 114 -77 -03 120 125 106 115 124 038 -127 125 -124 -124 -107 123 124 114 109 118 -111 122 -106 -105 -123 125 020 126 -124 125 -94 -48 -128 -116 -128 -118 -104 -112 105 125 115 -123 -117 -128 107 111 114 110 -98 
-108 032 -128 126 -119 027 -89 -122 -128 056 -97 -123 116 096 022 -128 -51 119 -110 104 -68 098 121 -71 120 -128 030 105 -124 -119 124 -39 111 001 -64 -124 110 -116 078 -103 -10 -71 125 -119 -108 -98 -128 122 -128 123 126 -116 124 126 -125 121 -31 116 125 032 125 -69 107 123 
056 115 126 -128 -118 -64 -73 -121 108 052 -55 099 -94 001 -30 -127 -74 119 -126 103 -123 -128 -109 119 034 -123 088 -124 122 -110 -115 -115 -56 098 -120 126 -101 -128 031 121 119 125 -90 -120 -101 100 126 -127 -128 -117 -128 -120 091 -114 -127 -82 -128 123 -128 125 079 119 052 123 
118 -93 126 -85 -65 123 -65 -95 126 -50 122 -123 -02 124 126 117 -103 -119 119 069 -58 126 126 -36 124 124 -116 -87 116 119 126 114 058 -124 -123 -82 -106 -117 -94 -127 124 126 -102 -101 -88 112 121 116 125 -110 -122 125 -118 126 118 -49 -128 -122 126 -122 126 -122 -91 115 
-111 068 118 -111 072 111 099 090 -126 119 -128 -110 -98 107 113 -111 126 -126 116 -63 -119 123 -127 -92 -124 -87 100 -119 -114 103 -77 -114 043 -121 126 126 010 109 -69 108 -88 121 125 126 126 -96 -126 125 116 -104 -120 118 111 126 126 -105 -116 104 125 125 -128 -41 -59 -52 
111 -91 126 123 -62 -79 -09 112 -127 115 031 124 -24 -77 126 -78 -88 074 018 -118 -126 125 126 126 089 -123 126 -128 -107 126 -123 123 -118 106 126 126 058 -96 014 118 016 -123 -63 -77 -127 049 126 126 -116 126 126 124 117 029 088 -75 -79 104 126 -42 -128 -104 -55 120 
110 094 -122 126 095 121 -104 -85 -98 120 122 -93 -98 -57 126 121 126 -97 106 -110 -95 -68 092 -127 -126 -38 126 125 -128 -127 110 125 -123 090 126 -128 122 -128 119 107 096 -127 -121 047 126 -45 113 -117 -54 -103 -112 -91 060 -106 125 -126 092 086 126 -127 115 -10 -55 -125 
-113 101 -120 -128 043 120 -11 -83 063 -109 -113 077 -99 114 126 -44 -128 121 -105 -11 062 089 -127 032 -125 109 -104 126 124 123 126 -123 -58 -20 -94 -128 012 -97 123 -128 -116 -94 105 123 090 084 013 115 126 -128 -32 122 126 -72 126 107 -125 -79 -126 -112 125 -32 -73 007 
106 -127 -128 -59 -58 -122 -83 115 125 -58 -97 -113 020 -105 119 -111 -49 -111 -101 -62 -125 126 -90 126 -112 109 126 123 112 -112 -118 -47 -115 083 096 125 -67 126 -21 -107 -111 -21 126 -116 126 099 -127 -119 095 -78 -127 122 111 126 126 046 -56 -85 126 -54 092 -125 -111 119 
061 122 124 119 -73 125 112 -100 -126 -116 117 122 087 067 123 -128 119 053 -31 -18 -126 -41 -108 -128 -81 -72 -103 -128 -118 -127 -121 125 112 -122 044 -121 048 -119 -123 071 113 -83 125 -124 009 000 -67 121 041 126 017 -59 -110 126 -52 075 111 -122 020 091 -117 -114 -40 -123 
096 074 065 -110 -28 125 -47 118 087 105 126 124 104 084 -128 126 -63 112 124 -95 126 -120 -126 -12 074 -123 -122 -127 115 -89 121 -115 051 110 -128 126 -52 -125 120 116 119 -117 -128 126 -128 -53 -124 -83 079 -128 -121 -87 -123 122 126 -77 126 -46 125 -55 -127 103 094 004 
-109 121 -128 -92 113 -124 -112 -54 -117 -119 124 126 -61 -49 116 125 115 -124 -67 -27 057 126 098 090 121 -44 049 116 -127 126 -93 -117 121 -103 -100 126 -68 -121 -127 126 -51 116 111 074 -122 -109 -128 124 123 -128 -128 -125 107 -126 082 -125 -128 -123 -127 104 098 -115 020 -93 
101 -80 -127 -128 -31 -98 089 -122 -125 042 -127 -67 079 024 -128 118 -128 017 075 -08 -108 -21 -29 080 052 118 075 -124 126 125 099 111 070 082 -101 -124 -90 111 -127 -127 -105 061 027 -128 -123 -90 -75 -128 -126 -109 110 118 057 -128 -127 -50 -121 -60 126 112 078 -61 112 115 
-119 125 123 -102 082 126 -83 121 -62 -102 124 -120 117 -124 -63 -108 -122 111 114 -36 -93 035 126 -86 -122 -128 126 122 126 -49 040 -98 118 -117 -117 -125 -125 122 072 -128 066 007 126 -103 124 -103 108 -98 070 -108 -126 -113 -128 -94 -127 113 125 083 122 119 121 081 068 -121 
088 119 -127 -128 117 -44 081 068 -108 -45 -127 102 114 -127 -128 -122 126 -122 041 -20 125 092 119 113 -127 124 -126 125 126 -93 032 001 -49 -72 -127 -05 122 -127 -84 125 -120 124 126 126 -128 084 125 126 051 -128 013 -38 103 -98 122 -125 -128 122 -128 -126 116 021 089 018 
102 126 -128 121 028 -111 -73 047 121 -71 122 110 -74 121 116 -91 126 -101 123 -10 126 126 124 031 084 123 -111 126 -128 101 -128 105 -91 084 -124 114 -10 122 099 -125 080 -35 -122 066 -127 117 -127 -122 -128 105 125 -98 125 -124 -128 -126 123 -32 -127 -128 -114 123 107 -121 
084 -105 -126 -128 -35 -116 -90 -118 -125 -101 -60 087 081 -90 -122 -110 -128 -104 125 119 -128 -71 122 -115 -102 113 -128 -121 123 -124 123 118 089 -09 -105 126 122 126 -123 121 -111 -110 055 -124 -122 047 126 -128 -128 -47 -127 -93 -128 -124 115 -43 082 089 -124 -21 -18 074 -46 -112 
-97 112 126 105 055 -128 -85 122 125 072 -128 -122 -02 -96 108 -102 -46 -99 125 114 -128 111 124 121 -119 -122 102 -69 -115 -127 -128 125 031 108 126 -128 124 -118 -125 -119 -93 125 -128 -121 108 066 126 -92 -105 -128 125 120 095 -125 -83 094 087 -114 -127 -119 -125 -123 -113 -80 
111 -122 -117 098 090 090 -15 -99 105 109 119 126 -24 053 -128 -120 -52 -117 -114 081 104 -113 -61 126 062 -127 018 019 -119 088 045 -120 096 019 123 -120 063 120 -111 -128 125 -84 -126 -128 -103 -13 125 125 -99 -127 126 -12 -128 -49 -58 060 -125 -84 043 064 -112 106 017 -127 
-98 121 126 -121 -01 -119 028 -84 126 093 -75 -114 -84 094 122 126 029 -126 -102 024 094 116 009 102 103 -127 -112 121 -98 -124 -114 -86 119 -122 -92 -128 120 -128 122 126 123 125 -123 -128 -118 097 -128 125 -123 120 -128 -88 126 -121 -128 035 -127 -122 -128 -84 073 -125 -93 -123 
068 125 -104 089 -91 -116 122 -122 126 -19 -120 126 114 -126 098 126 -69 107 106 -116 -124 125 117 -114 122 -100 -118 122 123 126 123 123 074 -119 122 126 113 -128 -104 112 -116 -119 126 121 034 067 113 -103 -128 -116 -101 -92 119 -120 030 -101 111 125 -128 -117 -128 117 071 -126 
084 -108 -120 -127 -32 112 -100 107 126 014 123 -85 -110 091 -126 -114 -128 090 -112 -24 122 -128 126 097 117 -51 120 -128 -119 119 -128 -127 -120 010 126 -124 025 -120 125 -123 025 102 126 -96 -117 093 -103 -16 126 -128 125 121 120 022 -113 125 111 -111 028 126 063 059 -98 125 
122 114 -128 126 065 -32 -38 -124 116 -73 038 123 -115 066 125 -112 -115 125 -124 111 121 109 -110 126 100 003 -98 -128 -126 125 113 -119 -109 056 -126 118 -36 -123 -03 -113 113 -127 092 115 011 -108 -108 -128 -112 -128 121 106 -80 121 -120 -120 126 -88 -112 -127 123 -119 -55 034 
-76 -50 126 -105 -99 125 122 051 -128 122 -109 125 052 -110 -115 -109 -127 112 -115 059 121 -126 -122 125 -125 001 -126 -102 -123 -124 -128 -126 -51 -82 -120 -125 -110 -76 -95 -104 120 116 121 -128 -125 106 -125 -123 -86 068 -126 -117 126 -127 043 035 -100 110 126 115 -59 121 094 -127 
030 112 023 -125 -87 -118 098 -52 -125 -111 123 -114 -25 -63 098 -121 -128 079 032 118 119 079 -128 084 124 -43 -128 -128 -124 069 123 075 -11 100 -109 125 -118 -127 -97 057 062 -105 -121 099 126 064 126 098 -118 -116 126 -120 -127 -118 -123 -74 -82 120 -101 -126 120 -93 114 -14 
124 -121 097 -37 126 106 -127 126 -95 002 041 -114 -86 -128 -116 -100 124 -118 126 -128 110 101 116 -128 -109 109 -05 -52 -45 126 126 -126 126 123 111 -127 125 -26 120 -76 -117 077 -97 -120 -122 -128 -100 -128 -63 121 086 -128 121 -127 -128 -83 -114 117 -104 124 126 -126 126 064 
-119 -91 107 -127 -109 126 -86 -112 -30 -71 -46 -110 086 -118 -12 -127 -108 -35 -126 -128 -71 -106 -118 116 -114 090 -106 -23 111 -120 -111 -15 -92 -85 -60 126 077 -93 126 -113 117 118 -111 126 105 122 086 126 059 -107 083 -128 -102 118 121 123 095 116 060 125 125 105 -128 126 
081 122 094 -128 -113 -128 040 105 094 -97 121 -125 081 -126 -125 091 126 126 120 044 007 126 -120 121 -105 063 -65 061 052 -110 -128 124 -115 126 081 081 -112 107 -95 125 110 051 126 -128 -58 -15 -104 -127 063 -123 -112 122 -119 067 -128 125 -124 035 104 125 121 122 -105 125 
-124 -26 -101 -90 125 -127 125 -128 006 -84 -128 -114 -83 123 124 100 -128 -73 -113 -115 -125 -100 -127 125 -61 126 -112 -114 122 101 125 112 -124 -113 -52 -123 121 -03 126 114 126 -98 -125 -111 124 -126 105 -116 -99 099 -110 -122 -119 -128 -125 -64 -125 097 115 126 -107 119 126 -58 
-127 082 020 046 079 -114 116 125 -60 012 -111 116 -110 102 123 126 -127 -69 125 114 -81 -94 126 124 109 053 -104 -71 000 074 -70 123 -126 125 -73 -126 117 119 -128 126 -52 075 126 099 095 126 -25 -127 -96 024 -127 041 111 -128 060 111 126 122 -45 106 -123 -127 -58 -128 
-117 065 -40 124 -88 -118 110 118 -21 -91 009 -66 110 078 126 -117 -127 074 -120 102 076 124 -117 126 -88 108 -115 -60 -114 109 070 -110 111 126 -28 -125 -124 -74 126 126 113 -72 -94 -116 120 126 -121 124 -110 120 -108 -128 104 -78 063 -118 -81 -119 -113 115 042 068 126 -115 
-24 043 115 -103 029 119 125 121 001 -48 123 -91 -36 -119 118 -117 126 123 -51 090 -108 -121 112 126 088 126 -100 -15 124 -128 048 -122 125 106 110 -114 -126 -113 -115 112 -104 -37 -119 -128 087 126 -123 -104 124 -118 126 -127 -106 119 -126 -05 126 -119 097 -98 118 125 -117 -115 
068 057 070 123 -128 -114 089 126 016 098 -06 -86 121 -121 -127 125 -117 125 -105 122 126 -94 122 -122 118 100 103 -104 -122 -100 126 071 123 -119 078 123 036 008 -79 126 -117 111 -128 -49 -94 032 -22 126 093 -111 087 -94 108 -102 -128 125 -128 -123 -74 121 -118 120 -124 125 
109 -120 -57 038 -36 126 -128 -128 -117 006 -126 -114 -119 -128 -90 -60 126 -123 -126 -127 073 054 126 -61 122 126 -91 -85 122 104 -121 -125 126 -125 -122 -127 -120 105 101 090 124 -25 -127 113 -122 118 -120 074 -71 074 -92 123 081 126 -114 -70 -125 125 017 -60 -128 -100 125 032 
-102 121 100 -45 -128 124 -105 126 114 084 -118 -127 -121 126 042 124 -123 -125 -128 -128 -31 -126 -128 126 104 122 123 034 -124 -08 101 -17 107 -123 -112 -18 -127 010 -125 -127 125 119 -124 -128 080 125 -97 -119 -106 -118 -74 -128 040 120 -85 125 117 119 122 -124 126 126 125 -127 
-69 083 021 -110 117 -109 -26 126 -121 -30 112 -116 094 -128 098 -81 122 -126 -101 -128 -127 -127 -03 126 -19 075 120 -118 -46 118 -84 -121 -121 -124 041 123 -112 -122 118 -116 -88 -90 -128 126 -117 061 115 -93 -118 -24 -89 126 -100 -118 -128 115 -123 126 066 -97 -128 -96 -126 -108 
124 -121 -85 126 -103 -96 -121 046 069 067 -94 125 018 082 -124 108 084 -113 077 -128 120 092 -74 123 119 123 125 -118 093 -89 -105 -79 -127 097 101 090 123 -117 119 108 121 105 -127 -20 -43 027 120 124 123 112 -128 -128 115 030 124 -127 -119 -121 -38 126 046 -128 125 -74 
125 123 -68 -118 -95 126 076 075 -07 003 -76 -125 057 -87 -127 122 -88 -128 -112 106 -77 -127 102 108 110 116 125 -105 -87 047 -128 115 -40 -127 -100 092 126 120 -114 -94 -125 108 -122 -128 -94 -128 116 -128 125 -115 125 -119 120 124 126 -36 -128 126 097 -125 -54 -127 123 090 
-127 -108 -09 007 -128 -128 123 -127 120 088 -127 120 -118 115 -75 -35 -120 111 123 -128 -124 -81 126 -95 -05 121 123 -62 016 126 124 077 126 126 121 120 067 -52 -68 078 -128 064 -127 -128 -125 -37 123 114 -122 020 -128 120 -110 124 -128 089 121 -19 047 125 -126 -102 -128 114 
-126 124 112 -96 125 121 -104 -128 -97 -111 -126 123 122 -117 120 126 122 118 -121 -118 -124 -128 124 126 108 -116 -121 -28 -120 -115 126 -126 121 035 027 -08 126 122 -124 106 126 105 126 124 067 -104 085 -126 -114 060 -122 -11 087 118 -120 -109 -128 111 -100 -126 085 -112 -126 126 
-124 -04 -56 107 -104 125 -127 120 093 -95 -125 122 124 -114 -87 122 -57 -124 046 -128 091 113 -113 118 -20 -126 -96 -27 118 126 -115 -88 124 120 -02 114 124 075 -112 116 126 -118 100 126 013 -127 -14 118 097 -38 125 -117 102 -81 -115 -88 -127 -120 121 -126 124 -103 -100 124 
087 122 -68 -116 -120 -122 -110 087 105 -100 036 -92 -103 125 -83 126 115 -126 123 126 121 119 125 -114 104 126 -115 012 023 -121 -123 099 123 124 -104 126 -57 -123 125 126 126 -119 123 -117 -70 126 120 -112 -112 -67 126 -124 091 -128 -128 090 -128 116 026 114 -127 111 -128 126 
-103 -100 105 -87 -113 -123 -123 -118 -118 041 -93 -126 -30 123 058 120 -126 -126 -123 126 -99 101 -128 -118 117 -121 125 -62 -118 -47 -69 014 -106 -86 -74 -117 122 119 012 119 -124 117 126 124 119 116 -114 -117 125 -120 109 124 027 -123 -122 -122 -107 -50 -73 -82 -119 -86 104 097 
-51 -97 -03 126 -126 -123 -124 126 070 087 115 011 -123 015 -126 -128 117 -126 077 125 -128 125 -02 -126 -73 119 -125 110 123 048 -124 009 124 -126 -111 123 -124 -84 046 053 097 -112 -94 107 100 126 119 -116 124 -95 016 125 120 102 -126 004 126 070 -113 -110 -128 -68 000 050 
120 -91 -102 -91 065 101 -120 126 103 -104 -72 124 -111 -95 027 111 -97 -126 116 124 -126 126 125 122 123 -82 -103 -98 115 125 -122 118 126 126 067 -68 -72 041 125 124 -128 -78 -125 -119 -122 -123 -118 -128 -02 -93 078 126 -115 126 -128 000 -104 123 123 -53 125 123 080 118 
-82 -105 -39 -128 126 -122 -126 126 -120 092 -19 015 035 126 -90 -128 125 068 112 116 -127 -127 117 123 -113 -55 117 -106 070 -128 -127 -82 109 124 -62 -49 -113 -79 126 -107 -125 -92 -88 120 121 107 -84 -122 -124 118 -128 -127 116 -83 120 -127 -96 039 -123 059 125 123 -126 123 
109 -89 124 -116 -127 -120 -111 -96 -103 -87 124 126 115 -119 -104 -119 -127 -126 -116 -126 -118 -111 -121 -127 -123 -118 -126 100 -102 -114 121 114 126 -127 -37 125 -88 -123 -124 -128 -90 097 -100 -128 -110 123 -111 -127 -122 070 126 -110 -85 125 116 124 126 -128 076 -84 098 -117 109 -114 
015 -57 124 -126 124 -124 -109 -102 -107 071 090 -105 121 -98 -69 120 -107 -93 125 -128 -127 -125 -128 126 052 -117 -15 -118 124 -122 -114 -128 -98 121 027 -112 -101 -84 105 125 -110 -07 126 -126 124 -119 118 -125 095 -03 -111 116 106 125 124 -64 -128 -115 -99 -98 124 -101 126 -121 
121 098 -115 -52 125 116 125 125 -114 -46 -128 125 -119 093 038 124 -128 -124 126 116 111 -37 093 117 -57 -73 -127 102 109 -108 029 117 -48 -125 053 -115 -107 118 -128 -114 -49 -37 -111 -01 110 -128 120 -104 -117 -121 126 -109 076 126 090 082 -128 124 116 103 122 126 109 -126 
-122 -122 096 -127 126 051 094 123 104 -97 -118 -79 114 -113 126 122 -118 -127 -126 126 -110 -115 123 -128 -120 125 124 108 -115 124 -128 -124 125 -127 -56 -126 113 095 -68 -16 126 -119 126 -112 039 124 124 100 029 -81 126 126 029 125 -128 -80 086 -119 -124 -127 -78 094 053 002 
-43 122 -100 -96 -127 122 -117 081 097 -59 074 -107 -108 -127 123 011 -128 -127 -124 126 -31 126 -127 -86 123 077 108 -66 -50 -100 -127 009 -119 112 116 115 110 -36 -105 044 110 -29 123 123 063 126 084 009 -106 -115 071 126 098 -128 126 -113 -124 -126 051 123 093 014 -128 -123 
091 121 -111 104 -125 -128 -76 124 -80 105 -58 126 -118 -128 125 122 078 088 -107 044 -125 125 -115 -119 -56 126 -117 027 -50 -127 -49 -120 -125 -128 020 057 090 -110 -102 -128 123 -120 -128 103 033 106 122 111 116 -109 018 -05 115 126 126 114 125 -100 -93 -89 -114 -110 125 -125 
099 066 120 -107 -115 -121 -62 107 119 -98 081 -125 -38 -99 -127 -112 -121 -128 -123 -81 124 105 120 073 092 -126 113 -113 -109 -126 -106 -47 125 126 -122 115 119 -12 -86 065 -128 085 -97 126 -119 -122 -107 116 112 -123 098 114 -73 126 126 126 126 -120 -107 054 060 125 125 -108 
-127 097 -117 096 124 074 080 122 -122 -103 -116 069 -90 -126 -128 068 124 120 -106 -128 122 -04 -125 -30 049 125 076 -104 108 -88 116 122 094 -69 075 -103 -127 117 -126 122 -128 067 115 -111 -110 126 084 076 125 113 108 -125 037 -107 125 -106 -128 -126 108 062 125 125 124 -124 
064 118 -119 -127 068 -04 -118 022 -84 089 053 -109 122 117 119 124 -120 -119 001 -128 124 044 -127 124 -114 094 112 059 -124 -50 044 -127 -49 119 004 -118 054 063 031 122 -126 111 -128 -128 114 -128 -117 105 -125 -115 126 -128 -61 056 -128 -103 -128 -109 099 -113 -09 -119 125 126 
-95 000 -62 -90 078 121 078 -127 -99 -109 122 123 -110 123 086 101 -104 068 -126 -125 -108 -125 125 -121 105 -127 -115 -66 118 125 102 -122 108 126 -107 126 -112 120 -120 -45 -127 076 -128 123 060 -117 124 125 125 -74 -111 126 -33 -68 114 -116 -99 116 -104 -119 -126 -112 -124 -52 
123 -101 -87 -123 070 120 -128 -74 082 -89 -128 122 116 -16 125 -01 003 122 124 020 -126 -111 -123 -69 -119 126 067 077 -83 103 126 115 123 122 -20 -56 121 -92 008 125 113 078 126 126 077 -81 108 122 -110 -15 105 -128 120 126 125 111 037 126 -77 -113 -127 -119 -125 113 
126 067 123 -125 120 117 102 -118 070 -85 -127 -87 -115 124 -80 123 -117 104 -113 -118 040 -111 -110 -128 -122 -128 126 -117 -92 112 102 -10 124 -128 -109 089 -126 104 125 -103 -128 -108 093 -128 -46 -128 -117 125 077 -90 -96 -128 -29 -127 111 -102 -111 115 -40 124 125 117 095 114 
-125 -118 -84 -41 -121 107 102 126 -117 -91 -95 124 016 -128 -119 -118 126 077 -126 -128 -122 001 -123 -128 -45 -126 088 -105 125 -123 -121 -56 -127 -128 -30 126 093 112 120 -127 -128 116 -111 -127 117 -123 -105 -124 -108 050 114 -121 027 125 -99 -78 126 107 124 -86 -64 120 -125 -93 
-124 083 -81 -127 121 120 124 119 095 -103 -117 -119 -68 126 055 110 124 094 -128 -105 -120 114 -53 126 -89 125 -48 -118 109 125 125 -112 072 -24 -51 -125 -126 -113 -88 -127 124 -98 122 -122 -121 111 117 126 115 -101 -85 -128 -78 -06 013 -124 126 -124 067 -118 076 -108 -119 -75 
-124 -103 113 -126 125 126 126 125 -55 107 -123 060 119 126 124 093 -114 -101 -127 116 125 -128 -18 126 -84 -47 122 051 112 -118 -87 -127 -37 -128 029 -118 -117 048 -123 -109 125 092 -56 -125 -44 -128 124 114 -125 105 -128 -66 120 -122 123 -127 -124 -128 -52 090 -127 125 -128 082 
126 -53 112 -93 -125 058 121 -86 -18 014 -128 -114 -110 122 126 107 126 -126 -128 126 -79 -126 -127 061 112 -124 -40 071 -22 -113 125 118 -126 122 098 -103 106 -123 104 032 064 111 126 123 -124 126 -123 -20 068 -114 125 080 -110 -122 -128 -09 125 125 033 125 000 -114 -05 -116 
109 -116 -102 -21 -128 122 -127 -112 -07 -107 -29 123 107 117 -100 -125 -128 -127 125 126 031 -122 -117 126 108 124 -123 -07 123 126 -127 117 -120 -112 -120 095 -69 050 -108 125 -126 -33 -128 125 -99 -124 -90 -105 -121 -45 126 -24 114 107 125 -121 126 -93 121 -125 -112 -127 117 -104 
-96 123 -95 112 -126 -125 -116 -107 -21 -98 -107 124 -64 126 111 126 123 -124 -125 -127 077 112 093 -79 -74 -126 126 -112 030 -127 077 -73 -128 -121 -119 125 -01 056 -123 -113 -94 005 -77 -127 -92 121 125 110 -126 -121 079 -128 063 -119 -110 114 126 -127 119 069 -126 -80 -105 -124 
126 -118 -53 -119 022 -119 122 -99 113 081 113 -82 116 -96 123 -127 126 018 -122 -127 -79 -102 -121 -81 -50 122 113 -117 099 114 -98 -128 120 095 -89 122 -89 053 095 126 -51 103 -33 109 -118 -116 -102 -114 125 116 -128 097 -24 -114 -128 093 -127 -96 124 -128 122 124 -126 123 
-101 -100 111 -117 119 125 125 -120 112 042 120 124 096 123 -87 -124 116 095 124 -128 126 114 124 117 -115 -126 -42 -114 -114 -109 -56 121 -118 -128 -101 -119 098 121 125 -121 -117 -119 -128 -115 119 126 -79 119 -114 -101 -116 124 -19 -127 -111 120 123 -116 119 -90 126 -127 123 124 
-91 -53 070 116 -128 117 -128 -115 -66 -37 123 126 100 126 123 -86 111 109 125 105 -119 -120 125 113 -75 126 126 -74 010 -112 126 085 126 -122 120 -123 -127 -114 063 -102 126 -116 -128 095 011 -118 -43 117 039 087 -127 -122 -94 053 -90 125 -128 -106 117 -105 123 111 110 -21 
-117 -46 105 056 -128 -118 -68 -128 089 -105 -128 062 -112 -128 -93 -114 -125 067 053 126 122 -124 125 -127 -79 125 121 017 124 -128 126 -125 126 092 -46 -124 -107 -125 121 -91 -125 -109 -87 -109 -04 -125 096 -125 -111 102 114 123 -50 -126 109 124 -128 126 124 044 -116 -79 -112 -116 
-126 -47 014 -128 -104 126 084 -121 -02 -67 -70 121 -123 -116 125 -85 -128 -80 126 124 -104 -128 121 -128 123 107 -39 -63 117 119 050 122 -25 -128 072 121 -100 -99 102 -128 -110 -100 -127 078 101 -128 099 -128 -01 003 -28 -55 010 083 037 115 -09 -66 077 -128 -104 -71 -128 112 
125 055 092 076 110 070 -115 126 112 -77 -124 -52 -123 034 055 -128 124 -125 119 -128 098 -53 -127 108 -39 075 -110 -58 -105 126 119 117 -55 063 112 005 -101 -98 -103 126 015 109 126 098 -45 126 -121 -123 109 101 096 -126 -71 -124 -128 056 125 -124 -84 064 101 -117 126 -126 
-68 -84 002 124 -128 -45 114 -113 -121 -25 125 051 -119 111 -116 101 045 046 108 -127 064 110 -117 003 -119 126 -80 -107 115 120 -88 126 104 -127 -117 041 -120 -91 122 125 -103 -37 126 -122 -122 120 124 118 110 -16 126 -111 -117 -32 109 -125 -111 -128 081 026 109 -122 -116 124 
113 -122 090 -53 -128 062 -122 -128 062 -22 -42 122 -94 -55 -123 097 125 101 -118 097 121 126 045 -128 -112 -109 017 102 012 -128 -126 -83 -125 -124 059 -23 125 122 126 -127 -82 018 094 126 123 124 -127 126 091 -116 -128 124 110 076 -117 122 -92 -128 -101 -118 -125 -125 -76 126 
124 -124 020 124 -128 -68 -107 126 -113 -45 117 101 070 076 -85 -111 092 115 -128 126 -109 -98 119 018 -34 -128 078 -83 093 093 -127 -123 -54 119 -13 -80 007 -99 111 124 -90 -13 120 -110 092 125 094 059 125 -112 -112 106 012 126 -71 -124 -128 -128 026 113 -20 072 074 -74 
-121 035 -68 -126 -02 -128 106 126 047 066 113 -116 -113 122 123 -124 087 -127 -128 -120 125 -57 -111 -127 -105 -126 124 -55 123 -125 -80 -40 -110 118 -66 124 -126 -102 -128 094 126 -116 118 -125 108 122 -103 124 -107 103 -49 126 -120 -40 -128 -122 -28 -123 -75 -126 060 124 -121 061 
-53 -03 114 -128 -98 -124 124 -99 -47 021 -126 -85 123 -120 -65 -120 126 -124 126 -128 123 122 119 -127 029 118 058 -64 -121 029 -65 -126 -128 -118 004 120 -108 -35 081 036 107 109 123 126 -13 -119 126 -114 082 039 -127 126 -22 126 -116 106 -121 -119 -105 -79 -125 125 -128 -122 
-93 -52 038 110 097 119 115 121 -68 -54 125 -01 101 087 -112 -34 083 -110 126 126 123 126 125 125 120 088 -125 -67 015 -125 126 -127 124 -115 119 120 108 -93 124 -57 -34 -111 -128 -128 017 105 -111 125 -118 -116 -57 122 -120 126 114 -85 -95 071 -107 063 120 126 106 -09 
121 108 -121 -21 120 126 088 115 -42 109 -128 -125 -121 125 -127 -66 126 111 -78 124 125 126 -119 -126 106 021 -128 -02 117 106 -100 019 -94 -40 114 024 -37 -84 -118 -128 -10 -55 -126 119 -116 126 -126 012 -127 -119 057 054 120 036 088 108 -108 122 032 -84 069 104 126 126 
-70 088 055 108 -119 -09 119 -44 120 037 -128 -30 113 -113 100 120 -123 125 126 126 -49 -121 106 110 -41 117 -121 -73 -94 -118 125 126 103 126 019 125 -108 049 -83 119 124 070 096 -34 121 125 -110 -112 125 114 -128 012 026 -128 -128 -123 -128 -126 064 107 125 -124 118 -90 
-126 -87 057 126 -113 -99 -58 126 076 -32 -88 126 -97 -105 -128 111 -93 -53 115 077 124 -122 122 126 -110 -128 -105 -109 120 -96 -117 -125 125 098 020 -128 125 -75 125 -128 -104 -105 125 122 -112 111 -122 126 -24 122 -113 052 114 125 -127 -116 -113 -60 119 -127 -127 -126 -112 110 
126 -95 117 -23 123 -122 -128 100 -28 106 121 -127 016 123 126 -101 -92 -124 -110 -128 124 115 122 124 -39 -118 077 070 -78 -128 -82 -10 -128 126 -32 111 -52 -116 -125 -128 -95 056 -127 -128 -86 113 123 -105 107 061 126 126 119 -106 119 -113 -120 041 -101 -124 -125 126 115 090 
-53 -112 119 125 -128 112 -105 -128 -108 -73 057 124 075 -124 115 123 -122 -124 118 -128 -106 -120 -128 -104 123 126 120 087 043 117 125 -126 124 090 089 -98 118 122 -117 126 -107 -87 -126 119 -76 -127 -112 090 124 107 112 073 -08 -06 -120 -125 125 126 115 032 -106 126 049 -108 
122 -124 -45 -22 -128 116 -99 122 -109 102 -63 -24 -75 104 101 -59 113 -124 041 -122 125 -127 -128 -128 -16 -58 126 033 -123 -121 124 048 124 047 -77 110 104 -113 -57 120 -128 -46 -128 -128 -123 119 -46 126 125 -04 126 081 -123 125 120 112 123 -123 -86 094 -128 -104 073 121 
-114 121 019 117 038 119 119 -125 112 -110 124 113 -108 050 -69 -110 126 106 117 -128 119 125 115 -127 -73 108 -125 098 041 -127 -126 045 -100 100 -69 -97 090 120 -86 087 -128 108 042 019 074 126 119 -111 028 -120 126 074 -104 -128 126 -124 -115 -107 -122 125 015 -128 116 -96 
-126 -71 -103 115 -127 -125 125 -128 -45 072 126 -104 086 -128 -128 -92 -112 114 124 111 039 113 122 -128 116 124 123 059 -88 -93 126 118 -128 -127 -63 -110 -100 -113 126 106 -105 -50 118 126 094 -119 118 125 110 009 -105 126 049 -119 -79 -124 -110 -120 121 -128 117 105 -124 088 
-120 101 -109 -119 015 -16 -128 126 104 046 -128 122 -122 045 073 -111 123 -49 126 -61 088 -128 126 108 105 -128 -03 101 -27 -64 084 -93 -128 -72 -109 -92 -127 119 -62 123 -98 077 -127 -128 -26 -119 123 126 -49 -121 126 -11 -60 -99 -109 -118 125 -122 -125 081 109 -90 122 -01 
122 083 087 -127 -128 -112 123 118 108 -03 126 124 014 -65 -109 125 123 -113 -84 106 -117 -67 125 -128 064 111 125 111 -88 096 -124 102 -63 122 120 048 -121 076 116 052 126 -118 045 126 105 -47 -127 126 -56 104 123 -128 -119 069 125 -78 125 -123 119 117 119 -126 125 059 
-13 108 -114 116 099 -118 111 -121 -85 -47 -126 -86 096 125 111 118 -120 -48 -116 109 -62 -118 117 124 -54 126 005 113 -124 126 118 093 -127 -126 103 -100 124 -103 124 125 126 112 126 123 -97 114 109 116 -99 090 -23 -103 102 -108 -10 -126 -128 126 084 -124 121 -128 105 126 
-128 118 -75 126 121 126 121 -124 037 098 124 112 028 118 092 -127 -121 126 -128 003 -91 -124 120 -76 059 126 -102 109 -117 -124 091 056 -126 108 101 -19 -127 -119 -128 040 -62 085 -42 -128 114 -127 069 -126 084 006 -128 119 115 125 000 125 117 089 -83 125 124 014 -128 -119 
-120 -78 -39 -77 -118 -126 124 -127 -97 103 -50 -107 077 126 -126 -115 -111 105 126 -119 -66 126 111 -95 -36 125 126 -94 124 119 -97 125 116 119 -06 113 122 -103 -83 -127 126 -44 -104 -118 118 -120 123 -128 -126 014 -113 -124 -113 -98 122 -123 -115 -116 -78 124 -118 -120 126 -124 
126 -124 086 -113 126 118 125 112 -02 092 125 124 027 -91 -127 126 -120 101 125 -99 095 119 126 126 043 -128 -97 -93 -101 -123 -89 -116 -127 117 110 -100 -11 062 -122 -117 -111 108 104 -128 -65 053 -69 122 -123 -75 -126 -126 -75 -105 126 120 118 010 -105 -126 -108 126 116 124 
124 -122 -25 107 125 126 -93 -111 -38 055 126 108 -100 -96 -66 126 -107 079 126 126 -127 126 -121 -126 032 083 125 038 060 -128 125 -120 126 -114 -104 126 -83 -125 -101 097 124 -104 126 116 118 126 123 125 103 -105 114 126 -112 -112 -125 075 -94 124 125 126 -112 110 095 -112 
029 -99 -41 112 126 105 -128 -128 -50 -29 -120 -107 117 -114 -39 -126 -116 073 -112 011 123 -127 124 -36 -116 031 -127 -52 -123 115 -63 -127 -128 126 066 125 115 -109 086 -119 -128 065 -35 -128 -61 -127 035 124 093 -123 111 126 -33 -121 -54 071 126 126 032 094 -128 089 -127 023 
126 123 105 102 117 121 -96 -118 -122 -80 -123 -126 118 -110 081 119 126 -109 -126 -90 -26 -126 124 125 -110 -95 -89 -39 -112 -109 -62 119 -125 -106 -102 125 105 -102 125 -120 111 -74 -126 -121 089 122 026 126 -95 120 -116 126 -117 -117 118 -83 -125 064 -99 125 -119 -115 -123 -127 
125 -100 122 031 123 -118 -106 125 -106 -104 126 103 124 -117 -125 125 -109 057 -123 123 112 126 -122 126 -124 121 103 -66 092 -29 125 109 -112 -124 -118 -109 -95 115 -97 122 114 -123 123 -123 125 121 095 -121 -101 -71 -127 -127 121 -126 126 -92 124 -123 124 125 -95 -127 -124 111 
-118 119 116 -125 -127 -119 -128 126 -111 -07 -128 123 -101 125 116 -109 126 -128 075 126 -53 115 124 126 116 -123 -110 -17 017 041 126 -122 105 -117 020 -106 109 -74 -76 -126 123 -93 126 -117 111 126 -101 -127 125 -50 126 -125 -03 125 -116 -119 -125 -128 059 117 -125 -123 -116 123 
086 -91 -91 -102 -74 119 123 -77 -120 -27 -128 111 112 -113 030 -113 -100 -102 -127 125 104 -119 -127 -128 -64 -122 -75 -32 -113 100 -127 -124 126 -124 020 -110 109 -116 055 -126 -126 090 -27 099 -119 126 -106 124 125 -99 -18 055 -98 047 -94 -78 -114 122 -29 -87 -105 093 -128 124 
-94 036 -114 125 -96 126 125 -42 040 017 125 126 -106 126 099 -128 -118 -101 126 -94 123 125 -128 -128 067 -128 123 025 -104 125 -83 097 -117 -128 067 -122 090 -123 -125 115 -128 -107 -116 126 122 -125 054 -124 119 119 -121 -123 110 -122 010 -81 113 116 122 121 -94 -128 086 -124 
126 089 -61 123 -104 126 109 126 056 039 -119 116 118 115 108 126 125 -78 126 -119 -62 -122 096 -89 -123 -123 113 -59 -114 043 -128 006 -128 -110 002 125 -123 -111 126 -88 125 -121 126 113 115 126 -117 -117 112 -107 -117 -107 040 126 126 -125 -113 126 -81 090 126 118 126 125 
110 -118 115 123 -43 -128 -125 124 107 -100 -128 -125 -15 123 -120 125 -116 -128 107 122 126 083 -101 -122 023 -120 -117 046 122 124 -127 -127 -85 027 -85 -127 -116 122 119 105 123 103 -128 126 -02 067 109 -128 125 -108 126 073 060 071 -112 125 -128 -91 072 -128 100 124 126 -128 
042 113 109 -111 -128 -99 -128 -127 -97 -56 -105 -127 -95 -126 121 -111 125 120 126 -127 -97 053 -85 124 -31 -126 112 -24 120 026 117 -126 -127 126 -121 -127 117 109 -128 -102 125 119 126 -128 106 126 -114 124 -29 -68 073 126 -100 125 077 109 063 126 121 -127 100 -74 119 122 
125 118 -87 124 121 116 123 079 -101 -04 -126 -111 -81 020 115 121 -124 126 -121 -128 -122 126 -117 -124 -39 126 -75 -96 -107 121 040 -12 -105 124 120 -117 -106 -123 -117 112 -98 -99 069 116 120 116 124 -119 -52 -116 -123 126 -122 126 126 126 126 126 122 073 -68 -123 126 -100 
117 -123 -102 -88 -55 104 -106 125 -60 -103 126 125 096 -127 -126 -105 094 -127 124 -114 -114 120 126 -118 000 -127 122 059 -60 064 -92 125 -97 -123 119 -121 -46 120 -107 093 -107 -75 -118 -126 -62 111 -94 -112 120 -110 -128 125 103 126 -122 106 -111 126 -121 124 -01 -112 122 -127 
-28 119 079 -94 -105 -127 126 126 -42 -109 126 -118 028 -127 124 -128 -111 -123 118 -120 -15 017 -118 119 122 -128 120 -98 -106 -113 -91 119 -124 114 -103 103 -117 -105 -88 -110 -67 116 117 -127 118 -120 123 -114 113 -57 -127 -95 -118 -122 -128 065 -124 116 088 -128 118 118 -116 116 
-55 123 116 -100 068 116 -125 126 -75 -44 117 123 118 126 124 -120 -110 120 123 126 123 109 -123 -116 -122 126 126 062 110 125 -128 -125 -81 109 -118 119 126 105 115 -100 -128 -21 -126 126 118 -114 -108 118 -109 -16 107 -120 -116 -91 120 125 -126 122 124 120 126 126 099 123 
125 -115 -98 030 -127 126 126 -128 -62 082 -83 -112 -103 123 -117 123 105 124 -128 -128 -100 -119 126 -128 -68 115 -99 086 -123 075 -128 125 126 120 076 061 -119 -19 -75 119 126 037 -128 -112 119 096 -126 087 009 078 126 -123 -61 123 -123 114 081 -117 121 110 124 -14 -128 126 
-111 -92 091 082 -107 126 125 -34 110 -110 -127 126 -98 090 107 118 119 042 -128 -45 125 115 109 -121 108 124 121 088 088 -36 126 113 -122 124 061 -83 110 114 092 -45 126 118 -124 -125 -124 126 -123 125 112 104 085 126 -75 -126 110 -35 126 125 -93 087 -127 117 -80 -123 
-29 122 056 122 -125 125 104 126 -99 019 017 -119 025 -123 126 -122 -128 123 120 -89 125 -80 126 119 108 111 -28 -21 121 109 -121 -98 -93 -81 -98 125 121 -10 -128 124 -128 109 106 115 119 -128 074 109 -57 105 -128 126 -72 -108 109 081 126 -83 -104 063 -101 -128 039 -128 
118 032 103 -126 115 -108 086 -114 111 087 126 -49 099 -124 -128 109 -124 -112 081 126 079 -127 -118 054 121 -128 124 -113 -106 063 026 -91 126 -103 -119 -123 -95 -02 -118 125 123 040 005 126 059 126 -126 -98 -113 -07 126 087 -29 108 126 125 -128 -120 115 126 -114 125 -117 125 
126 -112 118 104 123 122 -98 126 -102 -93 -87 100 117 123 -97 -128 -124 123 -118 121 -112 094 126 -128 -95 117 -105 031 079 125 126 123 -128 126 -16 114 114 112 -128 -01 122 -120 126 -127 -72 -115 097 -127 111 019 124 -27 -115 075 -95 120 -128 126 032 -07 110 -125 -128 -127 
120 -51 -86 -127 126 -121 126 -128 103 -11 118 117 077 -125 -127 -123 126 117 122 -120 -127 -122 -114 126 -96 106 084 109 -59 097 120 088 116 -127 118 -121 123 060 -126 -60 126 -116 -20 126 -98 -126 122 126 -84 037 -127 126 110 118 -126 125 -124 -123 125 -124 125 125 111 126 
114 119 092 120 007 -128 -128 -113 120 099 -127 -126 -80 121 -32 -124 126 124 -70 -128 124 -60 -81 126 094 -125 056 077 059 016 125 -125 057 126 108 114 -94 119 -117 -126 110 -104 -127 -126 123 042 112 -128 -126 083 024 108 048 -124 -43 -118 126 124 088 126 -111 116 -128 -128 
126 006 -42 099 125 -128 -126 -124 -47 -69 089 124 -89 122 124 -127 123 -72 105 125 115 123 -54 -56 -125 113 -127 035 040 069 077 -126 -118 101 -122 -101 004 -50 120 -71 122 -88 -119 126 105 016 -127 -122 -124 -123 126 060 -120 122 -128 -115 -22 -117 -12 -18 -101 114 104 -48 
-47 -123 -112 -124 -80 -77 109 -128 -37 -104 -126 -63 -121 120 -120 125 -112 -127 101 -85 -22 115 124 108 101 097 122 -94 -26 -16 056 069 125 125 -16 115 -121 -124 -105 126 -124 -114 -114 -128 050 090 -123 -104 -62 098 -06 -122 074 040 -67 -29 -107 124 -67 -117 -128 -128 -127 122 
-125 -108 -84 088 020 -122 -94 -125 -111 -52 125 116 -13 -128 107 107 -126 -127 039 125 -126 126 097 -128 -121 -128 102 -03 -125 -126 -103 -128 -127 071 026 104 124 083 -31 122 126 110 061 126 110 -112 059 -125 -21 100 -71 105 -45 107 -125 125 -127 -116 -121 -82 -125 -122 -127 -95 
-116 094 072 122 -15 -127 126 -107 117 -70 072 125 051 126 126 -97 126 116 -128 126 -23 125 -127 -112 -111 -120 -126 033 023 -128 -56 -97 125 118 062 090 040 -04 117 088 -101 034 -83 126 118 054 -115 124 -105 032 -128 124 -100 -97 121 124 -118 -123 -82 086 126 112 -124 094 
-123 098 117 126 -95 126 126 088 065 -86 -124 -123 012 -127 124 095 126 -119 -127 -15 -06 -124 119 126 -96 -126 032 -117 123 -38 -123 -128 -79 -127 -69 -22 -127 098 -91 125 009 060 -82 -128 095 -121 118 124 081 120 097 -111 -123 125 126 -123 -85 101 -64 125 126 118 092 126 
-123 087 085 -89 -127 -119 085 -104 -115 -93 -55 -104 -113 126 126 -122 -127 -128 098 029 -73 108 -122 126 -21 107 -84 -71 111 -120 126 -117 -110 -116 069 070 -126 -107 -128 126 -128 -120 126 125 -57 -117 093 121 -54 -93 -104 -128 -118 -128 050 -60 -45 115 -56 -81 123 -100 -112 -125 
126 -120 -111 -115 027 -46 126 -124 -109 019 -121 119 -87 -114 -124 -114 120 -123 -76 103 -98 089 122 011 123 -128 111 108 121 126 126 -05 -81 -102 -71 -63 -67 -69 -126 124 -128 065 126 -121 -28 -127 107 126 -95 118 126 -41 098 -127 -92 123 050 -120 -123 035 -86 -29 -115 125 
-94 076 -95 122 126 126 126 106 -49 107 -81 -103 -44 -126 -95 -119 112 124 -109 113 -103 -122 117 -99 -97 -128 -126 -27 124 122 124 123 126 -64 067 126 120 029 -127 -118 123 -115 124 126 053 117 -61 122 110 122 -118 125 011 117 -06 -58 119 -98 123 -126 095 114 -126 -102 
-02 -114 036 -125 124 116 -128 004 -20 -64 126 -126 -14 126 068 -78 126 -80 -124 126 -99 088 -42 056 -49 -128 110 -108 075 -84 -107 122 -103 -87 -88 -45 -49 -124 -127 078 114 035 122 -125 -112 -127 -43 -110 103 011 114 124 022 125 -128 -79 016 118 027 079 126 100 108 -127 
107 -107 090 -123 053 -128 -118 125 116 110 -52 -127 -108 126 -108 105 -121 089 072 029 052 -125 -128 085 -122 109 123 -100 -04 089 -126 -53 -19 -35 071 -126 -123 016 -52 118 -109 -99 -125 126 -124 -78 104 -120 -121 -104 -122 118 -05 -117 -122 -125 -119 119 117 126 126 -73 -128 126 
-127 -95 -121 118 126 -125 -68 -128 022 -86 -22 -119 119 107 -127 126 126 126 126 -125 091 -114 -128 083 097 -115 106 014 067 -120 -126 108 126 082 087 116 -118 094 124 097 -61 -114 -119 126 033 126 -125 024 125 015 -110 -128 -118 009 -69 -28 -128 -123 067 -111 087 -18 -119 116 
-125 -69 -84 122 126 -128 105 -126 072 038 000 079 -117 028 121 -121 123 -94 121 -128 108 -118 114 061 118 125 044 101 -49 -127 -115 -41 115 -40 065 -81 -127 -124 -55 -82 -124 103 062 116 -38 -128 036 -127 -92 113 126 116 030 -119 107 -76 -128 -110 -109 -126 -60 122 126 055 
-106 -96 119 -128 -125 -128 -128 066 021 -42 -37 -59 104 075 -128 -124 -25 029 -128 126 -125 -128 -128 121 -112 125 098 -61 -42 051 -78 108 -126 126 049 124 -110 -124 126 -127 -32 -92 126 -126 122 -88 -86 125 -124 -114 -127 -127 089 126 -73 -123 -128 -62 073 -124 -125 114 110 126 
-106 108 075 -98 -127 007 125 -73 108 -111 126 -123 079 126 -44 107 122 115 112 120 -126 126 126 120 019 101 023 092 086 061 -116 -124 085 -125 -123 -122 116 -123 120 112 -116 110 126 123 -89 -128 -121 -121 -124 106 -116 126 090 114 -71 -76 126 -101 077 088 -04 -20 -104 110 
-102 -120 078 124 101 -118 125 116 097 -13 -60 -108 -91 110 126 124 -126 103 125 -128 041 120 120 115 -47 -113 -90 -114 049 115 -112 -128 126 -117 115 -113 125 028 -121 075 -89 -121 122 -128 -92 115 -102 126 105 097 -124 087 -32 126 -103 121 118 042 -109 115 114 -92 -112 096 
-69 025 -70 035 003 126 121 -116 094 088 115 -125 -02 077 107 -127 -124 -128 126 -95 -66 -12 111 029 -109 -128 -49 045 106 -103 -128 -127 102 123 043 -72 -54 122 126 110 126 -66 124 109 122 -110 -127 126 119 -106 -124 -125 -17 126 126 -68 -128 126 -123 -90 -126 049 126 -117 
076 050 -114 -114 -99 -127 -74 -124 109 -57 -53 -127 102 083 -104 -17 -52 -73 109 -102 -127 -107 -93 -119 108 -73 -121 -33 -124 -83 -55 073 -51 -106 -73 -56 -125 114 123 -128 -33 -112 113 -115 -54 -62 106 -126 -122 -65 -125 -118 -116 126 082 125 -128 -92 -54 -124 034 -09 -41 -67 
094 079 075 109 -113 126 125 121 063 -111 -128 -122 001 -101 081 -124 124 -51 125 126 -127 125 -117 117 -56 119 -117 -56 103 -102 -125 121 -128 126 -31 076 109 018 126 103 117 -95 126 -119 -68 -121 -14 -119 -109 -11 -116 -64 107 126 077 098 126 104 -113 -125 125 117 -128 124 
027 106 081 -15 -105 126 -110 -127 -94 102 126 -126 057 120 088 -128 -82 -127 083 126 -127 119 126 -96 122 -128 -114 050 -39 -109 122 097 -95 125 -110 125 -116 119 126 -127 126 -119 -92 126 119 126 -107 097 -124 -101 122 126 074 -121 -32 123 -128 064 -61 -128 125 -125 126 126 
121 -56 057 -03 -33 -68 -79 097 082 -63 -128 112 -112 126 -122 -74 -127 122 -128 -105 070 -128 125 119 064 125 093 041 101 -88 -117 -123 126 -24 -117 -28 -113 -88 124 126 124 108 -128 -125 -116 -127 -127 126 123 -121 -119 -113 -123 123 -44 -127 -123 -127 -123 -06 106 126 027 126 
-108 -95 -59 049 -73 117 125 -128 103 -28 097 119 -115 -127 013 107 104 112 122 126 -127 126 099 -127 -72 -112 126 -82 -94 126 -96 -111 -112 114 008 112 -119 045 -127 126 126 118 -123 -119 125 -110 119 122 086 090 101 -127 -119 -127 -128 122 041 -124 -81 119 -03 -127 -105 125 
-117 103 -93 -12 126 -122 -96 126 -93 -53 095 077 -70 097 -111 124 118 060 125 126 -125 126 -122 116 121 -128 096 066 121 034 -124 -117 -128 -93 061 -112 123 -49 099 095 117 -84 -127 -124 -47 -128 -118 122 -125 100 -101 120 086 126 -126 -108 126 087 -115 -124 -127 -104 121 102 
-107 072 -84 -38 118 -95 -106 -127 020 -99 -31 -118 121 125 -126 -128 011 -107 -83 126 -85 -123 082 116 110 -128 002 036 -81 -75 -128 -103 124 -105 031 123 -07 -18 -101 116 126 090 126 -128 -12 104 119 120 -57 019 126 -98 -104 080 126 116 126 113 098 126 120 124 -24 126 
126 114 -90 126 124 120 -128 -114 -102 -64 -128 -126 -113 126 -105 -101 125 -25 -101 -125 -78 -82 -118 118 -119 -128 -96 106 -19 -36 -95 115 123 120 -123 -125 112 067 109 -89 -60 115 116 119 099 122 -27 124 124 -58 126 126 -107 126 126 125 125 117 123 002 -127 126 081 -126 
-106 114 063 -117 126 123 093 -115 086 023 126 -127 112 126 -50 -128 -128 -91 -22 126 -122 126 125 -108 028 120 -124 052 -122 066 -127 123 008 -128 053 050 -125 -81 -126 021 -127 -92 126 112 058 126 124 -118 118 -95 072 110 109 114 -95 -108 126 104 -119 -100 -123 -128 -111 -128 
-69 124 -58 -86 125 -126 -83 116 -113 104 119 126 124 -121 -105 125 126 -124 -123 126 125 -124 125 122 -76 126 057 -110 120 -42 -107 -121 120 120 -92 -125 -127 014 123 -107 -103 -114 -128 -122 -119 -126 125 -111 -96 034 -87 -127 -41 -122 -125 -109 126 -128 -95 -128 -127 107 -115 -94 
125 -86 -108 -127 126 126 -124 -30 -95 -27 -124 -126 086 -128 121 -121 126 013 083 126 -87 -128 -64 -56 -116 -101 121 056 -56 -126 013 066 052 031 -113 120 -127 116 126 -119 -128 075 126 076 -36 -128 -127 -59 124 109 043 -128 -122 076 116 -124 123 -127 086 117 108 084 125 120 
-82 084 102 -126 -128 126 -128 079 -72 -111 126 116 018 092 -29 126 -104 -101 111 -112 118 126 123 -113 -43 121 -43 114 -119 007 -109 -108 -109 -114 097 099 -109 -105 126 089 -117 028 122 -128 122 123 -46 125 115 109 122 122 -121 -127 112 120 -66 121 077 121 -95 -127 119 -126 
053 086 -47 115 121 -123 099 -83 112 -91 116 125 -118 -123 -111 -37 078 -82 099 -86 -114 -112 -128 125 -69 124 123 -108 -48 044 -80 -113 098 126 119 -81 008 072 -128 125 -93 094 108 112 -125 125 -99 126 -29 015 123 -128 082 115 070 -60 099 119 -56 -126 124 -123 126 126 
-85 -83 -118 -128 125 -47 -123 -128 -100 053 -128 -124 -117 -106 121 -122 -124 -117 046 -128 -71 126 125 126 -118 126 122 -83 081 -80 117 030 -123 125 -84 126 048 -100 -128 046 125 -40 094 -128 -123 123 -122 125 091 -61 -104 -03 085 -115 -117 081 -74 061 121 -124 -128 126 -69 126 
-126 -85 -30 -48 -126 -128 -02 -127 070 024 120 124 -111 095 116 -126 -86 -21 125 -120 067 -126 124 -128 117 067 118 066 -57 125 024 -63 106 126 -122 -126 -126 -109 -128 060 -128 071 -128 -128 -114 -128 -13 086 -126 084 115 126 -100 125 -128 -126 -78 076 -121 -82 080 -108 124 -128 
-49 -123 -107 -110 116 -128 086 -91 069 061 -126 -76 -106 -128 119 -127 126 -27 101 -128 011 -128 -128 126 107 055 106 078 -11 118 -126 077 119 087 064 124 044 120 -128 125 -128 079 -128 126 -113 -128 114 111 085 -36 -121 080 -108 126 -121 095 -128 096 114 -104 -95 110 -128 061 
107 121 -113 126 -114 121 -109 117 076 -42 124 -70 -75 120 -128 106 094 125 -114 126 089 -128 120 -121 089 -128 -69 -87 -119 -59 125 087 126 118 009 -126 119 093 -93 126 126 -121 -84 126 -53 115 120 -117 -115 -118 126 107 -118 -117 126 120 122 126 -115 -125 126 077 -114 -103 
-124 122 113 079 124 122 -75 093 -120 -23 083 -126 024 -114 126 115 -128 123 -108 117 -127 041 115 -96 008 -126 107 103 123 -111 123 062 -123 100 -72 -118 122 -112 066 -117 -128 046 -128 -119 -118 -128 -110 -122 -88 038 -96 -128 098 010 126 -91 126 090 -116 -126 125 124 -82 -113 
126 090 122 -127 115 -124 120 -128 -122 111 -127 077 -31 -122 -121 -126 101 -84 -128 068 123 -112 -123 -127 -120 125 -46 108 069 073 -124 -125 104 126 -05 126 -124 -115 116 -123 123 095 -122 126 -121 123 -102 126 119 -120 020 121 -119 -123 124 125 101 036 -51 125 -97 -82 126 -124 
109 123 013 -123 126 -128 -113 126 081 -107 124 -93 112 126 073 114 116 112 126 -126 -125 -128 120 -106 -96 -128 017 050 -92 -92 -116 125 -128 -127 -08 -100 -124 117 -128 092 112 085 -124 -107 091 126 120 -99 -115 121 094 126 -108 -128 126 092 126 126 105 -128 -127 126 -126 124 
070 002 -76 -66 106 -109 125 026 -91 -108 126 -122 -97 -127 -126 126 -127 -122 092 017 121 123 048 -128 -124 -126 -101 -102 008 121 120 125 -68 125 -106 117 -127 -48 -123 -107 100 062 126 071 -89 107 -110 -125 -59 118 -66 -20 -43 047 -75 -121 126 086 -61 -128 094 -128 -127 -128 
-78 124 -77 126 -114 126 -94 -116 104 -88 -96 -127 120 -43 -118 126 108 117 126 126 126 -126 -128 -127 016 123 124 108 -121 -110 -98 -104 110 126 -115 -103 -109 -123 118 -124 -126 -120 117 126 -12 -128 -124 126 059 -123 117 022 -121 -89 -128 -102 027 -36 081 110 123 004 101 126 
-117 097 008 -117 -128 -126 120 -128 -102 091 -127 126 -57 -128 114 122 126 077 126 -128 -110 -116 126 -128 106 -115 093 069 -124 -122 126 -126 -118 -101 -40 -109 -124 019 064 110 -121 115 086 -121 123 -74 -115 -107 -126 -73 123 -128 -08 -93 007 -127 071 -125 080 100 -116 -126 114 126 
054 -116 -49 -69 -126 -124 125 126 -108 -99 -78 -49 121 109 -112 097 -125 -17 116 -125 116 -78 122 -128 118 -120 -127 -29 -35 106 -128 -03 125 -126 -39 107 -116 -125 -128 -119 -79 -114 -90 -128 -103 126 089 116 122 -42 -127 -108 104 -21 -111 -126 -124 -127 -105 -127 117 126 -124 -108 
111 072 112 -31 106 117 -128 -103 075 -89 -76 106 -34 -103 -127 125 121 -50 -121 126 119 -88 126 117 -117 125 091 069 123 -70 -51 125 123 122 118 -121 122 -121 -119 099 -106 084 -100 119 095 -128 103 -124 125 097 -128 126 -122 -100 126 125 122 -85 -20 -108 115 122 126 -107 
-119 -114 039 -52 075 -15 071 -30 -42 -108 -127 -128 -19 -128 066 124 -105 -112 116 102 006 -128 126 -35 117 -115 -13 116 033 -120 111 006 125 -125 -13 -126 -126 -110 126 -83 026 095 -128 -128 060 -128 122 121 -126 026 069 123 -68 -128 079 114 -39 -127 101 125 -127 121 010 126 
