-95 -118 -126 -40 069 101 092 089 111 097 -73 046 074 035 -106 -05 048 -102 050 -95 120 -62 -25 124 013 021 -87 -59 004 -114 058 -63 124 -70 -103 -128 -57 069 111 -31 -84 -88 019 -70 -24 050 005 -05 -87 -123 098 -100 035 -106 -16 029 032 -57 098 -101 109 -123 007 -112 
-27 -122 -114 -49 125 -36 -105 -28 -02 113 -125 -88 058 -57 045 003 071 -105 -09 -54 124 -103 094 -99 005 -112 -10 -02 -120 -107 066 -100 079 -32 066 096 050 072 109 -78 091 -63 023 124 -19 101 058 -91 089 -74 110 062 009 060 -66 049 -07 -07 082 -122 104 126 036 -34 
064 077 110 -26 115 -106 122 121 056 109 100 019 000 -69 037 -55 103 -96 -118 -108 022 108 090 -108 -80 -94 -47 -43 121 -46 -45 072 -107 081 089 119 -24 072 -120 054 098 -40 -33 -63 -79 -112 038 121 106 060 104 -126 107 094 -70 085 066 110 -66 113 110 114 006 097 
-06 108 -02 -87 -126 102 -127 004 119 016 -23 015 -39 -58 053 -19 069 088 -88 104 -28 086 -36 -60 042 014 038 -53 108 123 052 -24 -120 -71 -82 126 066 -53 -75 -54 012 006 -68 -123 019 -78 -37 -06 -100 -116 076 076 -71 -127 059 059 016 063 -29 -98 037 -128 078 066 
-93 094 -82 074 061 -108 068 -102 -57 116 098 080 -02 072 -123 003 -122 -61 072 100 125 070 -82 -122 -37 086 015 -78 118 -123 026 012 -109 -35 -102 -82 -21 102 117 017 086 008 -16 -123 -40 -95 035 -77 015 017 007 058 -109 -120 -91 003 074 076 100 -23 097 124 014 125 
108 -81 -124 -77 -115 -66 -127 116 124 095 -106 002 -53 096 -118 029 073 -104 122 108 124 095 -30 -95 068 -87 -87 -56 051 -106 -55 076 -121 -82 -41 -125 060 -76 -119 -61 088 -88 -24 109 -74 -88 -11 -121 103 -92 -35 104 055 -125 -83 031 076 -122 078 004 113 -106 -41 -124 
-66 091 -120 105 119 -84 125 -122 -49 117 -124 035 056 -96 126 -04 -63 110 124 -51 -22 098 -73 107 -63 106 -77 077 -116 124 074 106 119 -51 -99 -72 -27 -26 -74 -67 086 053 050 090 075 056 -55 -51 -71 -103 -110 -14 048 123 053 -41 033 -95 059 -125 -53 -127 -77 -107 
-73 -68 -29 -56 093 013 -127 118 097 116 -126 -75 038 -86 -123 039 105 062 -70 -85 -66 -34 072 093 053 -37 028 018 025 115 072 086 -122 -111 095 -128 005 -107 008 029 -39 073 -07 -69 -49 -79 050 111 -93 -124 107 -06 004 -128 -50 -32 -92 070 028 -125 085 -40 -75 075 
041 -63 064 121 -108 091 -127 107 126 123 122 -76 -16 -03 125 015 113 076 -124 080 124 -109 -99 091 -08 -109 086 091 118 124 070 -65 122 099 105 -113 018 049 -98 057 -82 046 -79 -102 082 045 038 046 067 -88 -53 -111 060 -69 -59 -77 -11 078 -102 -124 039 -67 -89 122 
051 -113 125 120 -122 107 -120 -115 117 119 -97 -09 060 056 117 010 120 074 001 -112 -119 -96 -110 -122 -81 053 -72 097 119 -114 055 011 053 121 -105 -118 051 -103 115 -84 -61 -70 034 045 -17 -103 017 036 -76 119 -57 -117 -112 -48 -24 030 036 108 -48 -121 -74 126 027 -122 
-16 -123 101 -30 024 102 -126 101 -122 -22 -116 -33 041 086 111 026 109 -03 -41 040 -57 -103 032 123 -19 -16 026 078 -93 121 -09 -27 123 020 -31 103 073 063 115 020 -72 -75 -89 -121 -79 006 -32 115 066 -123 -60 124 -86 039 -40 051 019 053 081 -68 112 -106 -88 -96 
106 -86 -121 118 113 -69 -127 116 -97 -79 -106 -83 -56 038 072 032 114 109 122 -99 -127 086 083 096 -15 -38 -31 068 -72 -12 -27 086 103 108 -66 -103 -14 054 115 -83 -78 -42 -72 -79 -70 029 037 113 062 123 -74 125 092 -126 -18 052 028 -89 055 -64 098 -118 046 088 
074 126 -101 -120 -109 -98 126 -110 125 026 -123 -75 -12 -20 -116 -07 -90 -37 123 -106 -117 -83 107 -121 -07 -104 020 -12 008 -127 003 111 -122 066 -108 -113 -33 -43 -07 -19 013 047 -78 119 -53 032 015 -117 087 -103 -49 -51 083 -122 -69 051 -21 -118 -24 018 -93 -83 053 092 
-70 -126 -119 088 002 114 115 113 -126 -98 -33 009 -81 067 106 046 -121 -02 121 101 -43 104 -100 -90 037 -37 008 010 -116 124 045 024 106 -110 -55 122 -33 -100 -65 082 066 074 081 -123 054 024 -23 -114 -49 -125 024 123 110 -105 -94 077 -31 068 -85 111 -113 -128 -81 119 
-75 -126 -126 -110 118 105 -111 068 123 -79 121 -50 063 013 -107 -01 -115 -59 -40 -99 011 088 -70 -116 068 -110 -69 081 -96 -06 000 -106 125 -47 -106 -128 002 -91 112 078 095 001 079 038 023 -89 -12 -19 -98 -100 -72 109 -78 113 052 001 -65 111 089 102 014 120 026 -34 
080 016 -127 120 125 -84 125 118 121 -117 121 -85 -19 -50 108 -29 095 094 -33 -71 -55 -09 -90 117 071 -54 -84 046 -116 120 060 067 121 108 -83 083 -68 -25 075 -75 079 070 -74 -111 042 -112 012 061 008 -121 -17 -127 -92 118 051 -81 085 -110 095 -61 039 -09 063 120 
-69 -117 -123 -62 -112 -104 123 -104 112 109 115 072 -21 005 126 -54 112 111 -126 107 094 094 -94 111 072 074 081 005 102 -84 008 -105 122 010 -51 124 -76 -30 107 066 -10 -66 027 122 -34 078 -47 000 -96 -91 -73 112 062 093 -25 069 -74 064 -67 094 089 111 -24 092 
023 125 -126 010 -123 106 115 027 087 119 026 022 057 075 123 -34 -116 108 -106 -114 -55 -62 -81 122 052 -87 053 -11 -86 021 -78 -03 002 -100 -92 -128 -39 010 103 071 025 089 075 -04 076 009 -15 003 097 -85 -26 126 -89 -128 -75 -76 007 054 -91 009 -17 -98 069 038 
-74 -89 120 086 -124 048 126 121 090 -89 121 068 -62 100 -128 003 122 006 -126 085 099 -54 -96 098 056 053 098 -75 -97 124 024 -93 -118 027 -86 -127 056 -100 -98 -08 -78 -66 012 -43 075 115 069 115 073 101 -110 124 -104 -60 070 061 083 119 041 -123 101 115 005 106 
-107 049 -39 115 -120 101 -65 090 -88 067 -09 002 062 -99 -112 050 091 -89 066 -63 075 -108 005 -125 031 007 -15 069 121 017 -78 -85 059 -04 -100 -09 071 -12 -76 062 -16 -20 045 123 072 -41 -05 -105 -80 -117 078 -124 -73 125 -64 052 027 -115 -68 -114 -39 008 -72 -125 
-92 -81 -117 -117 -120 -73 -117 -97 -81 122 124 051 -65 -65 -36 -58 -11 037 -30 051 081 -74 082 100 068 -96 077 -09 -105 -100 025 -21 -105 -82 -97 -123 -14 110 -96 038 012 -45 026 124 -03 109 075 120 -94 125 097 -112 -93 -127 064 032 093 -119 021 067 -104 -69 066 -124 
116 126 -109 106 -87 105 -103 -85 105 085 014 -15 -65 088 077 -21 095 067 -124 -62 061 071 059 -122 048 047 057 010 061 -118 -57 023 116 095 025 125 -35 105 103 -30 -85 -17 -69 -43 -65 -30 -30 -119 -59 065 077 125 -104 -109 011 076 -08 039 021 -119 -15 -111 -86 -09 
-91 -114 -119 -93 -119 -112 -105 -112 -111 121 -110 -78 023 083 125 -34 119 -109 085 -84 -27 -92 -102 -115 -51 069 -84 091 -27 114 -56 -89 124 -99 017 -121 -28 -72 -27 -81 005 -03 075 119 -70 003 -01 -119 -82 -91 -69 124 -74 124 -73 -35 -06 -88 012 -94 094 -91 -85 -126 
-73 126 046 117 -126 016 -127 057 125 062 117 080 -31 -70 125 -55 -123 084 -126 -38 122 -74 071 -122 035 -48 073 -70 -121 -115 -16 -105 -121 -56 -18 125 065 104 -83 024 072 079 080 121 -28 -36 027 -71 074 -94 053 125 -63 068 017 -80 034 057 020 100 004 126 -24 125 
-50 -113 076 028 -127 064 -127 -101 102 112 122 -13 -33 032 -87 -34 -54 001 -113 -107 114 -85 108 118 043 106 -79 070 -54 -24 -58 097 078 091 099 -123 -25 -05 -114 -75 001 -86 077 -37 -49 -38 -07 -59 -25 -70 -67 123 -36 122 -66 -20 -100 -24 083 055 066 -125 -27 -127 
-46 -102 089 -110 -104 058 123 099 125 089 -22 002 -59 -17 -88 -42 -49 -35 102 -62 110 -93 089 -106 -19 066 -79 043 060 090 068 -16 100 089 093 125 -67 034 -48 -06 045 074 030 -76 -53 057 -05 119 022 035 010 -121 -46 126 093 044 025 110 -91 007 -94 -99 -39 123 
091 -105 115 121 -114 102 -109 120 107 -115 -114 001 033 -89 -128 -56 124 -83 -111 -04 083 077 -87 -124 -01 107 105 -71 120 115 037 -65 -104 119 -94 -86 -53 -76 023 -44 089 020 073 -124 048 -110 066 -112 090 124 -96 -48 -105 -27 024 014 -01 117 -24 123 114 123 -34 107 
081 -93 -114 -111 -117 -94 125 095 -107 -97 123 -54 -84 -90 -120 -26 -80 -26 109 -03 124 032 102 024 -78 -46 104 024 103 112 -44 -21 125 121 -58 -109 -29 -101 -83 -61 -44 049 -87 -112 -79 075 -19 078 100 126 -75 -99 096 -115 -73 -18 -12 108 001 -114 -74 -118 035 -78 
092 -57 123 -48 -125 109 -115 118 -82 120 114 -23 -70 105 126 -49 110 -105 110 021 -123 -86 080 -83 033 -02 -36 -79 005 -125 024 -45 -126 -86 -60 -92 -33 082 -103 -25 059 -08 -92 -127 081 -10 026 121 -76 -122 -81 123 109 081 -80 -67 -95 030 -58 -80 -64 -111 -71 125 
088 111 106 117 126 071 107 -123 -125 -111 019 004 034 -69 109 037 -119 -113 -126 087 -127 090 -105 -89 031 092 034 002 -45 -113 069 108 070 075 004 093 -24 095 049 075 -95 080 -01 -114 -76 -81 -22 -107 064 -109 -110 -85 -80 123 090 -11 080 011 079 057 028 -125 087 076 
024 046 -126 -16 126 116 -98 122 114 114 015 052 075 -82 -120 021 -96 -94 -124 -49 -124 068 -80 -116 074 -115 -47 066 104 052 026 064 113 055 -24 -128 063 -80 -100 031 -94 -89 070 -84 076 098 -32 -117 -53 123 109 113 101 -120 -22 -50 087 117 093 -19 -78 107 -89 -45 
-106 113 097 120 122 017 126 -23 125 004 072 087 -41 026 046 -14 -115 026 121 -67 025 097 -42 -56 -38 -48 -34 022 114 125 036 013 -116 -04 029 -128 065 -96 -120 080 -58 -69 -17 042 074 -37 028 041 -100 -118 088 -127 -99 010 -16 009 016 097 -92 -16 099 -111 -30 -117 
-06 121 -46 073 126 112 -116 -96 070 119 -120 -18 -66 -54 126 -14 -50 -92 097 106 116 -91 060 -61 -03 039 070 -77 -100 124 -22 -87 079 -01 010 -107 032 103 100 042 -92 -82 085 -126 -04 -63 009 048 -105 -125 -94 -114 -45 -128 078 033 -79 -109 -63 116 117 123 049 -123 
-80 -108 -118 -111 -113 087 -120 122 -121 082 105 -74 -05 -96 -128 026 -76 059 125 -65 -119 010 065 -118 035 099 093 040 -15 -108 047 039 066 064 -101 -117 -72 -96 113 037 -91 -10 -85 090 -26 -74 -45 122 022 -112 -11 -106 072 096 060 -82 -44 113 -83 -123 109 -122 -24 063 
089 124 122 084 -99 -44 105 -14 -101 -123 106 -34 -54 076 -62 035 -94 022 -127 028 124 -22 018 -120 -53 -89 074 -38 -124 -123 033 -107 -95 076 -05 -128 -24 -14 112 -12 036 040 -55 -121 043 -11 -40 -27 086 124 -07 -123 -102 -50 -06 -31 006 -123 072 -90 079 116 -26 065 
-114 -91 -122 -23 -114 114 126 -63 -33 105 -73 056 008 -80 -128 -52 -99 -90 104 -95 045 -93 -99 -120 -72 101 029 -52 -118 -85 015 -66 114 090 -39 -57 069 112 070 -69 084 -39 002 -111 073 083 -25 068 082 -35 108 -113 -80 -44 -91 034 074 098 -17 -89 029 -96 -87 -127 
-58 -115 -126 106 -124 -100 -68 063 -121 -111 113 -85 028 -104 116 -21 119 -30 116 104 045 -107 096 -105 018 -66 090 059 022 -116 047 069 116 085 -108 -110 063 -111 -15 017 -103 -48 -11 106 -54 -48 023 014 -01 112 079 119 107 080 -68 039 -64 061 -65 -76 077 -23 017 -122 
-96 -127 -126 025 125 001 107 095 -111 117 -125 -04 027 -93 -127 -44 100 -46 -126 098 053 -109 -109 -48 -80 065 -62 070 -22 048 071 019 016 -73 -97 -127 -67 103 -42 -52 -74 -60 061 -126 080 109 006 -71 -74 -89 080 054 110 118 -87 -24 -94 001 080 -125 -86 -127 -27 -96 
094 -126 -127 -118 015 093 -127 116 -126 106 111 056 001 083 124 -08 041 -108 113 019 002 -57 -100 124 046 113 -08 039 -124 -120 -36 037 027 -86 106 123 072 -40 -82 -02 -58 -87 -08 -111 075 -05 -09 -46 -53 009 -80 118 052 086 070 002 046 -123 -72 110 038 -121 029 104 
084 -16 -70 -79 125 031 -114 119 -123 111 051 020 045 -95 -124 -28 -53 -111 015 068 -121 -93 -100 116 054 093 -55 -60 -69 120 027 -70 119 084 081 -124 030 -41 -111 048 096 036 -21 100 059 -92 059 121 -65 -124 -114 -124 059 125 -25 060 -99 -100 050 -34 053 -125 083 -122 
-100 -125 113 036 -98 -86 006 -66 -68 117 -95 -90 -25 -58 -126 -50 -86 -46 048 099 -106 -69 048 028 043 061 067 006 -94 -88 -65 060 -119 094 -100 126 011 069 -41 013 096 -16 073 -116 056 088 050 076 -101 074 -14 -77 065 -56 -56 071 095 026 -88 -117 076 -128 -01 062 
114 -35 121 -90 -123 -107 -71 -94 -114 -105 -115 -21 002 097 -126 -47 123 -23 120 -30 108 -10 -64 117 -73 -50 096 024 -120 111 061 -91 -124 099 104 126 034 057 100 043 -34 -69 005 -124 017 116 -33 -97 025 -81 -06 -124 083 -06 -70 080 004 100 037 110 112 -109 -51 -125 
053 -83 123 -101 126 -42 126 -83 -127 -102 -114 022 -44 054 -127 -28 114 048 096 058 -108 -63 -90 117 -11 102 -32 -36 065 124 -17 -33 -126 -79 -101 126 -44 090 096 -75 032 040 -40 -24 080 002 004 090 097 -120 111 -65 -46 116 -35 081 076 -112 -89 -125 116 -126 -39 -31 
106 -94 -98 057 -91 048 123 103 113 -115 -90 034 -40 063 -98 -38 -112 051 -54 -19 -24 048 013 112 -52 105 -60 -70 -118 -114 -05 016 109 -48 -85 -128 034 090 098 065 052 080 037 -53 013 109 027 116 096 096 108 -125 -102 -31 014 075 055 088 -22 -49 100 123 -62 -80 
054 111 -93 -118 121 101 126 -16 123 -99 066 049 -76 095 058 015 -124 -108 -118 015 -86 097 087 079 -22 003 -20 006 115 098 -11 -101 -93 108 -84 -77 051 -95 -100 066 037 088 -51 098 082 022 -48 108 -105 -71 037 -126 -79 -106 -66 -26 066 087 -98 121 -104 092 -07 100 
115 -75 -95 095 126 107 -128 -55 126 065 -97 006 045 103 -85 016 -60 087 -106 042 075 002 -98 109 -66 -68 074 -72 000 098 -66 099 090 -111 069 -113 -75 024 047 -83 -09 029 049 -119 041 049 -38 116 -72 108 -51 122 088 -126 085 023 -101 080 027 082 -97 -104 075 124 
-89 -74 124 025 126 101 -124 -119 126 -115 119 061 -71 089 -117 -32 -96 041 -120 053 113 107 -67 124 029 -109 -86 -48 -119 010 -44 099 -123 -84 -14 126 078 -58 051 054 -47 064 -46 -96 -13 011 080 042 097 -120 097 -125 -86 -127 -28 018 -38 -109 021 077 -76 -80 -89 123 
037 -128 -110 122 124 049 121 116 119 049 -05 005 067 -56 -67 050 101 076 124 104 106 054 -109 096 056 -50 -54 040 -113 008 -05 -22 -120 022 -74 126 027 001 120 -42 009 010 068 -125 -79 -59 035 015 -62 -126 051 102 055 124 -74 003 095 120 013 006 109 -95 078 081 
058 -87 -115 119 126 -82 -119 118 -90 -108 068 -69 -45 040 109 -49 -15 114 -125 -17 -81 076 105 112 021 095 -67 -61 -119 -77 -23 029 058 -49 -101 124 085 038 -26 -24 -64 -88 -86 -88 036 072 057 -100 -91 -124 -07 -115 -41 022 -52 043 -92 -98 038 -37 115 -68 -39 106 
086 -118 124 -114 -122 111 -34 017 060 080 -121 -45 -70 052 -127 -08 -120 091 004 031 097 -45 -97 -30 -60 097 047 055 -18 093 -03 093 015 -94 104 121 -67 -73 084 -31 063 -30 -46 121 027 -32 -36 -55 055 069 102 104 104 029 064 028 -61 065 072 048 -64 -101 070 -07 
-97 -128 -95 -48 116 -51 126 107 125 091 093 -15 067 032 125 -49 -97 -111 070 024 -23 047 -03 117 -43 110 -25 074 -123 124 -25 -59 -122 098 -108 120 -45 -53 101 048 -66 051 -56 080 082 -104 -21 117 -04 -121 023 045 -112 125 086 -63 033 -104 090 -107 058 091 -25 037 
082 -126 -127 112 099 -94 126 -79 -25 -75 094 055 077 048 125 021 -98 -108 121 024 -68 -109 069 044 -69 111 045 084 -84 -95 057 040 019 101 086 034 076 042 117 079 -56 -15 -37 122 006 109 038 005 -36 -123 069 061 -100 106 -17 052 -89 109 041 067 -118 098 080 -63 
095 -119 -120 110 -124 -110 073 114 -126 -95 046 -21 -14 040 126 -40 -87 -98 100 059 -120 097 086 123 -23 -104 -77 -93 120 096 -38 098 -118 108 034 -118 063 -104 -95 -03 -89 029 088 -122 008 -109 016 103 -44 108 -107 -112 -37 -28 -93 066 047 -105 054 -12 117 -111 -61 123 
-74 -96 120 -06 -125 -101 -109 -90 110 -103 -109 -85 -71 048 125 049 -100 111 -125 -68 -96 -34 074 118 -30 109 -74 049 106 -115 -25 -23 113 117 056 -120 021 -51 110 -34 -08 -88 069 -108 007 -83 047 108 071 107 -42 -118 062 126 084 051 088 -110 -86 -124 114 -52 -77 124 
118 -112 072 081 -125 -113 -112 -100 -122 -112 105 055 -51 064 -102 -25 -24 -06 126 115 -110 -85 103 088 006 -38 087 -65 033 -98 -28 108 117 097 -103 126 065 074 066 061 091 -77 -36 023 028 112 070 110 067 117 -115 -110 -115 -59 -21 082 -28 -54 090 -125 -41 093 -64 115 
037 -43 111 067 122 -66 -104 112 110 113 -08 -93 000 075 098 -30 -123 016 124 033 100 -84 078 112 053 053 -81 -63 120 120 065 -107 -73 -74 085 011 036 -100 090 048 -89 050 -69 -108 056 -43 009 057 -91 -123 -72 073 -24 113 -84 046 -23 -13 -76 -20 -11 -94 027 107 
-87 -57 113 -49 126 -102 -105 122 -71 -93 -96 079 054 -86 122 052 119 086 121 070 067 -16 088 122 -69 035 -52 -53 -113 -122 -66 021 -112 -76 -29 -119 051 061 114 -77 072 -84 -09 -120 -85 071 024 -104 006 115 063 039 -100 125 061 -78 -27 -23 -30 122 063 -128 -82 109 
-103 -106 -113 121 125 -115 -88 -15 -57 121 -89 084 056 -33 -128 -12 075 -111 -126 -32 -87 -97 090 104 -48 -77 -56 -69 091 -112 -15 001 -90 099 -47 -27 023 -95 118 053 -82 -75 -85 -112 054 -66 041 113 076 -108 105 -95 098 061 046 073 -07 -07 090 098 -97 -02 -54 -103 
-93 126 -126 -119 124 -100 -92 084 -114 119 -114 -67 056 -41 031 -49 -116 092 -114 -39 109 065 104 -99 052 009 066 -24 -55 118 025 072 -101 -105 -109 125 061 -87 -117 -78 -86 028 035 108 -05 -23 -03 -119 -43 -97 -40 122 097 -65 -70 -51 -63 -119 -96 123 -99 -61 -49 117 
086 -53 119 100 126 -106 126 -116 100 -112 -118 -66 -56 079 124 -55 100 -96 101 -61 -117 055 105 -116 000 048 -05 -82 -25 -127 033 -103 -122 -68 104 -114 -73 -60 098 -56 -26 025 087 122 082 -75 -15 -89 -13 078 070 125 -44 029 -44 -67 -92 013 -01 051 -114 122 -52 -116 
070 126 114 -98 -125 -81 -94 -103 -122 114 -105 -45 -55 -85 119 -18 105 045 -100 -73 064 -110 081 -110 -72 076 036 -59 -108 073 -80 -51 111 078 -44 -96 -20 020 -65 -19 -41 -77 -78 -104 047 -75 -03 -103 107 -89 -98 -99 -112 -101 -08 -79 -100 -122 -89 122 -87 -128 079 111 
069 -42 125 085 -57 058 124 -17 -73 -60 -123 -18 012 030 -109 057 -01 042 -95 047 -122 071 -64 116 030 -64 -29 068 -120 022 069 -57 092 -18 062 126 021 090 110 -39 020 015 -87 092 -74 071 020 -119 -43 077 104 125 -23 110 -77 -82 084 -32 004 -71 098 126 063 117 
049 -106 -123 -73 -109 -113 126 -96 124 119 -43 052 056 -23 126 -26 118 -53 121 111 -87 037 -23 081 -24 023 017 008 -116 -125 -45 -14 115 -73 -69 -78 030 070 -72 016 053 -53 085 -49 068 020 -27 -120 -68 -111 033 -107 070 -127 050 -68 000 113 018 -31 -114 124 067 123 
065 -34 088 -84 -110 -90 -120 -78 -123 -97 -106 020 -38 103 115 011 003 063 -84 101 044 -110 099 110 055 094 061 -42 -96 -16 -45 002 -116 082 001 -107 -67 073 -120 -49 059 047 -79 124 -71 104 -51 -106 048 -85 -78 -103 017 123 -72 -51 -98 117 -31 -121 071 126 -17 -125 
049 104 -92 055 -82 115 122 122 -118 -101 037 005 -31 -02 -112 023 -113 081 047 035 011 090 092 124 -08 111 002 -77 -56 -92 072 107 123 -116 094 121 -39 060 -122 083 066 048 009 -109 081 -40 -58 114 -18 121 -51 124 066 102 046 062 019 -83 072 -112 090 -127 -53 -126 
-69 -82 085 037 117 093 108 -78 125 -111 107 000 -33 062 096 040 114 086 -123 110 124 108 -95 -104 042 -61 -26 052 -60 -76 -71 067 054 -96 -87 095 056 081 107 -33 -75 033 008 -124 -79 -23 057 -103 002 050 -101 -114 045 -125 -81 050 096 119 -63 123 -25 041 -03 122 
-101 -123 -126 -69 -121 -37 -99 -97 -71 -84 -80 -64 -58 -68 126 -36 -117 -95 116 -01 112 082 066 110 -78 060 058 096 -109 125 -65 059 -83 -88 -26 -126 -47 114 -40 047 065 -48 -18 124 -48 116 -23 -103 -84 -98 055 -126 002 100 -48 -57 -14 -110 -80 -88 -50 -103 -23 106 
011 115 -22 -124 111 100 125 121 089 -117 -84 -55 060 067 -120 051 -33 075 -119 112 -79 010 -96 -120 009 011 -81 084 -119 -113 042 -65 -126 049 -07 121 -38 109 014 -28 -76 081 059 048 051 037 063 114 073 107 087 126 098 123 088 -70 021 -114 -89 -119 -118 -113 -60 118 
-62 -127 -126 084 -128 -49 119 103 -125 122 110 -69 079 -73 123 036 -118 -98 037 -44 121 -74 -96 090 080 004 052 087 112 116 019 100 024 -99 042 023 055 102 113 071 -79 -33 071 120 -44 -113 -59 -123 077 -98 -55 104 000 083 020 078 099 -39 -39 -122 -100 105 046 123 
071 -120 -85 069 -103 084 126 115 -127 -115 122 009 -02 -24 126 045 -119 -68 -126 -42 -125 -105 064 -32 -51 033 054 015 -121 003 075 -46 -115 035 064 021 -66 -107 047 011 088 063 -72 066 -52 -80 015 -57 039 -69 111 056 -75 -36 -08 -41 -61 -112 066 116 -116 113 086 110 
-91 -51 111 110 110 051 124 003 111 102 -110 -81 015 040 108 -49 102 079 -125 040 -32 065 094 066 -24 -63 084 -85 061 125 068 -106 -46 -75 055 126 -30 -11 113 -70 025 078 062 -106 -22 -44 -03 -114 -64 -115 -28 118 006 -125 077 062 -48 117 052 122 -97 104 -89 124 
110 116 -40 -108 -125 106 122 107 -97 -96 -94 050 -69 -87 -122 -08 -106 -80 -121 120 -79 -66 -63 083 -25 028 -19 068 -48 -127 021 091 -96 074 -56 115 -03 026 -121 019 037 -51 -62 -24 006 -102 -07 -63 105 083 -91 112 -15 126 036 -81 045 -110 -98 -80 -40 009 -38 -121 
002 -34 -126 -115 090 -115 -127 092 102 115 -99 041 008 091 -127 -19 077 107 -126 100 101 -111 -60 -125 027 -92 085 -56 -106 119 017 -60 -12 113 081 -127 049 -65 -38 -86 018 052 -38 105 -82 111 025 -118 -100 083 -37 078 038 125 069 -09 068 114 074 104 -100 -118 -19 006 
-55 -98 -117 013 -128 096 -128 042 -44 051 -120 059 042 050 -123 030 -125 -75 -125 -66 120 -11 069 -14 035 005 -25 -41 -82 -127 073 -88 106 058 -44 122 -09 -76 -105 012 -32 -29 -73 -118 022 -32 005 104 -77 124 -104 115 -51 -44 -53 -69 -30 -118 -84 124 086 126 011 086 
-37 123 -127 -28 121 107 126 -120 -125 -89 -122 024 040 -77 -98 -53 -51 104 105 -52 -43 -07 079 118 -16 -26 -85 093 039 -78 -35 -32 122 -56 069 105 073 092 -34 046 090 066 -87 115 -79 -23 -38 -111 -51 118 -95 125 -105 119 -61 -37 -28 -96 073 110 -49 124 041 115 
-51 -96 122 -88 -112 -102 102 -107 124 104 113 065 065 -30 082 -41 -102 -97 -126 105 019 005 063 -97 -07 -88 058 -79 113 121 041 094 -74 -98 073 125 077 -05 -88 -51 -60 075 -24 011 053 081 023 093 -74 -97 -11 -88 079 -63 -42 072 066 -81 021 -117 -104 097 -24 096 
074 126 -82 002 -27 -81 -128 096 -84 092 122 036 061 -13 -106 -46 090 -91 126 -01 -120 076 070 114 -67 -106 095 062 116 -125 041 098 116 014 -76 126 022 -95 -60 -41 -84 -86 -88 -23 001 -84 -36 090 029 122 -63 -112 -57 -96 -50 -20 -21 089 093 -86 091 022 -60 -91 
-90 -110 -119 120 -64 -72 126 065 -125 105 123 018 044 065 -65 013 -91 110 -107 -72 -113 -107 -111 099 055 -94 037 082 -46 059 -10 093 -119 -66 -108 -84 084 -46 -114 037 037 -69 -83 -15 025 057 072 -66 -71 -93 101 122 -01 126 -52 080 -94 114 -60 104 -89 124 -52 -97 
-94 125 125 005 122 083 117 -116 003 -114 117 -47 -60 002 091 047 092 072 -122 098 -49 -87 -03 064 -62 111 043 087 111 -122 -56 034 -84 -77 -06 114 022 -78 -86 071 -83 020 -92 -126 -76 101 -04 109 -25 -88 111 119 -11 126 016 054 -81 -105 -94 112 098 074 -29 -24 
105 098 -124 112 -120 101 -124 092 -123 026 112 038 -26 001 -127 -30 021 -98 098 080 032 -75 089 119 -52 111 -44 074 123 089 -48 -89 -66 -18 097 103 022 047 -83 -45 017 -82 028 -94 -48 -66 -23 025 106 -108 -107 -126 -105 101 -64 032 027 088 055 097 113 -118 016 104 
-50 -66 -121 -116 -112 077 -125 122 -124 -118 123 008 046 099 -79 -34 091 -73 077 -48 124 096 -78 092 -65 073 -07 069 -56 116 -58 095 102 -76 -89 -113 065 116 -43 -55 086 -86 -56 118 -16 -96 -15 114 -76 -116 -50 -110 -04 -117 089 042 -88 -94 -63 104 092 094 -10 -116 
056 124 -125 103 054 104 -128 049 111 -85 -121 082 -70 -94 -128 046 -114 -101 -63 047 026 067 038 103 035 -85 061 -86 068 125 076 009 120 091 -27 -02 -32 077 -120 069 -83 -90 -51 -123 082 -110 -42 -98 055 056 -13 125 093 124 -24 069 098 -106 096 -125 039 023 -28 -109 
069 -94 -109 -120 -128 078 -122 -60 055 -31 -74 -38 070 071 081 -45 -39 093 -126 047 114 -03 042 -125 080 -107 034 -34 -109 -51 -64 064 -88 096 099 114 044 104 115 -67 -34 -53 037 -120 -04 043 -19 107 -59 -127 -75 126 -20 102 072 069 075 -36 028 -106 113 125 034 -122 
-34 126 -111 -101 -102 -96 -115 -118 -126 110 -120 031 -27 074 122 -50 -66 058 -121 102 -95 -91 106 096 -58 -104 024 050 116 118 -66 078 088 054 102 126 078 067 040 -31 -95 034 -31 -111 083 -54 052 120 -74 -13 095 121 -57 -81 -49 022 -99 089 059 -48 115 -26 -53 -104 
-39 028 122 -46 123 106 -128 104 089 -102 123 -74 063 -07 -120 020 099 -91 -122 -83 -105 -113 076 -125 011 -73 022 083 -123 125 037 070 118 071 078 117 -44 -77 -85 009 -82 -88 003 -39 -86 120 039 -124 009 123 -38 119 -06 105 027 086 -81 041 087 -53 -96 -125 -45 -80 
-92 -114 100 118 127 101 -126 -111 097 -110 -99 076 025 095 126 -22 -115 037 113 068 -102 -109 074 124 079 102 063 -49 100 -86 -58 -91 -126 -14 038 -102 018 -86 008 055 011 -22 055 114 -67 058 041 097 110 -116 043 103 028 126 077 074 -29 110 -22 -123 108 -128 081 -118 
-92 104 106 112 120 026 -122 -112 -82 -44 -48 -86 -30 -53 122 -36 -07 -22 123 005 -116 061 -83 -78 -45 -114 -17 075 067 125 -43 025 106 090 075 -128 -76 -93 -50 -28 020 -59 -56 -28 -52 -103 -36 -92 078 -95 105 120 005 -128 -63 -28 -80 -69 -90 049 104 123 -70 117 
078 -94 097 105 094 097 -30 -70 126 -83 084 000 053 096 -125 039 092 096 090 097 -56 -112 085 -122 -40 -112 041 061 121 109 -04 114 -112 -49 041 -120 -58 103 -54 034 -04 -49 -49 -30 036 -99 -38 -111 -60 -64 077 -115 025 -127 024 -70 -44 -123 -100 -77 093 126 -48 103 
020 120 -124 116 126 -108 083 -116 102 -89 -111 061 051 075 -106 -16 085 058 125 018 116 105 -54 086 -31 -116 083 070 -83 125 -38 048 -27 -87 -109 107 -67 045 090 087 074 -73 -42 -125 037 038 -26 114 -02 -119 -52 115 017 125 085 015 083 -115 082 045 003 -87 -40 108 
-98 124 -124 -92 102 -110 126 -94 -92 -85 -125 078 -24 041 096 -30 065 -54 047 117 073 -87 070 -124 -15 101 -90 -08 -120 118 006 -63 -126 -101 -92 104 -78 -64 015 047 -66 007 -50 -101 -40 035 -09 -121 -96 001 -61 126 024 122 -19 -40 -86 -76 076 050 -102 120 -50 -102 
-79 096 -122 -22 -127 053 -110 120 122 -101 -20 046 052 -19 -128 009 -86 069 101 -35 -61 084 035 122 -45 -89 -04 -73 -11 123 007 -02 -118 024 -100 030 036 -103 079 -85 060 009 049 -52 048 018 -46 -119 091 061 110 079 -76 031 -15 025 002 096 055 -60 115 032 -69 103 
-78 -104 109 -114 126 -54 -125 105 -125 -94 065 034 -48 -88 103 027 -62 016 089 076 040 -87 -78 -113 -65 022 -70 059 -91 -125 074 -81 -112 -86 012 126 063 095 -80 018 016 014 -52 -56 -64 118 040 120 -26 -59 -101 125 -113 -05 -66 069 082 -114 015 -80 -78 -94 034 125 
075 -82 -125 -123 -124 083 -122 101 -78 -104 -120 -87 018 077 126 -39 -115 -67 -118 120 -123 096 -88 106 -29 -73 083 063 103 123 -72 -92 120 113 -103 -126 058 113 118 -69 -103 063 010 -113 -02 100 -17 096 -69 123 092 100 055 126 -80 -25 076 -106 -06 109 059 085 -62 107 
-112 -101 124 119 -126 046 -128 121 -55 074 097 -10 -16 -38 116 031 056 -110 -114 -60 -121 -99 -95 -126 074 -70 057 074 -114 082 -21 -93 -103 026 -86 -115 058 092 003 083 -48 -37 -82 124 075 -107 043 -118 002 -83 007 126 -25 -125 031 -76 067 -120 -92 -29 -96 -110 -81 084 
056 125 036 -117 124 094 124 110 -113 121 -74 -81 -40 066 -121 029 -85 -89 -126 082 -126 -32 -97 -109 -81 -98 -49 004 -71 089 -57 109 097 040 -37 121 000 -29 115 -45 -65 085 067 125 -04 116 -21 -119 032 081 -08 114 111 -127 064 -32 -77 -98 -92 -116 -115 -119 -35 -126 
076 056 125 100 -89 -68 125 116 123 -71 071 -92 -63 064 -123 016 -105 -97 078 080 125 -98 -10 088 -52 -100 086 094 044 110 -22 006 -117 -72 099 -115 065 087 109 006 077 -58 -09 -98 -74 -79 080 111 043 -120 -53 -126 067 -102 066 032 090 072 098 -44 -112 097 040 123 
-62 125 -118 079 035 110 125 -13 -52 -118 -126 070 038 -47 -128 031 -108 062 -121 -01 -46 -38 -107 -109 -56 083 060 019 122 -122 023 080 104 011 -104 -116 -20 083 099 -78 004 -23 -73 -49 074 -56 -59 121 -66 -118 017 125 -09 126 050 040 030 -117 060 -118 100 069 -65 -81 
016 -114 -24 -119 125 078 -123 070 062 082 031 -32 014 090 126 -23 069 -58 121 065 103 -54 -82 120 073 -15 047 -13 003 -38 046 -80 037 068 -99 119 -14 009 093 -77 -89 -74 017 -112 -29 081 016 120 -52 094 024 108 105 007 051 -78 -20 -119 059 -125 -118 033 -89 -110 
077 -122 126 121 -115 101 125 -115 -94 -102 081 -23 -72 -60 111 035 -103 -108 031 078 -114 -10 -69 -31 010 043 067 -17 -119 -127 -68 043 125 -61 018 -122 034 -84 096 025 -98 -34 -03 -26 -53 104 026 098 097 125 -75 125 062 -125 -13 082 014 104 092 112 108 039 058 -125 
-77 -51 -69 -102 -111 031 -128 -104 043 -122 -29 007 -57 -19 -127 010 -116 -105 -58 095 -125 091 -60 124 -31 089 081 -91 058 116 032 088 -30 082 057 065 055 -25 -114 008 083 040 -65 124 038 057 -18 -89 064 030 104 116 -106 -19 019 -26 050 -121 -14 022 -89 034 -52 -110 
011 049 -98 116 048 -117 -128 -48 124 -50 105 075 -69 -66 122 045 -38 103 114 -101 103 -69 027 -71 005 -52 -84 -45 084 029 037 -92 -51 -35 100 065 -67 -17 -116 042 067 -25 012 -125 -44 015 -37 108 025 119 078 120 065 -122 049 062 -97 103 093 -101 -01 -89 -81 -105 
024 115 064 096 -120 -67 123 -103 046 -45 076 066 029 075 -128 032 085 097 072 -14 116 -55 -94 -125 047 -93 004 -40 -01 -103 009 094 039 106 096 083 -53 049 093 033 095 -31 -51 -39 -87 -33 -23 -122 040 054 -31 111 058 -127 029 063 -94 056 -19 -66 -05 -126 -24 -62 
034 -27 122 -52 098 -116 -121 108 117 048 -125 -72 -29 -86 -107 010 -111 038 -13 099 -107 093 087 -116 061 101 -85 009 -92 -127 026 -55 -88 050 085 -93 005 028 103 -77 028 -39 011 125 -25 003 -12 044 076 -112 -101 -127 -79 -16 081 -40 091 -97 -18 108 050 124 -03 122 
051 125 101 103 125 075 095 -115 -57 065 -71 -30 040 081 121 -07 099 032 -127 072 111 088 087 097 -09 105 052 052 115 044 -06 -83 116 028 042 124 035 068 -33 -62 -05 076 011 -123 -60 -112 -57 -60 009 -124 045 120 -82 -128 065 -04 -69 107 016 119 -22 -128 072 -96 
037 041 -102 -45 -128 116 088 097 -41 112 123 042 022 018 -121 025 -37 -92 -117 104 122 -11 -73 104 034 093 -68 039 121 124 023 107 066 101 082 114 026 -42 064 -34 070 053 -91 -125 009 061 051 050 039 065 -25 126 091 -127 071 -01 075 109 091 -10 110 120 040 110 
-86 125 077 -124 116 076 069 -33 101 -47 109 021 026 060 -91 050 -68 099 121 -83 078 -71 108 120 067 -98 -26 049 -121 110 -47 102 -123 072 -38 096 010 -103 -11 073 -71 003 061 -54 -13 -76 010 -113 095 124 -111 104 096 -117 -76 -68 022 101 -04 109 -117 -125 039 119 
101 -54 096 002 -41 044 -123 -91 115 121 125 089 -04 061 -128 031 038 -15 099 -77 120 -66 -95 -126 -70 -112 -41 012 117 -118 -71 -37 -84 -109 -36 -117 024 108 -121 006 -31 025 -26 118 037 -99 -32 115 -73 088 -04 -114 081 124 -43 -25 -76 -121 -68 -70 089 -120 -07 -114 
-108 -102 -22 114 -06 116 123 -120 124 120 124 -93 045 -54 120 009 -12 -108 125 -90 -93 045 068 -60 007 103 -36 056 -113 -125 058 104 083 -87 066 122 -60 -58 083 -46 -41 -75 -13 113 028 -50 001 117 066 -102 -36 -126 -70 -74 069 -65 -83 077 041 050 018 041 040 119 
-85 082 -119 121 -126 -114 -128 -101 -122 -123 -122 030 -37 028 119 -44 -22 -20 -126 -105 092 034 -35 124 -45 049 075 -51 -118 067 -33 083 121 095 094 121 050 -61 082 068 -59 089 080 073 -63 -16 025 062 -101 -124 070 -118 -110 -127 -93 -06 -29 -91 051 -21 -112 126 048 074 
085 -103 093 -116 -124 080 126 098 -126 -82 -74 -44 -73 -09 -83 -58 -89 -97 122 121 124 090 -74 110 064 -101 -27 -54 -61 -120 -57 102 112 114 038 -65 082 089 -07 062 -94 043 040 107 -81 -81 -11 014 -69 118 -75 107 -107 -23 -49 081 -98 065 009 -80 027 124 009 -103 
105 -47 -89 024 -127 -89 -93 -118 -111 -88 -99 -49 016 -29 039 027 -124 002 104 -56 -123 -100 -103 097 -19 101 -51 063 121 -72 066 -49 098 114 -64 123 -64 -77 -115 013 039 -83 -05 -61 -06 098 042 -106 007 -126 105 102 009 -122 -92 070 -79 055 024 -107 088 -84 -73 037 
070 122 114 110 -29 051 -114 016 104 -118 -126 -54 -03 043 -119 011 099 011 123 -110 119 085 074 122 -56 054 -23 -75 046 122 -26 040 113 109 -14 022 069 -40 -44 -65 018 077 077 121 -22 -110 -46 117 099 -126 101 100 101 -116 -07 028 -03 -116 021 -118 -117 016 027 -15 
068 097 123 -83 -73 -44 126 104 -80 053 124 -36 -09 079 125 -14 124 037 -06 051 034 -59 -72 104 -43 -107 -43 -33 084 100 -11 -49 -125 -35 -21 126 -58 -19 091 018 -01 069 084 -118 055 -97 -43 112 051 109 -23 -98 -112 126 057 018 -87 -67 -15 -122 -111 -127 032 125 
-65 -121 -112 -83 126 019 071 -119 -124 -89 057 -36 -21 -84 -127 052 121 -106 -117 030 -119 -90 044 -123 059 108 -76 -85 107 095 -48 -12 -123 -83 -75 088 -48 -14 116 -42 028 024 012 120 -87 -64 -60 113 040 -98 -106 -127 -105 123 062 051 017 -67 -76 109 -108 -127 058 125 
029 -24 -118 103 100 116 -128 -81 108 -92 -126 007 -24 055 -115 003 -117 -94 120 106 070 042 100 -109 061 -84 -78 081 -77 059 058 -108 -123 072 -07 095 -14 060 -40 -44 -100 -46 089 116 -54 107 -36 106 -51 015 -69 103 -96 123 017 079 081 083 -62 -113 000 125 042 057 
046 -71 090 -114 116 -114 122 -85 125 045 -126 -39 050 -79 -126 019 069 014 -113 048 -97 -38 099 -76 -66 047 -01 030 -08 123 -44 080 097 -71 -77 115 -37 064 077 -12 -48 -48 054 -117 043 -70 -59 -114 094 123 097 125 -108 -02 016 -28 003 -119 061 -123 -66 -98 -60 093 
082 124 -102 -76 125 -38 120 -118 -108 -120 -18 -91 063 000 122 042 092 074 049 039 -125 048 072 -89 -75 -99 -90 028 110 -125 -23 -76 -101 -57 -81 112 069 -55 -75 056 002 032 081 -124 -38 -10 -41 014 -89 -89 -112 081 -74 -89 089 -69 002 -111 095 -101 -116 -126 007 108 
104 -91 112 068 -128 -47 -103 -85 -125 -122 115 -52 -74 -34 -102 023 091 -99 119 095 -54 -63 068 118 -38 -103 -58 027 118 114 -66 -48 -104 -105 099 -117 -70 084 -108 019 -85 031 -80 105 -46 005 -40 -33 -86 -110 -54 -98 085 125 051 -69 -13 103 093 106 103 -127 -78 -83 
-82 -37 -100 -38 073 115 119 104 096 074 104 040 -83 -88 117 -10 -87 080 109 033 -42 077 073 049 -71 -106 -55 -57 121 115 -43 -57 -125 -97 014 121 074 -63 -90 -63 -55 -02 -89 -59 011 -39 -13 102 107 -95 049 -63 088 -124 072 025 -95 112 -01 109 -11 117 073 -122 
-102 -102 -126 095 125 002 124 -10 109 122 001 036 015 -46 126 041 099 056 -119 -107 097 -75 087 -64 -77 -39 -48 069 -53 119 -79 -109 032 071 -38 109 -49 090 -121 059 -82 013 062 123 038 -14 -50 002 -81 -98 016 116 -83 -127 -12 009 096 -110 022 -07 -109 077 082 -108 
-57 059 123 121 -117 087 -124 -100 -78 087 -102 -18 -29 101 -15 -46 -95 -82 126 -86 -79 -70 069 -75 003 -06 -36 060 -80 098 -24 103 009 027 032 -126 020 009 072 -82 -74 008 014 119 -61 116 053 090 -55 -110 008 118 -69 125 075 -57 -43 -87 -87 021 -94 -36 022 125 
048 111 -60 062 -128 100 -19 -122 108 117 -05 -49 -73 027 078 011 -120 -86 121 043 118 -27 -99 -117 033 -50 011 -53 064 -122 -43 -31 -126 079 068 126 042 -04 108 -26 -45 -21 085 121 -23 011 -36 -117 -93 096 098 125 -112 -123 069 028 -66 -63 -74 113 -74 052 -09 -43 
041 111 -30 -66 076 -23 -126 036 -127 098 122 -62 069 -43 -53 043 -120 -107 -127 -45 -81 073 -19 046 003 -79 003 047 034 080 -65 076 116 -105 -29 026 -43 -72 -12 -80 -65 -63 -87 017 -33 097 014 -19 056 -124 013 122 -80 076 074 -28 -17 084 -81 -101 028 -34 -87 125 
084 124 047 119 042 062 107 114 -112 102 -115 060 006 092 -111 -45 -125 100 104 099 061 068 -73 -60 -22 -78 -53 053 -95 120 007 -30 -124 059 -24 107 -30 071 092 -47 049 -44 025 010 -34 099 050 073 -76 122 -110 126 104 -127 -84 024 -98 110 085 -30 026 095 -49 020 
111 119 116 -16 119 114 122 103 119 055 -28 -43 034 -38 -118 -54 -108 060 -92 -91 -102 -12 -34 -106 073 077 028 -19 091 125 -16 100 -125 -111 -105 108 066 099 -61 049 064 -88 021 116 062 -55 -17 -104 -73 124 -108 122 -78 123 -15 -66 077 116 -97 088 -67 -128 071 040 
072 126 109 -74 126 098 -88 -99 125 074 -107 -77 036 -08 -105 020 -58 -22 091 -90 -40 089 -96 -79 036 -89 079 075 110 117 -26 -36 125 -84 -59 109 -34 118 -114 075 088 085 018 -127 -79 -51 083 -83 -61 -86 -85 121 -110 122 038 063 -49 115 -72 121 -85 120 -81 -124 
100 -117 010 022 -125 -84 -126 -72 087 -36 122 085 051 -03 -128 006 010 -24 116 041 066 039 -109 -25 044 092 079 014 095 124 027 012 043 051 079 122 031 -100 -109 -02 -06 079 065 -119 -76 084 -12 106 076 099 -82 -113 -95 -111 030 019 -89 -101 094 123 -18 -126 071 -127 
045 077 -113 060 000 107 -127 105 010 075 -78 078 -09 -14 -31 031 -61 -85 -76 -92 -127 088 047 123 -02 112 -86 027 049 105 -27 -89 -91 107 054 106 -36 -12 -107 080 -18 -64 069 -124 044 070 041 118 -40 080 108 028 -67 126 016 -10 -05 113 -76 -58 -107 -33 026 -72 
121 -46 -97 115 016 -100 001 115 123 125 -121 -86 -117 -58 -92 120 -20 090 014 -34 -122 -123 -126 -79 -128 003 092 -05 -62 019 101 -106 053 -52 035 -128 -41 -75 -34 098 051 -106 090 -15 097 -18 126 -37 -112 120 -64 105 042 040 045 126 -44 124 -122 -114 056 -123 -125 -51 
020 114 -113 -116 -92 -114 080 -39 048 -125 076 102 034 -89 -24 093 -106 -68 -89 045 125 108 125 078 -128 033 125 017 -125 -25 082 -119 -123 -47 -106 071 083 -117 -44 115 037 -71 030 001 -107 -122 -127 033 -115 -90 023 -109 -60 -42 -125 -106 -20 125 126 117 -30 080 -107 125 
126 -97 104 125 082 121 -17 122 -18 -70 -127 -63 125 069 -84 071 -76 101 022 -66 126 103 -125 -67 -120 -10 106 014 121 015 -21 120 098 089 117 126 -83 111 -13 -105 054 108 -06 -27 125 121 -118 047 -34 -125 -77 104 107 082 -44 -114 -57 120 049 031 -66 123 114 126 
-97 091 -77 -114 -34 -123 098 103 042 086 -26 -10 123 -20 065 -07 102 -50 108 -57 -117 -96 -88 -10 -128 064 125 -111 -99 -118 090 111 049 -68 -107 122 000 -127 -41 -60 -22 -124 -86 031 -91 060 046 077 -48 -126 041 113 097 000 -126 068 059 -128 -120 122 -87 028 046 -126 
-108 -118 -107 -118 039 -15 -12 047 -32 -96 017 108 -79 112 -25 -109 043 -92 047 012 125 078 -123 085 -32 006 123 -23 123 118 009 110 -60 036 096 -114 -37 -06 -43 090 -33 -66 -82 035 125 032 120 -21 122 -122 104 -124 -35 -61 052 126 007 119 122 021 -89 -123 -124 -98 
-124 -67 085 123 -80 -116 -81 -119 117 125 085 -78 124 089 -79 -89 082 103 -79 -67 -101 096 117 -19 -53 -12 123 -70 -113 096 087 101 113 -95 -24 -91 -14 059 -06 -99 -52 -123 -18 -06 -111 -99 115 -04 111 126 020 104 -55 -28 -124 -120 092 126 -111 114 010 108 124 117 
088 117 -96 -124 -97 041 070 -67 -124 -58 120 031 107 116 040 -23 -40 035 -81 -51 -42 -127 125 -26 122 -69 026 027 -128 105 105 -121 -114 -15 -103 -128 -60 057 -04 084 -20 120 029 014 -23 -110 -104 -49 -119 -119 -05 -121 -96 -70 -125 -126 -54 -126 080 110 036 -35 -34 120 
-127 077 -87 -78 -15 120 -67 -100 -123 -110 -96 045 121 085 052 -82 097 -87 108 013 083 123 125 -88 -128 020 -120 075 121 -114 -21 089 -114 -85 -73 -124 -44 -126 -56 -98 052 -118 014 000 -70 070 -125 -75 -109 060 008 125 -50 049 -116 107 090 109 -125 124 011 081 -118 -100 
-108 -96 068 -112 112 -37 094 -111 -60 -121 112 -62 -117 -13 -74 038 -73 073 -86 -65 -116 105 089 047 110 -70 117 -55 120 -111 -105 -123 120 043 100 126 -59 121 014 -118 -46 -126 -53 047 123 069 126 -34 -119 118 098 125 081 059 -54 -122 -70 -108 -111 -105 -81 105 -119 -99 
122 -116 073 -109 -113 -84 072 -122 -81 011 -122 -97 -04 -86 104 -100 042 -49 113 031 -41 123 -124 015 102 034 098 042 -116 112 -82 -115 -109 056 -103 -114 -11 -126 -59 097 -33 -115 -46 -32 -102 -116 118 081 -115 116 103 116 -89 -52 -116 -33 103 -128 -126 123 -72 102 116 109 
125 113 -11 110 107 063 051 -123 -39 -126 -18 -26 -86 -04 036 -108 097 095 -99 035 -63 047 -53 035 086 010 094 -70 -114 -31 -106 -124 -125 -98 107 -106 006 -89 051 -94 004 -49 077 030 041 -85 -82 -21 088 111 101 -110 002 -86 -116 123 055 -67 126 -94 -47 -127 033 122 
096 -69 -27 -23 -114 -07 -51 118 124 125 -57 -01 -125 -76 -71 -124 -81 104 -115 063 -114 -114 117 034 -109 080 124 -76 124 051 -72 -116 -123 019 118 -97 039 -121 038 -114 002 -122 011 -52 117 049 073 060 -77 126 051 094 -96 062 -99 125 -58 -95 118 -122 -04 088 065 -96 
-121 -102 078 117 -29 -118 069 018 -81 -114 -124 100 -14 121 -42 -74 -82 -90 -106 058 -97 124 -125 005 -113 -39 -118 077 125 -111 -89 118 -109 106 015 126 078 -22 -34 -89 054 -118 -31 -34 125 099 -105 -13 015 105 025 -116 036 100 -72 -125 083 -107 -119 120 -84 105 088 -96 
-71 -125 -03 062 -112 101 054 -64 078 120 105 040 -92 079 -25 -123 -83 069 109 034 -121 089 088 -85 125 082 -110 100 006 -77 089 012 -126 098 105 081 050 098 014 -41 -27 -106 068 052 -126 039 085 053 -01 -121 085 077 089 -52 -121 126 062 -118 122 064 -81 -64 119 120 
-110 -43 -41 055 108 -89 013 079 -26 117 -125 -50 -03 -69 -108 084 -74 035 -40 063 -122 -114 -11 -79 124 041 066 107 106 065 059 -125 071 040 -19 -128 059 124 057 035 -18 -66 -84 -43 123 -111 103 -46 121 109 090 -108 -02 020 039 126 -50 -100 123 079 -58 -29 -33 025 
011 004 -72 -61 010 115 -81 -02 008 099 -77 -102 -02 -25 063 -88 047 -53 080 042 -126 124 095 023 064 010 -92 014 -95 115 049 115 -124 -22 -59 110 066 120 -49 117 063 -07 086 012 -124 -122 -99 -24 -116 111 -53 -105 -84 -27 -125 -30 -81 126 -36 114 -88 -78 123 069 
125 105 -92 -71 057 111 -76 -109 -119 098 124 -92 113 069 069 124 111 094 -110 042 124 -124 125 070 110 -82 -120 -37 122 -55 096 -101 108 103 -116 124 -86 -123 011 106 068 078 090 023 125 046 -120 -47 -121 -109 -33 116 062 073 -124 029 084 -107 112 095 057 119 114 -125 
-52 026 003 121 -91 020 -73 -115 -108 126 -127 068 114 102 029 -126 044 052 -123 063 -128 -122 -126 -84 -83 030 082 -54 120 -85 -70 -119 -114 -105 119 -128 -09 -125 001 023 -07 -40 -23 019 122 110 -127 045 -104 -126 109 120 -107 062 107 105 -36 125 -127 124 -02 -24 -63 060 
-82 -119 -83 125 -121 099 036 031 061 119 -124 -43 110 103 061 120 -59 -96 121 040 125 -105 065 016 -127 034 -126 030 124 -114 083 107 -116 -67 119 -122 080 083 030 -99 023 121 040 069 095 -57 094 -77 123 108 060 120 086 063 -119 126 059 -127 101 -110 -06 108 125 -112 
-19 -125 109 -108 089 075 -90 097 -90 -07 124 -105 048 116 -91 038 109 039 112 014 116 068 -126 -42 -92 -22 -114 -81 123 -29 036 084 074 -111 057 -115 034 -127 051 -02 000 -127 091 003 -120 -80 105 078 019 -126 -11 -109 -91 077 -117 125 -67 126 -126 122 -89 123 049 -124 
014 -104 -109 -91 065 -122 -56 -77 -116 -84 123 -64 -110 -102 017 -96 -88 094 065 039 -99 107 -108 -84 -124 -33 -124 101 -116 -96 -98 -100 100 100 -119 124 -05 -102 -19 104 050 -112 -91 030 096 014 -127 -55 -35 -122 -32 -120 114 -51 -126 125 -22 101 068 -107 081 -117 107 125 
-106 098 -07 -51 -79 122 002 -99 121 -125 097 -48 -97 -102 094 -114 -96 033 025 053 126 115 -123 086 126 -38 -119 -35 -121 051 006 -106 -101 091 059 123 -84 100 -11 092 -34 107 -81 040 120 -49 119 079 118 092 066 125 112 012 123 125 091 -50 123 -118 061 -104 124 -109 
-111 -105 114 121 -43 -119 -13 081 -90 125 095 106 098 041 -99 -106 058 -20 -111 076 -112 123 -126 -15 -126 060 -99 -68 119 -28 101 110 061 -115 082 -108 027 -112 000 080 022 -113 -17 -22 114 -112 123 029 -25 -107 -69 125 -61 104 -122 -106 -18 -107 107 100 -62 110 -118 -106 
-89 071 046 -126 -122 -35 088 111 -21 -82 -89 047 -126 -102 067 -08 017 -92 -109 027 092 -86 039 001 089 035 116 095 123 014 -98 105 -86 039 -98 121 065 114 -53 -119 -29 066 -79 -38 113 008 -125 -34 119 -124 -88 -18 -83 018 -123 113 -96 116 079 100 075 114 064 -124 
117 042 034 124 -115 044 -08 004 -99 -94 -127 -66 047 112 073 -125 -101 080 119 -06 123 -127 120 -48 -128 061 -105 004 -125 -73 -22 025 -31 013 -52 045 022 -42 -23 -109 -45 097 -86 010 111 112 -127 -61 051 118 -79 -119 023 013 -55 125 025 -103 -127 -110 -82 -98 120 095 
126 -78 -103 -103 -19 120 046 -110 -108 124 -98 115 122 -109 -48 -125 031 -80 -95 051 -81 122 126 -62 125 074 112 054 125 -58 -69 085 123 092 -115 -95 076 -52 015 102 014 124 014 034 125 -90 123 056 -86 119 -94 124 044 093 -126 123 -77 -116 -124 -122 -14 -62 068 090 
125 123 003 119 -33 -117 058 122 097 125 111 101 -121 -92 -19 -95 -94 -58 118 024 121 112 109 -74 -126 043 111 -113 018 -70 -103 -39 110 -43 095 -113 -83 124 -04 120 014 -122 075 050 092 -40 126 080 -58 -68 090 117 114 086 123 124 -51 -127 125 -115 -81 110 084 -100 
-117 -99 047 113 -69 075 -81 122 121 105 -116 115 100 -107 028 -90 -97 070 037 027 -111 126 -116 -09 -127 077 -124 051 -119 -84 -67 -113 121 010 110 -125 044 -116 047 -107 015 -111 -44 023 116 -70 -122 041 064 125 107 125 120 -38 -86 -108 -24 -104 -111 -114 -80 108 -120 -104 
106 -109 030 -118 -15 -121 029 095 -105 120 124 021 124 -110 -89 118 002 -100 098 -71 125 090 114 046 -112 -22 111 072 094 -81 055 099 118 112 -116 103 -66 -120 005 108 044 -105 066 039 078 -90 123 -74 106 108 -107 -123 038 056 124 123 039 -128 -45 119 031 -55 119 098 
-34 -110 080 -124 108 -05 -36 120 066 120 -89 -29 068 -83 -72 123 070 -100 095 -24 111 -105 -127 -53 082 037 105 -29 -117 -117 102 -28 -121 -71 117 -127 -22 -121 015 079 055 113 056 -50 -79 -90 105 -35 -32 -74 024 111 -100 -47 -92 -128 -01 110 125 089 061 -104 -50 081 
-124 -78 -102 -104 045 121 075 -108 -103 -128 084 -96 -126 061 036 092 -41 013 101 -54 125 -128 -123 -85 119 -37 -127 -14 -126 084 051 -12 087 092 096 -119 080 -124 -07 111 056 117 015 -54 063 111 122 -77 -121 104 049 -76 104 -81 -25 -72 -56 082 023 124 045 -126 100 -126 
-127 -122 015 113 107 -69 075 -96 065 -21 125 034 118 118 035 -118 002 -97 046 051 107 124 043 -31 126 -52 -121 097 -112 117 048 -125 120 079 103 -11 -22 121 -08 117 009 121 066 -51 124 -115 -127 -65 043 -107 105 -19 038 021 -05 103 -72 124 119 -123 083 117 -62 053 
072 013 -92 -88 111 068 014 -125 119 120 115 -107 118 -112 090 116 -94 033 119 049 -44 098 -112 066 125 046 125 010 125 -117 -99 -125 122 072 111 -102 054 003 -19 -70 024 121 084 -38 004 075 -07 -24 -17 -41 091 -118 074 022 -118 121 -66 -120 -108 -110 021 -71 093 -122 
-33 107 -106 -78 066 -111 -95 031 015 -121 -126 107 123 -94 060 -109 -112 -96 104 -49 -115 102 126 011 114 -25 116 -108 -120 100 018 -112 -117 -79 101 -118 005 111 001 -95 040 119 046 067 -122 118 098 -56 123 -120 -54 -32 067 061 017 -112 097 097 -121 -111 -85 -103 123 -112 
-27 122 105 108 064 -83 019 -102 -105 -89 -47 020 123 -95 032 -46 073 -67 094 038 -128 -85 -71 043 126 029 124 -74 -128 109 -48 -122 114 -60 089 -128 -46 126 -13 114 -66 -92 026 -55 -24 -03 -110 -27 123 124 -57 110 022 -01 -124 -99 083 -59 -51 -100 -20 -10 096 -67 
126 -104 060 -123 061 122 -31 124 114 -106 123 -68 -115 050 -111 -107 109 088 120 057 -117 -87 -120 -03 -115 027 119 -68 125 -110 096 -115 054 -88 -118 -126 -67 -110 -03 108 -51 125 014 014 -122 -76 126 081 114 -119 104 099 108 100 -27 126 074 126 -101 119 075 121 -117 106 
036 122 -90 048 -27 -115 -07 -11 124 097 -112 -95 110 -13 096 -124 062 -81 111 -20 -101 100 123 078 114 049 104 -112 101 -100 -103 116 114 -79 110 -128 083 085 005 113 -13 -125 038 -02 -99 090 098 -57 -114 125 089 -96 -103 -14 -91 102 -85 125 -127 -82 018 112 -120 -96 
-59 -119 -81 121 -114 -51 -17 -60 -32 -97 102 013 -124 117 103 113 -97 039 105 051 117 039 -128 -56 125 -74 -102 -98 -94 055 -108 -31 -124 109 -121 -124 079 -61 060 077 -70 -110 -54 -42 116 -118 126 -68 -98 044 -91 005 -16 010 068 -31 -87 -95 -128 119 032 -64 124 124 
-99 -52 -85 -109 093 -51 014 107 102 126 -124 011 118 -91 082 -101 -101 071 076 -19 -126 -68 -77 075 126 -61 -115 -87 -79 -117 -111 012 107 075 -64 -128 013 -32 -18 045 056 069 039 -33 111 -98 -128 -11 117 -110 -97 -117 -104 -43 108 117 093 092 099 124 -60 -114 -110 -111 
022 -125 091 124 -119 -121 -80 114 -68 126 117 080 070 -24 -46 -14 069 057 121 -24 -128 107 059 -72 077 072 -59 -89 126 053 108 -120 -120 112 -57 -128 -59 082 048 120 -66 -127 071 -05 -56 -121 126 038 -31 -110 -30 -127 071 -52 121 125 -96 028 106 122 047 062 -126 024 
079 -120 -36 118 116 -48 094 -117 -99 -98 090 033 120 115 093 -115 060 072 -89 -02 085 -126 106 076 -128 -55 064 099 103 054 109 077 -43 088 017 -96 002 -46 -02 -99 003 026 -11 -56 125 -121 -82 -04 -123 011 -30 -126 -39 036 124 123 -32 121 -66 -96 -25 106 034 -01 
-108 -101 -50 -81 -55 -116 -15 -111 -21 125 125 079 -116 -90 044 -42 -73 -02 102 042 -118 -87 125 021 -125 -77 121 005 125 042 -82 121 -95 -63 112 116 -74 -18 043 -83 052 -98 -19 040 091 -75 -112 061 -07 -125 105 073 040 -19 -118 120 042 -70 119 097 -22 085 099 -62 
124 123 -87 122 -112 -123 -97 -08 -84 124 -125 -93 099 122 -74 -64 042 -80 081 059 124 124 103 -28 099 -51 -124 -73 -114 -36 050 -02 -59 -68 100 -118 -76 -89 023 -79 -66 123 034 062 113 -104 -53 -46 -121 096 -104 -124 042 018 -88 085 097 126 -102 125 -39 -126 -85 098 
123 -64 075 -15 -03 -121 -14 -34 -73 067 013 073 053 -108 -99 -118 -56 -84 -07 061 125 117 120 -04 -76 -77 -90 -04 -93 071 -109 -106 -103 -104 079 083 006 -78 045 061 053 124 -61 012 099 -92 092 -71 -24 -86 109 084 004 039 040 001 -71 -128 126 -125 026 113 -93 -125 
120 056 081 -65 088 075 035 072 -123 126 -119 -95 -25 112 097 089 106 076 098 -24 -82 032 056 023 -128 -14 123 030 -123 -111 -74 018 124 064 -95 115 002 125 -14 -111 051 109 -15 -39 -107 -118 -119 -14 -39 123 103 072 081 008 009 125 -47 126 -128 -67 053 -113 097 -127 
121 -58 -103 124 -117 084 073 104 -119 -27 116 009 -59 119 -101 -126 -108 -96 -117 -22 -116 -120 -37 -35 122 003 120 050 -109 072 015 105 -124 -109 115 126 -75 124 -12 117 -13 122 007 053 125 117 118 -16 -118 086 016 106 097 085 -110 120 090 -110 124 092 -65 -83 122 109 
-109 -106 067 -113 -103 -117 044 -98 114 -103 108 113 -112 -82 100 -114 -92 -74 -106 -18 -123 -104 -119 -24 126 -09 -123 071 -121 -33 -44 -78 116 -37 082 -126 -01 118 045 121 040 -120 061 033 -114 -108 -116 066 091 -111 -75 -118 -50 -79 -70 114 -30 -108 126 -116 -59 108 097 -118 
115 -109 093 122 081 -117 052 104 092 126 -38 063 -124 -65 097 080 029 019 074 017 -123 -59 126 022 -128 071 117 -89 126 -88 083 -125 121 055 -09 -127 062 096 034 -121 070 122 -18 025 086 -37 121 -33 -69 123 093 -103 -101 -09 -57 -109 -73 126 -113 075 015 096 116 -120 
-104 -95 113 -70 012 -65 034 -68 -78 -106 094 -79 -124 -89 -84 120 009 -74 -23 060 -117 120 125 -70 -114 -02 -118 056 -119 093 058 041 -119 -65 -114 -127 -55 -101 058 -113 -65 -121 -78 -40 -113 -58 -74 042 058 095 -104 110 -72 -03 125 122 024 126 -103 -113 -26 121 007 -46 
-57 016 -107 075 -105 -112 041 -54 -98 066 086 038 117 112 -100 -123 058 -63 -109 -42 -128 -120 056 -87 -128 -66 -37 -79 -112 082 078 121 -97 079 -121 120 082 095 008 059 -59 -123 067 -22 091 116 -126 -45 028 111 108 -127 -83 -20 104 070 007 -128 -91 087 -52 123 -122 058 
125 123 -105 124 034 -75 -32 055 -01 -126 124 -112 063 101 -44 -123 -67 074 105 051 079 023 024 030 -81 068 125 055 -128 105 -13 007 111 -43 -52 092 -68 126 026 -16 012 -61 036 013 -127 052 117 064 121 -126 020 -121 088 026 042 -119 029 -120 123 043 -65 -93 -49 100 
-127 092 -108 122 104 -115 -99 123 106 -117 124 078 000 -23 -65 115 -33 -12 052 022 124 107 -28 -85 094 -40 076 -35 -41 035 -89 -92 109 -101 080 126 060 101 -54 -103 -35 119 -58 -27 123 -103 123 058 122 -122 -90 -64 -55 008 110 -48 -73 -127 116 -91 -58 -15 042 -126 
-10 -116 -53 117 -30 -120 -39 -124 -84 046 -119 -107 -94 074 -75 124 -89 098 -119 -36 125 -125 -117 -23 115 -82 087 -41 121 -26 074 089 -110 037 -68 124 072 -127 -14 123 -67 122 -68 060 123 105 105 -77 -121 108 052 103 099 -01 -111 -06 -72 -115 -126 122 -54 -126 124 117 
-112 -91 -89 -120 -84 084 077 010 -16 126 -109 -19 -79 -101 -93 109 088 068 -107 056 -117 089 124 -07 126 -55 -92 050 -127 -14 -47 -109 -121 -102 -88 -101 -12 -111 -42 -114 051 125 -95 003 -106 -119 -114 050 -25 104 -48 -113 117 -49 -123 124 -05 -108 105 -82 066 101 126 -105 
-126 088 -100 -121 -79 121 -44 -96 -63 -127 -107 -91 -76 -56 004 -96 -68 -90 123 014 -121 -119 096 -77 -61 045 107 -30 091 -81 087 114 -122 -35 -76 -125 -79 108 026 097 -62 -118 065 025 068 110 114 066 -92 106 -80 117 050 099 -117 122 008 -118 -115 -111 -56 102 121 123 
096 057 055 -126 002 119 -83 -53 -103 -30 043 -83 -106 -33 -106 -110 -106 098 107 -69 124 -127 100 -29 -128 -31 -125 027 -103 053 105 097 122 -110 051 -128 080 125 024 117 004 -120 -11 056 125 008 -35 -69 009 -96 108 052 -103 -23 119 -127 -48 122 -128 115 025 -98 109 124 
-126 -94 061 123 -114 -69 074 -120 117 123 -119 -79 077 -95 -87 117 -39 067 085 051 -118 084 123 068 096 -61 -114 -94 -99 080 053 123 -125 008 032 -128 047 -12 -28 -39 -10 -114 -14 -10 -103 118 126 -56 -75 125 067 085 089 -69 -42 -103 -80 -128 -103 121 -85 103 115 -96 
113 099 -97 -127 111 099 -54 -67 035 125 -71 -107 -21 -100 044 -123 094 -96 -101 -42 065 -127 -91 017 033 -04 -125 -108 016 -86 045 049 123 -109 -107 126 -01 -126 -58 -84 -32 064 -44 -41 -111 -41 124 029 118 -34 -94 119 -98 084 120 -13 037 125 -128 116 -50 -123 098 078 
-101 -71 -93 -107 056 -09 -34 071 -108 -112 -117 117 113 -110 -105 125 091 075 117 015 126 -105 -127 -20 126 076 -122 -52 110 -39 081 119 -62 -91 -92 -117 -11 125 029 -117 -32 122 047 033 -123 -84 -124 -41 -88 110 042 -119 092 024 113 -119 -72 -101 126 -19 011 -123 -122 126 
-122 121 -100 -50 021 119 -49 100 -112 -124 -112 012 -101 -107 -110 -73 068 -73 -115 -65 126 -127 121 -22 -116 -39 -111 086 108 -67 091 -123 -84 -115 -30 -45 -39 124 -22 115 088 125 -03 055 -123 -114 -116 -58 -99 -120 -62 -119 -55 -27 -106 -126 -68 126 -113 -124 -01 -124 -115 -112 
-102 120 063 124 120 013 -66 113 -113 -64 -127 012 045 -91 086 061 030 -65 -114 035 -125 -105 -113 -23 -105 011 099 -46 -125 -83 -64 083 -84 113 070 -69 -11 124 022 124 055 104 -43 -02 -117 068 -114 072 116 -116 -94 124 089 075 121 096 069 -106 066 119 -86 112 123 -95 
013 -124 -110 078 088 119 092 -90 018 110 082 055 000 117 -98 -119 -61 036 -94 030 115 -37 -74 -53 031 -58 -109 -55 -127 114 -99 118 -92 -87 -119 -121 072 -108 034 038 052 -108 -45 -24 -123 107 059 006 -47 -59 036 047 024 -47 -26 -115 082 014 126 -125 068 -122 -117 -111 
123 -97 095 125 106 106 -26 113 097 -97 118 -100 087 -47 098 108 -65 073 057 053 -111 -121 -108 -57 -118 010 100 -67 -87 -17 -88 -90 -88 061 -84 126 -68 -124 -03 -73 058 119 -49 070 -115 -118 -121 -69 115 116 091 -126 -46 008 -94 -121 -82 -127 -100 -109 -06 106 -113 -118 
126 -104 027 105 078 064 079 122 063 -123 125 -52 086 -87 -79 124 -55 -79 123 -33 126 -99 110 069 126 -20 111 -128 081 -04 012 050 -73 111 099 -91 077 -59 050 -101 -13 -109 040 -45 106 -59 -102 -74 -100 -115 018 -111 033 -53 118 -116 098 -101 -119 123 -57 066 -115 -67 
-97 -116 -113 -22 075 116 009 061 -124 -126 105 100 -126 115 -101 -121 108 -67 -110 -02 033 -106 000 016 -84 -33 -122 -89 -124 -16 014 -120 120 072 116 -124 004 -124 -60 094 015 -69 -40 047 -125 -112 -92 -62 017 -42 -98 -116 -97 -37 123 123 -91 -10 -24 041 002 110 -126 001 
123 114 080 -126 117 116 -28 -41 -123 108 125 -16 -124 041 089 -51 109 085 085 -49 -128 -112 -78 -81 095 062 -127 057 126 -74 014 075 -10 063 -50 108 019 116 049 -102 -46 085 -38 -17 125 -118 -126 041 087 -99 080 088 -103 -52 104 -70 -89 125 080 -105 -15 119 048 123 
-124 107 -55 -100 -118 123 082 -108 -105 -124 -81 -16 112 095 003 -89 -45 112 029 002 126 -101 123 -46 124 061 -113 007 102 -49 -75 121 120 103 -90 -97 000 -107 -58 109 065 088 -14 047 -117 -49 125 094 120 125 069 089 -15 -28 125 -112 004 056 -84 097 082 -110 113 121 
126 105 096 -124 108 -79 -77 061 002 090 121 099 -75 084 060 -115 041 083 121 045 122 -113 102 015 -95 -82 -118 088 041 111 112 123 122 -50 111 122 043 124 003 -115 028 124 011 023 -127 -121 -64 000 -84 -126 -25 -97 -29 -61 106 109 -08 125 090 118 -11 -119 -66 -124 
088 -123 103 095 120 -60 037 012 123 048 125 -98 124 -16 032 108 029 009 044 030 -120 -125 125 070 -127 -41 -75 -70 -12 076 104 -115 085 019 046 124 -47 -57 046 108 -32 -123 079 051 118 116 -111 050 -114 -120 -14 -114 058 026 124 086 018 -126 119 064 016 119 -102 098 
119 059 -109 -125 120 -96 060 117 093 105 124 -97 -118 075 083 -110 -97 -72 116 -47 125 123 114 071 038 067 -121 -17 -108 051 -110 103 -75 -63 -87 123 006 125 -18 120 -10 093 -12 037 -120 085 -69 002 120 110 079 026 047 -51 070 -117 -74 104 -93 085 019 -117 -111 -124 
120 099 -97 124 -97 122 072 060 116 105 124 109 -125 115 -47 115 -14 043 -103 063 111 119 112 074 -123 -85 059 -71 126 028 107 -125 106 -56 -85 126 056 -96 -45 118 000 123 058 000 053 112 124 050 024 -119 -26 091 -104 -56 042 126 018 126 -128 056 -68 097 084 085 
-79 086 -56 121 098 -113 -55 -124 080 -128 104 -76 083 102 -58 123 106 062 054 -08 125 -115 -119 043 113 -26 101 -69 045 -10 -56 124 096 -114 088 104 031 125 019 024 -68 -107 088 -57 114 119 118 -69 -117 -123 102 -113 -01 092 -60 -117 040 -128 -112 082 -66 -110 -93 123 
101 078 022 -126 083 -111 -70 -101 037 -123 125 070 -97 -115 -46 -113 102 101 097 -19 -124 -123 126 055 123 064 -124 108 112 114 -99 123 062 103 093 -116 -86 113 -17 108 065 104 -27 -23 078 117 028 -64 040 -117 032 -111 010 055 -125 -128 022 025 124 -111 -02 -124 117 074 
126 -107 -99 124 072 -118 -41 -123 -116 121 116 -108 -117 -11 082 040 -113 006 -64 046 126 -124 126 067 -71 025 -124 050 125 -90 104 119 -39 -70 -112 123 035 126 -61 113 059 -66 -89 -06 -75 -90 -109 -77 -53 125 099 105 043 -58 120 082 -55 -128 125 -108 -83 074 124 050 
091 109 045 014 -92 -112 -39 -83 -62 -125 099 -46 -118 086 092 -124 111 075 -53 053 123 -109 -74 -50 -127 054 -11 040 106 093 -66 -114 -119 -18 -60 124 -63 120 013 099 015 105 -77 -12 123 109 -69 029 -125 -10 -85 -109 -66 -65 123 -120 -38 123 -119 123 037 -117 -116 -123 
-105 -106 068 111 029 103 -81 -108 -120 -125 -103 -39 119 103 -110 -54 064 -45 -75 050 126 082 -29 -60 -111 -60 067 054 106 061 107 048 -85 -61 120 -116 -77 -123 002 072 -35 113 027 042 -114 -102 -92 059 121 -70 095 -118 059 055 -123 122 099 -123 -102 -93 071 -116 -118 095 
-108 112 -10 -25 -116 -40 -84 122 125 125 -121 104 -91 098 -101 -96 -111 101 062 061 -111 -124 125 010 105 -79 -115 -01 -111 063 102 110 125 -96 -115 -86 -35 -125 049 036 006 -125 081 -36 124 -27 114 070 -107 -101 -105 097 -82 079 122 -119 046 -122 114 120 016 126 -115 117 
-58 -93 -87 043 048 059 037 -108 114 049 125 106 -60 -103 010 -90 -20 -27 -100 003 -113 124 -96 079 105 -80 103 -45 121 -58 054 -83 050 023 098 -57 -70 -99 062 -65 -36 092 015 039 -101 081 -98 059 -22 -102 107 -98 081 024 -126 -116 -15 -125 124 091 -74 -114 -122 -107 
123 111 005 -97 060 122 089 -90 027 -127 122 108 118 -95 -105 -81 -100 095 072 059 094 063 -128 -88 065 010 -75 001 -70 117 -14 077 034 -90 027 -111 -63 119 -05 118 076 117 040 042 -127 122 124 013 065 096 097 125 099 -20 105 -124 -79 011 -92 -57 -66 036 -81 017 
126 109 -96 -115 086 109 072 024 -68 -114 114 -70 121 -98 -99 -81 -70 -42 115 007 -119 091 114 048 092 -78 111 -14 -109 072 003 -121 122 -54 103 124 048 118 -42 120 -38 -109 -90 005 -120 -77 125 -27 119 -115 -95 -124 077 -53 -85 115 047 -80 123 -101 033 -109 -111 -92 
-113 -107 -98 -111 112 -60 036 -114 -94 -120 114 -68 123 -106 068 124 051 -37 070 -14 -83 124 124 -67 126 -52 117 -94 -124 -57 -27 -83 -114 058 120 124 074 112 060 082 059 042 009 002 -122 -95 096 085 120 -91 -101 124 -65 -22 123 055 050 125 122 -100 -89 -121 -107 097 
070 120 -70 -100 -92 -122 -15 -111 -103 118 -15 -101 -95 -74 098 -108 034 -15 081 -55 -125 -127 111 008 126 064 087 080 091 070 032 -120 -124 -88 049 -85 079 -123 -13 -102 034 108 027 -56 -85 -113 101 004 120 -90 -12 084 -94 073 124 118 -12 -87 -108 -110 -32 -58 -121 -124 
-125 -93 -92 -126 -19 015 084 -106 -84 110 -54 036 -41 107 070 110 -39 050 -72 004 124 023 005 -83 -60 -64 001 074 -123 043 084 -120 117 115 -51 118 -75 079 -43 -17 -04 -90 084 -45 -88 004 126 003 -85 053 -68 -127 -42 -08 -116 095 043 126 -128 -121 -49 124 115 125 
126 -100 033 -124 -67 -19 -95 -120 -91 -89 113 089 110 063 021 -111 -49 -57 -83 -02 -77 -124 -71 042 093 -76 -125 083 -60 117 054 120 125 -64 121 -39 -78 -119 009 073 010 121 -80 -11 -97 050 075 041 102 116 060 092 -78 -29 125 -123 -50 -110 -121 114 059 -99 124 114 
121 121 -106 035 -75 006 056 -122 -106 122 117 112 -116 111 -57 113 004 098 124 -36 055 118 -110 -78 -115 -10 -97 085 123 -66 -87 101 -124 -11 081 121 -23 125 059 -108 086 124 -68 -30 -125 084 -127 019 -114 -106 -08 -122 -54 038 117 -116 003 126 125 109 -15 -105 -108 124 
013 118 101 -65 -106 056 048 -58 086 119 120 114 124 059 -105 -123 083 -59 -95 031 -116 -127 125 017 071 -37 -124 -51 -124 119 -31 -101 -118 -113 -93 -128 -65 125 -47 122 -42 082 062 -24 117 094 095 047 -106 -103 -81 -91 -73 047 122 126 094 -128 -119 107 082 -120 101 096 
120 096 011 116 036 -86 -76 -23 121 101 116 -56 111 -112 050 -89 -56 101 120 -49 121 -128 121 -35 -127 005 083 -66 -123 -46 -05 -117 124 -57 -100 063 079 -42 -28 -91 -21 120 046 -15 016 -19 122 -34 005 025 075 -127 088 -36 003 075 -30 126 126 -112 024 044 102 -95 
-125 098 -111 -121 -72 -108 -92 110 085 099 -91 051 -123 087 041 -116 085 044 108 046 -119 -111 124 -72 126 -45 123 008 -125 -71 -98 083 017 -78 083 -126 -27 -126 022 -116 021 120 075 -41 -107 045 -121 -45 -115 -115 -68 -109 -68 -68 -96 -127 017 -108 126 -110 -59 -108 -87 092 
091 121 -76 064 -91 -118 -99 010 056 -124 116 033 023 117 047 -67 -52 076 -109 063 -126 -121 126 -51 108 -44 -83 086 010 060 108 014 123 -117 -111 110 048 126 -53 -54 068 -86 020 -30 123 040 -125 029 116 121 -83 069 074 007 -126 -128 096 126 126 111 -30 120 -124 -116 
126 109 107 -80 112 119 -14 043 112 -85 101 -22 -88 049 077 058 110 068 087 -31 109 -124 -119 005 -98 -31 115 -70 044 111 -93 -104 103 -28 -04 118 -44 112 004 055 052 -112 -88 -51 -123 086 089 030 -125 125 055 -03 065 017 -43 124 -34 124 044 -121 072 -123 105 116 
-20 034 -28 109 -118 -85 078 118 111 -36 -118 -26 -121 -55 -70 -113 -31 085 035 -04 -60 122 102 -27 012 -17 122 -79 -126 059 083 081 -90 083 -120 126 -50 -109 -10 -84 070 -95 -42 -49 -99 -96 017 -10 -97 121 -74 -107 001 -73 111 -73 -01 -03 -25 121 061 123 -116 122 
-95 101 110 -113 -92 046 -32 109 087 126 125 -38 -119 123 -75 114 -66 099 090 076 -124 124 -118 -72 -115 -58 113 -01 093 -56 -104 078 -94 -64 -86 126 076 -124 021 -89 065 -119 -80 023 122 054 -114 088 -26 -124 -37 125 -89 -18 -97 126 -15 013 091 -115 -83 -96 -108 104 
-75 -119 073 117 -91 -115 -101 086 120 -109 101 105 -103 115 046 111 -91 087 -87 013 -121 -102 -127 -58 -111 028 122 -17 -113 004 -59 094 -123 069 040 -127 -47 -111 -17 -108 047 -109 -22 073 125 -33 -120 -34 -124 108 -92 -120 -92 096 123 -118 022 110 111 124 040 125 -111 -122 
122 075 030 -38 -33 -84 -52 111 111 126 -41 -72 123 -47 031 113 -97 098 110 025 083 -95 062 -63 -127 -35 -34 079 124 112 -108 -25 -122 061 110 -128 -47 -118 015 -105 060 -117 -67 -41 123 090 -127 -30 034 108 -108 118 083 078 -24 -49 -29 -128 121 097 034 -76 120 115 
-109 -122 004 074 -103 -78 096 -119 114 -116 -124 114 -119 108 075 121 100 -49 123 035 -125 126 119 009 126 -77 -127 -96 109 -111 064 -73 -41 079 -94 126 -13 125 051 -69 076 -122 072 -07 108 -110 -84 047 -124 -104 094 125 105 007 118 125 013 -91 103 123 -03 -102 125 103 
-102 091 -107 046 112 -122 -74 -122 -98 -127 100 053 -121 -80 081 093 -87 -72 051 027 -89 116 -113 008 121 -54 085 -86 -93 007 -58 -82 120 065 -102 -98 -67 126 014 -64 -33 -124 -96 062 -107 121 104 063 105 120 -103 -123 057 -66 -122 113 035 126 -125 -103 033 107 099 092 
119 122 -57 -79 -99 119 072 -124 124 -112 118 058 124 -103 -12 -122 -112 021 121 039 122 120 -60 -68 047 -42 011 105 118 020 080 022 -59 026 063 126 035 -87 049 -69 055 -95 027 -49 125 120 -83 041 121 -21 -76 079 073 037 -113 -74 065 -90 -04 114 075 -127 097 082 
061 -36 079 124 -79 -57 094 -115 020 -122 -73 -103 027 062 058 -121 089 043 022 -21 -127 -33 -114 -51 -127 065 088 -31 -122 001 -111 -116 081 093 -100 056 074 126 021 115 -58 -107 069 046 -126 -120 -124 004 003 107 -94 -127 094 060 033 120 091 -128 -62 -32 -88 -126 -124 -126 
-98 113 -103 -31 060 -70 -91 -118 -123 073 -126 -73 073 -108 040 053 105 040 117 -57 126 -97 -115 -81 104 -75 117 -105 126 048 -82 092 089 -110 -120 126 -65 -119 070 119 -57 -115 -65 040 098 -93 125 -68 089 107 -99 -124 040 -46 -52 119 072 -108 -125 -107 008 -78 -121 -108 
-22 094 -92 124 085 059 047 -121 -95 090 125 -102 -123 119 089 005 109 -63 033 -59 -41 -115 -126 -34 126 071 081 090 108 118 098 121 -77 037 -114 126 -81 -109 024 -04 -07 124 -14 -58 010 089 -55 -70 -118 -22 054 -117 -104 -19 092 042 -69 -128 107 -120 -60 003 121 -117 
125 -37 -28 -109 -114 -89 020 084 120 -127 -02 083 001 -24 -38 -05 082 -80 116 058 123 -19 -128 -89 -97 -29 007 052 119 005 -87 066 121 -109 -120 -113 031 017 -43 -98 -70 -49 -59 -01 -42 003 008 000 -120 124 107 080 -25 089 069 126 070 -128 -128 052 -57 124 -84 -121 
035 -117 -55 095 093 079 -60 123 106 116 110 049 115 -89 082 -123 -72 075 110 057 108 -118 -46 051 -103 010 125 090 -128 -105 -61 123 119 -59 -96 -125 -18 121 052 102 017 -79 -90 009 -127 065 -87 -34 -85 088 -64 111 076 030 031 -96 -48 126 -121 -53 004 116 106 121 
117 -40 -59 -76 051 120 076 -123 -116 124 121 -89 -126 -29 103 -84 046 092 024 -68 122 069 028 083 115 -05 -119 017 116 -90 086 034 -96 -95 118 -123 036 -108 -21 -25 001 -118 -79 032 -21 -90 -124 061 -115 -123 -31 124 000 -85 -124 118 093 001 -70 120 000 -115 036 -35 
126 121 -44 122 -117 -118 -53 -03 -97 -77 -127 -86 045 -101 088 -45 -41 074 113 -22 123 -127 125 043 125 070 -127 -104 119 -111 106 018 096 110 108 -128 -61 113 -10 -114 -04 -125 029 045 -126 -52 -128 033 120 100 026 107 -41 -75 077 -124 093 126 -57 -93 077 -82 -120 121 
119 -123 -17 -118 -93 -114 087 107 050 -86 -106 -112 -108 -25 -28 048 -70 -60 118 067 -76 015 -128 -62 -122 -37 -126 -35 004 -102 -15 -83 -23 -52 076 125 041 -127 -60 -21 041 068 -58 040 006 -29 -124 -25 116 075 073 -126 049 -64 -126 034 034 -125 069 118 -57 -127 -125 059 
-102 117 -06 -123 119 105 -44 -24 123 -119 107 064 -121 105 027 -119 -74 -87 033 036 024 -112 -126 060 125 -52 -99 -102 -127 -68 -100 -113 -83 076 -116 125 -85 124 042 050 -42 111 049 -42 -82 117 123 -10 -118 126 047 -80 112 094 124 -65 -76 123 -126 119 023 117 123 117 
125 -105 -68 087 -79 -31 081 102 -119 -120 100 017 -105 -112 -12 -82 -05 -51 119 -66 107 121 114 -68 -22 -57 068 032 -123 113 104 -95 -108 -115 -107 -127 -05 124 -51 101 013 097 032 -57 075 094 -126 -03 -118 087 -86 071 076 019 -106 125 -60 -100 -123 049 016 -120 094 123 
-128 -55 -107 -81 062 112 -56 024 025 -107 110 016 -123 -103 -100 124 108 -68 087 -22 126 114 119 071 -109 069 092 033 -120 -27 096 -100 021 -74 -66 073 052 124 -21 089 017 -127 055 -21 123 -123 125 -70 077 103 -01 038 045 -52 102 -121 -06 -128 069 -93 -33 122 -36 -41 
103 025 002 091 110 -124 077 092 -120 109 -122 -112 113 118 -86 115 109 059 116 -54 056 -125 126 081 -88 001 079 014 -126 115 093 120 -115 099 -113 126 079 -121 -19 -64 -59 102 010 006 121 -111 099 -36 -79 002 012 114 -33 -68 -114 109 -90 126 113 -124 030 -05 112 097 
-120 107 -104 018 -109 112 -61 017 107 -126 -110 053 109 -101 075 108 -95 041 -70 -35 126 -115 -128 066 -114 -54 112 041 -109 115 -37 -108 -91 115 -85 097 076 -118 051 -93 -54 086 -52 016 125 113 124 -74 -113 -109 -96 116 -70 -21 125 123 -77 126 091 117 -07 -83 -107 114 
-76 -123 -109 100 -120 -113 -28 -124 042 122 097 -47 -123 -36 025 -48 -03 068 -121 -64 105 111 -65 087 045 -19 113 070 -42 118 -100 108 119 008 015 -112 -38 -100 053 117 -30 -30 032 -50 -37 -104 123 -73 -121 094 -74 108 -88 020 -04 125 070 -128 -128 122 -04 -125 -95 -126 
-18 -95 -98 124 038 119 003 -115 -18 123 -102 -80 -126 -57 097 125 066 -89 119 -51 014 112 -106 008 109 -13 109 068 -87 -34 -80 072 124 034 074 109 -78 -90 006 062 -18 -93 -81 -46 125 118 119 -47 085 105 -79 092 059 -08 124 125 -01 124 123 120 -20 -119 039 -114 
-125 -120 015 -118 101 -115 090 -91 119 125 056 056 123 027 -84 101 034 -69 -110 023 126 119 124 -64 030 023 -76 -50 -95 -66 112 122 -70 103 115 124 014 -125 017 097 013 -114 -87 -51 -124 -22 -118 -53 -55 035 -59 -28 048 056 -124 107 -20 114 126 -112 022 121 -58 098 
035 -117 102 114 -122 061 -85 -16 090 -127 -107 062 -124 -121 088 108 -103 -37 -116 007 -91 106 -128 -83 -112 -55 -111 -35 -103 071 052 028 -108 -57 -84 126 -48 -123 -60 -90 -54 075 -63 -24 -120 -52 124 038 -28 -106 -44 -126 045 -50 -114 -73 -95 099 -118 -125 -89 -62 039 -85 
117 -13 -80 -122 -101 056 -82 021 -100 125 -121 091 -118 -112 074 -99 -75 053 000 055 065 102 -125 -57 -127 077 -127 097 -128 -69 -89 020 -111 -93 -113 -120 -33 113 035 -119 -60 122 065 047 -127 -08 -118 -59 032 070 091 108 -93 -62 -126 -12 002 123 -73 -61 001 113 118 -107 
094 115 -95 -87 104 -101 -94 -113 117 117 -124 -101 -125 099 -42 -06 -29 -31 -114 024 -88 032 -110 050 -108 078 000 -30 -125 -65 -86 -121 -12 -10 009 095 -49 096 043 093 067 -114 -23 -32 -58 071 -113 -71 089 080 -105 124 -25 040 -73 -127 -95 082 -93 023 -62 -80 -57 -35 
-123 123 034 -70 -94 031 -62 -125 -54 -96 -125 089 088 -83 022 124 036 -97 094 012 115 -125 126 -50 123 -70 126 -49 125 017 096 004 -106 056 -109 -112 024 -66 -43 069 -14 124 -10 044 121 050 123 -26 093 124 -64 109 -65 -03 -39 125 075 -128 104 099 -17 090 -100 101 
-99 -123 054 -103 -108 -106 070 013 111 -84 116 088 115 018 063 054 005 085 106 -69 101 -113 085 081 -16 -22 125 -101 124 089 030 -81 -125 109 -121 051 019 -126 -34 116 -70 -120 053 -10 -125 -105 -127 -59 -91 121 -105 -59 068 -79 123 125 -44 048 126 122 -74 041 093 -125 
117 098 036 -120 020 -122 -48 113 122 -111 -101 008 116 095 020 122 061 074 -117 008 -97 -114 126 -87 104 011 124 011 -119 -05 -81 -118 093 071 110 066 034 125 042 -113 071 058 -73 041 -10 -84 126 -54 005 -116 -41 -110 -86 -67 -55 -121 007 -103 -78 070 080 -118 -113 067 
125 115 067 121 -106 -122 093 053 -100 -104 071 108 -89 110 069 -50 -34 091 -105 -56 118 -125 124 038 -126 -13 -92 008 -59 -117 064 120 052 084 -117 125 037 118 -19 -110 037 -122 043 051 068 -105 123 057 027 124 -31 104 -97 077 -124 014 049 -128 009 114 -82 -120 -99 -03 
123 -106 -57 -96 078 039 -24 -94 124 125 109 -88 122 121 093 116 -99 -43 -80 066 112 -110 -95 028 -109 -81 109 093 -104 -93 -64 060 -103 -76 -93 -128 -85 -107 066 091 012 065 030 -39 -126 111 126 -46 110 125 -52 -120 -60 099 120 -126 -74 126 -80 -102 036 102 124 -101 
-123 -92 082 095 049 089 024 -106 109 -105 -126 -86 119 -37 098 -49 105 -58 -79 -25 -119 -123 -114 -40 -128 032 114 -54 119 101 082 -22 -124 034 083 026 075 118 -61 -74 031 102 -87 -10 -85 -97 104 -68 087 028 -42 124 034 010 070 -112 070 126 -127 077 088 -127 115 -62 
108 084 -108 -125 117 -112 -97 104 -45 076 -125 100 048 117 094 060 -87 -86 -118 032 076 -114 122 064 119 -64 -125 -89 101 -77 -32 122 122 096 -70 -71 -78 -89 009 049 -56 057 -40 -57 -125 -69 125 047 017 009 051 062 -44 035 120 -101 100 126 -122 124 -87 125 -38 119 
084 113 109 -67 -97 120 030 -125 -35 117 098 -70 -125 098 090 114 -03 076 107 046 121 -127 125 072 -125 -33 112 -72 034 -119 -09 117 -125 072 -34 122 -80 -127 -63 -101 033 118 -45 019 -85 -103 -121 -62 122 -127 -95 104 072 -45 114 125 -59 -127 -128 125 009 -59 -99 106 
-92 114 -109 -122 -119 118 093 119 -114 -127 121 -106 029 -88 093 -93 110 081 -79 069 125 124 -112 -63 -122 -58 -117 067 048 099 082 -122 -65 -34 121 -128 014 104 -54 111 -30 110 -34 041 -119 -119 118 029 -82 125 -26 015 064 -04 124 107 -68 114 020 120 -23 104 070 -123 
-89 099 -99 -120 114 042 -58 -88 066 123 -125 -97 041 113 034 -117 -76 105 -88 -21 -104 -127 090 011 -113 074 103 -38 088 -41 107 119 088 -102 -97 081 076 -110 032 107 078 -124 022 061 -127 090 -128 058 -106 126 -86 096 -76 -50 -125 -116 108 -103 -109 -109 -43 -108 096 -124 
-112 110 040 117 116 079 -95 -114 -125 -109 -75 -47 -17 079 084 -125 -99 -96 -124 -62 125 -121 126 -61 126 -16 125 056 -126 -65 -69 -121 110 079 072 -127 -42 126 -43 -108 -26 -104 019 034 -122 089 -112 074 092 -116 -92 106 013 -90 084 -121 -65 126 126 -65 027 034 069 109 
-49 076 -80 -30 047 065 -04 106 124 115 -125 034 095 -104 -86 -86 -108 068 066 -54 123 -75 126 073 126 -35 096 -57 087 035 -27 123 119 083 -66 -81 059 -126 -59 -120 031 -71 -85 -02 048 121 126 075 -124 090 061 114 056 087 107 103 -25 125 100 089 -88 -14 -100 -01 
