126 051 -34 085 025 126 -126 118 126 126 126 -127 126 126 126 015 126 126 -99 -12 126 126 -126 126 -127 -127 126 -127 126 126 125 073 -115 008 126 072 126 -115 030 126 126 126 126 126 -38 043 126 126 -127 126 126 126 126 102 -33 125 126 126 126 -66 126 126 126 -94 
126 -125 126 126 121 -61 126 126 124 126 126 080 -58 126 126 123 105 115 -86 111 062 -35 -16 126 126 047 126 126 126 103 126 126 048 021 120 -08 126 126 126 083 126 -112 125 120 126 126 126 126 126 126 126 -07 121 111 126 -30 060 126 126 126 -81 -58 037 126 
126 126 126 -27 -116 126 -113 126 119 125 -125 126 126 126 -87 126 126 -75 -05 011 -37 126 124 -01 126 -14 -112 126 126 126 126 126 111 -126 126 126 126 -19 126 126 126 126 -71 084 126 126 126 027 126 126 126 126 126 126 119 126 126 126 126 002 125 126 050 -65 
126 -120 126 126 -96 126 126 126 126 126 126 126 126 126 126 126 126 126 125 052 126 -96 -119 126 123 126 092 105 126 089 036 124 126 126 097 126 041 110 -61 126 126 112 121 -114 126 126 -127 126 -125 126 126 112 -22 126 126 024 -119 -128 126 013 -06 126 -84 126 
126 126 -122 126 060 126 -41 126 126 126 126 -54 126 024 -100 068 126 -111 -84 047 123 126 126 -123 125 126 -31 -116 126 126 126 073 -15 126 -117 114 126 -108 077 126 -126 126 126 123 126 126 -72 126 126 123 126 -108 126 126 126 -103 126 -21 126 126 126 126 126 126 
016 -124 -127 126 125 126 126 -88 126 -86 126 126 126 -02 -115 126 036 125 122 126 126 126 126 126 126 126 126 -59 -128 113 126 071 126 126 -128 126 126 126 126 126 065 -70 126 126 -104 -94 126 016 126 126 126 125 126 126 088 126 126 126 126 126 127 -77 126 -114 
126 126 124 126 126 045 115 126 054 126 -114 065 126 119 110 126 126 -128 -81 114 126 126 126 126 126 126 126 -61 000 089 126 -121 126 126 126 126 126 -125 126 126 076 126 126 -127 126 126 125 126 125 125 126 126 -74 126 126 -64 124 126 125 126 126 124 126 053 
018 126 125 126 126 -128 -127 095 105 -12 049 126 -113 126 -115 126 126 -01 -127 -97 -40 126 -128 122 114 -123 121 126 -107 126 126 126 126 126 021 126 126 -123 089 126 126 126 126 126 126 -110 -81 051 126 126 126 059 125 126 126 -02 125 -108 -95 -117 126 126 126 126 
