079 117 -87 055 098 125 103 -77 120 -14 102 086 -78 -35 040 124 095 115 037 100 061 107 105 -103 -59 120 009 124 -69 -80 -64 021 093 121 -66 000 099 -88 -93 086 053 114 -54 045 058 -121 079 077 124 114 115 -70 094 070 048 109 113 -40 124 -12 -104 -120 -34 -75 
124 107 -22 124 123 120 -60 117 068 110 094 119 118 -102 -36 116 -120 -40 -119 -44 -90 050 031 -06 034 -67 -80 -21 105 114 -12 037 097 114 108 017 118 052 120 -85 121 -60 -21 033 -88 010 120 068 -09 124 -108 125 034 070 085 015 094 049 111 123 056 126 106 093 
-71 106 004 104 120 -112 039 -01 -64 120 -89 092 -56 -21 008 112 123 063 118 124 120 -11 088 117 102 -75 002 -62 121 -83 -04 -02 -05 100 -64 064 052 120 121 -101 -71 113 087 094 111 066 -49 051 -56 107 110 090 064 104 -108 -70 126 123 063 112 025 060 076 -121 
-76 -45 -23 089 109 062 119 088 121 026 121 -72 112 -93 -46 -64 115 -42 -17 119 106 062 -74 -32 -60 041 024 102 120 -99 103 -67 -57 096 119 108 120 066 -73 113 063 068 112 116 053 -01 004 115 102 053 037 089 123 -104 120 127 110 119 095 122 -78 036 -10 -86 
