004 -54 115 -73 -64 -26 025 070 099 -96 046 -35 078 100 025 -17 -13 000 -68 074 -11 -75 -33 -59 -27 -57 -108 -75 -32 -93 -38 -39 -43 -22 -27 -90 053 105 099 094 -29 050 -24 061 -81 044 053 -44 014 091 072 -21 061 049 092 000 022 -86 -09 -76 080 -31 012 092 
-38 -09 106 105 021 063 -60 003 081 -49 017 060 013 104 -52 -41 -86 098 045 021 025 016 -38 -13 -89 -60 -81 049 011 -33 -10 044 014 -12 -45 038 075 098 009 -30 080 -54 -87 -103 090 088 -36 -108 064 081 083 052 -96 -57 -04 000 -57 057 -47 110 074 080 -71 083 
-50 -76 066 028 -73 -88 025 -46 100 -49 -35 003 -88 -106 -62 030 -95 086 097 072 075 -25 037 -20 042 -48 -74 094 -10 045 082 081 -112 -40 059 086 -77 -70 -03 -97 069 -62 081 047 082 078 -42 -42 -71 004 071 008 -97 030 -31 105 042 068 -28 078 061 -55 -93 -98 
-40 -48 114 -62 086 037 064 -06 -95 -53 063 075 -75 037 030 -43 082 016 077 -74 -97 -43 -25 -20 -49 -51 023 066 081 043 -98 091 -80 077 -48 111 007 111 -15 032 111 -95 -94 013 061 103 -80 -86 074 -55 080 105 -13 -13 015 110 -55 077 008 -34 -68 -61 -13 -106 
073 -67 -28 095 093 -79 -67 -41 -97 029 052 -66 065 -92 080 -62 -79 -85 062 -74 061 023 -18 018 -02 -11 -109 -11 -36 035 -62 -21 -101 -67 107 -16 027 -119 090 045 067 -100 -61 018 090 030 058 105 045 -26 084 083 -101 030 -71 024 -11 -93 057 -61 018 -54 -90 066 
056 -76 -17 109 -88 -31 057 -11 098 066 -71 -64 030 001 -49 061 088 -21 -112 -63 -69 015 028 061 -61 -18 -97 061 -56 081 013 073 -105 013 069 068 -37 056 009 076 111 081 033 -102 -66 -98 -85 064 -49 043 072 -71 -83 081 005 -40 032 082 041 015 047 -68 -39 -01 
071 -93 115 045 -81 068 -69 080 069 087 -46 -47 060 -22 -36 -21 -98 017 066 061 089 022 028 -55 080 -58 -67 098 -47 -73 -35 -01 -32 -66 030 073 068 -62 -80 -10 -85 -91 010 -98 030 -33 074 -80 -69 -90 -39 057 -10 019 -80 -02 015 -57 058 065 -33 055 -16 -108 
060 044 -19 038 -94 -76 046 075 -06 100 031 -70 -90 -63 052 052 100 -67 100 026 090 -60 -16 -21 003 -36 -113 066 -68 -52 066 073 -81 -14 -74 070 024 065 -110 086 110 -73 -83 -30 -07 085 021 109 061 025 -62 049 100 -80 027 067 066 -92 051 014 -72 049 080 -83 
033 -78 099 109 -96 085 068 007 -77 011 050 061 072 -98 -96 -29 010 006 012 -71 060 055 -14 035 093 -19 109 -16 062 -70 080 -42 075 070 -50 -69 059 116 034 097 -80 091 -79 012 -20 076 -53 010 -49 -32 002 103 -94 -07 055 027 069 -22 063 042 041 040 095 -06 
-10 051 064 107 002 -28 030 056 009 095 -47 -10 -40 -102 -67 -26 031 -41 099 -42 100 -78 006 044 -51 -19 081 -112 -52 007 -35 093 -77 009 -108 097 -78 -113 -82 081 -100 -16 010 070 -67 -83 -21 -12 -10 -36 -38 010 012 082 088 -112 -56 097 005 102 001 026 -01 -38 
057 -30 104 088 058 075 057 -65 -106 -65 -54 -50 -10 074 -103 -58 071 091 104 010 101 002 -51 -25 080 046 -77 114 -22 082 069 -04 -75 079 -102 040 -33 -92 -116 -108 -111 001 068 096 -02 081 -85 021 074 071 -62 084 -08 -65 044 -99 069 081 -62 -65 016 076 -93 085 
-67 -34 112 028 -42 -93 -43 090 -77 051 060 029 079 098 084 -12 066 -58 -98 072 -41 057 020 046 085 017 -83 074 -12 074 081 -69 -21 013 -33 052 059 -06 093 -53 003 -68 -61 031 011 107 042 -50 010 083 -96 017 -55 022 -103 -01 -64 080 -78 -88 018 079 -82 098 
-56 -78 -113 087 -76 073 -24 -69 009 -68 -32 006 046 -101 -90 -43 049 063 -116 -24 -111 -22 -48 017 -70 046 084 043 -41 -97 056 -65 082 -23 020 -48 -72 109 -86 107 107 -66 -10 -57 -02 -23 007 -12 -68 062 034 001 100 085 -36 -106 -67 -108 -65 110 052 -69 079 -98 
-86 039 077 094 -20 -22 -24 -15 -65 069 -53 -39 -24 -36 007 060 -59 -102 -104 004 075 -80 -45 042 086 -45 -48 -28 013 -05 -84 086 -105 082 056 085 -25 -39 033 101 -88 094 -82 073 -51 -94 -19 -73 082 -83 079 111 -88 001 -22 104 047 -102 -70 048 -15 041 -78 074 
-51 068 105 -65 -48 048 -11 091 027 -82 044 -63 -84 076 -88 -47 017 092 -79 031 -64 002 043 022 -34 019 024 069 082 -44 075 073 -20 074 112 086 -86 -35 -115 -51 052 087 -32 080 083 056 005 037 -07 -43 -12 -107 -14 034 -20 -106 -61 101 028 -05 -59 041 -98 -44 
-87 044 102 -89 -11 013 049 -11 -98 -34 -31 031 -27 102 039 045 003 -102 059 -48 064 -37 -19 -18 -97 -46 -35 -23 057 -28 054 014 103 -93 -106 -44 -24 -83 -28 083 -09 065 049 -13 -94 096 061 -108 -83 022 -85 083 -108 -68 -104 -68 -23 041 064 071 -40 -58 096 -77 
090 -25 099 -91 050 073 -53 018 -62 088 059 -56 039 -41 -76 -52 -59 090 086 033 063 026 -42 034 -67 017 015 095 046 -67 -21 081 070 074 -92 -36 -70 052 075 026 -93 -01 024 -09 089 001 -05 082 080 -89 -89 067 105 -70 -46 100 060 048 037 007 -82 079 068 103 
101 -42 116 045 -85 -49 034 018 091 077 020 -11 057 -56 -81 052 080 -50 -47 -55 -92 -74 021 -47 -19 040 -23 -113 -74 067 067 062 -83 -64 -107 -47 -56 -109 096 -40 -13 036 083 -78 -36 -86 -42 -24 -16 016 -69 067 077 -14 106 088 012 -107 -17 042 -77 050 076 036 
075 017 -105 -57 -42 031 -70 071 -06 014 031 -03 064 077 042 024 -09 046 107 -47 009 -64 051 003 025 -24 089 -67 -63 022 030 -11 -53 -62 -90 -53 -29 -43 076 -94 -74 099 -55 092 -25 -72 -54 -60 002 033 -96 096 -82 -63 022 057 064 047 -61 107 039 023 063 091 
-79 -73 -77 -52 -06 -90 -05 028 083 088 044 -07 -75 -32 -72 -56 -53 076 -60 -43 089 -49 -19 047 -79 -27 113 -63 -31 089 -41 013 -95 -54 -94 -53 067 -115 -41 -108 -03 -75 029 -80 066 104 008 074 -50 -40 -97 111 107 -51 -55 -45 055 -87 022 -79 -63 088 -63 -46 
035 -29 118 000 087 085 081 -101 -82 068 030 -50 037 047 062 049 -10 032 -33 -49 -73 -29 -23 -26 -23 037 093 050 -63 -41 -85 089 -110 -77 -94 -73 -11 -27 -93 072 019 008 010 084 047 -104 -09 -78 032 -81 -56 -15 -105 042 106 -72 044 080 -24 -61 -23 -32 080 -63 
097 -77 026 049 -36 -91 -25 -19 -16 027 -36 019 070 -38 -24 008 -99 -71 -104 -43 090 030 017 058 062 032 013 087 020 011 -17 106 -89 -69 083 -60 -67 120 -102 064 068 -30 -93 -45 -63 106 056 -12 -34 -20 096 -76 -57 -88 047 -106 045 084 -77 088 033 -76 086 072 
096 072 010 -83 033 018 -47 -86 084 020 -34 -37 021 -73 101 028 066 090 114 -69 -71 -81 053 046 071 -33 065 -107 -78 -86 -82 -89 104 087 017 091 047 099 -85 009 -46 079 -17 075 -39 054 026 108 -80 031 -92 101 088 055 -24 -35 061 -03 -14 -14 004 052 004 -33 
056 035 089 031 -12 -87 -63 -70 101 -42 033 049 073 100 -21 -46 -07 092 -87 -75 -68 010 -40 -32 092 -13 -42 -58 053 090 -07 -72 -102 -28 -21 003 058 018 -15 088 -81 -73 024 -109 -18 092 080 -31 -60 -85 076 -66 -82 088 067 070 009 048 -49 -71 -61 -58 -98 066 
-15 001 093 097 018 -65 061 095 077 -18 -37 -18 089 -82 -27 059 -83 055 -57 007 -59 059 003 057 024 057 102 099 065 051 048 010 -84 082 096 -38 -36 -54 -100 -40 091 -101 086 091 061 067 076 -73 -28 028 078 036 048 006 -61 -101 -05 -101 -25 -77 -02 023 070 059 
-85 -22 028 090 -41 -44 032 -100 107 074 -18 067 -78 029 078 -23 -23 063 108 050 077 071 -34 -18 -46 039 -98 -78 074 063 -91 090 100 012 -74 -66 062 -62 076 076 -56 -96 081 -105 002 031 -75 -09 -35 -88 -26 058 -67 061 -75 -26 065 067 -79 017 064 016 030 094 
-48 082 -47 093 -14 080 -52 -76 -44 -55 021 046 -65 -100 -53 008 -94 -95 -98 -47 055 066 -39 024 -36 011 -105 106 068 -44 -80 037 066 -69 085 -81 050 -74 034 -98 -105 -91 048 -66 066 -103 059 084 076 003 -81 013 -88 -87 006 011 001 -108 -34 063 -60 -60 096 106 
-92 037 102 -105 086 015 -62 -81 -89 099 -58 -59 073 090 102 035 019 101 115 -08 -66 029 -20 -07 -80 050 -25 111 011 -64 075 055 103 003 095 -24 080 076 -02 -22 109 016 -08 007 -100 102 -01 -95 094 069 -87 -97 -86 -52 -95 050 -71 -26 -64 -40 -15 -52 -98 092 
-01 -46 -97 -85 -28 -49 008 059 -25 -55 045 047 -23 104 -96 022 003 -91 -02 -65 015 -17 -45 023 -97 -05 098 099 -50 -77 -56 095 -28 058 -69 -44 051 052 088 054 -104 -78 -92 -86 -77 061 009 -107 -95 079 -63 -76 081 076 017 012 -23 097 -80 -79 017 067 -80 -72 
002 -31 -97 006 038 032 050 -82 071 017 062 -13 -73 -15 085 -34 -90 043 -40 064 -104 028 -04 046 -15 -06 077 102 -02 -02 076 099 -110 -29 110 -53 002 029 -101 -55 -109 -78 -48 099 096 095 -68 010 058 064 031 -41 -28 -49 083 -73 -39 005 024 -101 051 082 088 092 
-94 090 -57 -02 -17 -72 -33 038 095 018 009 -71 -74 -34 -50 -12 099 049 087 -76 -60 016 016 -51 -62 030 071 -112 046 -27 059 075 -100 -04 -02 087 -74 119 -71 087 -06 067 068 001 -29 -92 -44 015 -18 -07 -90 107 064 -71 089 -09 -44 111 -64 -61 000 -62 -86 048 
100 -61 070 -106 058 082 063 -101 003 021 054 -44 069 -83 011 028 -62 -101 -87 047 108 -19 -48 -28 -84 025 -42 005 036 087 -81 -02 054 042 -90 082 -24 108 -77 -10 -26 -79 -73 -58 -90 -21 066 -108 -41 -85 006 -03 -90 -53 -09 -64 063 -52 046 -79 -66 -72 -24 -08 
028 -56 092 -102 -24 -91 025 061 -22 -60 019 058 015 011 039 048 035 066 -102 002 -107 -15 -03 058 -37 -19 -19 -112 027 037 022 -47 048 -80 020 -87 -01 110 108 -96 -43 -65 004 -87 025 -73 -72 -61 -30 -79 075 072 -38 085 096 067 -45 -58 -72 -87 -33 -11 027 011 
-92 -92 027 -103 -96 021 064 -66 053 077 014 004 056 -68 -31 -04 032 070 099 015 091 -73 -38 -56 090 037 -90 049 -68 -70 069 -51 104 070 -114 -39 -13 038 074 -100 -40 091 065 -86 -58 078 081 -08 -52 085 -09 -101 105 -92 079 -109 046 -51 039 -105 -74 -08 -34 -74 
-23 -11 096 078 -93 -53 040 031 -28 -03 021 -12 -90 093 048 -11 099 -93 088 -18 -33 -76 035 -45 046 007 102 -107 -56 -94 -18 044 105 080 -80 -50 -11 019 -70 067 066 012 081 066 078 024 060 -101 028 077 055 -22 -84 -42 032 -24 -08 106 -60 028 -32 083 -02 -106 
-99 -38 -05 034 -44 -57 -48 042 090 -103 -25 -04 -49 -79 -68 039 -96 -81 080 -01 -83 -03 -16 049 -33 -54 084 -11 -50 -71 -38 038 -92 -88 088 -34 -12 -02 070 -89 101 -101 091 052 -35 -78 -59 096 041 029 097 062 101 072 -93 -73 -21 -104 -76 056 076 042 -53 063 
023 -25 025 -101 066 022 067 097 -95 064 -57 -65 -82 034 024 -43 -90 -64 074 019 -35 008 -23 -03 -58 -58 107 073 027 072 079 032 090 069 088 024 -31 109 062 092 -20 -32 070 -89 100 -68 055 106 -94 -39 -51 073 080 087 043 074 030 -54 017 054 -63 074 -31 049 
-61 -13 031 043 -79 -23 021 022 034 047 -68 -67 056 102 -38 -24 -06 090 018 -31 023 021 -28 034 074 -49 046 -116 -67 -101 -08 026 106 086 102 -39 -04 -111 032 -35 -79 -43 -17 -100 -51 -98 -60 -95 048 001 013 -98 -76 075 -78 -108 -04 -93 075 077 -80 -37 -24 054 
-53 -88 -56 019 -49 -80 079 -67 -30 -98 -19 -67 -51 080 098 -65 069 -41 -95 035 070 -31 -48 003 -76 032 -90 -07 059 -85 015 061 094 -02 -66 004 -03 -86 -115 102 044 -37 085 -36 079 -95 030 112 079 -10 -72 099 103 069 -64 058 -43 015 067 -29 -52 055 002 -107 
082 070 -91 -100 -54 054 038 -73 -67 100 011 041 -65 -77 -48 047 032 037 103 -19 -49 -72 -24 005 -89 020 -112 -60 020 079 -66 -103 081 080 088 028 -22 027 -61 090 -101 -98 -35 051 -42 -98 -40 081 075 054 -25 098 030 046 -25 -87 -01 061 -55 099 003 -66 031 086 
-56 012 -112 033 063 -36 016 -100 -85 049 -25 -35 -55 106 -99 -22 082 -60 106 013 -26 036 009 056 078 038 039 -26 056 048 092 066 -110 033 107 -86 034 -114 097 -80 062 089 -23 094 024 076 -75 064 -46 048 -97 -30 084 013 -75 096 066 049 022 -84 -55 003 -84 085 
-41 063 089 101 053 020 -36 -29 059 000 013 -01 -57 012 -31 032 079 -90 -97 -08 051 -33 019 015 003 -35 -102 -103 028 074 -75 069 -77 054 -96 062 064 -102 -113 024 105 046 085 078 -66 101 026 027 -61 -18 -77 055 024 -31 -79 057 -33 -49 046 062 -68 -40 -100 105 
-61 -44 -101 -87 -11 -33 061 075 041 -70 -58 066 -19 048 -96 -64 102 -72 -86 -23 -19 -58 053 -29 002 -44 -109 -57 -02 -07 043 063 072 -15 094 102 035 -118 -108 -29 087 -78 027 -104 043 102 -64 044 081 043 056 -80 -62 -21 035 058 -56 089 -28 022 -49 -28 093 071 
046 088 116 -105 061 022 060 085 103 010 -20 -76 -85 088 -94 -47 -92 -04 -100 -22 -104 077 054 042 -71 025 041 051 -32 097 022 -32 078 -43 038 083 076 -46 -43 -26 000 034 -59 -92 -59 -56 -54 070 067 -85 -61 -48 088 -43 -21 087 -34 106 014 -107 050 -67 -96 -84 
-71 058 076 -14 -02 -91 007 -79 033 058 -04 071 008 100 064 021 -01 -21 113 058 -110 039 -53 -30 -67 -56 -92 003 052 043 084 062 108 078 -34 -48 040 -68 099 088 104 -23 -73 056 -68 -89 074 -107 -88 -85 -91 026 055 022 -17 -106 055 -95 068 -101 061 010 -94 107 
001 -42 116 -14 085 048 064 082 -74 -83 020 026 -73 049 -12 019 -101 097 030 013 042 -18 -03 045 -92 021 055 -57 018 040 071 069 -110 029 013 -93 -80 -93 093 002 -47 -68 -85 048 069 -103 -10 059 -83 083 045 -99 -20 -68 -62 -56 041 011 -68 -103 -44 052 -03 -38 
082 -59 117 -92 088 -84 -34 056 -10 091 045 -43 077 -19 -72 027 -77 062 -47 -77 033 -21 -51 -16 089 025 063 -67 -70 -55 -21 -99 100 -67 -35 001 -60 -48 -20 -59 -92 098 012 -95 005 -90 022 -93 -79 066 -77 -23 -03 033 -69 -101 061 026 001 006 001 -30 -61 -77 
024 -63 -31 -02 083 -21 -03 050 -42 -45 047 009 -30 026 -50 -50 046 000 064 -74 -86 001 -21 057 028 044 -100 047 053 -01 -59 -12 091 -01 078 080 -46 -48 059 109 091 083 075 077 076 -54 005 062 014 030 016 -97 100 028 -86 -39 -73 107 -51 105 074 076 -67 -107 
-86 047 -98 097 092 050 055 -91 -85 039 -48 -63 040 -91 037 -37 015 -51 100 022 089 -67 -39 -39 087 026 -79 111 -02 091 -75 100 074 057 -01 085 043 094 007 023 -49 -83 -22 097 035 017 -53 -64 -90 -05 080 -26 095 -92 -49 -73 059 -99 075 099 048 -09 005 080 
-91 -83 -101 -74 023 -92 071 -04 -46 -35 -40 070 015 103 -20 -49 -94 -18 002 031 057 045 -28 -31 044 022 055 -87 -19 -76 -05 046 -36 017 075 013 -82 095 -114 097 -73 043 -56 -81 -84 086 -06 -113 -89 -81 079 -72 -79 -59 -76 -44 -23 042 -78 072 -11 037 -15 -106 
062 -29 -46 106 -15 -43 014 060 089 076 028 -26 071 077 092 -64 -60 -42 020 073 -78 049 -42 050 032 054 106 018 046 055 000 066 -95 012 086 -16 -72 -105 070 -66 -86 098 085 097 094 086 -78 007 -96 -26 011 078 041 071 099 024 007 094 043 009 026 057 038 -84 
090 029 110 -111 -85 -58 -34 -27 -97 070 032 025 037 -90 102 -54 002 025 096 007 052 -36 021 028 -46 044 -94 006 020 -56 035 049 -111 -01 -59 066 -77 085 -70 -72 029 -64 084 096 078 092 066 -02 -90 045 -43 -104 -103 -87 -86 044 -51 058 062 -85 035 035 -94 064 
064 -92 -60 -100 -06 -94 076 -17 -107 -88 050 063 086 020 012 017 -46 093 082 -10 014 001 -38 047 -32 -48 -58 -92 026 -36 -81 -102 -03 045 073 -81 018 -107 098 -58 050 101 051 092 084 066 -29 004 -31 058 -82 -98 104 015 036 -108 023 -86 -44 -77 -34 -79 092 076 
045 074 -112 -23 -97 078 -73 -75 060 -81 -57 -56 048 003 101 -51 072 077 -92 -35 -04 -35 012 -38 001 -24 022 014 037 -16 036 -78 068 -62 -26 -15 033 023 104 -52 054 058 -40 -101 -16 -20 -16 -69 -83 056 -30 -50 -23 -93 -31 -59 047 -31 -79 -58 -35 -62 -62 -90 
015 -89 081 011 -27 059 -17 -103 -77 080 008 -48 029 005 -74 016 -67 085 -55 -23 -81 -02 008 -48 044 055 -60 -107 -71 087 -29 098 037 -18 -48 -48 -65 -114 -45 -96 077 086 046 -74 076 -03 -54 -19 -07 088 089 042 085 -04 001 -23 053 015 064 036 -45 047 045 -72 
-47 059 -113 095 -70 -92 -13 055 -27 032 -17 -52 012 -102 -77 024 062 -17 077 -27 039 -83 001 013 -61 -04 -09 010 -17 -06 053 -58 -62 073 -14 -89 077 013 079 -42 078 -32 -59 -91 -83 060 065 059 -84 060 091 108 -91 035 -12 106 -75 -51 -41 060 069 -73 043 029 
002 -54 104 092 -01 041 076 -40 -75 -89 037 042 059 -44 -98 -53 066 065 114 022 -04 -77 028 -27 069 045 111 -112 -03 030 066 -86 035 -66 110 -68 -64 -83 -74 -55 107 067 055 004 -89 099 -72 -110 080 -93 -84 088 -36 -67 093 109 068 092 -65 -82 -51 053 -54 092 
-38 023 088 081 039 -79 -47 060 -96 -08 -43 037 056 104 -18 005 -59 -98 -05 -11 005 -66 046 -26 -94 -02 -12 041 -22 -90 058 096 -111 -77 083 -85 -71 067 -108 -74 -106 -47 051 063 -75 -68 072 106 -88 082 080 -88 003 -84 -69 -106 -55 -70 -68 -98 -25 -75 -70 -54 
-40 085 117 -35 -67 083 004 -15 -82 -05 003 069 061 -27 032 -18 004 -60 -110 068 099 071 -02 -02 068 -52 -103 -114 032 026 -85 -76 -110 068 097 033 060 076 -36 -86 -103 -72 -46 013 056 -80 030 -115 -92 089 032 -89 -46 -68 050 -58 -35 -42 053 042 077 -81 -09 -08 
062 003 -55 -38 063 032 077 -43 -112 073 047 -14 011 -63 087 007 -01 -33 -04 -02 -98 000 018 -31 -68 -49 -64 025 047 -57 -34 063 103 051 108 -37 -13 -107 -32 -75 072 -36 041 060 081 077 070 -41 -58 066 063 -34 -66 -06 -105 -76 -45 -27 -45 043 -42 037 071 098 
-01 062 096 -88 -40 089 -16 075 -79 -24 012 -77 000 037 099 009 -90 -79 -101 045 012 031 004 -40 -15 040 071 000 -73 -45 087 065 016 075 051 -56 -28 -43 075 -42 065 093 -54 097 081 -04 056 108 -31 005 030 -73 078 -83 068 069 -48 -29 069 -92 -79 031 -58 098 
-72 029 -105 -38 -10 -80 -31 -64 017 -13 051 -53 036 051 -67 050 -55 -95 089 052 107 056 -54 -48 012 045 037 094 -49 099 -72 078 039 -87 -49 049 051 106 -111 -72 077 -67 -51 034 -04 -79 075 034 -66 -45 079 102 -33 011 -21 075 067 106 024 094 -85 031 026 091 
072 060 081 074 -07 072 -22 068 075 -27 -26 -68 -26 021 091 -59 045 090 030 -16 026 -44 054 046 053 -61 033 -103 010 -77 -81 017 081 060 037 -78 025 118 042 024 -89 092 -57 -28 028 -100 048 -25 064 089 052 104 082 -94 041 -31 -57 -107 -68 055 -22 -36 -30 -22 
070 066 -118 -51 -68 -89 -26 075 -64 003 061 -44 013 -15 -17 -64 -84 -67 -69 -04 091 057 032 049 018 -21 -22 -101 -59 039 031 -10 -60 -45 -27 068 010 113 -55 -99 058 -51 -80 -18 041 054 062 036 045 042 076 014 -13 -38 046 091 071 -85 066 -63 -85 -55 -83 104 
-67 049 004 098 -38 -71 -76 -61 -52 -42 022 061 075 078 -01 -59 -40 030 -99 010 -110 028 -36 -47 022 -08 065 032 047 101 -48 -58 -95 -66 -24 104 -66 -97 108 101 065 -45 079 011 001 -40 -57 009 047 076 -04 056 -06 -50 068 -45 -73 -107 009 -51 056 033 -42 031 
-08 054 -44 -96 -54 090 051 075 -58 002 -17 022 -07 004 095 -16 028 096 083 -34 104 -73 054 -46 017 027 079 007 -41 004 065 -83 -104 084 096 -96 058 -10 096 -47 010 -23 -38 083 -85 -70 -73 016 -07 -08 -26 045 -20 -59 -66 058 -23 -12 -70 081 083 -51 -49 082 
031 -34 -07 -108 063 -78 060 -60 012 -79 063 002 -65 -07 010 -45 -45 064 081 027 -108 080 -34 -42 -28 028 -47 027 025 -75 083 -17 -93 -45 -30 028 -02 -16 -84 -32 043 007 -68 098 001 086 040 052 085 025 -89 -22 037 -64 063 015 070 -82 047 -43 -66 -38 006 -11 
-90 -44 -84 104 -67 063 056 -13 -102 -04 056 070 043 -98 -44 -01 044 058 -109 -43 092 -70 -23 057 -65 -46 105 -18 080 -71 054 076 096 -16 -83 -103 -42 025 040 -50 -77 026 058 081 -84 -78 -69 113 -53 -76 -71 102 -05 085 -50 -16 061 -95 -14 058 -53 038 086 071 
043 -68 -110 074 091 -56 -61 025 058 -69 -67 010 -56 -11 -91 003 -72 053 111 -34 066 -09 -27 -42 -46 -58 000 110 -65 -90 048 -19 -111 -31 -53 -106 -69 -115 065 038 -101 -41 -81 -60 -58 -102 -77 -04 -05 052 049 -96 107 -47 -19 -71 -72 -89 064 -15 077 042 -65 -94 
087 -83 080 -12 026 -54 062 -10 095 -71 062 054 085 -86 -62 050 -60 -88 -76 006 -27 058 050 -60 057 053 068 -72 026 -47 037 069 042 -93 106 104 008 -62 031 -84 061 -81 -88 -30 -100 -27 074 -58 -40 -35 060 056 063 -31 035 109 055 108 064 085 -66 -29 -97 -105 
089 -02 -64 095 060 -91 -51 046 -34 094 -50 071 -45 089 -92 -04 -47 063 -90 001 -81 -65 017 -12 -36 043 087 -17 003 067 068 -47 -59 085 071 -79 -02 109 110 -14 071 -71 002 -46 -56 092 042 110 068 -89 -88 001 098 -42 087 098 071 000 060 101 007 -22 -57 -13 
-97 -80 -91 091 055 -14 -81 045 038 094 -42 028 081 000 -36 -39 027 -84 057 018 075 -02 013 -11 095 -31 -90 -107 -64 -102 -13 -06 -109 -78 -69 -28 -57 -02 -76 -82 055 -29 -41 082 085 -82 078 -16 032 -45 079 099 -76 043 -85 059 -16 097 -31 015 -06 -80 088 -56 
-47 066 036 -104 -71 -06 -46 019 005 044 -30 -28 -51 -104 098 -08 -94 -38 -54 -71 017 -03 054 -14 037 011 016 -91 063 098 -65 -10 -32 040 -110 -59 -59 -110 -47 090 -34 080 -78 011 081 -88 070 068 071 -92 046 -06 099 -38 -82 091 -43 -78 041 -18 012 -29 -84 -04 
-06 -12 -71 -105 -79 094 076 -45 104 -67 -27 -59 081 -26 099 -14 044 097 -88 030 035 -46 -29 -22 005 -43 -89 -58 -48 035 059 032 -80 -19 -102 -26 -80 -110 075 073 099 -29 -13 -100 042 099 -31 118 -66 015 095 098 -70 048 -48 -06 011 047 -55 -31 045 -41 -79 -80 
-82 084 113 -34 -26 084 -67 -16 -110 -17 047 -05 -36 097 -90 -61 011 -99 -63 -67 024 018 -37 050 -94 -54 -102 036 -20 100 090 -16 -89 003 088 -19 -72 -85 -15 -60 -29 093 081 081 -17 090 -63 -83 -58 -61 -49 -37 -69 -54 040 -03 -43 038 030 112 085 026 101 058 
-99 -64 079 070 025 052 -66 102 -32 062 004 -19 -10 -93 050 061 -21 069 -103 -31 021 015 -29 -59 041 -28 039 045 008 066 087 067 070 -91 -02 -68 -20 006 -106 010 057 024 028 067 -14 002 -80 060 -96 -12 -87 -106 078 074 -07 081 -57 -21 054 052 047 017 095 057 
-95 064 009 100 073 064 -08 -102 025 084 -55 -02 -60 040 -31 -15 -76 -73 -112 -01 -81 039 051 -02 092 -19 054 -97 065 -73 090 012 -80 -79 -59 093 -33 063 105 076 052 -14 017 092 -46 006 -15 095 018 -89 -33 -14 036 -84 094 006 -24 108 069 071 060 078 069 -108 
-95 027 096 -96 081 -24 -35 -04 -25 078 062 -62 035 -11 090 -42 095 026 -37 002 -85 067 -44 -46 044 -12 -86 057 067 053 037 -76 -83 -59 011 055 006 016 -109 092 -53 -61 048 -85 -16 018 038 -92 -10 -18 -62 -16 012 -75 -56 -11 -69 013 042 060 -56 -09 070 -108 
088 -76 050 -106 -96 -26 079 098 -101 087 -44 -18 -59 030 -72 017 -13 057 006 -11 102 051 038 -11 -83 -06 -17 -53 -68 -98 085 -87 031 -83 -109 071 -53 -88 -108 -60 106 002 -05 -66 100 -76 -02 023 -92 064 -71 037 -51 034 -64 -98 -37 -33 -53 -89 -26 -76 081 -102 
033 077 -119 -107 -91 -74 -33 009 098 005 049 -14 078 105 081 018 -96 -79 101 -10 -73 059 -45 015 027 -07 -101 071 021 -73 -80 -77 -16 010 -99 071 016 099 -85 079 -101 -93 -27 051 054 067 068 -56 -59 033 077 -74 048 -77 -55 066 -09 085 -38 074 -68 -86 -99 -43 
002 -54 -111 -56 -02 -08 -08 038 064 024 -69 -67 -69 -97 -96 015 057 022 -105 -17 -107 014 020 021 -73 003 063 -107 -25 -85 -56 063 089 053 011 -20 -77 -108 005 -93 107 -56 -64 097 004 056 -21 -61 002 -46 -51 -09 057 034 -39 -89 004 094 -72 025 -49 -30 -54 036 
034 -86 -81 -35 050 069 -27 060 105 -89 066 -73 -25 -97 -50 -54 097 081 044 073 -92 -25 -42 -20 065 000 084 001 -34 075 -02 -50 -30 -20 -110 -90 -37 -43 -85 055 -98 060 -84 -29 018 107 -81 -91 084 059 004 -96 105 081 -53 077 -61 -56 024 072 -78 -46 -49 -31 
083 -80 -98 021 073 -55 025 -82 -71 049 042 -69 -47 -49 -39 -54 -78 -82 -62 -50 -99 049 001 048 -64 -29 -86 -20 027 -62 038 -42 -108 -42 049 051 055 -73 083 -106 -19 -100 086 081 -54 023 -13 015 085 008 029 -85 059 -69 -19 076 -27 -73 019 -112 007 -77 -13 053 
-64 044 110 053 -39 -90 051 088 001 -48 -38 -41 007 -80 -02 011 -96 -26 048 -05 073 064 -14 048 -55 -56 114 072 003 -56 002 -54 100 024 -56 -83 -55 080 -107 059 -92 -83 070 -91 -71 -92 -47 -70 043 -12 -45 -63 105 -65 -61 109 -46 064 063 091 024 053 065 005 
090 -89 028 -46 -60 -89 -43 061 -91 -97 025 -40 007 034 -64 -24 078 -10 020 022 105 030 -43 028 092 -32 -46 027 -02 069 -84 039 -48 067 018 012 052 -98 043 104 -89 084 -57 -88 -77 044 -28 106 090 -14 -78 072 061 078 064 -105 068 081 -33 022 064 074 -55 055 
-65 -35 -35 024 -22 -59 -75 -74 -87 036 043 -35 041 -69 011 -21 000 -31 100 031 -88 -15 -34 023 078 -58 -95 074 -10 068 065 -84 -43 050 103 077 -44 -75 109 -79 002 -40 081 -25 004 055 074 049 004 -09 076 -60 -07 022 066 043 -42 026 -40 002 -36 048 062 061 
081 -64 107 070 078 029 -33 -60 -80 071 -11 042 072 032 096 -04 033 079 066 -10 -69 -53 043 037 053 005 -77 -54 024 018 -38 036 057 -01 035 103 -36 -13 -22 -96 095 -70 021 -68 -14 -41 029 -27 019 -20 -38 004 -43 015 -48 -92 061 -60 069 -50 057 -34 095 -58 
-95 -28 059 -38 027 088 068 -95 -90 -63 -40 -76 042 -25 096 -66 -86 -99 -80 034 -35 -16 017 002 -90 031 054 -59 -54 -66 -83 -78 036 033 -02 -45 069 -100 048 070 -106 -60 -53 002 053 -74 060 078 038 075 -74 039 -58 -16 071 068 -41 -74 005 009 063 -61 -81 -93 
062 -10 -112 069 080 -65 057 039 077 045 -02 -58 036 086 092 026 085 100 -10 -14 112 -30 -44 043 086 -15 -104 -114 015 074 080 -72 089 056 -65 -81 -57 022 083 106 095 -41 -68 -69 -72 -95 013 043 076 -59 -93 -55 032 -46 010 096 -13 -32 -43 -63 -50 024 096 -10 
-41 003 -76 110 015 -96 063 -66 077 -93 034 052 088 -56 067 -38 078 -78 -64 010 -22 -43 -26 -19 072 003 096 -55 016 061 -81 085 092 -57 094 102 -22 063 051 -19 085 089 078 -48 060 006 -42 -70 -60 -87 062 006 024 -31 -25 -104 -64 038 -52 -101 058 079 -51 085 
-80 -35 -36 -62 070 -01 -39 086 059 -90 -56 -10 045 002 -87 -54 074 -81 -98 -66 -86 058 041 -60 083 -57 -21 -93 061 -81 -04 018 062 011 -113 -22 064 -107 -61 092 -105 -60 026 051 -79 068 007 020 -18 073 066 039 044 023 -49 074 -26 022 060 -104 -26 -42 054 040 
-15 033 -69 -55 053 067 061 030 011 -20 027 070 -78 -15 -66 054 -36 093 -74 -12 052 -72 037 -29 -87 030 029 -79 -15 097 -69 -73 -111 089 -64 045 056 110 -114 -103 085 094 068 -35 084 015 -49 -42 070 -11 096 009 088 -79 -101 014 001 -16 002 -28 020 -16 -72 -109 
-28 049 054 064 -60 -03 -11 -65 -101 -50 054 -57 -13 053 -57 001 -58 -68 -58 068 -97 078 041 -19 096 -08 099 111 -10 066 003 067 045 055 -82 -30 -81 -93 -12 089 032 021 -71 -03 082 -02 -26 -89 077 -87 083 -100 104 076 -25 -56 -67 -100 035 093 055 015 -84 028 
047 -58 -57 -36 -23 -52 040 021 037 028 046 034 071 065 -59 059 -83 -97 -47 043 -92 042 -29 010 -34 -04 -43 097 033 -70 -85 -05 103 -03 -42 -63 -33 -103 099 -59 015 -100 -77 031 097 104 082 067 055 -18 -48 078 -74 059 055 051 043 014 000 078 -18 -06 092 -72 
-89 076 018 -107 032 -88 067 034 054 -95 054 -05 -58 097 -97 002 063 -09 -116 001 082 -69 -51 -07 -26 -06 004 049 016 -71 -85 100 -95 -60 -30 075 -73 -62 -73 054 -18 031 056 -55 086 047 051 -110 -14 052 -85 025 104 085 -07 095 -45 -03 056 -60 -46 -78 019 -90 
083 026 -96 -40 042 -84 -05 -34 042 -99 062 073 002 106 -85 -30 -38 042 -87 -73 094 075 -29 -13 -77 -52 -92 -52 -35 -99 079 072 -101 -93 105 029 -29 -113 -02 049 -75 052 -18 -68 -98 -60 072 -82 014 024 022 -68 082 029 -52 024 -59 -41 -14 -02 036 -29 089 -11 
-79 -55 -87 -112 -67 007 075 -18 -39 -87 -39 -13 -06 092 044 -04 -02 -04 -24 -70 -62 078 034 058 -65 013 -07 -109 025 007 083 083 -46 -65 043 100 066 -121 046 106 -101 093 091 072 040 -79 -22 -62 084 -73 025 -98 -86 044 -96 -106 -44 056 -79 -52 070 -73 066 093 
043 -12 118 -33 032 081 -30 -98 -106 064 -62 -53 -83 048 -10 -40 -89 086 -86 -47 104 023 043 -20 -83 -37 096 -59 054 093 010 -16 079 -49 -47 -22 018 120 -76 028 060 -92 023 005 -81 084 060 -111 090 -58 052 101 -96 011 032 -30 -13 -49 -66 112 061 003 -75 -96 
043 -65 113 017 017 035 -07 051 042 -34 011 -06 -69 035 050 015 003 -28 -91 044 104 -26 -23 030 090 055 -107 -25 -32 080 -100 062 -64 -75 060 -74 073 115 073 -55 -111 030 083 -23 012 105 -46 025 -94 -67 -10 -11 -29 -53 -77 -39 067 -108 -24 069 007 012 060 -104 
-34 048 -07 081 -81 026 047 055 062 070 013 022 066 031 -100 009 050 -10 -112 028 -66 074 041 -46 -54 021 109 -112 -77 051 072 -50 -11 -34 -38 -55 -69 008 033 107 -86 -71 089 094 -67 085 061 -55 -50 089 -15 037 -05 -59 065 092 -24 -04 -18 103 -84 -81 089 -41 
-79 076 111 -111 053 -86 -37 -90 -108 021 023 -36 -72 078 049 -59 088 009 -97 020 -09 053 -47 -59 044 023 002 048 038 047 069 003 -35 033 082 -47 -11 109 037 -72 043 -97 079 060 -84 087 007 064 032 -75 085 -55 072 034 099 -14 015 -100 -01 -109 049 028 093 052 
-32 -73 075 -67 -10 -71 -75 -97 -107 074 047 -07 -84 -96 -79 -55 023 069 -111 -43 051 -53 -17 044 054 -57 088 070 -66 075 -57 041 -50 -33 000 042 -46 -35 -103 -69 -09 -99 081 104 099 085 -73 098 -24 080 013 034 -97 -48 -104 -76 -53 008 -12 -25 081 052 050 105 
046 035 -98 -02 -44 008 079 -101 -13 -10 043 -03 083 -89 -78 -02 -32 -87 102 025 -106 077 027 -57 076 -56 -87 -108 -67 -64 -10 017 -45 -26 072 -39 009 -79 012 -63 -38 099 -38 -33 -16 045 057 113 -58 090 036 091 013 062 033 095 -42 092 -71 -20 -62 083 -07 105 
-99 -36 -61 -94 041 -31 -08 028 081 -43 -60 061 -84 102 -43 012 083 -19 -110 -76 040 022 031 033 037 -09 -02 -32 -53 060 -09 -62 -107 076 110 -81 -14 -59 014 -06 -104 072 -68 103 -42 081 035 104 065 008 077 -53 -50 -07 -83 -103 -62 099 -47 -78 032 032 073 053 
-21 031 113 049 086 006 -13 073 -67 032 028 071 053 073 -33 -07 098 019 -85 -53 068 -76 013 016 062 -54 -71 -92 -35 002 -34 095 -46 -39 -99 -108 -22 114 101 -09 -24 093 -22 -102 097 -57 067 104 -43 -79 000 013 -32 -13 -65 086 064 -67 013 -30 -76 081 -61 006 
057 046 024 072 036 -89 -77 054 -103 087 -69 -37 061 -101 -22 -11 093 -23 -106 -25 -19 076 045 048 -90 042 006 -81 061 083 -46 -46 -80 043 009 -19 -24 094 065 -79 -76 034 -64 090 001 066 -21 -15 039 -53 020 -53 -24 052 -97 -92 -48 -09 -49 103 -71 045 -45 089 
-77 -15 -66 -109 -35 -96 001 -68 -105 -11 001 -73 -76 003 -29 035 053 -81 116 039 -48 050 -43 006 -15 -47 092 -69 053 080 069 -13 -77 -35 -110 -80 -51 026 -45 -43 -82 -96 -29 106 -75 099 -79 -107 047 -56 037 -109 -87 -69 103 044 -71 015 077 098 -46 -03 014 -110 
-98 -84 109 057 089 076 057 052 -109 -66 040 076 -53 026 -77 026 083 -57 -111 -70 089 -81 035 -33 095 037 -45 -85 -07 100 -93 -10 -06 -69 -96 069 -32 -58 -54 -46 050 066 056 103 018 089 038 -01 -75 039 -83 -101 091 087 101 -05 -52 101 005 088 -71 052 -76 071 
-02 082 104 064 -06 -94 069 087 -68 -39 -15 -46 -85 -82 088 -42 091 097 003 -39 -55 004 017 -06 -96 -18 000 082 003 -49 -86 -67 -91 046 -103 -108 -02 -09 -101 -107 093 046 -21 009 -02 -26 -16 082 -83 016 -78 072 -102 -28 061 -112 -40 -63 -04 -60 -25 -84 051 -79 
034 -89 006 049 017 008 -74 083 102 041 -03 038 -68 -49 -18 -64 082 -04 108 029 -01 017 002 032 -73 -56 113 -49 020 -59 091 -83 -81 -36 029 -45 053 110 -48 -24 -02 096 085 -88 -99 107 -78 -50 -96 -10 044 -04 -101 038 091 063 -09 -92 021 028 072 031 -32 -78 
-63 -34 -118 -82 081 -71 064 013 -88 -101 037 043 -32 -106 -97 044 -91 -36 -79 011 -104 008 019 -48 007 039 038 023 -61 043 069 -83 043 051 -95 042 037 109 -109 -104 -66 055 084 067 034 -76 -18 017 048 033 058 071 -58 076 090 -110 037 096 034 085 000 082 036 092 
-62 081 -07 -85 -47 089 -08 080 -104 014 -70 019 -08 102 019 -54 004 099 -46 -28 -102 -64 -27 -13 -83 038 -112 047 026 -27 001 -52 -95 -80 000 -38 037 115 019 107 -83 -32 083 053 063 020 -10 105 -79 -36 -86 -23 -40 -29 013 077 024 -79 -60 098 -51 -47 095 -92 
074 082 106 -33 042 086 -25 -50 063 -92 016 022 -66 -98 -91 -55 075 078 093 -62 -94 -76 -44 -55 070 022 -89 074 -39 -100 -04 092 -94 -61 -64 -87 -72 119 101 080 -103 014 -16 -36 -75 005 -36 -37 058 -44 -94 000 -79 -48 -106 101 026 -91 061 084 -80 071 -04 047 
-64 -65 106 -29 016 -83 074 066 079 -17 024 -73 -41 -43 062 -35 -17 088 -82 000 -33 -72 034 -20 097 031 -70 089 049 -86 -35 062 058 -69 087 -23 -61 109 -20 001 -83 -93 075 101 -86 080 -49 035 038 -76 031 082 -65 071 -29 025 029 002 -64 027 -10 014 -41 -106 
-91 022 006 -28 087 -88 -81 096 095 -14 067 064 081 083 -100 -64 -101 -92 -43 000 066 046 -07 037 -63 031 006 095 053 -50 073 -102 086 -42 -25 -48 020 004 -11 028 -99 -86 072 -55 053 -13 -32 055 -51 -71 064 032 047 -86 -65 104 -12 -18 -29 107 -26 -55 -72 106 
061 024 071 076 -61 080 -17 -22 024 -30 -64 069 031 101 -99 -18 098 -08 -111 057 095 -66 026 049 062 040 069 -100 -28 -17 -47 -10 -44 -63 018 094 -73 -115 -83 041 105 051 017 023 -84 090 048 081 080 079 -67 -102 -90 076 082 018 058 -110 -59 -37 -61 -56 -45 -106 
-16 -33 044 096 010 -67 002 053 -56 031 -65 030 -46 -43 -102 -63 -47 028 -65 049 095 062 -30 048 065 028 038 -09 -71 036 083 -43 001 -94 027 -77 -44 -33 -63 037 -104 -76 095 106 -96 -59 003 066 -56 -08 054 109 016 -69 080 105 053 037 064 074 -66 016 071 -87 
099 062 075 081 001 067 078 076 -63 -95 059 -65 -18 008 071 002 -77 -103 079 073 107 -19 -41 045 -44 -28 084 -105 -84 005 070 088 -91 -44 -103 -108 076 -51 -35 -70 020 -22 044 -44 080 -58 071 087 064 -59 -98 -97 -50 -87 -34 004 -38 -96 -64 -04 -72 -38 -36 051 
-61 032 116 -96 -47 058 073 098 100 -89 -08 -37 -58 -90 -60 023 023 052 -97 -37 -98 -31 018 -08 042 041 -49 061 -63 001 -59 095 067 -89 088 -19 -16 -20 -110 -53 -39 -67 -33 -16 -60 -93 -32 -103 092 -92 -29 -82 -65 -45 -23 090 003 050 016 -65 071 -16 092 -64 
-98 087 098 -68 070 -60 -66 -99 099 -06 -36 022 084 -53 096 -32 081 -41 091 -44 061 072 008 -14 -67 -37 104 106 055 065 071 -38 013 -84 -64 065 -33 036 104 -05 075 -75 -55 -36 056 -66 046 -71 -20 -87 -13 -76 033 -71 -70 -107 062 -66 -70 -39 030 -65 005 094 
010 -78 004 087 044 072 -59 -50 078 009 -09 -43 -69 037 095 047 -100 -73 -109 -43 -77 024 -49 002 052 -31 062 057 071 055 065 049 -48 -58 047 -74 051 005 -47 -59 044 084 082 -95 -04 098 053 -115 -77 -52 -52 064 095 -34 -53 091 -28 -79 018 006 006 080 -16 081 
-19 -89 051 010 031 016 046 054 -87 -84 046 -01 -15 -80 -68 021 -60 096 -47 -43 017 -10 -09 007 -44 037 011 052 041 079 091 -37 091 -02 015 058 013 086 103 045 020 -25 038 -105 039 -11 009 101 005 069 069 -102 081 -12 -105 -19 -16 -28 047 068 079 075 007 -103 
047 -12 -04 090 -84 -20 -67 017 -69 -86 -67 048 -30 -29 022 -17 -04 -70 014 -60 092 -75 -54 003 -06 041 -60 -87 057 083 -96 -52 -94 -51 067 -60 066 108 -28 -101 040 056 -98 -110 -95 -79 -34 -15 -57 -12 -25 -56 084 084 -104 -61 -54 -102 028 -107 031 -87 082 -90 
-02 089 037 060 -76 092 -51 067 -105 067 -59 034 051 045 076 056 -62 069 060 -46 -90 -79 024 -33 -81 -20 103 -59 -59 -62 -57 -95 -82 -68 092 036 050 -23 -109 018 -65 -29 068 -90 -75 054 004 -04 -59 088 -26 -15 -79 018 -37 -107 -67 -89 074 014 000 015 -31 -39 
-78 090 -31 068 -05 045 -32 083 -09 -87 -68 046 091 081 -71 019 -100 -95 109 -58 039 -32 -26 -23 -87 040 036 051 027 -84 047 003 -42 -10 -110 -49 016 -71 046 -84 -04 -30 087 093 054 -73 -13 109 051 071 088 -99 107 052 041 -109 -70 -06 -43 113 059 020 004 -04 
099 -09 119 -90 081 -09 -45 -59 -45 003 -36 011 -07 009 065 -59 073 -76 078 -16 012 -53 007 -69 -89 -38 082 -85 -75 -69 050 -76 111 079 -07 -98 -22 -108 -22 063 102 020 040 062 -96 091 001 -05 -10 074 035 -27 -87 -88 -43 -74 020 041 -21 105 -78 -56 068 -21 
-70 046 -51 098 075 -71 -77 048 -74 -44 -54 -16 -83 045 001 026 -58 -100 -83 016 -106 -60 -09 -26 -72 -21 070 -33 082 -30 025 -91 047 -64 -87 -74 -72 -08 -35 -77 -82 -21 -22 -10 -41 -31 068 -50 -30 007 043 -94 -102 -91 -17 -90 -55 090 044 086 -23 -41 -48 007 
032 059 -80 104 067 074 060 -91 016 095 -33 049 005 -41 -35 -54 -62 099 099 052 -99 -25 -41 -62 087 -39 106 -18 -78 072 -03 -23 -28 073 -104 078 -35 -45 -87 089 -90 061 -01 -70 081 022 -38 -105 076 -89 025 081 -47 -03 070 -23 -64 015 -74 -96 -68 -58 -48 020 
017 016 006 -86 084 -50 -06 -90 093 -71 058 -32 -14 -32 051 -61 -65 097 -77 047 -108 -54 -32 049 -05 -49 -05 075 -77 -97 068 -68 -49 036 -113 -25 025 -111 098 -34 108 040 020 -72 062 -59 052 -70 -75 025 059 -04 067 -10 -21 -107 039 -89 -10 105 -18 051 -22 032 
-05 -87 -14 -47 028 090 -43 101 016 079 004 037 -81 -51 -67 062 -32 -19 107 -38 040 -13 026 007 079 -23 -64 -31 079 -02 -74 -101 098 -65 -78 -43 -09 -07 -63 -73 -55 -69 057 -75 -97 -77 -06 107 -78 075 -49 -97 -65 -39 036 003 -44 -45 059 005 021 005 -80 052 
054 -88 -09 078 079 -23 076 -100 -90 042 -04 001 -11 -100 030 006 -90 069 075 010 099 -48 -36 -60 067 005 060 110 -53 006 -86 081 076 -65 095 052 074 -70 -29 -91 -21 071 075 001 -52 072 012 004 011 014 -96 -38 067 -03 -01 -112 -42 -103 -11 031 -14 055 -88 012 
-92 020 110 -68 -49 073 -09 027 061 -98 016 014 050 -86 -81 -13 081 035 076 047 -96 076 -02 -43 -54 -53 023 045 067 049 009 025 -26 029 049 021 063 104 -112 085 -07 -04 012 -90 -02 -34 018 099 073 088 -14 006 072 -77 106 -111 000 017 025 063 -16 040 091 109 
060 -85 074 078 -65 039 032 -21 -95 -100 -59 -77 -21 017 -62 -26 -54 -77 -52 -27 -95 -23 022 -26 -80 059 -81 -37 -59 044 066 -07 076 -91 085 -101 059 073 -96 -42 008 001 -69 -65 -34 -70 061 -84 080 -30 -79 -26 -88 079 072 -26 038 -60 070 089 057 011 -85 072 
-83 -20 -94 099 027 -25 -78 100 -85 -62 013 023 -10 -23 101 -43 -82 083 005 -05 110 -19 -56 044 -47 -58 084 101 -54 -04 -94 -83 002 043 -103 052 -50 -94 -15 -62 055 -92 -27 095 -42 -89 -37 -36 -76 -04 028 -107 089 039 -72 -111 -42 -18 040 -93 -21 -63 068 -96 
086 -49 -89 -58 -32 -22 022 -30 -86 016 -35 066 072 -77 001 -32 005 098 078 021 -106 -67 -45 -26 -98 -44 085 -78 -57 034 -27 -01 102 -04 009 -65 036 -60 -23 -11 -91 095 -91 063 -02 089 081 092 -16 025 -63 -23 -87 041 -45 091 021 -93 036 097 -83 007 -41 036 
-47 010 -77 -06 -05 -61 -75 -95 088 -68 -19 074 -58 -04 -94 -65 095 -100 108 044 -100 016 -19 -47 -56 -45 -33 038 053 -92 023 042 110 062 098 -08 -60 -29 -41 031 082 -97 -06 -100 -31 -64 048 -108 030 -23 066 055 037 -71 078 055 -58 083 -49 090 -79 -48 082 017 
038 008 -87 023 -08 -04 -26 -90 007 054 -64 053 056 -96 074 -59 057 -43 101 -19 -30 -62 -20 -02 025 044 -86 099 -23 -24 -24 013 -109 076 -83 -06 -03 110 112 014 -109 -30 092 -52 -79 -06 002 009 035 002 -25 106 -106 -23 -30 073 -37 -72 030 074 -28 084 057 104 
-92 083 071 106 -69 093 058 059 -03 -34 -42 -45 012 014 021 065 093 -62 093 -42 079 049 033 037 -92 056 092 -115 057 016 -17 -51 041 -80 091 025 -82 -106 064 -65 -93 098 020 -69 099 -102 -52 -101 -79 -72 002 -51 085 -73 079 -20 -20 -46 -32 -01 016 048 005 056 
-36 -93 103 098 -94 064 -52 -84 -68 008 018 -73 038 -83 097 -61 087 029 011 -48 104 -71 039 018 010 029 -80 -47 064 -52 012 082 -42 -93 080 002 -60 112 -06 023 109 -14 000 -38 062 -46 007 -89 -22 -82 015 000 -91 055 018 -74 -67 -79 046 011 069 040 -33 -91 
-09 026 -71 -104 065 066 -25 -89 098 103 -45 030 007 -80 067 -18 096 -45 116 019 -67 -72 042 -17 -30 040 084 -89 -46 031 042 -32 -69 053 005 039 067 079 056 078 -49 081 077 -96 -26 -81 -46 -89 058 071 -96 096 000 -11 -73 -98 -29 -12 -65 000 -23 056 -99 -102 
052 074 089 051 095 062 -56 -37 100 056 -53 -59 017 -48 -95 -17 -86 098 -80 -76 094 -77 -20 014 -52 -32 060 003 -34 -89 -42 078 015 -08 -17 072 033 -46 -63 104 -22 014 078 -37 -90 082 -01 -69 -82 -28 094 -24 -97 -63 046 044 071 -102 -38 -84 075 010 -59 -96 
084 -69 113 103 056 012 042 -20 -58 092 -41 -36 025 022 097 059 -98 072 065 030 004 -81 -27 059 094 -39 030 072 056 032 071 -34 -79 048 -108 008 044 -87 111 086 081 -08 028 025 072 092 031 -65 -38 -47 010 -82 045 093 011 -102 -17 -05 -12 096 -25 065 045 -82 
075 -06 -71 -09 -52 014 021 -67 104 078 032 061 -52 -35 -15 029 -72 -46 109 061 -75 -68 -48 -21 003 -58 028 -85 045 -81 -85 052 035 -61 059 -67 -76 -116 -30 -68 030 -70 -59 091 -92 026 -82 099 -62 078 058 -56 088 -54 -54 -42 -26 -96 -78 113 016 -80 -64 -85 
063 068 -28 -81 047 013 -27 -26 -48 -80 -46 038 -57 072 -103 048 -36 022 069 054 073 -27 -07 -20 -95 -47 -46 -105 066 -25 -78 078 -90 -81 109 -98 015 -101 036 094 -102 017 -74 -76 -43 057 -62 103 063 -04 083 044 -75 060 -84 -70 -29 -99 072 -65 -42 -05 -91 081 
-92 -58 106 064 -46 003 -69 -100 -105 -35 038 -54 -85 -45 005 -63 072 -70 100 012 033 -43 -50 -16 -98 007 -15 014 -01 -93 008 067 017 -67 092 -98 061 -121 045 -66 -95 004 -45 021 080 -104 -76 113 -89 -25 -77 104 003 -78 -25 031 -40 060 -14 -06 -32 072 -97 -70 
054 073 095 -32 -76 090 047 -99 016 -93 024 -70 007 065 069 023 -63 -61 -56 -43 010 005 -49 048 022 -25 -52 -56 -74 096 -80 -08 -35 -58 054 084 -45 075 011 020 -30 095 052 064 -50 -47 -05 017 007 -89 -38 -60 092 -35 088 -15 068 027 000 -01 -33 -57 034 093 
073 -10 108 079 050 -67 -28 066 093 -75 -62 016 -52 100 -54 015 090 -43 103 -50 077 013 -03 -49 -93 045 -112 -53 -72 028 -31 -49 083 027 085 074 -42 -105 -104 105 -102 -18 061 -49 092 079 -19 -83 081 086 -76 087 -73 006 036 097 023 -62 069 084 -16 083 -89 -48 
-70 -32 000 055 -59 082 -35 -58 -77 -25 -53 033 078 092 -37 057 095 -28 -106 -03 -67 033 -38 -24 069 059 -71 100 -05 -90 -54 -28 -98 -01 -93 059 -19 -03 -101 106 035 076 020 -106 -11 -71 079 -89 -49 071 -45 -77 009 -89 -52 -94 044 105 028 -91 029 007 000 -77 
-19 050 -69 103 077 -94 042 -77 029 075 064 -75 -26 -57 089 -27 -84 -45 075 -60 001 -52 024 026 055 -30 077 -115 063 007 065 -42 -104 067 032 065 060 077 105 -23 -56 -77 -57 -106 058 -93 -32 -111 -42 -76 -85 008 049 -19 -105 015 052 098 052 092 059 078 001 083 
-73 085 086 105 012 -87 017 -84 -83 -73 024 039 078 -76 -39 -23 054 028 -109 013 106 -68 019 -27 073 024 084 050 -32 -91 -33 -07 -96 -71 092 099 072 -16 066 -09 056 -91 054 101 006 -106 -67 -75 087 -56 074 -105 074 -19 093 111 -32 011 071 003 -82 -14 039 -83 
-89 048 -100 -85 -77 -23 -74 -92 096 -98 -40 037 076 054 092 -17 022 093 109 004 -77 077 -38 052 002 052 -109 090 077 -08 -74 -72 -02 -41 025 -52 -31 -78 014 078 -69 -30 -87 058 -15 -14 045 090 -95 030 085 055 074 -65 -96 037 056 -108 -48 -41 072 -77 080 -56 
009 -64 -57 026 -09 -71 -59 016 047 050 -36 -39 -75 -99 -58 054 -73 -73 -78 -77 -20 -56 -51 039 001 -57 -107 084 -06 -91 -75 030 111 -57 -108 074 062 081 087 103 082 063 -59 062 -48 -87 -35 -98 -28 071 -96 099 077 -11 -84 -47 -65 -85 019 007 006 -85 -05 054 
019 -75 -69 079 046 -03 -28 -12 -56 -07 -64 004 -18 -11 -98 -03 071 055 101 036 015 -71 -43 -28 083 013 -83 102 -73 -76 021 -62 046 -12 089 001 014 -101 114 076 -100 046 -25 -105 101 005 073 -99 -95 -63 039 021 073 -42 107 107 -62 -09 045 -107 079 065 004 083 
-50 080 084 -59 014 020 -02 -94 042 -69 -69 043 087 080 011 063 076 096 076 -73 105 002 054 049 -62 -48 -24 023 044 -86 042 063 -58 073 049 -26 -11 001 084 110 092 081 -77 039 053 -98 -60 094 063 -93 085 -56 -84 -21 -59 -01 031 000 -25 -97 065 083 096 091 
074 068 -45 -111 -12 063 006 -69 -08 045 -63 052 -31 042 -97 -62 014 -70 -82 000 -88 -62 046 -52 057 -33 -94 -106 064 101 085 053 010 -60 -72 -94 -24 -68 -90 -41 029 -52 037 051 -01 -74 -76 098 020 007 042 -107 010 087 -24 038 -60 000 066 -07 036 -27 -51 -90 
080 -90 -105 -84 -54 073 051 -09 -21 091 -30 001 -17 098 026 010 -100 041 073 067 -75 005 -20 -57 045 032 072 -18 051 085 -31 100 -17 -71 098 -99 066 117 051 039 071 052 071 -54 048 086 059 036 026 091 027 -80 -72 078 084 089 046 109 049 004 041 006 036 -86 
096 -26 -112 -13 -06 030 -77 -76 -61 -28 -09 073 000 -53 -55 053 073 -23 107 -53 025 -47 019 025 -10 016 027 -101 -44 -96 -51 067 -94 043 -93 046 020 049 -54 050 -55 -01 -56 105 -77 037 028 001 -14 -50 -81 106 -42 072 093 -18 060 001 044 005 -23 -65 043 -35 
078 -43 117 -13 081 039 -13 066 -108 088 -13 074 -01 -71 -01 008 076 095 -113 -33 039 077 044 044 -40 024 -91 -77 040 -93 -93 069 -63 042 075 041 063 119 048 -94 -07 -95 040 046 096 -63 -49 -93 055 -12 -94 071 -66 -65 -67 107 064 105 -58 097 037 017 -05 101 
073 013 -100 007 -21 -03 -25 074 010 -71 -70 -50 085 100 -26 006 -91 -100 -46 -28 -88 070 -12 -48 035 042 -101 -96 -50 018 046 085 074 -25 021 100 028 115 -56 -39 074 -60 -20 -76 -13 089 -19 -44 -84 -69 040 -48 013 035 013 -96 052 092 029 069 035 008 041 030 
-47 -68 037 -83 070 -93 057 097 012 099 -61 -66 060 -91 010 049 061 -83 058 -48 -97 036 -52 -36 056 041 108 001 -42 011 040 089 065 085 108 -82 -30 -99 -87 -82 081 088 077 099 097 059 -83 018 -45 045 -47 101 -07 026 013 -48 035 -99 -64 -84 -58 064 038 077 
075 078 -113 093 -66 -13 -58 014 054 058 -19 028 070 101 -64 050 -51 051 -49 062 -100 -45 -44 -38 069 -52 000 -14 082 028 073 050 105 066 021 080 028 -65 114 -23 -99 088 -68 -76 -66 069 057 073 000 004 073 -45 -78 -63 026 -107 057 -110 -45 -64 -07 073 004 -101 
080 -55 -65 061 -42 007 036 018 018 018 022 -56 008 -66 -60 -15 -78 092 -111 075 -01 -31 055 -38 -27 -35 049 -58 040 066 085 -92 033 048 -95 105 -41 -64 -44 -96 -86 073 -12 062 -72 -88 -36 -15 -46 014 -10 105 -66 -37 073 -14 019 098 -64 085 017 013 037 -73 
092 068 060 089 -75 -95 005 061 099 -95 -41 061 067 106 067 -25 049 044 096 047 035 -62 -39 040 -97 045 -71 112 078 060 -43 -30 -78 023 -94 071 -12 -113 060 090 -98 -87 038 -70 -85 004 -83 078 007 -55 012 102 042 -61 046 102 002 058 -15 041 011 -04 047 -88 
029 018 -106 -41 016 -67 -38 013 -105 075 033 069 093 103 085 -37 046 -85 010 -70 046 067 052 -13 -01 -55 -67 099 -28 -30 021 -46 077 -32 011 010 -15 -117 -112 -87 -109 -91 083 -98 052 016 -50 -113 053 081 088 -98 -82 081 -13 -69 032 -47 -72 -98 -77 -46 063 -78 
077 -89 070 091 -95 -86 -73 065 059 089 -39 -52 085 089 081 008 -45 -98 -94 -26 -37 -49 005 051 -35 046 030 -109 058 -27 -93 -65 053 033 018 058 -55 061 -52 -29 076 087 045 -28 -16 051 035 -46 -82 -49 -68 005 016 082 100 -91 -24 -26 -15 -97 017 -61 055 056 
015 068 057 044 089 -88 060 035 021 009 053 047 041 -85 045 037 -90 020 115 -16 109 047 027 037 035 -50 086 109 003 096 -37 026 037 -28 -25 -102 019 -88 -90 -10 -105 -92 083 -90 097 -04 039 032 067 055 -91 -79 -49 -69 034 108 -69 -76 068 104 050 021 097 -45 
000 024 -69 005 012 090 -74 -28 -27 015 -28 021 -44 107 069 032 -100 -85 -108 022 -78 -21 020 -36 046 -44 -36 -20 009 029 073 054 -29 -82 103 077 000 098 030 -66 -25 098 -88 089 019 097 065 106 -33 -61 -20 083 -30 033 -10 071 054 090 -40 -57 084 072 -26 083 
-58 -83 115 -98 -71 040 033 -55 066 -87 023 024 -78 -86 008 008 057 072 -103 -20 104 -13 012 -58 090 -22 087 -02 023 -60 -86 079 -77 -62 029 067 -64 -101 -37 106 -81 093 -51 -66 098 063 -12 100 -87 -43 -26 087 003 061 054 110 070 019 -21 -25 027 032 -31 062 
-29 053 018 -60 -91 000 072 066 029 073 -42 008 050 109 -50 001 022 -27 -43 -25 089 078 -06 050 084 042 -10 109 -69 051 -81 -81 -95 081 001 -23 -83 083 085 107 -53 -59 -36 072 034 -62 060 070 012 040 -97 098 067 053 -43 -104 009 008 074 -29 019 044 013 070 
-83 -41 -102 105 096 072 -78 -20 094 089 -51 037 019 003 -56 -42 -32 023 116 -54 109 043 -23 042 -46 -56 066 113 -36 089 -54 052 -24 -59 109 031 -60 -67 -75 -43 019 087 009 -20 -91 -47 057 -107 014 -38 043 -01 -82 -78 016 -27 068 -21 -64 087 -36 -03 081 108 
064 073 -66 007 035 -39 049 -55 100 007 060 -65 069 088 005 042 -58 020 114 021 085 -42 049 -27 044 004 053 -97 060 020 -27 014 000 -22 093 -74 037 061 -82 064 053 044 002 -44 074 -99 -56 -96 -52 023 -85 -51 -102 059 104 -73 -38 102 024 067 005 -82 -23 -74 
010 022 071 -69 081 059 -65 002 -68 092 048 -19 089 -89 -39 -61 -30 -02 111 -19 -87 076 -48 028 -84 045 091 -74 -18 -62 023 094 103 -95 115 -101 042 -102 -88 -76 -51 -63 -27 -84 009 089 -51 114 -62 -19 -88 098 022 024 008 011 -34 -71 067 055 072 018 -23 -32 
-44 -63 -54 -55 -70 -59 -21 094 -41 056 -12 040 069 -88 -81 -44 -62 001 -07 -01 034 023 -10 015 -12 -56 -52 -36 005 085 -18 088 077 -84 -70 -06 -43 109 106 -105 -55 -63 092 040 -98 -65 020 027 -59 -60 -92 -64 -104 -86 080 -69 -69 100 -53 -19 083 -51 -82 -70 
096 016 -103 -46 094 090 075 -29 -09 -69 047 001 080 084 -85 -67 093 -29 106 001 015 -51 -44 003 082 013 -112 -63 062 -66 -60 -82 110 -26 -95 -97 -73 -117 -81 -23 079 096 019 -14 084 -30 -74 -100 073 005 044 065 066 061 -104 -98 -07 048 -34 034 051 056 -62 -103 
089 -31 016 -74 -56 -95 028 087 041 -93 021 020 086 078 -56 030 -69 097 091 009 -14 004 023 -39 -83 -43 031 047 -32 023 072 068 077 -80 062 055 076 -20 -18 -104 -39 -09 005 -80 -22 -74 066 -84 -87 -44 047 -48 010 014 -06 096 004 -36 055 -08 026 039 -13 064 
-64 070 -98 -61 007 -55 065 011 104 073 059 -72 079 -73 -69 -54 054 -26 036 -03 098 052 031 001 -38 -19 -89 -47 -31 -57 047 -64 -103 -79 -54 -28 -26 068 091 -38 -88 -78 -76 090 035 095 -19 -05 060 -81 010 -53 -02 -29 058 -93 034 017 -08 -54 -61 056 -78 -102 
-35 001 055 076 -42 093 009 049 -89 017 -60 067 064 033 -12 058 014 072 030 -44 -46 -08 -25 -51 -36 -52 -110 -102 -69 -74 045 026 -107 -80 -15 068 -70 -11 -21 -13 -68 098 -58 -11 059 -06 023 -95 056 033 -67 081 106 -35 -89 037 010 085 -01 -05 -37 051 086 -60 
-69 -84 -51 -04 -70 -10 034 086 103 -47 -02 -37 081 020 072 -09 -45 -94 112 -72 063 059 -36 -24 059 042 083 032 -45 056 013 -66 035 -62 111 020 028 006 019 021 -10 -94 001 -106 059 -96 -45 042 052 -06 -06 -92 -71 -89 -103 -44 -04 076 057 -35 -06 -27 073 -81 
-90 -18 119 097 -90 -52 -60 -77 -51 -16 022 -04 053 088 039 -23 -73 072 099 050 099 -37 -51 -37 042 -44 -10 -115 057 077 -53 046 098 083 -72 031 046 -117 016 020 096 017 -89 002 -04 092 -80 093 -18 -48 011 -69 011 -24 -75 080 -25 -87 058 074 082 055 037 043 
056 -08 -113 025 023 -85 -10 016 -25 045 -46 -53 -74 015 -68 -09 024 -101 003 070 -82 042 034 -50 072 010 -43 024 -25 -24 037 094 -77 -29 087 022 -57 -83 -24 039 028 097 -65 -31 -19 -101 -20 -106 031 062 064 -96 094 -06 066 096 046 100 -70 083 033 019 -61 030 
072 -84 -91 101 -92 069 -59 -89 -44 -72 031 032 089 028 -103 032 -66 -99 066 073 079 017 -46 -06 -89 -27 088 -44 063 036 025 -93 -88 007 088 -100 -65 -64 -96 -31 -12 -99 000 -42 072 097 -69 -92 085 053 -39 -73 040 033 -04 034 -35 089 -50 005 -19 -06 -32 -01 
095 -77 -13 -50 020 -67 067 -27 -94 096 -18 -70 -78 103 -84 024 070 -50 022 027 058 047 038 -24 -74 -09 035 -99 044 000 -48 -38 -105 -24 -68 027 -49 -60 -114 -53 -44 058 -91 001 -11 -76 075 043 073 -23 010 -26 069 046 -61 -19 -69 -110 022 -96 -85 -82 -96 -01 
-47 -82 046 -110 073 016 -03 012 062 -92 014 055 053 064 -40 031 026 100 -23 023 -62 -49 -44 -09 001 -36 -106 -101 -28 -71 025 -84 104 -11 076 -62 -29 095 039 060 061 098 -81 058 -03 -03 -71 091 034 -65 -51 063 -25 -91 -104 -11 -74 -18 -07 006 023 -10 -77 -74 
065 012 069 -96 -31 -88 -59 015 103 -77 -61 -76 046 -50 -94 -65 -95 -59 115 -56 -109 070 030 -37 038 -27 105 -74 039 040 -48 034 -48 001 065 087 035 -21 -46 004 060 000 085 067 080 -26 052 094 087 037 077 -55 -106 018 076 -45 -42 106 -17 -95 -52 -43 -85 002 
022 046 -90 099 080 024 -11 057 078 007 -60 -42 -83 031 -18 030 -25 -66 -91 -03 012 033 -18 040 006 -27 -43 035 -58 -14 001 -56 -111 -52 078 -65 -67 119 -16 036 -53 091 082 036 083 032 -57 -71 022 050 -18 -28 -72 -13 -84 -74 043 071 059 -95 -56 047 025 -101 
-79 -27 -11 014 -53 -04 -42 032 062 024 -45 -28 -92 003 094 -60 045 -96 -115 -10 106 066 046 -35 067 -51 -76 108 -44 -52 076 103 093 -03 091 -14 -53 -60 -103 044 -102 004 090 -55 071 -19 -68 022 092 -92 041 082 105 -85 -28 -57 064 -25 -38 -87 004 -21 052 085 
-25 -38 -104 -64 022 089 -34 102 -62 057 -40 025 -80 067 -40 011 004 -55 109 051 068 063 003 -24 076 -39 012 046 059 -58 092 091 033 -35 -02 058 062 -26 -06 074 074 061 083 -91 -75 -80 081 -64 -83 001 051 -98 022 045 -101 078 -24 -49 -68 -97 -04 -12 096 062 
-46 083 -107 103 050 -79 -22 -49 -62 -12 -30 -60 057 053 091 -19 -81 -24 -117 034 099 005 -30 -59 -44 -21 094 -113 -41 -07 022 045 093 -93 -07 085 001 -101 026 -60 -109 -101 -07 062 092 009 046 018 052 031 021 085 044 075 053 -60 056 052 007 -104 048 -16 028 -12 
068 -31 108 097 068 -38 -49 056 -69 -51 -46 -63 -57 -104 -87 008 049 081 -41 -58 109 068 -37 047 -69 -07 -70 -112 -57 -78 024 -89 054 024 -111 100 069 077 011 101 -105 044 -21 -70 -92 -60 -58 103 -31 074 -38 071 045 007 103 -110 -27 063 002 -109 -68 078 -04 -50 
-14 022 100 062 -94 -29 057 -83 012 -75 -55 -61 -57 -44 086 -35 -43 039 -106 054 034 -46 -11 030 -95 -07 -97 082 056 -72 -77 050 083 068 096 -20 077 -37 -73 -09 -36 -42 -51 -89 -03 078 056 -37 -50 041 066 095 104 -64 106 -104 073 054 -46 -96 -73 -74 091 056 
-38 -82 076 -18 028 -18 021 062 -64 055 -11 034 084 079 -03 -32 098 -29 081 -73 106 -38 -25 -34 022 002 111 -112 019 086 -52 -90 -95 065 111 095 -46 088 -87 077 -28 022 -16 -37 -101 -05 -63 -112 -39 067 -46 -80 047 -66 022 103 -60 -104 014 -99 -09 -07 095 -60 
-17 -32 -64 -46 086 -83 -37 -57 -69 089 -58 034 -40 084 004 048 -34 098 -54 032 -76 055 -47 001 -02 058 -101 -02 -62 -50 -48 082 105 -80 098 -70 -51 -36 100 066 041 -69 -73 -106 -49 007 075 -62 -41 009 -94 -11 -52 029 -57 -05 -71 099 -28 020 -18 057 074 -106 
010 -71 -63 -61 086 -85 070 -14 088 017 034 042 050 067 -42 -25 019 -66 -20 -68 086 -08 027 000 -35 018 083 -111 -13 035 -68 057 060 -41 -13 070 070 -45 -74 -56 -39 013 -69 031 101 -95 082 -48 -03 -55 -72 080 -78 -76 101 -11 -67 -55 -57 067 025 061 045 051 
-90 -03 -119 040 -14 -04 000 -98 049 097 063 -25 069 -104 -71 -24 -99 023 -107 -45 -56 070 -18 019 -02 043 -106 -108 053 -13 052 -40 -60 -27 110 051 023 117 -114 083 -96 078 049 048 001 066 -48 -68 -47 018 073 035 078 078 098 092 -01 -86 061 -65 -54 -81 049 -83 
-84 -83 -112 -84 094 -08 009 089 -103 089 -30 -10 -61 -107 -81 059 015 -55 063 038 055 076 043 029 089 -14 -76 032 053 084 042 -36 068 080 034 -67 -03 105 -03 105 -105 -78 -45 047 085 099 -17 -64 -84 -86 060 058 -65 054 -17 -98 -53 -52 -77 007 -02 -36 -61 -44 
-18 -74 075 102 014 -83 055 -83 -86 -52 062 019 -80 060 075 -22 027 059 -116 014 032 059 005 -53 -75 045 085 -71 070 -51 084 063 -113 -90 073 -101 -56 080 -65 -26 020 -26 -24 -05 -31 -91 023 059 018 -78 -91 041 102 085 -75 -65 -10 073 -22 046 008 055 091 -40 
-22 -87 101 093 044 -41 -32 078 101 025 -42 -47 029 -90 -77 -04 -97 058 -75 -78 009 071 -35 -57 006 016 107 -22 -52 -62 057 -82 088 -44 -93 -61 050 114 104 -39 -39 058 -59 -95 092 -67 009 -19 030 075 -36 -25 -25 010 092 -28 -24 -61 -27 -106 070 -68 069 -107 
-70 060 -116 -96 -06 043 -24 074 -23 -82 044 054 047 091 -66 -47 -69 -02 069 036 028 -50 -05 032 089 015 -105 -13 035 082 -72 053 065 -61 -27 -62 -02 073 073 -67 -107 029 -13 -96 065 -78 -71 098 059 -31 -28 097 -78 -78 -98 040 -71 -32 039 036 065 -11 060 -103 
026 -85 109 -59 094 -38 -67 -73 -35 -50 -09 001 078 -06 -71 -30 045 099 -57 005 086 067 030 -43 082 057 -08 083 066 061 -63 039 -36 -86 085 080 -52 018 -72 055 083 031 050 -86 094 019 003 -44 -87 055 -57 089 077 021 010 -73 025 040 043 108 -62 017 094 097 
001 -28 -99 -07 086 093 -62 -56 -109 049 -50 068 069 091 -66 -01 -100 062 -114 -75 034 -44 -36 023 -42 024 015 073 058 -90 053 079 -74 078 -17 029 -75 120 044 -28 095 032 010 -85 -06 -77 030 -102 -70 025 -56 033 097 082 060 029 006 088 -36 -106 059 000 -79 -100 
051 047 -109 -04 061 065 069 094 -31 084 054 044 -81 -53 -55 057 -47 -20 111 -30 028 -27 -45 -34 -58 042 052 -81 011 -72 090 095 -91 013 -111 -69 -52 -119 008 091 -103 -10 -87 080 093 037 -07 -115 024 076 020 -102 070 077 049 065 072 085 070 -42 073 -79 065 -05 
-17 085 105 -92 059 031 -40 040 093 -05 -27 -08 -91 066 -20 -42 -47 057 -106 -36 085 -07 -26 -60 004 008 -102 -31 047 -86 -71 017 111 -82 -04 035 -58 113 101 095 -63 022 000 -65 -82 -07 031 -12 -64 -10 005 -75 009 -04 -88 -89 -49 054 -62 055 -16 002 -35 -99 
-82 084 -72 -60 072 050 -79 031 -52 030 067 055 051 -79 -35 015 020 -102 066 -64 019 -23 -20 -31 -17 -22 -74 -111 -75 084 -83 -33 -107 -79 -91 -69 017 036 113 -77 -14 -10 -87 098 -64 008 -52 -53 072 019 -40 066 082 080 058 112 -62 -36 -62 095 056 029 055 075 
-84 047 000 -111 -66 -77 055 048 008 -83 -41 060 -47 -82 -42 -12 030 026 -81 -24 090 -38 025 038 060 -56 -102 094 -25 -90 -69 070 042 069 -114 090 002 116 -116 -58 101 -93 068 -73 082 033 015 110 -91 -72 -89 -101 -61 083 -51 -81 036 102 -77 -19 -26 024 075 -47 
087 -76 -104 047 044 004 -78 065 -91 -69 038 -64 088 -92 092 034 -71 -11 102 -71 049 -09 -36 059 094 054 -27 059 -28 -99 -42 -13 005 -69 -105 -21 -61 -106 110 -97 078 085 -01 011 086 -93 -49 057 050 084 073 -45 009 030 -65 -70 013 -110 000 -52 -36 -30 093 074 
-53 000 -110 017 -72 087 057 050 -21 -57 -32 073 052 021 091 -54 -90 -51 -50 000 072 -38 -08 044 -75 -25 -95 017 065 097 085 -24 -38 045 -88 -44 029 -113 066 070 -65 -26 -25 100 084 048 -46 -104 -82 -87 037 -39 078 081 094 020 -51 -96 -48 006 073 081 -77 -73 
085 044 098 -108 -12 036 -34 062 105 -23 -39 072 -62 -107 077 -18 -73 046 -86 -75 036 054 022 041 094 000 -52 -05 -53 -56 -69 092 -84 -56 080 043 -47 -97 -59 -37 -79 092 -20 -99 -78 -43 -63 092 093 -52 -65 029 -50 040 -58 -80 010 -69 072 -93 001 -81 -68 083 
069 -34 -116 -43 -52 -84 -53 069 082 -09 054 -66 -16 -95 017 -56 033 -93 091 031 -57 -21 -07 011 037 -22 -04 -109 -05 059 079 -47 -113 037 017 026 -61 -69 099 051 -83 -90 003 083 015 001 018 -108 016 023 -86 -80 -99 088 -51 078 059 042 076 075 080 -53 030 086 
088 065 051 074 020 -36 030 014 000 -01 -09 -25 -29 -75 -01 -28 078 016 -113 -70 111 018 033 057 073 031 -01 102 048 -19 036 -67 074 -31 -103 074 -55 080 114 -43 087 087 086 -21 -86 004 083 -98 064 -28 095 028 -92 048 -95 069 -55 -104 -60 -94 -82 035 -72 -35 
012 066 080 -98 -55 -83 037 064 -39 031 -54 -12 -03 001 092 -36 -51 -102 063 -42 077 068 -33 056 088 -57 111 -109 012 022 -39 059 069 -78 112 065 -47 110 -80 -04 097 -33 021 -87 064 092 001 -104 -50 -71 040 062 -105 -76 -41 -45 -32 -03 012 073 087 040 090 084 
085 053 076 -33 -39 -96 -67 001 107 -24 -55 004 -11 021 046 -54 -53 -84 -25 015 005 076 -27 -03 -47 -02 019 -89 054 -37 047 008 -14 -04 -71 046 050 -95 -04 098 -107 007 -25 061 -101 -74 -48 -115 -91 078 -98 010 100 079 068 -16 003 -57 059 107 037 079 066 078 
-92 -08 088 052 091 016 012 -98 099 066 016 -76 -89 -89 040 -39 084 081 -112 -31 086 053 040 008 -38 -15 -71 090 056 -84 031 098 097 063 105 -17 074 -118 -57 -98 080 -101 -76 -100 022 -32 061 -24 -71 029 -20 045 007 004 -02 060 -13 031 -39 085 -56 -14 059 083 
042 085 039 -94 -57 021 010 059 006 072 -39 005 008 103 -102 -12 022 -94 029 -63 -07 -50 -33 057 -55 008 104 -108 011 -17 -13 058 049 006 089 015 -11 046 -09 038 -40 070 047 -93 065 078 015 062 -64 014 -73 101 024 057 032 029 027 063 058 047 -22 078 -55 -09 
063 053 -115 -81 -49 026 000 078 -55 046 -48 027 033 -43 -32 -19 074 -51 057 020 -109 -49 -54 032 066 -45 -109 -109 -68 -76 042 -95 096 006 052 -104 -30 -101 088 073 012 -75 -93 -94 039 013 033 002 -72 -29 -44 109 104 -44 -97 074 -14 -95 032 006 073 -65 -93 080 
016 -16 097 -78 090 077 -28 052 018 -56 008 -25 -71 -100 047 048 099 -98 -108 069 -91 031 046 050 061 001 041 -56 025 040 -26 056 -71 -58 106 005 057 -69 083 094 -104 -67 -53 097 094 042 005 -84 -27 -03 -05 098 029 085 047 053 -29 -79 020 036 -65 -27 031 076 
-45 -69 074 032 065 -75 -09 -25 -39 -52 040 -67 -80 053 -80 -62 092 064 063 -59 -45 008 022 054 -58 -23 -64 -60 060 039 032 -06 -08 012 022 -104 047 032 004 -26 -50 -14 -71 002 -69 -47 021 105 -18 009 -96 -106 -106 036 -89 097 -71 -06 068 049 043 026 -42 064 
-28 -12 -86 -77 -78 -70 -18 084 -64 091 -65 -59 -13 063 -21 -22 -56 -49 -81 -41 080 -57 -36 028 -63 -01 -47 031 002 -56 -91 -33 111 -14 -84 -15 038 -117 -88 -44 -78 096 030 032 -18 001 054 -64 -28 -90 090 065 -76 -40 -72 -92 -53 -30 -08 064 045 -39 051 106 
-75 -64 -96 051 065 -11 056 062 069 039 -60 -41 070 094 089 042 097 005 -113 -45 -103 009 022 030 -61 010 -78 106 069 011 064 071 -73 -89 092 -104 046 -45 047 098 -04 088 062 002 099 -75 -06 -01 -83 047 -72 -90 077 068 067 -48 042 020 056 -37 -08 -39 078 106 
-99 -80 -106 -54 -65 -02 070 -51 059 089 -44 -33 047 089 058 064 026 -02 088 -08 -94 -76 051 -13 039 041 -114 -49 051 085 045 090 -86 057 111 010 039 -70 -81 -80 -16 061 -23 -70 -17 104 -34 -114 -89 -72 -86 046 042 061 -60 015 -28 048 -34 075 -48 -62 -31 101 
-03 042 092 -37 -86 -91 014 019 -105 051 -34 016 038 086 061 -47 -92 -08 091 -41 074 -15 012 -29 052 -50 -98 -95 -78 070 -13 -83 105 -29 111 -55 -76 055 -50 081 -95 081 -28 005 056 -98 -63 -01 081 -35 -59 -36 -92 070 -26 070 055 -68 -13 -44 015 -35 -56 035 
022 -54 -72 -84 013 -19 049 077 048 -65 -55 048 -79 -75 035 -26 -36 052 099 070 -04 -09 044 -54 -38 051 -47 -52 -54 040 029 -10 105 050 107 -58 002 -05 -113 097 032 -98 084 095 -05 -81 026 -85 -18 -69 -92 079 -80 -32 -103 097 052 088 -74 101 049 012 095 -73 
-85 -74 -99 -108 -80 005 -04 -24 067 063 009 022 076 026 -39 -14 -91 092 078 044 069 031 -31 -28 -58 -41 -56 005 012 014 003 089 009 058 -109 -95 034 023 021 -63 -67 -38 008 092 004 -23 058 112 -06 036 -58 103 075 -13 -63 030 -74 013 021 -85 022 081 -69 -82 
078 084 105 093 -42 -75 003 -53 050 -96 -03 -72 -09 -71 085 -39 086 -18 095 -53 -74 -01 001 020 -09 -50 -112 112 -55 -68 -50 076 064 -63 049 -12 -16 083 103 017 -99 000 081 -26 087 -70 -05 016 016 070 -13 -18 100 -01 -32 078 -46 091 056 108 037 053 -11 -95 
079 -89 011 077 091 036 -22 -66 -52 -12 057 028 029 093 -61 -21 049 077 -59 -20 095 010 -06 -01 062 046 032 054 077 083 069 -08 -63 080 -69 021 054 115 -82 075 -93 092 -94 -27 068 096 073 -92 089 -19 -39 065 047 -88 -28 -53 -29 072 -10 045 041 -60 073 -13 
-96 074 103 -60 -37 -64 000 -92 106 066 -30 037 -51 010 059 028 056 053 078 -03 -68 040 -21 039 -07 -40 -115 -104 -35 -92 -09 -102 -08 -74 051 -02 011 -91 096 -67 -69 -98 033 -73 039 -105 079 097 055 080 -39 -91 -93 024 -86 -68 043 006 042 -92 082 -50 -06 -78 
079 -89 -85 -84 -16 060 030 -95 102 057 -61 -66 -39 -102 004 -37 070 002 -20 -04 056 042 029 -53 -74 009 -25 -103 -01 -10 -49 098 -50 -68 -88 -67 067 078 -58 -56 -63 -18 004 051 -93 094 -82 058 010 -91 081 004 -91 -51 014 -102 -49 051 -42 103 071 041 -81 037 
043 -41 045 -108 -56 -53 -59 098 -15 010 -56 049 016 -21 -86 -34 050 -50 -50 065 -15 078 -49 -11 081 -42 -32 111 -74 086 091 000 095 062 106 -59 048 030 018 106 -108 093 026 -102 066 -71 -33 -64 -08 068 073 -109 -58 -83 -73 110 038 -72 -26 014 -61 -41 092 -54 
-31 060 -98 076 079 -92 -15 -36 027 -82 -65 003 -49 -59 -67 036 093 -90 038 -25 107 075 040 -24 -55 016 -21 101 055 067 076 -47 099 -81 034 -22 -12 050 097 106 007 -43 -34 068 -33 -62 -83 -66 068 026 -38 031 103 -50 105 070 -02 -12 017 040 -29 001 -91 -98 
-37 -89 049 094 025 039 049 035 079 -89 -03 034 010 103 021 -45 003 -28 -32 065 -108 -18 006 -30 066 017 029 -84 -24 -31 075 -45 -76 049 032 -67 -61 070 095 104 103 069 047 -16 031 -02 000 -44 088 -41 -41 076 085 086 -89 073 -10 081 063 -69 021 081 -68 -67 
002 011 007 104 -80 -53 016 027 105 -97 -57 075 080 067 067 -43 -31 005 -46 -27 024 054 013 013 -04 040 013 -115 -77 089 067 013 016 -29 -13 084 062 -79 -46 -52 004 -60 -30 -06 046 -79 -48 -81 -50 -16 -81 015 065 -79 -30 036 028 -44 -72 103 036 -78 028 -109 
063 -04 -63 -43 -75 069 062 026 011 095 056 -43 002 -43 -09 -11 006 -102 -55 005 -101 043 -06 -26 -78 -15 -111 054 050 069 -27 -70 097 016 -78 -60 068 116 -71 084 050 -101 064 097 -99 -84 -73 -34 065 081 -14 -57 -64 -18 -38 -63 054 -61 -43 -57 041 -70 092 -88 
096 084 -76 093 064 -70 041 -74 -84 088 009 050 044 -81 098 -29 -18 015 035 007 098 -30 013 -53 057 -13 -103 -32 057 -21 -88 -98 089 -94 -02 023 -24 -68 112 -63 094 008 066 -94 -38 016 057 114 006 -15 -45 -100 -104 068 092 -80 063 -51 044 -05 010 -58 009 -62 
-84 -47 -49 -76 -79 -04 -18 -39 069 056 -04 007 019 001 -36 -57 -93 -69 100 -63 -110 -07 041 029 -85 046 087 -44 019 -50 -76 039 107 037 111 -84 045 -89 107 063 -98 097 -78 095 -50 -70 -28 -106 -35 -65 -68 -31 -85 091 -44 093 -43 109 -77 092 -36 -84 046 081 
036 052 -97 079 -67 089 044 -57 094 -90 029 -15 055 051 -30 004 -09 039 072 066 -82 -60 043 052 -41 -54 093 -116 003 -17 -07 -28 -60 -67 033 104 -34 -86 -110 035 -91 028 040 -29 -35 -36 043 -35 072 077 056 -16 016 -13 098 -58 -71 103 031 061 076 038 -92 064 
-54 057 -52 042 -35 -81 007 096 -21 -87 -08 -51 -29 -103 070 063 -95 083 -03 -26 -34 -33 -05 -03 -83 -46 -108 114 -49 078 -36 045 064 -85 025 040 -08 -115 045 095 -108 097 -74 -02 098 -02 044 -85 079 012 -84 -106 038 -16 087 059 -71 -50 -64 010 -50 -75 084 -103 
086 -54 -103 -28 085 075 005 -07 044 060 -44 021 005 043 078 001 -47 -53 034 -36 084 049 024 -46 064 029 -87 -10 028 084 -75 049 -32 -06 020 -19 -06 -04 108 085 -58 -26 -87 -98 082 015 016 055 -95 -01 -65 092 -79 050 -55 -15 -09 -04 -38 059 -75 066 012 -57 
-53 -28 090 -02 051 -26 074 -89 -23 -53 -10 -05 013 095 -04 -04 -59 -70 005 -21 -110 061 -55 -17 052 012 026 -18 -59 011 067 -54 -55 -75 014 -47 -25 106 -77 -04 -92 024 -25 100 069 096 -54 -37 -35 -19 -49 087 -96 -23 -71 -58 007 014 -34 -93 023 -48 -23 108 
-84 050 000 -68 -82 -41 -77 -26 -85 -65 -32 -50 -56 -52 096 048 076 031 019 -16 -71 -61 048 017 -67 059 -101 -56 -10 -79 073 -92 103 070 -22 -42 -16 112 -108 071 -101 -79 -88 -07 -100 -96 009 -26 090 065 -76 041 -77 -54 038 -03 -52 096 -42 111 018 -31 -85 099 
-15 -17 115 081 -11 009 077 056 -48 -41 059 036 -31 041 -07 -43 -60 034 -60 -63 -93 063 036 037 034 048 080 -110 -70 078 -14 067 -30 063 106 -94 019 -03 027 -31 060 077 -80 -87 -71 -78 031 082 -70 -74 -81 097 092 036 072 -79 016 027 066 -65 016 080 029 -95 
000 -74 085 107 085 -55 -38 088 -34 -81 053 -27 028 072 -76 003 089 076 -77 032 083 -03 043 047 -77 -58 -76 -65 -31 045 -59 -81 -109 -05 -85 -107 -04 -18 069 -52 -108 096 -77 103 096 055 -61 074 -01 -88 -94 -21 -74 017 -17 -85 039 002 -38 -87 073 002 000 021 
-95 053 045 105 090 -66 033 -81 054 083 -48 -37 -82 -95 021 -39 051 -97 -100 073 103 -10 -24 035 -39 -62 072 -114 077 -71 -78 004 093 034 -41 083 060 017 098 -99 -88 -99 013 -46 -89 -92 -42 001 -33 -15 -67 -99 100 -71 011 050 -73 062 006 -85 031 093 -59 095 
069 059 -45 -05 -38 065 075 -65 005 -60 -11 -05 -29 094 101 -30 024 067 065 033 058 067 040 021 -89 020 -36 099 007 098 070 -07 037 032 050 -100 049 -104 -100 -35 -90 044 087 -64 037 061 -23 100 -95 -41 043 -88 -106 020 -22 107 -05 -108 -10 076 036 074 069 -44 
076 -55 -103 093 034 -34 -43 043 058 -99 -29 014 072 -32 -42 061 -25 024 009 -60 -63 -20 037 057 036 001 052 -12 032 099 039 078 -111 -57 080 074 009 043 070 055 002 -13 011 -85 -89 077 047 -74 073 016 057 050 -94 083 -10 -60 037 -08 049 083 040 080 061 078 
016 -49 041 -87 042 071 -39 -97 080 -93 -18 032 080 104 083 043 -14 -70 115 006 -12 000 -08 014 054 -28 -60 -38 057 -09 -29 -85 -70 -90 -99 099 026 110 -102 094 059 034 -51 082 100 012 040 -63 -14 030 -85 100 043 014 -89 -108 025 -17 -37 104 077 015 -28 -78 
033 036 002 -49 -86 081 -12 060 -70 056 -61 -76 054 -75 -101 -50 020 -20 -85 -56 049 007 016 059 -05 -42 -01 -106 -28 076 -45 008 101 065 041 022 -01 073 -104 -43 000 -99 -88 -22 101 000 001 110 080 033 097 003 107 005 -106 074 -55 049 028 -105 -26 -28 -33 -36 
-82 -80 095 047 -09 008 035 -79 018 -42 -37 071 -37 090 -89 022 032 102 -54 028 -20 019 -56 -33 -53 -17 -91 007 -26 039 040 -91 -54 048 112 -86 065 -95 032 -87 017 -100 -35 033 068 -01 -61 -103 -25 066 025 -105 -21 041 017 -01 022 097 -60 -105 -12 072 -59 -99 
-26 003 -89 -61 -93 091 -04 -77 078 -50 032 -70 078 -90 032 -47 -27 021 -48 -04 068 -72 -30 008 -34 048 -97 -64 032 -15 -80 -71 -86 -68 053 -24 045 076 098 090 102 -08 -86 046 084 -91 -66 107 -43 033 080 100 -47 -21 074 -72 -73 008 055 108 -04 041 074 074 
-67 027 095 101 067 041 014 017 -96 -97 -63 019 090 -26 014 036 092 099 -48 010 -38 052 028 -02 090 048 020 -02 026 073 070 092 022 -81 -94 -59 001 017 -90 -09 -57 -59 084 -34 -26 -97 010 087 087 -65 -59 -97 013 -56 -12 069 -13 -98 -19 -111 -16 -68 083 021 
-94 -87 059 050 -80 055 -22 -17 040 -62 -58 -68 075 -37 050 -36 -46 -88 037 -44 013 -48 010 022 067 -14 -106 006 -46 -32 -65 -94 -07 -74 106 030 -41 109 042 -43 -03 -85 -02 -59 067 097 028 -95 -15 041 -12 094 -84 047 -88 -13 -66 059 -35 023 -80 074 000 -76 
-27 -91 -109 -25 -78 093 064 048 046 040 012 009 017 -108 085 024 006 033 074 018 -105 003 025 -23 -71 -52 093 108 068 -97 084 080 -59 005 -92 -64 -39 072 066 -86 072 -49 -05 -100 -100 099 -17 -99 -78 -42 -54 -15 015 -61 -93 -05 017 006 -49 -28 081 -70 058 -71 
-77 092 -118 099 069 021 -09 -102 -95 -81 058 -14 -45 099 064 020 100 024 004 034 -87 070 -01 013 096 -16 -112 -108 -31 -74 -22 -03 -99 -80 092 -26 068 110 086 077 039 -82 061 -61 -78 002 038 -60 028 001 044 061 077 036 100 044 -48 048 -66 005 -43 042 -83 083 
080 -39 081 067 094 065 032 009 -51 -87 064 -66 -69 061 -19 048 099 096 027 -41 -109 009 005 -37 -41 049 -86 079 050 084 083 000 -94 -60 -61 -22 -77 -115 -110 106 019 000 -26 045 061 -103 071 -83 034 -94 -51 096 024 -38 009 -11 058 -81 -56 -95 073 -01 -91 -66 
-99 -81 -77 096 -62 -33 -05 -85 -63 097 -19 -05 -63 082 085 060 -67 -75 089 048 -102 -61 -30 009 005 -47 107 081 -56 023 021 -92 055 018 -104 044 -60 112 -92 088 031 -101 -36 041 076 099 069 102 043 -61 -67 010 -05 054 -92 031 -22 -38 016 048 068 050 032 -95 
-26 -09 -119 -97 -87 -73 023 026 102 -79 -66 072 -51 019 095 035 -93 -98 -78 -15 083 057 030 -37 -88 -05 -96 073 -75 -13 -92 -52 -105 -19 -97 086 041 -114 104 -17 -09 000 052 -10 -91 055 -11 -92 011 -35 -22 108 -35 024 091 -57 034 008 -50 -39 -86 025 097 -49 
081 -25 053 -108 -96 025 -80 -80 102 -52 053 -16 031 -16 072 059 031 -35 073 -75 106 -50 -34 048 091 036 058 -74 072 088 084 056 007 066 009 038 -62 -60 -108 049 016 -89 -75 -102 095 -17 055 102 079 072 -03 -86 029 -30 -77 041 048 105 053 059 076 006 -55 058 
-86 034 094 -62 -90 089 -12 -102 086 -69 -37 -58 037 -97 080 -65 -22 -53 110 011 -98 -17 041 006 -30 059 -82 055 060 -46 -65 094 -92 -47 -73 -35 -33 -76 116 -64 080 043 044 089 103 005 062 -110 -53 043 -78 082 041 -95 002 079 066 050 -62 -98 -40 -70 -103 -99 
075 000 039 -15 -62 089 -10 -58 014 -01 025 -08 -78 079 017 -11 -06 051 -92 -13 -34 -53 -19 069 094 -28 016 -88 -90 -48 -10 -82 058 -11 050 073 047 -42 -39 -63 027 -78 -87 -14 043 021 -63 -85 022 -21 052 065 103 048 085 060 -17 -64 005 030 056 -43 -12 -39 
-24 052 099 039 -38 -78 098 054 -28 019 -41 -79 -77 108 097 -68 -31 -83 -41 -46 033 032 021 -41 115 095 -49 -93 -01 -19 088 023 002 056 094 -69 061 077 008 -88 -44 -44 003 -58 -22 -49 -72 -11 -86 -38 -17 070 -103 -74 -36 022 064 021 -57 027 108 078 -63 -72 
-26 -59 071 007 -68 103 -110 064 007 008 -80 -110 -47 -01 030 089 -91 -28 -96 -14 -47 -84 080 076 -51 081 071 -66 -54 015 -49 -73 072 008 -100 093 -63 -73 -24 -27 081 064 068 051 061 -86 -64 -10 -92 -57 034 043 056 -21 -88 -84 -25 089 -48 -48 051 098 -09 -79 
-21 042 052 -33 -66 -62 -85 -63 -80 -50 049 069 -07 -96 -02 067 107 -37 086 -85 -38 113 096 -87 -83 016 -05 -64 063 -52 000 -72 -12 044 -20 091 -82 -75 021 -65 055 -23 021 084 069 025 019 -35 032 062 -68 055 045 -29 -59 014 013 -80 -68 -49 -34 079 043 -20 
-37 -79 -78 -59 -13 -92 071 -35 026 -69 094 -110 019 055 -112 078 -05 -28 -78 039 -30 067 040 080 102 080 054 067 074 -75 -38 075 -11 026 065 -47 069 082 044 -80 -77 052 -100 -88 -14 -89 -34 101 -18 044 078 076 057 -51 061 070 052 056 -75 -43 064 040 028 -27 
087 -98 080 -27 023 -03 -95 -20 -23 -74 029 020 039 105 -68 080 -71 -51 -97 -66 062 047 006 033 -65 -12 -14 070 036 -26 -87 -69 -37 047 -56 -54 -36 057 -53 -45 068 021 019 -73 -57 067 -64 102 -45 068 046 037 -89 -79 -29 -48 -43 -75 061 -35 084 -82 057 -61 
-38 -55 087 -43 -35 -61 067 -03 029 -14 054 073 -32 099 -90 -12 096 098 005 028 -63 -09 -03 -17 -96 -40 014 013 053 -78 090 -59 070 069 -102 -112 002 -04 015 -68 077 048 -100 098 004 -16 018 -57 -57 -50 054 -11 -91 065 -70 093 -63 -70 061 -15 004 -79 -25 086 
-75 090 080 -32 021 -29 -99 050 009 001 -50 -55 035 -92 093 004 -42 096 -35 -33 019 082 045 -64 -100 096 064 -107 -53 -41 036 042 -66 -09 -76 048 -82 019 -35 090 028 087 -81 -95 -12 -43 000 -17 044 070 -39 020 062 -56 -37 075 -63 001 -35 -17 -17 103 000 -79 
016 060 -96 -07 -08 027 -107 -71 -60 -20 -52 -46 056 101 091 -91 101 085 033 002 001 -18 000 -83 -114 072 063 -86 021 078 092 030 -04 -25 -95 082 024 -36 -23 -100 -22 012 -88 -101 035 -29 033 103 -49 063 -06 -05 103 013 075 -33 032 -38 025 -43 -68 093 034 007 
-26 035 047 -47 027 -101 -69 -18 -63 -64 084 -100 034 063 109 -33 -29 094 048 -23 -36 061 -49 -18 -28 -103 -56 -31 -80 -50 039 -90 051 058 -85 116 025 015 -79 078 -26 052 -53 -99 -15 -79 078 082 072 -45 -20 020 039 -23 -24 048 -61 -39 -03 039 -65 -101 058 -77 
-80 -45 011 -65 074 101 109 043 082 003 021 -98 065 015 -22 -45 002 094 081 040 -36 002 089 078 112 -43 -42 055 070 022 082 -34 -40 040 -39 104 090 061 -69 -63 -80 -87 061 104 028 -46 076 -49 -91 -38 -80 010 -03 -54 -74 -70 -19 -10 051 -34 011 060 038 085 
-57 -43 012 -15 027 092 -108 -32 066 -05 078 098 -23 107 112 052 043 -63 079 058 -42 -06 082 -12 101 096 -44 028 -19 036 088 068 042 -60 -46 -13 -20 -52 -20 -21 -29 -75 069 -50 -31 090 000 -49 038 -45 -66 -10 -88 084 -40 -24 022 -25 -20 -36 -90 100 -57 074 
098 069 -50 061 -42 091 043 025 -38 -64 056 091 -20 088 -44 -73 098 016 038 018 001 069 011 019 -45 042 058 -80 065 -22 -03 -79 -53 002 -91 060 062 064 -22 -50 056 -40 003 056 -47 -73 008 -92 -52 -19 -59 029 065 -37 -74 -79 024 008 -06 -42 -28 -47 -67 -88 
-50 -14 -76 -19 063 -62 080 -06 -66 043 -93 -98 028 -72 -44 -88 047 059 -78 -82 066 -112 068 -94 094 085 011 -101 075 031 -19 035 026 -74 045 -71 -04 047 068 -53 -11 058 -13 -48 056 007 -74 100 052 043 050 -13 -67 -18 012 -73 -20 -34 022 032 -71 -08 -30 072 
058 005 -69 -15 -28 -106 -62 030 -27 042 010 -107 003 -84 -102 058 -26 -70 078 035 -32 108 -64 -21 102 066 -63 -06 039 -30 -95 -54 002 -02 011 086 087 -07 019 -22 060 053 016 010 020 -30 -13 -25 -28 -52 028 049 -47 -85 034 -71 030 -103 -02 -49 -107 -90 -55 -02 
000 -95 -52 -28 -20 -69 -87 019 -22 -63 -18 -102 -70 -71 086 070 058 -02 059 -68 -21 -29 -21 080 -86 -95 002 058 -78 -35 017 010 044 -47 -62 058 014 052 -27 054 015 -52 -35 109 -45 053 -06 108 008 050 -59 062 012 055 -79 044 017 -72 -37 -12 -50 058 -20 021 
-44 032 -80 054 019 009 -67 -20 017 055 -86 -81 -40 074 088 -86 039 086 -15 -22 -18 -99 093 016 -25 069 064 -109 -81 -28 -77 049 063 -30 070 -114 092 -81 076 -54 073 -93 088 -81 060 010 -31 -100 -06 -49 -13 -28 007 052 081 087 -49 099 033 -04 089 012 022 033 
-60 -56 003 028 -17 -77 -07 -06 -47 -73 -33 -12 040 -97 -97 076 -104 016 -16 049 -15 118 -75 069 -40 092 -13 102 -02 001 -64 055 -72 001 097 -80 011 -45 053 -41 008 074 -50 -86 061 079 -61 -61 -24 -35 018 063 105 -54 -85 -50 -33 049 -17 -49 062 -108 015 -25 
-87 -11 016 043 -68 -41 -96 024 014 049 064 038 017 -95 -59 075 078 101 001 -50 059 -48 027 -80 112 013 060 093 -82 -06 093 -83 -10 -64 -72 -60 011 -83 015 -18 005 086 005 -44 -35 -72 -82 077 -88 061 -99 -73 102 -62 -84 074 047 006 -21 009 021 049 023 -97 
-76 -29 076 -53 007 074 090 -40 033 -62 -95 -80 -05 -11 079 -52 -20 -25 044 072 -61 -70 091 095 -87 092 002 000 007 -13 084 013 -29 -18 -90 -46 084 029 -38 080 067 014 049 051 018 011 039 -36 043 043 -60 -48 036 046 -24 083 035 034 -65 -15 094 102 -52 -78 
-82 082 -74 065 023 -67 -103 -04 -70 048 023 -101 -53 -30 -67 -92 -23 042 -18 -10 -65 022 -03 024 -27 017 080 079 -51 -57 091 -91 -31 010 057 -106 047 075 028 095 077 -42 070 -108 -43 -51 -47 -104 075 017 099 -17 -76 055 055 091 -13 -09 -55 020 093 -104 -10 -38 
028 -07 056 -49 -66 -65 -18 -20 -56 -39 -44 051 -73 095 -102 058 -68 -14 085 071 -13 090 076 035 113 065 040 -65 -82 076 -30 069 -65 059 065 079 046 -53 -22 081 -63 -36 -91 110 045 -59 -06 066 008 -31 -97 -49 -79 035 -69 -74 -58 092 -63 -43 006 098 061 -98 
-78 059 031 -05 019 100 109 -58 027 -50 -84 -67 -56 008 106 -18 005 029 057 -56 -05 -69 075 -08 -41 080 037 -16 -79 014 086 072 -05 006 -32 -79 044 -53 -28 056 -10 089 -60 041 -07 -66 -35 082 080 061 061 -39 103 -71 016 038 007 093 007 016 027 -05 003 -71 
-96 003 -66 020 -17 -96 -103 -49 -89 -47 -88 -93 078 108 -42 -33 038 068 -93 036 -09 -91 -19 026 102 035 078 -106 084 -73 081 -16 -26 -19 064 -43 -78 022 -02 000 -53 080 -31 055 -38 069 -74 -107 -28 -23 098 -26 -43 044 -34 -62 -22 007 040 011 -106 -19 031 -99 
-94 -50 -13 026 060 -29 -87 034 -64 050 -101 100 008 104 -70 081 040 -04 048 025 -63 -91 027 -31 056 -107 016 031 -84 -71 045 -96 007 065 -13 110 -87 046 -18 003 -71 -23 004 079 006 -76 -41 012 020 009 061 -50 -104 070 071 092 -68 -98 -36 044 087 032 -35 072 
-43 047 014 -54 057 046 -22 039 003 -45 099 096 029 074 -66 -62 -90 086 -63 -49 037 066 061 -91 099 086 019 -108 -30 007 071 -08 -78 -60 073 087 007 -58 -70 065 011 001 069 010 041 055 -38 006 -40 -37 -101 031 077 -04 -68 096 -19 -80 -78 034 024 -91 013 -46 
-28 002 057 -57 026 -29 -31 053 052 033 028 -88 -11 109 079 087 -63 -17 095 052 -05 112 -13 077 061 -52 029 -28 -68 -76 069 019 -41 014 032 050 -07 -81 -60 -68 055 -12 015 087 060 036 000 049 054 057 097 060 -30 066 -24 026 -31 051 -36 045 056 -18 -18 008 
-64 -58 065 016 -71 099 -47 029 -14 006 -47 -103 031 -104 093 015 -43 073 089 -18 -30 -74 045 -91 036 -04 077 -83 -51 -16 -57 014 013 -29 032 025 078 -87 -43 006 064 073 -75 -111 -62 077 -52 024 -11 -56 -20 054 075 -61 -75 063 010 099 -71 056 040 080 -15 -53 
051 054 063 010 067 090 -20 037 021 -45 008 102 -58 055 -101 -63 029 -80 -41 -55 028 113 096 -79 -106 059 061 006 065 -02 077 088 003 -39 -76 -35 050 -66 -49 080 -82 -81 -102 049 032 061 -73 075 079 -71 -101 -70 -03 085 059 -40 -05 -08 030 -26 094 -101 -64 090 
-28 017 020 053 057 -104 -93 061 -03 013 -85 011 -75 010 038 081 -106 -88 101 018 017 092 -01 -79 091 043 -07 -105 -54 -12 068 013 -28 -37 -49 -88 -67 042 -71 -58 001 -02 035 -31 034 016 071 000 070 -57 -42 062 031 -84 085 071 -39 022 -46 -51 -48 041 -64 -96 
062 040 -68 031 042 104 -81 024 068 -51 059 -07 -79 036 106 018 093 016 -85 -65 052 -119 -25 003 -25 039 -69 077 050 006 -07 -28 080 008 -57 111 036 -81 -25 068 011 -63 079 097 037 -02 075 051 -57 063 -34 006 -47 -27 -71 -99 015 -41 059 013 094 -43 041 081 
-20 -39 -70 -41 -76 010 -32 -54 -25 019 -95 -101 025 -56 -82 -95 -55 035 -52 070 -26 005 049 -65 -94 -97 -68 028 -34 -31 -61 055 071 066 048 -112 -21 059 -40 -98 -62 006 -09 -108 -57 068 -73 -65 085 -73 -36 052 056 086 028 065 021 094 -34 058 093 097 004 049 
069 032 098 -39 059 070 -15 059 069 -29 -92 009 012 -82 078 018 -90 023 008 006 -09 -78 019 076 -82 -91 -68 -88 -06 -03 -23 -07 026 -33 -66 -68 -65 -12 -01 -11 -81 007 073 110 007 079 -75 054 048 023 096 -66 -35 -55 -86 024 -63 -50 -36 -27 -07 045 -17 081 
079 -03 -75 045 -59 097 104 -13 -14 -01 -55 -56 076 107 109 084 055 079 -27 -52 044 034 020 016 -88 -58 -55 -68 080 -82 -06 038 060 -32 045 100 -86 -23 -63 029 039 -65 -79 072 -54 054 -79 -95 -15 004 -03 -09 104 090 059 -90 042 -48 -12 -07 -33 -88 041 -77 
038 -88 072 -49 017 -03 -87 064 075 021 -96 046 061 103 090 -83 072 -32 -54 -10 -61 068 -83 059 -93 009 057 -59 029 008 000 -53 053 -04 028 100 -15 -33 -43 -88 -66 -57 -102 028 -63 -06 -61 101 -93 041 098 050 075 -25 062 -42 034 101 -02 044 026 101 -10 037 
045 022 000 -28 -34 -104 103 -55 061 073 -100 066 062 105 010 -96 -50 066 098 -04 019 113 047 -83 -108 -90 -49 109 -74 -55 -32 -98 002 049 008 -73 015 -42 000 099 -16 -20 062 077 -23 020 -66 -102 -28 054 -18 -76 068 -76 076 007 -21 -20 053 -45 107 -28 -39 092 
021 -20 -74 027 -66 106 110 -63 -48 -73 013 -96 -42 093 002 087 072 -24 -29 -24 -30 011 -93 -78 -32 -105 026 100 -57 005 013 -82 -69 -49 021 049 056 -11 -09 -43 067 -90 -94 048 -17 002 -44 094 077 018 -04 013 101 -79 -67 -35 036 -47 076 -54 -29 -56 036 -73 
-13 077 043 050 -59 027 -81 002 076 046 -62 -112 -50 -59 068 061 055 055 -55 066 051 -89 -70 -09 088 032 021 044 081 058 -91 -58 -83 -20 -66 071 -54 -01 -70 -94 -22 -69 -70 055 062 065 058 -17 089 043 025 -63 078 -22 -64 -79 013 046 033 -51 -93 093 059 -89 
098 095 060 -55 -47 094 -78 046 -60 -59 -86 020 000 027 -67 -88 -96 027 -101 006 065 -68 -48 072 -101 -25 -46 071 -17 -50 085 063 -43 -72 045 111 083 060 037 067 -63 063 010 -70 -32 -86 028 -75 009 052 077 071 -54 039 -05 087 -02 016 059 -27 104 077 -16 062 
029 083 091 042 074 097 -02 -34 007 -53 -95 058 -07 -06 -114 -67 -101 009 067 057 043 -81 082 -43 112 105 -01 -64 -63 074 005 -90 074 -46 012 -40 008 044 063 -50 032 -06 065 006 -12 087 -03 -106 090 015 088 -47 009 026 -56 040 064 -55 069 -38 009 -11 062 -80 
-18 -84 094 -21 031 037 109 -44 038 -78 -86 -45 -63 091 -105 091 104 -101 065 -35 -35 -82 078 -40 -07 -76 004 -28 -51 -42 -89 -35 -56 -37 -29 094 -33 -29 -27 052 -43 -31 093 -72 006 -77 -77 -58 -13 -76 004 -15 -37 -86 056 048 005 023 012 044 062 041 -49 -94 
-87 067 102 -66 034 036 085 -03 -53 023 065 -102 -38 -11 -11 -86 -08 017 -94 055 -45 044 -72 -44 112 089 -57 008 020 -09 -62 -90 -64 044 020 -113 022 081 030 095 041 -76 057 -101 001 067 -17 109 -71 063 -45 -54 -09 -35 -26 091 003 -102 -67 -36 -65 021 -56 083 
061 -76 015 -57 -66 -06 105 -10 -18 -03 080 -42 -64 -29 002 -24 101 -92 -83 009 -46 -57 -71 -54 -112 -23 -52 -22 013 -53 -42 093 033 -50 -21 093 020 -12 027 -35 -58 -56 -51 -40 -12 082 -58 -11 025 057 048 -23 056 080 -57 -07 -45 -91 003 -60 014 021 053 090 
-83 004 -27 -17 062 -20 -85 -48 054 -69 -58 -44 -13 -19 074 -63 101 -19 090 051 -03 -91 070 086 104 103 019 090 061 015 -07 -63 -74 -34 -74 -39 040 -52 -59 076 -35 051 014 074 -22 -89 000 094 042 -71 095 057 079 060 -37 059 -41 074 002 -43 -91 -109 -10 -20 
-59 -75 -58 -42 -70 075 107 046 -63 -70 091 -57 -59 -22 -09 035 -75 -79 -41 -43 024 -40 -42 -50 -07 059 -37 -98 084 -74 017 011 -38 002 -82 -104 081 -85 -43 -11 049 -90 065 075 021 -72 063 -40 -67 024 063 -76 056 -65 048 -55 035 026 059 041 -105 -61 045 -98 
026 080 060 019 066 080 110 -12 017 027 020 078 -13 002 -36 -46 082 075 -24 056 -14 -81 026 059 -114 060 -73 021 -01 071 036 070 -25 -26 075 -94 063 014 007 012 -54 -65 065 -33 -38 024 044 050 -90 052 062 -11 030 065 -50 -57 046 090 -67 -08 -98 081 012 097 
-54 -64 058 -33 -25 094 -36 -46 -43 053 -92 042 -52 -92 062 -46 016 094 039 031 -37 -50 085 055 -111 -105 -27 -11 -90 056 084 -14 -03 -70 061 -114 072 036 -36 -81 052 039 -08 -22 050 065 055 011 -83 -26 -27 -69 -78 067 -46 -74 019 -81 -71 -37 109 -50 020 -18 
-28 -15 -20 020 -71 075 013 -62 -63 -13 051 054 -73 -102 115 011 -92 016 -97 029 067 -74 077 070 043 064 079 006 084 048 -93 007 052 -74 -75 064 -45 -06 -71 065 -45 -19 -31 067 057 062 029 087 -63 -77 055 049 050 -04 -77 -75 060 095 -49 041 018 070 -14 -71 
080 015 081 -52 -30 097 -51 -62 -44 026 097 -62 -31 -97 -99 015 -108 -76 -101 017 -50 082 -25 -62 011 -44 019 103 023 062 026 -85 -82 -64 -08 018 077 -10 -61 -74 -55 -38 -41 022 021 -82 -36 082 042 005 067 -13 -58 082 078 -02 025 -18 -31 -26 -75 084 -23 016 
-89 060 -92 -55 -09 092 032 059 035 -68 -72 -65 041 021 032 046 -42 -54 -93 -57 -03 058 -92 -68 -113 038 -75 103 047 018 -13 -67 -25 016 070 -17 025 -61 -15 059 -41 -45 097 -20 035 027 025 -50 -03 -60 -60 023 044 041 -80 060 -47 056 048 022 -100 -37 034 083 
054 075 -101 062 -04 017 -49 -04 067 008 068 053 -65 007 110 050 -102 025 -13 046 -26 108 -88 -60 -115 -63 -44 098 007 -51 055 044 061 -37 083 -48 -77 027 016 -82 020 070 -84 -18 -56 -40 055 -101 -87 032 010 053 085 -70 042 027 031 031 -37 011 -69 032 044 005 
-66 057 -31 -01 040 -42 -95 039 -07 -39 -82 045 031 096 -93 043 -30 -14 -91 025 -58 -94 -68 -89 088 087 -36 -28 -91 -18 -24 092 -41 040 070 047 -67 079 -30 084 -14 -02 030 056 -56 020 -60 023 -69 -55 023 -14 -33 047 018 093 -06 097 034 -50 -95 069 -44 017 
010 -90 092 -60 066 065 075 065 016 029 096 089 075 -52 -90 -03 104 039 040 -56 029 -111 070 086 -67 046 -45 -02 -78 066 065 -66 080 -63 020 110 000 036 -77 076 -82 048 078 016 -63 033 -72 -102 -30 -80 039 074 108 054 -60 -14 -19 061 027 -44 -07 -40 057 -73 
098 070 051 033 026 -55 048 014 024 -06 088 082 -78 -89 -42 009 -51 -97 057 -76 056 099 053 -55 -103 043 025 106 016 -13 073 -84 -42 002 -22 078 -26 089 010 -50 -12 -83 051 -12 035 -13 -46 037 070 037 -77 -03 094 067 081 103 039 023 067 050 -33 -61 -54 045 
079 055 -94 042 017 -41 -76 041 -21 -02 086 107 005 094 -106 -40 072 -86 025 039 026 -115 -56 056 -25 -106 010 -14 -76 -22 049 -04 -19 -03 -100 -65 082 055 055 100 -69 073 032 -107 001 -01 057 095 087 -07 -70 -43 -88 049 -49 -100 059 055 072 026 -77 -103 058 069 
005 069 073 052 073 -85 094 -60 043 -56 090 016 048 093 017 -86 090 -78 082 -41 046 078 080 068 -30 100 -57 077 -29 -05 057 -18 -59 -62 -12 072 -56 -67 063 087 -68 006 013 087 008 -36 -10 036 065 046 016 -66 -79 -08 016 -83 -31 026 052 035 -87 035 065 -55 
-18 -39 -73 030 010 -77 -12 013 038 072 -08 048 020 104 -72 -94 -62 044 075 -67 -52 109 089 -80 -90 -62 021 -63 021 -30 -34 088 -03 065 -39 -99 -54 020 -09 092 -65 090 064 -107 032 -21 005 -101 044 060 -33 -31 085 070 018 054 042 -53 -35 -40 082 -80 -24 -57 
-45 -23 095 004 -52 -35 -97 043 036 -16 -101 -46 -72 -45 071 091 087 010 076 064 047 100 077 073 -84 013 -69 065 -72 009 -97 -64 -20 -35 -56 -09 034 037 -48 -85 067 045 058 -75 011 069 060 -57 -48 -14 054 062 072 064 052 046 -66 -85 046 040 -29 -90 022 -45 
002 028 -85 -23 -69 104 071 -59 -75 038 -21 013 -58 074 -109 -01 044 023 037 -31 -52 087 067 041 -86 -53 -01 092 -51 057 046 -13 -60 -08 -97 -101 -32 073 -30 -98 003 -86 -66 069 -43 -11 062 -49 073 045 -73 031 014 -05 087 085 -45 -102 017 -36 083 -103 061 -09 
032 -70 007 046 -20 070 -96 012 078 049 -66 077 -41 -02 110 -25 101 066 -66 -45 -45 -111 050 -90 -81 022 052 060 -49 -25 057 -85 021 -53 -05 -65 090 -14 -14 -10 -57 046 028 078 028 034 028 035 018 025 027 -71 -84 -82 -69 081 004 -08 029 056 -106 101 -67 -46 
-13 -32 059 054 -58 086 -97 002 -85 -21 -23 030 -62 012 -107 070 -73 073 -70 071 -08 -12 056 087 110 089 042 -79 084 040 016 050 050 -55 067 -90 019 -46 050 088 -60 072 061 073 016 005 037 -92 -19 -38 -45 065 -105 -84 -48 -91 -51 104 -04 037 046 -100 048 -75 
040 032 060 053 -64 059 077 039 -26 -48 099 010 -02 083 042 087 017 -27 -48 -79 -13 116 083 -87 077 075 038 093 -63 043 026 084 024 -09 000 -57 089 -60 021 056 040 -87 021 -67 -14 072 000 -88 013 001 -107 037 -70 -91 -72 -92 -02 -97 -08 001 -73 020 -06 072 
097 063 002 054 027 -16 -111 -10 -32 059 -50 -112 029 -76 -47 -61 023 -67 -96 009 -50 088 023 020 101 -56 -32 -106 083 -16 -26 080 059 069 000 -28 035 -32 001 -40 077 -09 089 034 011 014 -55 -84 -31 -27 063 014 093 015 -04 090 -61 086 059 -40 -35 087 -32 -03 
100 007 -59 057 013 001 088 -63 -08 -53 092 -14 -52 -87 064 036 020 031 -80 072 -55 112 071 -63 -106 -47 024 -108 -63 073 -76 -74 054 017 -58 -103 -03 -75 -73 092 067 050 -80 -46 059 022 055 -07 -65 019 -29 -69 105 069 074 -86 054 038 -26 025 029 019 -40 003 
-93 076 012 -20 -60 -104 108 046 -84 071 -28 040 064 106 112 -85 -94 -95 -85 -21 -03 020 -90 -45 -86 041 042 -106 -69 -52 -49 048 -40 -64 -97 044 -24 037 -71 006 -16 008 -05 -21 -45 018 -78 067 041 -17 070 -52 086 -83 066 -22 -33 086 -14 026 -20 -79 -10 034 
000 -27 093 003 035 -77 -10 -57 047 072 -66 -86 -18 031 102 -67 106 070 017 -16 -17 085 061 -35 -34 017 -48 -38 -46 -40 -94 092 050 -46 -77 083 -27 079 -52 -96 007 013 -32 035 -46 -63 051 106 -66 -38 000 072 106 078 -01 055 000 -37 -47 -03 108 -54 -65 -44 
080 090 -65 -35 -75 -98 -67 038 -06 -62 -92 101 075 -48 038 -18 -51 005 -61 026 006 115 048 -11 019 -31 -76 -77 -82 040 -50 058 -44 021 -36 -72 -37 -94 043 -98 -77 057 -96 -98 -26 -79 -04 060 076 -21 073 044 001 -11 -66 -87 -22 082 -65 -37 012 -23 -45 064 
-88 -74 -77 -27 042 032 -99 -27 -68 066 097 -52 012 -56 102 037 -01 -74 -53 042 011 037 087 -59 045 098 -07 022 -65 073 073 041 042 -24 069 016 -88 059 000 101 -50 -06 093 097 -23 -88 -60 -104 -90 030 -55 -08 -40 065 076 -92 -33 007 -03 043 043 062 -26 052 
080 -29 021 062 007 -98 -51 -13 -81 009 048 -25 -11 -110 -98 018 -92 088 072 070 -53 025 091 024 -48 -74 -23 007 029 -65 013 -92 -25 054 -73 -108 -58 -69 052 -77 -48 059 095 -63 005 -74 058 051 012 033 006 -11 -39 023 -12 030 -50 -30 -77 037 -35 -33 -49 -18 
053 -92 099 028 -22 060 -85 017 004 -52 093 -07 -35 092 025 015 -83 055 052 -05 032 096 -69 083 100 077 -45 064 -71 -65 -61 -97 -12 -67 095 -82 060 -85 074 098 053 -39 -66 065 -15 -76 009 067 081 000 013 -05 009 067 036 036 010 070 -05 037 066 -71 -28 -76 
-18 -31 021 065 057 -94 021 -04 063 -15 -102 -06 -50 105 -51 -48 -106 -57 100 077 040 -68 028 024 059 083 009 -36 -62 -47 019 -44 -69 -40 036 -52 004 -82 -67 071 -26 073 039 104 016 001 -50 -43 -73 -67 073 -34 -54 029 052 -99 022 -78 -62 -55 -28 -90 -50 083 
074 -77 -61 -64 -56 040 024 025 040 050 073 085 024 -74 -69 034 005 -92 058 038 -20 -118 -16 -38 -115 -40 -74 -53 071 -28 -73 028 049 -62 044 -116 048 -89 052 047 044 -39 -67 -62 -31 -86 040 -101 -23 -01 -76 027 005 -08 -31 014 -20 062 -03 -13 -37 -107 -33 063 
093 026 -38 -26 -25 -40 -112 002 023 -05 -34 -108 -36 -64 -92 075 057 002 099 044 032 -56 -74 -55 108 010 -47 091 -48 -63 -51 -66 -83 068 067 -66 034 046 -39 098 064 075 084 -71 -08 083 074 -102 057 -34 083 -45 038 -84 -63 084 -31 049 072 033 073 -87 043 046 
068 -79 -42 001 -65 -104 086 031 082 066 026 068 028 -105 070 -91 048 -30 -22 057 040 115 -86 -83 -43 -43 048 -104 073 004 -70 -10 072 018 082 037 036 -82 023 058 023 056 082 019 -40 063 -53 044 089 -38 -102 -51 004 063 053 018 034 039 071 032 -16 -83 047 069 
-56 076 -67 037 -78 078 076 -14 006 025 016 -75 -76 -21 081 045 -38 049 036 070 -08 087 025 064 -18 032 076 100 020 061 020 070 053 -38 016 119 047 -77 -74 -45 012 094 -62 -25 -41 -81 014 112 023 017 074 -41 002 -86 -84 -97 014 093 000 -47 -85 -73 014 -85 
099 060 099 033 047 -42 -81 069 053 -65 015 019 004 -49 -21 052 058 047 -67 049 044 -31 -91 061 -96 -70 075 -77 -71 -70 -50 -20 -62 037 093 -83 017 031 -62 019 -68 -49 028 094 013 002 050 004 -88 015 -01 -16 043 022 -75 -100 020 -63 -58 -48 000 -55 -12 037 
-63 093 -18 009 -61 -97 110 -58 081 -74 -73 009 -26 -52 067 -64 087 053 080 016 -27 -82 063 021 069 -105 076 -61 -66 -62 -32 004 -72 -16 049 057 046 035 064 -98 -75 -36 -24 055 -21 002 -74 -52 -48 -68 062 017 032 -34 078 -86 -41 -87 061 000 -90 082 -02 049 
-62 -80 048 -29 055 097 030 054 002 045 -63 -104 -69 107 -39 080 020 013 -58 -56 026 -78 -69 -05 -67 -101 -69 -79 075 -76 -31 -88 -75 -07 -22 -103 -52 -76 -51 -102 017 -04 081 -88 055 042 039 085 081 -40 -68 -56 -18 038 -89 -95 -13 -81 041 057 -57 087 -18 -35 
-77 026 022 -03 028 057 081 -16 -36 053 -52 019 -75 026 -107 -51 -103 016 078 -74 019 -114 -30 -54 109 -72 050 053 -84 074 051 072 -59 050 -78 -66 -52 -53 -79 -57 048 -80 049 054 057 034 -33 100 048 061 036 -55 098 -32 -21 -24 051 085 028 -09 107 -103 -36 029 
096 083 -38 -13 -33 -40 063 040 020 006 -81 -06 -05 -63 -09 057 -68 -76 036 -09 -02 -105 040 071 060 -101 -40 016 -80 013 069 077 067 012 -74 -70 023 -79 016 019 -51 000 -89 -09 -58 058 -43 -71 -19 -78 -58 006 011 -69 046 079 -31 075 010 -28 040 104 -42 -25 
086 082 011 -03 -13 058 -90 014 042 -52 -33 078 -14 091 -97 057 081 -58 055 043 012 -56 -05 083 089 -74 -36 083 053 040 -34 022 -73 -56 059 031 -84 -22 -07 048 055 074 -103 -41 059 045 010 -48 -47 -25 -79 033 054 -60 -41 076 014 -102 -09 011 -78 070 001 002 
-41 -73 -68 -62 -41 070 091 -67 020 -25 -53 080 -64 -65 099 036 -100 015 -46 -14 033 117 040 093 110 044 -60 103 -65 021 092 078 074 062 -88 011 -86 026 -73 -38 -14 -22 099 096 -42 -86 061 030 056 056 -49 013 -61 -51 037 061 -07 -01 -35 -04 -66 -71 -61 007 
015 067 -50 046 -07 096 109 038 -53 -49 -81 004 055 -101 050 088 -05 -86 057 021 046 097 007 085 112 090 054 052 -26 -14 086 022 029 069 -67 090 -83 -40 074 098 078 089 -20 -105 -58 -63 -27 055 069 045 089 013 -47 -21 050 -95 028 053 013 -48 -27 -66 064 -21 
074 019 -78 020 057 -31 -26 001 046 -64 -72 110 -62 084 -03 -62 -33 015 -70 -61 057 036 -69 -91 067 -89 003 053 034 076 068 005 -68 056 094 065 005 -21 -70 021 005 085 014 -105 053 -43 -17 025 -72 -06 042 013 -38 -18 057 095 -63 -78 050 057 021 -100 024 076 
099 -76 -26 024 -60 004 009 003 050 -46 059 -32 034 028 -56 -33 -46 086 096 -16 010 027 -82 -43 091 -98 015 -04 077 -73 -08 -63 009 036 -69 -11 004 086 -21 -99 -78 -52 -103 051 -02 051 -79 -19 -42 -43 -18 065 101 021 -85 040 -39 -104 -31 013 -79 -23 -61 088 
-63 -62 080 -37 -67 -69 070 -13 016 -41 086 -96 019 -28 -105 007 093 001 094 044 -06 -23 -02 079 -83 106 -64 086 043 052 -82 040 -33 -61 -13 -85 044 -84 -48 070 010 -96 072 -57 -08 041 -06 -58 -78 -77 -17 016 040 041 074 023 -16 -09 075 007 108 -108 -23 089 
-90 -84 102 -04 006 -106 -93 -18 -14 068 003 -15 020 -63 005 087 047 039 -55 -18 -48 109 080 -96 081 057 -56 -81 032 004 040 016 -28 017 -87 -75 057 -87 074 094 -37 031 042 039 -06 074 -41 -76 053 -21 -49 043 070 -45 -42 -70 040 -18 -79 -58 010 094 -43 -39 
-02 -98 092 035 -40 100 -82 043 -29 -60 026 -112 044 -106 110 032 086 061 -102 -36 050 -119 050 082 098 -88 -74 -48 087 -29 007 -90 -60 033 -13 -40 -88 036 -62 091 034 050 065 107 -12 015 -80 -97 074 -09 -07 067 033 040 -44 -02 -34 097 034 004 103 -62 032 -72 
-42 066 -43 -05 009 072 110 -70 040 042 049 033 073 -99 077 067 076 082 017 -35 012 105 055 087 040 078 050 -48 083 -39 -99 -37 -55 057 074 -32 092 060 027 022 -16 -79 070 022 038 036 053 080 008 070 -12 -77 -57 052 -84 -86 -44 022 -77 -06 -102 -72 -71 042 
-89 067 062 -06 017 015 -65 -19 -82 -71 -73 014 -11 037 -105 079 -87 -93 -19 004 -05 106 -42 -89 -107 -48 -80 102 -74 -44 -67 -31 -01 057 -48 108 -29 062 -25 -90 059 -54 -20 -01 -45 -72 -09 013 008 057 -77 013 064 005 -87 084 018 087 -45 -23 -40 -89 -51 064 
060 -61 099 -59 -26 -19 005 045 -33 -53 -59 013 -10 -59 -50 -05 085 -05 -09 -53 -60 -116 090 040 -05 -14 -30 -95 057 010 -49 091 -72 -69 010 106 -40 004 014 -25 064 -74 057 107 -67 -04 013 -102 090 -40 089 -19 -23 -63 025 -49 056 -95 072 -08 103 -72 -16 -41 
054 -68 -77 041 -49 090 085 067 078 054 -98 -05 -73 030 -29 -23 090 -83 -101 -69 012 -100 -09 -67 083 -48 038 -91 -55 027 -36 094 033 063 -76 015 -55 076 -34 096 -80 -21 -93 -88 061 059 054 -23 039 063 038 -75 -16 035 -45 045 -08 -39 -77 041 043 089 018 009 
-63 -01 024 -37 -56 022 107 -18 040 065 -24 000 -58 103 -89 063 -86 -80 082 069 -33 -95 -55 046 075 -08 011 017 -74 -82 084 -63 -79 -28 -100 -54 051 -02 002 008 025 -03 068 -91 -43 064 042 042 -87 022 -62 -41 102 -44 015 016 043 -43 068 -33 091 078 025 033 
065 -78 -100 -46 -41 078 100 -32 025 052 -62 -110 -50 086 -84 -48 -25 064 001 -44 -13 105 -91 001 -36 -65 -43 081 076 -82 046 -99 -10 012 039 -99 090 -05 -30 011 044 -35 061 -103 011 -37 -67 098 083 036 023 067 -90 -69 -58 -99 012 021 -71 -57 -81 069 038 -63 
-30 -29 -03 -31 -51 106 -78 048 082 -74 -88 108 -60 088 040 -53 -52 -09 -53 -28 -32 -116 -58 020 -60 069 041 101 -50 042 -68 055 068 -07 034 -110 061 -41 -13 -41 022 070 -70 101 -63 031 061 -111 -17 -06 000 -28 -70 077 023 -89 005 005 032 -08 -57 -101 044 079 
-21 -74 060 -41 -14 067 025 033 061 -22 -21 016 -69 056 101 056 017 -31 089 055 -10 -33 085 015 -108 -24 -78 -81 068 009 -13 -95 076 049 -61 -111 -28 -82 -76 072 061 -09 100 028 045 -70 030 -62 -01 -20 -65 -44 -43 031 008 099 024 044 -30 -48 -15 -28 038 069 
-51 -24 077 061 035 -87 -97 -22 -84 -15 050 090 -67 -06 -44 -43 083 -19 -83 -53 -33 -82 -93 -31 -66 -48 051 032 057 -38 -96 041 -80 -44 033 098 -31 063 -75 -09 062 -24 -63 -84 050 021 -09 -20 -40 -73 -76 -37 072 059 005 027 039 -76 007 -47 108 096 -47 083 
070 023 015 -21 031 000 -80 032 078 051 -58 -23 -52 019 -53 -49 025 -77 -04 080 062 -115 -74 -84 -49 -25 027 086 005 037 -80 077 -26 -38 092 -94 -94 -79 005 -98 027 -49 028 -18 -01 -68 -39 115 081 -06 -66 -33 -02 034 051 089 -43 066 -48 012 -104 -73 050 003 
-101 -03 -82 048 052 065 100 044 054 036 -48 049 -47 077 -31 -86 098 105 -74 -32 042 -118 -47 050 -46 010 069 -29 057 002 057 -40 032 -48 -94 102 021 043 -24 043 011 -65 -13 -30 -02 -78 076 110 045 -41 -25 051 -11 -51 -84 032 006 -05 019 -32 -89 098 019 -91 
-96 034 -24 000 -30 -70 082 -46 -41 -21 003 -10 004 -06 -08 033 -62 -21 -05 -79 -20 -109 -74 077 054 -101 020 080 004 064 -67 -31 071 048 080 -18 -92 -03 031 057 -18 015 -102 -89 -42 078 -54 -105 -56 -23 010 035 071 -91 075 082 -50 -85 014 -51 059 -95 056 078 
044 -72 090 010 059 075 -96 -26 -41 -60 -77 -86 -16 -57 084 002 096 -53 -67 029 -18 101 069 -10 073 109 -74 056 061 -25 -63 078 083 -47 -11 -102 -80 081 006 094 065 -29 100 -83 022 -74 067 -92 -90 057 -48 037 -32 060 -44 041 -37 -66 -71 -40 -108 027 049 -86 
063 -84 048 011 059 -106 071 040 -32 009 054 038 007 048 087 070 -80 -92 023 -37 006 -68 -08 016 -99 -69 061 107 013 -24 041 083 053 070 -96 -62 -15 -69 061 031 004 -50 092 073 001 033 006 -46 034 061 006 -51 -49 -44 062 -31 004 -68 012 -59 094 104 051 055 
-69 -53 -25 -50 008 010 -03 005 -39 -15 -78 -97 -51 090 -83 -89 093 -16 074 070 048 111 -66 -81 -105 102 071 059 074 070 030 -41 -58 072 -26 047 -50 -68 -09 064 -49 064 090 057 051 071 -13 037 032 049 -60 -58 077 -92 046 -38 063 -44 050 024 078 -106 -25 048 
011 -75 005 -36 067 037 -79 -37 018 -65 -54 -34 026 051 057 -86 101 -60 -29 035 -06 016 -14 007 027 -20 -14 -20 080 -33 093 009 026 066 093 -71 087 076 -59 -92 030 064 023 -108 027 -14 005 -110 -93 -06 013 040 103 058 -54 078 047 -104 059 038 -86 049 -03 -68 
-84 042 -92 006 -18 -29 043 -59 -50 -76 004 -32 021 075 053 -70 072 077 085 -07 060 -117 -58 -38 050 086 003 -24 065 039 -90 087 -08 -01 022 027 053 -37 -01 095 018 016 -96 -87 -31 022 -34 057 075 070 009 045 088 047 045 -33 -30 035 -66 -58 039 102 048 014 
-75 068 -61 -51 -30 042 -48 -19 -01 -45 062 110 034 100 088 -90 -78 -89 -60 -03 058 -115 -41 -38 110 -24 001 057 -19 -60 006 028 -80 037 -09 -70 083 -67 040 -101 -84 -84 -27 001 -39 038 -05 -65 064 -65 -10 -66 099 -03 -78 052 -36 006 -69 053 -94 -84 021 -86 
-91 -97 061 -05 -73 100 086 026 -87 071 005 -104 -63 -104 -95 -02 -19 -26 -31 -52 009 002 -09 -74 012 -108 001 -105 018 069 -46 027 -79 028 080 -57 070 030 -24 -65 -77 -12 -72 -89 033 -56 -81 111 040 -60 -58 -40 -30 -65 -47 089 063 087 023 021 026 -60 013 -74 
079 -27 -95 -55 -53 031 072 -69 -22 075 -66 -81 038 107 106 -56 -93 090 -38 -27 -08 027 -54 078 111 052 -51 -105 055 048 006 -56 068 034 014 114 030 -55 -34 094 -84 -17 -75 -112 -48 030 -23 094 -73 -18 -50 015 -89 000 -26 083 060 -101 009 057 110 -77 021 -43 
-80 -54 068 -44 -61 039 094 021 001 -63 094 110 046 074 -28 087 -15 063 -90 006 065 101 -68 -58 089 077 073 060 046 072 021 018 -18 -72 -89 -02 061 082 060 091 031 -29 -93 -19 -07 087 -28 080 004 064 -102 065 -60 -62 050 -57 065 -97 -78 -56 -51 -107 -18 -86 
035 -66 068 -28 -67 -91 -58 006 -01 060 -44 -90 -22 -76 034 -88 077 -25 025 068 066 106 -93 074 080 024 -04 080 057 017 085 045 -18 011 -92 099 -61 -58 017 069 005 -87 094 -07 067 089 030 057 -86 -72 013 -72 -85 -43 030 030 034 -74 -79 -42 -42 -05 -41 -53 
037 069 -32 010 -12 -81 -99 -35 034 035 -64 -80 063 -89 -44 -04 109 -40 032 -78 062 019 -83 033 -111 -35 -42 065 046 -32 -37 081 -40 035 077 -12 042 079 -55 -03 -50 -54 096 -58 -62 -54 028 -41 015 -46 -83 053 021 -43 063 094 050 -27 014 -44 052 -101 -44 092 
032 -74 -42 043 -43 -24 -77 -11 080 -07 -37 -71 072 061 -101 -90 032 -57 -80 063 014 079 052 -23 084 -60 052 -103 -72 -51 -01 -70 055 -41 -31 -110 027 -67 -48 -86 052 045 -100 -93 -01 044 061 082 -86 064 055 -35 066 026 060 -64 007 -62 031 -26 -94 078 050 -52 
028 089 -97 -09 -55 012 -64 -28 -71 -21 006 -68 008 107 068 070 -46 -08 -96 -10 -02 082 092 -81 086 085 -33 062 049 -42 -82 096 -19 043 024 109 -20 -24 -51 -15 -07 088 100 -82 020 033 044 -63 -87 -25 -89 025 -101 042 -89 051 050 056 074 -47 -64 -105 -26 -96 
001 -55 007 002 -20 -95 -100 -28 039 -31 088 -52 057 101 110 -75 049 004 033 020 007 -86 -50 048 -67 -87 -07 -24 070 -46 -54 033 -33 -51 -37 -45 046 072 068 -25 -61 -90 -31 094 034 079 032 083 -67 073 010 -49 057 056 -67 003 -09 063 -58 045 -42 -46 -49 -49 
048 -84 075 -29 054 005 090 -59 073 020 057 -05 060 002 058 -53 -76 091 025 001 063 099 -28 064 -95 -76 062 -59 088 066 036 -87 -06 065 005 -66 048 -47 037 089 007 -72 -03 016 040 -34 -65 071 032 060 014 -49 -57 -48 036 -89 -34 -26 -34 034 096 -73 034 088 
088 043 -22 -63 -22 -35 056 013 010 041 070 097 -47 -30 -69 075 093 -78 092 -10 063 -119 -40 -58 107 -52 -59 094 061 -77 093 073 009 -17 -91 -116 -63 006 011 -75 -62 032 057 089 010 000 -07 -95 038 072 -59 038 098 -72 -55 078 046 -67 -72 -37 067 099 -69 -51 
-93 020 -104 -37 -43 012 -77 -26 -02 -15 -74 -89 -38 -49 055 -57 099 -13 095 -72 036 -40 032 -84 -112 -54 056 -02 -11 -70 -101 041 -76 068 035 088 -34 062 -76 -66 -33 090 -53 084 017 -69 -20 -14 094 019 -19 -27 -23 -16 071 -100 012 103 -12 -31 071 -108 021 074 
-24 -85 055 036 059 -87 -94 -22 027 -11 -87 105 052 -24 015 -91 -27 029 -96 072 -13 090 026 -77 102 090 -28 -103 067 040 -75 -13 -81 -14 -73 090 -01 -73 -76 -65 036 -24 097 103 -31 054 -23 007 021 024 -91 029 098 -41 -39 -94 042 -66 029 -08 -47 -68 027 036 
-101 -05 -57 -08 015 038 096 -41 028 -31 074 015 073 -103 110 038 072 089 088 -45 033 055 -07 -28 114 -43 067 083 046 053 086 -87 065 001 -50 008 008 -01 025 -38 023 009 026 081 033 -38 -54 -71 -85 -77 082 -49 -46 -87 013 -60 -33 057 -31 -05 070 088 016 037 
-30 093 038 031 -49 036 -11 054 -11 075 050 100 038 -33 -113 -79 105 024 -64 -36 045 -55 004 001 017 078 062 -101 000 073 -71 -22 -47 -24 -79 087 -83 018 044 087 -65 -86 -78 043 016 -45 -34 -42 -85 -22 067 -41 -15 -66 -69 017 -23 -77 076 -53 089 005 024 -86 
079 -31 -88 -66 -33 054 100 -68 054 -08 006 092 076 -21 -68 070 060 073 035 034 037 -51 074 -84 020 -61 -72 -105 -34 -67 -12 006 014 -36 091 -20 -20 087 041 002 -84 -87 084 -105 -14 -46 -70 -44 -66 -72 062 -40 -67 037 041 -96 035 -05 071 -53 -84 -74 011 017 
-35 -97 -70 -31 -42 097 096 -38 -29 075 -43 -92 -49 101 -19 -03 017 -27 -75 -54 015 -111 -91 077 111 069 -07 -81 -65 -72 091 096 021 -49 009 091 -93 -21 -05 009 012 026 -81 089 057 -85 013 -93 063 059 -90 -24 081 038 -33 -09 -63 -52 050 -10 020 015 047 019 
052 -32 -89 -54 -70 -30 033 -64 -83 -39 058 103 074 099 063 -03 -81 -97 -23 -34 060 117 091 088 -79 -77 004 004 -72 065 081 012 -12 041 -34 088 -84 085 -79 102 041 025 -82 039 -66 -09 -62 -89 015 -68 091 066 052 -61 -37 048 025 -34 -55 -51 028 -34 -52 023 
062 -45 006 059 -67 -90 096 -54 034 -23 091 079 -20 077 052 -27 094 095 -49 -15 -16 098 -68 -02 -65 074 013 087 -26 -10 034 -89 065 052 023 -45 -63 -33 -44 -83 -84 091 079 -103 058 -67 019 032 062 -72 -82 -15 -106 069 084 -03 023 059 003 022 010 077 -56 -98 
-10 -15 029 026 019 -22 110 005 061 -50 025 092 -11 -81 -77 -52 -26 -89 -82 -67 -40 117 032 080 107 107 077 041 -67 026 -31 002 025 037 -47 083 083 059 -72 -39 075 004 -98 -94 -62 -21 -74 -07 081 -51 097 -32 051 082 -58 -99 -39 026 -49 008 102 -46 015 024 
016 077 -26 054 -13 041 096 051 -62 001 048 016 046 -01 061 069 056 -20 -43 -39 -59 -111 -55 -94 -112 069 -51 017 075 062 091 -75 017 000 -27 -104 -79 -10 066 071 -82 018 -59 -91 -45 073 011 093 030 027 036 -19 -49 -04 -83 -71 040 -84 052 -52 064 -107 027 004 
-65 -60 048 015 025 008 -73 070 034 -65 -05 052 059 -07 -79 078 -13 -47 065 068 068 -72 074 -50 114 -60 074 031 075 074 088 -97 -41 024 066 117 017 -56 -74 -26 -82 086 073 055 053 -53 -18 112 -82 -69 -51 002 -02 -32 081 069 -19 -50 056 042 109 092 -13 064 
-33 039 005 -10 053 062 101 -36 072 019 050 035 068 081 101 -30 006 -74 066 067 -35 -58 -73 -14 -81 -98 019 037 -66 010 -10 093 -01 -70 -71 093 -88 -37 -41 -98 060 020 -64 071 046 033 069 016 085 -51 -63 -05 038 -44 009 -37 043 -84 012 -07 042 098 -48 -64 
-75 -20 029 -45 004 -28 -51 -44 -16 018 098 008 002 104 -60 -19 -92 043 -79 067 -25 042 -76 073 092 030 049 -85 -61 -26 062 077 046 042 -16 084 040 -90 -72 -80 020 -09 094 -84 -03 003 057 -37 -08 -68 -41 072 -77 -76 078 030 044 000 005 -27 -06 -61 000 -40 
