113 088 118 -89 085 -89 -112 -03 108 083 112 -128 103 -108 -110 078 080 -107 -113 -120 -95 -115 114 -122 109 117 116 112 120 -107 -84 -109 108 101 111 -115 -117 116 -79 -88 -116 093 -121 096 093 093 117 -102 120 112 059 -26 -73 -115 039 115 107 113 090 -87 -54 -63 109 106 
067 -96 -109 -109 -59 109 039 120 118 000 -104 077 115 108 110 123 -43 -88 102 -12 113 -111 101 119 -93 -82 111 103 -104 -114 062 119 112 -110 -37 108 -84 -118 114 077 116 092 -76 -20 116 -121 080 116 096 -06 115 092 -117 009 -114 113 114 102 -80 090 -110 -112 -109 056 
117 -85 113 -89 107 -103 108 120 114 117 114 -118 -84 -91 -06 107 115 110 098 105 -28 118 -95 047 -107 -81 113 104 087 -73 104 067 -116 -121 -61 051 -106 100 -116 100 -68 082 105 -78 -125 120 -89 099 114 -60 -113 103 116 116 117 061 -116 100 -16 109 -94 -100 -123 118 
099 114 101 113 -71 118 116 -101 118 112 -110 -112 -109 -115 119 084 -68 -125 114 091 116 -114 053 120 -106 062 113 110 099 095 -87 105 120 -44 082 088 -115 088 112 -112 -111 119 117 113 -122 -85 065 109 -98 094 -59 -109 -59 114 114 086 103 059 -109 105 103 109 116 -60 
