118 -54 101 -126 -125 085 -22 -96 -117 122 -19 -108 -106 065 -35 065 -54 -43 083 -32 044 -115 111 104 -67 102 -103 050 051 -95 -124 -62 -26 -123 076 -126 068 -92 -108 066 -71 020 036 -02 -19 -120 121 -122 -111 -122 082 -36 -65 082 -40 120 070 016 126 121 -115 117 063 116 
-91 -82 091 022 023 109 -126 -118 -116 070 -18 094 053 -24 023 050 -95 094 -82 096 086 107 -124 111 -114 -121 109 121 095 057 114 074 -84 099 119 -119 -65 093 035 -88 007 093 -71 037 -89 -123 -89 060 -108 114 028 -102 126 -122 007 -125 -79 -64 124 -24 011 -67 -36 -128 
105 -19 010 -124 -126 068 -35 -99 113 -11 049 121 -83 080 046 -28 067 093 101 124 -84 094 091 -101 -112 -83 119 -120 097 063 059 -22 -29 -121 -108 -126 058 029 075 -89 069 -119 027 039 094 -100 -119 -116 -17 -113 -60 066 -65 -99 -74 -113 119 -47 -79 110 059 -88 -108 126 
-127 072 050 035 -24 040 -15 -44 009 114 056 015 -109 099 -125 045 077 067 -91 124 -69 114 -124 -89 -22 065 -125 -124 050 -76 038 010 000 119 -90 091 -48 -68 -84 081 -79 -81 067 -80 -41 099 113 119 008 054 -97 084 -125 093 -89 -118 027 046 -128 -126 -119 117 -119 -125 
-121 104 116 -89 023 000 123 -79 -89 -123 110 047 -01 095 -116 -69 067 -31 050 -111 -68 109 -109 -107 -109 -121 -33 060 094 -71 -90 085 -02 117 046 116 078 -90 -49 029 072 107 -49 -56 046 -123 117 102 116 -112 -86 -31 126 -92 088 122 -15 011 110 077 -120 -42 -123 086 
-64 062 090 -31 092 108 -83 088 -110 -123 -65 075 099 090 111 -16 093 -115 036 090 033 -66 -95 094 -75 112 010 -125 -115 -75 -45 -41 -69 -15 -101 122 -58 068 -24 -06 -58 123 -69 087 028 108 -47 -10 111 -45 034 -30 110 097 -104 099 122 -43 004 121 117 115 -91 126 
016 -91 097 111 120 002 -06 031 -30 -74 111 -112 083 -10 -127 -18 083 074 081 -124 -46 018 005 -51 039 123 086 -21 -89 -91 093 -106 072 088 076 -126 005 059 040 048 048 -123 076 -76 -66 -56 -117 113 -116 -93 -37 052 -124 118 -63 114 122 039 -128 035 052 -101 -119 120 
-110 052 051 -125 126 -122 121 -88 -84 076 104 -107 -11 056 -124 -116 -63 095 -47 -128 072 114 086 -96 112 -123 122 -63 -100 076 106 099 091 -118 111 -78 -60 -78 -17 -83 -95 122 020 -63 041 -124 042 -117 035 117 -41 -37 -110 -39 -84 -109 -91 -62 -43 -101 -92 109 118 126 
-103 091 113 -123 -126 -118 -113 097 016 -15 -24 009 090 -68 111 -116 043 -82 -33 -125 -75 054 100 -05 010 115 -97 069 108 -65 108 104 009 -107 106 -101 076 -55 099 000 -77 -122 -78 036 037 065 -20 069 067 115 010 -07 -127 121 025 123 108 -43 -127 -85 032 -111 -90 114 
-109 070 083 064 -113 116 119 005 -102 -85 -105 122 -70 -01 -93 -86 -13 -66 -30 -104 -17 037 008 -83 053 -105 -124 125 050 100 -101 -108 039 -08 -35 102 015 098 093 -22 089 122 -28 073 057 115 114 -36 109 -104 031 022 123 -100 -41 -122 123 058 015 -118 -56 044 -104 -126 
109 111 -44 077 107 115 121 -94 118 -102 079 014 -110 033 106 083 -85 -107 -104 -109 087 068 096 009 040 125 120 113 -77 002 -95 071 -37 -18 109 057 -69 094 -75 000 078 -119 -28 -74 -71 034 -12 -116 114 -120 -10 -101 -126 111 -100 -21 -119 -43 090 -119 -116 121 124 118 
-126 031 046 -02 117 115 -91 -108 -07 -39 026 -96 -62 045 114 -95 -103 040 065 126 -53 -25 -115 -02 063 -121 071 -124 077 074 -31 090 -79 116 072 112 010 042 084 -19 -77 -112 085 041 -76 104 112 -111 082 054 -85 -40 -122 113 000 -71 -46 -39 -128 -93 -116 -115 -120 -122 
073 094 049 109 121 117 -24 066 038 076 045 -98 080 094 124 -96 115 047 092 090 011 -113 048 013 -107 -105 -81 -120 -103 -36 -86 -107 078 111 -111 121 056 103 085 -40 -38 119 -60 027 063 -61 120 -58 -81 028 093 -66 -55 -105 014 -64 120 -20 119 -101 -102 118 108 -117 
-99 072 119 121 -121 068 -59 -72 -121 020 034 029 001 -101 -119 -107 -108 -91 087 -98 -24 -66 -110 -43 111 119 -07 090 -93 -45 088 023 -93 -121 106 -102 043 102 -68 042 026 -110 041 -01 065 105 120 -120 018 -85 005 -102 -89 -53 079 071 034 055 122 118 113 115 119 -79 
034 106 -113 -108 122 119 -118 090 112 118 -107 121 -08 -08 123 -24 -41 -51 099 -48 011 -43 -116 -47 012 -31 123 -94 003 -89 -122 -09 002 098 110 -05 026 -79 025 -35 -03 -83 -26 005 -49 109 121 089 -06 -03 -97 062 126 -118 074 -116 076 -14 001 -110 116 103 -121 123 
104 -117 116 125 042 122 077 118 055 -68 114 -119 -89 096 069 042 105 -34 001 126 091 085 118 048 -22 124 -102 -76 095 015 -110 001 092 075 040 -42 -47 -71 -24 005 -34 044 096 001 -67 120 -117 114 003 034 -43 042 -07 -124 011 -87 096 051 076 -119 -121 023 115 -128 
-125 112 111 -65 -01 -09 -09 -41 045 -113 051 070 -107 049 -35 108 -118 097 -06 126 087 118 087 097 -26 109 -126 057 111 -93 117 -01 088 095 -114 123 019 -72 -94 -24 -16 093 075 060 -19 -110 -121 116 112 -104 079 -43 126 114 -31 -127 122 042 126 -125 -45 070 113 126 
-125 117 046 -82 -124 118 -97 043 105 124 110 057 -66 010 124 -105 -89 096 -22 -110 044 -69 029 -21 051 110 -114 -65 -72 065 071 090 -82 076 -103 022 -83 -96 -107 041 -47 019 048 -91 101 -106 085 041 -53 072 010 029 -122 117 -54 -80 -114 032 116 104 -109 -121 062 -107 
-118 -52 110 094 -126 -114 041 092 039 004 098 -121 -91 -96 121 -45 -75 020 028 126 -15 -110 -118 085 104 102 112 -126 026 -99 051 091 -77 121 061 054 075 091 103 -87 -75 118 073 041 104 060 -72 112 -42 082 -94 -95 124 -122 035 -126 093 -60 002 -32 120 -78 090 121 
113 -105 -107 -126 -88 -95 124 -94 120 124 -117 093 -38 -89 118 -73 020 060 -69 -128 -88 -118 077 -91 -90 117 -46 126 -60 -64 051 -66 041 -105 -115 -103 080 -99 -40 -06 070 -100 -23 030 -21 087 123 -82 -98 099 023 002 125 -112 -20 110 039 -38 -113 116 -103 -115 063 103 
-108 107 116 -109 068 122 -08 -86 -110 -73 -39 105 106 082 080 090 053 -90 -50 126 -97 -120 123 052 -107 -112 124 120 074 -43 -103 -74 040 120 -118 -125 -37 032 -51 063 -06 123 -74 -08 042 089 -66 118 -22 -94 026 049 090 067 -13 120 100 -04 096 -125 044 103 105 120 
-125 -35 040 -25 -111 -69 113 -112 118 -05 097 122 105 026 -119 -114 067 -98 -60 109 -83 -117 075 -27 -68 -101 -119 116 094 010 096 -55 069 008 119 124 047 054 012 -76 -59 057 070 -89 090 094 124 118 089 -85 -99 -21 -117 117 -62 -120 112 -64 123 100 122 079 -107 -124 
010 -58 -31 125 111 -123 124 -74 -40 -57 -118 106 -08 003 -105 109 064 -98 016 110 075 038 089 -115 -29 112 -115 056 -63 081 119 039 -100 -28 -109 -116 -31 -22 -94 003 -19 001 065 -74 -55 -97 017 113 -103 001 083 -05 109 -117 101 -109 092 -52 125 100 -82 018 020 112 
-45 112 -98 111 114 -27 -36 089 -110 -123 -77 -122 -51 054 115 092 114 -67 099 -94 071 039 -116 -98 012 -60 -54 121 -28 -11 117 -69 -50 -101 -100 -126 -85 -11 -21 -21 -58 116 085 -48 -99 -122 -08 -105 -17 -40 080 -61 126 119 077 -55 -96 -58 064 122 119 108 105 -120 
106 -58 073 -111 -118 115 110 114 -83 123 -109 036 028 -96 -112 -116 107 111 040 -121 -60 -113 083 098 -48 -123 -52 117 -66 007 119 -14 -84 121 -74 -47 -05 -102 025 030 -79 -73 007 -39 -87 -122 -51 091 073 -99 041 -31 -07 -123 -50 124 -122 -59 099 115 074 -97 -76 041 
086 -67 -109 038 -119 091 -127 109 -102 -72 076 -49 008 023 -59 030 -97 -21 095 -84 -55 109 -59 -45 -110 -125 114 103 091 084 112 -11 059 058 -97 -96 -36 -82 040 001 -43 -123 075 -16 069 094 064 051 -100 -26 007 051 126 -77 018 -110 -126 040 -11 122 122 114 -123 -107 
106 035 102 -124 -37 051 -68 -114 -62 094 053 -45 -110 -89 045 098 078 065 089 094 090 -80 -57 096 -108 -127 -100 074 104 068 121 -69 073 020 -117 096 -65 -104 -84 063 -30 119 020 060 -53 051 031 -51 116 067 -62 072 122 -118 038 -114 125 -42 090 -108 117 066 123 103 
-125 -108 -15 -43 -123 051 -104 073 081 -63 099 090 003 -61 050 040 -76 -60 074 111 092 110 122 -99 -75 -15 124 -48 003 082 -46 032 -94 -114 100 -118 032 025 069 018 -69 100 032 -70 050 108 -37 111 096 102 012 067 118 -105 020 015 -101 018 126 -127 110 -16 -104 -128 
046 -63 028 121 -81 -19 -110 -60 -105 -102 -116 121 -76 -09 121 -21 033 111 -29 120 -64 -118 -23 036 -94 -38 -96 -94 033 034 123 073 -49 -116 024 100 008 110 059 -71 063 -86 -08 060 -20 -124 -121 -117 056 -116 060 -42 -124 -112 045 111 025 -53 -127 -109 116 013 123 116 
087 -86 -107 123 -127 -91 101 093 103 -67 -43 109 -28 089 -110 -25 -114 -114 047 125 -98 122 -110 062 -84 -77 011 -123 -103 -59 108 -105 -95 074 -81 -99 080 100 049 070 -74 -124 092 066 -80 -121 063 115 -72 -117 -26 -07 -90 069 105 121 -60 -52 -121 126 -97 -115 120 -127 
-114 -95 056 115 -108 -64 -90 -120 082 -69 -28 116 073 -60 -126 -60 017 053 -24 091 064 085 083 108 103 -47 -124 -118 066 039 097 092 -84 107 -88 120 -53 096 028 -43 -90 -71 -25 -04 078 108 104 063 -64 -82 -85 092 -114 120 -106 -65 075 034 117 -126 017 107 057 121 
-127 -110 059 041 037 100 -125 -97 043 -125 010 122 034 004 -41 078 099 -07 -20 092 055 059 036 050 -111 081 -65 -93 019 -04 -70 -91 -47 108 105 -108 011 080 087 -05 -45 -46 -15 -71 020 -04 007 060 -04 072 019 004 -41 -121 050 -119 117 036 115 -122 -120 -02 053 123 
043 039 045 -104 -127 119 124 -78 -40 119 114 -114 109 -26 -119 -110 115 070 -08 126 -44 115 -116 -87 -73 123 -55 114 -30 090 -120 -05 003 -122 094 118 -03 091 -52 061 -54 123 051 080 -93 121 -74 -110 -57 -98 033 -62 107 121 089 034 -121 028 100 124 108 053 -23 125 
-121 085 116 -93 -127 058 -104 -118 085 -56 099 -108 018 -27 -64 -103 064 -101 -101 120 -102 -75 -124 -73 048 -119 123 116 099 038 -121 003 031 077 040 071 -69 076 -106 -68 032 123 045 -46 -80 -120 -103 083 092 107 045 -36 125 -43 000 021 -104 -58 -107 115 -62 -110 -102 -127 
071 057 119 123 -109 030 104 -107 -109 123 -121 -67 023 081 -107 112 076 101 -102 -128 018 117 -89 093 023 -125 124 -126 077 -88 095 -11 -86 058 -79 -121 -29 021 093 006 -37 -124 -62 -40 067 -115 080 071 -75 -78 -03 -84 -126 -28 040 -80 121 050 -122 124 -52 024 -111 -12 
-100 -86 015 125 105 -85 124 -09 087 -49 -120 -122 012 066 122 -81 -79 053 -104 124 077 119 -117 077 054 122 -117 031 -04 -68 050 -81 079 116 -48 -121 -69 095 -100 078 -77 -119 074 -68 -77 070 -118 069 -29 -107 073 009 110 012 -07 -124 -73 -25 -128 071 -106 053 083 126 
-127 001 -01 114 118 -124 -47 -101 096 122 -118 -98 055 084 117 -113 -77 -114 057 -113 -87 -36 -77 -107 -95 -34 -02 007 104 024 087 059 -94 095 004 -91 -55 -16 -91 -42 -39 008 -86 -18 -88 -119 120 020 -102 -108 089 -77 -107 038 098 113 114 -40 126 -126 -108 115 117 -118 
-118 087 -60 -48 -117 050 -120 -43 073 -123 -115 -12 -85 091 100 025 007 051 086 -104 065 121 -117 -113 035 124 076 -98 029 043 092 -109 046 -22 -108 111 -68 -100 053 -27 033 -119 -96 -56 108 -109 -121 -58 031 -94 015 -82 045 -115 -87 -63 -107 015 -89 -118 -53 -115 -114 113 
124 -102 -78 -92 -60 043 -91 101 -85 -122 098 -88 045 035 -70 -116 108 027 -102 -124 095 058 -125 -98 093 000 -107 -112 040 084 086 -41 014 109 -63 -42 032 079 062 -61 065 122 020 043 085 -29 106 -36 103 098 -67 086 075 -122 -21 -61 -44 -23 097 -122 -108 111 -115 -114 
121 -92 -65 124 066 087 108 097 121 039 045 -23 -54 084 124 072 114 -29 098 -127 085 -79 -98 111 -45 -09 -118 -95 030 -50 119 061 -11 108 -84 -15 013 -78 -09 -81 -27 120 -100 -28 -83 066 116 067 -71 -105 038 -27 -125 -90 090 125 118 033 -124 111 092 -103 109 116 
010 042 001 123 -127 -120 -88 -50 064 -106 -119 085 -33 -02 -115 079 109 -98 095 126 -92 -101 067 110 -85 117 118 063 -43 083 115 108 -88 -112 102 -106 082 -88 -85 074 -19 118 087 050 039 008 028 -08 -101 -16 067 047 052 101 -89 097 091 029 -54 123 104 074 071 117 
121 -107 120 -107 094 -98 -55 111 118 -89 120 -96 084 -21 -118 -85 -116 053 -98 100 037 089 070 055 064 -117 -38 121 081 065 105 -104 -94 -44 062 -127 -79 032 -08 -30 -08 081 -35 -74 -89 107 -118 -103 114 -119 083 -87 -127 101 104 -121 -76 -17 126 097 -107 -103 -89 -113 
105 010 -107 -92 119 -17 -03 -42 117 -113 098 -107 -78 063 -48 008 056 028 026 -68 076 -93 -124 112 -17 -37 -52 122 -44 -42 -69 -71 -07 082 115 -63 008 021 087 -55 025 -28 -54 -65 023 -11 -117 -101 095 118 -91 038 -83 062 100 -127 112 052 -125 -88 111 -104 -117 -12 
-117 070 -98 060 -20 -26 -126 022 -89 085 038 072 -58 068 -119 -64 053 114 084 111 079 122 -124 095 104 -02 085 124 -100 -96 -118 040 -77 115 116 -55 000 104 -05 009 030 034 014 076 -40 -113 -115 008 -114 -108 -68 102 109 -11 024 -114 006 -26 123 035 073 -121 -35 126 
-126 -109 089 109 -110 088 -103 108 -66 -123 100 107 -01 029 045 064 114 042 -64 125 -03 072 -111 027 -108 -118 -68 -122 033 -87 -52 064 094 -53 109 -41 -51 069 007 080 -77 -17 002 -58 -27 -98 -122 -115 -35 102 071 -88 -08 -114 -16 097 -122 -16 -128 124 -121 -21 108 111 
082 063 -55 -102 -126 -74 124 114 -117 -121 -108 -76 097 086 075 077 -65 -65 039 -119 056 -112 -94 -96 -95 074 122 -33 106 082 -63 017 080 034 -92 -52 -46 032 095 084 -66 -106 087 -82 -34 -120 122 -38 059 119 -11 086 -117 084 036 055 -120 -58 122 -115 -91 -112 051 -112 
-120 115 -99 100 121 -41 124 097 028 -104 -24 -121 -32 -88 123 -116 -89 -92 -78 -127 -99 119 -122 112 -09 -121 065 125 -53 -76 -117 -37 036 024 096 056 008 004 038 025 002 -15 -11 052 -81 118 119 -117 093 066 018 -49 122 119 -77 056 119 034 -111 -13 122 104 -100 120 
-127 112 013 -49 -120 -64 107 030 -83 098 -36 -96 -29 064 118 115 -18 -114 -34 -117 -97 121 120 025 -109 -45 -99 076 -105 -44 -17 074 -94 119 118 -90 017 -03 056 079 -17 078 -12 -84 086 -92 112 112 097 022 079 -58 002 -110 091 -125 125 036 -113 111 104 013 123 -127 
-12 -103 119 -64 126 -100 125 082 -48 077 -97 -87 024 063 089 -116 -106 -101 -54 124 022 -124 108 -67 -27 117 125 -73 061 090 047 -112 088 114 031 -100 -27 -12 108 041 041 -113 007 -15 086 -101 108 -120 -94 120 -89 023 -124 004 022 -80 126 039 -36 055 081 -65 123 -97 
125 106 -17 -125 -126 118 092 -118 -122 121 -22 -108 -92 019 005 094 -91 -20 -20 118 077 -120 121 033 -67 122 -71 111 040 -91 110 020 066 -43 110 -124 -44 104 102 -87 -85 -104 037 -67 059 025 -98 120 -35 -14 -90 -90 -128 -35 084 125 122 -32 124 120 -14 051 029 -36 
-57 -62 -100 -28 -125 -90 123 067 106 -124 113 096 020 098 008 -76 -116 -102 -43 123 084 002 122 -100 -36 -126 080 000 014 -83 116 -85 -98 -73 031 -126 -72 -69 030 -52 -33 -37 080 042 035 -121 -104 109 -87 -114 042 070 -110 -107 018 125 123 -64 -62 -41 087 118 -97 -124 
003 099 -94 122 -123 113 106 -86 -100 043 -120 121 -58 099 112 -38 -105 -54 035 -128 036 120 122 -90 -100 124 -116 097 047 031 074 103 002 044 089 121 068 088 014 -42 073 093 -59 -86 105 -106 122 -119 -120 052 003 033 105 061 041 -53 -123 -62 -50 -98 083 108 -85 116 
-112 -77 114 -91 071 100 -92 -120 024 -118 115 -123 -107 -75 123 106 -102 -94 -61 -128 028 -124 -102 111 080 102 -110 054 017 -13 109 075 -19 066 -10 116 081 -91 071 -52 -44 -99 054 -79 -75 051 -112 120 088 -55 056 -88 -128 113 -110 -95 -87 008 -119 085 113 -124 114 -128 
-45 054 094 -126 121 091 -72 -117 112 -120 -93 016 039 054 070 071 116 -06 052 043 037 -112 -98 -08 007 121 005 -126 -100 -79 -58 084 -33 099 -116 -30 -65 -104 037 -79 085 118 062 -12 082 -92 074 -113 060 077 056 058 -73 -21 -86 -127 087 050 126 110 -70 119 070 -72 
-91 -105 -24 -94 -120 -123 125 045 -59 003 -118 003 108 057 104 017 -80 108 -86 110 -40 -100 062 -108 -67 123 -30 106 062 054 -107 079 -85 -117 -90 114 083 -35 -101 -78 -83 117 -45 018 -75 -121 048 088 059 023 -30 033 097 -124 -94 118 118 009 120 -104 -81 -53 -116 125 
068 090 -108 125 110 109 -108 031 -104 -57 041 -83 -16 069 -123 -64 070 -100 -78 -108 -37 105 -80 -105 100 124 105 -109 -67 -26 -119 -09 027 -122 102 -66 035 092 -97 010 049 -110 082 -22 -68 089 -105 036 031 -19 -93 060 -114 124 059 -118 -88 054 -100 124 -66 061 -118 122 
-119 -57 -96 -30 122 092 125 -113 -73 111 116 -113 -112 -01 -45 -112 100 113 019 -61 084 120 -32 005 -108 123 124 -59 -15 083 -91 -90 065 076 -117 080 080 -64 -83 -15 021 073 057 -49 -25 101 052 -120 108 071 -08 -46 126 106 -80 -43 124 -11 116 -120 122 117 061 -127 
-97 115 111 -79 096 -92 -96 -113 -13 092 -95 031 -111 -15 -111 -112 092 -68 052 -125 038 -56 082 -102 045 099 -103 -126 047 024 121 -112 046 019 -113 -108 -26 037 -18 060 -91 104 064 023 025 082 -106 120 094 082 -94 033 -109 -30 -102 -94 -124 -38 118 116 042 104 116 125 
125 -111 120 -85 031 094 -93 099 084 123 018 -40 034 -16 -92 092 -63 -22 -01 -117 -93 -98 084 073 -108 095 120 -81 -16 065 101 -109 -02 107 -103 119 077 -28 -27 -74 -76 121 018 -70 -95 -118 106 -67 109 -88 -58 -70 126 -80 -85 119 125 -57 123 -101 111 -120 082 119 
121 -97 -67 119 -84 -73 120 -02 106 -95 117 -94 106 -95 -122 -58 -37 -98 071 -103 -45 -88 120 -06 -112 104 -126 012 -101 -49 -113 -105 096 -93 -89 -35 026 065 -60 012 076 116 088 -55 012 -27 -110 -107 117 090 -16 089 -125 112 027 -93 -113 -63 -127 -85 122 028 119 -128 
087 -73 040 -97 -127 086 -73 -100 -01 -113 083 -33 087 031 106 -94 114 -31 025 -126 080 -117 120 -112 084 -125 -126 -79 -114 086 -93 -53 085 -113 -90 110 074 052 104 041 -21 -86 005 036 099 -117 123 056 069 061 -94 -99 -85 -112 -85 058 -91 057 -70 090 -123 114 -113 -34 
091 -72 -90 005 114 116 124 116 -19 011 042 -120 -06 089 124 -101 -68 109 -81 -128 -82 -54 015 084 -94 118 021 -90 -114 004 036 034 086 112 -119 118 044 041 -106 056 039 -52 045 -40 -23 121 -114 -121 -01 -79 084 -73 -123 091 -66 125 -64 014 126 083 114 -42 099 -127 
023 -86 -89 -124 -120 -74 -120 -81 068 122 -53 116 -102 062 -105 090 106 -59 053 093 -71 -44 -02 007 100 023 -112 -122 114 -89 -41 036 -101 -73 080 018 -12 093 068 058 071 -114 -56 -40 -63 095 -100 -119 -116 -119 -18 013 049 -96 091 125 108 -64 126 -41 120 114 124 -112 
013 096 -73 -120 -60 032 082 -82 114 095 -110 -115 -84 -100 -89 -99 -80 082 022 070 -18 117 -58 091 -100 095 121 -122 -40 -82 -50 -07 -99 120 080 109 -75 -109 -106 -32 041 -54 096 062 027 -02 123 -16 103 066 070 -54 -92 -124 107 041 090 044 125 048 -111 -87 056 -124 
124 100 118 104 -38 121 066 100 -99 -117 117 065 108 -79 -126 -117 112 078 062 -104 -62 042 -123 108 103 112 -125 122 -97 065 016 098 095 097 075 027 064 -97 -34 004 -04 108 -30 -32 100 -123 -11 120 033 -112 -80 -86 122 090 064 117 125 042 -117 -127 084 029 022 -124 
-113 -97 112 109 123 113 112 -113 -120 110 118 119 109 063 017 064 -109 -111 -31 118 -101 -25 056 -21 042 -86 122 046 -86 -42 116 106 094 -120 -97 085 076 077 106 -17 091 -55 -68 -19 082 -70 -12 021 068 088 -64 -103 -85 076 034 008 123 -52 122 -121 104 -108 -113 -122 
-108 082 087 124 099 093 -120 -85 099 -122 119 055 104 -60 -112 -13 009 -111 -80 -127 -100 001 118 -15 -07 109 -118 -124 -85 011 -47 074 -84 -115 -05 -120 -54 -92 -38 074 056 -60 -39 -49 -86 104 -119 -120 112 115 090 097 101 -06 083 094 -125 059 123 124 111 001 -124 -111 
029 -51 105 -127 124 110 058 -85 055 -125 111 121 -92 030 110 111 009 -109 -80 -128 -20 -108 -43 -26 -110 121 080 100 035 039 120 -85 039 095 117 104 -81 -51 051 081 -25 -80 075 -65 054 011 018 -118 118 -110 -81 -88 -128 102 -77 -126 -14 -04 125 -126 103 -17 099 125 
019 042 037 -97 097 036 -125 005 113 124 114 116 -28 -95 -98 101 -120 -104 -63 -111 094 079 -119 112 104 -107 125 -85 -108 099 -125 051 010 -83 084 -69 040 -56 -27 -29 063 -15 -66 081 089 109 -74 055 117 113 051 -33 -119 -121 049 -106 116 008 -103 098 -100 -117 125 -95 
-126 -30 -91 124 -126 -32 124 116 -74 -125 091 007 -106 024 120 -64 092 078 -84 100 057 -06 089 -78 069 -121 -122 123 001 092 035 080 -02 110 -31 -71 077 046 -38 021 078 -123 089 -08 -77 080 119 069 -79 004 089 -22 076 -121 -33 -122 119 008 089 034 -89 -88 062 121 
-115 -78 -114 124 108 048 -69 -92 097 -115 097 122 057 -61 115 -107 118 080 006 -97 102 012 -62 116 107 -102 -107 -61 -91 096 -112 -97 063 047 081 -93 075 061 -71 070 028 -01 -01 -79 -79 109 -57 073 005 081 -86 -51 126 -112 110 -123 -121 056 126 -82 124 121 -103 -116 
-105 -80 119 -120 114 -123 -101 -10 063 069 062 -94 -83 051 -105 062 087 -79 042 -126 018 -85 111 -53 021 053 -111 -112 109 -47 067 -81 002 -47 100 -126 -59 099 -78 -74 031 -114 -98 -84 -61 067 -106 105 078 116 013 -95 126 -122 098 -67 -68 043 -81 102 124 -100 -64 -102 
000 053 -47 116 -127 082 -78 109 -119 076 -93 042 -110 -56 118 -40 -108 086 -98 056 081 006 110 -53 012 -124 -22 -61 -114 046 -60 -62 -31 107 -46 -108 068 -97 -84 031 -92 -116 088 086 007 -120 116 -90 031 -75 -63 -98 -127 -15 026 -116 -107 -61 001 -126 -122 116 -113 124 
097 -07 -120 108 -85 080 124 -61 098 -121 070 -107 -31 021 -113 097 -32 095 056 119 009 -45 -115 -35 -67 -124 -17 -122 -111 -03 080 -07 -93 065 110 121 077 082 -101 -52 -29 117 -73 072 -103 -107 -58 062 -70 -111 017 055 109 096 063 125 124 026 093 086 -34 -118 121 -12 
-25 082 -98 123 -96 -70 125 081 -122 101 119 087 -58 060 111 113 -69 106 090 -126 -27 -123 -67 -94 -12 -124 110 -48 -55 068 -83 -109 -67 -112 -74 116 010 -74 -31 -14 -28 -13 094 -45 -54 120 098 -17 -100 -87 -80 -83 -99 045 098 114 003 -51 126 122 048 -33 -111 116 
084 001 107 -120 080 059 122 -62 -02 054 060 -25 -09 014 -122 114 -109 -99 -80 -119 060 -109 -115 082 109 009 098 072 038 009 -122 044 -92 115 110 053 005 -02 075 -34 -12 017 070 -35 -28 091 120 -03 116 -14 -69 086 086 -98 086 -116 -79 -30 -128 -116 121 -09 113 -54 
102 017 -27 -124 120 -124 125 117 -42 113 -33 -58 -87 -37 -35 075 -102 114 094 077 096 -82 063 007 -80 124 -125 003 094 -81 066 002 -97 112 113 -01 055 044 094 057 -27 -106 -70 054 029 021 -10 -111 -55 -69 005 -07 -47 075 -79 -127 108 045 119 -49 088 -118 061 126 
123 100 -104 -72 -64 117 110 -118 119 121 107 -84 -89 -93 114 072 -81 085 -65 099 075 -32 104 092 108 033 -121 120 070 087 088 -43 064 122 -115 013 064 -31 -91 081 -76 082 088 066 038 -114 093 048 -42 -29 -82 -47 -44 -121 107 114 115 -59 -127 -106 052 047 104 -126 
105 -114 -115 125 124 -47 116 -86 -116 -80 -72 109 104 014 -125 088 -23 -91 -59 122 071 057 077 -68 -106 -124 090 -71 -07 081 -124 025 -71 046 -76 110 -71 092 101 008 -78 -40 -27 064 093 090 -95 -79 113 -110 -10 041 020 120 -87 -109 116 -09 -105 119 -109 018 100 -111 
-116 -109 016 075 -123 -97 116 083 -114 019 -105 -08 -107 -31 090 024 095 -108 080 -73 -18 085 108 -80 100 -125 -98 067 -81 060 102 -99 052 111 -16 -07 -40 105 -80 083 -32 -106 033 075 048 -103 -112 -97 077 -79 083 -19 -126 -115 057 059 089 036 -128 115 -123 -85 -120 -121 
-86 042 -16 -101 125 122 -124 -71 -120 116 -69 106 -110 -76 -103 -87 073 070 013 075 074 108 -23 051 -110 121 -106 -108 -89 -72 -108 -75 -88 -42 110 -123 017 082 080 -46 -75 119 -58 077 104 111 -72 -65 088 021 -41 006 096 118 016 124 -87 -63 -128 123 -113 -64 060 109 
-14 -114 -76 -115 053 079 123 083 039 109 115 075 -91 071 124 056 085 084 -20 -128 -94 097 065 -34 059 -126 124 125 108 -48 116 094 -39 -102 -39 110 -23 040 108 -44 -05 -122 -47 041 055 -106 -103 -112 -74 095 -98 102 125 -57 -101 114 112 -47 -128 -124 082 039 119 126 
-56 -102 119 -64 -19 -115 122 118 -117 -121 119 -117 068 099 -106 104 068 104 -08 112 -22 122 106 -66 -109 -97 -110 -115 -102 066 -74 -109 -49 -111 044 -114 -43 -96 -65 -56 -21 -122 013 007 078 071 -19 054 -90 -108 061 045 126 -116 -100 -83 -76 -36 -102 115 -95 097 -47 117 
081 103 108 -127 -109 -97 -125 081 034 -119 099 -56 071 -92 -124 071 -92 -111 -57 106 035 116 -63 -23 -66 -20 004 -66 -104 -87 028 057 -86 -90 -60 -92 -83 058 -110 051 079 -115 -72 -36 084 095 -45 119 026 -98 -100 098 -118 -120 -109 -99 121 -38 102 105 -25 114 096 106 
100 -64 -14 -22 -107 049 -126 -115 -101 -102 -95 -108 045 -02 -103 034 -56 096 -98 125 -89 -31 -87 -109 038 -88 -87 -23 -104 -29 -47 033 -36 118 -60 122 008 -50 -41 -73 -70 -118 047 027 -19 -73 -97 087 004 096 081 053 -118 -113 -26 -10 -108 005 126 -116 -121 -119 123 -126 
102 116 -109 116 120 122 124 -64 044 -125 075 -122 -73 -23 -95 109 110 -09 097 -128 055 -124 101 -54 -33 -94 -125 120 -73 069 122 -84 -94 120 -35 -39 -18 023 -93 -17 -61 002 -98 -08 -109 -108 116 087 -117 095 -49 -71 005 057 -102 085 -93 056 125 -121 091 120 093 -29 
-34 -105 046 064 115 118 -31 -80 -48 -60 118 121 -29 -100 -123 014 -100 -65 089 -127 -30 079 122 -96 -105 123 084 123 109 049 -95 098 098 -117 117 064 054 045 -17 -57 -64 -95 057 -76 -59 058 -87 -119 111 116 -44 -25 -60 036 -94 -72 015 007 126 -125 -123 -55 062 -128 
123 -49 -107 -91 -127 091 102 -114 087 100 107 -120 055 -86 097 092 115 106 -62 114 -101 -123 -111 -103 -45 112 115 109 -85 086 041 -95 -77 -107 055 122 030 -17 047 -34 092 -122 059 024 093 -85 122 079 084 079 -94 087 -46 118 093 -109 125 -65 -128 -121 -120 112 -48 -127 
-123 044 -102 -25 070 041 105 -44 071 -115 -78 102 -23 088 -98 -27 -58 039 -77 -101 010 093 073 046 -81 076 -126 106 -68 -95 049 023 -83 -82 119 -46 -24 -95 -104 053 -64 111 078 081 076 091 -76 -123 -89 -118 -75 -76 052 081 -74 -54 124 023 122 -32 -115 -119 -115 -127 
044 110 -114 124 125 -119 058 040 -67 -80 -99 -111 -100 -66 094 -63 -61 -107 -93 -128 056 -21 107 -41 -74 -125 105 036 -95 -94 024 105 -43 118 092 -123 -25 105 -97 027 -94 062 -83 -73 -28 -14 -61 -116 110 020 -97 -42 121 095 -32 122 108 -61 -61 107 -57 -114 -122 110 
121 -86 -101 -57 094 120 126 065 024 013 -113 -100 -43 028 -121 -109 117 107 -28 -69 -80 064 105 094 031 -115 049 -100 074 -77 -98 -33 -98 114 -78 097 -61 -71 089 -86 -85 115 057 -20 -54 109 -53 -120 -81 082 -71 -42 -110 -94 036 -118 -111 -52 095 -119 110 005 -120 -125 
-112 -42 082 124 074 070 -84 096 119 -110 088 -35 065 054 055 014 006 -102 032 042 -23 016 014 105 089 116 -57 114 087 034 -114 085 -55 047 070 089 015 095 -29 073 068 -123 081 -76 073 084 047 -111 -77 022 -89 -80 -106 106 030 114 -109 -44 031 -122 054 -28 -96 -90 
-50 -115 -113 120 125 075 082 114 092 087 -44 116 069 -69 -126 071 115 -66 -84 -83 -20 -121 -114 -108 001 -97 110 108 081 -61 -111 -20 -74 -119 -63 122 -42 -51 106 001 -49 101 -41 -35 092 110 099 011 -78 098 010 038 080 123 -92 124 -102 -61 125 124 -19 100 081 -103 
-125 111 004 112 101 -101 061 -32 009 -123 -32 -97 -49 104 -114 101 -86 087 039 119 -88 -112 090 060 -109 124 -27 -49 -93 -59 -109 038 -17 -78 082 -124 -79 066 -91 -65 -90 121 -36 -17 050 -100 031 112 -120 112 062 -94 121 -116 081 030 -92 024 -90 082 059 031 -116 124 
-102 -103 -90 118 118 -33 -98 -43 117 -74 046 -117 107 092 123 -95 079 093 091 -115 005 122 -115 -50 086 -95 -52 -125 -15 045 121 012 049 -20 101 119 -81 104 -45 063 053 118 077 037 093 -95 -66 084 095 087 -85 -83 098 -67 -49 007 -40 -57 -114 -116 094 -112 -121 -127 
122 -58 -65 -126 -66 -49 125 -59 -90 104 092 -98 023 069 -51 046 070 -61 000 -122 060 -122 -101 089 -90 124 -121 -88 -87 053 -114 -79 057 096 017 119 -70 106 015 -80 -85 119 -79 -47 065 -49 -101 120 -92 099 -96 014 -108 119 068 118 -113 001 -73 -102 -47 -96 -119 126 
-68 074 -111 078 -116 102 -81 -63 -70 122 041 -111 -69 -101 121 -79 099 -42 -104 125 -101 -09 071 -107 085 123 -113 -125 088 -59 078 -25 -02 -117 -117 -69 015 099 075 078 047 054 049 011 -82 063 -17 -76 -02 -30 -93 100 -127 120 039 -126 -91 037 -127 086 -117 -120 -108 -54 
009 032 114 -47 -127 076 -104 -67 105 -121 117 060 -111 -58 -116 -116 -118 -54 010 126 -87 -103 119 -46 -23 124 114 -60 -112 075 -50 058 -06 -16 -41 -21 -73 -15 101 058 -40 039 045 -64 -87 119 -113 -42 005 085 -50 048 101 -72 -85 001 124 -50 125 -93 -124 088 -81 -56 
-85 -90 -101 111 096 025 -120 114 -97 027 018 -119 108 -87 117 -110 072 -115 -68 -60 087 100 005 -73 046 124 -101 -82 -95 076 -92 105 090 -113 -35 112 056 -102 -23 049 058 069 -75 -43 101 -102 100 -105 109 -118 082 -35 123 119 107 -123 -124 006 126 073 100 113 -71 -124 
125 -91 -41 125 -119 -89 000 091 083 038 -112 -118 -107 074 099 102 -115 -103 055 -103 016 118 -104 -69 -03 084 -105 125 116 050 110 067 -29 098 -113 057 001 074 -02 -90 -38 122 -87 -14 062 118 090 -51 -98 100 -97 -14 093 041 066 003 -113 053 -104 -125 -73 083 -89 -104 
124 -78 -48 124 -125 -71 -125 116 -09 -39 -99 -109 -57 -90 -93 -99 043 -36 -76 126 097 075 -09 025 -105 -121 118 111 -19 -52 102 104 034 -102 057 021 065 036 010 035 -81 123 -03 -37 078 -116 -124 098 111 -70 011 074 -124 -25 107 120 061 061 028 -42 -103 -118 -124 080 
-126 -66 119 115 -116 -124 -126 113 117 088 097 097 -98 027 -115 -114 -102 104 093 039 098 -107 101 -21 015 -110 124 -15 098 -87 -108 -96 087 -106 -82 097 -36 -66 -20 003 -74 121 -81 -71 -49 057 -105 -115 -115 083 020 014 127 091 093 123 -118 017 125 -95 104 -111 -66 098 
-116 040 -36 -124 -78 -26 -17 -87 105 122 -78 038 -110 -47 -71 -114 -117 -37 -09 -45 -103 -111 104 057 107 -59 -106 114 106 095 -124 -110 006 114 -17 101 -31 -11 -98 -76 021 -53 051 033 -58 121 026 025 083 -91 086 087 -128 049 086 045 112 -01 118 085 028 058 -95 -124 
-123 111 -118 -21 -27 -85 022 024 -117 100 000 115 072 -78 -119 114 016 083 047 -127 -30 -69 -81 -108 088 112 -122 -56 109 -89 062 086 000 114 -118 -112 067 055 091 -46 -63 -122 017 -18 -65 -99 -118 -18 105 106 077 -93 011 -65 100 119 125 048 -63 025 011 -112 -115 -45 
-104 031 -113 116 109 119 -56 -91 -116 -119 -107 -26 032 023 093 -56 114 047 -69 126 -62 119 112 099 -72 -125 -117 101 112 089 107 086 -20 -109 -23 067 032 077 -73 -16 -11 -53 -59 -68 096 -67 -116 073 077 097 084 -104 -112 -115 -103 122 123 -35 124 117 069 -07 081 -112 
-126 113 -80 -12 -50 -34 -97 083 -77 108 -19 072 109 -100 095 -60 -90 073 -41 087 093 -59 -98 -101 070 076 -127 112 093 -06 -115 -77 -03 016 111 -109 060 -24 -32 012 -82 103 082 021 012 -120 006 -93 072 -83 -09 -11 115 077 -102 083 -105 -18 -92 -124 -88 -104 062 126 
-125 -72 005 123 -94 -123 109 -32 105 122 050 -122 090 001 -119 027 -116 114 068 -110 -64 -88 065 -106 -05 -122 008 110 094 090 037 092 -86 115 -117 059 022 007 107 047 074 -125 085 -25 -49 115 123 041 079 118 021 -104 096 -116 -103 -62 -125 -24 050 096 -109 -105 117 126 
092 -67 120 -73 096 -119 -14 067 063 -66 098 -47 072 -85 117 -114 -110 080 052 -103 -91 092 115 -28 -115 -73 082 126 116 083 -124 072 -62 113 039 -55 -84 092 -73 061 -15 -123 -30 -85 -83 -46 088 -95 -97 -108 -26 -63 -123 102 102 -100 -119 -39 126 -88 121 -117 118 126 
106 -70 -119 076 -123 103 106 115 -07 -109 093 109 098 062 076 -113 -82 -115 -74 110 -104 092 -116 -114 079 104 116 099 071 -97 116 034 079 115 -86 060 077 065 -96 -57 058 -97 012 075 -106 092 -113 -122 114 -42 078 003 069 117 099 108 -79 002 106 112 106 109 053 -121 
125 -60 -23 -108 -126 -51 -53 -25 -115 058 103 074 049 -23 112 091 047 112 -90 125 -102 -72 -118 -111 -112 -111 116 -56 061 -56 -101 -112 096 055 -90 -115 -32 -107 017 062 -93 059 083 -11 -58 113 121 -115 092 057 054 078 026 -100 014 -123 002 -41 -106 117 -67 118 -121 120 
015 094 -108 -126 106 -89 029 -23 -117 -07 -16 -11 -85 068 -57 036 056 -107 032 094 064 104 -112 -105 050 016 014 085 -83 088 -92 007 054 -118 -12 124 -75 -54 -54 018 -18 108 011 -52 -26 055 027 119 111 117 002 102 116 -61 077 -101 -40 -10 125 -109 -96 -100 104 067 
006 -108 001 -120 126 082 -22 -120 -31 -122 075 044 085 -101 -102 064 045 -35 -82 008 031 -101 -08 -113 -10 116 -82 -125 106 074 084 066 052 -117 -98 043 -21 -97 084 -65 050 -113 033 028 029 109 -41 -109 048 118 078 -36 -121 -53 083 119 -58 -21 -30 051 -87 -93 121 059 
119 -63 117 125 097 083 099 094 -80 060 045 103 025 -71 -117 066 027 089 077 100 -53 -122 -124 -112 -99 116 -92 103 109 -09 -123 090 -88 -105 -94 070 015 -47 -36 073 -93 -122 -16 033 021 -124 -109 -08 097 102 094 -35 126 118 -30 -80 057 009 -122 -125 -81 -78 -109 -121 
123 -46 -93 088 046 -73 125 -101 -115 000 -107 088 -54 -48 -40 -55 -102 -104 -15 036 -102 -121 -33 -81 -65 076 121 -114 109 026 -09 108 -11 -22 112 -49 075 045 -81 -78 048 026 -88 008 -61 019 -122 -123 086 -118 -95 -96 028 -43 006 -126 -116 031 052 081 079 -110 095 002 
-75 -56 -121 099 079 003 -126 -117 116 121 -121 106 111 022 089 067 023 085 066 -63 076 -100 060 112 -96 028 121 -92 092 094 111 -105 040 -24 118 114 049 -53 -88 -66 026 -92 092 048 063 -120 084 -89 109 -105 -62 -25 -117 -21 -105 035 119 007 -128 -124 122 121 -105 121 
-117 104 -99 -45 126 -117 028 -41 -82 -119 108 -113 -32 -99 -126 -34 100 -89 059 -119 -19 -71 055 062 003 -109 088 108 -52 002 120 -40 -43 -123 085 -18 -27 -77 092 -88 064 055 081 049 078 -117 055 -104 -102 -29 -55 -54 111 111 -108 -71 -86 -16 -127 -109 -120 -69 -92 -123 
-60 -53 -63 -87 -124 -114 124 015 012 -125 099 098 -51 -15 -113 114 092 072 099 -122 -40 -102 -18 037 -47 -127 -124 105 057 040 -50 -103 -98 -111 -49 -119 075 034 -110 -39 -82 -124 -85 -87 024 075 -12 -102 093 -42 077 -87 112 -16 -51 123 -104 -50 019 117 119 070 -118 104 
-01 114 078 125 124 -24 -122 032 -109 -119 115 -107 063 067 125 -33 -109 -56 101 124 066 -123 089 084 045 122 -33 -77 104 099 118 102 -76 -116 112 122 -76 -104 -45 060 -74 -75 -64 074 036 -122 018 -122 005 -88 -09 -73 -126 -112 -63 125 112 -18 -126 -70 -50 115 -117 -127 
066 -72 -112 -123 125 -60 -84 -03 107 112 096 -94 -86 -92 124 112 -87 064 011 -121 -12 059 -60 087 088 -91 -43 123 031 004 -104 -87 093 122 -93 121 068 -13 -109 -67 -71 097 -64 -21 -30 -111 121 -59 -72 -26 -90 081 -115 123 078 110 -94 056 019 108 -104 -92 113 -46 
037 -04 020 -64 -123 095 123 079 088 -116 006 -60 -76 -99 073 089 -21 -93 -27 116 -50 -73 097 088 -67 -85 122 -04 -105 078 044 054 -57 075 -32 -115 059 -60 -35 065 090 104 -73 072 063 -93 122 -119 -111 -113 075 -76 125 -120 107 -53 123 -38 -128 118 -125 036 094 -104 
115 -91 -71 -126 -108 -102 -100 -72 056 121 -110 106 -110 090 110 008 108 109 -102 -77 -82 030 112 103 -68 -119 124 -106 -66 -62 122 055 -82 -84 -86 -26 -84 -106 -106 053 -12 055 -93 041 049 102 122 -33 -109 -108 -89 -36 126 -16 112 -114 121 049 -122 -126 123 -104 110 -110 
-15 069 -61 -101 098 038 117 014 023 -49 046 121 -53 065 102 -30 -25 -77 -27 044 -93 -19 -111 -98 -97 -122 -53 076 -90 -60 -118 -62 -96 104 -115 -120 -04 -55 072 040 030 110 078 -22 -01 -52 -122 104 069 097 082 052 122 121 002 -57 125 035 126 120 104 -121 086 -127 
-41 105 -120 -81 -125 -76 -116 081 096 -115 -115 -88 -72 077 112 -87 104 -87 -87 126 -101 020 096 -25 -36 119 117 -109 100 069 035 -91 -87 -67 -116 080 -30 089 -102 -81 043 -79 092 017 027 -121 -119 118 -56 -36 076 071 033 114 -58 116 -126 -61 -94 094 044 079 119 -109 
024 075 106 120 115 -122 065 -107 119 091 -35 -118 -111 072 -98 -76 -51 059 044 -128 080 -95 -01 -113 -104 082 -69 028 -31 067 059 090 028 -113 008 -110 020 -96 -74 085 -29 -74 -97 -38 022 -81 118 -68 004 084 -55 -33 -04 -119 -65 116 120 030 -128 -118 -108 072 -123 -83 
118 098 -101 -78 -100 -76 -113 -71 118 -119 030 106 061 -60 123 -03 089 -13 -25 107 -46 112 -110 065 105 -120 -90 092 -106 009 111 -95 082 -118 -97 123 -74 071 030 -78 -30 111 -90 068 029 -58 000 -120 093 040 -90 -80 122 110 033 -121 104 -56 -116 067 -117 066 064 -100 
124 -14 044 -110 -119 -35 125 058 110 079 -120 080 -107 -44 109 -84 080 -100 -96 -128 009 -112 -106 073 056 091 093 -119 075 -94 107 031 -100 003 118 121 067 083 -75 -60 070 -109 -95 -87 034 082 007 120 110 042 -84 087 110 -124 101 020 014 -60 126 115 082 -120 -44 -114 
002 -97 -11 061 122 -87 053 -91 020 -66 117 102 -64 093 -37 038 097 041 -57 -44 -106 112 -64 002 -101 122 -125 109 061 019 -09 104 -13 119 -101 -123 030 -66 -98 029 -28 -92 075 052 008 068 -86 -30 -93 -76 069 -95 -128 089 030 -68 117 061 126 -122 -118 030 118 -125 
-126 004 -39 102 111 -87 -126 -69 -25 108 059 115 098 -51 124 086 109 057 101 -123 -14 117 003 033 006 -107 121 121 106 002 -74 -95 086 113 010 -118 053 -26 066 054 -84 -93 082 -33 088 -24 -39 -32 -96 -70 043 -94 085 072 -87 -106 026 -32 -127 106 -114 120 -105 118 
-66 123 102 -03 126 091 116 -79 -73 034 -115 067 083 -15 082 030 -94 122 -59 068 048 -60 010 087 121 -35 079 072 122 -52 043 -127 -38 063 -119 011 111 098 -99 -12 -49 -83 039 120 103 085 009 041 -126 -21 042 -120 072 -77 -122 071 063 075 -35 116 -58 126 045 -89 
094 016 -122 -96 -102 004 -65 099 -74 126 110 -60 068 -116 -49 079 050 -118 -108 107 078 -60 091 070 -122 -79 -78 010 -107 044 095 117 073 -33 -49 059 055 -110 047 -74 060 -55 067 -86 -83 104 105 049 000 -33 -68 085 -69 079 -121 -70 -90 -94 -52 -117 -72 -128 116 052 
095 -110 -50 -60 073 042 -14 -97 -97 -39 -122 -07 -86 018 -103 085 -50 -122 -39 077 086 -90 -68 -124 -115 034 -79 059 099 072 -70 -128 -75 -65 -109 -108 111 -110 122 020 -88 088 -95 -103 009 -68 -92 051 105 004 -31 113 085 -90 075 -39 033 -103 067 -17 -78 -29 -20 -01 
-91 114 123 -79 -127 -25 113 091 015 096 -86 052 -100 124 -18 019 -22 124 044 -79 071 015 -36 121 121 -11 -78 041 -109 057 -75 126 066 078 -108 036 -109 075 112 -28 069 -81 061 067 -127 -13 -60 113 -45 -87 -35 116 087 -77 -121 -92 -87 098 050 -96 -54 -128 -114 009 
-21 -98 028 -56 -72 -08 118 041 -23 -116 100 005 087 094 086 017 -92 072 003 -17 054 052 -04 -124 016 -43 096 -57 -49 -42 -49 095 005 -79 -87 033 -30 005 089 048 075 -54 -63 -45 115 -43 -16 -02 106 101 -58 106 041 -51 119 -44 -04 -74 076 012 -68 126 095 -60 
064 071 124 -75 -122 -64 -126 091 -16 -09 -120 019 -79 039 065 010 -07 039 -111 -63 036 -26 -96 107 087 -41 -84 -63 -120 -21 -42 -126 -88 -58 -122 031 083 097 -72 -99 -78 -28 -88 050 -107 -87 -71 113 -41 014 -71 -106 065 -66 -98 -03 -95 025 023 -90 -72 -128 -43 052 
105 -62 095 -59 -36 042 -119 041 -105 097 -122 -20 105 121 -85 053 -57 -27 118 110 022 088 -94 121 -85 063 -89 078 -113 -90 080 105 071 078 109 -120 031 -14 -106 028 012 078 -53 -127 125 -110 112 069 122 094 025 005 058 015 047 -88 -86 061 055 112 -25 126 -118 -36 
-52 -124 126 105 125 021 117 -35 -81 069 100 038 016 -112 -100 085 -34 103 -109 -56 -45 074 019 113 110 061 078 020 -119 068 -24 -128 057 -62 -87 -13 101 039 -99 -101 -76 078 -119 122 -96 -94 073 -98 125 086 -75 -103 -85 073 -20 -99 051 054 -85 084 -05 126 -90 -64 
-77 -83 -116 -77 088 -85 120 -104 -105 -84 110 013 -109 125 -38 -38 -109 051 114 079 052 094 071 -90 122 082 -35 056 120 -66 085 126 -44 099 105 056 -76 -101 -101 117 -98 -64 052 125 -120 -29 003 -113 -82 032 -58 110 -107 -94 018 -105 090 094 -56 089 -54 -121 100 093 
069 -109 116 040 -100 -71 073 -01 011 -118 115 062 101 122 -20 -83 -02 119 -104 117 -65 058 -98 106 -106 -68 079 056 -106 -89 -83 071 066 063 -35 082 034 100 -121 120 -05 034 116 -112 -126 067 -11 065 -76 -71 039 092 -14 -64 084 087 025 -09 -85 -119 -53 -105 -112 -68 
010 089 125 -01 -120 -108 -92 -102 091 -125 106 -04 -74 -124 -116 -82 -32 110 -99 117 -81 -82 -49 -103 -105 066 -05 -19 111 050 -98 124 -42 100 117 118 -111 081 -85 -106 -104 -89 -108 -122 111 076 -43 -116 -85 080 -37 -10 054 -21 -59 -87 104 046 -84 105 007 034 098 -57 
031 -17 118 065 069 052 123 -97 -79 -114 -114 -50 -104 116 110 -56 -51 -87 -90 -118 -72 038 -79 -124 -111 -66 062 -76 075 -90 -86 123 -76 020 -76 -114 032 089 -93 -117 036 -01 -70 126 -76 105 108 -110 -118 066 -48 020 107 078 097 -103 -41 -68 -43 114 048 -26 098 -47 
-36 -74 -81 096 -109 -75 123 009 105 033 120 023 117 116 048 -79 -35 123 104 -95 070 -67 -35 017 045 022 054 063 -99 020 -101 118 -57 -55 -108 060 001 -54 -48 -29 052 -87 -93 125 049 -54 -114 -82 -92 -41 -18 117 062 -68 018 -92 003 104 082 -65 -32 124 -55 081 
036 -94 -126 -60 -45 -26 045 102 -10 -127 074 020 098 010 085 056 005 061 -80 023 -70 -27 -91 -124 012 -42 014 -46 -84 -30 -56 -125 -70 -73 -123 -111 020 -75 087 -118 -86 083 109 -123 001 106 113 090 -120 -102 011 115 038 -38 -44 015 092 055 -78 056 -57 087 042 034 
-04 -02 111 102 -10 -39 086 096 004 -128 033 009 113 118 -23 -88 -47 -48 101 -27 -83 044 040 123 109 -67 061 054 -104 -63 -92 123 048 -40 045 -97 056 104 019 106 063 -16 -124 -21 -127 011 051 -110 -126 -19 -24 055 -37 -85 035 -57 081 -107 -04 114 -48 -31 -111 038 
073 121 -120 -10 115 083 -119 -48 -112 -119 -85 028 082 031 043 -35 -104 123 102 114 069 037 -89 005 008 -23 078 057 121 048 -96 -123 004 -49 012 098 -101 -41 048 -121 062 069 -91 039 -126 -04 -69 096 124 016 -38 -77 092 060 114 034 -07 112 -09 -51 061 -97 -16 066 
104 113 -29 -53 -126 -112 121 056 085 125 -119 000 -71 115 085 -30 103 086 080 -119 -89 -81 051 -120 117 -52 -30 054 012 -06 085 124 -52 -83 -106 -121 055 -54 119 -77 101 006 -119 -127 -126 -95 -81 -96 -126 100 048 -52 -17 -99 030 -92 -68 001 033 039 055 -72 083 -88 
-81 -98 -84 094 016 -09 -70 -77 -110 -71 -103 029 -108 -98 -91 -86 048 -96 -78 -114 -60 -04 -29 052 021 061 066 -59 -108 -09 039 126 -75 091 -108 071 -70 -55 119 027 -27 080 092 -120 105 088 -94 103 124 073 052 120 -80 075 120 066 102 004 063 -63 -74 -110 -101 -77 
-52 -73 105 -101 105 -47 -103 -14 -24 111 102 040 106 -108 056 042 003 -110 108 -118 -76 -90 016 095 076 056 002 -73 097 030 -67 096 056 -10 104 115 -109 -54 -112 102 -72 -90 120 -116 013 -45 -07 077 105 038 044 -101 -107 074 069 -77 -02 -88 013 018 -26 -39 111 047 
095 -91 053 094 088 -75 080 -94 092 126 -120 053 -40 -55 113 -64 095 -109 042 110 -15 001 036 -121 -110 -56 070 -28 -113 -49 -15 -98 -32 -84 117 119 103 107 -25 064 -74 075 109 092 123 073 043 -99 -67 082 027 -122 019 098 -21 072 -25 -35 -30 101 -50 -103 044 063 
111 121 118 010 107 009 -97 022 014 125 119 -61 -114 114 080 075 001 056 -67 074 -82 -03 -97 -38 031 076 005 -10 -82 -70 -62 125 073 061 -62 -31 103 -93 -86 -80 -88 074 -122 125 113 026 -77 082 052 015 -10 -111 -99 -100 -107 -105 -88 033 -26 030 -70 -127 017 064 
045 108 -124 -81 -127 036 118 -99 -86 019 -125 -72 116 118 041 -59 -78 107 -85 -97 -63 -08 066 -87 114 -36 098 -76 -113 079 -14 -119 029 -85 -124 097 044 -40 -115 078 -44 097 120 -55 005 -51 -66 -92 -19 -64 -70 101 -34 -03 091 -100 -93 -64 -64 108 -18 -116 119 -62 
087 -88 -122 -68 -102 069 -121 053 -06 -72 098 -66 095 110 -37 -21 -72 103 -78 -86 053 011 -02 -37 095 076 061 077 -82 -59 071 -37 029 -82 -06 092 -45 -105 -17 -08 021 -16 097 090 -30 005 -96 094 -67 -33 -20 -107 -92 062 -40 -55 060 081 036 119 -38 119 -120 048 
057 -113 -20 -06 -102 -33 045 -29 083 101 -62 -20 -94 -99 -110 -80 099 120 047 -73 079 044 088 009 102 -39 -90 -02 101 -59 053 118 -85 079 115 -49 117 -09 -119 115 075 -86 -62 -127 028 -19 -82 -97 124 -48 -70 -06 054 091 071 029 028 -68 083 117 072 118 050 -74 
-34 085 047 -46 -70 -107 013 -79 -90 064 001 010 -88 -37 115 026 034 122 052 -119 -86 031 068 003 030 -73 -92 -14 107 027 016 -35 -65 040 -125 114 112 053 082 -50 027 043 -119 -126 120 -99 -113 -02 091 023 -75 -108 -03 075 -102 075 -95 -06 -80 004 028 114 -112 031 
014 009 123 -77 112 019 114 -93 -31 126 -125 -33 -26 -93 114 034 -93 080 -84 -54 082 062 -26 089 -15 -03 075 001 -119 -74 -105 105 -44 014 -113 047 053 -93 -52 065 -62 -52 106 114 -120 023 085 -87 -122 102 -12 -99 -75 -77 057 -65 031 038 052 -118 -36 -112 -49 -03 
111 007 -126 028 -54 015 -121 -67 -105 -124 -98 023 051 018 -119 077 068 103 000 086 078 054 092 -125 -40 -63 -54 -09 -45 072 -27 -66 058 080 122 -21 -56 -82 -06 108 -64 014 111 124 -121 082 057 -110 123 069 054 104 097 -97 -85 076 -09 -73 080 078 -74 126 116 -86 
095 -103 -63 -89 -113 036 -80 -81 -111 -40 120 036 113 -121 033 084 -74 -126 -70 062 -88 072 092 -110 -25 008 067 018 122 078 094 -106 -01 071 120 110 107 -26 121 -23 046 -52 119 -39 090 062 -60 -97 019 -46 -51 042 -108 -53 -40 117 -41 -72 -22 -119 -76 051 095 -07 
009 107 -126 -45 -54 107 082 002 -93 -121 108 030 094 -124 104 068 045 -114 -73 032 -21 091 075 -89 -24 -65 -96 -64 -29 067 017 -105 -42 074 123 -61 090 053 121 -102 098 -02 -110 126 -70 089 -107 -53 039 040 -55 087 034 -68 -100 104 049 -57 -64 090 -50 125 096 068 
-34 105 125 -70 126 072 115 045 -114 -125 -110 -59 -95 098 -113 -03 -105 -111 026 092 -66 -88 006 015 104 -36 -57 -12 -28 079 008 085 041 -51 -111 061 119 107 -121 075 -69 -67 -117 -125 -61 -59 -74 -119 -115 -78 009 -99 -83 -21 116 -77 067 105 -84 112 -42 -83 -12 001 
110 -39 005 098 096 -103 105 -98 -86 -128 116 069 -24 041 059 -04 101 114 -102 -109 -49 060 -03 113 120 017 -77 -76 117 -51 -36 -126 -01 -22 023 101 -116 -112 -21 -120 -64 -17 -125 124 -126 102 105 -101 120 -86 -32 056 -75 -61 119 -89 093 056 034 110 042 126 036 067 
-108 095 -104 098 -81 -87 065 050 -33 123 -124 002 116 -65 -72 027 064 095 101 -118 -71 -30 078 020 115 -22 -76 043 010 -71 078 -127 025 066 -105 -74 009 -112 -50 036 062 021 087 124 -117 -36 -109 109 -113 -61 -59 092 -98 -71 110 073 -12 099 019 -109 075 000 078 -53 
048 -91 -124 098 123 075 -97 090 -30 -89 -102 -41 -02 005 059 026 -01 110 106 -12 -70 -56 -36 058 118 -83 -33 -12 -122 -86 -100 039 029 -85 123 -116 -112 -24 121 -122 -87 017 124 -39 021 088 109 -70 123 -87 029 091 076 -14 -121 -71 015 -93 044 053 -51 -128 -51 061 
-54 118 -71 -28 119 070 -92 -45 109 082 -104 -57 101 083 -110 -70 103 118 112 086 081 041 086 084 -80 -71 -98 072 122 035 031 097 087 087 -114 -92 -110 109 -39 -110 -102 076 -117 098 -107 086 -02 -98 110 103 -78 -26 081 -55 104 -110 -23 -95 011 -108 -45 126 -93 060 
-83 -121 125 084 101 046 -106 009 -63 124 -109 032 -64 076 063 -48 045 123 096 -96 079 002 -92 -124 -93 -80 086 022 -124 -36 -67 -124 -82 -76 110 114 -97 -44 -84 -82 065 044 087 -109 120 -77 -54 -114 123 082 011 -56 051 031 -75 116 -49 100 -55 119 -24 114 110 -73 
-103 116 122 -78 -126 094 -100 057 015 -69 098 -20 -116 102 059 -39 -106 117 108 096 -52 035 070 -124 -33 -64 094 003 122 083 -54 011 072 026 -124 021 -57 -108 094 052 052 081 -83 -122 124 080 -75 062 124 -97 -51 035 -32 -63 102 013 030 -108 -14 -94 -38 -128 084 -95 
-109 065 -122 006 125 103 -17 084 035 112 -110 056 -41 -74 -108 086 072 076 -24 -118 -08 -91 024 059 -58 -36 047 -34 -111 073 -79 -127 -12 010 -121 115 -117 -105 120 025 040 -32 119 -69 112 066 -55 000 122 -95 -19 -22 085 -99 -17 -124 056 -59 061 -76 051 -127 111 065 
112 085 -113 060 -121 -24 -101 -49 041 110 -110 -60 113 -87 069 088 043 091 -14 078 -69 088 -86 -94 075 -47 -68 -24 105 -05 -73 090 -07 -55 -111 017 121 078 -92 110 066 021 042 119 118 063 -118 094 116 106 048 -27 091 -66 114 064 -49 -64 049 104 039 -126 091 -92 
-114 -81 -102 -98 123 -110 -111 -103 -102 -121 123 031 112 120 -80 -80 100 -113 095 -12 075 023 052 118 -122 033 043 -12 -70 079 099 016 -10 004 120 105 095 113 -122 -45 -18 -78 100 124 -125 072 066 055 -81 -88 -52 -119 -07 000 -115 -122 -96 -97 052 -96 -34 017 118 089 
-96 005 -123 080 -105 052 124 075 -86 -70 -76 -42 -77 -123 -95 -48 104 -122 -103 084 -16 075 -61 082 097 -72 072 -79 122 -83 -68 -108 066 -64 -07 090 -107 -110 107 075 078 074 -126 -61 123 049 110 075 122 -03 -55 112 093 062 097 042 -87 -92 068 -17 -73 -82 -117 -59 
-21 117 124 -46 -40 106 074 103 110 -07 076 056 -68 123 091 069 -46 124 053 112 -52 -76 081 022 -123 -63 -39 -51 120 -42 -43 -62 025 026 -05 -122 -71 103 -121 -72 060 -79 -98 085 -110 091 -60 -61 123 067 -15 -107 -101 -57 057 123 -14 -62 -37 117 -33 110 082 -05 
102 054 -100 -01 090 -108 -116 028 068 -112 -124 042 -121 121 -29 048 -65 -41 120 -15 -63 -33 -35 020 -120 -17 043 043 097 060 -92 -127 -69 056 -86 -87 094 049 -25 -116 -85 -82 -102 -121 -126 048 -103 089 116 -44 -48 -119 -105 -68 114 099 102 086 -44 003 -61 080 115 085 
030 107 117 052 -123 091 119 -43 -107 126 032 -74 094 116 -59 042 084 076 -37 -108 -32 057 086 122 -112 035 085 025 -118 092 -61 -125 -10 013 -59 115 -121 -104 108 -56 083 001 -78 -126 -52 042 101 -05 125 -69 -44 037 -80 020 115 043 -58 005 -58 -117 060 119 092 -83 
-32 -123 115 012 076 -59 043 -86 -16 -115 106 -43 -68 095 052 -77 043 074 099 -89 -06 063 -96 -98 -112 016 -71 061 103 080 060 113 -84 -55 -96 -90 -112 107 -89 110 -92 024 080 -17 -127 -85 -78 100 112 -99 -25 -56 -103 -39 -117 082 -46 -99 022 -13 023 125 -119 062 
-116 -122 125 -77 -29 039 -106 060 006 118 -118 054 106 -125 115 075 101 037 -116 -98 -32 035 -86 -118 093 021 035 -47 101 -43 033 116 -84 085 115 060 116 044 -122 105 -92 -67 102 030 125 -102 019 -107 -125 004 -41 -115 104 065 -110 -02 012 070 -82 -92 007 -86 -91 -49 
028 -107 -107 015 -67 005 -82 -21 062 007 023 034 062 045 -75 -15 -56 074 -81 -07 009 -67 065 -117 -124 029 001 001 -125 -36 -33 -45 -62 -10 -122 101 048 -113 095 -64 -97 -57 124 -02 026 -78 055 087 -125 -93 -68 096 -25 -94 092 -100 041 071 -47 102 -64 107 115 041 
071 107 007 -76 126 -98 -123 071 110 084 101 022 -120 -99 085 -19 -75 -70 -99 -96 -88 089 -93 -121 -73 033 -86 023 119 000 032 -102 050 075 -29 114 -108 091 -47 -109 054 -34 -124 -111 -125 099 098 055 -03 003 041 075 069 -47 -118 -03 068 -112 070 114 -64 122 -114 052 
041 092 -116 -81 -22 072 -107 -90 027 -104 -100 001 114 -45 098 032 -88 120 066 107 -56 -54 046 066 -106 001 079 070 121 008 051 -127 -77 -71 -92 092 -38 060 -114 -106 098 035 -89 062 -101 -91 -40 -110 -29 -02 -49 -98 089 -86 003 -72 -99 103 -20 079 038 126 -44 -65 
-73 122 -96 -83 -124 -72 124 009 -111 -100 -115 -12 -108 -119 059 -57 -48 118 111 -66 069 -82 -96 -04 105 -66 -92 -47 115 -91 -06 -120 075 -25 121 120 115 -106 122 120 065 091 120 -121 -86 088 070 -107 -94 018 -02 -93 039 -97 -68 -104 -64 076 -43 -105 -67 076 107 046 
070 -95 117 002 121 -91 -89 089 057 001 017 029 081 119 060 -32 -104 012 054 070 -46 -67 056 060 106 -79 033 -47 081 -70 -66 107 077 060 115 -88 106 113 029 103 051 -28 -123 089 010 -56 106 104 -126 050 016 080 -97 085 091 -101 094 079 -57 011 008 -124 -103 -33 
096 064 -127 104 -127 071 -125 102 -13 -127 113 054 082 -97 105 081 -94 063 -17 041 070 -56 014 -113 120 -81 -40 -18 -126 053 058 -27 083 -15 121 079 074 071 -30 065 -55 044 -89 -112 117 072 -108 -112 -120 028 051 -113 065 051 115 105 059 -02 -36 -44 052 -69 -114 040 
087 -122 -115 -41 -56 -33 115 -102 113 119 047 011 114 121 -114 -45 -15 099 -52 033 009 056 040 111 -89 051 054 036 108 -80 -46 -127 014 029 061 -109 030 -70 120 099 100 069 -118 -115 -125 -75 095 086 117 092 034 092 -96 088 -117 -118 -60 108 030 113 056 -121 -08 -99 
-85 037 125 -96 -18 -50 034 -64 -42 124 100 064 113 -98 105 065 067 -99 009 061 -74 -74 -38 116 121 -49 -09 069 -69 -84 099 101 005 -93 121 036 072 036 027 -63 -77 -61 -82 088 -127 102 -64 110 122 -104 035 -76 -31 066 082 -70 067 017 -48 -117 006 090 116 -95 
-68 070 -49 -70 -122 -110 -29 028 -76 123 004 -55 103 -83 108 087 063 082 -72 028 036 -38 093 110 -118 -10 056 066 -111 -83 006 093 -72 -68 -108 117 002 -91 121 -123 -67 -73 -19 -30 051 -60 -52 -15 067 069 -10 113 -43 074 113 -54 075 -113 -21 088 -42 087 092 087 
-57 -121 124 096 101 052 057 020 109 -121 101 016 116 -124 013 075 028 -118 066 033 -87 -48 -35 -97 115 004 063 -67 122 -86 -103 108 021 073 -22 117 -109 -85 092 060 -39 088 -96 112 -114 039 061 -85 046 020 057 114 -48 -42 -56 -122 -22 054 071 014 -66 -128 -64 -68 
-62 118 125 097 -102 -16 -46 000 073 -60 081 -71 -112 123 090 -40 -85 024 -111 109 055 -44 -86 004 072 042 -102 -19 108 -91 -79 095 069 -22 089 -92 -81 031 -77 117 -90 039 095 -74 104 -21 048 049 123 077 072 085 055 048 064 123 089 -48 031 -121 -47 -91 108 -97 
110 118 -126 -22 109 087 117 089 004 125 -112 -54 074 -117 -53 076 045 102 117 100 -57 004 027 -114 080 -82 -33 -12 -122 -38 013 -46 059 050 114 -103 002 -36 017 -121 043 060 -49 -95 -127 095 102 -48 -99 018 -76 -113 -54 056 071 -116 015 092 067 105 038 -100 -119 096 
-90 -100 -66 055 -105 080 081 -31 -09 -16 -45 -16 -114 -108 117 060 108 -87 117 -90 -80 -31 080 091 094 -81 -88 075 101 -14 014 033 -37 080 -62 086 017 050 121 -88 -64 098 -108 125 091 088 099 108 -71 -92 -10 095 -38 018 114 -121 -28 -108 -34 -38 -64 -118 -55 -85 
062 088 080 031 -124 -92 115 047 -107 122 087 -02 -55 122 107 -59 091 044 116 037 028 042 094 -108 -120 047 -22 -72 061 -83 -31 095 052 023 114 015 -13 -50 -110 -114 085 -85 -91 121 -30 -90 033 082 -89 095 -54 -69 093 019 -116 113 -100 -97 050 -120 003 -108 -120 -70 
027 072 -123 -33 -45 -16 -117 091 -93 -30 -60 064 090 111 -113 -08 094 014 -11 113 -36 -45 -85 121 -117 -61 -26 -39 -111 -66 020 -126 000 077 113 034 -92 105 122 -61 -77 -48 118 -128 124 019 -102 -15 -35 -38 001 019 040 -70 093 117 -74 -100 -68 -116 012 097 048 -85 
048 -101 -70 -70 090 101 -111 -74 002 -95 080 -45 118 123 -12 087 -02 -120 105 -116 023 041 017 107 -02 038 -103 -67 063 -39 096 -128 -03 066 -83 -94 109 -104 -117 092 -99 070 -96 -16 050 -59 099 -110 -43 005 -32 036 086 -91 -109 121 067 -36 029 -107 -09 011 098 021 
-101 019 -06 -82 076 105 -66 -93 -114 -127 -121 031 064 -04 115 011 002 103 -105 -109 -57 -73 -52 107 099 -06 035 -76 111 002 093 126 -73 037 079 -122 -114 -44 118 -123 072 -41 121 -98 077 -104 019 -05 -21 -47 -79 100 101 -74 -69 -54 -63 -61 -87 -42 -39 122 -40 -95 
030 117 -47 -44 -05 087 -118 -04 102 072 120 -12 -118 042 095 -60 -09 086 -17 060 003 005 -91 -45 -88 023 103 -41 -124 069 -23 -58 028 -55 076 -105 042 -10 -112 -64 -102 -55 -126 -127 122 068 -03 027 018 071 008 -113 003 -64 104 -125 047 081 -75 -109 -09 126 115 -49 
-107 117 -125 092 124 099 042 -94 -56 -104 122 011 -116 -112 -99 074 047 -34 111 -102 -21 -46 046 -120 068 -75 013 072 -44 036 -101 -31 -12 -19 011 107 -23 040 106 096 047 084 120 -111 -127 085 014 -101 021 -96 -48 -40 -72 -10 021 -113 -32 073 -74 068 041 084 111 -55 
034 078 101 001 -125 093 076 087 -112 -127 047 -53 046 -104 098 -84 -111 073 -112 -102 -10 -91 072 -109 002 076 -96 -59 -16 -79 100 -127 -64 074 -123 -115 -93 065 -124 -116 078 -48 -62 -120 -123 -90 -76 -93 -21 027 -20 008 066 -90 -117 012 087 -63 -79 031 -58 -127 102 092 
-17 096 108 -98 099 -47 -96 -06 047 091 112 031 005 -11 -02 000 -78 069 092 114 010 085 -56 -70 070 051 -99 051 -48 070 055 -122 -18 -43 -123 -112 -68 -78 -44 -67 096 -92 -107 122 -120 -51 107 102 066 100 009 101 -61 018 -103 -45 065 -68 041 -110 026 -126 003 051 
069 -122 124 061 -121 080 117 089 104 095 006 009 067 114 -78 058 -89 105 082 -96 -78 053 -68 -106 -100 -63 099 -42 -109 003 -99 125 078 -82 -123 -109 -103 -108 082 117 -71 -48 120 -126 -78 -92 070 -114 039 -48 -75 -04 069 061 -118 -62 003 001 051 093 -64 024 104 -93 
111 111 030 046 125 -108 -120 -82 113 -128 -122 008 063 -118 -27 076 -51 -40 -117 050 004 090 -72 004 066 -51 031 -67 -125 -86 -103 118 -38 080 -125 -121 -85 108 028 043 -74 084 098 012 114 024 -81 113 012 -93 -03 -101 -53 -08 -16 070 -63 008 000 -86 022 -114 -90 -54 
-28 -61 -95 -92 122 065 -118 -39 051 126 091 026 077 -108 101 -20 -92 -66 -109 060 -25 094 -08 -105 -114 079 092 -77 099 058 -88 -114 045 -48 110 -114 -25 -86 -115 103 -87 039 109 -121 -116 -26 -78 078 -113 075 -68 -60 -102 -56 070 112 -77 060 -53 -96 -41 013 074 042 
-06 -98 -107 011 -100 084 -107 103 -76 121 034 029 113 023 -41 -61 042 -120 108 -79 -50 054 -76 121 -122 014 057 -04 -111 -07 -93 -96 -71 054 -100 -107 -86 008 -118 -93 -101 -23 -72 120 110 104 086 -67 -126 -75 072 116 096 -52 078 -86 018 -02 083 -59 066 120 -110 043 
116 -122 049 090 016 -106 -91 026 -06 -63 113 046 114 -88 -96 -15 -86 -100 -119 -59 052 073 -41 093 000 058 -102 -58 -105 -84 -62 -123 -32 076 -56 -104 107 -92 087 116 014 063 111 -111 124 -47 057 -54 -24 107 -61 -19 -106 -21 -120 111 072 -114 034 -119 049 -36 -100 016 
086 -12 123 049 094 -14 -115 -96 -66 123 117 062 108 -104 -105 -83 -06 113 -112 039 -75 -43 -40 -117 089 039 -50 -42 -06 072 -50 096 043 -24 -43 066 -106 -38 -40 111 -70 048 -116 085 -126 -92 104 -102 -117 -28 -13 119 011 -101 -27 068 074 077 000 -122 038 120 031 -56 
108 -120 -122 074 122 096 114 -52 107 -45 121 -53 118 -18 -70 082 -100 -107 -83 -91 -71 -92 030 -125 -106 027 016 076 000 -48 -58 027 027 060 -124 -85 -14 073 -87 098 -82 053 121 126 -44 -90 -91 -74 081 -35 072 -111 -66 -05 081 -123 024 -85 -50 -89 -41 123 -97 031 
-114 067 120 054 -106 090 121 -29 -05 -91 -114 -27 105 110 -115 -79 019 123 118 -119 013 040 019 -121 -85 064 066 065 -102 -87 -40 -127 -83 -43 083 -105 -119 -44 -68 -116 077 009 079 -103 -97 -43 045 016 050 076 053 -92 -105 009 006 -125 068 038 042 118 001 -128 105 -90 
-05 -20 -107 -60 069 -29 081 010 -68 074 121 053 103 119 -111 -07 -104 108 079 -43 -70 -43 066 010 122 -27 074 -50 119 -11 -08 108 036 083 121 116 -35 109 121 -112 074 -31 -106 -79 -84 077 -90 -103 -24 065 -33 -116 -42 -58 -13 -119 -22 -55 -38 101 010 -128 114 -28 
-91 113 125 056 102 -108 -14 054 102 -127 -117 043 -75 118 -115 073 070 112 110 -118 010 -09 -36 121 -71 -45 095 -10 -72 042 077 101 -01 -17 070 -119 -88 -101 120 -105 -19 -64 -18 -121 070 008 045 097 052 036 036 092 -72 -44 118 -82 -58 109 -85 030 -49 -18 108 -71 
095 113 -12 -66 -117 021 -33 -98 -99 -122 100 056 -65 -110 -111 -15 -109 121 027 072 056 -92 -36 087 -30 079 043 -26 118 088 056 091 -11 078 112 -18 077 -68 111 024 075 -83 036 063 -127 005 101 -48 -106 -45 -43 -90 000 -07 -116 -98 -83 042 011 -67 -21 007 112 -40 
093 101 112 086 078 -40 -97 072 -08 -119 -121 043 118 079 076 046 -100 070 011 092 005 055 038 109 -63 064 065 -64 -38 -49 -68 110 060 -87 -71 -45 -57 -42 116 092 053 073 101 -125 -120 010 -71 -54 -48 -33 050 101 -98 055 -100 -78 078 -50 053 038 070 126 069 058 
110 067 125 091 -127 037 113 079 -47 -02 -124 -10 116 014 063 -16 -75 120 012 002 019 014 -02 -123 070 008 094 034 -79 -27 -57 -127 -46 -92 -22 091 096 -39 119 -116 -59 042 -47 -15 -97 076 111 -76 124 043 053 -117 -107 -46 121 097 095 -98 073 115 019 -123 096 042 
098 114 -109 050 092 106 -94 -89 025 124 048 -74 100 015 037 -71 057 027 084 109 -69 -70 -18 -10 087 -78 -08 059 117 007 040 065 -76 -75 119 -103 -82 -36 -73 -120 -58 -75 076 126 -94 -42 027 017 -81 -51 -25 111 -36 088 112 -17 -92 -71 -22 106 053 033 -26 052 
097 -107 095 093 -118 074 088 -34 111 126 -111 005 087 091 -105 026 -06 123 051 -78 -39 054 -73 -102 -110 -04 -65 -02 -87 060 -09 111 005 -65 -75 107 -03 -20 -07 -20 -77 -47 119 -127 111 -39 -114 093 060 091 -62 094 -73 -89 113 120 026 -23 074 -116 021 -88 -107 -31 
026 -65 086 -75 -121 033 109 -46 005 007 -104 -71 115 -113 -88 -61 -74 -64 098 -39 060 -42 000 123 -78 025 004 -67 -82 -44 -39 -96 077 093 -121 -90 107 -83 -88 -71 090 017 -30 -114 -127 -89 -75 -11 059 -79 -79 071 -89 -48 053 -117 -97 107 005 -17 009 -128 117 -36 
-100 099 123 -07 -98 106 082 094 -105 -91 101 027 080 -117 -66 058 095 080 -117 -60 068 048 -79 -119 040 074 053 -57 -122 -83 -94 123 -31 -20 006 -107 115 058 111 041 -93 071 121 124 053 111 -46 103 015 -85 005 -100 -66 084 -102 111 099 -102 028 110 067 126 -115 -09 
-72 110 -120 103 124 -34 -41 072 -108 126 111 -44 085 -50 -07 -83 -77 056 -17 -90 030 040 033 078 -120 080 097 -68 -74 -11 055 -123 009 059 -95 100 -112 -110 119 -123 090 -58 120 100 097 046 007 050 -80 -82 -04 109 -60 -39 -116 -121 097 -114 015 111 045 -125 119 -89 
035 -41 125 087 -50 -63 -93 -82 -74 -119 074 036 -117 -104 112 077 -100 -114 118 082 068 033 -19 -46 100 -36 -53 029 -86 -61 -26 -105 -01 -82 -112 029 -113 106 071 103 036 045 -116 -127 080 032 045 047 111 -92 011 -104 -29 -73 -53 102 -97 111 -86 -110 -62 -127 -115 009 
083 081 -119 -57 -118 -86 -59 095 -106 125 072 067 096 -09 103 038 -107 -120 117 -115 -53 093 -21 -32 -118 -73 055 -34 -124 -35 -76 071 -23 067 -04 109 -101 048 -102 092 080 059 095 115 -116 053 056 021 -121 082 -76 024 104 -95 016 081 -99 -72 018 -37 -43 -55 065 -95 
-112 -66 -118 -85 066 061 050 -27 -104 032 119 -51 -77 -110 022 002 -97 -120 -21 -92 076 -16 068 -105 019 062 089 068 -124 063 -44 -127 -02 025 031 088 -79 074 -16 027 -89 -70 -115 -126 -41 078 -73 -114 -43 010 -79 098 -65 -43 067 -124 -59 108 -14 095 -16 125 091 013 
-45 -100 -25 -98 048 -112 -91 104 054 -73 -81 -67 100 -25 094 -59 -101 104 -25 -100 -88 013 045 -118 -36 066 -22 -80 -52 -06 -99 098 054 -14 000 -121 107 077 -97 059 099 -37 107 -71 -33 -91 046 109 -117 -19 -59 -85 -02 -99 106 117 -09 003 -32 088 -05 -119 -97 -97 
106 -124 125 -92 096 -37 122 -104 -112 114 -100 -28 -30 123 -32 -25 -59 -106 -50 071 -78 076 071 -125 -121 -73 074 051 119 -65 088 -111 -30 040 122 -01 119 087 -58 118 -99 061 -87 -51 110 -108 091 099 109 -64 055 -59 063 -53 -65 120 -33 -21 -11 -116 -72 -102 112 047 
115 104 124 102 -05 -62 -125 091 -94 040 -101 -70 069 -121 003 -56 038 097 -78 114 -56 049 -21 073 -06 -15 020 -22 114 061 070 095 010 096 116 -115 -59 102 122 -123 -87 078 031 -118 124 051 -107 085 -41 -74 005 110 -104 -50 111 107 -16 093 011 092 -12 010 092 -66 
-57 112 -111 -25 125 -57 125 059 -83 -10 064 -63 -42 -96 -44 -68 -56 -125 119 117 -10 096 058 043 003 046 056 049 -51 089 -100 123 102 068 087 118 -102 082 112 -121 081 062 100 -72 -112 020 -91 053 020 071 -03 098 -73 054 -116 099 099 -93 -07 072 005 122 -15 030 
012 -87 -11 -57 124 -63 -01 -79 -113 -128 111 039 -118 095 114 -85 106 035 -79 -61 -78 038 -73 072 103 -25 -03 075 -56 044 076 123 -70 081 024 -121 038 073 -38 -85 075 050 -10 126 -125 095 095 085 -65 -42 -51 -118 -97 031 115 -122 002 045 -36 081 -43 -124 -03 -27 
-25 -103 115 -83 -71 -90 031 -28 -45 -127 -122 -69 114 -59 084 028 -02 -118 -05 072 -66 094 -66 086 117 072 028 -37 -60 -60 034 068 -63 074 122 -108 009 080 -99 114 078 082 -79 104 003 072 097 105 108 -37 -11 088 -22 068 -119 121 044 -77 001 -95 -63 126 070 043 
070 -118 -94 -79 123 026 -66 -60 091 -68 -70 -49 089 122 -97 -38 -14 -121 094 004 074 -30 075 097 062 031 048 007 -121 -63 085 -127 082 097 -122 -28 103 -15 116 -02 084 -02 122 -85 121 -57 108 -13 -124 068 -80 032 -78 097 118 -70 095 -113 032 102 048 -77 -87 -76 
-69 -120 115 -50 109 017 -43 -81 102 -123 -15 031 -83 -123 -42 005 103 114 117 -18 056 -73 -70 -111 -58 017 -40 055 -02 059 -77 065 -35 078 121 -102 -73 -67 001 -93 -70 -50 -109 -50 -124 -66 -23 026 022 098 049 -78 099 -92 -110 -119 081 -51 016 112 044 122 -115 -93 
006 107 -124 105 -123 -87 -115 105 -81 -06 -109 -35 -98 069 114 -82 103 -117 068 -39 082 -29 -97 -54 094 034 099 -36 -43 088 012 125 090 -49 106 075 107 031 -85 -116 -52 -77 102 -123 115 034 102 110 -89 -58 024 -03 104 -69 -73 089 027 -54 -54 080 -66 -91 084 -64 
-110 -06 -97 -82 -83 107 025 -28 002 -98 118 -65 -115 -60 -110 -84 -106 -90 -55 -17 072 -83 069 103 -49 038 -102 -54 -124 080 -102 084 065 -23 117 018 -53 -105 055 121 096 -41 123 -78 075 -29 114 -101 113 -77 -53 041 087 -96 113 110 -04 039 074 -98 -74 -128 035 085 
068 -124 -27 078 -59 062 120 089 089 004 049 003 096 069 093 086 -106 098 -107 -06 -70 049 -64 -110 043 009 086 033 -115 048 -100 -116 -13 044 -119 -115 -115 -02 -49 -114 -103 -88 -24 -52 079 -54 -115 -36 054 -100 -22 -117 102 098 118 -74 038 100 057 -100 036 069 -113 -78 
096 101 -127 -45 099 105 -43 -99 -43 -105 -78 069 -25 041 -62 -75 -49 -32 101 -52 044 056 087 032 -26 -79 084 069 118 -33 -79 122 062 036 122 005 119 -44 112 113 -94 -73 -106 -97 063 -102 -78 105 123 -57 -05 -06 -105 077 -49 107 -36 020 -60 -89 064 -128 -105 -17 
104 -115 125 -94 126 055 124 -82 -60 -85 114 -73 073 116 091 -38 -110 -122 085 -29 -62 -53 -54 006 -56 005 079 035 112 079 061 -113 -33 093 -120 -108 -108 038 065 -58 -26 -69 120 113 070 059 -69 -102 015 077 076 096 038 -68 -123 -67 067 -41 070 -96 -75 126 098 -47 
085 -122 111 -43 -127 042 -119 -39 111 096 120 -31 111 -38 019 -67 060 002 -54 085 -06 -89 -57 -123 -115 -47 072 -43 119 041 -86 -128 -51 041 -90 109 080 076 105 -91 031 034 115 066 -32 081 109 004 112 -38 073 083 -104 -99 -100 122 034 -20 -37 116 -63 -41 021 -13 
-99 -46 -114 -79 -91 -104 -112 -70 -21 -106 -85 013 038 -115 102 -33 080 119 -41 117 050 -82 042 120 090 -68 -12 -78 -10 031 047 -95 025 -62 021 002 -116 115 119 -123 -47 -38 095 126 -113 016 014 077 -107 -98 001 -111 103 -101 092 121 070 -50 -23 082 011 -127 110 -55 
041 122 -127 009 -35 056 -114 -84 -76 123 -73 043 084 -76 109 -38 -16 077 -114 -11 -72 070 023 -116 106 -70 101 -63 122 -92 -64 -128 -28 040 090 -93 -108 110 -112 -112 042 -87 123 -127 -100 -24 -95 -105 -49 -64 -19 -85 -25 -87 115 -95 041 048 -30 090 002 -128 042 -19 
087 122 -125 -07 -91 077 122 -56 093 087 -101 052 026 -121 102 083 -23 -95 114 -44 038 -49 -83 002 -81 -10 -99 031 -96 076 -69 -81 -74 052 123 014 062 -72 122 -123 -62 -31 096 -127 -111 -98 110 -12 -94 -100 065 -115 084 070 119 107 -91 068 016 026 056 -105 -119 020 
097 -14 -92 101 040 -108 117 092 090 -127 049 -32 002 -94 -104 -45 -107 110 -116 -80 -64 050 -96 010 117 -34 076 -62 122 -82 100 124 023 064 -121 116 099 -61 096 -55 -79 076 -124 -107 -72 -03 -68 115 106 -46 059 110 078 032 -121 -84 -28 -85 -53 -122 -75 124 -28 -20 
028 -55 -22 -88 040 -85 123 071 027 126 032 058 -111 013 051 -46 082 -04 117 056 -57 070 -27 002 028 044 -67 -12 -124 042 024 -110 -82 048 -122 -82 108 -77 122 -104 004 008 -81 -128 -125 095 035 -43 -103 027 041 084 -106 -48 000 -77 -22 074 -28 -98 008 125 096 -46 
112 -115 -109 -56 125 076 110 098 -106 -127 -111 020 -113 -100 067 -22 071 -07 035 113 040 -54 061 -63 -06 -28 064 034 119 -70 -92 -120 -71 -79 -124 070 106 051 121 -24 -25 -09 083 -127 074 -76 075 053 -103 092 -23 -120 049 -87 016 -116 082 077 -79 -27 -39 081 -115 -52 
046 116 056 -09 125 -03 -116 -68 110 -126 049 -70 030 105 057 075 -13 096 -31 -74 057 -17 -67 -118 -30 085 -45 -73 015 -89 014 125 -71 -84 -81 084 -91 -97 -121 -105 054 -59 -112 086 114 072 -115 -98 -36 -86 000 -87 082 -53 117 069 092 -03 -61 041 044 003 -122 -02 
-105 -70 125 -101 -127 022 121 -103 -93 081 -115 -13 089 -125 -114 008 106 -126 005 -85 -44 -05 042 -92 -38 069 073 -11 -109 033 -11 067 -43 061 067 -104 -39 041 -124 054 032 012 -96 -128 -37 -94 113 082 064 011 -27 056 -106 -101 -121 -54 064 050 068 -112 008 -124 107 -29 
115 097 -117 105 098 035 -98 -05 -79 009 -113 -69 -116 -104 -110 039 -64 -119 -102 -111 -25 -45 039 -75 -102 -06 -65 -48 077 -59 041 -111 010 -85 -106 -110 119 047 122 015 071 044 059 -91 -127 -81 036 043 -107 -93 -60 -95 105 -92 -96 -88 -37 063 -24 108 000 -127 113 087 
018 091 124 -67 -125 -87 -99 -53 -40 093 091 039 -115 123 056 029 -106 -106 -101 -59 074 -79 072 -62 -96 033 065 -27 -07 090 016 -21 -32 025 123 101 -119 -111 090 -38 -47 046 116 -128 088 088 088 -50 -123 -16 070 056 -35 -54 071 102 -92 -21 -72 -49 -22 -108 -107 003 
-100 -121 -105 -14 -112 -54 121 -19 -86 -127 -11 -62 -54 -101 -22 -23 -77 -73 -117 047 -73 001 -75 052 112 024 -81 -72 099 -05 025 -107 086 -52 120 -21 -79 -108 -85 070 036 -72 049 -127 052 -37 -68 069 041 090 -79 063 022 -59 111 096 -03 -21 -10 -112 062 055 090 003 
-103 -90 -82 -14 -92 -73 086 -103 -79 -122 -125 -42 -106 -97 -13 013 005 -116 082 108 -32 -44 -65 121 113 083 046 045 -121 050 -48 092 082 058 -83 115 119 068 -120 010 024 079 -126 -113 -116 -42 -107 -29 004 -63 076 019 -15 048 -112 -123 099 -94 -19 110 -63 -113 114 -03 
-10 072 -122 058 125 -110 054 -81 083 101 -124 -49 102 -106 090 -18 017 -120 039 013 -09 -40 -73 118 120 067 099 007 123 046 069 -16 -25 021 111 -23 -111 -112 -120 110 -34 -49 -96 044 014 020 001 107 -06 090 033 100 086 -88 091 -96 -54 -59 003 -50 004 126 114 095 
101 -107 -122 -24 126 -110 118 096 036 -90 049 013 -65 124 -62 060 -98 -33 117 -27 052 088 -74 -120 120 073 -97 040 116 049 -28 -113 -16 050 067 -98 -22 -22 120 -110 -79 -70 -115 119 -61 -20 006 -107 -124 054 -78 046 -33 -28 120 109 -27 087 -61 -56 051 121 -92 -41 
074 -83 123 092 -31 058 -123 066 114 027 -60 -34 -59 -80 -85 044 -03 -86 098 -112 -73 -89 -20 -105 -73 -19 -103 -79 114 007 059 108 -59 041 -121 -53 -72 056 -107 -90 -93 006 123 056 119 -76 008 -85 100 108 -73 102 -26 -09 -37 122 -86 047 -28 -82 072 124 083 090 
107 -40 125 -16 -122 -96 117 -93 -105 126 123 021 -71 100 -113 -09 -108 124 114 -102 039 070 021 -120 121 046 024 -54 110 -07 -80 -06 -07 069 -106 005 103 017 043 107 062 -34 013 -126 -89 028 -119 087 119 -78 038 103 -49 039 -119 110 096 -78 -86 -117 047 -80 086 051 
-90 012 -126 -20 -127 -68 -90 -61 -107 125 118 014 -94 -116 -94 062 076 -105 -105 017 011 089 091 -01 -114 060 008 -04 -117 -86 062 -89 -78 020 -75 -96 -113 095 -106 031 -82 -85 121 050 -111 090 -105 068 -62 107 -44 -93 -102 015 099 -100 -63 -23 -52 -60 -16 121 -111 -48 
050 -108 123 082 -127 091 -89 -91 -110 037 107 -37 037 109 049 -85 075 116 005 026 -78 -54 -32 -113 -97 -33 093 -11 -117 -77 076 -44 -31 -89 069 119 096 -58 121 051 -57 -77 103 -109 -118 -63 -89 115 -116 -105 -68 -47 047 100 052 115 101 -54 -56 -02 031 -96 -75 -80 
-33 -119 125 -19 125 -27 -09 -27 -102 -122 068 049 105 -78 075 021 -53 067 -23 -113 -68 -74 061 116 -100 077 -21 006 -105 -67 071 -46 080 -80 -43 -117 -76 -27 -111 -115 016 029 -77 -124 -86 059 -112 091 -103 -13 -04 051 -55 000 -109 -116 -91 -32 -83 103 032 116 113 -93 
-104 -59 -72 074 039 088 -103 057 111 126 079 -10 103 102 113 -32 -88 -125 -75 116 -57 -78 027 011 107 013 005 -65 -125 -81 -54 -118 066 074 088 100 068 -06 -118 -110 -17 -54 -112 094 -123 -70 038 -95 -125 095 -60 -114 045 088 -97 116 048 078 079 -80 -61 055 -88 088 
-89 101 -93 026 058 103 -115 051 002 085 122 -73 095 -126 047 -14 064 -118 091 103 001 -81 -17 038 -123 -03 -20 062 -80 -90 096 -72 039 069 -110 -84 -118 -84 -01 -06 039 -15 -90 123 -28 019 -103 -23 -115 042 -23 112 -104 058 120 097 -33 008 051 100 -71 125 -96 -77 
105 007 125 -11 125 -28 107 009 114 -126 112 040 050 -109 109 -85 -88 038 099 -105 -90 073 -55 111 102 053 090 034 121 -12 -84 -116 021 027 108 -65 -98 -58 -70 069 -67 -63 115 035 -74 002 -89 -70 -122 -100 -65 057 -68 -41 -118 -112 -90 083 -43 111 053 126 -43 089 
106 102 122 005 -83 -80 -121 -95 018 118 -64 -51 -117 094 -107 076 -30 -17 023 -51 023 047 -68 -110 120 -51 -81 -24 122 090 030 094 021 093 059 119 065 -85 -05 -118 068 -64 109 -123 -03 074 -76 086 -126 -35 013 040 083 -51 -19 052 -35 104 041 -108 -71 125 -05 -21 
-78 -108 -44 062 -21 -94 -63 -102 -48 -79 -123 -69 111 109 099 -23 054 115 -78 -78 -35 -37 -97 115 -123 065 049 055 118 -39 020 -122 -33 066 050 -104 121 050 -116 009 -58 082 -87 125 125 -85 -85 -49 125 -43 -59 107 -30 -90 105 083 -62 -87 -41 037 014 -98 112 093 
003 057 112 -61 089 -12 120 -05 -102 -123 035 -62 115 -22 -96 -68 -104 047 -118 108 080 053 089 -103 -14 -57 099 075 004 088 056 115 -06 059 097 113 101 -102 -111 -113 -58 -53 104 125 -126 -82 -35 060 -76 054 -49 -105 -30 -08 061 -125 -76 055 -40 049 -29 126 -18 052 
-38 102 098 -62 -125 -99 -124 065 -78 091 -114 -42 -47 -02 -38 047 -98 073 -57 -90 061 -84 -03 121 071 057 002 078 -125 063 -34 -125 -27 058 082 -54 119 -98 -114 027 086 -40 068 125 125 -82 -111 112 -113 -56 008 106 008 013 090 -101 034 -53 068 -115 -22 119 025 -89 
-07 110 -107 -91 -45 026 -119 044 080 -69 -121 067 113 099 019 -14 069 -66 117 -33 -88 024 012 105 061 077 -90 026 121 -72 092 -117 -28 -79 -51 -122 067 110 -100 121 058 -55 038 119 123 094 112 110 113 083 -68 -102 104 088 -66 110 -99 -24 -71 -120 -60 124 069 077 
