043 014 -91 -48 087 022 -60 080 -05 -97 -64 -80 003 026 021 -23 059 -117 -02 095 -126 106 058 -58 007 026 066 -20 060 044 -122 085 101 079 -115 057 -119 004 -61 -108 079 002 -60 -106 080 053 082 057 067 -98 -85 -86 010 055 108 -119 -06 093 039 -20 -36 039 -21 -76 
-87 -101 015 -44 -38 076 -88 -70 -36 115 -37 026 -52 098 -108 -117 -45 119 025 -05 082 107 -04 -65 -64 -05 -106 -33 -94 -02 121 041 099 040 100 -94 -23 106 039 120 -12 -92 123 -75 -75 -03 040 032 074 -87 -72 -85 -41 100 105 117 026 096 -78 -107 087 -71 079 065 
043 008 -80 -92 -80 071 -23 -01 -24 051 -50 -107 062 075 -52 -11 -83 092 -28 -23 088 -94 042 -92 -99 -59 114 -15 -107 -115 098 -36 019 -88 053 -95 121 096 037 -126 -60 038 -41 -76 006 044 -126 -60 051 -107 095 -20 -87 112 -34 -98 113 090 022 -116 074 -23 -114 -121 
104 064 -75 -86 -56 079 -25 -84 -99 121 -100 064 057 -92 -113 -70 -49 093 -14 -95 -72 -94 -29 -12 -77 -83 119 -31 009 098 123 091 -65 048 -125 -89 -104 105 -37 104 -74 021 117 -05 102 -61 064 -87 012 062 -97 -93 -18 -114 088 -79 091 097 097 -94 -68 -17 023 103 
066 090 057 -41 033 058 083 096 -107 120 110 084 -76 -111 109 102 -46 086 -68 052 091 046 -50 -35 -52 -76 123 085 -45 -46 116 -41 -59 -09 104 -45 121 101 060 098 098 -20 116 102 -64 080 063 047 056 114 -48 -01 074 -87 110 -67 112 096 088 107 063 099 -80 -81 
-82 -101 086 035 041 033 071 -47 -70 -115 010 017 088 098 037 -119 -85 -126 058 -37 -60 -34 -49 -84 039 092 -108 -88 -101 -116 -124 -37 -03 -85 002 000 120 119 093 117 002 083 104 -27 -91 -36 -115 -62 -48 -120 -70 -81 -106 -89 -114 -107 049 -108 -75 -115 -09 099 062 121 
-112 -112 -24 070 016 046 041 -98 108 -112 -103 -99 -05 -100 -84 105 -03 -126 005 -14 105 -69 012 001 097 -100 -106 -82 100 -110 -123 -71 051 005 118 105 048 -35 015 121 077 -88 -94 080 075 015 -113 018 022 117 003 -24 077 -60 108 021 -20 100 095 096 047 060 095 -106 
073 -97 -71 033 071 -26 -50 086 -06 -79 109 -101 -53 077 109 -111 051 108 -55 -102 120 009 -66 -18 -66 -20 -115 076 -02 -106 117 108 055 -84 -118 010 113 -56 027 -118 023 046 035 -113 -99 090 111 -73 -63 030 -100 -70 -60 039 022 067 103 -69 -88 -105 058 082 082 123 
110 -71 -99 -70 004 -67 -84 -83 -111 -112 -84 -98 -03 -86 089 -115 -72 -110 071 093 -115 -103 -64 017 -66 -83 -71 -80 091 -105 106 -80 110 -88 -118 -96 -106 057 088 -55 -102 098 -123 068 099 002 094 -37 -89 -105 -67 076 015 -105 056 099 071 -87 024 -123 -26 -12 027 -112 
097 017 -62 -94 -55 078 083 -88 109 -33 -96 -54 044 064 -108 006 -81 098 -66 -60 121 -39 -85 029 043 -12 118 -58 -107 -40 -119 118 092 -32 086 -64 -98 022 055 -104 028 073 -116 071 -43 040 -115 -48 -03 -113 048 070 074 -74 102 -12 089 084 -77 -123 046 -98 076 008 
-120 -106 -21 -97 -10 -56 101 -94 071 004 -113 -86 -74 -47 102 -117 024 109 -44 081 -108 043 055 -86 092 044 -104 060 108 -110 123 -60 -14 005 116 035 -103 079 -51 099 -68 -22 125 006 073 050 090 001 079 113 -30 -91 067 -57 -113 098 078 083 -78 -123 065 013 -64 100 
110 -104 -65 091 073 087 047 082 045 -117 079 -12 042 004 058 -112 -64 120 -102 -62 122 047 084 -05 066 -88 100 -56 -41 096 112 115 058 -17 118 -18 115 -127 010 121 -97 077 -97 048 075 -09 -108 -76 057 -108 -53 -05 -41 -104 102 -89 080 -110 112 -116 078 076 107 -107 
-102 -95 094 053 026 -56 -104 076 -85 -103 -32 070 082 018 -105 -104 -92 -126 -43 -80 -108 -35 081 083 100 -57 -70 -67 030 011 -75 106 -75 -02 -116 068 125 053 049 -83 -88 054 -118 -45 090 085 118 -82 -54 118 032 -53 077 -54 -114 -115 -65 -14 075 -90 -92 015 -101 -101 
-94 -101 074 080 -35 -62 -43 -76 -21 -63 -106 106 015 -111 -109 -15 -74 078 080 067 -99 049 055 004 086 -80 014 094 -74 -116 125 -02 099 -84 121 -84 121 -116 -91 116 098 -24 -88 -04 071 038 111 006 -63 -105 -101 000 -27 -20 108 -108 -60 -103 110 113 089 025 -44 -52 
112 -96 076 095 010 -63 078 086 -21 -24 -96 106 -58 -28 050 111 -68 109 057 021 117 -92 -23 -89 -64 -86 -85 -71 105 -113 -109 -104 -112 -89 -121 -46 105 086 -43 120 -89 -91 -104 -53 110 082 124 -42 -63 -61 047 028 -98 -95 088 -113 -66 059 102 -109 037 -50 122 125 
-104 -91 -81 090 085 084 -69 037 087 -103 094 092 -72 108 -25 -62 -87 -93 -83 -69 074 -106 -26 032 -62 042 110 035 -105 054 -112 -104 -108 -66 -120 106 -99 -111 -90 -97 -96 -74 -05 085 -66 -91 -117 -14 050 -74 024 -23 016 043 -68 -42 044 105 -78 -110 -52 -78 -109 -96 
110 092 080 033 -42 051 -10 -68 086 -106 -82 -113 -60 072 -55 -92 013 -35 -83 -86 094 028 055 -60 -82 -85 -74 025 100 112 119 049 -27 -52 095 -104 014 093 -94 111 -96 011 105 072 -81 -97 102 -60 -92 113 -93 -90 -64 -94 096 074 -79 -102 -17 -106 060 094 047 -90 
106 107 -86 087 075 079 -91 084 -106 108 -97 014 034 078 033 111 -76 121 -64 -92 092 084 -51 002 -79 -78 075 -42 097 092 122 116 065 001 083 -19 -80 -124 013 115 -35 089 125 -69 -94 035 110 044 -09 123 015 -90 -12 029 -33 106 -104 -92 108 -109 -29 -94 -65 -84 
114 089 096 -80 044 -16 013 -94 036 068 102 107 037 -65 088 -50 -18 -103 -19 -91 117 108 -59 -59 -65 065 -117 -01 097 -112 -116 -10 -99 029 -122 079 061 113 062 103 -18 -89 -123 -65 -84 042 091 068 083 121 -03 001 -22 083 -69 092 106 035 -58 112 -80 025 -115 -116 
111 -38 -76 -45 -16 083 036 -55 -52 050 -92 013 -76 021 048 -120 005 120 -22 -79 -56 -113 -47 040 -56 -67 -66 021 -24 -74 126 -89 -98 -85 098 088 110 104 006 104 -78 052 095 -89 -91 -54 105 054 -93 060 -37 -22 038 066 117 -84 078 -82 072 120 036 074 084 -91 
116 082 -73 -69 002 050 068 092 033 -120 -89 098 -42 069 094 118 -85 069 027 096 -125 -110 014 -79 -94 -30 122 -47 -67 060 -89 067 -105 -83 -74 017 -112 -110 -15 113 -75 -128 120 -107 -99 086 042 -76 027 120 -22 090 083 042 -97 -103 -60 -107 096 -107 080 023 112 096 
117 009 -41 065 -75 -63 -45 -56 099 092 -83 088 045 -63 109 101 -38 -112 -51 001 051 055 033 015 -62 -06 -104 -14 017 -100 005 -94 068 101 -120 042 -68 121 019 114 082 002 118 108 058 -84 115 055 010 -123 -88 045 102 059 -11 085 012 098 107 -110 073 007 -114 -47 
-102 043 081 -35 051 055 -57 077 082 061 103 -97 092 047 101 -106 -81 -113 096 072 -104 006 -30 050 068 -75 120 057 -64 104 125 -110 -116 089 124 001 039 119 -96 106 110 026 -118 091 041 045 117 067 -94 115 -36 -44 -95 081 111 -48 -108 094 087 103 -93 095 090 -31 
112 093 -10 020 -87 -66 -57 -34 056 -78 -100 108 026 -16 107 034 -33 120 035 -08 121 -102 053 087 -101 -80 -118 -05 -100 -117 003 -112 107 030 110 058 122 119 -22 123 101 -99 -119 100 056 -84 094 077 -88 118 042 -91 103 -42 -104 106 -113 -26 101 -115 037 -67 111 -92 
115 045 048 014 026 -51 -37 -55 061 114 -100 -52 064 098 -79 -84 -84 -112 080 -87 -110 077 003 066 -98 -86 -119 -87 063 -102 -77 103 -40 089 -123 -104 044 118 065 122 079 -45 110 -15 018 -07 -92 048 076 019 -69 028 043 -62 -106 110 088 018 099 -119 -18 051 -118 108 
-86 -94 092 064 084 -27 -99 052 -82 089 041 -92 080 013 -41 -114 -81 -108 068 -42 121 099 -63 030 043 -62 -118 -49 061 055 115 -65 -50 -40 109 -51 112 113 092 -110 077 092 124 089 -09 095 105 -10 -42 116 029 -31 053 -25 119 103 010 -107 099 126 -81 -72 090 048 
123 045 032 051 038 -77 -98 059 -04 -110 008 -71 039 -51 040 -122 -91 123 067 048 -124 -84 000 -77 038 024 118 -60 -95 072 -102 -98 041 -31 -115 -81 -121 -88 -68 106 101 -91 123 -30 -87 -25 -119 078 061 -109 -24 060 -87 103 -94 109 -106 -90 112 -120 001 -57 -110 -120 
-115 056 001 -48 -86 015 -74 -29 -14 116 -111 -63 022 063 110 045 -34 122 028 -10 121 012 -11 067 032 -39 -106 -55 -88 102 -58 -107 -105 -52 -118 -86 015 -109 -73 -76 -82 091 -126 054 099 015 -122 -14 -50 -120 064 -35 079 069 037 004 -69 059 -13 -16 -12 -99 -118 035 
-13 039 -88 083 -61 -81 -10 -65 041 098 -108 099 084 -98 -37 -57 -64 115 058 066 124 088 -08 013 -96 064 032 045 -24 003 093 080 -38 -31 -74 -56 117 102 021 122 -102 -44 -102 -99 -74 -68 117 085 074 -114 -48 033 -96 -113 095 -80 -58 -21 -98 096 -14 091 038 -50 
103 -109 019 -39 -07 072 097 083 086 117 088 -98 -94 012 -105 -25 066 -118 080 060 -106 -110 -74 -87 -96 -89 -118 083 076 083 002 036 111 055 -16 047 124 -95 -32 075 108 -35 -110 -112 073 -87 113 -51 -73 -115 -55 -23 100 -12 096 -98 095 107 -63 077 -92 045 105 -75 
-38 072 -06 089 084 070 -37 058 -97 091 098 -109 004 085 -84 111 -32 000 056 -87 082 -33 -68 -22 047 022 022 -61 090 -71 -120 086 -61 -74 089 -99 124 -100 042 049 -110 -05 062 098 -42 056 121 015 -48 -32 -47 048 047 -67 037 096 -56 033 041 -119 000 -85 -117 -67 
038 -41 085 -85 -73 085 -74 -64 083 052 -43 051 013 025 -04 079 013 -115 -54 -01 122 055 027 087 036 013 -68 042 -33 079 116 -111 -87 082 -75 106 107 118 076 037 003 -75 -123 060 -98 -36 -100 051 -76 -119 -102 018 078 -92 -35 076 -86 -66 -84 056 085 030 -50 -35 
109 -10 -27 038 006 018 075 -68 080 -108 -67 107 087 -49 -88 077 036 113 -94 -79 -75 -114 -84 -71 -56 029 058 058 044 -112 039 039 014 023 009 -17 -126 070 -58 -10 -85 088 -73 032 -86 -98 086 -84 091 062 -33 049 -09 -72 110 070 105 025 -107 -124 022 -103 -85 -123 
050 -65 -53 -95 086 084 -45 095 -105 118 -108 -14 -77 -109 -08 -96 -27 -116 -01 080 -125 105 -85 -92 -43 -96 -30 -11 009 -87 -120 102 -90 007 091 -85 114 038 -82 095 111 041 124 -83 -86 024 -121 -63 082 -104 -99 -88 -14 -39 098 -69 -91 -101 -21 124 -63 050 -66 -112 
096 -106 -19 -23 -62 029 019 061 100 053 -97 -103 087 058 -93 -119 070 117 011 -103 116 047 079 064 -05 -50 -26 022 026 113 -114 060 -59 067 -122 055 113 044 071 -125 -108 -22 -117 061 053 055 062 -18 086 123 006 -79 033 109 -120 -51 -95 007 -68 -48 -81 033 -119 -49 
-28 076 -80 025 -27 044 -95 -92 077 098 031 098 039 -60 -106 079 053 -78 090 075 117 -99 001 013 -92 069 113 072 -05 -99 -125 -35 096 -86 -50 -101 -111 -114 071 -20 096 068 001 -104 090 096 -118 087 090 -123 -52 076 047 071 106 115 101 102 091 -99 -13 -15 120 -106 
-103 -112 -05 061 054 035 -100 -90 -92 045 -24 -38 -06 -70 066 -122 -90 -28 -21 -87 118 045 -70 -95 043 095 -114 024 -64 -95 082 108 041 -26 118 085 108 122 094 102 -65 076 -123 -100 099 -37 112 -88 054 084 -81 036 -94 -28 083 084 006 042 -76 -06 015 015 -75 -104 
-120 -16 -21 043 087 070 082 075 -99 -122 098 -109 079 084 018 092 -93 -110 -82 -99 -116 005 037 -12 -86 -50 -112 036 104 079 -114 050 -105 -64 112 -38 -96 044 -11 -85 078 -89 120 -47 -77 059 105 060 007 074 078 -28 098 -06 111 112 -44 081 -96 000 086 -72 112 -03 
-39 -105 103 -75 038 -47 087 -23 106 119 087 028 035 -101 076 087 -11 114 -77 -08 123 056 071 -14 062 -22 -40 -73 033 108 -100 073 -96 055 -106 089 -94 -122 019 056 -114 -38 018 094 -52 -29 091 -17 -20 119 -13 -16 -36 -91 -02 056 055 -17 047 115 038 -67 112 -111 
-104 -92 068 -36 056 042 -90 085 -27 002 -08 086 004 -111 -56 113 -52 121 -14 -88 121 106 041 049 037 -78 103 045 100 -99 034 062 -03 076 123 -19 113 107 -65 121 -86 -29 120 -45 -56 -54 -123 000 -84 121 -100 071 -07 071 117 -78 -97 006 018 125 -28 068 -113 076 
-81 100 044 -25 -21 010 -86 -93 083 -36 -37 -112 -82 084 -08 -69 -76 123 -13 -77 121 -92 -03 037 -28 089 083 -17 -94 -42 -116 -65 -19 -58 124 035 -115 100 -29 121 102 097 -124 095 -102 -70 121 -21 -64 046 -44 042 046 097 -68 095 -103 075 014 114 -67 065 071 -122 
116 -54 -07 -67 083 -65 -26 -84 -53 -118 -99 075 -53 094 026 085 086 106 080 -60 -121 053 -17 021 -82 081 -25 093 091 -100 -120 -95 023 082 -101 -108 115 -117 093 -63 -109 -60 105 -55 -96 -92 -100 -49 -66 098 073 -66 -100 111 -19 -102 -57 -63 106 095 -16 067 110 -69 
-108 034 069 -55 -78 074 -25 022 041 090 111 -38 081 -67 -82 109 -53 -74 049 -95 111 015 007 005 -23 -33 -103 069 088 114 019 086 041 022 -116 -97 -86 -107 -38 -42 -77 070 -123 -17 -103 -15 -86 -80 032 -111 -31 -92 -103 061 120 003 -45 068 -109 087 -08 092 -98 -62 
-115 -67 079 -83 -69 -89 -49 -35 -75 -118 -111 -63 084 057 102 120 -22 -123 100 -87 -113 111 075 -77 070 075 -15 062 -91 -44 -124 032 -110 075 091 078 123 -116 075 123 047 025 123 -92 062 -58 -120 035 -35 -109 -81 067 075 110 -110 -93 -106 007 -13 115 091 -09 -110 112 
106 -59 -83 -21 083 065 083 -85 049 -92 -34 -68 -81 -16 -101 004 -08 113 100 -106 -112 -09 -62 -20 062 -78 050 -39 -16 102 -106 -97 -82 011 -117 019 122 -64 -40 -116 -108 005 -50 -52 -68 083 -95 -49 -67 -96 -32 082 095 094 095 -110 -90 -56 -109 107 050 101 120 037 
-72 -45 009 -88 036 -37 -85 016 059 -121 -81 068 066 -74 034 020 071 -115 -07 -30 100 -107 -57 -96 -26 -17 093 050 -34 095 098 -103 -105 077 -112 -90 121 116 -25 -79 -103 037 -70 -70 061 -15 084 -65 069 -113 -28 -90 086 -19 -100 -33 -26 056 088 048 -69 -33 121 -124 
-103 -93 100 052 -70 -69 035 -21 086 -117 098 089 080 -87 103 -86 -26 113 008 -43 111 -37 022 -90 -91 -68 -108 -37 106 114 -126 -112 -37 057 103 096 105 108 057 118 064 -77 -128 088 087 -55 101 025 -54 -101 -66 -10 -103 -79 -118 -16 -14 100 086 070 -31 -49 116 -126 
105 -77 042 091 -78 -23 -105 -99 -34 -123 046 -102 -69 -36 -47 -96 -34 103 -05 -07 -126 -103 -88 017 -72 -55 -54 015 051 092 120 090 -22 -75 012 095 061 107 080 -122 044 044 -89 095 066 094 -124 -06 047 063 -85 -78 063 047 -114 -102 100 008 093 -11 064 -03 -81 084 
070 -42 -98 -92 080 070 046 -54 -87 100 -21 -70 -64 106 -63 -116 016 -128 054 081 115 061 033 -67 -57 093 017 008 096 -81 022 109 -31 -49 101 067 120 -125 -28 -126 080 -99 107 009 064 -91 114 072 033 -116 095 -98 -102 -10 104 047 096 106 106 070 -91 087 -95 043 
122 -84 -47 -06 020 046 -12 -65 -104 105 -10 080 -74 076 -60 -117 -47 110 034 022 106 113 016 -02 -58 -33 091 -74 074 106 112 -85 -42 057 -99 013 -126 -122 085 106 067 092 102 001 -36 053 115 -84 -01 -72 -95 050 015 046 -41 -93 082 -93 112 -123 037 -98 -77 091 
-36 -71 078 -94 -01 084 -03 086 -06 039 -90 -32 -23 -53 085 -111 -79 108 -44 096 112 -59 042 -93 022 -79 083 -79 042 -87 094 089 048 012 122 -94 103 115 -94 -107 019 -93 109 -72 059 048 -118 -43 -40 039 -89 -89 -80 -66 100 077 010 022 108 054 054 004 097 113 
049 -06 -70 085 -83 008 -62 088 093 067 015 091 -77 070 081 113 067 119 022 030 060 108 -42 089 -55 -07 -125 041 094 064 108 080 085 062 120 -38 -99 095 082 090 -12 044 066 062 082 -95 -85 -48 -92 103 -85 050 -70 -36 116 076 -18 -104 -46 -77 -66 010 115 010 
111 093 064 -100 047 -46 -71 001 021 093 104 091 079 096 062 -85 038 103 042 -35 088 -110 -19 -47 062 -17 117 023 099 110 055 -109 -21 -95 104 064 -109 107 084 070 -31 -17 -96 047 -01 -84 117 085 -64 -37 -66 -67 088 042 084 -113 097 088 042 -123 -14 -84 -62 087 
-45 018 -07 015 061 -65 100 -24 010 -94 091 102 -74 -107 -54 098 -82 -124 018 013 -05 102 -53 -67 -25 -21 006 041 -21 065 117 -112 098 076 108 -37 -34 110 -92 -113 081 096 118 -69 010 -66 094 034 081 049 -71 -87 -66 095 -15 049 -06 -111 110 109 -69 088 086 116 
088 093 060 -44 -72 -59 -56 -31 106 -112 105 -108 -54 097 085 -110 -41 086 -14 070 -113 113 -71 087 -05 -45 095 -65 020 -81 049 103 -107 -27 -105 -93 123 120 -43 069 -14 059 -94 075 -41 -77 -121 062 -85 -107 -16 079 -74 079 076 116 111 111 -101 -37 -09 091 092 -122 
-125 -60 -98 021 038 -06 080 -58 -104 106 072 -114 029 -74 -112 -104 078 -120 -99 -63 -100 -26 -41 -44 075 -94 116 068 096 -96 -125 065 018 077 095 -26 071 110 062 -126 071 098 113 099 -33 028 109 034 030 -123 -99 086 -60 -111 094 -71 -02 109 -113 082 032 -103 087 082 
100 047 -99 -28 022 -05 012 -36 102 092 022 -112 050 058 109 -50 073 -72 001 -103 -126 -103 035 073 -51 -12 077 001 -66 004 083 -65 053 -79 -127 001 -106 -37 040 -79 -101 092 009 -114 -71 -08 077 064 -74 123 -36 034 054 -40 055 -114 -37 016 -110 099 -50 096 068 104 
-67 076 090 085 -43 071 -53 -81 -50 -62 044 072 031 003 041 016 -10 090 -95 -100 111 -39 -19 -07 -92 088 087 078 -05 101 -127 -34 103 -54 103 -95 -127 -106 -85 083 -79 -49 -104 -50 -38 090 -95 -83 -76 086 059 -65 -60 -42 -50 075 007 011 -92 079 007 030 100 -113 
-118 -46 -25 063 -90 -84 -101 -65 -02 110 004 084 008 -106 050 007 -02 -123 001 -103 -126 -109 066 -38 -30 055 -117 019 -24 016 010 086 -85 060 -125 041 094 -108 015 -98 -90 -98 -114 100 -33 -80 100 084 049 119 039 034 -47 -101 098 -100 088 010 056 109 022 -43 115 118 
087 -102 -38 -13 -11 035 059 -36 -13 -73 -113 071 076 -74 -90 112 057 088 068 091 -106 081 048 067 093 -62 100 020 -10 067 115 -54 026 -86 112 -102 122 -122 -35 068 -79 -57 122 029 -89 -26 076 -71 006 113 079 -02 019 -76 084 -53 085 -63 -101 -123 035 062 083 -47 
-122 -103 066 -20 006 -70 -96 -81 -41 -119 114 -41 -34 -106 069 121 -22 118 -69 -94 110 -85 -47 -30 -85 044 -119 073 -102 -110 092 -97 -54 001 -20 -95 111 120 -08 -108 049 -42 -112 105 -55 -78 043 008 -16 121 -88 066 -84 111 102 027 074 108 116 101 -66 -90 -58 -116 
-107 -32 001 -100 084 -83 041 064 093 -94 071 095 -46 -22 058 -67 063 -39 -82 093 121 -44 -09 -74 -81 028 113 091 092 111 054 096 -95 041 -125 -72 -43 120 -44 062 084 -95 -111 054 024 092 114 068 -30 120 056 -35 -102 -35 109 -15 093 -106 -27 121 075 058 -123 -101 
-108 -103 050 -91 -46 -93 -89 -86 088 -21 077 084 -38 -44 -02 106 073 -113 090 097 123 -99 084 -92 017 -45 073 075 051 025 112 076 -109 024 -93 -36 036 084 056 111 107 100 -87 005 044 090 -100 -11 081 -122 -31 -67 087 037 088 -108 -27 -62 107 044 -97 -88 071 103 
026 041 102 019 004 069 -65 -94 003 119 -79 -109 -90 -96 021 120 093 110 056 -38 114 049 -71 009 097 059 -116 -67 -90 -116 113 101 087 042 109 -103 121 -11 -73 068 -92 -91 -120 -96 -64 046 117 -85 055 -98 -68 047 029 -97 097 -112 066 -97 -42 -87 087 -95 109 081 
110 042 089 -33 052 073 099 -54 -82 -106 -92 -115 083 094 095 -82 -30 113 008 046 116 063 027 -29 -28 -74 097 079 103 -26 116 119 004 090 109 104 124 -117 -87 114 -103 -50 -87 -16 085 -34 123 009 082 092 082 -05 -56 -97 100 004 -99 092 075 095 -77 -47 -83 124 
118 -49 001 -70 051 077 -100 065 -89 117 -80 087 -72 -113 106 -47 040 122 -53 056 091 -107 059 -53 -39 -77 109 -30 080 -100 -106 -88 -33 027 121 015 -123 059 032 -125 020 -27 -127 -95 056 -87 -91 -74 -91 124 -35 -01 -22 095 -70 -109 018 045 -64 120 -58 079 121 116 
066 080 -84 065 -81 -79 -23 068 -54 -24 090 -54 -91 047 -100 -89 -69 114 074 085 111 104 017 -93 035 003 -118 066 -97 -106 124 -18 108 -28 100 -65 020 110 -02 -95 -66 067 119 -06 064 -92 109 026 053 122 -59 027 -82 086 091 110 065 110 111 -114 -38 -100 -122 124 
115 041 016 -08 -20 025 -52 -103 075 111 050 049 -55 040 -110 063 -59 -128 -52 005 105 -78 -26 079 059 -24 -101 092 -108 -114 121 035 111 -53 107 -10 121 049 067 123 109 016 117 104 009 -63 -52 -89 -88 105 002 -40 076 -95 099 -103 032 045 108 110 082 061 019 -18 
-53 -09 044 -73 077 -18 -95 086 -108 123 -104 -91 -83 096 -30 090 -77 119 019 -102 108 -33 -20 -35 034 -05 -85 081 -80 090 090 110 056 -29 -115 062 117 -123 -17 115 -38 092 113 -100 -64 -82 113 -23 -01 -94 093 092 027 -76 006 -121 -71 -42 103 111 -78 -33 -110 124 
053 -02 -92 -95 002 077 044 -81 -07 118 -97 095 -05 -99 054 -106 -19 057 081 -64 121 -95 -15 -42 -02 081 095 -27 -42 -111 119 -74 085 -40 105 -24 116 102 -69 111 104 -66 101 088 -74 -56 117 -33 061 -106 013 -08 -93 -87 112 110 -15 036 -85 -127 -46 -86 -36 -53 
058 -49 -08 071 049 -30 -91 067 053 125 -67 -106 -45 047 -107 115 043 112 023 082 116 -88 065 -63 -27 -48 124 023 099 -86 115 098 033 069 122 -105 086 -40 -25 095 047 017 110 102 -65 -79 -101 -85 -92 -110 012 -92 -53 -113 044 073 102 -80 115 118 -90 089 103 -76 
119 084 098 060 -74 027 061 -07 -06 -108 -21 005 -41 -103 050 -31 -26 116 075 053 -127 -94 -62 -94 -93 -94 107 092 030 040 -110 109 -47 -58 115 -30 063 -87 -67 -111 -72 -79 087 104 -10 -90 096 -48 021 125 031 086 -62 076 -91 -90 088 040 -76 -116 070 013 111 -36 
103 073 -77 -59 -55 -54 095 097 -111 023 070 -55 033 011 -108 -101 -27 110 079 -12 -125 044 -74 069 -88 -83 -55 036 -41 -55 037 -48 029 -67 120 007 -123 -43 034 -23 -26 045 073 -112 093 069 088 -90 -28 -98 094 -72 -26 105 -124 -112 -26 016 003 -93 -38 085 026 109 
098 -70 -29 -67 -82 -12 095 013 026 096 047 -87 -18 -84 -88 -96 -51 069 064 -33 108 -36 -74 -83 -73 -95 084 -37 017 -59 -128 093 -68 -106 -01 -41 111 095 075 -103 084 -95 099 -18 -12 011 -25 012 034 114 065 -80 101 -91 096 098 -66 056 -57 -49 028 080 -51 087 
064 004 -96 056 -14 -85 -61 -02 -78 083 046 -83 -05 065 048 003 010 110 077 -05 098 -96 052 -74 -29 047 018 -79 100 086 -26 -45 -106 017 -127 023 111 -76 090 027 104 076 104 050 035 043 -120 -75 086 -83 085 050 101 -12 081 -74 008 -14 061 102 069 -96 055 085 
087 071 029 095 044 075 071 -48 061 -115 -84 033 086 -57 025 -106 -72 -10 -47 -85 119 010 014 047 -71 039 -87 088 104 027 110 061 -104 028 -77 -34 106 -14 053 101 -83 -39 023 030 -31 -67 104 -66 028 117 -51 087 -73 -41 -80 111 -81 088 025 065 091 013 -115 121 
-61 -65 051 -92 016 -33 -99 -59 -108 048 -90 -57 -94 -107 084 056 -74 079 058 -83 111 084 -10 -63 075 -86 073 -47 106 -92 081 078 -98 003 121 -108 117 118 -28 -126 115 095 065 067 102 058 075 -47 090 -122 039 -36 068 077 -74 -116 088 108 102 -128 063 -66 -115 106 
-113 103 -81 083 021 039 -96 035 -93 049 -29 067 -73 -21 062 -114 -54 120 -88 -03 110 052 052 -73 075 -78 -119 019 067 -110 113 080 007 056 107 092 081 116 -90 -123 -87 096 116 002 -33 062 -30 014 022 111 -28 005 069 062 110 -53 -40 100 110 -112 -60 005 108 051 
105 010 -90 082 -68 057 093 058 108 -118 -75 029 -90 -77 051 103 -32 104 -01 086 -109 086 -73 -75 026 042 -76 080 013 118 105 -106 -65 099 069 074 087 -110 -05 116 100 098 -117 -109 -93 023 -20 042 -57 -125 096 071 091 050 -20 042 -18 081 -50 -54 078 -82 -122 044 
-124 -85 -81 028 021 058 -95 -17 110 -117 -58 041 048 055 -88 -13 018 -127 039 101 -29 027 079 070 088 060 -115 087 083 055 031 108 110 019 116 004 -121 117 -72 122 -04 066 -121 096 031 -55 115 -31 -60 110 087 078 -51 -03 -102 107 110 093 115 118 -41 088 -121 -119 
028 -57 059 046 -19 -24 100 088 059 -94 073 087 -30 -107 096 077 -38 -109 029 063 120 -79 -09 -22 -85 -61 022 059 -86 -53 105 103 032 084 -94 100 -107 116 -73 104 -98 -15 -37 052 014 069 -05 -18 -77 -51 -96 -93 097 096 000 116 031 -29 110 -127 070 079 062 115 
-103 030 075 096 -89 -40 -62 070 097 -112 -96 -60 -79 093 057 058 -80 118 019 057 096 -25 -05 081 -40 050 -116 078 001 -56 -127 -13 -52 -22 -59 101 -124 101 009 -70 -99 047 036 -30 092 046 -116 050 092 -124 032 -67 -41 -84 101 -55 066 105 063 123 -94 -96 -62 -94 
-18 -76 049 -90 034 071 018 087 -09 -112 -68 -95 043 -108 -93 117 036 -126 009 -76 -111 -101 044 083 -99 -93 -01 -73 -18 093 -26 -96 -49 -55 -07 -23 112 -105 035 -118 -104 081 014 -11 -24 -76 -105 043 064 -96 -71 -68 089 071 -81 -112 -17 091 -74 101 054 -08 011 -123 
113 093 038 -61 088 -03 -86 087 -30 118 -104 096 -25 -88 037 -114 -39 -126 -65 101 015 -94 -09 -58 043 -32 -89 007 052 -111 -123 -96 085 -81 -123 071 020 121 -64 106 -107 035 -124 -76 067 -23 045 -37 061 044 -83 -20 -34 -110 -103 063 068 -69 099 012 030 -68 111 040 
-109 103 033 -30 061 -31 086 026 -107 076 108 052 -78 028 097 -52 003 116 069 -56 -99 -11 -64 062 014 -74 -120 046 003 100 116 -64 -80 069 -39 -54 087 083 053 -87 -89 005 -103 090 -20 036 -106 -21 -59 016 -33 -32 -48 -74 -114 033 -107 -108 106 124 075 020 102 -47 
-36 091 -52 089 -30 018 -88 078 -76 -17 -89 052 -87 -03 -99 -113 087 -126 006 082 -124 -68 -43 000 -24 -12 -73 -18 -106 116 -116 -27 -112 -59 058 -50 -90 -45 070 -124 -101 056 -49 -56 -68 -29 -114 004 002 -92 091 045 010 -106 105 103 -28 096 007 063 084 002 -60 -47 
000 050 -81 050 -44 -90 077 081 083 067 -95 -52 030 105 090 048 -48 118 -30 067 052 -90 -58 -81 -26 040 052 -07 -27 -89 089 034 088 -89 103 -32 107 001 -43 103 006 008 121 -81 -102 076 -122 020 -10 -126 -12 085 103 -107 -94 -119 033 102 -47 061 054 061 100 -96 
-20 079 076 086 035 -38 012 -84 040 008 -100 027 -30 -70 -92 -100 -67 -12 -04 071 070 082 -08 046 -91 086 -22 -73 -09 -09 -124 -108 -33 -54 -123 050 113 -121 -63 -52 069 -97 -124 -52 076 -98 -72 -10 -73 115 090 093 059 059 -60 -114 -34 -06 062 104 092 -47 -57 -54 
-109 030 069 -19 080 -85 -44 033 068 096 -108 005 -53 072 -94 -05 -80 125 018 -103 122 073 -38 091 096 075 021 -76 -106 069 -46 -54 -82 -36 -106 103 036 -26 030 098 -32 -25 -101 037 026 006 -122 062 -76 121 062 -41 -77 -15 081 -83 -104 029 -84 105 083 -78 119 113 
099 061 -09 -101 013 -56 -60 -24 071 068 093 -106 -71 108 086 116 -74 123 -87 038 108 075 -87 -05 -20 -83 084 -09 -94 -23 125 -32 -104 029 -122 106 -102 107 068 114 -24 049 065 094 -98 -83 121 025 -82 114 -98 -12 -73 -93 102 -119 -12 101 -29 083 038 -77 085 -116 
-126 096 006 -04 -40 032 101 -102 093 -119 079 -92 -30 066 -34 081 074 -114 099 -20 -112 033 -80 -45 -80 082 -125 053 -104 075 -112 -102 078 083 -123 082 -122 104 049 -86 -113 023 -124 050 -77 -13 -122 -08 -70 121 036 -41 -13 -47 065 115 -80 111 -97 115 009 002 114 081 
-123 068 072 -67 -29 -46 -96 -10 109 -68 -82 -33 -89 -111 002 070 004 078 048 032 -122 099 -51 -37 058 021 -89 058 -68 -40 -115 -37 069 092 -106 098 -95 051 063 -12 -50 100 -118 095 -39 -90 -120 -04 -17 -112 005 070 -12 098 069 098 -53 -21 004 121 -30 -85 -91 -115 
114 -57 -97 -63 072 030 -77 -74 -97 -84 078 009 -89 -01 099 -48 -65 119 -59 050 111 -112 040 088 -74 065 -120 067 -26 111 123 102 -50 022 -31 043 -125 -125 030 -109 -96 089 -113 085 -30 -71 -99 068 045 123 072 -75 066 -108 -118 117 -107 039 -91 -122 075 -93 107 035 
107 -02 099 060 -80 008 072 -51 -13 113 079 -101 009 066 -76 -102 085 121 075 050 111 -104 -76 -19 -33 -47 052 006 028 -11 -126 -99 -56 085 -93 -106 094 095 -90 112 108 061 120 -08 -94 096 119 -26 -83 -111 -76 074 097 -114 -123 -104 -81 069 110 100 -25 -05 -43 -108 
-119 008 -53 045 -91 000 -75 079 068 112 078 107 069 007 -110 -60 -63 115 -05 -77 -114 106 -57 076 057 -50 022 -71 -64 107 -99 097 071 -80 -47 030 124 -71 -68 077 -67 099 045 101 -32 -28 089 068 -62 -102 -100 025 102 107 002 024 -26 104 -06 046 063 080 081 110 
109 043 071 -38 048 -41 -11 -10 094 -70 103 -111 060 -97 013 084 -80 -127 -76 000 -107 025 -28 -24 024 -56 117 -60 106 -97 123 -57 112 -12 -122 057 -57 -64 -82 -112 -81 004 120 -104 -35 094 120 -61 -51 -112 -60 -67 046 022 -112 -106 -90 108 -41 117 -82 -66 -106 -96 
-85 -101 004 010 -26 054 048 -70 037 -61 -28 069 -76 -21 -99 079 -52 -128 008 -95 -116 -111 -16 -84 -53 -73 119 075 -108 032 -108 050 101 051 105 -51 121 -122 -49 -120 -80 -12 122 -105 -12 -76 -102 -57 -55 119 016 093 091 -15 076 -103 101 040 -61 123 080 056 101 -89 
-125 004 050 -92 -92 -70 -65 019 -81 118 -95 -102 048 093 106 019 078 115 058 -96 022 045 018 -83 -01 036 081 -36 075 099 110 073 -89 -58 109 094 095 -106 045 -100 -84 016 082 050 -26 -52 091 -03 -57 -116 -64 -71 -42 092 103 112 082 095 -97 068 -75 -27 085 089 
111 -101 023 -72 -49 -54 032 087 104 -115 031 -02 -66 001 085 097 -79 124 006 081 052 -99 031 -50 -24 030 042 -70 105 -116 114 -79 -102 -47 -124 020 -114 102 -46 117 101 063 058 091 -100 -01 016 029 073 -124 -05 -41 -25 -11 102 015 007 095 -77 -121 086 -04 -117 084 
-119 -81 094 -34 080 -52 -76 -84 109 -118 112 104 080 -83 107 015 -83 -120 -24 050 -114 -104 -77 -78 -35 -15 085 076 -103 022 -112 106 -37 050 098 -23 -103 116 -21 -119 021 -78 -109 034 -81 071 -91 -74 010 110 004 085 -53 -96 -82 112 -30 044 -61 -67 039 -07 121 -23 
067 018 042 048 051 -44 -02 -53 080 106 010 -87 -62 -84 -76 113 087 -95 051 080 -109 063 066 -75 057 -53 -109 042 077 057 -105 -24 -98 014 -106 -97 -126 061 088 -104 -38 -70 -94 -88 -06 -16 -117 000 026 -73 -56 052 058 -113 -108 -28 096 095 -105 104 -52 101 120 -48 
003 -55 -97 -61 -84 -71 -59 031 -99 113 -68 013 075 -96 -35 -104 -06 118 -79 -27 103 -82 -13 055 -96 080 -101 -57 -77 085 123 -106 089 -75 -119 -107 -123 035 -54 114 -98 -44 -115 094 -36 058 091 -33 -96 -115 027 -27 -62 -94 -114 073 -105 -34 104 -82 050 -104 -31 014 
-111 -58 -28 -16 026 -31 027 -20 030 083 078 -56 071 -106 -69 025 090 -113 071 077 124 109 -60 087 -62 090 077 087 -91 -86 -111 -86 -10 087 114 080 047 102 -37 -114 101 011 -117 -102 096 045 064 016 -45 -96 010 -23 100 078 117 073 -75 -63 102 -112 076 -85 -111 -107 
101 -35 -66 -87 039 039 -28 -58 -24 -126 020 -96 -56 -18 -59 068 099 111 064 025 -108 -98 -26 -91 049 -56 058 012 099 -07 094 010 106 083 -87 -98 124 090 089 115 091 -87 -120 -69 079 063 -100 -65 -51 -108 -101 -40 091 073 -109 -99 001 -77 050 -118 056 089 096 -114 
-26 087 -66 099 -66 -65 025 -96 108 -103 023 -66 -57 010 -66 -75 -71 123 062 097 -109 083 025 027 -64 -91 -98 031 041 -117 -121 -98 -96 -88 122 -103 -80 -86 079 122 -114 -10 -92 093 -27 -85 039 070 084 -105 067 -83 -48 092 090 108 014 -67 072 -111 -25 083 -92 109 
081 -73 -64 -40 -92 -65 -54 041 -79 -120 047 -102 -09 027 104 -116 -46 -101 072 -90 049 092 -79 -88 -20 -95 -111 -46 056 019 -95 105 101 -94 -04 -16 123 -119 -78 -125 -25 031 123 -71 093 -94 -91 -04 -87 104 -97 -73 -62 059 114 017 086 -50 -40 -120 032 -10 008 -108 
-87 082 058 070 -28 -63 -35 -40 -39 -124 086 012 -40 019 076 -33 -21 -124 -75 -82 -87 -66 031 -31 084 073 092 -48 -32 -78 119 -19 -64 -27 089 -32 -122 -121 -97 -110 089 -70 118 -89 -63 -41 -20 -90 073 105 -80 092 054 -90 -106 119 094 108 101 -110 -13 087 026 -94 
050 008 -78 -48 078 013 -102 044 -79 116 095 -18 -93 107 026 -22 061 081 -56 090 125 -70 -35 -84 -97 -43 109 016 -87 115 125 081 113 -93 114 -64 -77 104 093 103 -65 094 118 -72 -103 -43 103 -42 -78 -10 -99 -92 069 097 -49 -47 086 -57 046 -115 -11 -96 -97 015 
-118 006 098 015 044 -16 -69 -86 -91 053 105 -46 -42 -16 -99 -97 003 030 040 -06 092 -105 -65 -74 030 094 029 -35 088 116 -124 -11 110 008 031 -88 060 107 018 122 -112 040 -114 -19 -100 096 110 -45 062 121 067 -72 051 059 -75 067 -95 -87 098 -124 -82 -43 -111 001 
054 033 -99 079 015 038 010 036 -93 111 000 017 -14 -88 071 -83 -90 -126 008 004 083 -108 038 -94 -42 091 003 -09 -99 -69 -127 -108 -86 019 088 -110 107 113 -66 124 -20 -03 108 -49 081 -84 103 -81 092 120 088 058 000 -43 -48 -88 075 -103 -94 -66 006 -69 -51 -27 
-115 -60 -81 -74 -34 058 -81 -07 -104 056 -96 -64 011 031 093 021 -31 121 049 -37 -79 -71 -80 -61 -61 095 -111 083 -104 091 -31 -10 -04 039 -119 -14 -14 -104 -49 102 -31 089 109 087 -92 057 -80 011 -27 104 -83 062 067 -90 -85 -115 -62 059 -78 -69 -54 062 -17 -112 
004 074 012 096 -71 -29 -84 -31 -55 102 018 053 053 019 -13 037 051 -106 -80 079 083 090 067 082 047 079 083 -30 051 -55 122 022 -110 063 122 -11 118 007 073 123 -110 095 124 099 096 -26 097 -48 070 087 -86 -86 -83 055 088 087 -47 039 -77 -126 073 -66 030 092 
-101 026 -74 067 057 072 089 -06 -69 -118 -37 -90 -76 -15 -29 036 036 123 -74 092 -20 050 046 062 -16 073 -122 -80 020 111 024 103 -40 016 087 053 031 -42 -04 110 046 -72 -127 000 056 -44 -116 -72 -45 045 099 -13 002 092 057 094 096 046 -64 -94 -86 001 -120 -07 
-83 -20 -89 -48 053 029 058 013 -94 048 -89 -07 072 -97 103 -115 -83 -96 -16 090 -41 -37 -50 006 056 016 -123 006 076 -113 -124 -98 -108 -43 088 066 -122 -113 -46 -61 008 066 -113 -60 033 080 096 -81 -37 052 -72 -03 021 094 078 073 089 -58 -95 -54 033 073 -31 -112 
-115 -03 072 -94 031 083 102 -91 -104 -28 -83 -106 -16 018 -34 021 055 082 -90 -36 119 -93 079 049 -69 047 043 -43 -33 077 -59 013 101 -84 -50 056 048 088 -90 105 082 028 118 -55 -75 -67 -111 004 -34 -112 -96 -34 -30 083 -06 -53 -64 -110 -88 -105 -69 -91 -90 -49 
071 060 -87 -87 024 071 083 -51 077 -71 -82 046 -15 -103 -04 -16 -17 -77 054 -106 -122 -81 067 -14 -83 080 -94 080 003 109 117 036 -113 085 -21 -49 -122 116 -07 094 -66 -72 -125 -112 -92 079 098 050 039 088 -57 -18 068 -110 -119 -85 071 -71 -99 122 025 101 051 -68 
119 -68 099 078 -48 -85 073 -12 -36 016 041 -21 -93 103 029 099 046 -126 -64 102 011 083 079 -41 -90 065 -120 -39 -03 -117 -93 095 040 033 -125 -67 -64 101 071 118 -38 041 118 013 -44 -30 -98 043 -86 -104 057 -69 005 045 099 095 -35 086 -104 028 039 083 -51 097 
116 085 -24 097 -66 -60 -98 067 -05 101 038 061 085 106 -35 -81 059 -110 055 012 -85 065 -59 010 -23 -68 119 -85 -109 073 -82 -43 079 083 013 003 -82 -72 028 -33 098 -66 122 -14 076 -60 108 -15 089 115 061 -30 -19 -109 -60 -102 -91 106 013 -106 089 063 029 121 
-111 079 027 097 -86 -63 -104 -83 -46 -108 057 -31 089 -101 046 114 022 -03 -27 023 113 -94 063 -92 049 -20 -63 063 073 104 -110 071 -08 018 -111 -105 057 112 -53 043 079 069 011 010 -03 092 119 049 -88 046 -66 -50 026 -90 -108 056 104 096 102 -35 -11 001 -117 -114 
117 007 037 -08 089 051 -69 -07 065 106 -80 008 033 074 103 -110 057 125 -20 094 090 -17 -78 088 -68 044 -121 -10 -10 023 056 -84 051 -22 105 105 117 -86 -79 095 -105 -66 033 -83 060 007 087 084 -83 -121 -10 -53 015 -59 -82 113 -106 -99 -08 -105 079 060 -124 114 
092 -93 -79 089 -58 088 -34 064 -79 -120 058 042 075 068 -63 -117 059 119 -82 -102 118 077 -21 -51 -02 -77 -24 083 098 -106 -55 -15 -69 -28 -58 102 -123 010 -91 -124 -54 087 119 -80 094 -82 006 059 -95 -114 -24 -90 -105 071 -100 -61 083 022 014 125 068 -19 116 116 
-81 -65 -101 -78 088 076 088 068 062 086 022 105 -89 -84 -69 -122 047 125 -61 -101 114 -98 036 -19 081 007 -113 059 104 016 -95 105 051 003 -105 -110 093 039 090 -125 099 -100 -111 109 -95 -26 -13 -63 077 -114 -47 071 098 -76 078 034 -60 100 084 -97 091 -65 -120 063 
088 -75 014 -73 -45 075 -81 081 -107 035 104 093 -82 -66 -67 -98 -93 -116 068 -29 122 090 037 -71 -99 -19 -76 -13 -10 -53 126 -16 107 -45 117 090 -110 008 -55 123 -107 008 084 088 -05 -09 -96 077 -43 107 046 065 -52 066 -104 086 023 057 -55 038 -71 -19 -120 -63 
076 -58 -62 098 070 082 030 -80 083 -107 -102 -107 072 034 -82 062 -74 106 -31 -96 099 014 056 -96 048 -06 121 -71 -34 -99 125 -45 025 -83 115 -110 -13 112 -68 -108 -100 -82 115 -81 093 -80 -119 080 080 006 -84 -79 067 -26 -67 113 063 106 091 -112 087 028 -65 052 
-118 097 -36 090 042 042 -08 -06 076 074 078 -94 022 058 -41 -89 080 109 016 022 -120 093 -28 -89 -81 -43 -87 010 048 059 -94 050 -69 025 088 -02 -112 -50 028 -121 -40 -61 115 -66 065 -44 113 019 068 -124 -87 073 001 -09 027 091 067 054 065 -125 077 -30 -110 104 
-33 -90 089 028 -33 051 031 062 029 045 049 073 023 100 -72 -79 -95 124 065 079 -106 -58 -53 -27 -51 071 -120 -72 -44 107 -34 -81 111 084 -116 096 -108 -119 065 106 -58 -69 -122 -51 -56 055 049 -44 -33 -117 -45 -21 -80 102 116 116 -55 007 -75 -99 090 -103 094 029 
-119 007 079 -54 058 012 -100 063 046 -37 -07 075 -64 072 -65 110 -88 -124 062 089 -124 -99 -59 034 093 -73 -98 031 -71 031 -120 -18 -02 064 054 -67 -109 118 048 -69 -04 002 -125 089 055 -55 -119 038 094 119 047 031 075 -85 -115 081 -19 -64 -97 123 -91 035 106 089 
085 -24 051 092 -73 020 002 020 057 -112 -87 -19 -23 053 104 109 063 082 -79 -34 -113 -36 076 064 064 032 058 -16 -56 030 085 -107 069 093 078 002 -71 101 084 124 -73 006 -119 -48 091 046 -95 -71 -79 118 015 077 088 077 -114 -62 -91 -97 -93 103 055 -11 120 -104 
100 -105 -26 -71 -20 -42 -104 -85 -15 120 070 092 -11 063 064 -49 040 120 -95 -52 -117 -110 -87 -59 069 -74 -90 -58 106 -14 124 -71 105 -06 125 -81 -46 -101 005 114 -107 -31 -113 -85 037 011 121 074 -51 011 -36 089 040 -57 090 102 033 023 085 -122 082 060 112 046 
-112 099 016 035 079 038 -98 -61 104 -120 109 029 -02 -108 -99 -78 -95 -117 -54 061 -99 -109 036 -95 028 -78 -91 -22 -57 -105 -122 089 099 080 -124 001 099 -83 -50 -119 105 -83 -110 -105 -84 -45 -115 053 047 -120 -97 018 042 040 -107 -69 -44 038 -93 125 058 -97 117 062 
115 -98 -33 022 021 -82 042 085 098 -110 -74 085 069 101 076 004 -86 -116 078 -35 -89 -67 -88 -28 036 -78 -108 077 052 -115 -119 -107 -116 063 -115 -41 -75 119 094 038 -106 -59 -125 083 -70 -75 119 017 -84 -115 002 -96 075 -94 -115 -97 -48 -94 060 -118 081 061 -76 031 
031 -14 -07 -42 -26 086 082 -57 -90 008 -104 058 -04 011 -111 102 098 120 -74 -48 -87 -09 051 -05 -02 002 107 001 086 100 120 -73 066 -65 083 103 -119 -56 007 -121 089 075 -123 076 022 -52 083 -49 -52 120 090 -63 -15 071 -95 -36 072 -74 106 109 -31 -58 109 104 
-116 -94 092 -89 -81 -48 089 -101 -103 045 004 -108 -33 104 -02 114 058 100 047 098 -118 065 -49 -16 058 029 -104 042 -83 001 -116 097 -74 075 -81 -47 088 112 087 -86 -106 023 115 109 034 044 -106 -89 -64 110 -68 -94 073 -83 105 -90 056 -98 -82 095 009 -23 -101 -117 
-94 045 100 -84 -49 015 -70 043 -104 114 106 051 -48 -55 104 090 081 -84 076 064 -109 -88 -42 082 -50 -88 109 -44 105 -38 105 097 108 -18 -113 -45 -109 -118 096 108 090 038 114 -103 -91 095 -110 -48 056 -61 -92 -88 094 -64 -101 -120 -32 -96 -99 125 -60 -101 111 -21 
103 -09 -15 075 -88 -44 -104 -89 -03 103 -102 -33 010 -33 -33 080 -56 123 053 -105 073 -87 -62 -24 -79 -48 -65 064 -26 006 -119 -82 -102 097 -60 082 078 -117 097 120 057 -49 -103 -93 003 -04 059 016 009 -118 -53 059 -93 092 -14 090 -37 059 051 -124 -93 017 124 -114 
088 000 -102 -21 003 -59 097 -85 -93 -72 -98 -80 -88 056 098 098 -84 -98 038 094 079 021 086 -61 052 -41 -105 -11 -99 085 120 112 051 -83 107 015 -109 087 -08 -53 -110 019 115 106 -41 -33 063 -51 -39 -28 -49 -49 052 -76 -93 110 -102 -108 -63 -122 059 -50 -78 -120 
018 087 -43 -27 -33 -08 012 -91 083 104 049 072 -15 104 -55 -116 -58 -125 -92 -80 098 -76 -11 063 054 083 -118 -78 099 070 112 -86 -24 050 -91 039 083 -124 -62 -103 084 096 -118 064 -97 072 -105 -02 -94 116 019 -59 -46 092 102 100 103 103 075 069 087 029 -52 -104 
-79 -16 -63 -21 -12 069 -01 -102 110 -37 -92 -109 -78 -72 074 112 -69 055 -94 -88 -92 -108 -69 -29 026 030 109 -68 -70 -106 -121 113 094 010 -123 -35 -117 -120 003 086 -60 -55 092 042 -101 033 123 -08 051 -117 059 -92 -22 -76 043 098 -106 -50 -64 -114 054 -27 -105 -60 
-03 -30 035 086 -83 -85 064 -94 006 -107 -36 -100 -74 -43 -86 -91 -60 121 059 -107 -124 -108 013 -47 068 -72 -81 -67 -19 -118 -123 113 -108 055 -114 074 028 119 -39 -118 019 085 -127 -36 -41 -53 -119 -32 015 124 -79 085 101 105 -112 077 071 -33 -77 117 -41 -86 -106 -109 
048 -05 011 -92 025 -52 054 -83 -91 -76 065 -97 081 038 020 -89 -42 -100 -58 -27 099 102 065 060 014 -94 -91 -84 -96 -99 -105 -87 -96 088 109 071 102 -91 001 -121 -95 -86 088 -112 -98 052 122 086 -07 -60 096 -13 081 -114 054 -118 093 -18 027 123 -62 047 -74 -36 
103 090 -03 -94 061 023 -74 033 -77 104 010 097 -74 -88 060 -101 -42 125 -57 043 097 -88 050 -56 -13 028 011 024 -107 -16 041 037 -31 008 122 070 107 111 -31 -01 096 -91 049 -81 -33 -97 -15 033 -69 -78 009 -62 041 -04 -99 -110 -49 010 033 049 082 -86 055 112 
107 -67 -70 -35 -71 -86 027 -97 017 -112 085 -79 -50 -100 076 116 -79 105 081 -101 -120 -104 -37 071 -48 021 106 065 -100 -97 -123 109 -42 -41 108 105 -122 -06 -80 109 079 -06 089 056 -44 070 123 026 081 002 -94 -62 082 -60 -65 -07 -96 -53 113 117 -74 008 -111 -91 
-120 045 -97 -47 -10 002 087 020 -25 -110 073 -09 075 014 109 117 -85 099 076 -77 017 -21 049 036 -99 -69 067 -32 -59 040 -127 -63 063 039 122 -43 -83 -123 -79 113 -54 -20 -125 103 -84 020 083 079 -43 095 -99 -74 -103 007 082 108 -31 -66 -94 108 -46 -87 097 -115 
-67 058 094 -82 -06 -88 049 -82 104 -96 -97 -96 072 -96 -19 070 -81 121 052 -74 -124 -86 -12 088 045 -66 -121 -44 -02 103 -93 093 -85 008 -60 -55 -121 -47 026 115 -93 -84 -124 093 -89 -87 -116 013 -14 -11 075 032 -15 102 116 021 100 -32 118 111 -61 068 -95 -86 
098 030 038 -43 088 -43 051 043 -63 -100 064 045 060 020 091 095 -63 -08 -92 -03 -123 107 040 -54 067 037 -65 018 089 018 -126 -90 -28 030 112 045 061 093 082 120 106 002 120 -106 098 -84 042 -90 -95 067 -92 080 084 008 -27 008 094 -25 -38 -100 -43 -40 118 -63 
-89 073 -82 -74 033 076 002 -42 -53 096 -86 -42 054 -107 -01 078 012 122 -17 079 079 -13 -82 083 093 094 095 -58 -24 110 -120 -67 098 080 118 053 -122 -119 -28 -80 -104 025 114 057 -73 084 -118 -34 -08 115 -39 054 -98 065 063 -111 002 -62 -39 -126 060 -82 117 -105 
-117 -03 -68 -07 -37 -37 -77 017 021 -92 109 065 022 -79 -66 -107 -80 102 053 086 034 -93 082 014 026 038 -106 075 -96 -58 125 062 051 009 100 015 124 048 046 -124 097 -40 -83 -49 081 051 015 023 -97 114 -91 039 037 -02 110 108 -98 044 -87 -92 084 048 -80 117 
-121 -101 022 096 033 -25 -96 043 -87 114 099 -15 056 094 000 115 -20 -97 038 075 068 084 007 055 017 -72 037 -56 107 -28 124 111 -15 -69 -115 -16 124 -34 064 026 -112 011 -30 -88 -15 046 107 -18 -94 -114 018 -46 032 -56 116 094 -79 -14 087 -123 062 054 007 047 
-122 080 -24 -56 -58 079 -96 -95 -61 -25 070 -105 -92 -06 059 119 027 -105 081 -66 -107 074 -42 -88 -66 035 019 -29 -103 097 -125 052 -56 051 -91 -95 -24 078 -48 014 093 062 076 044 044 -96 -121 -83 -92 091 -64 -45 090 -98 107 -26 091 -111 -09 106 -75 -99 118 -87 
117 001 -19 078 016 005 -39 088 105 -118 -25 -33 -04 084 -59 092 -60 113 -44 093 099 105 067 -95 038 -81 100 -05 004 -112 078 -109 110 -78 061 -86 123 -124 042 112 -115 068 -125 -25 -83 -51 119 004 -41 -58 -14 -76 024 028 -111 -98 078 -46 006 -126 060 073 -119 -114 
111 -70 038 003 -16 088 009 012 102 -111 051 045 043 -44 095 -01 -63 -65 046 099 124 011 076 035 097 -40 090 -26 -10 116 -26 -110 012 070 -88 106 049 067 -18 091 -114 049 124 096 -54 079 -91 004 049 -126 053 -51 078 -77 120 080 -82 -94 -62 119 -81 000 115 -101 
-29 -82 -74 085 063 064 -54 -101 -12 101 044 -74 054 -22 103 040 -72 112 040 077 123 -23 -71 -53 042 082 097 -07 -59 -117 -70 078 028 -65 116 -68 -124 -48 042 123 079 -03 117 061 -27 -31 -60 -57 013 -111 045 091 -101 -60 091 006 106 033 070 -27 086 074 -04 121 
-17 -108 -66 -74 029 -41 -62 -32 101 114 080 -109 -71 -13 000 061 072 -26 009 -86 111 -23 -65 045 003 -60 117 -46 -101 032 125 113 -58 -75 121 071 -120 -99 051 -122 -88 020 096 -112 -03 053 067 -83 -55 095 089 055 065 005 027 040 072 080 -67 057 076 007 089 076 
-119 -20 097 004 077 051 096 099 -09 070 -111 -70 090 075 -77 -121 079 092 072 087 -109 026 045 -92 -88 -47 023 -48 -109 -20 114 -58 -112 -04 112 048 115 -08 -68 060 -38 -10 -112 -97 -88 056 -122 -85 -56 -33 000 -90 090 085 091 118 -23 090 -111 095 087 -47 -22 -108 
070 022 -30 095 -36 044 -14 017 110 039 -74 093 -70 -107 -87 -121 -38 -127 -81 090 071 -89 -49 -48 040 042 070 086 041 005 -121 079 110 -56 062 -87 080 109 082 -93 080 -92 124 -10 038 069 119 -50 054 -111 -86 -37 053 093 -66 -82 058 070 -116 056 -91 101 121 098 
057 040 039 035 -63 075 -102 079 -93 -105 -43 081 -42 093 108 -91 064 120 -16 102 -73 075 015 -92 -97 -66 091 086 -98 -52 105 -61 -80 069 034 -95 078 112 037 121 082 005 068 093 043 -95 -120 -89 -54 123 085 -09 -100 005 075 039 022 -72 -106 -125 051 082 -77 094 
-25 013 049 -68 063 -27 027 -93 069 078 001 -104 055 -19 -101 086 -05 -118 -83 -96 -110 092 077 083 -86 009 058 036 -59 107 -127 -09 088 015 116 093 -117 074 040 -101 -60 -95 -116 -24 027 078 119 -66 081 016 -37 -85 007 -111 -109 -105 -69 100 -18 -126 068 -45 002 -121 
-112 094 -80 -97 -52 -45 -80 -99 -49 118 066 105 090 -80 108 121 007 070 -74 -25 -40 -79 -40 074 -20 -56 073 074 -15 -111 101 -84 -47 037 -117 -86 112 -105 -69 061 071 -13 -85 -22 048 -09 106 -78 042 104 -58 -32 090 -111 -109 -89 096 -100 -112 101 072 002 -99 092 
-60 083 -77 -58 024 064 048 040 082 091 098 -96 -38 -108 -42 108 -17 118 -50 -82 -108 084 019 -60 -98 -32 068 068 048 001 -118 113 000 018 -124 -47 -127 061 014 060 107 -73 -101 -76 -78 -33 -124 -33 026 113 006 011 -01 -102 097 018 024 104 079 119 -16 -32 -36 -124 
104 -78 084 -75 -53 -87 070 -56 027 091 061 -105 -51 -65 -84 019 058 100 031 -81 017 -105 035 -93 -78 -74 -123 078 -73 -100 -08 -66 -09 034 -16 -09 067 119 -54 119 -82 061 -102 007 089 -18 -32 -42 -06 102 -97 057 049 -111 056 036 002 071 101 -126 080 -54 -35 119 
-118 -23 073 100 -81 -74 095 009 -109 -62 030 046 -66 -05 107 113 084 -112 015 -101 -93 -101 027 010 095 086 -91 024 -11 103 -54 021 -75 007 -81 032 119 -88 -81 111 071 -89 -95 091 -37 -84 117 -91 -78 -91 000 091 063 -32 -111 -112 -52 -47 -59 122 -46 -79 -76 -66 
097 007 -32 -96 075 -71 -08 079 090 110 053 083 069 -66 091 107 057 -99 038 -75 121 084 068 037 -61 -85 046 094 -92 -103 072 -78 -63 -44 -106 052 -127 068 -56 113 085 079 125 045 -36 -20 -23 081 -97 -110 042 -87 -106 009 118 -50 004 046 077 119 073 -73 -112 -59 
-65 -69 -01 -20 074 -53 -87 076 -61 114 048 -20 085 -54 -06 -115 -35 102 010 -08 122 -89 -43 050 069 015 123 -69 -102 006 -115 091 -105 -82 106 074 -102 119 -14 120 072 097 052 -34 -68 019 111 -48 -99 -123 078 015 -94 036 -16 117 031 -108 -98 118 056 -87 101 -43 
-101 036 -73 -05 -47 -31 -78 -74 100 082 -81 096 061 -43 -112 -94 089 -93 -61 -86 077 040 -08 -89 025 -94 121 -63 -80 -76 125 114 032 025 112 -106 -97 118 -12 -117 033 019 -118 105 -94 -23 -112 -41 -46 117 -13 -61 -02 096 116 105 033 005 090 092 -72 -84 -84 080 
116 047 077 -49 007 -68 098 -44 -102 122 085 022 -67 047 040 -60 -45 -125 087 095 -120 061 -53 -16 074 -46 -111 045 -13 106 126 -111 -64 016 123 075 -119 110 -10 -78 -35 -22 110 -45 -38 056 -118 006 -89 008 -50 -43 -42 -70 -85 -118 -15 084 -102 124 015 -97 118 074 
079 -25 080 -69 050 021 -34 011 108 -58 090 075 -23 -77 -24 -114 -72 123 043 051 124 097 084 -29 081 035 097 -64 062 051 -114 087 060 -67 076 -91 121 091 -09 097 -31 100 -96 -107 -86 -12 113 -38 003 -95 -101 036 -51 -112 109 -33 -91 107 076 -123 -01 -43 -118 -59 
-112 -42 -55 099 -74 073 066 045 068 108 005 -109 015 -105 110 003 -04 -63 059 101 -112 059 052 085 -68 -29 121 071 061 -79 -115 106 -28 -10 071 -87 121 111 001 125 -87 063 123 -88 059 -14 060 -86 043 -16 093 -80 -90 080 074 114 071 -73 -61 069 -81 050 -124 121 
116 065 093 -13 -21 -89 042 069 -106 116 -59 -78 055 086 -29 119 -40 125 089 054 -124 046 003 045 -71 -42 064 -58 -39 045 -110 -105 098 -45 -125 -17 125 116 -88 -117 106 019 121 047 034 -92 123 020 073 050 -69 084 016 -36 -109 -115 -101 -33 -92 125 -61 -80 097 102 
104 018 019 086 080 -40 -60 063 -101 -58 -89 053 003 101 -86 -87 002 111 090 -51 081 -90 073 -85 082 -32 113 -27 -69 075 123 109 017 -68 115 105 -118 120 -65 124 -94 -25 123 001 064 051 117 058 -32 -122 -51 -56 079 086 111 085 102 086 096 -121 007 -74 081 -101 
-117 079 066 047 -69 014 -01 -93 047 113 064 066 -53 050 023 071 -89 -116 067 101 116 -59 -60 066 -100 083 118 -13 027 105 093 107 -95 054 118 -79 122 089 089 -119 -58 -67 108 -109 003 080 122 -19 -20 -61 045 -76 057 029 122 093 -87 -34 086 121 076 026 103 -59 
122 -79 -03 010 043 -13 -90 -16 095 -113 106 060 -59 080 -65 113 052 122 097 025 076 097 -37 071 -92 -38 125 -10 010 -84 126 110 -109 051 -108 -83 -101 -123 018 120 -79 089 123 -100 -51 012 107 -63 -82 101 097 058 -50 028 111 -97 002 -106 -100 -87 -16 -53 118 -39 
-103 105 026 046 070 067 -70 -63 109 -41 078 -105 -19 -71 074 120 067 119 074 000 114 055 -18 -40 093 -79 -71 -73 104 -21 -100 053 101 086 109 101 123 092 -83 -119 -56 053 -117 -59 -30 -81 074 040 -52 122 -57 -49 -24 -20 063 100 -07 -78 101 110 084 -48 058 117 
-111 -50 -97 032 058 072 -84 -103 094 -96 084 -47 014 -56 107 -95 -86 082 103 062 117 -39 016 039 -78 -81 025 053 -90 112 -91 -102 097 081 016 -108 035 115 091 -125 110 -16 123 055 058 -38 -38 075 -91 -61 -98 -91 -56 -112 -106 -98 -65 -34 100 -106 -09 083 070 015 
106 009 072 029 002 086 -88 -90 -95 -118 -92 -102 -31 -106 -97 112 -79 -59 076 -20 -100 -97 025 070 061 -72 017 -15 031 -118 -112 107 -73 023 097 078 -125 117 -14 039 -104 -84 021 099 085 014 -76 019 -16 095 -80 007 -17 107 -101 -118 -82 048 -71 -118 -30 099 -105 -65 
115 022 -34 043 -17 -58 -80 100 -104 -33 -73 -07 080 -85 -56 -120 -13 117 014 -40 124 023 010 090 054 010 -49 -47 -110 100 -110 -105 -75 003 113 058 -104 115 -14 -118 -81 017 102 005 043 -99 075 087 002 -06 -86 009 071 -88 -114 114 -77 110 106 -70 013 087 -104 103 
-111 -110 095 092 -10 -34 -61 -92 -110 -116 -08 -29 074 099 044 -05 -59 -104 080 090 088 -78 -04 035 053 088 -104 -88 027 -89 -103 095 083 -62 106 -30 113 096 073 -124 083 -83 -124 -87 062 -50 -118 -53 -82 -124 090 -84 -104 075 -117 -109 -107 016 -80 083 -67 -104 081 099 
-96 -79 -26 -100 047 -14 -90 -69 096 -46 -105 027 -82 107 074 088 034 -95 097 008 -83 -90 -16 041 082 051 -35 -74 085 -118 -94 -105 -02 -57 -88 -36 -90 081 029 -116 -99 -26 -05 105 -10 -08 122 015 -02 -113 -36 -14 038 -107 -105 -82 066 -97 032 -42 070 079 -88 -12 
111 081 071 -30 068 032 -49 064 069 -115 038 103 063 -51 -35 -93 -37 122 -09 070 119 -53 -87 -43 -93 039 -115 -61 -97 106 -88 106 -17 -52 121 093 121 -110 072 094 047 -53 -33 019 -38 -59 117 045 -34 -86 086 092 -33 -96 -81 098 -81 -105 110 125 069 -96 -99 086 
065 021 089 -72 006 079 078 024 092 -27 -86 082 010 -65 081 -103 -52 -93 090 -25 -65 078 -56 086 045 -60 106 -84 -106 105 -96 -74 -89 078 -117 -26 -116 099 076 -81 -63 028 096 109 -32 082 -92 -70 -11 -93 -98 091 100 -47 036 039 -109 -104 114 116 -23 061 113 001 
111 -98 -42 090 026 038 -91 077 042 -86 077 100 056 -103 -75 -49 -63 -81 102 -72 019 -42 020 -04 -87 051 109 -57 -100 001 -109 -108 042 077 117 -17 -119 110 084 120 113 054 -121 087 -97 058 -35 -41 027 -84 -27 069 094 -62 011 051 -50 091 -35 119 -76 002 -116 117 
-16 -103 043 -55 -27 038 032 051 -04 -107 023 102 -64 -30 -106 -71 074 -113 097 -43 -107 079 045 008 002 -88 -114 026 -75 041 -117 -101 047 -60 -125 -105 -105 108 010 118 -68 055 106 -69 -49 -17 -73 -47 -57 -111 -64 037 -107 -113 -118 -96 102 -102 041 113 010 -78 -75 121 
106 048 031 034 -50 001 073 -67 021 076 109 064 015 048 -35 033 068 115 062 055 -67 -63 060 095 051 073 -43 -52 -93 099 123 -32 090 -60 -120 -104 117 -120 024 105 110 -94 113 098 -04 -56 118 -93 -95 118 -79 001 088 -114 -111 -76 080 051 101 079 -63 097 -112 019 
-121 052 008 -95 -91 -45 -63 100 093 056 097 032 079 074 107 -98 -05 116 -19 -34 093 095 -79 -65 -51 -34 -125 -38 081 115 079 080 -97 -43 -126 -66 089 099 -01 103 111 -79 -126 -67 055 -19 061 -52 -10 -123 042 -05 071 075 069 017 074 -100 098 112 008 076 -82 -27 
-01 -101 097 096 003 037 094 -18 -72 119 084 -28 -91 -110 -54 015 078 113 043 061 -123 044 068 079 -50 -99 081 025 104 -107 124 072 -75 062 035 -23 -79 106 -73 075 110 -79 113 -85 013 018 112 -79 069 -110 -22 044 078 -115 -111 -63 005 -100 101 107 -25 -08 110 -12 
103 -100 -73 069 -55 -38 015 -68 -98 119 066 025 -36 103 -108 -112 095 121 -37 081 060 067 -16 -85 089 071 -60 -66 -06 -73 -69 103 -71 -56 -120 -85 105 111 -68 095 109 -53 107 -60 -35 090 029 -85 063 119 -78 048 095 -91 114 101 034 -107 101 099 -69 076 -99 120 
103 -109 -100 069 -83 -66 091 068 015 118 -80 079 -67 -109 -67 -50 -94 -127 023 -71 104 -114 -84 -51 086 040 -122 074 084 -28 124 112 -115 -66 119 095 114 110 -93 079 118 -105 120 -95 090 -18 -29 004 046 125 028 -72 -95 097 103 -112 099 -94 -03 121 -84 -34 -111 056 
-96 -55 007 -58 068 -69 -21 063 100 087 036 -57 -84 -59 109 -110 -80 111 094 -101 -67 -62 -82 -83 -43 -15 047 -74 -80 -95 -106 117 -106 -39 122 110 -119 105 -84 -123 -16 055 122 -70 -89 -80 086 055 -67 -45 074 041 046 -17 -05 -23 106 -16 -32 047 -83 -93 -28 -80 
089 -57 -100 -48 085 020 -94 -23 020 120 -77 076 073 -71 -113 -31 -73 116 -15 011 094 031 074 000 -94 -80 110 073 098 -02 115 -12 110 -23 -90 -70 114 048 058 102 -67 -59 104 -76 -94 -79 096 030 -57 040 -98 006 -107 -89 -108 -75 007 050 002 099 -67 -87 119 114 
-68 051 -03 066 066 058 099 -18 015 119 104 023 077 102 017 075 068 -127 -59 -45 113 088 044 -74 053 058 081 -39 -108 000 111 108 -66 084 123 -12 123 103 -97 024 003 079 121 -44 075 -44 094 -76 -28 112 -19 -59 -74 109 113 -95 076 102 063 -124 -91 082 114 096 
016 031 -93 088 -32 084 -95 000 -47 110 062 017 049 -100 029 110 074 -107 046 008 -112 -11 026 067 -06 -82 -67 -29 -62 117 126 096 -29 -44 123 032 121 -43 -94 -117 -97 -86 125 012 019 -50 099 060 -23 119 011 054 051 -76 072 110 102 014 -82 -89 -67 -02 116 -74 
-114 -02 085 -36 011 039 099 -58 -50 -41 -89 -108 008 -51 -99 094 -92 -104 065 064 023 -30 -83 -72 -53 -64 -119 -10 -70 041 -117 -73 -74 106 113 -90 -25 106 -22 102 -119 -39 -121 -40 101 074 -76 034 -39 120 -58 -64 003 -113 -115 105 036 -69 -100 -107 040 101 118 -120 
115 -50 051 -100 000 049 075 -64 -97 -98 -61 -76 064 004 -99 -71 -67 114 -42 -15 124 -70 063 -18 092 -97 052 -23 -63 004 125 -98 077 045 113 -83 -114 -121 062 -124 022 -33 -52 -77 -100 016 120 052 -45 122 082 -75 071 105 -114 -111 -81 100 -98 096 -27 -100 113 -115 
113 -94 -86 -95 039 009 047 088 -94 -59 070 092 -86 046 -32 121 -79 121 086 -101 077 -85 085 000 027 -46 047 028 -99 -49 -118 089 057 098 -82 -59 070 122 -20 077 081 -94 -120 049 -107 -87 038 031 -46 -98 070 -54 024 106 114 -83 095 -49 007 114 043 019 124 094 
-121 106 085 059 083 038 -90 021 -23 -109 -05 061 076 -61 005 112 052 -83 053 -83 -108 085 -51 -37 -80 -89 038 093 -32 -89 -124 115 -65 -64 124 -45 113 116 050 -105 -54 100 -98 -01 067 -41 -97 -33 085 -126 -96 028 -102 -91 -110 -107 -109 -17 -99 126 017 061 121 -117 
-46 -53 089 -83 -71 -18 027 096 103 -77 -107 083 -84 -97 -112 -50 092 117 103 085 -118 069 -16 072 -39 057 074 075 108 -29 -122 -103 103 071 -116 024 -119 -95 052 124 -100 -60 -93 -16 -100 057 -13 065 -93 -21 -74 024 012 -109 084 101 -07 -69 081 124 011 -52 122 -115 
-66 -17 100 -71 072 068 009 -100 -101 -33 -61 104 -92 060 095 041 -78 -100 056 007 124 075 072 023 -85 -86 118 030 013 018 -64 112 -114 010 111 104 119 -105 -17 -93 -111 -89 041 -104 -107 084 -19 079 -53 099 -79 -71 -33 -70 117 118 -72 064 030 116 -77 -61 030 -111 
118 -113 107 047 -66 058 -12 -82 -99 -117 107 -50 -27 -84 067 -34 092 -121 073 099 -19 -69 -30 079 -81 -91 122 103 -56 -100 -121 110 -53 069 -120 -90 123 114 -52 120 -15 -75 -100 073 -03 082 075 -53 029 103 -79 026 -53 111 -59 -83 039 108 -109 113 -60 095 122 -122 
115 -66 -09 -74 -87 -17 093 -01 -90 -121 -78 -85 008 107 078 050 066 -108 054 096 -118 078 018 077 -47 000 115 053 022 054 -122 091 -81 059 -115 -81 -125 076 -25 -125 097 071 -57 -102 -75 -24 008 082 005 109 -66 051 -60 041 006 -94 -96 080 -92 119 053 010 121 -126 
-106 103 -92 088 -66 031 014 030 040 115 088 -84 071 098 -50 071 031 -114 -55 -105 -122 -24 -30 -27 104 -40 107 -07 -99 113 112 -67 -63 -77 084 057 -13 121 -01 -122 -06 097 -47 -93 105 -65 -121 -35 -73 118 067 004 -106 108 -117 -34 082 108 -80 -109 038 -02 098 -112 
110 034 011 -68 -59 -49 094 -03 -42 116 -105 108 -81 -102 -52 -114 082 102 -91 -71 -123 049 033 039 096 -26 118 019 -76 -88 112 -68 085 -105 118 099 -58 -122 -58 -116 -110 -58 107 -02 -58 -86 102 -63 -72 125 076 054 -97 -79 109 -85 081 100 057 112 -32 -103 038 101 
-13 -01 -12 -48 047 -04 -06 -07 105 084 110 -73 -57 098 028 -102 008 085 -79 -88 030 -83 -62 -20 -10 051 104 -82 -22 102 103 063 -83 039 035 060 -92 -121 060 -96 -66 -52 106 -49 -38 -89 -121 009 -75 -118 081 080 073 098 106 -89 072 -70 112 116 -66 030 -93 -126 
-107 086 -55 088 -88 -02 091 -99 -79 078 -99 -99 -69 -19 -76 -113 -92 088 009 -35 -124 107 -67 090 -05 007 042 027 -98 099 -128 -97 -113 -86 061 -103 116 -122 045 105 -94 -100 118 -75 -74 -06 071 -81 -72 104 001 -60 -81 -112 104 -80 103 -18 -82 118 -77 098 067 117 
107 110 031 -29 087 -90 -07 -62 -97 082 -80 -96 -88 096 -92 -113 046 112 -92 -23 118 101 -79 -23 057 -97 094 066 -43 106 116 096 -113 -70 117 -55 116 -95 -33 117 075 032 -101 078 022 -74 111 -11 -25 -125 029 034 070 077 066 114 081 -109 021 -124 084 -10 -123 031 
-123 -88 -45 -98 051 -54 -102 -89 -65 -89 049 -60 -89 036 -64 -107 -52 -106 -72 -38 -43 -42 -22 026 -67 -70 021 033 -16 -109 108 105 -88 022 115 -62 -126 087 -57 096 -16 071 099 -79 -36 -64 089 018 -37 106 -02 -12 -62 083 110 117 -76 -40 -47 100 047 092 -118 103 
113 078 -96 046 -54 076 -50 -103 -87 067 -101 074 -70 083 100 123 -24 113 -91 075 -117 066 -37 026 020 036 103 058 -97 006 -128 -116 072 -51 -34 042 109 -122 -63 -115 051 096 103 -96 -85 -23 102 -50 -42 -122 -101 094 -64 033 080 107 -18 001 -74 100 -21 -55 -102 -116 
111 -27 -43 -26 082 -73 -08 075 100 117 -65 099 074 -06 040 114 -25 121 029 100 116 -109 -68 048 094 067 114 058 075 091 115 -97 -111 075 101 -77 -126 -59 073 111 061 062 -98 064 -90 -06 -119 027 031 105 -54 -96 034 -81 109 -56 106 093 096 123 085 -45 110 -93 
044 -36 075 047 -45 -58 -52 066 067 -92 -99 052 000 -09 -27 121 077 106 013 069 -95 -87 081 076 -74 009 -122 029 015 086 106 111 094 -41 115 -57 117 057 060 040 -36 -41 -54 -03 082 071 105 -29 053 072 -46 -91 002 074 040 -92 114 -81 -85 123 010 074 -116 105 
089 049 -98 010 -45 024 030 073 018 030 -111 100 -61 103 037 -109 -28 098 -75 019 -123 -111 -63 070 033 -07 114 -61 -83 038 106 088 101 -37 110 -45 122 069 -48 -64 039 080 -101 -78 -66 -72 113 036 -49 115 053 081 -71 -08 121 -111 093 -44 -72 -108 048 -36 115 122 
107 -42 -04 029 -36 -34 -43 077 -33 -119 031 -91 -93 -111 -89 -39 076 063 -60 063 121 -67 -36 -28 -17 001 114 -56 096 -92 -93 042 113 -37 124 086 -93 -119 048 036 -75 069 -125 -60 063 049 089 078 060 116 -43 -13 022 -11 115 -101 039 055 -85 -117 031 -83 102 -102 
110 103 011 099 033 083 012 -69 -94 117 096 -111 -66 064 032 -94 -64 088 -31 -34 -47 084 067 078 053 030 105 -65 -80 -120 125 -63 -62 035 121 -109 124 003 044 -64 -41 085 -123 089 004 -32 122 -87 -83 094 012 008 -101 007 114 076 092 093 -02 -46 072 081 110 -115 
108 084 055 -68 003 014 -20 083 101 -87 -96 -78 070 014 069 061 -33 -122 -85 082 -116 -56 034 -52 035 068 120 -70 106 -94 123 -08 082 065 -96 008 124 -91 -44 086 -99 -88 124 -85 064 -80 119 047 067 106 -101 -24 -68 074 073 -116 -102 063 030 -86 -21 024 099 -66 
-95 112 -48 008 -43 060 -71 083 -113 -60 063 028 -22 -97 073 117 000 -115 019 -31 -112 -45 005 -32 050 067 006 082 076 036 -123 036 -98 002 122 012 -56 105 -19 102 -98 -26 -110 106 -100 -27 011 -68 086 103 -101 027 077 054 -118 111 -71 -105 097 -123 052 088 055 022 
-116 110 -14 -49 019 007 060 072 107 -114 -102 -36 013 076 -63 117 -76 -53 -12 089 -119 034 068 -70 089 085 048 044 087 -109 112 -90 -87 087 119 -99 110 -103 -81 -115 -109 041 125 029 -83 -41 096 010 049 123 -65 -61 080 024 -50 069 000 -102 004 125 -23 081 117 -36 
114 -12 060 064 012 048 068 -102 -90 -96 -14 015 -55 -53 -15 046 -67 124 -95 005 -114 -109 042 066 006 -31 -84 078 022 -119 124 -88 -67 013 -112 -100 115 -121 -38 076 083 -93 124 -78 -85 083 -103 -12 -51 063 -87 -90 -80 -86 064 -117 066 -10 086 -101 020 -89 065 113 
105 106 -34 079 -16 001 -75 -06 103 -118 -104 -15 -18 -90 096 -112 002 -110 093 -83 125 063 -04 -68 -88 011 112 041 076 060 109 -106 -57 080 101 038 -106 020 042 -109 -75 031 -117 107 -75 028 -109 -26 083 -102 076 092 -30 -109 046 -78 037 -102 086 -121 -55 -53 121 -89 
-71 071 -31 071 -17 -72 -46 -80 012 -60 023 049 -20 -89 003 -103 -58 -119 061 036 124 -38 -68 067 -12 008 -52 -71 080 113 120 -33 105 -39 -119 -106 125 -119 044 118 071 021 -89 103 054 -25 -113 058 -22 -126 028 061 019 093 113 -106 -91 -06 079 126 -87 -67 121 -118 
112 063 -22 083 -16 -87 043 052 -03 075 083 078 013 103 024 067 034 095 -83 -107 115 -78 007 -79 091 065 119 -67 021 -73 -102 -80 107 084 125 099 120 -115 047 121 -105 -30 121 057 -50 002 117 -84 043 121 080 068 -46 107 107 -111 046 081 090 -123 -19 096 095 058 
-90 102 -10 028 -69 -18 -96 071 092 119 013 034 091 021 -59 015 -66 -90 -28 -87 121 027 -36 -72 077 016 -120 003 -71 111 124 084 110 -43 035 096 -43 -92 -52 111 -102 -65 124 -104 049 -98 124 -30 092 113 071 074 -02 -01 -96 116 087 076 078 001 -72 -10 116 122 
017 -07 -72 -75 085 -15 -79 024 100 085 -42 022 090 019 107 055 -86 020 062 -94 -124 111 084 012 094 -19 120 008 -27 031 -103 -80 -26 -62 122 088 109 -75 -77 -72 -91 -73 084 097 045 029 113 050 -91 121 054 -90 -29 014 110 -114 087 -48 -60 -112 000 -33 047 -110 
-96 097 -59 088 -36 063 092 059 023 -83 069 -105 -03 -21 110 121 -69 118 -09 -36 118 016 029 029 079 -24 -123 090 082 -110 091 103 071 028 123 -24 011 105 -59 119 104 088 -81 -86 042 -27 103 047 -88 117 013 -31 007 -93 034 076 -97 -80 -09 -19 089 -95 029 -122 
-75 102 -87 021 -81 006 -63 013 098 -103 -85 074 -72 -101 109 -42 -96 -69 002 -33 095 -74 -82 092 072 -80 -101 031 061 057 122 098 107 082 092 -109 007 -115 075 121 094 053 126 009 003 019 108 -60 -94 113 089 -18 073 -105 119 -109 069 -48 094 125 -77 -96 -115 067 
116 -72 071 089 023 -51 054 -96 091 -122 -97 013 063 103 -111 002 058 124 -68 -105 073 -17 -62 035 018 095 -45 031 -87 106 114 004 -84 054 -115 -103 115 -119 -95 005 -24 035 -115 -35 -86 092 119 038 078 123 097 -90 -52 111 -06 -115 -103 -107 099 119 -25 -40 -119 -53 
-99 -90 -86 018 064 008 019 046 -33 -114 106 -64 -59 -89 093 110 -09 -109 031 007 124 107 -58 072 085 027 122 055 051 050 -114 098 092 059 122 -93 046 116 085 -102 -87 -86 -64 -06 098 -75 115 065 -49 -117 076 -94 087 112 -60 093 047 077 070 -108 081 028 094 -97 
121 -17 002 -95 -29 008 043 094 035 -107 101 -94 002 -92 -81 105 017 -121 097 100 -110 -109 -19 -15 029 055 -109 087 -28 110 126 051 028 018 -118 095 -125 074 065 050 -84 066 -122 102 -89 016 -123 -13 -97 114 066 094 100 -69 -114 073 -83 -24 -89 115 -80 -70 -118 -122 
-63 -81 -68 -99 -80 -46 -05 056 -56 -114 -59 -109 -67 096 069 097 091 -69 040 -45 -118 110 -74 009 070 -19 042 067 -09 -72 -13 -33 -13 090 -124 107 121 112 034 -108 067 044 -121 050 -10 037 -12 059 -39 -07 -50 094 -52 -114 -05 -97 104 092 -48 115 -86 -73 032 -123 
094 -14 065 063 -34 079 -105 -100 -01 108 084 -105 022 066 -33 021 -63 007 058 035 106 -20 -41 088 -88 091 096 026 -30 095 -98 -101 -72 -07 -36 056 117 -99 048 019 023 -11 003 -43 029 -12 -101 073 040 122 -59 -32 -82 -17 049 047 -96 037 -97 123 025 -02 092 092 
104 006 -08 005 032 050 059 -66 081 -92 -56 -97 078 -57 024 -109 013 114 020 -101 106 104 020 002 094 -22 084 000 025 -85 113 -43 029 -81 109 -63 121 120 045 083 -77 -89 -125 102 062 -52 049 -28 060 -104 -05 -76 021 -84 070 089 063 104 102 -105 -69 032 091 072 
-76 -52 029 002 -38 082 -90 095 -73 -73 059 -81 023 028 -20 119 -45 099 001 010 -60 107 -66 055 061 -01 -50 080 070 069 -84 102 061 -56 118 -56 -116 114 -33 100 -115 096 061 -67 102 -45 064 -91 -77 -113 -98 039 054 066 084 115 -71 090 085 -125 -39 -61 090 -114 
-126 036 091 -67 029 -83 055 093 -92 058 -43 -41 065 -21 -45 -114 057 104 070 -104 120 109 028 -09 058 -70 099 -49 -81 014 -128 -32 -107 -88 -114 089 109 065 -02 099 108 -97 111 084 105 040 -118 -40 -24 121 -91 034 -68 000 052 -113 089 -93 100 071 089 013 096 -85 
-119 -95 081 -43 -20 005 -46 -55 -18 085 085 -37 089 102 014 -114 036 116 -24 -50 117 -86 001 -92 053 028 -104 049 -49 115 116 094 026 -69 107 109 107 103 091 -124 083 -59 118 -82 105 055 108 -06 088 -97 -08 -78 000 102 094 118 075 -77 -93 092 -82 -51 -88 096 
099 -107 -102 -72 -89 -72 -96 022 103 116 079 081 -38 061 048 -09 056 118 -55 038 -117 -112 -43 001 076 081 -80 -55 -104 101 107 105 014 -45 105 101 116 -111 064 077 105 -85 121 -41 036 078 -116 -30 039 124 -91 -77 101 -32 -101 034 033 -74 012 -127 -41 -104 -110 111 
-80 044 -57 012 032 -67 054 -28 -93 -07 017 102 032 -52 -56 -100 -66 079 021 -01 124 -104 036 -18 -74 -89 -43 034 -88 113 110 096 -103 087 -125 034 -127 121 -81 -116 -59 -74 -122 -94 076 -72 114 -10 065 -98 028 -55 -72 110 095 -02 098 071 032 -120 -94 098 112 056 
-122 073 013 -30 071 016 -29 061 -90 102 000 102 -25 083 -27 034 027 105 -100 052 107 075 027 049 083 001 -124 017 -76 104 -128 -36 087 021 106 -32 094 -119 010 120 -80 076 121 -82 095 086 116 -21 -40 113 -73 -21 -97 -51 096 107 -77 032 -66 075 -49 075 -42 118 
095 -13 -30 093 011 -84 -25 068 -01 104 -96 -05 -67 -108 -78 099 079 -103 -21 097 -85 -91 067 -92 059 -93 -106 065 075 -97 089 -106 -83 -64 058 103 -103 111 013 115 011 -49 -123 029 097 -62 067 -24 -09 097 -30 -33 -88 -106 -106 -111 078 -110 -78 -126 072 004 111 -68 
091 -83 030 -63 003 025 -95 017 066 101 -106 -17 077 084 097 121 053 -128 -97 022 -104 102 -74 -91 022 -74 113 -65 -99 -63 103 -79 -110 -75 113 101 -122 088 -85 091 -09 020 -53 -86 -33 032 116 044 060 -29 029 040 -25 087 072 -78 -27 -102 -74 -120 052 003 103 -46 
-123 -43 -73 077 -19 -86 022 067 096 -03 -62 085 036 -48 -99 059 -54 005 027 088 122 001 061 -27 -66 001 114 054 063 -105 113 117 113 -35 104 -80 109 057 067 -30 098 098 003 054 070 -57 -126 053 -67 -121 -70 -63 -20 -25 113 116 -87 113 -100 108 076 019 113 112 
085 106 -36 -92 -10 -46 -53 -85 -05 -118 096 -32 -65 020 097 -94 085 -87 -56 098 122 087 086 048 058 044 104 -77 010 054 -121 108 113 041 -116 069 035 -109 -62 -126 026 -43 -122 002 -85 091 -127 014 034 000 -03 087 -68 062 102 -71 -103 -78 -111 113 051 024 102 093 
-124 058 058 072 007 -55 -44 010 085 029 -37 -42 -25 107 082 -26 079 112 000 -93 -125 072 -80 -58 098 010 011 027 -101 -74 121 -110 073 053 071 107 -91 026 074 112 083 -46 -95 026 102 -80 114 -43 035 122 091 -80 053 035 -124 080 029 -80 099 -127 -81 098 098 105 
-119 092 017 -04 -72 017 -82 072 090 051 106 -76 028 -53 -91 123 -83 -41 -84 -20 083 -102 -67 -86 -58 -99 078 074 -99 045 110 098 087 -84 -124 -31 075 107 060 121 -82 055 -61 107 108 -59 110 -01 -78 -82 085 -44 -66 089 106 -105 008 083 -84 121 076 -24 -112 -72 
-89 098 -81 099 063 -56 070 022 -62 093 -40 007 -09 086 045 123 -57 073 -68 -70 035 004 018 042 -66 -59 103 076 -27 -85 -121 115 083 -87 -123 -88 -24 030 086 -119 097 -77 125 082 099 066 118 -02 -92 116 -27 055 067 -93 093 043 026 056 -15 117 -57 -41 -102 026 
110 -48 006 065 071 032 013 032 -95 002 -66 075 063 102 -29 122 048 -77 -23 -81 -101 -74 -64 -67 079 058 075 055 003 -116 123 032 012 040 -84 -13 101 110 005 114 105 -39 -116 091 050 -26 -72 -38 077 113 091 -41 090 087 083 004 066 -103 -26 -29 -86 075 -38 094 
095 003 052 -98 -50 012 -77 -10 -47 110 085 -84 -44 -103 072 -01 -69 109 077 -93 -114 -112 -83 052 -54 -01 118 088 -97 041 072 100 -53 087 103 -41 110 111 -47 -73 096 -40 -106 -99 051 069 108 006 -57 -123 005 -82 045 -76 -58 -99 -24 -02 099 118 071 011 -123 -84 
-102 036 -26 027 084 069 -80 055 071 108 010 092 -70 039 028 121 084 -122 093 071 -93 -102 -38 -13 084 069 106 050 102 117 -112 108 -101 078 -63 -05 108 -122 -04 -122 092 -06 -91 091 081 -75 -116 -90 -11 -120 -71 083 -65 022 063 -37 -01 -100 -100 114 053 -16 096 -106 
032 -108 -63 072 -81 054 -104 -95 -97 100 -57 074 -73 -103 -112 063 -49 -113 015 -86 -125 -92 -27 -58 096 -25 -80 020 103 -53 125 052 -79 -50 120 -100 -113 -119 -49 104 -14 089 119 095 089 096 111 -58 073 066 040 -37 -10 081 -50 108 -77 108 099 -116 003 -05 -74 -15 
-80 062 -84 -24 038 045 -04 -18 -68 -103 -34 031 -19 -66 021 084 -82 -91 -73 -32 121 061 -83 068 -90 -47 -04 011 -17 -118 -106 113 -24 082 -125 065 039 054 094 109 -26 -37 062 -71 061 075 -122 -34 -48 118 -73 073 083 -61 113 107 045 -107 096 113 082 059 -74 -100 
-58 088 -47 056 084 076 091 024 005 -121 -95 -75 -52 -103 -83 -85 -28 -113 -97 -91 117 -46 038 -52 -45 -81 094 057 -79 -113 122 108 -11 -88 -123 -88 093 -104 -95 029 -110 -03 -124 049 -60 -99 114 -66 -68 097 -60 066 057 -75 -35 -64 107 -67 007 -127 062 -42 119 114 
-43 090 -100 -44 077 043 -12 -80 -100 -122 041 108 077 -95 -108 -106 080 114 -60 -76 103 -110 -75 -71 -29 065 104 -78 -68 110 -127 -40 074 010 -123 -81 -38 041 -52 113 044 004 116 -93 069 -71 -96 -18 031 -122 082 090 020 -71 -41 -76 -81 060 103 012 -89 -06 -48 075 
-91 093 -19 -55 -64 086 -89 095 109 060 106 -75 -20 -06 100 107 031 -96 -94 095 037 104 081 -45 040 081 115 -40 -20 -72 121 025 -77 027 -23 -14 -107 -103 058 -100 -104 -48 -85 032 -52 -91 083 058 040 123 055 -75 -75 -101 018 -116 -103 092 -46 087 005 047 -64 104 
-115 -57 -91 -100 -87 -10 032 059 005 076 -109 -93 -51 -110 084 068 030 080 -82 -79 051 -114 -32 -70 -22 -71 -57 026 -90 -115 116 095 012 -40 060 -56 122 -124 026 -116 -13 -52 -85 066 -90 -82 118 -20 -50 120 -18 083 001 087 088 002 097 062 -26 -83 030 086 090 063 
042 016 -38 060 060 -37 054 -24 -91 119 105 -109 043 101 -14 103 -82 125 -41 -16 115 088 027 -89 067 074 -93 003 -05 -37 -127 -100 -31 014 123 -87 123 -119 000 -124 039 -70 108 -84 -18 094 120 073 042 088 060 081 039 -85 -120 065 -107 -94 008 -37 -24 078 -121 -88 
043 089 -15 081 -48 -65 -47 -101 -54 -121 -94 -80 081 -57 100 -50 -69 086 020 008 -124 -71 -85 065 -88 -54 110 074 047 117 031 -83 097 -75 123 101 023 109 017 -49 103 -87 092 077 001 041 -79 -55 002 -119 -101 093 -33 094 039 -107 -94 -49 034 -111 033 -24 076 -05 
108 -106 -84 067 -80 -66 024 -61 076 -45 028 047 -59 -79 045 -29 -21 -37 -13 -78 115 100 -49 085 095 -01 081 078 -69 069 108 017 013 -14 123 103 095 -88 063 -84 -76 032 -124 066 -50 001 -73 002 -88 121 053 002 -102 065 -81 072 013 -64 -77 094 -51 -40 -96 -119 
-122 074 -100 099 -77 021 -28 -58 -111 -119 084 -45 082 -12 -63 060 -57 126 034 -85 -121 011 031 -42 -58 068 -74 -41 -43 -95 -113 099 072 -68 121 -111 -122 120 -03 -114 -109 -19 -119 018 -95 -12 117 -60 076 120 -96 -29 049 -23 110 120 004 -86 -100 125 -78 022 090 -119 
-117 009 018 -88 -50 050 063 043 -108 -111 -104 072 056 -35 107 121 -72 -107 088 100 -125 -93 -59 015 -46 -18 -118 -39 -92 028 -121 054 026 089 123 -57 -123 -119 -06 -111 -117 033 -120 -106 -31 -59 083 -90 050 123 -09 011 008 -59 098 -103 -91 -88 043 117 -53 -65 122 -119 
114 091 010 -48 050 -06 089 -64 -39 -124 -114 -110 057 -106 094 -87 -20 110 -25 028 -87 -104 -22 077 080 -70 099 -77 -07 -116 -79 -117 -87 053 124 107 -118 -125 -46 -03 020 027 -116 -100 -72 059 -108 -41 075 122 066 -91 -87 108 -109 114 076 022 -90 -116 069 018 119 -92 
-116 079 016 045 -30 -31 -96 -78 -39 -109 108 -71 -56 -91 008 121 064 -112 097 027 117 033 -51 -19 042 057 118 063 057 098 -114 091 -107 065 124 003 -92 123 043 -26 -82 027 -121 033 -03 094 -104 -55 -46 -122 021 -91 -08 092 -104 -103 040 028 -95 124 -18 -61 101 -24 
-118 083 061 -94 029 -92 011 004 -24 -69 095 062 007 -44 -25 121 -15 017 099 -33 -123 -102 -82 -70 020 018 -120 -61 004 108 -124 091 000 -56 -125 -94 -120 117 061 -93 -40 -90 115 -64 042 -41 -120 055 -35 -115 -53 -71 -104 -89 -103 -117 -101 004 -107 124 056 -47 117 037 
119 078 000 027 -62 -55 049 -74 -85 -100 -41 074 -13 -112 -06 109 090 -45 098 097 -117 -88 082 -70 087 003 -118 006 -88 053 -122 -03 -103 -16 -116 -93 -121 115 -16 106 -106 052 -121 -18 -102 -40 125 -28 -74 123 -24 053 098 -97 -119 019 -108 -69 088 -114 -31 038 118 -120 
-92 038 -98 025 052 -85 021 006 -101 063 107 -52 -27 008 -82 032 -81 102 093 -44 122 091 065 -60 080 046 124 003 078 101 -110 -86 093 -73 -66 031 -50 -117 052 -84 003 025 100 -54 006 -85 -101 -23 019 -96 081 -04 071 -114 078 094 -33 -112 083 -122 -59 -85 -74 -107 
108 067 066 004 016 064 -98 -77 -93 119 110 -79 -31 -90 079 101 -85 -123 083 101 -122 -43 021 042 084 088 -120 -20 103 -01 -124 109 -18 -20 036 071 -101 -122 090 -120 -101 053 122 -74 -62 -81 -122 -87 033 -121 -91 020 070 -114 -118 -73 -83 106 -100 113 -79 -101 014 -117 
116 102 105 078 -35 040 -34 -36 -03 073 -109 009 042 011 024 062 087 124 073 -74 -118 109 067 023 -18 -69 -120 024 089 -85 115 -96 -110 063 -116 -22 -13 100 -21 123 103 021 125 -89 -68 -28 -122 -89 069 -113 091 -94 -95 -111 -114 -112 -17 071 -67 -100 017 030 117 -123 
-102 -61 079 -86 -89 083 083 092 096 -123 -66 -53 -73 -88 -36 068 -93 121 -18 -24 -120 -82 -63 092 -71 031 -105 -78 085 -86 -25 038 075 -60 089 -22 -55 085 055 048 -12 085 064 088 044 -48 108 -39 -13 121 -72 081 -81 065 -25 030 030 -87 -101 125 047 074 079 122 
-90 -41 076 -99 004 -69 069 -94 -62 082 -86 018 -41 100 -109 -94 041 -118 063 -106 -121 095 008 041 101 063 109 029 071 034 -124 055 -56 -66 -80 -39 -04 -110 -81 -112 -100 060 -120 -109 091 -47 111 025 016 047 -71 -68 031 097 106 055 047 076 -108 -127 029 -73 108 -97 
-86 -13 072 -69 -67 -76 069 057 -102 003 107 -48 045 000 095 -26 -79 -65 018 -77 -100 105 -71 054 -76 043 090 013 085 -21 117 051 087 -73 -88 084 111 017 -72 -125 109 090 -14 -112 -04 081 -85 -42 039 -81 -89 -79 029 -78 080 -98 050 -67 -94 -84 -72 042 -92 -96 
111 -78 094 077 -80 -18 094 024 029 -98 057 071 -92 -58 -45 115 -09 123 046 -77 -120 080 -72 -77 040 016 048 067 055 119 -87 -116 -52 -85 105 094 -89 102 -28 005 -85 -49 122 027 -81 -100 -121 071 -78 -58 057 045 -54 -80 022 -80 -02 -31 -50 -125 062 -95 106 020 
108 093 021 -01 019 031 -45 082 107 111 094 -97 -26 002 056 100 070 -119 079 066 085 -98 018 060 -83 007 097 -41 -12 -115 -119 113 042 076 118 -105 014 -114 055 075 -80 059 126 066 -56 038 119 -09 073 055 -82 010 097 093 -120 -105 -49 -94 -100 125 -80 100 -100 090 
-125 025 -89 083 077 -73 -100 034 005 -123 -15 -95 -83 017 101 122 -54 089 -50 -02 -73 046 -73 -13 -32 -71 101 042 -05 110 -122 -93 000 -64 -114 -96 -121 114 -95 108 055 -10 -114 -11 049 -77 -125 -33 036 071 013 -79 071 -69 -80 -105 109 -110 -45 122 -55 -64 -108 112 
079 -57 045 -23 061 -51 082 001 -98 079 094 -97 -39 091 -53 -115 -89 -62 -65 045 029 018 -15 -27 -98 -15 -74 -52 -85 -112 -100 -26 052 -75 -27 072 039 -53 -08 100 102 -76 -92 -105 -21 006 111 016 075 -125 -74 -94 -87 -26 -121 086 038 -70 102 110 -56 065 104 024 
095 -60 007 -97 088 059 088 -62 -112 037 -26 010 -51 090 -105 -104 -52 -125 -48 020 -84 109 -40 -56 -86 -86 -102 -23 -39 -111 078 006 104 -62 117 -63 100 -121 069 110 083 095 -102 020 035 094 -11 064 076 102 078 -09 041 079 -19 109 003 084 -80 010 059 -60 054 011 
073 097 -19 -100 -48 035 074 000 -112 118 108 -13 073 -105 -08 122 018 -126 004 -87 -123 -102 064 030 080 077 -116 -55 086 047 -108 083 114 -09 -103 -43 -78 -109 -06 029 113 -101 -103 105 -47 -76 -122 -83 086 -56 094 -83 027 103 -96 -06 -38 031 -90 111 -67 -100 098 -44 
067 -52 090 -45 018 -51 -36 079 -42 -88 103 -100 -65 005 109 118 044 124 068 -99 -32 -104 -14 013 088 053 -124 -07 -79 -118 -124 090 -113 032 -125 106 -124 123 088 112 -94 082 088 080 018 -08 -121 074 019 119 068 029 -59 077 -112 -69 -83 053 096 116 -65 098 -112 -117 
124 -105 -88 047 -29 027 078 -73 -93 109 -14 095 -56 -108 -99 -88 084 117 031 092 123 -96 084 -16 -70 -96 -98 083 -97 -102 119 084 -39 020 -99 062 -108 -120 -88 -83 098 071 -114 072 037 -85 -112 086 066 -122 -37 -78 -80 -116 -89 -95 106 098 103 109 056 081 111 -120 
111 -104 -08 -81 -38 -50 006 -21 -111 083 -104 110 -16 103 -95 -113 -40 112 073 032 -109 -21 -14 -42 031 062 092 -63 059 049 120 075 078 -68 106 049 124 -25 041 -125 072 -99 124 088 080 -87 -120 048 067 119 052 -09 038 -101 -112 -112 019 086 104 -78 065 -23 -85 -121 
-115 087 063 -69 057 -68 -55 031 020 -83 098 012 067 -09 -47 077 -63 008 -50 -52 121 014 059 -73 065 066 -94 -39 -32 083 119 -22 -31 005 -101 -96 -114 -112 041 -20 -81 -72 -122 -113 -75 064 -105 000 -34 104 015 093 -107 -43 083 093 087 -77 -108 -113 043 087 -107 120 
097 087 077 025 -73 -73 086 -19 091 -90 021 -74 -05 -107 -12 -113 027 119 -32 -97 -29 -109 062 004 050 -29 -111 041 102 -82 120 -90 -92 068 100 041 097 -61 -92 110 076 060 -114 -18 082 029 -96 -54 026 -122 -62 -53 -55 -102 -77 102 037 -108 047 -108 043 -61 -116 -121 
-65 016 087 013 048 -77 -94 -44 -92 -02 105 105 -48 092 065 -111 054 110 -100 -84 120 -57 021 062 -83 080 -111 068 -01 -119 055 093 -71 034 103 -101 122 102 -51 116 105 -64 122 084 061 -34 094 069 087 -70 019 -80 013 -11 -29 013 -68 029 079 -116 007 098 113 -99 
109 050 086 078 -83 -68 -98 024 093 119 072 -68 090 047 091 110 034 -126 -43 038 015 -90 025 -78 068 045 -117 040 -12 113 -54 032 -88 -54 079 -77 123 -51 -03 075 110 049 116 -107 -85 -17 -42 007 038 -117 -57 006 095 106 -111 117 003 -108 053 108 -69 093 -91 -115 
-69 -87 -02 026 -17 -35 -81 -12 -26 116 -108 094 074 014 105 -08 084 107 -51 015 075 -72 019 -85 072 -29 014 069 098 -120 119 -48 104 -85 119 -108 -125 -114 -91 -118 083 -05 -107 -04 060 094 109 -87 056 015 -04 -65 -69 005 108 -109 064 108 090 078 024 -65 002 086 
-117 -48 052 -91 -17 011 019 088 -02 -124 082 -56 -50 091 -14 -117 -23 080 -49 087 -53 -108 078 -26 061 048 051 -15 035 101 114 039 038 030 115 -95 121 -35 -54 123 077 -73 -117 -70 -70 -59 103 -37 -39 -123 053 057 058 102 -117 059 -62 073 -31 121 -64 -97 -120 118 
-73 -14 -52 045 -61 068 -26 064 -112 -116 044 -22 043 063 079 -74 015 113 -70 -91 123 -88 039 -92 -21 058 -56 017 100 102 -116 -77 -25 084 -50 -13 -96 -18 -89 076 035 012 098 -63 086 -76 -117 027 086 -126 044 -74 -02 094 112 104 095 -106 048 -127 078 029 107 111 
-105 -102 072 058 005 039 093 090 -98 -110 -53 -58 -35 -93 056 111 -78 -80 065 033 -123 -24 082 -05 -48 -41 080 -06 -94 032 090 -106 060 088 -98 -38 -44 -105 -57 -121 -50 098 -112 -65 070 014 -57 -30 -82 120 -78 080 -101 -09 -67 022 094 -93 -31 -126 068 066 084 067 
-85 100 -74 -99 -41 -47 101 100 091 020 096 059 039 -99 056 -116 -06 050 -50 -25 -51 -109 058 055 071 -84 020 015 -83 -116 089 -102 -17 071 -114 031 -43 -108 086 118 -104 -03 098 104 086 -67 112 044 083 120 086 -81 040 108 -09 050 072 104 052 -03 -65 -102 -122 -113 
-111 -70 -18 059 003 -75 -68 078 106 -122 -90 -102 -49 074 036 119 -09 -125 040 -70 114 -94 038 -96 -45 -92 -93 049 082 -26 -105 033 -29 066 121 -53 -109 077 -47 028 -26 080 -84 -53 024 000 114 036 000 121 025 -51 019 -70 118 -87 -91 -58 051 -09 022 -92 099 -47 
-96 -32 -47 040 -83 -47 -12 -98 065 099 -42 -68 008 -70 -97 -57 051 106 041 -81 121 104 082 038 -04 041 -99 051 038 115 -128 -94 -89 063 -112 013 -103 033 040 -112 -45 -39 041 -104 009 -14 069 -44 033 -84 080 040 088 -112 071 -107 -90 -103 -65 -124 054 061 103 -92 
036 -96 059 -86 -50 049 -07 087 -48 016 086 -103 023 015 082 -103 086 -126 -70 054 117 -77 072 033 -92 -12 -115 052 -49 105 123 108 079 000 -78 022 096 -78 086 015 -92 043 088 -69 -61 -17 003 -54 -02 103 -18 031 -87 -40 -62 -107 094 -36 074 122 -66 089 115 084 
-102 062 049 063 -63 -76 -101 086 098 114 049 101 -12 094 -12 089 001 -43 -79 076 052 -103 -17 081 033 043 -06 -83 057 -52 -126 -95 006 003 -91 -105 120 112 079 017 013 -95 -127 -110 -64 -17 -119 063 017 115 002 054 -102 -99 099 117 -101 011 -98 -98 -86 -103 023 -119 
-63 -48 -16 -99 -53 -87 -42 -81 072 119 -68 040 027 085 088 062 -75 -11 -88 073 120 -46 036 -21 083 044 052 071 018 -101 077 029 080 079 067 -62 -93 -88 -11 076 -95 048 073 087 086 042 -22 -20 -29 -125 001 -38 009 -105 -27 -65 055 -29 033 100 -39 084 058 -118 
032 -98 -82 039 083 -22 -24 -99 004 087 -42 057 026 087 050 -37 085 -112 050 074 -40 -86 -62 032 -78 074 -115 -39 -98 -106 -127 -109 010 020 122 087 -97 -120 -26 105 068 -70 -125 063 -86 082 077 019 013 -62 -57 048 -26 -110 103 -111 086 -88 -37 120 -43 -99 025 -122 
049 -98 -99 056 -28 071 098 -100 -42 121 -38 -58 -09 -101 -108 -101 -51 123 -88 094 -111 088 -39 -82 007 -80 -97 077 019 -76 120 101 112 -16 091 -88 -119 -79 038 111 049 -14 -119 -74 094 -56 -56 071 034 120 024 013 060 -60 -59 -96 -78 100 -103 059 -52 -81 -96 112 
110 100 -68 001 -75 -11 055 -74 -60 113 -99 049 -58 082 098 119 087 121 -44 027 -126 101 013 -84 -99 091 -106 050 -98 -93 110 -01 -88 -45 -120 029 111 115 087 -06 010 -84 122 107 091 -46 -30 -08 -51 -79 -80 076 -91 099 -72 -108 034 081 052 110 -05 -76 -101 -76 
118 -19 012 -46 -24 -82 -97 029 038 108 -82 -102 063 033 004 078 071 -115 -23 -02 110 -14 -69 059 032 -89 007 052 -93 076 -117 112 040 -93 120 000 -63 100 -91 108 -104 005 118 -112 -10 071 -106 -46 -72 -123 -101 093 -91 -01 019 103 -50 -48 105 120 -59 -69 007 -118 
-67 096 -76 -97 037 -63 071 -32 106 -22 -92 011 -17 021 -99 -26 -73 -109 -06 -96 124 082 -42 087 080 -96 -115 -73 103 -93 119 003 -69 -15 121 -95 098 -99 -30 016 -07 -01 106 029 -72 008 -18 -05 -01 047 -62 -58 -101 -51 112 -107 103 -42 032 -124 -15 -100 117 101 
-103 080 008 029 -51 -46 -61 -95 110 -108 -105 021 -63 -96 095 113 -32 090 -79 091 115 -18 -02 -72 -26 -57 -05 -60 -24 -59 -97 029 108 -77 -74 -60 092 -111 038 105 105 -24 119 058 003 055 094 032 -83 011 -100 094 031 -103 102 -118 066 015 -96 031 025 099 120 053 
-110 087 -66 045 -82 084 095 -101 109 104 -33 -110 091 083 -04 -03 060 -102 -17 -09 124 -109 -88 -29 -39 -02 -46 -76 -82 -47 -66 -86 035 013 045 -85 084 046 020 -61 083 080 118 -98 -94 -70 118 084 036 124 -31 073 097 076 067 091 003 -75 011 125 -36 -33 -114 095 
-35 007 -87 -92 068 -57 083 086 -106 018 -92 030 -66 038 -97 -99 -11 -124 -45 091 -30 -56 -86 -45 -81 -94 040 -07 013 063 -124 105 -100 -66 -115 -42 -19 -120 -30 -24 -74 009 111 091 051 067 105 -05 -58 106 073 054 090 112 001 -74 -27 015 -108 -123 -55 086 024 121 
-96 -01 -46 -80 050 -51 -85 056 -90 -104 -23 -72 -72 105 106 -67 007 098 -38 -43 116 -114 079 082 -93 -82 106 -15 -94 093 -101 -94 061 088 091 106 -102 -17 -97 083 028 -73 -31 -55 082 -81 062 -24 074 -09 -18 -96 -87 108 074 -101 007 074 096 091 -58 -53 083 -113 
-54 084 -58 -51 -77 -55 102 -13 087 -17 104 -71 -61 107 -100 -101 031 123 -11 000 070 110 -77 -37 067 -60 -118 075 -92 117 -48 -51 -90 023 121 -17 067 -96 080 -113 087 091 002 103 -68 -56 -121 -90 083 041 -79 -85 -87 038 -104 -90 -13 081 101 125 055 -92 -53 021 
106 062 086 -95 076 -90 001 -15 -23 004 035 -56 001 -16 -113 096 -71 -100 025 057 -86 -60 -46 004 -10 -32 -05 051 052 023 070 091 109 -90 -121 056 -111 -112 086 108 -89 089 099 109 059 084 107 002 035 -31 044 -15 -04 -13 -118 088 021 103 -35 -09 -95 062 106 080 
103 -19 -23 -102 023 077 -30 049 -102 104 082 -107 -64 -106 004 -98 091 100 057 041 100 -30 -48 -70 -94 049 107 015 073 102 115 100 035 -81 -98 021 081 -98 001 081 097 -08 046 -59 055 048 086 022 -83 -89 -93 -02 046 070 -108 115 -41 043 035 110 -41 030 -28 -113 
-120 -81 002 066 007 039 084 084 -77 081 114 -73 -40 087 080 084 046 -66 036 098 -117 106 -45 -87 -31 -12 -127 032 -95 -101 -122 081 -42 -21 042 -41 094 -108 084 045 071 051 098 111 084 -11 068 045 058 -22 053 -53 092 -96 -56 005 038 077 056 -125 -55 065 026 058 
101 -49 -07 060 -05 -65 -26 -97 107 025 -111 022 -70 108 -09 -114 063 108 -12 -86 070 083 056 067 077 067 086 080 074 028 119 078 -75 -54 092 090 106 036 -01 074 -111 -87 095 -01 083 060 105 -72 -76 121 033 027 -104 -81 008 -111 022 -77 -44 116 -79 005 -111 069 
116 047 039 063 -58 056 096 -83 -92 095 094 097 -77 104 052 -113 041 119 -69 -95 102 026 -87 -63 -48 -86 111 029 -26 097 -128 -94 -96 -84 111 -99 101 082 094 121 085 -68 109 -84 -16 062 107 -35 -22 120 059 -82 -01 110 -75 -112 -88 -109 -60 103 -72 014 097 023 
-106 076 -29 009 020 -19 097 019 082 088 100 107 -31 -77 084 -78 -20 114 008 -62 119 -47 060 -54 031 055 103 062 107 -117 116 -54 -79 -37 098 001 -126 113 -62 118 081 -24 117 098 047 030 095 056 089 -67 042 -28 100 106 104 -93 005 -68 061 -127 -30 024 099 095 
-108 -82 083 001 -70 057 -82 074 074 -105 -94 092 034 -98 058 122 094 114 -96 -100 -111 103 -22 -81 030 -94 -126 039 -83 019 108 -106 090 092 -107 021 090 -104 -85 117 100 080 100 -87 078 095 068 067 005 010 096 071 089 -36 031 -91 101 -106 107 -103 -20 095 -112 -74 
116 -101 -34 029 -20 -39 001 -93 -74 112 077 113 075 103 -94 023 050 117 -06 086 058 -04 042 093 100 045 115 049 -108 060 113 -11 -02 057 065 035 081 -113 085 097 -108 030 124 096 040 082 107 004 -69 113 -55 084 -71 -110 098 -103 -17 023 018 100 058 077 114 089 
-73 -94 -32 -14 -36 063 038 003 -111 086 054 -29 056 006 -107 107 059 -126 067 -49 -95 103 003 -76 020 -76 090 023 088 051 101 091 -18 -04 -116 026 -40 105 022 092 -113 089 -115 -111 -08 -09 100 -17 -31 -119 054 -26 -41 018 005 -23 113 -60 -87 -87 -63 -21 120 099 
-109 -42 022 -12 027 -85 098 012 106 -23 099 -67 051 -108 -98 -121 -74 -123 -10 -60 121 -104 -79 061 -25 -48 -119 -12 -46 114 -41 -16 -04 031 120 092 094 117 021 102 -107 -83 -126 094 066 013 -108 -36 071 104 -98 073 -103 -74 -11 085 -89 -55 095 -35 -36 073 -49 080 
116 100 -32 037 071 -31 -80 018 -64 078 -41 -71 090 -104 -108 118 064 123 -71 017 102 -78 035 081 026 -51 -113 084 -106 -107 -19 104 -112 -17 106 039 085 -87 -96 105 061 077 091 046 -88 -76 -122 -02 -97 000 -40 030 072 -114 110 116 043 077 000 -121 -85 053 068 -82 
-118 -15 088 096 -76 -04 005 -45 009 -81 088 -52 047 -22 -112 116 -27 121 093 -17 -95 -57 -75 061 -94 072 -23 007 -63 091 125 111 -111 -03 118 063 -51 082 087 -07 057 -25 118 -21 026 006 -99 -76 -94 056 036 064 090 -113 114 118 -82 100 081 124 012 -02 090 120 
-33 086 043 -17 052 048 -53 -94 -86 011 108 -68 017 078 -102 114 034 107 -23 027 -101 -82 080 019 017 -07 082 -62 -86 -110 -110 011 -19 -45 039 018 117 -123 058 048 -100 -84 -121 107 093 -73 082 -64 043 -26 080 078 075 093 081 -119 022 021 106 121 -27 095 094 071 
095 105 -98 077 001 074 085 073 040 -81 061 095 -45 040 -63 091 074 -24 -63 -31 -114 -95 -74 049 079 -81 120 -70 091 -118 105 049 083 078 -44 103 -124 099 -76 -124 -106 062 -123 109 062 -15 -45 055 086 009 058 050 -56 083 -29 102 -51 083 029 122 -43 -28 039 -121 
063 019 006 010 -30 071 -64 -86 096 058 013 -64 -17 -108 030 -94 019 -06 -58 100 114 103 -07 -49 -80 -89 -85 046 105 -103 -125 -41 070 -42 115 -24 113 092 -89 043 097 008 118 -111 -16 078 101 -18 -52 -41 072 007 042 -93 -106 -95 098 -99 009 -99 081 039 018 -84 
113 -80 057 -53 028 -63 -15 -17 -06 108 -47 -67 086 082 -47 118 002 -83 086 -85 087 107 -45 041 -21 053 047 -38 -67 -35 -125 073 -106 -40 119 088 003 -118 032 -75 089 -33 -124 064 079 034 -118 021 -39 -121 -39 016 -14 -60 064 084 069 -96 077 123 -31 036 -96 115 
009 034 076 079 036 -03 004 069 025 117 -63 003 -90 004 075 -108 -83 123 -89 060 -109 -95 017 -40 026 006 093 078 057 116 053 036 -80 -29 107 100 -123 -123 -43 -70 100 -71 -94 -100 -36 051 104 -71 -69 -107 -06 033 -53 -113 -33 -48 030 -106 025 -82 -76 006 074 106 
-91 -60 079 -12 -75 -90 -100 -82 045 068 -106 -70 077 -85 -102 -122 025 115 051 -91 -100 112 -75 007 -49 -65 -101 -43 050 -117 -121 -100 081 -06 059 -83 123 -74 -14 092 -13 079 110 015 -03 094 -105 -42 066 -18 089 -75 -19 -42 -68 -76 -96 055 -18 -95 050 -45 115 117 
065 004 -68 -59 059 -74 073 -100 -109 103 -90 -72 008 017 012 -117 073 120 -61 -33 056 071 -11 068 051 072 116 -35 -31 019 -58 -29 -93 003 -125 -86 105 034 -17 -123 019 -86 -27 069 -66 010 -36 -07 085 095 078 062 086 -02 -08 -114 -40 019 102 005 -74 000 107 034 
105 -76 -52 -05 -92 -20 028 023 007 -49 100 042 -13 -08 057 102 -84 115 -95 070 123 -93 074 -20 022 -05 -117 -80 027 -108 053 -72 -75 066 -60 -11 028 -24 -88 106 -40 -35 123 075 088 061 118 -74 -57 119 092 -34 086 -110 -119 -96 043 -57 -68 -124 022 -03 034 -123 
109 -100 093 004 -79 081 -07 003 -86 112 096 -102 -85 032 -39 -122 -68 114 065 -99 -123 004 009 -65 077 -87 053 -48 -101 042 -07 -63 014 078 023 -86 120 -123 -02 103 056 -100 -21 -76 009 -42 -112 -40 062 059 -97 -41 -93 -11 -62 -102 -86 -61 -02 125 038 -03 098 032 
106 -57 071 -91 019 -58 023 081 109 -103 103 023 -68 002 -91 107 037 013 -27 083 111 010 -41 -78 050 -62 -121 009 -99 -86 087 -100 065 -05 -57 086 110 121 -51 -57 -100 -74 119 032 -93 016 101 019 079 -121 -04 076 072 111 100 082 087 -105 036 -125 065 -12 113 022 
-70 032 -63 -37 020 -70 -50 -24 -42 107 -52 -110 011 -21 -57 061 070 -102 042 -90 091 111 -61 -05 080 034 082 006 -102 109 016 -110 -105 -36 006 -82 -120 077 087 -93 024 059 113 021 079 -99 -124 -71 091 113 055 -84 099 -24 -83 -73 -104 046 -29 080 083 063 119 -122 
067 -52 -82 -94 078 077 -56 030 -56 -91 -44 098 -13 -108 083 114 002 121 -22 102 123 035 -12 057 098 -15 -28 019 -34 009 011 -63 097 087 -66 -13 049 054 028 -99 -110 -87 -113 035 006 010 -118 066 084 -113 056 -08 086 027 -33 104 100 -100 053 017 074 028 -108 111 
-89 066 088 -41 -27 015 -76 -74 050 121 013 -94 012 -51 -109 -121 -76 -124 044 -65 -57 106 -64 000 -73 030 -81 -50 101 -99 097 -97 -83 081 001 -105 -109 045 015 -113 052 099 -126 063 -90 -98 -89 -82 -16 -81 -45 -87 082 -31 107 -05 107 -68 069 077 073 -74 099 -101 
049 091 063 -76 -88 047 -60 048 -59 079 059 006 081 087 -94 092 -34 -113 059 040 122 080 -80 -72 032 036 121 079 -55 115 097 111 -44 009 -105 -87 -121 -115 004 -20 -110 075 119 092 -86 086 090 085 -97 -126 098 025 -96 -47 079 060 -43 -107 068 115 -85 018 012 094 
043 069 -84 020 021 -61 018 -98 -109 -120 038 -96 006 098 048 041 -57 -83 -32 -104 107 -54 048 -82 -96 -77 -96 083 -97 -108 124 076 050 002 -70 -105 -121 -16 085 -121 093 -91 124 -99 -86 -46 -110 -76 -12 110 089 094 077 037 -58 -18 103 -49 -25 -124 -78 082 -34 -108 
110 077 046 070 -62 -83 010 029 -49 -104 108 -104 000 -57 -71 -95 103 -13 039 -100 119 -101 -62 -70 -20 -80 093 -51 -91 -70 115 -84 -91 -89 109 030 041 -105 -62 -120 057 -75 086 030 -105 086 -42 082 026 125 -103 -68 076 -114 -97 089 034 -101 113 115 -30 -32 013 -32 
100 -62 062 053 016 -44 -30 075 045 104 -19 100 -69 089 -110 118 071 -127 -84 045 123 112 055 -86 049 050 102 -51 093 -76 090 -94 -93 025 122 -105 103 -93 026 -119 087 039 059 094 032 -61 -101 036 -64 116 -46 -96 022 048 112 -107 093 000 071 -38 087 063 -68 112 
110 062 096 099 -29 -65 092 -85 -11 108 110 049 -66 -98 -70 -108 087 060 -24 -69 123 -107 004 -66 085 -25 -15 024 091 -17 114 110 099 029 120 100 079 029 048 107 084 012 102 -92 -100 001 -126 -28 038 021 077 -81 -67 071 -75 -16 061 -70 017 038 085 -71 077 088 
-115 104 068 -25 025 070 -18 -27 086 064 -104 -108 -44 -15 079 -112 058 108 -73 100 114 -14 -68 055 -41 088 093 037 -112 114 -122 -62 061 -29 119 -47 -115 119 -37 102 -102 -58 065 036 -86 -01 023 041 076 -123 088 056 058 074 091 040 028 -43 112 082 076 017 112 -20 
110 094 086 099 074 -30 089 -86 016 079 068 101 -61 016 -76 -103 018 117 013 101 -125 -42 -86 074 -70 043 100 077 105 -92 115 048 -104 -41 058 -72 123 -111 -61 117 -115 -12 -47 -26 061 024 -124 -01 -98 -108 075 -62 -61 -103 102 -70 -18 -85 -98 114 -91 -82 115 100 
098 081 -54 -93 056 -89 -69 -88 045 115 -71 -16 014 -92 -64 -90 -51 122 013 035 -114 016 -50 -07 -58 032 116 072 100 101 -94 074 011 -83 061 -32 -86 -93 -92 -126 -113 -71 -86 088 -57 -07 088 -11 -37 -117 068 089 -28 031 -45 -114 017 -88 -80 -38 082 092 114 -114 
-96 073 -79 -25 -91 -25 -56 -13 -108 014 -103 -65 -87 -109 -57 -89 057 110 -93 -78 097 -82 060 083 -33 047 073 009 -100 -116 -106 -29 -23 025 -99 -100 -99 -109 -78 -125 -15 -62 -49 079 -96 062 116 -90 -46 124 003 058 090 -56 116 107 106 -17 013 -78 -35 -102 -53 -118 
032 096 -104 057 -59 -32 -62 049 -90 104 064 -81 053 085 -104 -93 -55 102 004 106 106 112 061 -49 -59 032 109 062 030 106 -127 -55 080 -18 116 012 041 002 015 118 -104 -15 -99 108 037 -21 090 027 -84 -122 -10 076 098 087 -106 115 -74 023 -67 090 -68 004 106 091 
087 107 -93 043 -10 -22 025 052 030 095 -60 -20 -94 006 -55 122 -61 110 087 004 -65 026 064 -03 -87 -51 108 -18 019 -82 082 -22 082 060 036 090 108 -50 -09 106 097 088 113 108 052 -72 085 -68 -24 122 -54 -85 -20 -47 080 118 -18 084 087 114 081 032 118 -08 
-77 101 -97 -95 -18 068 -59 063 106 -108 015 -12 073 070 -109 093 -29 -125 -81 -28 115 098 -06 007 095 -91 113 -40 008 101 -123 052 -16 053 123 099 114 115 -33 -112 -110 -50 105 -47 080 011 075 053 075 121 -51 083 074 -50 -21 064 059 061 103 -118 016 -66 089 -108 
110 -47 101 -42 -53 032 -96 036 023 034 088 102 -68 -106 -87 051 -88 -123 -33 -96 -06 108 003 -97 -50 090 107 -70 -84 -118 -126 -107 024 077 -101 040 -100 014 043 087 -68 040 084 -111 -100 -89 111 -62 -23 114 077 -96 017 -76 089 109 108 076 098 -113 069 -02 122 -76 
114 -76 094 -31 -87 085 -98 043 005 060 -41 -61 090 -85 043 -46 062 084 -95 -27 124 046 -48 -22 016 004 -64 -26 031 -71 116 -17 -93 056 119 -40 122 110 -78 -124 071 023 -01 -31 -11 -07 116 -80 -78 124 -101 -83 -11 -34 120 091 -42 -110 -68 -118 -59 -84 122 120 
086 -82 074 083 -60 -64 -40 -31 -89 -76 106 -110 -92 092 -70 110 014 -119 102 -68 125 -69 011 009 -19 -21 -91 047 104 106 -75 -60 078 -79 113 -22 070 119 043 -93 040 054 -114 -27 -77 041 -07 016 014 114 -72 012 082 081 120 044 109 -102 097 116 -89 -104 120 -57 
116 -98 101 014 -80 -49 068 -05 050 -121 101 088 090 -109 -103 114 -08 124 -03 092 -89 -86 -41 -91 086 062 109 -72 -47 015 121 -99 090 -01 107 032 -107 -63 -83 -115 100 077 -119 -106 -65 066 118 084 -82 115 -58 018 103 054 120 -116 065 039 066 109 049 -54 -109 -35 
112 028 099 -94 065 064 -02 030 055 -10 032 100 -44 -107 -104 110 -24 -36 010 077 -87 -91 -46 066 -73 -85 -102 -48 002 007 111 -98 -72 028 110 018 -105 090 -62 -113 -95 -78 -117 -106 -35 053 091 -58 034 116 036 -48 031 090 121 -104 -34 -36 078 -115 090 065 116 -114 
-92 -83 083 060 082 087 051 086 103 104 102 -86 018 -85 067 093 061 107 061 -107 -118 102 -05 -88 -02 088 -88 -56 -06 -08 043 114 110 024 118 061 -93 120 051 -122 -57 045 125 027 -79 -40 -108 066 053 -99 086 -88 -44 -57 -105 -83 110 -49 -89 125 015 046 115 101 
-96 002 -05 033 -41 051 024 -85 096 107 110 055 068 106 -37 -118 092 063 099 -60 113 048 -30 -94 085 062 121 -72 040 -82 -117 -62 068 080 -118 101 107 -111 -37 115 -111 085 -124 108 -85 066 -107 002 -64 -99 -52 -67 -101 -70 083 -104 071 -107 -91 -112 -36 -102 -89 -119 
116 -97 -14 077 -55 053 000 -55 -59 -116 032 -97 090 106 -76 087 078 -117 -28 -40 -123 -103 -18 -59 -34 038 110 062 -90 -26 -124 -109 -101 033 108 -50 -67 -120 004 -114 091 -53 -103 037 080 -07 060 -56 026 -56 -43 -38 -29 -84 -85 -55 -83 032 081 -122 046 -62 116 -114 
-107 -20 070 070 -28 -01 -59 -01 053 117 -23 064 -85 108 -97 063 -26 120 -63 098 115 089 044 072 094 034 109 -71 -81 097 063 060 077 090 083 038 -77 -117 -83 092 047 -55 -120 -41 092 006 -21 -02 052 107 050 045 103 -109 073 114 -89 058 -90 -127 092 -97 091 036 
-116 -102 088 -20 020 013 099 -32 -04 078 072 -83 082 -72 -51 077 -41 084 -60 062 088 011 034 087 039 -59 110 052 097 -114 -126 040 052 066 123 065 -94 074 030 -123 -97 016 -99 -73 -76 047 -117 -90 088 121 -35 -65 -12 067 -105 -35 072 -103 -110 118 004 092 -80 034 
003 -36 -80 -24 -49 -21 032 -102 090 -119 110 -33 -94 078 -85 118 -29 055 -41 071 -125 100 057 025 041 070 -119 081 -104 -103 121 113 058 000 -110 -01 106 107 -67 -104 102 -19 -126 053 -74 035 -84 -65 -23 -50 -79 022 -27 -113 117 -17 -40 003 086 001 -67 068 -116 118 
-111 -79 096 -70 050 072 -99 -12 -28 023 038 104 -38 -64 104 -122 020 -106 -91 082 086 -109 058 -31 096 -54 -41 -35 -67 -49 102 -99 -90 -85 -120 095 123 -53 -77 101 102 -69 113 -62 005 011 083 036 -30 119 -97 067 -61 -107 -112 112 073 -72 101 058 -59 -24 037 -87 
-80 -53 -63 -62 -03 041 039 063 -112 -93 077 070 -93 -62 -55 072 -83 106 074 -33 078 077 -58 082 014 -79 -40 -56 104 024 120 071 -53 015 081 041 -02 -32 -66 -112 069 071 -88 -112 071 081 108 085 074 123 013 002 009 -69 -109 094 093 -104 045 -99 050 -38 -113 033 
053 -64 -34 092 -72 -76 050 088 -38 -08 108 084 074 060 -48 087 062 -73 008 -67 106 069 -01 090 079 -63 109 086 082 110 111 -104 -61 059 123 -79 056 -01 -94 082 111 020 048 -102 -99 066 -122 015 007 090 089 060 -67 066 058 -51 009 017 038 -124 050 -83 028 -122 
088 -58 098 095 -31 -40 017 -48 -61 111 042 105 -23 107 -82 063 034 122 -27 061 -118 101 -20 -18 -69 062 094 -72 106 -28 115 056 089 -87 122 020 075 101 015 019 -60 -29 125 048 081 -98 -71 -54 -80 -124 004 077 -35 111 100 -94 -16 056 -101 -98 044 096 107 -71 
120 024 -82 061 089 -75 -88 -92 -110 107 080 -01 060 051 -37 098 057 106 -82 065 107 -79 072 004 -32 094 -87 059 -60 095 107 093 -04 -61 122 058 -103 -120 095 -88 113 084 119 -69 -87 004 -106 -30 -97 116 -61 094 -34 -36 -41 067 060 059 -71 -125 -59 048 -05 -124 
114 -48 -14 -68 -45 -73 015 -67 -02 -119 070 -86 082 033 089 -103 054 030 062 -41 116 -101 035 006 -50 092 107 019 -75 037 -114 -108 098 050 -114 010 112 111 -88 077 -48 -57 -112 -06 -62 048 -97 069 -41 115 026 074 -23 -30 082 -08 -49 086 -15 -102 -88 092 -120 103 
102 055 -95 079 -81 036 -104 025 036 119 002 084 -49 -65 -40 -39 020 -120 -08 -104 098 -94 -55 059 083 063 048 -55 089 116 -115 -44 -72 062 096 -90 -110 -120 -12 038 098 024 -124 062 -12 047 100 -69 025 111 085 086 095 007 065 021 -85 -71 -69 125 073 -40 -88 121 
-55 076 083 095 -24 013 -96 076 -46 -109 075 -109 -82 089 090 -19 057 -106 -20 100 -126 096 085 -16 018 -87 113 051 017 -82 -112 047 -70 -65 040 -95 124 122 -51 -116 -45 010 -104 -98 045 -76 -108 041 074 118 022 -36 092 -83 -123 001 -15 080 -81 -120 -94 086 122 -88 
-101 072 -71 -49 -67 083 048 -75 -108 087 -93 077 -76 104 -47 119 -46 -118 080 001 -89 096 -76 -29 045 000 001 061 -57 -02 -72 073 -42 045 107 -86 -122 -123 -83 -91 -76 053 078 008 -23 -93 -58 -65 -73 113 -69 069 060 -49 115 -67 -100 038 -68 -107 -36 -98 107 018 
-71 052 064 090 039 -86 -98 039 095 -119 086 -105 -73 -18 -06 114 019 087 -18 -45 071 098 032 -42 -55 -37 -63 072 -92 -52 -59 004 093 -36 -66 096 105 084 -73 -102 052 078 105 -61 038 043 -111 -48 -46 -59 047 069 -14 -106 111 -71 -85 096 -51 -111 -43 -96 -99 121 
-104 -81 064 -34 -44 046 075 -09 015 120 100 -03 053 094 078 -101 -71 100 079 102 116 -55 -74 072 -22 086 116 033 -61 059 125 -93 090 -79 -59 -38 006 -118 085 -125 074 058 113 100 075 -66 -122 -59 -92 -99 -68 -17 -45 029 -111 079 -80 047 080 -99 078 -06 110 -90 
096 -89 -12 003 -79 011 058 -43 089 -107 105 021 -35 -93 104 -24 -02 -17 069 -58 -89 -91 -41 004 017 036 114 009 027 003 125 -104 091 050 -114 077 120 -116 073 081 -36 089 -122 001 091 -98 -118 087 080 096 011 037 026 109 -101 023 -73 105 -79 057 068 023 -111 046 
113 -87 057 051 -21 034 -91 008 -99 038 -86 -101 -02 093 -78 -102 -87 069 -24 024 125 -114 035 -87 -13 -17 107 003 090 -14 -103 -46 032 -94 -37 -93 -116 -75 -03 -112 107 -18 106 087 -22 048 095 007 -81 085 -62 049 -87 037 117 -114 074 037 -94 -124 -91 034 110 100 
-100 088 072 039 -78 036 -81 -98 101 097 095 -16 -27 087 108 -40 -55 119 031 072 119 109 -64 -82 -58 088 016 -16 098 066 058 -55 -87 -80 089 016 085 -112 057 -106 075 -95 123 -109 -97 -68 -122 023 -80 082 053 -19 -89 013 -79 -51 066 -106 -107 -121 065 090 -117 -84 
-105 045 -90 -36 006 -33 -45 047 092 115 -103 -92 -52 105 -36 111 069 -38 070 038 -52 -63 076 -41 082 -80 026 -56 -04 068 -126 -41 -114 -78 -111 -95 -116 -121 -70 -107 -08 081 120 088 050 -75 -91 076 025 010 -14 081 -85 -22 008 -23 -23 011 -08 -117 009 -91 -85 -92 
080 -44 015 -20 -47 -13 035 -54 -04 119 068 083 -66 098 -74 112 005 -123 055 037 120 -112 004 057 -04 -88 -107 -57 -02 096 -118 103 111 070 -69 103 024 -101 -91 120 -85 -10 101 107 -31 022 120 023 -66 -117 047 062 -67 091 109 076 105 -66 -104 -76 -94 -65 092 -97 
104 -88 042 037 -25 049 -94 -89 048 -08 -81 -55 089 -76 -107 -89 -22 -120 -73 -76 126 096 -45 -83 012 -80 -93 084 032 005 034 -78 -99 011 122 -110 -93 -74 093 097 -28 -43 123 080 -73 006 123 008 -41 117 091 -72 066 -114 101 114 098 -74 073 115 018 054 074 084 
121 -105 -106 014 016 003 -09 061 -102 -100 058 108 -61 011 -95 -114 -87 105 -39 -54 118 052 071 091 -87 -70 -102 -22 033 -93 125 097 110 030 123 -105 -115 110 -80 119 063 096 -69 -81 075 014 113 034 011 116 -16 -40 -82 -40 120 107 058 -44 107 125 047 100 116 -54 
-107 057 -98 -34 004 -17 010 -100 086 062 -57 -76 -74 -100 -71 077 090 119 078 -85 125 -46 -45 068 074 055 -115 -26 089 -09 124 096 067 -80 122 100 -108 116 -50 -106 -101 -36 125 -68 051 -72 121 085 048 -122 093 057 -16 024 -48 108 114 063 097 -113 -17 -101 -105 -79 
-109 -110 -81 -38 -18 069 090 015 -107 107 016 007 -91 059 -49 123 099 126 -46 036 -98 -95 010 015 -93 -19 -99 008 094 035 095 -92 -91 098 -114 -106 -115 112 -86 094 105 061 -123 -109 -82 -100 124 032 -54 053 -10 -65 -104 -35 -108 -69 -60 072 -80 094 -86 092 -97 -99 
116 -102 -39 052 066 -22 -60 071 -98 087 025 043 019 -76 085 -71 -14 120 080 089 101 023 036 070 -43 -89 -118 -61 -21 -120 120 -105 031 -30 120 -03 125 -118 037 108 -107 -53 -112 -80 087 053 100 056 -62 -112 -92 088 -103 003 -115 -87 109 -47 -65 -108 045 018 -69 -28 
-84 -87 045 -51 019 -05 014 082 056 -102 103 001 -14 -97 -102 120 -62 121 038 -96 -80 057 -02 018 085 077 106 -74 -90 -68 125 101 109 067 116 -84 087 -117 072 -119 106 088 116 -105 -79 045 078 -86 -47 -102 -17 001 -104 -49 104 117 093 -103 -66 -120 058 010 -89 116 
115 075 081 -13 -38 -43 -96 099 -12 119 068 088 035 -65 -99 -118 003 109 068 087 -118 -58 031 032 053 -75 -59 000 -12 109 -124 -85 -105 -22 -113 037 -09 -111 064 -101 -14 -01 111 108 -47 014 -97 -40 -32 080 -80 068 066 -59 -115 092 099 031 -102 077 -01 034 045 116 
109 -47 -88 003 021 -61 099 097 003 111 -56 093 -54 -22 -37 -102 -42 005 088 -52 087 100 079 -21 019 037 051 016 108 112 122 011 -09 -88 116 102 089 -97 -49 -116 -80 -59 092 -94 -80 093 124 068 -65 048 095 -63 -99 -105 021 022 108 086 104 125 079 -12 -102 -19 
114 089 068 -10 -36 -88 -92 095 062 056 108 -97 035 014 -59 -121 -01 -119 -66 -96 111 099 001 -64 -66 -22 120 001 095 -91 -85 046 -67 -64 121 -103 -123 108 -95 116 -80 058 -122 082 -92 -56 081 036 -88 -106 033 -58 -76 -01 -42 081 -54 089 052 -119 -34 -06 115 -08 
-67 066 -12 -17 031 074 -103 -90 064 -47 -04 -73 042 104 -97 -110 009 123 036 069 -79 -57 -29 059 -54 063 -81 -37 -88 -98 125 -101 -53 -81 050 -73 -116 -98 019 -118 -113 035 084 -82 -37 062 -121 -77 -86 103 -86 -55 -76 -106 -83 116 -51 098 -77 -118 017 096 110 120 
-57 -46 042 -52 057 -13 056 080 -96 056 -75 107 034 -39 016 073 068 -21 -57 -11 -124 -101 -84 -91 -75 -15 -121 -80 090 016 -124 -105 -93 009 119 045 106 061 -88 -121 -96 -39 -73 -102 -14 057 -87 -77 -19 -89 094 071 071 -38 029 -118 -40 -06 077 -90 -16 013 076 -102 
064 077 -13 067 -66 054 -47 -56 -48 -98 029 102 066 104 098 -43 -64 -107 -30 024 112 -109 -59 -18 025 031 -119 -43 -110 -102 -94 095 028 -75 109 -41 122 113 -78 -82 -80 -51 112 -106 089 086 093 -66 -03 -124 -65 -65 102 108 -99 -110 -87 -35 -56 -126 031 -101 046 -120 
-102 -97 -96 063 026 -77 097 094 072 101 -105 -13 066 -45 049 109 -16 -28 031 -73 -109 -105 073 -74 027 -90 -97 001 017 -56 124 005 075 -27 -104 025 085 055 009 -48 051 016 -90 096 021 030 071 058 -84 051 -16 089 -71 -77 -113 -113 094 -105 086 -122 087 018 098 -116 
108 -54 -63 -05 025 007 -27 086 017 -102 000 080 000 -112 -01 -123 046 119 047 -72 092 -107 -82 -52 -15 089 120 071 -02 005 -115 098 101 015 -118 -102 -115 115 050 010 107 -101 -34 -93 -19 036 -122 -38 -06 -86 086 -71 -102 074 -120 077 053 -106 085 125 -44 -84 -102 117 
071 -62 -44 -71 080 -23 028 082 -92 -64 096 -109 -78 015 -68 -03 -34 -119 058 -86 084 099 -09 081 -19 -89 -122 -64 050 110 125 026 -102 -47 066 -105 -124 092 044 -124 -76 -83 117 -110 098 -24 054 082 -46 123 -82 038 096 -04 048 118 -35 -12 -77 123 040 017 -21 043 
067 -14 -96 -07 -51 -89 099 -89 -112 118 053 102 -50 -36 -75 045 -67 -85 032 082 -03 104 047 -52 -99 051 093 078 022 083 117 078 -109 043 -53 012 -107 061 -03 -90 -12 -17 079 -78 021 -27 -121 032 063 115 -02 019 -54 108 -83 107 -37 068 036 -118 -04 -30 058 -122 
