-44 034 -47 -24 029 -48 067 032 027 -19 055 -37 016 057 021 041 044 -61 033 017 052 -45 -14 024 -90 030 023 -23 031 -32 -23 020 -01 054 -41 -22 033 -37 003 055 022 -24 -16 -15 -45 001 -22 016 -13 -03 011 031 -67 011 002 013 011 -35 028 -55 030 -66 046 028 
035 -83 -54 -19 041 -32 -69 -21 -23 -66 018 -14 -15 -44 -28 038 038 -01 -38 -11 023 013 -97 029 -82 -06 -07 -48 025 034 043 -12 -51 026 042 011 032 031 017 065 -22 -58 -34 -24 -80 027 -15 -64 053 005 -09 -29 -36 -14 007 006 -38 -45 018 -43 -30 023 -58 -02 
028 -87 -18 -40 037 065 -61 -14 070 026 041 -34 -47 -31 -18 -23 056 016 014 024 016 007 109 031 014 011 031 008 -26 022 017 039 067 009 062 014 -35 014 -26 010 041 034 024 045 -10 -06 -45 052 034 030 -14 -16 -39 -25 037 030 022 005 -21 -02 012 065 -34 015 
039 -18 -07 -32 014 -71 087 -46 007 -22 -72 033 000 035 014 -42 -61 010 000 018 -58 -10 -86 018 080 -43 015 037 -10 048 006 -33 -08 019 -58 -18 019 038 -35 066 -31 -50 053 -02 075 010 -21 068 -12 005 008 040 000 -19 016 033 -03 025 -14 -26 025 039 -23 -25 
-45 -10 051 -36 -39 -48 -40 015 -57 049 -18 019 007 -38 019 007 002 035 -04 -04 -40 013 -86 015 027 -29 -22 012 -26 031 016 008 008 058 -20 015 -36 -01 -22 066 -46 027 -33 017 037 -29 -07 020 -14 -03 031 016 063 044 005 034 -23 045 044 055 -20 070 -47 -25 
027 045 -45 018 -48 071 006 017 056 -25 -13 025 -38 010 018 -11 004 -31 046 032 -37 -83 -66 006 -108 -49 031 -03 019 -10 -08 039 044 -40 054 017 005 -08 -12 -14 -51 -34 -62 026 -51 -19 041 059 015 -18 024 006 007 036 010 015 -23 -23 041 -42 -46 043 005 -30 
039 097 -15 -43 006 -15 -35 041 034 -37 -75 003 -17 -70 026 008 -12 023 -49 -10 -65 -02 -110 -55 -105 046 -09 -72 -06 011 020 -48 -35 020 036 -23 -08 034 002 000 -36 -28 028 018 048 023 -20 034 -62 -04 -33 036 028 -23 -10 049 -36 -08 010 -50 -12 -12 -33 -16 
036 021 017 029 -07 -47 -19 025 -31 003 -57 -09 018 -03 040 -30 055 027 -48 022 -42 048 069 010 -92 014 -02 002 -04 018 001 -13 006 -01 -24 -10 011 009 -39 041 055 -26 044 000 -79 013 -08 -66 049 019 -35 -43 -62 002 -07 004 006 016 018 -01 005 054 -10 -26 
044 073 -33 010 017 -22 -01 033 -07 -53 044 042 023 061 020 -03 -31 058 025 -23 -41 026 -95 020 -89 051 -44 042 -08 -17 027 -21 -08 016 045 -11 -26 006 -36 047 -25 043 037 032 068 004 041 -30 -49 -05 007 000 -64 026 022 016 -24 033 -35 025 -06 -29 -24 024 
-17 -45 035 -04 -12 -80 -22 -50 000 -68 008 045 -30 -36 030 -06 036 -19 -11 -21 015 -59 -96 -14 007 -08 -38 -59 -10 025 006 -33 036 021 062 -34 -04 044 -10 033 -50 -05 -34 035 -16 -04 -13 037 -42 005 -33 -08 -42 045 -28 -09 039 027 -35 -40 -34 061 -13 022 
032 036 012 -20 -31 -17 049 023 -53 051 025 013 -47 -43 034 -51 053 047 -09 -08 002 -78 -67 022 -92 -15 009 -59 -17 -17 001 013 -03 -45 -65 013 008 006 -30 061 -24 -35 -65 -20 -22 -09 -13 -13 -24 -39 030 000 051 -16 014 031 047 027 020 -09 014 -28 -34 -32 
-38 -89 030 041 050 -76 080 -31 028 -03 -25 028 -01 012 038 031 070 059 029 016 -46 -74 112 -43 019 -52 -01 050 -32 -32 -06 -11 021 -36 -25 007 -17 043 -36 -44 -35 -42 -06 -22 049 012 014 -52 045 033 010 -37 -27 013 -33 -39 034 030 -45 037 -26 025 025 034 
-27 005 025 -01 -54 -56 -96 -29 -11 -36 -19 -19 006 -54 020 025 -09 030 017 013 -57 066 073 -29 093 -05 034 019 025 -41 026 -11 030 060 -67 -25 007 -17 006 -66 -10 027 048 -25 -35 006 -44 -41 -60 010 -29 027 -13 -22 -22 029 000 -14 -12 -43 003 -53 030 -10 
019 -03 011 052 -14 078 079 -33 061 013 004 -41 027 011 039 004 -52 000 -38 028 053 065 102 -06 -11 053 -12 -27 -19 012 -10 008 -02 046 -21 -03 014 036 -17 -29 032 037 -26 -28 -56 -20 -15 073 -43 000 016 022 042 -33 003 023 030 035 -23 039 026 005 045 036 
-26 -90 048 018 -37 -84 054 -35 025 067 -58 -02 -35 -14 030 -21 068 025 -09 000 032 -21 073 013 052 000 -41 -36 -03 017 -12 -57 030 -34 058 -01 -20 -42 -05 051 058 -32 -54 -35 -28 007 -44 -38 047 022 026 009 045 -20 -29 -39 -43 -36 -25 -38 -42 -50 034 -27 
021 043 -57 -01 -28 063 -83 013 -30 026 036 034 046 012 037 016 -71 006 -63 009 037 091 -74 026 -70 -50 036 065 -28 -16 041 -55 -31 -17 -14 -29 016 008 030 025 014 017 -06 040 -50 018 007 -75 006 031 -23 -04 008 -20 003 -51 044 -44 007 -18 -28 067 -38 012 
-11 -60 -13 014 005 -35 -58 029 032 -37 031 017 -38 040 -09 037 -10 -23 047 -30 004 000 088 -31 -05 049 -26 -01 011 003 018 058 -23 024 042 -40 -04 -09 021 -49 053 -26 -64 033 -67 021 046 029 -50 026 -07 -24 -54 -11 -05 -05 001 003 -02 009 019 -10 -40 016 
037 018 -09 -23 001 030 012 -05 -03 009 037 042 001 -18 -31 006 -60 -29 -48 007 -44 004 030 -23 105 016 -33 008 -04 036 -43 020 021 010 022 035 015 035 002 -18 028 -19 -22 043 028 -12 -28 030 006 -10 -22 -02 -32 009 011 -05 033 -19 -20 015 -07 -66 032 014 
-24 009 -44 -23 -25 080 043 -40 -06 067 028 -21 -31 000 034 -32 054 021 014 019 040 093 026 051 045 -43 -23 -55 -34 015 030 -27 041 -01 -30 004 -11 042 -04 038 011 -29 -13 014 -35 034 005 -44 -34 028 -31 -43 -30 -05 -07 -47 -26 -63 010 -02 026 065 -13 -18 
010 -09 -11 -12 034 -03 081 -28 -10 -30 013 049 005 012 -18 -05 010 -16 -53 -29 -72 -72 -30 -19 -80 001 017 -56 -14 -36 047 011 024 002 051 -32 -08 024 -04 -42 -01 016 -07 037 -28 025 039 007 -31 -18 -17 -11 -50 005 -17 012 025 022 -31 -46 -24 -13 -20 000 
034 083 -20 -21 -20 010 -102 028 013 030 -16 045 -50 045 -32 011 -53 -32 -56 004 012 -15 069 -36 -99 -51 013 -27 -04 -40 018 -31 -46 049 -54 -36 -08 -12 -24 -70 046 -31 -45 -41 -08 028 056 024 -03 040 -19 -41 028 025 004 -28 015 006 -02 -55 -45 047 -21 027 
001 -99 047 010 -48 -40 084 032 -54 -09 -62 -25 -43 -19 001 -39 022 -36 -36 000 -36 067 -106 -54 015 -52 021 041 -34 023 019 -43 -15 -33 015 -17 007 -33 -27 060 -57 -23 037 -02 035 019 -19 -66 003 -27 -30 -14 -72 -40 018 -38 -21 -41 -45 -56 -28 -09 -05 002 
-02 -87 -16 -31 025 029 059 -09 -06 -64 -65 -33 -03 -17 022 -43 -22 -43 009 017 055 -30 -66 009 100 040 029 -51 -04 -48 037 048 -18 054 058 040 000 -41 -13 -18 -09 011 053 043 -70 020 026 019 -16 -36 -27 035 -29 033 030 026 -38 005 025 -06 013 065 041 025 
031 -49 048 -03 035 -76 -101 -36 033 049 -12 045 053 050 -30 -01 -25 048 -05 021 -10 -05 -06 -37 041 -38 -33 005 -02 -47 012 039 -03 013 -01 -15 -17 -26 026 062 033 -09 -52 005 -50 -06 055 -76 022 023 -30 -08 042 023 -34 -32 045 020 -40 -48 036 023 036 -23 
047 -49 024 005 035 -27 063 -48 -13 -63 -52 -36 052 030 029 -33 060 074 023 007 038 -49 009 050 085 044 -19 -46 -09 045 -10 -15 044 -52 -19 010 -13 010 -11 -47 -04 041 -03 052 -56 -28 004 048 -58 -01 015 001 060 -37 040 -25 -45 018 -16 052 -46 063 -03 -11 
011 -26 002 012 -50 -57 -81 024 -07 026 040 006 -55 006 029 -42 068 -60 043 003 -39 032 -58 -28 -84 -04 -38 -39 031 004 -42 -61 054 -16 016 -13 -06 -24 -32 -15 012 -01 037 -46 068 -30 -20 -11 -17 023 -03 -40 045 040 -21 -47 028 -44 -46 -09 -06 053 014 -26 
-45 -65 -43 010 006 -10 -100 033 023 002 -50 -41 -35 047 009 -04 041 -68 003 -15 -47 -88 -63 018 -58 -42 011 020 -33 013 018 042 -48 -04 014 032 018 -36 034 055 047 069 -63 -20 001 -20 016 -13 -52 021 001 020 018 016 042 -42 -38 019 -19 -17 -14 -14 026 011 
038 046 014 028 -43 -23 -94 -27 034 -27 -64 -11 043 016 -12 -32 -29 032 033 -33 -14 021 097 035 098 032 -35 -40 015 001 005 060 000 022 011 -24 008 016 005 -32 -23 -24 -23 -44 000 025 027 054 -41 033 001 -31 -24 002 -16 -50 027 000 036 037 -35 042 015 010 
033 -66 -22 -08 019 100 080 015 -31 -20 022 -22 029 -20 021 -31 -43 009 018 019 -39 -14 -75 001 055 -50 -02 017 -39 -26 -19 -28 042 -01 033 -04 -33 -52 -36 045 039 039 000 031 080 038 024 -55 -64 -25 024 -27 018 -22 001 048 040 026 -44 055 -13 070 -20 019 
-04 -82 022 -42 039 086 -91 035 035 -61 024 035 -21 031 -25 024 046 051 033 -07 -06 -43 -42 004 045 033 001 037 -38 023 044 -62 -57 026 -45 029 -35 013 031 -35 -05 011 062 023 042 003 -26 019 -56 -39 007 -19 025 -35 -19 008 037 -35 -38 -12 015 012 033 000 
022 067 -22 034 -12 -62 024 -51 007 -47 058 022 050 -61 -31 004 -61 006 -20 023 -64 -06 077 -02 -85 012 007 -37 003 -05 044 -31 -26 -21 012 -23 021 000 017 061 -26 036 038 -24 -34 032 026 -33 055 -09 020 -12 -54 -30 007 014 005 -23 -41 009 045 063 035 -35 
-12 002 046 012 011 -94 097 045 005 015 -69 007 050 059 035 -01 -15 -58 -05 001 -67 045 -13 053 042 -25 -36 -08 -41 018 037 031 009 006 -07 026 027 014 035 066 044 055 -42 011 012 034 043 068 048 -32 031 029 -49 005 -17 047 -18 -45 -35 -36 020 -36 005 -36 
036 061 -24 021 -23 -82 063 024 -48 -59 -33 028 030 034 -04 013 -38 045 -43 018 -57 -80 -07 -56 038 -53 016 -01 011 001 042 053 -53 -47 -12 025 -33 035 018 020 014 006 038 034 063 -09 003 -51 028 -42 -09 019 -36 046 012 040 -33 030 008 042 004 -51 037 011 
017 -63 -27 040 003 -11 014 -33 -20 -50 -54 018 -45 013 000 -25 -34 -05 -37 024 -64 021 041 027 -98 006 010 036 006 -21 027 024 -53 -31 -54 010 -14 -24 -11 058 051 -07 -15 043 -14 012 010 036 009 032 -26 -05 065 026 -32 -01 038 046 -35 -22 030 005 013 032 
014 -52 048 039 -29 -58 048 019 -49 015 -61 -42 035 -33 007 -06 062 -24 009 010 018 -57 093 005 -80 -36 -30 002 -28 -26 -21 -08 -28 -50 009 040 -04 048 -36 -38 009 -45 033 -47 -69 -24 012 -19 -21 038 -33 -19 058 -02 -20 -15 040 051 010 004 -06 -19 032 -21 
-04 012 048 -35 006 084 008 -39 057 -25 050 -47 -28 047 036 -44 -65 -53 -14 -16 -37 -11 -66 039 104 044 031 065 002 -06 028 -30 -40 -49 -56 -02 034 048 003 031 039 019 -29 -05 066 009 011 032 022 036 -31 -38 064 012 033 006 028 009 -31 -19 -25 050 -48 005 
-01 064 002 047 041 -79 045 015 -34 -64 002 -30 038 -09 013 -08 -23 -65 025 034 -41 022 -79 044 -14 -26 -22 014 -27 -27 050 024 016 -16 -46 -11 -12 047 -08 -58 -11 012 025 -48 071 024 -10 009 -37 -06 -07 -33 061 -14 -40 -09 -13 -33 041 006 -23 004 030 008 
-25 083 -14 030 015 070 077 033 -46 049 072 044 -13 -10 -17 -19 069 038 -01 -11 044 083 094 045 098 042 039 041 -32 035 007 -43 -42 043 -13 042 -15 -48 -05 036 050 051 -64 -47 008 010 -03 -74 048 029 -28 -41 -04 006 032 -11 044 -44 002 -37 -02 -63 044 004 
005 -33 042 002 041 -70 -73 021 -01 016 011 -15 -52 039 -17 018 -62 -71 014 -05 064 -78 -35 046 100 005 -46 -29 -13 -41 -18 013 068 -43 -48 -04 005 -26 -27 011 043 060 -14 050 -01 004 007 029 034 019 -02 003 -20 -48 036 026 050 -02 006 -19 044 -47 -47 033 
000 038 010 -15 043 -64 -42 016 035 067 -34 026 007 -43 -13 -46 -46 053 040 032 069 -31 -06 047 -33 -23 001 036 011 -27 038 002 -27 -59 -28 -41 -12 042 003 -04 -34 -60 016 022 -08 -22 000 -07 -14 016 -03 -32 -23 044 014 -51 010 041 -10 010 006 020 000 017 
024 -44 035 -50 -12 -60 -58 -26 020 -02 067 -52 049 069 035 -44 -14 003 029 018 -68 029 -121 028 -73 -01 -04 -61 -40 -05 050 041 019 -34 -10 004 024 034 -17 -95 007 047 -31 011 -62 045 017 -65 -08 -03 -04 038 -33 038 045 -43 -24 013 -34 032 021 -72 -28 000 
-21 -65 054 010 -40 -23 010 015 -07 -34 015 -27 019 014 -39 -25 028 -24 -45 027 053 -07 015 -03 102 -01 -10 -67 032 -48 010 -63 058 041 -53 036 027 -18 008 060 -11 -37 030 006 -42 000 -19 -75 012 015 027 -19 044 -02 -37 -48 021 053 028 006 -35 044 -06 008 
013 085 001 034 -11 -24 -73 -03 -33 -65 012 042 -46 -02 040 -31 -63 035 -16 014 -56 057 027 -23 -111 -18 -20 -30 022 -17 006 -18 -19 -55 -40 027 022 -18 -29 -58 027 -26 -06 -13 -04 029 -10 037 058 010 014 000 006 -28 -27 -29 010 032 -01 023 013 -57 -50 005 
004 058 -47 -23 014 048 039 -48 042 -66 -35 -21 -48 -36 -11 001 -36 001 011 024 -67 077 005 052 -31 -52 037 -65 -01 046 -44 052 -46 037 -67 -01 -17 020 -10 -08 -28 -08 017 017 043 -25 015 -59 022 016 031 030 -30 -14 019 043 013 039 015 -25 038 -22 041 -25 
-05 067 021 014 -27 -72 077 -12 -52 023 052 018 022 057 -30 034 040 -07 026 025 -57 066 038 032 013 027 -20 -14 040 004 -12 003 051 000 034 -40 032 032 -33 015 036 -12 022 -14 027 032 004 -02 -45 022 -23 007 -66 020 001 000 003 046 013 -06 -13 -09 -21 008 
-04 -02 020 041 -22 014 -79 -44 -13 057 -68 -16 -14 016 020 -42 -05 043 000 -12 007 017 -25 -12 -43 000 004 008 -02 -37 012 -40 -53 -18 020 024 027 027 027 -41 038 048 -50 013 -78 023 042 052 -28 018 021 032 054 037 -26 -01 025 027 -07 001 -40 067 -05 -02 
-49 -46 045 049 046 -88 -15 022 -21 026 073 -06 -22 -09 013 007 068 009 -45 016 -16 -09 093 041 107 011 011 058 016 028 017 -08 041 -51 -08 -18 -33 016 -07 -63 -52 -04 -29 -20 010 -15 010 -72 052 010 016 003 -51 -38 001 -17 -01 -47 -43 -32 026 -36 -08 009 
-27 085 044 012 -46 -38 019 005 -08 065 -54 005 018 051 006 -33 021 017 -33 -34 -19 -66 -98 047 -52 -45 -40 004 006 -28 015 -02 -48 049 -60 009 -18 009 036 -48 -31 055 000 -24 028 020 020 052 -54 011 -07 -44 -67 041 -11 026 -28 004 -23 -48 038 004 013 006 
-45 021 011 -46 056 -32 096 -21 -59 -27 024 -46 057 019 -31 -52 007 -39 -45 -36 -64 -14 074 -11 086 -24 -47 024 039 -47 008 -26 045 -57 041 -28 003 -29 -21 005 -21 028 025 015 019 015 007 -14 050 015 -20 -05 027 -24 -30 -35 -31 024 013 018 047 -62 -48 006 
020 054 014 028 -10 -22 063 -08 004 011 -16 037 -35 032 -31 015 010 001 030 -25 028 005 -69 -16 098 046 -08 050 009 -12 -44 -55 028 -20 000 -11 -24 015 012 070 -20 -04 001 -38 058 019 -05 -51 -59 -26 -05 -14 060 046 010 012 -38 034 -21 -40 -41 -28 007 -35 
-38 017 -59 048 026 087 -28 047 -41 043 -42 044 014 -44 -26 -50 -57 029 -10 028 048 -80 -64 -32 006 011 038 -30 024 -39 -09 -26 -12 030 -38 009 027 029 -20 052 -14 009 001 004 019 -05 -45 053 015 002 019 011 021 035 -22 -39 040 -10 -02 021 -50 031 013 -17 
-40 084 031 002 -27 -51 -93 011 026 059 -13 002 -21 -47 025 030 -10 -04 -41 -24 -27 -40 -13 -11 097 -57 -32 057 -16 -39 -50 -20 008 051 034 023 010 -13 -06 005 056 030 -12 -45 -29 -31 -19 -06 059 -38 -11 -31 057 018 035 -47 -16 022 -24 013 045 045 007 -23 
008 069 -22 026 035 -32 -100 028 -24 050 054 -45 -47 049 003 050 058 -15 -12 -26 -28 -58 -72 011 -89 -33 029 044 -18 -15 -24 -50 034 017 015 026 016 -21 -08 -45 026 -25 -14 011 065 -01 039 -37 048 040 013 000 -69 -21 031 -19 -48 014 -41 -43 -11 025 -43 -35 
-33 -45 038 043 002 015 085 -21 -59 -15 060 002 -05 009 036 015 -07 -60 -21 025 -01 066 -66 -01 -101 041 009 053 006 024 -31 055 -35 -39 -28 017 -11 -18 027 -63 -32 053 027 007 043 012 042 -39 -34 -29 014 -31 -47 034 -33 034 045 -15 -29 -06 019 -69 013 000 
021 -76 -54 034 008 -02 -54 -46 -35 028 045 037 041 004 -02 -50 059 -30 -03 -14 -43 -62 100 -28 -45 -53 -02 -63 -36 -10 -35 -16 030 -02 005 -30 -34 -52 -19 -68 -52 -33 014 047 -05 -11 049 -39 028 -29 -16 -31 062 029 010 029 -06 -64 029 -24 029 028 -50 024 
044 056 032 017 -21 001 022 011 -25 -25 -33 -47 010 005 035 046 052 057 -38 015 -52 -61 045 -03 086 -16 -14 066 -22 031 -49 -55 -50 -42 039 010 -15 032 -08 -58 -18 043 -12 -38 001 032 018 -69 056 038 -17 -44 -05 -46 004 047 -42 044 -36 004 030 -27 019 033 
-13 -32 -14 -45 -11 -24 094 028 035 028 034 -09 037 019 006 -50 013 -34 -45 -03 002 029 -54 -02 090 -38 -23 050 -21 -45 038 061 055 052 015 -18 -15 -31 -02 008 056 050 -57 -23 -34 -15 -34 -61 -01 -09 -25 022 -23 045 -33 049 036 003 -31 -15 039 -25 -19 024 
-34 -56 -48 003 -02 -69 080 -19 -41 -64 062 004 -22 -12 -27 007 -67 -54 -51 -02 -47 067 080 043 003 025 003 025 -18 -04 -47 -01 -17 -21 -64 -20 026 004 -11 044 013 -16 021 -24 -79 -33 -15 -23 -45 -40 001 -03 -28 -23 -29 023 -03 029 023 034 -28 -31 -18 021 
-33 -73 027 002 043 -84 083 -49 045 -41 -65 -25 016 056 026 049 040 005 -53 009 015 -58 031 -04 -64 -34 -33 025 024 008 030 -42 -41 001 -27 011 033 -02 009 055 -03 053 002 -37 020 018 -02 066 -35 -37 -25 022 -18 -01 022 002 023 053 005 -22 029 044 -15 -26 
-06 -36 041 -26 016 -30 -19 -46 -03 -66 053 -42 -56 -26 -36 -31 -50 -24 -03 -22 030 -03 -86 -21 091 -54 043 -52 036 004 -41 -39 050 055 063 -13 024 -30 024 -26 004 -19 -23 -25 019 -13 -24 018 006 017 006 042 019 -20 -12 022 -34 012 -44 039 018 002 -16 -02 
-02 -93 021 034 -31 -95 -25 -36 063 -45 -13 -05 -21 023 012 -38 -37 -57 -03 034 079 -05 073 021 -54 017 -06 025 024 023 -46 -52 012 051 063 -35 010 006 035 -53 -27 005 -59 -30 -68 -13 025 -75 052 028 007 006 -34 -20 -13 050 -22 -18 031 000 031 007 -08 -14 
014 -05 039 -42 041 012 -62 001 058 -62 039 -48 032 -56 004 -38 008 -08 029 -26 005 011 -99 -40 110 -56 -24 040 017 -28 -10 -19 044 -28 006 -39 024 002 -25 -18 -44 054 -50 -25 -31 001 001 001 -47 -18 -19 008 051 -23 002 -49 -30 -33 -15 032 010 -67 051 -11 
-26 045 046 -10 -51 013 070 -49 -53 -52 -31 042 017 037 -29 -16 032 022 018 022 -23 -72 -44 -10 -54 000 021 048 034 014 027 054 035 -33 043 024 -23 -40 -34 030 054 052 -24 -09 027 -34 -17 046 -36 023 029 -30 050 011 -10 006 -02 -24 011 -51 041 003 018 017 
017 048 -06 006 -15 018 -05 021 019 053 062 050 -18 029 -25 008 -28 035 015 027 -54 -38 086 -32 099 -22 017 053 -35 -03 -07 017 062 -25 -60 027 -34 -50 037 037 -54 -51 -12 047 053 -34 -27 -45 004 -06 -09 -10 033 029 028 -48 032 020 037 034 058 042 010 -06 
-34 061 -06 030 038 078 -18 041 039 -62 -28 002 -42 -58 007 044 053 -48 -14 023 -53 -14 066 -39 086 -26 -29 059 -21 028 016 -33 014 -61 -36 000 -04 028 009 -57 -46 -24 054 031 -83 018 030 046 -52 -36 027 000 009 008 -38 009 -05 032 -14 045 -04 035 047 017 
-02 015 -40 -49 -25 -34 -57 008 -42 -17 057 014 -42 -26 -01 050 062 -24 048 -11 -70 -34 -98 -36 -88 020 006 -59 036 038 009 -23 004 -05 -03 -30 022 -46 -33 -18 -36 051 -44 034 079 011 -23 -69 -53 011 025 -17 038 -39 -35 048 016 -27 013 -21 -08 -41 053 012 
034 037 -09 033 007 015 -36 -17 -07 -13 023 005 -16 011 015 046 033 -47 007 005 073 -32 086 009 -60 047 -40 -48 012 -53 -33 -45 016 -46 -07 -20 -11 -22 -09 -42 011 -41 042 009 -54 035 006 016 -42 040 019 -22 -10 -38 017 -36 015 -11 030 050 010 062 022 012 
024 052 041 005 -16 -05 -76 031 054 -61 -40 005 -08 -16 029 042 -25 047 020 -35 -49 080 073 049 -05 004 -12 -42 -15 047 046 -22 -22 058 -01 003 -24 022 007 009 -27 -57 -02 -11 014 027 044 -66 001 016 026 -30 -02 -10 -22 015 015 035 009 -34 -37 -49 -42 019 
-37 -69 010 017 -32 -05 073 003 -51 -01 -01 005 -01 034 -22 -23 -68 -35 -10 027 033 022 001 038 075 -29 -45 003 028 049 -01 -02 026 -22 058 021 -20 046 023 019 047 -41 024 -27 -16 -32 -14 -76 016 -39 026 036 011 -25 -30 -29 036 024 014 -43 038 012 045 011 
031 -86 013 -06 035 -17 -100 033 -06 -22 060 -15 -33 -47 012 -10 -40 035 019 025 044 -83 -21 024 088 002 -04 -35 -15 032 029 -62 -13 -21 -60 -41 -04 031 025 025 -05 -13 044 015 044 -31 000 013 -50 -39 003 -29 038 -45 031 -21 -20 -41 017 031 026 -47 051 -08 
024 -76 -23 046 035 -37 006 008 042 -60 038 007 055 -22 003 015 042 063 018 027 -50 -81 046 040 -38 001 -10 020 -34 -29 -39 -03 -18 036 -54 -15 011 -08 032 -41 015 000 -57 -17 003 -22 -42 042 000 048 -01 027 -15 024 -30 015 -37 046 -07 014 -32 018 027 018 
-33 -37 -16 020 -21 084 -45 -15 -11 017 010 025 042 -35 -23 -08 -05 -66 005 026 -19 -80 -80 -38 -97 044 004 006 025 014 041 020 023 -40 -45 -37 -37 030 -09 -18 -29 007 -04 -24 -56 017 -06 020 -48 -39 -10 028 -64 -16 039 -51 018 -33 -37 -52 009 045 019 013 
001 -36 -54 -37 -42 053 083 -45 056 052 -12 -08 -10 -49 010 028 -25 -16 -10 028 006 -67 070 027 061 -38 002 -51 -29 044 -16 -23 001 -56 003 -26 023 -21 035 009 020 024 052 016 012 014 015 -52 -41 001 -19 -20 037 -46 -13 -49 033 045 -14 013 -26 -62 009 013 
-09 -67 048 -11 -17 000 091 005 049 006 048 011 -16 039 -42 -13 047 060 -35 -07 016 -69 -88 -35 -14 -47 014 -10 020 -14 016 -19 010 -26 047 -12 001 -12 017 056 -51 042 034 000 009 014 040 050 -48 -09 030 037 -03 -40 019 000 003 -06 -36 037 -19 -57 017 010 
-34 -02 025 015 019 -80 028 019 021 -18 -20 -41 -07 000 036 -27 044 -63 018 004 -26 -69 -39 -35 -74 000 039 052 -42 -14 046 -33 032 -33 059 -37 004 006 001 001 017 025 028 036 -41 -26 -18 -58 -15 -18 -27 -35 009 -15 004 -12 022 -45 032 -22 031 -28 007 025 
-26 -78 055 017 033 014 002 043 064 014 029 036 004 -58 005 016 045 -54 -53 021 064 078 -15 -50 116 -40 022 -61 -11 033 038 -09 063 017 043 -23 022 015 -39 067 -25 029 -60 040 -34 020 -24 -46 -60 030 005 032 -14 -45 -02 045 006 -01 033 -37 -14 054 018 004 
043 -29 047 018 -48 -90 -67 -40 -10 -21 009 048 -42 020 038 010 003 026 034 026 -32 -43 -82 040 -63 -04 000 -23 -14 011 044 009 -11 024 -53 015 028 021 -37 030 048 041 -61 -41 076 -28 007 -43 004 -34 -32 006 024 037 -06 046 -07 031 -08 -26 008 069 038 -08 
-19 025 -45 027 023 -83 -89 035 -55 -50 -07 -17 012 010 027 -27 -48 008 -07 006 053 066 -12 -50 023 -25 035 -65 -25 -03 014 -19 -53 006 045 -11 -32 -21 016 -19 -30 005 -33 001 -45 011 -26 -17 023 -07 -34 -29 -23 -15 042 -02 042 033 -42 -55 -37 021 -11 026 
-27 -22 024 -17 -49 -88 -25 -10 034 -55 018 -10 -41 -39 -04 -35 -58 -07 -49 -25 034 076 001 049 108 -01 036 022 014 014 -33 052 -25 -44 -01 026 -31 -05 031 026 053 -02 -66 -40 012 033 -38 -51 -01 026 016 041 -22 000 024 -24 037 010 -45 -18 -46 -71 -27 -01 
000 -34 -53 -30 019 -32 071 -40 -61 016 -63 024 -39 065 044 -48 -37 022 028 007 060 -60 109 -56 085 053 036 059 019 -26 040 017 028 026 -18 016 -18 011 -32 060 031 -26 054 -25 -78 037 -26 027 023 -21 -33 022 040 010 011 032 040 -35 019 023 -06 -29 006 008 
018 012 -36 -45 -29 069 042 045 058 057 -55 036 -35 012 -38 008 008 006 019 -04 039 021 077 -20 107 -36 006 050 -34 003 -13 009 053 -09 -48 -34 030 -38 -04 027 036 -36 062 029 010 -21 -15 -01 -32 016 -24 024 -51 -11 021 025 005 018 025 -47 040 057 -57 022 
001 003 038 -08 -13 039 -08 -11 -04 066 016 -27 001 061 025 -01 -01 003 008 000 -61 005 014 -38 005 050 -23 -56 -28 -18 -47 003 -06 003 -61 -37 006 041 -30 -06 044 041 -07 020 -81 035 -24 -75 039 041 -04 -31 064 015 -40 010 -22 011 037 -57 -07 013 -18 -21 
019 093 -39 047 -17 -43 017 -09 069 010 067 -11 -23 029 042 047 001 001 -58 013 -18 075 092 -53 -76 -31 014 -70 036 018 023 -05 020 -17 -06 -24 -33 -15 005 013 -55 050 -47 017 -56 014 -21 -38 -36 031 -27 024 -69 032 -01 -34 038 -32 -23 035 -21 019 -39 022 
-07 000 047 -42 -43 -38 -04 -48 -07 -49 011 000 -06 -32 -13 022 031 -62 013 009 -39 023 -05 -17 -66 -42 -26 033 -40 -08 012 039 035 -12 017 002 010 043 -38 -49 055 -26 055 -38 048 -22 -23 -32 022 -36 000 028 -01 -22 -01 -47 026 -20 003 030 044 041 -05 -19 
-13 -84 023 009 004 035 089 009 015 -30 -72 -52 026 -37 -10 -48 -03 -22 -06 019 035 075 043 012 -101 008 018 048 -02 -40 -17 044 049 001 -02 029 -20 -43 -36 -16 -21 020 014 012 012 014 -48 055 050 -18 025 -19 056 023 -16 008 -34 020 -43 -54 039 006 -46 005 
006 -48 037 017 -34 063 -51 001 -40 011 -46 -35 029 004 -15 035 -31 -03 -47 015 019 061 -97 -24 -37 050 026 017 -10 001 037 -20 -13 017 043 035 -13 024 031 029 040 032 -19 023 -65 028 031 051 -59 -26 017 -03 018 043 023 -28 014 008 -01 001 -41 -71 055 029 
033 -77 -29 -45 025 -09 -101 -38 028 068 012 -51 038 042 -27 016 -18 029 029 025 024 085 -15 -41 -20 -33 -19 067 001 021 -34 030 020 -11 -19 -09 032 017 029 040 010 -21 014 -38 015 027 -17 -58 000 -15 -14 -43 -41 021 -27 -24 -15 010 -43 021 015 -64 010 015 
-07 091 -16 -31 030 -80 -71 -34 -10 025 012 -47 051 005 012 048 -18 024 -22 020 068 -40 -96 005 -84 -38 003 -61 -15 019 043 -35 -34 -05 066 -21 -24 009 036 -05 -55 -28 -36 -20 -42 -25 -37 -49 -12 -41 -06 -39 041 -17 -31 031 -03 -06 016 055 046 010 042 019 
004 068 -30 010 -15 103 053 042 047 -10 -13 018 044 -10 -38 019 -66 -31 007 000 -61 -40 063 034 -47 030 042 058 015 029 -34 056 -28 004 -53 -28 012 -17 -26 032 -51 -67 052 -24 -35 -04 031 -40 -52 027 007 -42 055 -31 002 020 037 033 -39 -09 009 -11 -19 -18 
-24 -72 -40 004 -13 076 -92 046 004 004 026 025 -33 021 036 003 050 023 049 018 -11 042 044 035 088 028 002 -48 -05 005 025 -23 -20 047 -23 -29 -20 004 -06 026 -44 -42 -48 -34 -78 -13 004 -51 -10 -05 000 -09 -61 -08 -33 020 011 046 024 -46 009 046 041 020 
033 050 055 019 -34 090 -26 004 -52 -19 -37 008 -12 -20 -38 -43 -53 027 -01 -31 -40 038 -64 -05 090 007 011 052 020 -01 030 -40 -17 -21 005 -21 023 034 -14 050 005 020 056 025 -51 -01 043 -56 -17 -25 027 -06 049 -20 -08 -19 -02 -36 -16 -40 011 -57 -15 -35 
045 097 031 -04 -35 -71 045 -14 054 023 -18 026 -36 011 -02 029 -41 050 020 -01 065 -31 -37 007 -77 010 -12 022 -17 001 032 027 -15 -12 -22 031 000 -45 -05 027 045 -48 -27 012 071 -11 030 073 051 036 009 -36 -20 011 -13 036 -04 -46 019 -41 -26 048 -31 034 
012 049 -04 034 050 -04 -30 -15 -36 026 -66 026 -12 019 -02 037 -50 031 -35 008 -60 -79 -27 001 -63 -56 034 -19 -12 -49 044 006 002 -03 -61 005 022 010 -32 -38 040 -31 047 -46 001 036 014 044 044 010 006 007 -53 019 -26 033 -09 016 016 020 009 -57 -10 023 
042 -18 -26 -37 012 053 -102 -17 -09 -12 -41 -20 061 035 024 -39 -17 069 045 -01 -42 018 -35 -18 -94 -11 011 010 -02 017 010 056 027 035 -51 -22 -26 003 -16 033 -32 001 -27 024 018 026 012 -26 -32 014 022 -27 061 -23 019 -06 -08 -21 -13 049 -26 -21 -51 028 
-45 -69 -43 026 -20 003 -64 -17 022 -02 063 019 002 -52 021 -36 016 011 -20 013 045 -70 092 052 -35 026 -12 062 -34 030 -20 -55 023 -59 -08 038 -29 -47 008 -10 046 054 -39 -37 -20 036 041 -59 -14 016 -27 -41 -49 -43 -23 012 -41 012 -25 033 043 053 050 031 
001 069 -04 016 -44 076 063 020 042 -35 045 -09 -54 012 -38 046 -57 025 039 -33 021 -06 005 045 038 026 004 014 -41 048 040 -13 -24 -06 -20 -19 -03 -42 001 -44 -57 061 017 023 -50 027 -26 004 -35 -34 -02 -23 -60 -45 -28 -50 -20 -48 004 -56 011 -63 030 003 
037 070 026 -27 -51 -44 066 -05 035 -60 -42 -54 -36 050 030 -29 -30 -26 019 005 033 -37 -66 -09 037 026 -14 035 -43 043 -36 046 025 027 -58 -12 -17 -09 023 009 026 032 -04 033 073 002 -22 -63 015 -24 -30 010 -06 -47 008 014 028 039 -03 004 -25 -11 -06 -08 
-25 066 -53 -25 041 072 -36 013 033 -51 -48 017 -34 -19 -30 -25 -59 023 -18 -14 -36 063 -98 -41 -91 -21 031 -40 033 011 034 -61 055 032 010 -13 003 048 -10 -22 051 -60 046 038 015 -30 056 038 -38 012 -18 031 -14 031 002 029 015 012 -21 -01 040 065 002 023 
-36 -41 001 -22 018 -33 -90 -30 -07 002 -69 -41 049 057 020 -31 030 011 -57 027 066 -53 -12 036 037 021 -14 014 -37 011 -21 -14 -36 044 026 032 014 013 013 -62 -47 040 -50 029 071 019 030 007 042 012 -32 014 -66 -45 -36 -32 -32 -41 -40 -44 -39 -70 002 -14 
-28 054 -21 022 051 -68 020 000 -16 -21 015 -21 -03 047 -27 -36 028 -31 022 027 068 069 053 039 -98 -19 041 068 031 -06 010 -34 -32 -47 -33 030 -12 -16 -12 031 -38 -14 051 039 072 -28 -35 005 -27 -36 -15 036 -07 -12 018 006 019 038 004 013 -43 -60 001 029 
-09 053 -14 037 048 -82 -49 -04 -58 033 052 -60 033 033 -31 027 -23 -20 -17 005 064 033 098 -09 023 -01 020 -08 015 016 -05 041 -05 029 015 021 013 -15 -07 032 009 026 -57 -02 -76 027 041 016 -26 018 015 -10 020 -01 013 -37 -37 015 -28 -43 032 010 000 020 
-38 -14 045 -35 023 -53 018 -23 -33 035 020 -25 -32 057 -12 003 007 -24 -17 -18 -64 -37 -63 023 -67 -57 043 025 018 040 025 -45 -36 -61 024 -03 030 -04 -03 -03 026 036 -44 -17 -58 005 -08 -59 045 008 -11 000 -43 -02 002 -42 006 -32 005 033 -36 066 038 001 
034 031 -35 -05 007 071 -86 -51 -42 070 063 -20 -39 -50 011 040 -02 -10 -30 -11 065 047 076 005 115 -51 -11 066 -04 -16 -05 048 -50 -27 052 030 -11 020 033 046 001 043 043 -36 -14 030 -15 025 051 000 -06 018 -67 004 -39 043 014 -52 -25 056 -12 -53 -04 005 
-31 089 -16 024 -11 022 -88 042 004 019 -65 -32 011 018 035 003 -19 044 -41 023 047 028 -84 -55 -49 -37 -40 -34 -40 -01 -27 -19 -49 -48 -50 024 -22 -10 -30 001 -03 045 -42 -34 037 -05 057 009 -37 018 -14 -25 -35 027 -35 000 051 -49 004 -36 -36 039 -30 000 
027 -50 020 -17 -24 -27 082 014 -39 -58 048 -03 039 -16 021 045 -48 020 -59 013 052 -67 086 -14 078 -14 010 065 -23 -48 034 004 007 021 -29 -42 034 -32 -11 -45 -18 039 -54 041 054 031 -01 -70 046 004 017 -23 -27 -26 009 115 027 043 -11 -48 -45 051 -45 -24 
-43 -26 029 041 -04 -17 085 -15 012 -23 -35 004 -29 -51 -08 -32 -69 -32 -19 020 072 -52 -50 004 058 031 030 013 -29 014 014 -20 -30 015 051 014 -11 -32 -19 014 007 -47 023 -28 -39 -25 -44 020 -41 000 -18 -10 -20 -18 -20 -18 -40 034 -37 028 -32 -47 -11 035 
037 -91 004 -24 -36 -56 074 027 -14 042 -62 020 -40 -07 -03 045 055 015 027 006 -26 082 091 030 -26 055 015 -15 -02 034 036 -19 007 048 005 009 002 -40 010 027 028 040 062 023 026 020 002 064 -47 -02 012 039 021 -39 037 041 029 -44 003 -02 -36 032 -01 -17 
035 -75 -30 018 -21 -52 -68 041 -49 030 -58 -01 066 014 032 044 008 059 -39 -05 074 -30 072 006 073 -21 -02 -20 017 046 -51 -38 042 052 -35 026 004 -06 -13 051 -29 -11 -65 -12 032 -17 030 033 040 -24 003 009 -50 -29 032 -08 052 -57 011 -54 -03 038 036 023 
032 -53 -52 -39 002 060 -64 047 -44 -48 049 -26 020 -20 028 001 -62 -27 032 -12 -15 046 -17 -33 051 -35 -07 -20 039 -28 -09 030 -01 037 015 018 -08 013 028 030 -18 019 -06 020 059 012 -22 -36 -59 -01 -33 -31 -43 -04 031 -12 014 015 010 036 -47 -53 007 028 
-03 -74 043 -18 -29 -81 082 -48 009 040 -64 003 -32 -18 -16 -50 033 -43 034 005 -57 -68 067 019 088 -14 -15 -10 -05 -14 -20 001 -15 025 046 029 033 030 013 039 038 -32 -08 -43 001 016 -45 000 033 039 000 043 -65 030 034 -09 017 -17 015 -31 025 071 -01 032 
-38 -76 017 -19 022 -55 -88 003 030 -77 -55 027 -48 037 -01 036 -16 028 048 033 -46 -85 095 -45 004 052 -40 -46 -22 -31 007 018 -19 018 -45 000 015 019 -24 055 012 034 -07 029 003 014 034 035 -60 040 008 -19 024 036 032 030 -23 047 042 055 -20 -10 016 033 
033 029 -21 -26 019 -26 000 -51 058 -23 060 -40 026 -57 026 -28 014 -08 003 002 003 057 -54 -15 087 -38 004 024 022 -05 009 005 028 -44 029 -26 028 -47 -19 035 008 037 -54 -26 001 014 -34 -66 017 028 006 011 020 010 -21 027 -06 -29 -38 003 008 002 051 024 
-05 -76 -27 009 040 017 094 -09 027 -24 -41 043 038 -35 006 -27 -58 -42 021 -11 -55 086 -81 -18 054 -45 -34 -50 -34 000 -14 -03 -06 -09 059 -07 -03 024 030 037 026 -09 -05 032 048 029 001 -19 015 -03 -20 -38 -33 -15 033 -04 006 036 -42 -48 -16 011 028 -36 
041 023 -13 015 033 -74 -28 -34 -30 040 -66 -44 -55 -35 -42 -05 -71 -23 -34 -12 024 042 040 -38 -105 032 024 015 018 017 028 047 -07 013 020 -28 -10 001 -10 005 -19 -53 -57 -10 079 -02 -41 -18 -24 039 018 043 042 030 017 -01 001 050 -07 -46 032 -07 008 004 
-37 -64 -31 009 -18 -46 092 035 -48 042 060 -44 -43 -07 041 -13 -15 -50 -50 -17 -35 -75 022 052 -58 011 -36 055 005 043 035 030 -09 -09 042 016 018 -02 -10 -13 -20 -35 016 -38 007 -05 -11 024 009 037 -29 001 -43 034 032 -36 -02 -12 -19 014 019 027 -01 007 
012 -61 -47 -44 003 074 -92 031 021 -46 060 -30 015 003 036 -18 015 -50 -43 030 029 035 -58 -53 095 037 -01 -11 -42 002 -26 003 -29 014 009 004 -35 006 -11 066 -46 058 020 041 -18 -28 045 -29 -45 -05 -33 014 050 -48 -39 -20 -03 -28 -31 -26 -31 -40 -41 -35 
042 022 014 033 -03 006 -90 030 005 -02 068 -49 -38 -32 -37 024 -31 -09 -32 -19 -11 -46 065 -46 -32 -15 018 -26 009 027 -48 050 -24 -21 059 033 012 -43 -09 058 -09 037 -50 -29 024 -04 -15 067 -09 015 025 008 -58 000 -11 028 042 -02 020 028 -26 -51 034 028 
031 -11 024 -35 047 082 014 -42 -54 -49 010 -50 -48 058 -15 -17 011 -37 -29 -21 051 054 047 -38 -54 -16 041 013 018 024 024 008 -38 033 -11 022 -20 039 011 010 -04 -47 -60 -03 083 -12 -38 051 010 036 -25 -34 058 002 004 -14 -34 -22 -42 -20 -23 007 -16 -01 
-36 -10 -33 -12 -33 062 099 -47 041 020 058 -40 005 059 025 001 033 -08 -52 -19 010 056 089 016 -95 -53 023 -42 035 -22 -23 -06 -57 -49 -48 -04 -02 -40 028 041 -05 013 -07 043 -50 -35 013 068 -19 -32 -03 -01 043 -40 025 042 -01 -16 -28 -49 -08 -50 -44 -24 
-04 -86 011 -01 -29 017 063 -01 -56 -04 -70 037 -16 -58 009 029 042 026 006 020 023 -71 001 049 -33 -11 042 001 -13 023 016 -33 026 001 005 -25 -15 031 021 -47 -11 -30 023 -12 050 -22 008 -59 -41 -14 -04 -06 034 034 032 025 027 028 -13 -41 -27 -35 -52 009 
012 -23 -45 008 -47 -54 -43 024 -35 -42 -58 043 014 -63 -10 021 067 040 049 -29 069 044 002 -38 104 -32 -16 013 039 -21 028 -36 026 022 -25 006 026 032 -35 -04 -30 -44 -23 -45 028 027 -40 -09 -08 028 024 015 -12 -39 -05 -29 023 -51 002 -08 -05 -11 044 029 
-18 030 -16 -32 -37 078 -95 015 056 -67 030 -43 036 061 -33 023 067 017 -28 -22 -44 -87 -29 051 -50 -14 013 027 -16 -27 024 -23 -02 034 004 037 029 -05 015 -35 -35 056 -09 038 -81 -12 034 -13 -13 -42 032 -29 009 022 -31 018 -41 -41 028 015 031 -22 -43 -06 
-37 015 041 -28 043 -09 -57 -43 023 -53 -70 003 049 044 -23 -30 -62 021 -28 024 063 013 -57 052 010 005 -29 061 000 -06 047 -14 008 -21 034 006 013 -49 -19 -42 009 047 -25 026 -44 -18 025 066 029 012 -23 006 -30 -35 -38 039 029 003 -20 044 -32 042 -30 -20 
-04 -01 -15 -29 -23 095 -101 -06 -14 -46 031 -23 -71 -42 005 013 -05 -48 -25 -16 -35 047 -79 -15 -100 -07 -34 -36 041 003 -49 040 -43 -36 033 -35 034 -21 -28 014 -02 -13 035 032 -29 026 019 -58 -65 023 012 -44 021 -40 -05 029 -21 030 020 032 -27 -45 036 -08 
-20 005 -02 002 -34 -20 032 021 -43 -39 -10 -26 005 -17 024 -19 -08 039 011 -07 -20 -84 -23 049 -37 021 -04 013 023 -18 011 003 008 007 001 -14 -32 -40 -26 -47 045 -24 -25 022 033 024 031 -41 -39 010 -25 040 -20 045 -37 012 -38 043 008 036 -29 -66 011 -22 
041 -45 -34 -37 006 011 048 -20 005 -60 -53 -32 006 -33 044 -48 068 -01 038 006 036 -04 -79 -52 -02 016 -38 -60 009 -08 -32 028 -01 -45 -36 -35 -33 -43 -09 -48 030 -55 052 -23 008 030 054 046 046 -31 -15 -02 -51 002 039 007 000 020 -44 026 003 -52 051 033 
021 042 032 004 011 -57 -27 -29 039 031 -51 -41 -04 044 021 -42 023 -24 013 -08 053 -45 009 -04 083 -09 -45 058 -12 017 030 013 035 -25 -20 -37 001 -13 035 -20 -36 039 -44 013 -16 -34 015 036 038 022 -14 024 039 044 -32 005 000 -55 015 -44 -29 -41 -08 -27 
-17 -51 023 -16 -25 062 -88 017 041 054 018 009 022 -28 012 -01 -57 030 038 025 -31 033 -47 -37 -01 -34 -44 046 -01 021 020 -50 044 045 031 031 -13 038 -13 027 025 -52 -54 -07 048 005 -46 -46 -40 036 -22 -34 -35 -17 005 -25 029 029 -45 -01 034 -54 023 009 
-10 -85 -22 -40 043 020 -66 -30 035 043 046 -39 -01 027 011 006 035 058 007 -02 -33 -66 089 000 074 -11 -26 025 017 -32 027 -39 048 020 -01 -17 006 -42 -25 -65 -28 040 -48 -17 019 -35 003 031 -41 021 012 032 -05 -42 -36 042 -10 018 042 -24 037 000 047 -21 
003 057 -36 048 -28 071 054 -21 009 064 -18 013 -26 -25 -05 045 060 -44 048 017 062 -85 045 -16 -38 -14 020 019 -18 -42 -46 -18 023 039 061 -03 -22 040 008 009 -40 025 -35 -08 057 009 035 -50 037 026 -35 -06 012 -46 -37 -19 000 050 000 004 -05 033 -33 -06 
009 -08 006 033 018 -80 -11 -32 041 -04 009 041 020 039 016 041 023 035 -17 -12 -33 -85 -47 -21 -18 -40 043 -01 -29 -15 041 008 044 -34 022 018 -15 044 025 008 -28 052 063 -38 051 -28 027 030 021 026 020 021 -23 -24 -22 040 -45 017 -38 020 -41 064 051 -22 
-22 045 028 017 011 -27 -71 022 -11 061 008 005 011 -04 010 003 -18 026 021 -09 015 -67 -79 -34 005 020 019 000 -32 -34 023 -10 052 -45 -49 -21 -21 010 004 060 032 032 -37 038 032 018 -31 -15 054 026 -16 004 011 -25 032 043 022 -32 -21 -14 014 -42 -46 -02 
042 -53 010 -22 028 047 -43 009 029 -62 -04 044 -25 006 -27 -29 -03 022 023 -25 067 -67 049 005 035 -04 -22 -06 019 -38 -01 014 -07 018 -40 030 -19 038 -19 -27 -02 017 018 031 005 021 -44 -20 -53 013 002 031 -31 047 009 -20 001 040 -13 017 -05 052 -29 025 
-40 077 002 -12 011 001 001 -36 027 -68 -05 -43 024 037 040 -18 046 -04 002 -29 015 -63 -94 -10 020 002 -15 039 -07 -38 002 023 031 042 -60 037 -18 -04 019 -48 048 057 -24 -03 -83 024 -01 -42 008 -22 007 -44 -17 026 016 -22 -32 -32 031 037 -16 -64 052 -17 
-26 056 027 -06 -32 -09 091 -36 -04 057 013 -16 -17 027 009 046 -55 063 -53 -20 077 048 -19 -39 108 002 -44 008 -12 -52 -22 -49 014 007 019 -22 -16 -49 -13 045 -34 031 031 024 -76 030 014 -28 -41 -33 008 015 056 -31 -16 -08 -17 -62 -09 -05 002 044 006 019 
003 -44 -25 029 002 076 -19 -23 003 056 028 046 064 036 -11 008 -39 -04 011 032 047 -34 091 -42 -87 -34 024 010 -07 -42 028 -60 -16 054 -33 -10 -33 047 -19 -07 014 -40 -56 -02 019 -37 -28 041 -31 019 000 -40 -03 038 003 -42 -16 015 -43 006 -32 051 -33 -24 
-30 -66 056 016 016 -68 026 -22 000 065 072 044 -23 -59 -18 -25 -30 -32 -22 -39 009 -23 -22 -08 -59 -15 -33 -23 -33 011 -14 -37 023 068 -09 032 012 -12 -29 -58 -23 -48 -61 -02 -20 -10 016 -70 042 -10 011 040 -59 019 -31 -49 -14 -50 029 -47 048 059 -34 034 
035 -65 013 -08 -11 022 -72 -46 010 -24 044 046 -51 -35 -03 -25 054 045 -09 -16 -61 -25 086 -48 -61 054 -22 -45 -27 -39 026 043 031 -19 054 015 -20 -30 -32 -63 050 -10 016 -28 045 -27 008 001 057 -25 -20 009 014 001 021 -02 038 015 -21 055 015 034 -45 -17 
-39 072 037 019 034 -30 -41 -45 -21 057 058 000 -48 058 035 -48 -44 053 028 -32 -26 -03 032 035 102 023 -09 025 -15 011 023 -11 -59 -51 053 039 020 033 -11 071 -32 -34 -12 028 060 -34 -12 -71 028 -38 -24 -31 -61 -10 030 -19 014 033 023 -41 017 000 022 029 
-35 074 -01 -51 -49 090 -68 -01 012 014 031 -32 -36 -59 -08 -08 -11 -14 001 -18 000 007 081 -27 -47 040 031 018 001 -31 042 -21 -09 021 -03 033 016 -20 -01 -40 -36 016 -61 -32 -34 028 -31 -56 019 -40 010 027 -53 -42 -22 032 007 -55 -05 049 024 057 016 -09 
-24 -76 -21 -26 -17 -76 014 038 023 005 -55 -21 -47 -30 031 -10 -09 062 -19 -02 -43 026 044 -04 -73 -22 009 062 -26 026 -31 -50 -37 006 043 -27 -21 -47 -20 -27 020 -17 -08 -17 -78 007 -22 -28 -58 -21 002 025 -52 024 -29 -27 006 002 -14 054 039 018 051 -30 
037 024 -46 013 015 019 -81 -48 -23 -43 -08 -38 -34 -24 012 -23 013 -57 -08 -23 -06 005 099 -41 -90 042 -39 019 -20 -49 015 -31 -08 047 -35 004 -29 -05 -09 -69 -04 047 033 002 079 -21 -38 -23 047 000 032 008 003 043 020 046 -42 -26 041 025 -29 029 013 -33 
030 082 -30 -09 -17 -23 -80 028 043 -18 070 001 030 035 -02 -33 -28 044 033 000 065 070 -02 005 009 -44 007 -02 -12 -24 031 -25 053 046 -16 018 018 039 -34 -41 -44 058 018 017 065 -21 044 050 -34 -08 -34 -38 -47 002 -32 023 046 035 030 -27 017 -50 -15 037 
-20 083 -51 -14 017 003 -68 043 -19 018 -02 -26 -06 001 002 026 -62 041 -60 -30 024 103 093 -32 078 047 031 070 011 -44 049 -45 046 017 064 035 -32 -21 -16 -58 -13 -59 -13 -09 -68 -16 -35 -57 -36 -47 013 -23 -24 -25 -05 -30 -10 -57 -22 -16 -11 042 -18 -07 
009 -70 -36 -15 -14 056 082 021 -38 001 038 -35 040 -42 026 018 -30 008 052 -37 -24 092 -98 -38 101 -36 -30 043 -16 -18 -14 -66 008 006 -48 035 015 -29 -37 023 052 -52 -64 -28 -72 -34 003 -28 039 007 -32 021 023 -35 -36 -33 002 -52 -42 -40 -28 -41 -22 -30 
-13 063 017 -20 024 -07 -78 -21 015 043 068 005 034 -57 036 -30 -54 009 -32 -19 -26 056 007 -24 033 034 028 -65 032 004 008 010 -01 027 -23 019 -15 005 -09 040 004 043 020 022 064 -03 -41 -09 -13 022 008 -36 027 022 -30 -50 028 040 038 -17 035 -38 032 031 
012 -21 -24 026 002 -69 -25 030 -25 -19 050 -37 009 -06 -17 041 062 -49 031 033 057 -69 -72 004 -64 -15 001 -53 030 -32 008 -49 038 -48 -18 -41 -33 -07 012 069 -29 -08 024 -21 048 022 -36 033 -38 001 -29 041 047 -49 009 036 021 -23 031 -48 -43 -31 -50 -04 
-40 -80 -36 004 052 058 -63 001 -16 -67 023 -03 051 052 -18 016 035 030 -09 -15 -34 062 -55 -16 112 -30 -37 -40 017 -52 015 017 -24 -34 -61 018 -33 -25 020 -52 -24 064 007 041 029 011 049 064 -54 -15 -05 -33 -01 029 -05 -34 035 -10 -10 -04 -49 020 014 004 
-07 012 -52 039 -11 -88 075 010 049 043 -28 020 -30 -06 -22 013 001 -45 -20 026 006 010 089 038 011 039 039 019 033 -18 -22 -59 -30 001 027 014 028 -41 016 040 050 034 -21 044 -50 031 036 -74 -33 -13 -19 033 -63 -30 -36 022 032 030 014 046 -09 019 -10 -36 
018 034 003 021 002 057 -59 004 -03 -49 -44 029 020 035 017 -45 004 -20 001 -33 -73 -23 -22 048 087 023 -35 -24 039 -51 -47 024 -11 017 000 039 -18 -51 -18 026 -45 -59 -24 -22 -32 -01 -16 -06 026 -13 -06 -30 007 -08 011 014 -44 016 003 -19 005 045 005 -03 
040 -02 015 -43 027 005 -65 -32 004 -17 068 -12 -13 004 -20 -17 -16 056 031 016 -02 008 090 015 -85 -48 -07 -47 -01 022 015 -04 -20 -42 -09 -38 018 -02 -27 054 -50 013 043 007 076 -03 -30 -16 057 -19 025 005 033 -40 -32 -42 010 035 015 051 -35 009 -17 025 
000 102 025 -37 048 071 012 -04 049 -08 042 036 -34 -36 -27 020 -69 008 039 -01 003 -61 -43 -26 -39 -15 021 -26 003 -40 039 034 047 -44 -50 -04 029 -47 -36 -53 -17 020 -49 -39 -31 -01 045 072 036 -44 -32 -29 -53 015 022 -35 -31 -37 010 -12 016 045 -17 -10 
-38 -85 027 001 -08 -22 072 -42 038 -64 051 018 010 -08 -35 -36 022 038 002 010 -49 -54 -93 -35 096 -25 024 055 -37 -05 008 062 -10 035 018 016 -28 -48 026 007 051 -07 -27 -19 033 027 017 068 041 -07 -14 033 064 -19 012 -33 -13 -12 037 -27 048 040 038 010 
-02 -30 013 -16 -37 -46 -04 -33 032 -73 022 039 002 044 -02 -42 040 053 003 -01 034 -77 047 -04 -90 010 -39 -58 010 018 -41 051 039 -54 -37 010 -37 026 -13 058 -19 028 014 -23 080 -23 -44 -68 -35 012 003 -04 -49 -27 022 -28 -20 -16 -39 013 029 -41 007 -11 
011 -03 048 023 030 066 026 -10 -39 035 004 014 -09 -15 027 -02 -71 002 015 -12 052 -06 039 022 028 -31 -36 024 -38 006 -15 056 -54 027 034 034 023 -23 022 071 -55 -64 -21 038 -56 -38 -44 -02 -56 007 000 -38 -19 038 -03 002 037 -31 -11 -01 -17 -52 051 -24 
010 075 002 -49 -20 026 047 018 -53 -30 -30 -39 -03 032 037 040 003 000 015 -30 057 021 049 -38 003 -50 -42 024 013 -37 -12 013 041 015 009 -25 006 -20 035 015 -04 -33 -44 -20 -47 -24 -19 -21 -19 -28 -20 031 -44 -32 005 -29 -39 047 002 035 015 -22 052 004 
013 -75 -55 -23 -14 -31 053 -41 038 -23 006 004 041 005 -32 -41 034 -21 -08 -10 -18 -54 098 -25 -72 -11 -12 052 -30 -26 045 035 -04 -47 -67 036 005 037 000 -73 -58 -38 050 016 -75 021 029 009 -48 017 014 036 035 -18 031 006 046 -12 000 -25 025 046 -10 -22 
-33 -59 -54 015 044 -90 -34 008 -25 -28 004 -35 029 -54 -27 -04 007 052 030 -09 053 -62 083 052 041 -40 -16 -25 -40 -30 041 050 020 054 -20 -01 021 020 -12 046 -10 -54 043 005 069 001 000 047 -15 -29 007 -17 012 -12 011 036 -28 -49 -04 010 013 021 -53 -37 
-41 -62 -30 -42 -30 -07 036 019 030 -47 -50 -19 042 007 -35 -43 -42 003 031 027 -10 029 -50 025 -93 042 012 012 -04 027 004 030 026 052 052 -33 -09 037 -39 044 -07 -49 -49 018 -39 -26 030 -22 -26 010 004 040 067 026 002 010 031 041 007 -02 -27 -18 052 022 
016 -84 -17 -07 -45 056 -69 010 035 023 040 047 033 -20 -27 020 -01 010 022 -02 -20 070 -81 -36 105 -06 022 006 004 -06 -50 046 -41 -26 051 009 008 -32 013 -44 007 042 013 -28 014 031 -22 048 -14 -18 -34 -02 -60 -34 -25 018 003 050 026 016 -43 068 -35 032 
-40 044 045 -26 043 066 089 019 -04 031 -64 001 -35 -07 022 -44 -71 049 -38 -43 -56 079 -68 -26 111 049 -23 013 026 014 -34 046 031 -25 027 023 -20 -32 -39 -76 -02 024 -07 -20 -71 -25 -42 -44 006 -09 009 -19 -15 009 -40 007 016 007 034 030 003 -08 -49 029 
-37 -58 -58 -16 -34 -01 -41 -05 -29 -51 062 -04 039 -60 -21 032 028 -70 -41 -21 007 -62 105 -23 -05 -08 -47 -13 001 -27 -36 057 036 046 058 -31 -03 013 -24 040 038 016 -49 -22 -12 008 -05 -50 046 -13 -07 -05 -40 024 002 037 -07 036 024 021 -22 025 052 -31 
004 050 -37 026 -18 -29 -39 005 041 -36 004 -37 003 038 -10 037 012 006 032 002 -67 079 058 053 -28 051 001 -22 038 -22 040 049 008 -35 010 -25 -20 -20 -02 -12 006 -08 -46 -18 -68 025 037 -40 042 -20 031 039 -52 045 -09 -28 044 -25 -12 -44 -26 -15 042 -03 
038 -94 -37 034 -11 042 054 010 -60 -13 049 -33 -42 -64 016 -04 068 -19 040 013 007 026 -83 043 035 003 -35 -30 -17 041 028 056 042 -12 -07 036 028 -43 004 011 -44 047 -64 -30 -68 -28 024 -23 -54 037 022 -39 038 045 035 047 029 -13 009 029 -05 -40 -03 023 
032 -18 -25 -16 022 -46 -97 -05 -34 037 012 031 -60 -43 -05 -48 -13 -33 006 014 054 -60 082 -17 093 -12 019 064 025 -41 -38 -28 055 058 -08 029 007 033 003 017 011 017 029 003 082 018 034 024 057 -05 -21 -43 055 043 001 009 024 -08 -42 054 032 -04 -53 -22 
011 072 -35 -20 -44 -10 047 003 -13 -47 -61 -49 -56 -58 032 -14 073 -64 -35 008 -67 -49 006 -16 -76 024 -03 034 -03 027 -42 036 017 063 012 -21 015 025 036 -34 026 015 -51 040 076 031 -61 062 -15 -48 -32 -39 -14 -08 -17 -10 -04 031 -28 -55 006 018 -13 -11 
-36 103 -37 008 -37 085 020 -12 -22 033 -27 012 004 023 -01 -29 053 -48 -01 012 -67 -15 013 -39 102 -05 -03 036 -42 -48 008 017 020 043 065 -19 -11 -43 021 -21 -30 020 024 023 -63 001 005 062 016 -30 029 -39 -68 -38 -36 -34 -10 029 -11 -07 027 040 014 -36 
-22 -93 015 034 040 008 -91 -03 -13 045 008 -10 015 -03 021 039 040 -31 050 012 -01 016 071 -35 -15 051 032 -49 040 033 016 -52 010 032 023 017 -03 023 -15 -71 003 -61 024 -33 030 -33 -23 -58 -49 032 018 011 -08 037 018 -27 -49 045 -34 -08 -24 006 -01 004 
-27 -66 -40 029 008 -52 -100 -05 042 -60 -83 -15 -51 052 008 029 059 -34 -39 014 069 092 -54 -16 010 032 018 012 -05 -46 046 -10 -42 -06 030 027 -36 021 017 -26 -41 -58 -18 002 023 -01 -22 -75 -59 -13 003 005 035 017 022 046 027 008 -35 016 004 000 -13 002 
-33 -24 -34 030 018 -59 087 004 -12 -23 071 -45 004 -58 -19 -20 -03 033 001 -33 -63 093 -42 -22 112 004 -13 -46 031 000 017 -52 -02 -56 035 000 019 -07 028 043 000 -09 035 016 -87 -15 -31 005 054 -12 -20 010 -42 003 -14 -27 032 029 032 043 -44 -63 025 033 
043 -72 038 -11 -12 085 014 -35 060 -02 -43 055 -21 053 014 035 -11 -20 049 -18 059 092 -88 049 -77 -50 035 -51 007 025 -43 -12 -62 046 -57 024 -08 -50 010 018 024 -04 058 -11 -08 -40 026 -53 -57 009 005 004 052 -10 -40 -06 -21 043 010 -15 004 001 -41 012 
-18 -12 -51 006 010 -57 091 033 048 039 008 -35 -35 -41 -34 049 -69 -06 033 -07 028 006 -72 039 -85 -38 -19 -38 -25 -05 -44 -60 051 041 064 041 -22 -41 -29 006 029 052 004 040 020 -12 -36 -69 038 011 028 -46 -45 -35 -20 002 010 035 -01 -42 -25 -39 014 014 
-26 087 018 -35 019 -60 -16 032 001 015 058 -42 -25 -10 032 -29 048 053 006 032 027 -83 000 -37 -34 -31 031 019 -12 049 -13 046 009 049 -41 002 021 -11 002 -02 020 -60 057 024 071 031 046 -63 -17 017 030 -12 001 -37 030 024 -12 050 -14 000 029 013 -18 -08 
021 -11 -41 039 -03 063 092 040 -38 030 -40 002 -18 025 024 022 -55 030 013 -23 075 034 081 020 114 016 018 027 -41 -11 048 -49 045 035 -67 017 022 039 011 -47 -24 -42 045 028 -55 -34 -18 032 -46 026 -21 -16 067 039 -38 -34 015 -41 028 001 052 -37 -15 004 
042 089 -07 054 001 031 066 025 -46 014 -11 009 -12 -56 032 -33 -31 -17 -09 033 033 017 103 -42 083 -44 -39 -32 019 025 -27 023 -13 006 -33 -28 010 -37 037 -61 019 075 -46 043 -70 011 030 -36 -55 -15 -14 -05 -41 020 -02 -16 002 046 -12 -52 -34 -45 -18 -15 
-16 -25 -36 -25 007 -26 -72 020 048 074 -34 -39 005 -41 038 011 -09 006 -05 033 056 037 058 013 102 -18 -36 001 -27 005 002 -31 031 -51 036 017 026 042 021 069 -54 -05 -35 -04 -13 -14 -24 -53 -03 -17 -11 004 -35 001 -13 -11 -32 006 -21 -08 -38 -71 -49 005 
039 049 -54 -49 -47 -58 025 026 -28 -18 008 029 -48 -35 -12 -36 -15 009 044 025 -37 014 055 -55 032 025 026 033 -39 -46 024 -61 000 023 -70 027 -15 047 034 050 -34 006 -35 -09 -59 031 -42 037 -38 022 -30 -11 025 -04 019 012 017 043 030 -30 045 057 -31 018 
-22 -19 004 049 -27 088 078 -05 004 050 073 -10 006 -54 -01 -33 063 -32 026 034 -17 035 076 -05 029 -55 -34 -02 023 035 043 025 050 -30 003 004 -09 036 017 035 -23 000 -24 -20 059 023 -37 -71 042 -22 018 -45 -01 038 030 -48 -17 022 -15 -29 037 -40 025 036 
-40 -25 024 040 047 085 095 012 -31 060 021 012 -10 -54 029 -11 063 048 -52 -04 035 045 002 045 049 031 -12 061 -12 040 -08 029 021 -56 020 -21 013 -08 -19 058 -49 056 -44 -06 073 -27 -02 -69 007 004 -33 028 012 035 -26 020 015 -43 031 -36 -33 057 -31 -18 
021 024 -24 -12 -31 -35 086 -52 007 004 024 -30 027 -49 001 030 037 014 002 -23 -43 -77 077 000 105 051 -32 -54 -10 010 020 056 -20 -26 058 028 032 -36 -33 -11 -02 -31 -57 -03 030 -13 -45 -55 -62 -46 -21 005 050 036 -40 -47 -27 -41 -43 -56 055 -05 023 -36 
020 067 054 -27 040 -52 004 -38 040 044 -52 038 -53 -14 009 039 031 -58 029 -09 -73 000 -58 028 056 012 -33 -15 -34 -13 033 057 -41 -04 011 030 -20 016 034 012 040 009 -42 039 -12 024 -38 -10 -12 -30 -22 022 -44 020 034 007 -17 -08 005 -10 -37 -20 033 033 
-16 -30 -20 034 018 -72 -65 039 -14 -15 -60 055 -42 -72 018 -50 -70 -58 010 -23 -65 -91 100 032 -52 031 -07 -66 014 -29 -26 -02 -66 020 036 -31 -23 040 014 -53 035 -28 002 005 072 029 034 011 -25 -37 -28 004 -54 -35 -14 -45 038 020 -41 -27 026 -71 -10 -11 
021 033 052 040 -41 048 -08 -38 039 -16 025 020 029 -29 028 -39 039 -45 -22 014 -67 038 078 -12 110 -02 -35 -42 019 010 -20 027 056 050 049 012 026 -48 034 020 032 -34 054 -04 028 -03 -32 -51 024 -12 -14 -33 -47 016 006 044 012 -51 043 022 -03 -08 018 016 
001 -79 -26 030 012 087 077 -39 -21 -62 -50 005 005 029 003 -48 000 -06 -46 020 -24 091 -36 -31 -48 -21 -38 -37 -39 031 -05 015 -39 -17 008 027 013 001 028 058 -55 -45 012 -37 -35 000 019 004 -24 -21 -28 -13 061 -35 -01 023 015 037 036 037 -46 -45 005 -03 
026 -76 -04 -46 022 -81 -30 -39 049 062 -17 -16 -02 -47 008 024 064 024 032 -13 -19 022 -89 006 -98 028 -05 056 -26 -46 -44 002 043 021 -24 040 -08 -05 -32 026 -46 046 062 -43 006 029 -22 051 -61 010 008 -21 -59 000 -06 -28 038 -03 023 -30 045 -01 017 -23 
040 011 019 003 024 -77 005 024 026 -16 047 -11 -25 -32 031 -39 021 032 013 -24 -64 -03 060 038 035 -06 027 -49 -41 014 -40 -31 -57 -46 -30 -12 -22 -32 -23 -07 -33 048 008 -20 038 -37 -10 -45 -51 033 -15 016 025 000 000 -06 -26 -32 004 052 -31 019 -14 005 
035 -20 -50 -49 040 -89 036 -17 -44 -11 023 -40 008 026 020 029 062 031 -01 024 065 070 -83 013 -62 028 -19 032 007 009 -09 060 -07 -09 -05 007 -11 048 013 -11 020 -35 -10 040 074 -17 -45 062 033 -24 -05 -35 009 035 014 046 -13 005 001 -37 007 -67 034 024 
-31 -13 -57 -27 -47 -64 079 044 -61 028 026 024 -50 -17 034 -28 063 017 040 026 018 -51 -83 -13 012 040 001 044 -43 -07 037 040 047 -61 001 -03 -36 -48 -33 003 -41 -51 017 004 064 -16 -05 -71 -23 -21 -30 033 000 037 012 049 032 040 -35 -31 -46 051 -44 -15 
024 082 -47 040 039 027 000 044 018 054 013 011 025 -50 029 007 -22 025 -34 006 059 -46 -77 -17 -100 031 -29 045 -02 015 008 010 041 -39 -26 -19 007 -45 -09 004 050 058 -28 -25 084 030 -12 -72 -58 -23 009 002 053 -17 -39 -19 049 -12 012 -49 -37 -19 014 -32 
018 -84 -20 047 034 -01 096 015 023 033 057 -24 -04 001 -22 -36 048 -44 -10 -06 006 -08 -05 047 -71 -12 036 -15 -22 -09 -01 029 037 024 064 -18 -17 -36 -39 064 013 -12 002 -14 025 -15 036 -36 032 -33 012 -37 -04 -10 -02 013 -36 -45 -44 027 009 -02 011 -06 
030 -61 -50 -42 047 084 -05 032 011 -34 073 -14 052 -62 -08 -49 -18 058 050 031 -12 077 042 049 -80 036 004 024 -22 046 011 -08 -11 -49 -53 -36 -31 -26 010 040 -05 038 027 -20 041 031 042 -70 -36 033 021 034 -26 006 003 007 -52 -12 -16 -25 020 016 014 023 
-10 089 -30 036 -10 017 -28 -43 008 041 039 042 -20 009 038 -52 009 -33 -08 020 033 -42 050 010 096 -37 -01 -42 038 -32 -03 -50 -48 -51 -21 -01 -36 044 -10 036 -59 -48 009 052 -06 -14 -19 -08 023 033 028 011 -60 046 -14 -01 -20 -64 -36 -35 007 -52 -09 034 
042 -12 -20 025 -40 -49 027 026 029 -11 -14 026 002 -31 004 -39 008 -63 -33 003 -04 077 078 -32 -05 -20 014 -11 040 -27 -13 045 038 -40 053 004 003 003 -30 026 -25 -52 -53 -34 035 -18 -33 044 040 -33 -09 039 053 033 021 -12 -03 -21 041 -57 -05 -19 -43 020 
-09 -87 -25 027 012 -68 -47 -37 -21 -14 070 -42 -25 -11 035 006 -27 -50 -38 025 024 082 -15 -09 100 -12 039 -55 -22 032 -11 -56 025 -68 -14 -34 -34 038 -12 075 -47 002 030 -03 -60 -26 -03 -40 000 004 -09 -43 -02 -20 028 -48 034 -42 010 -46 -18 013 -28 026 
016 -42 035 -18 025 -34 028 -28 035 023 008 -08 048 -49 026 -22 -68 -19 035 -09 -68 009 086 -09 -58 -53 -33 -43 034 -43 -18 -62 -47 -14 -38 020 -02 -11 033 058 -50 -58 -22 -10 -40 -11 027 -16 000 -30 026 -26 039 039 -33 -27 007 048 024 -33 044 049 -27 009 
028 -62 010 -12 035 076 055 -11 029 -58 027 000 020 -11 -32 -03 -64 -24 -43 -20 006 -39 061 -29 044 -13 018 -45 008 -40 033 -03 -38 011 -51 038 -01 012 035 -52 027 -46 059 000 -44 026 022 072 019 -11 016 -27 009 039 -16 -34 002 -28 -20 045 -05 002 -25 -12 
034 -39 -15 -46 030 070 081 -12 -41 -70 035 -48 032 022 -28 010 065 058 -43 011 051 -76 045 -48 -109 037 -15 036 020 -30 037 -43 035 -21 060 039 019 003 -25 021 -45 059 -54 005 010 -04 -02 058 026 003 006 -14 -17 005 005 025 -13 028 -34 020 -25 -53 -07 -35 
-37 076 -06 -40 -22 -92 -67 -13 -38 -08 039 023 -14 037 -21 -46 052 -58 041 027 -51 -23 052 -13 -112 -47 -39 -23 -04 042 019 021 -36 045 038 009 -32 -51 021 008 -52 -39 057 009 -85 -25 021 002 -42 034 -26 000 -58 031 -28 -29 -08 -03 026 031 039 -53 -41 -05 
003 001 044 005 022 059 -04 -45 -53 038 -39 018 -43 049 -04 008 032 004 -15 015 061 -23 034 -47 105 040 -01 036 021 -46 001 020 -44 -41 032 -23 -19 011 037 -13 -44 007 049 -06 070 012 -20 -57 050 001 029 -14 012 011 020 026 020 005 001 030 014 -19 -42 001 
039 080 018 041 057 100 -08 021 016 -43 074 -05 002 063 036 014 -17 036 -32 007 018 036 -53 027 002 -27 -41 010 021 004 038 012 -23 -58 -08 -07 007 048 -07 -13 013 059 -57 013 -75 023 -20 007 022 -24 -29 039 -14 013 020 -29 -13 027 000 -27 -38 033 032 042 
-35 -34 -37 036 -32 015 091 -29 -15 065 -46 -27 -53 025 015 -20 -53 018 038 -27 -73 -74 000 053 015 -15 -18 -45 -14 -39 026 -41 057 043 -54 041 031 -22 029 -32 021 041 -42 027 -51 032 041 -56 023 027 -18 025 027 005 -35 -26 -23 036 -27 044 002 -56 018 -17 
037 -84 -04 -07 -31 056 088 020 037 -29 051 -45 -31 035 -23 -54 051 054 021 -11 029 080 -95 -23 -75 014 -26 028 -03 014 -29 -47 -54 022 -50 -40 -24 045 -31 -34 039 -15 034 046 -76 022 044 027 -49 045 004 -32 -35 035 -26 023 007 011 035 049 018 -70 -35 -23 
008 007 006 -42 -21 010 -19 -26 -55 -65 -19 023 010 061 026 003 -62 020 -23 -17 -52 -32 -28 020 103 045 -05 -12 -26 017 -35 051 -55 -53 -49 030 -30 014 -08 025 -53 000 -49 007 -79 -29 021 -29 030 018 -19 013 047 -27 033 036 -55 -61 -20 050 -20 -68 -24 -17 
-03 061 043 -33 020 089 027 035 -10 -37 -65 046 -50 -62 022 003 002 028 046 -25 -32 -09 067 -05 -82 022 -01 -38 001 005 002 054 040 038 -03 -04 -13 -09 -26 -71 010 007 -60 -08 060 025 010 004 016 -26 007 -28 -63 036 015 -49 -34 -41 039 -32 029 064 -57 -23 
008 -68 029 -10 041 -50 -47 -49 -47 063 060 -51 024 -53 019 -23 045 060 -37 -33 043 -33 052 027 -103 007 032 027 -17 030 -16 -63 -53 034 053 018 024 -20 037 -61 010 -01 -15 -38 082 019 025 009 038 -08 013 -36 044 001 -06 008 -48 -40 034 -04 -29 060 048 -18 
018 027 028 008 -27 073 -94 034 005 067 036 -11 026 043 -03 006 049 001 -12 -13 -18 -35 051 033 064 002 033 -12 014 -03 -14 047 003 024 -07 -08 -14 009 011 037 -15 -12 022 047 061 -20 -15 -06 -37 -34 -24 -24 -34 -31 -18 -38 021 041 032 019 -44 -41 015 030 
023 -53 011 -21 035 -10 071 018 023 027 067 -49 048 -10 036 -12 -65 061 -05 -21 -37 -40 -92 -44 098 -41 008 045 019 -50 039 -09 -20 -41 029 036 -33 000 -24 003 016 -21 -29 -36 084 -19 002 -25 -30 -28 -27 -14 033 013 -38 -26 017 -25 -38 -03 -21 031 -36 033 
-31 -59 -17 009 015 -68 021 022 037 -24 015 -09 005 -28 -25 -14 023 050 -37 -27 -52 002 -50 041 -77 032 024 043 -12 009 -20 017 033 050 001 013 -19 -02 -13 -71 -15 026 -62 -19 -53 003 021 022 021 021 -33 021 032 -34 -36 000 037 037 -25 -54 -26 -72 032 -13 
027 -08 001 -38 -28 -36 003 -36 035 -04 -72 021 006 048 -14 -18 -52 -31 021 004 010 -50 050 -34 065 004 -44 057 007 -13 015 -46 -10 016 -24 033 003 -46 -05 -84 -38 027 -03 -57 000 007 027 033 -24 -20 -06 022 046 010 -26 -17 -02 040 -11 034 004 041 037 028 
025 -89 -34 018 003 -16 016 030 -07 -47 058 004 004 053 008 039 -09 028 015 020 -32 014 050 035 -41 -23 -16 -06 022 -17 027 -33 012 037 045 -35 -16 031 013 060 036 -02 -13 -19 020 026 027 -13 030 -36 007 011 024 004 017 041 -25 015 -07 -07 -38 -58 043 -09 
042 -78 -59 -08 015 057 032 035 031 044 -41 -35 -33 029 -10 -46 005 041 008 -02 001 077 010 033 -60 008 001 -15 -07 -24 -35 -57 -24 031 065 -27 -34 -40 003 -65 034 044 -28 -28 -44 -27 039 037 002 028 002 037 -24 019 -07 027 039 036 -30 046 024 015 038 -03 
005 014 019 -44 020 033 025 -37 -37 -13 -58 041 014 -29 -02 -30 016 -36 004 -08 -56 -07 -46 -41 102 048 005 011 -24 029 026 034 035 055 050 -35 014 -12 -20 030 049 046 -27 -13 075 -15 007 037 016 -08 008 027 -13 046 013 020 000 -41 -07 -50 -46 032 -54 001 
025 -64 -05 -24 035 085 -81 036 -53 -09 066 039 -34 000 -33 014 -56 -03 -19 -41 044 039 058 014 -36 -42 034 -04 -41 027 -32 -59 -01 -21 -59 -24 -21 029 -28 046 -23 -56 008 042 -81 012 -08 044 -08 -22 -31 027 -61 -29 -38 028 -06 035 -13 -23 045 -39 047 -10 
000 -32 043 032 -36 -39 094 029 009 -62 061 -39 -53 053 012 036 052 042 -30 -37 051 091 -75 -52 -69 -39 -05 -48 -34 018 -18 -59 -41 -48 066 -31 002 -41 037 -55 002 -54 035 -15 -78 -36 -16 031 044 011 -08 -09 -63 -12 -11 -36 027 016 017 037 021 034 -07 -21 
020 010 -32 013 -48 073 -42 048 057 -30 003 008 -33 -01 -01 000 064 -47 -26 -04 -03 065 069 -01 087 028 -15 -05 -34 -50 040 037 -56 055 057 001 -03 031 -19 071 -15 018 009 -22 -49 -30 -44 -74 -55 004 -21 041 -20 -43 -02 023 -22 -18 -22 045 -10 020 -05 -15 
013 -45 -44 -29 031 052 -01 -36 044 -02 -06 -48 033 -07 -15 -51 -71 056 008 000 057 064 -14 043 -109 005 022 -34 -12 -42 -03 016 -56 049 048 -24 031 006 011 -37 -42 -27 040 022 024 018 009 046 -23 007 -11 000 031 005 -20 010 -35 -04 018 034 007 -43 048 -15 
-07 -10 025 -12 -03 -86 -95 -22 055 058 051 -06 051 046 019 -01 063 020 000 -19 057 074 -62 011 -25 017 017 025 -01 037 -04 047 037 -02 031 012 -02 -04 006 -15 005 050 024 -34 -70 024 028 -49 -07 019 -01 009 049 -20 -04 045 016 001 -04 -10 -17 062 -20 006 
-41 072 003 -45 006 -12 -52 -40 027 058 011 043 -32 032 033 025 050 022 -53 -14 -28 -56 008 030 099 013 -06 -20 011 -50 037 -40 -05 038 -68 009 -03 -27 -33 -63 -44 038 -30 -47 -32 -06 -24 052 -56 008 -17 003 032 -26 -32 008 010 -48 000 -52 046 -04 -33 005 
-06 -54 053 008 049 056 -45 039 048 032 023 -33 -38 010 -37 031 -60 025 -45 021 -38 -23 -101 033 -108 -50 043 044 -14 031 025 003 -13 -12 063 -04 025 -31 -27 -19 017 049 -06 -04 078 -27 011 019 -23 018 015 011 052 004 -07 -45 031 -41 007 043 -19 -19 -36 -32 
031 -40 -54 013 -18 092 079 -43 055 028 -13 016 -45 -44 003 -43 -18 -69 -63 017 063 025 -54 025 -84 -37 -40 -42 036 038 059 -37 -43 016 -11 -08 015 -42 000 039 045 024 053 -40 002 -22 043 -50 -02 007 018 -46 045 -17 -09 005 018 -61 -37 -15 -38 -51 -47 -24 
-09 078 057 024 038 -26 092 003 014 001 -05 -41 033 000 -23 011 -48 053 019 -11 067 -65 096 020 -107 009 027 000 -35 -10 -36 -11 018 032 -54 026 024 -22 -32 -34 -02 021 -64 -08 057 -07 012 055 011 -07 005 -19 -69 020 035 -50 020 015 -18 027 -01 -25 056 -23 
020 -26 051 022 -36 021 093 -46 017 -66 065 000 035 -56 -17 005 -37 054 -25 017 -29 -07 -22 -49 -72 055 -39 -04 021 047 -50 051 044 025 013 -31 -30 048 -03 -66 -37 050 -41 010 020 034 -29 -11 025 -41 -01 035 -27 -45 002 -04 034 -15 036 044 -38 -43 -16 001 
-43 -14 058 034 -43 -48 -55 027 020 000 -56 005 031 -37 020 -26 027 040 046 -10 062 009 -59 011 104 054 -20 -12 030 033 029 060 025 -56 038 024 027 004 -01 032 -21 010 019 007 -35 015 033 063 -02 -15 020 -36 -02 023 018 -18 -11 -46 009 042 -41 -39 052 031 
-05 087 025 029 -01 -28 -35 -40 -38 077 -59 023 000 007 033 004 063 029 010 006 -62 -09 092 030 -108 040 -36 -22 -34 -18 -12 044 -22 -60 032 -24 011 041 024 071 013 013 -29 -17 017 002 -02 -03 -52 -42 -12 029 -28 -35 -02 -46 -37 -41 -44 004 021 -27 021 -27 
-35 -59 -03 -01 006 050 -80 -49 -34 -31 -41 033 -31 -32 -24 -23 047 -02 051 -26 070 -21 016 039 -104 052 021 064 004 033 -02 052 -15 007 035 -25 019 -10 -38 042 017 -17 060 011 054 -34 -11 054 008 -02 -06 -04 039 029 -34 010 -11 -06 028 036 004 039 054 013 
-35 011 053 018 -33 075 056 032 048 056 018 -35 050 -38 034 044 -19 005 043 002 054 032 -70 007 000 -39 -19 019 010 -04 035 -45 003 022 -42 023 029 012 026 -06 036 -20 061 -06 -77 -22 014 025 -10 -04 -10 022 038 022 015 -32 -42 -38 043 -20 022 -61 022 005 
034 -10 035 -35 022 -43 -67 -44 -57 061 -43 041 -30 -08 004 002 033 040 007 -22 -04 -60 095 -52 047 031 -33 023 -42 -29 -42 -50 004 053 -05 -32 -26 045 037 079 037 034 052 -12 015 021 000 009 036 002 -35 -04 -12 007 -43 -29 -26 -46 -45 -25 005 -45 031 026 
-26 -34 -12 047 -38 -06 -99 -05 -14 -51 -39 -18 -32 062 024 044 019 -59 020 -08 -35 066 -41 -55 102 -55 -03 -14 006 006 -28 046 -28 029 -41 013 -19 003 -12 008 048 -06 048 005 072 -35 012 019 029 021 -17 -43 -03 012 025 -19 019 037 -15 017 -38 064 011 028 
-07 057 024 039 013 -67 040 -28 032 017 030 -05 033 011 -39 -47 014 -03 022 -01 077 059 -12 050 -100 037 016 -38 022 -19 024 015 039 002 016 013 -17 039 -37 -06 -02 046 008 -07 064 036 007 -28 -07 024 027 -26 -46 -43 034 046 -28 011 -16 046 -03 -73 -45 025 
-08 -71 -51 001 018 -40 -70 -50 -13 028 065 020 030 -40 030 045 031 027 -09 006 -41 -72 053 -18 -50 055 013 038 -24 026 -28 -43 025 -58 056 -27 -21 -36 024 -48 -06 -15 002 -02 -56 006 -34 064 044 024 -16 -42 051 019 -29 -11 014 039 -06 002 -06 -23 036 -22 
-42 -92 -59 000 023 087 -12 038 025 041 -43 -48 019 056 029 006 -03 -51 -19 012 -71 -78 -01 -22 -48 039 -27 018 -32 -26 -16 054 042 003 -58 -37 -07 -50 -17 -46 -51 012 -06 019 -48 -10 013 -49 -42 016 021 007 -39 -05 -34 035 -05 014 042 -47 -47 -08 035 -35 
030 005 -13 018 043 044 -12 036 -44 020 -05 -22 046 018 -30 -29 019 026 -10 016 007 020 075 -36 -94 050 036 -04 032 -19 031 -12 012 -13 -67 037 -15 -02 -36 009 055 001 -56 -08 054 007 044 025 045 -30 -13 -28 -49 015 014 -48 013 005 022 -51 007 -64 018 -34 
005 061 -38 020 -16 -90 -99 -44 -46 011 019 -07 -47 -34 032 -36 -45 -37 037 002 -45 074 -55 012 106 035 -44 -24 -37 -13 -33 038 -57 -59 -61 009 034 005 033 -47 -31 047 -23 044 -27 -27 009 -19 -32 -08 -21 -38 018 044 -06 034 -14 002 -45 042 -13 -56 -31 -25 
-21 020 -31 -34 038 087 -100 006 021 -34 021 019 -24 -30 019 046 058 050 -23 -11 -30 -02 -11 020 103 031 -34 052 035 033 -11 014 -30 -48 -08 -09 -21 -46 -25 -07 -18 -48 -03 -45 -79 004 -24 -61 -44 -20 001 -10 -22 044 008 -32 031 018 -43 -12 011 068 -36 019 
-21 070 011 048 -42 066 045 -14 -36 -67 007 033 -24 039 -17 037 -73 062 -41 026 052 043 042 047 -45 -05 -22 -48 024 -18 -13 057 -17 023 019 -04 -28 048 -07 052 -35 036 -32 001 084 035 -18 -41 004 -22 005 020 -09 002 033 -41 034 040 003 032 -03 005 056 012 
035 076 -23 -21 -13 048 -32 031 -06 016 028 019 045 -03 010 009 -06 033 -26 -33 -48 023 -24 052 024 -08 -08 058 039 012 005 -55 -30 024 -12 038 019 049 -26 017 -21 -56 060 036 069 020 -41 010 047 018 020 011 045 025 -32 -46 -28 -40 -04 -50 022 052 -45 017 
023 051 -39 008 -41 -01 062 -23 022 031 -40 -17 -42 -28 017 -27 046 046 001 -20 071 045 -85 039 108 030 -31 -46 034 -46 -28 060 048 031 -64 002 -17 -31 015 -16 016 -26 000 -23 023 -06 004 073 043 013 014 -03 042 -14 -16 011 022 -06 040 004 -46 000 -24 029 
-04 077 -19 -50 033 -20 070 -36 -43 011 -35 -15 044 -39 027 -18 012 019 049 -01 054 066 005 -09 -22 -54 -21 -30 031 -12 -13 042 -42 -32 -45 023 021 002 -15 038 -06 -62 032 045 081 008 009 046 -07 025 -17 028 -61 -02 005 -28 -21 039 -16 047 -36 058 017 -28 
018 104 -40 075 -36 042 -37 018 085 106 053 -13 068 -28 -38 048 047 026 063 016 103 113 115 -11 -30 -07 -37 110 -39 030 004 -13 -52 034 035 -22 013 001 012 028 042 088 -58 033 -42 -21 056 023 018 067 031 040 -33 -31 019 042 036 -03 -16 050 026 -63 -36 -01 
039 032 -32 -11 008 066 090 -42 018 -51 023 016 -24 058 035 -47 040 -59 -41 -22 058 017 -43 -33 -79 021 035 -49 -21 -26 -09 053 -19 -43 -63 -13 017 -19 037 006 015 -59 -01 -46 046 021 -31 046 050 023 024 -05 015 044 -13 017 -45 023 009 013 -12 -65 -50 020 
-33 -04 -34 011 005 085 -50 010 036 -08 -19 -51 044 -57 -12 042 -12 007 010 017 -50 -39 -99 048 087 000 -02 -13 -13 -14 -14 029 028 -51 -12 033 002 -21 025 -63 022 -31 044 008 044 -16 -34 -63 -22 -40 008 002 008 027 -24 027 044 -40 041 020 -16 -35 039 -10 
041 -13 -07 010 -31 094 -57 026 -59 -07 031 -13 -32 -34 029 -41 067 -55 -41 012 005 024 -49 -28 063 -33 -28 037 -15 -33 -14 -29 -58 034 -18 -22 -27 -09 002 015 042 -21 -37 043 -29 -36 015 006 -19 001 -30 029 -28 -24 -12 -09 010 033 023 -29 015 048 001 -15 
037 -07 036 -22 024 -44 -77 -42 022 046 055 013 020 -41 032 -48 -59 049 -32 025 -09 -08 036 014 -57 053 -45 -58 -41 003 -44 -01 013 -34 031 -16 -25 -20 -28 -14 002 -55 003 -03 -34 -23 -21 -16 -54 -35 017 005 -19 -18 013 -09 -17 032 -43 -19 032 038 -34 006 
027 -70 056 007 041 067 067 041 068 -30 -62 -49 007 036 010 009 -72 060 052 005 -24 036 103 -19 -98 012 011 -44 -26 -33 005 045 -53 -35 031 024 031 028 -17 062 -25 043 -53 007 -67 029 022 043 -56 -05 -31 005 042 -30 -32 -34 044 036 -06 -22 035 -63 -05 -15 
-42 -56 057 042 035 -51 005 042 -50 080 027 031 038 -57 -18 -18 -21 014 001 018 -61 000 -14 050 -89 017 011 -09 036 004 -35 -07 -50 -55 -36 032 -14 -18 019 -14 -14 -05 044 -07 076 021 -31 -76 -51 024 017 012 -57 011 008 -26 045 -27 009 -29 -08 -66 033 020 
-28 089 -11 043 007 042 099 013 -62 -42 029 -53 007 -47 001 -47 -67 064 022 029 -21 032 023 -37 087 -07 000 -23 022 019 045 -25 023 025 049 -22 015 -45 -15 036 001 -04 061 012 072 -23 -06 -55 014 -24 005 039 047 024 -05 -34 -25 -22 027 042 031 -29 -27 -19 
030 079 -32 -28 -09 -46 -36 025 046 -04 -21 007 -48 049 029 008 -01 041 -26 -04 -52 077 -84 017 -11 003 -27 016 017 025 -15 -37 050 019 -44 025 024 022 021 067 -45 -49 047 -35 -06 -26 038 -39 029 -42 017 -18 -34 -10 -34 038 001 018 -22 019 000 033 -17 016 
-26 -19 044 -20 -25 081 -36 009 024 045 062 006 -15 -36 027 -21 039 -01 -46 -22 044 012 -47 021 097 -26 012 046 023 -35 045 024 -12 010 033 035 005 -14 -04 034 -25 057 009 -22 -85 019 -24 057 016 000 006 033 052 025 -06 012 005 -20 041 020 019 -10 044 -35 
043 072 017 -42 019 054 030 -29 035 -29 016 000 027 015 005 016 036 071 022 -20 -18 -56 -01 041 040 -57 -11 -33 -14 001 -50 029 000 042 -32 010 017 -10 -29 -11 -17 -63 -13 006 074 000 027 019 019 -04 -31 -35 -55 -22 027 -20 041 -38 -06 -52 -35 003 -54 -04 
-44 036 033 035 018 055 075 -24 -30 -07 066 -23 -23 036 -24 -25 026 005 -08 -28 039 -17 -92 -55 016 044 018 -43 -05 034 -48 -47 054 -51 -72 037 013 -17 -22 -03 014 043 023 -08 -47 -20 019 067 021 028 009 028 042 035 -12 033 002 012 040 -03 -26 -73 -32 031 
019 014 -34 -47 -02 097 049 -06 054 -56 -09 036 026 -29 002 -06 -07 -13 -20 021 064 -09 -53 036 043 -13 014 050 -36 -05 -23 055 036 -13 -08 -01 029 -31 -33 -29 -53 030 057 -27 -48 030 037 -50 017 -34 -17 -21 002 -13 -33 -01 008 007 023 -49 030 012 036 021 
035 -24 -16 000 032 006 -12 -57 074 -32 -26 040 035 041 -07 018 -60 -32 -56 013 024 100 088 002 107 056 -07 -42 028 014 051 -04 048 053 048 025 018 004 -10 052 -32 -70 -19 -06 -13 -20 008 -53 047 028 029 -35 030 -39 -10 041 -11 018 -20 -35 052 001 -20 025 
-26 070 050 024 024 082 047 -22 065 048 014 016 -51 -61 028 003 -21 -61 035 -36 037 022 022 047 -13 033 015 076 -25 -16 -25 -49 027 057 -52 029 -12 022 -16 069 021 -23 059 031 053 015 032 066 044 -30 -32 -37 -33 026 003 -09 012 045 035 044 -37 -34 -43 001 
016 115 -46 -51 007 082 095 -16 036 089 074 -34 009 044 -27 038 016 037 018 022 -65 -69 -08 -21 114 025 -44 -50 -36 023 023 -52 003 -30 004 -18 -11 -06 -13 -11 051 028 -49 011 -59 001 -26 -17 -49 -35 -11 013 -57 026 -01 -27 -22 007 -14 008 -06 010 032 -43 
028 068 018 013 028 064 -61 -33 005 022 -48 014 -27 -48 -21 038 -43 050 013 -07 -48 -18 103 -36 099 -45 017 -20 001 -38 017 -14 055 -48 -01 -15 029 -25 -23 -25 003 002 -54 -14 -84 -01 035 035 055 032 012 031 061 -40 033 013 -22 046 -01 -14 025 -57 -39 028 
-08 -91 -38 -20 029 -85 090 -29 -51 028 -58 -03 050 002 002 -43 066 030 -27 -12 -05 -62 023 -20 072 037 010 062 036 -37 -37 014 055 -35 025 038 030 023 034 -65 -49 020 004 014 003 004 -09 -36 004 002 027 004 -20 042 006 014 -42 -01 030 -24 -24 043 056 -26 
-42 012 -18 -35 -24 015 -07 -16 -35 010 027 015 -37 095 041 -09 -45 015 -22 055 -19 078 051 014 015 -44 -03 -55 037 -37 -48 053 041 035 -115 -05 -30 -45 -40 044 -04 -16 -44 -45 021 060 -16 024 001 031 007 073 -88 055 003 -12 016 069 -17 -23 076 033 -24 -15 
-49 013 -56 046 -54 -20 -10 -49 015 011 -06 -39 009 -67 034 -25 039 043 067 -45 -13 -79 -61 -26 -16 067 -27 -73 031 024 -06 -10 065 044 125 029 -79 015 -17 -03 -46 -14 -07 -82 026 -03 029 -03 -23 049 026 -41 -65 042 -31 013 043 -72 -15 078 075 040 -71 -02 
003 -35 -59 -24 049 -20 019 049 -18 015 -25 -64 -19 056 -23 -26 054 -29 007 067 041 025 -58 -23 -26 028 -37 012 -47 -29 -33 -06 -55 004 -126 023 -77 032 -13 -62 044 042 025 090 043 058 050 061 058 -52 -32 -30 -24 058 -49 033 020 -59 -14 -76 049 -20 022 -45 
019 049 -41 -35 019 -31 016 011 032 021 056 -35 -53 078 051 052 050 -08 064 018 019 042 015 016 -22 047 -07 -22 019 -27 001 007 062 019 -96 -23 -80 009 -24 -05 036 -35 050 -73 -43 037 -06 -26 -61 000 -30 -43 002 010 -46 011 028 063 -35 063 074 -35 -36 -32 
-03 031 061 -27 -10 051 028 -57 -08 034 -53 -60 017 -75 -49 039 018 -33 -59 024 -01 -70 -17 015 -07 -62 -38 -52 -08 029 002 053 -60 -45 -99 037 025 006 -06 043 -09 009 -49 -70 -19 022 -40 019 -50 -30 029 054 060 -23 -13 022 -43 -79 -23 -09 -11 -39 -32 033 
016 -54 -10 -11 051 053 -65 004 027 -24 054 -52 049 -20 053 -32 -38 053 046 030 -02 017 010 -09 -18 030 039 077 031 050 -25 032 050 043 -100 021 048 -27 -08 -05 030 -39 040 -19 031 035 -53 -03 032 036 -32 -71 011 -18 -25 -26 -54 012 020 -34 046 012 -46 016 
002 003 -38 045 -37 -19 004 040 -39 -23 044 015 -33 002 -38 -54 -07 045 -60 -51 000 -15 -68 -21 -10 -57 -36 -04 -53 -15 011 -31 007 -12 127 048 -12 044 -60 055 -26 -29 -51 -106 -50 014 -19 047 013 -06 009 -39 012 007 -29 043 062 -01 -36 -63 012 028 -77 024 
-43 003 -42 038 010 -12 037 -59 -23 035 000 -42 022 -35 -49 -15 -46 044 -53 021 -47 004 062 -19 036 -30 025 -37 -17 044 -51 010 -44 038 -24 -48 013 -04 -20 -36 018 039 -47 -48 -20 005 033 -40 -74 -45 -34 086 070 -06 054 -42 004 044 -25 -16 075 062 044 -72 
031 -46 -50 -43 059 008 056 017 050 -01 028 024 030 018 -44 029 -02 030 050 -59 -46 081 058 -27 011 051 031 -44 055 014 029 011 061 -07 108 032 -64 047 045 -07 005 -35 015 091 -57 011 -43 070 053 -16 036 -61 -87 -15 024 -13 -19 034 007 -78 -09 002 -54 009 
032 -31 -32 050 -02 003 011 061 010 -45 007 004 -50 039 012 -54 037 012 -18 -15 013 -50 006 037 -31 023 -05 -02 023 -54 -18 -23 -80 046 -46 -25 -58 -21 -04 -29 045 005 036 -80 064 019 -40 -21 -69 042 002 084 -07 003 -17 022 -33 -17 -02 -09 072 -30 -70 033 
009 -28 062 -08 -43 033 039 -24 008 003 025 041 -11 035 -30 025 029 -15 046 036 045 073 -57 041 -03 -36 -38 -33 049 -36 040 -43 -57 011 121 036 031 -19 -52 014 004 -17 -45 -35 -63 009 007 -28 -77 011 015 -38 -15 026 -57 -01 -52 -03 -10 -04 080 -01 009 -17 
-02 -13 074 020 054 -54 011 -40 044 -08 -28 004 040 -06 025 021 -48 001 041 009 000 009 -25 -42 007 -54 019 051 -23 -04 -19 017 -75 -17 -110 -08 -01 -14 020 049 -48 -03 -15 027 074 027 037 040 -47 046 021 -61 055 -39 -47 -18 056 -94 043 -63 052 -28 038 068 
022 -28 -83 026 -05 -07 -12 056 -51 -04 -58 -08 025 -42 -36 -49 -11 025 -59 -47 049 067 -63 -15 014 -04 010 -38 -54 019 038 064 028 006 -79 -53 045 -27 -40 024 020 -12 -25 -55 066 -30 021 073 077 -33 000 -65 -20 063 006 011 -54 -71 000 -05 -13 -63 -10 -51 
030 -56 033 -50 -27 -25 023 050 020 043 036 018 004 -70 049 -26 -25 020 010 069 048 041 030 -40 -11 046 004 050 003 -44 014 -26 -53 040 085 015 -15 041 031 -45 -07 001 -09 -102 -05 -03 -42 -81 065 -41 002 -60 -57 051 -50 009 042 -04 -16 -07 -39 -50 -44 062 
-21 -04 045 007 -19 -54 -13 -08 -27 -27 028 -07 -26 064 022 -17 -18 008 028 059 -55 -68 060 -36 035 031 021 -33 054 006 022 -30 -61 -44 126 033 035 039 007 -54 -02 039 018 090 -08 036 031 015 054 -34 -33 -42 -75 -37 -54 000 010 -39 000 063 -89 020 -42 -10 
008 -51 024 -24 037 039 029 004 -44 011 -43 023 047 078 -13 -30 017 047 -50 053 -50 006 -06 011 -17 005 -43 050 049 016 -49 -52 007 033 046 -05 034 046 -59 031 -47 -31 015 084 -07 038 030 078 -16 -26 010 -19 049 -38 -26 019 -19 065 023 -01 -77 001 016 -05 
-36 051 -74 012 -31 009 -29 -77 -09 -47 -18 016 -40 100 -42 010 029 036 015 024 004 009 026 016 -01 052 -17 016 -18 -37 -14 -52 -50 042 116 -37 -20 -08 041 -41 021 013 -01 -10 074 048 -40 -54 -10 041 -11 -40 -33 056 -44 -24 -52 -67 -25 -31 -76 -27 -77 -70 
-45 001 007 -53 016 041 037 036 -27 025 042 022 025 -102 -37 -63 -13 -20 -45 003 010 -44 -65 000 -21 -54 002 015 -59 005 032 -63 022 -43 108 004 063 -24 037 011 -06 -35 051 -95 002 042 017 025 -78 -11 027 070 -83 -03 020 -20 -11 -25 -23 049 -21 -46 013 035 
013 -02 018 010 -42 -19 -39 -17 009 -14 -25 035 -58 -75 -28 -22 -18 019 029 -36 -39 026 052 021 003 -46 -21 -05 002 -04 -47 -30 -32 046 083 051 008 031 -39 009 036 -23 019 -62 -18 -57 040 -59 073 -40 -10 103 -08 -69 -60 025 033 -40 -28 -39 -46 034 -23 -25 
-51 -22 000 034 046 -24 -66 -69 004 008 -26 033 055 090 -43 -23 021 -42 -62 -31 018 -70 -79 022 -33 067 -15 026 -34 036 -49 047 047 -49 -126 012 025 047 021 020 -53 -04 028 -60 -30 006 -56 -08 -44 -63 -18 -71 075 -45 -18 -41 035 -71 -38 -11 023 038 -10 -74 
039 -40 008 -37 020 048 005 010 -29 -27 -31 -24 042 093 -17 -31 021 -30 -09 -57 -21 070 -20 037 031 044 014 009 -34 -43 049 -55 064 -38 126 010 -73 009 -51 -44 -18 -18 -32 -49 -51 -41 041 -40 075 -40 032 -52 -62 -69 034 036 -30 -14 -26 -59 -66 -66 004 059 
030 -21 047 -09 038 034 -17 -62 039 -18 -51 016 -36 045 -09 -61 038 -29 057 059 -26 044 -06 -49 -25 -35 010 -79 -36 -29 -46 022 028 052 -52 -35 -11 -25 006 -11 -33 -09 030 -27 069 046 -39 -72 050 -01 019 067 062 -49 001 -02 -50 053 023 -03 -42 -18 010 -27 
026 -01 069 049 026 053 -57 -78 -03 018 -18 -33 -13 -99 -13 028 -06 -39 014 043 -46 -49 011 019 028 034 024 048 018 -13 036 -46 023 -50 -13 -15 066 028 -16 -26 -05 -02 042 029 033 -44 028 012 066 -50 -29 088 081 -42 039 015 -31 030 009 077 072 -14 -74 -53 
002 -46 067 013 -38 002 -48 -40 042 043 -07 015 026 -47 036 -72 034 047 -28 028 000 -43 023 -15 013 -26 -06 -20 022 -38 -29 037 050 034 126 036 067 042 -18 -35 -50 020 028 069 -38 -60 -08 078 -20 -38 000 -51 061 -03 -21 021 051 070 039 038 063 026 -29 -62 
-34 -46 007 035 -56 041 030 003 -39 031 034 030 057 104 041 020 030 -14 010 044 -12 057 -55 007 021 -30 014 -51 -44 -42 -49 052 043 -18 126 009 -83 004 042 016 050 -17 024 048 -73 010 -24 -33 008 -31 018 082 039 043 -24 -11 049 036 039 058 014 -42 -35 -56 
-45 050 -65 020 -36 -12 -43 -58 -04 -37 046 -53 -21 020 -23 -43 037 046 056 058 -07 025 008 -50 -25 059 012 -22 021 -37 -09 007 -60 027 088 -48 016 -47 027 004 -47 -22 -02 077 071 008 025 -05 061 -39 037 070 000 026 -20 -23 037 -28 034 -56 073 006 -41 -27 
022 020 -19 022 -58 024 026 -58 -55 004 029 -15 008 -109 -10 -32 -47 -28 070 012 041 -24 -53 -07 000 -09 -15 005 -40 -35 -08 -24 -57 -04 013 -25 010 -26 014 -23 -56 -22 032 085 012 -15 -31 044 071 029 014 -82 -66 022 000 -04 031 -80 033 018 -56 -56 016 -23 
023 -51 070 038 -24 -40 000 -27 -05 -31 034 -08 -45 -87 -49 -10 -13 043 018 -43 -23 057 030 -01 -31 -12 -35 -62 -36 -19 -27 047 -44 013 -119 006 -58 029 010 -35 -07 -27 -54 043 005 -62 011 -19 069 024 -32 -13 058 044 -56 034 004 -36 -15 024 -43 -05 011 -12 
-28 -58 014 034 -36 010 -20 -65 040 017 -64 -31 000 089 -23 001 052 -24 -51 040 008 059 056 027 006 008 -26 -47 057 -35 -38 -68 049 013 015 042 -45 048 -47 -53 -47 -23 -04 -14 052 -62 007 002 -26 -09 -11 -23 060 015 -31 -08 005 022 -27 057 057 010 053 -61 
-36 -28 063 -08 -38 034 001 072 044 -14 001 014 -47 -94 009 065 -14 030 -23 -27 -17 067 053 -38 -35 -70 024 054 013 -32 049 -51 005 039 -42 008 -12 -26 017 -22 039 033 017 081 050 -55 -43 015 060 -18 -05 -89 -70 -44 027 -05 034 073 -30 042 -66 006 -48 049 
-36 -07 060 -53 045 032 -57 075 -30 002 -26 -20 -54 005 -47 -52 -45 -35 -24 029 036 -72 -16 -14 -11 029 -21 034 033 -37 019 049 -25 033 010 -16 038 025 055 -44 024 031 -46 -03 -48 003 054 -53 -28 -54 039 003 003 024 -31 -23 -46 -05 -10 -76 040 025 044 -71 
-44 024 057 -44 -52 -19 002 068 024 039 -06 -62 049 -60 -22 -06 019 -06 -08 -50 026 -46 -32 014 036 071 -29 -26 037 -23 033 -27 -57 -25 055 031 069 011 -42 041 052 014 -29 066 -15 -38 031 -06 -64 -14 -24 042 027 068 -31 038 -12 -65 -35 083 032 033 054 -71 
-08 052 004 043 025 007 019 028 026 023 002 -27 048 094 036 049 031 021 053 053 062 -09 042 -43 038 -58 036 -82 032 024 -42 -52 -57 030 081 042 037 007 053 004 -35 -16 029 -06 041 024 051 -71 016 -26 -08 067 -29 042 -38 -38 -11 -58 -26 080 054 034 061 072 
-40 -35 -12 -10 017 016 034 -28 002 006 -06 036 -47 -86 -15 -14 031 -42 052 -43 -03 056 041 025 012 020 021 016 -25 030 031 036 -62 003 079 041 -17 033 -29 028 005 -07 038 061 -44 -16 -17 024 -80 -11 035 -79 065 010 053 -07 -42 -40 -16 -82 023 055 -68 -28 
-04 -04 016 004 -04 022 -27 -46 046 -17 -12 -24 019 060 -25 -19 036 -19 -52 037 -26 -67 -46 -35 008 -69 -07 -69 043 -32 -01 044 029 -21 122 018 017 042 002 030 041 -27 017 074 -11 -54 -16 -63 -61 -37 035 -89 086 -14 053 -05 045 044 035 013 -87 051 -38 012 
018 000 003 023 035 -58 -37 048 -55 -39 012 014 035 088 -10 062 041 046 -21 043 050 -27 020 039 002 -01 -11 028 019 -19 009 061 -61 -22 -38 -47 -35 -03 036 050 026 012 017 -73 -40 035 -35 -44 002 -16 011 036 -55 036 049 007 034 053 008 075 000 -53 -73 -70 
009 -06 -23 030 -19 -22 023 -61 -05 -47 047 016 -44 031 -40 020 -13 -11 -09 058 017 -77 -09 -35 024 -52 011 -65 043 -52 012 049 009 007 -40 -30 -18 -48 060 016 025 025 044 -42 -33 002 -20 022 023 021 007 013 -68 -31 015 -01 051 -01 -28 -43 -73 -22 046 -76 
-19 011 023 035 -45 008 -47 059 -16 -08 -01 -27 040 077 -19 -25 -22 035 026 -54 045 010 020 035 036 063 017 082 -43 -40 015 -09 -19 039 005 010 058 -34 016 036 046 011 017 -75 010 004 029 -16 022 005 021 -10 -14 017 -47 -21 048 058 042 -26 -40 -21 046 -79 
012 002 -09 -45 -41 024 017 006 -54 009 -06 043 -41 075 -12 006 037 -05 043 022 -72 -54 041 -51 046 -20 -06 082 -19 003 -33 055 -42 -34 123 014 -26 052 -03 011 033 022 -46 098 -29 -06 036 053 -17 042 -02 -33 085 061 -50 042 046 -67 -01 072 001 057 -47 070 
-13 047 -45 -18 020 -12 057 -65 026 -24 010 040 -16 -68 -02 029 011 034 064 -38 020 003 032 -10 002 -55 -07 067 -03 027 013 017 -31 -32 062 041 058 -23 005 019 -44 -08 025 086 -28 -57 -44 -07 -42 -08 -15 085 -27 008 -50 005 -05 010 018 -42 058 -11 031 068 
002 044 033 -02 003 016 -19 -42 043 055 029 046 -25 -89 -17 -33 -08 -05 083 -18 -01 -46 -20 -07 061 064 -41 -91 -32 -09 -07 072 -80 051 -118 046 -25 044 078 058 -41 009 -28 100 066 046 056 -51 -82 035 -16 003 -89 063 027 011 -01 -76 016 -45 -112 -52 065 009 
-43 050 -66 -22 005 046 006 070 -41 007 -44 -62 011 052 049 -04 049 037 008 004 -02 052 -16 -12 009 -66 036 -85 -36 027 018 014 -42 038 -76 011 050 020 017 025 028 032 020 -84 -36 -19 -26 047 049 011 -32 -81 -85 -16 -11 025 -37 056 020 019 059 013 -24 -46 
020 042 -75 -40 -11 007 -51 -10 016 015 025 037 -15 -14 -37 000 -14 -24 005 002 014 -07 014 -04 -41 032 023 -01 -05 -25 -17 -10 020 -09 119 014 -21 -10 -53 -06 -15 -03 036 069 -52 056 -30 040 -70 -26 010 074 -84 033 -30 -10 039 -16 042 066 005 -09 -32 056 
-25 002 014 -54 -20 041 -64 -22 038 016 057 -59 042 041 -55 -52 013 047 -50 -47 046 036 028 047 -15 -65 -12 086 033 035 -50 -09 -79 -01 -94 021 039 050 -22 000 028 038 031 -50 071 -42 005 -01 -70 048 039 001 -51 045 -59 002 046 -06 041 -74 000 -50 062 001 
017 049 -78 030 010 -11 -16 -41 -33 -08 025 047 048 -45 -54 -63 030 030 -48 -27 058 047 -33 -45 014 -22 003 040 028 -10 029 026 030 046 -34 -44 -12 013 027 048 006 039 010 009 009 009 -25 -01 -13 043 001 -29 019 -53 018 039 -16 -22 041 001 066 015 -04 -66 
035 -32 047 038 -20 049 -19 047 053 -15 058 029 -24 083 -28 -66 -52 -08 042 007 039 -81 003 002 -29 060 000 079 036 -12 038 039 -77 -29 124 -25 -62 038 021 025 014 -11 -04 002 050 044 -24 -47 -64 -43 -08 024 -23 -21 056 022 -28 012 -21 -62 -13 -05 -45 060 
-23 -23 078 004 -44 045 050 -56 039 050 -27 008 006 -48 -26 013 -34 009 032 -22 039 -41 018 -44 -46 020 015 089 043 000 000 -66 048 -11 122 -25 -47 017 016 -60 -55 -34 -29 058 -40 -53 051 -23 072 -10 025 024 -22 021 042 033 -04 -77 021 -27 093 005 057 021 
-32 049 068 013 -19 015 015 -57 024 -35 -47 -14 -08 075 -23 -25 050 038 053 033 -41 012 055 023 019 020 004 -11 029 018 -39 018 043 -36 -41 -27 019 036 022 017 -34 -11 -07 -02 060 -57 -27 -66 -65 -49 026 -17 027 030 006 -27 -53 004 -16 -40 012 -01 -52 -40 
015 009 -55 -54 055 035 009 -37 006 021 046 054 -26 -48 -41 046 -30 -31 037 -79 -32 032 015 006 009 -38 019 -70 -45 039 013 -02 -37 -57 -122 014 -52 012 -08 009 -40 -41 -36 091 087 -35 -08 045 047 022 -35 -80 -73 -45 047 010 045 064 -20 062 071 -01 -19 -10 
035 -35 -69 018 -39 -49 -18 -76 012 038 -33 044 -08 -24 -08 036 038 039 -50 058 -62 056 001 -42 -32 026 -16 -85 -36 019 -18 000 -41 -34 114 031 -80 029 006 -30 -30 -10 009 -04 -16 024 028 -61 -14 -41 -37 080 -51 -51 022 -12 001 004 025 -35 051 022 -35 047 
-12 -58 050 -49 -02 -34 064 -27 013 -01 036 -61 -21 039 012 -55 -48 047 -49 038 003 034 -59 040 049 053 -27 029 022 040 042 022 062 -09 036 -10 -37 044 041 043 -03 -24 037 -10 016 054 -57 -06 036 018 026 037 056 005 -33 033 004 049 027 080 089 -66 -65 -38 
-44 052 -12 003 033 -36 -54 -22 045 005 -40 -17 -33 -100 -36 039 003 -46 -31 048 046 039 046 034 -45 056 -19 -02 003 050 032 056 -24 -31 033 042 041 -05 045 029 050 033 012 -77 -44 -03 045 -50 078 006 005 071 024 025 052 002 031 -05 -39 057 073 036 -26 070 
-17 -50 -49 -15 -06 020 001 052 009 -38 -12 056 044 088 -43 061 029 035 -14 -33 043 060 -02 -47 008 068 029 -01 -18 013 -15 031 032 013 109 041 -16 046 -23 -39 -27 007 -03 -29 066 -30 029 -59 051 -48 -15 044 052 059 -47 -23 -09 008 -32 -26 -82 039 -19 026 
010 -24 010 023 050 052 015 -39 -27 023 -27 060 -40 098 013 000 020 018 -24 046 -21 -68 046 -22 -26 -36 -43 -06 -12 -37 -06 -28 009 032 -104 043 023 029 -39 008 021 032 033 -09 -56 008 -55 -62 033 -11 -09 009 -79 -18 -19 005 025 025 -09 -02 004 -36 -21 -18 
034 016 -39 011 062 047 003 -41 -15 016 -15 044 -17 067 054 -67 029 004 -55 -37 -64 -75 033 046 028 -65 -05 -31 -50 048 -52 -51 065 -27 -116 038 -75 000 024 016 029 028 047 -08 -33 -12 -41 011 040 -31 037 -60 -35 025 040 -18 004 024 019 070 062 -54 045 -43 
-39 006 067 044 -19 000 -24 055 -25 034 -05 -13 030 015 -23 059 050 025 017 -23 014 034 036 -21 -26 022 040 029 047 043 012 -08 -69 -37 -120 028 004 -25 -13 -01 000 024 015 040 041 -44 -45 060 -62 016 -23 079 -54 067 -08 037 -34 -03 -06 051 016 -63 001 -32 
-48 050 -07 -26 -36 052 062 -35 028 022 -02 -16 042 -17 -11 021 -05 -48 -47 -17 056 -37 059 -23 013 029 -32 021 -01 042 -22 -45 -13 -43 -07 -19 014 -22 013 -04 -54 -37 030 -58 -70 -57 -46 -01 -43 036 003 080 -81 049 024 -27 047 060 -29 056 051 -13 050 060 
019 046 074 -19 -42 022 -52 050 005 -02 -50 057 015 -17 -32 043 -29 029 -57 -59 000 012 -53 028 027 070 -21 -66 -06 003 026 006 018 020 -44 026 061 -07 -50 043 046 023 -48 079 -50 -43 019 059 -30 -49 -32 013 -43 -40 -14 -22 034 035 013 075 -76 007 -75 035 
004 -28 045 -40 043 050 037 025 009 041 059 -41 -28 -47 019 -03 -30 -16 -52 034 045 -28 014 -14 036 046 006 040 -11 024 005 -41 049 013 -20 -28 -83 -18 031 -02 051 -28 -39 -21 -03 034 023 -37 059 -51 -15 032 032 007 025 -39 -35 -25 -02 084 -75 045 -12 -55 
-47 -49 013 -33 009 000 -41 040 -04 047 -44 052 -31 -06 -10 061 039 -41 068 -24 -47 -71 -35 013 -01 008 010 -35 -26 -13 -24 070 -67 038 009 -07 051 008 038 042 012 -36 -47 060 007 -58 050 -48 029 023 024 -75 -70 000 -53 -07 001 -73 019 -80 072 014 060 056 
-34 052 055 015 017 -44 004 -32 038 -05 -63 -33 -44 -110 027 -14 044 035 -63 071 -28 -67 013 -25 -18 043 -24 -86 056 -51 -41 -17 001 008 -77 034 073 034 055 -23 -11 -42 -46 097 -03 -50 046 -09 -07 000 023 -90 051 057 058 -06 -54 -08 036 037 -03 -61 -40 012 
030 016 019 036 046 051 040 -67 -53 -29 -45 -08 043 -31 -49 060 006 021 -62 028 042 -33 054 039 -21 -58 022 042 046 042 -27 006 -60 047 126 033 019 013 -42 008 -43 029 -18 052 -38 029 -49 013 -22 013 002 082 -04 045 -60 013 049 013 -10 028 -35 020 019 -46 
-29 -21 026 053 -40 -15 -17 008 -35 -30 000 023 042 045 002 014 -29 052 022 -02 -23 -65 -10 -08 024 -24 -37 -35 -48 -46 030 009 -42 -50 117 -43 -44 007 041 -12 016 -26 013 -84 026 000 048 -51 -17 -28 022 088 -64 -58 059 010 -52 -18 -23 -01 006 -36 -09 -73 
041 007 -25 041 028 -55 011 -29 -14 -46 -03 -41 -50 099 -03 -18 038 -08 -70 045 -45 087 058 -11 009 -20 -13 010 -32 027 011 -60 052 -42 126 -27 -70 001 -08 021 -48 041 032 -79 -78 022 -46 008 -38 -45 012 069 -83 -62 -60 000 051 -40 033 063 004 -45 -69 -12 
040 -34 -35 007 051 -10 060 055 042 026 004 017 -19 090 -33 039 -41 035 -04 038 006 065 044 -01 039 048 -25 053 053 049 -42 002 -60 -40 -124 001 059 -13 -11 -42 036 028 034 -05 055 013 029 065 -10 027 020 -47 082 -29 -25 -41 -02 -41 025 -44 054 041 -23 003 
-11 -01 -71 032 -15 023 021 035 040 -15 055 -17 028 081 007 -19 -47 004 062 -36 016 064 028 -48 006 057 008 -24 025 -15 041 037 069 -42 -115 -21 -75 033 -15 -13 -39 013 -14 083 -47 -44 044 -41 -67 -10 008 003 000 -59 -50 -35 -07 -74 029 066 071 -52 061 -35 
-27 -54 -74 002 028 -32 031 -22 036 -36 044 037 -14 067 035 -53 039 028 -20 -54 -59 -11 054 -08 -34 048 -05 -19 -25 -43 016 -26 -78 -23 -03 -42 017 024 -24 -09 022 -16 020 -60 046 -60 -42 -43 -58 042 013 -15 -81 059 049 003 015 025 011 059 -65 -53 070 043 
-40 -37 -37 016 033 000 -36 -60 021 040 057 032 016 055 -41 036 002 -19 038 -36 013 064 008 -46 031 -59 012 036 006 003 -41 -62 015 020 033 -01 002 -47 047 -46 -41 -21 -03 089 -61 007 023 -53 -67 -34 006 -49 -61 061 030 020 -43 066 030 -83 015 -35 066 -53 
043 000 003 -45 039 047 064 -08 022 -11 -27 058 002 -91 052 -10 -28 -29 042 041 -38 027 -63 005 027 062 -13 -10 057 038 -01 -36 -76 -46 -80 -05 -50 -44 -07 012 037 019 034 -79 014 -03 004 064 -78 -19 -11 -88 029 -29 -59 -41 022 062 026 -38 -57 052 047 -53 
-14 045 042 051 026 004 -02 057 009 007 -05 -46 -35 -77 001 041 005 041 -20 -20 040 031 -08 006 045 035 -40 078 -46 050 041 -35 -34 017 -05 017 -77 -17 044 -46 -15 -18 -29 064 -63 -11 018 -72 -77 -27 026 -60 004 001 -32 -15 -54 -46 034 048 -37 043 056 003 
005 026 -34 051 -36 023 -28 -46 033 015 015 043 -21 -65 -38 -65 -10 -22 -45 040 -56 089 -42 018 000 056 008 -06 043 043 -17 014 -64 031 011 -22 001 025 -57 -08 036 029 034 010 045 -59 -57 -51 015 -05 009 049 073 -12 -21 -31 021 037 016 011 -02 -19 071 057 
037 -27 -48 016 -54 043 004 -02 046 -03 032 011 012 056 019 -01 -44 041 -57 -29 -46 -14 -67 019 -44 015 -33 073 -54 033 037 072 006 043 -112 003 -76 042 002 056 -18 -07 018 -103 -42 -22 -22 030 060 002 007 047 -78 -06 040 028 043 059 -32 014 -44 -26 072 -59 
-48 043 -37 020 -12 -37 009 -74 023 -25 011 043 -41 010 027 021 026 027 -59 -56 -42 -38 060 033 037 -18 024 034 -45 -24 028 -08 -08 014 093 -49 013 -06 044 035 -07 -41 -46 045 031 -36 045 028 044 -04 -21 -72 072 042 037 -21 -06 -64 015 011 048 -33 -54 057 
-37 041 015 004 -32 -49 042 -61 -24 044 -62 -47 044 017 046 -44 -33 052 043 -11 028 -65 -01 -15 022 -52 -33 -43 -41 -48 033 058 003 019 126 -40 005 019 053 011 -01 006 004 -62 -27 -38 -21 025 -54 003 -39 014 -45 029 053 -38 013 -06 -03 065 005 011 -35 055 
042 043 069 -24 045 050 -43 -23 -11 -27 053 059 -53 -08 -36 -15 -28 009 006 028 -59 -83 -38 -18 014 061 040 063 043 041 -48 044 -79 030 -89 043 -54 -06 047 -51 033 -02 -19 -81 043 -33 -30 053 055 009 032 085 054 -05 034 019 -54 050 -26 -51 018 052 -40 063 
-46 -40 -45 035 -36 -37 013 -01 -38 -23 -36 -08 012 -110 -36 -25 -41 -57 042 -28 -54 -43 009 -28 -17 -70 033 -44 037 039 041 007 006 046 -14 038 013 027 -53 002 053 013 -43 -67 -47 012 -22 -43 -21 -23 034 -63 040 -01 -53 045 -29 -71 028 -77 072 018 -71 062 
-47 029 030 -31 -42 043 -63 027 009 -39 -30 019 -30 064 007 -20 006 029 060 -04 -43 067 -53 004 -04 -48 -22 -88 -31 -07 -26 039 034 043 -103 020 043 041 012 023 -15 013 003 -72 -07 010 013 -28 -50 -47 -24 -30 031 -51 -40 -35 032 -45 -32 -09 084 -31 -40 062 
-14 048 -32 -52 -03 052 -06 -16 031 -37 013 045 042 029 018 -54 -05 -02 052 -11 020 002 -16 -08 -28 -72 -34 001 -21 042 -14 -47 -59 029 049 001 019 046 052 034 030 036 -51 -59 023 -44 -13 -39 -77 -30 039 067 -63 -44 015 004 013 -06 032 029 034 -64 -31 015 
048 -39 056 027 -06 004 -23 011 -40 046 035 -08 -08 009 -52 -66 -41 015 -26 -26 042 080 028 -12 022 022 -18 -75 -44 -21 038 -12 021 020 124 -14 037 -09 -03 046 -50 -27 016 -67 -06 -45 013 046 -58 014 002 -86 -28 029 043 016 004 -01 -39 -76 -15 061 -47 -45 
047 021 075 051 -04 012 019 -67 -02 018 -62 007 039 077 -39 -46 036 006 052 061 057 065 -66 003 -13 -68 007 090 -15 026 046 -46 074 023 099 032 -62 -29 045 011 032 007 -53 -91 -65 -34 -01 069 -34 -02 012 048 -41 -41 -12 -24 -38 -14 -23 018 091 -15 -79 -19 
017 030 061 -04 035 029 058 -76 -20 025 -44 006 047 086 -15 -57 001 039 -50 009 037 037 016 -36 -22 -57 -05 -69 -42 038 -08 051 -73 -04 098 -44 -80 -41 049 014 001 012 -01 005 068 -45 009 038 -69 -23 002 -37 002 033 039 -11 011 -63 -22 -53 -06 052 -39 030 
033 030 -43 -45 -12 -13 033 002 026 014 -39 027 052 025 052 046 -10 014 045 047 026 069 063 021 -15 -05 -15 -45 -16 028 036 -11 -07 017 087 -49 -78 -38 022 -28 003 -26 -12 085 032 -36 -14 -58 009 -42 027 023 -17 -63 050 -27 -46 -13 -07 060 -39 033 -20 007 
-52 053 -79 -38 046 -38 -17 -51 048 -39 020 -69 -11 -101 -25 -19 -10 -46 -73 060 -33 044 -18 010 029 030 -34 -37 -04 -20 -40 -54 062 -38 -113 -33 -16 -50 -28 009 -49 -02 035 087 -30 -11 001 -10 -47 -16 029 056 -05 -54 054 044 -45 033 -22 064 027 -02 -04 -61 
048 -46 030 036 046 -32 -07 061 -23 -03 018 -04 012 042 -52 -48 -28 048 016 006 046 021 -65 010 -33 -27 -36 024 051 000 -10 -57 036 -29 -100 -47 -03 -05 023 -12 -47 006 -03 093 -61 005 036 054 049 043 030 -88 -70 -14 -45 -26 -20 -54 020 -26 041 -37 -72 -41 
-43 -01 -47 -02 053 -11 013 -76 002 -20 043 000 031 -55 030 006 -24 022 -32 058 -35 035 -68 -38 006 061 014 -12 012 049 007 045 057 030 -66 035 069 -24 052 023 -01 000 -35 -61 -71 046 043 052 056 -33 030 038 034 -05 028 -42 -09 019 -12 -48 030 005 -33 000 
-36 036 070 -41 -28 -51 047 -76 -43 -38 025 -47 044 -101 -40 -66 -15 043 -39 -45 -30 020 -35 -24 019 -38 -07 -29 043 007 -35 055 045 -52 -41 -06 -74 -39 026 046 046 -22 -29 -52 083 024 048 -73 040 -22 029 018 069 031 015 -15 018 076 000 -18 -48 -29 -15 020 
035 044 009 -18 048 043 -55 -05 -32 -17 045 016 -04 -97 047 -32 009 000 -45 -25 004 069 -41 043 015 021 033 077 -58 035 -25 -45 -31 -22 056 037 -21 029 002 041 000 -39 040 -65 -58 -63 -35 -75 -08 037 -35 070 026 -28 -19 025 -04 021 017 -56 040 -16 043 005 
022 -15 019 -33 -28 021 -64 024 -46 -19 -38 -12 044 076 007 048 007 -22 029 012 056 -50 048 030 025 -39 028 004 -45 -22 -02 012 -57 040 -125 031 033 -35 025 -16 -05 -20 -54 024 -27 -38 -54 -05 061 -46 008 031 054 046 062 -27 -42 060 031 062 -59 013 -60 -04 
-32 -45 -52 019 -39 -14 049 074 -12 -26 007 -24 -02 066 -33 028 067 -16 064 -57 -19 -69 -45 033 006 024 -29 082 -47 045 -43 -09 -79 047 052 046 020 -36 014 010 028 -25 -57 -98 -25 046 -62 -56 -82 -51 -40 110 -49 -51 -01 -19 -03 075 -34 -77 -93 010 003 -01 
-38 001 021 -18 -40 032 057 068 -15 -41 046 -26 017 058 029 -39 022 001 020 -48 -12 022 023 -50 005 -11 -38 -57 -52 015 008 045 028 -06 -127 015 -12 -51 050 -32 -31 -20 -26 -79 032 033 -23 022 047 -49 -07 -63 046 059 013 001 025 078 026 082 -64 -30 -04 -31 
035 010 064 019 -13 -18 047 -43 -35 -03 -26 -35 -22 088 -49 019 -26 021 -26 049 012 033 -17 -14 011 053 021 054 015 014 -12 -17 -11 -36 -113 002 038 000 036 016 -21 015 -40 -43 -25 046 031 018 -35 -07 014 053 056 -50 053 -13 -51 -70 -25 -20 -48 004 052 019 
009 -33 -54 -46 017 -49 -55 -70 -37 010 037 -22 027 -02 047 037 039 046 068 -04 040 040 -47 -41 021 -28 -13 -79 032 -06 030 054 -06 026 -123 051 -06 041 032 -39 052 -14 -42 054 065 044 -05 -85 035 018 025 035 003 -07 -12 028 039 047 -29 050 -82 -32 042 -18 
-08 -03 -52 -10 -24 012 -30 -37 -14 -18 010 -51 016 082 002 -19 031 -10 -30 -57 026 -22 -71 -17 021 -51 027 -59 -57 014 029 035 -25 033 037 005 -65 015 019 052 -28 019 001 -40 026 -32 -53 -43 -46 -01 -18 -28 -06 002 050 -28 -39 045 034 -38 -68 -69 -12 -74 
018 -17 -62 -07 036 052 039 072 -20 041 -39 -34 -08 -63 045 -22 041 031 057 -12 040 -49 006 -43 014 026 -44 -23 -44 039 033 043 -24 -37 058 -42 -29 -42 -14 -32 -15 011 033 031 056 042 -37 -50 022 013 038 049 -18 -30 -25 -17 -19 005 042 -72 033 056 027 -22 
010 -23 -62 039 -07 050 025 -44 043 036 -59 -53 038 -20 005 033 010 -29 031 038 028 -43 047 041 014 -73 -13 -32 053 032 027 -16 035 026 -120 -08 -68 050 -44 033 -10 -34 -24 025 -64 050 -22 013 004 -49 032 032 -44 049 -30 002 000 050 -23 -52 -63 -33 049 063 
018 -22 -39 -12 015 026 034 -77 -43 -24 025 -61 -14 -79 -38 -65 006 -05 031 020 036 -67 047 -44 029 -57 017 087 -20 -14 039 -37 044 -03 091 037 -38 -06 -13 -50 -11 025 029 052 061 037 018 016 027 050 -33 -30 -76 029 -49 -40 -34 -04 020 005 019 021 052 -17 
-18 009 000 -26 012 -24 -51 043 -52 -15 -33 -14 -51 -84 013 -58 -21 -45 031 -12 -02 -51 060 -38 025 045 -14 008 010 018 -42 -46 -51 049 -59 -13 049 055 -51 -22 016 -30 -48 031 064 060 -53 015 004 -47 024 055 084 -64 -48 043 -03 006 013 045 -90 015 -67 033 
-02 -36 -15 007 060 -54 -62 049 -52 040 039 002 004 030 -05 035 -04 015 -72 017 004 087 053 033 017 -57 029 -78 053 -52 023 -53 -77 037 -50 -26 -48 020 -53 -13 -16 -39 049 060 -59 -51 056 019 -19 023 027 -84 -48 046 -35 -06 051 025 029 063 076 055 -38 -13 
004 -56 012 013 -47 017 -03 047 -53 -42 -17 -33 -37 095 -07 026 -07 -45 002 -10 016 038 021 044 011 -68 -12 -88 -65 011 -14 -64 013 004 113 -47 043 -05 021 -51 -10 -24 -24 -74 -70 036 004 073 050 020 033 -26 087 -50 -06 003 033 -71 041 -64 074 028 067 -58 
027 002 045 019 067 013 -54 -81 -47 042 019 -54 015 -94 050 045 -41 -51 001 017 035 041 012 029 015 046 034 -53 061 040 -43 014 -42 050 -76 015 034 009 -67 033 001 011 002 -68 -14 -27 -17 072 005 -03 012 -03 -52 018 -37 035 034 -17 006 039 076 -05 -44 031 
015 -36 013 -39 010 050 -56 043 -41 048 019 -56 051 -76 044 059 037 027 -09 -43 -41 -78 -04 014 005 -70 -40 -42 048 027 -41 -29 015 042 114 -45 045 -08 035 037 055 -40 -56 087 084 049 -56 010 -36 -45 030 -20 -79 026 -34 010 001 -16 042 -33 -18 -51 -46 035 
022 -37 075 -50 -38 -08 -44 034 -19 -47 -22 013 044 -95 037 022 011 -04 -63 -53 -08 063 034 047 029 -18 018 -84 -27 -27 009 060 020 038 019 -08 027 008 -01 019 046 025 014 038 -68 001 040 -66 -08 048 024 -38 -25 043 055 -21 035 063 -32 -15 -16 -47 -02 030 
037 054 -31 -01 -47 028 -04 -69 010 007 -39 -03 -15 -15 -12 -34 039 043 -41 044 040 033 066 -41 -06 -34 017 029 032 -01 -48 026 -68 -07 122 -52 076 031 -50 -31 -14 -37 002 043 051 020 -39 040 013 -37 -04 -35 -74 -48 009 004 -17 -02 018 -36 066 058 -30 -33 
010 -07 -51 035 -41 -50 -25 -05 000 034 -47 -29 -03 -43 -43 034 -17 025 022 -41 -17 -15 -63 -42 004 -40 -46 -23 000 -48 -30 -49 036 037 040 -20 079 -13 -40 -47 -34 -26 003 -06 007 -34 -35 -56 -52 000 -20 040 -86 044 058 032 -31 040 024 -78 -03 -39 -26 059 
-50 -19 058 -27 -17 -17 007 037 -35 016 -24 013 011 044 -19 041 005 -45 010 -23 036 003 054 -24 036 -11 -21 -40 -14 025 -41 -39 030 024 -114 007 -66 021 029 001 -28 016 -52 -33 -57 012 -12 -29 031 026 017 097 -73 -53 002 -13 048 -85 006 024 063 -62 056 014 
045 045 -45 029 -51 037 033 061 048 -25 044 050 -33 -72 003 -07 015 019 -42 025 -45 -29 -06 -17 040 047 021 052 036 -36 029 043 008 -13 -65 -43 -80 -17 003 022 011 -28 -37 019 044 -44 -16 -75 -50 -30 -20 042 -71 -40 -08 027 -22 048 032 -26 084 -62 -42 030 
-03 024 037 008 -50 -17 000 -53 -27 -18 -11 056 -45 -46 -08 019 042 026 023 021 -63 -28 -39 016 -43 -47 019 -64 -52 -05 015 007 075 -11 -91 032 -51 -40 -20 -29 043 -11 -49 -82 -50 010 -13 044 000 -31 008 -80 -71 015 043 -19 037 -53 002 -49 017 052 -30 -16 
-49 -27 039 -17 052 -63 -53 021 038 -34 -15 016 037 006 031 -03 053 -56 -78 039 -47 080 -19 031 013 037 -29 063 030 -45 019 -74 -76 -41 -125 023 041 -08 049 -19 -34 -16 -44 013 030 -40 -42 040 -25 042 -33 -70 072 003 -10 -41 -25 070 026 046 -48 -14 006 020 
012 -23 051 -38 010 002 020 063 -51 004 030 -34 -47 010 048 -23 019 018 006 026 054 072 003 038 -03 004 -32 -60 -56 044 043 -24 056 003 106 -39 045 -36 -49 -03 -35 -31 -55 026 -23 023 038 -72 -61 -31 -40 084 -11 -33 -12 013 -49 005 -18 074 -29 -48 -16 -13 
-05 -51 008 -36 -03 038 -34 -14 -09 -08 042 059 -03 094 036 -68 041 053 -44 053 055 061 019 -44 -28 -46 015 -74 040 043 039 -11 -07 034 -110 -35 -50 -02 028 026 034 -12 -24 -50 -43 -61 052 066 021 013 -25 051 071 042 -46 002 -42 -29 -24 053 -53 -55 -43 -73 
004 -25 -67 012 -06 006 002 039 -49 -35 017 002 003 -68 029 009 -17 027 -06 -32 011 -36 035 -31 -32 043 006 -33 000 043 -34 -05 -44 046 -98 -37 000 -33 -10 033 -04 030 036 -16 035 -42 -23 -25 -60 002 038 -63 -73 062 -52 -18 -06 -67 -36 005 019 -12 -11 -72 
012 -24 042 -46 -39 041 -30 036 -34 022 -26 020 -17 -34 006 058 -12 046 031 -25 052 -24 -15 -51 004 -02 023 102 -18 049 048 -17 005 -26 -86 -36 029 -03 -03 040 -17 039 027 058 -34 -46 037 035 006 -42 035 077 -39 005 012 021 -07 -15 -11 077 -14 -49 040 051 
021 -57 -22 003 039 -29 039 -58 047 -04 006 016 -44 079 003 049 -28 019 -39 -32 024 -65 -65 048 043 049 039 016 -19 028 026 050 -20 037 -95 029 -04 -38 044 -52 -28 008 -41 -57 030 053 -39 045 -77 -37 034 -61 085 -67 -19 -12 043 076 -35 -31 -24 040 010 -19 
031 029 -47 -28 042 046 -27 -40 034 022 005 038 040 096 036 -67 050 -15 -15 048 -15 -42 021 -08 042 007 039 -62 -01 -49 011 002 071 -38 023 -41 -53 -34 -49 002 -32 -13 002 -77 018 038 010 -47 -15 037 023 -60 -35 -49 057 030 001 010 011 -34 -48 -21 -06 041 
009 047 -46 002 051 -07 -32 044 006 002 002 019 -51 015 007 -48 -08 034 023 -31 -20 071 032 043 -15 015 016 -80 011 019 -34 049 044 045 054 -33 020 040 029 -03 -39 -39 033 -52 -68 043 054 043 -18 030 -24 -70 -66 036 -65 -06 -13 -49 018 058 -63 -50 -64 -03 
-31 -42 -58 -20 -17 -57 -32 024 014 030 023 -61 044 -47 019 044 034 028 044 -52 005 065 -69 013 027 -02 -05 083 -08 -06 043 049 -66 047 -78 -03 -68 -11 031 -46 055 032 024 -80 053 -04 -46 038 -02 -42 009 037 -50 005 -54 -41 -08 075 -35 -62 -03 -60 063 -04 
009 032 -77 -52 -33 -18 030 024 -54 -26 -23 -49 -40 -01 -10 055 020 050 -56 -13 046 029 -14 031 002 -59 -11 029 -34 027 -25 005 -15 -06 041 014 -07 -43 043 -20 -50 029 -46 084 -74 041 -56 -13 -63 001 023 -55 002 -51 -38 -21 -20 -23 036 001 050 -16 -39 011 
-17 -21 -70 042 032 034 -12 049 -34 029 021 003 -13 -62 -52 -02 014 -39 -57 -14 055 -19 -21 -49 005 046 -08 052 -18 -20 013 -39 049 011 -126 036 -04 007 -24 046 012 004 -15 -09 068 048 -13 016 -23 -05 020 040 -87 -59 050 004 -54 -43 -04 050 085 000 -40 056 
024 022 -74 007 024 -23 062 070 -15 -14 057 057 -04 043 043 023 040 011 -06 -47 -40 062 -66 -08 -32 -29 034 037 048 027 -26 -54 -25 038 -71 -27 005 -26 -52 044 041 -04 032 -75 047 046 -50 -22 -15 -40 030 -72 009 015 -37 -07 027 -13 -20 -06 008 -64 029 -30 
034 014 009 -53 -28 041 054 -45 023 -40 022 -44 -07 001 -13 019 044 -26 004 -12 017 -05 040 -42 023 -62 -23 078 -10 048 -45 034 051 002 124 041 050 -05 013 -14 -21 010 037 -31 -21 -42 -29 -36 076 -24 025 -41 -73 -46 -63 -12 -57 079 015 080 066 -42 -75 -18 
-13 -56 007 038 -06 003 -17 021 032 030 -33 -06 001 -17 025 -37 -32 -47 045 -58 -58 -68 -66 011 -19 -26 020 082 025 -31 006 038 048 025 002 -29 034 041 -10 028 055 016 036 -44 -59 -50 -40 021 -66 025 006 055 -71 -15 019 -39 052 -68 040 -67 062 -39 053 -31 
-27 -54 -49 -21 014 025 010 014 002 042 -57 -37 011 088 020 -50 -12 -02 -48 042 045 036 -61 -30 -18 -34 -23 -43 -02 -19 -32 002 -10 021 009 -27 -30 -28 -23 049 017 -20 -37 088 -54 001 003 -30 -60 -24 -34 -73 -32 014 062 040 014 -27 -39 -59 -15 -49 041 009 
-14 -34 -65 043 -17 000 -57 069 -52 -47 -44 060 049 085 -45 043 -24 -20 -67 -13 -49 020 -51 014 022 -01 -08 -41 038 -25 -28 -40 -07 -11 078 -11 -67 -22 -46 -14 -35 032 021 064 -44 060 -52 -54 -60 -36 032 -02 -05 000 044 021 -34 042 018 074 -64 040 042 005 
034 -26 041 -51 -40 -36 060 074 -02 020 002 -50 -46 -83 014 026 023 -08 -47 026 020 -09 -04 008 -04 -30 -30 056 002 -26 -09 -19 -11 030 -92 -11 -70 -54 -30 -44 044 033 -53 -34 -15 -55 -21 -56 -49 -08 -33 100 002 040 -47 -23 013 -82 -17 081 006 044 -16 -42 
-11 021 040 -28 -09 003 -34 036 -23 -07 035 -49 -08 -97 -39 046 038 028 -54 -19 -34 -09 -05 012 -19 -12 012 -54 031 -53 006 010 -52 -11 -122 047 003 030 -51 -02 -38 008 -49 046 -71 044 -16 023 -35 -05 000 -51 064 -46 045 019 012 -04 026 -42 -38 -36 -64 -29 
-32 -28 019 -39 040 -28 -58 006 033 040 -37 -48 028 -36 -49 -32 029 037 029 063 -70 -69 003 037 007 -46 015 -86 046 -01 045 018 011 -11 -111 -40 064 032 -28 -27 -55 -03 022 008 -23 -59 -60 046 042 -30 002 035 -62 -36 001 -31 060 -22 -02 006 025 002 -38 -11 
-37 012 065 009 020 041 -51 011 036 -04 010 -01 -19 020 -46 020 -11 046 -05 -17 053 009 045 011 -03 055 -10 062 -19 -32 017 055 -47 -43 054 -39 -37 028 -28 015 -20 -17 017 -86 063 016 -25 -52 -27 039 004 -41 -89 065 -44 -24 -27 004 -34 067 -45 004 003 006 
028 040 -16 -21 -29 035 -10 -79 -21 039 020 -20 -09 081 -03 001 030 024 -30 -01 -60 017 062 -40 -47 -14 032 -10 054 002 -49 -18 056 009 -106 -09 -71 009 -44 022 013 -25 -56 -100 -57 -53 -24 -43 -12 037 013 053 -60 054 -10 -35 -20 -34 023 -70 077 -12 029 012 
-14 051 049 051 050 -56 053 -35 019 004 052 -23 -53 090 -37 -08 021 049 -62 006 011 074 041 039 -11 -38 -01 -53 051 025 -52 -03 019 -41 018 027 -50 -12 015 011 002 030 -42 -78 047 058 -45 -22 076 -06 -05 -26 030 063 017 -05 -53 -55 026 -78 085 -05 -07 019 
019 -13 058 048 -27 026 010 -12 030 -43 -33 029 -07 013 -38 -60 000 044 -42 021 -56 -66 -11 -47 042 048 -01 015 -25 033 040 -47 074 024 -124 040 058 019 025 022 037 -11 -38 075 066 044 001 025 062 045 -12 030 -05 -09 -39 -19 -13 -56 000 -54 -32 -38 050 -56 
-38 052 074 006 -07 046 -56 008 054 031 -58 056 028 -86 004 036 -28 -05 013 033 046 -34 -62 -15 030 034 007 034 -45 -40 -36 -16 -33 013 -117 008 -48 048 -15 034 044 010 006 -54 -52 -51 -43 -46 073 054 014 079 -64 061 034 -15 -27 -06 021 -22 067 008 -03 -60 
-49 -20 066 -53 052 -55 022 -64 -34 047 043 -64 036 -90 -34 -18 021 -21 068 -31 061 -48 -62 008 035 066 -20 -35 -41 -34 -35 -45 -70 -20 081 029 003 -45 030 -34 -09 -12 011 070 077 -27 005 -25 023 010 -11 -07 -38 017 023 -40 -41 043 -25 -72 -83 058 -62 -46 
