113 -82 054 -59 117 -39 117 117 114 039 -107 069 -90 060 -128 117 -115 -94 -06 101 112 107 -121 110 092 112 -104 103 -97 123 -71 -106 -118 110 071 093 -103 084 -28 057 -05 -105 048 116 118 004 118 -100 -120 108 112 -108 094 107 -47 -23 -125 024 104 015 114 095 115 109 
098 -102 -108 092 111 -43 -99 -115 -105 115 098 085 091 002 -116 077 109 118 073 -104 -105 -117 -117 -82 114 044 -14 117 103 113 119 -64 -96 107 116 119 116 001 113 102 109 108 093 113 110 -86 100 -05 114 090 -90 112 118 113 -115 -105 123 116 -103 -116 111 109 -82 -99 
095 117 -120 -96 -80 -114 110 -118 073 063 093 123 111 -76 -74 074 -117 108 102 -90 113 111 086 -116 -113 107 119 047 105 107 -93 110 -118 -75 103 119 -116 068 104 -96 -89 084 106 -86 095 080 119 101 107 113 -64 064 118 -109 -95 -32 -102 -30 -98 -119 113 119 -113 102 
110 114 119 118 095 -114 106 -97 -118 113 107 095 -123 -102 099 -120 085 121 114 109 -98 082 049 088 031 114 076 121 -118 094 104 -92 093 -103 093 -70 -93 114 114 109 115 -59 -100 117 110 117 078 104 -114 117 -101 087 105 104 105 121 109 -99 -117 -66 103 110 -33 112 
