107 -111 -21 -84 -83 -74 -57 004 060 -79 -74 -80 -13 100 017 098 -107 088 068 074 102 067 -102 110 097 -100 016 060 090 106 082 086 -95 110 039 -111 098 112 -42 102 103 071 064 -102 -91 -81 -100 -91 111 -96 -37 -93 087 -105 -65 112 077 008 -52 056 095 -100 108 061 
-97 -103 -113 091 -89 -84 -78 105 -98 -112 062 107 110 002 -65 -98 089 106 095 090 088 -83 097 -82 -64 -64 004 094 060 -89 094 -94 084 075 093 014 -39 071 090 106 -114 011 -82 -21 098 -59 073 059 106 083 -103 -90 -94 088 -102 110 091 -126 082 -05 087 -63 -85 -113 
-71 -120 100 -97 -84 073 -101 101 090 096 103 093 060 084 -111 -108 -46 004 018 037 065 018 096 101 099 -88 106 -76 -108 -14 012 -100 028 -108 048 -93 109 079 -100 097 -82 -108 055 087 -80 -101 095 -91 104 110 -98 -16 052 -48 111 094 -94 099 061 100 -66 -57 110 -57 
093 -96 063 -109 075 111 105 -99 106 101 063 109 093 -68 094 097 -111 -95 -102 104 -113 -81 -83 109 -57 -110 051 008 093 092 032 109 -73 045 -93 091 -107 096 089 -04 084 100 106 073 -86 -109 083 -67 090 -98 -120 101 058 -45 077 -90 096 086 019 057 -109 045 059 081 
073 -35 099 -104 -42 090 -98 096 007 -48 -98 100 -88 020 118 -106 101 -110 105 113 039 048 064 100 -100 022 100 050 -75 105 050 077 -97 095 109 057 -122 066 -120 -79 104 106 -72 -122 -104 053 106 069 062 065 101 -42 084 -73 087 112 100 -100 -113 -81 099 068 095 072 
107 031 -104 050 -110 110 051 083 080 -105 -96 074 094 092 -87 -27 107 103 106 106 078 058 -95 056 -116 -16 -64 -116 082 -97 096 087 -106 -82 060 099 082 -92 121 083 -06 -111 110 -128 117 081 077 -100 100 010 106 086 084 066 109 085 -108 051 038 -114 069 060 -90 -91 
055 056 103 -41 082 -41 109 -81 107 -105 -91 095 089 -25 111 -126 -107 -99 097 102 -22 043 091 098 052 031 119 093 110 -91 067 102 008 -94 062 086 104 067 060 -127 -110 104 098 104 116 -25 -109 -63 020 -94 092 -74 089 086 -107 076 -49 -32 -99 -101 -94 -60 -111 106 
-54 089 080 -41 067 100 -100 058 091 061 108 053 077 -83 103 097 -57 069 050 088 112 080 066 -113 -35 -97 -109 091 -61 -86 -07 086 -29 -68 -101 -87 -110 077 103 -08 088 -100 -63 -122 -101 099 076 104 061 -110 -91 097 118 -83 105 075 -08 098 022 068 -103 -81 -118 099 
