126 112 -43 062 -102 -34 120 -13 116 121 093 -128 -125 025 -128 -128 -128 126 121 118 122 126 -128 117 079 119 -128 121 -107 -119 -101 123 -117 -13 123 012 -117 -125 079 039 -73 070 -107 118 -120 -75 -97 -104 119 109 -06 -128 -90 -75 123 -128 059 121 -127 068 -117 -06 126 113 
-128 -114 -85 081 067 -101 126 -76 123 114 126 -128 126 -103 -127 092 -120 035 -122 122 126 -128 126 093 104 074 063 -128 -23 098 -123 -127 096 -66 126 -74 022 -122 -90 109 120 -123 -47 115 -122 069 -84 -118 125 -95 -92 -111 -38 -85 -104 -128 -126 -111 -67 113 -62 113 126 -125 
-128 -122 103 -62 106 -11 126 098 -123 -08 123 126 -117 -54 072 -128 126 126 -128 -123 -125 126 -34 126 013 117 -72 124 -51 126 124 126 -48 013 -105 -101 089 -108 093 -26 118 -116 082 -75 124 023 -07 -98 124 -11 -126 -128 077 -69 058 -128 -106 -126 -54 -116 121 -32 126 -128 
-128 -114 031 035 094 117 -69 028 -128 -128 082 -115 126 125 -127 -112 -128 -128 126 -124 056 126 092 090 022 024 -123 -128 114 124 -121 109 -106 107 -128 052 -94 070 107 096 052 114 078 -53 -40 023 100 089 -102 -45 -102 -128 027 091 112 -72 126 -87 -113 019 -128 -109 126 -100 
124 120 -52 -73 -121 -93 -128 -110 122 053 -52 -128 125 119 126 118 -128 126 126 109 094 -13 -128 126 -04 083 -31 125 072 -79 -121 -128 011 -83 125 -64 -113 104 -81 028 -116 -117 -67 -77 087 093 -85 -105 -128 042 064 118 -05 -110 115 -39 -73 088 118 -63 -128 096 126 126 
086 097 -111 -36 117 002 126 088 -128 126 122 -126 -18 046 -128 -128 -61 -128 -127 121 007 070 104 -67 107 125 -09 126 045 084 -70 126 069 -111 120 095 106 -47 -33 -09 058 120 117 003 126 -14 021 -112 126 074 -45 121 008 115 -22 126 -64 081 -91 -92 126 053 -127 056 
088 105 101 -88 -120 -75 022 117 123 -128 -128 126 126 -31 -59 112 063 126 -128 106 126 126 045 -127 109 125 126 126 -122 -98 124 126 -115 112 126 091 080 043 043 -115 049 -124 -58 -118 -58 -95 -103 -79 114 105 089 028 -24 084 089 -128 087 119 -125 -72 126 004 -11 -112 
098 -106 -115 114 -117 -90 -83 107 -124 126 086 086 126 074 126 -70 126 -128 -100 -125 126 -81 126 119 091 095 126 -128 -83 -128 081 -122 -106 122 -124 057 059 -116 096 -100 -81 -105 044 112 -128 -107 081 008 -120 025 119 -128 041 115 125 126 -113 119 057 103 -120 -119 -128 -74 
-102 -53 -35 035 120 -78 099 121 -122 118 -128 073 -92 -127 124 125 093 064 -128 124 -128 -128 -120 -116 -111 -127 060 118 014 -84 118 -111 076 092 126 042 113 -126 079 048 -116 -122 098 -84 125 117 004 -105 126 002 -13 -127 055 -102 -117 126 -128 055 -58 -107 -128 -33 -127 096 
-128 070 -84 075 -78 -104 106 -126 125 125 060 122 -126 -124 123 111 107 -128 123 125 -128 -127 -128 126 083 -123 -128 -01 111 -121 -123 121 -101 089 -122 -63 032 -49 -80 -29 076 -122 117 -120 -89 -118 -32 -50 -128 031 015 125 -66 109 116 115 125 -120 114 080 126 -100 -127 118 
120 -72 -85 016 -42 -77 126 -97 -117 126 -37 -19 122 -108 -128 -122 115 126 124 -128 126 -119 126 -127 064 -31 -125 -107 058 -126 -123 -128 099 089 -07 -92 -73 -45 -70 -74 -114 -122 -124 -121 -32 092 -26 -117 126 -91 -95 126 -37 -111 125 121 -115 -97 125 087 -40 -89 119 093 
007 089 097 -98 125 002 -128 -44 -126 113 -124 -128 119 124 -102 124 126 124 -128 126 -128 126 104 -128 089 -118 119 -127 096 -119 -58 126 067 077 -128 033 097 -38 -111 098 -44 123 -95 -98 -128 -03 -87 -50 -51 105 124 126 064 -116 -22 -121 113 -127 116 -97 -121 -34 -75 126 
126 122 -70 067 105 -123 -120 104 125 -48 -45 126 059 -118 123 126 -49 -128 097 123 125 -113 043 126 060 -123 116 -128 -07 -128 -32 126 094 121 126 094 -120 105 028 -61 117 -94 -107 117 126 -17 -87 106 -124 -104 035 126 -35 -67 105 -106 -128 012 126 114 126 -95 055 -128 
-128 047 021 112 -127 -120 032 031 -128 -128 108 -121 -78 -120 -06 126 -120 -128 -61 -128 126 031 -02 124 059 109 126 -40 082 121 105 -66 115 -28 039 090 -14 -126 019 -107 -92 125 -26 -37 034 -105 -112 -119 126 -110 -32 125 -65 019 124 089 125 121 -06 -45 -56 -27 -128 -126 
001 -103 113 -114 104 120 076 -106 -128 -16 -117 126 -128 -42 -128 126 126 -128 -128 026 126 -128 126 -128 090 -125 -127 102 -83 125 -125 -127 060 -125 126 -55 -26 123 023 -38 108 -88 -120 -119 -127 -69 117 110 -89 070 123 -127 -92 -81 -118 126 097 117 -128 107 -127 073 -128 -128 
126 009 036 -84 110 -14 -125 115 123 -124 -109 -122 126 -101 126 124 -128 126 -126 -126 126 -124 -126 -125 101 -115 -123 -128 -120 125 113 -122 106 122 124 037 -21 -81 100 011 049 108 -108 -121 -127 -86 103 089 -111 088 -127 126 -92 -23 124 126 124 033 117 -107 -125 089 -121 119 
125 106 -107 -84 -126 -98 -124 -99 126 -90 -85 -112 126 -37 122 121 -127 -126 -128 -37 -125 -127 -126 126 082 123 -120 -128 085 -119 -101 123 070 059 111 081 -111 -78 -101 093 023 092 -100 -70 -127 -52 -20 -65 -125 100 125 -125 087 -35 -123 091 126 -91 -128 -114 -127 -67 117 -125 
-110 -105 -101 070 -22 -92 -128 108 113 -128 116 123 -128 -17 116 076 120 105 121 125 125 124 037 122 043 125 -61 111 106 -28 -106 120 -105 121 126 -99 -104 -62 078 078 -112 110 115 -12 -125 -115 013 114 126 083 -98 -128 010 -78 106 -112 -128 121 125 -78 -126 -79 -115 091 
-128 121 -96 -104 -108 083 125 -98 -128 126 -117 126 123 029 126 126 -127 -119 126 123 123 117 -128 -28 -111 -64 123 -128 061 126 -124 -128 083 -70 126 001 -12 105 071 116 -92 111 -20 038 -68 034 -33 015 120 050 049 126 050 073 -117 126 126 -07 -122 -48 -128 -97 126 -125 
-128 -119 030 -11 043 -13 124 -112 -126 109 046 124 -128 -127 050 121 -44 126 -115 -128 126 126 -127 124 -80 117 114 -121 -109 -126 118 -128 006 047 126 -85 074 086 091 065 -116 114 -125 -75 -68 083 -107 -87 119 018 -112 -125 -85 076 124 126 -113 125 123 -15 092 079 -123 122 
-119 -40 112 -54 109 -71 120 125 095 -128 100 122 -121 -114 097 120 -128 -127 121 -107 -127 -128 122 122 105 091 126 114 -64 091 -52 -29 -103 109 -128 -28 -116 -124 098 048 -70 -08 056 -122 012 -73 -107 -52 -128 -38 107 123 -12 -60 125 126 -123 083 070 093 120 -30 125 125 
-128 -120 043 -114 -123 088 093 -126 -122 -93 -30 123 126 113 089 086 126 126 -123 -125 122 124 111 126 -57 057 100 -128 111 -128 -60 -72 -48 -80 -119 031 053 -114 -89 -105 -72 -127 -109 120 126 005 -11 -33 -45 -117 -116 -121 -29 -113 122 -128 -128 -56 110 092 099 -56 125 102 
-128 104 -46 029 -126 -119 126 065 -65 097 -128 017 -71 049 -81 -128 -128 -91 018 -128 117 126 -128 -97 -105 -127 -128 -124 085 -128 063 126 075 122 -128 000 -119 115 -86 -107 060 -49 -108 104 -124 055 000 -25 -121 -07 124 -127 -81 049 -107 -31 -118 -126 043 -08 -128 086 126 126 
-87 -11 068 -77 -87 -01 123 040 121 126 -112 118 126 119 064 -126 -128 126 -128 108 -128 123 111 126 -65 080 086 -127 043 126 098 126 025 -69 125 -67 087 122 107 111 068 045 124 -90 -127 -58 104 -91 126 104 -108 126 -17 113 086 -128 125 -124 063 -21 -128 116 122 -128 
-47 091 -82 054 105 106 126 008 -101 -115 -127 124 -127 075 -128 -128 -128 -128 126 -23 126 -127 -126 -128 -108 -124 -127 -128 099 -120 -126 -120 -59 -107 114 037 110 -64 034 086 089 079 124 -111 -33 -44 -92 -111 116 068 -127 123 -45 090 -67 -128 -128 124 -127 099 -123 -13 -118 071 
-124 114 090 049 -118 -61 -128 -65 -126 -118 125 -122 123 123 060 -119 126 121 -51 110 126 -126 117 -123 -73 -58 108 126 108 -127 107 126 109 -44 126 -80 061 109 099 -64 016 -126 -82 -66 118 -84 110 -46 063 -93 125 126 -70 -24 032 124 -106 -99 123 -92 126 -59 086 -128 
-69 -122 -59 056 -02 105 -97 -116 -128 123 104 -128 068 -73 -128 113 126 124 120 126 126 -110 -128 -128 084 -127 -116 121 049 126 124 123 038 -112 117 -81 -89 118 083 -91 -55 -31 -123 -115 002 115 -112 -66 126 022 126 072 -87 -87 124 092 125 -56 075 094 125 -45 -117 -90 
058 -65 029 079 -126 035 -115 079 -128 -126 059 -128 113 -65 054 -128 -128 -128 121 -128 -124 126 114 120 066 -119 -127 -116 097 -124 122 116 006 -70 121 -68 075 -126 -34 046 026 -127 035 045 016 011 114 001 -111 090 -111 107 -72 -78 -111 -99 -128 -114 121 092 122 028 122 110 
-127 113 038 105 054 006 -100 051 078 044 -91 -80 -128 -56 047 126 -128 077 -100 040 -33 078 -49 126 107 -64 -49 -128 049 126 -114 124 -93 085 -05 008 009 122 099 -115 -114 -72 -116 -122 -128 108 087 -80 -128 -73 113 -112 092 -117 061 030 -104 094 052 071 -128 -79 117 125 
105 043 109 004 -109 -09 -109 -115 -117 126 126 122 126 -123 -109 -123 -95 096 -128 126 125 -12 -128 066 -83 115 081 126 118 126 -117 116 -108 -71 -83 017 029 -125 -68 016 088 -114 122 -104 -83 -117 008 119 115 -98 116 -128 079 -114 088 050 100 -125 121 102 -128 -108 -128 -109 
-110 -65 -73 102 124 -89 -108 123 121 106 -128 -128 -124 076 121 123 122 -117 123 124 -125 124 121 126 006 121 126 120 -119 -121 -96 -128 100 -72 119 012 -02 -25 -99 001 -92 108 117 101 126 -104 035 -74 -127 064 -97 120 -64 -23 -116 112 106 -93 075 101 121 116 111 -128 
-128 062 -82 076 -88 075 122 124 -19 -128 -128 -128 123 -80 126 119 125 -33 123 -127 125 120 126 081 054 -127 -121 125 115 -128 113 102 -74 014 -128 020 114 -63 096 110 099 -122 -57 -105 -41 -112 -112 -89 -128 -95 038 118 039 -56 021 125 115 067 -103 077 -128 -17 126 126 
126 054 -101 005 -122 116 125 -128 126 -128 -128 111 087 110 -92 -127 126 -128 119 124 -128 019 118 -124 -84 -16 -116 -128 -96 -128 -40 -128 067 045 122 057 085 122 045 110 089 -108 -23 -43 -128 -93 102 -115 122 -48 122 -114 072 -115 054 118 -128 077 125 -75 125 091 119 109 
118 -110 -102 -68 -94 -49 -128 -126 126 -128 122 126 120 113 -127 126 126 -128 -123 -120 -128 115 126 124 -06 125 123 123 019 120 106 -119 -119 122 -121 -34 050 011 022 -47 107 102 014 -42 -69 -42 -108 -108 -128 072 -12 -122 055 -108 -75 -120 -122 -23 -79 -113 087 -113 124 -89 
-68 -123 081 100 -119 -06 -128 120 121 115 125 125 121 121 126 -128 122 -95 122 125 -127 120 120 -128 073 119 120 123 -123 126 052 -115 089 -100 122 -58 094 116 099 -108 -54 102 -108 -87 126 024 -107 -86 -126 079 -106 120 -96 097 -59 119 -127 -125 065 -45 126 004 089 124 
126 -122 -97 080 -108 087 124 104 -128 -128 -121 -128 113 -86 125 -128 120 123 126 125 126 115 -127 126 104 -125 121 126 -120 118 -67 126 -21 -75 -112 039 -50 -30 -111 040 078 079 -118 -123 -119 103 107 -109 126 -42 124 032 050 083 122 -128 -128 079 -123 -35 126 -80 121 111 
126 -72 -100 108 093 -108 118 125 114 -128 124 126 116 079 121 123 122 122 121 -119 126 -81 121 120 096 -116 -116 -123 -60 -128 112 123 -20 118 -127 094 -121 066 049 -44 080 102 -120 103 -38 104 049 071 -126 -40 -59 121 -94 115 093 -128 126 066 -127 -109 122 -24 -128 -128 
-127 -64 114 053 031 -92 115 -126 -128 124 114 -122 117 -17 -127 126 100 126 118 126 124 116 110 -121 106 115 124 -128 -94 125 -124 -107 098 -85 126 -51 056 123 072 -114 118 -125 -109 122 -112 -91 -49 117 -77 086 -119 094 033 033 -127 -81 121 -110 -121 095 083 -107 126 -128 
-128 092 -115 -114 094 123 -123 -121 -128 090 -125 -128 081 -120 -31 124 -02 -128 -128 111 124 126 -128 126 -68 105 -124 123 -04 126 087 112 -115 -10 -71 -98 022 -62 -34 101 104 088 090 -65 045 113 065 -89 -77 -118 125 126 -79 102 006 126 -13 -99 066 077 -127 -31 -128 -128 
058 -82 094 091 -117 114 118 -122 111 -127 100 126 111 -123 092 126 117 126 120 115 -128 -128 117 119 103 110 126 122 093 120 002 126 -117 114 -128 -86 -113 -113 086 118 -121 112 -115 122 086 090 -24 095 085 109 056 -128 005 -114 -115 038 -128 051 068 -114 125 -115 -82 118 
112 114 -66 -90 077 026 -125 125 -128 124 010 126 126 081 107 121 -120 121 120 126 124 -128 105 -128 109 112 108 126 069 126 116 115 -81 -78 -107 -100 -90 020 -69 -104 -80 -126 033 -122 126 058 -115 -116 124 089 -126 117 073 -102 -41 118 -120 062 -128 061 -127 -84 -128 113 
-128 -121 -97 045 -15 117 -28 038 125 125 -116 126 119 121 -128 -128 -128 126 126 -128 123 -103 -128 -128 009 043 -95 126 -121 126 -48 -128 -28 051 -111 -71 -116 118 -70 -101 118 -101 -24 028 -128 -37 012 -120 054 115 125 090 -87 056 003 082 126 -127 -125 -59 110 -91 -128 017 
-74 -114 035 -107 -24 -123 120 109 093 -127 073 112 -121 -126 125 071 126 120 120 124 110 -128 -128 002 -86 -119 125 058 -65 -128 116 123 -84 -121 -128 035 -70 114 071 -97 057 -83 -94 119 121 -115 -120 -99 125 038 -128 114 025 -60 118 123 -124 -109 -128 097 125 -119 125 091 
126 -115 -65 -65 -125 034 083 -71 126 -105 -115 -128 -126 -122 126 -128 104 126 126 -126 -123 -128 125 -128 -40 118 -106 106 100 126 -114 -127 -26 -41 126 -70 056 123 -80 -99 -67 031 -61 103 -67 112 -118 106 126 011 092 -128 -65 058 089 -128 -107 120 124 088 -127 119 -128 076 
-102 040 -89 003 -55 094 125 -117 -126 126 -126 115 -115 -125 122 -128 126 121 -128 040 -120 -117 119 123 -27 081 126 -127 085 -117 046 115 023 -125 -128 -74 041 017 029 -120 104 -117 123 101 -126 002 -90 -116 -128 107 125 126 033 -117 074 126 124 124 090 058 -128 118 -127 118 
-101 077 110 099 -71 096 -70 -75 064 126 -05 -128 126 124 124 -128 -128 -128 -67 124 -128 -80 -121 -113 -100 119 122 -126 -122 078 -90 -83 -114 -47 -128 084 -109 -118 078 -09 092 -104 112 112 070 -115 -107 -116 123 016 125 -127 085 -46 -36 126 126 121 116 -21 113 088 -128 -128 
069 -104 -43 009 062 029 124 103 116 123 118 123 075 048 119 -128 -127 -128 122 -127 126 115 119 122 -08 124 124 117 106 -128 -126 -108 108 -95 -125 -97 035 115 095 109 -115 105 -126 106 -88 -62 -108 107 -127 078 -34 122 -91 -76 -16 -128 126 126 124 068 114 -117 -127 121 
126 114 093 -106 -120 121 126 -19 107 -125 030 125 079 080 124 -128 -123 -70 -86 -123 -65 -30 126 126 009 -125 125 -124 -85 -128 -123 126 037 -114 -116 -79 -117 105 -77 004 -63 120 087 114 -117 039 111 082 -128 024 011 -128 -85 -18 123 -128 060 014 -48 -13 -128 118 122 -121 
-128 022 -02 -92 -120 -115 084 075 -27 -128 -128 126 -123 085 -128 -122 -128 126 117 122 -103 125 -128 -119 084 -107 -128 -107 093 -112 120 -111 -108 -118 074 096 -65 -66 -99 -119 102 -29 028 -93 -128 -103 119 -115 -128 -96 110 048 067 034 -127 048 109 110 100 -66 -128 -121 126 -128 
-126 111 -116 090 -02 -100 -91 123 119 -125 -114 120 105 027 122 -124 120 -121 125 042 -127 118 113 071 -81 -127 125 -128 114 -128 -116 -113 -117 -43 119 006 118 101 -30 -17 -93 124 119 078 122 042 -121 102 -114 078 042 -128 024 -69 -126 -35 120 124 126 -51 046 -93 123 126 
-117 088 110 045 -125 110 -110 061 103 126 -122 126 -127 095 -128 122 -32 -50 096 107 -128 075 -128 119 -24 -87 -127 -128 -82 -125 124 119 041 -112 122 090 027 086 -56 -116 -52 -121 122 -113 105 -111 -106 112 -112 -45 -125 099 074 113 125 123 -85 -79 017 010 095 -115 -125 102 
126 -119 108 111 -106 -116 126 126 -125 119 -79 -128 126 -118 -52 124 -117 053 -51 -95 -61 -128 -127 126 -111 -127 -120 -124 -87 126 -61 -128 105 -14 126 083 049 090 -13 -104 -29 -123 106 111 014 058 056 112 -35 100 059 125 025 049 -125 -126 015 -98 -98 -73 022 052 081 123 
059 -116 -04 109 -55 119 126 -112 -126 126 -78 053 -94 -103 120 -125 -128 -128 -128 -128 122 -94 126 -121 -71 -11 -128 126 -100 -73 112 072 -69 -52 -127 -32 033 120 053 098 116 -125 117 -123 122 038 091 -93 -106 -89 110 -127 081 098 -86 -43 006 -127 124 -66 -126 103 -122 -126 
-127 113 -105 -115 -99 091 -126 -127 -128 -05 125 124 125 101 126 -128 -128 -128 -128 -128 -126 -128 125 068 046 124 -71 114 042 126 -126 -11 067 -121 126 -91 074 -112 008 -113 -66 058 -125 -117 -127 -20 -120 111 -128 -65 -126 -113 -42 -114 -114 124 -116 098 -123 -89 126 105 126 126 
-127 105 093 092 -99 118 125 -69 -125 049 -127 126 -123 121 -128 119 119 126 -128 118 -122 123 125 125 -83 124 -65 121 -23 125 123 -93 -36 -124 117 -82 -111 004 -64 -115 -121 103 123 113 118 -115 -112 -106 -126 -118 -31 120 -89 -90 -93 123 -128 -101 126 101 125 -121 126 123 
-128 -122 113 -22 -126 -124 122 074 -128 -128 109 126 -128 120 -43 124 126 -93 -128 126 -128 126 125 126 072 -106 123 126 -120 126 -101 -128 090 118 -128 -38 088 -83 056 -87 104 -125 123 -16 126 099 115 064 126 071 122 036 -11 091 -127 116 123 120 -127 078 121 -113 113 108 
-92 -104 -85 088 035 089 122 -128 119 072 122 126 118 -58 -127 119 -128 -128 -128 -128 -126 126 -128 058 029 -128 -71 -128 084 126 065 125 -87 112 117 061 065 111 080 -89 104 -59 -118 -105 -127 -103 119 071 126 -29 111 119 086 -116 -65 122 101 -25 -123 079 126 -99 126 119 
-125 -123 001 -77 017 005 -128 -117 -95 125 118 -126 -106 -62 126 -67 124 125 126 -128 -128 -126 -128 125 -45 -43 -128 125 -33 -107 100 126 -110 100 -127 047 100 -100 -46 038 -114 119 123 -100 008 -106 -55 098 072 115 118 114 082 094 -126 126 083 057 -87 -104 122 111 089 114 
-128 121 017 -15 125 110 117 -16 117 -106 -120 -126 094 076 109 -127 126 -127 117 123 126 117 095 -120 030 115 113 -127 099 111 069 125 -84 -122 -112 052 -53 -92 094 -116 -117 -116 123 -69 -124 -105 -78 -73 126 114 125 123 -91 016 098 124 -128 -34 103 087 -128 -86 -115 117 
126 -35 -88 -89 -124 -124 -128 085 113 056 -15 113 119 008 -127 125 -126 126 120 -128 126 -128 -121 112 -84 118 126 122 087 126 111 -128 -112 -122 125 081 -112 -84 -105 -84 107 105 -68 116 -119 -12 101 -51 125 083 -21 -121 003 -85 -40 125 124 -03 -126 095 113 117 126 -128 
125 -104 -15 -113 125 -69 -82 126 -59 -128 115 126 -128 -76 126 -128 051 072 -128 094 125 -128 107 126 -102 091 -128 121 -110 -128 117 -64 092 -122 126 002 119 -45 096 -67 -119 -126 -65 -120 -72 112 -68 117 -128 070 025 -128 -18 115 111 093 -23 -127 026 110 126 116 -124 -128 
078 -124 051 026 -125 -38 -126 124 126 074 -125 -118 -127 -120 125 126 -128 -75 -121 126 126 126 -128 -126 082 -127 -108 -128 099 -124 090 -128 -119 -120 106 013 -117 116 -44 -06 114 124 -97 -111 125 -17 -75 078 126 085 -99 -128 -91 -84 099 -128 119 124 043 -115 -111 -44 112 -128 
126 -110 -70 035 -81 -121 124 -113 125 -128 -126 -127 117 -125 -122 125 118 -119 -128 126 -114 124 126 -127 069 -107 -120 125 118 124 112 126 -105 030 115 079 -93 -47 -109 -72 -37 098 122 058 -125 -117 -82 -39 121 089 -113 126 -13 -60 077 -128 -123 -123 -124 -97 -128 117 -127 -128 
-90 111 -95 -73 079 068 121 -91 117 123 124 124 117 -21 115 114 124 112 -128 -127 -124 126 116 -128 078 117 115 110 092 126 -101 122 048 -107 -54 -67 118 117 -108 -46 -73 020 -122 -88 099 114 107 -107 -107 067 -84 -128 -80 076 -118 124 122 -124 -128 077 -128 -64 -125 121 
075 -92 -116 086 112 -09 126 117 126 126 117 -128 -127 115 126 -125 -124 -128 118 123 103 078 114 118 060 108 -128 126 101 126 -91 -115 -113 123 125 055 -56 -124 062 037 -108 115 114 027 031 002 -72 103 -127 017 -120 115 -61 007 -123 126 126 -128 126 055 119 -107 -115 115 
-128 -121 108 -110 -113 121 -128 070 124 126 124 -128 -47 118 094 -41 126 -128 -128 -128 -125 -128 009 -128 092 -127 126 126 -90 126 -24 119 112 120 -128 -94 041 059 038 -20 090 093 -90 -80 122 044 050 -109 -20 104 115 106 -69 065 078 -51 121 107 092 061 -128 -21 002 -90 
126 051 012 -27 054 -121 -123 013 -125 126 -52 -99 -117 073 126 -124 046 126 126 005 -128 -117 -128 -128 100 -121 -128 121 115 -16 -114 126 041 033 126 089 -113 100 053 016 -122 -124 -95 -87 -71 -28 -115 -92 -128 103 125 126 030 -95 -122 -125 -112 124 -127 085 126 045 119 112 
-128 097 -82 113 104 -93 113 086 -128 102 -126 126 -106 -78 100 126 126 126 083 -101 115 118 125 073 043 -123 111 122 097 -101 -124 125 057 -90 -106 073 113 111 046 -107 -67 -90 -125 -120 126 109 110 110 -128 110 -110 116 032 082 124 125 122 125 -128 -108 -93 099 124 110 
108 -22 075 -107 -122 -122 126 125 -128 126 -126 -52 115 123 121 115 -127 126 -128 -108 115 125 044 -128 066 -44 125 124 087 -128 -97 -128 002 -123 126 -31 -27 -24 012 -114 -93 063 120 -31 -127 -95 -114 105 -52 -101 -121 -128 -35 103 054 -82 124 -77 -95 101 -128 -40 126 111 
120 -123 -107 015 089 122 126 -118 121 125 -124 -128 126 040 -122 111 -91 -128 -128 115 122 -128 075 125 -108 119 -128 125 099 126 -100 -128 021 -65 117 -72 -35 124 070 070 -118 083 104 078 079 071 -75 -65 -43 107 -124 126 039 109 -46 -123 125 125 -120 108 125 -77 -127 114 
-48 -117 100 -97 119 -92 126 -127 -128 122 112 -128 -16 064 -128 -128 126 031 116 118 120 124 126 -128 019 123 119 109 028 126 123 -127 -114 094 -128 082 025 -94 031 -77 -77 -110 -84 -51 025 -41 076 -41 126 -58 075 -126 078 103 -124 -128 015 123 095 -32 -126 -81 096 -123 
104 -121 -115 -96 123 109 123 123 119 117 087 126 090 -83 -128 108 -128 125 -128 126 111 121 -128 -127 066 -112 -128 -128 -89 -114 -109 116 -76 -88 114 -29 107 -125 097 111 -121 -92 078 083 -84 060 035 119 -128 093 -59 088 -39 065 -126 -128 081 118 125 107 126 -69 -77 124 
-107 -82 -87 094 119 -114 078 125 -128 114 -127 083 -123 -123 -128 123 123 125 123 -115 -128 105 109 -128 -90 126 096 126 -83 104 115 105 -98 119 121 -54 052 021 086 -47 -98 074 -113 -115 -93 -92 053 116 111 051 -42 -128 004 063 017 126 111 082 -119 023 -128 106 -128 -128 
120 -124 114 -92 101 -80 -109 -117 -14 122 -123 126 -126 036 126 -128 115 126 126 -123 126 -126 -97 126 -86 126 -122 -128 -122 -128 -125 -128 114 082 118 -84 -08 110 063 042 -121 -57 053 096 126 -113 054 -106 072 033 -125 029 -19 022 094 -126 085 002 -108 -55 111 -103 -128 -74 
099 -111 001 -75 -109 063 -128 -104 -128 -45 125 -73 098 119 126 -126 079 -112 012 126 -128 072 039 -119 089 -114 -128 123 -115 -126 120 118 -115 -49 -45 046 106 -46 043 078 099 -57 058 107 126 062 015 -67 126 086 -42 113 039 -106 121 126 017 -102 080 036 -128 118 -128 122 
-121 052 -38 -64 096 112 -128 -123 105 050 117 114 -127 077 124 126 -125 -128 -123 -128 126 118 126 126 -75 -114 -127 126 031 -36 -13 123 113 -102 125 -30 043 -77 -111 098 115 051 -125 047 -128 072 -82 -119 121 113 -127 -118 007 047 116 126 -109 -119 -125 064 -87 116 126 126 
-126 -121 089 -46 104 -105 125 -120 017 -128 098 121 126 112 -128 -128 073 -113 084 126 -126 126 -97 -92 079 -127 -89 -122 084 126 -118 -128 -114 050 -127 054 -89 118 -104 -117 -118 -31 -123 -19 108 -95 -82 -116 121 -106 122 -126 -57 105 -124 126 -127 -126 -79 057 122 -22 -98 126 
-128 068 -67 001 041 -64 -127 001 -77 126 125 051 -128 -123 -107 126 112 -128 111 -128 -128 099 -128 024 110 -128 123 -128 -51 094 019 -128 -64 -98 124 -25 116 124 019 108 -113 -122 -70 111 104 -19 014 108 095 -78 -125 -128 -59 046 -17 -128 -122 -127 -127 022 -37 -28 -128 126 
114 -101 -55 079 -73 104 126 -99 -127 -128 -112 -105 -128 -81 113 126 108 121 121 -128 -104 -111 126 126 102 -68 121 -128 110 126 -77 -128 050 -81 -126 025 017 124 -97 117 101 -50 103 -105 -119 105 093 -115 -115 086 123 -128 084 088 102 -128 107 -125 -91 -96 -128 110 118 120 
-128 041 023 -104 -26 -101 -128 -118 123 -05 -88 -128 -120 109 -128 -126 126 -99 120 126 -109 -128 118 126 -82 028 107 067 -65 110 120 -23 053 115 126 -94 -111 -125 070 089 090 075 117 052 -128 074 030 086 -56 044 -125 126 -35 109 125 -125 126 084 -94 041 -120 112 -127 -128 
126 -106 -97 082 078 -124 126 125 -128 -44 116 -128 -128 -126 -128 -128 111 120 041 -87 -39 -128 -122 126 -109 -75 -128 -125 020 126 105 126 111 110 126 096 -103 114 -15 -106 026 -119 -89 -123 126 055 097 -95 126 -116 -125 -72 -94 -109 038 -112 118 121 -39 085 -126 -36 126 114 
-128 106 -114 -04 121 -119 -128 -127 113 102 114 -128 126 118 -120 -128 -82 -112 -128 -128 -128 120 -124 -115 008 -111 -128 102 -112 -128 -87 -128 -93 057 126 -55 094 099 064 -102 -67 099 -42 096 -124 064 -41 105 104 044 121 121 021 -60 -127 126 -127 001 -62 -32 120 107 -117 126 
126 -120 029 104 -124 025 126 115 126 126 -126 126 -125 -120 120 125 126 126 -128 120 126 -128 -127 089 -99 -99 126 -128 -118 -127 124 126 -87 009 -128 -72 -60 -101 062 -44 117 -72 -52 043 -73 -52 112 -101 126 105 112 118 -46 008 -109 126 -119 -127 049 -105 -128 -92 -104 -121 
126 069 068 055 124 -112 110 -101 -36 097 126 -128 126 -36 126 126 122 -128 123 -49 108 117 -121 -109 -88 -115 -117 126 097 122 123 -35 033 -43 -128 -75 -93 -82 -46 -39 -120 -18 -85 059 -124 -41 -94 004 -127 -117 -87 125 -96 -44 111 070 125 -128 008 104 118 -50 -127 -128 
126 098 -114 -55 -117 101 -128 -119 101 -64 -128 -128 055 053 023 121 124 -128 -128 088 117 090 -128 108 -96 089 126 126 -114 114 -122 -122 -43 105 -128 009 -121 -125 041 -99 -94 -49 -81 066 -108 085 012 -105 123 015 -53 -126 -69 020 -126 014 126 -117 122 021 126 -70 -116 -128 
124 -124 -65 013 032 -104 126 -112 102 -117 126 -128 126 -81 -93 126 -128 -45 -128 126 -128 109 124 -125 -88 -83 117 -127 -95 -124 107 126 -79 079 -128 -101 -58 -108 -62 029 -121 -104 -125 049 121 -119 -101 -44 -128 078 120 126 061 -46 -126 097 126 -07 121 -89 126 116 126 120 
-119 015 042 103 120 123 -59 125 126 112 -22 126 126 124 124 -69 126 108 -128 126 -12 123 -128 -99 014 126 126 126 -123 125 122 -128 107 -36 115 -30 -108 -104 -52 105 -21 124 -112 102 126 -18 -75 -02 126 -115 -68 118 055 084 115 -126 104 058 064 025 107 061 -07 126 
126 -29 -54 103 -90 -121 -128 -125 126 -122 -122 105 119 -111 099 126 126 126 120 -128 -120 123 126 -22 091 -125 -128 -71 117 -127 -126 126 -92 122 126 -28 077 -30 -103 -25 -91 -123 -88 -124 123 -94 108 -89 120 022 -95 125 -04 -43 -109 -128 -117 -119 -125 012 -128 090 125 114 
124 -108 107 088 122 123 115 -14 112 126 113 039 095 -82 126 126 118 126 -128 -128 114 109 126 -126 079 -25 123 -74 121 126 027 126 -71 117 -122 -70 -116 -36 100 112 088 -96 -88 090 126 -08 017 -44 073 -112 102 -126 080 -06 -127 -101 083 088 -127 -114 034 055 -124 -125 
126 -117 100 -103 124 030 105 098 -128 124 -120 051 -123 -125 126 123 126 -128 053 112 098 126 126 076 -70 124 126 -78 -69 -127 -97 -42 010 -116 -128 -26 -107 028 078 052 -41 -121 113 100 061 -109 083 -58 123 -103 -50 126 005 085 -77 068 -119 045 -126 -116 -128 043 -128 -126 
-128 -11 -19 -104 -124 -111 -123 -118 -118 126 -114 -100 -104 -87 100 125 122 126 126 -127 126 -105 -102 -128 078 -87 -112 -117 -69 126 -76 126 061 120 109 -52 -104 -87 -64 110 -54 116 124 -109 -68 002 -81 -50 109 110 125 126 -62 -78 088 124 126 -121 120 065 -114 -113 126 126 
125 -68 -116 007 -127 -123 -120 -118 -96 116 120 126 094 007 -122 -128 126 126 126 -128 126 -80 061 -88 -61 -127 -128 -96 033 -102 085 088 -69 104 -127 053 099 087 085 -116 -59 071 -119 112 -23 -39 -121 119 126 -33 -128 -47 -59 -109 125 124 124 -118 124 -101 -126 -121 -127 -128 
116 088 011 -111 118 -119 126 -118 107 -124 -61 -127 123 106 -127 119 -128 124 121 -128 118 126 113 125 -56 126 126 -116 111 -111 024 126 -76 -114 -128 -50 067 -116 -90 -74 -60 106 097 -122 126 018 -117 -111 -128 001 -97 -128 -60 097 -107 -128 052 -104 -127 066 109 054 118 -128 
121 087 -13 -83 116 -19 -128 -127 121 -127 125 124 126 119 -81 085 -49 -126 -126 126 -128 -128 -50 070 105 104 111 -128 -115 -127 109 -110 -105 -85 -128 035 050 -51 015 -09 074 072 -97 -25 124 -109 -62 -111 102 101 -103 -74 -86 016 -66 -13 068 096 126 -112 -128 -25 -128 126 
087 -17 013 098 -107 -119 126 -36 -106 -128 -128 -128 -128 125 126 126 -114 006 126 -128 -128 -128 -128 125 099 -107 -107 113 114 126 -77 -128 044 005 110 056 -36 116 081 073 092 085 001 098 -65 101 035 103 124 -109 123 -123 060 -115 124 126 -128 -126 -124 -59 117 -117 -83 126 
-128 052 -110 107 -109 -101 123 -105 126 071 -126 126 -128 085 -116 -114 -128 -122 -127 -128 -113 -126 126 126 -35 034 125 -128 -90 118 111 -128 107 -126 -119 -87 118 -88 102 -26 001 103 -124 111 104 -109 118 -06 082 -64 -128 -128 -71 -113 -23 -122 -10 -94 -128 053 119 -70 -79 076 
123 -122 091 029 -02 098 -123 125 -128 -128 -42 126 -128 073 -128 124 126 125 -128 125 126 -128 -128 -128 080 124 126 123 -120 126 123 113 -66 -84 125 -16 047 -27 -73 116 -108 121 098 080 -128 -90 -90 -60 126 -115 -127 -117 065 -106 -127 126 -128 125 -116 -97 -114 -108 124 118 
124 -84 -10 076 118 -90 -128 125 118 -127 -114 -128 124 -01 -122 126 -95 102 -118 -123 125 126 -117 126 -93 -128 -123 -127 036 124 114 -113 -14 078 -128 096 -42 -81 075 -61 033 -113 077 081 -123 -100 -117 -55 119 -75 -59 -127 092 023 -127 121 125 -111 -94 080 -126 -121 124 121 
126 119 -74 -60 -119 066 116 -127 -128 -126 122 -128 -126 -66 075 126 -128 -128 118 115 123 -128 102 -119 064 -126 114 -111 040 117 -82 -128 -78 -85 -127 030 -120 -120 061 -57 -120 -105 000 110 -126 117 -120 -97 126 109 122 009 -63 102 -127 126 -127 000 -57 084 126 118 -55 126 
126 -85 -58 -01 -114 113 -128 076 -36 126 -125 -128 -78 -95 -128 -103 -128 014 -124 -127 -111 -128 -31 -22 -108 -06 -05 -114 120 -127 013 -73 -110 064 -127 -24 -114 082 -101 063 -122 -109 116 -98 054 -114 -29 020 -124 -08 002 -128 -71 -67 -31 126 123 -01 -120 077 -128 119 026 -103 
-128 -28 -84 010 -118 123 126 123 -128 -128 -121 -128 -127 041 -128 113 126 -118 126 -118 123 -128 126 -67 -12 126 -102 106 -94 126 108 126 076 -119 114 -100 055 -124 098 -120 -85 123 -88 119 024 -105 -52 022 117 -33 118 -128 010 -09 -113 -88 -128 -51 044 -97 -123 -122 -123 -125 
-97 -99 -105 -77 123 121 126 -103 106 125 116 123 -108 -71 -107 125 126 109 126 126 126 -128 -128 122 -98 -91 -122 -125 -79 -60 122 -128 -87 022 -120 081 -103 -125 -78 117 -20 -124 -109 096 -54 062 034 018 126 067 -125 117 -63 003 026 -46 121 028 -105 -09 126 -38 -115 -128 
-128 -23 049 085 -118 -123 126 -128 126 -109 -99 126 126 025 -121 126 087 123 -128 126 126 126 126 -85 088 -123 126 098 -62 052 124 -128 087 -11 126 -88 118 -126 108 095 -53 091 119 115 126 098 008 -03 -128 -88 -125 -128 022 -65 121 027 111 -126 -29 107 126 118 033 -128 
126 104 090 105 -72 -112 -127 125 115 005 071 117 -121 -123 126 126 125 -103 124 -128 126 117 -127 126 012 117 -115 125 054 -128 -84 126 114 -111 122 -100 043 052 053 -87 116 121 -51 -62 126 103 -101 -98 -127 082 -44 073 -56 037 118 -128 117 124 091 -119 117 -73 -114 126 
-128 -44 -100 027 125 -107 -128 125 -109 053 121 124 -91 103 -128 079 126 125 -74 -112 -34 -93 126 -128 -43 102 -84 096 082 126 -45 -128 105 116 -117 093 042 123 -93 -80 -107 065 115 100 -121 -113 -34 062 -128 -100 -124 087 012 -108 -123 124 -128 125 124 -115 126 051 -120 -128 
007 -99 -76 039 105 -79 -124 124 -116 125 -128 117 -124 -08 125 -128 -128 126 126 -126 126 116 -126 -128 028 -37 126 116 106 119 -115 -128 064 -30 -127 -55 -79 037 -77 110 111 118 111 120 -45 -93 119 089 126 108 101 -126 -22 -58 -124 125 126 -94 123 094 110 112 -127 -128 
-128 115 071 -27 -127 123 -25 088 126 105 125 114 125 110 054 -128 126 126 115 -122 058 102 126 126 086 -128 -110 126 111 113 087 -96 -55 -98 122 085 -24 -125 067 -94 027 071 -121 -43 -128 082 052 097 012 054 -108 124 090 101 048 -128 126 120 -124 112 -92 -106 -127 -127 
-69 -123 -24 008 -93 072 -128 118 -87 126 -66 -125 -128 -88 -112 -90 126 126 105 086 104 -124 052 -128 109 -33 -127 -126 118 126 -76 -128 016 097 -09 -17 030 056 038 -112 115 -117 105 -90 -127 -91 092 118 126 -118 115 111 007 107 100 -39 -124 123 -128 115 -127 086 126 060 
126 072 -91 111 119 085 070 -126 063 126 117 -74 126 -104 092 -126 124 -124 124 068 -117 121 -127 -122 -103 -11 -128 -128 -113 126 042 -128 115 -121 -109 -33 010 -114 088 038 -113 112 120 -123 111 -35 -119 014 -126 114 -113 -128 -23 -60 -78 090 123 122 124 -25 -128 114 -127 125 
-127 110 024 086 -125 -110 126 119 122 111 126 -115 114 027 107 -128 -106 126 125 120 -115 -91 097 067 111 093 -127 -18 118 -128 -111 124 006 002 126 -25 103 -75 112 -119 -29 -108 -72 117 118 -17 -102 098 126 -43 -114 115 -73 092 -14 120 125 006 124 012 001 112 126 121 
-128 117 014 045 027 123 126 -124 126 116 -126 126 126 115 -121 082 -110 126 -117 126 126 -100 126 -40 -108 126 027 -128 013 -124 105 -125 -114 084 121 053 096 -125 -57 071 079 -125 117 -38 -110 -98 111 095 030 104 124 098 073 100 105 -128 -127 -109 -53 -39 121 -77 -128 123 
123 105 -114 -07 -64 -99 123 -127 -119 126 -118 126 126 109 -103 126 124 126 -118 116 -128 -128 -127 -81 -55 113 126 -127 -110 120 124 126 -117 105 124 -77 -99 -122 053 -114 055 119 -114 -120 120 102 049 -92 124 109 -84 -121 087 -103 -125 -87 -128 -123 -126 095 -128 103 125 -120 
-128 059 -02 046 043 120 -128 -99 122 000 -33 126 123 094 -128 118 098 -124 119 -128 050 107 -46 120 026 -125 -128 -65 036 126 -124 -66 -98 -82 -99 091 101 071 028 084 047 124 122 -123 126 106 109 -73 125 -73 -126 -128 -10 -108 -85 025 030 124 -127 002 126 -118 126 126 
125 011 018 105 -67 063 -118 -128 115 075 126 116 -117 123 114 -128 -128 -122 123 108 -120 122 -108 -128 028 068 -110 -128 056 -128 070 -100 112 -75 124 086 099 122 108 054 107 120 -96 104 -86 -114 001 -13 -126 -119 083 -128 -63 023 -106 -128 126 111 -118 102 020 -48 124 126 
-128 -47 -30 074 118 041 -128 125 126 -125 -101 099 -128 -127 -128 112 -115 067 -123 126 122 124 -99 -107 026 -128 -128 -122 105 123 042 -128 086 -109 -95 095 115 -124 -108 -115 -116 097 -107 -120 126 -95 -114 084 122 116 -117 -128 055 -113 -18 126 -125 111 -128 -115 126 008 -127 -128 
-128 070 083 057 108 -116 124 092 126 -125 122 085 126 -47 -128 -02 -126 126 126 -128 123 125 -128 -121 -92 125 -99 -82 104 -107 -127 -128 089 068 -128 021 072 -119 -76 -64 107 -72 101 090 110 -98 094 -105 -123 113 104 -128 -44 -109 -124 -128 -128 -113 -125 043 -115 -62 124 -128 
057 013 113 -79 -57 110 126 033 -126 -94 124 126 -128 119 -128 125 -62 -128 117 -123 095 082 125 106 012 115 126 -123 057 -128 120 123 -112 -105 123 -39 -100 105 095 009 113 083 -124 -106 101 -55 -55 -44 114 113 089 126 -86 -12 -125 -128 -68 081 096 110 126 098 -128 060 
078 076 -98 080 118 -121 078 -128 -128 118 126 124 125 -127 125 126 117 126 119 -115 -128 -125 125 116 086 126 110 119 -102 -128 095 -128 -85 -90 125 011 003 -126 062 -83 -107 123 -127 -35 -128 -86 -117 025 -116 105 -116 122 042 014 -83 123 126 -74 123 -20 -128 039 079 125 
103 -95 -108 -101 077 063 126 104 119 -128 -102 053 -124 -119 -128 011 126 126 124 -123 -128 -128 -128 098 -102 123 -92 126 006 126 -125 -103 -84 108 -128 088 -42 -78 -105 -118 -43 -44 119 074 -120 016 -96 -04 -118 -117 -125 -128 068 111 -104 031 125 011 113 -41 126 061 126 -127 
124 -87 -60 112 -17 082 126 094 124 089 -123 126 122 -88 -128 126 123 -121 126 -128 126 126 -128 -128 -111 -67 124 111 -44 125 -34 -128 -96 092 126 -06 053 056 -53 -107 119 -126 113 096 121 014 -66 -47 126 -118 097 126 048 -80 095 -75 026 -127 117 002 -128 -17 124 -128 
126 -123 010 -114 -127 -24 124 045 110 -122 124 119 126 072 -122 -128 -128 -126 -128 117 114 119 -89 -128 -89 125 121 111 -89 118 122 115 -104 -43 -122 046 076 -119 036 111 120 -127 122 075 035 116 120 051 -127 106 125 114 079 -06 -81 -128 053 -35 113 055 119 -93 126 -112 
126 -16 -106 -112 093 -123 -67 117 -127 -60 119 126 126 -122 126 121 126 126 -69 098 -127 -106 -74 -126 081 -110 -128 007 -83 -127 -92 -127 051 -60 091 076 014 100 028 101 -86 064 -82 -112 126 100 -113 091 099 115 126 113 024 038 -83 -126 -128 -46 -126 016 -95 -40 125 120 
-128 -99 -13 -100 -126 094 126 -127 124 -118 109 125 125 121 -112 -106 126 -128 -128 110 064 119 060 -117 092 -127 126 -128 -52 117 -83 -85 037 007 124 -12 109 -93 -45 -110 058 -122 -106 -93 074 -91 -112 -28 -67 -91 -125 126 067 054 125 112 -124 123 046 -37 016 018 -127 117 
126 -29 -91 089 -109 -08 -128 -124 117 126 -127 033 -128 -123 126 126 105 -41 123 -128 -128 -128 -32 -81 101 -87 -47 126 078 121 -114 126 -83 -111 -127 056 055 -121 093 107 043 -127 -125 -76 -95 -14 097 -42 -127 057 035 -128 088 -107 034 -43 -128 009 -126 009 045 -83 -13 -128 
-122 -87 112 063 090 045 -128 -52 126 -128 125 126 126 122 038 126 -26 -128 126 125 121 119 113 -128 -39 125 108 124 116 126 -100 126 081 079 -112 -62 116 -106 102 096 117 -92 120 096 125 -78 117 009 -128 035 125 -100 010 086 -65 -128 -128 -71 -24 058 125 -64 -128 -35 
-103 112 013 -07 124 -58 126 -20 035 124 -126 -128 126 072 -76 091 072 -128 -106 126 -126 -119 -114 123 095 -91 -128 -126 -90 -112 -116 125 -78 -125 -128 -93 066 -116 098 -112 049 104 -88 -105 119 103 -09 -115 125 -63 -71 -125 -05 -21 092 107 -128 113 122 111 -122 -122 -120 -128 
126 -121 075 073 -126 037 125 -127 -128 -128 117 122 123 124 126 117 126 -127 -128 119 -128 056 -128 109 103 -80 -128 -128 -97 120 084 -128 -11 109 -128 -05 -115 121 -109 -115 -21 094 -09 122 -65 -114 078 -30 101 043 -110 120 -39 -72 -06 -128 -128 -63 -127 110 091 061 126 126 
124 113 007 047 121 -102 -124 -118 -90 126 -105 121 -127 -126 -120 -124 126 122 120 116 -128 125 -42 126 -59 -11 -49 091 120 -95 122 126 096 -55 117 -97 037 -10 089 -04 093 088 107 -95 -99 117 105 -94 126 -103 077 123 -37 092 -52 126 126 089 090 112 -128 -75 -87 123 
-117 -49 109 125 -51 117 -120 125 -126 126 126 123 126 116 -68 -125 101 -58 120 085 -128 123 -99 119 122 125 114 -105 126 125 -127 059 -92 -70 -101 027 088 -123 -125 111 110 -114 125 112 -126 -39 123 117 034 115 -56 -120 -128 124 -98 -49 115 -32 -123 081 -114 061 126 -107 
035 121 123 -128 -113 -125 -126 114 -122 -126 -52 092 -128 126 -62 125 115 -79 -128 -63 -120 -128 -99 096 -128 -64 060 106 126 -102 120 -32 098 052 100 -93 048 126 013 124 -72 -110 123 113 120 -94 -128 -128 -102 065 041 -124 -119 -121 -118 -17 -54 035 121 111 123 092 -121 121 
-102 123 -17 -128 082 122 -127 113 112 102 -128 -103 122 054 -96 -128 064 -60 -128 113 022 122 -104 -127 120 083 113 -111 126 -110 114 -106 108 056 101 107 -112 124 -117 -123 048 -81 -85 124 118 092 126 -98 -70 122 072 -117 126 -128 -125 094 -99 -94 119 013 088 126 114 123 
091 -123 021 126 -38 -111 -122 -123 030 -127 -128 -126 -15 126 -109 113 124 -117 -128 -54 -128 125 -49 113 065 117 -110 -84 -13 126 126 -70 -16 050 096 114 058 -128 -38 120 079 -56 -115 103 -32 -105 007 -111 111 -32 -57 017 125 126 -27 -14 -63 -92 113 105 043 -128 109 065 
-114 -44 -124 -53 -107 -110 -128 -112 -95 126 -127 126 -128 -126 115 -121 126 -89 126 060 126 -126 081 100 -126 -128 062 097 024 125 -128 061 120 030 -94 -115 110 126 -122 -98 -90 091 103 -124 111 -62 126 108 124 121 105 059 -121 -128 -123 083 109 -101 049 112 -112 126 126 115 
-112 092 -104 -09 109 104 070 098 048 -128 -29 -122 126 126 -03 -125 -127 100 -74 079 -128 -128 -36 -121 126 -128 -128 -57 098 -122 -128 -123 -91 009 -117 -36 -114 -128 -127 101 -77 -125 006 -121 065 090 -124 -124 122 -122 109 -121 -128 126 -93 -82 118 088 121 059 -125 -127 -107 -118 
-24 118 -119 126 -68 046 -95 101 -98 -128 126 116 -128 126 -108 -116 126 093 -128 -112 018 -41 011 126 126 -121 110 -112 -65 -128 126 -124 -123 -101 044 109 081 126 -63 -104 -93 -18 117 -98 100 066 -128 124 -120 -115 122 -16 -117 084 -124 065 -85 -89 122 005 -10 055 -128 -105 
115 -93 -122 -36 080 101 114 112 089 124 119 -127 -24 126 119 081 -122 -89 126 008 014 -12 011 -100 -109 -108 028 -51 066 -123 126 105 -43 057 -113 109 -110 019 -19 -127 -105 126 126 -127 071 -98 -128 022 028 -124 004 093 095 124 110 082 124 015 122 105 013 -68 123 -11 
103 024 -112 -126 035 -41 -111 -128 126 126 -46 -121 077 -128 -83 120 -128 069 126 100 -107 -127 025 -119 091 -128 -24 -63 -127 126 -128 124 116 101 115 071 -12 126 104 -126 -36 -128 -03 120 109 -06 -52 -128 119 -116 -113 125 101 077 -75 -43 -51 -99 -125 048 -125 -56 124 003 
-123 118 -114 077 -101 -107 -121 -115 -128 -104 -126 110 -128 124 120 076 121 -117 -127 -99 -128 -116 102 121 -96 122 088 -104 -128 122 119 -65 -125 -95 -115 098 009 -128 043 -128 034 -127 -128 -118 073 099 124 125 076 -26 109 066 077 124 -47 -81 098 090 -54 072 064 -124 109 121 
-120 -120 111 -119 008 -96 113 116 121 -128 121 -128 -128 -108 -101 104 -128 055 -128 105 -127 -20 115 -124 -98 -115 -128 -118 125 -125 -125 098 018 107 109 -115 108 -128 054 -125 -110 121 -80 119 -118 112 -97 -116 -102 -27 -124 -07 113 125 -55 -92 124 102 126 088 091 125 065 -126 
105 087 115 -124 -95 -122 126 -128 -107 -125 126 126 -128 126 -37 -128 -05 102 -128 -22 126 104 -74 -128 126 -123 -127 -117 126 117 -128 -09 122 -83 -116 -83 091 -127 088 119 093 -128 -90 054 081 064 -128 -120 -78 115 090 -121 126 126 039 -60 028 -116 -127 -115 -61 121 126 -04 
076 -104 -126 006 -110 -106 -74 126 -87 122 119 009 -124 123 -81 042 -128 096 097 061 126 090 -95 042 -81 -122 123 086 -128 -53 -126 -124 -68 -03 085 -56 -109 126 124 -99 057 117 -128 -107 -119 109 -33 126 -127 -104 -106 114 126 121 045 096 -32 004 -128 -103 114 -127 -128 010 
108 011 -17 -120 080 -66 125 -52 -124 -119 -128 126 126 -128 024 109 -127 -31 126 -103 126 103 038 -122 -128 -126 125 109 -124 -121 -128 123 -124 056 092 039 111 -127 -118 052 085 -117 -128 113 -116 -93 -125 101 -120 -115 001 125 -128 126 -26 -18 -64 081 -116 062 081 -128 122 121 
120 -125 122 121 076 -111 122 -47 105 -128 -128 112 -119 126 091 126 -128 -49 -128 -58 092 -128 033 -125 -126 -77 088 076 126 109 -128 -116 121 -05 109 115 108 019 -37 -128 106 -128 -85 -118 021 104 126 -128 -28 -56 -124 124 126 -121 -112 078 -124 -18 125 104 -125 095 -125 -123 
-125 -78 -30 -128 -49 -77 -126 126 -98 124 126 -128 -128 -125 097 -128 119 -103 -128 -113 -124 125 107 095 122 -125 120 088 -128 -128 -72 017 -118 058 -94 -04 -90 -100 022 086 020 126 -119 -98 -123 088 124 -128 -49 -04 039 106 126 -128 037 079 120 -114 084 099 120 126 124 -90 
-66 059 -118 -128 -99 063 -120 -128 116 -109 -128 122 105 -128 094 -126 -127 -119 -128 -90 -117 115 -67 079 -128 120 -119 -27 -128 121 114 -108 -06 102 110 090 033 118 -115 -116 -20 118 126 -115 -44 111 125 126 -108 -123 076 120 -128 -128 117 -07 -126 055 111 -105 -85 -128 123 -122 
009 066 111 100 -83 124 113 -01 114 -112 -124 -128 -128 092 -26 -128 -128 -30 122 048 123 -81 -90 120 -128 108 -95 -61 021 124 125 -15 -88 -43 -96 104 106 126 -122 112 -10 -109 126 100 -60 113 126 125 -128 -01 -124 -111 -128 121 017 -65 -56 076 119 -68 -101 117 122 -119 
123 -120 -117 -126 078 -55 126 121 -127 -110 121 125 125 126 101 126 -128 -03 -127 -108 -128 124 038 -127 -124 -128 123 113 126 125 -75 -49 119 045 -104 113 -109 -124 -89 -128 115 -127 126 -113 -55 -90 126 -109 -117 122 115 111 -127 126 123 -42 -125 046 -97 024 098 122 125 116 
-43 -95 120 126 -08 -101 125 124 -123 126 106 125 125 109 -76 118 052 -111 126 -25 -128 -88 098 -102 125 079 -111 044 037 120 -108 124 047 015 -69 024 -105 126 116 126 -102 -128 126 -126 120 -94 -128 105 -126 -05 -124 010 126 -128 -120 -53 -113 -102 125 -111 101 -128 -124 026 
120 115 084 -128 -100 -120 -102 -47 -127 103 -114 -128 -121 -124 076 125 123 -33 -128 112 119 -126 007 126 115 -128 126 064 126 110 120 -113 100 004 022 -106 110 -116 -122 123 -115 114 -54 109 -119 047 -112 120 122 059 115 027 122 124 -54 026 124 100 -126 012 088 -113 070 -117 
-117 -03 039 126 100 -123 004 126 -126 119 109 126 -128 116 085 -92 117 -61 -37 -17 126 -127 -115 122 -105 125 111 -73 126 -128 -128 030 -118 014 -27 021 -55 -125 -13 126 059 -128 056 077 012 033 -114 -128 007 100 -79 -126 124 126 123 -85 -115 106 -110 103 -73 117 126 -118 
119 -125 -110 126 -07 101 -123 092 -127 126 125 -128 -128 023 029 108 -128 114 -128 083 123 -128 001 120 -07 -121 126 -108 104 126 122 118 115 -18 115 096 104 122 121 053 007 -128 126 095 -73 -110 126 125 -104 -122 -70 113 -116 126 124 -02 -04 047 077 -50 -120 123 -103 -58 
-124 -113 118 126 058 125 -127 -128 070 018 -128 126 -128 -128 -56 124 -108 026 035 072 029 119 032 116 -94 122 -127 049 126 122 -33 -65 -78 -95 -62 -113 049 -128 -121 106 -01 -120 126 121 -119 -22 049 126 099 -10 113 124 103 084 -114 -35 -13 084 113 -109 061 -128 061 122 
112 -99 123 -124 -48 118 -128 113 -127 -128 -128 092 -128 049 -108 126 -128 -06 124 -107 109 -113 -109 -127 126 -128 -49 101 126 -128 126 -10 118 077 020 -52 -101 121 -107 126 110 -119 -128 -113 113 -64 -122 126 -124 013 072 -112 -107 067 -108 -63 -75 065 102 -105 -108 -128 126 -127 
-122 115 077 126 081 123 -128 045 -123 -101 -127 033 126 126 096 -70 046 -86 -128 -113 -128 126 -69 -115 -26 -126 -117 -100 002 033 -128 065 -123 -10 -109 -106 -03 119 040 -48 096 -127 125 -10 -37 -84 -125 126 125 074 086 -74 -128 120 124 -98 122 011 -67 -84 -104 -126 075 123 
-113 -121 116 121 -109 -124 112 126 -11 126 -108 105 126 121 -95 122 -101 -105 -128 -95 089 -30 -112 124 100 105 126 -97 116 122 125 108 064 107 099 -19 106 122 062 113 -94 -124 122 -37 123 -45 -128 -91 123 -106 -124 101 041 123 -105 -95 122 107 126 008 -51 -128 102 -122 
049 119 -93 125 093 056 -104 124 114 -128 112 121 098 -128 -81 -128 -43 -116 126 -106 -128 126 -102 -128 117 -128 -121 -105 120 -128 116 123 -125 -108 054 090 071 122 -123 097 083 075 -128 -127 102 101 124 -75 -127 -99 -111 -121 098 -128 -124 -85 -82 082 -108 051 -126 -128 100 126 
-124 -53 -117 126 -85 112 125 -128 094 -128 -128 125 -81 108 089 -06 044 113 -128 063 126 -128 -30 -91 -128 125 125 -116 109 126 -28 -83 000 -98 -117 107 113 123 -119 116 080 118 068 -74 -111 104 124 -124 126 -124 120 -126 -127 -107 117 -85 -111 -105 064 101 -117 124 123 111 
121 022 -119 -128 -110 -120 015 111 118 086 -128 126 125 126 117 053 081 110 -64 071 070 116 -13 -101 -128 -90 -110 -81 -37 -128 116 124 070 112 116 110 095 113 -70 -85 -112 095 -82 -127 -125 -87 -02 123 -113 -122 -43 119 -97 -90 103 028 -66 -118 120 073 087 -128 -128 118 
-86 027 115 -128 086 060 -109 -124 119 102 -122 124 -126 122 102 014 -128 109 124 094 -128 -78 014 121 121 126 -97 -109 120 125 -128 -60 109 -04 -89 090 108 -116 123 123 100 126 126 125 -37 078 -110 126 115 -121 104 126 -128 125 124 039 -117 080 124 -80 122 125 118 -124 
-118 -73 119 126 -20 -107 096 -128 125 -128 -127 -128 124 -128 -120 112 124 022 -128 -114 -120 -120 -42 106 -127 125 -119 096 125 126 -114 078 -124 -111 -92 103 -08 126 -124 -122 -79 115 -119 090 123 -86 -121 084 106 071 -16 -123 -124 120 -102 060 -125 080 -117 -100 -122 -128 -101 125 
-123 -117 -120 -128 077 -78 109 -128 -111 -128 -125 116 -123 -128 101 125 -122 -52 126 -113 -128 -128 -80 125 -104 -19 125 095 -120 062 -128 107 -123 028 -68 -85 -103 -128 015 -127 047 -120 -128 073 -66 097 -128 -120 115 118 -55 115 095 -128 -120 091 077 -44 124 112 104 117 125 -125 
-97 118 -125 -126 062 020 005 -117 -124 109 124 -125 -128 -126 057 126 -128 061 113 -114 -120 123 102 125 126 -48 -128 069 -128 -120 -127 -124 114 005 103 -60 004 124 121 112 -114 097 -127 -03 -15 113 126 111 -127 -123 -97 -67 125 -112 122 020 -48 076 -101 090 113 126 -126 -127 
120 -104 109 122 -48 121 -127 126 122 -128 -128 038 -123 -117 -119 122 120 -66 -128 113 122 120 -107 113 112 -128 -126 062 122 -128 -115 121 -116 -114 105 001 -95 -128 010 114 -84 125 126 -109 -119 058 126 126 073 -120 -94 085 123 123 -122 -76 -117 085 119 110 -113 -128 -128 -17 
119 054 122 126 -85 108 120 126 -128 -116 -128 -123 095 125 117 -110 126 029 -98 -19 -123 -128 -20 -128 105 -128 -115 -77 092 029 010 124 112 -09 -105 -116 -25 -31 117 126 -37 112 -107 121 -99 -77 126 126 126 103 054 -111 -128 124 -121 029 124 -87 125 -116 117 126 126 -113 
-79 -125 -122 126 100 -125 099 -84 117 -128 -127 119 126 126 087 -71 126 -101 126 104 096 -121 -76 096 -128 -128 -92 047 -128 120 114 -124 -112 -111 002 078 063 124 -72 110 113 -87 124 -04 -125 -18 -128 -121 107 -121 -91 122 113 -128 094 -56 -82 082 126 -65 083 117 049 101 
073 -125 -122 -128 100 090 -118 126 117 125 126 125 125 125 -39 -82 123 -115 124 106 118 126 -24 -126 -128 -127 126 -115 124 -127 027 -121 -121 -63 117 089 -55 126 -104 -127 -106 126 -109 -30 -74 -114 -121 125 095 114 -90 -128 126 -128 -68 -43 -127 -84 -48 -87 120 125 -128 -48 
-118 112 -104 125 018 107 072 125 -127 125 126 119 -128 126 -110 121 079 -79 123 -65 -128 -117 115 102 126 025 102 -85 -92 -128 -106 -126 068 -60 -115 -48 -63 -128 123 -128 070 -127 -128 120 123 -103 -36 126 064 -92 -120 004 -128 -128 -117 068 -110 103 -128 -47 097 056 -109 -123 
-59 -120 -120 -101 -111 124 122 -128 118 125 100 121 -128 117 -118 114 -128 -119 -128 107 118 -128 -14 -128 126 092 -127 -80 119 -128 -126 084 -48 101 -99 106 092 125 008 110 -108 -99 122 119 -90 062 116 -128 -124 027 037 125 -127 125 118 -28 022 097 -109 -89 -99 -124 116 124 
-80 -125 -119 -111 -32 081 102 072 -128 -121 126 108 126 -128 095 123 -14 -61 -126 -48 100 -126 003 058 113 126 -127 -60 120 126 -128 -113 060 -78 117 105 081 125 092 119 -79 -57 -123 -125 099 067 -128 -128 125 062 065 004 054 -128 096 -08 -127 002 -71 001 -115 126 087 -88 
117 086 066 -128 -76 119 -128 126 116 -128 -126 126 -128 126 -119 119 107 -43 123 061 113 045 098 075 -94 121 125 082 050 -94 -128 115 -90 -60 -07 081 110 -128 113 008 064 -127 108 -102 100 108 126 125 097 054 078 100 -109 -128 116 -88 -122 -98 120 -105 -33 -109 126 -94 
091 -120 -62 -128 098 -123 -128 126 107 -124 -128 -126 126 082 073 -128 088 097 119 111 121 -42 -113 115 095 -128 012 -88 121 -128 -126 -123 121 -68 -115 026 039 126 111 125 067 -115 -110 116 -77 104 126 114 123 118 -120 123 -39 121 -06 052 120 -122 -59 084 103 120 -128 -51 
067 090 042 -128 -34 125 126 -128 -32 126 116 124 -01 -128 -63 084 -125 -44 -128 102 126 115 -66 -77 -128 125 113 -78 123 -123 -128 -70 -124 -103 084 080 102 126 103 030 086 -29 -128 059 124 082 123 053 073 092 066 049 118 -128 065 -30 010 098 -35 053 124 118 126 -123 
014 -82 -77 -124 -75 -41 064 -108 106 122 029 -128 -104 -128 117 -128 -128 087 122 -72 -125 126 001 -97 116 124 -13 071 115 124 124 -15 -70 -44 -05 066 -55 118 -67 061 -65 -126 126 125 -39 -23 106 -110 -92 -60 003 -119 104 083 -94 -78 050 064 050 112 123 079 106 115 
121 -122 110 -128 -19 123 051 114 -127 -128 126 126 -125 -128 -84 110 057 019 120 002 -98 122 -112 -128 -128 125 -115 -75 -127 115 -125 105 -72 -95 -112 -99 007 -128 -52 050 096 -124 -128 125 -101 -113 126 -128 125 -113 095 059 116 -127 123 036 -55 051 -127 070 -115 048 126 -127 
121 -86 109 120 -81 -116 -62 -118 112 115 -122 123 126 108 105 -47 122 036 123 109 119 120 -113 -128 117 098 -55 -102 -125 120 119 -96 114 -103 078 074 087 -105 -107 -128 -116 123 -128 -126 -125 073 -59 122 -126 036 -26 063 121 -128 -118 079 120 093 125 -37 112 121 -128 -124 
016 052 072 -128 087 124 -91 124 -102 126 -126 -91 085 -97 117 067 -127 109 -128 -114 121 125 -31 -122 -128 123 -128 -71 -128 126 125 -125 060 -28 105 000 -15 124 -123 -120 111 017 -77 -118 122 030 -128 -116 -126 076 -114 102 -103 126 -52 050 -115 117 -101 087 -101 -51 126 125 
060 -118 113 126 -103 123 125 -115 -128 -128 123 126 -89 -119 119 112 -128 114 -102 -51 -38 -17 -75 104 126 126 -128 -102 -08 -128 -128 -79 122 008 062 -80 -110 126 -127 021 -105 125 126 -122 -109 -83 -128 -128 -67 039 -103 124 -72 -128 087 -28 046 034 126 103 -123 126 060 120 
080 087 -65 034 -04 115 100 126 124 -128 -128 117 -126 122 114 -123 -14 -23 126 081 123 126 -77 -128 122 -126 -56 051 107 -123 -128 -108 120 111 111 109 111 -111 115 110 -55 126 -122 -82 -27 -30 125 -119 -79 -123 -115 099 119 012 113 -12 115 095 -112 078 -125 126 117 -64 
-70 -107 -77 126 100 109 125 -128 125 -128 -128 125 -126 -47 -52 -127 -126 079 046 032 015 -127 093 -126 126 -128 -10 037 117 126 -78 074 015 054 112 068 -62 124 -57 -127 076 -115 -115 -120 059 107 -128 -128 095 -57 112 061 108 -108 011 075 105 -76 022 110 -95 126 -128 -91 
-88 040 115 125 -112 -124 -128 125 -49 123 116 085 126 113 -11 -126 -42 113 -127 113 -128 126 092 -128 126 126 -126 109 -15 -128 126 110 080 058 024 -117 071 -128 124 116 -111 -128 126 118 -125 060 126 -126 -114 -31 -46 035 126 067 -126 024 088 -112 -123 -105 -82 -88 126 108 
080 -71 124 -02 -84 010 051 125 -89 -127 126 126 125 -128 -86 126 -09 101 -128 -56 -124 126 064 -122 -128 056 -127 074 -128 -57 -128 -107 120 -97 -83 -85 077 -128 107 115 -71 -114 117 125 -123 020 -125 126 -125 038 -70 121 -121 -128 110 050 -126 104 013 -06 064 023 -128 -125 
-120 053 -62 -126 071 -108 126 122 106 -118 -125 123 126 124 119 -121 126 -79 -118 005 -103 076 -112 126 126 096 -127 111 -23 116 126 -73 112 -76 084 -13 001 091 125 118 087 126 -02 -126 -113 069 -67 126 125 -123 -01 038 126 030 097 -79 068 112 -125 027 -84 -128 126 125 
-85 119 100 122 101 097 121 109 -128 117 126 118 -120 119 -21 106 116 -11 125 066 111 -120 074 114 -112 117 -116 016 -109 123 -105 -119 -102 011 -33 -91 093 123 -86 021 -107 126 117 -97 114 070 126 -126 118 099 -64 050 119 121 -99 -86 -55 022 -125 -86 060 126 122 -75 
070 090 123 -128 062 113 -128 -128 124 -115 -110 093 125 -121 -02 -128 048 081 123 114 090 104 -92 126 126 123 126 113 114 126 122 -126 -56 057 111 104 -20 -124 079 033 114 061 -128 -117 -123 102 -128 126 111 -93 -16 011 121 122 102 -98 -74 069 125 -56 119 -128 126 122 
-114 102 -124 123 -102 -127 -119 -126 097 -128 106 068 -125 117 110 095 -128 061 121 -113 125 -128 -99 -111 109 110 026 -109 -128 -128 126 120 117 035 -17 -96 -116 -128 122 -109 002 114 -128 079 025 -61 -128 -107 109 -29 -125 -32 118 123 -42 -96 -118 030 -105 089 123 123 125 117 
-88 121 121 -128 037 125 122 -128 078 -128 -127 103 126 099 -121 124 118 077 -128 015 -128 126 -59 -128 024 -128 126 -105 -122 108 -66 080 022 -98 -110 -109 104 126 -48 -128 048 -127 -128 046 104 -82 -125 126 124 122 -122 111 117 -128 004 046 -17 077 -124 098 067 -128 126 -100 
-45 033 067 -120 -97 014 125 -122 -121 112 -128 -124 -108 -120 -105 -121 103 -60 119 107 126 120 105 -123 -112 105 115 105 125 126 126 115 -118 104 070 063 025 -103 103 124 -117 -128 -125 105 087 018 124 114 -128 -111 073 -37 121 -128 000 019 -96 048 -114 100 040 126 103 -76 
089 -98 122 -128 -107 -110 -104 126 -126 122 126 093 126 -128 080 120 107 102 -128 022 084 125 -59 118 119 111 006 103 -33 123 123 078 -54 -106 -108 107 050 126 115 052 -63 -127 -105 -126 -57 094 126 -93 112 118 -68 -124 112 119 107 -95 -92 -26 -121 -74 -75 -126 124 -128 
093 106 067 126 -48 090 118 -100 126 126 126 -105 004 -128 108 -72 -107 096 010 109 026 125 046 122 126 -89 -127 111 084 071 -127 092 120 101 116 100 068 -108 -120 -119 -64 011 119 -93 -92 -75 121 126 103 086 -123 -70 -127 118 124 -20 -126 095 -126 -115 -37 107 -126 126 
120 077 115 -128 091 045 125 -71 096 102 092 083 -123 -123 -86 122 -32 -101 -26 -112 -126 126 056 090 -128 125 -104 087 015 -120 126 -120 -123 -20 -39 103 -113 -128 004 -122 -29 106 -114 -04 -126 -91 126 -128 -99 -121 -34 -106 126 -128 -116 075 -36 -51 055 -108 110 126 125 112 
-121 -119 118 -120 -42 -15 057 119 118 126 126 109 125 119 083 125 097 075 -124 091 -121 124 -104 120 120 -125 112 115 -101 125 -114 -124 -115 -113 -116 -114 -81 126 -114 120 -58 -128 -128 -92 -114 096 -120 -126 -116 120 085 -123 -127 -126 124 013 -96 -90 124 -88 -124 -128 -126 -46 
-95 032 086 125 -07 122 125 -97 -122 126 126 118 -124 123 -76 123 126 065 126 099 117 121 -95 -74 111 126 126 059 -128 123 115 105 082 -78 -111 062 090 -128 080 123 -44 -128 123 125 123 -109 -124 116 095 -122 113 123 117 125 123 -67 072 102 -127 080 101 126 118 125 
-120 071 -98 126 -109 -57 -124 -128 125 125 -83 100 -110 126 110 121 -115 -88 -128 104 116 092 114 125 -128 115 -124 -39 -128 -128 -113 -113 072 -53 -87 095 -88 -127 -121 125 -113 056 -93 -122 123 -47 -128 -126 106 -15 050 -27 123 -128 -10 -46 090 -120 -126 -57 -73 126 -38 032 
011 -120 -125 115 -12 122 -120 -78 -112 126 -123 126 -126 -128 107 -16 -128 095 -126 097 -116 -126 033 -128 -128 -69 -65 -24 123 -98 126 117 098 -61 -28 -118 084 126 -87 125 -18 126 -06 -06 018 018 126 -121 035 088 -41 123 102 -51 -107 -61 -124 -07 125 065 -04 124 070 -100 
007 -15 047 -128 -10 068 -94 125 126 126 119 -30 119 -126 -110 126 -47 -72 -128 060 118 126 064 113 -128 -106 -115 058 -108 091 117 029 -41 110 -110 -95 -15 -128 -69 125 058 -101 035 115 117 097 113 060 115 090 -02 118 126 -109 124 -28 124 -104 115 -90 060 126 -121 -60 
-30 092 -107 -120 109 -38 125 126 -08 124 -128 117 123 118 -70 -114 114 -128 -128 065 111 121 -75 122 -122 126 -114 101 126 124 -93 -93 -24 -58 -108 -26 114 -117 -102 123 -50 041 -125 109 096 -114 126 107 099 -124 -124 088 -125 -125 -25 061 -108 -107 058 -51 -120 -104 126 023 
118 099 048 050 109 -127 -126 -76 124 -123 -120 119 -88 126 009 -99 087 -89 126 096 126 -111 -12 -115 118 -87 -128 114 111 126 -128 -72 075 088 116 -116 041 111 103 -120 104 126 126 017 -17 -99 -128 126 -128 -124 -51 053 -30 091 -104 -92 121 -114 -78 016 -85 -94 126 106 
123 118 -111 113 098 -125 -53 -128 075 -127 -117 120 -126 103 -47 100 106 -87 111 107 124 125 -110 -128 097 085 126 -83 112 107 121 106 -105 099 -55 -23 035 121 -87 -118 -70 -90 121 -68 -56 103 126 -128 104 006 -31 -16 123 113 -27 074 -122 102 -38 048 -45 003 -128 -123 
-87 120 -10 120 000 -08 123 119 126 -77 117 -128 126 -128 027 088 -107 086 003 047 060 -88 -94 -128 -128 121 009 076 -99 126 028 -04 -10 097 -84 -05 037 -127 088 126 098 014 -55 021 015 -116 -128 -50 -71 -124 086 120 069 120 087 014 105 103 -128 042 -99 -84 126 -13 
113 -50 084 126 063 032 -124 121 -115 -127 125 -113 -128 126 097 -108 119 -42 126 105 -128 115 111 -107 -127 -19 -128 090 -128 -123 061 -88 -97 -21 -119 -85 057 -83 112 126 083 -27 -128 124 -20 -106 -128 121 -123 120 -66 -127 -126 112 055 -27 -127 -55 -127 -05 -48 -128 124 120 
121 105 -28 126 -112 121 009 120 -40 115 071 045 -127 124 118 116 116 091 126 -02 102 120 107 117 -67 084 -11 107 125 115 122 -124 -44 099 -117 096 -65 126 099 111 -21 -128 -128 -104 122 074 -01 -128 102 109 084 -106 113 116 116 040 102 -121 -127 075 -86 117 116 109 
-124 041 120 -121 -10 125 -116 126 125 -24 -88 -128 -128 -128 -117 115 126 -82 119 081 032 -127 -112 061 072 -113 -128 -70 -118 057 126 -121 -83 084 -114 -107 054 126 -114 -63 024 -127 -128 121 -119 -51 -128 -75 124 081 043 -54 -128 082 033 068 -15 -106 -18 -106 -07 -127 -128 117 
123 -121 -126 -128 -36 104 115 086 046 123 -128 -91 126 071 041 -128 045 -109 -128 -53 -127 126 -17 001 115 -128 -69 -108 -66 -106 126 -17 -103 -31 -15 -89 091 -39 -25 -128 -101 126 126 -13 -110 027 -128 -119 -118 -118 121 -124 -59 007 049 -98 -78 -43 125 -67 111 109 126 -118 
007 -19 124 126 092 089 122 126 -114 126 126 126 -128 -128 106 -113 -125 -105 113 -108 124 -128 -104 -100 -127 -123 -109 -40 -100 -112 -85 -123 -102 073 027 -117 -115 093 -126 126 -03 105 126 017 -120 105 126 -128 -127 -119 085 -124 126 -127 -122 086 101 -117 -125 -109 -100 070 118 -128 
108 121 -76 -116 106 -126 106 -125 095 -01 126 -111 010 126 -92 022 070 076 -128 -23 -56 -118 086 -80 120 117 -128 087 123 -70 -120 081 -97 036 -96 024 033 -128 -83 126 058 -64 076 104 -92 -82 057 119 -11 101 -121 -93 -125 -117 -116 -57 112 003 -125 072 111 126 -11 -128 
-121 -119 -108 043 102 087 124 083 125 -117 -128 125 126 -128 117 126 011 -114 111 -78 -128 -128 -43 -128 126 126 123 -108 099 124 124 -50 -09 -108 -99 -03 -100 -128 -126 123 -80 123 126 124 103 -113 -128 074 -71 103 116 081 -40 122 041 093 -124 -45 -94 065 -118 074 -127 -126 
-109 -117 -121 126 -106 120 124 -123 100 126 126 120 -125 126 -113 123 118 -92 126 109 111 -120 077 -67 118 058 -107 -93 124 096 -128 -83 -119 096 -24 089 -93 121 104 -127 079 -88 -127 115 -106 101 -122 -99 123 -94 062 -108 117 -120 -126 078 105 -109 101 102 -125 126 -128 -127 
-03 -36 098 -127 102 104 090 -128 -126 -128 -118 -124 -110 -128 052 -127 125 110 087 109 -121 -128 097 -106 122 121 -127 -29 113 126 -49 -117 -90 -59 -110 058 096 -113 114 -24 109 115 126 -118 124 -36 021 -128 078 118 -49 -50 -95 124 -121 -25 120 -03 -127 -91 115 008 125 -127 
058 035 -26 -128 -30 -84 -51 030 126 125 123 100 126 -99 -92 -05 124 -88 059 -107 126 126 -102 -124 126 -128 -111 -112 -128 126 -128 -126 097 093 -66 -108 -31 -128 041 022 -63 122 126 123 073 076 105 079 107 073 098 -13 -103 -128 -123 002 117 -67 -109 -95 -27 -113 126 123 
094 006 -40 125 -92 -110 -127 115 125 -117 -128 126 -128 082 -109 114 105 049 107 -100 -127 126 -92 -127 126 -128 126 111 -97 -109 -127 109 122 -89 -58 -09 041 -120 -119 063 012 -128 124 -106 052 093 -128 125 027 088 114 -124 -123 126 003 073 -97 -56 099 -100 -123 114 -127 -119 
037 033 -104 108 -45 -112 -102 116 -127 125 124 075 -128 -128 -122 113 126 079 118 033 -111 -128 097 106 125 120 -123 -95 126 125 125 121 119 -71 030 -38 -30 125 -97 -128 087 -116 126 040 -81 027 123 072 107 102 114 -126 124 -127 -117 -26 -101 -87 093 -05 065 126 126 -124 
-32 -101 085 122 -112 040 -122 -128 124 124 125 -111 119 106 -110 117 -128 -117 -128 044 107 -18 -83 -128 -114 126 126 -116 -128 126 123 -59 -38 -95 009 -75 -97 -128 -86 097 112 121 -54 -123 -42 -58 126 -128 -126 121 -84 -70 120 125 -99 -80 093 078 -124 -40 -70 -116 119 125 
-72 -39 -113 -110 -105 -83 121 121 -77 -128 125 105 -128 -102 -63 089 -128 076 118 -101 -74 051 096 126 -128 126 -128 087 118 112 -114 030 060 -106 057 100 -113 -49 048 -14 059 -128 -121 -36 -119 -101 015 021 122 122 -65 123 -117 121 121 071 123 110 -95 040 006 121 126 106 
-103 -124 111 126 097 -127 -112 081 116 -128 -98 -100 -128 126 -79 126 -48 044 126 045 -128 126 -83 108 123 038 -128 -14 126 039 061 112 059 106 059 101 -115 126 -81 126 071 -128 126 123 070 076 -128 -118 -127 -43 -120 -67 -128 -87 -03 -40 -124 011 -70 -13 -110 126 111 -111 
119 -120 -31 118 -72 120 -117 126 -87 -80 101 126 126 124 -58 -76 -127 101 -126 -19 -128 -128 012 -35 126 126 126 090 -98 -40 083 -123 -50 092 -13 -118 -57 006 -34 -122 110 126 -123 -108 000 -17 120 031 -124 075 025 -56 -126 -128 119 055 -83 073 -123 039 -62 -128 126 041 
-46 -113 -123 -125 -69 109 117 -112 -127 114 -117 121 120 -112 -64 126 121 -21 121 097 124 -128 104 115 116 -128 -101 -82 116 114 -127 -122 081 071 -104 -81 039 125 -120 -90 101 086 096 -116 067 -61 101 -124 -81 119 107 -48 -128 120 122 -82 -63 095 -126 087 -124 -102 123 123 
118 113 088 099 100 124 -108 114 019 082 126 -116 106 -128 -77 -127 -128 -117 126 062 100 -94 081 081 -119 125 126 -46 -124 126 -121 043 013 092 -109 -113 -104 048 -70 -126 -42 125 120 113 028 -47 -126 120 125 120 119 115 -128 124 -102 057 -95 -111 121 -92 077 -126 -124 091 
-108 -38 -95 -128 030 116 -115 -17 -123 -128 120 106 099 125 046 -77 -96 -95 126 048 126 125 085 104 -128 071 016 047 -101 126 126 -77 093 -112 097 -81 -49 -128 -80 -124 041 -128 -128 -126 -103 -102 112 -77 057 -124 122 -01 -128 126 123 -58 -105 -53 125 -75 067 122 -126 -126 
-122 054 -87 -128 -102 -75 -93 123 111 116 126 113 123 126 056 109 122 -82 126 -03 126 126 104 053 -128 -87 -124 103 -124 -128 -128 -93 -123 082 053 096 095 123 -123 -127 -52 -115 -128 102 036 060 124 -97 104 043 -69 079 -107 126 -123 044 108 105 115 -57 040 -128 121 -121 
111 084 -61 -15 053 -24 -67 -109 -127 053 126 125 -126 -119 -122 -128 -128 -62 -124 044 126 -128 078 -117 -22 124 022 093 126 126 -110 -118 119 099 -86 -66 051 126 112 122 -12 -63 004 -113 -123 112 -128 126 -127 -117 119 -107 -33 105 -33 030 -112 113 -127 080 123 -126 -128 -127 
-73 -28 -122 -117 087 100 -125 -121 122 125 122 -121 120 125 -112 -118 -87 087 126 -116 -128 124 108 126 113 112 -109 -71 113 126 118 122 118 107 -67 -84 108 -124 122 -128 078 089 -128 123 -78 -09 098 -114 124 -110 020 061 118 -112 -107 059 -124 -100 -87 093 -83 -104 -128 -96 
058 108 -123 119 056 -55 091 -128 116 -37 -128 -101 -128 119 108 -127 126 046 -120 -58 102 121 111 -125 125 -56 064 -108 -89 -34 126 -80 116 100 093 112 -86 -128 123 -50 078 100 014 -90 -02 -23 -125 -128 -95 015 -98 -128 -118 -126 103 -30 -126 -104 -128 -111 -85 014 -122 -125 
-110 -86 070 014 067 -126 -115 -128 -124 117 126 -70 126 -128 121 -51 126 -112 -128 052 -128 -127 -103 124 126 -127 119 -119 -128 058 126 105 102 -48 000 -118 063 126 107 -128 -109 -127 -128 -125 120 -110 053 109 123 -26 -117 117 -128 126 098 049 -115 -113 081 082 -52 124 -128 -127 
-124 -94 093 117 026 -122 126 115 -67 -44 -128 120 126 110 -122 112 -90 -17 -128 -82 007 -128 -16 119 126 085 110 092 126 -121 -128 -127 118 -66 -80 -94 -03 -128 110 094 -44 -128 -128 -120 -35 -115 -112 124 094 122 -72 -87 126 -128 123 -09 122 -102 124 -65 102 -128 126 104 
049 -113 -73 126 -104 121 115 126 -105 125 116 115 126 124 -103 036 126 -51 123 066 -121 -128 009 -119 123 116 -128 -113 -126 118 120 -125 -108 -02 085 085 094 126 099 -122 -70 -113 -123 -123 -99 040 126 126 121 -98 -28 -88 122 124 115 090 105 -117 015 -112 -109 -120 126 -112 
-23 -24 -118 126 -114 -122 -87 121 103 123 126 -110 126 -121 -114 126 126 -54 -128 -110 -126 -128 -63 -125 -123 -122 126 -114 124 126 -128 -126 073 097 028 -24 -79 119 -52 -109 -01 -41 -109 076 036 086 122 -104 -128 093 -46 -125 -128 -59 -117 -27 -125 054 -115 025 004 -112 123 -127 
-17 092 080 076 -73 -121 -124 -128 -80 126 126 -125 126 122 -101 -121 092 102 111 -73 -128 126 -110 103 126 -128 126 -98 125 -128 -128 -102 -93 -112 100 -66 045 126 -126 126 -01 -73 097 -116 -115 026 121 117 106 016 -113 027 -125 122 -114 -58 -115 019 123 090 114 123 126 -127 
096 -102 055 126 -25 -106 -119 126 125 -41 -126 001 126 125 118 -69 -128 111 -115 069 -72 -128 038 126 -128 -126 125 010 -82 -128 -128 -117 -79 001 -53 -104 025 126 -119 -116 112 -127 095 049 034 044 -107 -23 -98 -99 -122 -29 124 055 -123 074 124 087 083 060 -100 126 124 046 
024 -67 059 119 030 -46 -127 112 -47 -128 126 123 123 -128 -44 122 -128 078 117 090 -120 -124 110 117 126 085 -128 -73 -120 126 -124 -125 -70 -105 104 -59 -101 123 -105 -128 114 -128 105 -119 103 -48 -125 -97 119 -123 -61 093 113 118 -105 080 -78 098 087 -30 099 120 126 -120 
079 -110 -99 -124 097 -123 -16 126 -101 -128 124 -100 -128 126 -93 067 095 -91 126 -07 126 126 -55 111 126 -74 056 070 -128 125 -128 115 -123 -58 058 -40 107 126 090 108 114 074 029 -106 066 -06 115 014 036 018 107 -124 -128 -128 123 092 -83 080 072 -68 -80 122 -128 -127 
-54 098 106 -128 -63 -37 -121 -128 126 -119 -128 126 117 121 -34 048 -128 086 -91 -79 122 126 -116 113 -127 -99 125 -78 107 124 -128 116 111 -73 -100 108 100 -58 -102 103 110 -04 -128 124 013 -109 -114 030 -126 -81 -121 124 125 -121 064 009 094 102 125 025 -124 122 -128 010 
-64 051 114 108 -93 -102 123 096 125 105 125 115 053 111 -01 -124 120 089 119 -107 031 -127 037 118 -128 -118 -113 -86 -128 126 124 -125 034 041 -88 -103 096 -128 120 116 -71 126 112 -106 031 106 126 126 -100 103 100 -127 -128 -128 -26 -96 115 080 124 -108 -125 121 -128 116 
-117 106 118 -128 -93 098 091 125 -126 119 126 119 -128 -128 074 126 126 -86 126 -66 126 -121 099 123 126 126 040 015 121 -107 -72 -55 064 067 030 028 114 -128 -57 118 015 126 -91 -118 -124 049 -128 -128 -117 121 -76 -75 095 -128 -37 -28 -84 -119 018 076 -96 -75 -128 -116 
-115 039 122 121 -01 -10 026 118 099 125 -128 110 126 123 -123 112 012 019 124 -25 115 119 074 116 118 101 -85 102 116 -123 126 -61 047 108 -05 -112 -87 -128 -126 112 -77 126 037 007 -122 053 095 -127 098 077 -41 126 119 -118 -124 092 -126 108 119 -113 -125 -116 -123 085 
-03 044 092 -128 -50 -120 126 -128 083 111 -115 122 -85 126 076 116 108 -66 112 097 114 -128 113 -108 102 -07 -125 083 -119 -128 -79 102 -111 -53 -68 -104 -114 -123 124 -128 -61 -48 120 124 124 -116 -115 117 118 -50 120 -46 125 -127 -120 -54 114 070 013 -54 -121 -124 126 125 
116 -69 121 -128 -57 108 -127 -128 123 125 -81 -118 -127 110 -123 -128 126 -62 126 -115 092 -43 -109 125 -104 -124 -121 084 -57 123 -53 016 120 100 023 072 060 -128 -127 -88 -117 125 126 060 104 011 123 126 -125 087 117 -114 -127 -128 107 -57 -75 097 -127 -70 079 -127 126 -123 
078 -09 098 -97 -113 109 125 -44 -119 -62 126 -81 126 -105 077 -99 -107 -116 040 041 -42 126 112 120 049 074 124 -65 122 -92 -128 -124 068 -98 -112 -32 027 124 044 -128 -73 125 -126 088 -83 -92 -128 126 -126 -109 -124 101 079 -128 113 091 054 -51 126 -80 084 -128 -97 -127 
123 108 125 126 106 -70 124 126 121 -128 098 -128 -82 104 007 074 -128 038 112 097 122 -43 011 -122 120 -128 126 080 070 126 122 -103 -113 052 -56 -19 088 125 122 -128 094 126 -110 -123 -120 112 125 125 -119 -108 118 -100 122 126 -51 -63 -111 075 040 052 118 126 093 -106 
113 -117 -125 092 067 122 086 126 123 126 -38 -126 126 096 097 126 098 -114 114 092 -54 -128 -112 -128 124 -127 -118 117 -128 126 068 -45 -115 078 -59 092 -98 126 091 126 -117 -128 -128 121 123 -102 126 018 -115 014 037 126 126 -128 021 -10 -126 -115 126 -17 037 126 -126 -60 
107 022 110 -128 -92 -100 -106 -128 117 -128 124 110 126 120 -117 106 -128 061 -108 015 -127 126 -109 092 -126 -83 107 -119 -115 -120 -128 -120 -60 -95 -48 -41 080 126 055 125 -101 040 -128 -121 112 105 126 -58 090 -43 -88 117 -111 125 -84 -37 -82 092 121 -107 121 080 -128 -123 
100 -122 122 -126 044 -85 -123 -128 039 125 -128 126 -124 126 063 126 106 -47 124 -14 -111 -128 -24 -59 -108 121 -110 086 -105 126 -02 -122 114 111 068 -102 -69 -128 -124 120 079 -128 104 -97 -54 -81 126 126 039 -118 083 -117 -32 -128 000 042 -123 029 -127 -104 072 115 -128 -125 
-15 -56 -69 117 -48 124 -17 114 102 125 -82 -128 -112 094 102 121 121 -68 089 076 -128 126 -63 111 116 -123 126 083 -118 122 125 -124 122 057 -43 -29 074 114 035 125 -10 125 115 082 -104 -109 -128 -128 103 082 -106 -106 126 122 055 -30 103 094 -126 017 -118 106 -128 075 
010 -110 -64 -128 -94 101 074 114 -112 -128 124 121 122 -128 077 126 -118 -62 -118 092 126 -128 -92 -127 125 -125 -57 100 -127 -120 -53 095 010 -44 022 -111 -58 -125 -77 126 -90 126 126 -124 -116 -21 -125 -127 041 -69 105 108 -113 -128 123 085 -85 -11 121 -110 088 125 112 -127 
119 033 -26 115 -105 -118 -127 -128 017 031 126 -123 -111 -102 -121 -128 062 004 -128 015 -36 -128 -09 117 121 124 -69 -89 115 087 -128 -124 -31 101 015 113 -109 -56 -111 -126 109 -127 106 -122 120 105 -83 -09 -100 088 119 -126 010 091 -98 017 065 043 064 111 093 066 126 -42 
118 004 -107 -114 -16 113 122 -128 -03 089 -128 -128 089 -128 118 094 122 -77 120 084 126 113 020 120 122 -121 122 -06 -118 -128 -128 117 115 -114 -107 041 025 123 -94 126 114 -124 -120 050 -122 -97 117 126 -112 102 101 125 125 126 078 -95 -127 -35 114 070 029 -118 126 -119 
-25 -40 -113 -124 088 -115 -74 -128 093 121 116 -55 -110 -128 089 126 122 102 126 098 -128 122 -76 -126 -128 122 -128 106 122 -128 -123 117 -91 073 -114 -113 110 126 -31 -128 -47 -122 -112 -108 073 -85 125 124 011 -70 -89 -79 125 126 -126 006 -119 011 -58 -105 -123 120 122 -126 
-102 -36 124 -128 100 -122 094 -128 -96 -128 -112 -116 -56 -62 007 034 113 -10 -128 -108 126 126 -48 -128 -128 055 083 068 -55 -128 -78 -96 025 -101 086 014 -112 -128 123 -78 -54 -126 -122 -40 121 108 -128 123 -63 -32 027 -127 -90 126 -80 -82 107 085 -126 -61 -96 121 -127 125 
112 -113 123 -119 -64 124 -126 121 -128 126 -06 125 015 116 003 122 -125 049 126 113 -128 126 109 121 111 -127 -128 055 123 -102 094 123 093 -106 -110 -98 064 036 -113 126 103 126 126 063 108 008 100 124 126 081 113 123 119 113 -120 -33 026 113 -127 -99 -04 -112 050 070 
098 122 113 125 042 -98 125 115 -127 -128 110 125 -125 119 -87 -128 -128 -111 126 100 126 122 -43 109 -117 -124 091 -114 -101 118 126 -07 088 097 -85 -81 043 032 115 -95 043 -02 -128 072 -89 -51 067 109 113 -118 118 110 -118 116 087 092 -115 098 -05 -66 124 110 -117 125 
-107 109 120 126 088 098 -105 -113 126 -104 -127 126 126 126 -72 -106 102 -98 126 -108 -128 102 -06 126 -97 072 -124 103 103 -128 126 117 068 -65 061 -62 -98 126 105 125 -98 -128 -77 049 109 065 045 -128 124 -47 059 104 -128 -128 -125 -09 -117 012 -127 095 088 -115 -85 003 
044 -27 -11 126 -104 011 -113 125 -126 -128 125 -125 -60 -124 -26 -128 126 113 -97 094 126 -128 093 -128 -120 -128 126 112 -128 -128 -97 120 -72 -38 084 -103 -114 -96 -32 -126 098 126 -112 -125 -69 040 112 117 113 116 -46 125 -116 126 -118 023 -126 117 124 112 123 -104 -116 066 
-28 -44 -16 -119 061 -124 078 -128 -128 014 126 122 -128 125 062 -126 -128 -108 126 111 -128 126 112 117 126 126 121 -36 002 -128 -128 -50 -99 096 -15 -05 -99 113 -126 105 049 126 -126 -68 -113 -101 -127 126 082 115 -110 -126 118 -128 -125 072 -126 047 -124 113 047 125 -127 116 
115 100 088 -122 065 087 125 126 115 -128 103 -128 119 -123 105 123 -128 087 125 081 -118 -128 109 -114 -04 -128 -122 -01 -127 126 121 107 079 069 111 103 068 110 123 -111 -67 -52 -127 -112 111 099 -128 -123 122 -18 -124 -125 -123 120 -41 -94 -36 118 081 069 -117 107 108 126 
099 075 124 126 067 118 -126 122 125 126 -123 -104 -128 121 -15 125 123 -103 -115 -106 124 126 067 -128 021 -68 126 031 126 -128 126 085 -100 -88 -49 009 108 -128 056 122 100 080 116 114 098 -107 -125 126 -126 052 -110 -125 -126 -128 -125 -67 033 -70 113 -48 -113 -109 126 094 
115 123 -114 116 088 -91 111 126 102 124 -100 062 -121 -125 -84 109 104 -95 117 081 126 -128 -59 099 099 113 -127 -79 -115 -74 086 -93 -81 -104 093 108 -110 126 -126 -126 -114 -123 118 -126 051 105 126 126 094 118 -110 113 123 092 023 -93 -126 085 -44 -104 -121 108 -120 111 
115 003 -123 -128 -104 -69 082 108 117 123 -123 -128 -116 101 -121 -128 124 034 -60 -03 126 -92 -86 097 -111 126 -124 -21 -128 113 -97 044 -120 -96 -86 -52 -59 -123 116 116 -109 104 118 091 121 -48 -126 -126 093 -98 115 -108 105 126 125 050 124 079 119 -111 102 126 126 -125 
