058 -72 -59 -47 015 021 -78 -40 -32 -09 004 002 -25 -10 027 023 -67 053 001 -21 039 -84 -63 112 061 004 073 050 005 -41 034 072 034 -51 077 -77 051 017 -44 -58 -65 002 -06 -78 069 034 049 081 018 -30 -63 -19 -83 069 -17 -77 -58 012 000 -87 -56 018 060 -32 
042 037 057 -50 -60 068 -65 -15 -114 042 -84 008 -05 -84 -06 042 085 056 092 048 -38 068 010 -71 -83 003 -49 034 012 -22 047 018 073 -03 035 -67 -31 018 -40 047 -45 069 021 -76 -96 053 -115 -15 013 041 039 086 -36 044 076 073 -73 -62 -84 -06 036 091 077 -39 
-32 -87 037 -55 072 -32 059 021 104 004 074 -31 054 -39 -19 015 -20 -58 -112 049 -06 029 046 007 -72 045 -35 049 078 009 -13 -39 -09 -08 -75 -58 -05 -62 067 -77 073 013 006 -33 027 032 115 -73 076 044 -72 -09 103 032 -32 -74 058 035 062 088 -18 069 -59 -08 
058 -30 -06 -54 -45 036 -30 -26 010 031 -23 016 035 046 065 -64 104 055 -98 -34 069 -15 013 -94 -27 -34 -71 -13 -37 -34 -07 -15 061 011 -72 -48 032 046 084 -30 082 005 065 -48 089 -38 -27 037 -52 024 -52 -89 -95 -60 -14 011 -34 -93 -68 039 033 014 061 -95 
-46 -74 -24 008 -66 -52 -52 065 -102 -51 -57 -35 -68 -98 -20 012 001 040 111 055 -52 083 -59 -49 -36 -13 063 -05 -05 049 -47 035 007 -09 050 -91 -61 055 -58 -67 006 -54 033 005 033 -28 -92 049 014 -60 048 -22 041 083 008 -27 -75 067 012 -10 -05 089 020 -88 
-15 -34 052 044 -81 -41 052 -69 099 048 068 -76 -27 -57 -69 -49 -61 -63 -115 012 -04 -57 -69 -22 -78 -31 -95 034 032 -44 -47 -33 061 -49 086 -57 -15 017 -23 000 -63 088 -02 -70 -94 -25 -116 005 034 -11 070 025 098 011 -09 001 066 063 001 045 015 088 070 -01 
002 019 041 006 -56 064 -45 001 -26 034 -47 -89 -77 -80 -06 051 -54 099 -69 -102 067 -68 -50 -111 -25 -11 -82 -33 -41 -05 -43 -01 024 070 -43 059 047 -66 087 051 -38 -76 -16 -53 028 072 007 068 -88 079 058 055 -106 -101 -44 082 -14 -39 -47 093 -77 -49 058 056 
023 015 041 -39 -83 032 023 -06 103 009 -13 068 071 009 010 -57 077 070 -77 -77 -40 073 091 091 -10 -23 -75 -27 023 -01 020 061 095 034 070 -79 061 -38 095 002 076 025 -51 015 037 031 042 -62 039 074 070 073 -72 075 070 -02 078 -72 -48 088 -51 -103 -29 077 
-52 -90 011 -12 -88 -01 052 -69 -94 053 -13 -46 053 -62 -34 056 -95 086 042 -59 -49 004 -73 097 -46 018 095 -19 073 036 042 -28 014 -23 007 -61 046 -26 -33 022 -93 -66 013 -70 016 -33 057 -82 077 -30 077 -98 -76 -44 -40 -55 -38 -49 -42 -66 -70 -70 039 -75 
019 011 013 -43 069 005 059 -15 029 009 077 036 -24 048 -83 015 -11 -06 093 081 -13 009 032 -54 023 015 -30 031 -41 021 -60 -66 017 -35 028 -59 -20 050 -43 067 -23 -82 032 -74 036 025 -123 -81 -58 015 012 037 109 -55 -52 069 049 089 -33 099 -09 062 -83 -99 
037 033 058 -21 041 -05 -41 024 -32 021 -18 039 007 -31 036 009 017 -21 068 104 -48 015 079 098 050 -71 -05 -09 -58 026 042 -55 070 019 -11 016 045 058 014 041 -88 -14 -76 081 -55 -24 -115 080 -05 059 -46 007 -47 059 -39 -63 087 -69 -61 -22 073 -03 -32 070 
047 042 -60 018 -81 -30 057 -48 067 040 051 058 -50 016 -45 -38 -83 -22 116 -73 -56 -41 000 112 -51 -40 000 -50 064 042 044 -27 -83 033 012 -52 -23 029 -72 069 -86 -70 -78 -59 101 073 -51 -75 054 020 069 -57 -65 -08 017 021 -70 -91 -27 030 -03 -04 036 093 
058 -78 007 039 076 060 -22 059 -111 042 081 079 063 014 066 048 081 069 -38 092 -73 -13 -82 -95 -79 -40 -86 -25 054 -26 027 -15 -31 -57 -20 -90 -03 012 -02 -50 -80 -80 045 044 091 -31 022 -34 -63 -08 008 -57 -54 -20 -28 065 -88 -75 -60 -66 -58 -103 -67 -83 
019 046 000 -28 -53 007 062 000 -53 -22 082 -87 -03 008 074 035 029 -33 108 006 008 -22 022 -44 040 066 062 -06 055 023 -31 072 -83 022 086 074 -17 -46 -37 021 025 075 -65 -64 -107 044 087 -25 095 -17 -07 -06 -101 -69 009 003 -62 068 086 -61 -79 -38 -58 041 
-65 -49 -57 031 005 008 -08 -19 047 -14 031 -80 -68 020 -89 031 022 061 -74 -51 -77 -29 -36 -107 -83 -11 -24 -13 037 028 047 -47 076 061 -56 -44 008 -66 -21 -18 -84 091 056 023 -85 -37 119 023 067 005 076 -10 099 -48 -52 -85 -04 -27 -75 007 015 -68 -39 032 
-46 068 -65 -35 -18 -32 106 002 033 028 074 078 044 081 029 022 -89 062 103 094 059 031 -19 000 064 -15 096 035 080 026 006 -64 -22 042 -11 -26 075 059 -52 074 -25 -44 -78 -73 -107 040 067 -69 -45 024 093 -90 -24 066 080 -52 023 -01 -77 -74 -78 -60 099 103 
003 076 009 -17 053 004 064 036 -51 054 -38 -23 -11 -15 006 045 096 078 -90 -55 -04 -72 -17 -18 067 -42 -39 -48 -27 -42 022 -33 010 -08 -44 015 044 043 -49 -44 036 075 -02 -66 086 064 061 013 076 073 001 026 065 -02 -15 -82 -58 004 -83 028 053 080 -37 -49 
-27 -79 -05 -50 012 -03 -32 -01 044 045 050 073 073 -76 -01 -67 049 -13 -108 -38 -66 024 057 113 085 066 076 -53 028 011 020 005 075 -08 -84 044 015 -02 -20 -07 015 088 -56 -08 100 027 098 -22 -02 050 043 -76 063 -06 -64 081 067 055 -76 091 -51 102 -72 080 
-52 -90 -26 037 -49 -01 048 -47 -97 067 036 -29 -12 -14 -90 017 -61 -65 -79 -95 071 000 025 -109 -83 038 -01 052 078 -42 -31 -11 039 -42 -70 -05 -49 010 071 033 079 087 -76 032 095 019 112 077 032 072 -31 -03 101 -94 042 -45 089 081 085 042 -74 020 017 077 
-57 -03 -32 045 059 -01 -08 013 013 -41 016 -37 025 -32 -46 -51 046 -06 -84 -68 051 -03 063 -05 052 050 -54 046 -24 -28 -45 -65 017 013 -84 -39 -68 041 047 -23 -21 -64 012 005 002 -08 -107 -18 019 093 -24 085 -08 069 044 -94 -64 -14 -62 034 -66 057 -12 -32 
-52 -72 -40 045 -71 047 -61 -17 -13 -02 -83 066 -01 097 006 008 004 -80 -83 -94 066 040 -57 033 -32 -57 -70 034 012 047 050 038 066 -59 024 073 -68 050 -93 057 -70 021 -09 -37 036 006 -14 -17 088 074 030 079 -41 -01 -59 -24 066 -87 078 -70 059 -68 -36 084 
020 -82 -58 015 040 024 039 026 011 063 073 079 006 -77 000 -29 040 -60 -57 -56 -14 072 019 -09 006 066 094 -58 037 -57 -58 -28 008 -35 078 -73 034 032 -53 036 -23 -29 -73 055 063 -59 067 045 -14 004 004 048 098 042 069 -38 080 -54 -52 010 -69 028 056 016 
-17 058 017 006 -24 -54 081 -58 102 -50 -74 079 -76 039 069 021 -27 063 -68 -48 -26 -68 -78 027 067 006 063 026 -01 049 -26 017 059 -41 -66 027 -75 007 -66 -26 -20 005 -71 059 096 016 -80 001 -26 -32 -68 -26 -108 016 -70 -86 002 -90 034 -78 -33 092 -97 100 
-59 020 -54 -36 -33 047 -66 -32 -104 -55 039 066 007 002 -65 -43 087 -12 089 -96 034 072 072 -100 069 012 -29 -13 032 -26 000 -50 055 -65 -88 048 036 -59 -81 067 002 104 044 -15 074 055 -116 019 057 076 024 -68 -79 -34 -36 058 084 056 086 -75 -16 057 -57 019 
052 -88 054 023 074 014 -45 -22 -99 004 054 -93 016 105 -37 -37 007 075 003 -36 -23 007 -31 -81 040 -65 -79 051 -78 -64 036 052 -66 -14 -69 -41 -39 032 -78 018 042 070 -32 041 030 000 -117 012 056 -82 -62 -37 095 -86 026 096 063 090 -30 -61 044 050 094 078 
-40 008 -06 -30 055 017 -86 027 102 063 -26 035 033 096 -79 008 -02 069 084 058 -65 078 012 117 072 -18 -84 018 -95 003 008 -41 -32 028 -12 058 053 -03 -48 046 -09 -02 -20 -93 -72 058 -110 056 -63 072 028 041 -07 -98 -10 060 -62 076 -37 061 008 -28 092 -43 
-05 -59 032 -30 022 -37 -66 062 -100 010 043 098 -60 -102 056 -64 019 -70 -106 -83 065 -72 -78 099 047 -40 -10 -45 -56 -71 -05 -50 -61 -25 -40 -73 044 -58 065 030 069 041 037 -41 -32 -31 -49 009 071 001 057 017 108 -94 034 015 -25 -20 -81 109 058 020 043 -04 
061 051 028 051 -49 048 -62 033 070 056 074 074 -18 084 -76 058 -74 -11 -102 041 -38 071 -72 -78 -87 -56 -42 -56 -22 022 -07 068 026 -64 070 021 060 041 -87 -48 -52 021 007 029 029 -40 -93 -61 027 -14 062 018 052 032 015 -87 031 -06 038 081 011 -40 -87 -92 
020 004 035 039 -09 -47 089 066 054 -24 -01 -92 040 -05 -62 -69 037 -17 088 004 066 -84 018 -35 -73 014 -41 046 064 -40 024 -42 034 081 069 008 007 -41 -38 039 046 -78 -63 012 033 -52 -106 054 069 082 -54 -51 019 089 -14 060 -62 -86 068 -79 -06 -31 058 -17 
-16 087 033 -36 056 036 017 -52 006 -67 -59 -83 -75 101 -68 053 -74 -60 -114 094 -05 -13 -48 -60 -57 -74 026 001 071 028 -18 -44 067 058 068 056 050 071 059 004 007 071 -65 -60 086 -44 105 -67 051 074 -22 021 006 -88 005 081 050 -26 -51 032 -11 -84 -22 -95 
-62 034 -32 002 -67 050 -39 -39 108 017 080 -12 024 -02 -52 002 027 -61 -112 -76 049 -15 -37 -111 002 -70 097 046 065 045 001 -46 -01 012 082 086 -07 043 -84 -61 -58 055 065 -38 095 -58 021 -49 -50 082 042 055 005 -32 052 -04 025 -80 -42 066 -31 -33 092 003 
-62 081 038 -37 040 057 -83 019 020 -09 023 008 043 -63 016 -05 -77 019 -32 -61 063 055 047 066 071 068 -53 033 003 -15 -63 013 000 -33 023 009 035 051 001 027 -80 078 -24 -63 -10 002 116 -12 060 058 011 -35 -19 -54 -17 -03 -69 -65 085 093 057 -97 053 -64 
-29 022 -11 048 065 -79 102 014 079 022 049 049 -24 -01 -12 039 -74 069 085 041 026 087 -31 -11 068 008 056 044 -07 000 -51 068 -09 -67 -66 -36 -23 -78 -97 056 -56 -90 -39 067 013 036 028 078 010 -81 070 -90 -80 -90 -89 006 020 -25 -42 -85 -09 042 005 095 
-36 -82 002 -36 -52 -13 -68 028 088 -44 -74 -61 -17 -63 -54 -76 059 -19 093 -01 057 047 -38 -77 -67 -07 -02 040 -76 005 -29 -77 057 065 064 027 014 -38 -48 -36 030 -71 065 -74 -61 041 -101 -29 095 052 -79 -70 -89 -45 -39 031 056 -15 089 002 -02 -41 043 054 
-06 -88 003 -43 -67 -55 -35 006 102 -49 -12 044 -52 -14 -06 065 -06 026 -85 024 065 021 012 -47 -88 034 -77 013 055 004 -49 014 075 -54 -64 070 029 -28 055 -73 -68 064 047 029 -85 035 -50 -37 044 058 -21 -56 -82 -22 060 032 078 -85 -80 -99 -78 -59 047 -33 
-25 -36 055 -14 066 002 020 -26 107 -50 072 -53 069 -14 -39 006 082 047 099 090 -72 -80 056 111 009 024 -19 -40 056 -60 040 -31 -78 000 031 -87 -29 -21 049 007 -66 051 030 -75 095 012 122 006 -55 059 032 -44 046 018 -10 -54 -13 -84 080 088 -71 -17 033 002 
002 -53 -35 -45 033 004 013 -25 064 -07 -83 -29 -79 107 -48 016 052 033 -99 103 061 041 -82 040 052 016 034 005 -40 -29 -30 025 048 -46 -43 045 051 006 038 078 -40 002 -39 -65 -81 058 -114 -58 061 -29 -71 -32 080 028 -76 043 -92 -88 -76 -90 024 031 -61 -77 
018 -21 -61 -02 -25 055 -84 023 032 016 -69 -49 053 033 -81 -26 -52 009 -109 -30 -72 089 -16 -105 -84 -63 -100 -51 019 -47 034 -66 -89 054 -19 -89 026 -21 075 -05 -39 -40 -07 -51 098 067 -97 -31 -50 091 026 026 100 -57 -66 -34 082 -43 098 -40 -23 074 104 006 
-14 -76 000 -10 -19 017 086 052 -109 -02 035 018 005 016 -21 016 -61 -31 103 110 -44 -63 008 112 000 004 101 -08 014 -23 038 -01 052 -40 083 041 -20 015 064 -32 -47 -32 065 -32 087 058 115 -73 067 -82 022 -45 -108 033 -63 046 061 -16 064 -95 -56 -92 020 078 
039 -86 014 035 -69 -05 025 -57 058 -20 -51 033 -49 076 -68 -55 -75 -22 108 087 -53 005 -29 110 -88 009 049 028 -24 -52 043 -61 062 066 087 -90 025 -52 -22 -02 073 -55 -20 038 -104 016 105 -55 050 060 053 -02 101 067 037 -37 023 -14 -69 -92 075 034 -40 -74 
-28 -22 -61 001 048 -48 049 056 -105 007 -81 -26 -40 -84 -64 020 -77 048 000 -76 -46 -09 015 -18 039 -29 -51 -19 027 005 -05 -02 -56 -78 -65 022 039 -71 -59 -13 -44 019 -16 069 -16 020 078 026 085 095 -20 -92 -57 -48 025 027 -50 -51 -68 -64 -60 044 031 -66 
-22 -74 020 043 -51 -62 -09 035 110 066 -49 -17 -81 052 030 -31 036 -16 -112 102 -46 069 056 -110 -43 -02 -80 014 030 022 056 033 -44 024 -24 076 -38 -17 -09 018 078 096 -62 -33 -10 -47 -116 003 -55 092 037 -12 -02 025 046 037 017 006 024 -57 024 -95 -09 -103 
-35 037 054 -14 025 007 017 021 097 029 -79 -86 010 076 -52 -33 016 -92 119 033 014 001 072 -80 -25 -11 -84 018 010 -05 025 048 049 -50 -88 057 -15 019 -14 047 024 022 013 093 -101 009 002 070 -13 047 015 038 047 -57 -41 043 019 -38 -79 104 066 -88 -24 -76 
046 -17 043 015 068 067 -06 -35 -92 013 -13 -95 025 -71 -82 -25 -31 019 -105 011 030 086 026 118 -24 056 058 -44 -62 -65 054 -75 019 -13 -76 -81 049 025 020 031 -73 002 -49 -71 027 -14 -115 038 019 081 005 -69 -12 -41 -14 061 -76 022 -22 022 -79 083 043 056 
-05 075 052 018 -04 -53 053 -06 -35 064 -02 -81 018 012 056 011 -38 033 111 052 066 038 -44 -24 -55 -28 083 043 016 -40 045 -03 -58 029 036 078 043 001 -22 042 074 -68 -59 058 -85 060 -45 -24 -23 052 010 074 -99 -62 -63 068 -36 026 030 -04 037 076 050 056 
039 -12 040 -21 -79 -23 -84 066 -111 -66 055 064 -25 109 -55 -73 -58 057 -109 088 -64 -76 064 116 -83 008 089 035 -67 -08 -22 -59 031 013 -87 082 -46 -57 -03 -38 -39 061 000 025 071 -24 -84 -31 099 -67 -31 020 -93 -92 069 -06 058 -82 060 059 030 -65 109 -63 
004 086 -43 049 -82 037 077 -19 112 069 023 005 -51 001 -44 -12 060 072 -55 -74 013 015 056 -112 080 -12 002 040 084 -07 062 -18 005 038 059 -80 029 065 083 016 -56 -16 075 051 095 -69 -04 070 -50 065 039 049 -39 -44 081 -87 -43 010 -07 -12 041 021 072 -37 
043 -11 -46 024 037 035 000 047 -105 -33 023 068 013 -17 -10 -48 062 -32 -67 076 017 066 -21 012 -32 064 -20 001 014 043 -44 -01 061 058 -78 046 018 019 -09 061 067 -47 -72 -04 092 065 030 077 029 023 -38 062 112 -63 -11 -57 054 017 028 112 025 041 045 103 
009 010 056 -44 007 -47 -75 067 113 -57 -70 -02 057 051 017 -53 -21 010 -113 101 065 -69 -53 -40 003 014 088 047 -57 017 -41 006 -34 -50 -76 040 -01 -43 088 010 002 080 -62 -49 052 -54 -56 076 -86 044 -76 -90 066 078 005 074 -25 064 -47 -29 011 -32 062 -44 
-62 -12 030 012 013 -12 -43 062 103 063 -15 077 067 045 078 -53 094 -13 -51 -70 -72 -89 079 035 027 -69 -88 016 -42 002 052 050 055 -21 -72 081 004 059 050 -21 -57 -19 -43 -53 004 019 114 -52 054 056 -70 -50 071 -01 083 -67 086 -31 072 095 -70 031 093 -68 
042 -49 016 -31 063 -46 056 -44 -107 035 067 041 047 083 082 007 071 -67 104 -93 -51 -35 -28 092 037 024 -87 -23 -33 -45 025 007 -57 -47 020 -68 034 -65 -73 068 -89 040 -24 066 -73 -35 006 056 023 -26 -73 -68 -79 -44 -75 034 000 064 043 053 -39 081 -68 -68 
-38 -69 011 -35 -66 -20 082 -75 113 041 020 001 -56 -82 -49 -37 106 094 086 -91 -78 089 034 023 -33 071 -41 -50 -47 -51 049 -49 -71 -19 058 -94 037 046 077 -22 -61 -06 -71 -70 015 070 115 -68 081 -85 -25 065 103 -93 -16 056 -84 070 -67 090 051 002 -07 -69 
014 077 -10 043 -10 017 -37 -11 -66 011 041 002 071 041 079 055 -10 024 -93 002 -30 003 057 -110 073 -12 050 017 -74 -02 005 073 -74 044 -60 015 033 -22 078 -47 -44 035 072 053 089 057 -32 -38 075 -27 060 058 -51 -86 045 060 -25 -57 060 -96 -18 -68 005 -70 
015 079 -41 -13 -26 034 040 037 032 064 -79 051 -20 101 -54 -34 083 041 -89 -63 -39 -43 055 -57 074 023 085 -38 -68 -73 064 004 072 066 068 -17 053 -51 067 -26 002 073 013 -66 003 040 -116 -43 061 -73 041 061 026 086 080 025 -37 -67 -59 -36 062 087 053 -72 
044 -49 -28 -50 -29 017 026 051 -103 -03 047 056 029 024 059 012 073 -72 -112 -32 040 -44 -06 089 -71 011 -76 -02 021 -31 036 002 022 -37 -81 -44 -34 048 046 -43 069 -55 014 -66 083 -66 105 012 009 -82 -76 -92 -15 049 012 -10 -06 -02 -13 087 066 -01 -26 000 
-64 -57 -18 -11 -81 029 -60 -54 112 021 043 -73 -68 -98 029 -03 -19 -22 -32 -89 054 -27 -28 009 -46 -48 005 004 -01 021 056 064 045 076 -80 025 053 -39 059 076 076 042 -68 078 -81 -31 118 020 -50 016 080 -14 108 -38 -14 -94 083 063 -72 -43 -81 -91 -21 062 
006 016 -66 -38 -37 015 098 -36 -91 048 -63 -23 035 -63 047 -75 -77 -30 088 069 -45 -27 -18 -05 -25 -14 -82 027 -77 -62 039 -59 063 -54 -82 052 -11 -70 074 059 006 -18 -57 -37 -05 -50 018 025 081 -52 -44 -89 -60 025 -66 -08 084 078 049 101 058 007 095 069 
-07 088 058 -41 023 -51 021 015 -12 -30 -25 -84 010 040 -33 056 -39 -42 078 -98 -15 -67 -33 050 057 -28 011 -07 -46 -09 027 -71 046 017 084 047 056 058 -84 -18 -18 076 061 082 013 012 087 014 080 015 030 070 070 -75 058 018 -85 -50 -16 -57 015 059 -29 -87 
059 064 -28 017 -72 017 -59 042 -31 -48 063 -05 038 -13 -42 -13 014 026 064 -19 012 074 050 067 -01 -66 060 012 042 057 034 -76 024 -02 074 008 034 072 088 056 003 043 -74 052 -68 032 121 003 087 078 -62 -68 -28 002 031 -75 085 050 -69 -79 -01 104 063 039 
014 022 -48 050 007 007 -59 042 048 -08 -51 -24 068 -30 -20 -31 -83 -05 -72 033 071 -54 -64 015 -25 -24 072 035 -47 -23 059 -61 -24 055 -66 -54 -55 -34 076 -62 -30 -31 050 043 089 023 113 -46 027 -88 -21 057 -74 084 -42 026 -81 -65 -34 -40 -16 082 -84 081 
-45 -06 027 -38 055 053 -09 064 -16 041 -02 -45 075 000 079 015 024 -43 -92 -97 -06 -11 073 -82 -70 043 -52 -50 -06 -17 -19 -65 045 013 028 076 066 027 068 -45 -74 -83 -74 -16 045 010 -17 068 -76 -45 -36 -87 079 086 -28 -57 -59 078 067 -25 -70 -55 045 -34 
058 052 004 046 078 027 -08 026 -111 -67 -13 021 022 -24 058 048 -37 -04 040 070 039 025 056 096 032 -56 007 054 -73 -29 -51 006 052 017 -87 086 -44 001 -73 037 065 066 -01 071 094 -60 -120 032 -61 082 -07 -10 079 -90 042 067 047 -34 -44 -32 -74 -44 039 -93 
024 -89 038 -47 000 043 -30 004 -48 042 -35 082 031 -83 044 -49 -27 -17 -41 -60 062 -83 -72 076 -29 004 092 -56 -34 034 005 018 055 -63 062 035 056 062 -25 031 029 045 -15 -08 -79 027 -124 047 -30 -73 040 002 045 -88 -70 049 -76 042 022 072 -69 066 -54 062 
-22 049 -44 050 -92 052 -56 025 -99 066 012 -40 -81 108 074 -64 -20 088 -80 086 -73 -57 075 103 -88 067 -70 -58 060 019 -54 -46 -12 -15 -48 082 -27 -08 -20 041 037 039 001 -06 -78 -12 -13 -91 -33 -13 031 040 003 086 -33 020 -92 -66 -12 -64 025 -96 099 -64 
054 083 -15 -52 030 -65 -52 -16 030 -55 064 038 -32 -47 -77 -68 051 021 -108 103 -32 -50 052 102 -23 061 -93 -25 -55 -18 017 029 062 -52 042 032 024 -01 048 -31 068 -69 -62 -67 096 -01 -16 -39 010 -76 -77 039 -107 033 000 -32 -82 081 -52 -68 -79 023 -21 044 
003 -80 -62 008 -28 029 018 -68 -102 -16 -18 -12 -33 110 -21 -61 075 -28 -08 016 030 -89 005 -01 -59 044 -15 056 059 -08 000 038 015 -30 031 038 -36 -52 019 -43 036 078 -43 -20 -83 049 -113 019 016 -04 -64 058 -114 063 -11 -81 -27 053 091 086 068 -96 096 093 
-43 -91 -54 002 -63 -36 019 053 -108 -34 -67 072 -02 -16 -83 005 -79 030 -114 095 059 009 035 098 -01 041 -11 037 016 -26 -34 030 -30 035 044 067 036 -31 -62 -54 067 067 062 046 -74 -31 -22 037 070 -34 -54 084 053 026 -36 -38 072 043 -71 046 023 -40 037 031 
051 -86 020 -01 033 009 -43 -63 -92 -24 -76 -83 010 -40 077 059 -34 018 -90 049 031 022 -66 045 079 -02 035 -35 029 057 038 063 -11 025 -79 -69 027 -41 -11 062 -64 -25 016 058 098 -56 078 029 -83 -25 -51 069 -75 -71 -76 016 041 -87 007 005 -78 -59 009 -65 
062 -92 -47 -02 -34 -03 -51 -63 106 -36 -54 -19 -27 073 -82 -39 023 -63 080 -78 074 020 048 109 070 045 083 -04 000 004 -10 -47 024 -37 029 -19 -24 062 087 030 011 -02 -51 -04 -02 049 -41 -87 -71 -26 058 064 058 004 -24 083 -67 -92 023 092 042 -81 -86 -72 
-05 081 -05 -05 007 -55 085 028 -102 060 -41 024 -69 -77 084 -11 042 019 005 021 062 009 -68 -75 060 -40 -35 -06 -73 042 -34 -22 -49 033 003 025 037 005 -54 005 -06 -10 032 077 -43 -43 118 049 -95 -57 034 002 -71 082 -01 088 077 -82 044 066 -74 -23 036 -74 
-29 080 -26 015 -49 058 013 059 -61 043 034 -87 -76 023 -50 024 063 -76 096 000 062 062 020 069 054 053 -44 -39 008 -48 -42 050 078 -55 -70 030 -61 017 -33 050 -48 -39 -73 -78 -91 -04 098 -11 -65 027 015 -64 -32 070 -09 -76 035 -36 077 -96 -59 020 -85 057 
-49 -72 -41 033 -54 -08 073 052 -12 071 042 022 -73 101 020 -47 050 043 113 -49 068 042 095 -92 -68 -20 010 043 059 027 -56 -16 018 017 -29 -54 046 -74 088 -04 -22 100 010 -99 042 -14 -28 086 013 -107 060 058 071 063 085 003 034 -48 -47 080 -23 060 078 001 
-33 028 040 -45 050 -16 -47 -34 004 -04 043 -74 061 093 -57 -37 087 037 102 -24 -06 -17 028 -70 084 032 -87 -56 029 -15 -08 057 033 044 -78 063 029 -43 078 -62 -35 -12 -78 -04 -27 -28 016 034 -06 -56 -65 -25 -44 -93 -20 -56 045 089 051 025 012 -97 -80 -49 
-62 -82 054 -34 028 -17 -04 -54 014 -30 -37 -37 -22 040 -09 026 008 -57 114 014 -59 -31 061 106 -19 072 073 016 -01 011 000 040 059 011 078 025 -15 057 030 -49 077 069 -52 072 093 -62 -10 -92 -37 037 035 -78 -112 018 048 -93 013 071 -58 004 -55 -48 -85 034 
050 -20 000 -37 017 010 -78 -49 025 -44 -53 057 033 -104 074 021 034 -75 094 107 -76 033 -24 028 042 -56 -23 -06 069 -45 022 -40 -14 055 -93 -41 -03 -49 -03 056 051 -31 -57 039 -104 002 -69 -79 070 085 -20 056 -115 -66 013 -92 -84 065 092 076 -70 079 -78 -73 
053 -23 -41 051 047 -11 -16 059 063 -53 078 -09 048 069 019 048 -30 055 -46 066 053 -74 -45 108 -81 -68 028 052 050 -29 -38 -10 037 039 -37 083 023 -62 075 012 056 065 075 -29 -44 029 056 -08 -63 061 -44 022 004 -68 010 072 -05 -04 -04 -54 043 -67 -90 -90 
038 075 037 009 -27 -65 -44 018 092 061 -25 -05 -51 -43 -81 -23 014 -45 -32 101 061 076 074 -112 053 021 -26 037 -55 -21 -39 -67 -68 044 067 057 -42 042 -22 005 081 -43 -12 073 084 -11 121 -22 -71 002 -28 -13 071 038 -23 -84 -82 085 005 087 -52 099 047 077 
-28 -41 -53 -43 001 072 068 -35 -89 010 -44 062 -35 104 -64 -17 003 -17 -92 -15 016 -44 025 064 -05 029 -92 028 -22 -34 031 -62 050 -36 -45 072 -61 -75 -14 -13 007 -65 -69 060 091 -20 107 -83 -53 081 -05 -86 107 -29 003 -50 -41 053 -20 067 024 102 053 100 
037 080 -38 -39 -54 -58 069 -58 -60 -41 057 021 -05 079 047 -16 -27 050 098 -103 070 023 -40 -96 053 049 -91 049 057 -47 -52 -68 -31 044 078 -74 030 -63 088 -09 059 026 -23 -83 -63 -25 -103 007 016 -67 -35 086 041 -69 -77 030 -27 070 054 -100 034 096 010 057 
-23 -84 -55 010 002 -52 -85 028 029 -65 -25 -09 075 080 076 -07 -72 031 078 -19 -35 -78 072 101 -64 -20 -01 006 -18 057 -26 -66 017 -37 075 063 047 051 -13 -08 -55 011 030 -16 078 059 052 -75 -84 -58 -01 -12 010 -25 053 066 027 -43 -73 085 -28 -29 067 -92 
008 -05 005 -20 034 -47 089 026 113 -29 055 -28 -05 108 -46 051 070 020 -31 -53 022 071 003 014 -41 -63 -78 -38 -03 -12 -13 -06 053 -54 -67 087 017 -77 -75 009 -86 -81 -53 050 060 -36 105 010 081 -20 070 -35 106 069 012 079 -19 -30 -40 060 073 097 013 113 
043 008 044 -41 073 004 -58 063 -102 047 -04 -03 -59 -08 -23 -34 086 060 -79 063 071 018 -51 -89 -01 -41 030 -45 -06 -32 -17 018 -35 -42 -85 088 -04 -53 020 054 060 -94 005 042 099 010 120 070 000 021 052 058 -109 082 -65 043 025 082 029 -99 -68 -80 -59 078 
009 069 029 024 -79 -36 -69 057 -103 014 -39 -82 -77 -91 -73 049 033 -74 081 082 -56 056 -31 -48 053 063 -97 009 -13 032 022 -02 -07 042 072 -86 -23 034 -55 -60 -61 -25 024 -17 012 047 -31 -16 024 014 -42 066 -79 047 074 013 008 -90 059 -64 -31 101 060 052 
046 036 019 -16 -58 -57 -43 029 -18 -58 -63 020 035 -52 004 -44 050 -62 099 001 018 -74 063 109 -34 052 -21 -07 -22 009 045 -55 048 049 -76 078 062 058 040 -57 -06 -58 -68 -11 063 036 105 070 -78 -50 -48 072 -23 -61 -57 073 009 -11 -60 099 -62 081 -86 081 
-45 -93 -58 051 -16 -65 036 -75 023 -49 010 063 -08 -87 -73 -48 -56 -50 073 -49 -34 064 -72 104 044 039 076 001 -01 011 002 -74 078 002 -22 -07 -30 -51 -90 076 -68 -78 -62 -36 -37 066 -49 -46 097 075 -38 -25 046 -71 007 057 -18 -94 099 070 -78 032 -30 102 
-08 -90 000 027 -76 075 -20 -72 074 -38 058 053 -65 -15 -49 050 096 059 -111 -100 065 000 -21 -07 -81 -70 -92 019 -43 -10 -52 -45 049 024 -42 -06 031 035 022 -05 -86 088 -72 078 -27 043 070 -40 039 032 -20 046 048 086 034 070 -87 077 -74 -103 018 089 067 063 
052 086 014 025 012 052 021 030 053 -43 019 -44 053 046 -60 001 087 009 -115 -96 026 -41 -70 092 015 037 066 046 -03 007 -15 041 -40 -24 -80 080 -24 -22 -14 056 -72 -59 -08 -40 -31 -57 114 080 -03 -32 024 -19 063 087 075 084 036 041 073 098 025 -68 -62 063 
-10 -38 052 053 -53 067 -14 -19 105 -47 -10 -62 060 -96 -30 058 087 -32 -06 056 030 019 -28 -88 063 018 092 -48 073 039 003 -74 -38 -55 -16 -54 057 -50 -84 018 055 031 034 082 -91 057 -120 081 020 -80 -07 011 055 046 -10 035 -58 -86 048 -64 071 -86 -86 006 
062 075 000 000 072 -50 050 -72 087 -43 060 -63 -19 -36 058 -37 -78 013 109 -13 -10 -69 -13 058 -83 -60 038 001 -27 027 -26 018 -77 004 019 004 -30 070 035 054 -48 090 -74 -20 -95 035 063 -78 009 058 -67 -03 -109 025 -50 -67 -57 -53 -09 -57 056 -07 -75 -51 
-60 084 -17 -14 058 -33 099 -36 -106 067 040 -85 -25 109 066 -73 -86 -55 -45 -97 -29 073 -38 -58 -55 -54 046 -53 067 -60 058 047 038 080 054 080 -45 045 070 015 -62 -35 -23 036 -60 -52 -01 -04 -97 -66 -12 -68 -93 045 040 061 068 -58 027 -15 027 -39 094 -13 
021 -33 052 -12 012 005 025 -73 -85 -10 -66 -43 -45 017 082 -37 -04 -36 107 -98 -58 079 040 -31 -87 -47 077 038 -04 -27 -27 -26 008 -19 057 -31 020 062 -10 031 -62 -96 -31 078 069 -62 -42 -56 062 -83 -73 -58 094 003 051 -50 020 061 055 -49 -18 -64 061 -41 
038 -69 -65 -45 -85 019 074 -78 097 019 058 -16 -27 056 -86 051 -41 -83 -83 -82 005 -28 038 065 -05 -72 041 -13 073 -53 -43 -39 072 039 083 039 000 -10 -73 024 -25 -27 -03 109 -61 067 -16 -67 -65 085 039 045 -85 -29 -16 -92 075 -56 018 -29 -66 029 002 107 
-30 -25 055 -36 -58 020 058 024 -97 -15 -83 -73 054 -91 077 -09 083 050 026 097 072 012 -04 010 032 059 058 060 -73 -42 044 -26 045 028 -47 076 -21 -66 093 -30 -06 089 -11 020 104 012 -77 -41 -66 015 025 003 072 -42 -60 -18 080 -02 -14 073 074 -81 -58 057 
-30 -69 -22 055 -49 -44 072 -05 060 -62 -49 079 070 -87 040 -52 -70 068 -38 -83 -07 -92 054 -77 -42 -18 -48 041 064 049 001 074 053 -65 -46 -25 029 064 050 -41 -29 -90 057 034 -35 -17 090 055 -80 001 -32 017 024 094 018 071 019 -55 008 030 -47 -104 -52 055 
057 014 062 012 -17 -39 040 -06 -95 058 -63 -09 -64 -88 -82 026 -64 -39 -71 055 014 -30 -41 -89 024 -45 -57 052 -59 007 044 051 -75 016 026 081 -37 023 040 029 007 028 063 -45 034 -37 -91 023 048 065 013 053 108 -91 065 076 -29 024 021 -102 048 -36 -66 052 
-37 -05 -28 008 027 -73 076 013 110 -77 023 029 -70 -109 -05 020 -03 -37 117 -88 055 064 -48 115 -49 003 -68 -19 -78 013 013 -41 017 -19 005 -10 -18 046 -48 066 -62 -56 028 020 092 -01 -64 -21 090 012 003 046 105 -57 005 -51 -59 -27 068 074 -11 064 067 100 
-47 087 -01 -31 021 -47 004 069 103 060 -50 -39 -61 -47 064 000 -51 -70 -75 097 047 -45 018 -89 -77 007 093 031 -46 054 038 -11 054 001 053 068 -32 055 014 -49 065 056 -57 -87 -91 016 120 076 -35 -69 030 -79 105 -87 008 029 055 -32 084 -104 -62 092 083 054 
-05 -01 012 -36 055 -02 -76 067 -112 066 007 -13 -37 083 -82 005 -35 060 -94 -99 -31 -62 023 -113 -46 046 -60 025 -19 056 027 041 -61 -44 083 -61 060 -53 014 034 005 -55 -05 028 -100 -40 092 -40 033 -52 -63 030 013 015 -21 -79 -44 079 -34 030 -70 -53 085 087 
-40 086 -64 -57 012 046 -50 030 -99 046 083 053 016 088 -34 -12 095 026 -89 -18 036 067 -12 -19 -62 066 072 -58 -08 058 065 021 -05 -05 002 -37 030 062 028 -22 -19 -59 012 -12 082 -05 123 057 -02 012 046 009 -70 -14 -18 -74 006 -61 097 049 034 101 107 -22 
032 -72 -59 048 076 -35 084 070 083 062 054 027 -19 038 -61 019 072 067 029 003 064 -65 070 102 007 004 009 048 072 049 021 053 036 -14 036 040 030 -62 -36 047 -40 083 -19 -87 -32 013 108 -84 017 021 042 063 088 -79 027 075 050 030 002 088 -67 084 -52 040 
-09 -77 -46 -51 042 029 -58 023 -83 015 025 039 070 051 -62 -63 -35 -17 039 001 -43 084 066 -12 072 -64 084 040 -19 018 -06 -57 034 070 064 030 019 -66 -77 042 089 -56 -67 071 -09 -41 078 022 -01 009 -37 -80 041 -87 037 -48 -73 005 035 093 -50 -62 -65 103 
-15 038 050 011 -11 067 -69 -41 -38 049 -60 -40 036 -90 -55 016 073 -10 -69 -93 -30 -09 018 058 035 -67 -04 041 082 -36 063 -53 084 003 051 -01 059 -66 063 -15 -49 103 051 -70 041 042 056 061 069 -45 -83 072 -09 -18 056 -78 -15 -37 -15 059 -79 018 020 -93 
-63 -32 -56 045 -64 -66 -76 -34 101 -50 -09 -08 012 024 -59 055 036 073 094 091 -44 051 -72 110 -34 008 040 -22 -59 037 -31 075 013 -08 -63 -60 013 -62 087 -71 -41 -15 -23 038 049 045 -04 -02 -65 -41 068 -49 094 -50 -06 002 -61 086 -46 -74 061 -61 -29 041 
036 -91 -19 -17 028 -20 072 023 080 031 -28 -58 -49 -38 -59 -57 031 -03 -56 048 -57 -75 -35 -111 086 005 -96 -38 005 004 -27 -17 007 031 043 -30 006 -71 090 001 -85 047 -71 -09 089 -48 -53 -83 077 -09 006 071 058 036 071 -50 -61 059 065 032 -18 -96 -54 069 
-52 068 -50 -37 064 -36 -73 -60 095 042 -65 063 046 019 -50 -41 073 050 -46 069 056 -53 056 077 082 -20 018 007 065 019 -37 -43 -82 -24 036 -41 049 030 038 046 056 -03 003 -43 -89 -58 -123 009 069 -59 -21 -82 -108 -22 -17 014 088 075 -42 060 065 -85 068 -17 
-31 057 006 027 049 063 056 007 078 063 -67 048 -53 -40 -37 -36 054 -56 -116 -97 -47 -48 039 112 060 -66 -10 -30 -65 -22 -30 -68 020 -56 045 089 020 -50 071 046 077 067 -72 -26 -68 -57 119 065 038 -52 -20 -25 -21 024 024 -46 -16 -74 -85 -104 047 -69 -88 086 
038 064 -22 -34 -82 040 065 -23 107 -27 -53 084 073 036 -15 -12 -66 041 104 -55 -62 017 -52 -38 -73 011 068 -15 053 -49 -23 077 053 -62 020 041 -60 017 -65 -30 -63 094 -56 -83 -97 040 115 049 -47 022 -36 013 -92 082 021 -79 069 -84 -87 -95 071 030 040 -84 
015 -07 026 -33 070 -09 087 -34 -81 044 078 052 -04 -79 078 008 -07 001 -111 -93 -45 078 012 101 018 -04 -65 019 -26 -28 036 076 -46 060 052 -90 -35 -31 035 -22 -70 083 064 014 046 -11 -116 001 028 082 -14 -71 055 -66 -10 080 088 039 -66 052 -61 -42 -86 -61 
-61 -34 -50 036 065 079 -11 028 078 -17 029 -05 -47 -12 064 -16 069 075 125 069 -55 074 064 -65 024 026 016 -51 003 -60 001 011 070 016 062 -88 034 065 046 -28 015 108 -30 -62 052 -42 089 -66 -57 -28 -32 073 003 -83 -82 108 082 069 -62 -88 -13 092 -46 100 
015 -37 -10 020 001 -15 -83 -24 -81 040 067 -54 -01 -34 028 053 -86 078 -105 095 017 062 -62 -25 009 059 085 -51 -60 039 035 018 041 068 047 065 -06 -48 071 060 -87 -75 -01 030 063 028 026 -67 018 -03 -33 020 -98 018 -61 -18 040 -52 -61 -56 -71 -68 042 082 
-54 -55 -21 000 018 108 -109 071 -109 -03 -57 116 -43 123 -20 016 118 086 125 102 -46 117 104 -96 -62 002 124 020 106 048 -23 -56 -106 090 -91 -69 089 047 114 -111 -97 063 -24 023 -57 046 127 -67 122 -122 118 -71 -96 038 041 114 008 -61 -26 124 -42 029 -51 -106 
054 032 -15 -32 057 -67 071 060 -115 -08 -52 020 076 -88 -34 -12 -23 -13 005 033 -13 042 013 107 028 042 097 -10 042 061 -45 -75 -59 056 041 030 -04 -63 061 -14 058 060 -42 054 -49 -55 082 014 066 -46 -73 016 038 -92 035 004 028 -70 -30 042 -58 013 -90 -05 
-47 -91 032 041 065 -12 028 -70 015 -56 066 -63 056 -83 -85 -50 061 -06 058 087 -40 -64 -82 -08 053 028 -97 -41 -12 046 -40 -26 -08 018 -57 -40 029 070 -03 -20 021 049 036 010 -103 -16 -96 -62 042 046 071 043 -40 006 -06 -26 -28 -70 -84 073 -39 051 -87 072 
003 084 058 -47 059 045 072 031 011 041 001 -17 059 -91 082 005 -44 -19 -29 090 063 048 037 -108 -15 051 -08 002 027 -01 019 020 075 -08 -29 -43 -61 018 040 -28 -05 068 -72 023 -94 -42 -119 023 -78 049 -31 044 057 -72 054 -70 051 074 075 081 -74 099 082 -12 
-48 -89 -47 -22 051 032 020 024 -78 004 -17 -59 -51 -101 056 -33 -26 010 117 113 -61 -51 -44 -72 -45 -65 -20 -34 016 -28 067 056 -58 -37 010 059 044 -39 -38 -36 047 -47 -21 027 -81 027 -67 003 -66 -05 029 -86 017 083 029 023 -90 -35 -70 086 -64 -100 -56 -76 
-58 -89 058 051 -36 016 -05 015 -104 032 -78 -38 016 -73 -32 -09 -43 081 -99 097 -70 -44 -69 081 -37 -59 -50 011 069 017 035 064 068 053 052 -68 020 -51 068 061 -85 -72 -56 -60 -93 -41 -60 002 -64 034 030 023 -17 -14 043 023 -69 -95 -70 024 -19 -105 -66 024 
007 025 -38 -54 072 006 -44 006 -114 042 056 082 004 -85 -65 -53 050 -66 082 -88 -28 -54 -21 -59 -54 -08 069 -11 -74 028 026 -62 -59 -64 005 -14 019 -62 -94 046 -44 -96 -12 047 -67 059 -26 -50 -06 083 -42 014 -05 045 -25 067 -92 -88 047 -58 -21 -74 -07 -14 
-14 057 017 -37 054 033 -33 -17 -39 050 -69 028 040 011 035 044 027 038 -89 029 -23 039 -18 -110 -51 -35 -26 051 -21 059 -34 -40 086 -38 -66 -42 015 004 028 021 -09 072 -03 045 087 -60 098 -78 025 081 047 -69 094 -35 -04 -73 079 064 044 -106 -47 -56 089 100 
-37 -32 -10 035 050 006 019 005 -67 024 -42 062 073 -76 -22 011 055 063 053 092 028 -22 061 -69 -54 -03 -36 010 061 007 -50 -72 052 -49 -57 084 004 -44 043 -12 -16 -60 -37 -70 099 037 117 -27 -56 -67 030 -84 003 -32 -73 080 -50 -92 016 048 -66 -38 -46 -86 
048 -84 -02 -49 -39 -29 -46 020 -29 -21 -45 083 057 091 -83 067 -16 -44 -112 -74 -48 -15 068 -78 021 -27 -49 014 045 -07 -40 040 -71 -07 -69 -82 029 -55 078 -68 -26 -71 -36 -53 074 017 -99 -63 -56 -66 -36 -91 038 -11 030 -77 -24 -71 -70 -13 -14 -33 -45 -88 
005 -51 -38 -27 080 028 -74 -67 -26 050 046 -53 -14 071 036 -19 -44 -05 079 -91 070 089 062 -80 -79 048 -103 -07 033 -07 070 047 -61 040 027 033 015 -52 -57 021 053 073 -71 004 -73 027 -92 048 -20 -27 -80 054 089 -30 -14 018 -79 -10 -05 -87 040 078 -84 085 
-33 -60 018 -49 -16 066 017 044 -100 045 -25 048 010 -54 012 025 -21 061 -45 093 -15 -37 -33 096 022 -12 082 025 -20 033 029 010 029 -69 -55 084 025 044 -75 042 -46 -10 069 -12 -44 -36 116 -37 062 -33 050 041 -25 -20 -76 -58 -48 -49 -17 -48 069 083 037 086 
-47 -06 -57 -53 033 049 075 -52 -97 021 -32 099 -55 001 -12 -45 083 -99 107 -107 045 018 -56 031 037 -37 -31 023 009 022 021 -47 -47 -81 001 -63 018 061 050 -06 014 026 -61 -55 -67 048 -83 -21 031 -39 -30 -87 072 038 -83 075 -45 -81 024 -48 -57 -22 065 078 
-57 -30 003 -52 -71 034 098 -74 056 -47 -64 -69 -45 066 029 -09 -57 023 -49 -80 -65 006 -41 097 -85 -14 056 -06 028 -59 052 066 093 -23 060 -60 002 003 045 -60 072 -75 052 -43 -67 074 -74 012 095 021 064 069 -111 -77 060 001 026 070 003 096 047 -80 002 056 
005 041 -01 008 077 -65 077 -23 -69 -25 -43 012 -70 091 -85 010 027 000 -94 -86 -72 -09 -42 -37 -01 -30 102 -25 -04 041 006 000 066 036 044 -45 -23 065 064 005 075 -27 044 -18 040 -30 -50 082 094 -18 064 -88 -107 -43 078 -90 041 -32 -38 -90 043 -49 084 -49 
019 -60 -23 048 -29 -52 -13 036 066 -10 010 005 006 053 -69 054 049 005 114 -65 050 -20 040 101 -88 057 094 012 082 -47 003 -42 061 048 -90 066 -58 -62 -71 033 -25 020 -02 076 -50 032 124 063 021 -13 003 022 064 -19 -32 -42 065 076 101 017 049 111 -18 107 
-27 -43 053 031 005 -51 -14 -50 019 -70 060 016 072 015 -60 003 -80 -67 -111 -27 065 037 045 -99 020 010 -42 -12 -67 -49 048 007 -43 -64 -84 -74 -25 -18 020 005 005 -18 007 -70 -28 -03 -102 -54 077 -07 064 060 -31 063 -78 -02 081 -44 074 014 005 -24 026 097 
038 -67 -04 -18 072 -68 -68 -46 036 -01 -67 077 -16 -87 023 028 -69 044 106 -49 -58 -70 -55 047 -80 -68 091 -32 -33 058 -48 007 -35 -60 -81 013 -33 -25 021 -58 051 029 028 039 049 -65 -75 -86 072 019 031 -56 063 -92 -11 048 075 -87 -82 099 065 -69 013 083 
-26 -38 003 000 -43 019 -79 -57 -113 021 027 055 -18 -23 055 -44 -83 044 -71 -24 067 -66 -21 -17 -72 -74 -24 -09 060 -63 006 -40 043 005 068 -54 -33 -25 -89 057 -13 -99 017 -80 -29 035 -116 -18 -76 -70 -64 -13 -01 002 001 090 -08 030 076 -03 -67 -73 080 102 
-60 053 040 -52 027 060 -15 -70 -71 032 077 -67 058 -27 -86 -68 020 073 055 046 028 022 -23 -113 -86 012 -12 -34 069 -61 034 074 021 -02 066 -40 009 -57 -60 -20 -54 -34 064 043 070 055 104 -08 013 060 -01 071 -101 033 059 -01 070 -45 -03 011 -35 -61 087 -06 
-28 -44 017 029 076 -12 052 -57 -63 007 027 006 071 -66 -30 -59 033 070 062 081 -18 -68 -37 013 062 043 -68 -61 061 -10 006 059 -84 -49 -48 -14 000 -49 -68 076 084 047 014 -24 -23 -19 009 013 -22 -39 066 -48 -60 -51 -12 080 001 -87 087 079 -18 071 -24 -86 
058 073 010 -23 -72 047 085 008 -58 -13 -44 -62 -18 -41 067 -67 069 -68 -106 -107 068 014 -13 -17 -18 -41 -84 -03 -20 003 006 018 -12 041 079 063 028 013 060 050 085 -56 062 014 058 -01 069 001 063 -49 -28 065 010 -44 -01 -89 003 -80 -70 094 -19 -48 043 -54 
-57 -37 059 -18 -67 -29 -87 -03 -27 -03 -72 002 062 -45 061 -65 -25 003 009 -47 -66 -83 -58 -73 -23 015 067 -54 -25 055 -40 -21 047 -17 038 -55 -57 061 -74 -34 023 -84 046 -16 -65 -24 -118 026 002 054 -50 070 069 -38 075 006 089 -13 074 075 -07 -31 090 -54 
042 084 -13 043 -43 -60 065 063 -105 011 -32 -44 003 006 -73 034 093 -02 -101 096 058 -43 -86 -86 042 -19 -73 -58 -69 018 -68 -78 -55 066 -60 079 -33 -31 -62 -62 -81 -76 -55 089 041 -28 085 -06 -70 -60 066 -75 -107 063 -55 043 057 043 -31 083 029 -06 -20 -23 
027 087 -57 033 -08 -50 043 047 -93 027 076 -68 036 020 087 046 -51 067 -73 096 -60 -69 055 -29 -35 -73 -53 044 -11 -14 036 -36 -75 -30 -91 -61 -63 -66 006 064 001 026 -47 023 -26 051 103 -05 044 078 003 -28 -48 -93 076 -18 084 089 -33 -92 038 -05 049 -12 
025 021 035 -40 -75 -85 -52 020 109 -25 -65 038 058 079 -06 035 -86 -67 -111 -96 -19 -87 -49 -113 -70 -69 -33 -59 025 -20 -12 018 -64 -02 071 009 069 015 -23 009 -04 -97 -76 052 037 041 -109 -16 -74 -76 -13 -52 -100 -75 016 -16 -14 080 -84 104 -01 -83 -45 -68 
008 -90 058 027 -62 -29 062 -26 -59 -57 045 014 043 071 -70 -65 -30 026 077 -57 -07 -62 -38 079 015 -08 084 049 -19 028 018 -15 -68 005 -74 -39 055 046 058 -32 062 049 -23 083 -101 044 092 -81 024 068 -28 -84 -06 096 025 028 064 002 082 048 -51 -49 039 094 
-52 -43 054 046 -78 002 -15 -73 094 -36 -08 088 -75 -74 -81 001 -66 058 079 -101 006 070 004 -104 032 031 -91 -57 028 002 -53 061 077 -53 -71 -20 036 066 -45 -56 054 099 017 035 -44 -56 -108 032 -70 -61 -27 082 -36 028 -79 041 018 -19 -30 -39 -74 -91 -94 074 
-50 077 -41 055 -46 022 -80 033 031 -14 077 -92 063 053 -75 024 050 027 -112 080 -75 080 -67 083 014 -50 -80 -28 -64 -42 -46 -62 -62 038 012 -79 -19 047 -44 -62 -71 005 017 -77 -83 037 -95 -54 -86 -02 -26 -62 -93 -54 005 -72 024 -09 -73 -03 067 -44 058 -59 
051 058 -50 016 047 050 064 -08 061 -63 -43 045 -36 031 059 024 003 -16 -94 066 -18 -25 020 022 059 048 -30 -12 -64 046 044 014 -37 051 028 -53 -04 007 -31 -32 -89 002 -05 -52 -103 058 -88 -23 066 -86 -09 -20 019 044 -57 006 068 -01 039 -24 028 -99 067 -26 
007 -44 025 -29 023 012 -49 056 083 051 007 007 -35 -63 030 -59 -08 027 101 090 -28 062 -66 -20 055 032 088 -40 -06 -45 012 -30 -65 -40 037 -66 051 033 -17 048 -19 -67 069 -25 075 -43 114 042 075 -16 059 084 -88 059 077 076 002 -05 -24 076 -62 -38 055 077 
052 -75 -49 -29 -63 -28 035 -51 -101 -07 006 065 076 099 -21 044 -46 033 -12 -32 010 099 -21 107 006 -66 -50 -52 -82 -12 -11 -36 -80 -17 -84 053 039 -56 -71 040 077 -78 -58 015 -06 047 -102 -67 -09 -81 -59 067 036 -59 019 -84 055 -21 079 -106 023 -101 082 100 
023 -40 034 -16 -42 049 -34 -09 044 064 063 -61 027 -72 -87 -24 -82 005 -101 -106 001 067 -28 036 -26 057 -31 009 055 055 004 -37 046 036 -59 -41 034 -39 047 -74 -15 -07 -27 -69 -23 034 114 030 -13 -80 -69 -84 -112 072 023 -04 013 -68 -26 -98 043 058 017 021 
055 -43 -29 -55 -09 051 -35 -40 -110 -53 038 048 018 077 -81 044 026 008 -04 -58 -67 072 001 006 063 -61 064 -45 -47 -09 -38 -75 002 -31 -02 040 -18 031 083 -54 040 -74 029 070 -06 036 -56 -39 055 000 -22 074 -54 -09 -43 -21 043 -27 -70 083 046 037 -87 -19 
-33 -74 026 021 060 073 -73 011 -110 -26 -63 -50 047 -86 -71 -55 -73 -70 036 -106 -61 -09 040 -101 -47 051 -96 -11 011 008 033 047 054 -38 -58 -05 -67 -58 -03 -47 -74 -59 -07 -92 -58 024 -115 056 -33 067 -63 033 -96 -61 086 072 -21 -03 079 094 -54 -53 061 -42 
-45 048 036 010 -40 -66 -45 002 -73 -02 029 016 -49 -96 -52 009 -16 -65 -45 091 -20 033 -02 104 -71 070 084 032 -09 -28 -04 012 -74 -50 084 084 050 019 090 067 008 058 072 -43 -11 -47 -119 -62 -75 -60 -77 -38 082 -78 -07 -84 -19 -85 -80 077 -30 -76 049 022 
058 065 057 -42 058 -54 -29 067 111 -61 -82 040 -74 101 054 062 019 032 101 104 011 -75 096 050 051 050 -10 -32 035 -23 -18 -47 046 044 -29 075 008 036 090 074 018 -26 057 -71 -79 056 -46 -83 -68 041 -37 -71 082 016 088 -38 080 -14 096 -08 042 -80 091 058 
-21 -58 005 012 060 -54 046 032 100 015 -15 022 -64 054 -84 042 -28 002 094 008 054 -62 049 -100 039 067 -65 -14 -39 048 -35 -02 050 022 -34 065 -41 -45 -36 -33 -56 -02 -72 052 -107 049 101 -14 052 -42 012 -87 026 026 028 055 010 054 043 107 -37 -71 025 090 
-61 008 041 016 -70 -25 065 062 -84 056 000 -53 037 -80 -29 031 -84 032 -98 -74 005 066 069 -76 -68 -24 -33 046 026 -63 -48 012 -72 035 067 -81 -36 057 031 -11 -86 066 -43 -73 060 -09 -93 -79 040 030 037 027 015 -78 -77 031 -01 -62 -79 092 -02 -51 036 014 
-55 -53 052 -08 -65 -24 -48 033 087 012 -64 022 010 -03 083 051 -86 -48 035 037 -42 -17 -42 -95 -81 028 -26 025 -20 058 020 065 -37 059 -58 -58 050 -42 -78 -55 -76 087 -55 007 094 -66 -55 046 074 069 -49 -35 -71 -67 -70 -81 069 -31 026 -92 068 -73 -49 078 
056 082 006 004 -27 046 033 053 006 -63 -86 102 062 104 -84 053 -02 -28 071 106 -40 077 092 -105 -87 016 060 -44 -67 -49 015 -16 080 020 -30 -58 -06 -16 019 047 043 -99 -49 -35 -64 -66 121 078 -14 027 -74 -28 -13 080 082 020 -46 -21 042 -67 -80 -98 087 058 
052 -56 023 -47 -43 018 -84 020 -64 026 022 -65 056 027 -87 -13 -81 064 -32 -43 056 -68 059 -26 058 053 -40 -60 052 030 019 045 006 013 -12 -21 -62 -19 -75 -45 -73 -66 061 -01 068 012 -63 011 077 -83 -62 057 -32 -86 013 035 -01 -06 069 -22 -69 035 090 087 
028 -88 -14 -05 -37 000 -64 -19 034 -40 -71 008 -67 100 081 055 -33 -11 -10 041 021 026 048 054 -60 -74 -17 -07 -02 037 -36 -24 055 005 -32 055 019 045 -85 025 056 -72 -18 -68 078 -56 -97 002 -28 000 017 -29 088 -75 -39 090 -73 073 006 -96 -75 101 -69 091 
-10 -50 -17 004 032 -17 059 024 031 018 038 -45 033 096 000 041 -69 062 115 -101 -45 074 -48 082 071 066 068 050 049 -50 -45 021 059 -05 079 019 020 069 -89 050 -16 -30 061 -12 -31 -14 090 081 -19 002 -37 056 -113 -12 -60 085 063 -78 016 047 016 -83 089 -45 
-44 010 -06 -12 -72 005 021 -54 -71 -52 -52 078 -64 -35 081 -18 -52 012 116 003 -05 -70 -55 -24 016 069 097 -14 004 -27 048 -79 000 -62 079 -83 -39 060 -59 040 -54 073 004 083 -93 025 087 -17 -54 079 005 -43 -106 -44 -54 069 -94 -93 -70 -37 067 -76 013 -54 
029 -07 020 -08 -04 017 -71 -09 061 046 -49 091 018 005 -04 001 097 014 -64 -97 -03 -70 -37 104 003 -40 112 -24 063 035 058 -12 -72 -77 -23 -47 026 051 012 019 -83 065 -03 074 072 045 -65 -77 084 019 -01 085 107 -75 -31 054 -08 053 059 -41 042 -31 -83 -81 
-40 -33 -49 -45 071 041 017 -68 089 -37 -04 088 -20 -24 -11 016 -26 024 -78 -58 -24 050 013 -38 -86 010 -64 -29 -12 006 051 066 046 -61 039 -54 015 040 -80 006 -44 -14 044 051 029 -25 -13 -24 -12 005 081 026 -72 -33 -48 075 041 089 -74 029 -16 -70 -90 044 
-17 057 -44 008 -08 -68 -74 -61 106 -03 004 042 -50 087 -61 -66 -52 -90 113 018 -14 -01 -92 053 -08 009 101 046 -21 -19 -20 056 048 -57 -36 043 020 058 -82 -25 -84 -20 020 093 -84 -36 -01 042 006 -07 052 -83 -96 -67 -40 078 -34 -82 -86 -100 071 -39 -32 -75 
032 -32 -59 -53 -69 064 048 -43 101 057 -06 -69 -70 -40 -24 -67 025 046 -82 080 027 -04 -19 005 -80 -10 -42 -15 -40 010 037 029 -45 -49 -51 051 052 -59 086 059 -15 -66 025 052 055 003 -18 072 045 032 056 081 -109 043 051 -23 -81 -65 025 038 076 103 -40 -88 
-63 058 -32 -24 -71 -49 019 053 -70 023 -40 009 -02 -04 -78 -72 099 -66 -28 108 -69 039 068 109 037 -58 -105 -50 -86 -55 -54 -68 030 -83 028 -23 052 034 -66 076 010 -79 063 080 -100 -07 -46 071 -94 087 -26 -40 053 094 -74 -13 -74 -15 -81 057 -72 064 -18 088 
058 025 -46 017 050 036 011 062 054 -58 037 -37 014 -07 027 -14 015 -44 056 -93 -23 025 060 084 -27 047 -70 055 -24 010 007 -63 053 024 -29 -18 -52 -35 -54 039 041 044 -69 087 016 008 102 -49 082 -84 021 -17 -47 062 041 046 -71 -80 039 027 -04 -29 076 042 
-16 -80 -52 024 053 057 -68 -52 069 045 -74 -65 -57 005 -01 030 -86 -48 100 -108 021 -53 045 -94 022 070 -72 038 -58 035 001 -68 -06 -53 -01 024 -15 -58 -30 040 -87 -57 -50 066 -22 -28 110 024 088 046 084 -52 -95 059 052 -03 -54 061 -40 007 -26 076 -79 -67 
-56 -90 054 -02 039 -02 -79 -31 098 064 028 -78 031 073 -04 028 071 -35 -75 026 065 -06 067 -90 -56 -15 096 054 040 -19 -11 -36 -37 -23 007 -36 -62 012 -57 -20 052 060 040 029 055 023 056 010 014 -85 -25 -87 -44 -16 -31 -37 -82 027 -43 -91 030 030 026 082 
-22 -92 050 004 002 -42 -75 059 -113 -45 -69 001 -07 -84 -85 067 058 009 -37 090 023 -53 -21 042 072 -22 -38 005 -74 031 -43 061 034 -04 -18 -89 018 -36 033 058 042 023 073 -12 079 003 111 -13 -41 -71 033 -39 -45 065 012 -50 005 -02 -08 -33 017 -100 075 -58 
026 -65 -50 -55 -34 -70 063 052 075 -12 -32 040 022 080 076 019 -77 -98 -87 108 059 -01 -63 095 -72 067 070 -42 -03 052 -22 026 -65 -39 -82 -99 002 053 -77 -57 072 -101 -55 045 078 -41 113 -82 -103 -11 059 -45 074 070 -74 -100 -47 -89 041 -61 061 003 -70 092 
-34 073 -39 -02 -75 075 -42 -50 -93 020 -13 -72 -06 -50 -24 011 -65 -68 117 087 -72 -87 -42 093 -49 -65 026 022 -44 -49 043 039 073 -57 086 033 002 -54 074 012 060 094 029 -82 -56 -01 -117 085 037 030 -45 086 -71 036 011 -07 040 021 059 091 044 070 -41 -69 
-08 045 -19 -23 -44 -07 -68 038 -94 -56 -22 -28 -52 -87 -72 -31 082 -56 -109 -75 040 -62 -36 112 049 027 005 -47 068 -21 055 -32 -39 016 052 057 -24 -15 014 -26 033 -94 072 067 089 -11 029 -85 -08 018 -61 -09 046 -83 -68 052 -86 -28 082 -53 -59 -100 022 -24 
-40 -77 031 -34 045 063 038 -23 -85 043 019 056 035 026 038 -13 -02 -65 024 009 069 077 015 039 079 -16 059 016 074 -53 051 -57 079 058 -29 081 059 -73 088 -14 015 -29 039 -63 040 -17 -45 068 -40 072 033 -86 107 053 060 -71 082 067 001 094 043 099 087 -39 
-42 -13 031 -08 -02 -61 -42 -66 026 049 -60 061 -57 -33 017 040 081 070 097 -93 -66 -60 016 -51 -27 017 078 -32 -01 -06 001 063 -64 029 -09 072 018 054 067 -51 -39 -24 061 058 -44 -42 -47 -56 085 023 -59 030 082 -44 005 -28 -89 082 -66 -24 -44 076 083 -75 
-21 -76 002 -17 -27 -59 065 004 -104 042 001 054 -32 066 -75 -33 024 -55 046 104 -05 -30 066 -35 -22 -69 -42 050 017 -50 -29 -28 -33 -32 005 -84 026 -09 036 -67 -30 -18 052 -66 046 022 014 059 080 077 -10 012 092 -65 -50 077 -41 -07 -71 -93 017 050 -16 -38 
-24 -79 051 -30 023 007 032 039 -37 -56 058 010 007 -50 032 -03 -19 -45 078 039 -35 035 046 087 -48 068 080 -55 030 057 024 -41 028 054 -27 -13 -15 063 -04 -54 -82 -31 065 048 002 001 064 -25 074 -29 069 -34 084 086 069 056 045 -22 009 091 -69 -17 011 056 
059 -68 026 -18 027 040 -44 -58 -76 -33 059 068 007 -07 080 005 -53 -76 075 080 066 -43 -31 -47 071 -55 -21 -10 -75 -56 027 -53 050 050 048 -16 035 -62 013 -60 059 070 -33 -72 -03 -47 -33 -09 -77 076 036 084 004 -87 -03 068 052 060 051 054 -74 -89 -81 -16 
-37 -83 020 -41 -29 -48 -84 026 071 -27 -44 -85 -71 -32 058 058 -63 073 031 -59 -74 032 037 -94 055 035 -92 054 -76 -44 -44 057 077 011 071 089 -57 -58 061 014 064 010 -28 012 -101 -21 082 -25 065 -70 073 014 -23 -14 075 070 088 045 -79 035 -73 064 -06 -25 
-44 -57 047 -48 -31 031 027 019 093 011 -77 -64 038 018 000 -65 061 026 112 -86 064 037 -32 -45 063 029 -11 -55 -23 -12 -47 058 064 -44 -88 -71 -63 -31 064 -18 -41 -66 -53 021 094 049 059 -81 -45 017 -82 -68 032 -03 -12 -78 -52 025 -36 -102 001 -103 100 065 
029 -43 040 043 -30 -76 -25 -61 030 052 033 -15 -65 092 -59 009 -73 -06 -99 -47 001 076 -76 108 -25 -55 061 045 -76 030 -51 071 060 -19 -59 017 -51 -36 032 036 -48 -42 075 -08 -38 -23 -85 055 060 063 -29 003 094 021 070 002 028 -37 090 -03 049 -71 -03 056 
012 -81 009 031 040 -81 023 -70 -14 054 075 001 -04 -62 -59 -52 089 019 -112 111 -54 -82 016 -56 -62 036 -35 -59 -81 -06 -33 050 -61 -30 -69 028 -32 008 -35 070 084 -02 012 066 009 012 -03 044 -69 -07 -59 -67 009 068 003 000 -86 004 073 090 -26 -102 047 031 
062 -18 047 054 075 001 036 -34 -89 -69 -80 071 -19 100 -16 -25 -44 015 -107 -87 070 -03 012 -24 076 -51 -31 -28 026 -17 -60 009 -47 -61 080 015 -44 067 040 064 025 -68 042 075 -94 006 -44 024 090 001 028 -10 -113 001 -50 -32 049 002 070 -98 -25 -102 069 -42 
-28 -15 021 -02 -78 -69 050 -24 111 069 -84 -69 -59 044 -20 -60 -30 -35 -44 -100 -41 050 006 -36 065 069 -109 -42 045 017 -56 -37 071 -32 083 085 -17 053 -18 016 077 -15 051 069 074 048 -113 -83 -15 065 -16 035 -43 012 016 -50 -57 -23 -04 -28 -18 -98 -41 032 
-20 -22 -07 -12 019 -25 -60 068 111 -09 -56 054 050 -102 048 058 039 026 -55 -105 018 -80 -36 036 -36 -13 -84 -15 034 -42 -63 -24 024 -37 053 057 -54 058 -48 -49 -28 051 -14 038 094 030 095 047 -45 074 021 084 -112 092 074 -07 -17 012 -10 056 076 009 -87 -17 
030 015 -21 048 044 048 050 -22 -21 -11 -69 -01 035 049 -57 048 060 044 036 -92 -57 -69 072 058 067 057 -90 -15 -22 060 -06 035 -78 -62 031 -31 -01 -03 -54 -70 -34 072 044 -79 084 065 094 076 -36 072 -29 -78 102 044 029 -84 -32 -92 -79 078 035 -99 016 013 
-54 -42 034 -57 045 061 032 061 -91 -24 -06 -13 056 -99 -54 017 050 023 101 -59 030 057 -49 082 035 061 -41 014 -47 -03 039 -49 059 -68 029 -61 041 024 -18 -30 082 063 -54 -78 -52 050 079 082 033 047 011 -58 -91 095 007 081 -85 -27 022 -67 006 -37 -25 056 
042 -25 -11 -42 074 -22 055 -53 -101 004 -83 014 001 003 086 013 086 -47 042 071 -67 -20 -43 -53 024 -61 -70 -30 -56 -60 -54 -77 -57 060 038 -85 -48 -16 026 -03 -67 -35 035 057 053 047 -05 048 -24 -22 019 -34 104 033 -32 016 -39 066 -58 -81 -42 -28 015 -22 
-13 079 050 038 056 -64 -84 061 113 -53 -19 -80 -25 -95 -17 -44 -02 079 -32 -108 -13 028 031 056 -18 -47 -49 019 -66 -27 019 -33 -18 -67 023 066 -42 -57 084 021 -25 077 059 -17 010 040 -16 034 071 075 -63 -90 -63 -23 -77 089 -14 077 -51 -103 049 -70 -09 052 
-56 070 -42 -54 081 -74 -28 -52 -114 000 -74 010 057 075 017 059 -82 -14 -82 064 -34 086 -60 -82 044 045 -37 -21 007 031 034 048 -44 -77 021 041 029 -64 -87 -34 -41 -81 -37 072 -93 -35 085 -70 082 092 -44 -15 -101 090 -18 045 -69 -45 027 -33 000 094 -92 058 
-04 -30 044 -38 027 030 -55 059 073 044 073 -50 006 027 -55 069 -63 -79 113 008 008 -60 -64 -100 -18 039 -99 048 054 -24 -01 -32 -63 -62 084 073 022 045 055 020 -29 -79 -76 062 066 044 109 006 -92 005 059 044 -101 036 058 034 -33 -71 012 094 033 102 037 -65 
-16 -06 -35 -29 012 -74 -60 -57 -109 -12 076 045 -79 -105 -79 -28 -84 045 -29 -86 -38 -92 047 111 025 052 072 037 -65 -25 -17 006 064 -61 068 058 016 016 -02 -57 090 -29 071 -57 -07 -13 -06 -42 -33 050 061 069 049 -48 022 030 -82 082 061 048 -24 -58 -90 079 
037 -14 -56 -56 055 -58 -12 -57 -38 -32 024 076 -02 -90 063 -24 075 052 -67 -58 054 -09 001 -36 -86 -56 097 022 009 -05 009 043 -13 059 -13 080 058 016 -67 057 054 011 025 -29 -59 -49 -04 030 028 069 040 -60 019 -04 -74 020 -62 -58 071 -99 043 -04 073 060 
033 -90 024 -33 060 037 -62 -46 -97 029 -34 -71 -47 -93 -01 020 -07 022 -104 095 028 -65 008 -83 078 068 076 -47 -61 015 058 -65 -51 002 -67 -83 021 -12 058 -62 -42 -82 014 008 -74 -62 -104 028 -79 076 -76 -78 -23 -52 043 -04 081 -90 013 -81 -73 039 -40 020 
015 -38 005 053 011 -31 070 000 003 -06 002 -24 023 -06 -72 044 -88 024 -114 -96 -68 -91 -54 -67 068 -66 -75 012 008 -26 -27 -53 -39 -67 083 -72 014 070 078 023 041 -22 041 -81 -92 021 102 056 -12 076 052 -21 -79 015 041 082 060 081 -03 066 -48 -104 036 -104 
-28 -69 036 037 016 020 044 -73 -88 -15 012 079 -01 -100 032 -25 -15 -03 003 092 068 052 -79 105 039 073 036 047 052 -10 -50 -68 073 046 088 041 -57 037 -40 -20 002 -03 059 -59 075 -36 050 058 061 067 -60 -30 004 -74 -61 -52 009 054 -73 086 020 007 -33 062 
055 087 -16 -49 -11 -63 050 068 -99 004 058 -10 063 -68 057 -18 056 048 -53 -78 -31 -38 -45 086 -74 062 043 030 -60 -47 -57 000 -04 003 -36 079 -62 027 006 061 -07 054 004 035 052 049 -58 -03 -68 -56 076 085 094 -16 -73 -83 -61 048 -88 -95 066 -21 -39 -55 
016 057 -11 -15 004 -51 -89 -15 -109 066 -86 071 056 -105 058 -24 -42 -91 -105 -59 013 -86 -87 -99 -48 001 068 -37 -81 046 039 -02 047 039 -47 -49 052 027 -16 020 020 -81 -36 -14 -08 -67 -100 086 -83 036 018 005 -79 060 -83 092 084 -89 058 -09 032 -94 093 -87 
048 -83 -40 043 -21 053 069 006 102 003 -67 -17 019 013 066 -31 -46 -31 -111 -98 011 -50 -38 -65 -05 -09 005 -46 068 017 -16 012 -61 -53 -29 -65 056 066 -26 -38 047 014 -04 008 -32 039 063 030 -31 -74 -78 023 -18 066 -47 -57 065 010 -11 020 -66 091 -57 074 
-52 027 -13 -50 077 -59 -88 023 102 -02 -52 -13 072 -08 -66 -71 -83 -42 111 056 045 -23 030 -08 -01 -45 -84 035 -49 -14 -01 062 042 -34 -41 -82 -52 052 -75 016 -75 -31 074 050 066 -50 117 -72 -72 070 -29 042 000 003 -29 025 -46 -91 -79 -70 070 100 -14 -50 
002 -88 008 -26 003 036 -61 066 087 057 -10 000 024 027 075 -23 -76 005 -91 030 -40 -70 -05 -86 -45 -61 091 024 -24 003 -34 -26 -22 051 001 043 -52 043 -22 -67 042 072 -05 -70 -99 -47 104 -59 050 -17 -71 -46 083 -11 -62 -25 -77 -81 -65 101 034 -84 -63 045 
-56 062 017 049 013 -02 083 -36 086 -05 -81 -41 -35 016 -65 014 059 000 106 -20 -13 -58 050 112 -64 -58 059 031 -43 029 -50 034 033 -05 -76 014 -59 -49 -61 020 -46 -23 -69 044 101 -48 117 -40 043 -58 -51 069 -11 -58 -54 -32 011 057 022 015 -63 -35 -03 068 
051 037 049 -46 039 -48 068 011 -28 018 072 085 -70 046 085 -05 -65 035 -09 084 -14 031 073 113 067 -29 -67 043 020 -47 -05 043 -45 064 -86 -65 014 065 026 022 -68 002 070 011 094 035 064 -43 -77 -16 -66 078 -100 070 -57 058 -34 025 027 -73 031 064 010 -44 
061 043 -34 -21 -59 -18 078 -46 -114 -58 013 070 042 082 010 024 -27 034 -81 064 029 -41 031 030 019 -37 037 -45 -32 -57 -58 -62 066 024 -52 075 042 -63 033 036 036 036 071 008 -93 -22 103 -24 -41 025 038 -86 036 -42 072 -31 -01 -43 -55 -97 -11 029 -11 -54 
-27 022 062 -40 061 010 029 036 086 063 -72 071 021 -15 -41 -03 -60 -27 -41 020 038 039 067 -113 081 -63 -46 -44 017 003 009 076 -08 021 049 -78 -62 055 063 005 -22 -89 033 004 -33 -66 -117 -81 -63 074 024 -32 093 033 026 -34 -84 -46 014 034 001 068 -31 071 
-44 -73 018 029 -64 -49 -32 -37 -64 -31 -61 085 -10 -44 -87 -56 -32 -22 -03 040 -47 072 003 -84 -37 -02 -64 -02 -26 -23 001 076 -11 -50 -47 089 029 -48 -81 029 002 094 -71 002 009 -48 -121 023 -85 -07 044 -33 106 -26 -30 -47 036 -77 -58 -26 018 -94 004 085 
003 026 002 -35 076 -28 -65 -24 -55 -03 -52 -68 -46 -07 -24 027 022 -27 035 066 012 066 024 109 002 -66 -26 008 069 005 -39 -25 010 -30 004 -85 -50 004 074 014 033 -90 016 083 093 -59 107 034 022 045 062 -09 094 037 -34 058 -72 086 -83 081 044 -63 049 -17 
031 060 014 001 -65 009 066 052 -40 069 039 -73 -69 -63 -86 036 -81 004 109 -25 -66 -31 -27 074 -64 041 -03 039 -13 -42 006 067 084 008 061 032 019 -17 075 045 049 -85 061 039 074 000 -125 084 058 -24 001 060 -02 -97 017 -22 -06 -32 -79 067 -04 -29 089 064 
-26 035 010 053 -03 -08 007 -72 013 000 -30 025 043 083 -42 -58 -74 -83 -32 113 065 023 045 018 -83 -64 090 037 001 -25 -09 -41 -27 024 013 -15 -51 -15 -48 012 -55 -39 -33 027 -96 064 006 -13 077 058 -20 -83 012 027 -73 -74 006 -68 082 -75 042 -89 -72 105 
-41 029 -01 031 -78 -39 -58 -06 -110 006 -37 015 -67 078 085 -41 070 -47 057 002 031 -24 -23 075 022 064 050 052 -37 050 031 -01 057 015 029 082 -33 065 056 061 -86 045 057 008 -07 025 -34 -03 039 -46 041 007 -12 021 -26 028 -90 055 -68 -78 -64 101 -77 091 
009 -63 -64 -26 -69 -26 -69 007 099 012 041 033 -54 092 031 053 058 -50 110 102 -69 -47 034 077 044 027 082 006 -07 -19 -02 -04 045 024 -29 065 055 012 -60 045 -12 -06 -64 -46 099 051 105 069 -84 024 034 049 -110 -88 031 045 -13 001 081 091 003 -82 059 061 
049 -17 -21 009 072 -67 005 -66 075 033 009 -96 000 -56 075 023 051 -45 -119 -53 -25 069 -41 108 080 027 -35 -21 -85 -21 -13 -10 049 -30 089 -86 -67 -20 019 016 -54 -34 011 046 100 067 122 049 -70 013 050 -55 -78 -67 -39 006 -89 032 -93 -46 -58 063 033 041 
-01 -48 008 018 -27 -35 -61 056 076 059 -49 -51 038 -87 083 033 013 -84 -33 056 017 -73 069 -85 059 -31 034 -41 -68 -34 -31 -64 071 031 015 -17 048 046 -81 000 038 027 003 048 -78 049 110 070 -88 -13 -21 -91 -03 -48 -32 -54 053 071 -90 -68 021 001 012 086 
-16 077 -11 006 -64 035 076 005 -94 058 060 061 022 062 -12 007 -65 007 -111 -44 056 -55 -26 -98 013 -12 007 045 -16 -46 -11 025 -69 -49 040 077 003 -58 -18 069 088 -18 -01 053 -58 056 121 007 -49 -26 -51 -34 -106 -65 048 041 -68 009 -21 091 069 070 -51 -37 
054 080 -16 018 -30 -60 -54 -51 113 012 -18 081 052 -09 051 -29 029 -75 -109 080 036 082 -73 074 -32 006 067 -42 -62 -55 -01 -44 -59 -15 -82 035 001 055 049 001 -55 -92 -65 -80 -68 -43 117 -59 -48 033 -35 -77 -13 -90 -45 089 -09 006 -01 039 -47 098 -85 -62 
008 -88 -10 -25 049 044 034 -06 -106 -60 -11 -30 070 -56 085 018 042 -41 -102 009 -43 018 -83 -110 -84 -68 -53 -08 071 026 022 -01 -74 011 -40 027 027 -18 -46 -34 -08 -44 021 059 041 -40 -119 075 -14 040 000 083 063 066 -80 080 -42 075 -35 -60 -60 101 090 -60 
033 076 055 031 -03 -62 -75 002 105 031 -45 -29 -40 089 -09 -01 035 -66 011 -26 -61 -06 034 -100 -84 045 -60 021 -50 -27 -22 066 029 020 -76 -16 -45 017 -09 027 -74 -77 -46 078 -70 -19 086 -12 001 -09 -18 005 096 -32 012 017 -70 -80 -34 057 -14 031 013 083 
001 067 057 -48 -48 069 017 -52 -113 -05 -89 083 -62 079 -06 023 -82 -91 105 -48 -66 019 032 -114 -33 -56 102 -59 -09 027 044 -32 -35 -81 -38 -93 040 009 -52 074 083 -60 069 091 094 -49 124 -26 091 -57 -75 -14 -112 -90 -49 -13 -51 -87 089 047 -25 074 -01 006 
-11 -43 -14 -07 -50 -17 016 -29 -57 062 -55 074 063 -102 076 054 -66 -01 112 -105 071 031 067 108 -61 065 -80 055 -61 -09 -03 -64 009 -31 089 049 006 018 -02 071 066 -96 -71 061 -57 028 -108 -65 027 020 062 -75 -69 -33 035 088 079 -45 -36 030 062 083 -06 006 
008 -13 044 013 081 -80 -29 007 092 -01 -55 -52 -78 -107 032 068 -59 005 096 -104 057 074 -10 -99 054 065 -11 055 -66 -18 065 -10 023 -48 -74 074 024 -43 -34 -35 075 -98 -53 054 060 038 119 031 -91 -61 039 -62 -36 -85 064 088 075 -10 -67 -86 021 043 076 090 
-53 -68 -14 -14 -23 017 034 -03 106 061 -77 016 -39 -42 -88 -22 -90 -40 000 -107 066 -73 083 -75 -61 -42 -18 008 071 -21 -26 -45 -70 011 -08 -63 -54 -22 -01 -03 076 -96 042 -80 -11 -02 -18 -51 043 050 -70 -62 -103 -82 052 -18 -75 013 -53 -37 -35 -54 071 064 
011 -27 058 035 044 -55 000 031 -06 009 -73 -37 077 081 084 -70 044 035 -111 -104 014 -65 069 -104 -34 -13 028 014 024 -54 -44 068 -81 -49 077 084 054 -38 004 -33 081 077 -50 031 079 047 -21 070 -34 031 056 008 026 039 -45 -70 084 -35 -13 -85 -26 087 -44 050 
-50 038 013 -06 -17 013 -78 -38 063 010 -54 040 -11 083 059 -09 026 021 -114 084 -42 076 -01 -79 055 070 -26 -33 -55 020 048 066 072 -29 -08 082 061 -67 -69 045 025 071 068 -69 009 010 -118 -60 057 -58 -35 032 098 066 039 -78 084 077 052 -93 067 097 -04 -89 
-04 059 -06 -17 -29 -36 -42 -18 100 -15 035 078 039 -05 055 014 -26 -22 068 067 -13 -86 -30 051 -44 030 060 -21 -62 -04 -33 -45 065 -22 -43 053 -38 010 -29 -07 -69 045 037 068 -76 -19 -105 047 055 026 073 -15 009 003 -78 005 -49 -85 042 -05 -23 -101 078 -40 
023 -85 033 -44 067 029 070 -33 -22 -64 068 052 -46 -46 044 -30 -61 -73 040 110 048 -18 069 -61 -38 -32 -34 005 -20 -17 037 007 -71 -26 068 031 029 -28 015 047 036 051 -45 -60 067 060 -92 -85 -64 008 035 -43 -35 077 -60 046 028 -09 081 025 -14 034 -67 -76 
-61 048 -05 -07 -48 058 029 002 080 022 047 059 072 -82 012 024 -19 033 101 091 -09 -70 020 063 -22 -32 -95 -46 -78 -34 -40 -50 022 -27 -06 088 038 001 -63 033 -76 -83 038 -63 026 050 117 -78 071 059 -40 -59 092 050 036 -36 025 036 047 -102 -79 -96 -19 080 
012 073 055 -51 079 -20 -33 -10 069 063 047 079 -38 -95 017 -26 -79 -01 087 -46 020 -03 069 -78 -82 046 024 014 -56 042 042 023 -35 023 -74 010 -37 005 -87 -83 073 -95 025 -56 086 040 108 064 -82 070 -55 -39 -70 -87 004 -82 -74 -86 -79 -28 -04 043 017 026 
056 003 045 018 019 -16 -31 -19 -15 008 -84 056 -70 -78 -46 -60 -76 005 -107 -64 -51 -83 -30 110 048 -25 -51 024 -23 037 016 021 -49 058 -11 068 055 -66 -56 047 060 073 074 -60 -28 041 -36 -79 -55 080 -59 -81 -49 -32 071 036 -23 -44 040 -101 072 082 035 -76 
023 -64 -59 -03 012 -04 054 047 099 051 075 029 -62 -95 065 056 028 -64 051 095 071 065 036 110 058 -06 067 -35 051 054 010 -75 021 063 071 -79 -50 -06 -80 045 027 074 003 078 057 033 049 -81 -34 049 008 065 000 -49 -35 062 -27 038 038 -66 -70 055 070 -09 
-21 009 004 051 -58 013 -57 -56 081 011 -59 -20 027 027 025 042 -62 011 -93 -83 005 042 -83 097 -12 -54 -26 -55 -65 -14 -128 015 -79 -80 084 003 001 015 -42 027 -41 001 -04 081 -66 -49 121 037 -59 003 -35 -47 107 -54 -89 -90 042 -18 011 036 -42 099 -81 -83 
011 -47 061 -22 -24 056 -53 010 -20 -16 008 070 022 -45 -60 060 052 006 083 021 -18 037 -02 008 056 -12 082 026 055 025 -54 069 -49 003 -30 082 054 060 075 066 -87 090 067 -81 063 006 -02 070 -02 -62 -59 071 076 -45 058 -71 081 -44 -24 -58 002 026 -90 -88 
059 025 -21 041 027 -36 -33 038 -11 059 016 -60 072 071 -25 -23 -32 048 102 100 -52 037 -17 -103 024 -70 084 -32 000 -56 -04 -10 -76 025 -67 -62 060 -53 083 -29 -17 -74 058 081 -60 -22 051 070 071 032 027 -05 003 029 -30 -88 069 032 -01 -04 072 -34 061 069 
037 029 012 026 -69 060 -35 044 061 067 013 -26 -55 073 -85 003 -59 -07 069 011 018 078 -77 -107 012 -53 042 011 -11 037 -56 -45 081 -45 032 074 -38 -15 040 -09 -39 -101 011 -90 -80 -72 -11 078 042 -20 069 -80 -53 -74 035 024 -86 -62 053 097 -77 -48 084 -58 
054 028 059 -15 053 -30 -26 008 049 004 -45 040 -03 -35 007 060 -79 065 032 -48 -32 032 -46 057 -62 -70 -57 012 -30 -56 -11 -07 -54 -01 078 036 -55 -34 -80 -03 085 -36 069 070 018 -49 -88 -52 -79 062 007 045 111 -86 071 014 060 -03 -18 032 -42 016 -88 -21 
-26 046 028 032 071 067 -19 -52 099 016 053 083 022 064 072 -28 058 006 093 090 -17 034 -28 089 -79 020 076 -37 -51 051 -03 033 -77 010 -31 -07 030 -35 -33 -65 -53 -23 014 060 -93 055 104 009 075 -75 026 -11 -109 -96 045 011 074 -51 023 090 066 061 -26 -53 
-49 -32 -34 -43 -70 046 041 -68 -38 013 -66 -16 058 -90 -56 -12 -80 019 -48 072 014 062 -90 067 070 -23 -89 028 035 045 -43 -52 -79 -35 059 060 050 044 044 -34 -74 058 063 026 057 -09 069 -22 089 024 007 064 070 039 030 086 020 078 -70 106 -01 072 041 064 
-17 -53 026 -25 002 -42 038 011 013 006 -62 090 012 091 -38 -72 -53 -45 097 111 -42 059 -46 -95 005 -05 077 033 -61 -58 -46 033 -29 008 -23 -42 -48 -68 -89 -03 -73 -54 -08 077 080 048 119 -46 040 064 -27 -86 -43 -63 -65 074 -79 070 092 -83 029 089 009 094 
003 075 003 -26 016 010 010 017 110 052 017 090 072 -86 -52 059 033 002 020 091 -60 078 032 062 -43 -53 057 -32 -63 -12 -61 -09 -67 -52 -69 -60 -33 -47 -46 083 069 -39 -11 -42 016 -40 119 061 043 -22 055 057 088 -59 029 025 -84 065 -56 -95 -71 089 -71 079 
008 -34 -39 -51 -01 048 088 -76 -44 -41 032 022 -59 -53 -81 051 -53 -60 095 104 -71 083 -66 -19 -85 -33 098 -51 -03 035 042 -58 059 -76 -67 -52 -21 012 -80 072 085 010 030 -67 040 -12 -07 -73 028 -74 -58 -92 105 053 079 049 074 073 -34 069 026 -17 -22 -74 
037 -79 -41 042 -21 -67 090 045 051 055 024 -65 -41 -24 002 -69 -64 -65 -52 -85 055 026 005 -71 -15 043 -54 018 -19 051 014 -28 -36 020 -48 -41 -28 -25 046 064 021 -53 -67 092 060 063 061 080 020 -90 029 -49 -29 051 -79 102 -45 027 -92 -06 -52 -102 -72 -78 
-62 041 036 -56 -61 -48 -64 044 -67 -48 -68 -06 055 074 016 002 042 -80 013 059 073 -76 -09 087 063 -19 -70 -07 -74 052 -23 000 -38 007 -25 023 013 038 070 -52 074 -59 075 -74 024 -06 104 -73 -40 063 -23 047 095 005 -65 082 079 080 038 -40 043 098 065 025 
023 079 -11 024 081 -52 -56 065 -50 -48 -43 087 024 -16 011 022 067 -33 024 047 -66 036 003 -60 -80 005 009 -41 -16 038 -12 -23 -59 -73 036 -79 066 -45 -46 -04 063 -88 045 089 023 -26 -50 -15 077 -53 050 085 -73 -03 029 075 074 080 -44 067 073 -65 -45 095 
-33 054 010 -57 055 -11 -13 037 054 067 -55 -86 -57 -96 -80 -60 034 008 019 -49 031 075 -24 009 082 032 -102 -26 052 007 028 068 050 -38 055 -78 -52 -44 -69 -42 -02 085 055 -22 -98 005 -125 -51 016 -39 066 080 105 069 -38 054 086 -91 079 -36 025 092 -06 -04 
-36 -29 -58 004 -22 042 -46 -45 092 -56 039 -34 -25 102 -07 -31 -78 -81 108 060 002 -87 -50 -99 -80 032 -05 010 057 -42 023 054 074 -03 015 -47 -35 029 -60 -59 -30 -14 -13 024 -05 -33 121 011 -81 070 -49 -91 -21 -64 -14 -58 -13 044 -79 -63 -24 052 033 076 
-28 -49 041 048 -02 -73 -93 025 -35 002 -46 -76 -18 013 029 064 080 -28 -111 034 022 -13 -03 091 -51 061 -94 -20 -46 -41 015 -71 002 002 -17 -85 -30 035 068 039 021 -63 -37 096 -93 061 117 064 -30 051 062 045 -55 042 012 -95 022 -62 071 100 -33 -78 -94 061 
045 062 036 -03 -01 -06 -17 -54 038 -20 -66 033 -78 -13 016 -73 -46 -92 -82 -104 037 -06 047 -106 032 -67 099 039 -55 -62 -36 -06 -48 -73 -90 -18 -05 -74 -91 083 -05 090 024 -01 028 031 089 -68 -47 070 052 -78 027 076 031 082 069 077 -29 -84 -20 -54 -92 081 
-46 086 -09 -45 016 -21 038 070 111 042 -75 -11 -20 052 060 014 078 068 108 -85 004 -66 054 -87 014 -21 -94 027 074 050 029 -79 -62 056 -79 -58 027 -24 014 020 021 -72 -78 019 082 040 072 046 027 012 -55 -21 -109 -86 044 057 070 -08 -58 085 052 -37 012 -78 
-32 -34 -54 -29 -54 -51 -43 034 075 062 064 -11 013 -44 -80 -70 -46 035 089 -45 -34 013 008 064 -45 045 065 -19 -52 036 -52 -31 068 068 -37 -78 058 -21 -87 041 -11 047 -69 060 -91 -79 119 020 -100 052 -23 -18 077 -38 -41 045 015 -08 054 -96 -22 102 -68 -42 
-17 027 -48 005 006 030 048 021 103 019 051 -49 -33 054 -31 027 -13 -10 107 -87 -75 062 -38 053 063 035 -47 054 073 -65 008 009 074 -09 056 013 005 -08 076 -42 044 -94 046 046 098 -28 098 -68 -60 -36 -43 084 -105 095 082 -41 -20 010 -37 096 -33 -93 045 -51 
005 -09 -29 -44 -51 -48 -06 -64 -09 -05 045 -17 069 -107 057 -01 -40 -86 -78 -57 -48 027 041 009 -30 004 -87 -43 059 029 002 -28 -38 041 085 022 038 -69 -87 066 -16 -88 048 059 055 -33 -110 034 -15 -04 064 086 -104 000 -81 083 -85 -40 057 -66 053 -78 -59 072 
061 030 -40 000 -01 -52 054 -77 023 -23 -85 -75 -29 -09 020 062 002 -77 -87 -21 -04 -81 -96 050 -39 -46 -17 -25 -08 016 -43 024 067 -27 073 069 016 054 -67 -45 039 -61 -72 -76 095 -01 -112 055 094 069 052 -67 087 -95 -61 072 073 -52 -33 101 063 -92 -64 -80 
-42 -05 021 053 078 058 -05 -18 107 -44 -41 070 -11 -14 048 -35 071 -97 -87 072 -56 024 -40 -16 -06 -57 042 034 -37 025 -09 071 076 -30 035 -70 023 043 -95 058 049 -38 056 085 -56 -35 123 -37 023 -44 010 -55 107 049 -65 070 -44 -84 -77 045 -20 -95 -91 080 
044 029 018 035 048 -40 023 -56 101 -10 080 -69 -47 019 -15 042 -34 -63 016 -63 -75 009 076 -95 068 066 -96 034 045 -55 058 010 -02 064 -07 083 041 062 007 -62 040 089 006 027 054 019 121 -29 -59 -32 048 -15 004 033 033 -72 028 -59 -60 -23 -21 -97 -52 094 
-09 -78 035 -24 053 -58 -57 061 -28 -51 051 069 -59 063 -27 -03 -103 021 -94 -44 -75 -01 -63 -58 -20 057 -29 001 -09 027 -02 -05 -52 057 064 -68 -64 052 -85 -21 086 -61 -17 069 -94 022 -115 005 -89 026 014 -40 -07 094 070 046 -91 -35 083 -21 -62 -33 033 105 
-60 -53 032 -16 004 054 -66 -68 031 056 -70 -74 067 102 043 -43 058 012 086 -14 -32 091 -30 067 060 006 035 025 042 019 -29 058 -13 -44 -87 -19 055 -77 -78 081 -67 -13 056 092 -63 077 123 063 -36 041 -70 -87 061 038 -40 -81 063 -13 068 009 074 -54 -48 -15 
-64 083 055 042 019 -31 066 -73 -01 -65 -26 -08 002 -97 -65 -33 076 046 -01 -102 064 -17 -55 048 058 -21 -31 -48 -06 -41 003 044 -76 028 -43 -52 -48 027 -34 070 064 -18 045 048 052 062 -51 061 056 -45 -03 025 -58 -71 -57 012 -17 -83 -04 -85 018 091 -26 089 
-39 -13 043 013 062 040 -86 -47 108 -19 -83 -80 -75 -42 032 -55 024 060 005 080 068 -03 -89 102 -74 -64 088 -07 000 021 -44 -42 -01 -32 038 -90 052 038 -80 049 042 087 -42 026 -72 006 090 029 021 018 064 -88 -111 -20 018 006 -26 -75 -25 003 -02 103 086 082 
-09 -87 051 003 -26 004 -69 039 -88 027 005 -59 011 045 -81 -53 083 026 086 -80 -56 -64 067 -71 047 -28 013 -56 -18 -03 -22 072 -82 -56 -31 -34 -42 -58 -102 -08 080 -79 071 067 -96 -42 100 063 -56 -58 065 046 -94 -78 -78 081 -55 035 -46 -25 -39 -30 079 -53 
-39 -40 016 027 -67 -12 083 036 -91 014 -06 -85 -74 -04 024 061 058 -49 109 013 -25 084 064 087 -03 -52 -43 -18 -09 -14 -07 037 -14 003 071 047 -57 032 082 -10 066 -05 -74 -79 -89 -53 092 -40 083 053 -03 -18 -24 079 072 074 -75 -92 031 -76 022 094 072 053 
047 -29 052 -30 -37 017 -50 027 008 072 054 078 -40 036 030 014 -57 -04 -51 -84 -60 -16 -85 -111 -02 -52 014 -14 -19 050 056 008 070 -65 -40 083 -62 -28 052 051 -89 -100 074 -28 009 -45 016 -44 095 -91 -64 033 065 042 -44 088 063 059 -43 037 -21 -100 -14 038 
-44 023 -02 -03 038 -37 063 017 017 022 -38 -30 064 026 072 -69 063 -58 -104 -114 040 009 -65 -92 001 -39 -62 022 -91 -26 -55 -32 062 059 -50 -74 -38 031 049 -07 083 -104 044 053 006 035 057 -79 009 085 -57 -88 -99 086 -78 -39 -79 085 -19 051 008 014 041 -42 
-62 077 035 002 -43 -31 -12 052 023 060 -55 -60 -50 -76 -43 046 082 026 109 000 -38 -12 -08 111 083 051 -111 -13 -54 052 -45 -67 035 013 074 067 -46 -71 -86 075 023 -43 008 069 -54 059 112 -54 -31 067 -74 -34 107 -95 -64 059 035 -58 -64 -25 032 -100 -73 063 
