001 -19 030 -01 -24 -22 017 -26 -38 -05 025 029 003 007 037 -50 -07 -14 -24 004 -33 013 -39 009 024 018 -21 -58 035 -34 -02 -48 016 013 035 019 -27 003 -16 -25 -34 -26 -23 -35 -44 043 040 -18 006 -13 -09 066 029 -17 049 058 -59 -07 020 -05 003 -21 033 -03 
-13 038 -08 -05 -08 049 033 035 046 002 -27 -15 021 -34 -41 -51 -36 -04 -05 -25 047 -20 031 -17 -17 -15 -05 060 -35 062 029 016 -41 026 -12 001 -37 031 021 032 -16 -44 -01 036 001 011 014 034 -13 026 -10 -46 -40 031 -14 015 -27 013 -36 042 -26 043 002 -15 
012 014 -03 -05 009 -38 -23 -40 -01 -29 030 035 -30 -20 004 -09 013 -39 -14 005 042 017 -16 -15 -34 -17 031 002 -33 044 047 -44 030 -04 016 032 -36 -14 -22 038 047 037 -37 -06 041 -10 014 -28 020 -01 -10 007 001 -39 -39 -22 -01 043 037 028 -21 030 -30 -08 
-30 038 021 -05 020 -18 025 000 -32 032 019 014 024 -28 035 -35 018 -13 029 -11 031 015 -32 -42 022 -27 017 -49 -30 021 018 021 026 -06 -13 000 -30 027 014 010 -64 060 -06 -19 035 -37 -31 020 029 -40 032 017 -10 007 046 066 047 -09 022 027 -24 -20 025 -16 
001 -64 -08 -03 019 -31 -19 020 035 -40 012 -15 010 029 -15 055 -02 050 -02 031 -11 -34 000 -30 017 -09 -36 015 -34 000 -02 002 -39 -04 023 -24 -19 000 048 -35 054 -22 048 036 003 043 030 -11 -14 038 -31 -35 -32 036 -25 001 033 -24 -35 001 -26 033 -29 000 
041 -46 014 -29 025 016 016 000 -02 -40 -15 -27 -54 -10 030 028 030 041 -24 035 -10 -19 038 026 012 025 011 -14 -33 044 009 -06 -43 -20 -35 035 -18 -01 028 037 -32 -05 022 001 043 -27 -44 015 029 -31 022 017 -29 -38 -30 -37 030 012 034 011 024 -48 031 007 
-08 -28 -16 013 025 -25 044 -25 -18 003 013 014 003 -27 -04 -05 010 022 000 031 -13 003 -27 -42 -20 025 027 -27 017 050 -34 025 -15 -16 -27 006 031 020 012 -12 -44 -50 -15 026 -39 -25 033 -16 029 -25 028 -11 -18 016 043 -09 038 018 -13 -44 026 -31 002 -30 
006 -16 -05 023 -18 -02 024 -32 004 -25 001 025 015 -05 014 045 -02 -32 002 018 -43 011 -25 003 -04 -14 -02 042 -15 038 -28 -39 -02 013 -21 -37 008 024 -52 -07 023 014 018 000 013 035 041 -24 -23 -02 -24 053 -21 -47 042 055 -41 005 -16 -31 008 -22 013 014 
-08 -06 017 018 -28 012 040 -28 -44 024 035 -03 006 003 030 047 020 001 -14 -32 040 -24 016 -28 004 023 024 022 057 057 -31 041 -20 013 015 018 008 -06 045 -04 045 -03 -19 -08 025 -12 -16 -20 -31 -29 033 018 -06 -37 019 -69 -39 021 020 013 011 042 -23 021 
-38 054 006 -17 002 050 -25 -20 010 -25 -02 012 028 019 040 027 -26 -46 -32 -05 -43 023 -21 023 -28 024 -13 -18 051 029 -23 -22 -31 018 -14 005 021 026 040 -29 -39 -39 021 022 038 -15 029 010 -37 -06 -19 -55 -28 -22 009 002 -09 -17 -50 -26 -44 -04 012 -33 
-36 -40 025 009 -23 015 009 027 -12 015 029 -07 002 -23 -49 -48 000 -57 -04 -22 010 -30 000 010 -27 -33 -27 -07 -36 026 046 -16 -43 -30 -22 -21 -04 035 046 030 -54 022 -04 024 -07 -16 -29 019 -32 -32 010 039 038 018 -35 -56 007 -13 029 026 -23 042 -14 033 
011 017 003 017 027 013 -04 034 029 -21 -09 -27 026 -30 051 -07 -16 -49 027 -22 -22 013 -07 022 013 -24 -32 -06 -17 037 051 002 -08 -27 061 -02 025 032 046 -41 -46 020 037 -17 042 000 -34 029 014 -31 -37 045 -28 032 -45 014 -49 046 -51 039 000 -31 -02 -34 
017 038 -34 000 -07 031 024 040 018 028 024 -49 -34 -30 005 -44 004 039 -31 -07 025 -18 030 020 013 020 -03 039 035 -51 002 -50 010 018 050 007 -32 032 050 -20 -29 -23 -35 005 -10 -39 040 -40 011 020 038 047 -26 -24 -01 -69 057 -08 036 -47 -24 024 019 010 
039 -36 -25 -08 001 001 037 -25 003 -19 024 -33 -21 -22 011 011 014 -54 027 -37 011 -37 -32 -30 -25 -06 005 032 012 -20 -29 -16 -12 024 063 029 010 -06 -33 009 026 057 -24 -22 049 -44 044 -40 -31 -21 040 -11 031 049 -60 035 022 -44 -12 -16 -19 -05 021 012 
018 025 -02 -10 005 027 -44 007 037 014 021 045 001 -06 015 002 -27 050 -13 016 042 -05 -05 -32 026 022 -31 041 -57 063 -48 -05 013 009 058 -17 000 -06 047 -40 042 047 -05 018 -08 -25 -41 019 -07 000 009 -21 -26 -43 027 040 017 044 032 -31 032 -48 -04 030 
-19 025 008 001 017 -30 -27 -60 -11 -03 -34 -31 -11 -17 -04 058 -03 -58 -14 -29 -27 037 020 -24 018 028 -09 038 052 -57 -45 -02 041 -28 055 -20 015 006 -18 -04 001 -39 018 -36 024 -10 008 -23 007 -29 009 043 039 025 035 -22 010 019 020 035 -14 -17 013 -22 
-11 -55 -10 024 -40 058 -11 033 040 -18 -28 -19 -40 005 -44 029 -18 051 -04 -36 043 037 -30 033 -08 005 012 -72 -59 -62 047 047 -40 -21 051 -02 003 -05 -01 -30 -33 032 036 035 000 036 -43 -29 -13 030 014 056 -21 028 049 -47 007 -43 037 035 -05 032 -10 -07 
037 029 -26 -24 -55 -06 -42 003 -50 -04 -37 -02 032 -29 042 -16 -31 -29 001 033 -23 -19 -22 -32 -14 003 020 -02 012 -33 -14 050 032 028 014 -30 -19 -12 -32 040 000 060 024 -11 012 032 -16 004 016 -11 003 070 -05 -29 -29 -14 027 025 -05 -33 042 -35 028 -07 
027 -42 -32 029 019 042 001 -13 -35 -15 -39 -19 020 -27 -17 -48 021 -40 -16 008 034 -26 -26 -20 -11 -30 -35 029 -22 055 -27 023 017 010 001 024 026 -29 -47 -34 -29 -52 -23 -30 023 -37 010 012 -31 -13 040 038 -21 053 018 -68 028 -42 022 -27 -12 018 035 003 
-31 031 009 005 -01 027 040 -34 -19 013 -04 024 -27 007 050 -03 006 010 -14 004 -13 -13 034 001 022 -36 -32 032 -24 -69 -46 000 -32 014 -37 023 -24 -17 -02 -09 -14 -08 -21 -34 -29 014 -01 -01 004 018 -39 059 -33 -19 027 -42 -40 035 -39 -13 044 027 -16 -20 
-05 061 032 -29 037 035 033 -29 007 013 -01 -51 -34 005 033 037 029 039 -32 022 033 014 031 010 -13 020 -21 005 051 022 029 -53 -34 -28 024 018 019 -33 -50 015 -32 004 041 -25 -47 -16 -41 -35 029 -36 -37 -48 -01 047 015 064 -03 003 -40 -20 -44 038 031 -23 
-03 -05 005 -09 -31 -40 007 -11 -24 -35 -42 -53 037 -19 009 028 024 034 009 030 -18 -34 -33 007 001 024 -11 027 004 -31 -34 034 038 -13 069 -12 026 -27 026 022 024 -47 -11 022 049 -27 -30 -05 -25 -02 -18 -47 028 027 005 -31 072 034 -28 040 004 037 -38 030 
-25 004 -18 011 023 -02 033 -60 -48 028 028 -37 031 000 026 008 -36 -50 -02 031 -13 -27 015 001 021 -36 -11 -58 013 044 -19 -33 029 -25 -43 -21 -36 023 045 -29 029 054 007 -05 016 008 -30 011 021 -17 026 -38 030 -21 032 057 012 -16 039 -21 -03 030 -16 039 
039 -32 -28 018 -11 -38 -34 009 -40 011 -10 -15 -09 005 -18 029 -25 -25 -06 021 -26 013 -11 035 009 -04 -11 -39 -06 059 -46 014 -31 011 -30 -07 -28 000 -25 -01 039 000 037 037 003 -22 -22 016 004 -03 028 018 013 003 -59 002 020 011 002 -03 012 005 -06 -17 
-08 -44 -07 -19 043 -38 027 -32 029 020 030 -03 028 003 -55 -23 -25 -58 -24 -40 -24 012 -14 028 -22 034 -40 054 -29 043 012 039 -45 -07 -15 -20 012 -08 020 001 -31 -56 024 013 -20 -15 -42 -25 -27 015 026 -42 010 -46 -17 041 -07 -40 -32 -39 024 -41 -35 -04 
002 048 016 -09 -52 006 005 -23 -17 007 006 028 009 -32 -06 -50 030 037 020 -22 038 000 031 021 020 -12 -22 -58 -24 052 -52 047 017 -02 -36 011 -31 -35 029 -31 031 -51 -23 -05 -13 019 030 -18 -07 015 007 -51 -05 024 -36 017 -49 015 -33 -42 010 -01 -09 -39 
024 056 012 019 042 -55 019 015 -12 -04 -26 024 030 019 -07 -29 -26 -13 002 -09 -30 -28 021 013 008 -08 -20 -54 -03 -58 027 013 014 -03 -46 002 -17 -27 -18 023 -29 -12 -23 -34 014 024 002 003 -18 -17 035 -43 -30 -46 -20 047 -23 039 -08 -27 -29 -30 030 010 
046 -52 020 022 -45 -05 003 035 -45 -37 -42 005 -08 -36 -27 -29 -10 035 -11 -31 -17 -31 -28 -35 015 -09 -08 056 055 051 -33 039 030 -15 070 -24 -24 013 008 023 012 -36 008 002 046 -39 -16 -43 004 040 030 -01 -10 -51 038 -34 029 043 050 033 031 -11 014 036 
030 -60 022 019 048 -65 -19 041 010 -28 -30 025 009 013 004 -56 013 027 -03 032 -01 005 019 -25 -08 031 -41 -05 010 033 -14 012 012 006 024 006 003 028 -40 033 -38 -17 -26 -32 020 030 -20 -34 031 027 012 019 -30 000 -55 -26 019 -19 019 -07 -01 021 -04 -35 
-31 -13 025 -30 -39 034 021 -18 023 011 -28 001 -21 -24 012 -44 -33 012 008 -22 042 -42 -26 -40 -16 006 -06 -37 -46 012 -07 -03 030 014 -08 018 -14 011 008 002 020 052 040 033 007 -12 009 -37 -24 000 032 -15 -39 048 032 064 040 -04 014 -37 -29 -33 030 021 
-36 027 020 -14 -12 -37 015 -03 -01 031 028 -44 001 -27 -43 -38 -15 018 003 -34 026 -32 033 007 008 -14 019 -61 002 -47 -37 045 -45 -26 046 -14 -31 -27 020 013 -13 -12 -08 007 005 -20 017 018 027 034 023 -39 031 003 -21 -71 053 -29 000 045 -02 -36 018 -16 
-27 -61 -07 007 -36 049 006 -46 035 003 032 059 -01 -27 042 029 020 009 -27 005 048 014 -34 041 -14 -17 -22 -21 -29 -05 034 015 -02 008 027 029 -04 027 029 025 -31 046 -20 -23 -21 -13 -33 041 016 -40 -16 -06 -14 -22 044 -23 050 001 -16 -17 -06 001 -21 -02 
024 -41 033 015 -36 -47 -28 -12 045 -06 -16 024 005 -03 -34 054 028 050 002 -19 -20 -36 -17 010 -20 017 000 059 028 -63 -41 017 -11 026 -60 008 015 028 021 034 040 -23 013 -27 017 031 041 000 -09 030 -40 050 038 046 -18 -45 064 -46 049 007 -42 -02 -11 -44 
002 006 016 009 010 -22 004 -30 002 -35 -32 016 021 013 004 018 -07 038 000 -16 -27 -24 023 -10 -13 031 036 -40 -39 037 -17 -25 -34 000 -17 020 024 024 -04 030 -62 -14 -04 -16 031 008 -11 -21 -29 -25 001 -62 -31 -46 -49 060 023 -17 026 010 -36 -33 -06 024 
033 -53 017 -06 -40 041 -07 -44 -36 009 013 001 -09 029 013 033 018 046 017 -30 027 -19 -30 -45 026 017 -35 030 056 034 032 018 003 -08 -02 021 -28 -22 030 039 -42 026 -23 031 -12 -23 006 -12 -13 034 017 -44 037 042 -11 052 060 012 -38 -28 -33 028 007 -13 
000 033 -01 002 -15 047 -31 016 -02 025 -09 036 029 -35 -15 -40 022 057 009 014 -20 025 015 -45 -30 -04 -28 002 037 -30 -14 -03 -15 -20 -39 -34 014 003 007 013 -64 -14 -01 -06 -11 016 017 037 -22 024 -02 -29 -03 -24 -26 042 -33 020 -33 -06 -30 018 -05 018 
-42 -47 -30 002 -50 008 -35 -56 -02 036 -28 -20 -12 011 006 014 -21 060 -02 -06 027 -30 -27 015 -11 034 -26 012 040 -15 047 -19 -07 -07 -45 032 -35 -28 044 023 026 -60 -04 002 028 032 -48 -07 011 027 010 -28 -04 027 -07 -60 016 042 013 -43 027 041 -04 -17 
-16 -39 -03 020 039 -27 012 -53 018 -25 022 007 005 017 001 036 -15 -10 -32 -10 042 011 -25 -12 -19 011 -16 018 -55 007 -15 -53 030 008 -43 -08 -09 024 023 022 048 049 000 -26 004 037 -08 032 -08 -13 -19 -41 033 -02 001 -71 044 -17 -31 -29 -38 -46 -06 019 
012 -47 -05 -30 023 -24 -39 -44 -29 021 023 -37 002 023 -32 005 018 051 009 -15 -28 -38 017 026 002 -05 -21 036 -55 059 047 006 014 020 -14 016 019 -18 -23 -39 004 -15 028 016 -28 -25 -39 -20 028 028 -40 028 020 030 -07 -36 007 -08 010 027 -28 -18 012 009 
036 050 -23 -12 -51 -03 -04 -08 019 036 -08 020 000 023 -30 051 -06 -39 -04 -12 -03 -42 030 -38 -08 023 039 -62 042 -09 034 -48 -31 -13 -58 -13 022 023 029 -20 -33 -53 -03 -02 031 -09 -44 -38 001 012 -43 013 -32 046 009 -19 026 -26 034 -27 038 011 -16 -27 
002 -58 -32 010 035 026 -20 -54 035 023 019 035 -37 -29 -14 033 -24 -41 -05 000 -02 -31 018 028 008 -07 -40 040 006 -10 023 014 000 -16 046 025 035 -05 033 025 -55 -53 -41 033 -40 013 -11 -29 -37 034 -20 039 030 022 -28 -57 -33 -44 -38 -03 -11 002 -04 038 
-14 043 -31 -10 009 033 006 -23 -11 009 -29 037 -44 -32 -29 -12 026 014 -23 -19 -50 -41 013 016 024 001 030 051 058 -41 -50 001 -28 -17 -15 036 034 -17 -24 040 061 044 025 -18 -30 005 022 -10 028 010 -25 -42 -08 -16 -15 -50 -30 004 -43 -21 -16 033 029 018 
-36 -25 010 -32 000 007 -22 -33 -12 003 008 -32 -02 021 052 021 -11 -46 024 032 -21 -14 024 -24 013 -20 007 -29 026 060 006 030 -17 012 055 -35 004 -35 -03 -38 030 015 019 -15 010 -35 -01 -16 -33 026 -44 -54 015 -47 -20 -64 028 033 025 -41 011 -08 030 -15 
025 -58 013 -21 -16 -23 020 -56 -29 022 016 -46 -50 010 008 -26 026 -17 -31 -21 042 -05 019 -32 023 016 005 -59 -40 -22 -05 013 012 020 009 034 029 -15 018 034 058 048 -31 -24 029 030 030 006 -21 -04 016 -49 -24 -38 -37 026 013 -16 -10 -39 -23 -35 -30 028 
-17 -40 -32 028 -29 024 002 -48 -24 030 -03 -12 041 -21 -34 -50 -25 017 -29 036 -45 031 -41 -20 -20 015 -27 -61 056 037 -45 038 016 026 025 025 -32 -12 -02 -19 020 033 041 036 036 -16 015 -23 015 039 040 062 038 028 -24 044 -34 020 -37 027 -41 -41 -32 012 
016 015 017 -28 002 011 -31 -57 037 009 020 -17 034 003 003 008 010 013 -31 018 042 -20 -08 -04 -30 -23 -30 044 -35 -04 032 010 -46 013 051 000 -26 -15 050 031 033 058 048 038 041 001 -49 -11 -38 029 -06 045 018 -54 016 058 -13 005 -06 -27 -37 034 004 -24 
028 -10 -32 021 043 -34 -33 012 -29 -40 013 -18 020 -12 -10 010 -25 015 017 002 038 035 027 022 -14 019 -20 009 -10 009 015 017 -42 023 -07 008 -01 003 003 -27 015 011 -31 -09 003 -44 024 003 032 -13 -21 002 004 -54 -33 017 -50 -43 -47 -30 -04 -20 019 -13 
031 -30 -02 031 000 -60 006 009 -22 022 -30 -11 -36 -33 -41 -57 001 -02 -13 032 -30 035 010 015 030 -35 -30 -67 060 -56 039 042 008 -19 -70 009 -29 -35 -50 -36 046 039 030 -07 034 003 -17 027 021 006 025 058 019 021 027 -68 000 031 -13 -03 -24 035 005 -38 
026 -02 -09 015 030 014 006 -23 -32 -09 001 -14 010 -16 -36 011 -04 -07 004 008 -12 003 005 -28 -31 031 -35 -37 006 006 018 -10 -21 -19 012 -23 -35 029 015 004 -63 -53 -03 -42 020 037 -02 020 033 -42 -22 062 -40 -01 -11 -31 -54 -02 042 -11 -31 -13 025 035 
-15 011 001 -29 025 009 029 -59 031 -32 019 -49 -45 033 041 011 034 -39 -31 023 -21 007 026 015 -10 019 022 056 -11 -09 -50 033 -38 -18 -40 -26 005 003 -06 021 -62 002 -20 046 036 003 -36 -43 035 033 -40 -13 -28 030 -61 -39 -09 -10 -02 -18 -11 002 -04 019 
-17 045 002 015 005 002 -04 -16 013 035 023 -23 -32 -06 035 039 -11 -55 029 -31 -41 -04 -20 -38 024 -16 -36 002 016 009 -18 -38 -43 016 -10 -35 034 -38 -42 036 036 013 004 -32 -40 -29 014 -34 027 -42 -28 -38 -38 -06 016 039 007 040 -31 -25 036 -45 028 018 
033 -48 003 -17 -32 -49 -23 -22 036 -35 -26 -39 -30 -34 -44 -35 -04 -21 028 023 -33 -16 -05 028 -17 020 -13 013 -48 -27 -51 021 012 -24 037 -32 027 -13 -20 023 051 -40 -33 -04 -21 030 -10 006 024 -39 031 -28 039 010 -12 -36 -55 -01 -20 -22 -11 -48 004 -44 
037 005 -13 -27 007 028 005 -12 -06 000 -32 -41 005 029 019 004 -34 006 -31 -12 018 017 -11 035 024 -15 -42 -55 040 020 033 003 -37 005 -58 026 -33 000 -01 015 043 -34 -05 -28 -32 -26 -28 -28 -26 -32 009 046 -39 044 037 -20 -64 042 024 028 -19 -47 -33 027 
-15 009 -20 023 008 045 016 004 024 028 -36 -34 -44 -31 019 041 -17 -58 016 -17 -37 004 009 -11 -11 -12 -17 -30 046 060 -09 -22 -43 002 -57 020 022 -24 018 -16 022 -53 -23 -25 011 -16 015 -05 037 -42 -32 -09 -13 013 042 045 -62 -44 007 041 -07 -35 031 041 
-11 -48 -19 024 043 -12 -35 023 -31 008 -42 -11 052 004 001 035 -04 051 -06 -06 002 -40 014 -44 019 -08 012 -06 -52 -47 -08 004 -43 -10 045 014 011 009 049 010 -31 001 013 005 -05 023 041 -41 -02 -45 008 028 -33 -04 052 063 -18 -45 038 040 -34 -08 -28 041 
-38 058 -22 017 -28 -33 045 026 026 -37 -15 005 -05 -29 048 -06 024 -32 -33 -12 029 034 019 002 029 017 018 045 038 -61 -09 -24 009 -30 048 -07 022 -21 -49 024 -29 038 -01 034 032 027 -23 -38 026 -11 034 -31 027 -19 -39 041 065 -06 031 -43 039 007 011 026 
-06 -58 033 024 057 006 044 057 039 009 -33 -33 -15 -25 034 036 005 -04 026 -05 022 -43 -27 027 -21 014 020 -16 000 -54 -04 -12 008 -28 -45 018 -19 -21 -27 -35 -64 008 011 036 013 -15 -08 -38 -36 -39 -19 -61 036 -46 042 001 060 -50 017 041 006 -15 035 021 
-22 -20 -22 -10 049 -13 -32 035 038 -08 -28 028 045 024 016 030 -26 051 014 -06 022 -40 030 009 -01 -35 -15 034 -02 -64 031 029 -16 -12 030 -14 -06 014 -02 -31 -52 049 -14 -11 038 -39 032 -03 013 -42 -26 -24 031 008 -41 -27 -45 -05 028 -43 024 007 033 031 
019 -58 -36 -28 046 034 037 039 028 -22 -17 -06 -11 001 006 -37 -01 -56 013 012 -22 014 011 042 -24 024 029 -22 -03 -19 -11 -08 -31 -17 007 -12 -37 -33 000 -16 027 -09 -02 -24 -23 -08 -17 030 -02 -02 014 -26 005 051 052 -08 -02 -16 003 006 -05 039 -17 041 
023 -32 -13 020 -17 -28 -39 044 -24 025 033 031 -01 -20 011 037 -08 041 -25 024 -46 004 012 -21 -25 009 -30 -56 -01 -13 -26 031 031 -21 024 012 -33 024 -24 040 018 -12 047 -18 -31 -01 -31 -42 -05 -14 -09 059 -28 007 053 -82 -27 -04 -04 009 039 044 -07 024 
026 037 013 020 024 052 -15 017 016 -16 021 -17 -39 017 -31 004 -25 -31 -32 -13 034 -40 -38 -23 -25 007 012 -44 -54 -29 -18 -16 -34 002 048 014 015 -07 005 009 -52 -41 -17 -19 011 -13 005 -16 -20 -10 -08 -50 -12 -15 -30 -02 -58 -47 033 -07 026 008 026 016 
006 027 -02 -01 043 030 -42 -61 025 -16 030 -36 031 024 -03 012 012 -28 -11 -34 -20 009 012 -44 025 -13 037 011 -08 -54 -54 024 -06 009 -24 006 024 025 044 017 041 -49 -31 -12 021 -03 005 -42 -16 -37 016 032 003 -51 -03 042 -53 -08 -42 -33 022 -35 036 -14 
033 -13 -15 016 035 -38 -01 -31 -24 -30 -06 010 022 020 015 051 -20 -37 019 -29 020 025 000 009 020 022 -22 -27 -24 -37 034 024 015 012 -42 -11 022 -09 027 021 062 053 -02 -18 024 -33 021 010 033 -42 -03 005 -04 -34 030 081 052 -03 042 -49 -26 039 -29 -05 
-07 -19 024 006 014 -22 015 055 017 -16 013 -46 023 -22 -10 015 -33 -14 -31 -26 006 -33 002 026 026 -29 -38 040 007 011 039 -22 -02 019 028 -30 025 -13 031 021 -21 -39 -21 031 -45 001 -10 037 -34 -15 -22 062 -31 038 036 -11 041 -46 045 -11 016 020 -04 000 
031 014 002 009 048 -08 -43 -59 -44 013 037 000 -05 -23 007 011 019 008 020 -40 -27 018 -12 -02 -12 -23 -20 -31 032 -34 039 -32 -39 025 054 -22 013 -12 -27 003 -06 047 020 -19 -14 027 -19 022 -21 -01 000 053 028 024 -53 027 -36 -06 016 -01 -30 -45 003 -06 
-05 040 -26 008 -45 037 007 013 -10 -02 -15 -26 006 -15 014 038 -16 052 -12 -38 013 -25 019 001 -27 012 -23 -53 -51 051 -47 040 004 -27 -37 025 027 011 046 -24 -18 -38 -32 016 033 037 -12 037 -32 000 000 -30 032 023 -51 -56 040 019 030 -45 -45 -35 022 -05 
029 -43 -28 -25 041 -43 -45 007 -01 -29 -29 -15 -54 -14 -47 041 -17 002 -15 018 -26 -44 -19 -41 -12 -15 031 -26 010 -65 -18 -25 032 -19 -09 011 -16 -21 -01 022 -32 040 -21 -32 005 -33 -45 008 021 -24 027 018 -32 -48 006 022 -47 -08 -02 -18 009 040 -36 012 
-30 046 021 -12 -28 -47 -15 019 015 024 -24 017 048 004 -09 -15 008 -45 013 -41 004 -19 037 030 -13 008 030 019 030 039 048 001 000 -13 030 019 -14 -15 -47 024 -58 -29 003 024 008 -20 033 037 009 001 007 017 -22 014 -47 027 071 035 009 -12 -04 027 -24 -24 
-01 022 012 005 062 -08 -44 042 011 003 -02 009 -03 -28 -41 039 -22 -29 -24 031 040 -23 023 -35 019 -02 -18 039 -51 -20 -18 041 -09 -31 007 -27 -13 015 022 024 -54 -61 -24 045 020 022 -34 024 -13 -24 -20 011 001 -23 -47 -22 043 -40 005 034 -36 -35 -31 -27 
-21 -14 -07 005 -35 002 -43 053 -34 028 039 -37 032 010 -29 010 -09 -02 031 014 -31 -24 -30 -35 005 031 -44 055 000 -21 -40 -44 003 009 056 016 027 -33 -45 001 060 -42 -33 006 -03 -27 011 040 035 -36 019 -05 -33 036 -15 028 008 027 038 -14 043 -35 031 025 
-02 -20 -12 -26 -09 044 029 027 018 -30 029 -26 -25 -31 048 022 029 -21 -25 009 -24 -21 -25 -36 -23 -05 -07 044 023 -68 -29 043 011 -17 030 003 002 -22 037 -40 008 -02 -04 041 -10 015 -23 -07 -07 -17 -39 -04 -07 -25 045 073 -24 -12 -25 042 001 -38 007 -32 
-36 026 028 017 017 009 014 -20 -03 001 011 027 -64 -16 029 -01 -13 -11 -35 -25 037 027 -40 041 -24 -05 001 -66 056 037 037 027 -32 027 011 029 -14 027 -06 -18 -52 -51 -26 040 043 031 035 -08 033 -38 005 -49 -18 -19 014 061 046 -37 052 -26 -43 -32 018 -42 
-24 056 010 -11 -49 036 011 -10 -45 -15 016 002 -22 022 034 048 -21 058 -27 -21 -39 -27 -06 -45 002 003 025 045 020 -20 039 046 -40 009 035 -13 -04 032 050 023 016 -44 -38 -43 026 021 -43 028 -12 -24 -29 -08 008 011 -40 027 068 014 041 036 -08 022 006 -33 
-32 035 -04 024 021 048 -49 056 035 025 012 -22 047 027 002 -13 -11 -50 -16 -23 -14 -01 004 -33 -05 -18 042 022 045 -58 -54 -31 -15 005 037 -14 036 003 -15 036 -53 -20 033 -07 007 -38 026 -04 020 005 -41 -20 -10 -21 -25 056 -43 026 -46 -13 -38 -23 -23 -02 
041 -47 -03 030 -36 -21 -28 -12 002 034 032 -39 -03 026 -50 041 -09 059 -34 021 -03 021 -38 -22 021 009 -42 -41 -29 -13 049 -47 -27 001 057 -20 -28 -22 000 027 -01 036 043 047 024 -12 030 -18 -34 -37 -33 -18 -27 007 032 053 029 -18 060 -46 -06 039 001 -15 
-31 046 -31 -15 027 -42 -30 050 002 -35 -42 017 -43 034 -18 017 020 -02 000 023 -04 020 -03 040 -03 -31 -23 -10 -59 -34 037 -05 -33 -07 000 -23 002 033 003 038 -47 031 -18 -27 -11 045 -04 -11 -33 002 -24 -60 -31 045 -34 -64 002 004 -40 -17 -31 -24 029 -17 
-40 031 -21 025 -34 -18 -09 -52 003 -25 -04 -14 040 -29 -06 040 -05 032 -06 015 036 000 025 009 -13 026 -02 -28 001 023 -21 031 030 -27 045 004 025 -37 -45 020 049 053 033 004 -10 -32 -16 031 -13 -26 002 -52 031 -20 -19 -29 041 018 -12 037 -20 -42 -10 042 
038 -53 -06 -19 -32 -55 -32 049 -30 -30 035 -31 040 -25 048 001 030 -51 -20 005 -41 020 010 039 027 -33 005 -77 -60 -27 -43 -22 005 009 -40 014 -14 022 -28 036 -59 035 -12 015 -17 -23 -07 -25 -02 -43 008 011 -25 026 051 -10 038 007 015 034 -04 -40 -29 -06 
-09 040 013 -21 -50 038 025 -29 -27 000 -27 040 010 -04 -21 058 015 031 -31 -36 012 002 -10 026 -09 008 -05 -23 055 004 -43 -48 -14 -03 001 030 -05 -02 -05 -26 -31 -11 034 039 -41 -26 -35 -20 023 011 035 013 -19 028 -60 -62 012 -27 -28 023 -06 -40 000 -27 
028 -33 025 020 051 017 027 029 -46 -28 002 -06 019 030 -36 -42 -24 -11 003 033 -29 -24 029 038 029 029 003 -11 004 035 036 013 032 001 -42 -02 -13 -14 043 007 -50 025 006 030 -10 -01 -09 027 -17 -14 -32 067 012 033 -50 069 040 045 037 -40 -23 -20 -37 -31 
031 -06 029 -29 -07 029 -18 058 040 020 -39 032 022 032 -33 015 025 -09 -34 -20 020 023 -39 -42 024 020 002 -49 -08 050 012 001 028 008 052 019 -20 -20 036 -01 058 -17 026 008 -19 044 -36 001 018 -44 -19 -60 -40 033 -47 -36 009 -22 023 006 032 024 -35 023 
029 -26 -09 014 -39 051 -30 -54 -29 032 020 -28 041 -04 -13 -41 004 045 001 -39 -27 003 030 024 -04 034 029 057 -49 036 039 043 -12 025 010 014 006 004 -17 -36 033 004 -11 -02 -30 030 -07 -33 007 -12 021 005 007 018 003 036 008 019 007 -43 -46 034 -01 -03 
023 -34 -34 -32 004 051 -04 016 -30 -05 -38 -11 020 019 -04 041 033 013 -09 038 044 -42 031 030 010 015 -13 059 037 -43 000 -28 -36 025 009 033 -01 028 -27 -22 -44 -19 -02 -30 -43 -42 -06 005 022 034 -08 009 037 051 016 -43 050 022 -20 -07 -16 029 020 040 
018 -05 022 017 -32 -01 -27 025 -51 -18 038 012 -32 -05 012 -06 023 000 -26 -27 -17 009 -03 -46 003 013 -29 026 -23 -05 001 -46 004 003 -61 018 -04 -27 016 020 028 -27 020 -25 008 040 007 026 028 032 022 038 028 008 007 041 002 -07 021 022 030 006 018 -33 
-01 003 012 012 018 030 -27 -30 043 033 005 016 018 -31 -43 038 006 -22 -07 -12 -47 028 016 -33 003 -08 -26 -27 015 059 015 020 -42 007 028 026 005 -16 030 -21 -18 026 -20 -15 033 002 -03 009 -26 -08 026 -25 013 -05 005 033 007 019 -24 -17 039 043 -16 013 
-23 025 -18 -04 054 -38 010 -06 -17 012 -04 030 031 010 -17 -05 028 033 011 -27 -28 -05 -22 026 -05 -16 006 -18 012 003 040 012 033 -17 028 -03 014 -22 013 034 030 -31 -24 -09 019 -04 036 -38 031 008 020 032 -10 031 -08 -63 028 -31 028 -22 -19 -27 027 026 
-15 -37 -16 018 -24 055 003 000 014 019 -01 -12 -36 023 -25 032 016 044 -24 -11 -27 023 -19 019 031 005 034 001 033 002 008 -05 013 019 -09 001 012 -05 -31 023 -23 035 -43 002 034 -26 032 -42 028 -25 -23 -32 -40 -21 012 -14 076 -38 -41 009 -45 -46 009 -11 
-01 024 012 026 -28 021 -03 025 040 -34 -20 041 -35 015 -05 -30 019 003 006 -37 -05 022 -35 008 -07 -13 009 -31 -02 003 005 -19 -17 -02 020 -24 -24 003 -10 020 009 005 -35 -25 019 -31 036 000 020 -29 -17 -23 005 -42 -35 -16 -60 024 -42 038 -04 045 -21 032 
025 037 -10 -27 -26 033 038 050 024 -29 -16 027 -37 016 039 -04 019 -35 012 018 -17 -37 -32 014 -05 002 -36 005 025 044 -29 -41 -45 -11 044 017 027 034 012 012 -38 038 026 -08 -34 040 -48 -27 -38 025 -23 -39 012 016 017 -53 033 024 -19 -09 008 013 -12 019 
-32 -03 016 007 -14 -04 -29 017 -20 009 -37 -21 028 -18 -11 -03 -12 -52 001 030 -06 022 026 044 -07 024 038 031 053 064 -27 -39 018 006 036 -13 008 -07 024 -03 -07 -07 -05 -15 -44 028 036 -05 -02 -17 -02 -50 -37 -17 -58 060 -52 042 -37 043 -32 -18 -09 008 
-33 005 -09 022 -41 -24 021 028 -19 028 -09 -08 -33 004 051 060 029 030 011 011 -45 -10 024 026 -30 021 000 033 -35 -55 -29 021 -13 -13 -29 014 -18 -09 031 -16 -58 -55 005 -06 023 -35 -08 004 017 001 020 032 -08 050 039 066 -14 004 -39 -33 036 024 -25 012 
-07 043 -30 -18 -09 013 -01 011 -15 -09 033 -08 -42 031 -13 062 -03 027 017 014 014 -17 015 007 017 -14 -33 -14 059 -61 -43 031 -35 -07 050 -28 -09 -03 002 027 022 -02 -05 030 004 -15 -17 -17 031 -36 017 040 -15 -17 010 065 049 016 015 037 -26 -05 -35 038 
-26 029 032 015 -03 -01 030 -56 018 -09 040 -25 -24 -04 031 063 012 -32 027 -39 014 -01 025 014 -09 019 000 011 010 042 -23 032 -42 010 -62 -14 031 009 020 -22 008 -01 043 -16 028 025 -47 032 -40 -15 011 -48 -32 -34 014 043 -19 034 043 015 018 030 -25 024 
-18 -59 -03 -03 056 -24 014 018 030 022 -30 -09 -20 025 007 -31 015 -25 -15 038 -04 -29 013 020 009 -10 -34 005 047 023 -10 -12 -29 006 012 -33 -15 -22 029 -05 -59 -34 024 022 -31 -22 038 023 -08 016 -14 -14 002 -10 -20 -25 -71 -40 037 044 -31 -42 -04 -40 
-39 -40 004 -18 -50 034 000 -03 012 -25 -25 -04 -46 022 003 017 031 056 -18 -09 -20 011 019 -38 -18 019 -35 -06 -45 -47 014 038 020 004 060 008 -18 014 044 020 -16 048 003 026 020 -41 -21 022 009 -34 -18 048 033 -03 046 015 054 -49 -46 -23 009 010 -04 -39 
007 010 -05 -20 007 -11 021 -29 -29 -05 011 -14 -25 -19 036 034 026 057 -16 030 -45 -34 017 -15 -25 -34 -43 -47 -46 063 -08 -44 011 -16 -57 -08 034 001 -52 029 -02 031 008 -07 -13 018 016 -17 033 -06 -12 -16 -13 -48 -21 -35 022 -17 -05 009 038 003 -10 -24 
042 -48 -20 -07 014 038 021 016 -36 030 027 033 049 012 028 014 023 015 -10 032 039 028 004 036 020 011 007 -05 -01 020 -42 050 -20 001 059 -07 -08 008 019 039 -44 034 008 -18 013 -27 038 036 -14 005 -02 031 -35 052 021 015 045 -14 -11 -32 012 025 033 -31 
-20 053 034 -31 -03 026 -42 053 -19 031 026 -31 011 016 -46 017 -32 -26 017 001 041 -39 031 -03 015 031 023 014 058 -49 -11 051 008 -20 047 -28 015 010 006 034 -51 -26 026 018 -16 033 -16 -26 034 -12 -21 002 -16 022 -36 065 -38 -12 036 013 016 -44 -17 -07 
-23 -55 026 000 015 022 038 014 021 -08 -16 011 040 005 -54 042 -20 -31 030 -25 -41 -29 -32 028 -18 -08 016 -57 016 -19 -24 012 -09 018 059 -32 008 024 -24 -20 040 -27 -23 038 -34 -30 029 -06 016 020 016 -26 -03 045 004 008 -30 -04 019 037 044 -40 -29 -31 
-32 -18 027 -06 044 049 -01 -06 022 -02 -05 -32 -14 033 -05 -52 -23 -06 024 030 025 014 -39 026 -30 032 008 -42 -50 024 036 042 -33 -07 045 033 -33 -37 027 -31 027 -14 -35 -24 -45 013 024 -25 005 -06 -12 037 -18 001 038 024 028 -03 -52 033 -46 027 014 -13 
015 027 015 024 -35 026 019 056 -01 000 -04 013 048 033 -55 046 -35 045 007 003 -39 000 -20 -11 027 011 034 005 -40 -40 -13 010 -04 015 053 020 016 -28 -27 -21 -35 017 -31 -06 -38 -29 041 -41 000 -21 -28 034 -33 005 -23 003 028 034 -17 -10 -10 009 -13 003 
-03 -23 024 -22 -19 000 -13 -46 020 -29 011 -15 -32 -36 -35 -49 -31 -07 -33 018 -06 -34 012 009 008 -06 -01 -35 -45 -46 -28 031 -42 018 -55 006 021 035 -49 -32 -64 -29 -01 -17 009 -37 027 029 -18 -41 005 -47 023 025 052 052 013 043 -36 010 -02 -10 -03 -43 
-31 -43 005 -06 034 -51 -08 -60 -35 015 -22 018 015 002 -13 -34 -09 000 012 -38 021 039 -13 -18 -28 034 024 -52 045 -47 037 006 -31 -28 052 -15 020 003 -45 004 -33 035 -45 021 034 -32 -28 -05 012 022 -16 -30 011 -55 -55 -17 043 036 044 -42 -35 -02 036 000 
-22 -03 -25 -04 026 -31 -10 002 046 -03 001 026 -28 019 -23 -35 028 050 -15 -33 040 -41 011 026 -23 018 -06 002 057 038 -45 003 002 009 -16 012 -04 026 -01 -33 -61 009 013 020 -42 -29 029 030 -02 -31 002 -63 -07 025 045 055 020 014 -07 -31 -44 -03 -32 037 
014 -15 016 -31 -59 -51 -08 005 -14 -26 -33 -27 006 -30 -10 -42 006 -44 -16 007 -16 -39 027 -39 032 -32 029 -34 -02 003 037 -28 021 -09 059 -08 -36 020 037 -13 -38 052 016 001 -41 -03 023 013 -34 -25 022 024 035 -54 041 033 002 -22 018 023 011 018 -23 -28 
045 -09 028 009 -37 -53 -21 -06 031 018 015 -20 -14 -27 -38 -54 -19 014 006 -32 -24 011 027 -24 -01 030 039 -47 -17 047 -52 -16 -15 014 -52 024 -29 -18 -02 026 -41 000 -08 -23 030 -29 016 024 -20 004 -03 -71 037 -52 -31 050 -01 -10 048 025 -30 028 021 034 
035 -04 -12 013 -41 -55 -40 -32 -23 029 029 047 -09 029 040 019 -11 035 -24 001 -09 005 -01 -37 -33 016 -32 039 003 -65 -26 044 024 -16 046 -31 010 -30 032 -12 015 052 -20 -18 -37 007 006 -43 028 017 034 042 -13 -35 034 059 -50 -10 015 012 039 -35 -25 006 
010 055 025 -33 006 016 033 -19 -22 -26 004 -45 007 024 047 032 -08 051 013 004 -05 008 -37 -40 025 034 013 011 043 037 042 -40 019 -17 027 000 -22 -20 -42 015 013 -34 031 022 022 -24 021 032 -07 015 -29 025 -32 -15 -33 -41 -12 047 008 015 029 017 022 010 
-32 -33 -14 013 -53 -32 -03 004 -11 002 -39 025 -23 -16 -52 -11 -20 048 022 002 024 032 016 020 -30 023 015 009 058 -29 042 016 011 021 -12 -17 016 016 -49 031 -64 052 029 045 027 019 -29 -09 -25 000 -01 -33 006 -16 -12 010 -50 019 019 -44 022 -39 004 -10 
-02 -02 -14 001 042 000 009 028 -41 -22 -07 030 043 -11 -39 -33 -12 -06 001 030 -23 004 -12 035 020 -33 -28 -27 053 -30 032 -18 -10 007 -15 -36 030 008 -53 -08 -03 -14 037 026 029 023 -23 -08 -04 019 018 -29 020 -41 001 -25 -05 -48 -25 035 023 -47 -26 -24 
-29 040 -35 -10 -38 033 -30 057 044 -09 -33 -19 -04 029 018 004 014 -48 -05 025 -36 007 030 -21 009 -36 010 -52 -18 -17 041 -26 023 002 032 027 -31 018 040 -35 062 -40 000 -38 028 015 -01 010 -13 021 000 026 006 038 010 -70 045 011 -33 -40 020 -01 -21 040 
-38 060 010 011 036 008 -39 -47 039 026 -39 035 -35 -20 -55 -05 014 044 013 004 025 -02 -11 026 -17 -26 -23 026 026 001 -12 -39 040 -28 009 007 -36 021 007 008 035 -22 023 004 -04 024 032 040 015 -45 022 -69 012 044 -42 -23 -53 -06 -19 018 035 -21 -08 -18 
-22 036 015 009 042 044 -18 -29 040 013 035 021 -27 028 -48 033 -05 022 011 -39 016 -23 003 032 013 019 033 -53 -30 067 026 023 026 -03 -56 -29 -14 -14 -18 008 050 -35 -22 -37 014 -33 -37 035 012 -27 -43 -27 -14 028 024 -32 033 -17 017 -21 022 011 -29 -24 
-24 -55 009 -14 -12 006 -01 -09 031 -05 -34 -40 016 031 -47 058 025 -56 028 009 015 -23 018 014 032 011 016 -11 050 -66 038 024 -26 011 -32 025 -36 -21 -47 002 057 042 036 044 -06 010 -43 021 011 -24 016 -04 -33 047 -04 020 -26 -21 -59 -15 041 -45 -31 -35 
-06 003 -24 008 -02 -46 -26 -15 010 -14 -03 -33 -13 -34 -42 017 008 -33 -20 -30 -45 -09 -19 -25 -30 008 -39 044 050 051 -28 -45 037 -08 -13 -09 005 -15 -53 -18 -14 -39 -25 -23 -45 -34 -05 -01 -02 011 -06 -47 033 -39 039 003 052 023 -05 -39 042 -15 031 018 
014 -38 021 012 -14 002 -18 025 -48 -04 -29 -41 -09 -34 051 -07 032 -17 -19 -36 007 -17 -40 -29 013 023 028 042 049 049 001 -38 -27 -21 -61 -36 033 -38 015 024 005 043 -20 -18 -27 014 -47 -02 015 -09 005 019 028 -32 -07 004 052 045 048 022 044 035 -10 -22 
-16 043 014 008 -39 -13 005 037 029 -34 -04 051 008 -24 -35 -37 000 030 013 -15 040 -35 014 -12 -07 017 030 -59 022 -54 049 045 021 -20 073 027 020 -01 -11 035 -30 001 039 034 002 015 036 027 -05 -02 -09 044 013 008 026 066 012 039 -41 018 044 005 -02 -41 
050 026 -17 -26 -28 -25 040 -15 -28 -37 -39 027 010 -23 002 040 009 035 029 037 -14 012 -21 -02 028 -28 038 053 042 -43 001 -11 034 014 -40 -34 -37 018 -19 -03 -38 050 003 -12 009 019 -23 -08 025 013 -34 -36 -16 051 011 015 -35 012 026 -09 -27 022 -19 -19 
-18 -35 002 -23 -40 -54 046 -35 023 034 035 -43 -30 030 050 -08 012 -23 -29 026 011 009 024 -41 -11 -34 039 037 019 -14 027 -07 -28 014 -21 -15 -33 -13 -32 -16 050 029 027 -28 000 -10 -20 010 -07 024 009 054 009 -51 046 -03 -43 -31 -36 -30 -17 -19 017 006 
004 013 030 -33 -20 -10 015 -44 009 027 -08 -47 -42 015 021 -23 034 014 -04 -05 -01 018 009 -17 004 -15 -29 058 -50 -06 -41 020 -29 -23 058 -37 035 -09 -05 018 038 044 011 -03 024 018 -30 032 -03 024 -02 -34 -33 027 -43 041 -50 -48 047 020 005 040 -06 -32 
010 -58 003 031 037 -13 -15 -05 -34 026 -06 -11 -44 000 030 029 031 036 -29 031 029 036 -36 -06 -34 021 -23 002 -45 062 047 -04 -29 -05 -04 -10 030 -30 -35 -01 007 047 038 007 010 -38 -07 -37 -29 -27 018 -61 025 031 -58 -55 -42 -42 033 027 032 012 -35 -40 
-26 014 -28 -08 -32 -51 -20 -51 044 -23 023 014 007 -24 052 034 -36 054 001 009 -16 -03 -33 029 013 -25 024 -31 -40 060 015 -28 -16 021 -48 007 020 -03 -47 013 -03 020 026 017 035 -35 039 -39 -30 024 041 -60 -34 048 019 017 021 042 -45 -26 043 -24 013 -09 
032 022 011 006 023 017 -32 -50 027 -24 -03 064 023 -10 026 056 -26 -18 -05 034 040 -23 011 -16 027 017 -36 -46 016 -36 019 006 -20 007 -17 006 -22 004 038 020 -48 069 016 -26 037 008 -35 002 033 027 018 -55 034 003 -06 025 065 -08 041 010 026 046 -15 -03 
-19 -59 028 -16 -49 020 005 037 -39 -19 028 -29 -36 -20 020 -08 024 -10 012 004 -40 -26 -26 008 -25 003 -37 031 051 007 028 024 -11 -13 -55 -01 -07 -04 042 -11 -30 -50 -05 -23 003 001 002 021 -38 023 -12 041 011 007 -61 009 024 -48 005 040 024 006 -23 -27 
024 -26 028 -30 031 030 041 035 031 020 027 023 014 006 031 032 012 -33 -28 016 -15 026 014 -01 -17 -06 029 019 015 051 014 -17 -39 017 -31 022 -10 027 048 038 052 042 -07 028 017 -10 -10 -27 -01 013 -13 036 -15 -05 -30 -61 -68 022 016 019 -14 035 -18 -17 
-33 032 014 -07 -12 015 003 046 -10 013 -05 -04 033 -08 -22 021 009 028 031 -38 -19 005 009 -14 -33 005 014 034 -26 -39 -20 049 015 028 028 -13 -11 -01 026 -31 019 -57 -10 -08 -11 030 035 031 007 -34 007 039 -17 050 -52 041 -34 -15 -47 -26 -05 -32 -34 034 
004 -29 017 018 -24 -10 016 036 -14 023 020 041 -49 -16 -33 -09 028 018 020 009 022 -19 009 -42 021 010 027 034 -06 023 044 -50 -41 -11 042 -21 -10 026 034 008 -62 -37 -38 039 -46 -45 -01 015 023 006 -22 -01 001 041 -45 008 -48 -32 019 -33 034 021 032 005 
-36 026 008 -01 048 034 -42 009 035 -05 001 -40 -59 -31 -38 028 -13 -17 027 -01 -33 015 035 -11 -09 018 -23 031 -55 -29 -15 -51 -33 -17 -70 021 030 -32 -15 -38 -32 002 037 -11 -26 030 -40 -09 -03 007 005 041 017 -33 -28 053 -23 027 -29 043 -10 024 030 -07 
021 046 025 001 014 -47 -29 -40 -39 -40 010 -28 046 -15 -48 014 034 -26 -11 037 -04 -04 035 -26 017 -17 012 -61 016 -13 -13 011 042 -09 020 -22 031 027 021 -26 -64 -38 -31 029 035 -06 009 -34 -17 -22 030 029 017 -44 015 006 -46 -02 -24 012 013 -48 012 -25 
-38 023 -32 -08 -08 -25 -36 004 -26 031 012 049 -36 016 014 -08 -28 -09 030 017 -15 006 -10 039 -19 -15 -32 002 -47 -45 002 -10 016 -07 034 -30 -32 -35 -46 -03 -42 029 028 -07 019 -09 -41 -26 032 013 008 -48 025 -03 -29 -46 063 -08 011 029 006 -13 029 -17 
-38 027 -14 021 034 -30 -25 016 -21 004 040 013 053 027 042 -13 018 008 -19 -06 017 038 025 -07 -19 018 040 -35 -05 022 004 -35 -40 -30 007 -17 -08 033 008 -41 -60 -24 -20 -34 -37 -31 032 -18 -20 -18 012 -02 -06 -01 001 -38 042 -49 -24 -18 010 -15 -17 -25 
014 031 007 -20 -24 -26 -39 052 031 019 -24 -08 022 -33 018 054 -02 021 017 -13 013 -34 -29 -24 024 -02 023 035 002 -33 034 001 021 002 069 001 -17 029 001 031 -33 036 005 024 -36 -11 -24 -41 -27 -45 003 039 033 000 025 -57 -04 -10 049 040 -17 039 023 -35 
-30 -31 010 013 037 -44 -42 -50 035 -07 035 018 -33 -19 050 005 004 -12 -16 034 005 -34 -38 -15 -14 -35 -13 030 050 064 043 -37 -35 -14 011 001 -11 007 -37 -09 027 -56 -08 039 -13 -36 -37 038 -27 015 -20 057 035 -12 -03 -55 -48 020 -28 -22 006 003 -19 -19 
-38 006 -11 025 027 -46 033 -36 003 -33 -21 033 -07 004 018 023 -21 -47 016 -17 -10 016 -11 -08 007 -23 029 -50 -57 -15 -50 049 -19 015 -52 006 -08 -32 -22 -35 -49 042 -39 027 -26 005 -39 005 -12 005 -43 064 028 030 022 054 038 040 -35 -45 030 -10 -09 019 
035 051 -02 017 030 -37 -33 -10 016 -30 -03 -35 006 -29 -06 009 -30 033 011 010 039 008 002 027 -11 -33 -20 006 -29 -64 026 -53 -07 -17 -67 -24 -04 025 -46 022 061 -04 -07 -37 041 029 020 015 -11 029 -14 -34 -11 037 -53 -56 006 -05 047 015 030 017 -08 033 
015 -33 010 -19 -08 -06 037 -03 -05 -11 017 036 015 -22 -18 008 023 014 -25 -08 041 033 -19 027 -12 019 041 -61 002 -69 020 -03 -21 -02 -44 -03 -35 -28 013 -15 -15 007 039 -22 -43 -20 003 039 012 -03 -33 063 032 -19 -21 -67 -07 -31 -39 035 -07 -22 -28 -30 
019 021 -28 -05 -16 012 044 037 006 025 020 -39 -37 003 -27 019 -02 043 -27 023 037 011 -21 024 011 028 -23 -04 -36 067 -14 042 -32 012 002 -06 -30 018 -12 027 -62 011 031 -31 -27 023 015 019 002 -26 012 -38 -10 -09 -57 -46 046 -33 036 -43 012 -12 -21 037 
022 007 008 -24 005 052 -48 -36 012 -40 030 -22 010 -21 -54 025 003 006 -18 011 030 -40 001 034 -33 -30 -25 033 -56 -50 -14 -40 -37 -21 -57 035 014 025 -09 036 -21 018 -04 026 -11 -20 -32 -14 010 -01 029 000 -14 034 024 -03 -64 -04 -35 000 -20 044 -19 -15 
002 -04 011 004 -08 018 007 -57 004 036 040 -14 022 -17 -12 -34 -27 046 025 013 -17 -40 000 012 026 -05 023 058 026 061 021 -33 028 -20 014 -07 031 -28 -52 035 -67 044 036 -26 -05 -19 -15 003 033 010 -16 072 006 032 -11 015 057 -31 -20 -35 -33 043 007 -04 
-35 054 019 028 048 010 -43 -53 041 -31 030 -09 -28 -33 -36 008 026 030 -26 020 032 -41 033 -22 013 001 034 030 -50 024 010 -53 -23 -18 -31 -17 -35 -24 -38 -29 -42 043 032 -19 -08 -31 -02 021 -03 -44 013 -15 028 -22 -53 -53 038 -09 015 032 -35 -20 029 029 
020 -33 -04 -32 -26 -54 -08 -17 -22 -36 -37 008 025 -13 -27 -50 -28 -18 -34 -20 -20 -31 -22 006 006 -16 -43 012 044 007 034 017 019 026 -45 -01 -21 021 -09 012 059 017 006 -03 -20 012 -25 019 -16 040 038 -26 -40 -14 001 -50 -18 002 013 -37 -03 -38 -10 -22 
006 -09 009 -06 -52 006 007 041 -47 -30 -18 026 -40 026 001 -08 028 -50 024 -38 -47 015 022 010 011 -20 -40 062 009 060 -18 021 -27 014 048 -23 -14 -10 017 -37 -50 003 -34 013 028 -14 012 -37 -31 -33 021 011 002 -11 046 -03 010 -26 043 -48 019 021 -09 012 
-40 032 013 001 021 047 032 034 -21 015 -33 -16 -38 -18 -16 048 -10 001 -16 -10 028 000 021 004 -17 028 -31 -02 050 -50 -16 020 025 011 -46 -19 -26 020 049 -38 009 -19 007 018 -10 041 004 041 023 033 -17 063 018 -23 045 -39 -11 027 029 -06 -20 046 031 030 
032 -23 -20 001 043 001 012 026 -09 037 000 024 013 -32 045 001 -08 -26 -03 037 -33 -08 -25 010 -21 024 -25 031 004 047 -40 021 008 -11 -04 -28 -22 020 -27 026 -55 016 042 038 -24 -43 015 007 011 -41 035 034 024 019 049 -08 -56 -13 011 -47 000 001 -34 027 
-15 -39 014 -30 -52 -43 031 -33 -02 017 -18 047 029 029 017 -44 -32 -42 -18 -25 -12 -06 038 013 -10 -23 -13 058 -51 047 -03 025 005 007 -20 008 005 007 -18 -14 -49 -50 040 021 -06 014 -19 -35 -07 -04 -09 -24 -07 025 052 014 -48 005 -51 002 038 -06 -09 022 
-11 040 016 009 -46 -55 027 -26 -40 -38 003 -34 048 -13 -12 037 -29 042 013 013 -38 007 017 -10 020 019 037 010 039 013 -44 -43 034 008 -12 013 017 -30 -40 032 -62 -26 014 -22 001 012 045 -12 003 -08 -36 -24 022 040 028 017 032 023 041 -08 026 -45 017 -25 
024 -16 -14 -22 022 -57 028 -03 -31 -21 -21 -23 019 008 025 -38 025 -49 -10 -10 008 -34 033 -35 017 016 017 -43 -34 -17 -11 -42 014 -16 -23 -17 -31 -23 -05 -13 062 -22 044 028 -31 005 011 028 006 033 -12 -63 020 022 023 -10 015 006 019 -46 035 -23 009 016 
008 -37 021 -07 031 -31 -33 -22 014 -09 -07 003 -11 -34 -39 -34 034 027 -23 030 -11 024 018 -04 002 021 041 -65 042 003 -35 035 -45 -12 -25 032 000 024 -28 -29 047 -39 008 035 003 -25 017 019 003 042 014 -69 033 047 -33 -49 -71 -20 034 -30 -01 -28 -15 -43 
044 025 029 -31 -15 -40 -10 036 012 -06 -22 -06 -20 000 030 -18 027 -33 -19 005 048 040 020 030 005 -34 015 -43 005 -37 -12 -03 034 -11 049 002 008 024 021 -09 001 021 005 019 036 -27 -02 006 -29 028 028 046 -37 -49 037 -67 010 -20 045 -33 039 015 -27 033 
-21 -47 010 -28 -15 049 030 -30 -22 -37 -24 030 047 -33 -50 012 -30 039 -08 -32 029 -32 -02 005 004 011 -41 -54 -46 -66 -05 035 -39 028 059 -32 -21 -25 -06 040 -43 043 -21 021 -44 -33 046 000 008 012 000 027 000 007 -08 055 040 -04 -17 027 002 003 004 002 
-25 044 031 -10 -35 022 -16 -33 -04 -21 038 -43 -13 030 035 -26 014 -36 000 -09 -17 038 -06 -36 -12 019 -43 018 000 -31 -31 044 041 022 -06 -33 000 002 -38 036 058 -35 -14 022 011 -32 031 027 017 -25 042 -14 008 -44 -08 -24 003 -10 016 020 -07 -43 006 036 
-38 029 033 010 038 031 042 057 -39 014 -16 -46 036 -16 -16 -34 -12 -04 -32 -06 034 024 038 022 016 032 -14 026 044 -27 005 -40 006 009 026 025 010 016 -18 -27 -45 029 009 012 -21 015 015 007 -15 -16 -13 039 031 -13 001 016 -35 -36 018 030 006 019 -28 026 
-26 -32 -18 -30 -04 -30 016 -10 -04 016 026 006 028 -34 -25 -14 009 031 016 -08 046 -19 -04 042 -14 -24 -08 -45 -37 -28 020 -28 -01 -13 -47 034 -09 011 -24 -05 -47 -08 -09 -27 -15 -21 -42 -10 015 001 -26 015 010 013 -26 076 051 -13 018 -30 038 -25 -18 -35 
030 034 -30 004 -26 -35 -36 009 -32 001 037 -32 021 -07 -55 025 -35 002 -33 005 -40 -14 012 -39 -02 024 035 034 -42 -02 042 041 -25 002 002 014 -02 018 -36 -17 -13 046 -26 047 -12 -17 -40 -40 -36 -15 -40 -38 -28 002 -02 -17 -21 -23 049 018 -14 040 -25 030 
-32 -38 -22 -32 -41 -14 -20 057 -43 -15 009 -03 037 -34 048 035 -29 -10 -26 015 006 -28 -15 -29 -24 001 019 008 002 -08 -52 038 -37 -09 037 026 028 -22 046 -11 023 047 -28 044 -37 -36 -44 -42 -23 -26 009 068 -26 047 005 -02 019 036 043 -10 018 -44 023 020 
005 -17 002 -08 054 043 004 -27 038 005 040 -26 -03 018 -43 -13 013 007 030 -30 025 022 -19 -40 -19 004 042 -38 -39 019 036 030 042 -22 -69 020 020 -37 -41 028 -38 032 026 037 025 012 -14 024 -33 -03 -39 -43 -24 -39 016 -19 -78 025 -29 -08 018 -37 -15 -19 
-22 -60 025 016 -43 -33 008 029 043 017 -37 -39 -11 -18 -55 041 008 -06 014 033 032 -33 -38 -44 -22 024 -36 020 -60 -57 -25 -32 010 018 -45 004 019 -35 044 -02 045 017 013 004 -24 023 031 -32 -06 -24 -21 -32 -38 032 -54 -31 -35 -10 -53 017 030 014 004 -36 
-07 -38 -18 029 050 -31 030 -36 -38 -09 -06 -48 -07 -26 -10 042 -22 033 014 -02 -30 027 -26 -25 -19 008 -35 -15 053 -63 024 -23 024 017 052 -37 035 -31 034 -33 -62 052 028 008 -21 030 012 009 034 039 023 -18 -09 020 054 -49 -13 -11 -41 -35 -16 -46 012 -31 
008 026 -13 -22 -46 009 -39 -07 -17 -40 -34 038 -34 -17 -57 -45 021 013 -22 034 -50 032 023 004 -27 012 -30 047 -35 051 -53 -50 -02 016 039 017 -08 -06 -29 002 056 060 026 041 -24 -33 035 017 -24 -19 031 001 -10 -12 -53 044 011 -42 037 -26 -36 005 000 -36 
023 043 031 003 -35 -51 -19 049 -46 006 -28 003 -33 -05 042 -35 002 -60 -18 007 024 000 005 -27 015 016 039 068 017 008 -30 012 013 005 017 024 018 -04 -52 -30 029 027 011 028 031 008 -42 -11 031 021 014 064 -16 -34 -49 -11 054 -44 -47 -25 000 010 -12 -43 
015 -47 030 014 026 017 -41 -57 -09 -25 025 -32 -19 011 020 056 -19 -49 028 -05 -48 004 -24 -37 011 014 034 064 009 -17 -53 037 -25 -05 073 032 -23 028 010 005 -08 029 026 042 -28 -07 015 -25 -37 -34 021 018 022 -30 058 024 045 -30 024 012 018 028 012 010 
-35 013 -04 023 039 001 020 -52 004 -32 030 -15 004 034 -02 -28 -05 -17 -04 -07 -25 -10 -23 043 010 -33 -15 005 -03 016 -30 049 016 -25 -39 -19 023 024 006 -03 044 043 008 021 022 -06 019 002 014 -36 033 004 -39 -03 055 -09 -12 012 031 -34 023 036 -10 -11 
-47 -29 -07 003 -24 -56 046 -35 047 -07 006 -12 -42 013 054 -41 020 048 -10 029 001 -08 -26 -07 029 -30 033 041 001 -13 -24 -22 -22 009 -05 -03 033 007 -07 -25 027 -03 -30 029 022 005 019 -32 012 -26 006 -73 009 027 -10 003 035 020 -03 -04 029 037 012 006 
034 -18 006 021 015 -09 -39 -36 019 -15 -13 002 012 -33 -57 -05 -18 -31 -29 -29 -08 -38 026 -18 -25 -30 001 -39 -23 -02 -15 -21 -32 -26 075 -12 016 -31 -09 040 046 -06 -25 043 -33 041 045 -09 031 -21 023 -56 -29 018 027 -32 024 008 -31 -42 000 018 010 010 
025 057 032 -07 -22 -30 036 -14 012 -36 005 022 -21 026 044 -42 012 024 029 -32 -41 008 008 -02 005 -17 020 -19 -32 031 044 -07 015 -17 -32 -35 025 -14 -21 039 -07 048 044 -29 015 -34 023 -44 -13 -43 039 -24 -34 024 -37 -07 037 -45 035 034 038 041 027 015 
031 008 011 016 038 -37 -11 -10 -37 -16 014 -22 -04 -19 -10 019 004 -26 -03 -20 006 -25 -14 -04 016 -24 -43 051 039 035 046 -30 011 007 061 -14 033 -28 042 006 -30 022 038 003 046 -08 021 -37 -08 -27 -34 055 021 -48 043 045 058 -11 -42 015 008 -13 020 006 
040 040 -28 -24 -12 022 026 009 022 -08 -27 032 008 000 012 -19 -12 -53 -14 014 016 -34 -37 -16 009 -25 033 030 -51 000 -29 -41 -30 -16 028 032 002 002 039 024 -44 045 -28 -37 -34 -41 -42 -38 -21 -43 -08 -38 -40 039 036 -56 009 -46 014 -22 -06 -46 010 -04 
001 -03 022 -02 037 027 -03 051 009 032 013 045 -23 -11 -47 -31 023 -12 -21 -40 -21 004 -08 009 028 -35 -31 016 021 000 -11 030 -28 -18 056 022 018 -12 014 009 -21 -30 010 -38 023 024 -18 -12 -28 029 -22 -48 007 -16 040 -06 028 -45 010 013 028 022 020 024 
-37 041 027 -26 -26 043 -08 -23 -38 -33 -18 -16 -08 -25 045 -50 015 006 008 017 -26 016 -08 -38 -31 019 -10 -76 039 011 041 025 017 013 059 026 -35 017 -25 -01 -37 052 002 038 -44 030 031 000 032 -32 -21 037 000 -25 -52 043 056 001 025 022 014 -32 -14 -20 
025 059 018 -05 -38 026 039 -28 027 028 028 -13 -19 016 -44 003 -18 -12 015 -34 -30 033 -35 -38 -24 -32 -31 007 038 -06 -51 029 -23 -29 -54 020 021 030 -48 006 063 045 -06 -19 -16 -42 003 018 -15 -30 017 043 037 026 -52 007 -54 003 -39 -46 023 016 005 031 
-32 -42 031 016 -47 022 035 -10 -41 -26 -42 029 048 -28 018 009 030 -13 007 000 030 005 016 -23 007 -29 015 -35 013 -23 008 -20 -29 015 048 -35 022 -33 -24 -33 -45 012 047 001 005 010 -17 -40 -21 015 007 -49 -38 -06 -15 -31 010 -44 -38 013 -37 -37 -32 039 
026 -11 -06 008 009 051 025 049 010 029 -06 -11 012 -17 -47 -34 001 -48 012 -33 -08 031 -18 016 014 007 -19 004 -24 -60 -43 010 036 003 061 -11 -30 -14 -03 -17 -44 -16 014 004 005 026 035 016 021 -31 -15 065 002 006 032 028 050 026 057 -38 001 -31 -31 023 
008 053 031 -30 -44 014 040 -18 -37 020 001 036 -48 -13 -05 -52 -29 -40 -13 -17 030 020 -22 -27 -01 -17 022 -39 -29 -05 -15 004 -07 022 038 -17 004 -14 050 -06 061 043 -25 -24 -26 -31 -31 035 002 025 020 040 -31 -51 -37 014 -11 -08 024 -09 -13 -22 011 042 
-40 -55 008 000 018 -21 -02 055 -09 -25 -23 025 023 015 035 010 -05 -45 -21 016 044 026 -25 -31 -23 -36 -10 -44 017 034 -47 039 017 002 -51 025 -36 031 -39 014 -18 -32 -03 004 021 -46 -18 039 013 020 039 044 037 -02 -44 -66 -21 -10 -51 016 037 -19 -35 022 
-07 -19 026 031 012 -29 006 -46 -39 014 -08 -24 -41 -06 009 005 012 -01 025 -21 -36 017 -33 -42 -08 007 009 052 -36 002 -02 043 005 023 066 -31 001 -10 013 -32 -43 011 051 032 -05 -35 -17 030 -18 -35 002 056 005 040 016 -09 -09 035 045 040 -35 045 010 035 
003 -27 -13 -20 -20 029 -14 051 012 -34 -18 039 003 -13 -18 -17 -35 008 -30 -06 039 039 -11 -03 -05 020 -38 -55 043 050 -05 037 -36 -08 043 017 028 028 -45 027 011 012 039 021 -07 027 -21 027 -35 -22 -23 -65 016 050 -54 065 060 020 014 -30 004 034 -24 016 
022 -27 -15 -04 043 -10 033 -09 -39 -21 -06 043 014 034 -26 032 013 051 -32 017 019 -19 -28 004 009 -33 -29 059 025 -25 025 015 -25 011 -15 -28 036 006 -40 015 -24 043 -13 -28 -19 010 043 025 000 026 020 026 007 004 038 016 004 033 041 025 041 031 -28 -03 
-01 029 004 -09 019 -19 -29 021 015 032 034 013 -32 030 025 047 -11 -40 014 -16 -01 011 -12 040 013 -29 009 016 -59 -13 022 -03 -16 011 -12 -32 005 036 008 017 061 054 -20 -02 -29 012 -41 -17 007 -18 -13 028 028 028 -03 040 -54 037 000 -44 -34 -25 -37 009 
023 -32 -11 -29 -06 039 001 001 -39 009 -09 045 -06 029 -07 005 -08 020 017 025 -18 040 -39 020 -12 -18 028 045 -21 040 020 -51 -25 -18 -10 -22 014 -35 -28 -18 017 042 -25 029 008 -30 025 -26 032 016 -15 016 033 027 -47 -05 061 -48 029 004 043 -42 028 -08 
-15 025 010 001 -25 -16 -47 011 -01 012 009 042 030 -35 010 -33 028 017 -34 -35 -46 -15 019 -26 016 -26 015 055 -15 000 -43 019 016 -15 -07 012 -34 -16 040 031 -16 -29 -33 -32 -20 012 014 027 018 022 -36 -14 -37 -26 -22 000 063 007 -38 041 -37 041 008 -27 
-15 -26 032 -11 -52 045 034 010 -21 036 011 -20 -52 -05 -15 -52 032 -49 -23 030 023 012 -13 035 018 -22 -37 003 -33 030 019 040 015 010 042 -04 027 032 030 -32 -40 034 039 -26 -10 022 -23 027 011 026 -35 035 026 -50 -40 061 049 -38 -39 -01 -45 -43 017 033 
-31 020 011 012 -44 -46 -08 047 015 -37 028 -07 -15 030 -37 024 009 -11 008 003 034 041 -06 -25 -15 028 022 -13 -14 064 -22 -38 -23 022 -44 031 008 012 031 -08 -09 010 -43 008 -07 -10 047 -15 -01 -01 -10 -08 012 000 036 -20 -09 007 011 010 -42 004 000 -23 
-19 046 007 021 -29 -40 005 -25 -02 004 -36 022 010 017 -03 -52 030 058 -11 -38 -41 -12 010 -16 007 000 005 051 011 -52 021 -02 028 010 -11 013 020 013 016 039 015 -31 038 -01 010 -08 -13 -36 -18 001 -14 028 -04 -22 008 -17 -38 005 -30 -37 -31 -16 025 014 
031 020 033 -17 055 049 014 -19 -17 016 031 059 051 -34 -48 053 -27 002 020 015 036 016 029 040 009 032 024 -58 -18 063 015 -04 -04 -28 065 028 -37 -32 -50 022 005 061 -01 012 025 013 -18 -42 -25 -42 -43 051 014 025 -43 035 055 -43 023 -20 001 010 -25 042 
-08 044 024 -11 -17 017 -41 -04 006 -15 -36 -20 031 -29 -23 -41 010 -49 -33 -32 001 -33 023 006 -07 -05 -11 -32 058 017 022 030 037 -26 016 009 -37 -36 030 -16 -19 -30 040 024 009 -18 044 011 010 -04 023 032 014 052 018 -18 -37 033 020 029 -15 -17 -02 -17 
028 021 -24 -16 007 019 -05 022 015 037 -19 041 -42 024 -15 054 -20 043 013 -38 038 -04 -17 028 004 -29 005 011 058 -45 018 041 026 006 061 -28 -01 -34 -33 -34 -48 -25 001 045 003 014 -35 016 -21 001 -29 010 005 008 -50 -12 071 023 020 018 033 -44 002 001 
017 -37 029 -07 -44 022 -38 031 032 031 011 021 -20 -11 -34 -41 024 -09 -19 015 035 014 006 -44 020 029 -24 016 -36 031 028 -48 -43 015 032 -16 033 -19 049 027 056 -49 000 027 -27 019 -40 -33 013 033 041 032 003 -47 -30 029 013 010 049 039 -03 -35 019 -31 
-35 021 021 027 003 031 035 022 000 -06 -19 -25 -37 -20 -07 -44 022 021 -04 033 -24 030 027 040 025 -07 -29 -05 008 -14 -29 010 027 014 069 -35 029 007 034 -13 -04 022 -16 020 014 020 -41 035 -08 018 -39 028 -32 021 -56 -01 -25 036 044 -31 040 044 -06 029 
-22 -05 -32 -29 -06 026 024 010 040 -22 014 035 040 -33 -43 -25 -03 -49 -10 001 -04 014 018 024 -08 -07 013 -01 000 -43 048 -52 038 -30 -29 -21 -28 011 009 002 030 -46 -28 011 -40 -05 -35 006 -38 -25 022 -01 001 004 -10 -41 -54 018 -09 029 -46 045 -22 -31 
-03 -58 -04 -14 016 045 027 016 020 026 -36 031 017 -07 028 -43 -15 -45 -24 -17 026 022 019 -39 -27 -19 028 -43 -55 -22 017 -54 039 004 003 -37 017 021 012 015 -24 -12 -32 -38 -08 005 026 000 001 -13 -27 -25 013 -35 -49 -24 -24 -39 -12 -40 -45 006 024 -12 
015 028 -05 -12 -04 -16 016 -48 -46 001 -26 051 -24 -22 027 -13 -18 052 006 025 031 001 014 -14 009 011 -33 008 058 -21 -06 014 013 003 -57 -13 -31 000 -45 -36 015 046 004 -35 018 -01 000 -26 -13 -36 001 029 022 -01 039 -54 073 015 -05 000 -28 -42 -14 016 
007 017 -06 010 032 020 -29 058 003 -37 -33 047 -06 -10 -32 055 -05 006 -32 -01 016 003 -23 -18 027 008 030 -30 014 053 027 030 042 -22 023 -16 -33 -15 -38 -41 -03 -43 044 -23 020 -24 -09 -36 -30 018 025 001 -18 014 022 -40 067 -12 022 008 -06 -48 -25 -16 
-06 -49 -10 -18 011 -31 038 -48 -22 006 000 022 -04 010 016 053 014 -31 -27 006 002 011 015 -21 -13 -03 023 -11 005 063 -28 036 -22 020 -11 -23 -35 019 -52 001 -36 037 015 014 037 -25 044 008 -15 -20 -25 -40 -38 -36 -07 074 032 -47 010 000 041 -03 -09 -42 
003 -10 010 025 030 -05 019 049 016 034 -42 -35 029 -35 000 026 -35 047 025 014 -35 -34 012 019 -27 024 038 061 028 006 -48 -04 011 -02 -27 002 -08 004 -10 -03 -47 -06 049 -06 -41 -03 -18 -18 -09 -03 011 061 -10 036 -02 028 065 026 010 -28 -35 -10 027 -30 
031 -26 -36 -27 -02 -08 001 -18 -29 013 -18 -16 -34 -08 -01 -01 -17 033 001 -27 044 026 028 -28 012 -13 -11 -05 -40 -07 -45 034 019 012 -41 -21 024 -13 041 -03 -44 027 022 -17 038 -23 -32 003 -02 -29 029 017 -25 -23 006 062 049 -21 002 002 005 -01 022 024 
-14 027 -08 -12 -09 -23 033 -32 -46 -33 -24 -30 -33 -13 -24 -22 -30 045 012 033 045 012 -04 -11 -33 -29 033 -51 -13 035 028 -27 -09 015 -69 009 -32 -21 039 032 034 035 006 031 -22 027 -01 030 001 031 038 -26 -13 009 049 053 -36 040 -43 -28 001 038 031 -14 
-09 -51 016 -16 050 -54 044 048 001 -40 -26 044 -10 005 045 -11 -22 -17 028 -27 003 010 018 038 -01 -29 013 -63 045 -15 037 -35 -30 005 -01 019 034 022 -06 000 -24 -40 000 -04 019 006 -11 028 002 -29 037 -35 -38 021 057 -70 037 -17 -33 -14 -42 -07 023 004 
-03 003 -30 -27 -09 -17 -19 -45 -43 -25 -04 027 -40 -18 -26 -33 002 047 014 -35 -12 -13 025 -07 011 -09 023 016 031 065 038 -02 027 -15 -24 -18 -10 036 025 -14 -51 049 010 -45 047 022 019 -38 023 019 024 003 -12 001 -04 -34 007 028 010 -23 003 -29 034 012 
019 019 023 -20 030 006 025 058 012 009 -19 -11 -12 031 -08 -35 -08 -56 028 027 012 027 038 036 -11 -19 -33 006 001 059 003 -12 -11 -14 040 -24 -16 -28 004 -11 046 -39 024 023 -18 018 030 -36 -12 022 034 -63 009 010 029 046 016 -36 004 -08 014 -02 017 -15 
027 045 -04 031 034 023 -35 044 045 004 -25 -46 -19 -01 -43 007 -17 -03 -12 037 -23 031 -01 039 028 -18 -24 -15 009 -54 040 -25 005 011 -37 -30 008 014 -53 032 -54 -51 -14 039 011 -27 -17 -03 033 -44 -03 054 -28 -46 022 053 014 023 -08 009 -22 -48 -15 008 
000 -27 006 -09 033 042 -46 047 000 -03 -19 -48 019 004 025 053 -33 -33 004 -30 -29 030 -26 -43 027 -36 013 -31 004 -39 -39 -20 020 -26 024 -20 008 -33 049 003 005 -37 006 011 -23 -28 -18 -09 -29 -32 -11 056 039 040 -19 052 -25 -34 026 031 -27 -06 035 -39 
034 -02 -35 -08 012 016 -24 -03 019 036 -33 -38 035 003 023 -40 -30 017 -26 -31 -39 007 -29 001 024 004 017 -55 058 062 -04 035 014 -22 -05 007 018 -03 035 -12 002 000 040 -01 -36 -29 -48 -01 -16 024 013 -08 024 -29 032 042 -05 038 -36 029 -38 032 -24 -12 
033 026 012 008 008 011 -17 -51 042 028 -23 013 031 025 048 -43 016 -45 -04 -16 -41 -24 -34 -10 -33 024 -37 -37 050 -50 -24 015 -21 012 -08 -36 -02 -18 -50 015 032 029 -27 -26 043 -28 -45 -38 030 -28 -21 -25 000 005 -32 -08 004 -26 -38 013 006 033 010 -08 
-04 059 021 -07 016 009 -32 -51 007 -03 -01 -29 040 -06 031 -10 007 015 -13 033 006 015 -03 035 -09 020 036 048 -06 -54 -41 -31 008 022 018 -38 -26 005 005 026 -03 -06 029 -21 -36 -34 013 002 004 018 -38 -48 -23 -53 030 055 -53 -17 -47 -06 -31 -12 -18 -29 
019 -65 011 -25 032 022 -18 -05 039 -23 -35 008 -12 -14 024 -44 014 -30 -02 -11 029 012 031 002 -09 034 -27 -03 -28 003 050 006 032 021 052 -10 -13 -03 014 -39 -02 -39 019 -20 031 -17 -06 -04 005 032 021 034 022 041 -32 072 -11 -38 013 033 -44 -35 -26 032 
044 -07 019 -21 -33 -40 -11 -27 -32 033 026 -23 -16 023 -49 -39 008 021 032 008 -31 -40 -28 041 -01 -02 -33 -05 -07 009 050 -33 022 -25 066 -38 031 -21 047 028 015 -42 035 -35 -13 -33 023 020 006 -07 009 -46 017 -15 -21 082 062 -26 030 -33 007 -44 033 014 
-16 038 -07 -22 -27 000 040 -33 020 -13 -21 -14 -20 -36 032 -59 -21 020 008 -15 -02 -29 033 -33 009 -23 021 001 -56 029 -19 -41 -45 -02 -20 012 -35 014 -39 016 -07 -25 028 -18 -41 005 040 035 014 000 023 -62 -24 036 023 034 -03 -33 015 042 -43 004 -33 -36 
036 -39 -22 -05 022 013 -13 027 -31 026 006 048 -09 -31 -37 003 003 033 015 -39 -11 021 001 038 -07 027 -32 -52 -05 029 026 050 -28 -30 034 021 005 -13 -33 037 -38 004 012 016 015 -48 043 018 034 -27 -42 -25 011 -16 008 028 -56 -31 -42 -14 010 044 -38 000 
017 -02 000 -16 -41 037 036 -31 009 020 039 -18 -38 -04 022 -10 -10 030 -05 034 -39 -34 -33 -09 031 -06 -36 026 -48 -36 -41 -48 014 002 047 -25 031 -09 047 026 -18 041 021 -25 013 -45 -19 010 -06 008 029 003 -26 -38 004 033 026 029 021 -44 023 007 031 010 
-05 032 027 027 -26 -25 -24 056 044 -04 022 011 -20 016 -50 032 000 -40 007 -25 000 031 000 030 023 018 014 -20 -29 057 -49 -01 023 020 -63 027 026 -26 018 -31 007 -36 -23 033 -27 005 005 039 011 018 013 -12 016 -30 -41 -28 047 016 -01 001 -04 -31 -26 027 
-15 -31 -01 008 -09 006 041 042 -36 -37 016 -43 -14 007 024 028 -30 029 -17 035 -46 -19 -20 016 -24 006 024 -44 040 042 008 023 004 003 -45 020 009 -24 024 038 -30 -24 038 -30 -39 -33 -37 020 -03 -06 -11 -23 009 028 020 -63 -31 -38 -32 -42 007 008 -07 030 
042 -30 016 024 057 037 -06 009 -22 -38 -33 048 008 -03 -05 -24 018 -40 -08 -22 012 032 006 -31 019 -11 -07 009 -37 -14 047 010 -24 -03 017 028 023 -03 -29 022 -50 053 008 024 -41 014 020 036 -25 011 011 -10 005 -32 035 006 -49 023 -04 040 -34 -01 021 -03 
000 -05 011 -13 -48 023 046 -26 024 -29 036 -27 034 006 -23 -27 -21 012 -09 -36 -46 -40 -22 008 -26 030 -08 -38 -06 065 025 032 -27 000 031 -01 -38 022 049 033 -07 -28 017 037 -20 -42 -41 029 -28 -41 033 -10 015 -05 -03 -06 034 029 021 024 -36 008 010 024 
027 -17 019 026 003 017 -05 -49 027 038 000 046 -14 015 037 049 023 035 -27 -26 004 -11 005 -11 -13 -03 -44 032 -52 -46 007 -08 029 -23 -36 004 025 011 -52 -11 033 041 -18 -26 035 042 040 -20 016 003 -11 -33 -37 013 -60 007 053 -01 027 -21 017 012 -26 030 
-23 -37 -10 -20 009 026 -49 -30 -30 -18 -36 -44 030 -10 043 000 003 -07 -34 -10 000 025 -30 -22 -13 -34 -27 -67 033 -07 019 -26 034 -13 015 -17 028 -22 031 012 -49 038 034 -33 007 005 035 007 -22 034 -04 031 -25 -55 004 -04 007 -48 -02 -11 -07 -09 033 -03 
-13 -09 -05 014 -36 -42 -39 024 015 006 029 -24 -10 -02 036 014 -16 008 008 005 045 -02 -17 028 -30 -33 -39 049 013 000 -02 -39 -18 025 016 020 -06 -16 051 -07 063 051 013 -16 -07 -28 005 007 034 016 -03 041 -08 -38 -27 030 060 043 014 044 014 -09 019 -35 
-37 -15 -29 -16 -53 -44 -16 -30 005 001 -02 -48 -44 017 -42 -04 -03 -56 030 -34 -42 018 007 -22 023 025 -30 -29 -40 011 008 -01 -08 023 -25 -03 011 -15 037 011 -52 -47 030 010 -02 007 015 010 -25 030 033 -58 -30 012 031 070 002 022 043 034 020 002 -16 003 
016 -50 -37 -04 015 -11 014 -37 -05 -03 -15 022 -10 018 -53 -25 -19 -26 -34 -02 -32 012 -01 -01 007 -10 -16 012 -46 -15 025 -33 005 002 010 023 022 -36 017 030 047 015 027 -06 001 021 020 -41 002 012 -05 000 030 -35 017 -69 022 021 041 001 025 -43 -26 -01 
011 030 034 -31 055 -10 -34 -10 -38 -35 035 051 034 -30 -22 002 004 -53 019 025 -43 014 005 -07 004 -02 -03 048 -43 -66 033 -44 037 -27 067 -17 026 000 021 -11 -29 016 037 -15 015 -29 015 005 019 033 004 014 -14 -51 -37 -16 -13 041 065 016 018 -09 -32 -33 
004 049 020 004 014 035 020 032 020 -28 -04 -15 003 -12 -37 041 -10 -51 -10 020 -37 000 029 025 -34 027 -15 -22 -28 036 -11 013 031 004 -25 020 -27 035 -29 033 -55 -47 004 -38 013 -24 -13 019 -31 -04 -28 005 027 -19 -52 -11 -61 033 -01 -43 -08 -12 -30 025 
028 -36 -16 -22 040 023 039 -59 005 033 -13 032 043 015 -36 -13 020 -52 -27 -13 004 027 032 003 020 014 -21 -56 054 -65 019 006 -40 -15 003 -20 -32 -12 -51 -10 -64 -50 -35 011 -46 025 -34 033 012 -15 -18 055 -03 050 -06 -54 -63 -36 -02 -17 028 -32 -32 -23 
-25 -45 014 031 -19 -47 035 -31 -30 011 034 017 -39 -14 -07 -25 -14 -18 -13 -12 -19 -01 023 -22 019 -35 -25 -49 -55 015 010 042 043 010 -23 026 017 015 010 016 015 -12 -37 -30 -14 -19 -45 035 031 002 018 007 017 -33 049 020 043 -29 012 034 -13 029 -30 -01 
035 -08 -02 -16 -43 021 -09 -55 -28 -28 -41 -42 -31 -25 045 -42 -11 040 -02 -26 042 008 -27 -10 017 -27 -17 -37 -41 -43 006 -05 -35 008 -54 026 008 022 002 030 -26 028 004 -32 -01 029 -15 033 -04 -42 024 026 -21 -22 026 -43 002 -18 049 -17 035 -38 013 -31 
002 060 -04 012 021 033 -26 -21 027 -23 -35 -42 -25 -34 013 033 -29 009 006 032 -43 -36 015 -12 -26 -20 018 050 007 -69 -22 -35 010 -28 022 022 -22 -29 015 005 045 025 -30 -36 -23 -18 -17 038 -36 -10 001 -57 -32 -45 032 029 -08 023 -56 -35 007 -38 032 -22 
-16 -17 004 -26 -04 018 -12 -56 -31 -08 -27 016 028 022 -49 036 -31 043 -28 028 -47 018 008 008 -18 -28 -24 042 025 044 -41 -39 -05 013 -56 -21 016 -16 025 -39 -54 -53 -08 -34 035 002 017 025 -34 038 022 076 001 -55 -51 -34 032 016 -26 -38 -11 -46 -24 007 
-39 -28 033 -26 -09 -54 -04 -57 023 -09 -32 033 -04 007 -22 029 026 -22 024 016 019 -02 -08 043 -28 -04 035 -39 042 -56 -25 -24 -29 -19 040 -16 -30 -07 -53 -09 004 -06 -35 030 -23 028 038 -38 014 021 -42 -49 037 008 030 -20 060 021 -19 005 024 -03 -10 001 
000 -18 -06 -24 -47 -28 -02 035 -35 -40 -34 032 000 -35 015 004 030 021 -10 -03 041 008 004 -33 -19 -22 039 -45 -54 049 024 047 -34 -01 031 -24 034 002 -19 036 040 017 -03 010 -41 -26 -01 -25 024 007 036 049 -41 027 019 -61 -53 -40 -42 043 -02 -39 035 018 
036 040 021 001 -10 040 -29 025 032 -11 -15 013 038 020 011 035 -36 -57 -07 001 011 036 028 -45 002 019 038 -51 021 -48 -15 045 041 -31 051 004 -21 008 -33 -21 -30 003 -15 012 -15 -14 002 -12 -21 030 -38 056 018 -07 053 055 049 029 -21 -16 -02 -05 032 -04 
-05 043 -25 014 001 -30 023 -60 040 003 -27 015 034 015 -55 -12 -24 013 024 -10 -03 -37 029 032 -08 -14 -25 -53 -58 -34 -21 -52 012 023 -26 -17 028 -28 -17 017 056 036 -05 018 -06 -12 016 -22 -09 039 027 -27 -23 -33 -35 -12 016 019 037 040 -28 014 031 -08 
-31 -59 033 -02 012 -46 003 -59 044 022 -06 039 -23 023 -46 005 021 024 005 -16 023 034 -07 043 012 -04 008 046 009 011 035 003 042 004 042 -25 005 -28 -12 -20 028 -50 014 037 -31 -19 004 035 -32 -44 -07 -26 -04 -43 -50 -68 012 -21 045 -26 -19 046 -13 042 
-29 038 -19 -11 019 -44 003 -25 030 001 035 -25 -45 -01 -46 -46 -09 -50 012 -13 -32 -32 026 -31 -16 -36 029 -09 049 -58 -18 013 -45 -31 001 -36 -13 -33 006 001 018 -26 030 005 011 018 -23 -37 036 021 -35 -54 -40 -01 054 -51 040 -02 011 -36 -17 032 -29 -28 
-33 028 -21 -08 -47 035 -16 001 -12 016 026 017 046 018 011 026 -25 -33 017 -22 -31 028 -34 -23 -32 -11 026 -26 -25 -30 034 -51 030 -20 -60 -25 009 -06 037 -23 031 -48 030 037 038 036 -31 -28 033 -21 011 -37 -32 -34 -25 050 042 035 -26 024 022 -11 -09 -34 
-20 -46 -01 000 042 035 007 038 014 011 009 001 -31 026 -30 -18 003 053 -12 015 011 005 -05 001 023 000 004 -59 051 044 028 009 -27 -17 -01 015 034 -27 009 006 041 054 030 013 033 -16 -22 -31 022 023 002 -04 000 -45 -57 -68 008 023 044 -19 028 -42 032 035 
021 003 -10 031 044 -01 -14 001 -11 -31 004 007 021 -14 -01 049 032 014 030 019 007 -30 033 -08 -16 -11 034 018 -25 039 -13 -38 032 -28 -05 006 -27 -13 019 -25 020 -33 048 020 033 021 018 -32 016 008 039 059 -31 047 -13 -69 010 -17 -35 012 045 002 015 021 
-11 003 -33 017 036 -41 000 003 002 -37 030 001 042 026 012 -11 006 026 023 -30 -25 -15 -13 -40 024 024 038 -36 017 002 -11 -50 -18 -29 -12 -07 -29 007 -44 -27 053 -17 002 039 003 -32 017 -29 011 -25 025 -18 002 003 -06 -37 -34 019 -06 -47 012 -41 001 -15 
012 -22 -33 -27 -35 -52 004 -13 024 -31 -23 026 004 014 049 035 027 -31 019 028 -19 -02 -06 035 024 -16 -32 -13 -05 028 -34 034 021 -10 -06 019 -37 007 022 -32 050 029 -07 -09 032 -43 022 027 031 -01 041 054 010 039 021 069 071 -27 -24 -08 039 008 011 004 
041 -43 -27 032 012 -36 022 022 -14 007 035 -05 -49 012 015 -12 004 -40 032 -34 001 -17 031 040 021 -23 -27 006 014 -22 038 -05 037 -24 021 -26 018 022 012 014 -59 053 -43 -10 -19 -44 -38 -27 -22 014 -18 033 -21 053 -55 -57 002 008 017 -21 041 -23 -06 027 
012 028 -11 -20 -35 041 -22 -56 -26 -30 -18 -42 019 011 -41 047 -03 -11 009 -36 -02 -34 -03 -43 031 -21 -09 -21 030 014 041 -14 -08 -30 -40 -36 -26 027 -05 -18 061 -19 043 -13 -04 -07 025 007 -20 006 -31 010 018 -40 -45 -47 068 -02 009 007 -29 -44 034 -05 
024 -39 -34 -08 -02 -50 -23 054 029 -34 -26 -35 -49 029 -27 034 015 -50 -19 008 020 037 -07 -30 -02 -03 016 021 033 -51 -49 -30 -41 -20 -62 031 001 001 020 -29 -36 -40 -38 -30 -36 -43 010 015 -35 -27 031 -26 009 002 037 024 012 -03 024 -23 036 -21 -18 033 
006 017 002 000 047 000 041 050 016 -17 -05 010 -56 034 035 -33 -21 059 019 -37 -42 -42 036 -39 027 -28 -20 -55 -07 -65 012 -02 -22 -17 056 -18 007 014 -50 016 -65 032 014 -24 043 037 -08 -36 -20 -06 021 -79 -06 -09 -37 002 028 -13 024 036 010 -47 -28 -35 
-41 033 007 020 007 -50 -24 002 009 -01 -06 -40 -22 007 -02 -06 025 042 002 007 029 -36 -36 -12 000 -19 -28 037 -36 030 000 010 030 005 -11 -25 015 005 049 -26 056 -49 011 -03 -06 -01 -38 -32 -29 006 020 029 -12 048 040 023 -36 035 -16 037 -16 018 027 -08 
013 054 005 015 -31 -09 008 -60 034 028 013 -33 -12 019 -24 043 -04 018 026 018 -35 028 -14 033 021 012 -19 -42 037 051 052 031 017 008 048 -21 -23 032 -39 -37 057 -09 032 022 002 -39 -41 015 -06 -36 -24 018 -25 -38 -58 058 -44 -43 018 012 -42 003 034 042 
-32 -47 -07 -01 030 001 -37 018 -20 031 035 048 011 -17 008 -23 -12 -08 005 021 032 -20 018 -21 006 -12 -39 -24 -25 -58 037 -49 -12 -30 070 018 031 -12 026 -01 -67 034 025 -04 -12 001 -14 014 030 025 -28 035 -32 -17 -31 018 031 006 050 027 -35 -37 016 -10 
022 -25 008 -33 -50 -51 -36 017 034 010 -09 -13 -44 028 -07 027 025 003 -04 -16 -02 009 -09 035 019 -27 038 003 055 -07 -24 -35 -31 023 019 -26 -09 024 -05 -19 030 028 027 -34 -36 -41 013 026 000 -05 040 020 008 036 032 028 -56 -03 015 024 011 026 001 001 
-09 016 025 012 021 -26 031 -25 -19 037 -41 009 -09 009 039 004 -14 -02 -29 004 040 -44 -37 -25 -07 021 -17 020 -59 035 026 -50 -34 -27 063 030 011 -16 026 004 026 055 -22 -26 027 027 -04 012 010 -21 -18 053 020 -16 -30 063 013 -46 060 038 -02 -04 -19 -19 
-20 049 027 021 -39 -10 006 000 007 011 032 -14 -30 019 006 -06 -08 -50 -18 021 -39 -31 -09 -25 028 -02 -38 -11 024 -40 -33 -12 007 027 -24 035 000 034 -19 008 026 023 -02 -02 015 021 -48 010 016 027 -11 047 038 -48 -22 011 -36 032 046 038 -39 -21 029 -20 
012 011 -31 -04 029 052 -23 024 018 -04 029 034 013 022 036 -47 -05 -50 015 -31 028 -02 -28 -37 004 004 -42 -37 006 -23 -45 017 012 013 049 -26 -29 -02 022 001 010 036 -28 -28 -35 -19 -24 005 012 -07 -39 -32 005 -38 006 -14 -28 043 003 036 -22 -27 034 -43 
042 031 021 -23 -02 -42 -24 -34 -09 019 -38 -01 028 015 -04 -40 002 -39 -28 -18 021 025 002 -15 -16 018 015 -42 -39 003 -15 -37 013 -10 -17 016 020 -05 -30 006 -38 016 -14 044 002 -22 -46 030 -07 -25 -33 044 -36 001 -27 014 -32 008 054 -12 020 026 012 -40 
-32 026 -26 024 034 051 030 -39 -02 -08 -14 004 035 -05 003 040 -25 019 -20 002 -18 -40 021 -25 -24 -32 -29 025 036 000 -02 -18 -24 -12 -54 010 004 022 025 006 -50 031 033 -34 -36 -30 023 033 -35 -16 029 -52 028 012 002 -32 -39 037 -06 -18 032 -26 -14 024 
045 -08 008 027 021 036 005 038 010 -09 -28 -28 -26 015 013 025 026 -57 025 035 016 011 035 035 -12 -11 -28 058 044 -40 035 044 -11 -15 054 -19 -37 012 008 -02 019 019 041 -22 010 016 -40 015 025 -43 022 -36 -34 -54 025 016 001 -29 037 033 -03 003 -20 033 
-35 -59 003 -08 008 036 041 055 039 028 014 -26 -23 -18 -40 013 -11 -20 -07 -24 -38 -01 011 -02 026 003 003 -58 -53 -43 036 -27 -31 002 -50 016 -15 -01 029 -40 016 033 037 -38 -07 040 034 003 -06 -21 017 -52 -15 029 -46 020 061 003 -03 -32 021 034 023 038 
-12 024 -17 020 013 -49 009 -51 -01 -03 -08 042 -17 -35 -42 -16 -33 042 018 022 -45 -33 -22 018 -02 025 016 -37 036 060 033 036 026 -17 -12 -13 007 -11 -40 009 -06 005 030 007 -17 012 -40 -34 -02 -12 -08 027 003 -32 041 -47 -47 032 -04 028 -46 028 -37 -06 
000 -57 -26 -08 -19 011 036 -58 -42 -36 -42 038 054 014 -05 -14 -06 002 -34 013 -06 023 001 029 -06 015 -44 -10 037 -25 -29 005 028 009 040 024 025 018 017 013 -41 -29 -22 036 041 005 015 -13 015 -36 -28 002 035 -53 008 063 -31 -48 035 -12 039 038 -36 -07 
003 031 009 011 -61 -22 -25 -42 044 027 -24 046 010 003 -40 048 -31 -34 004 -15 021 -30 -25 -01 013 -29 033 062 045 028 -41 -25 004 -29 -45 -11 032 011 -31 016 -64 -07 -11 -35 -13 -37 -21 016 -39 -31 -42 043 005 -28 -07 -21 -14 -02 011 -16 044 035 010 -20 
016 002 031 -06 020 033 -16 -07 029 034 -40 020 005 -22 -23 012 004 -52 -17 001 037 -22 016 -34 -30 -27 -15 -58 054 020 -45 -37 -19 -23 -31 -37 -05 016 045 008 034 050 048 -20 028 019 -10 -07 026 009 -42 045 -31 -42 015 068 -35 -25 004 007 -33 -07 023 -34 
038 -57 -02 012 -24 029 -24 002 014 000 026 -49 -08 014 036 032 003 031 -08 001 044 036 -21 022 -22 -12 -36 -62 -03 -62 -05 007 018 -12 -45 034 -16 -10 -51 -36 037 -35 036 014 017 -11 031 039 011 -35 -33 -18 021 026 -23 019 044 -19 -38 -19 -32 -37 033 040 
024 047 017 -20 -11 035 -28 -61 030 027 -30 -51 -23 -33 004 015 028 -45 015 -36 005 013 000 -15 005 009 000 -37 029 -65 042 -03 -19 -29 028 001 -30 005 -29 -05 -03 -47 -31 041 -10 -01 002 -19 011 -37 -44 -44 000 -42 -18 -60 -10 -39 -34 -24 -07 034 -02 027 
004 -26 -37 023 -14 031 -19 -14 041 008 -41 025 -31 -32 054 -49 007 045 024 -02 -17 -17 038 037 025 -34 035 054 044 -21 -01 044 005 -05 054 -05 033 022 011 -04 005 -14 -17 027 -29 -38 014 014 002 028 037 066 031 -25 -42 -08 013 -08 -42 019 -16 -06 010 015 
-03 -24 -32 -19 -44 -29 045 -21 014 001 -14 001 021 012 -09 -20 022 014 -35 001 -01 021 -04 008 009 -34 -13 013 -53 029 -51 011 041 -12 010 015 000 011 049 017 026 -02 -02 033 -41 -35 002 -18 -04 -31 031 -47 -05 -34 032 030 007 -15 047 037 019 032 -06 032 
021 -60 -14 -23 003 016 -17 047 -32 -27 008 029 -08 033 -41 -45 017 047 013 -19 000 038 -25 -45 027 -26 -08 003 039 -01 006 048 -45 -09 040 -11 015 -25 -03 038 026 025 -32 008 017 006 041 040 -39 -36 017 065 035 032 -10 -19 -42 007 051 -45 033 017 -11 -19 
034 019 -06 -20 049 -41 001 -04 017 034 008 -33 -02 002 033 -15 006 045 -32 017 -31 007 035 -32 -07 008 -28 015 050 -21 011 029 032 -05 -07 032 -06 -37 030 -37 -46 -35 -09 024 -37 038 -26 001 -35 005 -25 -75 -10 -11 031 -51 046 044 -43 022 -22 -40 002 -10 
037 035 -16 006 031 014 019 060 -10 015 029 -03 -52 014 -36 -36 -29 048 011 038 041 -31 -36 019 -23 -07 027 -52 034 030 -53 000 -16 021 042 -11 -18 -24 -53 016 -63 043 007 -19 -17 006 023 022 011 027 -28 003 022 -36 -15 022 -12 -24 -16 008 033 -42 008 -09 
008 047 -37 011 060 015 020 -43 012 -09 -11 030 035 -34 -48 025 004 -51 -33 -24 036 -03 -24 019 -06 -34 021 -03 053 -33 -21 -41 018 -24 055 -30 -25 022 016 -33 -15 009 016 003 035 018 -23 -20 -18 -41 028 002 -28 -04 -12 027 000 041 009 023 -14 -38 012 -22 
-25 050 022 -09 -30 044 -27 -20 -29 023 -04 026 048 024 -15 050 009 -05 025 -27 036 035 -15 008 -14 -09 -24 -63 -39 037 021 -30 035 -26 -44 -06 -35 -12 -06 011 007 -14 -39 001 004 -01 -26 019 -09 -24 -42 -01 028 -16 047 -36 -45 -31 -28 -26 -07 034 -23 028 
-33 -25 -16 -11 -35 -10 -09 037 029 -20 034 042 -40 -10 -28 041 000 -44 011 -35 023 026 000 -09 -33 029 006 -38 -29 -37 045 027 -42 029 047 025 002 -04 -42 -17 064 -05 -23 -29 -21 009 023 -28 036 -11 -32 058 -39 020 013 -35 054 029 000 -37 021 037 005 -17 
034 059 -35 026 048 -37 006 013 -37 007 -22 021 046 -34 017 -06 016 003 -27 034 015 035 -26 -11 016 006 023 053 -46 063 044 014 -35 029 -07 016 002 -09 035 023 048 -12 038 013 031 028 003 017 -21 031 -01 032 001 -53 -16 -48 -30 031 031 004 -36 -10 013 039 
002 024 028 009 -32 028 -39 -16 -27 024 033 -36 -04 -11 025 -34 004 -47 018 -25 -33 010 -30 039 -08 -19 003 043 009 -21 -04 032 022 -21 059 -03 -37 -13 -26 015 -37 -52 -39 -14 -42 004 -25 026 -35 039 -25 -46 026 020 -38 -09 -16 020 -01 030 010 -41 -23 040 
-12 034 028 -32 -06 -27 -22 -36 042 -38 -20 005 -35 -22 -46 035 -02 025 023 014 -36 021 -18 -15 002 028 -22 -56 -24 -40 -12 -12 038 025 028 -37 026 034 -09 -24 064 -07 010 015 -43 015 025 -07 025 025 031 046 025 -41 -24 047 025 -33 004 -06 032 002 -35 012 
019 046 -01 -23 -45 043 -06 -16 -10 022 -20 005 -06 033 -19 019 -10 -39 -15 032 022 022 034 -07 -31 025 003 021 -44 060 -35 -13 -45 007 002 031 030 020 -03 003 016 -12 002 003 -03 019 029 -20 002 -03 -08 064 021 015 047 -58 -02 044 -21 -10 008 -39 -24 -36 
-27 -27 -14 -23 -22 -11 -19 -40 043 -34 000 -20 028 -34 -06 -47 019 040 -21 031 -22 014 -04 040 -20 009 -06 025 -22 051 -10 -22 010 -29 020 -35 002 -02 -23 004 048 050 -20 018 -16 022 -19 034 -18 -34 004 051 006 -17 044 -37 069 -23 038 -03 019 -03 018 -02 
-11 014 -13 031 -51 029 018 008 031 -36 003 -19 -05 -12 032 018 006 025 -21 -15 -37 -04 024 -15 -29 -12 -30 036 -49 004 -29 024 022 -17 063 -07 -35 030 008 -14 045 053 005 048 033 -34 -47 -20 -03 022 010 009 016 014 011 052 027 030 051 -03 -13 -43 -30 011 
007 043 -20 -18 -61 045 001 054 032 033 010 042 046 -05 043 027 018 042 023 036 034 -25 -39 -09 -24 031 013 -40 010 057 045 048 039 -22 -28 010 -23 016 -32 -34 053 -32 024 037 -31 036 011 -12 -38 039 -25 -22 011 001 -26 -03 -30 -02 019 -39 026 -44 -10 006 
005 -22 -24 002 -51 -49 008 -08 -36 -19 -13 -48 -25 030 046 -55 -18 -46 -35 -33 -50 042 007 -40 -04 010 -10 048 -16 -11 -54 -49 025 018 041 -15 -31 019 -32 -31 -34 -51 -20 -34 -31 -38 041 -10 -20 006 -17 061 011 002 -22 004 042 -03 059 032 013 -36 011 036 
033 002 012 002 030 -54 -26 030 017 010 007 -06 -45 -16 -32 015 025 004 -30 036 -37 014 -09 -03 -16 -24 019 006 035 -64 042 -52 -46 007 -52 -31 -31 015 -16 -35 -47 000 -40 -21 013 026 -25 032 -14 035 012 008 -27 -05 003 054 -50 -41 -46 027 -41 -29 010 -08 
-15 -01 -01 -22 -25 -11 008 -01 033 008 -42 -22 -13 -06 -46 -28 031 009 -27 002 -46 -25 -36 -28 022 -04 -12 015 019 -34 -34 027 -39 -14 -55 010 005 -05 -42 -28 -41 054 018 001 -32 -01 045 -36 027 005 -13 -42 -29 -51 -35 015 -14 013 038 036 -42 -36 -03 037 
002 019 -24 -05 -28 -34 029 -53 003 -38 -02 -45 -44 -31 008 030 -15 -01 -29 007 -45 029 018 016 -20 010 004 -01 -58 006 -45 037 -05 010 050 -36 -19 036 008 029 -03 047 -09 -32 -07 044 -29 -01 034 -10 008 015 021 -03 -05 -70 000 012 021 028 017 -44 -30 017 
-02 -25 006 -17 -28 048 010 -23 -25 -07 -09 -02 -54 000 037 025 032 051 009 038 017 -22 -25 042 -29 011 -10 -26 -41 035 020 040 041 -28 015 -26 -03 030 013 -35 047 049 000 036 -18 001 -31 015 024 015 014 009 008 -44 -29 016 008 -44 008 032 -11 022 -18 014 
005 018 -27 011 033 -08 -46 -54 -33 011 002 015 -17 018 030 045 002 -53 -16 028 -15 -40 -29 035 -26 018 -44 -30 -16 -23 -25 044 -17 -06 -27 -09 004 -09 -09 -24 -58 -58 001 051 016 018 -11 -01 -26 -10 020 -08 025 -29 019 -78 -48 022 030 -03 024 001 028 -33 
-29 034 027 -12 -44 012 023 051 -01 -16 018 -47 022 014 -03 014 -02 048 -01 011 032 015 025 005 -11 -12 -38 052 -24 047 034 -23 -37 -22 043 018 029 -33 -23 003 -32 -44 -37 011 011 -28 041 015 -37 021 021 -46 -24 -10 -59 -47 038 -49 -34 036 026 -39 031 -22 
-29 010 003 016 043 -53 -20 -15 -02 -11 017 022 017 031 001 012 -31 -20 -19 -09 -08 008 -02 021 019 002 015 -31 055 -56 027 025 -07 024 036 014 013 -14 -39 -22 -52 047 028 004 000 041 038 -07 007 -29 001 -12 019 -02 006 042 -37 -06 008 000 004 034 006 -32 
017 -38 026 -25 046 002 -48 054 037 -06 008 -24 -18 -14 -30 050 -06 -42 022 -34 -50 009 -01 011 -32 -03 021 027 016 027 000 005 -17 016 -59 000 -04 014 004 -24 -10 032 028 -22 015 004 003 -22 -34 -24 004 002 005 029 042 050 019 -43 008 018 012 038 -21 -27 
-11 008 000 015 -10 -08 026 -26 009 019 -28 -46 046 -29 051 -12 009 -51 -20 -13 -25 -09 -08 033 -10 -26 -30 -47 -24 -69 051 -09 008 -11 -57 -07 -11 -20 018 000 043 -50 028 -38 015 014 012 025 -31 -39 -10 036 -04 042 -47 -17 -02 017 005 025 028 008 024 -32 
-29 050 009 -01 -28 017 023 045 030 015 -13 045 001 006 014 049 024 -26 -24 -35 015 -32 -12 -38 017 008 -24 -05 027 002 039 -05 -31 016 -42 027 000 -31 -19 001 057 -60 -13 -41 006 -27 030 022 007 014 -43 -75 019 -25 038 -39 011 033 -26 002 000 -28 -36 -20 
039 -51 003 011 040 -34 -13 035 035 000 -16 -17 026 -28 044 057 024 046 -15 -31 -13 016 019 016 030 -31 -22 039 048 -55 -24 006 001 -28 -53 -24 -17 -08 -47 037 051 024 035 051 -08 -31 035 010 -11 024 -34 -10 -03 008 009 -13 -24 013 -33 021 001 006 -01 -42 
-15 -49 -17 004 026 024 018 -60 -10 -19 -03 013 -33 025 -12 002 -09 035 028 -12 -28 -20 012 002 -30 -10 -01 034 010 -52 -52 001 000 -12 -80 -13 031 -31 -45 026 -40 -63 -39 036 036 -45 037 030 026 029 033 -69 -34 -28 -45 -63 036 035 -72 023 -39 042 -32 -30 
-34 -44 -11 -31 -21 -38 028 -05 -37 -20 -37 -03 010 -08 -44 043 -28 042 020 025 047 033 017 -24 -28 031 001 -04 -28 -42 012 006 -42 004 -62 023 -01 014 033 039 062 017 026 001 025 -44 032 -18 030 -38 009 058 010 -04 -12 044 028 -31 -01 -38 013 -31 006 -25 
-45 -17 -33 -07 -52 -23 -22 -24 027 015 -16 009 -54 -06 -41 -19 -34 023 022 -10 012 021 -22 -22 -15 -05 028 018 006 061 023 012 -22 -06 081 -22 021 014 -37 -38 -68 031 015 -33 -10 014 -18 -23 -18 037 008 035 027 -38 028 070 -36 011 -39 -46 029 027 004 -36 
016 -62 -06 -03 -10 -40 012 -35 012 038 -31 -10 000 004 -51 005 -14 -02 002 002 -27 -20 -26 -13 006 -07 006 -24 057 005 022 -11 031 -06 -50 -32 -36 018 -42 003 017 -27 -17 027 -08 031 -13 -14 -07 026 000 -03 -33 037 060 047 036 027 025 042 -12 001 -11 -43 
033 -28 009 -09 -53 -19 029 026 -02 019 -31 -48 005 014 -33 006 016 035 008 -09 -41 -03 001 -32 -31 002 -20 -46 -57 -51 -53 -28 -10 -13 005 -34 008 -17 -43 030 -54 -10 -28 046 -44 001 017 028 -23 041 032 006 -09 -37 -52 -68 -23 000 005 -10 010 043 -24 -31 
-27 -50 022 -23 022 -04 -31 -05 020 012 037 -33 -20 023 001 071 -30 -14 008 029 039 016 022 -16 016 012 -24 -46 005 -69 041 -12 021 -26 -20 012 -36 017 -07 040 049 -43 020 045 005 036 011 007 -09 020 -40 039 007 040 -61 -75 053 041 -09 025 -01 035 003 006 
036 -53 008 -10 -13 036 038 -35 037 -24 -14 005 010 032 -12 015 013 015 012 -12 015 034 -14 -26 -20 -18 026 -16 048 -13 045 037 044 -28 -20 033 036 -03 -39 011 -40 -06 024 -22 -28 -17 039 -37 -22 -07 -35 -29 -22 -06 -15 006 035 -18 046 -07 044 -31 028 012 
008 003 031 -12 -15 -40 -13 054 -42 029 -19 -30 -25 019 -06 049 007 -26 025 002 020 -39 005 040 -21 -18 -19 058 024 023 -40 044 018 024 040 -10 015 011 -09 007 -06 -11 020 -02 014 025 -38 002 -01 030 -12 -20 -15 -23 014 -19 -20 017 -47 -07 -25 015 004 010 
-17 -14 -27 -02 040 -43 -06 -54 002 006 017 000 015 -18 -43 042 022 -47 -30 015 030 017 026 -05 -08 028 012 074 054 027 -28 022 -42 -21 -73 025 031 -30 029 -37 062 009 022 -19 008 035 -06 038 001 035 029 002 -03 -19 044 -33 -47 007 017 -28 -27 -19 -28 -39 
-25 -11 027 005 -25 -58 008 045 -28 -29 -14 036 005 027 008 048 -08 -23 014 -39 -05 -30 -04 022 010 006 030 055 -38 043 -41 -31 -30 024 -01 -30 017 028 012 030 -22 -27 -16 -47 -44 015 040 003 -33 012 032 -62 038 017 034 058 -53 019 -55 040 007 046 034 -41 
-34 -18 028 002 031 012 -39 043 -10 -07 035 -03 006 -15 -40 027 -27 014 024 -02 -25 030 -23 -08 022 016 -04 045 -38 053 024 035 008 -13 007 001 010 -06 -04 029 038 -54 026 -26 025 -28 -06 -42 021 -36 -15 -24 -36 -49 -53 -32 006 030 -20 -07 -07 -37 -25 -16 
019 036 017 024 034 049 -22 -30 007 009 -17 -47 004 -35 036 -39 -13 049 004 036 -44 -32 -31 004 009 -35 -38 -38 -13 -47 -36 -17 -25 -15 049 -07 -07 008 034 016 -58 019 -31 -11 005 -11 024 003 032 012 -26 -54 004 022 -22 005 028 -14 005 036 -44 037 018 029 
038 -11 003 008 -04 -37 044 025 000 009 -07 022 046 -15 005 -18 013 -23 004 -24 033 034 024 -30 -25 -23 031 048 -21 050 013 022 -34 -23 -36 -29 -20 009 051 -05 061 -49 -30 021 035 -46 021 -10 -16 -02 -11 045 008 013 054 046 -40 -28 015 -31 -43 027 020 009 
-01 027 -33 -19 052 011 014 -14 031 -38 -15 030 048 -13 051 032 029 -04 -35 -28 -06 002 008 028 020 001 -23 046 -52 -32 025 -32 -37 015 010 020 -17 020 -34 012 -52 024 -25 -32 -37 -16 -19 031 -06 -24 -36 037 010 -06 042 -41 032 -36 -09 015 016 -14 -31 013 
-27 018 027 012 008 040 033 -27 002 -35 -09 038 034 034 -40 008 002 017 -25 -08 041 -08 -24 036 -03 -14 -11 -57 -38 056 -09 -03 -38 -19 012 -28 027 -14 -40 040 -16 -33 018 016 041 037 -09 -40 024 -37 023 -12 020 012 025 057 -52 025 -04 -18 -01 -31 018 017 
-33 016 -02 015 -40 000 010 015 016 -22 039 035 031 001 -50 -02 -30 -20 -18 -29 -27 030 015 014 -02 -19 -03 -64 -55 -56 038 -19 -44 012 -07 002 -38 -07 041 025 049 026 -05 031 028 -01 -12 -16 -34 -01 029 -10 -29 -04 -10 -48 -22 038 -19 -02 -05 -37 005 023 
008 056 -36 -22 060 -23 003 018 049 038 036 -48 -46 031 -50 -39 -01 002 016 -12 005 -40 033 041 011 -33 -04 003 -25 -62 001 010 -12 001 -66 011 018 029 003 026 -57 -06 -01 005 -37 -23 046 -06 014 -39 016 -53 -20 -30 009 -15 044 -26 027 007 -33 040 -10 038 
042 012 -24 -09 -29 029 -03 025 -21 -24 -14 -19 015 -13 -31 063 -12 -08 001 -14 034 013 -14 -23 -24 -11 -12 025 -15 063 -40 -33 -43 -24 011 034 032 -36 027 -08 -19 024 -35 -17 008 -42 032 -14 029 002 -17 069 021 -37 049 -18 -32 044 -12 -33 -01 020 -16 -29 
-27 035 017 -22 -41 -23 034 -43 041 -10 -35 045 017 028 -28 035 000 -45 030 024 -44 -16 -01 -08 -31 -33 038 -64 003 -42 047 023 -15 003 -31 -26 -28 024 022 -13 -45 -42 015 -33 045 023 024 005 -13 028 029 059 011 025 054 047 030 043 -05 -13 022 -39 -33 -02 
-26 -17 002 -15 005 -40 -19 -21 002 002 -31 006 004 -17 011 001 024 032 013 -24 -21 -10 -40 -01 -03 012 -35 -10 000 009 027 -46 -19 -09 043 004 -18 011 025 -26 036 -64 012 -49 011 002 -07 037 034 -09 -41 010 -24 -29 -45 036 -40 -38 037 019 -36 027 036 -42 
042 -30 -28 000 038 -08 -17 052 -18 015 -22 035 044 022 029 012 -31 012 017 019 -49 032 034 018 -13 -12 013 017 036 -39 016 -11 028 004 -53 -32 031 029 -46 -23 -13 -34 -24 033 -22 017 027 -25 -08 -35 038 -63 009 -37 -42 -43 -03 009 -34 019 -40 045 -04 024 
018 056 -36 030 001 044 001 -30 036 -34 -16 -41 -17 011 -47 -44 -02 -07 -23 022 -39 020 -32 -33 -10 -31 011 041 -19 -69 -27 -15 -39 010 -29 021 -31 027 038 -11 -59 002 -06 013 027 -23 -45 -06 026 040 -40 033 009 -10 028 -61 050 -36 025 -17 -16 024 -18 -30 
028 -38 -35 -22 021 -25 -26 -14 -12 015 023 -21 -07 009 005 042 001 021 -05 -36 -14 013 -09 -04 014 034 -25 062 -06 -45 026 035 -29 -16 -46 -04 020 034 034 -37 032 -32 -17 -19 -30 024 026 040 027 021 -09 -38 -34 053 054 058 061 -26 052 019 010 -20 035 010 
-35 009 005 -08 -40 016 024 036 022 005 -27 040 033 -20 031 -32 -13 -54 022 -33 012 028 -13 038 -04 -11 -02 015 -27 055 036 000 -09 009 -31 -03 017 -02 010 033 045 -38 036 -42 034 010 032 -39 -32 024 004 -09 023 006 035 -69 -44 015 005 -06 033 025 013 -32 
-34 034 018 015 036 038 -15 017 -13 011 008 025 010 001 -28 046 -13 -11 -11 -13 -47 -37 -08 -16 023 034 -42 -38 039 -22 -25 -44 -45 -06 -40 -24 -16 014 -06 031 010 015 -39 -30 029 042 -09 -31 -04 037 -03 004 -11 008 -04 -15 -29 -46 -25 -40 -04 -48 010 -01 
032 039 006 -27 001 -21 039 039 -18 016 009 008 -41 001 004 -31 023 -45 010 -27 -46 024 014 -02 -14 017 -29 -17 007 000 051 -17 -02 -22 -03 018 -09 -22 026 032 003 -05 -09 -31 -25 025 -19 008 -36 002 039 056 006 -50 -49 047 -52 039 -08 001 -40 026 -23 -03 
011 039 023 002 000 004 -15 021 -16 028 -14 -47 038 -17 027 -13 -19 -32 029 035 -18 000 -09 036 -29 023 022 -28 025 -49 -34 -19 -32 -13 -52 029 019 028 -26 040 038 -24 013 021 044 035 -34 035 -40 006 -13 -66 -29 -32 -51 049 -39 028 027 -26 -30 036 -25 -33 
017 020 010 003 043 -58 -33 -47 013 024 -31 -23 -03 007 009 -14 -13 -34 001 032 -42 029 -40 017 017 024 023 -29 029 -50 048 020 030 -13 036 034 -17 024 -25 -37 054 -01 -28 -21 022 -04 022 038 003 032 -25 053 012 015 029 058 018 -23 047 041 -41 -47 023 012 
035 -50 -05 009 -25 000 -41 -05 041 -14 000 002 047 -29 044 001 010 055 -22 023 -44 -28 029 009 031 -09 037 008 049 021 038 039 -37 -27 065 -35 019 -03 006 020 -22 -26 -23 -29 -23 -33 009 017 -10 021 030 -48 038 023 032 025 -24 028 031 022 -24 -47 -33 -08 
-37 -16 030 -30 011 -10 -04 -17 -14 015 024 -41 -37 -20 026 000 -31 000 -28 -17 028 -13 -19 -39 -28 -15 028 053 -49 041 -33 016 -04 -20 -22 -08 024 011 041 -37 043 016 034 020 -36 017 -35 042 012 021 009 -52 028 002 -43 010 -08 039 044 -29 032 038 015 -08 
-24 040 -30 013 -18 -33 027 054 -33 -23 006 -17 -02 014 -04 029 000 003 -33 036 -44 -02 -23 -21 -20 016 -37 011 007 035 -15 -48 011 006 -01 012 026 -03 003 -02 040 -38 -11 017 038 -28 -44 029 -29 -31 -07 002 030 018 -20 054 -29 -31 022 041 009 034 -10 037 
035 056 -17 -01 013 031 027 -63 -23 022 032 -22 028 034 -02 028 -20 -19 026 -21 014 -28 007 -30 -01 020 -29 -18 -43 007 021 -18 -18 018 044 032 010 -37 049 035 -34 010 039 008 023 013 001 -44 008 -28 -26 -15 023 014 001 -79 021 -16 -08 -26 042 -45 -20 -37 
-05 038 025 -10 013 -39 038 007 -45 002 004 043 027 -31 042 012 -20 -25 -33 -24 002 007 -35 -31 -31 011 -03 007 039 051 024 002 032 029 039 016 010 033 043 009 -47 -48 032 -22 -48 036 -42 -09 001 -26 037 -60 -04 011 -20 -16 000 040 -34 015 -03 -40 023 -32 
-14 -45 018 -14 058 029 -04 009 028 011 003 -09 -34 021 047 047 -15 -36 031 019 -01 030 027 -39 -27 021 -12 -07 000 -69 014 038 -19 014 025 -09 018 023 -05 -02 013 000 -11 -33 -17 046 011 -14 018 024 -19 003 011 051 024 070 000 -29 011 019 029 021 -12 002 
-12 007 -13 007 -28 050 -38 002 -03 -14 -08 -48 031 -28 051 -40 -36 -30 016 012 040 001 012 -31 031 -20 -22 -28 048 -29 -50 -19 -33 002 026 027 007 024 031 -24 007 -45 -27 -48 034 033 -41 -03 -01 038 018 -71 -32 039 018 -26 036 002 008 -09 -38 -46 -02 -41 
-09 013 -26 -30 -47 -32 -46 004 006 -39 035 031 -41 001 012 041 -25 -31 025 -29 029 037 -23 024 027 008 026 031 -58 002 -38 048 -23 019 010 022 029 009 -44 -27 -61 -45 004 -02 -25 -38 030 -30 -22 028 019 -35 033 -05 016 -11 015 030 036 -39 -05 -12 010 020 
-27 002 021 015 -08 -55 -11 -53 -28 036 -29 -18 007 -04 048 -09 018 051 -03 007 -33 -01 039 -31 018 -13 -03 055 032 -47 -48 030 042 006 -25 -26 000 -20 -12 034 046 -17 -23 030 -28 -22 -42 025 -13 010 -40 010 026 044 -07 068 -59 -35 039 036 004 013 -36 021 
026 022 -26 -18 032 022 -30 -30 -28 -04 -18 029 -32 -01 -05 -17 017 040 023 015 030 -41 -35 -32 -33 000 -33 -24 -51 049 020 017 004 010 012 -33 006 -38 -38 -40 -08 -08 028 -31 -37 -45 -04 006 006 026 -10 029 -09 012 -12 -33 041 042 -33 -36 016 027 035 034 
010 -02 -23 -05 027 048 026 -17 014 -28 028 032 004 027 -50 010 -36 -51 -11 037 -14 028 016 034 010 -30 -25 062 -61 -72 023 006 007 027 031 026 -06 016 -51 003 -56 041 -23 040 021 020 002 -09 014 -44 -30 066 -40 -30 -10 -54 060 037 010 024 009 -18 -02 -39 
-29 -32 008 -19 045 014 -53 -11 -06 -17 036 030 039 -03 -19 024 -02 038 -07 -36 034 -24 024 -42 -32 -31 -22 003 012 037 -19 -07 030 011 -19 034 -20 020 018 -39 -56 -16 041 035 042 031 -14 009 -40 -16 -36 006 038 -43 -08 058 035 -10 045 -08 -30 -29 -35 -22 
-16 -13 013 023 049 -58 -21 -47 -22 -24 -10 007 044 -04 049 027 -36 004 -27 015 001 -09 023 041 024 -04 -45 -25 -42 -18 -08 020 -02 -09 055 024 008 -02 045 -27 -68 033 -03 -12 022 019 035 -25 000 -20 -07 -17 -06 010 031 -42 -15 -10 -32 -47 000 026 -27 005 
003 -39 009 -08 046 -56 -33 043 -16 -16 021 -49 006 -32 -21 -33 -23 010 -21 -21 -05 017 017 -14 -27 026 -06 -07 -33 012 044 020 018 005 -26 027 -36 -25 -28 -31 000 -25 -24 044 030 017 019 -07 -09 010 -14 050 -01 027 -49 -63 -15 038 029 -30 041 -21 010 022 
017 019 -02 008 023 040 -36 057 -05 -27 020 -19 024 001 020 025 -32 036 -04 021 -17 -05 -15 -36 026 -04 028 035 -38 067 -39 041 -23 -12 -23 -38 -06 034 030 028 035 050 015 -31 023 -32 002 004 014 039 -17 057 -12 -26 053 074 -14 020 035 034 020 -37 022 036 
020 001 024 013 044 039 -48 023 -04 -27 008 001 -66 -10 013 -76 -13 045 -07 -31 -33 -18 015 -21 014 -22 020 018 060 -57 040 037 -36 -26 020 -01 -29 -17 -02 -35 -31 037 -01 -50 029 -20 -24 012 006 -33 -26 -57 -22 -29 -51 078 004 -14 048 -01 033 035 -38 041 
002 -23 030 -24 055 -02 -19 023 033 -24 004 -37 046 -24 011 -44 004 046 -28 -21 008 036 -06 -04 -23 019 -23 057 040 -39 045 043 -29 -31 -25 -26 -28 027 -16 -36 021 -38 -29 -19 031 045 016 -11 -03 -30 011 042 008 -39 -25 039 -29 003 -61 039 -43 042 024 -01 
-01 -13 021 -26 -24 003 -09 -20 -27 -35 -28 046 027 -19 -06 010 -30 009 -24 -01 022 011 -14 040 007 -30 -42 -08 048 023 -38 020 -30 -15 -35 030 004 -12 010 -18 -14 025 012 -34 031 -04 -38 023 012 038 -05 066 -24 -17 037 -06 049 018 018 008 -04 045 -35 -41 
-02 018 -22 -06 025 004 -26 055 045 -35 035 033 048 029 -06 043 -14 020 -04 023 -15 025 007 -42 -10 003 -18 003 -37 -20 012 -25 -46 007 -59 -15 -10 029 020 -04 004 -12 -33 022 037 037 007 -13 019 -37 010 080 017 015 036 -68 036 033 049 -30 -12 -18 001 022 
-10 031 022 -20 040 014 034 000 -29 -13 -02 044 048 -33 -54 061 -02 -10 013 002 042 -05 022 -31 025 029 026 -54 055 -09 034 -19 023 -15 -54 -33 016 -27 023 -24 003 -03 023 022 -16 -36 043 020 000 -16 -40 031 -11 -17 -53 -71 -52 -18 011 026 026 012 -27 030 
022 021 003 013 024 011 039 -48 040 006 020 008 -29 -06 032 011 -02 034 -26 025 013 039 -18 -21 -10 033 004 037 003 -27 -37 -42 018 018 043 -07 -29 031 -05 -37 021 -54 001 -15 -08 -39 -16 -40 -28 036 -38 041 -04 -48 -06 -33 -42 -49 -14 -48 -38 -07 012 037 
-37 -18 -25 025 -09 -08 016 -30 -19 007 016 -46 050 015 028 -28 009 -15 -34 -29 -49 -27 -40 -41 009 -26 -15 -46 047 008 -33 -40 007 025 -15 032 014 -10 042 030 017 037 028 -40 015 -16 006 -02 015 024 013 068 035 -29 042 -27 051 -19 037 022 -14 -05 005 008 
008 -62 012 -18 033 -24 -28 014 -23 -22 -40 -42 048 033 -42 017 -07 009 021 031 -31 -23 -22 037 -24 004 -18 055 032 -45 041 018 -06 011 -49 -32 019 -11 -13 009 030 -34 -36 017 007 039 -41 -37 013 -03 021 -07 027 -43 -51 -74 015 -10 041 -05 020 -31 -14 -03 
042 010 025 -30 051 025 012 003 -14 025 032 -20 -41 -17 -60 030 -20 -20 -20 -38 -24 -32 -33 033 000 -28 -37 -32 -31 060 002 -39 005 -18 032 031 -12 029 049 -17 -41 -20 031 -04 046 014 000 040 -33 015 -34 017 -30 031 -26 -03 -61 033 -06 -19 020 021 -16 019 
-01 047 021 -31 023 -08 041 021 -26 -06 -35 017 007 -02 045 006 -33 -43 -17 -21 -12 009 030 005 -04 -02 020 037 041 -58 033 -20 -22 -29 052 -37 -23 019 011 022 -61 009 007 -08 039 039 -04 -21 033 -31 003 021 -06 033 -21 069 -53 -37 038 043 012 -18 016 -39 
-17 -11 024 011 048 044 030 -55 019 -33 003 -24 016 -24 031 016 013 054 019 038 037 040 000 020 -12 -21 -10 001 028 022 022 012 -38 -19 012 018 -12 -19 -50 028 004 001 -07 -19 -48 -27 -21 013 034 -26 022 -51 023 006 047 025 -61 022 -20 009 031 -12 023 017 
030 043 -06 -31 -37 -15 -48 017 -44 -27 -12 -46 -46 -32 -46 046 017 037 017 027 000 006 009 -18 -10 -29 -29 -28 025 -01 -35 -17 015 023 -09 -27 -18 006 -21 021 021 003 034 001 -42 -03 -12 -05 -01 -32 -18 -62 -11 036 -24 065 -12 -15 -04 011 011 -03 -22 016 
-38 039 -19 -05 053 021 014 -07 -39 -33 008 025 000 -01 -53 -22 031 -51 -32 026 -16 016 -18 022 -19 -17 035 035 -31 028 038 -45 018 005 -59 001 013 033 048 006 001 -32 -40 -34 -23 034 -41 028 028 017 011 015 018 037 -43 -68 039 036 -52 027 027 025 -17 010 
-32 008 -16 030 -31 039 010 019 -11 -28 -16 008 028 -34 -28 -42 -35 042 025 032 -39 -18 -06 013 -33 029 022 -59 055 016 047 027 021 016 -29 015 -35 -28 051 -23 -26 015 -38 030 -30 -07 035 029 -34 018 -04 001 010 036 027 054 054 006 -30 -29 028 042 -13 -34 
-35 -46 028 -15 015 -19 -44 009 026 -26 -17 -26 000 026 -10 031 -11 066 006 014 -32 017 010 -12 030 012 -30 019 -52 014 046 006 024 -20 -02 033 -17 -34 -35 -19 054 079 008 026 011 012 006 036 -02 -23 -13 064 018 006 003 -38 037 -15 -34 000 -39 -34 017 010 
-27 033 -25 -02 006 -35 027 -16 024 021 000 049 -01 -18 -02 -29 -34 018 -28 -38 -06 -30 -04 -07 011 -31 -15 032 013 -56 -20 043 -08 -29 005 010 -29 008 005 029 -14 063 031 -30 008 -35 -22 006 005 027 041 059 007 -53 -28 033 -27 -13 -15 -12 -13 003 001 007 
-11 -05 -09 027 -36 029 -07 058 -25 002 -38 -24 -42 001 002 -21 -36 -54 005 -12 -03 025 -10 030 021 017 -26 030 -20 023 -30 -19 -18 -10 -52 -37 023 -24 -11 -18 -47 -42 -06 -04 004 -35 010 020 -32 -02 -24 054 -36 -47 -63 -58 062 -06 -41 -07 005 037 014 -03 
042 -64 -36 -10 054 -28 036 -58 -43 034 -19 039 -08 030 012 020 027 055 -03 022 020 020 -27 020 021 015 013 063 -29 -41 -44 -19 -07 -06 -44 -07 029 014 -49 022 029 041 -22 -38 -38 -24 -01 022 -38 029 005 003 -35 -44 -12 043 -20 -47 047 -19 010 -26 -06 -28 
-42 -15 017 -21 -05 -10 043 -50 009 -09 -14 -15 025 027 000 028 005 -33 013 015 -46 013 005 -31 -34 -29 014 -16 009 -32 -31 -06 030 000 -09 009 -32 -33 010 -11 050 -60 -43 -06 -08 -17 -06 041 -37 -39 011 012 -16 -52 019 054 024 -14 -24 -02 -37 024 -27 -35 
021 040 -36 027 -49 028 -37 042 004 005 -11 -12 -36 -17 -03 -14 -25 015 -17 -19 -31 037 -35 -01 -23 -05 -09 008 -34 -25 -48 002 009 -18 042 -15 -11 -29 014 -27 064 -63 -09 015 -30 010 044 -33 015 -02 031 -52 -32 010 -32 038 013 -38 -36 007 -29 -07 -30 016 
-13 -13 013 030 001 027 -33 -28 017 -11 032 -42 018 017 -32 030 033 -46 -19 011 -11 -29 009 -37 015 029 010 003 003 052 -28 036 -32 002 009 009 -13 -07 -13 -27 -24 056 028 -16 042 009 -48 -26 -17 -44 023 -49 -06 012 -27 064 -14 025 -03 009 004 -22 017 -23 
-18 056 029 009 047 -04 008 -02 039 -19 -40 -35 024 -21 048 -36 -01 014 -13 -26 -13 -06 -11 044 028 -13 023 -13 -49 026 -38 -31 012 -18 018 017 013 012 -26 -38 019 -62 006 021 -02 -20 -28 -18 -24 -05 029 -14 033 014 -43 -34 038 -05 -09 007 023 -22 002 -13 
-36 -37 004 007 061 -35 007 035 -06 009 -40 040 058 008 010 -13 009 -51 002 -08 009 -02 -15 034 022 011 -21 009 024 060 -48 -45 013 000 -44 -19 -21 021 -47 019 -37 -01 010 008 036 -04 035 018 -34 030 -20 -43 025 016 034 018 008 017 -39 007 016 015 -17 -42 
-35 -02 -17 015 -06 033 044 -09 044 -32 -25 -26 -33 028 -56 011 -10 045 -05 014 046 -01 030 015 004 015 -21 054 013 -09 -43 -33 -31 -09 013 001 -12 -21 -19 032 -66 -45 000 037 -12 -22 041 -23 031 035 -14 025 036 005 -14 -42 053 039 000 024 -10 -43 -05 014 
-37 -51 001 000 -03 -24 030 041 038 025 020 -18 -04 -25 047 -42 014 -02 -23 016 025 -44 029 -15 -21 005 008 008 055 028 048 025 -06 -06 040 032 -27 021 -27 023 -67 051 026 031 -40 -18 009 -18 -17 -04 009 066 035 036 -20 010 -58 -50 024 030 006 002 018 -40 
040 038 024 -34 -28 046 -25 -01 -23 -04 036 -22 032 006 043 001 -36 014 006 006 -14 -04 022 -28 -32 -21 -06 045 017 024 -03 041 012 007 -10 019 018 012 -14 004 049 -48 -15 -13 -44 034 -34 -41 -40 036 -28 -24 -32 -50 -56 010 -17 002 032 013 -05 -16 034 -21 
023 043 022 -20 002 007 -01 -40 024 006 032 040 020 016 -46 018 033 -38 008 -27 004 -35 -10 023 009 013 -05 039 -61 -06 046 031 013 -07 046 005 -32 -01 043 -17 060 -29 023 007 -36 -30 -39 -21 002 -43 034 009 -38 029 -41 -03 -59 -25 012 -29 003 -01 007 000 
-02 035 -03 014 -03 -14 -04 036 037 015 006 -03 -10 032 047 -21 -19 -21 015 007 009 022 031 -38 -25 020 013 034 028 -58 016 -36 027 007 030 000 004 -21 -16 -06 -34 051 -37 -42 -38 036 -04 -32 -33 011 010 035 -14 042 -05 063 017 014 017 -46 044 016 002 -28 
-08 -14 032 -12 -33 052 -42 -54 -30 -01 009 -05 027 025 -18 004 -10 -17 -02 -35 -01 -12 006 -44 005 012 -04 020 045 -45 016 016 -19 019 -28 -20 -29 -02 001 035 -27 -28 -34 028 -14 -32 -12 031 002 021 004 -13 -14 -52 -04 026 040 033 -15 015 -45 -32 -03 -42 
-38 -06 011 -24 -07 -07 031 -50 -24 032 -09 -22 024 -13 002 040 034 -46 -21 -06 -20 -23 004 010 009 -08 -14 019 030 -10 034 -50 -08 013 -52 029 -29 019 016 040 -09 040 023 020 011 030 -40 040 -22 -05 -11 014 012 014 -58 045 -44 -31 004 -03 -26 020 031 025 
-36 -17 -33 -15 -73 -10 -14 -62 003 002 -23 008 -62 -16 -10 -17 -13 001 001 -31 -03 -30 -37 -12 -13 -11 -34 -09 028 032 -20 -46 004 010 -32 -34 029 033 039 -33 -38 001 -36 -58 -29 -37 -07 -05 033 -33 025 049 025 049 042 078 041 021 -58 006 011 005 -36 -13 
-25 -61 015 017 054 -21 -15 017 019 -03 001 -22 -36 -27 -46 -36 -22 -10 010 036 -21 028 -19 -30 003 007 010 -39 -59 063 -47 -16 013 -25 -13 013 020 -06 -17 031 -20 045 -15 -27 -25 019 030 -44 015 041 -40 -27 -12 032 -23 -51 -22 018 -13 007 004 -47 -23 011 
-12 -37 -01 028 -47 047 030 -04 006 020 024 016 -28 018 -02 022 -17 024 013 037 -10 -39 -19 -21 -29 025 -06 009 046 -27 017 041 -41 016 044 -17 -10 021 -51 -22 -59 -36 015 -42 040 -33 -39 -16 026 -26 -09 046 019 -02 -08 -27 052 009 024 015 023 012 032 024 
002 -41 013 007 005 -26 -44 058 024 -31 040 028 041 -30 047 056 003 041 -05 -33 039 -17 -12 005 -32 -11 -06 021 056 -12 -26 002 008 004 -53 -15 017 -10 -50 031 -42 -18 027 -44 -39 -19 046 -31 -39 -08 024 034 -13 -38 009 -24 -42 -29 -66 -03 -38 000 -11 -39 
024 -30 -16 -31 -61 020 012 009 -34 -31 038 -26 023 -29 001 049 018 045 026 020 026 -27 035 -05 028 -22 036 -39 -44 -63 -24 -32 -27 -27 056 -08 -14 -16 051 -35 013 071 -53 042 -17 032 019 -32 036 -06 042 065 -33 020 006 -66 017 -11 058 015 -37 031 -03 -17 
-27 -24 030 -24 045 014 -08 040 040 -24 002 -33 -12 023 005 -05 -17 -15 010 -09 001 036 -07 007 003 015 -20 031 042 -38 -38 002 001 009 003 028 -26 -16 005 -10 054 -01 -09 030 -14 -28 -19 021 -06 001 008 -40 000 -09 052 018 033 -46 017 025 032 038 011 036 
-25 -17 -36 014 -13 010 001 009 019 018 004 038 -02 005 -49 -05 -06 -04 -20 018 033 002 035 020 -32 -20 033 -56 -39 067 -26 002 -04 023 -63 030 -31 -22 -07 015 -27 -17 040 -23 001 -14 -43 000 030 005 007 036 -17 -30 023 052 -23 026 012 010 011 001 006 -23 
-36 056 001 -20 010 -57 037 009 -07 -29 000 -49 029 027 -22 -25 019 020 -11 -21 -32 -17 022 015 -30 -34 014 -21 -46 -51 -44 -51 -47 006 -26 004 031 -01 -04 031 -09 028 -38 000 003 -29 012 -35 -32 026 -34 -30 036 -35 003 -69 028 -24 -63 004 -35 -22 -35 030 
032 -02 -16 031 -20 -46 -16 020 025 005 024 -01 -52 011 -50 022 -22 -28 028 -35 021 -14 016 013 -32 021 -06 -29 -21 -42 -03 033 -21 -17 -45 -36 -20 -30 -37 -07 -40 -07 -36 027 -34 -24 -39 -11 -19 026 028 050 -06 017 -51 -45 -23 -47 -39 009 015 -35 022 -02 
-03 058 006 004 -08 -06 -29 005 004 -31 011 017 024 001 -12 027 -09 -03 -19 -23 -05 023 011 -26 016 017 -26 -05 -23 042 -44 000 -22 013 004 005 027 -20 034 025 008 -26 -15 030 037 -20 047 034 -26 031 -09 -40 019 011 008 -45 -35 -12 -37 -30 025 046 -20 013 
-12 -57 024 017 -16 -25 033 -38 025 -35 013 002 -12 -07 -23 058 030 069 -16 -20 -28 -04 -24 040 -28 -31 -04 011 018 -17 047 -48 038 -19 038 -17 -18 -29 017 -17 034 040 037 -10 -45 -13 -50 032 -39 -40 041 028 -02 -19 005 026 052 045 016 -16 -07 -29 -22 037 
-07 037 014 -05 026 051 001 -60 -30 -33 016 -04 -01 -14 000 -52 023 -06 025 017 -45 -20 -23 -26 -20 016 -17 -56 053 057 013 036 016 027 032 -29 -10 -20 020 -28 050 -10 003 012 -36 -20 041 026 026 018 003 -14 025 004 040 -62 002 033 -40 040 -46 -30 009 -42 
011 047 018 -23 051 041 -29 007 -28 023 -20 -36 045 016 039 -33 -01 055 -32 034 -07 025 003 031 002 023 034 062 053 016 004 -38 -34 -05 -38 -04 007 -31 -25 040 006 040 -18 -01 -29 -38 031 -40 -39 -44 -25 071 003 047 026 054 -08 -30 -07 -24 -42 015 000 009 
039 -58 025 029 -35 -16 041 022 005 -40 035 038 054 -20 046 016 -23 028 -07 -06 041 -12 -26 026 -32 -28 033 044 034 -25 035 -05 025 -14 -11 -21 -04 -14 -52 034 -44 -04 044 029 -22 036 021 035 005 006 032 041 006 030 011 -11 -15 041 002 -19 -41 032 -32 030 
016 029 030 -21 -27 -36 -15 051 012 000 -29 004 043 023 019 -25 012 028 030 -19 040 029 034 -17 -10 -34 -43 -21 -61 052 043 045 003 -22 015 020 -32 026 -04 -21 -13 -46 -21 -31 -28 -35 040 -42 -05 015 003 019 -23 -01 -61 067 004 -39 031 041 -04 -06 -05 -36 
008 028 007 025 026 013 038 -36 001 038 -10 -09 -10 018 019 039 -03 -49 016 021 -22 -02 -04 -43 017 -19 -13 -26 -60 044 039 -35 022 017 -19 025 -31 -24 -17 039 -42 028 023 -37 -30 037 -49 005 -18 -16 016 026 004 028 -14 059 -43 038 008 -43 -03 -26 -12 016 
-04 013 026 016 055 010 -01 -58 042 019 010 -07 -02 -08 004 052 -35 051 020 -37 019 -09 -12 -33 008 -21 -36 -20 -59 000 -24 -47 -20 -08 -04 -05 006 -27 025 -42 -08 -22 013 -33 -14 -21 003 000 -35 -03 -43 -35 -07 -54 052 016 -40 043 -18 -37 -39 018 -24 019 
-15 026 022 -14 040 -38 034 022 -31 029 038 013 -27 006 040 -06 -15 -17 020 -30 023 038 -32 -09 -21 -09 -01 -28 049 -51 032 015 019 -21 -47 -32 025 -12 -40 001 045 -46 032 -29 018 -18 -38 -34 -09 -31 031 007 029 010 -58 -05 056 -08 025 -12 -28 -28 020 018 
013 -50 -28 028 010 022 027 038 042 020 011 014 042 009 -27 024 -25 052 -13 031 -03 036 008 -29 008 -11 006 045 033 032 009 -15 002 022 -36 031 010 -03 032 003 -01 003 -42 -12 -32 006 043 -41 035 014 -18 -49 -28 034 033 049 -59 002 -37 035 027 030 000 019 
-30 005 011 -20 019 -50 -11 -23 010 -36 -25 000 032 -31 -09 -13 009 -28 -32 -18 -04 -28 -30 -18 009 -33 -33 027 -44 -16 -35 -06 -19 016 -28 023 006 030 -35 020 -33 052 -44 -09 041 002 -30 -19 -24 002 -07 -52 017 -34 008 -16 -44 -41 -05 033 026 038 002 011 
036 014 -28 030 -42 002 017 -35 -32 020 040 008 021 -26 003 -48 -04 -59 001 -04 -13 -03 -37 -17 016 001 -38 -56 027 040 025 -12 -45 -14 033 017 007 -17 -19 011 013 -34 -25 040 024 016 000 -34 033 -30 -35 016 023 051 017 055 -48 044 -28 031 -23 -48 -32 -20 
035 -09 003 004 001 026 026 042 -20 030 -35 -40 060 007 -15 -25 -34 039 -26 032 -13 002 030 -31 013 028 -11 060 024 041 -52 -22 -15 -06 -50 -05 -24 010 -47 -26 020 037 -32 027 039 -29 -27 -21 -17 -15 -41 075 -11 004 -52 -25 -48 -20 036 -01 -18 008 036 -09 
007 -25 016 022 -11 034 002 001 -32 -33 -32 023 -11 -29 -41 -48 -08 -10 -28 -04 -49 -24 -22 -06 -12 -22 019 027 059 -59 -38 -34 -04 -04 010 014 -18 018 -09 001 -63 -34 022 021 -22 010 -18 036 -38 022 017 039 -13 013 009 076 -52 042 -49 028 035 -32 019 001 
006 002 -12 014 010 002 -47 -27 039 -16 -23 020 -02 031 -24 -40 -34 -49 011 011 026 -21 -19 -31 013 026 035 -11 052 -42 049 008 -33 023 011 -04 -07 021 -27 020 -67 -37 -02 -02 -40 -33 -13 041 032 018 -33 -84 -29 -37 006 062 077 -32 -53 038 010 042 -22 012 
022 -29 027 002 013 -02 -37 058 041 -30 -04 028 -10 -12 -06 -46 -14 048 032 017 003 -40 -05 024 -07 -09 031 -07 -02 057 009 -25 041 006 006 -06 004 -31 -34 030 039 -47 026 -27 022 -42 -39 -08 -06 033 -08 -10 -19 -23 -45 065 062 013 -37 -14 028 -11 007 -43 
-06 -32 -16 -27 -40 -15 -37 043 -20 016 021 -05 007 -12 -35 053 023 048 -15 -02 -47 028 -38 -07 029 -10 -23 -52 014 -45 -25 004 -02 -26 -61 -12 -13 013 -42 -20 -22 -33 -36 -25 -47 -04 -48 -09 -11 041 -20 -20 -38 014 016 051 027 -17 030 -35 005 008 003 032 
-03 054 -30 018 032 031 -10 037 045 004 -29 -43 -49 013 005 008 -35 -26 -02 038 -09 019 -36 043 -20 -23 003 006 -19 054 -52 021 -04 005 -42 -17 -14 -04 -09 -12 053 -72 006 -32 -47 -20 047 -25 -22 -33 017 -75 -08 -01 016 012 048 -23 -43 -32 022 -17 000 016 
038 033 014 -27 -29 -23 -40 029 -49 028 015 013 029 -30 -04 047 -10 -35 -23 -25 -26 013 -33 022 -24 023 -38 000 -21 -39 -20 -14 001 028 043 -30 -10 030 041 002 -37 -01 -13 021 032 -02 008 018 016 033 -41 061 -34 -48 006 -02 -08 -19 -23 030 -27 -24 -07 -10 
020 -33 -04 023 -29 000 -21 -40 -31 -08 -30 -09 -40 -07 047 019 -30 -10 031 001 -11 035 013 -22 -32 -32 031 038 058 030 002 042 035 -08 -33 -02 -31 -08 034 -10 -61 -08 -11 -47 030 -34 -03 004 015 015 030 -12 -02 017 053 -68 049 -34 058 -34 021 -41 -19 -30 
001 033 004 009 027 -55 -32 -04 -30 -06 -05 048 042 031 -38 053 -15 -40 -19 -27 -47 -04 -40 -03 -08 -33 003 -56 044 -59 -12 -39 041 -13 -22 003 011 008 -10 -29 057 -01 035 -30 -40 -29 -21 005 -22 -32 015 048 003 -23 -59 -40 011 031 044 -21 -42 -02 030 026 
013 -24 -22 -19 -17 -12 002 -54 022 008 019 -47 029 032 052 016 019 033 -13 005 -42 -21 009 -17 -04 019 002 -47 000 029 015 -17 -10 -31 056 003 017 -26 -36 -26 040 -45 007 -15 -42 008 020 -30 016 -04 008 -23 030 003 -13 -44 -70 022 -15 -18 043 011 -06 023 
-08 009 017 022 -37 -39 -01 031 -44 038 018 -27 047 -26 -12 -01 027 049 -06 005 019 005 -03 -25 005 -24 006 -30 018 044 024 -41 -02 003 057 003 -16 -16 -05 000 025 038 004 034 -36 035 -09 004 -25 -14 034 022 -20 -07 -25 057 058 -18 -21 022 001 -10 005 021 
