117 -117 099 -121 020 -128 -128 126 -104 -128 124 -128 125 126 -20 -122 122 026 053 -128 -128 096 112 126 -65 065 -128 124 -109 126 -127 022 -111 -20 -126 037 069 126 -45 -128 -104 067 -125 063 050 095 -32 -127 -128 -127 -128 -121 075 -31 -53 -20 126 101 015 126 009 122 -120 -94 
126 126 -64 042 -112 126 073 -110 078 -128 -113 126 -100 -128 -116 -15 125 065 -89 106 122 012 -110 -93 -88 -17 -24 -26 059 124 126 096 -110 085 119 121 117 126 -104 -127 088 104 -20 106 -31 120 094 -120 126 -123 -116 -124 078 -122 -56 -126 121 -107 -106 -128 105 126 -128 -95 
113 126 001 088 -94 126 -41 104 -127 126 124 -10 124 -104 -115 -121 -127 018 -128 126 126 -81 016 -119 -123 -39 126 -123 098 -128 036 124 -04 -15 124 -04 105 114 -116 -59 -106 -126 123 113 -101 070 037 -128 126 -126 -128 -115 -12 -118 -112 -125 -49 -97 097 126 -105 121 121 004 
-101 -128 -95 098 -30 -26 126 -128 079 -14 121 -21 -29 126 -66 -65 126 052 126 126 -120 023 -120 095 -18 003 -10 123 108 126 126 126 043 005 -124 097 -66 115 118 015 -88 112 120 -125 -66 -116 104 126 -128 123 119 118 061 -90 115 116 036 080 102 117 017 -128 -128 -55 
126 089 116 072 -73 -128 -127 -128 -38 -128 -128 -83 126 126 063 -25 126 -111 126 107 -128 061 -95 092 -125 -101 102 -85 -17 -78 105 120 -116 -25 125 -121 -07 -04 -41 -127 107 -128 115 126 -70 059 008 -128 -126 119 086 114 073 126 114 -125 122 072 -117 126 105 -120 124 -122 
-121 032 -75 113 114 088 125 -128 075 -86 099 -128 -128 -128 117 -126 123 -109 126 -127 -128 -11 117 -128 122 -13 048 -43 065 115 -128 -117 -111 -117 029 047 -102 -126 -120 -70 115 126 125 -128 057 -111 -101 120 126 -117 -125 -123 -67 126 112 049 -126 104 010 126 -105 060 126 121 
126 126 -49 -104 112 -122 -25 126 -121 -83 -92 126 126 124 110 -86 -128 -16 -128 -127 121 -122 -122 -84 124 -20 126 124 080 -127 -128 124 082 116 -126 115 -113 -99 -111 121 110 -126 043 -123 096 116 -56 -122 123 -126 126 123 -96 010 -97 -115 -36 059 110 126 048 042 122 057 
-96 126 -118 120 -88 -93 -113 -127 -122 126 104 126 -122 -126 039 125 120 -04 118 126 -67 107 -105 -122 -109 076 126 116 106 126 -128 -95 035 117 066 046 122 -79 -110 126 100 126 120 -128 -100 062 095 126 -114 113 -128 112 -71 -128 -101 090 -73 -87 122 -124 118 126 -91 -120 
-110 -128 040 -111 -104 -128 098 126 124 126 121 126 126 097 -53 -118 123 000 -16 126 -120 055 -24 126 082 -53 -97 -123 044 -128 126 -128 120 089 -120 123 123 -31 -104 125 094 -48 -102 126 -109 -79 112 -115 072 -126 -126 -124 086 -126 072 126 -122 085 -98 -127 -44 -128 -93 082 
-128 126 115 105 101 -38 -128 099 079 026 -128 126 -13 -128 -19 124 -118 103 -74 -126 -128 -123 -55 072 -123 -21 065 112 -124 126 094 121 055 010 -120 -14 121 125 045 -125 -115 036 -88 -114 -39 121 -118 116 033 094 126 113 -44 116 096 -22 -126 -10 009 126 -77 046 118 -30 
126 126 -05 107 -25 126 126 126 123 -128 125 -128 -127 -128 -92 125 126 078 -128 126 126 -124 002 001 -126 -93 107 124 122 -128 -97 -128 035 -120 117 -87 -53 -127 -99 -128 -34 125 -127 -128 038 068 -14 -128 -128 101 -106 084 -55 126 046 -84 -128 040 -78 126 111 -128 124 -124 
089 126 113 -39 114 126 122 120 -62 126 126 -04 126 126 -76 -123 -94 -79 111 126 088 047 074 122 -126 -95 091 -104 062 -128 -128 110 080 114 -112 -123 111 077 -18 -128 -84 -121 -126 126 -65 102 -104 124 126 121 126 098 037 112 053 -110 -127 -97 -77 022 043 -128 113 -12 
121 -121 047 055 -01 122 107 126 099 -128 -93 -126 126 126 109 124 -92 098 -94 126 -105 -124 -100 122 112 -62 -95 123 -78 126 070 -127 -117 -70 -98 -109 060 -87 108 125 006 -128 -68 126 -107 -114 -14 065 -127 -127 -73 051 -105 123 002 073 126 004 099 126 -116 -124 039 -63 
-126 010 114 116 -95 -128 125 119 -126 -128 -94 126 -128 084 111 125 -124 082 -44 110 126 -19 067 -126 123 -66 104 -36 -117 -128 109 -98 -19 -24 120 -70 -116 -128 -98 054 -77 -128 104 -128 -04 119 -60 111 -128 -12 -80 -97 102 089 057 106 -124 -66 059 -128 -115 120 -128 089 
126 -121 050 -84 111 -114 126 111 035 -128 -128 125 065 126 102 125 108 -59 -109 -125 126 006 -109 -128 -114 -56 110 099 081 126 -19 118 103 -117 103 101 -121 -93 -95 076 -11 123 125 -128 -36 083 -115 -128 -125 122 119 -125 -104 109 -109 115 126 -94 -51 023 091 109 095 -122 
093 126 -89 -98 -113 126 122 090 -98 056 -128 126 -128 126 089 119 -93 078 125 126 126 072 108 126 090 -88 -127 097 021 -50 -128 -122 117 115 -127 116 -01 -123 059 -03 083 -123 109 -126 037 -48 -120 -123 105 106 126 122 -73 126 -114 121 119 -12 111 -91 068 126 123 -32 
125 -28 003 -70 -25 124 -128 -128 -123 -106 117 -125 125 111 -80 -44 113 051 126 121 -128 101 -101 -104 -55 087 -119 117 -94 -127 118 124 099 119 -127 -58 -125 103 098 122 041 125 124 122 017 -52 101 116 -118 092 126 109 -37 125 022 -125 -128 -105 -117 -127 118 -128 126 -97 
-71 118 088 077 115 126 098 -119 117 -128 -128 -128 -123 -120 -01 -116 115 -113 123 -128 -128 -119 118 -128 -47 -14 -128 100 -45 123 -116 120 -31 101 -126 -82 121 -109 -88 -128 032 126 096 -122 099 008 108 -127 -128 111 -128 115 -89 104 -74 117 126 -36 024 126 -84 126 -128 074 
126 088 -57 -112 089 -127 093 126 -104 -128 125 126 126 126 -118 -30 126 -36 115 107 -55 -15 -119 126 114 073 047 -126 008 -57 -113 -125 -89 101 -122 066 -45 -127 -83 -127 112 -80 077 126 -102 -117 -119 126 -128 -125 115 107 100 040 -33 -78 126 -11 -84 091 -100 -128 -24 118 
124 -111 -72 037 -55 -128 -123 126 -122 -127 125 120 095 093 115 -115 -127 -100 -112 -119 -128 -113 -121 -108 -114 -92 120 075 -101 126 -128 119 -107 119 124 -118 -92 -37 045 109 116 -123 -70 126 069 121 092 126 126 117 -128 -119 -13 -96 -94 -63 124 -83 -109 -123 -96 106 -120 035 
126 019 -21 094 -114 -65 -128 126 -102 -128 -128 126 126 126 112 -125 -112 108 126 070 -128 -119 -82 -128 116 052 -02 121 -89 -128 -70 -72 -98 -122 -120 114 123 -77 -78 126 -09 -113 036 -128 -24 -41 -99 -127 126 -122 -128 098 -62 106 -67 -66 -128 100 -71 032 115 120 124 068 
-128 -128 101 120 089 -126 126 073 079 126 126 112 -128 049 -97 095 081 -25 -47 126 -128 -43 060 125 124 092 -95 113 123 061 119 126 023 053 108 -121 -48 112 120 103 100 126 -62 -128 -102 124 114 126 125 -118 119 106 088 124 -117 125 -30 -24 099 -128 090 -127 122 -123 
024 046 -112 -121 -40 -126 -128 -119 -118 -125 126 -128 -121 -128 062 045 098 095 -63 -128 105 089 -82 126 -123 -41 107 -15 104 126 122 004 116 -10 123 -117 047 126 -110 126 098 126 -60 -128 105 020 051 -128 126 110 126 117 011 -126 087 109 -128 063 -66 122 -109 118 -128 -58 
126 126 047 067 005 126 126 039 105 126 -128 055 -101 -128 009 -122 122 063 126 118 112 121 -89 030 -112 024 -72 -03 -90 126 115 -128 118 119 -116 116 -88 -128 109 125 -97 117 -96 126 -85 121 -58 126 106 -100 126 027 -43 119 -93 050 126 001 -23 -128 064 098 -23 -71 
126 -128 090 104 054 -128 -128 126 -127 -106 025 -107 046 -128 105 -79 119 -106 -107 126 126 104 085 -128 -124 -36 120 -118 111 -125 126 125 109 115 124 -121 -121 -119 119 -126 -107 115 125 -127 -105 016 084 023 -127 -21 -97 076 090 126 -95 024 -83 054 121 126 -58 126 -125 -07 
120 126 -46 -89 -108 113 -97 -128 -30 126 125 -128 124 023 116 -110 036 -11 126 125 -128 -96 115 061 -116 -75 -127 055 078 126 126 -54 103 -13 -64 044 041 122 073 126 -107 -128 116 126 013 -24 060 126 056 082 -107 071 004 126 -03 058 111 092 -121 -128 063 -128 -94 046 
-128 -122 -87 013 -64 126 -116 104 121 -126 120 011 -89 126 -115 123 122 -31 -127 118 122 -92 -38 -128 -85 -99 -128 008 088 -105 -114 -126 005 005 122 092 107 126 102 117 079 118 108 -113 -54 116 -121 126 125 114 -121 123 -94 -35 092 121 126 -99 016 094 -109 -128 117 -115 
120 126 -32 101 021 -103 -72 -128 -48 -113 -128 -116 123 117 -119 -123 109 101 -107 125 126 115 083 -128 -27 -25 -124 084 -02 126 124 126 099 118 105 118 -121 -124 -65 -105 035 -119 -96 -128 -04 027 097 -126 126 124 126 122 002 -128 -93 -114 -98 -112 -77 -124 097 109 126 -107 
120 -128 117 111 114 -128 -46 003 -24 126 117 -125 -128 113 -118 -108 120 048 126 126 126 077 039 117 054 -33 -97 117 109 -72 -116 -06 099 -91 125 082 -121 124 -121 -105 -78 121 -125 -126 -99 124 -46 126 -128 117 124 -117 -19 -127 -78 -97 115 -89 121 -128 -79 013 -128 -67 
-128 124 -66 -116 037 100 -127 119 -86 -118 -108 -15 126 126 -27 116 113 -32 -119 124 125 -123 -87 -128 109 -42 -115 -106 111 -128 041 -121 050 -62 -126 -99 119 036 074 -126 -56 126 -105 -128 -111 -125 109 -128 126 -120 126 -54 -01 -128 -17 -126 -128 072 -120 114 -22 -121 -128 -25 
-112 -128 086 -87 085 -121 102 -75 124 038 126 126 -128 -128 113 -119 119 077 120 -95 122 094 -46 126 124 -49 -35 084 121 -128 -126 126 048 082 041 111 119 -98 -121 -29 085 123 119 041 -111 -121 116 -128 085 -72 -127 124 087 102 -26 120 122 -44 -79 126 -99 126 -120 -115 
-128 125 -55 -102 -116 -18 096 -09 124 -98 -117 -128 -128 121 085 120 -120 -64 -98 126 126 -102 -100 -128 028 059 123 -110 -115 126 114 123 008 -47 -42 -48 105 067 081 -124 -82 -128 -113 -128 072 -126 -121 126 085 096 -128 -119 -19 -128 080 097 -128 -80 -101 -128 101 -124 118 -119 
-122 -128 -67 113 -120 -98 102 126 -121 094 -128 126 126 -128 -38 056 031 -89 -128 126 126 045 -101 -127 107 -26 125 118 -124 123 -18 -127 -46 -82 -20 -50 043 017 -121 -128 066 -128 004 -128 037 -85 -82 083 032 -127 -120 089 094 126 -26 -120 126 -84 120 -128 -98 126 125 -119 
126 011 -113 064 115 -124 126 -119 -114 126 -128 -35 -124 -128 -70 053 126 -16 092 126 126 -121 -116 125 093 066 -128 -104 050 125 -103 053 010 062 -110 114 113 076 097 -12 091 -123 -80 126 090 -52 058 -117 -127 098 080 -05 026 121 -113 080 -128 -111 -83 109 057 -128 126 019 
-99 126 -100 075 053 126 126 126 112 126 -125 120 126 -122 -96 053 -125 -106 126 126 -128 121 101 -114 040 -91 -84 102 -41 -82 125 -115 -10 113 -105 122 070 102 044 123 077 126 125 -128 -111 -113 -43 097 126 119 121 -100 -29 126 -103 -83 -120 -114 118 126 112 -128 125 110 
058 125 -09 112 092 122 -117 -126 109 124 -128 126 -128 -128 -89 048 -128 -20 -126 023 126 -33 -29 126 121 072 -126 101 116 -66 -90 -127 -68 075 069 112 -107 -128 -105 125 -89 -128 123 126 106 -115 -42 -115 -117 119 -121 028 081 086 040 111 125 086 -21 100 -108 096 -128 122 
-128 -128 -89 -115 040 124 089 -124 -43 126 126 016 -128 -112 -58 066 125 -62 -120 085 -124 -84 004 126 -51 -89 -122 123 043 -128 -126 -128 -73 -87 096 106 -116 119 119 011 -108 108 104 126 042 -101 111 126 039 -38 120 113 -74 -128 020 -124 -126 082 -01 126 059 121 126 108 
002 -128 -117 -116 -15 124 -128 103 -126 -128 -128 126 -119 -121 114 -117 095 087 -42 126 126 068 051 126 -37 -02 079 -117 -123 -128 126 -127 098 020 -127 -62 -123 042 -72 -128 -35 102 108 -75 -06 094 -77 122 024 -125 -116 017 004 -35 111 -126 054 -105 -84 -128 -119 068 097 -69 
-128 -128 -106 087 109 -109 116 126 081 -128 -128 108 126 -126 -119 -109 125 -27 -128 -128 105 -108 104 117 121 089 -127 -88 044 119 126 123 115 -115 -94 115 -106 067 -120 098 037 126 125 050 -105 004 032 125 -127 013 123 -102 -109 -45 022 119 -73 -70 -117 126 109 126 -128 108 
116 -128 095 -120 -102 126 -127 -50 -63 -127 062 -107 -128 -34 109 050 -128 -109 -123 -128 -126 121 -113 -128 119 063 126 055 -111 126 -66 -62 116 066 027 090 091 -127 038 126 -64 -123 064 -96 065 123 -87 126 126 -116 -128 -122 -83 124 079 -127 126 -112 095 126 095 -128 126 011 
126 -128 099 084 073 -70 -127 126 114 126 -123 -69 126 -110 -59 123 -121 -103 034 -128 126 -91 030 126 121 067 -103 115 088 -70 052 125 112 -96 -127 -115 -102 125 064 045 098 126 -11 126 -02 -117 109 126 -22 125 -111 -114 015 124 042 097 -93 101 -114 126 -54 126 -118 088 
126 -86 -100 086 -107 033 100 -103 -91 126 -128 112 126 -128 066 046 126 032 -128 126 124 094 -118 -87 092 047 -126 079 -78 126 -105 100 117 100 -117 121 117 -124 118 -13 -110 -128 093 -128 089 111 106 125 -127 125 072 -112 -31 125 045 -101 126 -116 -120 118 -111 126 -128 047 
122 -128 -101 078 044 019 -125 -128 099 -122 126 -128 -128 -127 -111 080 -128 -93 126 -112 126 063 -08 126 108 -102 -128 -70 026 -128 124 -128 114 118 -126 -56 116 108 112 -114 069 -128 121 -128 -86 090 114 -128 126 -103 109 088 -85 126 103 -102 -128 -66 122 126 104 126 126 -121 
-107 113 -21 112 102 -118 -127 -82 114 -122 -127 -56 118 126 -32 -126 124 -90 126 121 -122 -113 -74 107 -125 077 -117 -118 089 -101 -127 -128 063 -119 -97 -119 123 -125 -112 119 -107 126 091 108 049 123 099 -128 114 -123 121 118 052 -128 088 -102 -126 108 082 116 030 126 -128 098 
126 126 092 -20 095 105 -60 -128 118 -128 -128 -128 126 126 104 113 -121 024 -111 104 126 122 -91 120 -60 031 -128 123 -109 126 -125 -105 104 -115 086 120 -35 -95 -120 126 084 126 -82 -58 -28 114 113 123 -128 107 118 -98 -97 050 087 125 082 -47 -60 126 107 004 -128 -121 
-84 -124 117 -49 104 126 -11 055 122 113 -128 123 126 -97 -82 -125 016 -94 037 -121 126 -42 -94 122 110 074 -91 122 011 126 -122 -87 047 092 -78 -123 -67 112 118 -123 032 -128 -85 126 091 083 -95 126 108 095 126 -61 -78 080 105 -125 121 -88 -53 -88 002 126 -106 -59 
-38 -128 050 100 106 087 126 -128 -120 126 -122 126 -128 -75 059 123 126 -21 -128 126 126 120 013 061 -125 093 -23 -123 011 126 -95 122 067 -117 -127 -124 078 125 -88 -127 -86 112 007 126 -67 058 087 -128 001 -118 -128 115 085 126 095 -06 126 -75 -25 126 012 -61 -127 095 
-128 126 -107 097 099 -60 126 -67 104 117 124 122 -125 -120 -16 -121 -128 055 -79 -100 -128 120 -67 -128 051 090 -99 -03 077 -108 -127 027 -65 020 -115 -19 -15 -104 -61 -127 112 -128 -126 125 -106 -78 046 114 -128 098 -128 -105 104 -118 102 -73 093 -06 -60 -128 -46 126 126 -107 
121 116 -104 037 120 -96 -71 121 109 126 110 120 -128 126 035 125 126 -18 -128 -124 126 -18 102 -24 -125 -105 115 124 -95 -128 -99 069 013 -66 -83 123 103 -125 -64 -85 053 -118 087 126 -112 122 115 -31 -116 123 117 124 -95 126 -91 -125 -117 -80 -111 098 -115 -114 126 -105 
-106 118 -72 -22 041 -126 110 126 088 126 096 -120 098 126 -118 -54 111 -127 -93 102 126 -56 090 079 -107 -89 -128 -102 077 -115 121 -127 116 -51 -53 121 -124 -128 -60 121 -101 114 120 -122 -93 -113 -42 -121 -128 -101 -119 108 009 108 -104 125 126 072 070 091 118 126 -95 039 
120 126 116 -114 -26 113 -52 -127 015 123 -124 -89 -121 126 029 091 125 -98 126 -84 040 -111 -84 126 -75 -78 126 -113 058 -128 -128 -111 117 118 123 090 102 -49 099 -110 -01 078 099 -128 087 118 112 124 -114 -42 121 119 038 118 -39 022 126 -97 109 -115 -66 126 126 119 
125 113 -78 068 -53 126 125 111 -108 126 124 -128 -124 126 -119 -12 -125 -85 -125 056 126 -26 -121 126 107 -95 113 116 -61 -125 126 -64 -90 -48 -79 -94 000 -98 002 126 104 -120 094 -122 005 113 014 126 105 -123 -112 104 -57 -110 011 -55 123 -55 095 -128 116 125 126 -86 
-82 -128 096 -87 -111 -109 110 -126 052 126 -128 -128 017 125 -77 117 -82 086 004 126 -127 -121 098 -42 101 089 -81 124 121 -127 126 -55 -113 -72 -85 061 -124 -127 -112 125 111 -118 111 -128 -95 084 044 126 -94 -127 -128 112 -77 -76 -42 -107 -92 112 033 -127 088 126 126 122 
-63 059 -108 -60 -72 113 126 122 -127 -128 -110 123 126 -128 -53 124 -114 033 106 126 -117 -73 089 124 124 -90 -104 124 -119 -09 124 -104 115 -91 057 -111 -10 -126 -122 106 113 -124 096 -128 -57 122 -119 121 -110 -118 126 104 100 126 -76 -122 -92 110 109 088 -107 -128 064 -15 
118 122 -113 -102 -106 -128 -125 111 100 -128 -118 -128 -128 -116 -90 072 126 -39 -120 126 126 -80 109 112 -117 034 -128 -47 068 059 075 126 -109 099 063 107 -70 109 014 014 -13 -121 -120 -128 102 107 117 -72 -84 001 126 -118 070 -128 -61 051 -84 -08 000 092 060 -79 126 033 
-128 119 028 -95 088 123 111 123 -123 -128 126 126 -128 126 -109 -94 126 -54 -88 -127 -112 051 -113 030 -123 015 -115 -126 067 124 085 -128 117 118 124 -42 -45 -122 105 032 -116 099 036 126 023 -106 -113 -128 -125 107 126 118 067 125 -88 -90 -118 -50 -29 -112 -102 -86 -14 -82 
-128 114 046 120 026 -91 126 -52 -93 -128 125 126 -119 -128 079 097 -117 105 -126 -128 -128 063 -123 -125 -73 -06 -116 -106 -122 115 124 -107 -97 107 123 -53 -100 -13 -81 064 -68 -128 -122 126 -44 -36 -95 -111 -128 126 126 124 -81 118 -114 -66 126 112 -110 -128 -35 -128 -106 062 
-30 126 110 013 -58 -128 007 -128 -55 -128 -128 -128 -128 -128 036 122 107 -90 -128 -128 -30 -36 116 125 119 -84 -128 114 105 124 102 -05 -106 -101 -124 118 094 -11 -06 126 -105 -125 097 126 -18 086 -60 -128 125 -127 -127 123 -45 -128 002 116 108 003 -104 -128 097 103 123 115 
126 -127 -88 117 -108 -122 010 126 -66 126 -102 093 -56 059 -107 -121 -114 036 126 126 126 -106 -117 -128 084 103 102 121 -118 126 -42 056 052 100 -126 -110 004 -125 085 -127 025 094 -67 126 -81 102 -110 -126 117 108 -96 109 054 -18 026 -124 126 -90 072 -128 104 123 -126 -104 
-128 -126 -111 -44 057 126 -92 124 106 -115 -124 -107 -128 -128 -84 125 -128 078 122 -128 -123 113 -110 126 102 -104 -108 087 -125 126 -127 -107 097 -31 -121 081 123 -99 -54 -127 112 -127 -107 126 -93 114 -91 -128 111 -120 -124 085 -20 -122 042 125 124 -36 109 -128 109 -128 114 011 
117 -128 -79 002 103 -109 -97 -128 103 -128 124 126 126 105 -88 091 -109 -104 -111 126 126 051 -106 126 -86 102 019 -125 -87 -128 125 -86 117 -51 -62 108 123 -47 -113 124 -56 -128 119 126 -80 -118 108 -121 122 -87 126 -123 -61 126 026 091 -128 -109 108 126 -103 126 -128 035 
-128 111 -40 066 103 -111 -105 -126 120 126 124 -111 126 -124 -98 -85 125 -87 -111 -127 -128 121 -87 -128 -103 -34 124 -21 -122 -112 088 123 -24 -78 -113 -99 -10 126 055 -111 037 126 -107 125 088 -86 090 126 -110 -99 116 121 -82 -123 024 121 093 033 116 -121 117 -128 -128 -100 
-126 -127 -109 081 -98 120 -128 -119 075 120 -126 029 126 126 115 081 126 105 111 125 104 061 -64 -124 088 028 018 -114 114 038 -128 -88 -20 055 124 -92 -112 112 061 -123 -104 -115 -125 099 016 -52 062 126 -128 040 126 -103 -68 -122 -90 125 126 021 -120 015 -113 080 -97 106 
103 -117 098 -82 034 122 051 123 108 -02 126 -125 -128 -128 -120 -16 126 -74 126 -128 -128 112 116 125 112 048 -127 -126 -115 126 -119 -128 004 097 069 111 -27 -125 -59 126 -94 -128 083 126 009 095 -115 -128 -125 101 047 124 074 078 -76 -100 047 001 104 -128 -33 -123 103 106 
