-103 123 -18 126 126 126 -62 030 126 126 -128 126 126 -128 -128 126 122 126 126 -123 -128 126 007 126 126 -128 -113 126 043 126 126 -107 126 123 -127 126 126 -60 -115 -128 126 126 -93 126 125 126 -128 038 124 126 126 -128 -47 126 126 126 126 126 126 -128 -128 126 110 126 
126 126 -127 126 122 126 -45 126 126 124 -127 -126 126 126 -126 -128 029 126 126 126 126 126 126 -128 -128 -128 121 126 054 126 -49 126 119 124 126 -128 109 105 126 -128 -128 126 126 -128 126 126 126 -120 -128 126 126 126 126 095 117 126 126 065 -128 -108 -117 -128 -128 126 
097 126 -128 126 -103 126 -79 -111 -113 126 126 126 126 -128 -128 126 126 -122 126 126 -128 -128 126 126 126 126 126 -128 126 -128 126 126 -125 126 126 126 -128 126 126 -128 -20 126 -21 126 126 -128 126 126 126 -127 -117 126 -109 -128 -128 125 126 -103 -128 126 -128 126 126 -84 
-128 -16 126 126 126 126 126 126 126 126 126 126 -09 126 126 126 -79 062 -125 126 093 -23 126 -128 126 119 126 -125 126 -128 126 -128 126 -68 -114 031 -40 124 126 126 -128 126 125 -104 126 126 126 117 -119 -128 126 -128 126 126 126 -127 -128 126 126 126 118 126 -128 071 
