125 -128 084 126 -77 -128 060 126 -128 -128 -124 -104 -106 126 122 -128 -101 123 -91 -128 -86 -38 126 095 126 108 -128 120 126 110 110 080 000 000 000 000 000 000 000 000 000 000 000 000 000 000 000 000 000 000 000 000 000 000 000 000 000 000 000 000 000 000 000 000 
-128 -128 125 126 -118 125 126 126 126 -97 066 121 124 089 -128 -120 -123 121 035 126 115 -14 -97 -125 125 126 126 104 -105 122 126 -49 000 000 000 000 000 000 000 000 000 000 000 000 000 000 000 000 000 000 000 000 000 000 000 000 000 000 000 000 000 000 000 000 
126 -125 -126 126 119 -128 126 -128 -116 -128 -119 124 -119 068 -128 -121 115 009 121 -128 066 -116 -128 123 126 -126 -128 116 -58 122 -128 -49 000 000 000 000 000 000 000 000 000 000 000 000 000 000 000 000 000 000 000 000 000 000 000 000 000 000 000 000 000 000 000 000 
123 -124 117 -128 071 126 122 -128 -128 126 -113 -118 -125 -100 125 079 123 -71 121 -128 -92 -61 126 -126 126 126 -128 119 -113 101 -128 -105 000 000 000 000 000 000 000 000 000 000 000 000 000 000 000 000 000 000 000 000 000 000 000 000 000 000 000 000 000 000 000 000 
124 -128 126 126 074 -124 126 120 126 124 -126 -03 -99 -126 126 124 020 124 -122 -128 -119 108 126 017 -128 126 126 126 -127 -127 -128 -119 000 000 000 000 000 000 000 000 000 000 000 000 000 000 000 000 000 000 000 000 000 000 000 000 000 000 000 000 000 000 000 000 
-128 126 126 -49 045 -128 -128 122 126 125 120 -56 -125 124 107 -121 113 075 -112 120 089 118 -128 -34 125 126 -128 084 -128 094 -127 -95 000 000 000 000 000 000 000 000 000 000 000 000 000 000 000 000 000 000 000 000 000 000 000 000 000 000 000 000 000 000 000 000 
-128 126 055 -79 -111 -128 087 -123 126 108 031 -33 090 -38 126 -128 -114 102 104 111 118 -06 125 -128 124 126 -120 -47 -76 126 -127 -85 000 000 000 000 000 000 000 000 000 000 000 000 000 000 000 000 000 000 000 000 000 000 000 000 000 000 000 000 000 000 000 000 
126 -128 124 -127 061 126 126 120 -128 -128 -124 103 123 -93 126 -38 118 -69 -101 -128 093 011 126 126 126 126 126 052 -126 -124 -128 -117 000 000 000 000 000 000 000 000 000 000 000 000 000 000 000 000 000 000 000 000 000 000 000 000 000 000 000 000 000 000 000 000 
123 -128 125 -128 -95 -128 121 126 -128 126 -56 -127 044 -116 -128 116 -20 -128 121 126 -121 107 126 -125 125 -127 -124 125 122 -105 081 114 000 000 000 000 000 000 000 000 000 000 000 000 000 000 000 000 000 000 000 000 000 000 000 000 000 000 000 000 000 000 000 000 
126 -128 106 -128 075 122 126 006 -60 -116 -15 -115 -108 -68 -128 126 125 -124 -115 124 070 -117 126 -77 -128 -128 126 -41 -128 084 -121 041 000 000 000 000 000 000 000 000 000 000 000 000 000 000 000 000 000 000 000 000 000 000 000 000 000 000 000 000 000 000 000 000 
126 121 124 -125 061 -128 109 -128 126 111 105 -78 022 118 -128 124 -64 126 002 124 -42 110 126 -103 -128 -128 -128 097 -125 -110 -128 115 000 000 000 000 000 000 000 000 000 000 000 000 000 000 000 000 000 000 000 000 000 000 000 000 000 000 000 000 000 000 000 000 
-128 -128 101 126 -35 -27 -76 126 -128 126 -111 -112 -114 112 126 116 096 -88 -124 -128 096 117 126 -128 -128 111 117 -128 -123 -127 -82 -46 000 000 000 000 000 000 000 000 000 000 000 000 000 000 000 000 000 000 000 000 000 000 000 000 000 000 000 000 000 000 000 000 
-128 116 026 -54 103 124 -128 122 -58 123 -127 -127 076 126 100 110 -21 113 -125 -111 -116 100 -128 -128 -128 -73 -127 126 -112 -107 -128 -41 000 000 000 000 000 000 000 000 000 000 000 000 000 000 000 000 000 000 000 000 000 000 000 000 000 000 000 000 000 000 000 000 
-128 -127 111 126 005 -128 126 -128 -114 -128 124 029 099 113 -128 -92 -104 -128 -120 -47 100 -15 -128 -36 049 -128 126 -59 -128 114 -113 098 000 000 000 000 000 000 000 000 000 000 000 000 000 000 000 000 000 000 000 000 000 000 000 000 000 000 000 000 000 000 000 000 
126 092 -102 -128 126 -128 126 126 127 123 114 -78 -122 123 049 112 042 094 123 -118 092 112 -128 024 -128 -128 126 -126 124 -125 126 -07 000 000 000 000 000 000 000 000 000 000 000 000 000 000 000 000 000 000 000 000 000 000 000 000 000 000 000 000 000 000 000 000 
087 -99 113 059 001 126 126 127 -128 118 118 036 095 -94 -126 -18 -91 -125 -38 -128 -48 -44 -128 126 -128 126 -128 104 -122 -71 -127 -84 000 000 000 000 000 000 000 000 000 000 000 000 000 000 000 000 000 000 000 000 000 000 000 000 000 000 000 000 000 000 000 000 
126 -128 119 -128 -12 -128 126 126 126 127 -118 123 -14 015 126 -111 -127 -123 -48 126 016 -26 126 -122 -126 126 -128 111 -121 006 -128 038 000 000 000 000 000 000 000 000 000 000 000 000 000 000 000 000 000 000 000 000 000 000 000 000 000 000 000 000 000 000 000 000 
-128 126 -126 -108 -17 126 -121 123 -56 125 -83 -47 -118 118 126 094 119 -91 -118 -126 -60 110 126 -22 126 -128 -128 -95 098 -92 126 -100 000 000 000 000 000 000 000 000 000 000 000 000 000 000 000 000 000 000 000 000 000 000 000 000 000 000 000 000 000 000 000 000 
013 -112 124 -45 -64 -128 126 -127 -128 126 108 100 -92 124 -126 097 -25 -30 -113 109 -119 -84 126 -27 126 126 -128 039 126 097 126 117 000 000 000 000 000 000 000 000 000 000 000 000 000 000 000 000 000 000 000 000 000 000 000 000 000 000 000 000 000 000 000 000 
121 112 126 122 -115 108 123 126 126 -128 121 123 -66 066 -128 -128 033 122 108 -128 116 114 126 -81 -127 -128 126 115 -123 090 -118 -92 000 000 000 000 000 000 000 000 000 000 000 000 000 000 000 000 000 000 000 000 000 000 000 000 000 000 000 000 000 000 000 000 
-128 -127 -119 126 119 126 109 -128 -128 126 -113 -126 -125 -128 -128 030 050 -128 -127 068 031 -52 119 126 -128 -128 123 125 039 -128 126 -99 000 000 000 000 000 000 000 000 000 000 000 000 000 000 000 000 000 000 000 000 000 000 000 000 000 000 000 000 000 000 000 000 
-128 125 114 117 041 -128 -125 -119 -128 -128 119 118 100 -128 126 -116 -13 085 066 126 103 -77 -128 126 126 118 -128 027 -128 126 101 -117 000 000 000 000 000 000 000 000 000 000 000 000 000 000 000 000 000 000 000 000 000 000 000 000 000 000 000 000 000 000 000 000 
-128 -87 124 -128 -113 -128 126 126 -96 -127 124 -90 125 121 126 -128 124 -127 012 -128 -79 122 126 -128 126 126 -128 -10 100 -112 126 118 000 000 000 000 000 000 000 000 000 000 000 000 000 000 000 000 000 000 000 000 000 000 000 000 000 000 000 000 000 000 000 000 
126 -128 104 -124 106 126 076 -128 -122 -128 -120 -127 119 -77 126 124 102 -121 -122 -120 -55 093 -127 -116 -128 -128 126 -128 -121 112 117 -116 000 000 000 000 000 000 000 000 000 000 000 000 000 000 000 000 000 000 000 000 000 000 000 000 000 000 000 000 000 000 000 000 
116 -128 124 047 067 -128 126 126 126 126 124 -126 -88 116 126 -80 098 -112 125 126 -66 -102 -117 -128 126 126 -127 -73 126 117 126 114 000 000 000 000 000 000 000 000 000 000 000 000 000 000 000 000 000 000 000 000 000 000 000 000 000 000 000 000 000 000 000 000 
018 125 -124 126 -107 126 125 -128 126 -128 -127 -127 -126 122 -128 -118 116 -125 121 124 094 -18 126 -128 -128 -126 -128 119 126 -127 -128 069 000 000 000 000 000 000 000 000 000 000 000 000 000 000 000 000 000 000 000 000 000 000 000 000 000 000 000 000 000 000 000 000 
-128 126 092 125 -113 -124 -128 -128 -88 -128 125 118 -94 -128 -128 -124 124 -53 -126 126 -103 049 -127 -126 118 126 -117 -126 078 005 -128 -117 000 000 000 000 000 000 000 000 000 000 000 000 000 000 000 000 000 000 000 000 000 000 000 000 000 000 000 000 000 000 000 000 
126 -114 -09 -17 -45 106 126 -128 126 -128 083 -34 123 -30 125 -128 107 -73 -125 126 -121 -103 126 -116 -128 -29 -127 123 115 090 126 -01 000 000 000 000 000 000 000 000 000 000 000 000 000 000 000 000 000 000 000 000 000 000 000 000 000 000 000 000 000 000 000 000 
116 124 116 086 050 124 126 123 126 126 -121 105 -119 -112 126 120 124 -126 089 -128 -116 -09 -128 -127 113 -126 126 089 -121 126 126 093 000 000 000 000 000 000 000 000 000 000 000 000 000 000 000 000 000 000 000 000 000 000 000 000 000 000 000 000 000 000 000 000 
126 053 -105 -114 075 -128 -128 126 -128 -128 -52 -126 104 106 -128 -121 119 005 -121 126 113 -37 -89 -94 -128 126 124 -127 126 -90 126 -102 000 000 000 000 000 000 000 000 000 000 000 000 000 000 000 000 000 000 000 000 000 000 000 000 000 000 000 000 000 000 000 000 
-125 -122 -127 -111 113 -128 106 126 126 126 -29 121 -105 -128 109 111 -128 -126 -124 108 -121 120 126 099 114 -114 -128 124 119 -127 -128 -46 000 000 000 000 000 000 000 000 000 000 000 000 000 000 000 000 000 000 000 000 000 000 000 000 000 000 000 000 000 000 000 000 
-83 126 125 -128 079 126 -128 127 -128 -128 121 123 -12 068 126 125 125 088 -42 -116 -51 115 -128 -111 -125 126 -125 -125 126 049 -128 104 000 000 000 000 000 000 000 000 000 000 000 000 000 000 000 000 000 000 000 000 000 000 000 000 000 000 000 000 000 000 000 000 
