068 -85 -93 080 -125 -128 044 126 -123 -112 088 122 113 -33 120 122 -127 126 -117 126 -39 085 -126 -115 119 -128 -118 118 -89 122 015 -69 126 -108 087 -83 -124 -103 126 -128 -52 -128 -128 076 -41 -14 103 -127 -128 126 -125 -90 126 -126 -128 -127 -127 -111 100 103 -96 126 -124 121 
-57 058 029 122 063 083 115 067 -101 117 -17 -112 -108 -64 126 -122 116 -122 122 126 066 126 -103 -128 107 056 -103 126 -123 115 122 125 -105 100 -46 -02 -124 125 -27 125 126 -124 -126 -88 059 095 -124 -108 -54 126 -109 -125 -126 -128 -125 117 126 119 027 122 119 -128 -128 074 
001 -93 -112 124 -128 -60 124 126 124 -38 -118 116 -110 036 -125 -122 126 126 126 118 114 126 -125 -115 -123 -128 118 126 -124 089 033 126 -127 104 -18 -17 -117 109 110 -125 -126 -115 124 037 077 -05 126 125 126 126 -95 035 -128 -128 -127 035 -128 -43 -128 118 126 126 -126 -123 
069 116 -110 084 126 126 -124 -125 106 006 -114 -123 -108 115 -128 -114 -128 -125 -114 021 -105 126 126 106 -121 -123 062 -128 047 -124 099 -128 -127 087 -67 110 -120 097 112 -127 -69 -128 -128 079 -119 107 126 125 125 -128 -128 -100 -108 125 124 -127 126 -102 -127 125 126 -128 095 126 
055 -91 062 040 -128 -106 071 -124 125 117 -114 060 -96 -62 -120 074 -128 103 126 -128 110 -128 126 065 -126 123 116 126 118 115 121 125 -126 108 012 087 -27 124 -123 126 125 118 125 -118 -28 -33 125 -116 121 126 -119 -100 125 -86 -124 117 -127 -102 -116 -24 126 -128 -122 -127 
-12 082 -81 100 125 -76 116 123 125 124 -120 -102 097 095 -116 -90 -119 -124 126 125 099 125 -128 105 -128 -124 036 126 121 107 071 -109 125 054 -78 087 -44 122 070 126 -79 -128 -126 -125 020 -82 099 122 -128 -113 -123 -127 126 -128 -128 110 -120 070 -92 116 126 122 110 -128 
-24 069 -02 -63 126 124 -126 126 118 -114 -97 -114 -32 006 -128 097 125 126 -33 -79 071 118 -128 -125 119 086 020 126 -54 -128 -90 -125 -119 007 -105 005 -49 -124 123 -128 125 126 -78 -18 -125 028 -119 -122 126 125 -85 -97 -127 -128 -128 119 122 117 124 124 118 -122 -123 -128 
099 -118 -122 -104 -126 126 -52 -128 -123 -127 116 -124 -118 -104 126 125 103 125 -127 110 116 -127 119 125 105 -128 -100 124 -84 -128 -64 102 107 -65 118 092 -104 -115 -128 -127 -124 -119 -124 -62 -108 079 123 -127 126 -128 118 125 -114 064 113 -59 -66 113 126 121 124 126 -125 122 
-79 097 107 -42 -128 -128 123 -128 120 -50 -89 121 114 077 -128 125 -124 083 -128 -128 -112 115 -128 123 126 -128 107 -126 121 033 -117 -78 126 091 -52 -73 -126 -114 126 -89 -39 -09 126 121 109 107 123 -125 126 -125 -128 049 -125 118 -128 102 -123 -53 126 069 -128 101 126 126 
092 -63 -67 -83 126 -128 119 126 -123 126 -107 -80 125 -11 120 -119 089 -128 126 -127 -63 126 126 -124 -128 -128 114 126 -87 -120 125 120 126 -117 115 022 118 -126 -128 -101 -64 105 -38 -18 -101 -105 -124 090 121 117 126 -125 -14 -128 -128 062 -90 -68 -125 -122 119 -125 121 -128 
034 088 119 122 126 -128 -126 126 -68 -122 -84 -123 -107 -31 -128 -122 -31 126 -126 087 -96 -57 -118 126 121 113 115 -124 121 113 -98 -128 119 -118 094 -118 122 -117 126 -120 115 124 -114 032 106 -11 126 -125 -123 -128 126 105 -87 126 -121 075 -42 -21 107 -122 -125 121 120 -128 
078 121 -09 124 082 -123 110 -110 -106 123 118 -112 046 -63 126 108 -123 122 -40 -121 -91 111 -128 -125 -95 126 071 -128 022 -125 045 -110 126 -27 110 -28 097 118 063 -128 -123 126 -79 -118 117 -74 -127 125 -128 -128 -114 119 -54 -126 -128 084 126 014 -128 -117 -08 -113 -121 -120 
-06 100 119 -50 -128 126 070 -21 -48 126 -101 120 -118 -28 -128 -41 -128 -125 -125 126 089 120 124 -32 126 124 109 -112 -13 -127 117 126 104 004 -118 -103 054 121 126 126 121 125 117 105 -123 087 -108 -96 126 123 067 003 041 125 -103 111 -55 -53 -117 124 076 -128 125 125 
085 076 091 -123 -126 -127 -50 004 106 -103 106 -114 115 033 126 115 -67 -126 -107 -109 074 126 108 119 126 115 001 -124 -75 -123 117 095 104 -101 088 102 095 -127 123 122 -52 -111 116 -125 -122 097 -128 -07 -128 126 -120 107 -119 101 126 -93 093 -98 -128 -90 -128 -128 126 126 
043 073 118 -53 -93 126 094 114 -29 -108 -92 -48 -127 -62 -100 -120 -74 126 126 -124 073 119 -101 -76 121 120 -78 -99 121 -128 089 -119 119 -115 -64 -46 076 122 065 126 -63 -128 -128 -124 053 -80 126 -124 126 122 126 060 126 122 126 125 -67 100 125 -91 122 126 126 -128 
043 -96 113 -46 118 126 -121 126 -124 -100 -34 -121 -127 -114 125 121 095 068 -98 -80 -05 -128 -127 -113 125 -128 118 014 -120 109 -56 -111 -124 -28 -116 052 -120 -33 -127 -128 -100 -101 087 -07 -123 008 121 106 -126 -127 -122 -117 -128 -123 116 120 -19 -115 010 095 -128 -128 -128 126 
-88 111 -123 060 125 -126 -101 -120 125 125 -123 038 -127 -104 -120 -47 -126 126 -128 -128 -75 123 -122 108 -127 126 116 -122 -06 126 114 -118 118 -93 105 -118 036 -65 096 -128 121 -128 125 117 -71 110 126 077 -125 125 -112 125 -54 126 -121 091 126 -120 126 -103 -126 123 -127 -102 
-47 118 057 -85 117 -14 085 122 109 119 116 -121 -76 005 125 -78 -118 -126 126 106 036 -128 -126 106 -128 117 107 125 124 126 -125 124 -128 -67 -90 098 125 014 -109 -122 125 126 -113 -126 -123 112 126 084 126 115 -119 126 126 -128 126 -127 -70 122 -113 -108 -127 -126 -121 121 
079 116 112 113 126 126 095 099 106 -123 115 -120 039 088 -127 076 -116 114 -128 -128 114 -107 -128 086 126 -128 110 -128 -78 126 122 -123 125 035 037 034 -125 -89 110 -124 -92 126 -121 -110 114 115 126 126 -128 126 -128 095 -128 -128 126 -125 -128 -124 -126 103 126 113 125 -128 
-57 119 -122 -104 -128 -95 -92 126 -86 -43 047 -122 -99 077 -122 -128 -120 125 125 -127 114 125 126 084 -127 126 075 125 039 -128 121 116 126 -121 104 100 015 -123 -123 121 089 -128 -125 -109 -119 -90 -128 -51 -125 126 -128 122 -128 126 119 030 120 047 126 126 -128 -126 092 -55 
024 061 105 -121 033 043 -119 126 122 -121 -119 -124 093 -111 -103 -41 -70 126 122 -128 113 126 126 -123 095 -128 -117 103 -16 126 117 125 -126 -80 065 115 -19 021 122 -124 113 123 -76 -124 122 -108 092 -104 036 083 126 088 094 -128 -128 -122 -86 -59 -82 080 120 124 126 -93 
031 123 -83 004 -124 -88 122 -123 -127 117 -123 115 124 115 -119 -81 077 -113 121 -125 -58 116 -128 -127 124 -128 024 125 -110 126 050 126 126 -38 -104 -119 -65 -55 -93 126 -124 -118 112 114 106 067 -126 -127 126 121 114 -127 126 115 -128 -106 -119 081 126 078 -126 -123 -128 -128 
-79 -23 -118 -76 -91 -126 -89 -118 -47 -38 -76 -122 094 106 042 105 126 078 102 -127 -93 111 074 117 -53 -65 070 -128 119 124 -37 -128 -128 -51 117 093 099 121 -126 126 -52 126 -127 -122 -111 -24 126 -117 126 -127 -128 124 126 -113 -126 048 -124 119 -114 055 122 110 085 117 
052 111 -114 003 -128 -128 -100 125 076 012 104 -123 -121 -88 -120 111 115 123 -122 -30 -27 -11 126 005 -128 074 -104 084 -52 -128 -124 126 -127 -115 -23 033 104 095 125 103 104 070 115 108 -108 -90 117 125 126 -128 -99 038 -77 016 -126 045 126 -83 -122 103 -128 126 126 107 
-91 -89 -108 -123 -115 -128 -64 126 -112 -53 108 -118 061 066 117 114 -127 -128 -128 126 113 -113 113 -31 -45 119 -63 -125 051 034 -123 -117 -128 -113 -95 019 -36 125 117 -121 093 -122 126 -41 -96 099 126 064 -128 126 121 091 122 -128 041 -79 126 053 114 125 126 126 -126 094 
-71 083 -110 059 123 -128 102 124 -126 -116 -44 -02 -118 -49 111 -33 112 -106 121 -128 095 -128 -128 109 -128 -128 -110 -128 045 126 045 097 118 -61 070 095 -123 -114 -127 126 120 124 094 -108 108 -24 125 113 -128 119 120 -67 -128 126 090 -126 066 -102 117 -109 126 116 126 123 
058 087 -102 085 110 099 -41 107 -88 -119 117 -118 -63 -23 117 115 027 126 126 -127 -32 126 -128 -68 -128 -89 -117 121 061 126 -48 -107 085 -120 115 112 -50 097 052 -125 117 121 -124 119 119 029 126 100 -128 -128 126 -54 126 007 125 -125 120 -112 -61 018 126 -128 116 126 
057 -56 -52 -108 112 126 014 072 112 109 001 111 122 -105 126 114 -92 126 -128 -102 -115 037 126 -119 -128 -127 -42 -125 -117 126 031 065 -128 -05 104 -08 118 121 -127 071 121 123 125 117 121 092 -127 -127 126 -128 -125 115 -128 125 -39 116 -62 -121 -44 088 -128 126 121 -127 
074 -111 -55 -124 -126 -92 -110 -125 125 -125 -15 -88 -32 118 126 104 052 098 121 -128 043 -128 113 -107 121 119 073 119 020 126 -59 102 -128 -85 107 -118 -42 -90 126 126 -119 113 112 -60 -01 -25 -117 074 112 126 121 -95 110 105 -119 014 126 109 098 026 -128 126 123 -107 
-03 106 019 123 110 -128 -113 126 -37 124 110 -114 -124 -112 -128 124 -125 126 100 124 -50 126 -104 097 -119 041 115 -127 -116 052 -108 -128 126 -53 013 065 098 -93 -120 126 125 -83 -124 -118 -15 -97 -127 -126 -128 -05 112 072 126 -128 -128 -126 074 -114 125 121 -94 124 -128 -118 
-92 119 -99 122 -128 126 117 083 -20 123 123 -74 125 -105 006 -123 103 -128 126 -128 -71 126 -128 094 -54 126 -99 125 121 126 -43 -95 124 -68 013 034 094 049 -125 -128 101 -49 -128 121 003 095 108 101 006 060 125 097 -128 -128 -77 124 126 -124 -128 114 065 124 -128 -128 
-55 029 -109 027 -123 046 123 -117 -119 121 -124 -72 -125 -26 095 -122 122 -102 -128 -75 -55 069 106 111 083 019 -98 126 -115 118 121 -127 -127 106 -116 -73 056 -124 126 -121 034 -127 050 -67 -115 086 -83 -126 -128 -94 126 -120 126 122 017 -47 -128 -07 111 057 -127 -128 -128 -126 
-45 072 108 -123 111 124 -123 -128 109 -116 119 -114 -108 -82 -128 -108 123 123 -109 115 111 -128 -128 -16 -128 -128 -79 125 -102 126 112 -121 122 100 -66 002 -98 094 083 -128 123 126 -117 002 -42 -107 126 119 -127 110 118 107 -105 -128 120 121 119 088 126 -125 -128 -128 126 -128 
067 119 110 060 -126 060 123 -128 -65 111 102 -80 107 -104 126 022 -128 -128 103 071 108 -56 -128 122 -119 107 116 -128 117 -128 -81 -62 -128 -105 -03 -42 077 -73 078 126 -34 126 123 065 117 -51 119 -127 044 -125 -48 -118 -128 125 112 -124 -124 -11 -124 125 -128 -128 080 065 
-03 069 -41 -119 -128 -128 -109 126 121 121 120 -14 -118 -64 085 020 -126 126 -128 118 029 126 126 -125 -116 126 050 -112 085 126 -40 121 -128 -111 108 014 125 -26 101 -128 -126 126 121 085 020 110 -120 125 126 -123 -127 -99 126 124 126 123 126 113 126 015 114 097 112 106 
-80 091 106 -123 -126 103 090 124 105 104 116 118 -114 -93 -117 124 112 126 -127 -127 -31 126 -126 -81 118 -127 116 126 047 126 120 043 073 072 -110 -117 112 -105 -126 126 086 116 -128 118 122 -64 050 120 -128 106 -100 012 125 098 -128 008 126 -61 -128 -109 -128 -128 -128 -71 
-53 118 001 -121 -128 -128 069 123 026 116 005 -111 125 056 -128 -61 108 -128 121 -128 -73 118 123 -128 -125 -126 029 126 -120 116 125 115 126 -109 -114 079 -102 -127 -128 -128 -112 -116 126 051 113 113 -124 -128 117 126 120 -63 126 125 -128 -127 126 -113 126 075 124 122 -85 126 
047 118 007 -73 -110 126 119 -128 122 -119 -19 121 095 064 110 -127 113 123 -113 -128 116 -127 117 120 -50 -108 -14 126 -84 104 078 -115 126 -18 -57 079 -122 117 -126 -128 -81 126 -128 114 084 073 125 -125 096 126 -128 -128 -127 116 126 -126 102 115 102 018 -128 126 -128 122 
-10 012 096 117 126 118 124 126 -10 126 101 -119 -10 -108 -118 -90 125 126 126 126 -51 094 -128 124 106 126 -92 -125 040 107 -120 -128 -127 -30 114 -92 -37 033 125 -111 122 126 124 -124 -74 107 -112 112 116 -122 126 124 -106 -126 -125 -42 -120 -104 -80 -124 -117 113 126 -128 
019 -122 068 099 -127 126 102 125 121 -85 083 -122 -118 -89 -128 -117 -126 125 -128 -97 -94 -118 -125 -122 120 -39 -68 126 053 120 094 126 126 -101 -74 -106 -113 031 -119 126 017 -128 -126 -101 109 050 -58 124 126 -128 125 -128 126 108 117 -126 -125 -81 -128 -01 126 126 -128 -128 
-52 117 -28 -125 -128 126 -38 074 061 030 -112 -53 082 -78 126 057 023 -128 -128 120 -98 035 -128 -32 -53 126 -99 -15 073 068 -47 -128 030 098 -08 062 061 -114 -128 -124 122 126 -74 037 -117 -63 -128 -34 049 -128 -128 099 109 101 126 -99 -126 -20 -128 118 -128 125 075 -128 
094 008 099 -120 121 -128 125 121 039 -89 -118 120 120 -48 126 -123 -104 104 -128 126 113 -127 126 -108 103 -128 119 -122 003 -128 059 -128 -128 -39 062 007 -127 123 -98 -128 -128 -117 -127 003 -115 073 116 -116 -128 126 118 -128 -127 -120 126 125 -73 -103 092 124 -121 -126 062 -128 
033 -88 -62 120 122 -117 124 072 -96 -125 -113 -43 -23 040 -123 123 -128 -125 -128 124 111 -80 -121 -127 -104 -122 -107 -122 -89 -122 125 124 -128 071 -88 -103 -124 025 089 117 125 -126 125 104 -124 089 -119 -23 -128 118 -126 099 126 -125 116 -106 126 -61 -126 125 116 126 -128 121 
066 -59 061 -125 123 126 -118 -128 -119 -128 018 097 082 -23 125 -42 125 124 -121 -126 -82 123 -128 114 121 117 061 126 044 126 119 -124 126 069 121 -75 -54 -73 -112 -127 -128 -128 -114 114 008 -08 097 -127 107 -128 -125 037 -118 126 126 054 -124 -123 -128 109 126 -128 -128 -128 
-21 097 097 -124 125 124 057 -13 -119 -127 -109 116 -106 -109 -102 -63 039 095 -128 126 -53 -107 -128 -125 125 118 -98 123 -100 -128 124 -128 -106 017 -115 -23 -125 -120 -94 -128 -69 126 126 -123 -117 -105 112 -01 -128 125 -120 081 -128 -94 -128 -105 -64 094 115 123 -127 126 -95 -18 
-38 -101 064 019 -125 -120 -106 -128 082 009 -121 -39 004 098 114 001 009 122 -128 121 002 124 116 120 -24 -71 044 -30 109 -128 039 -97 -116 008 -119 109 011 -124 -113 126 -122 -75 126 -91 -67 -99 -126 094 116 126 -126 085 -128 -90 126 -126 -74 -69 125 125 123 125 -62 -118 
077 005 009 038 -62 -121 104 126 -82 -69 -103 -121 076 -33 125 -33 120 116 -128 -126 047 -128 -123 -123 -62 125 119 070 107 126 -122 121 -128 101 084 -49 118 111 -104 108 092 -128 -119 -119 063 -108 112 124 -128 126 -128 -127 -128 123 -128 081 -128 039 -13 -119 126 121 126 -128 
049 -117 -112 -119 126 -123 -124 -128 098 -64 -61 109 -127 -108 -128 -63 125 113 001 -123 065 -118 -128 -128 -125 -128 076 -128 -124 -128 121 122 -128 060 070 -92 -117 123 -125 -112 -96 069 065 102 033 -35 110 037 126 -88 -128 091 118 -102 -128 020 -121 -104 124 -110 -128 116 112 126 
-10 075 -120 -106 -128 121 108 070 -101 -25 -102 -21 124 -45 -122 -127 119 113 126 094 -53 125 126 -126 -66 126 019 -125 -117 -128 -122 121 124 -121 113 -107 080 008 -36 -118 041 118 -127 -04 114 070 -127 -124 -124 -111 126 -36 -128 -48 126 -63 -116 058 040 -54 -126 -128 126 123 
025 030 090 -109 -128 -124 091 126 -85 118 103 -118 -126 113 -55 126 124 -126 -124 114 -73 -94 094 115 -115 047 -43 120 -91 126 108 -128 -128 -47 050 -67 117 -125 126 -126 126 -54 115 -120 -64 -109 -51 109 -99 059 -105 067 022 -128 121 121 122 -123 126 125 126 -116 -112 126 
089 -109 -95 -81 -128 -128 -86 122 119 119 -37 024 083 -77 124 -125 119 123 -109 -122 -62 -128 114 -97 125 126 -106 -128 004 126 081 -119 125 005 113 -83 -107 -106 050 126 124 123 126 115 118 -31 114 088 -125 -84 115 005 126 -116 -128 032 126 -46 121 -122 -128 -126 094 123 
063 121 -54 -122 126 -126 033 124 046 054 089 108 108 -96 126 -127 -127 -128 -34 118 095 126 -125 -127 037 085 101 -128 -121 114 -126 122 124 085 -02 111 -113 -55 121 -127 -110 126 -128 -126 119 003 098 -125 -128 -128 -109 -109 -119 120 117 112 -24 003 -06 -13 -128 124 081 -128 
049 -17 113 121 -124 126 -80 -114 -126 068 -104 -103 -58 -96 093 -106 117 -111 126 126 -85 -32 126 -36 -99 125 -10 126 -119 126 -94 -128 -128 110 092 -96 -31 033 -117 125 -08 -126 122 115 -124 096 126 -128 -128 -127 090 126 124 126 -128 118 -112 -85 -127 -115 126 -128 126 126 
091 101 -118 -104 126 -108 -20 -128 -106 125 038 076 -125 092 125 -31 057 047 -100 -128 022 -127 015 -49 125 078 -67 -87 119 -126 -95 047 050 -113 112 -34 -126 123 -117 126 -112 -128 081 124 121 -67 -128 125 126 -128 123 113 -48 126 -128 088 -128 116 -46 011 106 126 117 -117 
-52 -92 -121 082 126 126 -121 126 088 087 -110 102 -104 -79 126 -104 -125 -128 -128 -128 077 -123 122 -43 -117 -87 109 -08 -90 -124 089 126 126 080 -109 108 098 031 009 -128 023 -128 113 069 043 -70 -128 -127 060 -46 -127 097 -128 125 -128 056 -43 078 -116 114 126 -96 -128 -127 
021 119 048 -119 119 126 124 126 -105 124 023 107 -65 002 121 088 -122 126 126 126 107 126 -123 126 -128 -128 -02 120 038 -126 -88 125 126 -51 093 -117 084 -117 127 126 -128 -128 126 -120 -124 113 -128 -127 126 -128 116 -126 -125 -128 -128 -123 -128 -125 114 096 -127 126 -118 120 
096 119 -115 112 125 -128 -106 126 -116 -128 -107 -106 120 114 126 -103 -93 -128 -128 -114 080 -127 116 -113 118 126 117 126 102 -123 124 124 126 -110 044 -119 066 125 -110 -128 -125 115 107 121 027 -63 114 125 -126 126 -128 -73 126 -115 124 -123 -128 -124 126 -13 126 126 126 -120 
094 087 114 -121 -128 -124 113 -115 -19 -127 -121 -119 113 111 -128 -125 -81 115 126 120 -21 121 -128 -123 -105 -124 -32 126 -98 126 -46 121 126 095 077 -113 -79 124 -20 -128 -118 -126 100 -123 097 -97 -119 120 120 113 114 107 126 -128 126 -41 -128 073 -92 096 126 -128 -128 121 
-38 000 -121 045 080 -94 -116 -128 023 -40 -115 -49 018 -76 -56 122 -128 -128 -114 122 -100 -128 126 050 125 -122 111 097 -11 -128 -02 -105 -119 -26 020 047 028 -124 -126 105 001 125 -74 -55 118 -18 -26 -16 -117 100 123 122 101 -112 -113 000 -128 -64 -50 071 126 -85 -96 126 
068 086 -112 -83 123 -98 -122 112 -87 -101 082 -33 089 117 -125 023 -125 -119 -121 123 -51 123 -128 072 -68 123 092 -117 124 103 -108 -121 126 -43 000 -57 067 -126 126 126 013 -99 -120 -125 -42 113 124 -115 -125 -126 -121 079 -128 126 -128 -122 -39 -90 075 003 126 126 126 119 
015 050 092 -126 -114 126 -02 -128 -117 -118 -90 120 125 058 126 095 -69 126 -128 -128 -57 -96 125 -128 114 -126 097 -128 058 -128 072 106 -122 -13 -111 -07 -125 -31 122 126 -127 114 109 -65 055 091 126 -123 -123 109 125 -127 126 110 -128 106 -127 105 126 082 -126 115 -37 126 
035 -117 -123 -19 126 -113 -90 -128 -114 -128 115 -10 125 112 120 122 124 -128 121 122 116 126 124 -94 -77 126 -76 110 086 126 114 065 -128 087 024 112 -96 -115 110 126 124 126 126 -87 -39 050 -126 124 125 -127 -121 -128 -128 122 117 124 -101 009 -125 124 114 115 -121 -92 
-86 039 038 064 -125 126 119 125 -114 126 057 -106 -122 107 -128 001 -125 126 126 118 -39 -125 -128 -125 -127 -128 -94 -120 124 -123 -121 -117 -128 -116 -48 -107 116 085 075 -128 -127 126 123 022 -23 065 -121 -111 -128 -128 114 118 125 122 -124 120 -123 -64 -127 -26 126 -119 -127 126 
046 012 -113 120 -123 126 076 -109 -120 108 -103 112 -114 078 -128 092 112 -128 -128 117 101 -69 -128 -127 118 113 006 -128 118 -122 -126 -125 -122 070 -50 -117 -126 -127 -125 -127 087 122 -124 -51 042 -77 119 058 125 -128 124 -127 -128 -112 -124 -124 126 -123 126 -72 -128 -125 126 -113 
