-128 126 063 120 126 126 -128 125 -124 126 126 126 -128 126 -128 126 106 126 126 126 126 126 -128 -128 119 126 -125 126 126 116 -128 126 126 126 126 -126 126 -128 126 -128 126 122 126 122 -124 -128 126 126 126 126 125 -27 126 126 126 -127 126 126 105 126 -128 025 126 126 
126 117 126 126 -128 -122 126 126 -64 126 127 -127 126 126 126 -15 -128 126 126 -128 126 126 123 126 126 126 126 126 126 043 126 126 120 126 -128 126 126 126 126 -128 126 126 126 126 -125 126 126 126 126 -128 120 126 -128 126 126 -126 126 126 126 -103 102 -128 126 -126 
126 126 122 -128 126 126 126 126 -128 126 126 126 122 126 126 -114 126 126 126 126 028 126 -127 126 -122 126 -92 -128 -128 126 -128 126 126 123 -127 126 123 126 126 114 122 126 126 126 122 126 126 -128 -128 -126 126 126 126 126 126 -127 -101 126 126 126 122 081 -112 126 
126 -128 -128 126 126 125 126 126 126 -109 096 -128 -46 -128 -128 122 -127 119 -128 126 126 126 -128 126 126 -94 -128 126 125 090 126 -127 120 -128 126 -127 -32 125 -128 126 126 126 126 124 -128 126 126 126 126 126 126 126 126 -107 119 -128 126 -128 100 126 123 -127 -128 126 
