-124 124 -128 015 125 -98 126 -83 -81 -112 -128 091 106 100 -65 -80 -110 126 -44 -93 123 078 011 -118 -128 107 -72 -36 -69 -123 -11 -94 000 000 000 000 000 000 000 000 000 000 000 000 000 000 000 000 000 000 000 000 000 000 000 000 000 000 000 000 000 000 000 000 
-128 118 -45 067 118 -67 -121 -87 -30 -116 117 106 093 099 081 -71 063 122 126 069 124 -105 -88 113 124 -80 058 -83 -04 -117 049 -64 000 000 000 000 000 000 000 000 000 000 000 000 000 000 000 000 000 000 000 000 000 000 000 000 000 000 000 000 000 000 000 000 
126 125 -128 006 -126 -69 -128 -64 013 109 -42 102 057 118 102 110 -112 115 -127 -86 018 -78 -18 110 125 110 -73 092 073 098 -03 083 000 000 000 000 000 000 000 000 000 000 000 000 000 000 000 000 000 000 000 000 000 000 000 000 000 000 000 000 000 000 000 000 
-128 126 126 080 121 019 122 009 -77 -117 -76 060 121 -30 -77 -75 034 -128 -117 013 126 -73 090 118 117 -74 -62 -18 104 119 087 063 000 000 000 000 000 000 000 000 000 000 000 000 000 000 000 000 000 000 000 000 000 000 000 000 000 000 000 000 000 000 000 000 
126 -100 -125 -100 121 015 126 003 -73 096 -128 -46 -118 109 116 -08 -124 -99 126 -11 124 -62 -75 -128 112 095 044 049 -122 -86 068 -93 000 000 000 000 000 000 000 000 000 000 000 000 000 000 000 000 000 000 000 000 000 000 000 000 000 000 000 000 000 000 000 000 
126 126 126 -76 126 -84 125 -109 -109 -117 126 -90 124 020 098 085 108 126 -96 -73 126 010 -21 -25 101 016 033 -46 125 -44 -54 -70 000 000 000 000 000 000 000 000 000 000 000 000 000 000 000 000 000 000 000 000 000 000 000 000 000 000 000 000 000 000 000 000 
-128 -128 116 -06 -61 -88 119 -19 -26 106 -111 081 -124 -125 -91 -108 092 116 -116 -66 098 -84 097 -66 -128 -66 085 039 -128 -84 -11 -57 000 000 000 000 000 000 000 000 000 000 000 000 000 000 000 000 000 000 000 000 000 000 000 000 000 000 000 000 000 000 000 000 
124 116 -113 -21 -128 018 124 -59 -09 033 121 090 -127 -125 -58 104 077 119 -128 -89 118 069 -69 122 126 109 -90 -102 119 048 040 045 000 000 000 000 000 000 000 000 000 000 000 000 000 000 000 000 000 000 000 000 000 000 000 000 000 000 000 000 000 000 000 000 
-128 126 -128 077 126 -46 -128 065 -28 041 -107 048 123 -97 088 -14 -112 -126 096 -34 -127 036 -109 082 118 086 -95 014 120 119 021 066 000 000 000 000 000 000 000 000 000 000 000 000 000 000 000 000 000 000 000 000 000 000 000 000 000 000 000 000 000 000 000 000 
126 -126 126 082 120 067 122 -22 -42 -66 -123 041 -125 098 111 -71 -125 -107 125 -62 -128 -100 096 102 126 -102 028 -83 105 124 -92 020 000 000 000 000 000 000 000 000 000 000 000 000 000 000 000 000 000 000 000 000 000 000 000 000 000 000 000 000 000 000 000 000 
-128 034 101 010 107 005 -128 -47 -63 -25 124 -43 -128 121 040 062 -08 107 -91 096 -75 -89 -98 -107 111 106 061 070 118 012 027 -20 000 000 000 000 000 000 000 000 000 000 000 000 000 000 000 000 000 000 000 000 000 000 000 000 000 000 000 000 000 000 000 000 
126 -128 083 093 120 065 -128 -08 -87 103 107 -41 121 -123 -79 -50 086 119 -89 069 126 091 -89 084 124 104 053 078 -100 110 042 -28 000 000 000 000 000 000 000 000 000 000 000 000 000 000 000 000 000 000 000 000 000 000 000 000 000 000 000 000 000 000 000 000 
-122 -126 116 040 126 -101 -125 -56 052 001 -100 039 -68 -64 105 -30 -72 074 122 003 -120 -55 027 078 126 009 -93 088 -125 -109 -100 -67 000 000 000 000 000 000 000 000 000 000 000 000 000 000 000 000 000 000 000 000 000 000 000 000 000 000 000 000 000 000 000 000 
126 119 126 -82 126 -106 -123 -13 -32 -57 126 -39 117 057 -84 -90 114 125 -105 -89 126 035 -59 118 -128 -59 057 -96 126 -92 -110 -34 000 000 000 000 000 000 000 000 000 000 000 000 000 000 000 000 000 000 000 000 000 000 000 000 000 000 000 000 000 000 000 000 
126 -118 120 056 125 033 125 008 -102 -11 126 -09 123 113 -65 015 090 003 072 -102 096 -66 059 -127 123 100 -66 -90 -128 -99 -77 -99 000 000 000 000 000 000 000 000 000 000 000 000 000 000 000 000 000 000 000 000 000 000 000 000 000 000 000 000 000 000 000 000 
126 -106 005 -101 -109 092 -47 064 056 101 115 073 -123 105 -08 006 -93 121 123 062 -126 009 -73 120 126 -12 006 083 -04 -114 106 -54 000 000 000 000 000 000 000 000 000 000 000 000 000 000 000 000 000 000 000 000 000 000 000 000 000 000 000 000 000 000 000 000 
126 120 -88 -105 118 076 118 -81 -36 -80 115 -49 093 -84 015 -86 088 121 -121 -01 -128 -39 -83 -128 -128 -108 -97 060 118 000 052 076 000 000 000 000 000 000 000 000 000 000 000 000 000 000 000 000 000 000 000 000 000 000 000 000 000 000 000 000 000 000 000 000 
126 126 -42 084 -128 -56 -128 -15 -86 060 -128 058 -103 -38 083 -95 068 -128 125 052 -128 -59 072 109 123 -62 -07 -44 020 -98 -85 046 000 000 000 000 000 000 000 000 000 000 000 000 000 000 000 000 000 000 000 000 000 000 000 000 000 000 000 000 000 000 000 000 
121 126 126 041 -128 090 119 -102 -29 -55 -128 -83 -101 -118 -82 -52 060 -42 -120 -83 116 -72 -59 108 126 -96 025 099 -76 -49 -53 -51 000 000 000 000 000 000 000 000 000 000 000 000 000 000 000 000 000 000 000 000 000 000 000 000 000 000 000 000 000 000 000 000 
118 -106 -128 -33 -118 -71 -128 -57 -34 -93 -127 108 -14 -122 -69 025 065 126 093 014 113 -17 -114 -87 -128 -75 -52 097 089 -108 -02 083 000 000 000 000 000 000 000 000 000 000 000 000 000 000 000 000 000 000 000 000 000 000 000 000 000 000 000 000 000 000 000 000 
088 -125 098 -99 -128 -107 -126 048 053 062 124 -72 118 -69 008 039 028 -128 125 040 058 -87 -71 -89 -128 -112 -08 -35 121 107 -65 -95 000 000 000 000 000 000 000 000 000 000 000 000 000 000 000 000 000 000 000 000 000 000 000 000 000 000 000 000 000 000 000 000 
126 -128 -128 092 -128 -107 -128 -07 -17 020 -106 -85 123 -10 014 077 075 089 126 098 -128 041 -84 -116 123 -92 -62 065 097 -125 -91 -96 000 000 000 000 000 000 000 000 000 000 000 000 000 000 000 000 000 000 000 000 000 000 000 000 000 000 000 000 000 000 000 000 
-128 -128 -113 -16 -128 090 052 056 -15 -79 -128 020 -122 097 -81 -46 -111 113 123 096 -128 -89 -87 -75 -125 -109 009 075 123 124 010 084 000 000 000 000 000 000 000 000 000 000 000 000 000 000 000 000 000 000 000 000 000 000 000 000 000 000 000 000 000 000 000 000 
-128 -66 111 057 107 -94 119 -05 -03 -105 -98 018 -51 110 -68 040 070 -128 122 -72 102 031 100 101 -64 064 -81 013 094 -119 005 067 000 000 000 000 000 000 000 000 000 000 000 000 000 000 000 000 000 000 000 000 000 000 000 000 000 000 000 000 000 000 000 000 
-128 -128 035 057 -128 -03 -125 -27 044 -103 126 008 -124 -04 100 -105 -37 -128 -121 078 123 -16 -110 125 -121 051 -86 -36 116 069 -92 026 000 000 000 000 000 000 000 000 000 000 000 000 000 000 000 000 000 000 000 000 000 000 000 000 000 000 000 000 000 000 000 000 
126 -123 -120 077 -123 042 126 -93 -23 -104 126 -88 033 -115 -67 -01 087 -98 -111 055 096 -77 091 108 -128 -112 -55 056 118 -110 -53 -67 000 000 000 000 000 000 000 000 000 000 000 000 000 000 000 000 000 000 000 000 000 000 000 000 000 000 000 000 000 000 000 000 
-128 126 -10 111 124 -83 -108 -07 -33 106 101 -78 103 -122 119 -17 086 126 126 048 126 046 -46 123 126 -107 -93 -40 108 123 -54 -75 000 000 000 000 000 000 000 000 000 000 000 000 000 000 000 000 000 000 000 000 000 000 000 000 000 000 000 000 000 000 000 000 
-128 126 126 093 117 090 -128 064 030 092 097 112 115 120 105 -23 107 126 045 011 126 -29 -110 037 -113 -49 079 -49 113 111 052 -23 000 000 000 000 000 000 000 000 000 000 000 000 000 000 000 000 000 000 000 000 000 000 000 000 000 000 000 000 000 000 000 000 
115 119 120 -11 124 -09 109 007 -22 -111 -128 086 -128 052 -12 -33 069 -112 115 -49 -128 087 050 -121 -128 -09 -52 -21 120 -67 -78 -51 000 000 000 000 000 000 000 000 000 000 000 000 000 000 000 000 000 000 000 000 000 000 000 000 000 000 000 000 000 000 000 000 
126 -15 -128 046 -128 023 108 -61 -30 105 -128 049 125 078 -94 -05 -27 -128 084 -17 121 -60 -104 079 -127 -05 069 058 072 120 028 036 000 000 000 000 000 000 000 000 000 000 000 000 000 000 000 000 000 000 000 000 000 000 000 000 000 000 000 000 000 000 000 000 
075 -35 -56 -72 -114 020 -128 065 -13 -27 -37 104 -112 -123 073 104 -98 -125 -101 047 126 019 -79 121 -128 -15 024 058 -53 -124 090 -11 000 000 000 000 000 000 000 000 000 000 000 000 000 000 000 000 000 000 000 000 000 000 000 000 000 000 000 000 000 000 000 000 
-125 126 -11 044 -128 -66 126 -44 -01 004 -79 022 125 080 109 -108 025 -23 104 -95 126 -17 -94 -123 -119 -41 041 -25 -97 113 -92 029 000 000 000 000 000 000 000 000 000 000 000 000 000 000 000 000 000 000 000 000 000 000 000 000 000 000 000 000 000 000 000 000 
-128 -122 125 -59 -37 032 124 -52 -45 087 -128 -109 122 028 101 -108 -116 -33 126 -72 027 093 -91 109 125 -21 001 -64 -82 -96 -26 -01 000 000 000 000 000 000 000 000 000 000 000 000 000 000 000 000 000 000 000 000 000 000 000 000 000 000 000 000 000 000 000 000 
-128 -86 080 019 126 -88 -128 030 065 104 126 -22 001 081 -76 031 -82 -128 067 052 -121 028 -109 -125 126 014 -30 -59 121 -92 070 -59 000 000 000 000 000 000 000 000 000 000 000 000 000 000 000 000 000 000 000 000 000 000 000 000 000 000 000 000 000 000 000 000 
-128 -127 -128 060 126 -62 114 -69 053 -20 125 -49 -105 -123 103 -97 097 -128 124 091 123 099 075 102 -128 -50 072 -88 108 113 -22 052 000 000 000 000 000 000 000 000 000 000 000 000 000 000 000 000 000 000 000 000 000 000 000 000 000 000 000 000 000 000 000 000 
126 -128 -84 -82 117 104 126 071 -39 000 126 -08 126 082 -68 -87 107 126 100 -94 -103 017 098 -101 -127 067 094 -02 -118 120 -105 073 000 000 000 000 000 000 000 000 000 000 000 000 000 000 000 000 000 000 000 000 000 000 000 000 000 000 000 000 000 000 000 000 
-128 012 104 048 123 -54 126 -09 -21 -15 -128 098 -122 121 079 107 -111 -126 -112 -98 -128 067 -85 097 -128 -70 -07 019 097 -22 -67 -18 000 000 000 000 000 000 000 000 000 000 000 000 000 000 000 000 000 000 000 000 000 000 000 000 000 000 000 000 000 000 000 000 
-112 126 126 -34 -128 096 -128 050 -11 -114 063 105 110 -98 089 -67 -109 126 119 -74 126 070 101 115 -113 097 056 -19 -120 -60 088 094 000 000 000 000 000 000 000 000 000 000 000 000 000 000 000 000 000 000 000 000 000 000 000 000 000 000 000 000 000 000 000 000 
-65 057 126 090 -128 -37 -116 043 049 -02 126 025 -100 -120 -99 033 -102 126 -124 075 -128 -49 094 008 124 048 -12 001 -03 -113 -94 -16 000 000 000 000 000 000 000 000 000 000 000 000 000 000 000 000 000 000 000 000 000 000 000 000 000 000 000 000 000 000 000 000 
126 -125 -127 092 124 064 125 -101 -62 -112 126 097 120 102 112 079 -72 -92 -119 041 124 -50 -31 114 124 064 -12 -90 -121 117 -110 029 000 000 000 000 000 000 000 000 000 000 000 000 000 000 000 000 000 000 000 000 000 000 000 000 000 000 000 000 000 000 000 000 
-128 -56 126 099 -128 -64 -128 -06 -15 089 126 052 -117 093 112 091 084 126 -126 042 054 -108 -90 -103 126 -100 058 095 090 110 021 -63 000 000 000 000 000 000 000 000 000 000 000 000 000 000 000 000 000 000 000 000 000 000 000 000 000 000 000 000 000 000 000 000 
126 -128 123 -04 -39 080 -128 070 -14 -106 -34 101 -127 -124 089 -98 112 -128 079 -30 126 071 -47 124 125 089 010 095 092 083 009 -59 000 000 000 000 000 000 000 000 000 000 000 000 000 000 000 000 000 000 000 000 000 000 000 000 000 000 000 000 000 000 000 000 
126 126 -128 113 126 -23 -120 -10 -30 003 -128 020 109 124 -84 -08 -121 089 119 -08 -128 -33 094 105 126 099 -81 002 121 -64 091 -75 000 000 000 000 000 000 000 000 000 000 000 000 000 000 000 000 000 000 000 000 000 000 000 000 000 000 000 000 000 000 000 000 
125 -128 121 008 126 -90 120 -106 -26 102 -127 097 -123 121 116 064 089 000 -105 -21 123 032 -113 113 125 -73 -65 -81 -128 -125 045 -69 000 000 000 000 000 000 000 000 000 000 000 000 000 000 000 000 000 000 000 000 000 000 000 000 000 000 000 000 000 000 000 000 
-119 -125 -120 069 126 051 118 -11 -31 096 -128 -54 -56 118 -99 -114 -125 -127 -84 -80 124 -64 -87 112 123 049 -99 -36 117 115 092 -64 000 000 000 000 000 000 000 000 000 000 000 000 000 000 000 000 000 000 000 000 000 000 000 000 000 000 000 000 000 000 000 000 
-128 119 126 -62 126 -109 121 -46 -06 -112 126 -03 -92 119 -76 088 058 126 -126 -89 126 -79 083 124 123 067 -07 -77 -116 034 024 -83 000 000 000 000 000 000 000 000 000 000 000 000 000 000 000 000 000 000 000 000 000 000 000 000 000 000 000 000 000 000 000 000 
126 126 -128 -42 -128 027 109 -15 -23 -75 -128 -88 -09 087 -68 -89 105 007 -119 -95 126 -37 103 085 -104 038 042 -24 083 -126 -99 -37 000 000 000 000 000 000 000 000 000 000 000 000 000 000 000 000 000 000 000 000 000 000 000 000 000 000 000 000 000 000 000 000 
126 126 124 -102 126 -114 -124 000 -106 029 121 -59 123 -107 106 -95 113 126 -110 -102 126 038 -35 121 125 011 -90 -69 124 -77 -18 059 000 000 000 000 000 000 000 000 000 000 000 000 000 000 000 000 000 000 000 000 000 000 000 000 000 000 000 000 000 000 000 000 
126 -61 074 014 -53 -01 126 -05 -24 -108 115 050 -112 110 -66 105 077 -121 126 -89 126 -83 048 -116 126 -86 -96 -92 096 -113 -60 -78 000 000 000 000 000 000 000 000 000 000 000 000 000 000 000 000 000 000 000 000 000 000 000 000 000 000 000 000 000 000 000 000 
126 086 126 088 126 -97 126 015 -42 -66 -99 109 -119 118 -68 -105 102 -110 -119 -56 -128 -55 -10 103 -128 -68 -98 -45 117 -81 -103 -42 000 000 000 000 000 000 000 000 000 000 000 000 000 000 000 000 000 000 000 000 000 000 000 000 000 000 000 000 000 000 000 000 
-128 -126 103 -96 -128 006 125 -12 -34 -66 008 -61 -08 -63 -87 108 -39 113 065 -11 -128 -82 016 088 -106 104 -73 -78 058 -38 -69 -38 000 000 000 000 000 000 000 000 000 000 000 000 000 000 000 000 000 000 000 000 000 000 000 000 000 000 000 000 000 000 000 000 
126 123 037 004 126 -114 105 -67 020 016 -128 090 -12 047 003 -29 069 078 056 044 -121 061 -107 -127 -105 091 041 -20 060 104 098 -44 000 000 000 000 000 000 000 000 000 000 000 000 000 000 000 000 000 000 000 000 000 000 000 000 000 000 000 000 000 000 000 000 
-124 -109 126 023 000 005 126 -64 049 062 071 007 110 -110 079 -50 044 -111 045 053 124 -96 075 -127 124 -19 084 059 -126 -126 040 051 000 000 000 000 000 000 000 000 000 000 000 000 000 000 000 000 000 000 000 000 000 000 000 000 000 000 000 000 000 000 000 000 
-128 126 -128 082 -128 -52 071 009 -65 043 -65 058 086 -108 -112 109 000 -128 -120 -102 -128 -89 032 -126 -11 -113 089 -81 123 -123 106 047 000 000 000 000 000 000 000 000 000 000 000 000 000 000 000 000 000 000 000 000 000 000 000 000 000 000 000 000 000 000 000 000 
-126 -128 126 -57 121 -18 126 -35 054 050 085 012 -127 -125 060 044 -50 -124 075 -92 126 053 -36 -102 126 041 093 086 -127 -55 040 -79 000 000 000 000 000 000 000 000 000 000 000 000 000 000 000 000 000 000 000 000 000 000 000 000 000 000 000 000 000 000 000 000 
-128 -128 122 -35 -128 -76 -128 -31 005 -43 122 060 125 -75 -57 -98 -87 -93 126 097 110 -88 -106 -127 126 102 -67 -17 -124 -54 -11 -31 000 000 000 000 000 000 000 000 000 000 000 000 000 000 000 000 000 000 000 000 000 000 000 000 000 000 000 000 000 000 000 000 
-128 -110 -96 -68 -128 -19 -128 002 -32 -106 -113 114 -126 050 116 -94 085 126 125 073 112 -19 -91 106 -128 048 012 -66 -128 -112 075 -99 000 000 000 000 000 000 000 000 000 000 000 000 000 000 000 000 000 000 000 000 000 000 000 000 000 000 000 000 000 000 000 000 
-127 126 -128 091 -107 -08 075 -15 019 088 126 107 -128 -86 -91 -29 023 126 122 037 -127 083 -56 114 -127 -107 006 -40 -99 -73 067 079 000 000 000 000 000 000 000 000 000 000 000 000 000 000 000 000 000 000 000 000 000 000 000 000 000 000 000 000 000 000 000 000 
126 021 126 105 -103 -112 -54 000 -33 102 -125 -70 125 087 -64 089 -79 -113 -122 068 -128 -68 085 112 -128 062 -39 018 112 118 -97 -65 000 000 000 000 000 000 000 000 000 000 000 000 000 000 000 000 000 000 000 000 000 000 000 000 000 000 000 000 000 000 000 000 
-128 125 125 047 -39 112 126 -37 052 103 126 -103 -128 -120 -41 -70 -114 126 -84 -50 120 -38 074 -15 -127 070 039 -19 -106 -88 102 094 000 000 000 000 000 000 000 000 000 000 000 000 000 000 000 000 000 000 000 000 000 000 000 000 000 000 000 000 000 000 000 000 
126 -54 -128 093 111 062 -54 004 -29 -116 -128 -83 056 -126 005 057 -110 -124 126 -68 -128 -102 -78 020 125 -100 078 -02 116 110 025 -97 000 000 000 000 000 000 000 000 000 000 000 000 000 000 000 000 000 000 000 000 000 000 000 000 000 000 000 000 000 000 000 000 
-128 125 -128 -61 -101 -70 -120 014 -16 -65 -128 047 056 029 096 085 -12 -118 125 -103 -116 093 101 -80 126 -78 -78 -54 066 -80 047 090 000 000 000 000 000 000 000 000 000 000 000 000 000 000 000 000 000 000 000 000 000 000 000 000 000 000 000 000 000 000 000 000 
126 -90 -128 035 123 097 -128 005 -22 -95 116 -97 115 055 059 077 009 -116 124 -104 -128 100 -68 114 008 045 019 080 060 107 -78 -54 000 000 000 000 000 000 000 000 000 000 000 000 000 000 000 000 000 000 000 000 000 000 000 000 000 000 000 000 000 000 000 000 
125 -81 -71 -82 124 -59 -28 017 -59 -95 126 002 125 121 -74 -55 -80 -114 108 052 126 -43 082 125 -126 -105 087 091 -110 119 -65 037 000 000 000 000 000 000 000 000 000 000 000 000 000 000 000 000 000 000 000 000 000 000 000 000 000 000 000 000 000 000 000 000 
