060 -42 074 024 055 -51 051 -47 064 -49 -50 -56 -66 059 -05 -66 049 030 -40 -47 -65 -29 -48 030 -42 -06 050 011 002 082 -20 -39 -09 020 -44 048 -56 -55 004 056 -31 -45 069 -28 003 -14 -43 005 060 072 -54 006 -48 047 045 -42 -01 053 046 -37 -42 -11 011 037 
080 -52 075 061 -37 054 -02 -53 010 -45 060 000 -10 -68 -12 006 013 056 019 -30 -41 029 032 -34 003 -01 004 066 026 -19 -58 036 036 -39 020 -18 049 -17 -48 -83 -38 -06 068 056 046 047 003 -25 056 -01 -51 020 -17 -01 032 -30 046 -19 054 052 -43 007 -10 -42 
-59 -08 -04 -51 -30 -30 -45 -46 057 005 007 011 069 000 -26 004 054 -49 -41 003 045 056 -47 -50 054 -36 -46 -80 035 -32 056 054 053 -25 045 015 000 055 -20 -37 034 -48 -82 043 021 -51 -68 009 021 011 -63 059 065 -06 -32 -46 010 038 084 -25 031 -02 059 025 
-36 001 030 056 037 002 015 -42 -51 -20 -27 -58 -55 -24 -12 -42 021 006 -43 -48 -14 021 -04 040 -50 021 -40 024 -29 072 -20 066 038 016 038 002 -50 060 -18 -88 -08 -40 025 030 -41 012 -38 052 049 062 008 006 082 007 043 -12 032 -57 030 -53 029 -67 027 -07 
-58 007 063 -02 053 012 007 -34 -74 -06 -49 049 -29 -67 035 -48 039 034 011 022 057 042 040 058 -07 055 -38 011 -38 084 050 042 -24 032 -10 -48 012 025 -42 -71 015 063 -84 051 053 -33 -38 048 051 025 -05 021 -08 037 -16 -11 -47 045 -69 035 -01 -08 -08 -33 
-22 035 -45 -21 -57 -06 -45 018 064 -53 -34 048 -71 -62 -11 005 006 063 -05 000 -15 040 -45 -55 058 054 -23 005 -26 -30 -25 037 021 -33 -27 057 -12 -13 -44 013 -10 -46 -11 019 039 011 043 -27 030 -21 004 -42 -37 -01 010 -32 -39 042 -68 -04 -01 013 -09 029 
-45 051 000 057 013 -50 015 -44 068 -43 -10 025 043 064 050 058 -07 040 -31 024 -47 022 -28 -31 020 -14 040 -35 090 -73 -53 049 -55 -43 006 -60 -61 042 026 045 057 040 -82 012 004 -76 044 -48 010 032 -54 -24 038 -54 -24 -10 057 013 -62 -60 -10 019 -28 020 
-48 -09 022 -22 -39 -15 -13 -35 040 -36 020 060 047 053 -30 -89 018 063 034 -12 -46 -46 -29 052 -21 -05 045 -43 042 067 027 -01 -47 030 024 -02 -31 030 -12 -88 -02 -63 001 031 007 -24 044 005 -12 -50 -58 -43 072 068 044 -26 -23 -35 -21 051 -26 -49 036 -33 
-52 024 -57 011 051 042 034 -45 051 -27 055 -20 015 014 009 -62 -50 014 -53 006 037 -17 -21 -23 -64 -26 018 066 -07 -69 -35 021 -31 050 -40 011 -67 058 032 -59 006 023 003 022 -32 043 031 -30 -39 -40 032 034 -39 -10 043 -09 060 000 -09 042 -27 007 003 -24 
056 -51 -43 001 -47 024 017 052 -17 000 033 024 -01 070 -25 -52 -33 -40 -48 -44 044 -44 001 013 060 -62 -40 -02 056 066 -34 -44 -54 021 -44 -08 014 -02 -36 -03 -50 057 008 -28 -35 -18 -74 052 -61 005 008 020 058 020 -07 -11 -36 020 053 013 036 -66 042 027 
-13 004 034 015 002 -53 038 058 062 -28 051 023 -73 -54 007 063 -38 053 056 -12 015 -56 -11 031 061 -52 -23 045 -29 -68 -09 -54 046 049 053 -28 -62 -44 -15 -75 -40 064 -73 049 022 059 048 -23 049 -21 042 044 -69 028 022 043 059 -35 -65 063 026 044 044 007 
027 -13 -45 051 -60 054 009 037 -46 -29 -12 -67 039 029 -52 -13 052 031 -56 023 007 -44 008 -17 022 -16 048 023 061 -32 -59 019 -40 049 -02 051 039 043 -30 -02 051 012 064 017 046 012 035 041 044 067 -16 -37 -75 -30 -03 016 -50 003 -03 -23 036 -07 028 004 
070 042 066 -15 050 043 -17 -56 019 052 -33 042 -22 044 -21 -69 -51 018 -05 022 -55 -50 -36 035 034 031 026 018 -07 -03 030 019 -21 -06 -35 -37 -65 008 001 047 009 022 -33 -09 045 032 072 -21 -48 010 -58 -59 072 -31 047 -43 002 008 -34 -29 002 -49 -48 -20 
-45 014 -35 008 -62 -33 008 -07 043 -01 034 066 -48 -19 026 -26 -46 051 -52 006 -25 -25 -16 -01 033 010 025 015 016 -50 -06 -63 012 -33 -47 -16 021 050 004 045 028 021 069 055 -51 -63 -23 035 -08 -14 015 -57 -64 000 -18 -10 -01 056 -53 -08 001 009 -38 032 
013 033 064 036 046 003 -27 055 -25 006 028 -20 058 003 047 -29 039 -26 036 -35 003 018 045 026 035 -16 -39 -53 -32 -64 029 -41 -26 012 054 -21 -64 050 -21 -64 013 -29 -35 -20 -56 036 -37 -34 039 -57 032 001 021 061 -10 036 -32 -06 -52 -64 026 -56 024 -44 
-35 -33 015 -38 012 055 -44 019 018 -25 -33 055 027 -70 036 017 -55 042 012 -27 052 -52 -39 052 045 052 -14 051 073 037 046 037 -23 -31 -38 -43 037 040 -45 -69 045 011 -23 015 044 -43 -10 056 011 006 052 017 051 -15 047 015 013 -44 -08 032 -19 -36 -03 -50 
-16 -46 054 044 056 -31 000 -08 -37 -57 -52 060 -25 064 004 -61 018 022 -38 005 -52 039 004 -62 058 037 024 -53 051 018 035 -46 -47 050 -18 -15 -10 048 023 013 056 -38 055 039 -44 004 -41 -43 022 062 -42 -43 050 055 043 051 -39 -25 031 -55 -30 028 002 031 
-42 -06 005 045 -34 -36 -30 048 074 -38 -49 -62 048 -57 025 080 -07 009 035 -53 -24 027 027 -01 001 010 004 -51 -65 065 -26 012 021 050 -43 -42 033 065 018 064 056 040 -44 -28 -50 038 -71 -51 042 -10 071 -53 -65 026 -39 045 030 -38 010 007 -14 -15 -19 -34 
009 -48 022 031 -51 029 -21 -20 060 037 -08 -67 009 -71 026 056 038 039 050 028 040 -61 -44 -13 -47 060 000 -64 -47 -35 043 -09 048 -16 017 -19 012 -74 -13 -70 -40 007 007 -38 054 -59 -75 020 024 -63 061 -65 073 058 -49 -05 -08 041 -28 -51 -37 045 003 019 
029 -48 010 -43 016 -07 031 -44 -55 -34 041 -42 074 012 -36 -45 015 -11 -54 -51 -09 -57 029 -62 -65 010 -42 064 003 040 005 032 -17 -10 -18 -25 -51 -58 -09 -76 008 -05 -68 032 -17 -44 055 -18 021 -41 -45 053 070 067 004 -16 048 -02 074 -34 008 006 018 -18 
006 057 -51 -46 019 033 -42 -53 -15 -20 -29 025 057 061 -29 -30 047 056 -17 -25 -55 013 019 059 002 024 047 055 066 088 -25 -33 -20 -02 -57 -16 017 035 015 016 025 -61 -59 054 -14 -02 045 -27 -56 -32 -74 031 048 081 038 -43 -07 -38 034 053 -33 -26 016 002 
-76 055 -27 010 -30 -52 -38 047 028 -03 -15 065 -42 051 022 -70 -33 021 015 031 020 -40 -25 003 003 044 -46 063 065 -23 042 012 -39 -32 -11 017 -34 009 034 -42 029 064 071 -36 -40 -13 034 036 -24 030 -68 016 -53 054 006 016 047 -06 -82 -44 -37 -68 -55 054 
000 014 013 -34 -14 -11 001 -21 -05 017 029 -28 -14 -46 -49 -54 056 -50 019 -43 046 -30 034 056 064 050 029 075 012 -37 -35 054 034 -06 -57 007 -02 -13 000 053 054 019 079 015 036 024 -56 -48 -46 -35 -67 -09 -51 -50 037 000 -49 -13 -54 008 -10 054 -51 -24 
-55 030 -75 -47 043 -37 009 -51 -34 049 001 013 069 -31 -09 -08 -28 059 003 -17 -61 -07 045 -16 -31 -52 -05 -25 051 -65 048 025 -13 -44 -29 -01 -75 -19 018 -25 -29 -54 032 -51 007 061 017 014 -10 019 -40 -02 -64 057 024 026 003 004 017 -44 -14 -59 -59 -46 
-07 -01 072 -02 -58 -39 000 -06 -64 -16 -01 -55 -41 014 031 085 -13 -24 030 022 053 016 000 -41 008 037 -33 044 020 004 054 052 -20 022 019 -38 -48 030 018 -62 -20 -36 -37 038 -50 -46 -75 036 057 -23 068 020 -50 027 023 -06 -23 035 040 029 -27 -59 -45 -56 
026 -20 029 -28 -13 -27 -49 -06 041 026 -41 052 -36 041 -10 064 -50 -45 -21 -04 -30 012 -46 -48 -31 -20 053 066 -20 -27 -49 003 005 -38 036 020 -15 038 -24 010 035 -18 -10 023 003 044 -26 041 -52 045 -25 032 -66 052 -06 044 053 -14 015 -15 -11 -35 054 -24 
-74 -37 005 -30 -36 -10 -27 -18 -32 -29 050 048 -53 069 -14 012 -04 022 046 027 008 -50 007 -62 019 -18 051 -23 -06 041 -14 040 048 -02 -05 039 -40 -29 043 -18 059 001 009 -52 002 064 034 -09 022 -15 070 001 038 021 -37 041 -27 -08 -61 -45 042 002 022 -55 
-83 -47 -13 049 -57 -38 024 -62 -33 003 023 045 047 -58 -34 -07 -01 -14 053 015 -46 -47 031 -54 013 001 -44 019 065 -39 003 071 007 -09 -19 050 074 -18 042 -04 -12 -06 039 -40 013 058 027 042 038 -72 064 -13 -54 -65 043 044 020 -42 005 -01 -25 052 -11 044 
022 -12 056 054 -58 -25 -28 042 079 -25 030 -13 -75 047 007 049 -09 -52 -36 020 042 031 026 055 002 027 003 -57 -48 058 053 023 021 036 -03 032 -55 081 011 015 -57 -58 -34 028 001 -43 022 -03 -37 -70 044 038 064 005 -48 -18 049 047 062 062 041 001 057 -47 
050 042 033 009 -37 047 -20 037 -16 -07 -56 -41 -07 -70 -44 073 -30 033 048 005 005 014 -25 031 030 -01 023 -72 003 -16 -51 -02 -50 -54 007 -20 005 059 037 082 030 -54 066 002 -28 -22 -45 -30 047 043 -85 010 -82 055 -50 -40 024 041 020 007 -38 001 021 -61 
013 034 031 008 -48 -06 028 010 010 028 056 018 046 -26 -18 008 035 -13 -27 017 040 054 -63 061 -27 -27 -36 036 085 -21 051 026 -04 044 -29 -11 012 -07 -10 -78 -40 -16 -06 -21 -46 -47 059 -34 001 -41 -40 -41 036 002 -08 -52 038 -57 032 032 -21 -40 -31 -39 
-48 -18 -68 -06 -31 -41 -05 041 -66 -32 -30 -39 050 014 015 071 -37 048 -04 044 -30 -27 -55 -15 -39 016 -48 068 -53 025 -44 029 054 -41 -28 054 -13 -80 -21 056 023 -07 -57 -31 -43 038 044 046 035 083 059 -45 012 054 -51 050 -02 -11 -18 -59 -16 -43 -47 -04 
-50 010 -35 -24 -12 -11 038 003 -84 -28 -58 007 002 047 -40 -92 027 043 -30 -28 -22 -49 -30 -01 -53 049 036 -06 080 022 025 061 034 025 048 -51 015 -22 037 029 -47 023 041 024 -47 -68 068 -41 039 -28 -36 -14 -39 033 -49 003 038 045 020 017 -30 051 -12 000 
062 058 -70 050 -03 -49 033 -83 075 -05 024 -71 025 048 -41 -36 -68 022 034 -50 059 -13 034 076 043 -17 049 004 -58 088 -04 -51 -28 -41 050 -34 -10 049 024 028 -38 062 067 011 -25 053 054 038 -66 -20 -29 -05 -37 068 -49 -02 -40 000 -71 064 -33 -31 -16 045 
072 -34 059 -18 -52 023 025 -57 038 041 006 033 031 -14 -14 075 -52 052 -24 -47 004 -37 046 -05 -15 -61 -15 -73 020 -38 029 049 032 -24 032 -41 -45 092 -33 081 027 019 053 040 043 -53 039 026 038 072 -25 046 086 -03 005 -38 037 027 -64 006 009 032 -44 -08 
016 045 067 006 008 033 -41 019 014 007 019 062 -06 032 001 -08 016 -33 -32 -35 001 -21 028 004 002 -53 003 -34 094 -01 035 -29 006 -46 023 048 026 087 -39 063 -09 027 032 -14 -54 -83 -66 -26 -31 035 032 -24 -28 -77 -07 -32 -19 -29 012 013 -26 021 041 -52 
050 -29 024 -30 035 -15 038 059 -60 006 -47 036 -63 052 -31 068 008 055 -64 031 -42 047 -37 -43 030 -45 -16 041 -44 -35 059 -28 -36 001 -52 044 002 -17 000 069 -02 -23 033 038 -47 029 -10 001 -24 001 024 -14 046 -47 028 -09 047 005 076 -67 -14 -05 024 -43 
-02 006 062 023 -29 011 -57 068 -68 025 -20 -35 051 047 -05 087 044 -34 042 008 053 -25 -55 -49 035 -60 040 -31 -44 075 -12 006 029 -47 023 -53 -21 -31 032 -09 022 -27 -35 037 002 044 063 -50 011 -11 -34 -30 066 -18 051 007 -34 -53 -05 011 031 -33 011 -48 
-69 -35 021 -11 -24 004 -10 040 -14 -03 -46 -05 035 -31 -56 001 -43 -15 -24 -01 -62 007 -59 -30 057 031 011 065 016 042 -27 -03 -12 -33 -13 004 001 003 -07 066 -57 013 058 -50 -34 060 078 -31 013 001 052 -56 -39 074 -30 -07 -53 027 060 021 023 002 045 063 
072 042 059 012 008 -22 -57 -13 025 -45 -61 040 -60 041 024 076 -20 -37 030 053 -49 055 054 031 030 028 036 027 -38 078 -58 -10 -39 -42 026 -16 -33 042 -10 007 042 -33 063 -35 -51 -60 047 045 -29 062 -63 -38 -35 037 010 023 004 -12 -65 062 -39 -23 -42 -58 
067 -50 -55 025 -25 -37 024 -39 -67 021 -37 006 049 -66 008 086 -23 023 035 -23 -58 -07 014 060 -03 012 -21 051 005 -47 -26 -02 -09 -29 053 -42 -22 032 030 053 053 012 074 045 010 -43 039 -04 017 -31 036 001 -34 -67 005 008 033 041 -47 033 -43 066 -21 -48 
037 -04 041 -36 030 -36 -51 -35 065 -27 -39 -24 043 022 042 058 028 008 -51 -01 -56 -25 -42 062 008 044 040 073 049 084 -39 003 -42 -52 028 -28 028 056 -29 026 013 -39 002 -13 -09 022 047 -17 -53 072 077 -10 -33 023 013 052 -61 -42 070 -63 032 069 -09 -17 
-05 047 -64 -15 029 004 -49 065 -19 033 -06 -36 -54 037 -44 030 029 -40 -50 037 025 -15 031 -61 -26 -61 026 -70 -56 -71 -42 045 -21 -13 -43 042 071 -02 -43 067 -03 012 -56 021 000 -48 -52 038 -39 -50 027 -38 013 -63 025 007 -23 -18 -21 -51 032 -18 -50 023 
022 -06 069 052 -31 052 010 054 008 038 005 -57 -36 050 029 075 -51 015 052 048 055 -56 049 -60 033 -29 -44 -68 050 022 004 039 048 -52 026 -33 040 028 -55 036 -53 -58 075 -49 -23 006 038 001 -33 030 -66 -58 -22 -44 027 043 015 -17 -25 027 -26 -33 032 004 
031 -11 022 -60 028 036 049 055 -44 -35 -24 -55 -18 064 002 -67 021 015 030 032 -53 023 043 -41 -40 -27 -12 -06 -02 037 -22 012 028 023 -39 050 -12 040 -37 042 -29 -40 -55 016 005 023 054 036 -54 -21 -14 -33 -23 068 -46 -38 -59 002 -56 013 -03 037 010 062 
006 046 -03 -28 054 -17 -48 064 072 048 -53 -58 000 -40 009 059 -30 -36 057 016 -38 -36 -18 014 -65 -64 012 052 -44 -45 -48 007 009 022 -46 -14 064 -10 -27 052 -45 -67 -32 -31 -38 057 -39 -58 -07 -14 -26 -08 -32 -35 -19 000 045 -28 046 -51 -15 -05 034 -55 
-39 -53 -69 -59 -25 -42 -28 057 008 053 -39 039 073 -37 -41 -51 -35 034 041 010 025 -55 -22 032 -37 037 008 072 061 023 039 041 -34 -40 -10 -15 029 -71 -13 066 -58 006 073 -47 -41 -52 009 -12 027 028 -48 058 -31 039 -03 004 -31 -41 028 001 020 046 -60 042 
061 -30 038 013 021 -29 026 027 065 -19 -63 -64 -21 -30 027 -07 -21 044 045 -10 054 -18 019 035 -37 008 026 -51 -39 -76 030 005 026 -07 -33 -51 044 -75 -48 003 -50 -14 -75 -14 018 032 -12 -13 058 -21 022 -62 -47 067 -33 005 027 -11 -66 -63 -41 069 -43 040 
069 060 070 027 036 -08 023 026 -46 047 -59 -30 -09 -56 023 035 000 -41 -35 004 019 010 045 -16 -11 008 046 033 000 -48 -40 -28 -42 -17 -49 013 047 061 048 -77 -45 038 -31 029 015 034 -49 -17 -56 043 023 041 -52 056 -43 034 042 -38 -58 -54 036 -63 -20 032 
-59 000 043 020 -33 026 043 015 009 046 -42 -35 069 -71 -51 063 044 030 -64 050 -29 058 003 -41 011 018 005 -13 018 063 -12 009 000 033 -12 012 066 073 -33 -53 -46 -54 034 -16 040 040 -43 -46 -54 -06 056 021 -35 -52 038 000 -20 011 -63 -53 041 -01 042 044 
-73 048 069 000 043 016 000 056 002 -29 -09 020 062 003 049 -83 041 -36 -33 026 016 -55 -10 -14 -64 057 -31 -70 -37 -08 -23 031 -28 -36 -22 027 -20 029 -38 011 005 065 071 038 021 054 -32 032 026 053 029 056 030 048 -02 -04 -24 027 049 -28 -12 055 010 024 
068 025 043 -26 -14 -48 009 -29 -28 039 -21 -59 -03 -72 006 -73 -48 -45 -51 -30 027 014 009 -64 -58 -24 -12 027 033 000 -55 002 -23 047 -01 -58 -33 079 025 -05 050 018 018 033 034 -08 -17 017 -46 -40 -22 062 -11 036 020 -10 036 024 -14 025 -32 055 056 -52 
-44 041 060 043 -07 044 -23 060 042 001 -28 -13 022 055 -50 076 032 -41 037 000 011 -30 007 002 013 001 033 -16 -64 057 039 051 017 -38 045 -29 -34 021 -16 053 006 040 -38 009 025 -43 019 -27 021 025 013 -08 -32 -65 -33 -50 044 017 073 065 -06 -09 053 -32 
035 031 029 026 011 045 020 042 045 012 032 022 026 -52 037 076 -30 035 -15 -28 -52 014 028 -28 -42 -31 004 -58 -44 -45 044 060 -26 -06 -30 003 -14 -20 -40 -55 013 046 059 044 -55 -48 020 020 -34 065 -27 -07 -43 -30 -53 -24 -12 -16 -56 -50 030 -08 001 006 
-29 -24 068 000 -54 007 -13 008 -69 046 020 063 -25 052 014 081 -18 -58 047 -11 042 -22 -31 -49 030 -22 015 003 -09 -18 -49 031 -30 052 -43 020 050 069 000 023 029 -10 -56 -12 -32 -12 068 -38 -24 -53 -68 040 -70 030 -45 041 -20 048 -23 030 020 -40 019 -15 
-63 -41 -26 033 005 035 039 -13 -09 004 -41 -22 -64 002 -29 013 -18 -09 -08 011 006 -61 034 034 042 -67 034 -56 -63 -52 034 -10 -45 040 -25 054 000 -69 019 070 -57 015 065 048 -10 -03 043 -28 -24 059 -62 -49 036 -03 003 -45 054 -34 001 006 -16 036 018 006 
-77 -21 -32 -57 011 051 -07 018 043 -28 036 -04 -39 -60 -34 -40 -55 015 037 041 -41 -37 015 -54 057 004 040 051 -08 -67 018 048 -27 031 029 -43 055 017 022 -06 -27 -38 032 -18 026 -54 037 -59 025 -55 027 058 -06 047 010 005 -01 -15 061 018 -18 047 031 -22 
042 -60 -14 -51 -30 -35 038 -66 055 053 -07 038 -68 -30 -18 034 020 021 014 051 049 053 -53 046 -01 034 017 073 048 082 047 000 032 032 -38 025 004 -53 011 -44 023 041 026 -25 048 -33 047 004 -66 018 065 -14 069 -65 -02 051 -56 044 043 009 -18 042 -17 003 
-64 -61 034 -58 020 001 -26 006 -26 -05 -09 018 019 -65 035 -77 -08 -51 -21 -42 -10 029 006 -18 -17 -25 016 -20 -26 040 002 -09 -39 011 -34 -27 031 030 037 -74 -25 054 048 -59 017 063 008 054 -57 -38 -60 -35 020 -72 048 -26 -07 -01 045 -51 -01 -43 -58 033 
-65 003 -22 044 -49 -53 -49 003 001 047 026 -59 044 -16 030 -73 018 -42 -60 032 -10 055 -36 054 -47 048 -19 013 -13 -12 034 -35 020 -06 015 -26 -66 059 -39 -48 024 024 073 -13 047 -07 -60 008 039 039 -56 -05 -51 043 -08 -36 -21 -20 061 -62 041 -23 020 024 
000 -60 -67 -34 007 050 -31 038 -59 -01 033 042 -64 003 048 064 -16 -49 -03 -41 039 -56 -05 019 -48 055 -10 -45 -28 042 028 023 -36 017 015 -54 009 065 -40 -55 -54 018 031 -02 032 029 -40 050 033 -76 012 -51 018 038 052 -02 038 041 -24 -23 -46 -27 051 -59 
-61 -09 069 -59 -20 019 030 -48 -50 000 -12 -51 025 -34 037 -71 -51 -47 019 -33 041 040 029 -43 -47 012 -30 -45 010 -04 -33 -51 052 -25 -21 -61 -16 -74 037 -44 042 000 -20 027 002 033 -06 054 034 040 062 -25 -23 -67 -51 032 016 049 -25 -13 000 -02 027 -21 
-08 023 061 024 -05 -35 020 -52 -67 -40 023 026 -48 053 -43 085 -47 027 051 020 -51 -03 043 013 -37 054 -01 -64 -03 042 026 021 -49 034 -10 042 -33 -24 -09 021 037 -02 -72 -21 049 -52 -03 038 044 025 -44 054 -42 -12 009 -07 047 020 024 019 -38 032 -41 046 
032 -59 025 -31 026 053 -28 021 026 -14 -36 -51 -25 -68 030 072 041 -07 009 -47 -15 -55 -20 -59 -06 042 013 051 -47 -06 -14 -59 -31 004 014 017 020 -52 -36 -42 028 049 -09 -57 -07 067 062 -26 005 -47 016 -48 036 067 020 -09 -62 021 075 012 -06 045 -45 -28 
013 044 056 018 -26 033 025 -16 -51 -30 -53 -58 -44 043 -02 -73 -27 -32 032 -57 -33 009 028 015 -36 -05 000 -38 060 -05 -11 -52 -47 -45 -27 054 075 -21 020 -43 040 -59 -57 -27 -27 056 -13 041 049 007 049 -67 068 037 -29 -30 -29 036 027 037 038 010 -12 -52 
012 008 -33 047 013 -21 -11 -47 027 -48 031 027 -33 036 000 -25 -12 034 004 001 005 015 026 019 012 -66 -20 -66 -51 -03 015 017 -57 049 -46 -06 -32 037 020 016 -25 -53 -59 -55 -52 054 -68 024 030 031 -04 -53 044 017 041 -21 -17 -08 025 -43 -27 -07 -29 -16 
052 -01 -38 -29 011 -57 047 065 054 025 -19 -56 077 -07 -31 018 042 014 024 -10 060 -38 050 062 023 -48 -05 089 022 -34 042 013 -55 -02 -34 050 008 054 -30 029 -49 005 026 021 -18 019 004 003 -55 -38 031 -07 -37 051 026 029 -38 005 045 050 002 -25 -22 -55 
039 043 -36 -04 013 027 -48 -02 -49 031 -03 -45 -58 -07 -39 081 005 006 -31 -23 -07 033 -32 034 -22 -65 021 086 -20 012 011 006 -33 -53 015 -04 -43 -56 -48 031 007 042 071 -57 -40 074 051 030 003 -41 060 047 008 -16 032 012 -26 -38 -18 002 -29 -55 -05 -05 
-31 -33 -26 -51 -39 002 -56 017 081 -47 036 -11 -06 -37 -37 075 061 -30 002 -05 054 056 -03 052 028 -62 002 020 -42 041 -33 -42 -60 019 012 023 055 078 -21 -07 024 032 020 -56 002 -17 053 -08 -52 011 -68 028 -61 078 -42 -50 007 -05 024 -58 023 -57 -54 020 
047 -64 010 -12 -13 -01 -18 -65 060 047 040 -54 040 -70 002 -35 -44 033 -62 004 016 051 057 -26 -54 -13 -38 -16 012 074 -50 -35 -16 044 -19 -11 -28 -63 -20 088 006 -60 069 -54 -42 -30 026 -29 015 026 045 014 -17 064 -31 -06 047 022 058 -14 -15 090 -35 006 
002 032 037 -49 -30 011 000 051 002 012 -34 062 -69 -45 048 -84 017 048 -33 -17 046 -49 -09 049 053 001 012 -03 -57 093 -48 001 -59 -21 -27 -46 057 028 027 090 -31 -37 -44 -56 036 -58 052 -37 029 -28 -50 055 015 055 038 033 -42 -14 056 -11 -48 075 002 020 
-45 046 042 050 059 038 -48 -13 -06 026 -53 -72 057 -52 -11 -10 062 011 -09 011 053 029 025 042 -44 062 047 011 -70 065 -26 041 008 -08 -42 038 020 062 015 -22 051 042 008 019 -50 -46 -25 -49 034 -56 -41 -07 -11 -77 -22 018 -03 003 -64 028 -45 028 -08 -02 
051 -64 066 -40 058 039 -39 -55 -02 054 054 -16 069 -10 -51 057 007 050 028 -27 041 -02 040 -44 -36 004 042 -18 015 -43 -16 -50 036 -07 005 040 -70 -52 -32 -80 -08 -08 043 011 047 -28 000 003 047 -09 038 -61 004 007 -34 016 -29 -08 -55 012 -30 019 -24 015 
-55 048 052 004 027 -10 010 -26 -71 -41 -51 036 068 -32 -23 -28 -56 011 019 023 -34 047 048 -27 -61 046 018 -45 -64 -27 -23 062 020 010 053 030 025 034 023 -63 -45 027 023 036 021 053 030 054 -64 069 -69 -18 -03 000 -19 013 -35 -55 -06 006 006 -15 057 003 
-22 059 072 020 -34 -52 -38 -42 065 -31 058 -21 -16 015 035 021 -36 051 011 014 020 030 -51 014 -04 004 -19 -19 009 -39 046 -09 044 039 -05 -58 -14 -13 039 -60 002 043 -41 036 -52 017 -60 049 034 044 -28 030 003 019 031 -55 038 -51 -23 043 019 055 004 001 
-69 015 038 -33 -29 -13 -51 -52 020 004 -59 -10 045 057 -30 077 043 -09 060 028 003 007 062 -18 -08 -59 023 -75 -48 013 056 024 039 -25 -24 014 007 -78 -15 063 018 -24 039 022 044 -25 -23 -45 013 072 073 -45 028 -64 002 -27 -15 -27 044 033 -29 -73 029 000 
054 -56 055 -55 028 -54 -09 014 071 -41 032 -68 -40 029 039 070 039 -38 -60 -01 -22 -43 060 018 010 -69 050 -03 -76 032 025 062 052 -42 052 041 -24 025 -33 073 -31 -52 -26 018 -25 066 011 047 018 015 059 -36 036 -04 -22 034 -51 -33 053 006 -25 062 -31 -14 
039 -37 020 045 044 038 051 001 -60 -31 010 -01 020 026 -16 069 -42 -16 -51 -02 -20 -37 045 018 -16 018 -49 -12 -26 -74 -44 010 006 -19 022 003 -58 -22 022 066 -16 037 065 034 -05 021 066 -24 026 -32 -71 -07 036 047 015 020 028 015 048 -27 -20 047 -61 -42 
-15 018 -12 -53 016 -22 -13 -07 -24 000 -12 032 -30 -58 -10 -12 015 024 022 035 -66 -53 -47 059 -20 -57 -08 012 -41 034 037 -06 -37 -49 034 -44 -55 045 -36 -80 -10 -47 -31 -30 006 026 -56 014 013 008 065 058 -51 -66 022 -55 033 -22 -21 -20 000 -34 021 025 
-32 -47 -41 041 -27 -35 -31 -19 059 043 -61 057 -38 063 -37 -55 -20 028 052 010 019 047 -55 -65 -01 -48 -13 -17 -35 007 -46 -53 -27 047 032 020 016 -58 039 -75 032 040 054 020 -52 -57 -52 -54 -35 -59 -60 -34 054 062 -24 027 -42 -38 062 -27 -36 050 018 010 
-65 -57 -16 -41 018 -36 -43 064 -70 -38 021 015 003 063 -32 077 -08 016 058 050 -63 -08 -63 007 054 -51 013 -22 035 -57 -37 039 044 -16 001 022 -25 -51 009 -34 060 003 -78 -41 -40 -23 035 -17 -64 066 039 026 -42 026 -06 -35 013 043 -09 039 000 030 053 -04 
-57 -28 059 -18 051 -02 -22 -25 -59 054 054 -43 040 058 -36 -24 061 -57 016 017 002 001 023 -38 000 068 043 058 000 074 -61 026 -15 -15 055 049 021 -59 -11 024 -59 -25 025 -12 -25 069 030 023 -61 -70 -62 001 -33 -62 044 -29 -43 -13 -14 -33 -41 -19 003 032 
-54 025 -36 059 037 006 039 013 006 -49 029 043 062 004 -24 -28 041 045 009 013 -12 030 011 -12 -16 -65 -25 055 -26 033 047 017 -37 -18 031 049 012 -12 015 008 035 063 -60 036 -08 -30 -35 -28 -45 -60 067 -61 054 026 -57 032 -01 015 -33 -57 012 048 -15 049 
079 023 027 -57 035 -15 -42 034 028 -12 -15 033 -04 042 026 030 026 015 -39 -29 -37 049 -57 036 -23 059 -34 006 087 -69 002 -66 014 -14 035 052 -31 004 044 -05 014 055 048 -13 -51 -43 081 053 -39 061 072 -64 015 -55 050 029 -14 021 017 012 -48 007 023 036 
041 -61 -68 -16 044 051 042 036 -42 023 -01 005 045 -46 -33 082 030 -57 -48 010 019 056 -02 039 055 080 018 009 029 038 -03 -51 -47 -17 035 -25 063 -55 -35 -43 -43 -25 -47 -14 -59 067 024 043 056 -13 017 -51 -31 -29 020 -29 013 031 027 016 -04 033 -19 -32 
-44 -16 047 053 002 014 036 072 086 -18 -09 029 065 -49 015 017 068 -36 -59 057 -04 -35 042 -20 043 -34 042 012 011 -72 -54 -27 029 011 -43 -62 005 059 -27 060 -24 040 -33 -28 -14 -17 059 -43 060 -28 059 051 034 -36 -13 -25 -19 -19 -61 -24 021 077 053 -45 
060 012 076 007 -60 -36 042 -06 061 -04 007 -42 063 -32 -55 056 -18 -45 -23 031 -10 006 042 -39 048 053 031 002 065 -42 007 -15 044 008 -51 -15 064 008 029 -52 000 -32 -04 016 -42 059 -40 018 -64 017 044 001 -05 004 015 -21 051 012 081 012 -18 078 -08 010 
076 -20 000 -06 033 030 -30 050 -09 046 052 051 085 -38 -14 -30 006 -57 -48 -08 026 -40 054 -13 044 048 -25 -34 021 041 -45 003 004 -21 -09 -35 -57 001 -22 -13 045 -66 -63 026 -30 -45 056 042 -12 -76 -18 -22 -68 -67 -16 021 047 -47 -47 -47 038 030 -52 003 
049 022 063 021 -48 034 044 -21 002 049 -06 -64 023 004 -21 -70 -45 -23 002 004 -06 -29 -57 -27 -43 -61 034 024 082 -86 056 038 040 -14 005 027 040 -66 -06 006 -02 028 -32 024 021 005 -57 -09 017 004 -20 054 -52 053 050 -16 -44 017 -33 -42 -08 073 -47 -15 
-43 052 083 -19 -38 -24 031 -26 038 011 -03 -61 058 009 004 057 -55 -25 -21 012 -25 005 -49 -09 035 006 013 -39 -09 055 043 -56 036 -18 -44 -06 -28 029 000 007 -02 -59 -40 -41 036 031 008 000 048 084 064 -27 064 031 -08 -26 006 001 040 018 -30 -13 -45 -05 
027 -35 050 058 -56 -39 050 035 005 001 060 -32 009 041 -49 -74 -52 048 -36 022 054 -53 -12 051 -19 009 012 -37 065 -61 -17 041 -36 008 -15 013 -59 -78 000 -50 -27 -63 047 -05 -04 -01 065 -26 004 067 006 -11 016 -26 030 -43 046 -37 -04 006 -40 -54 011 -13 
013 -21 -63 -37 032 -10 025 -29 004 051 -52 050 -15 064 018 040 -12 007 044 -29 000 -50 -29 -61 -39 -42 013 -43 017 030 -30 054 051 029 040 014 -10 031 013 -66 -42 -20 057 -17 028 -22 042 003 020 062 068 -49 -25 -12 -20 032 -25 041 -34 -09 006 -29 038 -29 
-27 003 -37 027 -29 -47 006 026 -64 -49 047 -44 044 028 027 062 025 046 029 013 059 -44 052 025 -46 061 045 022 066 039 056 005 -02 041 -21 -04 -59 -39 023 004 011 -33 -08 018 017 006 -35 010 -33 -72 066 035 -06 030 -36 -29 024 -33 -57 052 -34 064 -22 017 
026 014 -15 -54 052 -23 036 -57 033 000 001 028 066 -23 024 -08 018 021 -55 017 -10 -37 053 -08 001 -01 -53 062 -57 004 009 043 023 -18 -21 037 051 -57 -39 031 044 049 -10 -02 046 056 -22 024 -25 -73 -43 016 029 -16 017 -44 -38 -43 -65 012 -38 -31 -58 033 
-31 054 -59 053 050 -27 -39 061 -24 -06 010 055 045 -59 047 -73 -57 -08 016 -49 -19 -12 041 046 -27 012 013 061 -71 -81 -26 044 052 001 020 048 062 -72 031 047 030 038 060 009 038 019 -35 -18 -27 073 -11 000 021 -40 -22 027 032 -17 036 023 012 011 018 032 
013 -56 -66 -59 -54 013 -06 054 047 031 -23 042 009 -10 010 009 -18 019 000 -16 -52 038 050 010 034 -49 -46 -61 040 040 -05 -17 -56 -48 -15 011 -07 074 038 033 022 022 -34 -17 -54 061 010 -07 009 018 050 -58 023 051 -29 -40 002 -51 061 -60 -31 -54 -29 -51 
054 028 061 001 059 -52 -25 034 -39 021 -56 067 038 065 -13 002 054 -44 -24 -55 024 -01 -26 055 030 042 -47 -66 031 -68 -53 -49 -46 -36 034 003 -66 -49 018 -45 -21 064 -23 -51 016 -66 -44 035 054 024 042 -10 -54 044 018 039 049 -31 060 -51 019 -64 038 012 
-29 -28 -03 009 -21 -24 -47 054 -50 -34 -41 -10 -72 026 052 -61 036 -07 -21 022 045 -58 -41 017 -39 -09 010 047 071 -44 -03 -43 -29 -49 -43 -25 035 -42 -45 055 -43 -37 -25 -31 040 039 053 -27 -56 052 027 058 062 -02 -17 -53 -19 033 058 025 -01 014 046 043 
032 -49 -66 -52 047 -45 001 025 075 036 -02 -42 041 049 035 055 -53 048 -53 -32 000 -32 -04 -37 -15 042 -21 070 031 032 006 -54 -38 -04 -08 -45 -53 056 -09 -39 -47 -26 -57 003 -41 065 070 050 -51 000 -26 045 055 -52 051 022 -07 -09 -72 059 -29 064 -08 058 
000 049 048 055 -40 -36 003 019 -37 -27 -17 037 048 -68 -39 -63 -47 -31 -42 -35 006 043 -45 -65 -22 064 -49 -39 -55 -55 -26 -33 020 -34 -50 012 -61 074 032 -70 042 031 -78 013 -06 035 066 032 054 -01 016 -02 069 -67 043 009 -61 -14 -21 -32 -02 067 -34 -43 
003 005 026 -33 -09 056 000 -52 021 -32 029 -41 -69 025 040 046 002 -18 -41 -49 008 -58 038 055 000 006 -21 058 016 071 -31 -04 045 017 004 011 062 018 042 044 -07 -64 065 -33 -46 065 -59 011 -05 -73 069 053 -30 002 -03 -47 -54 055 -01 -27 014 -59 040 042 
-29 037 064 -23 048 -13 049 013 -67 -46 -18 060 -34 033 -48 -67 -41 -06 026 -09 040 -59 056 045 -46 -54 -32 070 029 075 -04 063 033 -06 051 018 043 -58 -06 -25 -16 062 -59 -08 027 -30 -03 008 033 052 073 -10 -74 027 037 024 043 045 -38 055 -47 -03 026 -48 
-52 -34 -50 -42 -32 -01 051 -03 063 043 -31 -31 011 -30 037 -77 013 -08 -42 007 057 044 -11 019 -35 014 -34 -17 021 -08 -22 -65 -55 -12 -33 044 049 -49 -19 -32 -16 026 057 039 -14 006 055 -33 026 055 -51 -04 066 -68 -29 002 -16 -27 -44 -31 -06 -29 -31 -43 
-28 032 -28 010 -01 -37 008 -59 -27 -22 018 037 009 007 -33 -74 014 040 -21 -29 061 -29 045 002 004 -62 -14 031 019 -60 -45 047 -16 -09 013 -19 -23 034 040 066 -56 -47 013 035 -34 004 -42 -40 022 -45 011 -55 071 -54 020 014 -27 -18 002 -36 -13 050 -62 027 
-33 -58 -52 046 009 -31 038 046 062 -45 022 -52 033 008 -17 -70 047 -25 -39 035 047 005 008 -50 -31 -47 018 -23 -62 -48 -46 043 -53 009 -01 -07 -10 -43 -17 060 -19 -66 047 -47 049 -49 033 038 -35 011 -37 -52 -50 023 045 012 021 -19 -13 -15 -40 056 -20 024 
052 -64 -49 006 -13 -24 -34 -61 050 -09 055 -57 065 -36 010 057 027 -61 -48 -42 -20 053 -52 -47 -46 -36 -43 -51 -02 021 -36 -62 004 007 047 019 022 -29 -13 019 040 053 001 -32 025 032 -13 -14 -60 -35 -21 026 -74 -59 014 005 036 005 -58 057 -13 026 018 041 
070 036 020 056 052 -39 018 047 047 -19 -57 003 049 002 -53 001 -06 -23 -45 049 -58 -15 055 021 017 043 -47 -33 070 -04 042 032 -42 033 036 053 -55 055 000 070 035 029 -39 -02 -47 -47 -66 -09 058 -39 -08 -61 -02 -48 030 -18 -38 047 -01 034 -03 -70 -19 -14 
-19 -60 023 000 038 040 -16 -36 060 -08 -50 049 053 -07 047 007 031 -42 025 047 -36 -04 058 -50 000 -12 -06 027 -62 012 -03 -61 -24 -02 -43 034 -25 025 -19 -33 055 -56 043 -35 -42 -39 -28 -31 -59 -30 -75 056 -24 -63 020 049 -05 -54 049 -44 -32 050 -47 -19 
-47 055 016 056 -18 -13 012 -05 057 044 -40 044 082 -36 021 -22 037 -53 -33 -32 065 -54 051 015 037 -62 -01 068 072 -18 016 053 022 -08 034 -28 -63 -20 035 003 058 -51 -58 004 -12 -24 048 -25 -62 029 037 004 -36 069 -52 -51 -36 -08 063 -61 -31 036 -18 -35 
022 014 053 020 -43 009 -02 -37 064 -03 -26 044 031 -50 -24 -72 050 058 008 -37 069 -14 -33 036 -19 042 -35 051 070 075 001 079 -59 -36 -31 -13 -51 -76 -43 -68 023 046 -75 -21 -22 -44 -49 -37 007 -34 010 -20 -08 022 046 028 -29 -23 070 072 020 -42 062 022 
-04 -54 046 018 049 038 025 -18 -60 -34 -14 -67 -55 -06 -34 -49 081 002 -19 -28 059 -40 -22 -43 028 -20 -19 014 -79 027 -06 -24 026 -05 -36 -32 -13 -60 -20 039 025 034 -42 -02 050 -08 -68 -24 029 -24 040 -16 -94 -57 -35 017 017 032 003 -47 -36 -53 -54 044 
-64 -10 023 050 056 -48 -58 003 004 -01 031 -34 -09 022 012 -14 061 037 061 -26 -56 -45 051 035 -49 -56 -11 058 -63 -22 -40 -17 017 -41 035 051 041 056 040 -85 -36 -35 041 050 -22 013 -08 -04 029 071 036 -20 -36 048 -14 039 -29 -20 077 019 -30 -19 038 -30 
-60 026 -57 030 -39 024 008 013 017 -25 042 -59 002 -08 045 076 -38 -21 049 -42 045 -14 -33 028 038 -37 024 -18 065 -42 -34 -19 -26 -43 -12 030 -38 -33 -49 020 -52 -55 -52 003 055 055 -23 032 -50 -61 -48 060 073 -08 -18 -12 019 -13 047 013 -13 -53 -35 016 
063 -62 -32 -21 -07 028 -06 -12 041 -10 -27 009 056 026 013 039 042 013 -28 004 024 -21 050 032 -42 031 -42 061 -55 -68 041 017 006 -27 -41 -30 039 -10 -14 012 -37 054 013 026 -15 065 -05 018 050 033 046 040 -74 018 007 -31 057 032 086 -17 -14 042 -54 -52 
-43 009 061 004 -47 -03 -50 067 -28 004 -21 001 060 -33 032 -85 -55 024 -45 024 -47 057 -31 -48 047 -15 046 -47 012 011 004 034 -49 001 019 012 053 -70 005 -04 046 -30 -48 028 029 -56 068 016 -29 -19 013 048 007 -51 -30 034 039 -45 -03 -41 036 -05 -65 -18 
-18 -20 -38 -16 021 -09 -54 011 057 021 053 038 -33 021 -14 -16 024 010 025 -39 -66 -19 -19 -40 -36 -72 -35 069 -73 018 064 -20 -14 -07 016 -50 -77 065 -11 -68 009 -12 034 -10 050 000 -03 -52 021 039 -79 014 048 042 -02 -23 033 015 042 040 039 -42 -09 027 
-44 -59 -03 -48 020 -25 -33 016 -39 -32 023 002 055 -11 -49 -17 034 011 063 017 009 -50 -31 -31 022 036 044 085 046 073 025 -30 -61 -27 045 -38 061 057 -33 074 -36 -42 055 -06 -08 081 077 008 038 -33 -45 -42 040 060 -59 -45 043 007 073 049 032 061 -47 -59 
-56 -40 021 047 -46 -06 -43 -50 029 026 022 064 032 -61 -31 -24 -30 -27 031 048 028 -52 033 059 025 060 006 -34 -49 -16 054 -08 -33 005 -36 031 017 077 024 -07 -26 -47 -26 053 045 024 066 -17 011 028 038 040 026 -28 005 033 010 -44 -52 -55 -02 -42 035 058 
000 057 -06 -07 -57 -52 022 -21 -03 051 009 -62 008 045 008 070 -33 003 -11 029 -50 039 057 025 066 -05 -29 078 -74 -07 -55 047 038 036 035 004 -15 -74 -36 -45 033 058 -06 -19 -16 023 065 041 038 -31 -51 -30 027 -41 -31 042 052 -25 -06 025 042 036 -32 -05 
008 -67 024 053 011 025 -06 065 -07 -24 -31 028 066 -69 -23 064 058 049 -36 046 -08 021 -47 -11 026 -17 -34 072 033 -64 -61 039 048 008 030 -25 -54 -73 000 010 -09 -44 -79 030 023 000 -59 -05 032 -70 068 -37 079 050 049 023 043 -52 022 046 019 015 057 -54 
-05 048 016 018 019 019 -14 -32 071 025 024 062 047 -70 -42 027 027 -53 040 016 -19 -02 003 -10 020 005 -47 052 043 044 031 -54 050 -32 049 -33 036 -01 -33 077 045 000 031 000 -21 001 -47 -56 -60 008 -42 043 049 -70 036 020 -46 050 014 020 -08 -58 049 028 
049 028 041 -46 -58 035 -07 -31 -41 013 037 -02 -14 -42 -42 076 -25 -26 061 -29 038 024 058 -07 021 -49 -52 -23 057 -60 028 032 -37 045 011 -10 -30 044 -43 006 046 -05 023 037 005 016 075 -61 058 -10 -53 -58 -55 -68 022 033 019 -43 -43 023 -38 -61 031 -26 
059 021 033 -45 -21 -58 020 042 -50 -19 -12 -28 045 -04 000 038 024 047 -35 -50 -55 056 -04 028 039 -68 015 010 -56 028 -17 024 -31 049 004 -41 006 051 023 -16 035 -41 010 -15 049 -61 -59 -45 -20 -42 001 033 081 -67 -51 048 -03 008 049 004 -04 027 -41 044 
-71 -36 010 021 036 009 016 033 -29 -47 023 053 016 056 027 -42 -08 -05 034 018 024 -47 021 -55 045 058 -53 063 012 011 -57 007 -08 -41 019 054 035 068 -32 -56 -11 -35 -54 021 -12 -46 -40 032 017 031 -39 055 017 -67 -21 -29 039 031 -57 -25 -39 -34 013 -54 
-40 005 058 027 -14 005 -24 020 052 029 026 035 068 052 -13 -60 045 -13 039 036 -34 045 058 022 052 001 001 063 067 -68 -24 058 025 046 -55 -60 044 069 023 -53 -12 039 -83 011 -03 022 -52 043 -48 -17 023 -09 049 -58 -45 023 -23 041 -51 069 -32 052 024 053 
022 051 -06 -29 -61 -29 -04 -22 -33 -45 054 -51 -38 008 -20 -88 035 042 021 003 -35 024 -65 -59 -14 -17 -36 016 -25 003 052 -22 000 048 009 033 046 -69 039 -40 022 012 -06 -25 018 060 -15 -25 045 -49 -23 -63 048 014 020 -21 020 -23 050 059 -47 -08 057 -45 
-42 -41 045 042 030 -34 035 -56 -71 021 -52 -25 047 -66 -50 057 043 -20 -24 026 -43 -21 043 -57 -43 008 -11 029 -40 019 056 -35 017 023 -28 022 -07 003 -31 -37 011 041 028 052 013 022 -46 -44 -48 -68 -75 -05 -44 -39 -27 024 030 -39 -50 -68 043 -12 -32 016 
-31 056 -43 053 039 020 022 -55 008 004 047 064 014 -72 014 037 -10 042 -40 -01 044 -13 -33 -12 015 -19 039 -19 002 023 023 -17 -33 036 -01 -35 -35 -37 001 -65 -34 032 007 046 051 037 053 -05 061 019 -34 -32 040 024 008 -54 057 -39 019 021 036 -52 -35 049 
044 -06 -45 037 -24 -03 021 -40 -38 -06 005 005 -63 -64 047 003 037 -21 012 041 015 057 035 -58 -38 -06 046 048 038 -49 -27 -14 040 -32 013 -54 -05 073 -09 -45 001 020 -47 038 003 038 -19 043 048 006 012 058 -34 049 029 -23 017 -13 089 -09 -01 036 -50 018 
-47 -66 030 000 027 -47 -45 -39 018 -07 -42 -07 015 062 -14 -46 -16 -09 023 -11 054 -26 -64 019 -53 -37 028 050 -16 -72 043 -53 051 001 -50 -47 037 039 -39 058 -33 -61 -20 052 -53 063 012 -53 -60 033 030 013 073 -60 037 023 -05 -56 -78 028 -50 -19 001 -55 
-15 -66 -29 045 014 002 017 000 067 -15 021 029 -23 -41 002 -56 -57 012 -39 004 044 -34 006 060 -55 061 039 -11 051 045 -12 -01 -57 -06 020 -01 -45 019 -21 -74 -25 -07 -73 -35 036 025 030 -12 -60 037 032 024 070 -31 002 051 009 021 -71 -05 -36 070 -57 002 
018 -29 003 -42 061 034 028 034 025 -29 -46 -15 -28 -01 -19 089 044 025 -54 029 -10 044 -32 040 007 003 029 -02 013 -63 -47 043 -12 013 -58 042 012 007 041 029 -49 -23 -32 -21 013 051 028 -15 -21 -65 -62 057 032 056 012 -45 009 052 003 -64 -13 012 015 005 
-24 -57 -74 013 -40 053 046 -26 020 -13 007 -53 -51 -40 011 -35 019 -62 -26 -01 -10 -09 -59 -05 -62 064 -52 024 071 -57 -06 -51 -24 -45 039 013 033 062 -12 -02 054 -53 045 -06 005 -12 -33 -58 022 -54 018 041 063 -31 -50 -26 041 -23 -79 064 -01 046 005 028 
019 044 026 029 042 -53 -40 -73 054 008 -05 -36 -56 -52 -49 023 032 034 -22 004 049 004 011 -49 -53 041 -31 088 -83 -27 -38 018 -18 008 035 -59 -59 054 -18 017 013 -19 -09 022 -54 016 -47 -53 -65 025 051 029 065 -51 -55 033 009 -01 -30 001 -15 -23 049 -13 
051 -66 -73 020 -25 -28 -50 024 078 -34 008 -46 071 -10 -04 -81 000 049 054 -25 004 056 006 -55 005 018 -05 -16 058 -65 -07 067 -32 -55 053 020 -32 055 -24 049 021 044 -45 023 047 -19 012 -39 020 -12 -38 -05 013 -58 -51 050 006 028 036 068 -17 066 -18 040 
-34 -53 071 -33 -13 038 031 043 028 032 053 -43 041 -50 -22 -68 026 -45 022 -27 -49 -09 035 -36 -49 044 021 -14 -30 -11 028 -01 052 011 -18 -16 033 015 -25 -47 010 058 -16 012 -39 060 -58 -08 -19 021 -11 -04 -72 069 -16 032 038 -43 011 031 -08 -40 -41 001 
063 004 -38 -54 -55 033 047 -38 -36 037 -05 040 052 -10 040 -11 017 -34 035 013 -59 -54 -10 026 001 003 -52 -69 056 066 024 -36 009 -05 -03 038 -23 -17 -09 -27 -34 -55 062 025 035 -06 018 020 046 054 007 -47 045 -46 -24 -47 052 005 024 007 -06 001 052 -15 
-40 -41 022 046 -27 -02 -50 -58 -05 032 007 -60 -37 051 000 -16 -39 -56 -18 033 -05 038 -40 053 056 014 -30 -69 -71 008 057 -11 015 021 -09 -20 033 -20 -35 -57 -10 -47 -05 -44 -50 029 021 -29 005 022 067 -57 055 012 009 -46 -20 048 -21 -52 006 -68 -48 016 
-29 -26 065 008 028 -40 -14 -15 -46 050 -26 036 -17 -57 008 -26 -43 -62 -20 -49 007 -61 -58 030 002 -32 -25 -01 000 -81 005 -56 006 -24 011 023 -53 -28 008 045 051 040 073 011 -24 060 -66 -13 019 -63 -57 058 -18 -39 -12 004 022 019 016 -02 032 004 035 -09 
-68 -45 062 001 -49 -15 -04 -14 -67 -33 021 -35 009 -06 031 072 -31 -50 -34 054 008 030 -41 -11 -17 042 020 -34 -40 075 -21 028 -17 011 -35 031 064 021 012 -24 -42 054 064 011 -28 -17 052 -29 -61 062 -63 -40 -70 -70 -09 -31 -61 031 -67 -59 029 059 053 047 
023 058 027 009 058 -57 041 -39 059 -07 007 -39 032 -43 045 -53 -53 054 009 -19 058 012 -05 -47 -44 -13 015 -58 -45 016 -03 -45 004 -46 046 052 003 065 -44 062 036 -43 -38 044 010 -70 -31 002 -65 -13 -65 -60 061 052 014 008 045 -19 -45 -28 033 -31 045 017 
066 -18 065 -32 028 -41 036 007 -13 -09 039 -14 -60 -67 -46 -06 037 -23 -37 -02 008 034 -28 036 037 -05 021 -55 -33 078 010 053 -25 014 -36 047 -35 001 045 -45 057 003 -33 -02 011 064 033 -55 039 029 028 040 -30 -33 032 049 050 -09 -69 012 -46 -13 -15 -33 
032 -05 054 -08 004 020 002 015 051 -56 -06 -56 -46 069 -23 009 020 051 -03 053 -44 -19 041 061 040 -39 -36 -71 030 044 -10 -65 -06 -15 -49 025 -54 056 -15 -70 054 043 005 054 -26 -52 037 -08 048 015 -27 -35 069 028 -15 -27 044 055 043 -06 -39 -44 -02 037 
-45 -43 -69 028 -25 056 -48 031 004 -30 039 -21 046 024 -43 064 -53 -47 050 -16 039 005 -46 041 -62 004 034 -29 -72 -26 021 -38 003 -38 -41 036 -09 -15 -34 034 -46 -57 -51 -03 -52 041 052 -56 -34 -56 068 051 -41 028 045 017 -41 024 037 -52 -12 006 -40 016 
067 -25 037 -50 026 025 -50 036 069 -19 005 043 058 -30 043 -23 033 019 -09 -32 021 -29 028 -14 -66 062 006 -63 -40 -76 018 033 021 003 047 -46 003 -51 -15 046 054 049 -57 034 -05 -08 029 010 050 008 025 012 -37 018 039 -13 037 -51 001 -05 -45 012 002 017 
065 -65 056 048 019 -54 035 035 045 -31 -31 -66 062 -53 037 039 042 -20 -06 -22 -48 -35 -39 -64 051 -63 -38 -47 007 053 -09 054 -11 -19 -16 054 060 062 -20 -02 045 041 061 002 -26 046 061 -03 009 -09 079 -08 059 -50 019 006 051 045 029 -51 042 -08 044 -45 
055 052 -47 012 -46 -55 -51 024 -44 -40 -40 057 014 009 003 -61 -38 028 005 -19 -21 058 -46 -36 047 -53 -19 -56 -04 018 -19 014 -10 -47 -57 -40 -09 -67 -18 -47 -56 -57 067 -02 011 -30 -71 016 058 -01 031 -64 045 035 056 -19 050 -14 055 -20 -43 044 -02 -53 
041 -19 -40 -22 036 -50 019 054 023 000 -38 -70 -62 026 -46 -49 -33 -46 047 -33 025 010 058 -20 -54 -49 -05 -42 -41 080 039 041 -40 035 -55 009 053 -30 -11 -44 -27 -03 075 037 016 066 -65 -42 -08 042 -63 -04 061 026 -28 029 -61 -30 -18 028 -28 002 063 060 
-25 053 068 -09 046 015 -21 028 -39 -40 -23 -65 068 059 029 -66 053 047 048 039 032 -43 005 057 -34 -38 016 043 -40 074 -62 -27 -39 023 -33 -54 043 -54 -47 -61 010 -40 065 031 -45 -53 -20 -20 -25 046 001 -49 -17 -74 -24 002 -43 -54 -11 -25 -23 -27 003 027 
057 015 038 040 057 027 021 -57 -16 -07 -30 -16 -51 052 047 063 034 -02 -65 031 001 021 -62 050 009 025 047 -65 -63 -53 -18 -25 010 -51 006 -19 023 041 011 -74 038 047 009 005 031 -69 012 -20 -34 016 015 -25 067 020 -12 035 -19 033 -32 -08 -24 -23 052 048 
028 033 -67 -33 019 -41 042 063 048 041 016 045 -38 054 -51 -06 009 051 -54 -31 -39 040 -45 -44 061 023 -29 -62 056 -55 -03 052 -34 052 024 -25 032 003 -49 -51 042 009 -22 027 -52 -28 -46 020 006 052 -24 -61 001 064 038 029 025 000 -22 -11 029 044 062 -56 
055 -65 -74 -13 009 -31 -46 -13 012 006 -46 012 -24 046 004 000 -52 -32 038 -07 -46 -32 027 -18 -01 061 -52 043 050 -78 -50 -34 024 053 -02 -13 033 061 -35 074 027 054 -17 033 -22 -13 066 -11 -48 032 -03 036 081 063 -44 -55 057 -04 071 -51 018 -07 -26 016 
032 -59 -34 -41 -13 -05 047 044 045 -41 -28 -13 -31 -73 -25 -77 006 042 027 -12 004 -52 -57 -62 -31 -11 -41 049 078 031 024 -27 -23 -07 018 -30 -38 028 -12 -78 048 044 042 -06 040 -72 -41 019 -25 067 -01 -24 046 -31 -47 -22 023 -34 -61 024 032 -20 -30 044 
-53 -09 -41 039 039 040 -53 067 051 008 -08 014 033 -42 -17 071 -14 -08 -12 -05 -63 -61 021 028 -55 047 -40 016 058 040 007 -40 028 027 -44 020 058 -68 040 -64 004 -20 -19 -08 026 059 009 008 045 -55 064 -07 008 055 -18 009 -09 -40 026 -16 025 -43 052 -35 
-42 039 048 -47 030 042 -40 024 060 044 -25 -40 054 -23 045 076 040 -39 -60 048 055 -12 -14 -62 047 -16 033 -47 019 004 -48 019 -21 025 -08 053 020 -05 037 -01 040 058 -61 022 018 006 004 -02 -60 069 -36 011 017 055 016 012 027 -16 -59 021 030 -69 -02 -06 
066 022 -50 057 050 046 -02 -32 022 -14 -15 -45 052 007 048 -45 -45 015 030 044 020 -29 020 -03 053 -11 028 -30 062 -70 040 -07 -52 -30 -49 -56 049 066 -32 -44 023 -57 -12 -04 030 -60 039 039 -55 070 -27 -46 018 -31 -27 039 037 -60 035 -23 002 048 002 -41 
019 000 000 -01 031 006 -12 005 038 -03 038 -23 048 -51 -08 077 -09 -20 042 026 026 -31 029 052 -14 015 035 001 -25 027 042 046 -01 016 029 -37 -61 034 007 073 034 040 041 -40 004 -64 020 057 010 -77 -13 -45 062 053 -05 -47 011 -05 010 -47 036 047 -55 048 
-32 -33 052 032 049 -56 -21 -43 005 013 -52 004 021 044 -27 037 -53 -46 017 034 035 -13 015 036 003 045 -28 -76 046 067 059 009 033 -39 -56 -53 -58 -05 -17 -50 052 047 040 -21 014 020 046 -58 013 039 -67 045 -08 -39 043 023 -11 -16 -60 -38 -45 011 056 045 
060 -64 026 039 025 -07 015 -01 066 -29 -40 060 014 -56 -32 -40 -18 -48 049 045 015 043 -07 006 -23 058 008 -38 -29 -71 018 -16 -06 050 007 -39 022 -61 -47 -57 -02 055 -47 047 -46 -28 -64 -43 004 -09 074 -64 044 -55 -17 046 -62 028 059 -24 018 011 011 041 
033 -61 -03 -35 -36 -45 -49 -38 -75 -16 -15 -65 -35 -56 040 084 -30 -14 -64 025 -60 -35 -52 -06 -60 -45 037 060 -41 082 001 -23 -23 -21 -10 045 018 071 -46 -57 -08 027 -56 034 -28 052 053 -23 -57 044 -69 -15 037 -27 048 -13 049 -53 -01 015 032 060 -09 057 
-31 -58 031 -46 037 -03 040 038 -04 037 -44 007 -55 001 -32 053 049 047 019 -21 007 -25 -11 -65 -51 028 033 048 005 064 025 004 -40 032 -51 055 -21 -26 006 -29 030 -31 066 000 -49 -62 -66 -58 -06 -28 -57 -32 -36 038 -27 -40 -43 -35 039 048 -22 -55 006 045 
020 002 -67 -42 -04 -39 011 003 -08 -45 038 -07 -66 -28 005 090 -27 054 -43 031 -03 -04 020 -12 -14 035 051 -70 011 021 037 030 -07 -40 050 017 001 045 -53 -79 -35 042 059 016 036 -61 -30 034 -42 028 056 045 020 056 048 048 042 033 -38 -60 -46 -19 046 -20 
059 -05 066 -46 005 -34 -15 011 -43 -12 -55 -35 015 -73 -52 090 -45 -04 -10 -12 -08 -41 -37 -37 014 034 -46 -48 -06 -68 054 -27 047 019 020 -60 -30 069 -02 006 037 -13 -79 -44 -03 076 061 015 052 -23 020 -51 -13 -19 019 007 -52 -48 070 -06 -16 -38 011 042 
-32 060 -21 003 055 036 032 011 -42 039 -15 013 005 -24 003 001 -07 -03 004 -49 025 028 -55 -26 -33 043 -52 -36 -34 017 025 027 -25 -07 021 006 -18 -71 -50 -19 -24 042 -63 -29 -19 064 078 -33 -36 -80 -51 042 -85 041 -35 010 052 040 -26 045 011 053 -45 -10 
-02 042 -52 012 -48 049 -08 045 011 018 031 -58 060 -17 030 -12 -13 003 -38 -31 068 -57 -26 -48 014 019 -41 034 037 -46 005 001 029 -34 012 -11 049 081 -10 -78 -32 025 -51 008 003 020 -36 -49 032 081 -47 -57 047 081 -08 -57 032 -55 014 023 -03 031 054 -50 
-51 040 037 -09 -25 009 028 -11 079 040 -14 000 -14 -44 013 096 -51 -08 -50 -42 -58 -25 000 -21 059 045 -18 034 -35 -39 058 024 005 -28 053 035 -55 -49 -27 023 051 -58 036 016 038 -34 059 -47 042 072 -62 -42 078 -47 006 -50 060 -54 -02 -47 -19 066 -07 -17 
042 -42 -26 -45 050 -29 -47 -76 -72 -18 -32 047 055 064 -45 068 004 008 -12 -40 -63 046 -17 -68 -58 003 007 -26 -11 063 026 042 -55 -18 -49 -11 012 040 031 060 063 -05 036 -26 -38 065 001 -24 -42 024 -22 -52 -73 -19 -10 -26 -11 -43 028 067 033 -54 029 015 
079 -06 -02 -43 024 -54 -42 057 022 -59 035 055 043 064 023 024 -22 -27 -32 -30 001 050 059 -62 -68 018 011 -24 -67 -52 -10 -25 014 009 -26 001 032 -74 033 043 063 018 -49 026 -18 -41 -37 038 050 -53 020 058 026 031 012 015 023 041 036 061 -32 -02 -42 042 
024 -56 -36 -38 000 -28 -24 002 -55 -44 -49 -10 047 019 012 -13 -18 -22 -39 000 050 -34 -14 -18 -14 045 -54 -28 032 -64 014 -72 -16 051 040 029 -01 -31 019 -37 037 042 078 -39 012 031 073 031 002 040 037 003 -45 064 -30 002 046 028 012 029 022 079 041 -42 
-56 -48 035 -32 052 -11 030 022 -10 -28 -60 029 -86 068 -17 -45 040 054 069 -56 028 055 -18 -10 050 049 -54 038 007 -92 -20 016 -17 -35 -49 -43 079 -81 034 000 -50 -37 014 -35 -18 004 -34 055 040 -34 000 -36 -93 -61 052 022 029 -44 020 058 -39 -55 022 004 
-82 -61 -13 014 030 051 019 -38 009 -55 -47 040 006 004 043 053 012 050 003 044 -06 043 053 010 -70 -53 043 -49 -86 -74 045 -31 -45 042 023 046 045 006 027 033 022 018 -16 012 -31 083 073 -44 -22 -28 -60 -55 -43 074 -28 -52 -27 -22 010 -65 011 -38 008 -40 
-56 039 -73 -50 056 036 047 035 -50 -30 -07 -07 -55 035 -11 022 -46 046 045 016 -25 001 -60 060 -25 005 -02 035 -65 -28 011 -06 -40 -16 039 -49 -28 -03 -14 -41 -09 -64 011 -20 054 024 -75 -13 -05 027 067 -02 018 -45 037 018 010 034 012 041 038 -19 020 059 
-61 060 -17 050 029 -06 -43 -22 -49 049 -25 028 020 032 -13 061 -43 035 -01 -53 -14 015 040 -25 046 -44 047 004 072 034 014 015 029 027 -45 -54 -44 072 -40 036 049 -21 015 046 -41 -63 070 012 -02 -09 -52 037 018 050 -45 026 012 022 -52 046 -41 -72 -45 038 
052 -19 065 040 -38 003 002 000 -63 -31 025 066 046 052 031 026 054 -06 -48 -13 011 059 049 009 032 013 001 -77 -25 073 -33 -08 -30 -08 003 043 -53 054 -19 062 -54 059 005 030 009 -66 -13 -58 012 059 -23 -63 052 -68 -06 047 -22 039 -59 -19 046 066 018 -32 
039 048 -40 -58 -11 -14 051 030 -09 -18 060 -32 032 -45 044 030 013 018 017 032 -60 -52 024 039 038 -20 046 036 060 003 -11 -29 005 049 -33 -14 -13 067 -08 016 -40 -40 -47 010 -46 -55 054 -43 055 -16 -72 042 011 042 -04 051 -22 -18 061 -56 -41 -51 038 037 
075 033 -01 024 031 052 052 027 -64 005 055 -68 -70 029 041 033 057 055 002 -08 034 -53 015 -10 -19 -60 016 037 -37 076 -34 028 -32 008 033 -18 -57 015 -05 060 -35 055 044 -22 001 029 -21 052 027 024 066 014 027 -01 028 -29 008 020 016 -12 -46 -50 -58 020 
-15 -30 004 -35 -40 029 022 -06 036 042 -28 027 030 -09 -34 -56 -52 -05 029 026 061 054 -52 -52 025 -34 -13 -26 -15 022 -52 039 002 016 -52 -36 -59 -64 001 -16 017 011 -50 -03 037 -58 061 -43 -61 -65 026 -46 068 050 010 031 -46 -26 -55 -30 016 066 -39 056 
039 -57 046 027 047 -57 -45 -60 -15 017 -54 062 064 -62 015 -55 053 027 059 023 -22 004 060 044 056 035 040 059 -36 078 049 -21 -40 020 047 -26 006 062 013 -72 -06 060 022 023 -44 022 -48 -25 -27 049 049 -52 -02 068 033 053 004 013 -07 -67 014 -62 -26 -05 
-71 -28 -40 003 -60 -21 -21 048 -71 019 008 -03 -46 053 048 -67 -35 033 018 046 016 -52 035 -16 -24 -57 -02 063 -43 022 -56 013 053 -51 -42 054 016 054 -23 -42 058 -19 -33 -50 -11 036 071 -07 -57 -40 038 032 063 047 -42 -07 -18 -22 041 048 031 -21 008 -09 
-20 028 -52 031 036 036 -19 -38 060 048 -42 -04 024 021 -46 035 005 -55 035 020 047 -32 050 -20 -53 -06 -48 -65 -71 -49 -58 -36 -02 035 -29 030 -39 -68 040 013 -32 019 069 -09 017 023 -59 040 -18 -11 -28 -06 039 -22 -13 -13 -45 -06 -56 018 -38 001 -22 016 
-82 -48 -43 016 008 -06 -46 058 -18 -30 -32 020 -13 010 -21 -79 -27 -17 -49 047 -64 004 025 029 044 063 034 039 078 -67 -46 030 028 -07 -58 -07 058 -30 045 031 -31 008 061 -26 020 -38 -11 006 050 -65 018 -07 008 -51 058 004 010 005 -16 043 -30 -15 -30 037 
058 050 -83 -52 -45 -30 042 -27 056 -14 029 056 003 -49 042 -76 -28 -27 023 -08 -70 018 027 055 059 -58 031 -22 055 006 014 -60 041 024 -10 010 030 054 006 043 -50 061 -73 -05 055 068 -70 -43 -60 037 025 -24 -34 -61 -44 030 -16 015 029 035 -09 033 000 -26 
013 028 -47 -24 -32 048 051 054 -14 -42 046 058 -19 069 -37 -13 051 049 032 013 -63 -44 023 -29 059 041 -26 -37 027 -23 -38 -11 000 -18 -22 -14 046 008 -43 -49 -49 -52 -08 032 -02 057 -20 043 016 033 006 004 -14 079 023 002 -08 -36 077 031 044 -09 044 -19 
-58 056 -03 045 -45 -06 -39 055 007 -28 -33 -21 006 070 007 -68 011 -46 -58 032 015 009 023 065 -38 006 -34 032 064 -69 -52 051 -25 042 000 -38 -62 009 043 -34 002 017 -41 011 -04 -13 -61 056 -01 -01 -11 -44 065 038 -11 -47 -44 030 063 -45 -11 029 -23 -26 
011 044 -33 028 030 013 016 -17 006 -20 -52 -70 015 052 -37 018 044 014 -08 064 -48 017 -53 -40 059 -35 -01 076 041 -31 -46 071 022 -48 -45 -31 -02 -29 042 -48 042 -61 024 046 -52 -72 -53 054 -42 -13 -67 050 090 -27 024 -22 040 037 -26 046 015 -10 021 -14 
-76 032 071 020 -12 -44 -36 -19 -34 000 040 -03 -49 048 001 -79 -02 -11 008 002 -63 023 004 009 -13 -49 -09 024 056 056 035 -37 -57 042 021 021 -09 077 -16 028 -17 051 047 -30 -54 -25 -05 -29 064 039 076 040 092 049 005 029 046 -17 012 -07 -25 -32 -31 -46 
-40 017 -14 -49 040 038 001 -52 068 016 050 032 -14 -15 -07 026 -43 006 -46 -50 035 -33 -02 027 -18 043 049 -08 -60 -82 031 001 -56 -32 045 -57 -04 -48 043 069 -24 -34 048 -56 -08 -50 -02 040 -58 -69 025 017 -19 051 024 -34 -43 024 -18 054 022 -62 049 041 
-13 057 053 -43 033 -10 -24 -59 045 048 -57 065 018 063 -08 -24 047 014 -32 -48 048 057 -40 053 026 002 -53 054 046 032 017 -44 -49 -20 045 -10 069 -57 038 032 -05 060 -19 -04 028 -26 -65 -49 -22 -26 -69 040 -68 -17 051 031 -11 020 -57 -07 032 024 -31 000 
-88 004 -23 012 013 023 -23 -29 -43 015 -24 -64 -40 -53 -39 -23 053 019 051 -46 016 -19 032 057 070 -48 014 066 016 -13 033 -19 050 -13 051 007 048 025 -13 -63 029 043 -24 -27 -34 013 029 -30 041 -54 -56 038 019 -23 -14 038 024 -08 073 -13 -21 -53 064 012 
-70 -10 -49 -10 035 -08 -40 -12 029 -16 -26 037 -48 -33 -50 -68 000 041 -59 -43 017 -59 -57 -35 -26 052 -42 -24 -41 -68 -39 035 007 -50 -38 021 -44 -42 -47 -52 050 -56 -59 027 041 026 -01 047 006 057 017 -54 056 059 008 -44 052 -42 -02 -11 027 -67 035 008 
050 -16 -33 006 028 -07 -47 -03 -37 -05 059 022 016 -06 -22 053 044 023 037 -52 000 -36 060 -20 -13 -50 039 057 -31 -22 054 -24 048 -12 -02 004 051 028 -42 -34 -11 010 -45 048 039 -16 047 049 022 065 -46 055 -35 057 -21 030 -40 002 -41 -17 040 -52 -55 029 
-31 020 017 026 042 001 002 -51 -76 -46 052 058 000 012 023 062 -55 -33 022 -54 -44 -53 -17 -40 -05 033 -47 -48 053 029 045 058 012 015 -20 -53 008 015 040 046 -35 060 -16 -37 043 -45 011 025 -47 -25 015 033 -28 068 017 032 -28 -56 061 008 -15 048 -27 018 
054 -41 -62 -56 016 004 -24 038 -41 013 040 034 -21 -18 -38 083 039 -15 -01 -07 -33 026 -17 -48 -41 -05 -14 055 -43 -49 -43 034 011 -38 -38 026 025 -25 -25 026 053 020 -23 046 007 067 -61 051 006 005 -03 015 -27 -03 033 -02 010 -47 -45 000 035 063 060 -26 
068 -65 037 057 -19 027 -12 -48 003 -44 -48 -07 031 -62 -53 -72 054 -37 054 -30 035 019 -21 -29 -54 001 -41 006 -45 026 -31 -61 -46 -25 034 -57 -27 -27 -07 -67 038 -60 -45 -22 046 000 -09 -52 -09 -36 -06 045 025 -20 -42 -51 048 -42 050 043 040 057 035 -23 
-72 -40 -20 027 053 -31 -45 047 063 021 043 038 000 -01 001 -15 -51 -10 -44 054 -32 040 -55 -58 023 -30 039 -47 -54 035 050 040 -01 -06 036 050 059 -03 025 -31 056 -52 -59 -03 -44 001 -47 -40 056 -58 037 -22 038 017 -05 029 -24 024 -52 062 008 066 038 053 
-18 -17 -45 -36 -31 044 -33 020 -60 055 -31 -56 -44 -46 -01 -70 038 042 060 -50 -54 -15 060 026 -33 059 023 042 -45 -64 059 -11 -12 -54 014 -21 001 -63 034 -45 -16 -53 -67 034 -26 -09 -69 048 -61 060 028 042 005 045 -11 -41 -39 -11 -46 -19 -27 023 017 -41 
051 -02 -62 022 040 -30 -07 027 -25 044 -04 -48 -50 -46 049 -53 014 018 -09 022 031 -50 059 034 -14 034 041 -66 056 047 010 035 041 -29 047 -02 066 -55 -15 076 -38 -50 -57 020 036 007 -52 -46 038 -73 050 056 011 -62 032 048 037 009 013 -06 -19 012 004 -42 
-50 -51 038 037 -19 -07 -21 004 -04 016 059 059 -59 -47 051 021 -03 041 -33 005 009 056 030 -32 056 013 049 065 -47 076 -07 035 009 006 -27 030 -35 057 -17 -52 035 020 072 039 -30 -63 071 -42 -19 071 -64 052 -64 -53 046 -31 -50 -34 -28 061 -01 -33 -18 051 
024 -49 -56 -11 020 018 -39 -38 -69 -53 057 -34 057 -15 031 024 010 022 -49 -18 -58 -42 -35 027 -24 -39 -18 042 -08 020 055 -28 -02 035 -31 -54 -12 067 004 055 034 -09 -43 017 043 055 011 020 041 056 -58 -20 036 044 -48 015 -12 -28 -04 -25 029 001 002 -43 
071 060 033 049 004 053 -17 017 -34 -56 -49 049 -34 068 -52 -63 051 020 -17 001 -14 -09 028 -42 -32 013 -32 -73 -69 032 054 -23 -25 051 046 009 030 071 -39 -36 049 -57 -31 011 047 020 032 -25 063 024 040 -56 -09 031 -46 045 -51 023 060 -01 015 001 006 050 
-13 -64 -62 014 019 017 -07 -44 -22 -53 028 -23 -22 -32 -01 015 046 051 -08 017 048 046 017 021 -04 -02 012 -46 046 071 -42 -22 -12 034 -38 006 068 -28 022 015 036 -63 040 -30 -16 -40 005 033 -12 045 073 056 071 058 -51 029 -45 -50 019 048 -09 -41 042 -14 
009 -48 -29 -47 018 055 -25 -29 047 008 -21 022 008 054 -38 043 -56 027 042 051 044 -09 048 054 -62 -39 -53 055 -39 013 054 026 049 -06 -46 041 011 023 000 025 -52 063 -55 -52 -19 -34 -19 012 -52 -67 -42 050 -36 069 051 -36 -56 -12 -50 -63 012 057 -37 -61 
037 034 -07 020 -12 -28 003 -60 038 -51 018 -70 014 -43 -42 015 002 023 035 041 007 -21 -49 -12 -39 -27 005 069 053 057 -28 002 -49 011 045 -56 -17 000 004 -52 041 -47 003 -41 031 027 023 -04 021 -75 -36 034 041 047 035 044 -54 -58 071 037 031 057 027 -16 
-43 -37 057 -03 -12 -34 -46 050 -34 018 009 022 -01 -32 027 -45 -45 -33 -12 007 021 -03 011 -07 006 -04 009 -35 009 -66 -15 -04 -01 011 -50 038 047 -04 030 052 -05 -16 -60 -15 -55 -61 -64 051 041 -11 -75 004 -46 004 -51 -50 -19 005 054 -39 005 -70 -31 -23 
003 051 -05 -10 036 037 031 043 075 -10 -22 032 002 006 -09 047 -26 -62 053 -36 -46 019 -52 044 041 034 032 -69 -31 -65 032 016 -52 023 -34 026 -66 -77 016 025 049 056 -14 -44 -30 015 -47 027 -19 020 015 043 -24 -26 008 014 -01 049 -40 063 005 -66 024 028 
055 -64 -46 040 -22 -28 001 033 -72 -17 053 -15 -29 034 -15 042 -38 -54 -46 045 002 -19 -04 -13 003 -31 019 027 -25 000 060 -52 030 -39 017 -18 -26 -77 -47 -75 -02 038 051 030 -53 -03 -21 -07 -60 -69 048 052 043 -49 052 -51 -47 038 052 -07 -14 -48 -50 037 
-03 -15 -06 -10 -07 049 -12 -50 -10 027 057 -59 045 061 012 083 044 -28 043 012 -56 -14 -25 -30 052 -04 -17 -71 012 017 015 -51 -22 -40 048 002 -01 050 -37 044 -39 047 041 028 -21 021 -58 -19 024 068 070 -55 006 -72 -53 005 -54 -49 -30 010 -28 065 057 008 
000 -22 -36 044 -49 -54 -06 055 085 043 049 -24 -50 052 036 071 051 005 -26 032 -54 -08 049 -13 -10 020 -49 070 -57 020 -17 -45 -45 040 -57 013 032 -76 -49 -57 -04 -51 -12 -24 006 -34 -53 -42 -40 -45 082 -01 -42 -56 010 -26 -23 -34 -05 046 -44 -50 034 053 
043 -19 -16 -35 010 014 -20 057 -43 -40 -36 015 -31 018 -15 -62 022 035 -40 012 -12 032 -02 -17 -21 -34 007 086 062 068 023 -23 049 -43 013 -04 -51 020 001 051 -51 011 -43 -56 -53 071 -59 010 -35 055 038 045 -39 -02 023 -05 -51 039 060 -68 025 -16 -27 -50 
005 030 -47 -14 -40 011 036 -29 -27 020 -23 045 068 -05 -02 005 041 034 -44 -34 -48 056 -55 003 -29 -25 -50 -37 -40 062 -32 057 -17 -30 022 017 062 -17 -42 -39 -53 -35 071 -52 -11 042 -37 -44 041 004 019 -63 -19 088 037 -49 -48 -57 010 050 022 053 000 -58 
042 021 025 -50 -43 -57 -35 031 066 017 015 018 036 -13 043 042 024 -04 053 030 -33 -60 009 054 -03 -03 -48 -29 -63 -11 042 019 -09 -31 -23 -15 010 -16 037 032 001 -42 089 026 033 -14 -48 -19 -53 -70 051 -55 -61 035 008 019 -59 001 006 064 013 085 -48 037 
000 012 050 -43 -43 -15 028 033 -70 -47 024 -56 -60 -01 -51 077 012 -38 052 001 -26 006 012 -50 -38 -06 -30 -56 008 -74 -22 005 -36 -08 011 -61 058 066 037 -59 -35 014 056 -44 -46 -70 047 017 -42 080 004 031 -58 -21 -37 -21 008 048 073 -71 -15 035 020 -43 
-45 041 073 -11 015 024 041 -07 -32 -47 -55 004 078 -62 010 068 047 012 029 048 005 033 023 023 -21 -26 -09 051 075 082 052 -15 -02 009 -42 -47 -27 036 -02 046 -36 -68 066 029 -34 -58 075 -46 -40 078 -28 038 050 011 -20 007 -40 -19 029 033 -39 079 055 056 
054 -26 -42 043 -51 -55 -39 037 081 -52 020 -22 -27 -56 035 071 037 023 -11 046 -63 015 -26 -21 044 -54 047 049 042 045 028 034 023 -16 -04 008 081 067 -24 092 -20 -55 -38 048 018 058 -64 -48 -49 043 -71 -39 -41 -64 -28 -27 057 054 036 -11 013 073 010 -37 
035 -68 060 003 -59 -21 043 014 -29 -42 048 003 012 064 -57 057 026 -12 -62 034 -45 014 032 000 042 -45 -10 -73 085 081 -12 064 -20 -07 014 025 015 -33 006 003 051 -49 -44 -28 030 -44 -42 024 -25 093 024 -56 016 022 017 -39 -52 048 059 -43 -46 068 021 -25 
-37 -28 054 043 045 -42 -36 -12 049 -59 010 070 040 -28 -16 045 031 -17 015 007 -19 -16 -62 -08 -39 -42 -53 001 083 074 027 053 -03 -05 015 005 029 046 -49 072 051 060 -58 -48 039 -70 -37 -14 -55 -13 -37 -04 067 -08 027 -33 040 -04 -38 003 -27 006 021 036 
-17 -18 -35 -10 -05 002 031 -60 032 043 061 -04 005 -55 010 057 049 001 -40 046 -06 009 004 049 037 041 -17 -14 015 -98 -58 -72 008 -11 -41 -48 -68 -04 008 013 050 000 042 -52 -42 -13 -30 -49 044 -41 -29 -43 -01 -58 -22 043 -17 -08 056 039 -10 022 047 055 
055 -34 029 015 055 -35 -45 -23 062 015 -01 -26 -75 049 036 -52 -23 -09 -07 -03 001 -48 009 -55 -47 -24 022 036 028 -90 -32 -68 -37 027 051 034 -41 008 018 -01 -39 -47 059 023 037 -12 052 002 019 003 -62 -47 061 -12 -47 -31 003 -17 056 -60 -11 -24 055 -32 
-32 -34 -27 057 -32 057 034 -05 021 -26 -09 -58 068 -19 -01 -81 -10 -40 024 019 011 015 -45 027 056 016 -30 -81 023 -73 -39 001 -20 -51 -51 -26 005 -76 -18 021 -29 049 056 -31 035 019 -31 024 049 059 067 046 065 027 -12 047 -58 -18 -11 055 021 -56 -06 055 
020 012 003 046 032 -40 047 -31 -44 -03 -26 -12 004 -70 013 -83 035 006 027 -58 004 -12 054 -07 -50 -01 -40 012 -10 001 025 -58 -14 -23 -35 030 -48 034 031 -31 052 037 077 018 -41 015 -39 006 -50 -33 -12 029 024 -68 -04 -44 035 -42 050 -59 -33 -42 -41 011 
076 -62 -43 -42 012 -10 -10 -27 -17 010 055 -55 023 032 -11 038 -53 -09 -16 -32 057 -14 -05 -29 027 018 000 -11 -75 -55 037 -19 044 031 -09 050 051 045 -23 000 020 039 016 052 043 058 -09 -53 023 -53 047 -39 -37 -76 -13 028 -46 -38 -28 034 019 069 -30 041 
-39 031 066 043 -58 022 024 -57 015 -33 -35 019 -10 067 049 -52 -43 -04 001 011 -07 -27 -23 -36 007 -08 -23 050 063 078 -30 -23 -39 -22 003 028 -28 -23 033 -12 -17 -46 056 -02 025 -58 053 047 -20 038 -59 -12 016 -46 -02 -43 028 -25 -09 032 -19 -09 -56 -24 
-13 025 027 042 052 -32 015 047 -14 -56 -33 026 -14 048 019 -67 -37 -45 -07 -31 057 -14 -24 023 -56 -34 -39 030 -84 -53 037 001 027 041 005 -53 037 031 039 073 054 -04 -62 022 -26 004 010 -50 -43 -49 023 -24 077 -36 042 -47 -37 -14 -46 010 013 -18 -65 -38 
020 -57 -25 008 -23 -47 021 -04 053 -16 -36 -67 -61 038 -03 038 -50 -57 049 -47 -24 016 -12 039 -42 057 -02 -57 -33 -09 -46 019 002 -15 -07 -44 007 003 033 -36 028 -63 -35 -48 036 -60 -56 022 048 -37 -34 032 075 024 003 -40 037 -26 -36 045 -45 -69 -26 003 
025 017 -26 -33 -51 -48 006 052 019 -39 008 -09 -13 -46 017 003 -04 -53 024 -03 007 034 -57 -21 024 -62 038 024 027 042 050 028 -16 -04 047 027 -21 -51 035 -51 032 034 -41 020 025 -28 010 -02 -52 -05 -49 -23 -01 -15 032 -33 054 020 -59 -31 024 057 046 043 
-11 049 -67 -26 059 -01 -16 -56 059 011 023 064 030 -69 027 -61 -60 053 033 -01 -14 -31 020 -53 042 000 038 052 -71 -63 043 001 -26 -45 041 021 008 -37 034 -50 034 -60 074 019 032 038 -74 -30 061 026 059 054 054 -05 -41 -10 056 034 -64 017 026 060 -46 002 
068 -28 -59 050 019 013 026 -26 -44 052 060 -34 063 -28 011 000 006 -24 -06 -03 042 049 -45 024 -61 009 -05 -36 -37 -77 017 009 -29 001 046 -47 044 -27 -37 -12 -60 056 069 037 049 -02 025 -48 -59 -73 015 -35 068 -46 021 -15 027 -30 -44 -31 -47 -53 057 -11 
000 -53 -32 -39 -19 009 -09 -51 -72 029 018 058 -08 012 -43 006 -15 -18 040 -14 -28 051 045 -10 -18 002 049 054 059 -78 025 -52 032 -26 -05 038 058 072 -15 -33 055 -44 029 054 -32 -04 066 018 057 -34 022 035 -23 -32 -26 -37 033 028 -72 -61 032 053 -61 -17 
004 016 066 -32 055 045 -05 010 -14 -16 -45 016 -05 -13 -27 077 -23 023 043 038 022 000 -16 -48 013 -02 008 -47 -71 -15 056 -21 015 -45 -39 014 -61 -04 032 -69 011 -68 069 -52 027 -52 031 047 033 -06 053 002 -15 010 011 -47 -23 -14 -21 004 016 039 041 059 
-39 -39 -44 052 -58 -56 -06 -39 -55 -33 -11 036 053 -26 047 028 032 -36 045 033 -64 035 042 010 000 -53 026 -17 -29 022 -16 -26 -35 -17 045 035 -43 040 012 047 -32 058 046 033 -12 -38 056 -25 -09 -55 -45 054 -45 018 -48 -45 -49 030 -02 059 -38 011 -52 022 
-52 003 054 -42 020 -28 -40 -56 053 -01 -48 006 069 -39 037 -28 -37 004 -32 028 028 043 -17 056 042 -04 035 -26 -05 -25 043 -38 -39 022 -02 052 -23 063 010 -51 -56 004 -76 -26 -09 -22 -29 030 -27 028 -19 038 069 -57 -47 -16 -04 043 -62 -63 007 -03 020 -12 
062 -29 -70 027 -17 032 010 026 -56 -34 -45 -07 049 062 001 -18 -58 -60 055 -20 001 -38 023 -50 -07 -29 -48 012 -04 -30 060 023 -47 -44 -07 -58 -45 -67 -01 -05 043 002 -65 -43 007 040 -20 050 -49 010 004 027 014 057 -54 -33 035 004 -29 060 025 -55 012 025 
-32 -33 071 019 -23 -50 -17 -27 -05 046 -57 039 011 -45 017 061 -09 -49 -49 017 051 056 -09 -14 -21 028 -13 034 064 -80 036 061 032 -15 -46 -43 048 -77 -24 016 -33 003 -05 028 -03 046 -20 -34 047 -38 -65 060 -12 047 -36 003 -45 -16 -25 -66 -39 -30 -22 055 
-23 -28 -62 -41 011 -14 005 038 -45 -47 -52 033 -01 061 036 058 019 -12 -49 001 -35 016 -27 -65 -02 -63 -42 -53 -62 -37 051 062 024 000 -23 045 007 -49 -19 -08 021 -41 -21 031 -56 -53 060 056 021 -68 -13 -10 014 -51 017 051 -61 054 -34 028 -09 -54 053 -26 
-34 063 -56 034 002 053 001 -46 023 -34 031 046 003 048 -50 074 -33 018 021 046 000 -45 -49 028 -19 053 -44 -20 -64 -26 -32 -52 044 -46 056 004 030 011 005 -05 017 019 -60 -36 -21 004 -29 -03 -49 -55 061 -41 -43 068 036 -52 021 -20 076 039 -36 -16 004 -35 
-38 029 -56 -09 -46 -41 011 -26 -11 042 027 -28 063 -26 -01 074 -36 055 -56 -12 -63 -12 -55 -12 052 -25 -26 -57 -35 047 013 018 -41 016 052 -03 055 044 046 051 -48 -34 -71 054 025 065 010 -23 -05 042 -11 017 -62 043 022 -41 008 046 001 058 -15 -42 -14 -49 
-01 001 -02 044 -27 000 042 045 063 034 041 028 -49 031 -52 072 047 -44 017 035 -53 011 027 -60 -09 -46 -23 015 -44 -12 031 -48 -03 -34 -42 -37 024 040 -44 -68 -59 032 046 030 014 -22 003 009 021 020 -31 011 004 -03 013 045 032 013 005 -44 019 -23 027 -14 
-42 -09 009 001 -20 043 -39 027 065 -40 057 028 015 -46 -50 064 -58 033 -23 024 034 -05 061 -05 -66 005 037 -11 074 004 -40 -32 -52 -42 025 -40 -05 074 -48 040 -09 020 022 -14 -46 -21 -23 002 042 027 -56 056 -69 -27 -07 -01 057 028 023 032 031 -46 -20 042 
041 -18 -53 003 -09 018 -22 008 083 -43 -47 031 046 -65 -39 -42 -19 039 023 -43 010 049 -29 -13 063 017 046 071 057 -57 022 -59 026 025 009 036 070 037 -27 -29 -49 034 059 -18 026 032 060 -05 -27 041 018 -63 073 -05 -49 040 059 025 -54 -35 009 -15 050 022 
066 -21 -79 006 029 -39 -22 008 -62 045 020 042 054 023 -16 086 -15 -10 -08 049 -23 042 026 055 -38 -02 007 -57 -64 009 -49 -07 043 000 026 -09 029 073 -05 -47 051 012 -62 014 017 -11 -13 003 015 041 022 -62 060 -74 030 031 -11 050 060 020 -44 -21 -15 057 
050 048 006 008 027 -29 044 045 018 012 038 -27 028 -63 023 019 045 022 -37 -38 -41 046 003 -41 -10 -17 -19 -56 001 031 -43 036 024 029 046 -47 034 027 002 006 -07 022 065 -24 -12 -35 045 -01 057 -57 007 -29 -33 -03 -39 045 -19 003 020 044 -20 042 025 -56 
072 022 067 038 -13 014 018 -16 070 051 016 -35 045 041 -15 077 -44 -15 -20 010 -52 -55 034 041 -56 -47 -38 -34 -40 -58 031 017 -10 026 044 037 050 -79 011 025 006 024 -50 -22 033 -42 -46 -11 046 -19 039 -14 -70 -63 028 052 045 -12 -11 -06 016 -23 042 -04 
059 030 018 -57 032 041 041 026 -66 -07 037 -49 030 064 -20 -82 034 022 -33 -23 -58 032 -32 -58 -33 066 038 036 040 -51 -49 054 024 006 -24 -25 016 -68 -12 -25 -32 015 077 054 043 -46 -59 -43 -46 060 029 -59 -27 -42 017 -18 048 012 -74 023 -42 -21 -58 046 
-63 051 023 -25 -15 021 017 054 063 -11 -16 001 056 -33 004 056 -50 022 -35 -31 036 -06 -44 036 -55 051 -14 058 -12 -38 -20 -08 -22 -17 -23 043 -05 -02 013 -24 -07 010 021 029 -15 038 -46 -58 -60 016 014 -26 -19 -29 -45 039 -57 006 001 040 041 -29 -40 -40 
-23 -27 -14 -54 -35 036 003 013 048 -11 015 051 -50 -14 -28 -45 -16 047 -37 -44 -09 035 -18 -26 -46 043 -16 -69 018 -71 -57 -27 017 010 022 000 019 -76 021 026 034 037 046 -37 -55 -13 022 -17 -10 -10 -44 060 054 -17 -46 -07 012 001 046 -27 012 -25 050 -05 
-62 028 -57 055 041 -06 015 024 027 039 053 006 -62 -58 -40 -39 044 -21 -31 002 027 -59 -49 -51 -17 041 -28 050 012 016 043 050 -05 -16 -34 -57 054 -11 -25 016 053 -49 048 013 045 028 046 010 027 -57 017 011 -36 037 -38 045 -48 042 052 -37 -20 070 -13 -14 
064 -47 060 020 008 -57 034 -44 044 047 057 000 -53 008 -46 077 -23 029 047 019 063 -40 027 -12 026 015 039 -39 -28 -70 -20 -24 -02 -47 006 -47 014 030 006 -04 -42 001 -01 -47 -39 035 072 -09 037 -51 -72 015 034 031 002 051 -11 -20 -53 050 -02 004 037 025 
-68 -49 020 -30 045 052 029 -43 005 005 046 009 -74 -16 -07 023 027 -14 026 038 015 -39 008 -14 -54 -52 -07 050 025 031 -55 -44 -07 -05 000 051 029 -42 -27 071 -39 058 068 051 032 -43 009 043 -64 -69 066 045 045 001 -43 -03 -48 -09 -54 -06 025 032 -56 051 
049 061 -44 046 -35 -45 -11 062 062 029 052 028 052 055 023 072 056 -29 019 -14 056 032 -16 055 057 016 009 -68 022 035 053 035 -30 -44 -50 058 -13 -43 -14 064 003 -53 008 -50 -26 -45 -53 024 056 -73 039 -53 -34 -68 027 -56 -35 -51 007 -01 040 019 009 -19 
-71 -64 044 -14 037 053 -28 -48 027 027 059 -68 -45 014 002 037 -10 037 048 013 041 -52 -34 -57 -10 -10 -38 -12 070 -35 -51 056 -49 022 -24 046 -15 032 -12 -18 -48 -47 -76 038 027 -43 -18 028 -23 -50 025 038 008 -10 044 -30 -41 -56 -33 010 005 -23 033 013 
-64 -20 007 048 -19 -33 005 -47 -68 -09 018 -16 053 065 037 -64 -25 010 035 046 036 026 -35 -52 005 031 -35 058 -39 -48 021 031 012 033 -29 -04 062 028 041 -57 047 028 -27 046 010 036 -68 012 057 055 058 058 -64 -17 022 -40 -19 -43 022 -61 028 -40 -53 -38 
030 -60 -19 055 028 024 039 009 013 008 041 011 -51 -63 017 068 -02 053 -04 052 -58 -48 011 -30 -61 -19 -17 019 013 -22 018 040 -35 042 -18 -16 -58 -05 034 055 -36 032 057 038 047 -64 -25 -06 016 002 002 005 -54 -49 034 -04 046 -55 -43 052 -19 -11 -25 013 
-59 026 055 -24 -04 002 -07 008 043 -38 008 -45 -70 -51 006 -68 -46 -23 023 -50 -14 -57 -38 -26 024 -16 003 045 -58 042 -34 050 -57 053 -28 000 -52 -20 -18 -69 -58 -43 007 054 -19 037 025 029 060 -16 -63 -55 -17 012 000 015 -18 -27 016 030 -49 037 -56 -20 
013 -07 081 -23 052 -26 037 022 014 011 056 -64 066 010 -04 -34 -13 036 014 -02 -30 -14 -27 019 -60 -46 026 089 -23 015 020 017 052 -39 -36 004 -32 081 018 054 -40 054 034 -10 -27 029 -64 -27 009 038 -37 047 -28 039 -30 -52 049 000 040 -28 -21 -02 036 -49 
046 054 057 025 057 -26 -39 007 020 049 040 -05 -15 -38 042 053 021 030 025 013 062 -11 001 -10 -53 -01 -32 069 033 079 048 054 -58 035 026 -24 -58 094 023 -66 017 031 052 -04 048 -01 029 051 -57 -65 -71 -55 021 079 -19 -32 017 025 -16 -45 -08 064 -22 -10 
073 -34 -53 -24 -58 -12 -28 036 -11 -38 -45 -66 075 -68 004 -46 063 -23 061 -03 -51 -21 -63 -21 -58 051 -41 040 -65 044 -10 -55 013 021 -44 -44 -26 002 041 -33 008 039 -05 011 028 016 -23 025 029 -55 -28 -16 -51 -52 041 -01 022 -29 066 053 -34 -05 051 049 
067 -31 042 -50 028 011 029 -42 067 -13 038 006 066 039 006 081 050 -23 -49 001 046 -06 -01 -05 049 054 -42 -04 052 079 -16 053 039 024 035 -35 057 -25 021 080 013 -50 042 -25 -42 -26 035 052 051 027 003 -17 002 -22 041 046 -29 021 -43 037 007 -44 -55 -67 
-38 035 050 -12 -50 041 005 021 022 052 002 -59 026 -18 037 070 026 -23 -57 -40 057 -27 003 061 046 -59 -16 -38 -52 076 055 023 -09 016 -31 -09 044 -45 006 -51 052 028 089 -26 -45 057 -23 -36 -09 041 049 -66 -10 -03 -20 -18 -31 -37 -40 -26 -29 -08 -39 042 
010 018 -09 -21 -29 000 -34 053 035 040 060 -68 008 -56 -52 -16 -27 -36 -30 -37 -01 009 -25 -23 028 -62 046 072 017 -59 003 -49 042 001 040 037 -04 -85 -39 078 009 006 063 042 -24 -34 072 -27 052 -46 029 018 -74 056 -02 022 -33 032 -44 062 -37 044 022 004 
003 -62 002 -25 -49 028 -45 020 069 016 -30 -22 013 052 038 056 061 055 039 -61 004 045 011 -44 012 -50 -19 -36 -70 017 038 -19 -29 -08 002 -13 070 057 014 -52 -06 -39 -48 -33 011 -50 060 048 039 -66 -02 -57 -32 -66 -28 000 018 -21 -58 -43 -37 063 -05 -57 
-38 028 005 032 -28 018 -26 022 068 011 054 -18 -29 006 -13 069 -34 044 -28 -59 -55 -55 035 -19 -67 -08 -25 -52 -43 042 -58 008 047 000 -08 -48 026 -05 -48 030 -18 037 050 047 004 036 040 -57 050 052 -46 016 021 064 -35 -01 -49 011 -85 -02 040 013 035 059 
-29 -37 014 002 -30 -57 034 -21 -73 -22 -36 -66 055 -71 -25 -11 052 -20 037 028 -11 -01 -04 058 018 -67 -29 067 -60 -10 -13 -07 -50 009 057 -47 -39 050 023 072 -41 017 -36 -28 046 017 -81 019 021 -64 063 -39 012 082 024 -25 018 009 -20 070 -33 -59 -41 -44 
072 -25 -02 033 053 -54 048 -52 -27 -20 002 -50 -08 061 014 -19 -62 -22 -60 037 -21 054 014 -21 004 -30 -09 000 -44 078 -09 048 039 -34 018 -08 070 -37 041 -14 026 -26 -07 031 052 021 -56 -39 055 093 015 -47 020 041 -37 025 056 000 082 -59 -22 -72 -37 -61 
072 -42 025 -37 051 055 -34 047 025 -10 026 -69 -09 -52 -30 056 -30 -47 019 007 -03 -04 -61 049 -51 056 -35 -58 -53 -54 004 -07 028 -46 013 018 063 -61 022 040 -28 -55 -02 039 -46 -54 -49 -45 052 041 037 -55 -34 054 -15 -58 -10 -02 -26 064 031 -93 013 -08 
020 -65 -77 053 -09 051 021 035 042 -53 -17 -23 017 -14 -28 -86 -27 -34 041 -19 -51 -25 -36 022 -67 -19 015 -56 -21 -53 -62 001 -31 017 -55 035 048 030 017 -70 -46 -41 021 -44 -05 007 -35 -17 058 -65 -62 042 -84 020 -18 022 021 035 013 047 -39 -48 020 023 
082 -24 -67 -58 -35 -41 -53 -46 -41 036 030 057 071 056 -41 -09 050 -21 042 066 -14 015 -32 044 030 027 -28 070 -50 -92 -28 039 -04 048 035 -42 -81 032 -13 092 026 -15 027 -34 -43 -37 012 -50 053 -48 -67 024 -20 -72 -26 044 026 002 057 -75 030 -04 -54 048 
067 -53 -15 -53 023 -34 049 071 -26 021 -04 -21 009 -59 -34 041 013 013 -58 066 -58 -09 -01 001 042 071 -08 -28 -22 -89 033 -56 024 -53 012 020 002 090 017 -44 056 050 -66 016 -01 -18 -63 -35 -63 035 -80 027 073 052 -27 -48 014 017 -05 041 039 017 053 -06 
-49 -20 036 008 -13 -25 -39 005 -02 -49 -13 -31 -73 -44 -49 076 058 -35 048 -12 047 -53 036 -48 -05 028 -07 -77 049 040 051 058 -18 -38 -04 -24 051 034 039 -55 044 -44 071 012 044 018 -11 020 -51 -42 -07 -54 013 -30 019 -52 056 012 033 008 031 -33 -16 040 
073 -05 -72 -28 -35 -42 -28 030 015 012 032 044 013 006 032 031 -38 023 -64 027 030 -20 -59 058 -63 015 026 -82 -86 093 -47 -49 028 -07 053 052 -53 044 009 -19 -17 -42 055 022 005 069 -40 003 029 060 -08 000 -17 -04 -02 -45 034 -30 -42 010 045 -61 -08 000 
-67 -31 022 011 045 054 016 024 -13 019 -04 020 075 043 030 -04 -34 023 -09 -15 -36 009 040 -07 -64 -32 026 -72 -46 -39 -18 -47 050 -21 018 -02 -07 -06 -38 -81 011 057 -17 -51 020 019 -27 039 -47 030 028 048 -44 -16 -02 012 -49 -50 -67 -21 -05 -80 -15 -09 
-52 023 -43 -54 -30 030 041 -18 006 049 -05 -40 050 019 -47 -06 -06 -01 043 006 045 038 -57 052 032 019 031 -11 -20 -83 030 -58 -47 052 -23 -57 016 -38 009 -36 -60 -44 -63 -53 006 078 012 -58 029 -59 038 -23 005 -31 -50 -47 -46 038 -59 057 023 048 -42 -35 
-13 -27 063 -30 -26 017 -46 014 -06 030 043 -15 026 034 011 015 -34 048 -30 048 023 053 057 -03 -43 -17 033 -69 033 -13 -45 -61 042 -24 -53 001 049 036 017 -36 -31 015 014 -54 042 -14 000 -06 028 -27 067 035 -02 018 -47 -32 -19 031 073 040 -29 -02 -37 -06 
058 020 064 -39 053 037 046 -52 -15 -34 017 023 078 -13 023 -62 047 -56 -41 -36 -50 016 -30 -30 -37 015 035 004 017 025 -57 010 -14 029 037 -46 -17 007 -49 020 -16 -13 -60 021 021 087 -14 011 -29 008 070 016 -83 061 036 -25 -57 -30 037 040 036 009 068 -54 
013 -21 067 -27 -30 -21 032 088 -29 036 042 040 069 069 036 -44 014 038 -07 056 -24 032 058 033 006 -33 039 -07 054 087 -33 -62 040 -40 -08 045 -32 -02 038 -23 042 -07 067 038 033 -49 055 -35 029 061 067 006 065 -10 025 -33 001 -50 -46 -58 040 -54 -03 013 
-62 051 056 -65 -49 -29 -53 022 -44 -39 -46 -48 074 051 034 080 -17 009 -52 -42 -25 027 013 -03 -16 -46 -44 080 027 -70 -38 -18 -13 016 046 -23 052 062 037 025 -02 059 -73 -45 -13 -31 080 -07 030 -29 -52 -36 041 043 -10 013 -09 043 075 032 035 -46 -61 -05 
004 -34 044 010 -10 -49 -42 074 001 015 -56 050 046 043 027 032 036 -27 049 -06 047 -02 -21 053 -25 -36 026 064 043 013 -46 -38 -54 -43 008 056 068 -27 -43 -42 -29 062 -43 -56 026 -31 014 -56 -24 -05 -27 010 085 045 -06 034 -33 -49 006 -31 040 022 -44 011 
014 059 030 037 -06 008 001 -31 011 -20 -11 039 021 -18 -17 037 045 -41 044 -27 035 -20 004 -02 -07 -13 -49 010 -58 063 030 -27 -56 -36 051 -13 011 -49 -36 000 034 002 -72 -41 -49 -29 034 042 -04 -64 041 022 -21 014 -28 047 -23 -54 -63 -14 -27 006 033 042 
-51 -50 -03 001 -43 007 026 -32 040 -52 013 053 081 -05 027 -63 -10 046 019 030 -61 006 -42 034 061 051 -09 028 -19 -53 045 -41 -32 -42 052 -52 066 -29 010 057 047 -61 023 -49 041 -24 026 023 050 -40 -26 -19 -22 -66 -46 -03 051 012 056 -26 -35 -47 042 -52 
-48 -03 047 043 -33 033 -29 -32 072 -50 051 -31 -24 -64 -52 044 053 005 033 -24 -26 -28 029 045 -20 004 -36 025 022 031 -03 042 -44 -51 -47 -03 002 093 029 019 -23 -49 010 030 028 040 -03 051 -22 026 -81 060 -32 -40 -45 032 002 -48 025 -63 019 -25 -01 025 
-73 056 043 -35 -04 027 -13 010 066 -45 013 -42 -12 -60 044 -49 -56 -10 -35 -13 071 -49 061 043 048 -09 044 -68 -15 -41 -18 -51 -43 -02 -02 -59 -37 042 -46 062 006 007 017 -35 040 -03 -60 -58 -55 034 078 -52 031 001 -48 -36 057 002 030 -21 001 043 -11 053 
-32 048 -37 -01 -10 053 041 -42 -48 026 -54 011 028 -04 -51 -62 012 033 -46 -05 063 045 017 -55 043 -21 -37 -64 051 082 037 -70 039 -41 030 -21 -05 052 -33 -08 -37 -59 -80 -04 -46 056 -15 -46 016 -07 -63 -59 -29 013 -06 -11 026 -23 054 -68 002 -36 -03 005 
088 -24 -51 016 011 033 -39 027 -76 -40 037 -52 -87 036 -38 032 -09 -02 -01 -03 -07 -19 046 018 048 -73 000 061 067 051 002 -38 -48 -10 -45 -12 008 027 -22 081 -27 -18 006 -32 -42 -07 023 012 -35 058 -15 028 -62 003 047 -50 042 -23 070 043 007 005 -48 053 
-13 020 -10 -19 -08 -12 -39 043 037 -35 -30 -52 023 -51 -53 072 009 013 -52 030 020 -01 014 062 -56 -45 -13 -06 059 089 019 038 014 029 005 -57 -36 094 041 028 -54 -51 090 -22 -42 -01 -42 052 060 052 052 054 013 -69 040 -14 -53 009 -54 -66 025 -51 055 -39 
041 -13 069 -37 -58 037 030 -31 016 -02 -55 -35 050 006 -35 -20 -28 016 012 -31 -61 041 054 -36 019 001 051 000 -17 -02 013 -21 -15 -33 -02 035 044 009 -37 055 -21 016 -42 -40 -47 -34 -54 010 -54 032 -31 -61 065 -41 -15 042 -07 -13 071 -47 014 070 037 -10 
089 017 -54 010 -23 036 014 055 -19 -58 -16 009 066 075 -53 -75 073 -31 009 007 024 013 051 -03 -11 -34 -04 048 093 088 -36 -46 -44 -02 039 -11 023 001 042 -55 025 -14 -52 012 -34 016 -62 051 053 017 057 -43 018 007 035 050 -05 044 086 013 -11 043 046 003 
-67 -30 058 046 047 053 -17 050 023 002 006 -54 070 072 040 089 070 -40 006 024 -15 014 -14 -07 032 -03 044 009 033 -59 -37 023 038 -06 031 046 -13 047 029 069 -58 010 015 015 -17 -32 010 025 035 001 -15 050 -20 -47 003 -45 -05 025 014 007 -29 -04 059 013 
057 046 063 018 -55 -51 -24 -07 001 -55 -11 -53 -28 003 034 057 081 028 -17 023 -40 -48 -06 018 -44 015 039 -44 022 010 040 012 -52 -18 039 -30 -25 -31 -37 075 -50 032 068 -11 009 029 012 021 -14 -41 065 000 -43 026 -13 025 -23 041 069 054 016 054 -21 060 
026 -57 006 -09 013 -24 -15 006 071 -20 025 037 030 -38 005 -70 068 024 050 026 -34 -55 030 -70 -35 -26 -23 050 041 022 019 -36 -52 -40 003 032 -43 024 035 015 032 025 057 -35 -20 053 057 012 -50 089 053 -40 010 -37 009 -07 -59 036 -52 -11 -03 022 032 -47 
011 -19 -31 003 -34 039 014 -48 -07 032 001 -13 050 035 006 047 -54 -37 053 011 -01 040 -31 -28 -49 053 002 -37 -57 078 -09 -62 -27 017 010 -50 038 076 005 068 -61 061 -50 -58 -09 -01 -74 -50 029 009 025 -21 -74 -64 016 001 058 014 -17 035 045 -29 044 011 
065 013 050 -53 004 -18 -42 -59 008 005 025 002 046 -41 033 -65 -37 017 -55 -46 019 039 -41 -50 -60 031 -25 -37 043 -55 007 -05 028 -28 044 042 065 010 -20 041 042 -45 -40 -47 -26 -48 031 -15 -38 -01 044 -30 037 066 -17 -04 054 051 063 -37 -37 056 005 -41 
016 017 -30 -14 056 004 005 -28 -22 052 033 -49 040 019 -44 -82 -36 028 051 -35 021 002 046 010 011 043 044 032 061 -58 -35 -04 -33 004 032 -39 010 -18 -15 -57 058 012 -02 -43 -53 066 -26 027 046 -45 -54 016 -48 023 -43 010 -12 -46 013 054 -24 039 -03 -01 
-36 027 -42 006 -32 -56 -24 007 010 -28 -26 049 055 -07 050 -43 013 -52 -54 -31 -29 003 -63 -11 -10 025 013 048 041 038 051 001 000 033 -28 055 016 -44 -20 -42 014 -22 -40 002 048 -37 062 -31 -17 065 052 016 -17 -41 050 -25 054 -35 044 -40 -39 038 -10 011 
023 -65 055 054 002 -43 047 -40 041 -26 013 -56 -39 -53 016 021 -58 -09 046 -44 -51 -31 -33 -21 -57 -27 008 009 -62 005 025 -32 -42 005 -49 -26 -35 074 -47 046 018 049 -20 040 -46 065 -12 015 046 -01 043 035 -03 002 -05 -14 047 -24 -33 -42 037 041 056 -27 
057 -13 -42 040 010 030 -01 062 -04 031 022 -06 -03 029 036 -58 051 -35 060 006 036 -35 038 -27 024 -57 -48 -48 005 042 008 000 008 051 029 009 033 -64 041 -23 020 -49 043 045 -08 053 -62 037 018 -78 075 -57 049 025 -53 050 -24 -33 -25 053 042 004 -30 027 
-72 020 -57 020 -52 006 016 043 -63 -50 021 039 035 055 002 -75 022 -11 -08 015 031 -02 023 023 003 017 008 039 -29 -50 039 048 -07 -49 -56 -44 -31 044 -16 004 -22 -62 -66 039 -43 016 040 049 -01 038 -27 055 -09 065 035 024 044 -33 057 -47 016 -55 -13 059 
-53 029 -69 -52 -53 -36 -22 056 061 -43 -11 -56 -69 -02 024 059 016 003 -58 016 -45 -58 006 058 022 023 051 070 -36 -10 049 058 049 040 054 020 -20 014 029 -53 034 -34 063 005 -35 059 -42 -15 -53 -43 035 -58 034 052 -49 -36 044 032 024 -42 -46 -04 -55 -34 
-45 -58 -19 037 -22 -02 003 -61 -17 028 -25 -33 051 -26 002 032 -51 040 040 -25 -27 -36 046 011 026 011 014 018 002 -61 009 001 022 045 -51 055 040 -26 -40 -22 013 -30 -61 -57 010 016 047 056 012 -55 054 012 -64 042 -52 048 -49 -16 037 058 031 055 -20 -52 
023 -15 012 024 020 -47 -02 -53 043 035 023 -21 -68 -68 -36 -49 046 -36 -14 -48 054 -56 -54 029 000 025 010 -50 -66 -51 016 002 -41 -47 -29 012 067 060 -04 010 043 -28 045 040 -05 028 019 029 -58 -62 023 -33 -50 029 031 -11 056 -17 -58 -66 010 -49 001 -59 
-48 -04 070 -60 -14 -58 -54 -56 063 -03 -25 -35 041 -50 027 075 027 -28 048 039 -32 008 -22 -04 008 005 041 018 -48 -53 -54 051 -02 032 030 047 060 010 -43 028 010 -53 -10 020 046 005 -09 045 -64 047 -47 -50 -72 -61 033 026 009 000 -38 050 -05 000 039 -61 
-30 -18 -24 043 -24 010 -02 -05 -33 -53 -33 -15 -69 063 -53 -78 007 060 -53 -34 -55 -58 035 041 -09 -22 -18 -38 -35 028 000 -68 005 -54 012 -47 -28 -48 -36 003 050 -27 -02 -47 -51 062 071 027 -03 053 -63 046 -07 -33 -05 -01 -59 016 014 -23 -42 069 -42 055 
047 001 -14 043 009 -42 -42 -58 030 -35 053 058 -68 -72 007 021 040 -27 049 040 -29 020 -18 -14 -31 -28 004 -61 010 021 005 -10 -17 -53 049 019 -34 066 027 -70 -47 -37 008 -06 -56 036 012 -32 032 065 036 -31 051 -63 -25 -44 003 -35 004 037 004 -17 -51 -35 
070 -33 065 -32 -01 033 048 050 -54 -02 058 031 018 056 -28 072 -10 027 -47 -02 -33 -01 057 -45 -22 032 -47 021 -43 073 058 028 -18 -51 047 045 -13 007 -39 -53 029 009 -33 036 014 -18 026 016 024 068 013 -27 -51 -54 031 -43 030 011 -33 001 -10 -47 -54 043 
055 -23 042 -51 -57 -04 -10 -44 -75 -44 005 007 056 -51 015 020 -46 -47 -20 055 047 020 049 -49 -47 -54 035 074 -40 -79 040 -47 -24 032 -16 059 058 018 001 -22 003 -62 000 -55 001 009 -41 -15 -32 -36 033 -12 -16 -02 008 -04 -34 006 000 -09 029 009 027 -24 
026 -26 059 023 021 -15 -32 -25 -49 -26 -55 -26 032 039 -50 026 049 -61 014 038 042 -12 015 016 -13 -39 008 072 -23 052 -03 018 -43 022 -56 -27 066 -39 -28 072 -03 052 063 -24 032 -62 -60 008 -39 047 -33 -49 -36 000 008 -08 010 -19 -14 052 -23 -64 062 037 
-14 -54 015 012 031 014 -45 -54 -16 053 028 046 -58 020 -28 075 008 -09 002 -38 052 -31 052 -44 059 039 024 010 043 -58 -32 -31 -36 -13 -54 037 031 -63 -11 022 014 -47 -03 -28 -33 026 -56 039 -07 -36 043 054 029 060 002 -07 028 029 -64 -53 -16 -24 051 060 
-43 -01 047 -04 -38 -34 -45 056 022 -07 051 -49 -23 -45 -16 -82 047 -52 -46 034 -11 -03 -53 039 -10 -08 -32 042 023 068 -53 045 053 -21 -45 -05 -61 -44 -02 -02 -58 044 -55 -39 021 054 -39 -56 044 -11 055 -47 -29 -36 051 -55 034 -08 004 046 -47 -63 006 -06 
-12 043 -75 044 038 045 000 024 077 012 024 004 -77 062 023 033 002 010 -19 000 -29 -62 002 019 021 -48 000 074 -55 065 037 028 -14 029 047 049 -06 003 040 026 -41 -16 065 -27 051 068 010 056 -47 -86 -17 -15 -91 -28 -47 -34 035 -45 -30 -04 010 002 047 042 
049 -33 -77 008 -01 -32 -07 -36 -14 029 038 007 -58 -67 024 -01 039 -01 016 -08 -32 -04 008 -36 036 -11 042 -50 -38 -70 026 -17 -15 -55 -08 -28 021 -40 -12 -62 040 -33 -13 021 052 004 052 025 010 -54 -39 052 -53 -15 020 -53 021 -24 -08 -70 -28 -38 -55 051 
-22 026 042 -25 -33 -49 026 -19 -63 -59 033 -53 004 -63 012 -66 013 -45 039 -20 -61 -47 -10 -36 -37 -22 047 034 -38 -66 -35 -19 -12 012 028 -19 -27 -45 -09 -91 -40 -20 -14 -55 023 -47 -20 -57 -64 -05 003 052 -20 042 -09 -12 -50 -17 -05 039 018 -77 058 043 
005 -58 009 036 010 020 041 082 -53 -47 051 -48 028 049 049 039 -24 033 045 015 -13 -14 025 028 -09 -47 019 -75 -06 -52 -48 -61 016 042 029 -56 -06 059 -10 -15 -26 009 -48 042 -13 065 082 -04 -48 -05 073 -06 039 034 -09 -21 024 010 061 -63 -06 -50 004 055 
-27 038 052 -49 037 040 -36 -18 024 -53 -40 -04 078 016 036 001 -55 -33 033 -31 -59 051 -17 045 026 -47 -54 -46 023 021 -40 030 -02 044 -49 -31 051 -53 030 -03 -17 -45 020 -36 029 -58 -29 038 -64 -70 005 -28 -66 -42 -21 -54 -57 009 -58 -21 018 -17 019 020 
051 003 -15 057 -38 -31 004 016 069 041 005 -36 086 019 -05 -89 -60 -04 015 045 031 049 -53 -49 -49 082 010 066 -64 -17 033 -01 040 053 009 013 014 -16 -13 047 004 045 -44 -12 005 040 046 021 043 061 -43 062 010 -18 048 -20 -07 -33 057 027 015 033 028 -47 
-47 057 062 -38 -24 038 -27 041 041 -59 048 039 -06 059 -08 003 -59 -54 051 -40 008 028 022 043 011 037 004 -18 036 -24 -22 -71 009 040 -02 052 064 043 027 073 044 003 059 036 -52 -20 -40 -48 003 017 -43 -35 -68 -61 045 -56 -38 -55 -70 -58 033 022 030 045 
004 005 071 -50 -05 -25 030 -40 -60 009 -53 -62 -26 054 -46 052 -23 006 -18 -13 -02 -59 020 -02 014 010 035 -76 050 -30 -08 -67 034 039 012 -36 -10 021 -26 050 -54 -48 -55 -48 050 -65 048 -46 -59 -44 -67 049 -16 051 -09 -52 021 -37 -13 -20 033 033 -36 032 
025 003 086 -27 055 051 037 047 -44 -46 016 -33 074 058 -41 -61 029 024 -65 -40 -24 -37 065 -17 046 075 027 -44 -21 -54 -41 052 010 -46 -03 -39 -23 010 -05 -39 -37 060 057 -20 -60 017 -67 001 -60 076 073 -44 -14 -66 -11 -18 -03 040 055 -54 043 067 -36 027 
-06 034 -11 -49 -41 015 -05 006 -37 028 018 -12 -50 039 013 016 -49 -18 055 036 -15 -60 -02 -41 -55 028 -14 044 013 043 -09 -31 029 -38 -43 045 -64 -41 -33 060 -05 -46 039 -23 -45 032 -29 029 031 -71 046 -57 039 -65 019 -13 036 -25 -49 -41 -44 -27 -40 024 
026 056 -47 047 -28 -01 -07 -61 028 -14 033 -09 -83 050 048 -78 001 -38 -30 -57 052 -35 031 -54 033 048 -07 019 -54 066 -07 054 -30 -19 -32 -34 045 -20 -43 -23 -61 054 -71 020 -42 -46 -55 032 -45 -31 -12 -60 -51 003 -19 -06 -27 021 025 -24 -12 019 047 014 
-64 -36 -39 042 054 051 -23 -51 068 -50 046 061 002 -73 016 067 -14 -17 023 -48 056 051 029 -54 -52 037 026 003 -42 055 -17 044 -38 031 -26 -28 -70 -70 002 -42 026 066 047 -42 -30 033 027 -58 -45 -29 -19 -33 -28 -28 -33 033 023 016 061 056 002 047 054 009 
024 018 001 -43 031 033 -18 -34 -04 012 052 -68 -65 009 -39 -22 -42 -28 -59 -32 036 -39 015 045 -09 -47 -09 -01 -20 -33 005 066 021 -26 -39 -53 038 -20 -30 -57 032 -06 015 -17 025 -11 -79 -10 -13 028 -53 -02 -34 061 -06 -07 -06 046 -86 -56 -17 046 -27 029 
035 017 -71 -44 057 -42 036 025 -29 021 -04 -05 026 -34 -43 -77 -38 -49 -37 038 -36 -57 -10 -11 042 044 -10 010 036 -59 -40 -68 -10 -31 -12 -38 -06 -62 -31 033 -28 046 -40 020 049 034 -43 -05 057 002 -24 -44 -39 -42 -13 -23 -03 -02 -64 010 040 013 049 031 
-41 012 -66 017 011 -12 046 041 020 -20 -52 -03 -16 066 -36 -60 040 -51 001 026 -41 -45 008 -17 029 021 -49 061 -23 064 -55 029 008 -30 -18 041 005 -75 027 062 -49 050 058 -28 044 -60 -45 005 -41 075 059 052 -18 -37 -45 -52 051 -07 -28 -16 -29 072 -45 -11 
068 -50 -72 -01 043 -37 -32 056 -56 -18 -34 018 -24 -18 035 -89 -01 012 023 013 -17 -26 017 028 -36 -41 011 -04 067 -04 -07 016 002 -52 025 047 -65 -26 -25 055 -35 019 -16 038 052 -54 035 045 -14 050 -26 021 -61 002 -42 046 -54 -46 -40 067 003 -26 -58 -27 
-50 -14 024 -57 003 002 004 063 -03 -48 049 -66 -55 -61 050 080 054 019 -51 021 -45 -21 -58 058 -30 -29 000 002 -83 -28 052 -32 041 024 019 026 037 020 -44 -79 -12 014 041 -25 038 -59 -21 -07 024 -48 066 -42 005 -67 -24 037 026 -08 042 -52 001 065 018 011 
035 -59 011 -55 -25 034 051 -38 069 012 034 058 072 -24 -42 011 -14 -03 -01 056 043 -17 016 054 062 -29 -33 033 003 -05 018 015 033 -52 -06 056 062 059 -36 000 -05 -63 032 -05 011 019 001 -37 -40 -45 064 015 027 -58 029 018 017 -28 036 017 -15 023 062 053 
-03 027 000 001 -59 -11 -43 -03 060 035 009 019 -60 041 -13 086 046 028 -35 019 032 -55 -59 -39 -58 -41 -36 035 070 -73 009 036 037 -34 -42 017 004 -64 -22 -29 -18 -17 -29 -47 -19 -15 -03 -39 -44 067 075 018 043 -22 028 -34 -51 016 060 043 -22 -20 041 -02 
050 051 -20 -12 053 012 -15 021 040 -02 -18 -65 -04 -66 033 -22 -28 051 057 035 -37 -35 -19 -60 035 -58 -37 -54 -69 -65 -57 -59 -22 040 -51 014 037 -40 000 016 -43 -59 070 -22 -41 -25 028 048 -54 074 -15 -09 -08 -73 -31 005 -10 000 002 -64 -18 043 014 023 
-71 -31 051 023 -44 031 -48 -31 -13 -02 022 -10 028 -55 041 -20 -27 -57 026 -56 035 024 023 029 -02 -19 -06 015 -16 076 057 -46 041 008 020 035 -39 -55 -40 025 -40 -55 -77 -03 -27 056 029 052 007 -19 -07 -23 -32 -07 -34 035 -02 -49 -58 018 -01 024 -28 020 
015 -02 025 048 -20 004 037 047 -34 -48 -21 004 -63 -63 013 -53 -48 -04 018 -09 -45 015 025 -50 -01 067 -38 -78 028 -77 -22 058 -44 -46 -01 -62 -26 -62 -42 -32 002 009 044 -36 004 052 062 020 -16 047 011 -59 -17 -55 007 -53 026 037 066 003 026 -52 -54 -22 
022 027 -59 033 045 -22 030 -46 -20 019 026 -68 -32 -19 -46 -18 002 -22 -51 051 -66 -31 039 015 046 010 -21 056 -38 032 -44 -15 013 -25 -55 -07 032 -62 -51 042 -05 -56 -77 027 023 -48 040 -06 -66 -39 059 -46 020 050 -47 052 -02 038 048 061 -48 -08 054 037 
064 011 -01 -01 054 -29 -12 -38 -73 042 -29 052 -31 039 -35 060 058 024 029 -18 -22 024 054 009 032 008 029 -76 062 070 -12 017 004 010 -27 004 -05 019 032 040 -34 054 060 -44 -33 028 014 -17 047 024 059 -47 -05 -66 -39 -23 -14 032 019 019 007 -10 050 -52 
010 -22 -61 -11 005 -26 -44 -49 059 032 005 013 068 059 039 075 -53 -05 -20 -37 -62 009 -08 001 007 -33 048 004 000 075 -23 -53 019 004 -17 -02 -33 009 -09 -31 -46 -16 -44 004 -15 -40 -43 -10 -63 -65 063 062 -38 -54 -21 053 054 033 026 064 032 031 064 033 
-71 -36 051 001 052 020 -32 060 057 000 039 -20 068 -51 -43 030 006 -47 -22 006 -38 -26 -25 -07 -39 034 -02 -76 057 -60 015 039 -50 052 -19 035 039 -18 024 -44 002 -51 -08 -09 -29 -18 012 031 000 -18 052 030 -63 016 -18 -50 052 -51 060 062 023 -21 042 -15 
055 047 -41 041 -58 -04 042 044 -51 -03 039 054 058 -06 -20 -71 021 -32 048 -27 -09 046 037 018 -65 -63 -02 059 -47 062 -49 -59 028 022 -04 -18 040 016 -32 034 -53 -66 007 -45 012 -30 -44 019 014 018 -45 028 055 -33 -52 -21 -49 -22 -59 -35 012 -60 029 022 
-07 -23 -76 -06 -32 045 -17 058 009 008 040 027 -17 068 -12 -12 -26 -05 034 036 063 039 051 001 -60 -47 013 -37 016 016 -14 017 042 -03 -50 -55 060 -16 -44 -50 -60 034 -16 034 -32 -48 061 -11 007 066 055 -10 038 001 017 004 -59 -20 -61 019 -45 -19 008 -07 
-40 -30 007 035 -12 -23 046 -43 -16 018 -26 028 -64 035 025 064 024 019 038 034 020 053 -27 058 -18 -38 -37 028 056 -33 -21 -36 -17 008 036 006 -03 047 -09 -69 -58 064 012 025 007 061 -30 -36 -61 -07 011 015 010 008 -46 005 -38 033 -60 -49 045 -03 -42 -50 
-78 -26 061 001 045 054 -05 040 076 -22 -06 -16 -73 056 014 001 -30 056 029 -07 -52 -42 -07 -51 -61 -47 032 -70 076 -62 -62 -53 -31 -09 -34 024 004 076 031 -75 012 006 047 -53 012 072 052 048 -18 -52 -30 -23 046 031 -21 -13 -04 -27 -30 -40 009 064 -27 006 
-55 -27 063 006 028 -48 -18 -58 032 -22 -15 -09 -37 064 -25 003 056 059 -44 007 004 009 -35 -54 027 040 -44 039 -57 -55 032 016 -26 -54 009 024 -58 -46 039 -05 -37 -68 -16 -21 -07 001 001 -34 -53 -18 051 -01 022 054 045 -07 028 -23 -82 014 -19 -39 -49 054 
-58 008 -15 -12 -22 021 025 060 011 -38 -48 -35 -49 010 041 -35 038 -35 008 011 060 -05 -33 -02 -28 041 -13 057 -71 066 -41 -56 052 015 001 -49 065 -77 -30 060 032 064 054 029 -33 -48 -51 031 -57 -10 001 038 -10 -22 034 -42 -49 002 -47 -11 000 030 -12 -48 
051 -53 -06 009 009 008 -25 -36 -35 012 014 009 -07 -24 019 -68 -16 048 046 034 -56 -23 045 026 -55 063 -16 039 017 059 034 -15 -07 -51 -28 -46 034 -88 039 051 010 -67 049 051 -22 047 -62 030 018 -04 035 026 -72 070 000 -33 -37 028 -42 001 040 -64 -67 -51 
045 -47 -11 -38 026 026 -27 022 -08 -52 -01 -36 052 -51 036 -87 033 -19 -48 040 -56 -48 013 -66 034 018 011 -56 031 -21 -05 -29 025 -21 -14 -01 020 019 020 -48 -48 -29 086 -07 036 062 -46 -34 021 -19 049 056 -78 020 -07 -50 -35 047 058 -06 -46 007 -56 003 
073 -30 -38 047 043 034 023 049 -88 024 008 059 -68 -70 -24 060 033 028 058 039 -30 045 008 011 006 010 -29 046 005 027 018 028 -20 043 -54 030 031 000 -15 -73 -47 -34 -41 -23 -02 067 009 -24 002 -28 012 047 -58 -35 020 -57 -50 -09 048 -28 -04 -03 -42 -55 
-67 -50 -56 057 -59 027 039 028 074 -56 -22 -67 007 052 -52 -22 -33 -22 -41 -19 -44 -26 -51 034 050 044 045 -27 044 -16 019 060 040 038 041 031 006 -10 042 035 -01 -19 -54 -39 034 -66 -11 -43 -55 -69 044 038 -11 009 047 029 023 -42 050 047 -42 -43 -36 -52 
-78 008 056 057 006 -18 001 003 082 -01 058 021 -54 -76 -40 091 -07 -28 015 -32 061 029 -31 -24 -24 063 -08 -48 023 -63 -02 012 -18 -11 -58 003 078 054 001 065 010 -62 019 044 003 052 003 -28 059 -70 021 056 -91 -68 -26 049 -54 000 029 032 -43 -69 046 002 
-38 -16 085 003 -11 -07 005 -35 077 050 058 -01 040 -60 035 -58 -01 -12 -46 050 056 -43 018 -46 024 -22 -08 -29 024 084 016 -16 -20 -03 043 -35 008 029 024 -31 018 -09 056 031 060 066 -13 019 -21 -66 -72 -16 040 059 -37 -42 -34 -21 063 -04 031 013 -49 -23 
051 007 000 -22 -29 002 -34 065 -44 -28 -21 -67 088 -67 046 -74 003 027 -64 -04 056 054 -58 027 018 064 -22 -14 -23 -47 001 061 -12 040 030 011 029 -14 034 064 -39 -55 -56 -37 048 -29 022 -22 029 -27 -29 052 077 078 010 -33 050 022 081 035 -05 -57 -54 012 
-40 -01 -63 032 025 -04 -32 -46 -65 -04 031 -66 -47 012 -27 -68 -41 -43 -35 -43 -20 022 -28 020 -18 021 026 -28 -08 -77 013 018 -05 032 025 031 055 084 031 -84 000 -18 -22 -41 041 -38 -09 -33 052 -77 052 012 047 -39 -22 -22 -32 005 065 -16 034 073 061 031 
-57 015 068 052 -60 030 -39 -44 -05 -32 -45 008 -04 -22 -18 -45 -28 -23 -01 031 -49 -61 -46 -05 -31 -52 034 -65 -61 081 041 -34 -38 -47 048 -07 050 -50 -52 -51 -43 -66 -61 -41 017 001 -26 -60 040 043 -69 012 -03 -40 -35 -51 -59 -55 051 -59 037 020 -58 018 
-48 000 057 -19 032 058 -08 -23 -20 -35 045 034 070 -32 034 -79 -36 -38 037 042 -67 001 035 -54 -45 071 -25 -38 006 -07 -14 -42 048 009 -44 049 041 051 -34 077 028 006 -74 -53 -50 -45 062 -57 032 056 -63 -59 042 043 -21 -50 025 -46 057 047 -47 052 -12 -01 
-56 019 008 -04 -49 -04 -28 -40 067 048 012 009 -52 -02 -49 054 -14 -51 -23 -47 000 053 005 025 -47 005 -49 016 -56 -01 004 -63 016 004 048 -07 -54 -81 -19 -59 -56 -61 085 030 -20 075 015 -46 -57 067 032 027 -85 -46 025 -05 -39 -46 -38 066 025 065 -52 -55 
087 -50 -18 041 -44 042 037 -26 015 034 027 -66 081 020 028 -02 -07 008 -21 026 050 -13 -39 038 -42 022 -54 -20 -63 047 -42 -50 007 -26 -14 -61 -31 080 010 088 -08 012 -36 -32 013 068 -25 037 -63 086 056 048 076 -32 -47 -14 -11 -14 -38 041 -10 -60 -41 -35 
101 -11 055 -34 050 015 002 -37 -57 022 -36 048 007 -13 025 -76 -35 -07 -49 -48 -31 041 036 -29 042 -60 051 011 -52 016 -59 -16 -27 014 054 024 040 065 -26 -33 -39 048 004 002 044 037 027 -41 -21 038 -30 -22 015 057 -37 -50 034 001 -21 073 018 -03 -40 -43 
-36 000 -05 -60 047 044 -20 049 027 027 022 -48 -05 -57 -17 045 -41 024 009 -20 -51 -25 025 -09 009 008 -39 037 026 030 -01 -51 027 039 -04 -11 026 076 042 -59 035 -22 007 030 -07 -07 053 -07 007 -32 -10 -18 030 013 -37 -26 022 -08 006 004 038 065 046 023 
005 -18 -51 -46 035 -11 032 060 -28 039 -05 -20 022 052 016 -78 -12 054 -60 040 030 -24 052 -12 -34 -27 -23 -46 -23 -69 030 -40 045 -53 -01 -33 004 -51 -33 -36 -28 055 -54 -55 -49 -18 004 008 040 008 -38 -60 -44 -40 -10 036 -25 007 -51 037 040 055 061 -49 
-20 057 -16 -34 019 -34 -19 -09 -44 -57 006 052 074 -21 013 063 -49 048 -28 -53 -66 -32 -04 015 -01 -57 007 061 065 062 -48 053 051 019 027 -39 067 -68 -31 073 -30 -30 073 013 -43 047 -11 -53 -46 078 -50 -65 -01 033 -22 043 043 -41 070 050 -40 -29 038 017 
-09 -06 -60 051 032 -05 -48 012 -55 009 -54 035 037 012 -06 073 -23 -08 017 -01 -36 010 -52 -37 -08 055 -15 -79 034 -34 034 030 052 -01 -32 -33 -61 -55 -01 -33 -21 -12 070 -54 002 -49 023 -44 016 082 -61 055 -04 -27 047 045 -23 -41 020 -07 031 -57 -53 022 
065 -39 -70 -08 -59 -06 011 011 047 047 013 048 029 -53 009 052 052 021 043 030 -55 020 -08 -35 052 048 -26 007 031 036 -57 -04 -03 002 033 008 005 -14 -30 031 041 024 -70 -27 002 -40 -45 -59 027 033 045 001 058 -05 031 047 052 013 -62 -35 -43 026 -52 055 
-79 -28 065 041 -60 034 036 -40 -39 -15 055 028 038 040 -44 -13 035 -47 056 -42 014 041 059 057 -46 014 051 016 -23 -67 017 023 041 -50 -13 022 -54 023 029 072 034 -63 -47 -46 -14 034 024 018 -59 010 -65 -54 069 -37 -27 -21 053 001 -26 052 027 -07 017 011 
068 -45 013 -18 052 036 045 029 056 019 -34 047 008 -61 033 -55 028 -01 -47 -35 034 049 -65 -60 068 061 -13 027 044 -75 054 003 052 -30 -10 -53 -06 020 031 013 042 -09 -54 053 -11 -72 -06 -36 -51 067 036 -45 -10 -59 -40 -46 -22 -57 -37 009 035 021 026 033 
-47 033 003 -18 042 016 -22 -47 -42 -18 051 -13 -15 -46 -41 -01 032 039 000 043 -37 -13 -02 030 -12 034 009 014 061 033 -52 -24 042 032 051 -04 053 060 -23 -26 -44 -48 -03 005 -13 -17 000 -45 027 -46 034 -34 000 038 -04 049 -40 022 047 041 000 -22 050 -06 
-25 058 -52 -52 -32 -29 -06 036 041 -30 -40 -68 076 012 -17 -47 -29 020 060 -50 010 -21 042 048 -57 012 041 049 027 060 012 016 -32 -21 -20 013 042 063 037 -06 031 -39 048 -32 -44 -63 047 -38 -59 028 064 025 -37 -40 015 -46 020 -54 -30 036 -47 059 -57 040 
063 -26 026 029 057 034 -28 025 024 044 029 -69 074 -12 041 061 -53 053 003 032 024 -54 -53 041 009 -46 018 013 -64 -64 020 -57 -51 -22 -29 057 -23 -15 -13 -40 -24 057 -56 044 -18 -14 -20 -30 -14 048 039 016 -46 -42 -40 -07 059 018 051 -59 -37 016 -38 -41 
023 -34 012 -17 016 007 046 012 -43 045 018 -01 -76 -15 -15 076 001 049 000 -01 -29 -55 -53 052 -32 046 -43 006 -19 -45 009 -11 030 009 -31 028 -28 028 -35 036 -17 -13 064 028 -43 055 -23 038 031 034 -41 -27 -34 -02 010 052 -39 005 059 -08 -16 -59 020 -63 
-15 037 063 004 -16 -32 -51 024 -12 037 020 012 -37 -28 039 075 -56 045 039 -15 053 000 057 -35 -62 -65 -01 -10 061 021 -28 -25 -56 044 032 005 014 062 005 034 043 063 -70 -50 024 -69 -58 051 013 -02 -13 -43 -34 069 030 -38 058 042 -30 035 -23 -47 -17 -42 
071 -29 008 -10 056 046 -15 003 -49 032 022 016 -70 -05 016 -68 -17 002 -26 040 002 -27 -65 038 033 041 -49 002 036 -53 -46 -02 -37 014 002 031 -03 064 038 -49 018 -35 002 -28 000 -79 -38 012 -43 008 -49 036 026 -76 037 -11 -34 027 -77 -68 040 054 044 -19 
042 014 003 -49 011 041 040 -64 -69 004 031 -18 024 -63 002 030 -50 045 002 039 036 -18 -15 042 -42 -54 045 -79 -19 -68 -32 -57 -35 -27 011 040 -68 -48 018 -72 -59 -19 010 040 -40 -18 -24 -52 052 -09 064 007 019 -04 -14 022 012 -59 -09 048 -06 003 055 045 
-24 055 -13 -42 -61 -50 -22 -11 -49 -36 055 031 040 -47 040 -16 -05 -28 -49 -13 064 035 -29 -10 026 -17 -33 -03 082 -53 -52 011 038 -42 014 040 017 067 042 -15 -41 -35 -39 018 -05 -05 -46 -10 -45 014 -74 019 076 030 057 -24 047 -54 022 -06 -06 074 -21 020 
-32 -07 -55 -03 -20 -35 -14 -46 -75 044 041 028 -44 -14 -28 -23 -23 -51 -50 001 016 -06 -31 055 -63 -66 043 -92 046 -25 -33 024 029 021 -51 -18 055 -05 021 049 -46 065 015 021 053 -31 039 046 015 -56 002 043 -78 037 -13 -11 057 -13 008 038 -18 -60 -28 051 
-07 -37 011 -17 003 -22 -37 -08 -47 012 -08 -22 -55 016 033 068 -31 056 046 -43 035 041 034 -28 019 -40 038 -73 044 055 -09 031 -20 037 -43 029 010 -70 -26 -40 -55 -20 066 014 000 028 -53 -13 -30 042 -56 011 -09 -15 044 -51 -04 032 051 -25 -46 001 -30 -15 
071 -37 007 018 055 054 -18 056 077 054 055 -02 -07 -47 -28 043 -36 -46 -03 003 -44 024 -34 -07 007 054 019 060 020 059 036 002 -32 -52 031 036 -63 -06 009 -68 025 019 015 -27 034 043 -26 -59 059 086 -11 064 -21 -17 038 -32 -25 -44 028 041 -33 -52 030 -55 
070 021 067 042 018 025 -36 -38 035 -52 -42 -54 029 -20 015 024 009 020 -05 -46 000 -54 056 003 051 -52 -19 050 052 030 031 -44 -33 -33 -48 -38 043 -50 025 -42 -44 047 -63 006 -45 001 -24 044 -30 072 -71 024 062 -19 002 021 -46 -21 001 -36 039 -04 031 -23 
-69 -15 045 -42 051 031 -45 006 005 -51 015 -31 -72 054 -19 -81 024 -54 055 000 -13 -38 -07 027 056 051 -03 022 -65 043 016 -24 005 044 -29 -53 -26 -56 009 -11 058 -50 043 052 -56 -22 -62 -22 041 -74 018 -15 -66 -67 038 -42 034 034 -71 -66 035 -39 033 004 
-51 -42 -59 -24 -57 019 033 044 -43 022 038 054 057 -24 -07 -08 -17 013 -10 -48 -34 024 -26 -36 022 -61 039 024 069 -48 -06 039 046 -19 -30 -04 020 -34 -35 026 002 045 -44 -50 -51 -09 -64 -21 060 -54 010 -50 005 058 -06 -39 049 -01 070 -65 -44 057 -27 -26 
072 026 -62 -56 013 007 -09 030 -43 -40 008 -05 -61 -72 -48 -65 -29 -23 -15 030 -05 015 015 015 015 047 010 021 -18 048 032 026 -42 -48 011 -44 -49 -75 -37 -16 059 -52 061 029 -10 -39 065 -47 055 010 -71 -50 025 -43 -25 003 029 -56 024 -21 -34 047 -24 037 
-43 011 -20 -21 -58 035 -08 042 053 026 041 035 -52 030 001 -75 019 -45 038 046 -29 023 048 -44 -63 -16 050 055 -58 044 -20 -26 -03 -25 042 032 064 044 -06 058 014 -65 -21 -50 -51 -39 -09 045 -55 053 056 055 072 046 -37 -53 -23 033 -64 -54 -13 053 -49 -55 
031 -55 -45 -57 -60 012 -10 -14 -76 -52 -06 -47 -24 009 051 059 027 047 -02 002 044 -59 -36 -49 025 -26 035 032 056 048 019 -08 049 -40 044 -36 041 -13 005 -60 010 021 019 -43 009 -26 -48 -53 -13 044 032 005 011 -19 006 -08 -55 -05 -55 -65 010 026 -26 -08 
-22 037 -62 012 051 -20 -11 -21 030 -28 -39 -62 064 -62 023 -14 000 046 019 047 057 013 004 032 011 057 -06 -32 -75 058 008 -62 031 -02 024 -47 -11 -78 030 027 053 015 -49 -53 026 000 027 032 -02 041 -46 012 -67 069 048 -52 -40 041 010 -27 032 -53 041 -40 
015 -41 -13 -50 -16 -04 046 -56 072 -01 -49 037 -48 -13 022 -18 -44 -21 005 001 -51 035 -57 -45 007 -32 -43 029 006 024 -50 026 016 -48 014 -60 049 -45 047 -39 -08 062 -60 046 047 -68 -63 036 -28 -25 -16 -58 014 -21 -32 027 026 010 -62 049 -36 007 018 -14 
070 004 -02 -25 -25 023 -15 -33 052 -56 027 -46 -67 -61 042 054 046 038 061 -24 052 019 059 -52 -16 045 -41 -61 038 022 019 039 -04 -23 -02 -11 035 -35 -38 -32 -10 062 -67 029 037 -07 -53 018 -03 045 069 -47 -46 -53 -44 -06 -16 -29 -73 024 -18 013 -37 036 
-48 -59 015 -33 -56 -14 024 038 045 038 056 035 039 -33 038 049 -20 -45 -64 -49 003 -03 -29 063 -16 -29 012 -29 -29 -56 -32 035 051 -38 -12 000 067 -25 035 -05 -56 -26 066 -36 -28 026 047 -17 026 -72 -32 029 -73 005 033 -41 -44 -14 050 -44 -15 055 057 032 
-19 -46 -70 011 -57 043 013 -12 046 -52 022 -30 038 -68 -07 -74 -40 042 049 010 -43 -16 -57 -50 -41 -34 043 -74 027 066 043 -28 040 015 031 014 -18 -55 -35 -72 -50 -47 022 -31 -30 002 -17 -40 -10 -35 044 007 040 -29 019 -10 024 030 061 -46 042 -50 -38 -05 
-38 027 -15 -35 -56 002 051 064 066 -17 -06 -45 -04 -51 -20 -75 004 -56 005 021 -08 -38 052 026 -32 066 -24 -43 064 002 -38 -54 030 034 -41 -07 -21 -63 004 086 -45 020 -63 -57 019 004 060 -34 -29 046 051 001 030 -03 -02 032 -05 -28 078 023 006 000 038 012 
032 -42 -67 020 021 043 -54 038 006 001 -06 -61 -43 -30 008 012 -48 -30 -35 013 038 -20 -53 060 -26 075 -53 077 -73 -54 012 -21 046 -10 -22 019 -11 023 019 -48 035 042 037 -49 -12 -08 063 012 046 -70 -45 -24 -31 019 -46 -02 026 -21 025 -55 -13 032 -28 -09 
012 057 018 -39 -53 -57 -42 -63 -58 -43 -45 056 030 042 022 -58 034 -48 -12 058 -22 -57 002 053 042 082 018 013 -79 -09 052 050 -34 -02 010 017 035 032 -01 -49 -32 -19 -30 -26 036 050 -49 -59 -54 057 049 -30 015 -55 066 028 -15 037 -38 -48 013 048 -52 051 
038 -11 051 007 -55 -28 -16 022 069 045 020 -40 -85 054 -35 037 -60 018 -06 -20 056 055 -15 027 -47 023 -41 088 -38 052 031 -38 -03 -53 -17 011 -17 040 038 012 059 -58 032 047 026 -08 -18 -37 -63 -21 002 -17 -60 015 052 038 000 022 034 022 031 074 -23 044 
-19 026 028 -25 -59 -50 -43 -17 016 039 030 -49 -85 -62 018 027 -07 -18 019 004 053 -06 024 016 -40 055 037 -27 042 007 -30 017 041 047 -02 -06 003 -16 015 -59 -06 013 072 -32 -53 042 069 026 -66 031 028 004 -43 -37 -27 -10 033 047 040 015 -18 -15 058 024 
008 060 -54 -07 043 -39 040 032 017 047 -28 047 -09 026 -32 -57 -32 057 -26 047 -10 009 -10 053 -31 -62 -23 085 -45 -74 012 033 047 007 034 -21 -44 000 034 -52 -04 027 043 -10 -17 043 013 -30 -48 -26 027 032 060 022 038 013 043 017 -39 -19 009 -56 -33 -25 
025 036 -18 -47 -36 -22 020 -48 -20 -55 024 -34 029 013 -20 -50 049 -44 008 -24 034 -08 -42 -59 -38 062 -30 -08 -66 -34 -63 055 -53 -17 -26 031 034 043 -26 -63 -28 -57 -38 000 034 -63 -84 032 -47 066 049 055 017 -54 046 047 -44 050 059 -36 026 004 -32 -57 
017 -04 -19 064 049 -08 006 -13 057 -40 031 -28 027 049 044 089 -37 -10 033 -62 -38 019 042 034 020 000 016 -05 -57 008 -41 069 019 039 020 009 -56 -24 043 067 -54 -18 -42 048 048 -59 -54 -42 058 -30 -31 009 017 003 000 -02 -52 001 015 039 034 -46 047 -63 
038 -27 -24 013 -45 -30 034 -09 -05 -46 -31 -12 -66 034 -46 070 -62 -10 -52 026 040 -20 052 032 -07 -34 032 078 079 025 034 -16 -52 040 -52 020 031 -41 -39 087 018 022 050 014 -19 -58 -09 -05 -32 035 -36 -08 -87 049 049 024 059 -50 -38 -61 -06 048 003 010 
