-90 020 -113 056 044 -116 124 119 -76 122 118 003 -120 -80 122 010 092 049 084 066 123 -78 083 108 124 -113 -115 -100 -119 -120 099 120 058 -121 -88 -126 -08 118 094 -114 -116 126 -71 -122 -23 -106 064 119 -124 071 -121 023 -103 -109 051 -125 125 118 044 -28 -112 113 -35 058 
010 123 -99 121 113 -73 -93 120 062 -89 -121 011 -124 -67 075 116 126 -63 -80 -104 -125 -106 -47 -113 118 -73 -125 027 -84 -43 091 123 -122 117 -89 -104 061 113 124 -117 125 116 107 114 -27 -75 -18 -66 -120 -10 -111 -115 -100 -121 105 -81 -82 -95 -115 019 -96 119 125 096 
-83 -122 086 -125 -83 071 -125 -119 006 021 -03 123 113 119 126 -64 -87 -30 -61 113 -63 056 -68 -119 122 -26 -117 120 122 -107 -98 -65 -126 122 -123 030 070 -60 123 120 -99 -127 -94 -106 -90 123 076 124 006 -79 072 -72 118 113 051 -125 041 -126 -127 022 069 089 -66 -113 
-19 -111 125 -127 -80 003 115 076 -36 117 080 -78 -126 099 -91 -25 126 -108 -07 018 125 008 -102 003 125 108 111 012 111 117 -87 109 -113 -92 -109 061 -87 -46 107 118 099 064 -93 123 -68 -124 -113 -116 100 006 094 073 -13 053 108 -126 123 083 081 -61 -111 -127 097 -124 
087 -75 014 -114 123 -68 -22 124 088 -106 -123 123 079 -94 106 -50 -101 -107 -68 -118 -92 059 102 -74 -117 -79 060 113 075 064 -105 -122 -126 -125 093 112 057 122 044 -127 -45 119 -39 106 074 -125 -111 076 -69 108 -126 107 094 -14 020 -64 010 060 122 048 -122 -114 053 -99 
-07 123 118 117 125 -29 -99 066 -50 106 -89 004 100 060 123 -20 -125 014 041 101 115 -27 101 -75 126 -43 -71 040 118 120 -124 -41 -124 -46 123 -41 066 119 123 096 -123 103 -101 125 -98 -119 -104 112 125 113 -122 -106 062 -125 123 100 124 -127 125 -10 101 113 -98 -88 
-27 -86 119 -100 -52 -112 123 042 007 -52 069 -117 -78 -69 096 -77 117 -01 077 121 125 -96 -56 -83 -126 -63 -42 -106 -100 103 -118 100 124 -121 -123 103 023 120 -119 049 125 069 -57 069 -28 -08 -98 -93 124 -101 -50 -38 -90 -120 125 -102 -04 -57 -116 -95 -127 -104 -89 102 
048 090 125 020 056 -69 124 -118 088 -88 -119 114 -78 -11 107 -116 -123 094 -84 115 113 -86 -91 105 -123 -113 124 104 054 -116 124 -105 118 099 119 041 -16 054 091 040 -116 113 -110 027 -49 116 -86 -57 -91 -73 112 104 098 102 109 117 -126 -117 059 092 -07 -122 -121 -40 
049 124 -104 083 -115 -122 -125 088 -34 124 -82 -113 -64 125 -109 -89 -83 047 -61 009 -122 -92 -104 -54 013 -07 -116 -59 093 047 119 -108 -44 106 -35 073 094 124 096 -114 049 112 113 124 -86 -96 -115 -113 124 087 -127 -115 -62 113 -111 -73 113 -15 062 097 115 104 116 -63 
099 -115 -101 -56 123 -123 -50 -94 097 125 -124 115 -88 099 -114 -119 -128 081 100 029 100 079 084 069 124 -58 -125 -21 -06 119 115 028 -110 125 048 050 108 -95 030 -118 -101 108 108 -109 -99 111 103 122 -50 -83 -122 069 065 -53 -42 118 102 051 -124 108 024 -126 008 -113 
-87 091 058 124 117 115 -103 -121 -09 120 065 -02 125 020 -64 072 126 -23 068 -95 -66 -56 079 -102 -126 070 100 -46 -122 -104 -104 116 124 -126 003 -124 -61 086 -124 -12 103 -115 -102 -125 006 109 -84 -123 -102 -37 035 -114 116 -114 -122 -118 -126 034 -68 051 105 -01 -124 106 
-90 -66 -91 -107 082 -25 125 041 -64 048 108 -125 125 002 -122 -42 -115 -76 -103 -111 -111 -68 -47 -119 112 -117 030 115 111 099 -36 122 120 123 124 -120 116 -109 -93 -92 -24 -93 113 -25 -106 -121 083 -121 -112 -02 125 052 120 -113 125 029 097 124 125 104 111 112 -124 102 
104 108 124 104 004 096 080 -122 -104 027 077 124 066 -127 008 -106 -126 -07 -39 112 -110 -106 -04 093 115 009 033 -72 -118 -119 -126 -60 -117 103 -52 122 080 083 123 -48 104 -127 -108 -122 051 -29 038 -87 -116 -80 111 -39 108 043 125 -71 118 118 099 -109 -125 049 -118 080 
-91 090 -112 -122 120 -111 -124 071 -11 -121 125 -124 -92 -123 -110 111 126 -101 -98 123 110 -49 -38 -112 -115 101 -100 042 116 -116 125 -122 119 -123 113 -59 084 -120 086 -118 -127 -125 -24 -99 -112 118 -90 -78 108 089 -120 103 013 -100 103 -80 094 121 091 -03 124 123 123 -52 
-76 -20 -25 -99 052 -102 096 -115 -94 038 -21 117 -127 -121 -127 085 028 -111 018 -68 -124 -105 015 -14 -114 -120 124 -122 019 -113 086 -15 -104 -117 085 -98 055 094 -126 -76 -126 125 -92 -123 047 -101 -28 -111 107 -58 084 -95 088 -99 066 121 120 051 063 110 -104 -56 066 -109 
-42 008 -124 125 011 114 -124 120 099 003 121 026 083 -111 -94 -117 101 -10 -109 -96 124 095 -100 -116 -114 088 040 116 125 118 115 -27 -120 124 124 -06 013 -120 059 121 -126 -126 086 -125 060 -79 -97 -109 075 098 -91 012 104 104 -123 -126 123 -127 -93 -35 042 122 085 -83 
-72 124 026 -109 122 -87 121 -126 -81 110 -98 -122 125 032 -94 087 113 -27 080 091 -126 -02 086 084 -66 061 -89 024 112 -30 084 -124 118 -127 125 -08 -18 -16 -126 -102 124 125 114 -121 -76 -94 -78 -108 -28 054 -86 020 113 125 121 050 -91 -126 -122 -69 112 123 089 -125 
091 -120 -108 121 125 -65 -125 -20 -63 125 -127 076 -127 068 -123 -41 125 -03 102 -106 -126 054 -44 -119 -124 -70 -125 -15 -35 -72 104 117 124 -116 098 012 105 -119 124 -120 -65 -118 114 124 -83 123 007 091 125 048 120 -101 114 -119 -118 -84 -124 037 -90 -01 122 -93 -75 -26 
053 -79 123 -126 124 -101 -124 008 055 125 -125 077 -128 -126 -24 091 -121 -02 102 -110 -81 -48 038 -61 057 -114 120 -115 053 033 114 -96 125 125 -16 -69 111 125 -95 022 -22 053 -97 018 -87 -111 -82 -66 -106 056 -97 030 111 -78 -100 -125 125 110 -122 057 -105 116 015 101 
069 -126 -46 -82 094 -52 -108 -106 -19 120 -92 -121 -124 -101 -98 -107 -115 -103 -74 016 -127 -50 -18 -86 -115 084 -85 117 -83 117 -17 005 -122 -123 -122 064 -62 000 100 -126 -119 -128 024 -101 -100 063 101 -125 098 109 -124 116 -51 113 126 -122 110 125 014 -84 015 -39 114 -28 
-50 054 015 -121 -119 085 122 -99 014 -99 -119 -124 -117 -81 -29 102 -127 037 -68 -104 122 -66 008 115 123 -96 -121 -116 103 -69 124 -120 046 011 120 -66 -106 -127 122 -108 126 -11 058 -116 -71 -112 039 118 -56 -02 -123 101 120 123 -89 -126 027 -121 110 -37 -116 124 -10 016 
098 -125 069 -125 -125 -45 -126 124 -20 097 -115 -112 068 -108 -21 -101 -111 -91 100 -113 -121 081 -100 -71 -125 -106 -119 -40 -119 -101 025 -107 -67 -122 107 124 113 -28 -126 122 -126 -111 -106 -121 021 118 105 023 -63 -83 -84 -30 018 -71 -124 -103 115 -113 -86 -44 041 124 -56 093 
039 116 058 012 097 -114 -114 -116 -59 124 070 -124 053 -106 -126 -83 -125 088 -112 -28 -110 069 053 -120 -98 101 -120 088 089 054 122 -122 020 089 085 091 113 -59 118 -30 100 -124 116 045 035 -120 -90 -08 -122 -06 125 110 118 -121 -11 095 002 059 -86 -87 -59 125 098 040 
-64 -68 -73 111 123 081 -125 -107 104 112 116 113 103 -92 -119 114 107 -93 -86 108 116 001 -107 -73 -101 108 105 -18 -120 -105 -50 -123 016 -107 124 124 112 112 106 -07 121 056 120 -108 -45 126 -112 -120 040 -70 -121 076 120 121 -127 109 123 116 123 -83 113 -127 -41 -71 
-81 124 -55 110 114 052 120 -118 -94 120 098 -24 -125 -93 -103 -115 126 -102 004 -118 -122 101 -60 111 -107 -60 -113 -60 -117 -116 116 108 094 125 -121 077 094 123 121 -46 -123 -116 120 125 060 096 -72 109 124 086 -122 -116 -80 125 123 -75 -66 036 -114 -36 -119 -122 -80 119 
059 116 -89 -118 -124 043 098 076 037 -98 119 090 -126 -01 119 -61 -126 044 016 -104 056 -106 085 095 070 -22 -125 -122 -127 076 -125 123 125 -15 -116 101 039 -121 -62 -113 113 126 -113 051 -96 125 045 -122 -102 -14 092 -116 -18 124 -107 119 082 120 046 085 -33 -118 -121 042 
053 -81 079 -125 -125 094 -127 -121 095 -51 -119 -106 125 -36 -04 -109 -97 -62 -54 -125 035 -52 -71 -10 090 -115 118 -10 -114 -115 -122 -121 052 122 -71 -125 095 -120 120 -127 -40 088 -09 -120 055 124 -02 123 -124 083 039 059 -102 -64 079 072 095 125 125 -21 -64 -124 121 -86 
082 119 -105 119 014 -113 123 084 099 -83 121 -64 -127 123 125 -35 -110 -108 064 -53 -111 -46 036 -51 083 098 -108 113 -83 118 124 112 082 -54 122 094 079 -125 026 -113 -121 -110 -27 -121 -98 082 077 099 098 003 -118 -03 078 -126 102 114 -92 -68 -116 100 -105 117 -105 115 
070 -92 122 -94 -102 109 120 -104 -35 -59 123 -16 -117 -110 097 098 -101 054 -85 076 -75 011 103 -120 -94 -51 -99 106 -103 117 075 083 -103 -122 -98 -123 109 -91 118 -116 123 105 -04 -74 -100 -75 102 122 -91 -64 -116 101 -24 -108 -94 108 -124 089 111 -90 124 088 073 011 
060 076 097 110 -119 112 -94 -46 045 -61 068 -25 -93 -108 -127 110 -92 -111 -82 -115 101 021 -14 117 -46 -80 123 -12 123 -110 125 089 -66 -127 125 -118 -30 101 -124 121 046 124 120 120 -93 -04 -55 115 -87 089 116 108 -06 106 105 -50 029 080 075 017 -123 -121 -37 094 
072 054 124 117 -96 -112 118 -100 006 -92 114 -120 113 -117 089 -79 -116 -80 -97 121 -127 -29 -09 -28 -79 -120 122 116 -124 -86 116 -118 -109 -74 111 118 -25 104 -92 110 106 -120 072 086 026 -82 108 -80 -09 014 -123 -96 116 -123 107 116 115 -99 088 099 -126 -58 -125 -37 
074 -105 -102 -116 -75 -51 100 -99 -85 -31 125 071 021 117 -84 082 123 099 -21 114 -125 -89 040 -30 113 -120 -110 -84 -74 019 118 -105 -108 109 121 -47 114 -118 122 100 124 122 101 -125 -29 120 -80 -123 -94 086 -126 -76 009 072 -105 -100 122 -120 -122 -07 -127 115 046 -122 
040 -121 -18 -45 -126 111 -126 023 -38 -125 110 -125 080 -124 126 -103 -111 044 -92 -23 041 050 -109 -64 -11 118 084 -117 -123 077 114 -28 120 -120 111 -125 -100 -61 -119 029 -121 -127 -112 120 -103 117 046 096 -83 -97 042 029 -117 086 120 124 -124 110 048 091 -36 122 -07 106 
087 -126 -57 -107 111 114 -86 108 048 -27 003 121 -122 109 126 079 -45 -91 062 017 125 019 -92 -107 124 101 -56 102 -127 085 -110 -111 114 114 101 120 -98 -75 025 002 -124 -126 -70 107 105 -123 -64 055 049 085 067 -54 -38 118 -114 125 124 047 122 -108 112 -96 060 -125 
095 124 025 -29 -46 -99 -28 -117 -79 103 -49 014 -128 080 026 -122 119 098 102 -56 -127 102 099 -30 125 -78 -98 -13 -120 -84 124 -110 -68 -92 119 100 -114 -96 115 -92 -89 072 055 109 -48 116 -113 108 106 -20 -111 -62 083 125 111 040 -93 100 -119 066 100 125 -57 -99 
089 095 088 116 102 -70 -126 099 -59 -127 124 -125 125 -119 057 -119 013 088 019 066 -124 -23 090 -77 -31 -69 -89 -86 069 119 122 -122 121 -126 074 -96 -13 115 103 -67 -97 -127 -96 104 -04 -127 108 -37 099 101 -15 106 -24 124 -127 121 123 098 -127 -22 125 -73 -29 -121 
095 064 -94 -123 -98 -121 105 -125 103 066 094 119 -120 -118 123 -121 -127 -02 -31 -116 -48 004 063 -114 -91 113 -124 109 -16 119 116 -114 054 -120 110 -14 034 124 -96 -94 125 -49 -58 045 -29 -124 -86 -04 115 -75 -127 -61 115 113 125 054 -116 -08 121 -41 -96 117 -105 -59 
-26 -85 121 -74 106 072 -126 -121 018 -97 105 -25 105 -111 -110 020 116 -99 -13 122 104 058 -97 113 -116 -120 115 -93 -126 -07 -99 -95 125 124 125 113 -07 112 -88 -117 -59 094 102 124 -72 044 -04 -105 -124 -111 -61 -23 -113 079 084 122 -119 -99 -117 -110 -100 122 116 -34 
-13 -106 096 -59 115 109 -125 117 000 -125 024 117 125 -100 -125 102 -65 082 038 -106 120 -80 032 090 -114 -105 121 091 -93 -112 124 097 -123 -124 -116 122 -18 -126 -115 123 088 -106 -67 122 -95 -80 087 -122 -116 -113 -48 029 114 -108 -74 -111 -116 -78 120 043 -127 -94 123 108 
-103 -20 -30 120 103 -108 101 114 -93 -120 -120 125 -21 120 -126 121 -15 -49 005 098 095 -98 089 062 115 -37 -121 -103 -117 017 126 -79 -55 125 -123 121 -51 120 118 122 125 123 -109 115 088 123 063 124 -114 062 -120 029 -38 075 125 082 -89 -127 125 -85 120 115 122 091 
097 -126 -125 -123 114 101 116 081 054 125 001 -83 -117 -101 087 -88 -87 034 089 -33 094 073 006 113 041 070 -112 -121 099 025 125 107 100 -108 -123 048 -68 105 -124 119 -114 -70 -116 -109 -91 124 111 112 -33 -32 118 -22 -90 -127 -78 -124 095 -123 124 -03 100 118 -55 -24 
086 -108 -127 105 074 121 -109 104 069 -122 118 -126 069 -125 117 -102 120 -69 004 -125 -61 040 023 104 035 113 -23 -96 071 009 022 122 121 -118 107 -122 101 -100 -119 112 -121 -125 086 124 057 096 096 098 -14 -96 -116 112 085 125 103 122 -111 -72 110 -99 -123 105 -125 064 
012 -109 -05 -101 -115 111 -99 082 066 120 004 105 -83 -123 093 115 126 -56 -95 -115 125 -44 -111 -19 122 -119 116 101 115 -117 -114 -103 081 -126 009 116 098 107 098 074 125 -124 081 -71 076 089 091 060 118 004 121 086 -123 -91 125 -82 114 -98 -126 -38 -108 -110 109 122 
-76 -127 -115 -124 108 -87 -121 -117 -01 -11 -124 -107 -95 122 125 -86 -55 -61 096 112 122 083 098 -117 -09 092 119 -85 -120 117 083 110 -56 -126 101 -121 -57 -23 123 104 -127 004 -112 117 015 -104 082 -125 121 073 -125 110 -99 -112 -110 124 -113 123 125 058 -128 -123 -114 089 
027 -116 -93 -126 121 091 -123 031 -96 -124 -115 114 -127 -96 118 -90 113 070 064 -119 023 062 -13 109 -118 -25 077 023 125 005 -42 106 -85 -126 107 -124 -56 123 105 107 053 123 096 032 -41 047 -69 -119 -121 -111 124 007 026 125 -124 117 -107 124 121 -64 120 125 -102 125 
003 004 085 033 -121 006 -111 -122 082 -57 113 -123 -117 -116 120 -119 -85 024 -42 106 -127 033 -77 -99 126 064 120 -108 -112 -114 -122 106 -77 -23 -105 009 066 -113 103 -120 -82 -112 117 125 002 -115 100 121 -28 -14 -105 104 -107 -124 097 -107 088 -67 -38 -58 124 -103 -121 109 
032 116 -120 097 060 074 -60 103 -07 102 -112 125 -118 -124 126 -78 -18 046 -107 -114 117 -42 070 110 -111 -113 095 049 087 061 -115 119 -124 111 -109 -125 -67 -113 -115 113 120 071 -72 -60 -64 126 -38 -62 -120 030 124 108 -107 124 -125 125 122 -11 -116 009 -107 032 -78 -35 
-67 122 -126 -119 108 -111 -65 120 -35 -114 -98 082 099 -124 116 071 -57 -88 097 -78 -105 039 075 114 124 -52 -72 117 115 088 126 081 089 -127 125 -121 007 -124 112 -53 -127 124 028 112 -73 -125 -104 -68 073 099 -100 052 014 -115 -122 115 124 124 119 -73 -126 124 -117 -64 
-69 -115 108 111 126 096 065 -123 -56 -125 120 089 120 -119 -97 123 -99 -55 -40 040 -31 012 -109 097 098 100 110 -115 118 115 -119 -92 -123 -13 -109 062 109 108 -103 -121 -127 -120 119 -111 -63 110 -23 -86 -81 003 126 -24 -92 -126 -121 -102 101 -95 102 -106 -102 -111 000 067 
-53 052 -92 -69 -106 -64 125 -124 -100 116 -114 091 -90 -108 124 103 103 -22 -22 -118 103 101 086 -25 -111 -76 121 -110 -122 048 -79 -77 -25 -54 -91 122 -66 -101 109 -104 066 -105 104 -117 -81 120 018 108 -105 -53 125 -64 114 -118 -84 125 -123 095 114 -24 124 094 -99 -106 
-89 117 125 124 -100 094 115 119 -91 122 102 033 -126 -118 -21 -83 120 -49 -64 -54 -99 -106 106 046 -113 -103 -118 102 -124 112 -76 080 125 -102 -26 040 -49 122 -113 -92 047 -125 -107 113 -83 085 -37 123 121 -80 055 037 076 -06 -125 -126 119 120 111 094 -21 121 -78 115 
-54 -78 -53 -116 -67 -73 -124 -124 -78 -76 -124 -126 -128 -125 -128 030 -126 078 054 085 072 017 090 116 -117 114 068 030 120 089 -127 105 -123 -120 -123 055 -28 122 093 -106 109 079 -108 080 -108 121 109 -118 006 032 106 -86 -99 099 116 124 125 078 -121 084 -113 -42 -87 097 
-96 -119 -126 035 125 067 118 124 -94 -38 122 125 -123 -122 121 -108 037 010 051 055 108 -81 050 115 084 -72 -106 -114 122 -88 -127 122 111 -122 064 102 -78 122 -90 -35 -107 -41 -98 -114 -106 -126 012 118 121 -114 095 035 122 123 -120 -62 117 110 108 078 122 091 -76 -86 
-69 -126 038 079 -104 107 -58 -120 -77 031 110 -122 -105 052 087 -54 -26 -46 -69 116 -35 -72 061 -94 088 -62 -123 -88 120 -115 -96 118 029 122 -84 010 -117 007 -114 124 126 123 -117 -126 -09 073 -109 078 -125 110 116 001 -123 100 119 -119 -117 123 125 -103 119 -119 -121 017 
-97 -103 -94 -117 -99 -89 100 111 -96 -122 -125 091 -117 042 050 102 126 -48 043 -118 -105 -69 -25 -30 -118 -82 096 -88 -125 -112 102 121 -105 -94 -81 -110 111 071 115 -123 114 126 -63 123 -101 -119 013 -117 058 -72 117 099 075 -125 -108 119 -113 116 124 -103 126 125 -82 -89 
053 -125 123 105 -122 -109 007 -103 -36 105 -98 107 126 069 -115 -116 -119 024 -100 110 -114 -40 -77 -27 -107 094 -115 102 -119 088 -76 -95 106 -69 -112 -40 016 122 -102 107 -111 110 089 126 018 122 -102 -118 034 072 125 -114 -07 115 -126 117 -124 -87 -51 -30 115 033 122 -117 
-72 -25 -126 -127 055 -102 -126 053 080 082 -125 -114 126 007 -71 113 100 030 008 110 120 035 -43 -15 022 -97 062 -38 -126 063 000 120 121 -112 119 121 002 067 016 093 124 003 -119 116 -72 061 -31 118 121 080 -118 113 -79 -107 -121 -122 -99 -118 093 101 -111 -92 -107 121 
-73 097 -120 -127 -125 110 -97 066 -18 -112 -125 -119 119 087 -119 115 020 -83 044 117 111 073 -106 -66 -74 036 120 -94 -125 -42 115 124 125 -120 -115 -108 -85 116 083 -70 -125 088 -84 -59 -108 -110 085 122 -125 108 -76 -105 045 126 123 065 -111 -122 114 -08 113 -118 096 -63 
-80 033 -88 -125 -103 112 121 072 -31 110 098 -125 125 116 -93 -111 113 -77 -48 -55 -121 -88 -95 -62 099 115 124 111 111 119 -118 109 -127 -127 -35 -122 012 -123 -116 108 114 034 103 -121 040 -23 015 -95 -48 006 -111 105 054 -126 098 -89 -126 -81 -116 -87 -122 -13 -88 -95 
084 040 -120 089 -116 070 -85 -57 100 124 102 -116 -117 050 091 097 -120 -109 052 -93 113 050 -64 115 030 -38 019 -121 -79 052 105 015 003 -124 123 -108 -87 -127 047 073 -78 -125 -08 112 -50 124 044 057 115 098 -103 -105 -65 -127 126 -111 081 112 -64 084 -11 106 -90 -89 
093 040 -99 021 117 -65 125 -95 -19 -70 122 124 077 063 111 -12 114 054 074 -124 -105 016 -109 049 122 -116 117 -74 115 -105 -126 -116 117 -126 -12 085 111 -113 -65 -110 -75 074 011 113 094 -127 090 -124 124 -104 -127 -115 121 -121 -123 018 -110 107 099 049 -124 125 -47 122 
097 120 112 -108 002 -117 110 -62 -71 -85 -118 -123 106 117 118 -96 116 108 -96 -115 125 098 -88 085 111 109 -99 081 -79 039 -124 -95 -56 079 -120 -88 -114 101 -118 118 123 120 -87 -81 101 -93 -101 -90 -78 -87 126 056 093 119 -105 -125 -124 125 122 082 -125 -125 -98 123 
-85 117 123 -45 125 111 -23 -104 -89 -113 -117 -17 124 -118 -120 111 125 090 -30 -102 -116 -105 -52 -95 124 114 -114 -22 -116 119 102 -79 122 -89 105 -125 -94 -119 -113 -109 -109 064 089 112 -93 -19 044 042 028 -74 -121 052 -92 -111 105 079 -126 -127 -123 093 106 111 -88 -82 
-38 116 -113 089 -126 -21 -119 052 -22 -66 -126 103 123 111 -120 -80 -106 -104 087 122 -120 -41 -29 -112 112 -34 -117 -56 122 076 -57 -112 -113 111 -81 095 084 -115 -96 123 104 113 -99 076 -81 -125 -101 113 -119 040 115 116 -119 -118 -124 124 122 -96 -95 059 -119 105 081 125 
-61 -62 -126 059 -72 078 121 -123 -98 -95 057 020 -80 -74 -13 063 106 050 -54 121 -95 074 -58 -112 -120 -109 -92 -58 -127 046 125 118 -113 026 121 117 -29 123 113 -110 125 -94 -105 121 -104 109 -96 047 -110 -97 -120 -116 106 -119 -123 056 -29 087 -125 -28 124 089 -125 -08 
095 -77 113 099 -120 -96 -82 121 047 -100 -72 118 -120 -125 110 121 -125 -86 -28 -123 052 092 -86 061 111 -111 090 -89 -117 119 -106 -76 -116 -124 098 087 061 121 076 110 118 -88 118 -109 079 -103 021 080 100 -97 -127 110 095 -122 121 119 004 041 -127 -108 -127 117 -118 045 
040 098 122 -07 -124 -86 -52 -37 032 -100 -126 -118 -125 -125 -125 084 -122 -110 -15 -86 125 061 -23 -102 -113 -119 119 -106 -23 -118 119 -22 118 125 109 099 -117 064 -107 078 030 071 -86 -126 062 097 018 -123 -121 -17 086 094 121 -81 -116 -124 123 005 -87 078 -128 115 105 122 
-101 109 -114 098 109 090 -89 111 -107 119 118 125 123 117 087 -109 -123 064 108 015 -10 -86 -90 -60 -23 -122 093 -28 -115 085 124 122 043 123 -66 -117 097 075 -97 -117 -119 114 032 081 -103 -101 000 -90 -107 061 024 109 101 126 118 -118 121 -54 124 -108 -113 122 105 -118 
104 124 104 106 015 039 -37 116 028 119 -31 084 125 -126 -126 -79 023 012 -100 -93 -113 -19 006 -39 025 -119 -126 -87 -125 -114 103 -31 079 -113 125 119 062 -90 106 014 -127 -117 -71 108 106 027 054 104 122 -106 125 032 -53 -112 117 -78 107 -126 -54 -80 -127 -109 095 124 
-106 124 125 087 124 108 116 -118 -93 109 122 125 -26 021 -124 -101 -73 -91 010 107 -90 -19 -37 -41 037 -88 -121 -122 -32 -118 -124 -121 -122 -113 112 116 095 101 098 -119 089 -116 077 100 -23 034 081 124 -121 096 111 095 118 116 113 053 119 -110 -25 095 125 121 112 107 
028 124 067 051 -120 114 -118 -117 022 -126 -60 -48 052 -41 -123 001 061 071 078 -124 116 075 019 -118 081 -33 -125 -56 -96 -19 -38 093 -115 125 043 -73 113 -02 -105 -120 -81 114 107 054 049 119 105 -124 -113 -114 -126 -109 -43 -63 -114 -68 117 085 -107 -57 016 073 -98 -125 
-45 116 125 119 104 016 046 119 -90 -125 -121 -65 -112 110 -56 -14 -127 067 091 064 118 103 -55 119 108 106 106 -109 125 -78 123 123 022 -124 -115 118 076 -121 -126 -126 064 -127 110 084 -60 074 -55 -126 -70 -91 118 111 001 098 -104 101 -55 121 -122 -72 -127 125 112 056 
-02 124 052 -123 -103 053 -127 -11 053 091 108 023 088 122 -125 -118 123 -102 101 -21 016 -09 014 -75 064 117 037 -102 -102 -69 -43 -113 098 124 -52 109 097 092 012 -106 085 033 -106 109 068 -122 077 113 -127 109 101 061 -116 039 -101 125 -119 -121 -27 056 123 -116 -113 -78 
-74 099 -109 -125 -106 -113 124 -46 -99 117 -108 -88 125 -81 -112 083 006 104 -67 058 021 098 -86 019 -106 103 089 -62 121 037 -126 009 -108 011 118 050 -94 -89 -125 -73 085 106 074 -99 085 -125 017 -107 -98 108 125 -75 120 078 -80 125 -124 121 -115 108 -38 079 089 038 
-69 071 -106 072 -78 098 102 123 103 082 115 -124 -72 -15 -04 120 024 009 -101 -94 103 089 075 051 122 -100 -14 068 -117 -33 091 053 -120 124 -125 105 -63 124 -20 -63 -56 117 -109 -121 -101 123 -93 103 -94 -32 -112 -88 -124 114 -118 044 -09 -91 -119 -67 083 -05 122 -80 
-103 -86 -118 109 098 -113 121 -103 059 -107 -111 118 -102 116 -108 108 -117 032 -66 -16 117 078 092 -102 -108 069 -124 108 118 -100 -95 -107 110 116 123 -84 -117 -118 -125 -119 125 108 119 123 -88 115 048 008 -126 055 124 086 -97 114 118 028 -111 -118 -120 109 117 124 -76 -117 
-55 002 -123 -68 -125 079 117 035 095 100 125 110 122 063 -127 -82 126 -56 086 121 -113 -08 015 038 -87 069 -126 049 122 105 -117 -105 -121 109 107 024 087 120 -84 009 126 -10 -57 -32 -49 121 105 009 -123 081 -83 -07 -118 -126 -88 -125 125 124 076 -108 120 -124 -124 072 
-73 124 125 -92 098 109 -126 090 070 -67 -121 -08 125 110 123 -95 -78 091 -87 -122 125 -20 -22 -102 099 -58 -63 084 -38 -76 -84 111 -124 124 111 -51 091 105 -96 110 -45 -95 117 -116 -13 -108 -28 116 121 085 -118 -114 060 116 097 -104 -57 021 -113 -100 -126 -121 -61 -119 
-98 117 106 -97 -120 -105 -102 062 008 106 113 -122 106 -108 -89 -111 108 109 -97 -65 075 090 078 001 -112 -35 -54 018 111 -73 -127 123 -96 -119 -106 -124 114 -126 116 105 -81 113 062 125 -59 064 100 -117 -102 -80 105 -68 -93 089 -125 113 121 125 076 -39 096 122 124 123 
-04 -76 122 123 060 050 087 -126 -26 -82 125 103 -125 028 -128 -63 -120 -74 -81 -38 125 -07 -87 105 073 015 074 -114 -123 -04 125 -124 097 086 -126 -14 -105 104 -125 086 -128 104 -03 075 -107 -116 063 003 -122 -55 125 004 000 116 045 118 -126 125 -123 -73 -106 -116 122 -25 
079 -114 -125 048 -79 096 -89 110 036 -112 118 -124 -120 121 124 -115 -25 092 026 101 -127 025 105 -116 113 -46 125 -122 -125 073 125 112 125 -98 124 044 -114 122 110 -102 117 008 -106 -64 041 -124 092 -34 -67 -55 123 111 118 091 -127 -80 -19 120 -90 -96 -119 102 097 -110 
-58 112 -127 -112 122 -111 110 123 -18 124 -122 010 -120 123 116 -100 -126 039 -106 023 -126 -09 007 -106 -24 -27 -45 094 125 020 -73 -125 051 103 056 124 112 -126 -37 -126 045 064 -90 -113 078 -104 005 121 -120 -52 106 -10 -02 -31 038 124 -119 -123 -124 -88 106 125 094 -123 
-04 124 -111 118 081 -50 -120 -126 047 119 -75 -120 -126 115 -112 -106 -101 018 030 -99 -125 000 056 087 -123 -119 -127 -20 -124 -17 -123 -89 -107 -122 124 -117 -108 123 -124 -88 125 111 -08 008 -30 -96 -94 -84 -60 -109 -124 114 -124 117 124 094 -121 -119 -113 017 -122 106 -111 -109 
093 102 126 -112 -123 027 -124 -125 -22 125 117 -102 -93 -102 -118 -86 -103 -100 096 -107 -104 -74 043 104 125 114 -116 008 126 069 104 116 -40 121 -110 -22 073 120 -124 113 -113 -93 117 050 -98 -106 -115 -92 -126 051 -124 -111 121 091 -106 -105 -122 124 125 -64 094 125 124 -111 
-62 119 -127 -113 088 002 -126 103 089 -97 019 -127 126 -95 -82 -121 126 -46 -101 -122 -119 -95 -05 077 -64 -27 120 -95 -81 030 101 -124 123 041 098 121 080 -44 -106 -126 -124 -128 -74 120 -89 -124 055 -114 121 035 -123 111 -76 065 101 111 113 119 -36 -101 123 -58 109 -117 
-77 125 123 123 -126 -16 008 034 013 101 -60 -113 -103 -80 112 019 -122 056 -52 -120 125 -73 019 -59 -92 058 -102 -08 -105 -14 121 -120 -117 108 048 124 -117 -126 -104 074 -97 -123 104 -123 -64 007 -109 -100 -77 055 -106 -71 073 -108 110 -119 028 121 -97 -96 116 -104 -124 118 
103 -52 -127 -46 124 -98 -126 124 -99 124 125 119 -127 103 -103 -121 119 040 091 -114 -33 049 087 -09 122 088 085 -121 123 -48 -106 -03 -125 125 -98 110 033 -93 -28 103 121 125 -114 014 -78 124 047 061 -114 -45 -120 -95 -123 116 121 -89 070 -125 -122 -04 -103 -125 089 054 
024 109 -101 028 098 -122 -122 -07 064 -121 124 107 116 073 045 -68 -110 -86 022 119 124 -28 -62 051 110 089 -127 089 124 118 036 -117 122 123 -45 124 037 -87 120 121 121 -84 -112 -106 -62 -124 -07 -107 064 -53 -105 -110 -119 -125 -74 115 122 -127 -99 -72 -116 -111 096 -84 
-34 -118 105 105 -72 -119 -96 -126 -51 -109 124 097 023 -126 117 -109 118 029 -52 004 -124 -82 -92 098 -126 -112 124 -04 -119 117 -119 051 -79 092 120 118 -13 -41 -115 -126 114 124 -19 -50 089 -102 -113 -118 -28 -111 122 -113 119 113 -127 -126 -66 120 069 010 090 -127 124 -74 
-33 118 -120 -125 125 -84 110 -123 -99 -68 000 092 126 116 -112 -72 112 -99 099 -112 -105 -85 -66 -57 -122 043 -112 -61 -79 118 -111 090 -105 078 -121 -32 092 -24 -125 004 -108 121 -96 119 007 119 039 123 118 -18 -99 011 086 -124 -96 -77 118 -124 -91 -99 114 -126 082 123 
062 -91 -17 124 123 049 -95 -85 -54 -126 111 125 114 -112 090 -24 122 -92 -17 -101 125 -103 -56 -116 -112 -87 108 046 -76 -118 -111 059 125 -53 -112 -66 -42 -117 -110 026 125 -68 041 -115 108 -97 059 032 -68 -100 -124 -89 063 114 -75 122 -57 124 -126 078 -120 -43 -107 022 
020 120 -97 119 -126 111 -118 -62 -105 -14 -126 123 078 045 -127 -19 -104 089 001 -125 120 097 -84 -104 -26 -99 -126 050 125 -23 046 -120 003 114 032 017 -85 -113 113 115 028 -72 -119 -119 -17 118 067 -60 018 -73 -125 -72 -79 106 -57 -27 -64 -118 -34 -52 -94 120 001 -102 
-91 120 104 -120 -62 -122 024 -53 -105 -76 -72 125 124 124 116 102 -127 002 064 119 122 -47 102 071 113 027 120 015 -93 101 120 -122 120 119 010 122 055 -118 105 120 -43 -99 -05 -117 -50 054 -110 -32 123 -08 -46 -11 077 -70 065 -17 -72 -88 123 026 -113 123 -62 -118 
-31 -127 -125 -121 -34 -109 066 -23 081 -97 115 -102 102 -84 123 114 008 -96 057 118 115 077 -34 -92 123 -52 049 055 117 -47 059 -36 -119 -78 118 084 -101 -126 -101 -67 006 001 -112 -89 074 122 035 017 -127 042 -94 -103 -82 002 -111 123 125 001 -124 034 117 122 052 120 
-105 110 -126 -124 -83 111 -125 -118 -105 120 -125 122 -115 -05 126 -96 -103 -22 -15 -105 119 034 -10 -92 -93 -14 119 -104 -124 -08 126 -94 -118 047 126 -48 -97 123 115 -70 -127 -118 -45 113 066 -113 -74 -108 123 -18 -111 106 -71 109 118 -125 -124 -40 035 -35 096 -101 -82 003 
-95 -52 095 -123 053 -89 061 018 086 -115 -22 -60 109 098 125 -122 -128 107 104 112 115 -78 088 -103 118 -116 105 -107 112 -92 -103 -123 124 124 -41 121 -22 118 103 096 -95 -66 -63 008 036 124 061 -117 051 -95 -120 -111 014 -07 105 -124 043 -100 082 -19 -118 -115 116 119 
031 -126 -126 -126 122 119 -39 -72 013 -119 125 007 072 107 096 113 124 -70 005 -10 122 -90 071 -19 119 -88 -100 112 125 -52 -56 112 124 089 -127 -113 -09 -114 121 -61 -123 118 -31 -43 106 124 -105 -83 121 065 -92 096 048 -92 -117 -124 122 124 -127 -98 -121 071 103 115 
051 059 098 -12 104 -67 009 -122 060 100 049 -99 -127 122 -126 064 105 106 -81 116 027 093 015 -61 084 -118 075 004 -77 093 -127 093 -100 -124 036 046 -84 122 118 123 125 -120 -113 050 109 -124 100 -113 086 101 -126 083 085 114 124 105 -89 125 076 062 -121 111 049 -110 
-83 -106 125 -102 081 -112 079 -102 -100 117 -126 037 126 -114 124 023 -128 106 102 004 -117 094 -44 110 -105 114 -101 -88 -126 -107 -86 -106 124 098 093 113 -28 -124 082 -112 082 125 097 -88 076 -97 -86 -103 -119 112 -45 -93 -55 115 -17 -120 115 097 -127 042 -87 -119 -66 -122 
048 116 -80 -127 -95 121 -97 -67 -60 -101 042 122 -74 -104 -106 -117 -126 -26 109 -113 076 -84 108 098 012 -120 116 109 109 112 -126 122 -108 017 076 -121 063 -127 -123 -96 -54 -83 -76 027 016 101 035 055 -12 112 125 -86 -111 024 063 124 -109 121 -127 -60 099 091 -35 049 
-64 086 -114 117 -125 -117 081 -119 061 125 122 113 -128 -123 -112 -108 -123 045 026 -120 123 -32 039 113 -122 -122 -126 -112 124 083 -75 116 -89 072 115 -81 -113 122 -124 -76 095 124 012 060 096 082 -03 -69 -09 -77 -113 -117 -16 123 121 122 -125 089 -117 -96 105 123 -28 124 
083 122 -127 -98 125 -122 -122 011 053 -121 001 008 -102 124 -34 -117 -93 006 039 121 -66 -86 -110 -24 125 055 009 092 105 112 084 -51 -122 104 -122 -124 098 106 124 125 -125 056 102 015 088 -126 -56 -90 -126 -98 -118 -97 115 -127 -123 -29 019 057 118 -73 -121 -86 -56 -67 
027 120 036 114 -115 043 -125 123 -85 -89 101 039 121 -118 -106 -89 -113 077 056 -20 050 -33 090 049 -120 -96 -122 115 124 -89 -123 108 109 126 122 -125 -114 117 -124 092 107 108 -02 -124 -09 091 112 -122 -122 -105 -108 074 118 122 117 -112 -117 -124 125 -57 123 123 -111 -123 
066 071 -39 -27 -95 -91 -100 121 094 080 124 074 -112 124 100 118 116 093 -44 -48 -121 -48 053 118 122 089 124 110 114 078 -125 -107 121 -122 070 -124 005 -115 123 038 -114 -120 -50 124 -32 022 084 121 -20 074 -116 -56 -124 124 123 -111 -125 -115 085 105 -126 -105 -55 -69 
038 -64 125 -124 -122 -61 -124 -23 024 124 -40 123 049 123 031 -106 -112 062 -108 052 -119 -04 079 -73 120 -118 -126 -55 125 -40 -84 099 121 124 -125 120 052 -108 110 -119 125 -123 076 -118 088 120 -110 -17 -16 002 075 -95 100 -100 -57 005 071 -50 -119 -106 -89 036 -99 -125 
-53 030 111 051 -114 063 023 122 038 104 -118 124 -125 -44 -120 -116 -124 -80 -96 111 093 -77 008 073 -31 -99 102 -25 090 060 117 122 088 -120 -125 -122 039 -122 112 098 -125 -51 -81 096 -14 -118 109 113 055 107 -122 -116 082 -121 -100 125 -98 -119 125 102 000 -120 -77 -110 
003 006 087 121 -98 -117 117 122 018 -126 111 -84 126 -30 124 -53 106 -52 047 122 -114 -52 -43 -83 124 -119 -85 059 122 -108 092 059 -117 124 124 -115 -112 -95 -110 124 -128 -31 013 -84 -106 042 -82 -35 -61 066 -110 -84 023 -90 107 094 -124 042 -126 070 046 -120 -13 049 
-104 -71 125 -108 -113 097 -119 -96 012 049 121 -123 -128 -102 123 111 -126 -01 048 -120 117 077 -70 -115 -96 090 -98 071 126 118 104 115 -117 -121 -115 010 -30 -121 -107 -114 -113 126 105 115 091 117 -106 057 -126 -41 113 -111 083 -26 -124 091 -120 -10 -110 -96 110 -125 090 087 
024 112 115 -124 058 104 -99 -108 098 -50 089 118 -73 117 026 110 126 007 -75 122 080 -105 076 -96 -111 -122 123 107 126 -67 -123 114 122 -124 119 124 -74 010 123 -112 121 -121 113 -118 108 -104 -77 -122 -118 -27 055 -110 -111 125 126 -117 113 125 114 026 098 107 076 117 
066 -124 124 124 052 088 -127 107 086 108 107 124 -117 125 -07 067 -120 -75 -111 -109 -127 048 -112 012 -109 -92 -38 -12 -126 -75 123 067 110 -101 125 110 -44 -12 124 117 -111 122 -20 001 -39 -19 -95 -103 -121 -112 -125 110 -106 121 115 123 124 -123 084 -96 079 082 121 -118 
-28 -32 108 -118 072 114 020 104 098 106 -53 110 -14 -74 -77 -36 -128 058 -33 119 118 085 056 -120 110 090 057 076 116 -110 125 -115 -121 -32 -119 -112 -26 057 057 -122 126 -61 -114 -07 095 125 104 -112 -109 -08 -122 -24 116 097 -115 108 -94 090 -126 -94 -127 -16 110 065 
102 -69 -102 -51 -112 063 -119 052 -105 124 -85 -113 -77 046 -120 084 -120 054 -85 -115 -124 077 -66 -122 125 -24 -126 006 -123 -110 -50 -28 -126 -122 123 111 008 121 090 124 -112 123 034 040 -89 -121 -97 -126 102 085 117 098 -119 -105 -06 -109 111 -126 125 018 -104 110 -105 054 
099 -125 -127 124 120 -98 -93 089 003 124 124 109 -124 -100 -101 -118 080 053 089 -110 -09 050 056 034 -116 103 -116 -65 -85 -34 112 120 -123 125 -61 057 072 123 -46 -126 -36 -122 108 -112 098 -35 -116 107 108 -83 -126 -07 -100 118 119 120 -107 121 120 088 082 115 -118 -96 
008 053 124 -104 125 084 123 -114 088 -52 124 108 -122 125 124 -68 -114 -84 022 -114 101 -57 096 -116 -81 -33 110 -119 -54 -65 -110 -83 117 -121 -121 -43 -86 105 119 -124 -125 -79 116 125 -38 -105 009 -98 -92 -109 121 -118 -71 -122 -122 123 -82 -125 -127 099 -109 124 -114 125 
055 -105 -70 -41 -113 -82 -126 -05 011 110 125 -125 -125 -114 -123 074 084 100 -86 099 097 071 -25 012 -123 051 -101 -37 018 064 114 -87 -121 125 -112 105 087 124 123 -103 099 -120 098 117 061 096 014 -24 -106 -113 -114 -109 -122 -105 106 -126 098 104 -127 060 035 123 014 114 
019 -105 -87 061 -109 -74 045 -97 -77 121 105 125 126 -81 -126 -103 125 009 -103 114 -99 072 -41 106 -92 -81 119 -25 124 002 091 -56 110 088 117 -112 -103 -114 103 096 -127 126 -96 105 022 -121 099 -48 120 -05 -121 -88 -117 118 -88 -123 -116 -112 119 -108 -99 015 -70 084 
-94 -71 124 091 036 098 112 110 -90 -105 112 -85 -64 -120 102 121 -96 -15 -75 -87 125 -50 -101 -46 -75 098 -95 041 010 115 119 -114 -115 114 -113 115 -32 -28 106 -84 -58 -96 108 118 -72 -99 -78 124 123 -75 017 067 041 036 120 090 -87 104 -116 080 103 124 045 -103 
-14 010 065 -33 014 033 120 108 089 063 093 055 125 -110 -111 002 -07 087 036 -28 124 -61 -75 117 -102 -118 -125 118 090 -36 113 -109 -126 -119 113 094 092 044 -122 -105 125 100 065 -126 089 -111 -13 115 -120 072 -126 -114 -12 -109 -112 097 113 -32 122 016 -93 -107 068 107 
085 -126 117 -100 -119 105 -83 046 029 077 109 034 109 -53 -111 115 -47 097 -32 032 -05 -104 -55 118 -88 000 060 -122 098 -22 124 -117 067 113 116 046 -61 125 -115 -80 -42 124 093 045 070 -94 112 047 -126 -105 -126 053 118 -117 124 072 -26 -60 053 -88 -44 -33 -75 -125 
-42 060 -124 -80 125 039 -79 111 -88 -118 -106 116 -69 -126 116 -112 070 -108 -79 053 -07 084 -20 -55 116 088 -115 -101 -127 -118 121 -10 -126 -81 -124 123 054 -96 124 094 -112 125 091 -29 -101 113 005 122 059 -104 -105 -112 -58 -92 -22 -74 -126 -80 061 -110 -46 125 -123 119 
-104 -97 -48 016 106 -119 091 027 -78 067 -98 -68 120 118 -83 056 123 -112 095 -114 012 -37 095 -56 122 117 115 096 -126 049 123 075 117 -124 -117 -125 -112 -09 079 115 044 -38 -62 073 094 -71 044 123 124 -56 025 -101 -93 005 100 105 113 -123 113 008 086 -10 064 -102 
096 -127 121 119 -65 -88 -123 012 042 -09 -124 116 115 103 123 -111 -47 008 -58 -119 -127 083 -15 -49 -114 -86 007 -24 -121 114 104 119 104 084 -88 105 -27 120 -99 -42 -126 035 116 049 -104 084 -108 -15 -108 -61 117 105 069 -122 123 -69 -42 -126 -32 -40 062 106 -59 -74 
040 -46 115 075 003 -68 026 124 -04 -80 -97 123 121 123 -55 020 041 006 -60 -62 124 -104 105 -72 -85 062 001 053 103 -96 068 071 -122 -97 099 122 -102 -64 113 120 -124 -83 020 -40 097 -44 083 124 124 110 084 109 -108 120 -123 107 075 112 120 -111 -126 -117 052 086 
030 -110 -127 -117 -94 086 057 -124 102 007 124 -122 106 122 075 076 126 -08 -103 042 118 046 083 -112 021 -80 124 -83 -56 085 -57 103 118 029 -98 -43 105 115 -07 099 -121 -01 031 090 -33 -115 -66 -04 049 100 052 -90 118 123 123 -104 124 121 -126 106 125 125 122 123 
-51 068 -126 102 -121 -19 110 110 -104 075 -124 -126 -127 -26 114 -121 096 -62 -08 123 097 -60 -69 112 -90 -86 120 066 -117 -57 043 019 125 -12 -118 -79 078 -127 012 -23 -126 117 -87 123 -23 125 -86 120 114 065 072 -63 008 -82 120 -74 123 -126 -126 091 -07 -96 -120 120 
064 013 001 040 -126 103 113 -125 028 -123 091 -39 101 102 -115 -48 -126 -60 096 074 026 -104 -104 082 041 -97 046 119 062 -16 -109 -120 -39 -106 -125 117 -75 123 100 -74 126 125 118 112 099 116 022 027 117 015 -116 -64 -10 124 -91 -35 112 097 041 096 126 -73 117 -78 
-28 121 116 049 113 110 121 -125 071 121 -115 -18 -31 075 050 115 -128 -108 049 023 082 -100 058 116 -59 -112 -80 115 125 098 -126 -116 -124 125 103 081 -06 -101 080 117 114 100 064 -125 104 -119 043 088 -117 -99 -127 -70 121 -74 -99 -126 108 -65 124 098 -111 -03 086 038 
103 -17 106 123 -68 015 090 111 -60 121 123 -125 -127 -99 089 117 -126 -46 -112 108 100 -101 -35 -115 -38 093 124 -111 -03 -121 082 -97 -94 -104 117 121 -113 122 094 -108 125 -117 -101 -28 -107 -113 092 -120 064 -05 122 020 -120 104 -125 124 106 095 108 -70 115 -117 112 088 
014 034 116 -86 113 -116 120 -54 012 061 119 028 -126 122 -123 -96 069 056 044 123 120 -24 -34 -64 -127 -119 026 -109 -69 -85 -124 -115 063 -127 -123 -114 -53 -122 -126 -127 -128 025 -62 086 -103 -71 -111 045 -118 -42 054 -110 -90 055 -123 112 115 -63 -99 013 080 -126 083 -54 
-66 107 055 103 126 -122 116 093 -30 123 -120 -67 125 056 -75 -103 -108 -41 -109 018 -97 078 -24 099 123 -109 073 -114 125 -55 -126 -117 029 122 069 -94 075 091 116 -104 120 085 -93 -125 -105 124 -116 117 119 -111 124 -116 015 122 -120 090 121 -106 -124 078 044 -125 -76 -52 
-103 -112 -78 122 119 -75 -96 104 -12 -71 125 063 -128 125 026 099 -128 -102 -102 066 -120 -13 104 -21 -122 067 -54 093 -103 -115 046 041 125 124 123 118 -45 122 -120 105 -74 -127 093 118 -95 -121 -108 089 -45 -08 -126 -10 -90 -100 -104 -127 035 116 020 -102 017 -92 -125 120 
-92 -100 -121 107 016 121 092 120 084 -108 -106 -116 120 -120 -114 -117 095 050 011 116 119 -31 063 -93 -29 -83 125 -100 -124 -95 116 074 -116 -126 -71 -121 -119 121 -86 -111 -124 -115 -103 -122 106 -82 -115 -74 -93 001 112 109 -122 -127 -89 -108 033 120 119 006 -113 113 123 059 
-92 118 -48 117 -123 -64 125 -02 -106 116 124 -106 124 -105 097 021 -78 -13 -98 097 121 -70 -103 075 124 -72 108 -96 -111 -50 -103 094 026 115 125 122 076 125 -119 118 -30 -123 -80 124 080 117 -115 098 041 109 107 -114 -98 -97 -105 -47 114 -59 -101 -49 120 125 051 120 
-78 -73 099 -120 106 067 122 122 -27 -116 030 -127 126 -97 -125 -91 065 -14 -28 -118 -123 -85 107 -113 125 -38 -79 -43 117 116 -11 117 -113 -118 -05 -121 104 053 -85 070 -99 -112 084 -113 012 070 -37 -117 -127 -112 078 109 -98 -106 -114 123 015 022 -53 030 125 050 -69 -52 
-12 -109 -109 -123 122 -120 -107 124 -40 069 035 -18 -123 095 123 095 -107 057 -11 123 110 -67 038 094 066 098 -125 -95 -118 -24 -13 -115 069 125 -121 -84 109 -126 -114 -114 121 -21 -84 -108 061 123 -111 116 -84 -73 090 -80 121 125 -09 -18 123 -104 -103 107 -85 -113 -111 113 
-107 022 -126 115 -122 -111 116 -89 069 125 -60 -82 -50 125 125 098 126 -82 -81 107 -104 -54 -48 057 -126 110 -108 -63 -92 023 -10 -59 -115 -01 -112 107 -105 097 013 -109 -127 -113 -62 095 015 -125 108 -74 125 091 123 -105 -18 125 126 -91 -125 -118 -100 091 083 034 119 -115 
-32 -117 019 123 114 111 -25 121 022 -54 104 -127 -33 061 -117 -119 117 096 032 -82 121 096 027 098 084 -99 -119 -75 -69 084 124 -33 -65 075 122 -110 -109 031 -126 -106 -128 079 114 -115 084 -93 104 -14 117 100 -10 -115 -113 119 054 113 -111 121 -126 086 125 -126 -125 114 
-09 -86 099 -121 108 094 106 121 -82 -104 -103 -107 118 -108 116 100 -125 -97 007 118 063 -13 020 -118 066 -101 121 -03 068 115 126 102 -125 092 114 098 063 -71 -76 -11 -127 096 -114 -94 -33 094 -83 070 026 058 122 094 -104 067 123 -83 096 -98 076 -13 -103 -112 -124 -20 
092 -106 -99 -127 -117 -97 021 -110 -104 110 -102 -77 -78 124 125 101 098 105 054 124 123 -64 -90 -110 -92 114 092 -89 050 114 118 048 -65 -100 -116 -104 -108 107 -71 105 038 059 -114 112 044 027 -96 -94 027 047 123 -03 111 083 125 -111 -52 -124 125 072 084 107 113 -109 
-66 -98 109 125 125 090 102 -124 090 -113 -125 042 126 051 -102 -32 -107 -54 104 120 124 -26 053 084 037 -106 -96 110 -111 -108 -124 017 -04 -123 -69 071 061 118 113 051 120 -107 -107 059 085 100 096 -83 -114 -82 043 -30 -98 071 124 060 042 -66 110 -105 -124 124 -120 112 
101 -103 101 -52 113 118 -116 -19 -69 120 124 -74 -126 118 -128 100 -113 -107 -71 122 115 012 043 115 124 -118 -38 048 -126 092 -118 -120 125 -67 020 119 -104 045 -113 123 113 -127 113 118 -103 121 -19 -119 056 -82 -100 029 -122 -123 -121 064 -116 122 -126 -21 001 013 -117 -85 
064 -116 111 -58 -124 010 120 082 -16 -32 125 -115 -117 049 -125 -24 -126 094 044 -124 -92 -31 -82 113 123 065 091 079 -03 118 -126 -08 081 -44 -14 -102 -119 013 125 -126 -88 -126 -91 108 012 -125 107 -107 -06 108 -116 -40 009 027 -104 087 124 097 125 083 112 -123 -115 -123 
061 -81 -127 -62 -93 119 -99 120 020 -123 113 110 125 071 -101 036 -21 059 -72 051 007 -94 071 -109 122 -84 063 -85 -117 -101 -121 120 116 -127 -76 -92 114 104 -78 -04 086 -92 113 084 -37 -121 -43 -124 -106 -90 124 115 -70 124 126 092 114 -90 -123 067 124 119 105 112 
-75 -104 -80 121 076 094 -84 -120 -17 118 -118 125 -102 116 124 -93 -116 039 104 122 126 081 -97 011 093 075 097 -91 -21 103 087 101 108 -82 -99 -120 -118 119 104 126 057 068 -98 -52 071 076 107 -119 -121 -78 -125 060 028 -119 -36 -101 -125 -122 -117 -45 125 -116 119 116 
-14 109 124 -118 -127 063 123 108 052 112 124 -91 -122 039 110 087 -127 -88 -72 110 118 053 -83 -49 -76 024 082 120 023 116 119 090 110 -82 120 118 -111 -110 109 -86 -86 119 024 -117 095 081 109 078 062 110 -110 097 090 090 123 088 119 -104 120 -16 -123 -85 -97 113 
103 097 084 102 086 -88 099 -123 091 104 -117 105 -119 095 035 118 061 066 -104 -102 119 -10 -81 113 -127 068 -18 -118 098 -89 056 114 -36 102 112 -55 069 062 -37 111 112 -111 -110 114 067 036 058 073 123 -92 120 -85 095 106 -126 -31 -68 -125 113 -63 -123 -03 116 110 
056 -09 125 -120 115 -111 097 -121 002 087 124 089 103 084 -127 117 -125 097 086 037 -126 -71 091 112 -122 003 -104 -19 -81 -122 -69 120 -12 125 119 123 116 -116 122 -119 -123 098 -107 -51 -87 -126 070 121 114 -12 119 -86 -76 114 125 046 -126 095 125 -09 004 078 124 019 
071 -125 -96 123 -105 082 -67 004 082 124 096 -107 -120 -97 -73 -38 126 082 105 -38 115 -87 -108 105 104 -111 -112 -108 -126 -110 114 -121 069 083 -90 085 -87 125 -71 123 -22 -107 -86 051 -83 089 085 -120 -59 -21 099 -101 -120 -103 106 -125 -105 -54 124 -55 105 -120 -106 -19 
065 007 123 103 109 118 -126 114 -80 -55 -98 -126 061 093 -125 -72 088 -46 -33 -05 125 -93 -100 -102 -113 -94 -122 -97 107 -119 -124 112 118 125 -124 122 -91 -126 -78 072 -126 -125 115 117 036 -24 -07 049 123 -109 -126 069 075 -128 034 -113 -115 086 124 104 -126 122 112 -01 
-78 -117 -89 015 124 002 109 -117 -53 084 -97 -88 125 -41 -71 -11 117 -111 109 075 -39 -65 -45 117 -95 115 096 -33 -126 103 123 088 110 -41 -124 -107 104 -13 -95 -84 126 125 -111 -125 -84 124 -67 121 108 101 119 091 065 107 -125 123 -66 -123 -120 080 123 124 075 003 
079 -125 125 -126 -96 069 097 -113 040 -68 101 -110 111 -121 -125 -96 041 -109 -93 -119 090 -10 095 113 092 104 102 109 -79 -72 058 064 123 104 -125 114 -22 124 065 -118 -120 113 -08 099 074 -127 108 094 106 -34 123 -83 102 -122 -126 088 -100 -101 -123 -24 017 -77 -44 -45 
-82 -62 -62 -109 -125 -122 024 060 094 -126 -110 -123 038 003 -128 039 116 067 094 -125 -97 -07 -110 -76 -127 027 119 108 123 009 -126 089 121 -122 -79 -17 -69 093 -107 115 -104 -125 -45 -65 -109 -90 102 -81 -20 -28 055 -117 -93 -127 -128 -112 012 097 121 -87 -82 -127 -124 -24 
-30 108 -78 106 124 013 -124 072 -78 124 082 074 -122 111 092 012 114 -15 -87 -62 -64 -66 105 -121 -99 057 -41 -119 121 117 121 120 -112 -124 104 123 -46 121 -74 -87 -127 075 -22 123 -107 -127 -115 -82 -125 059 080 048 120 073 125 125 021 068 072 071 075 -73 120 097 
-89 065 -78 088 124 107 -40 125 -89 -123 -93 124 107 074 -62 -47 125 -90 084 102 -118 101 -60 -98 -89 087 -116 -122 -121 -101 -66 -102 073 -117 123 -93 091 -58 -103 111 121 -126 -115 099 075 -126 099 093 -122 -80 120 -35 -71 -125 069 -29 -20 -31 110 065 -91 -107 -109 -107 
-93 -81 007 124 -50 114 -111 -100 037 045 125 -118 -100 -126 -127 -97 -88 -106 -113 123 -121 104 -75 -112 123 -88 099 -122 054 -112 -115 066 -83 -119 -89 110 074 -121 -121 117 -104 123 106 124 -72 101 -112 -123 -109 108 -127 -34 102 -108 -127 -124 123 121 -127 -99 -128 -06 117 -111 
-63 -116 038 -126 -107 121 047 110 009 -31 090 086 123 075 031 116 -107 043 099 105 123 011 059 114 071 016 109 -36 -107 -109 120 047 -113 -51 -70 062 065 014 -126 120 -101 124 042 -124 -09 033 -01 -118 104 074 117 -109 117 125 -124 073 -74 -126 118 -69 -126 -126 045 -89 
048 001 118 -14 111 -114 -93 -39 -93 122 -118 008 125 -126 126 -38 098 043 -109 -99 -128 082 090 -113 025 074 -78 -35 119 036 099 -103 -29 -32 124 -62 070 -126 -105 -126 001 -124 117 017 027 -48 069 115 -109 079 124 -79 121 -111 098 029 -99 120 -21 -81 034 093 -25 114 
-92 -105 -98 -99 -116 -121 112 124 -94 036 -109 -121 125 040 -126 061 106 041 039 -99 122 -82 -02 -118 107 -117 -01 109 121 -74 -127 -07 -88 125 118 123 099 -113 056 -108 091 -93 -105 -84 -96 -40 061 117 102 060 123 -100 -71 003 124 057 114 122 125 007 124 097 -95 -121 
070 -91 099 -127 097 118 -90 041 093 -124 -117 -125 -122 102 084 -98 -105 064 101 116 -36 090 -86 -117 091 -18 114 -71 -85 -115 -115 -118 013 118 -126 015 077 -113 -119 104 121 123 -04 -68 -37 119 -82 119 -95 002 -122 -53 -115 -116 123 098 034 -124 -126 070 118 123 072 -109 
-06 058 -37 -101 -112 -61 077 122 048 -66 107 -103 125 117 124 039 -44 -86 -94 018 -127 099 -56 082 020 111 -53 011 064 109 -125 -118 116 -127 122 123 107 099 102 123 -61 -127 -89 -83 -106 116 -105 095 043 -94 -116 083 120 121 084 -94 097 086 112 -107 -122 117 017 -120 
047 122 119 125 -123 067 -126 -94 -27 124 -118 -119 119 121 106 -05 122 093 -08 054 -126 088 -94 -116 109 -117 117 -121 092 -62 125 093 081 -123 -110 115 064 124 -117 014 -127 042 117 -124 030 110 086 100 -24 -101 103 -107 017 042 117 074 123 106 -20 085 -126 -127 063 095 
101 -93 -83 -54 106 -103 -102 118 067 -101 -98 -111 117 -115 126 -85 -124 027 078 109 -122 -95 098 -50 115 -88 -115 -110 123 -118 -102 -88 123 123 121 085 -32 123 -119 -122 078 -123 114 064 042 123 -87 -123 -97 -36 121 -85 -114 -90 -113 -20 -123 020 -118 089 -106 117 074 091 
004 124 -98 110 126 120 125 123 -91 063 111 094 -127 -117 -23 119 -106 096 -101 054 122 -85 -75 108 096 -113 097 117 125 -64 -91 072 122 088 072 -92 -109 -94 -104 082 -70 106 109 116 -90 123 -62 120 -104 096 -30 -105 116 124 -83 -113 -97 -67 -103 047 -125 -97 089 -18 
-27 -51 120 -77 123 -94 119 -78 084 -79 056 -119 123 081 -122 072 109 -17 -73 064 -119 -73 -92 091 -122 -71 -62 -112 -108 -99 124 -119 -84 -76 -99 -124 -94 -108 111 125 -116 119 -58 -92 -111 097 -12 -123 122 000 -127 097 011 -111 123 125 -114 -54 -126 -25 -120 -104 116 -122 
019 013 123 024 -98 -104 -58 116 074 -53 060 120 -123 096 121 -81 021 102 109 084 -114 012 -33 088 112 -117 -126 040 -36 -17 -108 -27 044 -50 080 098 041 -122 023 -16 -119 -123 -54 124 -79 055 068 118 017 045 -127 017 -109 125 -126 025 123 -126 -93 -11 -01 -127 123 118 
097 -107 -120 -14 068 096 037 -116 -15 -117 060 -125 120 114 125 -85 -119 -107 -30 124 -113 007 102 -112 123 100 101 051 -127 111 -108 -10 122 -124 -123 108 -115 120 124 -121 -127 023 -102 114 -110 054 -64 -09 014 -107 122 100 -86 052 125 040 119 -100 -69 -53 -119 -109 122 122 
006 122 -123 123 -116 -10 -80 -103 097 013 013 124 078 -125 091 115 -127 -90 -27 120 111 099 081 104 121 -116 -29 -70 100 111 122 077 125 -119 052 -120 036 -126 119 125 096 125 084 -125 042 124 006 123 -126 020 100 -48 -113 -127 121 124 102 032 -75 -52 074 124 117 -120 
047 -102 -127 -126 112 075 -127 -125 102 -124 089 -43 -124 -06 -47 -109 012 -108 -88 -80 044 047 087 075 119 -42 -64 058 -120 -35 -116 094 125 -99 -104 -123 -116 123 123 124 -128 088 -74 098 048 079 010 -123 112 -81 -120 -105 075 -106 -03 103 -122 -123 -39 -107 -73 -75 114 047 
-85 -113 -116 066 120 066 105 -91 052 097 110 -111 124 -113 -100 -83 -85 055 093 122 095 049 -105 064 -39 -49 -116 094 088 082 -103 -46 057 102 -87 -73 -115 045 120 -96 -113 -51 002 -114 108 106 -102 113 123 -103 117 -114 -71 123 -96 114 096 -126 -120 093 -114 121 124 -10 
-49 -90 120 -127 -115 -107 124 090 -70 125 -123 -124 084 109 -128 -12 -102 -108 -82 -112 076 032 060 118 124 093 -124 -70 -113 004 -126 -27 -77 124 106 -124 -105 112 -81 002 086 011 082 124 000 -115 095 076 -120 020 109 -36 074 -127 -127 -103 008 -15 049 -109 -121 089 014 -110 
087 -124 -97 -104 -41 098 115 124 -23 -106 -124 -80 -68 123 123 -20 -125 -109 059 105 -112 091 016 -21 123 -117 106 -29 -94 -31 115 -79 113 117 -71 -21 105 -120 125 103 -106 -119 107 096 -102 113 062 123 099 -88 -122 -84 112 100 -103 124 -55 -108 124 092 113 -125 086 042 
-70 -53 125 068 092 102 119 -30 -08 -96 -118 -126 108 124 -107 -117 -126 -109 005 080 -98 -73 -83 -112 100 110 123 -115 110 -118 076 121 -124 060 124 -42 105 107 119 -123 121 -125 007 121 108 -123 -46 103 -96 -51 114 -18 -55 048 066 044 125 -127 -124 020 103 -116 118 -126 
-01 -62 022 -123 126 -73 123 -124 097 -82 -55 -80 122 -123 -124 025 -128 -94 -100 057 -48 050 072 040 117 111 109 102 114 -118 -108 123 -126 108 108 -110 -115 -115 -126 -87 -72 106 -09 -121 -84 070 -06 -124 124 041 -124 -106 -122 023 126 124 113 -126 -115 105 -124 119 085 -65 
-71 118 080 016 039 -95 -127 092 -91 083 -98 094 126 103 -108 118 -86 003 -102 -116 125 -46 -111 -15 125 -94 124 -68 126 106 -124 094 -119 123 078 -116 -98 096 -120 098 -128 -122 094 -123 096 -37 019 -112 -41 -68 -120 -41 -27 -104 -41 -114 -119 -103 125 -105 -125 -68 -125 021 
-38 -120 -125 -100 126 116 -07 -125 -95 -110 086 111 -120 -104 -121 -117 -72 032 102 -120 -125 -68 -59 105 026 096 -122 -61 -08 086 075 -75 -33 -126 084 -58 -34 125 -121 118 058 096 -89 -66 -59 112 012 037 023 -37 -108 -80 108 -122 076 -122 122 125 -80 036 125 -112 108 044 
-105 120 123 -124 -125 -78 078 -117 090 119 047 -105 079 104 -125 -123 063 -77 040 080 120 000 104 -109 -113 -92 125 -25 -125 -118 -126 112 113 115 -83 100 019 087 067 120 126 -105 -81 122 -93 113 102 -05 -83 -105 -77 -97 -115 -79 060 -105 124 -111 -104 101 -126 -22 117 081 
-07 -121 083 -122 -123 114 -28 098 -04 125 037 -94 -125 -124 116 -99 109 -107 111 117 -124 093 095 -100 124 002 032 -61 110 -82 113 -95 -99 114 -50 122 072 116 111 122 -128 091 -117 -125 -09 -84 000 -105 124 030 024 050 -02 126 072 005 115 044 -87 -95 -125 -51 124 -122 
018 -04 -88 086 105 -85 095 -62 102 123 109 125 068 -124 036 -119 122 -55 042 089 -127 -07 044 -114 -113 -72 -122 -07 -71 102 -127 -87 125 -34 045 124 -98 113 087 123 012 -127 097 -117 003 062 -63 070 -74 -40 -99 -94 003 104 -127 -112 105 011 103 105 -127 -124 -05 102 
-21 071 125 091 114 029 -05 -122 -70 100 -54 125 076 114 -115 120 -119 079 -94 -115 -87 -60 027 -109 -49 099 -112 112 -127 060 -68 -123 125 016 -33 043 116 -120 122 101 -123 116 -06 -125 104 125 110 051 -123 102 022 100 -109 117 -124 122 113 125 -118 -45 -126 125 084 -106 
-62 121 -127 -67 -97 042 -122 -59 102 -63 -49 -123 125 -116 -92 -121 126 -66 025 006 -123 -25 -71 085 -124 088 -112 -100 -88 -61 -39 -125 121 -124 121 -124 -113 048 -124 112 113 124 026 -15 -104 113 083 121 116 066 123 116 -52 -67 -127 102 -14 123 125 088 034 -127 -19 -117 
-38 -122 -114 108 094 092 115 -60 -62 -125 121 -117 -84 113 -100 111 091 088 007 102 125 046 099 -117 091 098 114 -62 125 102 -92 123 120 -78 125 -74 -90 -126 096 053 126 -107 -80 071 027 -78 043 118 124 -109 -127 090 120 087 124 -108 -47 -124 -127 -20 083 -16 072 -29 
015 -126 120 092 -101 079 -96 -121 012 -110 121 092 108 -126 -126 -118 119 108 102 -125 -127 -81 096 -99 -120 089 -18 -121 -43 030 -127 112 023 -126 -86 108 083 -62 105 092 126 126 -112 -102 038 -76 007 -98 113 -63 088 074 -56 117 -123 -125 -112 -97 -83 001 126 077 124 -115 
087 119 123 -89 -127 -123 -98 057 -28 -119 -97 -122 120 -121 091 092 104 028 -95 -44 125 039 107 -120 081 -08 056 079 081 024 119 096 -25 125 114 -126 -99 -110 -116 056 108 -114 -15 -41 -02 117 042 -110 -110 058 -63 028 -16 122 -125 123 -112 008 061 -58 111 122 047 119 
034 013 -84 123 122 007 -89 005 -98 121 -37 -123 112 -106 -41 110 -126 -78 040 092 -19 -96 -44 -105 060 105 104 111 117 -115 -83 105 117 119 -111 -29 069 -55 105 121 -128 -116 -86 108 109 035 036 -111 -71 -13 114 104 092 118 126 039 -124 -60 -127 109 125 -127 -124 -122 
-64 -125 123 -118 -111 -88 -113 046 036 -124 094 -118 114 101 126 106 -128 -10 096 085 -43 088 -16 -101 -118 -65 -123 -20 111 -101 125 007 068 -116 090 110 -50 124 124 124 124 -94 035 121 051 -39 105 -14 029 006 079 113 028 121 001 -124 094 066 111 -16 109 -114 124 063 
026 -38 125 036 -55 -115 -32 -67 084 -125 -122 101 -04 -125 -128 -35 097 -75 -63 026 085 -70 050 116 016 -75 107 093 -41 -114 092 -121 -122 124 -127 071 081 -84 083 071 -111 -128 -57 -116 040 -127 -92 036 027 101 -127 071 120 -75 -39 -55 -124 -106 -44 010 033 122 -79 -123 
-64 090 -119 -120 116 -31 014 117 067 117 081 094 -60 003 096 -115 -128 -88 -102 097 069 -81 107 -52 056 -110 097 -121 085 119 -63 -76 122 116 -49 030 -52 -126 -111 121 124 101 110 104 -05 086 113 092 034 -58 090 -17 119 125 084 117 030 053 -127 101 -09 126 -122 073 
-29 -125 -28 -70 113 065 -118 035 090 -125 -111 -124 126 056 095 107 -127 010 -20 101 124 -29 -03 019 125 118 -117 108 -113 -104 -123 104 -03 125 029 -112 054 083 118 -121 -40 011 080 -125 -69 123 -72 -110 080 058 -92 -111 106 -118 012 -90 009 -119 -68 059 059 -82 113 -106 
-87 116 -124 -55 125 106 -80 -118 020 124 -117 -120 -125 124 -128 120 122 -90 070 069 -87 099 -69 043 123 -57 -107 -73 -110 -121 019 -112 037 -125 086 067 069 -118 -76 -126 -126 -30 077 113 -16 026 001 121 042 093 -54 -116 -110 -58 -116 -126 056 110 -38 -95 -80 -06 -47 -115 
-83 105 -85 123 -127 087 -64 123 -05 080 -120 116 124 103 121 -117 -117 -101 -31 070 085 024 017 -01 -124 102 -21 091 -85 -102 -104 020 121 -102 -125 123 -111 121 124 -106 -124 -108 100 125 085 -13 -23 124 017 -30 117 100 -90 119 126 116 056 -126 122 108 -102 -90 069 097 
048 -99 120 -123 -115 -120 -81 -119 -21 116 -101 -108 123 003 -127 119 124 081 104 -125 -14 -100 013 -115 124 -85 -84 -110 022 002 -127 102 124 -125 124 041 -67 039 -41 094 -124 -118 -19 119 -65 045 061 -41 123 -69 -95 -57 -123 -124 -118 -110 -103 093 -127 -91 122 -94 118 -125 
004 -98 -64 103 115 -119 124 123 -104 -94 125 060 -73 121 -125 043 -107 -57 -109 100 110 -54 -74 111 -32 113 -125 -108 125 -89 102 075 -106 -127 -100 119 092 094 125 126 -126 125 056 -122 -54 -125 104 -01 -89 -77 -125 -92 085 -122 -82 125 -86 -121 117 060 110 -92 -123 123 
091 -115 099 115 067 -84 105 -75 048 -103 036 -123 -127 -117 -55 081 126 -27 -111 057 -51 085 -19 -45 125 -65 -120 -119 012 034 -76 -35 -103 065 -76 017 112 -29 -42 -103 094 123 035 118 102 123 -76 080 -88 -44 -127 105 108 -24 100 079 -120 105 -102 -36 029 033 -121 -112 
072 -48 118 059 087 101 002 -111 -60 -51 -42 124 -81 -23 -127 -99 -125 083 064 -75 101 -87 -107 -75 -104 -72 -114 109 -121 118 -113 -37 091 087 018 081 035 -122 -125 -126 119 -87 028 115 -40 117 107 -58 -125 097 -15 079 056 125 125 110 -115 -118 066 104 -48 -88 -117 -75 
-86 106 -90 -126 082 017 111 -87 -05 -85 -75 124 061 125 -107 -08 124 -10 -90 042 -125 088 027 -93 099 113 119 -103 020 -120 125 -119 083 117 -96 -119 -61 -123 096 -54 -128 -123 -85 -94 096 064 -98 076 036 080 108 041 -28 -66 126 -76 -113 -115 -109 068 126 061 -51 075 
-08 -102 034 085 -127 -38 111 107 081 -126 -113 -104 -124 014 125 088 -81 -57 017 033 -87 -63 046 109 052 -110 -122 -104 116 070 114 122 100 -25 -73 -125 095 -109 120 -126 -102 -50 118 087 047 121 -52 066 123 -54 -114 -90 -79 -107 -20 104 112 -77 048 076 122 -124 120 -110 
019 095 120 -125 -98 083 117 119 042 -115 -127 -120 119 113 092 121 107 -88 049 100 028 002 -04 -16 117 -07 086 -52 -107 -115 -75 -114 -105 -111 -119 025 -101 -121 100 -106 083 -122 -66 104 062 111 -94 -120 -111 013 109 040 100 104 -122 -121 -58 122 -90 -111 -120 087 -27 099 
-68 118 120 -113 124 -100 -120 -105 034 -72 -88 -126 120 125 -122 117 -128 081 103 095 -114 -63 057 087 -126 101 -104 102 -113 113 -106 -120 013 125 125 -75 -103 120 -89 110 056 -124 064 118 076 122 108 093 113 072 124 -116 -98 124 102 120 123 123 110 -46 -127 126 -125 -19 
084 079 -127 -105 022 -120 -125 048 -04 -115 124 -67 -51 -123 117 057 -128 032 067 -107 -122 061 -102 -93 125 -110 -116 -112 066 112 116 092 -111 -121 007 -124 -116 110 -101 -105 114 -125 -13 102 -47 006 -116 121 -119 085 -123 -105 -76 125 123 -113 -08 111 113 -109 -114 -121 107 042 
010 -24 -108 -116 -127 054 118 092 -101 -117 -114 -119 025 125 116 110 126 -109 012 -90 -125 055 103 -122 -17 069 -122 066 -126 116 -127 121 109 119 -101 -117 033 -79 108 091 015 -122 -92 -99 -106 -124 -78 -124 -68 -100 125 -113 -122 -81 -85 071 -109 109 125 097 105 034 116 -111 
-66 -126 120 042 124 -113 -43 078 077 123 -14 023 122 -67 -128 -56 124 -12 110 -23 -127 035 -10 111 125 109 124 -30 -70 -105 122 112 -126 109 -100 122 -69 -120 087 -121 063 -122 087 -125 044 -89 -67 119 -24 -26 -76 -31 093 124 124 -122 118 108 100 045 114 019 002 -115 
100 125 126 125 -126 066 -115 -107 102 -110 -86 122 -126 046 122 061 113 002 035 104 -71 -97 048 074 -118 091 -125 117 -92 118 -124 117 123 117 -42 -109 -71 -114 -106 087 -118 -123 -110 -118 -22 124 -95 101 -92 -91 -123 -117 035 125 -124 102 122 -106 085 -66 -112 117 -122 -71 
-85 116 -121 103 103 -119 080 025 -100 -121 104 -46 -127 -124 -126 -100 -119 104 -92 106 108 -57 083 109 -101 115 092 -118 115 -119 093 108 115 -120 -43 -124 052 118 119 121 -124 126 117 -86 056 114 -102 102 -124 -111 056 -96 106 112 -126 -87 124 058 065 -78 119 -105 -122 -86 
-59 044 -127 -102 105 104 124 011 -52 -126 097 123 120 124 -125 -106 122 -05 097 089 014 -85 058 -94 114 028 083 -110 123 109 076 -118 -127 037 115 -123 -104 027 080 -127 125 -112 -81 057 108 -119 -15 029 101 -32 -54 -30 -13 -126 114 026 -117 -124 -118 -109 101 119 041 -109 
101 125 120 089 -123 001 -126 -100 -105 091 -123 -113 -115 -118 -20 109 082 -101 062 -92 082 -82 022 -89 124 104 001 084 093 073 065 -41 -127 124 -48 075 -54 061 -123 -81 -124 125 082 110 -31 -93 -38 097 -60 089 104 -90 -123 121 087 -126 -37 -15 -05 102 -117 -75 036 082 
-68 120 098 060 093 -117 123 -96 -50 053 124 -123 126 -89 083 -49 -128 019 003 048 122 -41 032 017 120 034 -105 -111 115 -111 -46 099 -119 -96 -126 -105 -113 075 119 -79 126 108 -75 084 092 064 -14 089 010 025 -127 111 -42 009 125 -70 012 -126 124 -101 -126 084 013 106 
067 -104 126 122 125 113 -90 125 086 -108 -115 108 122 074 083 104 -126 -11 077 -116 -66 -84 -19 118 -85 -01 -11 -104 125 006 -127 -119 121 119 093 070 -96 124 034 120 055 -99 -52 086 011 -122 -117 100 101 059 108 022 -114 104 -124 109 066 115 -120 073 -121 -115 115 -114 
-27 113 116 -82 -91 127 -118 126 -33 106 118 -76 074 124 119 -55 097 -110 060 113 -116 084 -36 -23 121 083 106 114 117 -77 -88 -103 121 108 -88 -122 056 094 099 -75 125 -107 049 114 091 124 095 099 -75 -108 -126 043 -88 065 -123 -123 125 123 -76 -105 090 123 104 123 
004 096 -111 081 088 095 116 -113 -97 121 125 -35 123 -114 114 014 -67 -18 -30 076 053 -81 022 -102 119 -104 111 118 117 -65 041 120 082 -125 113 007 -106 123 123 072 -120 -100 -113 -22 064 117 076 092 -110 -61 087 -48 079 -113 092 -120 121 124 -47 -50 123 120 108 -106 
075 124 104 -78 -111 105 -126 123 095 -126 092 119 -124 -59 -65 -06 -127 061 -97 120 -84 037 -105 089 123 -116 097 086 123 062 112 -108 070 083 -97 -123 -55 106 -121 122 -96 -110 088 -48 -112 -73 -61 108 067 -108 124 -14 -99 123 -120 -55 -70 -86 -70 -79 -125 116 -115 007 
-07 -105 -120 -127 -33 -119 095 -94 -104 -48 125 109 -94 117 126 089 -120 062 -55 103 125 012 -15 090 -124 -66 -18 -43 -125 101 086 048 056 120 112 117 -116 -121 -122 125 018 -110 -51 110 -03 -127 -86 -90 -125 -58 -126 113 109 107 100 -47 -117 -122 001 027 -88 097 040 057 
087 -113 -99 -122 -118 -120 -91 -119 079 -75 -116 -124 033 -123 010 -94 -121 082 -112 122 074 087 082 048 028 115 -83 113 -116 115 -127 -86 -124 122 -123 122 -113 -116 -73 100 -120 -120 011 -122 -111 106 -101 -76 123 -92 068 073 -87 -08 125 -109 -127 123 097 -15 126 -71 -78 -33 
069 100 067 117 126 120 -118 -80 034 124 -97 -26 -115 103 125 -42 126 102 019 084 -110 -37 042 -102 122 -76 032 -118 -121 -95 058 099 118 097 -102 -125 098 -125 -91 -125 118 124 -82 -83 037 100 -94 118 002 -50 098 -49 119 124 -66 -125 120 124 126 -110 -105 076 107 -29 
002 -98 -114 072 114 037 089 -110 085 -113 104 092 020 -126 019 -113 116 -10 -86 -124 -88 056 -87 -11 -68 -48 123 078 092 -13 122 -123 -111 113 -112 -121 036 050 -100 088 036 -95 -27 -105 081 113 -113 084 -121 -25 055 111 -97 121 117 -83 097 -110 124 019 -121 032 -20 122 
-42 -53 096 -63 113 105 -86 052 057 106 123 092 123 -42 124 -63 096 045 020 119 113 -93 -73 098 011 -109 111 104 -94 031 -111 -118 -126 125 111 120 111 116 -77 -102 -114 114 -107 120 -05 117 -01 090 -113 -52 120 -17 -111 080 -124 112 123 -120 -114 -23 124 -124 -75 -72 
012 114 118 -125 -125 -121 -108 -59 037 -98 -85 120 116 125 119 116 126 -05 -86 -121 125 051 018 112 -120 104 078 -97 -26 000 060 -115 121 099 -116 -108 -119 -123 -75 121 -82 125 -40 114 -108 117 -20 -119 -27 -24 122 113 -119 123 -109 118 124 105 049 020 112 -85 -36 103 
056 -76 -108 110 116 047 -45 123 026 -125 107 -90 -54 124 -111 113 126 -59 094 068 125 074 002 -106 -81 -29 067 -11 -73 021 126 072 101 091 -96 -112 -109 125 125 090 044 -111 -09 -97 104 125 -66 124 125 -68 -124 -31 010 -88 -98 -65 121 125 -125 -76 113 -104 -123 -09 
100 -54 122 123 -123 097 -124 124 036 -02 122 -126 076 -99 -65 -100 -124 -77 -82 089 109 -86 -95 -92 -113 036 123 -21 -38 -119 117 073 102 -113 -93 -64 030 117 -83 047 126 122 -94 -125 -33 106 -03 120 -126 -60 095 -94 -104 -127 115 -86 123 027 -99 -29 106 -124 095 -113 
-86 124 125 021 104 -29 123 -121 -67 -124 -18 -122 066 121 119 048 -95 041 080 105 -20 015 -69 100 -123 -119 085 -20 -127 -107 103 093 -64 068 -80 -116 055 090 050 093 -92 114 075 -123 049 031 -79 062 -08 -105 -07 074 -111 -112 -108 122 124 095 -82 025 125 032 116 -115 
-07 -125 -117 124 -21 -117 107 -125 -36 008 -104 -111 -126 -115 124 116 123 -89 050 -113 125 045 091 -120 123 017 119 094 -120 -121 -99 064 -126 -83 123 120 112 009 -124 118 116 -49 099 124 049 010 -61 -116 033 -54 124 090 -08 056 109 120 122 -110 -125 -101 -125 121 121 009 
-62 083 -37 -123 -116 107 -17 028 102 -88 -90 109 -101 105 108 104 126 012 -01 -122 102 096 -100 -121 023 -81 -47 -104 -90 089 -121 -106 -118 -123 -69 -125 091 -15 -22 086 -127 123 079 -57 -77 -122 067 123 -83 087 -89 063 091 029 121 -116 -81 -59 -127 055 125 -20 054 -124 
-90 -45 095 -70 123 -121 -51 100 058 125 -121 103 -122 090 062 117 -127 025 070 120 -100 097 -59 118 -101 104 112 073 037 -09 -99 029 125 101 115 117 025 097 -88 058 124 106 -103 011 -86 124 107 121 119 -87 124 -10 -124 125 -124 -92 123 064 116 092 -125 -63 125 -75 
025 -104 126 104 124 -100 112 -119 -48 -126 -99 -84 052 107 -68 -120 117 -87 -59 -120 -85 -87 -84 003 123 113 -43 -105 -85 -118 -115 -86 122 -90 112 029 -04 -123 -126 -104 113 -112 -87 101 076 -112 108 074 118 -64 -125 -53 076 108 126 073 077 119 121 -99 -121 115 -93 -69 
095 -77 -123 118 077 087 -64 065 080 -40 -122 115 119 009 -108 -118 121 101 -21 122 118 -95 -04 -76 -109 -94 051 116 107 001 125 062 -96 088 -126 124 -91 105 010 110 -127 106 113 120 085 -64 -67 121 -126 -113 019 066 023 105 051 112 -126 -106 -122 039 013 -96 056 -110 
067 -107 123 -85 083 110 -125 108 -104 096 -126 -106 125 -62 126 -95 -123 -100 -83 062 125 -34 -106 034 -104 090 122 -113 -89 107 124 119 012 -127 116 069 007 084 -102 113 -55 -60 -115 -104 -59 122 -65 -57 113 -66 -126 036 -83 -127 122 099 -91 -127 101 087 -110 -123 -118 -114 
-02 -37 -121 -55 -121 -105 125 -46 085 -121 124 -86 -119 -31 053 113 -99 070 -82 110 -127 -101 104 062 -115 -67 086 -120 023 -94 -05 -123 109 -126 118 002 -06 087 029 -119 084 122 -79 -122 042 -109 113 -126 -94 024 034 023 -104 026 111 -30 -50 122 123 -36 -112 116 -125 103 
-82 123 124 101 120 118 -102 122 -93 120 076 111 119 054 117 101 124 -01 -110 111 -125 -86 -85 -24 125 -82 108 091 -125 -15 -95 124 104 -119 -93 063 -113 084 083 031 114 -100 -14 -108 -31 -113 -67 124 125 053 122 109 -121 071 046 -93 -28 031 -112 008 126 -125 -65 119 
019 -120 081 -105 108 -115 -104 -119 -24 098 124 081 112 -62 098 120 -103 -110 -78 090 -121 -105 -92 -45 -108 103 104 092 125 068 114 120 124 118 110 000 -104 -123 096 002 123 056 -44 125 107 123 069 100 -125 -57 -78 080 -53 089 015 -98 124 043 124 -40 -118 -123 119 123 
-102 121 -124 -121 -115 082 119 095 -90 123 -53 -119 -92 -100 077 118 126 086 -114 110 -03 076 105 095 -97 093 072 092 125 -110 112 -39 -115 123 -117 -33 -37 -124 097 -61 107 106 -116 -123 091 -126 101 090 103 052 -70 103 -92 082 -27 -92 114 -124 125 -35 120 115 114 -118 
084 097 -24 083 -127 024 -106 069 -37 -124 -117 -110 -123 119 113 120 120 -65 087 -116 102 102 -42 040 124 077 013 -69 123 056 119 -103 108 111 125 -106 -110 -116 -82 120 -126 125 068 -11 -76 -119 -86 -111 117 060 113 110 107 098 096 117 121 118 -122 091 125 -102 -124 057 
048 -102 050 030 121 116 -127 115 055 081 -85 -103 028 124 125 -88 125 -49 042 123 -98 -81 -93 -108 090 -118 070 -38 024 012 125 -121 -114 074 -117 087 087 123 115 -19 071 -127 -31 -120 -32 114 059 -117 102 054 029 035 119 -115 070 -100 -67 -125 -42 -71 -106 -13 039 -125 
068 -121 109 125 -88 -35 030 123 001 117 005 089 053 098 048 -100 -76 -31 083 -119 123 102 019 -63 -115 080 120 111 -122 056 108 111 -47 -117 -114 -103 -113 -116 121 121 117 119 082 034 083 106 -76 052 -108 059 -107 -88 -11 123 123 014 107 -120 -77 -106 -127 -121 102 -21 
076 -125 038 121 118 -111 065 -121 -21 115 123 084 -127 092 033 100 -34 020 -73 -119 125 060 -72 -55 076 -105 095 -108 -117 115 121 084 -126 033 124 116 -112 -66 049 -93 121 -126 -60 038 -04 -127 -99 -54 122 107 125 009 -106 075 -122 -92 -126 -127 033 -40 -111 114 036 122 
093 113 -86 -11 028 -27 -02 -115 -64 091 047 117 124 005 -119 -31 -115 023 080 052 -106 095 070 105 012 -116 098 -122 -47 -65 121 094 120 120 073 118 -82 025 -106 -48 -125 067 -114 -122 086 124 -71 123 -111 033 -90 -59 013 -127 -105 019 033 -95 080 -75 -93 -127 117 092 
-60 124 118 -122 044 -113 101 -51 -47 -121 024 116 -35 -123 118 -119 -127 059 -103 -98 -114 090 -53 103 123 -70 -120 113 119 062 -127 076 123 -100 -125 114 -118 -124 -123 121 097 075 -80 -85 054 024 -114 004 -123 -104 124 -93 -119 -62 009 118 107 116 -98 099 -82 -85 -100 -73 
-89 -89 -126 117 -64 114 106 -71 -89 -103 121 -88 -98 -25 -126 -27 113 -28 101 122 -99 -78 -110 -121 026 104 081 -107 -125 -68 -122 -114 060 -127 -105 -31 -34 -127 -125 -46 -127 -107 -110 084 -39 095 -110 123 122 104 085 088 121 122 100 -123 087 086 -118 -60 119 109 -46 001 
091 -108 -107 119 097 004 -104 120 099 -118 -126 124 -125 -91 -109 -14 -124 089 -80 -92 -82 031 062 119 -80 -119 090 -64 053 -113 064 077 -124 084 125 -54 -84 -124 -121 -96 -115 126 -77 -98 086 -87 072 -23 -37 -114 -112 -55 055 -127 -85 -21 -112 -125 -94 -84 066 -125 -80 020 
-30 -121 125 071 118 -94 084 087 037 -73 124 123 -121 121 -23 072 124 -17 095 -27 -16 099 -101 103 122 002 121 -120 054 087 090 096 -127 120 045 100 089 030 112 -111 087 120 052 -126 -66 074 108 063 -116 105 -99 -61 -118 -20 -125 059 081 -114 118 -50 -127 -119 -117 065 
025 -105 125 065 -127 101 124 084 059 -123 -109 020 -128 -115 -127 021 124 -83 -108 -124 096 104 068 -115 -123 -99 119 116 090 -105 125 -86 005 -107 -63 -105 -108 123 095 123 016 -111 040 -115 -70 -51 -100 041 -120 052 -121 -30 -70 095 -128 -103 100 116 119 049 -43 124 124 064 
-61 -125 -47 125 -102 -80 103 125 062 -123 -84 -124 -117 091 115 -106 -95 -86 -03 109 -87 094 101 116 059 -102 -60 -26 -95 115 123 064 123 -127 048 124 -27 124 -101 108 123 -122 030 -126 -64 -126 -115 031 116 -42 103 110 121 -118 047 105 124 101 -104 -90 -80 -87 124 064 
074 -18 -102 -121 -115 -81 -66 -39 020 028 078 -127 121 120 021 -99 -15 -91 076 -88 085 022 028 018 044 049 -79 120 125 -91 120 -18 001 -117 088 -118 115 124 -119 -29 -119 -127 -76 -121 -72 -116 -90 013 124 -107 119 037 048 119 -41 079 109 -111 121 068 -63 125 117 -75 
100 070 119 040 -43 -88 -70 -126 -29 121 125 -126 064 121 113 -75 085 097 091 -124 -86 101 -23 075 102 100 -16 -56 -107 080 118 113 104 -76 036 -122 -87 -125 123 -68 -127 098 117 -78 -90 123 -25 120 -122 051 -105 -09 053 039 -121 105 120 -98 -59 -93 -125 -123 107 014 
-95 -01 067 -126 072 -116 -32 -122 -12 118 001 -123 -127 073 043 086 -127 -94 -106 102 116 044 -95 -80 -121 -74 -115 105 124 004 111 -121 -114 -92 -81 -70 064 125 -34 109 -95 -125 -84 028 -06 -126 082 003 062 -64 100 076 117 -100 -119 -125 -87 120 123 -69 121 124 -121 -54 
076 -122 125 125 -127 -119 -127 -47 -95 -111 -116 -125 043 124 028 109 -128 061 -84 116 069 -76 -03 -54 092 -114 058 108 -115 041 -107 -123 -45 -124 124 014 -111 091 119 111 125 -124 -119 121 -68 -126 039 108 -126 -31 105 -40 115 049 120 -110 -108 -118 -60 020 037 -123 -83 -87 
-38 -109 -126 093 -96 052 -119 067 076 087 -124 -112 014 122 122 -105 126 033 066 -118 119 050 096 -66 -124 -117 -25 098 121 079 -78 116 030 124 022 110 090 -120 100 -52 112 121 -07 -119 -104 -119 -16 101 124 -03 123 027 -91 100 093 -119 125 125 073 -98 -108 125 034 078 
081 -94 119 -21 -43 -121 -60 -126 098 073 121 046 -127 -97 058 094 -90 083 078 016 -110 033 000 -112 -64 023 -47 -62 -127 098 106 -80 -59 -120 -35 -110 -05 -96 117 -125 -88 -122 -100 124 -102 -28 077 -117 021 -100 -95 -91 -42 -127 121 -105 -57 025 -126 064 -101 -84 116 117 
070 -95 124 -113 064 -109 -63 -98 -41 -112 123 -124 -99 067 -65 -114 100 105 -54 040 -62 -70 034 053 120 101 -107 -120 -104 111 -128 -111 087 -55 122 065 072 -126 096 -116 103 -122 047 -108 -56 108 006 017 123 -19 -25 098 -101 120 -78 -126 120 122 113 052 125 -19 110 -103 
012 037 -86 -126 -127 -28 065 112 -31 -06 -86 046 111 098 -112 -110 016 -59 052 105 -11 -24 -94 -66 -92 -73 -115 -96 -37 056 108 -83 -11 -29 119 -111 -88 090 124 -71 125 125 092 -113 -67 -75 107 -79 -09 091 067 -16 076 123 123 015 120 -07 -123 -96 124 111 -90 -117 
071 -33 096 100 125 -109 -05 -51 -99 -127 -115 071 125 053 082 -50 094 -46 100 -117 -102 046 096 117 -121 -113 -49 081 -115 113 -17 -123 -79 109 105 115 064 033 009 -21 126 -127 060 -68 089 105 018 093 054 010 -30 027 109 -108 -80 114 041 -113 -73 -24 -106 -122 118 -40 
-10 016 -126 125 019 099 125 -49 -27 -122 053 115 -52 -121 112 040 -118 030 078 -85 -100 -105 080 076 012 069 -93 105 073 -68 055 081 046 -88 -126 -102 -117 -117 -126 -122 124 -91 -05 124 016 108 -81 111 123 -77 121 -07 046 122 119 124 -124 -54 078 -47 107 -101 -49 -99 
-31 -125 123 -126 119 -122 036 -115 018 123 125 116 110 -126 108 093 126 064 085 -85 -117 -37 071 114 119 -115 -94 075 109 117 -64 -125 032 125 118 115 066 047 120 -104 125 -89 -45 -02 103 111 058 051 -85 -61 -60 -96 -110 121 125 113 123 115 063 055 -113 100 -89 108 
-62 123 -121 118 082 -117 -86 058 088 110 -126 124 -116 116 124 016 096 028 028 -82 -127 -96 003 -94 121 -105 117 -96 125 -95 106 117 114 -122 060 112 -92 -46 031 -33 -127 117 114 -121 038 108 -112 118 -17 -33 125 094 099 -126 078 -44 102 125 109 -16 117 -84 098 121 
070 -108 125 -126 -119 -55 -113 -66 087 124 -108 -124 -113 -40 029 -19 125 -26 018 121 108 -71 -46 -59 095 -114 -126 -77 020 -99 -53 -107 -121 -127 -110 109 -75 -116 -123 017 -121 -125 116 062 -100 103 -80 -33 -92 -112 120 -33 -89 -113 -25 -127 -87 125 121 098 112 113 -120 123 
101 -108 -106 -125 -112 106 095 -111 099 047 -121 124 095 118 084 118 -126 074 026 018 -01 -36 029 -118 123 002 -32 -95 -103 -98 -116 -124 067 085 104 117 -82 -30 -68 123 -98 -93 -117 -124 064 -70 -107 -115 115 065 100 -75 089 125 068 088 052 019 -110 083 112 077 106 123 
-81 -48 125 -105 -126 -99 -111 110 097 123 -127 120 106 -108 -126 -60 -128 047 096 098 087 099 -28 117 -90 094 -119 -69 118 -83 -73 117 -126 084 -100 -83 114 116 -95 -126 126 099 -55 120 -50 -17 024 -108 117 -05 -126 -79 -07 094 126 -14 -76 117 111 057 009 070 -84 -106 
-105 -100 058 -25 100 085 104 121 078 013 -127 063 -125 124 -119 015 -121 -92 -95 070 000 -85 108 -120 -117 -37 -22 -122 103 118 -121 104 -121 054 -126 -120 007 121 -10 000 125 097 085 -116 -88 089 095 -107 -97 088 -125 -104 119 122 001 -86 065 -37 -86 048 104 119 -104 -115 
-101 -98 105 -46 -103 -37 -80 125 124 -51 120 -103 084 -22 115 -58 -72 074 089 091 000 -125 -101 091 -97 -95 -01 -126 -125 110 118 -77 078 -40 009 -60 076 053 086 100 -71 057 -125 -13 019 -119 -126 122 -127 -102 024 050 083 032 024 -111 015 -121 -40 081 -115 121 -98 -13 
096 -12 -126 -126 -122 076 -115 -109 -119 051 -104 -04 110 -117 103 120 066 -48 101 069 114 097 126 -118 105 -113 -86 -120 -106 124 111 -96 040 -117 -105 -114 -98 104 -49 087 125 -78 -86 009 -119 101 -121 -121 -18 -93 108 -104 -84 084 -124 115 071 119 -111 126 -114 115 -66 013 
-11 -20 124 125 113 -115 081 -32 -116 -72 -110 101 -32 -109 114 -25 -93 -15 -47 119 -34 -49 124 -103 098 -64 103 118 -97 -33 124 -82 -15 -106 -104 -108 060 021 103 -117 -121 -125 120 104 -57 121 -40 -126 -121 -14 -34 -97 -110 093 097 114 -05 -91 -117 115 048 116 076 037 
103 015 121 -128 038 -25 074 095 -119 082 086 -81 103 -71 024 004 -61 -96 055 030 091 -115 110 117 -108 -109 -41 -125 035 049 -66 -42 059 074 087 -17 -23 -101 -24 -49 078 101 -64 111 -105 125 119 125 095 062 -110 -118 -120 -126 110 116 118 -122 112 -51 072 -90 -108 -24 
107 -98 -73 108 -72 -04 106 -114 124 098 -79 -107 -25 -92 120 106 -106 -93 032 -08 042 -122 107 -90 103 -112 125 125 113 -12 -26 076 082 106 050 122 024 104 076 -94 123 -127 -116 -112 -50 117 -124 116 101 -117 -118 117 -113 -122 -126 -25 -118 -123 030 -81 -73 055 -121 -18 
-71 -32 114 123 -60 -113 105 048 -122 081 -22 -83 -46 -101 -28 046 -106 -48 -33 119 -93 084 126 121 097 -79 091 118 125 -111 006 030 076 -63 -25 -118 -48 111 -103 100 090 -37 088 -64 032 109 086 101 117 062 -72 109 -78 124 -109 113 116 122 -40 -119 025 121 -105 032 
011 -49 095 -127 051 -19 019 -62 -111 -73 122 101 105 124 -17 102 -95 045 065 066 -107 112 -121 -66 028 099 108 115 -125 122 102 106 108 -71 -61 118 059 -107 -70 084 -124 111 -127 -115 031 051 -24 067 -106 -66 039 080 093 038 -123 015 -120 033 -64 -111 094 -94 -100 074 
111 -78 -127 058 -113 007 -22 023 -120 -47 119 093 -91 021 -120 098 -26 019 -56 120 -71 099 -116 -68 035 008 -34 121 126 125 -123 -05 -25 -27 056 -85 040 112 058 030 -124 -113 113 114 096 046 123 -08 034 114 113 091 -01 121 -83 -104 -28 079 -36 -118 117 121 118 -70 
-91 -89 -90 -97 121 115 092 -126 -127 096 122 053 -90 -125 054 100 -100 070 092 -118 091 -69 123 123 065 054 080 -118 -88 123 -126 -81 -11 -55 -103 -69 -70 104 -109 -15 112 -76 -67 029 -45 075 -87 -109 -127 -99 099 -03 -95 -116 037 -48 099 124 078 -82 -123 112 -112 -84 
117 009 -125 011 -125 001 -75 123 121 -53 -119 -61 -94 076 093 -27 113 -51 097 116 104 -26 125 -55 -76 -83 -126 -126 126 097 -125 028 098 -82 -83 044 -94 -48 047 -77 082 085 -126 040 014 -122 124 120 121 014 -15 -120 -92 110 -109 086 -53 036 -46 -122 113 096 103 -53 
-98 -77 -125 121 119 -48 -25 030 -107 -80 -115 100 -38 044 -118 -120 114 -79 025 053 -78 -121 116 -94 -87 053 -119 -95 112 069 -124 -41 -64 072 099 114 -82 -108 090 -105 -127 -116 085 080 073 -107 055 122 078 056 038 113 -27 -100 -124 -35 001 110 016 -82 -57 095 -91 088 
113 -68 -122 101 -113 -88 047 079 118 -109 -91 -100 -107 101 -06 -123 083 -22 110 116 -78 -86 -126 -114 091 114 019 125 -30 -127 100 -46 -102 043 -92 109 -109 071 014 -116 041 -123 -119 097 098 -124 -119 -125 -12 115 -91 -70 119 111 -96 -122 -121 081 101 121 071 -52 111 090 
-56 083 -107 096 114 031 -85 -90 121 -93 -09 069 043 -126 -09 038 060 092 -14 117 034 -126 120 -99 075 -109 023 -117 -125 -56 -86 059 067 -111 -92 -115 -112 -51 -94 -29 -127 -29 120 019 095 107 -82 -119 103 085 -73 -121 -22 -90 123 -124 059 123 -115 054 -125 116 047 105 
085 021 059 -127 -122 093 -84 119 -89 -95 -122 066 -39 121 119 -122 -112 102 -76 -08 041 057 029 123 -75 097 -126 -104 -124 003 -125 -78 -18 -104 -100 036 -98 030 002 -78 -117 123 117 116 050 -122 078 -116 -89 038 -101 110 096 -110 -90 -113 122 -125 053 -09 -93 -107 085 -03 
-59 100 099 -124 -105 -16 -115 107 -127 033 121 -70 -05 099 -40 -54 -44 013 -59 010 105 -89 -91 120 016 -85 120 085 -123 090 123 -104 -107 -09 -60 -104 044 072 096 107 124 021 -77 -43 030 -116 -125 122 -118 -41 -71 -115 052 069 -103 049 -120 086 105 -124 124 101 -39 006 
087 -56 -48 -128 024 105 -77 090 101 -80 108 -79 -28 123 097 067 -112 051 -27 121 -76 -88 121 -89 -03 -79 082 101 003 031 -127 018 102 115 -73 123 100 -57 005 -115 125 091 -107 -113 -99 017 -86 107 -127 117 079 102 095 001 -97 081 083 -84 115 052 -84 -101 077 088 
-101 -95 076 071 -39 108 -89 071 -86 -110 112 007 -05 124 -94 005 096 -46 -01 118 045 119 100 011 -02 061 088 126 -99 -88 -126 111 081 -105 062 -99 040 110 -19 -78 111 085 106 011 108 123 -125 -95 -45 069 -70 -49 -120 -121 115 -90 089 -126 052 121 -98 -117 -106 083 
-27 -66 123 124 -85 119 -92 089 103 -39 -123 059 -101 -69 110 125 -105 -34 115 -120 114 -92 -118 119 094 -31 -119 -100 121 103 -126 -16 -89 100 -109 112 055 -113 -71 118 -121 -121 117 -75 -05 119 -109 125 095 119 002 -87 -105 -121 091 052 -115 100 -55 118 -88 -105 081 097 
037 -62 -69 123 -124 -55 012 008 -85 102 -121 000 -05 120 -12 063 -54 -97 -49 -12 079 -125 088 -93 -82 084 -23 125 033 102 -112 105 -44 020 -96 -76 -42 -92 -35 080 -41 111 -125 -72 -53 119 -122 122 121 -45 122 -60 119 093 121 121 -92 -73 -79 -90 -114 084 118 -87 
-10 -17 -75 -89 -115 -112 -105 -126 007 -31 -38 036 -65 120 092 -118 -37 -35 -107 111 107 -105 -126 -124 -91 041 120 -111 -70 -127 126 -63 000 -23 096 106 037 036 087 092 103 -123 -79 -73 -47 023 -07 122 001 098 -57 -108 -39 118 -88 -58 -70 118 077 -38 123 -105 115 056 
-41 099 125 -103 -125 -52 095 125 125 109 -110 -36 -99 035 -108 003 -83 -37 085 092 075 121 -126 123 105 088 123 124 -93 119 125 -08 -92 -116 018 -07 -104 -89 022 037 082 099 -85 083 -67 047 122 -80 -105 115 080 -115 -30 043 115 -118 -37 -50 056 082 100 -124 003 -46 
011 -78 -123 085 -125 -116 -69 009 -105 -48 118 061 021 -86 -54 -92 022 -02 077 -65 104 112 100 -112 -67 099 049 122 124 -124 119 072 107 -76 090 123 014 -57 020 -84 119 018 -27 -107 -119 -126 -111 057 125 019 117 113 118 -126 029 -124 -40 125 000 090 118 -83 118 -43 
-19 081 -112 -127 -13 -108 -114 -107 -105 072 -94 -102 -69 123 034 -124 107 -39 056 106 -88 -60 011 -68 -71 -61 -112 -64 103 -101 064 010 -106 -101 -39 -79 072 058 -96 -116 098 -36 -12 -96 -78 -89 110 087 -122 089 -123 068 -123 122 -113 065 -75 -68 068 088 -114 115 -93 100 
-119 -16 125 -119 104 111 048 -97 126 067 -60 -84 -69 -86 -60 122 -82 -52 -18 124 -87 120 123 -120 080 -118 123 104 -99 125 026 034 -44 012 007 101 061 -95 -91 117 -120 116 098 -117 -97 -87 122 125 097 -87 094 -116 040 099 -108 120 109 -118 089 112 125 124 -42 056 
040 -79 -126 -123 121 -60 015 -118 123 081 -72 -59 111 -82 068 -99 -41 -08 -08 021 097 -101 -83 -62 118 090 117 -117 125 -108 -98 -88 103 092 -89 121 -20 -70 -98 -109 -115 -108 098 -22 050 -86 122 113 125 -97 -100 030 -123 093 -71 082 114 -102 103 -111 092 113 040 -81 
-47 -42 062 -127 -14 -34 111 -111 -118 -29 -73 -90 057 105 -117 -120 113 -59 092 -108 -106 -72 126 096 -27 040 -120 122 125 019 -106 041 059 109 -71 -109 065 -107 059 -36 -127 -55 086 094 096 123 -16 117 124 043 074 -85 -122 081 -125 -119 055 -113 097 002 066 -102 -118 010 
-19 099 -127 -127 -109 098 100 001 -109 -106 -101 -89 071 009 015 -117 085 097 -04 063 -43 096 125 094 -27 102 059 -123 123 102 084 -59 -96 -22 096 -40 -51 -85 -97 097 124 -123 072 -104 -90 114 105 125 -109 -94 099 076 120 -126 -125 -94 -76 124 -78 091 115 -34 -65 -107 
039 044 -127 122 123 -96 081 -88 -114 -100 037 -95 -19 125 120 -54 057 064 080 -86 -109 042 -57 111 -44 002 -126 -88 120 -116 -107 -109 -28 -11 011 -90 -102 -77 054 118 126 -121 114 -13 -52 -107 -122 -126 -38 097 120 -105 -66 -110 121 117 092 124 105 114 -41 121 -36 -87 
068 -87 119 122 110 120 079 123 -125 054 -113 -89 051 -109 117 072 -94 -05 104 116 111 -115 059 -55 107 -114 -117 122 -111 -30 125 -114 025 -84 -107 -116 -02 -115 -50 -94 -118 116 -95 -117 -86 121 124 094 -117 122 067 -100 099 -96 -114 -40 080 124 -26 105 -62 -121 023 036 
011 -42 116 124 079 095 044 059 104 -97 066 030 082 -104 -67 -107 007 025 094 -113 112 -119 109 -97 006 -88 124 074 -126 -72 -124 -05 -87 -108 030 124 063 -58 -50 120 087 -120 -88 060 002 124 -124 106 -89 -111 -66 -72 115 101 -88 -115 108 106 027 -97 -112 -83 -110 072 
-95 019 003 126 124 -03 113 -43 113 088 -37 -100 -28 -111 -32 -73 067 079 -85 113 112 125 -122 122 -30 -99 -119 093 -119 -116 -97 -24 -97 107 -78 106 015 050 076 -119 120 121 114 -73 104 115 -120 -124 109 079 031 115 113 -124 -126 122 106 -121 -71 124 125 -30 098 066 
022 -105 124 -81 121 102 -47 120 122 099 -25 084 099 117 119 120 -65 098 114 013 -96 -125 122 -87 -45 -84 125 -127 051 102 125 -64 -105 -99 -80 -69 -18 -32 -89 -80 065 121 123 034 022 -127 109 113 -120 115 091 -106 057 -115 -95 004 -125 112 -50 006 121 -07 110 026 
-114 056 -52 088 123 -85 083 -125 125 100 119 099 -103 -125 118 058 -62 -94 -88 -113 -102 -103 -127 074 -96 -64 -09 -124 122 079 -123 107 103 -67 106 -125 -89 -18 -28 103 125 -125 -92 -12 -107 -128 116 -127 090 -104 102 011 027 087 120 -60 -99 -125 -40 114 124 091 -118 -49 
111 031 116 -99 046 -107 -86 076 037 091 -78 052 093 065 -53 108 114 097 -51 -53 073 124 -38 -122 049 056 -127 012 124 125 -118 -105 096 109 -25 -18 083 110 083 -91 -108 096 011 -69 092 114 -57 112 -116 -76 -67 072 -122 121 -65 -11 -69 106 029 -37 -123 -74 -82 083 
-68 -100 123 044 -45 030 -75 035 -110 066 -124 080 -99 119 -48 118 -85 -49 -71 123 -113 114 -116 106 105 -48 125 -12 -127 095 122 019 -18 -118 -03 -79 008 -75 -93 -67 109 -106 100 087 -103 114 -91 -99 -127 041 111 -63 -117 119 124 111 -113 -64 -101 -11 080 -124 054 -03 
-119 061 118 034 124 078 039 118 077 098 -58 089 -89 065 -83 -120 107 092 106 121 093 083 -37 079 049 -48 125 073 114 -123 -90 113 110 018 -108 078 -108 -54 -112 -71 043 -118 -126 091 -43 -79 -121 -124 055 -96 -92 027 053 -123 101 011 -42 122 -109 -86 -124 -107 037 -23 
-110 064 120 -128 056 -40 -104 124 116 050 034 -69 -72 -121 -99 -121 107 006 017 025 076 -108 -127 118 095 -117 -58 -123 -124 122 099 036 -92 109 -10 -109 063 -20 -35 -15 116 110 028 104 -112 -123 -125 -126 124 -35 -122 058 -108 119 115 074 080 -123 -24 -67 108 -108 111 -97 
-112 028 -117 113 124 -52 -37 -105 -82 -06 091 094 -17 109 118 -89 -07 -28 -103 005 -58 074 -99 091 -72 -110 096 -123 -127 -122 -126 099 -32 029 014 007 -67 103 111 068 010 112 125 -117 -34 -120 -113 -116 -119 -78 -121 112 008 -95 -11 -95 107 -125 004 -96 116 106 -13 -40 
113 009 087 124 117 -63 106 -16 -117 033 -86 -105 -99 -110 117 -90 048 041 -33 -04 088 038 -124 065 091 -24 -07 124 125 -102 -100 -88 046 064 041 124 021 067 -82 082 -103 -124 105 115 007 -123 -126 097 -100 052 121 110 118 -127 -106 -116 119 109 001 107 123 -63 080 059 
-71 102 -98 046 113 102 096 125 124 -108 -123 -28 -103 125 -106 111 -27 099 -80 096 015 -114 125 035 -71 -35 -46 121 -125 091 -105 -39 106 -42 -81 122 -88 046 108 058 -123 -112 123 -22 -71 036 -98 123 -120 026 061 -80 -89 110 117 -121 -106 063 110 -44 -95 -112 024 -92 
-105 -13 -126 126 121 107 082 -106 105 -88 -123 -100 -78 098 103 -104 -32 -56 026 -120 -38 118 -97 122 030 -112 -125 -97 125 -109 -74 105 -102 -91 -52 -118 -109 066 091 114 085 090 -70 044 -102 -87 119 -40 006 -51 066 090 105 029 -110 113 -44 122 094 -122 009 096 -61 042 
-72 006 -124 -78 -122 -82 105 075 125 -17 016 -70 032 -124 -117 094 -63 -90 -92 -101 041 120 126 065 059 -115 125 -128 057 -91 -104 -73 091 023 -69 120 067 109 -59 118 -85 023 118 004 -52 -115 108 065 124 070 -38 078 115 096 112 -114 026 -106 -118 -95 123 035 -92 030 
-16 -64 119 125 113 -90 072 083 -100 063 009 099 011 107 -110 -97 -96 055 084 015 006 -98 104 -70 110 069 -05 -109 005 118 -125 042 -79 -67 -37 -22 -72 103 044 025 014 -120 125 -93 -44 -116 096 -113 093 117 116 120 -107 -102 -44 104 -120 -114 112 -14 125 -115 114 030 
-15 -68 066 126 121 097 -91 -126 124 109 092 -92 099 -126 059 024 045 -77 -30 103 103 -86 -124 -123 -71 011 092 -125 125 109 -117 -113 092 -101 104 -118 040 064 -80 -19 125 124 120 -28 -83 -87 122 097 113 -63 005 098 -69 123 092 -101 -80 -116 071 080 093 -16 014 -99 
-105 069 122 -111 -110 -98 094 -114 121 -02 024 -95 102 125 -113 -106 -80 -75 -100 -88 -21 -75 -111 006 -36 -71 116 -125 125 -103 059 091 -89 -08 007 -110 -61 -95 -99 113 -119 -72 -122 081 120 -122 -115 094 125 -98 -121 -35 -122 117 045 -74 -61 123 023 108 -90 -116 -114 065 
023 -88 124 -124 124 098 -111 121 120 -82 122 101 -70 -96 106 -122 058 -71 078 123 -95 -76 -69 -123 108 036 -98 096 -124 122 108 079 102 -14 -49 -95 -71 -74 -35 099 -100 071 125 -98 -98 -124 110 -112 055 112 082 -118 114 082 -118 -86 -16 074 011 076 -19 099 -110 -70 
-60 092 121 -125 -97 -36 111 -117 058 -100 088 -106 017 086 -56 115 033 -85 -68 -76 115 -107 107 -109 104 -105 125 -99 -48 -74 -118 -74 038 -111 066 -81 064 082 -27 -91 -66 114 120 -79 080 122 040 108 080 073 -84 028 009 -108 074 083 032 -113 -98 -78 115 107 -83 -107 
116 073 -101 -126 -87 114 -114 102 119 -17 113 -103 -33 -26 120 -88 079 106 065 -119 -112 -85 124 085 061 109 -123 120 -91 124 -124 -111 047 -73 013 -90 080 076 098 -104 052 -106 107 -45 -65 120 -115 125 -110 058 120 -111 -98 107 122 003 117 -107 -98 120 085 -71 -97 098 
-100 030 115 -93 114 079 -27 -62 082 -10 -117 097 -87 124 -90 110 -63 092 013 025 099 -103 -111 -88 -92 -110 -43 -110 -120 118 119 088 -20 -22 004 021 022 079 -56 060 -126 117 118 106 078 -118 110 -121 -94 082 123 -94 -118 -123 -125 -119 100 117 -86 -107 -12 093 -13 -81 
-63 -66 056 -117 110 -52 083 -124 -34 -07 -84 -40 -81 118 100 034 087 -53 090 -113 098 -40 -109 098 046 -101 -01 061 126 124 -118 097 -29 088 -94 -122 -41 -112 062 -82 125 -97 122 -06 117 126 108 -114 -121 097 -48 010 095 107 080 -124 -14 -20 -100 -89 -113 -107 099 090 
046 080 -108 126 -114 -108 -109 -119 -127 -96 -13 073 -109 -99 -98 -102 094 -43 -34 089 -91 122 -122 060 -15 -113 122 -126 -126 092 -127 060 -33 -113 -77 -50 -112 098 073 042 125 117 -121 072 113 125 113 -109 -120 116 109 109 102 117 120 -94 108 -93 -24 107 -110 -88 -83 064 
117 083 -122 010 123 -109 -67 -53 028 108 110 -105 -86 123 114 064 -25 048 108 090 -102 -113 121 120 -92 -42 -126 -125 023 098 103 -68 015 -24 -22 101 -82 111 098 -102 -127 108 -99 017 -116 -08 046 051 -125 -38 076 024 -118 -103 -113 -121 098 121 104 043 069 -112 -120 -85 
013 025 -111 123 026 076 082 115 125 -34 -19 010 -96 121 -29 069 097 030 -95 -54 067 103 -127 092 -51 019 083 -104 -05 121 -57 009 098 -95 100 119 -80 -106 -110 -120 -127 -14 -114 062 -102 -127 124 001 062 105 114 100 119 -97 -96 -114 -117 -84 -58 081 121 121 -103 102 
-101 -89 -120 -127 114 024 -104 095 010 096 -123 054 -75 -33 -117 -87 -109 -15 080 122 045 -13 112 -80 -93 002 066 122 -127 125 105 108 -106 055 -83 089 061 -80 007 101 123 -122 071 089 -42 000 052 -127 125 -44 -97 -120 -71 -127 065 -66 -47 001 092 -125 -10 063 -29 093 
-110 002 -92 124 -99 117 -73 -100 -124 -108 117 -42 -04 -123 -92 -114 -115 -54 116 020 049 -118 121 -80 091 115 -113 -125 -73 126 081 -79 003 -68 033 112 -75 015 -40 -83 109 -89 -122 -106 -93 105 -99 -126 -127 -109 -114 -98 -121 -108 120 -52 053 120 -118 -49 -70 110 -111 008 
108 047 -125 101 106 -31 -69 125 -110 -58 006 -19 -23 -99 -66 092 091 073 -98 -78 105 -120 -112 041 -85 -24 123 065 -95 -123 076 017 014 -42 051 114 -20 -94 108 120 126 -79 -104 -96 115 -31 -125 -121 -122 115 -103 107 110 -109 121 -103 079 -120 113 106 121 087 103 -92 
108 024 073 118 -125 -115 -13 122 125 -108 055 -61 014 -106 020 -121 108 018 020 060 100 -124 -67 111 086 055 098 006 -122 -40 122 111 098 071 -102 -38 082 -57 -01 039 070 -30 -119 032 -114 050 -106 001 -80 079 115 -115 081 -123 124 094 -121 -105 -56 092 122 108 115 -45 
038 068 122 -123 -125 -108 059 -127 -124 -21 076 -31 041 -120 -101 124 094 -75 100 078 080 -113 102 105 -58 -111 -104 125 102 -111 125 074 -87 -109 -94 -54 039 111 -56 -97 125 081 -109 -106 028 -58 119 122 -123 122 -74 087 -121 101 080 122 073 121 067 096 -58 058 004 -72 
-65 -36 -113 -122 -123 103 -92 067 -127 102 -115 -66 -35 123 120 092 -113 082 050 -121 -101 077 072 036 -71 116 -86 -122 125 120 -125 087 -112 087 -96 -58 076 -103 -85 116 043 -125 123 -07 -102 101 097 -77 123 101 -97 094 062 125 -86 098 -112 123 036 -112 -117 109 -104 044 
-61 086 070 -128 -93 114 -41 -07 118 -89 -56 -97 -96 -125 079 122 077 056 -28 102 -103 -107 121 -66 -72 -113 -68 -121 -93 -113 079 085 060 -85 041 -09 -102 -05 032 040 125 092 -119 114 113 104 -81 -115 062 050 097 031 058 -115 100 028 -123 111 -84 -86 119 090 -03 103 
-67 065 -88 -110 -73 -46 -107 091 122 -38 116 -94 107 -126 070 032 027 026 -85 034 -109 -72 -96 122 -99 -06 123 -93 119 125 124 031 080 -31 103 -120 015 010 108 107 054 069 074 070 103 -21 -104 029 120 027 -76 090 -117 -126 -116 096 -71 041 -107 -99 -111 033 -95 038 
-114 050 -100 -128 118 096 044 125 124 -01 098 -11 -87 -100 074 108 -37 107 020 -122 -105 -85 125 -75 077 -102 -106 -127 -127 116 -120 -98 -59 -34 -91 -110 -35 -107 079 104 -125 -89 -121 020 -110 097 -100 125 -35 -110 -117 022 -54 121 -59 005 -119 124 -76 118 -99 018 -19 -22 
-92 -26 106 123 119 -41 -109 033 -108 085 -117 -69 -09 -118 -116 -123 -11 037 -75 066 -108 121 -104 -107 -77 102 126 -128 -104 -120 114 108 -108 009 087 002 -90 -109 024 052 120 119 119 072 -113 -107 -116 -116 -118 -80 055 -48 118 -121 -66 -69 -116 -60 -71 -123 -123 080 118 105 
-116 -101 -119 117 -107 015 -64 -30 -126 048 123 -77 052 115 120 039 -108 080 -41 -32 032 113 -127 -122 094 116 114 119 -120 -33 -97 084 025 -99 -11 106 -73 082 -116 -93 124 -121 -57 -113 085 109 -114 126 -122 -108 -101 -77 -123 -111 -96 -38 -85 125 -117 -105 039 -104 101 -104 
030 -25 122 074 117 -45 -66 121 124 050 113 031 -99 -109 -119 -122 096 -79 040 027 -66 -98 125 -71 -05 -89 -111 -75 -127 -123 -123 050 -82 099 088 113 086 104 -65 013 -94 121 -124 083 -34 -118 -27 108 051 111 030 105 -45 -90 -126 -35 122 -127 115 -120 -122 -119 -39 031 
110 022 122 -60 124 013 073 -102 -115 -20 064 036 105 -118 119 -54 104 -86 -18 -121 092 121 -117 119 037 -113 -13 122 -69 008 -122 -105 -107 -103 -52 -74 105 -102 111 -116 112 112 -120 -107 -16 -96 -10 116 082 -116 -124 001 061 120 -47 -112 045 125 049 -63 058 -122 041 024 
117 -101 108 -128 -106 -112 -115 -123 -103 -81 102 -25 -106 -126 013 037 071 077 -04 083 -42 083 107 092 005 104 -32 -75 118 011 -104 090 090 -68 075 -120 -52 041 -99 098 -19 030 122 -113 -107 -105 110 089 064 -66 122 014 -47 122 -105 -124 067 -106 116 119 -50 000 -100 -75 
118 -97 114 -102 -96 076 -24 -126 119 001 -121 -15 -73 -110 -102 -100 068 103 -70 092 114 -96 009 -82 -13 064 -119 -116 -126 088 -112 098 -73 -71 033 004 -106 053 -111 116 -108 -109 -118 -65 -122 -79 -107 -80 -96 121 112 -101 -108 -34 107 -116 021 -53 093 125 -66 -25 -08 -83 
-09 079 -80 108 -121 025 -56 119 121 089 -96 -77 -73 042 -123 -100 114 015 031 -11 085 -83 007 057 -16 -118 -86 -11 -123 -54 -75 -109 083 058 -102 114 097 -110 -30 -07 -14 085 122 -106 119 -79 117 124 -123 115 002 114 -89 103 013 -92 106 -125 103 106 -49 110 -67 -67 
083 106 070 -54 -67 107 046 -117 073 079 -99 076 088 116 096 -45 058 082 099 -82 -112 -126 088 -49 -67 -81 -126 120 123 -108 117 -93 081 -103 -102 -76 048 056 -110 002 105 091 -47 104 100 114 020 125 -103 112 -123 117 093 -80 -125 -72 -05 115 -04 -124 120 -56 103 -105 
-105 -91 -47 -128 -121 -11 -42 027 -120 103 027 096 -87 106 009 -126 -101 -77 -51 -74 -75 -116 117 114 096 -37 -111 115 -128 050 -124 024 -92 099 -50 032 030 005 -112 -93 -123 029 125 087 028 -92 -64 -128 -40 059 -115 -111 107 -78 -107 052 -77 -32 -76 -59 111 030 -57 -76 
-114 -108 107 -108 120 -67 -51 121 123 -101 037 -99 -86 121 091 -124 -105 -66 -72 -77 028 024 104 -49 097 104 125 -120 -127 002 124 023 081 050 055 106 -71 -111 085 119 -93 122 085 071 -73 125 117 055 -125 -115 021 -43 -64 106 111 122 -92 114 067 -93 -124 -106 119 -40 
-61 058 -122 -127 089 078 112 125 -70 071 117 075 -55 -123 059 -68 040 -06 071 122 110 094 105 064 100 077 -102 117 117 124 -83 100 110 -83 097 -34 045 110 051 117 123 106 -111 -93 -22 121 029 097 125 -81 041 -93 119 -123 122 -109 -44 070 -42 -69 -124 094 -39 -44 
072 070 093 -125 094 -48 -110 -126 101 -103 -119 -107 091 125 111 -122 -90 -38 -33 -111 -54 105 -103 -83 073 -62 114 -126 028 -128 -124 -13 -53 008 054 -95 047 058 103 045 118 104 -121 -93 104 123 056 120 -124 118 109 108 119 -121 -122 -26 -38 -123 068 -119 -65 -97 054 -04 
-28 012 -60 123 059 108 114 -91 -127 082 091 055 -100 105 -115 089 -43 082 049 -123 002 -124 115 115 003 105 -94 -18 122 126 125 -76 -108 -112 -109 025 -60 088 064 -115 111 -108 -18 054 016 124 -124 -127 069 -11 -27 -18 058 083 -115 110 -81 -108 096 079 -117 118 -44 -92 
101 -108 069 125 -125 115 065 125 -119 -30 -103 086 -84 -122 -95 121 -114 -76 -94 113 116 026 111 -96 -98 111 -110 120 -125 -119 112 -80 -104 -116 -83 110 027 020 073 075 118 -96 -113 -20 076 -106 029 -125 -122 -14 118 -81 -50 -122 -122 119 123 123 -80 096 -112 -104 -105 047 
-67 -105 032 096 121 002 -114 124 -31 -84 095 049 -97 087 070 120 -40 -57 083 099 -108 123 125 106 044 -84 -13 -83 -125 106 -91 -30 -102 098 088 -118 097 -65 -39 073 125 082 118 106 086 106 -126 -60 109 051 110 062 -123 -121 -16 070 042 -119 104 124 062 116 104 -95 
-107 035 -122 123 -112 -50 -112 -38 -123 057 049 -76 106 106 085 -125 024 -32 068 074 -52 067 106 123 008 -21 123 125 120 121 116 089 102 -46 -97 125 -59 -14 -69 -115 -125 125 -99 -18 -111 -119 062 -58 124 -113 -114 112 -85 -123 112 092 107 -53 101 -97 -08 006 -75 -88 
-22 -76 120 113 074 -83 089 -127 -77 -108 -11 048 078 -57 -66 -114 086 -33 065 -112 -91 077 -113 -96 -88 101 -123 121 075 -92 -16 -109 -111 049 093 -55 -83 -114 087 059 091 104 065 063 039 -108 -110 125 -127 119 075 -82 -101 075 118 -62 109 114 076 -71 123 -106 -111 -30 
-118 -97 084 -111 095 100 -09 124 -36 -16 -105 -11 -85 033 122 -118 -70 -36 071 052 -111 -119 112 111 102 096 -120 092 -08 -118 -117 103 -09 074 076 060 041 -60 -70 022 -126 -85 -124 -116 -104 -114 085 -123 123 -103 116 -24 114 111 -102 -106 -116 111 015 -90 122 097 116 091 
-10 053 -127 122 -115 001 -65 -123 125 -19 -68 -92 053 -77 006 084 -22 -80 076 004 025 -47 -115 -114 050 -114 119 -105 116 105 004 -84 -93 -83 -87 082 -96 113 -89 -59 -126 -73 034 -116 078 126 123 -60 -40 -101 120 -118 024 125 -123 -122 -73 -101 -86 122 -125 -97 066 -104 
-84 026 028 -110 -124 078 -83 121 121 069 122 -52 061 124 -52 037 012 084 106 034 -43 -31 -60 102 046 -107 -73 039 118 -67 109 086 -109 -50 -104 -110 -90 051 -88 044 050 -76 119 086 120 -116 -98 111 -80 -110 -123 -117 102 -24 010 107 108 -123 -89 082 -86 -101 095 -106 
-10 -88 117 112 -106 -91 109 124 -62 094 -102 -92 069 -88 107 123 -68 097 -98 100 110 -122 -119 123 -97 -90 121 -126 -110 116 126 -115 033 067 096 101 008 -114 -115 -109 -126 123 -120 -54 081 116 -121 -126 -120 034 053 -61 -116 124 069 097 116 -116 -76 125 -117 -120 108 030 
101 -41 -106 -65 -110 101 -116 074 094 -113 -83 064 -90 -110 -115 -118 -104 -76 099 -75 -71 -121 047 -121 -42 110 101 020 -80 -71 -113 -94 -91 008 -40 038 094 -46 000 107 113 -74 -77 090 113 122 -100 090 -113 121 -87 -90 -109 051 120 116 047 -122 088 126 -111 -50 -60 087 
-109 -15 123 -127 119 082 -39 -124 125 092 080 005 -37 -125 061 120 -61 082 -71 118 109 -120 028 -54 085 047 -95 095 -69 015 078 -80 046 -92 023 -124 109 -25 033 -118 119 -123 030 -22 103 102 045 -103 087 -11 113 112 -117 042 -119 021 -93 -121 -112 -104 -65 057 023 092 
-101 038 118 -112 -115 040 049 027 099 -101 052 091 027 -119 -25 123 044 -19 -90 122 -46 122 076 121 -88 -116 -74 104 125 -125 -113 053 090 -37 099 117 -95 -77 -105 -92 123 -120 124 115 -108 093 100 -117 -121 088 -74 091 086 -66 -124 -123 -112 -47 049 -112 109 091 -112 -90 
113 -88 121 118 096 062 104 -117 118 052 093 095 103 116 114 122 -43 096 038 009 101 087 119 -116 077 115 117 111 -108 -122 -115 -15 077 -101 -110 103 -71 071 -109 -118 -97 -97 -76 -34 -114 069 041 -40 -87 -43 122 -33 -94 125 -120 -91 066 121 -67 113 115 118 -83 -58 
-108 -104 103 125 -104 -46 111 100 110 -95 112 027 101 084 -95 121 -101 -55 079 -54 -24 114 125 -122 104 103 094 072 -96 -44 126 103 -95 -29 104 -123 -29 -107 094 -101 125 123 088 109 -63 -102 114 074 -125 -103 115 -95 -68 099 -126 -80 -87 -125 105 -47 -114 -96 007 -107 
-86 028 120 021 113 -108 -77 111 111 104 016 060 002 -89 -122 121 045 006 -12 072 -106 -118 -127 119 066 -78 -63 -128 -105 124 080 -14 -96 101 -87 040 032 -97 -89 106 -118 097 -123 011 032 123 084 -16 -48 -107 -103 -121 021 -106 -125 -121 011 091 -105 123 -121 -109 -108 -38 
-116 -98 095 126 -117 -104 072 099 -116 -98 035 -101 005 123 -118 097 -108 -57 -57 011 118 -85 122 100 086 -115 125 124 -71 -86 100 -112 013 108 022 042 092 -66 098 109 117 -07 092 -49 019 -109 -120 123 -51 -98 082 118 117 119 -97 -75 104 -121 -68 -53 -113 -108 032 -71 
105 052 -123 -110 104 -85 -16 -116 -126 050 -60 -106 -66 -117 -110 121 035 081 059 -115 -21 -110 -121 013 099 -91 125 121 126 -95 -119 045 -31 -79 -105 -111 069 -14 -106 -114 124 -110 066 -109 -109 -124 -119 -110 122 087 123 096 -20 -82 122 083 120 118 101 -119 -30 105 -21 -36 
099 022 -111 -47 122 -103 101 125 -126 091 -116 -67 -86 -107 120 122 -14 -101 -89 095 054 015 000 -53 015 047 -119 -127 -127 125 110 -29 094 090 -76 119 036 083 -94 114 121 -53 -105 058 -86 097 040 -126 -126 102 -27 -117 116 -124 -115 016 103 -126 -55 -114 -125 110 077 -43 
109 004 -04 -128 098 -117 106 -125 125 041 114 070 013 -40 103 -83 106 075 022 -23 -72 -124 111 -44 -03 114 125 123 104 108 -96 089 -64 -60 -06 015 096 097 039 -116 125 053 -126 -110 -120 -126 119 -98 097 -48 118 089 108 125 064 117 078 -127 -15 -85 052 -121 -112 021 
-02 -11 -77 -127 055 -63 097 113 -126 -07 -04 -81 079 -120 -122 077 -108 076 083 043 -106 -124 125 -113 -47 -61 -107 124 121 -79 -106 008 -72 050 -28 120 104 -110 -108 -114 112 -89 -104 -97 105 125 -125 -126 -120 114 -118 054 -83 -122 -49 092 -46 118 103 -120 -113 071 058 -107 
-116 -93 -114 052 -102 -65 -98 061 083 -79 -47 -32 053 116 012 -20 072 057 -63 119 056 -82 094 117 105 -68 -118 -102 -127 126 082 -49 064 109 085 123 056 -100 095 120 118 013 -115 -75 -73 121 120 126 -112 014 118 -116 -102 117 065 -94 -114 -125 -119 110 045 -85 055 -08 
107 -43 113 -124 -61 026 -34 -124 119 108 084 -38 -101 -82 -122 079 019 030 -30 051 008 103 047 084 -80 110 -81 -114 -121 -110 086 -73 105 -14 074 076 -05 -86 108 -16 -61 047 121 -27 -102 123 121 100 -121 118 118 -120 -91 -124 053 122 -88 120 -76 096 067 -121 119 043 
050 057 -89 080 -51 -79 093 -91 108 099 121 -13 042 102 091 123 -115 -95 -19 061 093 098 -101 -11 -06 -114 110 004 -29 073 126 -96 -78 -107 069 -16 -81 -19 -37 085 053 -126 -126 -81 119 105 -99 122 -124 022 -02 -122 -123 077 023 -19 112 -124 -15 117 -124 041 113 -22 
-60 -94 -81 121 119 -85 069 037 -122 019 -116 088 005 -62 -29 -113 -09 -88 -15 -122 093 -39 026 080 -26 025 119 125 -126 -127 125 105 107 077 107 -125 -111 -88 -108 -117 -126 075 -97 112 049 -118 104 -80 -105 084 -94 026 091 -124 124 100 -110 060 -56 094 106 -120 -80 -83 
-76 -81 123 -03 109 063 028 -127 -105 062 -122 -52 037 106 009 120 -117 -97 -89 081 083 -126 -12 023 086 -95 -108 073 126 104 -125 054 041 114 -107 -123 023 108 067 -107 -107 105 -127 -103 -29 -101 -112 -127 -51 088 069 113 -58 125 -20 074 -121 053 -112 -15 054 -91 -103 053 
-103 -21 -12 -03 112 083 082 -71 -55 -79 -37 -22 052 094 013 -79 049 -69 -19 -56 094 116 112 105 -17 -71 -114 106 -126 -91 -09 -107 107 114 065 112 056 -101 085 114 108 -19 101 -112 116 035 -39 -91 098 016 058 110 -70 -66 -113 078 023 110 112 -125 -108 -109 -22 -04 
118 -17 -104 126 -08 022 070 115 -124 -35 013 -50 070 -115 -113 -116 -26 099 -78 -46 -98 026 -112 -103 -21 -70 118 -47 -78 036 124 010 -87 110 -97 -10 -19 -48 092 084 119 -93 125 -70 107 125 035 -118 123 039 050 -108 108 -126 092 123 -52 -118 023 117 -111 123 -94 -100 
034 -107 -79 -121 -05 -66 -93 -119 -124 071 031 -25 -89 109 -122 -88 035 092 097 104 -51 -98 -126 -81 -99 077 125 -127 126 -127 112 -71 -86 -89 -92 098 -107 -63 073 089 114 -122 -98 073 119 125 124 -124 -74 -91 -32 050 -64 125 032 122 108 -122 -117 022 101 -119 -30 106 
001 -103 124 -127 -115 -94 -100 105 -119 067 -121 -48 060 -109 -69 118 110 023 -30 120 -106 119 -124 122 -102 -37 115 096 072 -109 108 064 -54 -108 -94 -65 086 051 109 079 116 -99 112 113 -36 124 064 -122 009 110 093 071 099 -97 -120 005 117 085 -75 109 -126 -114 -119 082 
118 053 -85 051 -46 -100 -111 105 -111 -09 -109 -78 102 043 116 -126 -77 -43 -20 024 -75 093 033 -55 050 -119 116 125 123 -02 -125 095 -33 -22 -70 -122 091 -83 -85 103 084 052 095 -20 -11 -127 036 -123 101 -81 031 018 -115 060 117 097 -120 -52 058 124 -122 106 -107 051 
-16 -102 -126 -15 -32 -89 108 096 -126 -88 118 -90 -50 118 -04 -122 105 -26 053 -99 -18 124 093 -116 -90 -101 -117 -102 105 110 -128 -31 -03 -60 -63 064 021 092 026 -112 125 -114 123 103 -116 094 112 -123 075 031 -106 -21 -104 101 119 101 111 -38 -81 -121 -80 -107 109 064 
026 062 -123 106 099 108 -116 123 108 085 020 001 082 122 -68 -85 081 020 -48 122 107 120 006 114 013 -04 -125 110 -125 118 123 027 -108 -114 -110 075 067 041 -46 077 125 -126 034 029 -28 -91 051 -17 038 -85 036 -114 -122 -127 -68 -114 034 -29 -49 -96 -60 -36 114 011 
-106 069 -122 -115 103 -23 -101 084 116 -82 -124 -09 032 -106 120 018 -107 034 -36 -74 037 120 115 117 028 -35 -48 095 -85 123 112 092 085 -25 053 -36 090 -109 051 -114 -128 -125 -127 -102 108 -102 112 -101 123 017 -55 -85 054 119 055 052 065 -15 049 -113 123 022 107 053 
-104 -107 -51 119 -109 093 -108 117 123 -110 121 -82 107 -122 -123 124 109 017 005 103 -101 -115 -75 -59 -72 -34 107 114 -41 -117 -127 -86 085 -07 052 123 016 048 -12 102 -118 114 -12 -96 -35 124 118 126 115 082 -115 -70 117 125 -104 118 094 -115 -10 -21 -117 096 -119 -94 
034 -57 055 116 -113 -54 -37 -94 -120 100 -83 -25 107 -98 119 124 -64 -87 -84 -109 095 124 -125 -73 088 004 096 122 107 125 115 -105 103 085 -36 029 056 102 088 119 123 097 -89 -113 -119 -108 123 117 008 -04 065 105 113 095 -85 112 122 -121 110 122 106 104 -78 026 
