114 118 124 -117 082 110 104 125 003 -112 -46 049 -101 108 108 -116 089 -19 124 089 126 125 -127 017 117 032 -30 093 -61 104 106 112 -80 064 087 -67 063 -77 -89 -101 124 -69 -75 -41 112 -23 -127 038 030 086 -10 089 -126 -126 -115 124 -100 -91 -125 -100 120 -42 -88 -55 
-121 -96 126 085 -48 091 -88 117 -119 107 -93 123 -117 -92 107 -81 126 -05 102 121 097 -125 126 -110 -95 -100 108 -70 -68 -123 -22 090 119 118 -126 -49 -18 -88 064 095 050 115 082 -36 064 -122 -122 105 010 119 086 123 096 -71 122 -121 067 084 022 107 111 -64 113 089 
-99 -110 126 -128 -123 118 -82 -127 -124 103 047 104 122 119 095 124 035 -58 124 011 126 112 -124 086 -125 116 -117 110 -115 065 113 093 -77 -102 -128 -73 -26 -27 054 -126 -123 -122 113 -59 087 068 124 103 -98 -82 -47 -107 -105 120 -124 112 053 -23 046 -27 -79 074 091 -127 
-116 -118 -121 125 -124 096 -05 -126 -123 105 076 -81 -52 114 120 118 029 -81 115 117 -111 080 126 087 -115 -121 -76 -124 084 016 114 -128 -127 123 126 115 -95 -57 -12 125 -126 113 -17 050 -51 -127 -77 -109 -03 115 -104 120 -126 -122 -128 -106 -109 -65 123 -42 -120 059 104 -127 
-64 052 -62 125 -125 119 -95 -128 124 -25 035 -101 -98 -101 -60 -120 -101 -64 -124 112 -126 032 -122 -78 090 -119 -119 070 -111 026 -121 120 -63 105 124 -75 099 -68 -94 115 -112 123 116 -42 -58 -101 -127 -116 111 123 047 -120 119 118 126 -86 077 052 109 097 -30 075 -119 123 
-122 -121 -128 015 -76 -95 031 -51 -121 -74 -91 -100 -115 -117 -113 -121 126 048 -126 003 -127 -105 126 081 063 -93 -101 094 035 -72 056 121 -119 -126 -79 -99 111 -07 059 -67 -77 121 -76 -03 002 126 009 124 077 -116 -110 126 125 060 -86 -111 -123 -85 -128 058 -124 062 -115 -16 
-95 099 100 -115 -124 113 048 059 -62 -122 -75 052 -112 126 -85 112 -126 008 095 121 117 115 115 -09 -107 113 -73 075 -80 -38 122 -84 -127 110 -128 114 -39 054 087 -125 -128 004 -58 -30 -15 122 -128 098 076 -19 -51 -39 -105 -123 126 121 -125 057 013 -113 026 071 -54 125 
-29 122 117 -107 -91 -117 -62 101 -75 -119 -25 112 113 -127 -111 109 044 -99 125 -124 -116 122 114 -111 -125 094 088 046 109 -39 -127 126 -113 -115 -123 -51 -106 102 -43 -115 124 -117 069 052 -84 -114 -121 -41 071 -86 091 -118 -111 -125 -127 104 -72 -81 085 -109 -107 -52 -115 026 
-117 -01 113 125 050 -32 092 122 079 125 -30 -127 033 -128 -90 114 -121 036 101 120 113 -100 -99 059 -125 -62 018 093 125 -42 124 126 088 122 -76 -106 -86 097 -55 -112 -67 095 088 -37 -65 -118 -123 078 040 -11 -65 -126 080 108 118 117 -119 -96 003 096 -127 -88 -123 -120 
-115 114 -124 126 099 083 -103 124 -106 -65 -32 123 103 097 095 -72 -127 -90 104 088 -67 011 -121 -102 122 115 055 045 -127 120 113 -102 121 118 110 -07 079 -70 -47 125 -124 -120 -105 007 110 092 121 097 120 -98 081 -40 126 026 -128 -125 -124 -103 -124 099 036 009 -88 123 
-54 -83 -75 -91 -127 -84 023 -123 -120 032 021 122 -113 -55 118 013 089 -72 056 119 076 -78 -127 -59 -111 -07 120 -125 126 -62 -122 126 -127 111 -80 114 -105 -85 015 -111 098 -90 -105 048 -52 096 -74 010 -113 018 -32 126 -121 -107 126 -68 -108 092 040 -112 -43 072 022 -127 
100 122 -127 -128 -117 -126 -12 -126 121 125 -105 122 -78 -51 028 115 -126 026 -73 116 -35 -114 122 -21 -75 -101 -94 124 -122 -124 -124 -128 109 125 008 -112 -104 -65 -101 111 -126 -82 091 -82 -106 -38 -31 -123 -30 -119 023 -62 117 -114 -68 121 -108 -56 -111 085 -58 -48 -116 125 
-72 -32 004 125 118 -73 -106 -90 004 022 059 -56 109 -122 022 -116 124 -76 047 109 -127 109 070 100 -98 -34 -106 -116 110 010 103 116 126 073 -128 110 045 -93 -86 112 -52 -25 -97 071 102 026 125 -123 084 040 -102 -104 -65 -77 067 096 076 -49 126 -94 093 -65 004 -118 
100 086 -127 -118 099 -119 093 -128 052 -128 -87 103 -61 061 098 -126 070 034 123 -113 -122 -122 125 -116 -71 106 087 113 048 115 078 -128 124 -126 124 031 -95 -39 091 -01 -18 115 109 -07 -121 -127 126 091 014 -124 096 108 -126 126 122 -119 101 072 049 -72 -97 077 076 -126 
040 080 124 034 124 087 100 125 102 124 055 118 010 072 -100 -123 106 -17 108 -120 125 -61 -126 107 -16 -127 110 -85 014 -104 124 -127 088 012 125 -110 -54 -70 -33 -35 -126 -112 -101 -50 113 -127 125 125 110 -118 -67 125 119 -118 -123 -121 116 082 011 098 -11 -83 -101 113 
029 109 116 -120 -127 -13 019 116 -94 082 050 122 -124 126 070 125 116 -13 -34 058 088 124 125 -30 042 095 -61 102 -68 -115 094 010 -128 124 116 070 096 -96 -45 121 -77 041 107 -01 -117 090 087 057 118 014 071 -116 061 -63 -25 116 -12 -81 -110 -08 119 -85 091 -127 
-73 025 -124 121 -106 -108 -66 -127 095 -125 -56 -107 089 126 044 023 -115 053 -67 -118 036 -92 119 061 -100 -92 -76 118 -127 117 -108 -117 059 117 -107 112 051 -89 -55 -118 125 -90 -77 017 -110 109 -128 -118 056 -101 091 126 -114 114 126 089 -106 -04 -100 -40 -115 -44 115 125 
-94 -87 -104 -127 124 064 -76 115 114 106 045 125 118 102 -100 117 -97 -96 -13 118 109 -111 -124 -110 123 -126 048 021 125 -114 122 126 121 -115 -127 -73 072 108 057 126 -127 -109 034 088 -111 125 -124 -106 -119 -104 -87 -111 111 -116 -99 -108 076 -87 107 -12 051 048 -109 123 
-74 -122 126 066 -111 122 112 -66 -124 125 -33 -123 005 -125 -93 078 094 090 -122 -97 -127 -37 -57 -82 -120 -104 -120 123 075 116 -42 126 126 010 -34 -65 -32 004 048 -86 119 100 -74 014 074 -78 126 -106 -27 112 067 113 125 -105 -125 -40 101 -93 122 101 088 -76 -76 -127 
116 -124 -118 -128 -123 -98 -32 -122 110 -125 018 116 122 124 114 -64 -89 067 -73 038 107 117 085 -91 -122 080 -06 -110 100 001 -126 -39 -126 123 126 048 -105 -86 103 -61 -91 -51 -77 -72 -64 058 -113 121 -111 070 083 -46 -17 120 116 -92 -01 093 122 -17 -60 007 114 002 
106 -113 046 -128 123 -98 -115 104 -56 -98 -77 -125 -108 007 087 -124 -128 024 118 028 -120 045 125 -97 -125 -101 -119 025 -126 117 -95 -57 -120 102 125 094 033 085 -12 -79 124 -120 -97 017 -111 -119 119 -120 099 037 062 123 069 124 -24 119 -122 026 121 024 091 055 076 095 
-123 -102 015 -128 -28 -122 -01 -97 -117 125 077 048 -20 -125 108 -52 121 025 -128 122 124 066 -65 097 -72 -38 -122 117 -108 -67 123 -127 105 -86 115 055 085 -69 096 125 -86 062 059 004 118 082 120 095 108 094 -75 -123 -84 -28 010 112 -73 -15 -124 -115 -97 070 -08 -127 
-41 -122 121 038 -12 -108 027 102 010 -115 -61 -107 075 -107 -110 080 113 031 -81 044 -115 122 064 -75 045 -71 -79 117 126 -33 121 -126 078 -125 033 010 -60 008 -56 125 119 109 077 055 -104 111 -108 -23 023 071 080 -25 -127 105 -128 123 -112 056 106 106 -117 -21 076 097 
023 109 -128 125 -125 102 112 -120 -89 -125 008 -46 096 -128 074 -110 -118 035 123 122 -128 -122 124 -116 035 -127 103 122 -123 -104 -73 126 -119 -122 -125 -13 011 062 087 123 083 091 -96 027 -56 126 126 -126 093 005 -49 -56 -127 -91 -118 122 044 018 -68 025 115 -29 119 123 
044 -20 126 111 124 -103 073 -85 119 114 104 -126 105 126 020 070 -118 -41 111 -51 121 -81 -96 -75 -112 -107 -118 -105 079 084 010 126 124 073 125 066 -81 -75 075 090 105 091 056 -24 114 093 -128 106 079 -69 091 -111 -125 123 107 -124 109 010 114 -113 -120 -10 -99 -12 
100 099 126 125 -125 -125 094 -122 102 079 059 -35 106 -102 110 -124 -127 041 -91 046 125 -113 125 108 -84 063 117 -125 124 093 122 023 -118 -125 -78 100 -79 -102 081 089 -119 -58 025 082 -121 125 -19 062 -82 -124 052 -112 126 126 106 111 -89 -103 126 -69 -118 -19 -122 055 
092 -115 120 126 -84 -123 -88 120 -68 114 014 -113 -111 -122 030 125 124 030 074 -115 -123 106 125 -67 081 -100 -119 -117 125 -79 -101 -121 124 -89 -126 088 050 102 -80 093 -105 073 -72 092 -91 -126 126 -113 -97 -89 104 121 -119 107 114 022 102 -92 -102 -08 -111 082 121 096 
104 088 126 -120 -94 -110 103 051 -68 -124 082 -90 -124 -125 -69 -115 039 -32 -125 -115 -54 004 -107 -18 -122 120 116 -99 125 -10 -82 111 082 -47 119 048 -88 -73 -58 121 030 -104 104 063 105 -01 058 122 -13 041 -91 -127 -122 -79 -118 122 -75 -103 -125 030 123 024 -123 032 
-111 -119 126 126 048 112 090 -127 124 124 -07 -123 116 113 -62 125 097 -01 025 121 077 094 123 005 -93 072 123 -101 093 -111 -86 -78 124 -111 079 -53 -105 -39 066 -127 -36 -101 -76 072 118 -80 126 110 113 108 115 126 -116 126 -112 -84 062 -105 123 -12 -120 -40 -76 126 
023 124 042 115 030 -122 -113 045 -31 125 101 -81 076 125 017 -82 -124 021 -127 -116 -06 -46 -107 008 -125 -124 -124 002 124 116 -99 023 104 125 -25 -69 089 -105 -74 114 -114 -56 -50 -03 -20 -128 -128 090 106 091 065 044 125 -127 -01 -107 -119 031 122 -113 -127 -25 121 125 
096 -120 -128 104 116 118 -49 -125 094 -13 085 120 -124 004 105 046 -48 -68 014 -97 -53 -70 124 102 046 125 -101 -86 071 -97 -23 -124 066 -127 094 117 097 066 047 -87 086 -02 106 074 -116 -100 126 065 -08 -95 -76 -77 -108 069 121 -113 -81 056 125 -94 045 077 -112 -124 
101 -125 126 126 -118 -107 072 122 009 -82 -87 025 119 043 113 055 068 -34 -08 -20 094 119 -48 033 114 -105 116 -107 -123 059 -116 -75 074 063 -104 -86 -81 -84 -19 123 103 -115 -101 -35 110 086 126 -113 115 -08 -78 -128 121 -28 123 096 -116 -05 -128 098 -120 -70 009 -123 
-82 109 -109 -128 -124 110 088 -122 -111 -113 081 124 100 -126 -90 125 -100 -99 -77 120 103 105 -126 037 057 -124 116 109 126 -59 117 085 -81 -73 -128 -49 101 -98 -93 -114 -111 101 -81 064 115 117 120 115 121 -120 117 122 124 120 -127 -113 -96 -03 -118 112 122 -79 -110 -59 
-112 119 056 126 070 -52 -79 124 116 123 -49 099 122 -115 -91 -61 -39 -74 125 -110 -125 -125 126 -113 123 -25 067 123 110 121 111 123 -102 123 -124 095 053 100 -77 102 -123 091 -60 010 025 -126 126 -22 -113 -23 073 126 -128 119 -101 -124 -35 035 -128 -88 022 -66 -119 -120 
-72 -08 -127 125 -17 -126 -81 -127 -76 -10 027 -127 -48 067 029 -37 115 023 -128 108 068 124 121 087 046 -124 -07 -80 094 101 101 126 120 123 126 062 025 -70 023 116 070 -40 103 074 080 124 117 095 -09 -111 -93 -127 -56 045 125 -124 -117 -77 -126 -98 119 -56 -107 -126 
-122 -124 -110 126 079 -100 050 -128 -93 070 -29 121 009 125 103 125 -39 091 -24 081 046 124 -123 -20 115 -40 -116 123 122 -124 125 112 112 -53 047 -107 101 -92 021 069 125 121 -103 -11 -47 -108 -128 -94 -86 -40 -26 124 014 124 -22 -110 -109 -45 -125 -74 -126 020 120 125 
040 -118 107 123 123 -116 -108 -19 054 -127 -104 -120 -84 112 -81 004 -109 -66 -126 -45 116 -117 126 -114 -114 009 104 -97 079 -45 -122 -106 122 -108 053 089 -109 023 -95 125 -49 -77 112 085 103 120 126 -91 119 -121 007 116 -107 -106 -121 115 -122 -97 114 -114 -123 059 066 125 
093 123 -108 -79 -126 120 -70 -123 071 -119 -35 -112 011 054 -120 -125 -117 010 126 -80 -127 106 -126 009 -117 063 090 026 -96 -103 -111 -128 097 096 -125 -52 -39 090 095 -68 -126 -119 116 -74 -112 124 -113 123 062 -73 -78 125 113 106 047 -125 122 -19 115 -51 119 056 026 -108 
-48 -45 -68 -127 -125 -83 -105 -126 021 093 093 -122 -113 126 060 -97 -72 021 109 099 -57 -97 -128 099 118 109 -106 -126 -125 -92 122 -109 126 113 -47 067 025 -34 -103 125 078 -26 -88 046 -82 -128 -128 086 -72 028 -36 -20 112 -79 015 123 -123 095 -128 -85 116 -52 -96 052 
046 -27 090 126 121 -94 -91 091 116 -117 -30 118 -09 125 114 094 126 -98 096 057 -125 115 -101 002 081 112 123 -98 120 -116 125 -123 -02 -124 -37 006 015 -102 -96 078 117 -114 094 073 -35 092 -123 060 -121 083 -04 107 125 118 -35 -126 -120 077 -97 -98 -70 068 030 008 
-116 -103 119 -112 125 048 -102 125 124 120 -102 -125 -103 -44 -81 -121 116 -44 -127 -122 -123 096 -118 058 -118 -125 104 -124 -126 -100 -08 -128 -124 124 -114 -41 -108 113 -109 126 113 085 101 -71 -107 -126 124 -119 -66 095 084 -125 -122 -125 125 118 -17 -61 118 067 061 077 086 043 
-73 072 015 119 108 -100 112 -69 006 124 -108 -96 106 -115 -65 -125 -124 -57 124 043 122 123 -127 110 124 -120 099 -125 -82 116 126 123 062 -126 123 028 094 -35 -02 -125 -126 -80 -46 -07 048 -69 126 094 103 118 -67 125 -38 -125 -103 -29 -105 101 094 -58 123 -64 -115 103 
057 121 -10 -39 -02 -121 095 -65 -49 096 030 -125 -123 115 101 -04 117 -78 049 001 074 -117 -128 110 -99 124 062 -120 -127 -114 083 -53 -128 123 040 097 -92 091 -21 -128 -117 040 -81 -41 058 -124 -93 094 104 117 -82 -127 126 124 -117 078 117 063 109 -53 061 050 -36 102 
097 015 109 121 -126 -113 -30 -107 -125 118 -104 118 -112 115 -96 040 037 074 -82 -25 -120 -55 -89 072 057 -119 -68 119 -125 -107 122 -122 124 -106 -101 110 066 -105 054 -116 090 -97 -24 068 111 107 126 126 118 -124 -48 -112 -89 -122 126 -98 -84 084 -107 -28 -105 -38 118 086 
-104 123 -124 125 -126 109 -50 109 -118 099 023 -36 -122 -126 -109 -63 118 -89 -127 -55 -108 -53 123 009 038 -116 123 123 -121 -102 106 -93 -82 109 -108 021 062 -52 -103 102 121 117 -111 -95 -102 -125 -63 -84 080 -117 060 -126 -95 -127 050 077 -88 -64 123 112 -115 038 -107 -117 
-42 -01 -124 126 -79 116 099 -91 -84 -116 050 063 -125 103 -117 125 -128 -84 081 122 -114 -55 049 070 032 -121 107 -86 123 041 -123 -103 -127 -120 047 112 -75 020 -101 125 -73 -101 096 077 012 121 113 125 -113 -01 072 114 126 -38 119 -83 -79 078 -119 100 123 075 -123 -127 
-118 -107 -127 120 -95 -64 -97 -127 122 121 046 035 -119 086 121 111 -116 071 125 -11 075 -124 -90 006 087 -38 -76 -100 122 -122 -127 -128 -128 -81 126 -105 037 -62 072 125 -128 -49 086 063 116 126 -102 -25 001 112 094 077 -23 093 -71 -124 097 -48 112 048 074 -32 104 103 
-22 -122 126 -128 -99 -109 -97 -120 124 125 -68 -107 -64 091 -116 075 -71 072 -97 -112 -124 124 114 -54 093 -115 -31 -88 125 -112 -126 126 126 -98 -76 -89 059 -18 081 -114 123 096 114 020 -38 -56 -107 047 048 064 113 008 120 120 -69 -122 -111 -100 054 013 -103 096 120 -124 
-61 035 126 -115 -118 -117 043 -124 -34 -116 092 124 033 077 107 125 -17 -100 117 121 111 -92 -125 045 -125 -95 -76 075 107 -104 -126 107 084 124 103 098 -102 001 -73 126 126 -85 001 067 093 -126 116 -125 -108 122 -43 -86 125 116 126 090 109 -85 -112 079 -117 049 -123 102 
104 122 109 -125 115 086 -37 -121 -74 125 -64 091 124 120 110 092 -128 -91 084 -124 -124 117 125 -05 -59 117 -122 102 122 090 126 -108 094 -66 124 113 -62 -91 104 -108 -119 -107 102 -72 -122 -117 120 083 -53 082 -52 -121 -83 099 -43 -110 112 093 126 073 -123 -55 113 -49 
037 123 112 119 -126 -110 -55 106 -108 071 036 -126 -113 093 -100 -80 123 -83 -128 -105 -128 065 -99 029 124 125 097 104 007 121 -107 -101 115 100 126 002 -113 092 000 123 037 -69 -33 -68 117 076 -118 -126 055 -94 035 -123 -91 110 -127 020 113 -74 -117 -88 -114 -44 109 097 
-91 -115 -119 -120 093 -62 -24 -116 017 113 072 118 -111 -112 -101 -120 123 087 126 -120 112 124 -96 -31 124 123 -102 117 121 007 -107 -128 -103 -116 105 -106 -115 113 -92 -91 -123 -107 120 -59 -90 126 -122 -12 113 101 -12 122 113 122 126 123 -97 -99 046 -71 121 059 -14 -19 
068 -87 121 -119 091 -70 -21 -106 -124 -93 -106 073 -68 -52 096 -09 -76 002 -33 120 103 -104 -128 010 117 116 -121 048 -120 -26 010 -91 121 -107 126 114 019 103 -93 -113 -13 099 -15 -31 -93 -125 -75 -117 085 111 -89 -107 -103 123 -126 070 -123 066 -121 106 -105 085 -119 047 
105 014 -123 -127 -106 058 -110 067 114 -119 054 109 105 089 -52 -113 073 -43 073 079 117 -55 097 -113 075 -127 069 081 124 -123 -100 -128 091 -106 -124 103 -89 -86 006 024 123 -114 082 -58 106 -97 -124 039 051 -74 -55 126 -107 099 -34 121 089 -67 -61 -22 -106 -63 -101 -125 
116 -99 117 -127 -105 -120 -60 124 097 106 046 124 -114 -109 -63 117 090 028 032 122 -125 -120 -127 062 026 098 -110 -12 -68 -122 -127 125 -126 -122 098 096 107 096 102 125 077 074 -39 -39 065 -92 -126 122 022 -114 067 124 125 126 -126 -123 -84 -57 -27 -42 004 -22 103 012 
-118 -84 109 -118 -100 -126 108 121 096 119 -83 124 121 -122 079 -118 079 076 110 091 084 018 124 -80 -73 -123 -123 121 -96 -118 089 126 -127 095 126 039 -17 -52 038 -128 -90 -98 076 -47 003 100 -128 112 -06 082 093 091 -127 -75 -127 -45 -108 -68 036 -11 114 -04 -30 002 
-120 -111 021 118 -92 -28 -81 125 113 068 084 -18 058 024 -60 -94 106 -25 086 -123 -53 108 118 -73 -124 112 122 -122 001 -117 -45 -123 101 123 -127 -92 103 008 -16 124 -127 -97 069 073 012 084 063 110 -115 -14 -39 -90 -40 118 118 -07 -113 046 126 111 125 -74 -118 -121 
120 060 120 126 -121 065 -92 110 -20 -126 -27 -44 015 125 029 -127 123 -88 -65 031 -115 115 126 030 -125 -103 112 -86 004 100 -118 -128 -38 125 126 -115 089 -71 -105 114 103 -122 102 067 079 -103 055 055 111 -115 -02 121 -14 -124 069 080 -119 -32 126 075 -121 -54 -123 -29 
-120 102 -55 100 -45 -121 103 039 -73 -128 -107 -32 -77 123 094 -76 -69 -92 064 005 123 115 -127 -68 098 -121 -103 -102 093 -53 -127 108 124 125 124 115 -33 -96 -39 125 -116 078 -92 -81 -40 121 061 096 -06 026 -21 -128 -120 -15 034 -121 -122 020 126 064 110 -21 120 -126 
-119 -37 -13 124 -38 -117 025 -121 -04 068 -73 125 -119 103 100 -96 -112 071 126 -57 100 027 -58 -50 -117 -95 -21 -126 063 052 -82 -128 -128 -55 126 -117 103 032 -96 111 -128 -88 093 083 112 091 125 109 085 118 109 -128 070 116 116 -124 083 082 -127 -91 -118 002 -95 125 
-79 120 126 125 012 125 093 126 -97 -126 -35 126 102 114 -102 -126 002 096 125 114 120 122 -87 -41 124 117 120 -72 -123 080 -127 -122 126 -126 -103 -64 -67 114 052 -35 -72 123 -29 -46 -92 125 112 126 -27 117 107 113 024 123 126 062 101 046 099 -34 098 095 108 -100 
119 -30 -127 126 -124 -119 022 121 029 -127 065 -111 098 -123 -117 009 106 -72 124 068 -31 075 126 102 -120 -121 -63 -124 121 -71 124 118 -111 -97 125 -97 108 -95 -47 -113 -123 124 -48 -15 -95 -125 126 -113 107 -105 -12 -106 119 -110 -116 099 -122 -97 106 -74 125 091 -55 -124 
-31 -94 -117 121 105 099 -111 -125 113 074 -44 119 123 -126 011 065 -101 094 123 -51 115 -96 102 -15 121 109 035 124 -127 -32 004 -99 107 115 -126 056 106 084 -14 -127 -65 062 -26 -70 019 125 126 121 067 019 035 -124 -125 -97 090 -119 016 -58 103 086 -118 -80 -06 123 
-20 -28 -109 -72 097 103 -76 112 -116 125 095 116 -121 -106 -77 -123 126 -56 -126 -122 126 111 039 -106 -28 091 109 -120 061 -118 124 -110 -120 125 -109 004 -112 106 -88 -61 -122 071 064 -54 -99 -38 120 125 126 -98 -56 -118 125 120 -106 028 059 -01 -117 -103 122 -28 055 -127 
121 015 -108 107 -110 -126 009 -87 -41 110 -105 -71 121 112 023 -86 -123 -82 126 -112 124 -73 -127 -07 -80 102 117 117 124 -86 -90 126 041 -126 -108 -55 065 -54 095 -89 -121 086 -60 -09 -57 040 -124 095 119 -119 050 090 027 -127 099 -55 -83 -70 -67 -77 092 -33 -68 -120 
006 -50 -128 -128 -127 -122 067 126 -123 -07 -91 119 -40 015 118 -117 -98 -93 -120 -123 126 -126 004 -102 -126 -106 038 -98 106 -92 -82 125 036 125 092 099 -102 069 095 -105 -125 -91 -88 045 -115 049 -48 -112 -41 -116 009 121 117 -15 -114 -107 104 -76 -49 -22 068 -42 -116 123 
-76 -109 -45 -128 053 -126 -11 -126 -15 085 -71 -125 -54 126 -13 117 -127 -63 118 -60 -42 -60 122 -101 -57 -76 122 095 061 119 -117 -38 -51 -125 -116 -79 109 058 074 -100 -126 013 039 -22 057 -126 -125 079 -01 067 044 -76 109 -121 -127 -122 005 094 -126 071 122 086 119 -125 
043 -46 093 -65 -117 036 -65 069 121 125 -29 -115 -124 -124 114 116 123 -93 -128 079 -110 -119 036 112 -122 085 -123 -56 109 095 003 -24 123 -126 -127 072 007 -84 000 -127 -126 -122 088 -58 -105 -126 093 121 113 -84 025 -29 113 016 -87 062 114 018 -124 -65 -78 014 -04 064 
-27 115 -127 -32 036 008 -91 098 -88 -122 -32 -56 -124 -63 106 125 -125 075 -127 119 -117 037 020 110 -121 118 -121 -118 -119 001 069 -114 -126 118 126 102 045 -70 095 048 -112 109 111 061 054 -17 -80 081 066 -77 -24 -126 -126 -114 049 056 095 039 -97 053 071 083 029 -123 
-122 121 126 -125 -109 -113 -52 076 112 125 049 -125 -98 -112 085 116 125 -69 034 034 091 -117 -128 -79 -92 -117 -102 111 -123 092 -124 -127 125 -96 118 -62 -103 058 -109 -127 126 -115 079 -58 -122 095 -121 -123 054 -124 -109 064 081 -127 -92 104 -49 -78 -128 -99 111 -19 -52 -122 
113 -38 -127 126 -126 050 019 124 065 109 -92 -124 119 -60 -46 -113 -125 -66 -127 -122 119 -123 -55 -81 -117 090 119 088 120 073 -127 -128 -115 125 097 096 050 -89 -20 -13 121 103 086 058 087 -81 124 068 -37 089 -102 124 043 -122 121 -97 118 003 -113 073 -116 -16 -109 -75 
115 118 055 125 -127 076 112 121 055 107 -18 072 029 -127 -102 113 122 -03 005 -41 106 120 -119 109 079 010 -62 -123 -104 106 -125 121 051 -120 -128 052 -52 -93 061 -126 -90 006 054 -63 -81 -128 125 -19 -78 120 073 114 -126 -124 121 028 106 087 -91 016 -108 -24 -117 -47 
-08 019 -116 -89 121 089 -86 -119 -104 -125 -78 -111 122 086 -63 -119 -05 -94 -122 109 126 124 125 -61 044 123 122 -124 087 098 125 126 -118 -81 -75 -49 -29 -61 060 -102 -126 -33 -96 -85 -117 -58 -128 113 -107 119 120 -124 096 -125 -106 126 103 -09 126 -34 090 -69 -55 -116 
-118 119 -108 102 -83 115 078 123 118 -75 -80 123 -106 -128 -19 -120 082 -38 029 119 -95 033 -127 027 -98 -77 -112 114 -115 -85 125 -121 -127 108 119 -87 -106 -64 -82 -98 114 120 -34 061 -104 039 122 -118 086 106 091 123 091 -113 -128 123 117 087 009 -114 -116 030 -117 -127 
115 -81 -123 103 113 -02 079 118 085 -97 092 -60 122 -127 102 122 -27 -31 -40 -108 105 083 -127 -43 023 -84 -123 007 -126 -12 -125 -128 -117 -41 -99 -52 -14 091 -86 126 -128 120 -42 -64 022 124 -96 124 118 085 078 -86 -67 104 -128 -12 121 029 085 -93 -125 -74 034 -123 
-101 -71 -127 -92 123 111 100 125 -122 -115 -24 090 051 095 120 110 120 -91 104 120 -124 -122 -20 -116 -88 050 -120 020 125 -83 -44 -114 122 -110 126 -116 080 003 -86 126 113 120 051 024 -30 108 114 -121 -60 101 -95 125 -109 -78 126 029 123 -98 055 029 -122 003 -117 122 
119 -24 118 -112 123 065 087 -72 083 114 044 075 093 -116 -87 116 125 097 -88 -32 -124 124 -114 055 -105 125 -108 -24 109 -77 002 -113 -111 -124 126 -112 107 -98 095 100 092 -118 104 061 -103 -67 125 124 095 066 096 -54 122 -110 050 -118 -110 048 104 085 -118 -15 -110 -123 
115 -103 -89 043 123 020 -93 -08 117 -127 -61 -85 075 119 -51 -49 126 -05 065 026 126 058 082 -107 -121 078 -123 124 108 045 -127 118 126 019 -121 076 -59 -96 -60 -23 063 107 079 048 -120 125 -108 -119 022 -39 -108 120 116 -63 126 124 025 059 125 086 074 -53 -60 -128 
-39 023 112 -128 -98 076 -03 013 -123 118 025 110 118 102 -118 122 -126 -71 -121 015 098 -57 124 106 079 -120 -105 099 -126 090 089 -128 -45 106 060 041 -05 091 030 -108 126 115 008 -44 110 124 -128 -127 -120 -77 -49 -124 -79 -121 -118 108 -113 -09 117 -52 -23 -06 116 -126 
120 032 009 -128 -123 -76 095 -122 123 -125 -30 -89 098 -90 -63 073 125 092 -121 -100 077 -125 -01 -110 069 115 -68 022 037 -121 108 115 -21 080 -128 -91 -113 096 -95 -125 124 -81 -116 -34 058 125 -56 -04 086 024 -105 125 126 121 -86 -126 077 039 123 -13 124 008 -61 -125 
-122 -116 -114 109 125 087 -109 106 -83 084 -98 120 -112 -106 -96 122 -86 071 -128 -105 093 -110 -116 086 -123 126 -121 -97 122 -114 092 -117 -126 126 125 -61 -76 078 -91 119 125 040 -75 -21 113 126 -60 079 -111 125 032 -107 115 120 114 098 -111 094 121 -67 125 022 121 -125 
-123 -111 119 -123 -87 -90 -88 124 079 123 031 098 088 126 -102 -66 -100 029 -87 070 110 -105 126 000 122 -113 -106 -118 072 -73 097 126 -108 106 -128 102 -110 -29 082 -123 -92 -43 -10 067 051 -125 -127 125 -118 114 -93 121 109 -114 065 -91 107 -38 -121 -105 093 -50 -72 -90 
050 -119 124 126 064 -88 -96 -114 -118 061 -55 117 -28 123 -12 117 -126 -68 -18 007 -108 -122 099 107 -124 -118 036 124 027 -123 118 122 -126 -93 -51 -46 -113 094 058 -126 083 110 095 -03 108 -114 -126 117 -89 033 108 -128 -127 -72 -31 120 035 -58 126 -107 -71 -66 121 -31 
-121 -73 -66 126 121 -125 089 117 -123 071 026 -28 097 053 024 069 004 -75 -128 -103 -122 101 -128 -23 -105 -43 -04 116 105 083 111 -115 126 -70 126 070 -85 -72 -69 -112 124 -88 111 -48 098 -127 -54 125 -97 063 -23 -122 -90 -81 -93 118 039 083 -127 -55 111 031 -115 -105 
-72 -07 124 -123 112 116 -81 -117 069 110 092 -124 045 098 -57 116 -108 006 -57 043 -117 095 -117 -67 086 -127 -118 -126 121 120 097 116 -53 035 048 082 066 074 -35 -71 022 079 107 -69 -116 -117 -103 -63 116 105 103 -126 125 125 -87 091 111 -32 -120 -68 -96 -32 -115 -106 
-83 120 020 063 032 079 062 108 052 -127 088 102 -39 -64 -56 -25 -126 085 055 112 117 -89 -40 068 042 -119 106 122 -122 017 091 123 124 079 001 091 -84 -93 084 113 007 016 -113 -24 119 -112 -124 068 080 -07 -83 125 -128 052 097 -120 111 -37 -128 -86 123 -77 095 -119 
121 -71 126 -105 -125 096 -109 -128 077 -98 013 -119 124 111 -103 054 110 004 -124 -101 105 -81 -91 -90 114 125 -123 078 096 -101 -123 -119 -123 111 126 -96 -66 032 -109 112 116 052 107 058 -70 -114 -105 -125 -95 -106 109 -126 126 -107 -122 089 -26 -07 -117 -101 -121 084 080 -87 
-47 101 -108 -120 110 -110 -101 113 107 097 071 -123 051 -117 -93 125 107 082 -31 -109 -119 098 -118 038 -100 126 -03 116 -128 110 -119 -120 119 -124 101 116 097 078 041 126 -128 -103 116 053 115 -121 126 -58 -98 -104 073 045 126 111 -103 -120 118 -35 112 -77 -105 045 121 096 
032 -109 -127 -59 049 123 109 -97 -45 -126 011 -123 121 102 118 121 124 -07 -127 121 070 000 -121 114 -114 035 -124 117 124 070 100 125 126 -30 -128 -101 046 039 024 080 076 -06 036 043 090 -60 126 -127 -122 063 -53 079 -80 121 126 -17 091 -42 -128 -114 -112 075 075 -51 
-10 034 -127 094 -123 -11 -60 -126 118 121 -60 125 -36 -98 051 -126 -126 -70 -107 104 -125 115 -100 112 -111 -105 -108 109 039 -104 -127 -52 -127 -110 -127 108 067 069 028 124 116 047 080 -66 -40 126 012 125 -120 -25 110 -87 -127 124 009 078 -70 -86 126 093 113 -72 115 -52 
120 -82 115 -96 036 -124 -111 -98 -111 -83 090 092 -109 105 -94 115 104 072 074 -122 -126 119 125 096 120 125 058 -123 047 -111 -39 126 -115 -122 -128 -31 -95 022 -77 100 -68 -62 -27 081 101 125 -72 117 025 080 109 052 -120 -127 124 050 092 093 -111 -40 113 036 018 126 
055 -116 -121 122 119 065 -62 124 -123 -118 -23 -121 -89 -120 -04 -123 011 054 -127 103 069 -114 121 -32 096 -114 -06 099 -119 042 -126 116 -87 -100 -114 -61 -91 113 -75 125 -110 -81 028 059 043 -125 115 -115 -106 094 -89 109 -115 111 -89 123 -103 -92 -112 -115 -125 -23 105 -127 
118 -115 -125 126 -125 -122 080 -120 -03 125 043 -78 -122 116 -25 -126 -120 032 072 121 119 -101 105 -113 065 123 122 105 043 006 -96 125 124 -100 016 -93 -108 027 104 -125 -118 -119 044 026 -80 126 077 -85 -46 034 057 059 100 -102 085 -119 085 -84 -93 -100 125 011 120 121 
-99 -124 126 -119 -49 -90 -113 -123 -81 125 -15 -125 -122 066 -08 -126 071 096 -109 101 098 -123 -126 027 -08 111 -15 -120 -109 104 126 -69 -128 -109 024 -62 -114 098 086 -123 -02 059 -108 -31 120 054 114 107 -86 123 110 -64 -127 -109 125 -14 -124 070 103 -84 -122 -29 114 125 
109 056 -110 -41 087 113 007 -112 -125 060 -26 -56 111 -128 081 -89 110 019 -78 058 070 -114 123 089 -119 -67 -112 -121 -25 101 -43 062 -35 -101 -127 023 107 -20 -56 116 -68 -117 008 013 -121 -101 126 -121 -114 122 -102 067 -123 -126 -05 079 120 -103 097 -52 123 -47 064 -49 
-78 -99 -127 -114 -107 -118 066 114 122 -113 -97 115 -103 -126 110 049 -104 083 -127 -96 -127 -102 109 -30 112 108 -81 -110 -120 -62 116 115 -122 115 123 094 -47 -47 097 027 -123 122 -95 066 -107 -120 -125 125 120 124 081 -121 -107 104 123 -09 083 -45 -125 -23 124 -56 123 -34 
-63 052 126 117 -93 015 105 123 -122 -66 056 092 108 -58 095 -100 -01 -74 123 -53 004 010 103 006 124 -82 109 -123 -14 046 123 -116 122 046 056 056 066 -100 053 -128 125 045 112 066 -78 -128 095 -123 119 080 012 069 036 120 024 110 -46 -29 126 -113 -124 050 046 -122 
101 -42 020 117 085 124 -44 -107 -94 112 -05 122 -01 040 103 -118 -127 -71 110 064 123 -23 116 104 -113 -97 120 121 -125 061 -114 -96 107 099 -94 -113 092 -97 -03 -94 109 -111 093 061 -120 125 -122 041 -117 -108 -75 118 053 118 118 -121 -78 041 126 082 116 -27 113 078 
-104 104 075 126 117 049 -97 123 -116 059 -23 102 -45 -114 -110 -116 -126 -97 -57 121 -94 107 124 -92 118 -13 106 -38 109 111 -111 021 100 -56 124 -99 -72 -66 -75 -124 126 048 105 026 120 125 -120 097 -114 -117 -13 -124 -88 -126 120 053 -62 083 -115 -109 -125 050 -93 116 
064 120 -125 -110 -51 058 -107 123 001 078 073 -127 -113 029 112 -75 -128 -84 -103 032 -120 086 002 -37 -32 -123 -101 121 -127 099 122 122 122 118 044 089 -23 -50 093 125 -05 100 005 081 069 -50 -82 102 103 -78 033 059 -125 -127 119 -123 -122 -96 -54 -18 -80 -42 -101 -82 
079 043 -117 -111 -113 -122 -63 -127 -63 104 070 -52 120 -40 119 -124 105 067 121 -113 -128 120 -128 102 063 -118 065 114 -127 110 120 114 120 -50 -115 -85 -112 059 098 -01 -128 115 113 -36 100 117 126 124 006 -119 101 -127 040 124 110 -78 037 094 -123 -25 -118 000 -115 118 
081 080 -117 126 -126 -46 -102 115 -108 125 038 126 124 126 121 -106 113 -90 -106 105 096 -90 -111 040 120 -118 081 -106 112 116 081 119 -93 -95 076 -109 021 101 -101 -108 052 121 -98 -66 112 -96 -127 -125 054 -88 037 -126 119 -114 -123 125 -83 036 -120 -87 092 -34 -117 -122 
-121 116 -125 -88 123 117 113 126 -107 -95 -92 122 116 -128 -122 -126 125 022 -118 -114 -70 -110 099 -13 -125 -118 024 -80 100 -65 -41 -117 -125 -93 126 -88 -72 -27 093 118 -57 120 -13 038 098 -86 123 125 -117 115 -88 126 -104 053 085 106 074 031 -93 -105 -62 -03 -107 125 
055 124 126 -95 -77 121 052 -115 -104 124 071 -19 -02 112 068 068 -112 -40 125 115 053 -120 -127 -105 -115 -123 -100 -121 -127 119 -117 124 -127 124 -114 -88 -104 036 101 123 117 -77 113 -29 -102 -114 -115 -93 065 -122 -84 -125 -123 -119 111 -118 108 -60 -105 -40 -100 008 -54 -120 
-116 -39 120 -83 -125 -107 -92 121 078 125 103 091 -95 009 -41 049 120 -27 081 -96 123 094 116 -110 -121 102 -85 -107 -127 -117 117 112 -117 094 -127 -12 -72 -08 -27 112 126 -44 018 050 092 093 126 119 075 -118 -51 066 -104 -17 117 068 101 -33 -113 060 -125 001 -121 120 
093 -121 068 -73 067 -109 -37 -60 020 -94 080 -125 -109 -124 069 -20 -55 024 119 -41 077 -106 -04 -38 -115 121 120 -117 125 045 -122 -102 -102 -127 -119 -117 077 027 -53 126 -38 -102 062 -72 -118 035 112 -114 105 119 091 126 124 -118 -108 001 100 -52 -19 -91 119 046 080 125 
118 020 -104 117 -97 -118 098 113 -41 105 -74 122 119 -122 091 081 -98 -94 -118 -106 126 020 -121 -81 123 126 103 099 -119 120 126 -124 -127 -90 -111 -64 -101 070 -10 -10 125 -121 -51 049 100 124 110 -97 044 077 -82 -108 -86 -127 -69 049 105 044 -120 -09 -125 -54 106 -95 
-115 028 -107 -128 -01 -118 044 -113 -123 -126 -57 -100 -109 097 -52 125 -86 -84 -60 -123 124 -124 126 113 086 016 047 124 125 107 107 -117 124 -118 -68 -96 004 -88 -95 -111 089 102 -82 076 109 -125 -111 -117 -85 077 080 126 -117 -103 118 -114 124 009 -100 057 109 091 -110 -124 
120 112 084 -128 -44 106 -26 -125 085 042 -96 -98 -97 -128 -120 121 072 -92 024 -68 -46 124 -122 099 -14 110 -123 114 -126 -112 -126 -125 121 125 123 083 -45 -39 023 -88 -128 112 -20 074 -103 117 047 118 119 -120 066 -125 125 123 -122 -122 043 -90 122 -89 -102 020 -05 -103 
099 118 124 -128 125 -77 -32 039 113 111 -90 123 -85 113 -47 058 -104 -58 -128 -50 -116 -126 -124 054 124 -117 093 -123 123 027 047 -118 126 094 112 -91 -81 098 069 119 -127 020 -76 -79 100 106 -126 -125 064 -110 009 126 126 125 -90 000 083 048 122 -104 125 002 120 126 
114 -117 -125 124 -21 103 070 -127 123 091 -73 121 108 -121 -86 -125 -110 -97 -91 -68 -124 -125 -125 013 121 -122 -24 -73 -115 -11 124 126 -100 -119 126 102 025 099 035 -123 -110 -118 094 051 073 115 -128 107 091 -110 -103 -114 -126 -128 -96 -111 121 016 126 082 112 074 -120 125 
-118 -121 -68 116 -64 -110 -50 -111 122 -122 -74 -121 -104 121 048 -112 123 -15 -128 118 -119 -115 -126 048 125 124 -112 121 115 -70 -126 114 -60 124 124 -79 -48 -52 -91 048 119 110 -99 -15 -59 124 122 -117 109 109 -58 120 099 125 -128 099 -119 -103 -103 -46 121 063 049 034 
104 -72 096 107 112 117 -47 -121 124 112 -90 023 125 125 079 -105 -125 -80 017 064 -61 -121 086 -91 113 123 -36 -08 -92 -81 106 -127 115 -124 -112 -59 -101 081 -25 -114 -121 105 -100 018 -97 125 -100 -99 -55 121 004 -103 046 -119 -128 094 -67 -39 -105 -103 -113 082 122 078 
-98 119 -39 -17 -125 -125 -89 118 046 125 -23 081 -37 -106 102 118 -127 012 122 097 -127 -67 124 -21 -125 -127 -73 114 112 -115 081 119 -21 -127 093 116 -40 093 084 -126 119 075 054 -51 113 120 027 073 -98 -114 -108 126 120 -126 015 105 -121 -56 -122 077 125 076 -27 091 
-107 -24 -126 116 -114 -117 -104 120 -69 117 -67 -68 092 126 042 125 117 -39 -46 -119 092 -27 084 -116 004 -80 -113 075 120 -116 -47 -117 120 124 123 037 074 036 -40 -67 -95 114 115 092 057 -108 126 117 -111 083 028 120 -112 -03 124 109 -107 052 -125 078 -108 -19 -54 -126 
120 -105 125 084 -77 104 081 -127 122 -122 -63 065 072 -122 038 071 111 -19 -116 101 041 038 126 -116 -55 -84 -125 -116 -119 -80 125 078 -124 109 -117 -84 105 -100 -105 092 100 -103 -08 021 001 -109 -94 -127 013 094 -23 -128 -124 038 126 -120 -94 -02 086 -103 061 037 -26 -125 
104 024 126 -45 120 117 110 -57 -62 -127 -50 -51 048 -120 104 124 124 -60 115 121 060 062 126 093 -36 076 029 122 120 111 -06 -67 118 -109 -119 -105 -25 -97 -06 080 -128 -114 086 067 -110 123 112 116 029 -117 058 -121 047 -125 119 -61 -115 071 -128 073 -121 076 107 -24 
-88 -28 113 118 067 109 108 117 -26 -121 -98 -116 -103 -119 052 -92 -111 -84 125 -111 110 -65 -124 -86 -123 076 -22 121 -123 -102 -112 126 125 120 -104 081 -76 035 -57 126 112 041 120 042 -24 -110 -121 021 -41 -102 -58 -127 -124 113 -117 -97 -35 069 -123 067 098 097 006 121 
051 -117 -99 -126 124 123 075 125 -92 -10 061 123 063 -99 114 -58 -127 059 -127 -115 -89 -80 -125 -89 062 089 -23 -10 116 -36 119 -98 -119 -108 102 084 -114 089 011 -110 125 040 -110 -73 099 -14 -112 052 047 075 -90 058 067 105 124 117 -124 -44 -127 -66 125 007 111 017 
004 -107 126 120 046 105 -102 108 -123 -107 104 -127 -62 117 057 -127 124 -50 123 119 -111 -83 -128 -05 -60 -88 089 -118 -114 088 -41 -128 124 -120 112 100 107 029 -97 -108 -116 -82 -66 -19 -120 109 -41 041 094 066 -92 039 047 -116 084 007 119 -56 002 -113 -125 -76 119 124 
092 -110 126 -120 -39 -119 105 096 119 079 -92 -127 -106 059 100 -104 124 -20 -123 082 -126 -102 122 067 -124 112 -22 -115 116 045 -126 -128 097 -127 062 114 106 084 034 097 126 -35 068 064 -56 114 124 -117 108 120 054 060 -125 117 065 -124 060 -103 125 -30 -118 074 -32 -89 
112 -78 -60 -89 -126 103 007 125 -83 116 -74 -122 121 -123 122 -125 -120 -03 -64 -123 056 -114 -127 -30 -124 111 -109 -104 -126 -26 106 063 -90 124 -16 088 -06 -43 077 126 -118 -84 -99 -30 064 -128 126 122 -121 122 -106 115 -94 -122 -106 -47 115 -32 103 080 -24 012 101 -125 
120 003 011 110 -101 116 -05 -85 120 -127 -100 -123 -121 118 -90 124 -108 058 -55 114 -76 101 -84 038 081 -109 -42 -123 -34 118 036 107 -115 -115 -119 -107 015 102 -97 -128 114 086 029 -63 113 126 -97 094 100 119 069 122 -125 -73 121 -08 -116 -34 118 095 -123 052 118 126 
008 042 -113 125 -123 -123 -102 -108 121 120 -06 005 121 117 118 124 -123 -57 124 062 125 045 -124 -90 037 030 -38 108 092 -125 -115 088 082 -116 105 081 -45 -02 021 -128 058 -83 -64 048 119 124 099 -90 092 -124 -110 -126 -127 -115 -20 -74 -123 084 088 033 -112 061 089 054 
-119 -115 126 -128 -83 -63 075 -99 118 -118 -02 118 -87 -119 076 125 -113 -63 091 116 086 113 -127 077 120 -48 -105 118 -121 -58 079 -128 123 -44 025 -105 -25 002 -98 125 047 -84 105 -02 -07 118 -124 -127 -104 -106 -101 -125 -83 121 -128 -108 103 -72 -111 -111 -116 021 116 -121 
032 100 116 -67 -83 003 000 115 086 -113 010 -106 -89 -127 -85 -80 090 -93 -125 -72 -126 -121 126 033 121 029 -109 -78 -116 -95 125 -122 110 -57 -93 054 081 -73 101 -89 120 -08 -87 -53 -119 -126 114 125 083 100 094 117 119 055 -128 022 093 -77 074 -66 106 -12 085 123 
-123 -121 -126 125 076 124 113 -125 103 011 -102 125 121 -121 114 086 -120 -45 085 025 -124 -86 -94 052 067 -19 -107 021 019 -78 -109 -71 092 -126 125 -91 -10 019 019 -127 -128 012 -105 -05 119 125 029 -35 -60 -120 083 -58 069 125 103 -50 120 089 -116 047 118 061 -103 102 
087 114 -91 026 125 106 094 -127 -110 036 085 063 122 -103 -76 115 102 048 -121 -107 070 092 033 072 121 117 065 110 -87 -61 087 -116 -126 019 -126 021 025 -52 -81 -35 038 012 -01 -64 -116 126 -128 053 072 061 -101 105 071 117 -124 -47 -40 088 -107 015 -89 -57 -94 124 
-13 060 124 126 -60 122 067 -114 108 -125 117 122 067 -121 102 -125 125 068 125 -04 -105 025 -79 -108 126 -74 -117 -82 126 084 -107 119 125 123 -115 124 114 -122 114 012 102 007 049 085 122 109 -112 124 108 -95 -21 055 067 086 110 124 -36 -81 090 126 -49 044 -113 -95 
117 -33 -26 126 -111 122 -65 -37 018 -127 083 -128 121 -120 057 -127 111 -44 120 -26 -111 123 124 126 118 052 124 060 -128 052 -128 124 -126 -06 118 086 -124 -06 -126 -89 024 -13 031 111 082 057 -98 125 120 -123 -120 -72 122 125 -127 -02 -77 008 -88 -128 073 101 103 084 
012 -95 -94 -123 -110 -78 -114 078 -123 022 006 -23 013 125 096 113 -123 -103 -124 -104 -115 106 113 -110 123 -128 -48 -120 021 -44 119 -127 -65 120 -111 111 030 068 -84 -58 103 -106 060 -119 057 107 103 091 114 021 085 -122 -119 126 -113 -100 -25 031 100 120 -48 -55 -118 -121 
-96 -79 126 -36 118 -76 122 126 046 118 -60 126 -43 -128 -73 -122 100 -77 125 -04 -112 122 016 -81 125 -68 109 003 -128 -95 007 007 075 126 -110 085 -126 126 -120 -58 031 -04 -67 124 -112 -101 099 -104 114 115 082 023 114 120 -126 -122 -105 -124 034 -128 -64 -14 017 -112 
-06 -55 -126 100 119 114 122 -80 -39 -124 118 123 065 -127 -55 -121 -127 -124 122 -40 117 126 123 125 -125 111 126 -117 123 064 112 -108 -101 091 116 108 126 120 083 -73 -83 -110 017 -109 -125 -120 122 -119 123 115 -114 -83 048 -106 -78 -120 109 098 -83 -119 -30 -57 119 116 
-115 -73 126 126 069 114 -49 022 096 -02 087 126 -128 122 089 120 122 -21 -73 111 086 093 062 044 -126 073 -128 -122 010 011 -77 -125 033 125 -117 075 126 126 -110 -06 114 062 -70 -81 126 -108 091 -128 116 -119 094 -115 115 070 -22 124 -105 -117 059 -02 050 092 -40 -37 
-92 -58 125 056 -77 124 -116 108 080 -99 099 -110 -127 -99 -94 106 -85 -99 125 -93 029 126 -28 -124 -127 125 -106 085 103 047 -126 113 109 -126 -107 -71 -110 -127 040 -27 123 -102 072 102 120 -83 107 052 -128 012 -114 -49 110 -57 -92 118 011 091 095 126 -58 -100 092 -22 
-119 067 124 -110 007 -103 -76 -119 -107 115 -89 -84 110 -128 -77 033 -127 -103 -127 -96 124 -41 -106 121 -125 -108 -97 -121 126 -96 116 -98 -127 -127 -27 -71 120 122 -116 -74 107 032 063 -92 -112 -121 078 123 -107 -114 -76 038 -98 -126 115 -85 -115 -127 -81 -86 -34 -88 121 055 
-101 -100 126 -83 -119 -108 -112 -128 092 095 112 -07 -96 094 119 106 -115 099 119 116 -123 123 -16 024 123 109 120 -58 126 023 -115 -108 -128 116 -40 -124 -35 -128 -95 -26 -86 069 -37 091 -128 -118 022 -120 -120 028 106 -115 077 055 -127 014 038 117 043 111 042 -92 062 111 
-117 027 -55 089 009 114 -122 119 -119 125 073 122 012 126 039 -112 -68 109 077 041 024 126 -118 126 086 125 114 -53 109 -85 -02 -127 038 -117 082 119 -86 -128 -128 -05 105 099 073 104 012 118 096 082 113 121 -104 048 081 -127 105 -98 114 051 093 110 052 -21 -121 -118 
-63 008 111 -115 -74 123 120 124 -101 092 -75 126 -65 119 -21 087 -127 -88 -117 -108 048 -114 068 -128 060 -50 126 032 071 029 125 088 -73 -92 117 -53 -54 -126 115 -109 126 -36 -68 -77 076 082 080 -110 -37 -85 025 -116 124 -127 109 096 103 -127 111 -66 058 099 103 111 
-121 -96 -126 -128 -92 -127 -101 -71 110 124 113 126 117 091 065 -125 -06 -78 -101 -82 125 121 119 126 126 114 -127 086 126 014 -115 -99 -121 -102 110 -123 -106 087 -56 -73 -123 -56 -76 -64 124 -120 -105 -90 -93 056 -113 -86 110 091 122 099 -26 117 091 -128 -58 036 045 -80 
-69 041 126 123 -25 -95 065 126 091 -60 109 -116 121 125 020 -97 030 008 016 -82 126 126 058 -108 -125 093 -57 -63 -124 -49 071 104 -47 125 119 -104 116 124 060 -52 116 -68 021 004 029 121 -103 120 -128 059 -14 -95 123 115 -121 -123 045 -52 -98 -117 -64 -58 -100 -116 
-31 077 -122 -128 027 -99 -08 -125 118 126 -88 -128 -123 -118 -28 -127 120 -29 -124 -104 114 010 053 082 -55 -42 110 096 126 -41 -124 054 117 -128 -123 -103 039 018 107 -68 -68 -76 074 003 -90 015 120 032 -124 012 -16 -45 013 126 -112 -128 -19 -127 080 124 078 -83 -20 113 
-12 088 -124 -115 114 111 -118 040 118 119 076 099 -126 125 073 100 -121 -118 120 -52 -43 -127 -126 126 060 023 074 -60 053 -31 110 114 -65 -43 122 102 -95 -124 -128 -26 115 053 073 -119 -23 -120 -39 -125 -122 072 056 -103 -125 -88 124 125 -100 103 010 -107 -75 046 020 -80 
-97 030 046 -98 104 109 004 -93 082 108 -13 125 -123 124 -90 -118 -94 049 125 -15 125 -126 -106 126 -126 -125 126 120 -32 -74 126 125 123 125 098 110 098 -127 -126 -95 -10 -22 -37 101 -105 120 -120 -126 -127 101 -118 073 125 125 116 084 073 -05 011 -127 -34 -90 110 -103 
099 088 -117 -127 -37 -94 -123 126 118 -113 081 117 -104 126 -116 -73 126 120 -65 -116 061 -125 -97 124 -121 126 108 012 124 088 124 115 125 -117 -83 004 -127 -118 121 -39 -128 -56 068 126 122 -41 -56 104 120 -73 -118 -124 126 126 -122 093 -14 -90 -115 -117 -81 -94 125 -115 
053 011 -55 -118 -120 091 119 116 109 -98 -87 -128 -125 -127 -114 -88 072 097 -123 -70 -107 -128 -68 125 -127 119 -126 117 126 053 -117 -83 -107 -118 -67 -86 -125 120 124 054 114 -103 002 108 -128 -106 073 -125 -127 -90 -20 -64 -125 125 -127 095 -17 -48 087 126 -83 -31 -03 -61 
104 029 -121 074 -97 119 016 123 -122 -127 -104 120 124 125 119 075 126 -37 076 074 -121 126 119 -128 126 -128 025 116 088 -30 038 -127 038 118 114 -89 -127 125 -103 009 -112 068 -66 119 -126 110 -120 123 -128 019 -119 088 -21 -98 -82 124 -53 -78 085 -121 -34 -87 -126 -116 
-115 -87 -115 -115 081 -126 -19 -119 055 044 -97 -117 -86 123 052 118 119 -70 025 -88 068 031 074 066 -127 -113 102 -79 125 -95 126 -127 110 080 052 -125 121 -110 -59 -40 -126 -110 072 086 125 120 100 -109 -48 -123 -66 -113 -22 125 -98 -114 055 -124 -100 036 -75 -87 -82 106 
-121 -99 124 117 110 071 009 -116 -116 107 115 -81 -105 -60 -99 -122 -92 -103 125 089 -49 -128 -125 113 -126 -61 122 107 119 -95 123 106 -128 093 010 -104 -77 117 123 072 -108 -12 061 125 059 119 123 107 121 -92 -116 042 106 -89 -126 -95 095 109 -63 027 -44 092 111 -63 
-122 094 -110 -128 107 -119 -112 -56 -102 -128 047 -128 -94 126 074 -63 104 -74 -128 -96 002 114 -126 122 119 -128 -55 098 109 -27 -64 036 -126 118 -105 -13 -69 -107 126 -28 -126 008 -20 066 046 004 032 116 126 114 -77 -74 008 013 114 -45 -70 125 -105 115 -21 -80 093 -111 
-18 009 122 119 112 124 -112 -126 085 -114 -115 067 119 126 -104 -120 125 055 -127 -05 -104 126 -120 126 023 -127 -102 042 101 033 -128 -126 118 106 078 124 -103 104 008 -01 122 054 -16 120 -128 110 119 102 121 -104 -51 -94 125 032 -107 120 -103 -57 095 -77 003 054 115 -09 
000 096 -125 126 113 -73 -46 -125 076 046 -86 081 -109 109 042 -118 -75 -90 -72 081 105 111 -102 042 084 126 -126 117 -128 088 -123 126 096 122 -100 -105 -103 -107 -123 039 -124 -11 -44 -91 122 114 -122 -128 -74 -119 112 121 124 -125 -64 -125 092 -77 101 117 -28 075 -112 105 
-123 026 -79 045 015 105 122 113 106 -116 043 121 -110 126 -77 088 084 123 090 -111 008 -117 -88 013 -114 -127 -128 -41 122 -86 -127 -109 -127 -115 033 014 094 -59 -127 106 -19 104 -56 -19 126 -102 122 056 -125 -106 -69 101 053 126 -127 -109 113 125 020 -127 038 -27 -08 104 
123 -01 -37 124 119 111 115 -114 106 -125 -114 122 126 -125 114 -106 -118 121 -103 -105 120 -36 019 -33 -103 126 -128 109 -77 002 125 -79 117 086 025 -99 044 -114 -30 057 124 -16 049 103 125 121 -71 -91 047 112 102 018 055 -127 -105 080 -56 105 -70 126 009 072 -103 098 
-97 087 -110 -94 -91 -122 096 -127 -90 123 -73 -57 -119 126 -119 114 -122 103 -87 -118 -122 125 105 -126 -127 -113 -112 -39 -98 -87 111 -125 105 -125 -115 -125 -112 -128 -125 084 -84 018 -54 -114 123 -121 -71 -97 -118 -122 027 -122 064 117 126 095 -65 120 -115 109 -49 -85 -96 067 
-11 -78 126 017 101 -123 -95 -118 -45 -127 091 126 -82 -97 119 -89 075 116 -128 115 123 -128 115 -128 -128 -127 -100 105 -128 071 -125 -127 -83 125 117 -48 120 -128 102 101 115 -77 -20 113 028 070 -113 126 -127 -48 115 -06 -121 051 -17 -114 102 -127 007 -119 069 -70 -88 -53 
084 -53 125 -118 -13 -43 -116 019 110 103 114 -126 -115 104 -113 -101 103 -120 -117 007 111 125 -63 -126 126 -120 -123 -110 -110 -55 119 -115 -27 -116 -123 012 082 126 -113 -86 104 -87 092 -116 102 116 124 099 124 117 103 067 123 121 111 -119 004 -113 -71 126 059 -60 013 -06 
-121 029 123 125 -81 -12 120 -72 -71 -117 040 085 022 -74 100 004 086 030 031 083 -109 -54 012 070 010 126 125 -41 -128 -27 118 -126 118 -127 057 079 114 124 120 -102 -128 063 -59 041 021 -97 112 124 109 -121 003 -71 063 -124 125 115 052 -123 -37 118 -34 -50 -125 -114 
067 -77 -125 -108 103 125 115 080 -104 118 113 116 122 086 -100 122 084 068 126 052 007 103 -76 -100 115 -28 053 066 -128 -64 -128 123 -87 -125 -66 111 092 125 -126 099 -84 -62 -02 053 -128 054 -124 050 122 -121 -104 -120 125 -124 -76 124 032 -36 090 -126 -65 100 -94 015 
-03 034 -94 126 069 103 -126 -104 -122 -128 097 -88 -125 -116 -119 -57 123 -69 123 -35 017 063 119 126 -128 012 -128 065 126 062 124 091 -108 126 -119 069 -120 -98 043 002 -126 -71 -64 -125 -70 -78 -47 -127 042 -42 080 -15 -21 -110 -123 062 -98 125 025 -119 035 015 -112 100 
-73 070 -127 122 104 086 -62 -127 056 -92 114 123 -61 119 024 126 -25 092 126 081 -76 105 -125 125 116 -115 116 -121 115 -38 -114 -116 124 126 026 123 101 109 -120 -60 -127 076 025 -123 104 085 -101 116 -125 -108 -74 -104 123 123 -121 -94 -07 121 -104 -106 -12 -103 069 -104 
116 081 -126 -126 070 -125 -114 -125 118 -128 -12 126 034 108 046 109 -79 -20 081 108 057 -128 -85 -128 -126 -124 -127 -68 -18 -74 111 -77 -117 119 -96 102 -128 -128 -117 097 -127 100 -43 -125 -68 106 -100 -128 055 -113 -50 -22 109 -123 -114 -103 104 -84 -10 122 -81 -60 -125 -65 
034 -42 -126 002 -119 -124 -121 -126 -120 105 108 -27 -122 -127 110 123 113 038 -42 096 -122 125 122 124 -127 115 -10 052 -103 002 020 093 124 120 -123 123 126 042 103 -100 126 -27 023 -113 111 106 -73 -108 126 -41 -115 -111 122 -119 107 -128 -98 017 -113 -69 028 053 124 -97 
-107 069 -121 117 063 -121 -127 014 120 125 -109 124 -124 123 -34 -52 -128 112 124 115 048 070 -115 -125 009 101 -114 107 -18 -25 -12 126 122 -115 -113 110 -103 -93 123 -09 -19 058 060 113 126 -77 024 112 -118 086 -119 115 -127 113 112 -105 059 -91 111 126 060 094 -116 108 
-71 089 120 123 -101 -122 086 117 121 -121 115 034 120 -128 -91 -23 -124 116 -07 089 -124 097 -124 -40 109 -128 113 121 -128 008 077 118 121 118 -123 043 -53 126 124 -100 -125 -48 -23 -127 -77 -07 -76 096 098 -57 117 -124 090 -108 -107 118 061 022 047 126 023 089 063 -110 
-118 -96 123 -113 117 125 -47 -110 013 -123 063 -128 121 118 092 -124 -108 119 123 -60 -106 -126 106 -122 109 124 116 062 126 021 119 117 125 122 074 -126 -124 -115 125 -97 -123 -99 067 119 -107 -120 108 -121 -87 -25 111 -104 -124 121 113 -118 -79 -101 017 -125 -28 -09 123 117 
118 -05 -127 125 -75 -125 091 -102 -113 -113 053 121 112 126 -88 122 -122 -124 -09 112 -128 -128 119 125 -11 -128 125 -119 126 075 106 -107 003 125 -123 017 122 -101 124 -67 -126 096 007 123 -124 121 058 054 -106 -94 072 -81 -120 -115 121 109 047 120 -57 111 -32 -29 101 -113 
-74 037 124 -112 -110 125 047 -116 -12 -119 -76 -122 -123 -120 -90 110 090 113 119 097 -89 032 -120 -126 043 114 -98 032 126 -91 036 -77 -122 014 -14 -70 -128 003 002 101 -127 -62 -66 -127 -112 -109 -125 -128 -124 020 -103 -27 124 125 119 110 049 -61 007 119 013 -53 123 116 
087 -102 125 124 -77 -108 -115 123 119 -126 -69 126 -85 008 -89 -66 -119 112 -110 -43 -112 -127 118 -57 -122 098 -27 -116 125 -49 125 110 -128 -117 046 -120 -82 -119 -127 -07 125 -24 022 123 -118 097 -125 -106 -128 -122 056 092 117 114 120 -104 -23 -124 -65 058 000 -90 -118 -05 
108 -96 108 080 118 -117 068 104 109 -88 027 -103 -57 077 117 -123 -72 069 094 044 -127 -91 -120 126 -128 -128 114 -94 126 000 122 -117 125 -97 -118 069 101 -128 115 029 102 -94 067 118 113 -14 -123 112 069 118 -55 -53 -125 -128 116 -126 050 -119 -106 -108 -01 -103 000 062 
039 -78 -107 -125 022 -76 110 -122 -113 -19 084 126 087 126 095 -72 -124 040 126 -20 125 -127 -126 126 099 098 086 111 066 -45 119 120 -95 120 -90 -115 126 126 -94 018 -128 062 -71 -97 005 092 -125 118 -127 -109 -59 122 -07 088 125 050 -77 -118 -14 125 045 011 124 -115 
-30 -97 118 124 074 -126 119 123 -115 -31 113 -124 -100 126 115 -125 124 059 -108 -60 047 055 104 087 125 124 -125 078 126 -49 112 121 075 126 001 000 -126 099 -125 -03 115 -57 -45 126 097 -123 -77 116 112 016 -26 -59 051 -126 -119 121 015 -117 -68 -126 011 006 -122 -87 
122 -63 114 -64 075 -126 -80 004 -118 125 059 106 103 120 096 123 -93 094 -09 061 105 -89 084 125 -119 -106 104 -90 -102 040 -07 095 -124 125 -88 102 125 126 -127 -72 -86 -97 051 -64 -18 115 124 -126 -115 015 -56 -101 105 125 114 -126 -80 -126 -100 125 060 102 -103 -96 
-121 -17 -122 -128 025 114 057 036 -99 -122 071 125 088 -04 -31 123 -87 -107 -85 -06 -124 -127 -25 -03 -67 039 110 -09 -94 077 -91 123 -101 112 -124 089 -127 -55 124 -100 -126 105 -06 -125 027 111 -126 124 -94 -121 009 079 -87 114 -128 -127 114 124 -71 119 074 -87 -121 -75 
120 -41 121 124 052 -38 -101 -119 114 020 031 036 092 126 -92 -125 123 089 -127 -98 069 -122 -118 -59 -126 104 -127 -74 074 018 066 106 109 011 122 075 098 118 -123 -29 -11 096 048 125 111 069 124 -14 -30 -122 -44 -49 117 -114 117 126 074 -126 106 062 055 009 093 116 
000 039 123 -127 -116 -125 -73 -127 -103 126 -104 -123 125 -126 -02 122 125 -95 -127 -90 -95 126 123 115 126 086 094 -45 -123 -77 -103 -127 -123 -79 077 118 -125 -123 119 106 126 -10 082 -118 -127 -52 123 126 -108 -21 081 112 098 -121 -102 -126 -96 -127 108 -126 -14 017 120 -78 
110 055 090 026 098 122 -113 -122 -05 126 -81 120 120 126 -109 -106 -125 -58 121 109 -118 -10 080 126 -122 030 -40 112 126 -17 125 094 -127 125 088 115 126 126 069 -110 115 -102 064 -126 110 022 -80 -124 -128 -119 -113 -35 -117 -119 114 126 -106 052 089 121 -52 008 007 111 
-78 -33 -99 -128 032 -114 -126 -72 -112 -126 064 126 -121 126 -93 098 055 120 -121 -85 034 -34 -118 120 126 109 -105 -76 -127 -17 -127 125 -104 102 118 061 023 -121 -98 -105 -112 -21 069 -120 -114 106 -125 -82 -109 -124 -40 036 125 126 -126 -76 -48 -40 095 -111 -50 -26 117 -49 
121 053 114 -127 096 -109 122 126 113 124 -105 -127 113 122 -54 123 -128 118 117 011 122 103 -121 -127 -113 087 -126 005 084 -16 -62 112 -110 -116 -115 118 111 078 126 -77 -126 -08 -17 043 108 111 -56 126 -108 -123 105 112 -96 -122 -124 029 092 048 108 015 -39 -87 -33 032 
-109 -95 116 120 -104 -125 -125 -82 -110 125 053 -69 125 -121 -24 125 125 -114 -127 -105 -105 005 122 -127 -125 -116 126 061 -107 -72 114 -105 125 094 -118 122 118 067 -114 -50 -117 -80 -21 -104 -119 -117 108 -121 126 113 -87 -62 -126 121 111 106 109 -95 020 -96 -03 019 -121 -77 
-120 091 -127 -102 -41 042 -48 107 109 119 060 -128 101 -112 045 102 122 028 -08 -04 100 -128 -115 072 -126 -128 -127 -66 061 037 -102 079 113 031 -96 -116 -127 -122 070 -104 125 -20 -80 -95 003 070 123 116 124 018 -111 -37 041 125 -87 125 111 121 036 -128 075 -85 124 080 
-79 -69 051 040 087 123 091 040 064 -82 -25 094 126 088 -122 062 -127 084 005 -112 -30 -127 -121 114 066 055 126 056 126 029 011 121 039 114 063 -116 011 126 -126 061 -30 109 068 008 -125 -59 -126 -127 -114 -94 -75 -124 075 -117 -127 -127 086 -120 090 126 040 010 121 -110 
-125 -74 -116 101 -88 120 -12 -124 094 120 086 118 -125 -118 103 048 115 074 082 -82 121 -87 -114 -09 -18 -125 -119 073 003 002 118 109 -100 -128 028 -120 093 -128 102 082 -87 -47 -35 -33 125 -78 086 126 -105 003 -40 112 -123 118 -35 113 -30 -126 057 090 -60 012 -125 027 
-111 -97 -121 126 071 095 -119 -128 -69 -71 111 125 -125 126 119 124 -08 032 080 -104 -57 -118 -74 -126 118 003 -90 085 -128 008 109 125 -124 117 -107 106 102 120 -124 -33 122 063 -06 088 -113 -119 118 -118 115 086 -44 063 126 -44 -123 028 -116 108 -79 -128 075 098 118 -49 
-107 096 -128 084 119 121 101 -70 -123 -118 048 125 073 032 075 -36 -126 051 124 044 024 126 -45 -123 126 -87 -127 033 -21 035 110 125 -64 -121 060 121 125 121 125 024 -126 087 073 081 126 -17 043 124 090 006 083 121 -90 -102 124 -116 -69 -67 094 -125 -78 -69 123 -121 
082 089 125 -127 -97 -79 092 -94 109 -128 084 118 103 -128 043 -74 -127 095 113 -89 -68 -128 113 126 -13 126 -33 099 126 -67 -50 -123 -124 097 081 -105 -125 -76 -64 074 125 -110 030 -26 111 053 074 081 -71 004 116 041 -128 -40 -92 -65 040 118 -04 120 076 -61 092 023 
103 043 -77 124 120 -126 -56 -107 -112 -108 108 125 -123 120 072 046 -123 108 -101 084 080 085 -122 -104 -80 -127 100 101 -60 -80 124 112 068 -111 116 071 122 -68 125 070 -68 -82 -12 -119 -103 -25 -119 -128 117 012 084 -43 125 083 125 -119 090 -125 -31 -05 -74 -06 109 112 
-75 032 055 -127 -120 -41 118 -128 108 -34 -102 073 -123 126 -19 103 -124 024 126 111 111 116 000 -119 102 -128 122 005 126 003 -121 115 -43 -120 -118 100 -01 -127 105 100 -127 033 -77 024 -128 117 123 -127 075 -60 016 -96 -126 -125 100 -103 114 -101 062 -107 -74 -01 121 005 
107 -02 110 -123 119 121 -84 126 -74 -114 102 -30 -127 118 -85 123 -126 049 -119 -111 123 094 055 -84 126 112 115 118 -110 -27 -26 122 -127 120 006 -122 -109 -128 055 -105 -97 099 020 -113 -127 088 -109 -109 126 104 -107 -107 -99 -02 -121 120 060 121 -105 -123 036 004 -115 -91 
-117 041 -111 -52 118 -03 058 -109 -117 -127 -80 102 111 126 -113 118 -56 -123 078 -116 124 -79 -125 114 121 123 126 -36 -128 -66 -124 125 126 126 -65 021 -125 117 114 007 126 -101 024 125 -115 -31 -94 -120 -95 119 -19 -95 -86 -58 125 -108 -108 072 -03 -124 -10 080 125 -97 
-70 -54 125 -97 -96 -107 -35 122 012 -117 106 -112 089 -92 055 -127 -125 -117 070 044 125 -112 007 123 124 126 -125 -13 123 085 -40 042 -100 -74 040 052 125 125 -106 008 125 108 075 -117 -124 111 117 -126 -92 075 091 082 119 -123 075 118 -101 016 -108 122 -68 -51 080 081 
-122 -102 088 -100 -124 125 029 126 -121 -83 050 -112 -125 118 073 -124 -125 086 119 -87 -118 -117 116 120 -24 112 -127 -115 -125 -31 -116 096 -18 094 119 118 123 -119 126 -47 -121 014 088 121 -89 -61 -94 107 121 -97 -93 096 095 103 108 -118 067 -105 -67 -87 -56 -21 -116 -33 
-97 -103 112 116 069 111 -96 -117 113 -13 046 -128 -41 123 090 -94 -02 -101 090 -47 -08 -120 037 125 091 124 -74 042 119 -08 -90 111 -95 -128 -123 -35 -124 -127 126 108 126 058 063 121 117 -105 121 126 125 -108 -103 122 122 126 -66 -108 100 -127 021 -117 -79 016 114 099 
121 084 -127 -119 -19 -115 036 -127 061 123 110 079 076 -110 064 120 117 -18 -127 -66 -112 121 054 -116 063 124 113 070 -128 061 116 -125 114 120 -28 -31 117 125 -128 058 126 059 -36 053 121 019 122 -45 123 120 106 -37 090 -128 -126 -125 -73 -50 108 -128 059 039 092 015 
123 096 089 -60 091 -118 062 126 058 -128 112 114 122 -128 001 -35 125 124 111 -107 089 120 123 106 -113 -128 -117 079 -127 085 -58 -127 -37 120 111 -42 067 -124 125 089 126 -66 005 123 125 084 115 -127 046 112 -108 003 122 118 -126 114 -25 068 -77 -126 031 -38 -126 000 
-123 034 -123 117 -84 052 -80 -119 -87 030 093 -128 125 -75 076 125 126 069 -104 -60 115 123 -107 -90 -127 -37 -41 099 126 085 096 031 -128 -102 100 072 -03 -90 102 099 126 060 -36 122 -114 -122 071 -127 124 -114 -106 -107 108 -28 -127 125 060 -122 102 -128 016 -98 -39 112 
-116 070 110 -128 119 -121 040 122 -29 126 109 007 -127 -122 -106 -10 -64 120 015 064 123 -128 054 -116 064 110 003 -49 114 -83 114 -18 -37 -68 -117 -126 122 -88 -127 -23 -109 -12 -51 -125 -128 093 124 -123 -72 114 004 082 114 123 -127 -125 -114 099 078 089 050 -103 -123 -112 
-108 009 109 -127 -06 075 123 -71 -69 -127 096 -128 126 126 116 -37 088 -99 -67 -110 -127 113 -116 -95 -128 -128 -127 111 020 -74 126 070 -81 123 -17 -57 082 -16 -128 -95 065 105 021 -59 121 112 107 -60 -114 092 -88 -94 113 121 119 124 -76 -124 102 103 023 059 -96 -58 
-117 051 113 125 083 -17 -56 -74 -104 -118 060 -37 123 124 091 125 -128 -52 -125 111 -26 126 -121 -63 018 -120 125 -87 073 -82 029 -126 124 -124 122 -56 113 -123 -127 -88 -122 -111 -60 108 -119 -55 -120 115 126 111 115 -05 -126 120 123 -118 107 122 -98 126 005 -97 074 -119 
078 063 -96 -128 101 -126 -125 -127 -119 126 059 126 -128 112 -121 035 -96 007 125 003 085 -98 086 055 125 -128 -114 110 120 -76 -88 -121 089 -126 043 -121 061 124 -112 -74 124 051 -15 -127 088 043 125 123 -99 119 -24 -100 -127 -108 124 -126 063 043 -31 -34 -40 085 -20 -96 
-117 088 -118 099 -93 121 -105 -122 113 121 117 -123 -86 -116 -80 067 -108 -120 -126 -104 065 125 -98 126 080 -93 123 -74 -113 -76 -122 -72 -125 -122 -103 -96 112 -121 108 032 125 -96 076 120 -61 -76 113 121 119 -114 -112 -124 124 122 -118 -94 -69 -77 104 114 -64 101 071 -81 
123 -98 095 126 120 123 120 -124 034 115 096 123 107 114 007 -119 093 -120 104 054 118 -128 124 -126 -126 126 087 -30 124 -86 -117 -54 120 -117 112 -121 -117 118 -126 -60 -84 011 -31 125 054 120 -69 -126 -108 -119 -111 120 -116 -23 086 -126 -110 -61 001 123 020 070 118 066 
-119 060 125 087 -60 121 099 125 112 -99 -96 -111 098 -73 002 -11 082 -94 -128 048 124 098 -122 074 126 -70 -69 -121 126 -23 -107 123 110 126 -115 116 -127 -122 -107 -16 -128 -104 -80 010 -110 -07 085 125 003 104 049 -124 -84 124 -125 -89 081 -33 071 125 013 -59 -117 021 
-114 -17 -100 120 -110 124 107 122 095 122 115 -95 -121 -99 002 -113 089 -29 -113 006 123 -37 124 -71 063 -119 126 077 -123 -94 123 -120 -111 -126 -114 -49 123 107 -124 105 -64 -83 -18 124 122 120 -121 112 125 009 005 113 105 126 -111 -111 082 -126 -67 -126 -62 012 124 039 
-119 072 -40 -103 -99 -41 -127 -117 119 -127 -94 081 125 -46 050 -127 -123 -115 080 069 -15 100 124 -128 -128 124 -127 015 -98 -56 -87 -127 -67 -127 077 -123 126 123 -92 -96 123 004 031 -120 -09 -115 085 126 126 117 -31 -105 058 116 118 -126 -59 -126 073 125 -47 099 -98 112 
-119 075 -127 096 -44 043 121 110 -118 -96 113 126 -127 084 -110 -90 -127 094 -115 -04 125 -127 101 -104 -108 -124 -125 -85 -128 -72 105 -124 -116 -126 -08 -124 122 -14 042 045 -128 106 069 066 027 074 124 001 -71 110 -35 090 085 116 -123 -100 -85 -127 085 -99 015 -72 116 098 
-124 076 -79 -128 093 101 125 -126 -120 -118 102 -127 -87 110 -93 121 -112 086 -120 094 107 121 009 -43 -122 -128 -70 -17 004 077 -125 -70 004 126 -120 -30 126 125 -102 013 -127 -51 -62 -123 124 -30 084 -75 079 -123 -84 -89 -112 -112 125 -100 -32 -125 110 -01 -80 -69 -76 102 
-107 094 125 116 040 095 -86 081 031 -104 -102 048 119 069 -53 124 -110 -116 122 096 -123 125 -92 -110 125 -109 022 -05 118 091 -124 125 -107 120 077 -123 -52 -123 -119 -87 -127 -88 -74 -118 107 -113 125 120 125 094 073 -20 100 111 099 094 -114 -65 -108 122 -67 001 124 109 
124 022 -116 126 -97 -108 -104 -115 118 -119 -75 -120 -115 116 082 -82 108 122 -125 107 -02 -56 091 -98 125 -125 -102 -17 -92 028 -74 -70 -126 124 080 -78 102 122 -112 -108 -122 020 047 -122 043 110 -121 096 -119 045 -41 120 112 071 -115 -117 039 -127 -82 -125 -77 -95 111 033 
106 -20 -112 -95 112 067 063 126 111 -116 -79 -101 101 -114 -85 124 -114 -119 115 -29 108 126 118 121 097 -120 124 110 -117 -29 -125 -126 057 107 105 -83 097 -125 -120 041 127 105 019 -123 -120 -101 114 -120 -125 027 022 -100 -126 -125 -117 -102 -70 -117 084 124 -38 058 116 -112 
026 -52 126 -126 055 -121 -84 086 -121 109 103 124 -88 126 116 123 -57 016 -35 061 -120 126 124 126 112 -124 124 053 071 073 -121 074 -125 125 -121 -56 -55 113 -79 086 095 015 -04 -77 076 023 123 117 125 -83 035 -08 -02 -109 121 123 -09 101 -36 119 -79 -96 050 -90 
085 -26 125 -128 107 003 116 018 039 121 -58 -128 -111 -124 025 110 -125 -53 -124 -87 -112 118 -107 -128 114 126 -108 -78 -128 008 025 -06 -65 -124 -124 -125 -61 -61 079 032 094 097 017 122 077 -119 101 124 -58 -56 045 -83 -60 -126 -89 -109 026 -127 -02 -23 -75 063 124 -50 
-32 066 -127 117 040 -84 -125 040 -120 -124 -50 -80 038 -128 -111 093 112 -122 -52 -17 -08 -92 123 -112 117 -57 010 112 -128 -46 -105 -110 -52 -127 -124 111 -108 -128 092 076 -128 -75 061 014 -128 043 -118 126 080 -108 047 114 070 -125 120 -127 112 -78 -78 005 071 046 -117 115 
114 039 -43 124 121 065 110 023 -64 -126 080 -02 098 096 -112 -126 124 -11 -26 072 -66 -109 -76 016 125 -109 -127 -109 -128 003 -120 052 -109 -117 080 -82 013 -126 -82 000 126 -110 059 089 126 110 -124 -124 -10 111 -99 122 119 -125 125 -120 097 -123 -109 022 -40 -96 -114 021 
093 -36 -80 126 -47 125 -114 117 -115 -37 -105 -104 126 -127 116 113 068 099 -127 113 074 016 -86 -101 114 -90 -120 001 -128 -31 -120 -124 126 -60 093 -94 -127 126 126 031 -125 -26 -55 -99 -109 -122 -118 -121 108 026 080 -22 -110 126 -19 126 107 116 -57 -106 018 -93 081 105 
097 -102 -109 -117 -47 -90 122 126 -115 119 -84 -69 -114 -90 -62 -102 111 112 126 -77 109 021 122 105 -127 -55 093 021 -119 -86 -119 -126 006 -127 -90 -117 -127 -122 109 -19 -51 -16 -45 123 044 030 -122 121 -125 072 117 -07 066 -78 126 -111 -116 -95 040 -106 070 -26 119 -115 
-105 030 046 -59 -42 081 -33 -104 065 -71 103 -118 125 -20 -47 -82 107 -57 122 079 -128 125 007 -84 122 126 119 120 -72 -61 -125 122 -82 -125 -122 -125 -112 075 108 -17 -128 068 -46 125 126 116 -112 -123 -17 117 071 -112 -115 056 -124 -128 091 107 026 109 061 052 -85 -74 
-104 007 122 -128 040 125 -127 -124 -120 -107 001 -128 -124 -120 078 120 114 117 122 100 -128 125 -100 126 039 -117 -128 104 -128 018 124 -115 121 124 060 -19 -126 087 124 057 125 067 059 -118 126 040 122 084 -01 -84 109 103 -126 -126 114 016 -67 087 108 -97 057 086 -109 105 
-86 052 099 -124 071 125 104 -121 -78 -127 -89 026 -69 -103 020 -124 126 -121 -80 070 122 -103 067 122 -118 -125 -126 119 120 -83 -110 -108 -101 -128 048 113 -90 104 121 -65 126 003 002 110 -77 099 119 -127 125 002 112 -26 125 -31 126 074 -44 -35 095 123 -78 -103 116 046 
-118 -02 118 -128 -124 121 100 -121 085 110 -100 -107 -126 -121 -48 -123 123 -68 125 116 126 -94 -67 -126 -105 111 -114 -94 -127 -86 111 -125 -118 -111 120 -125 111 -89 118 -106 110 -107 067 124 -85 -80 -88 -23 -122 114 094 -100 -108 -113 -111 086 113 -62 -11 -126 -60 -92 -111 -121 
-118 -38 062 087 117 062 -38 088 -117 058 -48 -107 125 126 -105 113 -122 107 012 -38 -116 -126 -06 126 126 112 075 -94 -121 -82 -128 104 -105 -63 109 -15 -118 111 -123 -38 126 083 -76 125 076 073 043 -125 124 113 114 -116 -56 122 000 125 108 004 049 117 -68 -57 -19 063 
-21 -89 124 -113 093 -123 076 -120 -112 125 110 126 -66 -35 066 124 -119 -46 -15 -81 071 -125 -109 053 122 124 -126 001 -44 -95 -41 -110 -69 108 115 -35 -123 126 006 053 -124 -93 -57 -119 -39 -114 123 126 -128 118 013 -09 095 -95 066 124 -86 -127 -113 -27 051 -92 123 -106 
088 066 -38 -72 078 -124 -55 -86 121 120 022 -128 -11 071 -122 124 126 -115 -127 116 -64 108 -73 -105 124 -56 105 -104 -91 049 -127 -51 104 117 -40 -66 118 -128 123 008 112 088 -51 -126 -126 -55 118 035 049 -114 109 -110 -127 125 -115 -56 053 -121 -101 126 065 014 -34 -120 
124 -88 126 -114 -70 100 117 -124 -119 -114 109 -37 -123 -115 087 109 123 -102 125 016 -124 -125 121 126 092 -127 122 -100 126 -12 123 -121 -108 101 012 095 -122 121 -100 002 -122 -01 -75 102 126 100 -114 -123 -108 118 100 -89 -123 -125 -121 118 078 -27 -108 126 -80 033 -105 -87 
075 100 072 118 070 018 -61 065 -113 118 060 114 124 126 -122 079 -125 -124 -123 -95 124 068 121 125 121 000 -102 -118 113 056 -126 -87 -38 125 092 -60 -102 -113 -113 -49 126 097 059 -97 124 -100 -126 009 -128 -108 -120 122 -110 -110 125 -128 088 086 -80 -99 -14 067 083 -112 
025 -89 060 -81 -102 -120 -123 -127 -86 097 083 121 -111 -120 116 -122 123 -99 -119 081 -109 -23 -124 -121 -122 -12 -123 -11 -93 044 126 117 -121 097 123 046 -120 -102 -121 -110 125 -73 -69 123 -101 -108 115 -125 125 -92 -99 -23 111 -116 124 126 033 -119 -39 -107 -71 -89 119 100 
112 -82 -127 126 -122 124 -122 -95 -33 -107 -73 -127 044 -125 -10 123 -122 068 -44 111 103 -126 -34 122 125 092 -112 090 117 038 -120 -115 122 -124 -107 -124 -34 -126 -126 -85 099 088 008 -117 126 116 -122 -43 122 -118 -119 -121 098 053 123 120 -58 120 075 125 071 054 -126 -77 
122 -100 -127 -128 053 -125 -109 -123 -101 125 -108 -125 -126 -119 -70 -127 -127 121 116 -88 -128 125 -119 -128 126 119 125 100 110 004 025 126 -123 121 -121 124 052 -127 -125 -80 -128 -83 069 -126 119 062 101 -126 092 -46 -32 -40 125 050 -49 068 103 125 114 124 075 022 -119 -61 
-96 -01 -109 126 051 024 -119 -59 -62 -128 -91 -125 011 126 -85 125 115 067 125 -115 125 095 -21 -109 111 -77 041 106 -85 -13 116 120 005 -126 -118 -126 -128 -111 120 -28 -128 103 019 -71 126 -92 -124 124 -125 -100 118 114 -127 -110 -128 126 -05 -107 -45 -127 058 015 090 103 
097 -80 -124 111 097 -101 -123 -110 -98 126 101 -123 123 124 114 -74 -125 118 090 -118 054 116 -117 -79 -02 014 -121 091 123 021 118 068 122 -127 -98 106 -101 096 119 064 113 -17 070 118 -123 -102 122 -126 117 -123 110 -99 -121 -127 125 126 -106 -120 -30 124 058 -77 109 109 
120 -78 029 -76 081 -103 -123 -10 110 -120 103 -112 125 -127 075 117 -124 -120 125 -12 -103 -108 090 -128 125 094 119 -31 105 000 121 123 093 -106 -71 -109 019 -05 -77 045 -116 059 -56 -124 -128 051 091 125 116 -118 -96 -122 123 -113 -81 016 106 -125 -21 105 017 -84 118 094 
-63 -102 -124 -68 099 113 125 123 007 122 -39 109 112 -107 117 122 113 122 125 -88 -114 -126 -122 121 112 -45 -96 032 095 -25 099 119 118 -127 -07 002 126 124 094 -09 122 -01 048 -125 126 110 125 125 117 -111 -35 068 102 -127 126 -122 -68 125 -79 117 -70 -11 -125 -13 
-98 -88 -115 -127 -114 -104 089 -127 -116 120 082 124 115 -109 104 115 -104 -97 -124 011 -125 -108 117 -126 -125 098 105 -63 -85 -38 -116 -125 119 120 -121 -113 126 120 -108 -57 -117 -112 -80 -123 014 092 036 -108 122 005 -40 076 -92 -106 056 108 -116 124 099 119 022 051 -113 -84 
-23 -76 109 -128 -91 -120 036 058 -12 124 -88 125 126 -128 075 -103 125 -68 -42 062 -126 -56 123 -127 -45 -108 119 097 119 070 -127 115 -123 -128 -122 -65 -127 071 009 066 123 047 031 124 026 028 068 -127 -115 -86 082 097 103 027 -15 115 -37 124 114 065 013 012 -117 114 
102 010 -121 111 -123 -124 124 -110 -108 126 -17 -126 125 114 057 -111 -118 085 123 107 126 -79 071 -128 097 -106 121 -118 -111 -98 -127 112 105 116 100 -58 -104 070 124 -81 114 -81 071 -101 -126 -84 121 -106 099 -60 -67 -86 126 126 121 084 -107 118 -88 080 -79 -40 105 -14 
067 -28 -125 126 095 109 -52 -91 109 -118 -14 -35 126 125 -119 -126 -127 -110 106 -55 -120 -128 107 119 062 -125 -115 -116 -106 -84 -119 -122 107 -125 -67 000 124 109 -92 096 -106 -37 -22 -125 -28 -123 -94 125 117 093 -111 -120 -119 -113 112 119 -87 -79 -97 121 -04 -97 -123 025 
-85 072 020 122 -67 107 -70 125 -39 -126 -107 057 -127 025 -114 -123 124 121 -123 -34 073 009 006 -127 -122 -124 -127 -21 -31 018 -112 -11 -128 -128 -84 123 125 -125 -117 -76 053 068 073 119 -111 -114 -76 002 -41 031 008 079 -123 080 -123 124 -56 123 002 -105 056 062 120 019 
-77 -12 098 018 -115 113 -24 -102 057 042 -39 119 -126 -37 -98 -93 -111 -64 034 108 104 123 033 125 105 126 -123 -41 082 031 126 116 -125 -128 -98 123 -121 -58 082 -98 -113 -17 063 119 -92 119 -125 118 -15 029 -111 -02 120 -113 088 001 -113 106 -72 085 044 045 104 119 
-96 090 122 -104 -59 -68 -100 063 -108 -63 020 126 125 119 -115 124 -27 119 010 037 -119 -83 117 -115 -89 123 -58 111 113 -01 095 112 -109 126 -83 -62 -63 120 -128 -84 124 -46 019 -108 -32 110 125 -103 -126 091 -119 -115 121 -108 -126 080 105 116 112 -86 -07 006 -118 009 
034 -92 -127 118 118 -80 -121 126 120 126 -79 122 120 -121 -104 -103 -127 114 -118 093 095 126 -120 -106 -124 126 -125 110 126 079 -127 126 -101 -104 003 049 126 -116 -111 -99 -103 051 041 -121 126 -115 -123 123 -118 -06 -59 117 -108 -117 125 098 -112 124 -85 -121 -57 -30 -108 -13 
073 052 125 -110 -118 124 -77 -84 -53 117 -100 126 -96 -128 112 026 014 -123 126 -81 085 -92 -50 -125 -126 108 -111 -05 -111 077 126 125 -116 123 -89 -115 -127 -127 126 -99 117 090 081 084 126 053 -74 126 106 027 032 117 -107 -117 -110 -100 -106 087 -98 -93 -43 030 -55 -70 
-113 -38 113 126 067 -117 -16 119 112 -128 -104 126 -125 070 117 -95 123 121 125 -112 073 -13 112 126 126 126 087 103 -123 088 -128 118 -83 -126 -121 122 -123 -80 -128 050 126 075 -17 -125 007 110 -117 -128 126 -103 029 105 098 -128 -128 104 029 -15 112 -125 006 095 107 079 
106 -98 -101 -124 097 119 -124 -111 -118 -116 040 -128 086 111 -114 120 116 -89 126 011 019 089 104 082 -118 121 126 039 -118 -83 -126 -117 113 -120 -122 -117 125 -120 -113 -97 -127 -36 059 -122 -99 -26 -55 -96 -120 -113 -77 -120 -118 -124 -116 111 101 121 093 -127 -25 -49 -124 106 
117 -32 -113 119 -47 112 -120 -125 -119 040 -109 122 -122 125 043 125 125 113 -128 092 126 -128 -125 -24 -119 032 014 100 126 -98 091 -124 -36 064 -66 -123 114 -128 014 060 -126 -40 067 121 014 -89 003 -116 093 024 084 -115 110 -103 -119 -42 093 -116 -19 -15 038 054 -114 -67 
-122 -96 -126 -128 -76 118 -127 069 -102 125 017 125 -127 -128 -96 112 -125 111 124 110 004 -100 109 -100 -106 -114 118 115 -121 045 059 -39 125 -127 104 -115 -81 -126 116 -104 100 009 048 -127 124 -109 -75 126 043 -123 039 -72 -83 125 024 123 -103 101 037 126 -09 060 053 048 
121 -74 -87 -107 -101 -123 098 125 -120 -101 -60 -128 -102 126 -108 117 110 -104 -105 100 124 116 -109 -125 115 -122 -115 -77 -113 -60 -04 113 115 123 -123 102 121 -123 101 106 -122 085 -28 -111 109 -114 -84 -127 -114 -74 -104 074 -121 -126 -121 110 -61 114 112 126 -57 -50 -123 049 
-115 -100 -126 104 -103 080 -09 126 099 103 -48 113 126 106 108 005 -127 123 126 -98 106 -97 058 -127 124 -128 -36 118 108 -23 -81 -42 099 -96 050 048 -126 -88 080 075 126 106 -65 122 126 -107 112 -124 070 093 068 -84 071 074 -59 -122 084 105 029 -128 037 -95 -30 -102 
111 073 -77 118 -118 -78 110 -31 -101 -76 -43 117 -64 126 -93 109 -14 -41 -122 062 124 -128 -113 123 -125 108 118 -112 120 -94 044 -127 100 -124 -99 -91 -123 126 -113 -102 041 074 054 -73 -52 028 -122 -128 114 -112 -53 -65 -86 -121 -125 -128 -81 110 001 017 041 -16 124 -109 
-32 -59 -77 -128 -120 -118 047 089 015 -34 -79 126 113 125 -24 122 120 114 062 -103 -116 -124 -85 -128 -99 -124 -124 -99 -128 015 126 123 -09 -78 075 061 111 108 126 -100 120 063 007 124 014 -117 032 106 126 117 116 059 -123 119 -117 -04 111 -123 106 -127 052 -20 073 -74 
112 -66 126 -48 120 117 -65 096 -113 126 089 -124 122 099 115 111 122 -119 -128 116 124 -44 -95 111 -117 126 -01 -123 -128 -61 067 123 -26 -77 -10 006 008 119 -127 079 120 005 -01 112 -32 -38 060 047 119 -122 -98 -17 069 124 -22 -26 -101 125 111 -125 -49 022 078 -64 
114 048 -127 119 -86 -05 -122 -126 110 043 -65 -128 125 114 106 -127 103 110 080 -20 -125 125 -115 -126 083 -82 -121 -111 116 085 117 112 012 -78 -122 022 108 -06 124 -106 -116 -97 074 -122 -38 100 121 -102 -126 -76 118 -63 095 121 -93 124 096 050 -02 123 038 -88 -104 117 
081 097 -97 100 053 -76 -124 120 053 120 113 126 -27 -128 -28 -126 046 108 -100 -73 035 -19 -106 -127 041 -128 000 -37 126 094 100 118 -80 -112 -46 019 -113 112 077 009 086 036 034 084 -36 038 119 126 -127 101 -25 091 -29 -105 -53 -126 075 -115 092 100 -51 -21 -49 -04 
104 -31 -128 -80 -122 122 108 006 -101 126 -114 -99 -52 -128 084 -126 -118 121 126 047 -127 -59 056 -128 -122 126 126 -72 -126 087 124 -90 -128 -116 104 066 080 097 -125 -90 126 -104 035 -73 125 080 106 -118 126 -120 026 122 -113 125 -114 042 113 083 -102 -109 074 054 -123 015 
-122 -91 121 081 081 -99 101 -44 -68 089 113 122 -117 -106 108 033 -112 075 -65 054 -21 103 113 -85 -127 126 056 -114 116 081 -128 124 116 126 -119 038 123 116 117 110 126 099 -42 -50 -101 -121 -76 -128 -108 099 -107 092 066 073 119 105 -62 -106 092 094 -18 -82 -40 026 
-35 002 -127 126 061 067 109 125 -60 053 -95 039 018 126 113 -112 101 -117 125 -102 -79 106 -15 -122 -128 123 026 114 105 -61 -124 100 125 -105 -117 -80 115 -110 125 -89 115 071 020 122 126 023 104 -114 -85 -11 -72 104 -106 -101 -23 022 -79 -63 065 -125 -80 -12 121 104 
107 062 121 070 -66 122 075 100 065 -84 -49 -128 -128 126 066 045 -109 -118 -128 093 -127 117 -122 124 -83 120 -128 119 081 -84 -128 107 -127 -36 -51 115 -128 -122 064 -82 -26 -21 058 119 113 107 114 126 -126 118 -30 112 068 124 101 114 022 -08 109 -127 034 047 034 -83 
