-31 005 -04 -124 106 -80 124 006 126 -29 061 082 006 -84 060 -116 -92 -127 -77 023 -60 -61 -124 100 -63 -86 -85 -58 -67 -89 -70 -92 000 000 000 000 000 000 000 000 000 000 000 000 000 000 000 000 000 000 000 000 000 000 000 000 000 000 000 000 000 000 000 000 
-105 -10 047 -114 071 -18 084 -62 -124 -56 -128 068 -58 -49 095 121 -75 -128 014 -99 -81 052 -55 -111 -47 -84 -54 -50 068 009 063 087 000 000 000 000 000 000 000 000 000 000 000 000 000 000 000 000 000 000 000 000 000 000 000 000 000 000 000 000 000 000 000 000 
087 -52 -30 -112 097 015 -128 083 -128 038 069 -40 -56 -89 095 115 -57 -128 025 062 038 -108 117 110 060 -44 053 -46 081 016 -06 -12 000 000 000 000 000 000 000 000 000 000 000 000 000 000 000 000 000 000 000 000 000 000 000 000 000 000 000 000 000 000 000 000 
037 022 078 116 -111 020 041 -30 125 092 -128 008 -46 -89 023 103 107 126 -75 036 046 090 126 -113 -16 039 -83 -100 -62 -52 -12 070 000 000 000 000 000 000 000 000 000 000 000 000 000 000 000 000 000 000 000 000 000 000 000 000 000 000 000 000 000 000 000 000 
-98 -75 092 -123 062 -128 -128 -07 -125 -92 117 -07 061 061 010 -127 025 -50 -66 -29 -31 -37 -07 056 -86 -26 -72 043 035 085 042 065 000 000 000 000 000 000 000 000 000 000 000 000 000 000 000 000 000 000 000 000 000 000 000 000 000 000 000 000 000 000 000 000 
108 -67 065 121 -81 105 -105 066 -128 -67 125 006 -51 -05 017 -125 092 -47 -76 077 -12 -77 -127 080 -34 010 -77 062 -21 023 043 -30 000 000 000 000 000 000 000 000 000 000 000 000 000 000 000 000 000 000 000 000 000 000 000 000 000 000 000 000 000 000 000 000 
-119 -21 087 -123 -113 -125 029 081 -118 091 115 075 -101 -35 -75 010 -97 126 008 056 004 018 009 -113 -99 061 -67 058 -55 -67 055 -100 000 000 000 000 000 000 000 000 000 000 000 000 000 000 000 000 000 000 000 000 000 000 000 000 000 000 000 000 000 000 000 000 
118 023 073 -35 -97 029 -124 000 -123 000 124 -62 -106 -78 094 -101 114 -76 071 094 019 -27 -128 -83 062 088 -15 084 -53 017 051 -37 000 000 000 000 000 000 000 000 000 000 000 000 000 000 000 000 000 000 000 000 000 000 000 000 000 000 000 000 000 000 000 000 
007 -17 -80 125 036 -04 125 -64 122 026 -108 081 096 024 073 -83 -49 -88 080 -56 045 -76 -108 028 -42 -67 -79 -90 -37 056 -19 005 000 000 000 000 000 000 000 000 000 000 000 000 000 000 000 000 000 000 000 000 000 000 000 000 000 000 000 000 000 000 000 000 
-121 090 -40 105 100 -127 123 -29 126 030 066 -33 -71 053 -91 -66 -114 -116 -42 -74 080 -102 126 -02 -42 093 089 075 078 040 069 -61 000 000 000 000 000 000 000 000 000 000 000 000 000 000 000 000 000 000 000 000 000 000 000 000 000 000 000 000 000 000 000 000 
-119 -14 -97 125 072 101 -115 -40 120 -101 -113 059 008 -51 -48 -115 -88 114 -49 061 050 -94 -128 054 093 089 -64 -70 -72 081 -70 015 000 000 000 000 000 000 000 000 000 000 000 000 000 000 000 000 000 000 000 000 000 000 000 000 000 000 000 000 000 000 000 000 
-125 -85 087 081 048 -123 053 -50 126 -101 -106 057 -07 072 -68 -115 -66 -58 -62 064 -44 -80 -125 085 072 071 085 033 -33 -56 055 006 000 000 000 000 000 000 000 000 000 000 000 000 000 000 000 000 000 000 000 000 000 000 000 000 000 000 000 000 000 000 000 000 
118 043 091 125 001 079 -23 -49 -127 095 115 071 -85 -73 -90 125 058 -126 -59 032 -67 040 -117 -30 039 070 080 005 088 -07 065 048 000 000 000 000 000 000 000 000 000 000 000 000 000 000 000 000 000 000 000 000 000 000 000 000 000 000 000 000 000 000 000 000 
077 -31 083 -22 -92 126 -123 -52 -127 063 -127 078 -70 -21 -92 -04 -86 126 -82 -84 -58 014 -128 018 021 057 -70 -09 -04 -77 037 -111 000 000 000 000 000 000 000 000 000 000 000 000 000 000 000 000 000 000 000 000 000 000 000 000 000 000 000 000 000 000 000 000 
-10 -71 079 008 060 -17 123 067 064 096 078 -24 058 -52 -51 122 -44 -66 -74 -94 080 035 108 013 -25 -91 -93 -64 -45 028 -22 098 000 000 000 000 000 000 000 000 000 000 000 000 000 000 000 000 000 000 000 000 000 000 000 000 000 000 000 000 000 000 000 000 
115 065 053 093 -90 117 -128 017 -125 -89 -04 -28 -98 -99 -09 124 -49 124 -08 071 086 005 126 -112 -51 071 064 -70 092 080 -33 070 000 000 000 000 000 000 000 000 000 000 000 000 000 000 000 000 000 000 000 000 000 000 000 000 000 000 000 000 000 000 000 000 
073 -100 -95 -125 066 111 126 -43 125 101 -103 -26 059 -98 029 111 103 125 -19 061 -15 -48 -124 -70 -70 -05 082 -08 068 032 033 -55 000 000 000 000 000 000 000 000 000 000 000 000 000 000 000 000 000 000 000 000 000 000 000 000 000 000 000 000 000 000 000 000 
122 -44 054 053 105 126 -126 -80 -128 091 047 -04 060 095 000 -125 112 -125 010 093 -89 -64 -127 -71 049 029 -52 042 072 015 -50 066 000 000 000 000 000 000 000 000 000 000 000 000 000 000 000 000 000 000 000 000 000 000 000 000 000 000 000 000 000 000 000 000 
-126 087 -97 089 -47 -116 -52 053 088 006 124 -33 -30 -46 -24 -111 -72 -127 047 043 074 -44 120 -116 -17 -70 014 047 -76 016 002 081 000 000 000 000 000 000 000 000 000 000 000 000 000 000 000 000 000 000 000 000 000 000 000 000 000 000 000 000 000 000 000 000 
-100 -81 -80 094 -109 126 097 -71 123 061 119 -42 053 -37 081 -127 020 019 -65 -24 -11 033 -125 -52 -87 -90 -65 -80 -41 079 -31 047 000 000 000 000 000 000 000 000 000 000 000 000 000 000 000 000 000 000 000 000 000 000 000 000 000 000 000 000 000 000 000 000 
022 -43 069 038 -114 124 -113 -47 -117 046 087 095 -30 063 -83 093 -110 070 -46 -53 045 -43 -128 069 012 -83 -58 -25 032 -85 018 -101 000 000 000 000 000 000 000 000 000 000 000 000 000 000 000 000 000 000 000 000 000 000 000 000 000 000 000 000 000 000 000 000 
-128 073 081 125 -95 117 101 -56 -127 023 -104 055 -18 -102 -52 119 -102 -63 -80 -33 023 -39 107 -99 029 -40 019 -106 009 -55 -30 068 000 000 000 000 000 000 000 000 000 000 000 000 000 000 000 000 000 000 000 000 000 000 000 000 000 000 000 000 000 000 000 000 
126 051 -62 -33 -83 -128 119 -17 -124 106 048 020 -100 025 -12 -108 -100 112 067 -69 -96 041 -128 010 067 080 058 058 086 -53 034 -91 000 000 000 000 000 000 000 000 000 000 000 000 000 000 000 000 000 000 000 000 000 000 000 000 000 000 000 000 000 000 000 000 
124 -91 063 063 078 067 112 -13 101 084 -119 -82 017 029 077 124 070 088 -56 -02 013 103 -128 -12 082 -71 -29 -85 -49 093 -73 103 000 000 000 000 000 000 000 000 000 000 000 000 000 000 000 000 000 000 000 000 000 000 000 000 000 000 000 000 000 000 000 000 
-119 039 -26 117 -51 -121 -125 -07 -123 054 123 064 -95 -101 -39 120 103 -118 -22 041 -59 -07 124 -94 -62 -29 001 019 009 -57 -65 111 000 000 000 000 000 000 000 000 000 000 000 000 000 000 000 000 000 000 000 000 000 000 000 000 000 000 000 000 000 000 000 000 
104 -67 -62 065 013 067 -108 -02 124 086 -125 -82 082 092 032 121 042 125 015 -93 -82 -68 046 -101 103 002 072 -30 003 -36 -76 102 000 000 000 000 000 000 000 000 000 000 000 000 000 000 000 000 000 000 000 000 000 000 000 000 000 000 000 000 000 000 000 000 
-99 -75 -104 -125 096 -118 -128 -94 113 104 097 -60 -98 028 073 035 -75 -70 053 065 027 -51 -128 096 -88 -76 -32 -16 022 089 030 081 000 000 000 000 000 000 000 000 000 000 000 000 000 000 000 000 000 000 000 000 000 000 000 000 000 000 000 000 000 000 000 000 
095 -65 004 013 079 119 113 -24 058 -52 115 -62 -24 -32 -88 078 049 126 069 055 -04 -69 111 031 024 -70 -15 022 -02 -57 -48 -74 000 000 000 000 000 000 000 000 000 000 000 000 000 000 000 000 000 000 000 000 000 000 000 000 000 000 000 000 000 000 000 000 
-84 007 -60 063 -108 -126 122 -39 100 062 126 -21 -96 086 030 -126 -25 120 -14 -90 -58 035 -123 -113 103 033 075 098 -30 -46 -56 095 000 000 000 000 000 000 000 000 000 000 000 000 000 000 000 000 000 000 000 000 000 000 000 000 000 000 000 000 000 000 000 000 
-121 079 068 004 -94 -126 064 -63 -125 082 -97 056 -97 -96 011 -101 -10 -121 -65 091 -84 -101 124 033 -98 080 -68 -98 069 -65 -61 099 000 000 000 000 000 000 000 000 000 000 000 000 000 000 000 000 000 000 000 000 000 000 000 000 000 000 000 000 000 000 000 000 
-71 094 -52 071 113 -125 126 -46 126 100 097 -12 -27 080 094 125 039 -119 010 -80 -71 074 120 074 -90 -95 049 080 -16 046 -34 -04 000 000 000 000 000 000 000 000 000 000 000 000 000 000 000 000 000 000 000 000 000 000 000 000 000 000 000 000 000 000 000 000 
-116 -82 -37 -108 025 -122 123 -38 125 092 125 -90 037 001 041 118 059 -107 -48 095 013 036 117 -104 053 -29 038 -61 -63 -29 -62 -77 000 000 000 000 000 000 000 000 000 000 000 000 000 000 000 000 000 000 000 000 000 000 000 000 000 000 000 000 000 000 000 000 
116 068 -56 110 -86 126 -94 074 -102 105 125 040 -76 -11 097 121 034 -101 073 -92 027 -89 118 083 -70 -30 047 082 -47 -37 050 005 000 000 000 000 000 000 000 000 000 000 000 000 000 000 000 000 000 000 000 000 000 000 000 000 000 000 000 000 000 000 000 000 
122 082 -93 113 036 -128 120 018 -72 065 124 079 105 -95 009 076 -118 -61 -13 -69 061 089 -128 -97 -56 -19 066 085 037 072 -15 -42 000 000 000 000 000 000 000 000 000 000 000 000 000 000 000 000 000 000 000 000 000 000 000 000 000 000 000 000 000 000 000 000 
-94 035 -37 117 106 124 124 017 -124 -66 -105 005 083 008 -24 -51 -117 103 062 049 010 -71 126 -90 044 087 057 -17 088 -33 006 046 000 000 000 000 000 000 000 000 000 000 000 000 000 000 000 000 000 000 000 000 000 000 000 000 000 000 000 000 000 000 000 000 
093 -35 -100 -127 097 046 -127 057 121 -41 033 063 -100 -58 -30 -106 -97 -128 051 077 -71 034 -43 096 091 011 -17 089 061 -40 065 -73 000 000 000 000 000 000 000 000 000 000 000 000 000 000 000 000 000 000 000 000 000 000 000 000 000 000 000 000 000 000 000 000 
-121 062 010 -97 -10 122 124 -15 105 064 -115 076 -95 092 -82 -115 -108 -124 -52 056 -65 035 116 -42 078 -58 -69 089 008 025 -52 -18 000 000 000 000 000 000 000 000 000 000 000 000 000 000 000 000 000 000 000 000 000 000 000 000 000 000 000 000 000 000 000 000 
-59 -51 001 -124 073 102 124 -07 106 -04 029 -79 037 -97 042 -89 -48 057 069 -41 081 -08 084 027 -39 -36 025 -03 058 -29 -49 092 000 000 000 000 000 000 000 000 000 000 000 000 000 000 000 000 000 000 000 000 000 000 000 000 000 000 000 000 000 000 000 000 
-116 -36 -47 108 026 110 111 025 -124 083 -116 -98 -50 -43 049 -120 098 117 013 070 -23 056 118 104 058 -35 -70 092 083 051 -12 -60 000 000 000 000 000 000 000 000 000 000 000 000 000 000 000 000 000 000 000 000 000 000 000 000 000 000 000 000 000 000 000 000 
-117 -68 -97 -125 071 -128 -85 -65 120 098 -121 051 066 -01 088 121 -25 114 -67 006 -06 057 121 090 -94 -96 -29 -54 017 033 -33 -88 000 000 000 000 000 000 000 000 000 000 000 000 000 000 000 000 000 000 000 000 000 000 000 000 000 000 000 000 000 000 000 000 
-128 -85 -25 108 091 122 121 -05 123 092 125 -77 -100 030 102 085 105 116 -73 043 -20 -60 118 -59 -72 -43 -42 -99 -09 -82 000 106 000 000 000 000 000 000 000 000 000 000 000 000 000 000 000 000 000 000 000 000 000 000 000 000 000 000 000 000 000 000 000 000 
092 -51 -78 -106 -99 118 091 039 119 110 -127 026 -67 080 096 121 -114 -128 069 -26 -85 038 118 -42 030 009 074 -94 083 066 000 106 000 000 000 000 000 000 000 000 000 000 000 000 000 000 000 000 000 000 000 000 000 000 000 000 000 000 000 000 000 000 000 000 
-127 010 -41 119 093 -128 123 -67 -100 -67 -128 -98 017 055 -28 105 -37 125 -29 -37 -48 -101 -126 063 062 002 055 029 -55 051 -18 048 000 000 000 000 000 000 000 000 000 000 000 000 000 000 000 000 000 000 000 000 000 000 000 000 000 000 000 000 000 000 000 000 
-125 068 -86 -123 -105 -92 112 -26 115 043 -123 076 -76 021 -46 -123 069 076 -46 -08 -27 039 106 -08 -96 -21 -17 067 -50 -52 070 -108 000 000 000 000 000 000 000 000 000 000 000 000 000 000 000 000 000 000 000 000 000 000 000 000 000 000 000 000 000 000 000 000 
125 -81 048 -108 034 110 102 032 110 -100 109 094 054 -69 092 122 -09 -86 -58 002 -73 097 -123 097 -95 -92 -78 086 032 052 -64 033 000 000 000 000 000 000 000 000 000 000 000 000 000 000 000 000 000 000 000 000 000 000 000 000 000 000 000 000 000 000 000 000 
-84 -84 -98 -104 -47 -99 124 074 003 017 126 -19 058 -90 019 125 030 117 059 -86 -70 086 121 -56 -14 -26 -85 061 078 075 029 019 000 000 000 000 000 000 000 000 000 000 000 000 000 000 000 000 000 000 000 000 000 000 000 000 000 000 000 000 000 000 000 000 
-127 077 -47 121 107 125 -127 -76 -125 -55 -115 063 096 -88 012 103 098 123 -28 062 082 086 -112 -111 -94 009 074 077 -66 -88 027 051 000 000 000 000 000 000 000 000 000 000 000 000 000 000 000 000 000 000 000 000 000 000 000 000 000 000 000 000 000 000 000 000 
125 006 047 120 -66 125 -126 -69 -128 070 101 -94 -107 014 071 111 -74 126 -46 -82 050 -26 126 079 -06 -60 -49 -22 040 028 027 096 000 000 000 000 000 000 000 000 000 000 000 000 000 000 000 000 000 000 000 000 000 000 000 000 000 000 000 000 000 000 000 000 
114 -97 075 -77 -93 125 119 -74 -126 068 123 038 -91 075 100 105 -109 -118 -28 -99 000 020 -128 035 006 -47 086 001 025 068 041 -51 000 000 000 000 000 000 000 000 000 000 000 000 000 000 000 000 000 000 000 000 000 000 000 000 000 000 000 000 000 000 000 000 
126 -02 -77 125 -28 115 122 -70 125 037 116 -84 081 047 070 014 104 125 -30 -74 -62 088 125 059 099 058 -88 087 019 -53 -24 105 000 000 000 000 000 000 000 000 000 000 000 000 000 000 000 000 000 000 000 000 000 000 000 000 000 000 000 000 000 000 000 000 
-100 043 -97 -126 087 122 126 -23 116 036 109 091 -12 018 061 -124 096 -127 -48 048 065 073 117 086 -91 073 081 -36 -63 042 024 101 000 000 000 000 000 000 000 000 000 000 000 000 000 000 000 000 000 000 000 000 000 000 000 000 000 000 000 000 000 000 000 000 
115 -72 026 -109 092 -124 118 -82 123 -102 091 065 098 036 -46 125 -108 126 021 -09 067 -44 110 086 011 -79 070 053 -03 040 -07 -105 000 000 000 000 000 000 000 000 000 000 000 000 000 000 000 000 000 000 000 000 000 000 000 000 000 000 000 000 000 000 000 000 
-13 -38 075 -67 -63 100 -87 021 115 -68 060 067 -94 090 073 123 119 -128 -69 -67 -40 008 -102 064 050 -21 -73 -46 -38 -80 -48 -93 000 000 000 000 000 000 000 000 000 000 000 000 000 000 000 000 000 000 000 000 000 000 000 000 000 000 000 000 000 000 000 000 
112 005 -27 125 074 112 119 -32 -115 -63 126 -58 -83 -02 -15 118 -120 -65 -46 067 -54 -81 126 -99 100 -58 -57 -68 -40 054 027 -78 000 000 000 000 000 000 000 000 000 000 000 000 000 000 000 000 000 000 000 000 000 000 000 000 000 000 000 000 000 000 000 000 
-122 -92 071 119 040 126 106 034 -125 076 105 -81 -16 010 080 124 070 115 066 062 -74 105 126 070 -69 -99 024 037 -40 -86 041 -21 000 000 000 000 000 000 000 000 000 000 000 000 000 000 000 000 000 000 000 000 000 000 000 000 000 000 000 000 000 000 000 000 
-122 -75 095 093 082 125 -126 -29 115 109 -121 027 -85 -59 -77 -111 -123 -127 -11 032 084 -17 -107 100 -74 -81 -86 -108 -28 034 -12 -39 000 000 000 000 000 000 000 000 000 000 000 000 000 000 000 000 000 000 000 000 000 000 000 000 000 000 000 000 000 000 000 000 
-19 022 088 -121 020 114 -126 -28 090 004 -122 064 049 027 -13 -123 095 -21 063 -87 -11 -79 -128 -29 071 045 029 053 -22 055 -51 -76 000 000 000 000 000 000 000 000 000 000 000 000 000 000 000 000 000 000 000 000 000 000 000 000 000 000 000 000 000 000 000 000 
091 -94 039 102 -110 -123 121 080 089 002 -102 036 -31 -16 101 122 116 007 -87 -76 -59 -09 111 -101 023 -76 027 -33 -48 -62 038 085 000 000 000 000 000 000 000 000 000 000 000 000 000 000 000 000 000 000 000 000 000 000 000 000 000 000 000 000 000 000 000 000 
-91 017 005 103 083 109 -128 024 126 102 -110 -26 -49 -81 079 -84 -83 -125 -14 037 -75 010 -108 -09 -69 050 027 -30 -70 -11 -49 -98 000 000 000 000 000 000 000 000 000 000 000 000 000 000 000 000 000 000 000 000 000 000 000 000 000 000 000 000 000 000 000 000 
125 -36 -57 121 -103 071 -29 -38 -122 -102 -127 069 -105 063 089 -87 -114 086 072 057 -03 -09 124 011 057 -68 072 -86 020 -06 013 053 000 000 000 000 000 000 000 000 000 000 000 000 000 000 000 000 000 000 000 000 000 000 000 000 000 000 000 000 000 000 000 000 
-122 -12 059 038 -22 -122 -128 -90 110 063 118 074 -98 038 -88 113 115 -68 047 -11 065 110 087 -103 087 -64 -39 085 -85 -58 034 052 000 000 000 000 000 000 000 000 000 000 000 000 000 000 000 000 000 000 000 000 000 000 000 000 000 000 000 000 000 000 000 000 
124 -48 -90 125 112 -102 -120 -31 124 019 -92 -37 099 089 -80 120 028 125 -63 008 -64 -24 114 -112 097 -17 -25 011 064 -16 -07 093 000 000 000 000 000 000 000 000 000 000 000 000 000 000 000 000 000 000 000 000 000 000 000 000 000 000 000 000 000 000 000 000 
-13 012 043 -126 -105 108 -120 046 -127 -79 -119 047 020 -71 093 006 -110 -120 -56 -60 -18 -43 -120 -90 -67 057 -69 -05 -82 -77 069 044 000 000 000 000 000 000 000 000 000 000 000 000 000 000 000 000 000 000 000 000 000 000 000 000 000 000 000 000 000 000 000 000 
088 -88 -09 -82 -20 -116 -128 048 -128 086 -111 023 022 039 -55 -117 -122 -128 -70 -95 -67 077 -125 -85 005 077 059 087 044 -31 -44 040 000 000 000 000 000 000 000 000 000 000 000 000 000 000 000 000 000 000 000 000 000 000 000 000 000 000 000 000 000 000 000 000 
123 016 -30 090 087 -127 108 072 -128 -71 -128 -35 034 -98 -70 -104 -101 017 -23 -39 -04 092 -120 108 -106 081 075 -24 031 048 054 -85 000 000 000 000 000 000 000 000 000 000 000 000 000 000 000 000 000 000 000 000 000 000 000 000 000 000 000 000 000 000 000 000 
126 091 -100 -119 052 109 -128 -41 -124 068 124 -65 085 053 -90 125 099 -75 077 -35 -55 023 106 -93 067 -42 082 068 068 025 -53 069 000 000 000 000 000 000 000 000 000 000 000 000 000 000 000 000 000 000 000 000 000 000 000 000 000 000 000 000 000 000 000 000 
125 082 -68 119 -100 114 -128 -81 -103 071 118 -88 045 073 082 -124 097 -128 -41 073 019 069 119 -84 -80 054 -06 096 061 -22 070 103 000 000 000 000 000 000 000 000 000 000 000 000 000 000 000 000 000 000 000 000 000 000 000 000 000 000 000 000 000 000 000 000 
-78 034 087 109 102 115 117 -84 121 089 113 -32 -85 -74 084 -93 110 112 008 -84 -35 -59 117 002 -49 -100 -11 -60 073 -51 070 -64 000 000 000 000 000 000 000 000 000 000 000 000 000 000 000 000 000 000 000 000 000 000 000 000 000 000 000 000 000 000 000 000 
126 078 001 -76 -113 120 108 -07 -128 108 122 -89 103 047 -47 075 090 -124 064 -09 -71 104 116 -103 023 -20 049 -05 015 -67 -58 -38 000 000 000 000 000 000 000 000 000 000 000 000 000 000 000 000 000 000 000 000 000 000 000 000 000 000 000 000 000 000 000 000 
036 066 -82 084 017 -118 -124 -56 -127 -38 -116 050 029 -49 079 113 098 117 066 071 -36 069 -68 110 -46 -13 065 097 007 059 -42 097 000 000 000 000 000 000 000 000 000 000 000 000 000 000 000 000 000 000 000 000 000 000 000 000 000 000 000 000 000 000 000 000 
-126 037 069 -12 095 109 119 049 -128 086 089 -83 -41 087 006 118 016 -128 -03 -80 032 044 -128 -110 -73 -26 087 -73 061 019 -33 064 000 000 000 000 000 000 000 000 000 000 000 000 000 000 000 000 000 000 000 000 000 000 000 000 000 000 000 000 000 000 000 000 
123 -77 045 107 104 122 -128 -51 -128 022 -126 036 -106 -71 080 123 -103 065 -08 068 -81 -114 -117 051 088 022 079 068 057 -65 -69 109 000 000 000 000 000 000 000 000 000 000 000 000 000 000 000 000 000 000 000 000 000 000 000 000 000 000 000 000 000 000 000 000 
110 038 092 124 -83 116 -125 021 123 085 123 077 -65 -26 065 -81 106 -106 051 -06 060 007 098 -97 -105 063 -64 -76 066 007 042 013 000 000 000 000 000 000 000 000 000 000 000 000 000 000 000 000 000 000 000 000 000 000 000 000 000 000 000 000 000 000 000 000 
-123 -16 069 117 -80 126 -112 -16 124 -40 126 -10 -69 083 -91 082 118 125 059 -65 040 086 -126 -99 043 075 -14 -90 083 -56 -39 061 000 000 000 000 000 000 000 000 000 000 000 000 000 000 000 000 000 000 000 000 000 000 000 000 000 000 000 000 000 000 000 000 
-127 062 088 126 -09 -54 -55 005 125 017 -122 098 -24 -24 -64 -84 -121 -66 -50 -14 -06 -06 077 015 -105 002 056 -102 018 078 052 -87 000 000 000 000 000 000 000 000 000 000 000 000 000 000 000 000 000 000 000 000 000 000 000 000 000 000 000 000 000 000 000 000 
121 -39 003 -67 -14 126 119 -69 -128 -95 -88 -95 -103 -82 -67 113 102 125 -54 057 047 018 -125 -25 -23 -64 -23 010 053 -28 -70 -35 000 000 000 000 000 000 000 000 000 000 000 000 000 000 000 000 000 000 000 000 000 000 000 000 000 000 000 000 000 000 000 000 
-126 048 026 -88 112 -30 084 -06 126 -97 119 -47 101 065 102 -09 -109 065 -73 005 066 050 021 -106 -75 -66 086 -01 -26 016 -45 029 000 000 000 000 000 000 000 000 000 000 000 000 000 000 000 000 000 000 000 000 000 000 000 000 000 000 000 000 000 000 000 000 
010 -92 -80 015 048 062 -127 006 123 093 125 089 -35 -55 092 -125 -115 -123 039 057 079 -80 -93 090 -98 -21 089 001 -19 -38 066 -12 000 000 000 000 000 000 000 000 000 000 000 000 000 000 000 000 000 000 000 000 000 000 000 000 000 000 000 000 000 000 000 000 
102 044 -89 114 039 094 125 068 -111 105 -126 085 003 -51 -18 094 -121 100 -79 075 002 053 126 105 -53 070 031 -10 055 -84 -02 108 000 000 000 000 000 000 000 000 000 000 000 000 000 000 000 000 000 000 000 000 000 000 000 000 000 000 000 000 000 000 000 000 
-121 -55 -85 124 -10 -124 117 001 113 -92 044 -55 049 -76 060 -34 104 -126 063 024 052 -54 125 -37 086 048 -61 -100 036 014 059 100 000 000 000 000 000 000 000 000 000 000 000 000 000 000 000 000 000 000 000 000 000 000 000 000 000 000 000 000 000 000 000 000 
-53 007 058 -74 -108 -96 052 066 -128 -23 -115 -03 -95 091 072 -121 090 -128 054 -47 070 -43 126 -13 -44 -78 -39 -38 -48 061 -35 -110 000 000 000 000 000 000 000 000 000 000 000 000 000 000 000 000 000 000 000 000 000 000 000 000 000 000 000 000 000 000 000 000 
-125 -95 -39 114 -111 -115 116 -67 113 066 111 046 086 -87 066 -124 -47 -98 051 -05 079 079 119 -96 009 045 -01 -43 058 -59 -18 105 000 000 000 000 000 000 000 000 000 000 000 000 000 000 000 000 000 000 000 000 000 000 000 000 000 000 000 000 000 000 000 000 
-75 -101 041 084 107 -124 -126 -66 109 098 -125 088 -29 090 -02 -76 -12 -77 074 -12 -49 -07 108 -60 015 036 -60 -83 057 -54 -28 -15 000 000 000 000 000 000 000 000 000 000 000 000 000 000 000 000 000 000 000 000 000 000 000 000 000 000 000 000 000 000 000 000 
126 089 -67 -126 -100 112 117 -19 -125 073 119 067 012 -31 -93 126 006 079 -14 -07 -65 079 -128 026 -78 -93 -90 034 -61 -41 -69 109 000 000 000 000 000 000 000 000 000 000 000 000 000 000 000 000 000 000 000 000 000 000 000 000 000 000 000 000 000 000 000 000 
124 078 -30 113 066 123 120 -78 120 081 114 -96 -55 -98 102 -109 072 122 -32 043 -21 101 121 -83 080 -23 -48 065 033 -66 -79 085 000 000 000 000 000 000 000 000 000 000 000 000 000 000 000 000 000 000 000 000 000 000 000 000 000 000 000 000 000 000 000 000 
123 026 077 -74 -58 116 115 -80 123 047 114 -81 087 -08 082 -106 -43 118 -48 094 -95 -78 120 -112 -61 -83 -87 053 081 033 -23 050 000 000 000 000 000 000 000 000 000 000 000 000 000 000 000 000 000 000 000 000 000 000 000 000 000 000 000 000 000 000 000 000 
123 -77 033 063 -103 115 109 066 118 076 112 062 -77 -38 102 -105 016 123 -91 -61 -84 061 118 -40 103 -93 -92 -17 076 -88 073 052 000 000 000 000 000 000 000 000 000 000 000 000 000 000 000 000 000 000 000 000 000 000 000 000 000 000 000 000 000 000 000 000 
-128 -100 -89 123 096 -115 119 072 117 -90 125 -80 032 -86 041 120 099 121 -20 -92 023 -11 -119 -109 -83 -11 032 080 083 003 010 -85 000 000 000 000 000 000 000 000 000 000 000 000 000 000 000 000 000 000 000 000 000 000 000 000 000 000 000 000 000 000 000 000 
113 043 -81 118 -76 -101 115 -42 117 -15 122 -81 -56 -31 079 009 -119 -128 -79 012 028 075 117 044 -30 -66 -64 -101 025 -04 -03 080 000 000 000 000 000 000 000 000 000 000 000 000 000 000 000 000 000 000 000 000 000 000 000 000 000 000 000 000 000 000 000 000 
124 -03 -97 -122 -19 122 115 039 114 075 120 -86 -05 -40 104 124 101 122 -03 056 003 043 -128 095 090 084 -70 060 036 -26 -82 -09 000 000 000 000 000 000 000 000 000 000 000 000 000 000 000 000 000 000 000 000 000 000 000 000 000 000 000 000 000 000 000 000 
-125 091 036 -116 -79 -123 125 -17 118 -24 -126 -59 -80 -41 -83 046 026 126 -70 081 -06 071 -122 076 -56 -58 -65 052 -20 -14 006 -91 000 000 000 000 000 000 000 000 000 000 000 000 000 000 000 000 000 000 000 000 000 000 000 000 000 000 000 000 000 000 000 000 
126 -46 040 040 -03 125 -128 -15 088 -20 -128 071 -95 -82 -77 -71 060 123 082 -43 042 101 -69 107 038 033 071 028 -81 -21 060 -22 000 000 000 000 000 000 000 000 000 000 000 000 000 000 000 000 000 000 000 000 000 000 000 000 000 000 000 000 000 000 000 000 
-98 -79 053 080 -100 -53 087 069 -106 -73 123 -100 -78 058 -29 123 -107 088 020 -103 -11 045 -120 053 -07 -25 -25 073 -77 -82 003 -102 000 000 000 000 000 000 000 000 000 000 000 000 000 000 000 000 000 000 000 000 000 000 000 000 000 000 000 000 000 000 000 000 
126 035 073 125 -76 -105 -77 069 113 -100 -10 013 -03 -91 -30 118 -101 027 -68 071 070 -17 -120 -07 007 -72 -59 097 -61 088 074 -54 000 000 000 000 000 000 000 000 000 000 000 000 000 000 000 000 000 000 000 000 000 000 000 000 000 000 000 000 000 000 000 000 
118 -23 095 -123 111 -128 089 036 -117 -30 -128 017 -83 023 -21 -127 -58 -108 -35 -81 046 113 126 044 081 -37 -02 093 -67 023 -55 052 000 000 000 000 000 000 000 000 000 000 000 000 000 000 000 000 000 000 000 000 000 000 000 000 000 000 000 000 000 000 000 000 
029 -70 022 011 092 123 -70 -15 -92 096 -128 -96 -94 -85 099 043 -91 -23 -26 -58 025 099 103 102 -87 043 -67 -98 058 -74 032 -84 000 000 000 000 000 000 000 000 000 000 000 000 000 000 000 000 000 000 000 000 000 000 000 000 000 000 000 000 000 000 000 000 
111 -102 093 041 090 -128 061 -46 -128 056 -128 -90 -81 -40 024 100 074 126 037 032 035 -25 126 -21 -02 043 -07 082 028 -34 070 -03 000 000 000 000 000 000 000 000 000 000 000 000 000 000 000 000 000 000 000 000 000 000 000 000 000 000 000 000 000 000 000 000 
126 -23 082 -32 097 -127 -118 -92 -123 049 -120 044 100 -93 041 121 -03 125 -12 -89 087 -101 125 -97 -88 -21 -83 -85 084 -17 049 096 000 000 000 000 000 000 000 000 000 000 000 000 000 000 000 000 000 000 000 000 000 000 000 000 000 000 000 000 000 000 000 000 
125 -70 -49 124 -67 121 126 071 120 013 053 -99 087 004 -90 -123 -101 -128 -76 046 047 072 037 087 -67 -92 -16 -31 054 -09 068 086 000 000 000 000 000 000 000 000 000 000 000 000 000 000 000 000 000 000 000 000 000 000 000 000 000 000 000 000 000 000 000 000 
-116 -76 023 112 -115 125 -128 041 123 -92 -124 -98 042 070 096 120 -116 123 -84 -21 -79 020 -84 013 -62 -24 061 029 016 001 063 -85 000 000 000 000 000 000 000 000 000 000 000 000 000 000 000 000 000 000 000 000 000 000 000 000 000 000 000 000 000 000 000 000 
-128 004 -85 057 -69 -100 126 000 -125 -26 126 -58 -09 -56 040 -123 -61 -89 008 083 -48 039 126 058 011 044 072 -34 -56 010 -72 104 000 000 000 000 000 000 000 000 000 000 000 000 000 000 000 000 000 000 000 000 000 000 000 000 000 000 000 000 000 000 000 000 
008 -31 -46 102 030 033 124 062 -91 098 -101 016 -41 038 094 -79 -50 -125 -56 017 -46 075 -116 -111 -69 -68 072 -18 -02 035 -43 007 000 000 000 000 000 000 000 000 000 000 000 000 000 000 000 000 000 000 000 000 000 000 000 000 000 000 000 000 000 000 000 000 
125 -24 085 115 -38 009 119 080 -28 -84 124 004 101 -69 -85 -124 086 -124 -40 -62 048 -105 -76 -104 087 052 083 038 031 071 -28 -12 000 000 000 000 000 000 000 000 000 000 000 000 000 000 000 000 000 000 000 000 000 000 000 000 000 000 000 000 000 000 000 000 
122 -85 050 -92 112 -122 -117 -37 110 089 117 -15 -29 -12 -76 -89 -51 113 -40 045 -77 -15 126 -18 010 090 -68 -28 -58 -20 060 -106 000 000 000 000 000 000 000 000 000 000 000 000 000 000 000 000 000 000 000 000 000 000 000 000 000 000 000 000 000 000 000 000 
097 051 091 124 -102 086 125 -73 125 -55 078 008 -78 004 005 -110 -62 105 027 -18 -85 075 124 -100 004 -80 -64 -60 -76 022 034 105 000 000 000 000 000 000 000 000 000 000 000 000 000 000 000 000 000 000 000 000 000 000 000 000 000 000 000 000 000 000 000 000 
126 036 090 102 -74 -117 -123 049 -127 -65 -95 -32 081 -77 -16 -106 118 -93 -06 -69 042 094 126 017 -09 076 051 016 023 -61 055 -67 000 000 000 000 000 000 000 000 000 000 000 000 000 000 000 000 000 000 000 000 000 000 000 000 000 000 000 000 000 000 000 000 
083 -18 -15 086 044 086 125 -88 126 019 084 -93 -48 093 024 -124 -94 -128 050 -84 -49 -68 066 007 -06 -81 033 036 064 002 -44 098 000 000 000 000 000 000 000 000 000 000 000 000 000 000 000 000 000 000 000 000 000 000 000 000 000 000 000 000 000 000 000 000 
114 078 070 -115 097 118 -126 019 124 089 125 065 006 -88 046 124 119 126 032 -21 081 -98 125 085 078 012 058 -42 -54 048 000 099 000 000 000 000 000 000 000 000 000 000 000 000 000 000 000 000 000 000 000 000 000 000 000 000 000 000 000 000 000 000 000 000 
-127 085 -23 -120 -15 107 -18 035 -114 -73 -127 -88 -104 -33 -94 123 -52 -120 -19 092 -84 020 -121 -98 -92 -06 061 -97 022 -23 -73 060 000 000 000 000 000 000 000 000 000 000 000 000 000 000 000 000 000 000 000 000 000 000 000 000 000 000 000 000 000 000 000 000 
-127 066 -45 -28 111 -102 125 015 -127 087 -127 080 063 -81 030 -120 -110 -128 -39 002 -18 -108 -120 -106 070 079 026 002 -57 058 -28 001 000 000 000 000 000 000 000 000 000 000 000 000 000 000 000 000 000 000 000 000 000 000 000 000 000 000 000 000 000 000 000 000 
-128 -37 -95 125 091 063 -127 040 -128 -94 125 002 091 084 -21 115 033 -90 -10 027 051 077 126 039 066 029 089 -78 -37 039 -10 046 000 000 000 000 000 000 000 000 000 000 000 000 000 000 000 000 000 000 000 000 000 000 000 000 000 000 000 000 000 000 000 000 
112 -63 -35 125 -67 -90 119 -17 -37 -63 -112 044 -87 058 -70 029 -41 -128 -53 066 -59 041 057 041 -19 -28 -74 093 019 -60 -37 -21 000 000 000 000 000 000 000 000 000 000 000 000 000 000 000 000 000 000 000 000 000 000 000 000 000 000 000 000 000 000 000 000 
009 -79 -68 -69 041 116 041 057 125 -62 -123 -70 -97 087 094 -07 -118 -123 -24 -87 -32 097 124 -106 -24 -07 -52 013 004 031 -68 -93 000 000 000 000 000 000 000 000 000 000 000 000 000 000 000 000 000 000 000 000 000 000 000 000 000 000 000 000 000 000 000 000 
-120 054 -52 118 080 007 126 -45 -128 033 -124 -85 -108 085 016 122 -107 116 061 024 -32 -08 124 -61 044 018 089 047 035 -60 052 -63 000 000 000 000 000 000 000 000 000 000 000 000 000 000 000 000 000 000 000 000 000 000 000 000 000 000 000 000 000 000 000 000 
071 009 092 035 -97 -57 057 -67 106 057 -109 -07 054 084 074 057 -109 -68 067 055 -33 099 126 081 -73 -42 -15 074 -34 -13 001 101 000 000 000 000 000 000 000 000 000 000 000 000 000 000 000 000 000 000 000 000 000 000 000 000 000 000 000 000 000 000 000 000 
-112 087 -34 014 090 000 -08 -65 -127 -14 -106 -34 017 044 -73 112 -57 108 040 -50 -84 -107 -128 -113 -01 017 080 033 018 034 -71 099 000 000 000 000 000 000 000 000 000 000 000 000 000 000 000 000 000 000 000 000 000 000 000 000 000 000 000 000 000 000 000 000 
094 042 015 119 051 -69 126 039 -105 106 -45 -100 -50 088 -64 -127 094 024 -60 -08 -13 -69 -128 -02 080 -68 -47 093 -79 089 -46 -98 000 000 000 000 000 000 000 000 000 000 000 000 000 000 000 000 000 000 000 000 000 000 000 000 000 000 000 000 000 000 000 000 
-120 -77 087 109 -01 -112 104 083 -125 009 -123 008 -42 018 079 -21 023 122 039 040 025 079 -118 -110 -74 -20 002 -56 -04 063 037 094 000 000 000 000 000 000 000 000 000 000 000 000 000 000 000 000 000 000 000 000 000 000 000 000 000 000 000 000 000 000 000 000 
-128 -10 096 091 110 117 126 -82 109 099 114 -70 -95 065 078 020 079 005 018 055 -67 032 -128 092 006 -02 -35 -56 038 060 -24 -105 000 000 000 000 000 000 000 000 000 000 000 000 000 000 000 000 000 000 000 000 000 000 000 000 000 000 000 000 000 000 000 000 
105 -29 054 016 102 095 125 046 118 015 -93 055 -51 -43 058 -127 006 -128 -22 -64 053 081 070 021 -104 040 077 -93 -49 -58 015 -35 000 000 000 000 000 000 000 000 000 000 000 000 000 000 000 000 000 000 000 000 000 000 000 000 000 000 000 000 000 000 000 000 
-118 089 080 -81 037 122 -128 047 126 059 -90 021 -33 -85 082 -127 014 121 -02 052 065 -59 -70 -109 -95 -69 047 085 038 -79 -33 -68 000 000 000 000 000 000 000 000 000 000 000 000 000 000 000 000 000 000 000 000 000 000 000 000 000 000 000 000 000 000 000 000 
-128 079 032 125 -94 -108 126 055 -124 059 -113 -05 -100 -94 085 124 105 -125 -43 -74 067 -84 -127 -108 042 083 014 055 -30 045 -70 -41 000 000 000 000 000 000 000 000 000 000 000 000 000 000 000 000 000 000 000 000 000 000 000 000 000 000 000 000 000 000 000 000 
-116 -79 -69 -125 -76 126 123 010 -80 042 -127 069 -34 072 -79 098 -106 -128 -74 -34 010 -32 -118 -80 -56 033 027 -09 062 029 -13 015 000 000 000 000 000 000 000 000 000 000 000 000 000 000 000 000 000 000 000 000 000 000 000 000 000 000 000 000 000 000 000 000 
-114 -50 -63 -16 008 097 -75 085 096 -99 -128 -69 -13 091 040 -29 095 -128 024 -53 086 012 -52 -91 -84 -41 022 027 -68 -84 -66 074 000 000 000 000 000 000 000 000 000 000 000 000 000 000 000 000 000 000 000 000 000 000 000 000 000 000 000 000 000 000 000 000 
-127 -81 091 015 066 121 126 -19 126 -27 -123 -34 046 -73 005 -87 -46 124 -48 -45 -39 -45 -128 001 078 -69 -90 057 026 -72 -40 071 000 000 000 000 000 000 000 000 000 000 000 000 000 000 000 000 000 000 000 000 000 000 000 000 000 000 000 000 000 000 000 000 
-118 080 049 000 057 -128 -125 -88 125 -92 120 -49 093 015 006 -116 -94 018 -67 -44 080 100 111 -56 -97 -38 -68 -96 -62 085 018 038 000 000 000 000 000 000 000 000 000 000 000 000 000 000 000 000 000 000 000 000 000 000 000 000 000 000 000 000 000 000 000 000 
-88 -67 -86 102 -98 -116 121 -25 102 -88 112 -51 083 011 -36 125 033 103 -70 058 -72 083 -126 106 -95 -55 -70 -36 -58 087 -58 088 000 000 000 000 000 000 000 000 000 000 000 000 000 000 000 000 000 000 000 000 000 000 000 000 000 000 000 000 000 000 000 000 
-92 -66 053 117 -91 -127 125 020 097 -63 092 -92 027 -47 045 -113 064 -115 -76 -98 -01 030 -128 -57 -32 035 -17 -108 083 -54 -75 041 000 000 000 000 000 000 000 000 000 000 000 000 000 000 000 000 000 000 000 000 000 000 000 000 000 000 000 000 000 000 000 000 
114 -104 -59 -126 080 -128 -125 -39 101 -36 124 090 025 -72 003 125 113 118 -80 -72 060 -29 117 091 001 -21 070 071 086 -81 -42 086 000 000 000 000 000 000 000 000 000 000 000 000 000 000 000 000 000 000 000 000 000 000 000 000 000 000 000 000 000 000 000 000 
-119 -94 -93 119 -92 113 122 065 123 057 126 -61 -53 -50 067 -99 114 125 -81 069 072 101 120 -106 027 026 -79 -58 071 -86 -56 093 000 000 000 000 000 000 000 000 000 000 000 000 000 000 000 000 000 000 000 000 000 000 000 000 000 000 000 000 000 000 000 000 
-127 092 036 122 113 114 120 -71 123 106 116 -88 042 049 008 113 112 120 -55 017 -36 113 117 019 038 -80 -20 013 091 059 -44 -40 000 000 000 000 000 000 000 000 000 000 000 000 000 000 000 000 000 000 000 000 000 000 000 000 000 000 000 000 000 000 000 000 
-95 053 -48 027 -12 122 115 019 120 104 126 087 -23 015 018 -04 112 121 013 -71 -60 092 116 083 -63 013 -11 -88 086 -07 -02 085 000 000 000 000 000 000 000 000 000 000 000 000 000 000 000 000 000 000 000 000 000 000 000 000 000 000 000 000 000 000 000 000 
067 -04 089 -110 073 -118 -128 078 118 056 115 -102 -07 -84 -80 -109 064 112 051 -04 -64 031 120 088 -67 072 -55 -08 095 -58 -67 -84 000 000 000 000 000 000 000 000 000 000 000 000 000 000 000 000 000 000 000 000 000 000 000 000 000 000 000 000 000 000 000 000 
-126 -45 -41 -119 114 -127 -124 013 117 014 -117 -82 -108 031 073 125 081 -128 -39 -23 -80 102 113 035 -73 084 -29 -54 041 -51 -27 113 000 000 000 000 000 000 000 000 000 000 000 000 000 000 000 000 000 000 000 000 000 000 000 000 000 000 000 000 000 000 000 000 
111 036 -56 -123 077 117 -120 -85 119 -36 125 -44 083 089 -53 124 073 -128 -69 068 -49 -26 -119 -102 -98 -70 -86 -75 029 -27 -83 109 000 000 000 000 000 000 000 000 000 000 000 000 000 000 000 000 000 000 000 000 000 000 000 000 000 000 000 000 000 000 000 000 
087 042 102 110 -78 101 126 -81 100 -21 -113 -100 -107 032 -53 -127 036 022 005 -05 035 101 116 102 -62 -14 076 -78 -22 -86 005 025 000 000 000 000 000 000 000 000 000 000 000 000 000 000 000 000 000 000 000 000 000 000 000 000 000 000 000 000 000 000 000 000 
-67 069 -50 -70 112 -115 107 -81 -128 -54 -119 082 018 -04 -68 -116 031 117 070 040 091 -56 -113 095 081 -05 -23 076 086 -86 -19 -09 000 000 000 000 000 000 000 000 000 000 000 000 000 000 000 000 000 000 000 000 000 000 000 000 000 000 000 000 000 000 000 000 
098 086 -51 -70 -110 104 123 -46 -126 059 -112 083 -88 -89 -61 -115 099 111 063 011 034 -112 110 -76 -80 078 -41 -73 034 -51 008 085 000 000 000 000 000 000 000 000 000 000 000 000 000 000 000 000 000 000 000 000 000 000 000 000 000 000 000 000 000 000 000 000 
-122 079 -40 117 004 -126 120 -13 117 081 116 089 104 033 104 -121 112 121 -66 -97 -71 091 120 -24 -01 -53 001 -100 -39 -38 -28 -92 000 000 000 000 000 000 000 000 000 000 000 000 000 000 000 000 000 000 000 000 000 000 000 000 000 000 000 000 000 000 000 000 
122 -17 081 123 109 121 113 -25 126 042 120 -83 064 058 -54 -124 102 116 047 029 048 006 118 063 091 085 -62 -85 081 -70 016 -86 000 000 000 000 000 000 000 000 000 000 000 000 000 000 000 000 000 000 000 000 000 000 000 000 000 000 000 000 000 000 000 000 
122 077 -73 059 -65 117 124 002 122 096 126 090 -55 -64 053 -113 112 123 -60 071 -21 101 -107 -89 008 -40 -66 011 -01 -75 033 -90 000 000 000 000 000 000 000 000 000 000 000 000 000 000 000 000 000 000 000 000 000 000 000 000 000 000 000 000 000 000 000 000 
122 -30 -93 119 014 -63 -101 -63 124 006 -108 045 008 -52 -16 -127 -120 111 041 073 017 026 118 -101 099 -99 -44 -97 071 089 -50 -51 000 000 000 000 000 000 000 000 000 000 000 000 000 000 000 000 000 000 000 000 000 000 000 000 000 000 000 000 000 000 000 000 
-128 -96 -75 -127 -61 109 125 072 -91 011 122 -27 063 -26 003 121 069 074 -54 -78 080 019 -128 -102 -104 081 038 -61 001 003 013 -39 000 000 000 000 000 000 000 000 000 000 000 000 000 000 000 000 000 000 000 000 000 000 000 000 000 000 000 000 000 000 000 000 
117 -99 -40 -93 -73 109 -117 005 -127 048 125 090 -73 -28 059 119 -92 097 030 -69 060 011 077 -10 -04 -42 -60 056 -21 -67 -18 102 000 000 000 000 000 000 000 000 000 000 000 000 000 000 000 000 000 000 000 000 000 000 000 000 000 000 000 000 000 000 000 000 
-116 061 -01 117 -02 126 096 -28 -128 003 -101 082 086 053 080 124 109 -119 -71 021 071 069 118 005 044 -69 -11 071 083 037 -18 -112 000 000 000 000 000 000 000 000 000 000 000 000 000 000 000 000 000 000 000 000 000 000 000 000 000 000 000 000 000 000 000 000 
-123 008 065 056 -92 090 119 -47 111 -04 -124 -34 106 071 022 -121 084 -122 -74 -97 -94 033 -121 -43 100 -86 -24 031 -42 -87 -05 -105 000 000 000 000 000 000 000 000 000 000 000 000 000 000 000 000 000 000 000 000 000 000 000 000 000 000 000 000 000 000 000 000 
036 016 003 -82 010 -63 123 -79 001 087 -123 -79 -52 -46 004 -105 116 125 -04 -88 069 -02 -123 058 -13 089 056 015 045 -66 -76 -76 000 000 000 000 000 000 000 000 000 000 000 000 000 000 000 000 000 000 000 000 000 000 000 000 000 000 000 000 000 000 000 000 
124 075 -81 124 038 071 124 -76 109 029 105 013 079 -76 -23 -126 019 101 046 -35 023 071 -126 008 -94 -60 -21 -101 036 082 000 -56 000 000 000 000 000 000 000 000 000 000 000 000 000 000 000 000 000 000 000 000 000 000 000 000 000 000 000 000 000 000 000 000 
-35 -76 013 112 -97 -111 -127 -52 107 -01 094 -99 087 -102 027 -111 012 069 -10 -35 -62 056 125 -53 -17 -69 -37 013 -08 -67 011 078 000 000 000 000 000 000 000 000 000 000 000 000 000 000 000 000 000 000 000 000 000 000 000 000 000 000 000 000 000 000 000 000 
112 -18 -47 -95 -95 124 -122 069 115 054 -101 -14 -96 048 070 122 109 -115 -17 055 034 098 120 025 -06 091 062 017 018 031 059 091 000 000 000 000 000 000 000 000 000 000 000 000 000 000 000 000 000 000 000 000 000 000 000 000 000 000 000 000 000 000 000 000 
125 -10 037 -85 -41 085 126 059 126 -104 120 -93 -61 -88 046 112 -08 107 -69 -101 073 -81 121 006 -78 -46 -92 -31 075 -49 005 -92 000 000 000 000 000 000 000 000 000 000 000 000 000 000 000 000 000 000 000 000 000 000 000 000 000 000 000 000 000 000 000 000 
116 -70 -91 091 023 093 -127 035 -120 083 116 -55 -107 071 078 125 -110 -126 -53 083 -73 028 115 -40 008 020 -24 -74 099 035 008 069 000 000 000 000 000 000 000 000 000 000 000 000 000 000 000 000 000 000 000 000 000 000 000 000 000 000 000 000 000 000 000 000 
-123 -82 -27 -128 -96 113 102 046 125 -90 109 -55 -86 -91 065 -21 060 -127 -48 -84 -92 -66 -121 016 -53 -18 046 053 082 -07 -44 033 000 000 000 000 000 000 000 000 000 000 000 000 000 000 000 000 000 000 000 000 000 000 000 000 000 000 000 000 000 000 000 000 
-127 -82 -76 080 090 -37 -68 072 -110 -34 -119 -68 -103 -32 065 -59 047 -128 -47 053 -10 -59 -25 -43 -96 070 -87 -19 -72 -75 -64 108 000 000 000 000 000 000 000 000 000 000 000 000 000 000 000 000 000 000 000 000 000 000 000 000 000 000 000 000 000 000 000 000 
116 088 081 -124 065 042 -66 056 104 025 121 068 -10 084 030 -96 -107 126 038 010 -40 -25 107 -76 -64 -78 070 -91 059 018 -05 -28 000 000 000 000 000 000 000 000 000 000 000 000 000 000 000 000 000 000 000 000 000 000 000 000 000 000 000 000 000 000 000 000 
117 -66 -63 120 -80 -48 119 -58 108 -84 108 074 084 090 -02 -127 058 -127 013 -61 062 -17 108 -43 -33 065 087 085 069 -08 -20 -05 000 000 000 000 000 000 000 000 000 000 000 000 000 000 000 000 000 000 000 000 000 000 000 000 000 000 000 000 000 000 000 000 
-91 008 -14 -128 091 -25 114 -35 -89 -107 126 076 049 -83 -20 121 -67 -127 016 -84 011 052 114 -36 -74 093 023 089 -10 -02 049 -109 000 000 000 000 000 000 000 000 000 000 000 000 000 000 000 000 000 000 000 000 000 000 000 000 000 000 000 000 000 000 000 000 
079 -95 -48 -124 087 -97 066 069 125 -85 125 093 -07 -99 -82 -120 106 -95 042 069 054 -96 -72 -41 068 -69 -52 090 -02 -07 053 032 000 000 000 000 000 000 000 000 000 000 000 000 000 000 000 000 000 000 000 000 000 000 000 000 000 000 000 000 000 000 000 000 
-111 -78 -20 019 056 126 083 047 -128 -52 -16 -72 102 082 -97 117 -113 043 010 035 019 088 126 036 -76 076 042 024 046 -73 058 100 000 000 000 000 000 000 000 000 000 000 000 000 000 000 000 000 000 000 000 000 000 000 000 000 000 000 000 000 000 000 000 000 
-20 -23 072 113 -78 125 -117 -25 126 090 120 078 -97 -34 -97 012 -113 -127 -63 -55 -05 -33 044 -51 044 -38 -36 018 -34 -87 -42 -85 000 000 000 000 000 000 000 000 000 000 000 000 000 000 000 000 000 000 000 000 000 000 000 000 000 000 000 000 000 000 000 000 
045 -72 -28 035 055 -123 041 058 -110 -95 124 -68 -93 068 084 -72 117 -128 028 -06 -65 025 -75 051 -92 069 -24 -43 -69 019 011 106 000 000 000 000 000 000 000 000 000 000 000 000 000 000 000 000 000 000 000 000 000 000 000 000 000 000 000 000 000 000 000 000 
111 023 067 -104 -102 -113 -128 -84 -125 -80 012 -101 093 090 031 -106 -117 -128 -61 -51 064 075 121 109 009 089 -64 069 -54 -05 024 -102 000 000 000 000 000 000 000 000 000 000 000 000 000 000 000 000 000 000 000 000 000 000 000 000 000 000 000 000 000 000 000 000 
106 -90 082 -88 009 -118 -22 036 -122 -104 -127 035 -87 -68 092 -125 -81 -128 -34 -20 -77 044 093 -48 -103 -67 -69 -21 014 -35 -09 -109 000 000 000 000 000 000 000 000 000 000 000 000 000 000 000 000 000 000 000 000 000 000 000 000 000 000 000 000 000 000 000 000 
-20 023 -35 -127 -113 -128 125 045 126 099 124 058 103 073 -82 -117 -107 -126 -76 -97 -48 103 -101 066 046 -71 054 063 -78 -71 -11 034 000 000 000 000 000 000 000 000 000 000 000 000 000 000 000 000 000 000 000 000 000 000 000 000 000 000 000 000 000 000 000 000 
113 -05 033 105 100 057 -37 071 089 042 124 -87 -51 076 088 085 060 066 -20 -89 -44 071 105 039 -61 -80 075 048 -87 067 -57 -106 000 000 000 000 000 000 000 000 000 000 000 000 000 000 000 000 000 000 000 000 000 000 000 000 000 000 000 000 000 000 000 000 
126 -52 -08 -125 112 -128 -99 -69 124 082 -97 -78 -101 -41 -97 -07 080 126 -70 -22 -44 013 124 066 -58 070 025 063 041 010 066 -67 000 000 000 000 000 000 000 000 000 000 000 000 000 000 000 000 000 000 000 000 000 000 000 000 000 000 000 000 000 000 000 000 
-125 -88 096 -127 112 109 -30 069 122 016 124 049 -92 074 -24 -80 -120 126 071 013 043 -47 125 051 -05 -78 090 -84 -38 -50 055 102 000 000 000 000 000 000 000 000 000 000 000 000 000 000 000 000 000 000 000 000 000 000 000 000 000 000 000 000 000 000 000 000 
125 -84 035 121 075 046 108 037 -29 105 122 077 074 -11 054 125 -87 125 031 -11 062 012 -128 -45 -91 -08 -24 066 -76 057 -01 -01 000 000 000 000 000 000 000 000 000 000 000 000 000 000 000 000 000 000 000 000 000 000 000 000 000 000 000 000 000 000 000 000 
097 029 -17 013 -10 126 032 018 126 -47 097 -40 -15 -62 -94 -19 091 103 042 -89 076 101 -127 069 063 091 -84 027 063 004 -07 -76 000 000 000 000 000 000 000 000 000 000 000 000 000 000 000 000 000 000 000 000 000 000 000 000 000 000 000 000 000 000 000 000 
114 -22 -34 125 -111 -109 -128 -88 -126 -82 -127 -07 -65 034 074 001 023 -128 076 058 -55 013 125 105 029 -29 -61 099 021 074 -42 055 000 000 000 000 000 000 000 000 000 000 000 000 000 000 000 000 000 000 000 000 000 000 000 000 000 000 000 000 000 000 000 000 
104 066 030 -106 -56 -126 126 010 126 057 082 -88 -05 043 -94 -123 -63 119 -65 -54 087 063 -91 110 006 073 069 -24 071 -79 019 -100 000 000 000 000 000 000 000 000 000 000 000 000 000 000 000 000 000 000 000 000 000 000 000 000 000 000 000 000 000 000 000 000 
-72 003 018 066 -86 -99 -125 -07 -127 030 -114 069 006 -92 081 103 -115 -126 041 080 -82 111 126 024 043 -93 020 071 055 059 -18 -105 000 000 000 000 000 000 000 000 000 000 000 000 000 000 000 000 000 000 000 000 000 000 000 000 000 000 000 000 000 000 000 000 
-82 -55 -47 123 111 -128 -107 -61 -127 034 123 080 -12 091 088 -09 -34 094 081 000 021 -19 093 076 027 087 048 -72 028 -58 008 030 000 000 000 000 000 000 000 000 000 000 000 000 000 000 000 000 000 000 000 000 000 000 000 000 000 000 000 000 000 000 000 000 
118 -80 071 126 -113 -121 125 067 126 -74 -128 075 075 -47 082 109 115 -127 074 -95 -61 -31 -127 058 -55 -60 -73 -52 042 -87 -09 066 000 000 000 000 000 000 000 000 000 000 000 000 000 000 000 000 000 000 000 000 000 000 000 000 000 000 000 000 000 000 000 000 
121 036 095 -121 110 103 112 082 -119 -82 037 -06 -31 080 013 -115 -65 -44 -35 -36 081 -10 -78 095 -61 053 -84 -57 027 -83 014 087 000 000 000 000 000 000 000 000 000 000 000 000 000 000 000 000 000 000 000 000 000 000 000 000 000 000 000 000 000 000 000 000 
-117 085 041 030 091 121 -127 -42 125 -64 118 067 -59 -77 077 121 -59 104 012 053 034 102 126 -102 -61 -78 -74 026 083 041 -29 -107 000 000 000 000 000 000 000 000 000 000 000 000 000 000 000 000 000 000 000 000 000 000 000 000 000 000 000 000 000 000 000 000 
-38 -48 -76 -16 -24 -128 065 082 122 -36 125 -26 086 077 069 103 -82 126 -77 -96 -63 -58 030 000 031 -97 -69 -17 -73 -13 024 -109 000 000 000 000 000 000 000 000 000 000 000 000 000 000 000 000 000 000 000 000 000 000 000 000 000 000 000 000 000 000 000 000 
097 041 -34 107 -108 126 109 -57 126 030 -116 -08 091 094 092 064 071 -107 -65 054 051 083 -124 -79 -87 006 081 -89 -85 071 027 058 000 000 000 000 000 000 000 000 000 000 000 000 000 000 000 000 000 000 000 000 000 000 000 000 000 000 000 000 000 000 000 000 
-128 037 083 118 -62 -128 125 -85 117 -75 -127 022 -29 091 -91 -11 062 005 028 -97 -23 107 125 -110 -06 -11 071 -68 -27 -77 -32 017 000 000 000 000 000 000 000 000 000 000 000 000 000 000 000 000 000 000 000 000 000 000 000 000 000 000 000 000 000 000 000 000 
092 035 076 -107 078 -126 126 -76 -120 -41 -55 040 -68 045 -89 -16 -122 108 -32 055 -17 -76 121 102 080 005 -36 -99 -91 028 -59 063 000 000 000 000 000 000 000 000 000 000 000 000 000 000 000 000 000 000 000 000 000 000 000 000 000 000 000 000 000 000 000 000 
-127 -47 082 104 -53 050 -33 066 -116 -98 126 016 044 -28 -75 051 107 091 032 074 -73 -97 125 -92 -05 063 058 063 -83 -35 -02 038 000 000 000 000 000 000 000 000 000 000 000 000 000 000 000 000 000 000 000 000 000 000 000 000 000 000 000 000 000 000 000 000 
034 092 -46 113 -09 -124 126 -41 -124 050 111 -39 069 087 090 -78 117 126 001 025 014 105 121 111 094 094 079 034 079 -32 032 -30 000 000 000 000 000 000 000 000 000 000 000 000 000 000 000 000 000 000 000 000 000 000 000 000 000 000 000 000 000 000 000 000 
068 003 005 076 102 -127 102 -87 -103 101 004 -70 -14 087 040 -115 115 -75 009 081 -10 -84 -126 071 073 065 067 072 -60 056 -01 -69 000 000 000 000 000 000 000 000 000 000 000 000 000 000 000 000 000 000 000 000 000 000 000 000 000 000 000 000 000 000 000 000 
126 052 081 -07 101 -113 122 073 100 -95 124 078 -63 037 -11 -124 101 -91 -44 066 -18 018 -119 -92 -101 -65 039 019 -30 017 011 026 000 000 000 000 000 000 000 000 000 000 000 000 000 000 000 000 000 000 000 000 000 000 000 000 000 000 000 000 000 000 000 000 
126 -11 042 087 084 -128 004 017 076 094 124 -79 -84 083 -30 -125 075 126 -40 045 -45 -39 -82 099 -95 -29 003 063 -85 077 053 -105 000 000 000 000 000 000 000 000 000 000 000 000 000 000 000 000 000 000 000 000 000 000 000 000 000 000 000 000 000 000 000 000 
-125 052 009 -125 -61 119 016 054 -02 -75 -128 000 -107 095 072 038 088 -109 015 080 066 -108 126 095 101 086 -40 076 -21 -34 021 091 000 000 000 000 000 000 000 000 000 000 000 000 000 000 000 000 000 000 000 000 000 000 000 000 000 000 000 000 000 000 000 000 
-117 098 -35 -118 -35 123 -120 058 122 -39 123 -34 -31 081 077 -110 -114 126 053 014 074 -100 126 -82 061 038 009 065 003 045 062 050 000 000 000 000 000 000 000 000 000 000 000 000 000 000 000 000 000 000 000 000 000 000 000 000 000 000 000 000 000 000 000 000 
086 094 011 125 083 125 068 081 -128 -01 071 095 -57 -35 -83 -124 -109 061 -76 054 -75 -42 -67 -98 -104 -14 031 -94 041 -58 005 032 000 000 000 000 000 000 000 000 000 000 000 000 000 000 000 000 000 000 000 000 000 000 000 000 000 000 000 000 000 000 000 000 
-127 061 -94 086 047 106 -128 -05 118 046 -121 068 -17 -59 -24 096 094 074 -82 -55 046 104 -128 111 024 069 084 -94 -79 038 022 -75 000 000 000 000 000 000 000 000 000 000 000 000 000 000 000 000 000 000 000 000 000 000 000 000 000 000 000 000 000 000 000 000 
-104 051 046 122 -93 103 116 -92 110 -95 111 037 -90 -88 -05 095 -87 109 -14 -93 025 098 119 -93 062 -23 070 063 086 -41 -28 -07 000 000 000 000 000 000 000 000 000 000 000 000 000 000 000 000 000 000 000 000 000 000 000 000 000 000 000 000 000 000 000 000 
-108 -81 084 101 051 058 121 -64 -128 087 -118 018 -69 071 -85 -54 -53 -128 057 -89 038 068 -111 011 052 -03 -22 -75 013 -49 -50 103 000 000 000 000 000 000 000 000 000 000 000 000 000 000 000 000 000 000 000 000 000 000 000 000 000 000 000 000 000 000 000 000 
124 047 057 -107 -04 124 -128 055 -125 058 084 -93 087 076 027 -125 057 -100 019 029 -28 -107 118 011 048 -53 -01 043 061 -90 -04 -27 000 000 000 000 000 000 000 000 000 000 000 000 000 000 000 000 000 000 000 000 000 000 000 000 000 000 000 000 000 000 000 000 
111 -62 -103 119 -95 -123 118 -82 122 -87 -128 -73 -104 -64 053 110 092 125 -44 -74 -49 079 122 -106 039 -55 009 -78 -55 085 -51 -09 000 000 000 000 000 000 000 000 000 000 000 000 000 000 000 000 000 000 000 000 000 000 000 000 000 000 000 000 000 000 000 000 
121 -78 -14 -127 -81 107 119 -05 120 -78 -127 080 -75 037 087 -116 085 124 -16 042 -78 -82 119 092 -83 088 -21 058 -28 -73 017 -59 000 000 000 000 000 000 000 000 000 000 000 000 000 000 000 000 000 000 000 000 000 000 000 000 000 000 000 000 000 000 000 000 
126 -33 -48 124 090 110 108 -05 107 098 124 -15 087 007 016 -126 078 124 -18 056 065 043 116 110 064 -53 -21 063 -50 049 053 -37 000 000 000 000 000 000 000 000 000 000 000 000 000 000 000 000 000 000 000 000 000 000 000 000 000 000 000 000 000 000 000 000 
-84 -85 037 124 -41 -127 -114 -35 -127 -105 -103 001 055 036 045 117 110 -126 014 -72 -55 106 121 -60 034 063 050 055 -08 -75 054 105 000 000 000 000 000 000 000 000 000 000 000 000 000 000 000 000 000 000 000 000 000 000 000 000 000 000 000 000 000 000 000 000 
110 -92 -19 115 -89 096 114 030 117 035 115 070 100 -74 -40 119 090 023 014 -90 -68 044 114 092 -99 -37 -36 -47 009 029 -54 009 000 000 000 000 000 000 000 000 000 000 000 000 000 000 000 000 000 000 000 000 000 000 000 000 000 000 000 000 000 000 000 000 
112 -02 014 048 037 108 108 -63 119 100 112 -71 009 075 105 039 -116 096 -01 013 -59 -42 045 -109 -74 079 053 -99 -29 044 -63 055 000 000 000 000 000 000 000 000 000 000 000 000 000 000 000 000 000 000 000 000 000 000 000 000 000 000 000 000 000 000 000 000 
-127 092 -04 -119 030 111 114 -18 -128 097 045 -37 079 035 075 -112 109 124 069 042 087 -50 126 050 085 -35 084 081 -14 028 -15 -79 000 000 000 000 000 000 000 000 000 000 000 000 000 000 000 000 000 000 000 000 000 000 000 000 000 000 000 000 000 000 000 000 
125 -61 -83 120 -112 121 -16 -75 -121 107 -125 -13 081 -81 -01 -123 -38 124 063 090 060 074 -77 -32 -08 -50 008 073 025 -35 012 074 000 000 000 000 000 000 000 000 000 000 000 000 000 000 000 000 000 000 000 000 000 000 000 000 000 000 000 000 000 000 000 000 
121 080 072 -127 103 126 -122 -42 125 090 -93 -19 093 -56 -03 020 094 126 069 -16 025 -107 125 -27 101 094 -32 -105 -57 -49 067 096 000 000 000 000 000 000 000 000 000 000 000 000 000 000 000 000 000 000 000 000 000 000 000 000 000 000 000 000 000 000 000 000 
-12 -63 096 048 -28 -126 -95 079 -128 -81 -128 058 -10 086 -86 123 -109 -104 -53 -71 -82 -104 047 082 071 013 043 009 020 -11 -58 -84 000 000 000 000 000 000 000 000 000 000 000 000 000 000 000 000 000 000 000 000 000 000 000 000 000 000 000 000 000 000 000 000 
-89 -94 -10 121 093 125 -128 024 126 107 -127 -28 -91 -34 101 -39 -61 125 005 -45 -38 040 -126 -64 -73 -84 -69 -100 -73 007 021 091 000 000 000 000 000 000 000 000 000 000 000 000 000 000 000 000 000 000 000 000 000 000 000 000 000 000 000 000 000 000 000 000 
-123 009 -67 125 103 -128 126 006 086 -100 -96 046 -95 062 044 109 084 -102 019 -98 -63 088 -124 038 010 071 -48 -86 -53 -88 -64 079 000 000 000 000 000 000 000 000 000 000 000 000 000 000 000 000 000 000 000 000 000 000 000 000 000 000 000 000 000 000 000 000 
-95 -41 025 059 -104 125 125 -77 -125 -90 100 060 -96 -76 -33 089 093 126 008 080 035 042 126 -92 -101 072 -77 -04 056 -21 051 -79 000 000 000 000 000 000 000 000 000 000 000 000 000 000 000 000 000 000 000 000 000 000 000 000 000 000 000 000 000 000 000 000 
-125 -62 -78 -93 -72 111 -105 -34 -126 083 -128 -89 075 -59 -87 102 012 126 -56 -42 -30 -103 -120 072 -77 082 034 074 075 -79 057 -23 000 000 000 000 000 000 000 000 000 000 000 000 000 000 000 000 000 000 000 000 000 000 000 000 000 000 000 000 000 000 000 000 
124 010 005 -38 072 -127 -120 051 126 -88 118 -45 -106 046 -36 -127 000 122 058 -36 056 094 126 013 -104 -24 -53 -15 002 -58 062 075 000 000 000 000 000 000 000 000 000 000 000 000 000 000 000 000 000 000 000 000 000 000 000 000 000 000 000 000 000 000 000 000 
-88 057 -63 118 -32 091 126 066 -119 -105 -77 039 012 097 -17 039 -94 037 006 093 085 -98 -126 062 -94 -85 018 -06 -56 -44 021 026 000 000 000 000 000 000 000 000 000 000 000 000 000 000 000 000 000 000 000 000 000 000 000 000 000 000 000 000 000 000 000 000 
042 020 078 037 064 -91 086 -67 -128 -38 111 047 039 -54 057 -125 093 024 001 -59 -21 -01 111 067 -06 -26 -13 072 071 007 -70 -18 000 000 000 000 000 000 000 000 000 000 000 000 000 000 000 000 000 000 000 000 000 000 000 000 000 000 000 000 000 000 000 000 
-112 041 089 072 -79 028 -79 009 -30 -79 -123 -38 073 062 -69 124 -91 125 -52 085 -24 022 108 070 -84 -56 -18 -12 078 -73 -65 080 000 000 000 000 000 000 000 000 000 000 000 000 000 000 000 000 000 000 000 000 000 000 000 000 000 000 000 000 000 000 000 000 
-127 076 094 053 -110 072 008 076 101 047 -128 -80 028 025 -70 099 -44 -128 008 -47 083 060 -06 091 -101 -88 024 -41 058 -36 -46 -45 000 000 000 000 000 000 000 000 000 000 000 000 000 000 000 000 000 000 000 000 000 000 000 000 000 000 000 000 000 000 000 000 
-116 -96 -67 125 -77 042 -106 -53 000 -83 -45 006 073 -99 064 -26 029 126 -19 095 072 034 116 -82 -92 085 083 081 031 037 -10 -07 000 000 000 000 000 000 000 000 000 000 000 000 000 000 000 000 000 000 000 000 000 000 000 000 000 000 000 000 000 000 000 000 
053 033 -82 088 -91 126 112 -05 -127 088 -108 059 044 -70 -46 120 054 120 -57 -93 -77 -49 125 -94 -97 005 -36 095 -32 -08 -11 -64 000 000 000 000 000 000 000 000 000 000 000 000 000 000 000 000 000 000 000 000 000 000 000 000 000 000 000 000 000 000 000 000 
-114 031 084 126 -71 -119 -30 -67 126 094 113 -79 102 -94 088 -67 -112 123 004 -60 074 103 -98 -24 044 070 071 081 052 -30 035 079 000 000 000 000 000 000 000 000 000 000 000 000 000 000 000 000 000 000 000 000 000 000 000 000 000 000 000 000 000 000 000 000 
079 089 -23 -79 093 -49 -18 074 122 063 -107 084 049 096 -67 123 092 -03 -52 -74 025 -64 -128 -96 -55 -51 -71 076 -17 -78 013 -63 000 000 000 000 000 000 000 000 000 000 000 000 000 000 000 000 000 000 000 000 000 000 000 000 000 000 000 000 000 000 000 000 
124 -99 070 -127 -05 -43 122 036 122 086 -114 -12 -31 095 044 122 -107 -87 -33 -82 -59 -22 -51 082 038 -19 082 -21 -46 017 008 -56 000 000 000 000 000 000 000 000 000 000 000 000 000 000 000 000 000 000 000 000 000 000 000 000 000 000 000 000 000 000 000 000 
-122 -51 -37 -119 051 121 063 067 -124 091 -107 087 -61 089 -72 -119 -79 121 -57 062 -82 -73 111 107 -44 084 -82 -103 -38 039 -45 -69 000 000 000 000 000 000 000 000 000 000 000 000 000 000 000 000 000 000 000 000 000 000 000 000 000 000 000 000 000 000 000 000 
-53 -53 -66 -125 -103 -128 126 057 -126 020 -76 077 -101 -25 038 -116 109 077 043 -87 -66 -16 119 -76 -56 -47 -71 056 -56 -44 -17 028 000 000 000 000 000 000 000 000 000 000 000 000 000 000 000 000 000 000 000 000 000 000 000 000 000 000 000 000 000 000 000 000 
-123 -09 -60 -116 -89 102 -124 -88 -105 065 -113 -90 -34 -60 080 -90 112 -86 -17 -43 070 -65 120 095 -04 043 -87 -103 000 004 061 093 000 000 000 000 000 000 000 000 000 000 000 000 000 000 000 000 000 000 000 000 000 000 000 000 000 000 000 000 000 000 000 000 
125 -60 038 063 038 -120 117 -78 111 -104 -128 -23 -09 -97 -20 125 -72 126 004 037 -79 057 116 049 -24 053 020 -46 -08 036 050 026 000 000 000 000 000 000 000 000 000 000 000 000 000 000 000 000 000 000 000 000 000 000 000 000 000 000 000 000 000 000 000 000 
-121 008 056 104 -64 -128 -120 -46 -128 -96 -128 -66 066 -64 046 -114 -45 -127 -13 088 -83 127 115 097 075 043 -90 -99 045 044 -73 -26 000 000 000 000 000 000 000 000 000 000 000 000 000 000 000 000 000 000 000 000 000 000 000 000 000 000 000 000 000 000 000 000 
098 066 031 -113 100 108 126 -53 -127 083 117 -100 -65 -91 -67 -98 079 037 -61 022 053 056 -125 -38 -73 -98 -68 -16 087 -51 -52 115 000 000 000 000 000 000 000 000 000 000 000 000 000 000 000 000 000 000 000 000 000 000 000 000 000 000 000 000 000 000 000 000 
-11 026 -56 123 -101 -127 126 029 -128 -74 -128 -08 -101 -60 019 121 -14 -124 -02 076 -71 067 124 -46 059 -98 -75 078 -33 068 064 012 000 000 000 000 000 000 000 000 000 000 000 000 000 000 000 000 000 000 000 000 000 000 000 000 000 000 000 000 000 000 000 000 
097 -34 027 -54 -110 124 -128 -59 112 050 122 -99 -66 068 -82 032 116 119 -86 070 059 -33 108 -101 -88 048 -19 -81 079 072 -66 -33 000 000 000 000 000 000 000 000 000 000 000 000 000 000 000 000 000 000 000 000 000 000 000 000 000 000 000 000 000 000 000 000 
-127 080 094 -127 -96 102 -115 -71 -37 082 -127 -67 -82 -90 053 125 089 125 -73 -101 047 071 -128 -107 -44 073 061 -100 -51 001 054 113 000 000 000 000 000 000 000 000 000 000 000 000 000 000 000 000 000 000 000 000 000 000 000 000 000 000 000 000 000 000 000 000 
-125 095 069 -55 014 104 -128 -25 062 044 124 068 081 088 100 124 -04 -127 -34 -77 055 -96 126 104 -59 088 080 -100 -17 -65 -26 071 000 000 000 000 000 000 000 000 000 000 000 000 000 000 000 000 000 000 000 000 000 000 000 000 000 000 000 000 000 000 000 000 
125 000 035 126 -93 117 -126 014 -118 089 107 086 -102 -92 100 122 -108 -108 049 014 -20 092 -27 -26 021 022 009 -70 073 -78 -21 105 000 000 000 000 000 000 000 000 000 000 000 000 000 000 000 000 000 000 000 000 000 000 000 000 000 000 000 000 000 000 000 000 
029 -09 040 -74 038 125 116 -65 110 093 122 -38 -107 073 042 -43 033 -19 006 -86 -27 091 112 031 064 -85 064 068 072 -89 059 -88 000 000 000 000 000 000 000 000 000 000 000 000 000 000 000 000 000 000 000 000 000 000 000 000 000 000 000 000 000 000 000 000 
058 -84 036 110 092 117 -95 -88 124 -72 -127 -101 -97 -25 008 125 034 -90 -32 -91 048 -72 116 -78 058 046 -86 050 -52 -80 026 -111 000 000 000 000 000 000 000 000 000 000 000 000 000 000 000 000 000 000 000 000 000 000 000 000 000 000 000 000 000 000 000 000 
-128 -23 -10 -120 -101 126 125 -77 -128 071 -128 -17 073 094 070 -118 113 -86 -58 -63 045 068 -110 -62 -22 052 028 -48 -34 091 -34 -06 000 000 000 000 000 000 000 000 000 000 000 000 000 000 000 000 000 000 000 000 000 000 000 000 000 000 000 000 000 000 000 000 
006 089 -66 -93 111 126 -78 024 055 -15 125 078 -106 -101 055 067 089 -63 -06 043 054 -54 -76 -89 079 007 055 055 -11 -84 -49 085 000 000 000 000 000 000 000 000 000 000 000 000 000 000 000 000 000 000 000 000 000 000 000 000 000 000 000 000 000 000 000 000 
-127 -77 -60 -97 091 110 126 044 124 -58 -126 068 013 -74 005 -108 -104 107 038 049 043 -70 019 -56 -24 031 -90 -10 049 -45 075 013 000 000 000 000 000 000 000 000 000 000 000 000 000 000 000 000 000 000 000 000 000 000 000 000 000 000 000 000 000 000 000 000 
114 -46 037 -104 -31 121 -113 -88 -100 -100 123 -100 -09 062 -97 -126 -119 123 -31 006 015 048 068 095 -75 033 -39 -76 -26 071 -03 099 000 000 000 000 000 000 000 000 000 000 000 000 000 000 000 000 000 000 000 000 000 000 000 000 000 000 000 000 000 000 000 000 
-109 -96 029 -114 -78 010 126 -17 -125 069 126 -98 095 -96 043 -88 109 090 -01 039 -69 091 068 075 088 -58 041 076 094 042 020 011 000 000 000 000 000 000 000 000 000 000 000 000 000 000 000 000 000 000 000 000 000 000 000 000 000 000 000 000 000 000 000 000 
125 -43 005 -03 -25 124 -106 010 -121 -66 -89 -82 -95 014 -07 115 -52 -52 053 -82 063 -68 -116 026 065 -76 -56 -15 -72 -29 -50 -37 000 000 000 000 000 000 000 000 000 000 000 000 000 000 000 000 000 000 000 000 000 000 000 000 000 000 000 000 000 000 000 000 
124 085 023 116 -77 126 125 -79 112 047 -128 -16 101 -88 -26 -126 -03 097 -66 -07 -91 015 -121 038 022 -03 -23 039 087 038 -02 -29 000 000 000 000 000 000 000 000 000 000 000 000 000 000 000 000 000 000 000 000 000 000 000 000 000 000 000 000 000 000 000 000 
122 035 -31 -87 017 103 -75 -05 -80 079 092 021 -41 -17 -24 024 -69 121 -05 045 037 080 -126 -81 026 -87 004 -12 -70 044 -53 -103 000 000 000 000 000 000 000 000 000 000 000 000 000 000 000 000 000 000 000 000 000 000 000 000 000 000 000 000 000 000 000 000 
-126 087 -94 092 104 125 126 009 081 -39 -127 -63 070 007 -58 -20 -108 122 -55 -96 085 005 121 -61 085 051 068 068 088 087 066 066 000 000 000 000 000 000 000 000 000 000 000 000 000 000 000 000 000 000 000 000 000 000 000 000 000 000 000 000 000 000 000 000 
109 -90 041 -77 101 092 126 -66 083 -64 -110 087 -52 071 080 -124 065 126 -71 088 035 042 -94 -36 -13 016 085 -70 -72 -68 006 069 000 000 000 000 000 000 000 000 000 000 000 000 000 000 000 000 000 000 000 000 000 000 000 000 000 000 000 000 000 000 000 000 
-127 -95 -73 125 108 105 126 -89 -119 -14 089 030 039 017 007 097 -112 -124 024 -55 -27 -49 126 -30 042 -80 030 -20 -34 -73 033 -74 000 000 000 000 000 000 000 000 000 000 000 000 000 000 000 000 000 000 000 000 000 000 000 000 000 000 000 000 000 000 000 000 
115 -05 014 125 -37 -127 080 -68 117 -67 121 031 094 065 -23 -127 013 126 -44 013 008 -90 126 -76 007 -36 -24 078 -43 -61 -12 101 000 000 000 000 000 000 000 000 000 000 000 000 000 000 000 000 000 000 000 000 000 000 000 000 000 000 000 000 000 000 000 000 
098 -06 016 074 088 -93 -119 -32 -17 -04 -120 052 -75 -90 -73 123 -72 -90 -88 -94 063 -82 -72 -31 -98 043 -80 -55 -65 066 059 -46 000 000 000 000 000 000 000 000 000 000 000 000 000 000 000 000 000 000 000 000 000 000 000 000 000 000 000 000 000 000 000 000 
123 047 -03 -107 -101 042 115 -10 126 -37 125 -30 -98 -99 -93 091 -63 019 064 -05 067 102 -125 -21 -88 -86 001 -104 021 -72 -71 -103 000 000 000 000 000 000 000 000 000 000 000 000 000 000 000 000 000 000 000 000 000 000 000 000 000 000 000 000 000 000 000 000 
008 087 -35 112 -81 -128 122 016 078 -105 -128 001 -03 -10 034 -35 063 119 -77 077 046 -75 -112 -07 -105 -25 012 -18 082 085 -10 110 000 000 000 000 000 000 000 000 000 000 000 000 000 000 000 000 000 000 000 000 000 000 000 000 000 000 000 000 000 000 000 000 
-51 055 037 -70 108 -101 -128 025 -121 070 126 -67 059 059 -26 -102 -122 124 048 -79 074 024 080 002 -20 066 -58 -87 002 -87 -60 -89 000 000 000 000 000 000 000 000 000 000 000 000 000 000 000 000 000 000 000 000 000 000 000 000 000 000 000 000 000 000 000 000 
-90 080 040 -127 -77 108 -104 080 -119 092 -105 -84 042 -51 086 -105 084 118 -07 -63 -61 072 111 000 -96 -89 006 -105 -69 064 -31 045 000 000 000 000 000 000 000 000 000 000 000 000 000 000 000 000 000 000 000 000 000 000 000 000 000 000 000 000 000 000 000 000 
124 -73 -28 110 -78 -128 113 -28 075 -95 124 -50 -53 -73 -64 070 -55 125 -14 -39 -84 042 121 082 -101 -67 053 -62 039 -17 013 068 000 000 000 000 000 000 000 000 000 000 000 000 000 000 000 000 000 000 000 000 000 000 000 000 000 000 000 000 000 000 000 000 
-112 035 066 085 -47 093 -128 037 -111 102 -96 048 -106 -22 020 105 090 120 -17 -16 -77 -66 126 039 -87 -98 -81 091 093 -30 -28 111 000 000 000 000 000 000 000 000 000 000 000 000 000 000 000 000 000 000 000 000 000 000 000 000 000 000 000 000 000 000 000 000 
-127 091 -86 -122 103 125 -128 034 124 -88 -106 -91 -103 -101 096 003 -26 125 -38 -84 076 -101 103 -110 -98 068 078 -42 054 017 042 040 000 000 000 000 000 000 000 000 000 000 000 000 000 000 000 000 000 000 000 000 000 000 000 000 000 000 000 000 000 000 000 000 
124 009 -26 -117 113 -117 -101 059 -123 -94 125 038 082 -31 -20 106 099 -128 -26 -23 -55 -26 -128 082 031 014 029 -106 047 -40 -58 104 000 000 000 000 000 000 000 000 000 000 000 000 000 000 000 000 000 000 000 000 000 000 000 000 000 000 000 000 000 000 000 000 
122 -96 063 098 103 -121 -125 063 097 008 111 -99 084 -80 -88 110 117 126 042 057 -89 -60 -119 -76 -27 002 -23 078 -54 028 -52 079 000 000 000 000 000 000 000 000 000 000 000 000 000 000 000 000 000 000 000 000 000 000 000 000 000 000 000 000 000 000 000 000 
098 -87 -43 002 042 -128 -128 -03 -119 031 -126 -81 -71 065 019 114 066 -125 -33 -37 034 066 -116 090 049 034 -37 000 003 -70 -42 -73 000 000 000 000 000 000 000 000 000 000 000 000 000 000 000 000 000 000 000 000 000 000 000 000 000 000 000 000 000 000 000 000 
114 013 064 -100 098 -124 -124 -17 -118 080 -105 -06 100 072 037 -70 115 -105 068 -91 051 010 119 -106 051 -35 035 072 -09 -82 -32 -78 000 000 000 000 000 000 000 000 000 000 000 000 000 000 000 000 000 000 000 000 000 000 000 000 000 000 000 000 000 000 000 000 
-01 -96 -90 -127 100 042 -128 -85 078 -42 -125 -83 -103 -83 -43 -124 117 -96 -42 -37 -67 -06 -127 092 002 -81 -76 -07 -10 049 -20 -66 000 000 000 000 000 000 000 000 000 000 000 000 000 000 000 000 000 000 000 000 000 000 000 000 000 000 000 000 000 000 000 000 
005 -13 -84 -01 -70 -109 126 019 126 092 121 -11 101 -40 069 -105 100 -127 014 -90 -57 010 -126 -108 -63 087 008 073 074 060 008 -104 000 000 000 000 000 000 000 000 000 000 000 000 000 000 000 000 000 000 000 000 000 000 000 000 000 000 000 000 000 000 000 000 
-128 -78 047 072 086 -113 123 051 -77 -100 113 -82 -74 039 -92 -126 043 126 077 -02 -43 101 122 066 -71 075 -49 028 069 -11 029 094 000 000 000 000 000 000 000 000 000 000 000 000 000 000 000 000 000 000 000 000 000 000 000 000 000 000 000 000 000 000 000 000 
110 031 -96 -125 095 -127 125 -80 -127 074 085 068 -59 -22 -84 -127 -22 123 -71 -74 -22 -107 125 -95 097 -07 -69 -14 013 -74 -65 090 000 000 000 000 000 000 000 000 000 000 000 000 000 000 000 000 000 000 000 000 000 000 000 000 000 000 000 000 000 000 000 000 
098 033 017 -125 077 -121 126 060 126 053 -06 049 -102 042 031 125 094 116 031 -88 -21 084 115 -57 -105 -45 046 081 -43 -69 059 041 000 000 000 000 000 000 000 000 000 000 000 000 000 000 000 000 000 000 000 000 000 000 000 000 000 000 000 000 000 000 000 000 
120 -73 007 043 -111 119 116 -75 068 050 018 058 090 -43 -55 124 048 -95 038 -57 011 -04 055 008 -59 087 060 -96 -58 017 -03 -79 000 000 000 000 000 000 000 000 000 000 000 000 000 000 000 000 000 000 000 000 000 000 000 000 000 000 000 000 000 000 000 000 
-128 071 075 -55 -89 118 -15 085 -128 -80 -110 -06 -104 -88 077 -126 106 126 065 -35 011 -88 108 -89 095 034 078 062 -05 -75 038 087 000 000 000 000 000 000 000 000 000 000 000 000 000 000 000 000 000 000 000 000 000 000 000 000 000 000 000 000 000 000 000 000 
116 074 -43 094 -100 121 122 -19 121 043 -86 078 033 -95 028 -124 -61 -123 043 -94 -12 -59 -13 068 027 029 035 082 -70 -48 -60 102 000 000 000 000 000 000 000 000 000 000 000 000 000 000 000 000 000 000 000 000 000 000 000 000 000 000 000 000 000 000 000 000 
122 029 095 124 -52 084 126 -02 111 -15 053 -70 -69 078 066 -127 118 126 -79 -81 014 -31 -71 -106 097 -84 -47 -99 -04 -44 046 -64 000 000 000 000 000 000 000 000 000 000 000 000 000 000 000 000 000 000 000 000 000 000 000 000 000 000 000 000 000 000 000 000 
124 -37 -57 105 108 -127 111 -76 -128 -24 -128 090 -85 -99 093 122 -40 -126 030 025 -01 -86 -70 -99 -101 007 -82 086 -11 -55 045 -47 000 000 000 000 000 000 000 000 000 000 000 000 000 000 000 000 000 000 000 000 000 000 000 000 000 000 000 000 000 000 000 000 
-128 048 049 097 092 -125 -119 -50 -126 086 121 023 079 -91 004 123 -72 126 -84 092 035 109 -127 -101 -62 087 073 -96 070 068 027 -97 000 000 000 000 000 000 000 000 000 000 000 000 000 000 000 000 000 000 000 000 000 000 000 000 000 000 000 000 000 000 000 000 
-125 005 012 -63 034 -122 093 -31 039 072 023 069 084 -64 -75 -113 -114 -01 012 034 -76 032 125 -110 042 -11 -54 -60 018 -18 -48 -07 000 000 000 000 000 000 000 000 000 000 000 000 000 000 000 000 000 000 000 000 000 000 000 000 000 000 000 000 000 000 000 000 
-128 -75 -59 -118 054 -120 126 001 126 103 -127 057 -44 029 -36 014 112 119 -24 -101 -88 106 -128 109 -105 088 078 081 -05 067 -62 097 000 000 000 000 000 000 000 000 000 000 000 000 000 000 000 000 000 000 000 000 000 000 000 000 000 000 000 000 000 000 000 000 
-35 071 -60 118 089 065 -25 036 126 102 032 -80 100 093 064 -120 -53 -17 057 060 077 -70 122 -107 104 -03 020 -83 -14 -90 064 -37 000 000 000 000 000 000 000 000 000 000 000 000 000 000 000 000 000 000 000 000 000 000 000 000 000 000 000 000 000 000 000 000 
125 -61 -84 -70 109 126 -114 -05 -128 115 -73 004 -99 -58 047 122 -79 126 023 -34 001 111 -68 -96 016 -47 -30 092 097 -86 067 045 000 000 000 000 000 000 000 000 000 000 000 000 000 000 000 000 000 000 000 000 000 000 000 000 000 000 000 000 000 000 000 000 
-128 -92 047 124 -112 -122 121 -86 014 -90 047 -95 -26 071 -21 -111 062 126 014 -59 -35 -52 -115 -34 004 -89 -79 -31 053 087 -09 -101 000 000 000 000 000 000 000 000 000 000 000 000 000 000 000 000 000 000 000 000 000 000 000 000 000 000 000 000 000 000 000 000 
-126 039 046 072 082 125 124 -70 -53 073 062 026 -26 -98 -32 -114 046 084 -90 041 037 099 -108 -65 -39 010 -23 029 082 023 047 -61 000 000 000 000 000 000 000 000 000 000 000 000 000 000 000 000 000 000 000 000 000 000 000 000 000 000 000 000 000 000 000 000 
105 -31 072 -125 071 -120 -123 -24 -122 009 -121 -68 022 -53 -63 114 -28 068 046 045 -19 -102 -128 -113 073 049 068 050 -07 007 072 110 000 000 000 000 000 000 000 000 000 000 000 000 000 000 000 000 000 000 000 000 000 000 000 000 000 000 000 000 000 000 000 000 
085 081 -74 125 012 -91 -109 -05 125 -60 -128 -36 042 -92 -79 -124 -93 -127 -55 002 066 -44 126 -39 010 085 -60 -10 032 058 -09 -61 000 000 000 000 000 000 000 000 000 000 000 000 000 000 000 000 000 000 000 000 000 000 000 000 000 000 000 000 000 000 000 000 
123 014 085 125 -101 -99 091 -77 037 092 122 -91 100 -47 020 120 108 -29 066 096 -48 -94 109 -49 -92 -56 053 -68 -84 081 058 -60 000 000 000 000 000 000 000 000 000 000 000 000 000 000 000 000 000 000 000 000 000 000 000 000 000 000 000 000 000 000 000 000 
-115 022 032 076 -44 -116 126 035 113 -97 096 -11 095 030 023 125 -118 -112 049 074 069 -80 073 110 063 -14 -54 070 -25 -46 065 -106 000 000 000 000 000 000 000 000 000 000 000 000 000 000 000 000 000 000 000 000 000 000 000 000 000 000 000 000 000 000 000 000 
-128 077 025 115 -83 079 124 027 -95 -21 -106 069 -21 044 079 -121 -74 -118 -05 -80 -26 -67 126 -110 101 -05 -93 002 -36 006 048 -09 000 000 000 000 000 000 000 000 000 000 000 000 000 000 000 000 000 000 000 000 000 000 000 000 000 000 000 000 000 000 000 000 
004 -72 005 -80 -77 -106 120 044 -97 -03 -128 021 -89 -94 -29 -93 097 -128 -62 -91 -51 089 -124 011 098 011 058 084 072 026 070 000 000 000 000 000 000 000 000 000 000 000 000 000 000 000 000 000 000 000 000 000 000 000 000 000 000 000 000 000 000 000 000 000 
-126 -81 074 125 -72 -66 126 -59 -73 -08 -122 030 102 086 067 -116 101 -102 -25 -94 -83 007 -52 -99 058 -87 034 094 070 -48 -26 -34 000 000 000 000 000 000 000 000 000 000 000 000 000 000 000 000 000 000 000 000 000 000 000 000 000 000 000 000 000 000 000 000 
057 -60 -09 098 026 -90 -126 -05 -117 -109 080 -84 -42 -85 -10 -125 -117 071 008 -76 -51 061 -116 067 -100 -28 -50 050 084 -63 -26 -04 000 000 000 000 000 000 000 000 000 000 000 000 000 000 000 000 000 000 000 000 000 000 000 000 000 000 000 000 000 000 000 000 
126 047 018 -101 109 -122 -128 -02 -128 028 120 089 097 075 051 106 113 -11 -38 044 063 -94 125 -78 067 -23 060 -06 -22 -59 -21 083 000 000 000 000 000 000 000 000 000 000 000 000 000 000 000 000 000 000 000 000 000 000 000 000 000 000 000 000 000 000 000 000 
-124 051 012 112 -15 025 122 044 -49 -45 124 -19 -103 005 051 -116 -58 062 -68 -94 064 -71 -128 -104 042 029 071 053 -39 086 049 -03 000 000 000 000 000 000 000 000 000 000 000 000 000 000 000 000 000 000 000 000 000 000 000 000 000 000 000 000 000 000 000 000 
126 035 -95 -69 -98 -127 -125 -46 -82 -83 124 082 095 -77 -78 -103 -120 -122 -64 095 071 -59 -125 -48 -104 019 043 -11 -32 087 -19 100 000 000 000 000 000 000 000 000 000 000 000 000 000 000 000 000 000 000 000 000 000 000 000 000 000 000 000 000 000 000 000 000 
-126 -73 079 -124 -108 -61 054 -73 126 -53 -124 -15 082 -82 039 016 -06 -89 044 073 -81 100 -128 -102 -51 -45 077 -47 081 085 000 106 000 000 000 000 000 000 000 000 000 000 000 000 000 000 000 000 000 000 000 000 000 000 000 000 000 000 000 000 000 000 000 000 
-82 -13 -07 113 -110 -125 -108 077 096 085 -119 -64 -15 -55 019 107 113 -127 045 054 -26 104 -89 106 -103 -49 077 094 -89 -80 033 -105 000 000 000 000 000 000 000 000 000 000 000 000 000 000 000 000 000 000 000 000 000 000 000 000 000 000 000 000 000 000 000 000 
-125 -90 050 113 -108 -123 -49 075 124 104 -16 011 -90 089 039 066 119 -123 048 -06 -71 078 126 096 -62 -35 -84 -42 -82 -19 053 074 000 000 000 000 000 000 000 000 000 000 000 000 000 000 000 000 000 000 000 000 000 000 000 000 000 000 000 000 000 000 000 000 
-128 000 -90 -116 -85 -128 126 -58 051 -33 081 001 -89 -07 001 -126 -45 -117 -48 -44 012 046 059 -103 -49 -71 -90 070 060 -43 -70 083 000 000 000 000 000 000 000 000 000 000 000 000 000 000 000 000 000 000 000 000 000 000 000 000 000 000 000 000 000 000 000 000 
123 040 008 122 -102 -123 045 061 117 -16 -126 -89 -07 -61 087 -118 -106 125 -27 -55 086 092 -127 029 -83 000 064 099 020 -64 022 -23 000 000 000 000 000 000 000 000 000 000 000 000 000 000 000 000 000 000 000 000 000 000 000 000 000 000 000 000 000 000 000 000 
119 -84 -88 -67 081 112 124 025 102 074 -122 -65 078 089 071 020 -62 116 -82 -52 -57 052 126 007 050 044 -87 -81 -33 085 007 053 000 000 000 000 000 000 000 000 000 000 000 000 000 000 000 000 000 000 000 000 000 000 000 000 000 000 000 000 000 000 000 000 
004 -49 -52 -122 032 -128 126 -26 -128 -09 -128 -04 -41 -04 077 -57 114 -121 037 -93 072 084 125 -19 -49 -81 -23 -89 -73 042 052 -07 000 000 000 000 000 000 000 000 000 000 000 000 000 000 000 000 000 000 000 000 000 000 000 000 000 000 000 000 000 000 000 000 
